-0.0141434111, 0.0586657412, -0.0717222765, 0.1664977074, 0.0790304244, 0.0050427299, 0.0900647044, -0.2031313628, -0.1887745112, 0.0064046653, -0.1487474293, -0.1734541804, -0.1835916191, -0.0525430143, 0.0229120106, -0.0723404884, -0.0270402804, 0.2095713615, -0.1500496715, -0.0506339669, -0.2206262797, -0.0959840938, -0.0840712637, -0.0636946335, 0.0396867953, -0.1132488996, -0.0092053059, -0.1229897216, -0.0651391745, -0.0656356961, -0.1341483891, -0.1371355653, 0.1052211225, -0.1793640107, 0.0054916441, 0.2046478391, -0.1297116429, 0.0079155015, 0.1765708327, 0.1845231205, -0.0260270592, 0.0328857563, 0.1449586749, -0.1019541398, -0.1862694621, 0.0741700456, -0.1541375071, -0.1946501285, -0.1099396124, -0.1996711195, 0.1295476109, 0.0752847716, -0.1696958691, 0.2116420865, -0.1897294819, -0.0515732691, -0.1153595224, -0.0425677523, 0.1341718435, -0.0082870591, 0.0714693367, 0.0499772429, -0.1525421739, 0.0428029373, 0.1396110505, 0.2092375755, 0.1753842682, 0.0242248457, -0.0696806386, -0.1612442732, -0.0915667191, -0.0376044810, -0.1680674106, -0.0829557031, 0.0799490437, 0.0816338062, 0.1333348453, -0.2153647095, 0.1298258752, 0.2002546191, -0.0240792241, -0.1768423170, 0.1855405271, 0.0344429724, 0.1113431305, -0.1554815620, -0.1989701688, 0.2168647200, -0.1349517405, -0.1673161387, 0.0781318769, 0.1769777685, 0.2144107670, 0.1657004505, 0.0599294230, -0.1560021788, -0.1899013966, 0.0084153544, -0.1818508506, -0.2005843967, 0.1115100756, 0.1901482344, 0.2229664177, 0.1210007295, 0.1663336754, 0.1518099308, -0.0718180537, -0.1741628349, 0.0414978601, 0.0327623114, -0.1754580289, 0.0231667086, 0.0749848410, 0.1046121418, 0.1351353675, 0.0131751047, 0.2013340443, 0.1005733013, -0.1755636036, 0.1463265568, 0.1884129792, 0.0159303769, 0.0000326536, 0.0726585984, -0.2104700804, -0.1414897144, 0.1152012125, -0.0283012688, -0.0951686874, 0.1562210172, 0.0658421218, 0.0800221860, -0.0677934214, -0.0251064394, 0.1629309058, 0.1373421401, 0.1548312604, -0.0135567384, -0.0943406746, -0.1681700051, 0.0375658832, -0.1254602224, -0.1493864954, 0.0730253831, 0.1081245765, 0.0094385454, -0.2221658826, 0.0597792417, 0.0435876101, -0.0836171508, -0.1531589329, 0.1636483967, -0.0996190682, 0.2031624168, -0.1414569467, 0.1996248066, -0.1538350731, -0.0939681530, -0.2176301926, -0.1953071803, -0.0989009067, -0.1348236799, -0.1723897010, -0.1166202724, 0.1236414388, 0.1420186460, -0.0307064671, 0.1709916443, -0.2007717192, -0.0117972558, 0.0916264802, 0.2180941999, 0.0756537989, -0.1216343194, -0.0234021619, -0.0462178364, 0.0466389507, 0.0304154903, -0.1797648370, -0.2043534070, 0.2034009546, 0.2006002814, 0.0515441075, 0.1171008274, -0.0234410521, 0.0162218325, -0.0743422434, 0.0999371856, 0.0064494475, 0.1416491419, -0.0131561793, 0.1414210498, -0.0540021658, 0.0887197778, 0.0611145459, 0.0966497213, 0.1700695902, 0.0751786605, 0.1888508797, -0.0120769041, 0.0963532031, 0.0543713495, 0.1025490984, -0.1820404828, -0.1371113509, 0.0328925811, 0.0861011147, 0.0052310815, 0.0331542902, 0.1419330835, -0.0938357264, -0.0306847952, -0.2030322552, -0.1035178006, 0.1963745952, 0.0226026420, -0.0855771676, -0.1002753153, -0.1707163453, -0.0057893917, -0.1865714490, 0.0418385230, 0.0754799768, 0.1040789112, 0.0753797218, -0.0913191885, 0.0187340025, -0.0176396389, -0.2117909342, 0.1328019351, 0.0395972319, -0.0732586533, -0.0133192334, 0.1087847129, 0.2183764577, 0.0721150264, -0.1536025554, 0.0731449872, -0.1554307044, 0.1576814204, 0.0538855195, -0.0435666852, 0.0430417210, -0.1374367476, -0.0253600180, -0.1246854439, -0.1796167046, 0.1749506742, 0.1719848514, 0.1034950167, 0.0342664048, 0.1140767261, 0.1284653544, 0.0217310432, -0.1885855794, 0.1387267113, -0.0704415143, -0.0435533039, -0.2073236257, -0.1287485212, 0.1053537130, 0.0768968239, -0.0850476399, 0.1293303818, -0.0662719011, -0.1725453138, 0.1229127944, 0.1226640642, 0.0705534145, 0.1931204796, 0.0247483961, -0.0583863854, -0.1855196804, 0.1059169769, -0.1617303342, 0.0359824114, 0.1002410054, -0.0428758152, -0.1869565696, 0.0557712726, 0.2038090825, -0.0829389170, 0.0035105429, 0.0175495949, -0.0675477907, 0.0582131483, 0.1415861845, -0.0583665520, 0.2194865495, 0.1398912519, 0.0797315538, 0.1919576079, -0.1352517754, 0.1059725806, 0.0288342834, -0.1554455757, -0.0908126682, -0.0203126781, -0.0816439092, -0.0122134360, 0.1142590269, 0.0692150444, -0.0531584769, -0.1530471444, -0.1041221768, 0.1729883999, 0.1274228543, 0.1803727299, -0.0110503547, -0.0723598674, -0.1454511434, -0.1383327097, 0.1212984771, 0.1449561864, 0.2040724754, 0.1559101343, 0.0792731792, 0.0249174759, -0.1939417571, 0.1102503091, -0.1264071912, -0.0948293284, 0.1642268002, -0.0754014179, 0.0447920896, -0.1482849121, 0.0574454032, 0.0031667869, -0.1935615242, 0.0028743439, -0.1103486493, -0.0665020496, 0.1902456582, -0.1325299293, -0.1180508435, 0.1483138651, 0.0407168902, 0.1541086137, -0.0830901340, -0.2066147923, 0.0922401249, 0.0132701863, -0.2012738585, 0.1107405126, -0.1449866593, 0.1103065833, 0.1475888789, 0.1396586001, -0.1632090509, 0.0960963443, -0.2051591575, -0.1927710474, -0.0656680316, 0.0612478554, 0.1230057701, 0.2039702684, 0.1747968197, -0.0386996977, 0.1242196038, 0.1587149650, 0.1380161196, 0.0653169230, -0.0452134386, -0.0837865248, -0.0033320808, -0.1106979176, -0.0346855149, 0.1370661557, -0.2148751467, 0.1843761951, 0.1638837159, 0.1401735991, -0.2134755701, -0.0003863522, 0.1151358783, -0.1129978299, -0.0213408265, 0.0996176302, 0.1231049076, -0.1808425933, -0.1681069136, 0.0530439354, 0.1897028536, -0.0837661549, 0.1557896286, 0.1890948862, -0.1940781474, 0.1373570412, 0.1448537260, -0.0845872685, 0.1575669050, -0.0672011524, 0.0175403450, 0.0047093700, 0.0267880615, -0.0803406462, -0.1117009297, 0.1492916346, 0.1313284934, 0.0657475218