//Numpy array shape [5, 20, 100]
//Min -0.099999241531
//Max 0.099983334541
//Number of zeros 0

#ifndef ATTENTION_OUTPUT_WEIGHT4_H_
#define ATTENTION_OUTPUT_WEIGHT4_H_

#ifndef __SYNTHESIS__
mha_attention_output_weight_t attention_output_weight4[10000];
#else
mha_attention_output_weight_t attention_output_weight4[10000] = {0.0762598440, -0.0769437775, 0.0639232546, 0.0746659040, 0.0575455427, -0.0394306444, 0.0181968454, 0.0431108959, 0.0322043076, -0.0688546449, -0.0148448823, -0.0372076146, 0.0754921213, -0.0507504232, 0.0933860317, -0.0599409603, 0.0235330351, 0.0845469758, -0.0430348292, 0.0283113476, 0.0006200314, -0.0055676936, 0.0470306389, 0.0634290129, 0.0799381882, 0.0172307491, 0.0143857840, -0.0012729407, 0.0534045696, 0.0048660277, -0.0243373271, -0.0589086898, -0.0896873623, -0.0017673851, -0.0434674397, -0.0966527089, -0.0066606523, 0.0862489268, 0.0778926015, -0.0646329448, 0.0938442498, -0.0754604265, 0.0706216469, 0.0152235869, 0.0604975708, -0.0003153563, 0.0075906515, -0.0715182051, -0.0873897597, -0.0523157977, 0.0767569691, 0.0926372558, 0.0547140725, 0.0956063196, 0.0498925559, -0.0726873800, -0.0369744673, -0.0476471297, -0.0760035664, 0.0303776506, 0.0575700663, 0.0356708430, 0.0311267134, 0.0599421039, -0.0046965480, 0.0843705460, -0.0448067561, 0.0110407351, 0.0013045669, 0.0562325828, 0.0023545027, 0.0195219871, -0.0272293221, 0.0264023077, -0.0441806801, -0.0395818837, -0.0203120466, 0.0053465487, 0.0472181924, -0.0150756603, 0.0785508752, 0.0785829648, -0.0286161546, 0.0216182955, 0.0862528309, 0.0190744996, 0.0579622053, 0.0868432149, -0.0528118014, -0.0526049733, -0.0519929789, -0.0662407055, -0.0585643537, 0.0494164489, 0.0740374327, -0.0536074899, -0.0587689057, -0.0835466161, 0.0212142356, 0.0048883795, 0.0679516569, -0.0962024927, -0.0621649735, 0.0611599460, 0.0880964026, 0.0078840135, -0.0842764750, 0.0603720658, -0.0517083183, -0.0825914368, 0.0078653460, -0.0509989262, -0.0382206552, -0.0579999685, -0.0977423191, 0.0104467636, 0.0968404189, -0.0391917117, -0.0605779178, -0.0174348596, 0.0554623865, -0.0187631734, -0.0596030615, 0.0902821422, -0.0564680696, -0.0307127591, 0.0021589638, -0.0301297195, -0.0544059649, -0.0264734030, 0.0031145692, 0.0855235979, -0.0844891816, -0.0167568456, -0.0520785712, 0.0460878387, -0.0172015186, 0.0297702197, 0.0290101524, 0.0932117626, 0.0438741110, 0.0223757159, 0.0964321271, -0.0384516008, -0.0442300700, -0.0420458093, -0.0044040084, 0.0109228492, -0.0737938657, 0.0668936595, 0.0867781788, -0.0811560750, -0.0476056449, 0.0851474181, -0.0008290529, 0.0165011641, 0.0327720419, 0.0239436030, -0.0481796637, -0.0347670093, 0.0112779858, -0.0803397447, 0.0101158386, 0.0238286741, 0.0473367348, 0.0700700656, 0.0846497193, 0.0044451714, -0.0206564311, -0.0480349325, 0.0709172264, -0.0978835374, -0.0887549669, 0.0285305735, 0.0139369247, -0.0517450087, -0.0759286880, -0.0227385163, 0.0033885359, -0.0324110873, -0.0708726197, -0.0658116862, 0.0340777747, -0.0912622958, -0.0758626238, -0.0208299886, -0.0140996575, 0.0145291928, -0.0048775314, 0.0277267825, 0.0435854904, -0.0902777091, 0.0168704987, -0.0034079433, -0.0877755284, 0.0620225333, -0.0236100554, -0.0892027542, 0.0978658125, 0.0729063079, -0.0932919383, 0.0503691435, 0.0323914066, -0.0627027974, -0.0499230511, -0.0338078626, -0.0179031976, 0.0366224051, -0.0286469702, -0.0613232851, -0.0104965447, -0.0788949132, 0.0433775894, 0.0913017541, -0.0086063389, -0.0133960722, -0.0273300298, -0.0288017392, 0.0636451468, 0.0021172047, -0.0908245370, 0.0743643567, -0.0448225252, -0.0644765496, -0.0158828627, -0.0226572752, 0.0036788823, -0.0201282743, -0.0130805373, 0.0453460328, 0.0053385380, 0.0322167985, -0.0530032404, -0.0530173071, -0.0079099536, 0.0410954133, 0.0212875605, -0.0739687681, 0.0888658166, 0.0314066187, 0.0206431039, 0.0064974665, 0.0331802964, 0.0558888316, 0.0433309451, -0.0136035206, 0.0244387519, -0.0226757415, -0.0394128338, 0.0033359290, 0.0757378489, 0.0344906561, -0.0861548558, -0.0647749454, -0.0967322737, 0.0557584278, 0.0143636111, -0.0110623837, 0.0366725698, 0.0552822463, 0.0538465977, 0.0917063877, -0.0631673858, -0.0410415418, -0.0191946160, -0.0860803872, 0.0976024196, 0.0713268518, 0.0401301160, -0.0786005482, -0.0500480048, -0.0421398282, 0.0782769248, 0.0126088979, -0.0828675628, 0.0288292300, 0.0271737576, -0.0217308756, -0.0503125191, -0.0656618625, 0.0692470074, -0.0066994787, -0.0395908356, 0.0035612583, 0.0098370435, 0.0093198661, -0.0397573113, 0.0567598827, 0.0993399993, -0.0691843182, -0.0017846704, -0.0716284290, -0.0679582506, -0.0781763196, -0.0032364370, 0.0490057468, 0.0675920621, -0.0302496310, 0.0745629072, 0.0676116347, 0.0819340497, -0.0284867529, -0.0880014822, -0.0642525777, 0.0145015838, -0.0438314565, -0.0431248061, 0.0047527673, 0.0882257596, 0.0229932666, 0.0174199697, 0.0615327135, -0.0867233649, 0.0520639308, -0.0301091205, -0.0112993596, 0.0496128462, -0.0980077311, -0.0453632250, -0.0275853872, -0.0413733721, -0.0544712543, 0.0275425669, -0.0357398763, 0.0714301020, -0.0872136280, -0.0153084639, -0.0369517207, 0.0308332201, 0.0122203827, 0.0834797621, 0.0614543818, -0.0948564783, -0.0776129887, -0.0900400206, 0.0145308739, -0.0913140178, -0.0123296855, -0.0691669732, -0.0209296346, -0.0799081698, 0.0149800302, -0.0160902496, 0.0234570857, 0.0504491813, 0.0469411388, -0.0772284791, -0.0142786978, 0.0544447564, 0.0910980478, 0.0429211259, 0.0934082493, 0.0268398654, 0.0995990261, 0.0182059892, 0.0421098955, 0.0403331295, -0.0203686003, 0.0168751366, -0.0544326566, 0.0010791898, -0.0182687528, -0.0590030663, -0.0408154018, -0.0119741205, -0.0219263565, 0.0543384552, -0.0785061121, -0.0381193869, 0.0688517243, -0.0884609595, 0.0380871408, 0.0557843223, -0.0921092182, 0.0850299820, -0.0971725211, 0.0196229108, -0.0374489203, 0.0897102281, -0.0117398025, 0.0858308300, 0.0175251123, -0.0073470473, -0.0469779260, -0.0747697726, -0.0023195266, 0.0265750643, -0.0447583795, -0.0347350128, -0.0707922503, -0.0366152786, 0.0676234290, 0.0712147877, 0.0612904318, -0.0362572074, -0.0339064971, 0.0007141352, -0.0929370299, 0.0718340054, 0.0091036437, 0.0462357774, -0.0255508069, -0.0497896187, -0.0859236941, 0.0348475464, -0.0151432995, 0.0644743368, 0.0864012390, 0.0513020754, 0.0210826043, -0.0557793491, -0.0486747734, 0.0971745476, 0.0022012354, -0.0365949534, -0.0585400127, -0.0922995359, 0.0737085864, -0.0805686340, -0.0454723239, 0.0309486277, 0.0541249886, -0.0483878516, 0.0105968835, 0.0902878568, 0.0879609361, -0.0530651323, -0.0792112276, -0.0603355430, 0.0276666880, -0.0348773263, 0.0137896901, 0.0912668481, -0.0100755692, 0.0645495206, -0.0903026462, -0.0746945664, -0.0502100587, 0.0202278141, 0.0940660015, -0.0905514136, 0.0813951641, -0.0023888231, 0.0932188854, -0.0203934554, 0.0482853539, -0.0933614150, 0.0605712645, -0.0556568876, 0.0048747184, -0.0472651012, 0.0952762961, -0.0564834587, 0.0729974508, -0.0332863107, -0.0352712758, 0.0830244794, -0.0259598140, -0.0024520755, 0.0163469203, -0.0793504715, 0.0128601557, -0.0093161827, -0.0738365874, 0.0490363725, -0.0133483885, -0.0309301019, 0.0848330185, -0.0051239370, -0.0329051726, -0.0481177829, 0.0999096856, -0.0882234126, 0.0964007303, -0.0955647230, -0.0599024072, -0.0969932899, 0.0542176962, 0.0105321649, 0.0846845880, -0.0469018333, 0.0049179317, -0.0800026432, -0.0220230576, 0.0437309258, -0.0612331741, -0.0024433017, -0.0505926721, 0.0851950571, -0.0313278697, 0.0174007658, 0.0764519721, 0.0531925671, -0.0093530780, -0.0619399436, -0.0310789943, 0.0637724623, 0.0181872137, -0.0441181064, -0.0457169898, -0.0621010326, 0.0737183839, 0.0871702954, -0.0276460890, -0.0125400666, -0.0410733707, 0.0973418579, -0.0376809351, 0.0922418386, 0.0545614958, -0.0933377147, -0.0419314280, 0.0745611563, -0.0224726554, -0.0942116380, 0.0833821073, 0.0801900029, 0.0637604371, -0.0429992191, 0.0818987489, -0.0061970949, 0.0399586223, 0.0028900863, 0.0040593506, -0.0325206518, 0.0010318517, 0.0558990352, 0.0576462410, 0.0966366306, 0.0998564735, -0.0893427953, 0.0586600415, -0.0577162988, -0.0187347885, -0.0732316151, 0.0234324690, -0.0786168724, 0.0338308588, -0.0914945528, 0.0306454431, -0.0128628016, 0.0645402297, 0.0914003849, -0.0987512022, -0.0605675094, 0.0566795580, 0.0751161724, -0.0584173314, 0.0957213268, -0.0319896825, 0.0393961780, 0.0865736231, 0.0011215687, 0.0941433832, -0.0021692158, -0.0797007605, 0.0360050201, -0.0233438369, -0.0215356350, -0.0751125589, -0.0815592036, 0.0980728790, -0.0832282528, -0.0908535495, -0.0661902800, -0.0387413278, -0.0165358782, -0.0912413970, 0.0417730473, 0.0081328033, 0.0782839805, -0.0642056391, 0.0871156007, 0.0566908717, 0.0419128537, 0.0243874434, -0.0527648218, 0.0271634348, 0.0010311246, 0.0396016613, -0.0358386301, -0.0980276018, 0.0494256392, 0.0299489144, 0.0324880853, 0.0444953702, 0.0109532839, 0.0039114594, -0.0998121127, -0.0935421959, -0.0611318462, 0.0890891775, 0.0644825622, 0.0819702670, 0.0346785784, 0.0857793093, -0.0106406808, -0.0056456923, 0.0519647375, 0.0765660182, 0.0659007356, -0.0914342552, -0.0449427254, -0.0321801901, 0.0509276651, 0.0908504501, 0.0701854154, 0.0606194250, -0.0156901721, -0.0202104449, -0.0485752486, -0.0084248660, 0.0443940163, 0.0975582525, -0.0578745380, 0.0796910673, 0.0616357215, 0.0598302260, 0.0250770934, 0.0833281875, -0.0593341477, 0.0168175101, -0.0047669294, -0.0219208598, 0.0890374556, -0.0048361183, -0.0396168604, 0.0354597233, -0.0563003682, 0.0263660550, 0.0694749951, -0.0907644629, 0.0988188535, 0.0517652035, -0.0943064243, 0.0465314500, -0.0977753624, -0.0428199060, 0.0261742361, 0.0917475596, -0.0860606357, 0.0932739750, -0.0676586404, -0.0024865032, 0.0739426836, -0.0937331244, 0.0304499269, 0.0234371666, -0.0654885545, -0.0327541493, -0.0108313924, -0.0769132301, -0.0676412210, 0.0659322888, -0.0089626554, 0.0900086090, 0.0255370028, 0.0146782398, 0.0065302136, 0.0247661117, -0.0810425654, -0.0281714331, -0.0321083926, 0.0696275756, -0.0114813326, 0.0700925961, -0.0358335637, 0.0163244735, 0.0644733310, -0.0132973194, 0.0285915863, 0.0396061912, 0.0476473831, 0.0290751588, 0.0066748383, 0.0330551043, 0.0253534447, -0.0572435856, 0.0688026696, 0.0662771687, -0.0164055116, -0.0379839204, -0.0966387168, 0.0834612623, 0.0236725453, 0.0510146134, -0.0907167792, 0.0306880232, -0.0412546992, 0.0771768317, 0.0084773181, 0.0745190531, -0.0025581003, -0.0280231964, -0.0081414348, -0.0633657947, -0.0971474051, 0.0736581236, -0.0714119002, -0.0085512642, 0.0866054818, -0.0034490705, -0.0111505752, 0.0407688133, -0.0061239484, 0.0226660259, 0.0029567124, -0.0241831075, 0.0128248101, 0.0634682998, 0.0214838628, 0.0248760227, 0.0657999292, 0.0325741656, 0.0952427909, -0.0880187899, -0.0845332742, -0.0661839619, -0.0390434153, -0.0614086501, -0.0731478259, -0.0620544218, -0.0563640706, 0.0433040373, -0.0181856155, -0.0148664955, -0.0299542546, 0.0606049560, -0.0859323516, 0.0742851719, 0.0336691029, 0.0709383413, -0.0616838448, -0.0357411988, -0.0206681490, -0.0410722010, 0.0110597610, 0.0741072521, 0.0066779018, 0.0398674980, 0.0761219189, -0.0767626166, 0.0226924773, 0.0182127953, 0.0309392940, 0.0950785652, -0.0278261062, 0.0714123026, -0.0373979211, 0.0129105691, -0.0317925587, 0.0887360126, 0.0791394860, 0.0992342755, 0.0047496916, 0.0682337061, 0.0800007805, -0.0551244989, 0.0587940328, -0.0029162646, 0.0422975533, 0.0492397919, -0.0155176399, -0.0212435611, -0.0557136051, 0.0687955022, 0.0754794255, 0.0617462285, -0.0608547330, 0.0903986022, 0.0049809455, 0.0751175508, -0.0300816651, -0.0346234106, -0.0526203997, 0.0554456115, 0.0438786745, -0.0582631603, -0.0007567048, -0.0288971663, -0.0051440122, -0.0821090117, 0.0490117073, 0.0101735359, 0.0519208200, -0.0388885252, 0.0674089715, 0.0918142721, 0.0446293354, 0.0025625348, -0.0500668287, 0.0298036337, -0.0914687440, 0.0006432891, -0.0208520293, -0.0151723502, -0.0631281957, -0.0267469045, -0.0779957399, -0.0370417014, 0.0475458615, 0.0491086505, -0.0801360235, 0.0289704558, -0.0196603667, 0.0012627244, -0.0922769308, -0.0542958640, -0.0424765721, -0.0993807092, -0.0792805180, 0.0619367734, 0.0491505861, 0.0537240878, -0.0841480866, 0.0113012791, 0.0682525560, 0.0029279471, -0.0748806745, -0.0224105604, -0.0820050389, 0.0736056939, -0.0847658738, -0.0024021626, 0.0244979262, -0.0141151072, -0.0364091769, 0.0009232759, -0.0005988121, 0.0196197871, -0.0705356523, 0.0829529688, -0.0849926025, -0.0135689741, 0.0412454121, -0.0428226590, 0.0757877976, 0.0481526032, 0.0200187210, 0.0229522120, 0.0967043415, -0.0321507119, 0.0986113474, 0.0933105722, 0.0470558405, 0.0228533633, -0.0116527202, 0.0647370741, -0.0612241402, -0.0704126582, 0.0129575133, 0.0950758234, 0.0303415414, -0.0125204921, -0.0689138398, -0.0640541911, 0.0215942748, -0.0779416189, -0.0793431401, -0.0865732208, -0.0055308938, -0.0902488753, 0.0708292723, -0.0405277126, 0.0719774887, -0.0932798162, -0.0087716822, 0.0866020545, 0.0025637627, -0.0845878497, -0.0513821729, 0.0510475896, 0.0834471583, -0.0294948462, 0.0877023488, 0.0587732308, -0.0652115345, -0.0799258575, -0.0631104112, 0.0567567125, -0.0158896092, -0.0791266933, -0.0605417378, 0.0739390850, 0.0364324450, 0.0460995547, 0.0721350238, -0.0044299006, -0.0640275106, -0.0565614365, 0.0207278617, 0.0932557583, -0.0492684506, -0.0937386975, 0.0283695459, 0.0647823364, -0.0644257665, -0.0004327059, -0.0649814606, 0.0192772746, -0.0853497386, -0.0960281864, 0.0689567477, 0.0235062726, -0.0791208893, 0.0927482992, 0.0300666336, -0.0312219616, -0.0678226128, 0.0832118616, -0.0869167969, 0.0680748373, 0.0292173158, 0.0342845581, 0.0327690020, 0.0401727818, 0.0473440289, 0.0702117905, -0.0893638954, 0.0193218347, -0.0318009369, -0.0995508805, 0.0476328135, 0.0235426184, 0.0769562349, -0.0655282065, -0.0897706151, -0.0523883365, -0.0387345441, -0.0564951412, -0.0642880350, -0.0421934128, 0.0931215435, 0.0624811910, 0.0959811807, -0.0753152147, -0.0893733874, 0.0103079202, 0.0555369742, 0.0260472894, -0.0505841635, -0.0773100853, 0.0739061162, -0.0155115845, -0.0051821233, -0.0509132743, 0.0199501161, -0.0449802168, -0.0653042421, -0.0100736385, 0.0388664603, -0.0947238132, 0.0999099538, 0.0007560730, 0.0577499866, 0.0945856944, -0.0650174022, 0.0414510965, -0.0818843618, 0.0593216904, -0.0991136804, 0.0097784279, -0.0046485662, -0.0379172675, 0.0677649975, 0.0257909540, 0.0490063429, 0.0085215690, -0.0927408710, -0.0477213636, -0.0094561819, 0.0311116464, 0.0195507407, 0.0402200818, -0.0001564980, -0.0983308330, 0.0164941438, 0.0397887714, 0.0112555027, 0.0358396880, 0.0512109399, 0.0216772445, -0.0429989807, -0.0573287271, -0.0200725440, -0.0199228656, 0.0449009202, -0.0918197557, 0.0902085304, 0.0726253539, 0.0015658617, 0.0667103305, 0.0728098974, -0.0104249595, 0.0257044081, -0.0281100515, 0.0927872211, 0.0693039224, -0.0719692707, 0.0889437571, 0.0178152919, -0.0056693675, 0.0031964064, 0.0583504923, 0.0301190503, -0.0096382266, 0.0476762168, -0.0304494854, 0.0146275638, -0.0265143048, 0.0114673022, -0.0794530734, 0.0093604205, 0.0165478718, -0.0146480324, -0.0875034332, 0.0688715950, 0.0879536867, 0.0131964926, -0.0987672806, 0.0690094158, -0.0856633186, -0.0809064656, -0.0751681924, 0.0515215285, 0.0171616320, -0.0289429314, 0.0195765384, 0.0430887602, -0.0156966448, -0.0100625278, -0.0795718059, 0.0855666921, -0.0825662240, -0.0701879486, -0.0005767465, -0.0870618746, 0.0860302076, 0.0967103839, 0.0611877814, -0.0736997500, -0.0648016483, 0.0250635874, 0.0455535650, -0.0178227667, -0.0435463674, -0.0701706558, -0.0420768745, 0.0920576677, 0.0801578537, 0.0285205003, 0.0877211913, -0.0795750841, -0.0873082057, 0.0491935611, -0.0159004815, -0.0207343586, -0.0924371704, 0.0960906744, 0.0141659500, -0.0148898605, 0.0560099147, 0.0940106884, 0.0599157214, 0.0288739689, 0.0648594126, -0.0580334328, 0.0062215566, 0.0708113834, 0.0554814599, 0.0815157518, -0.0330836065, 0.0789714456, 0.0326246619, 0.0814877748, 0.0423643701, -0.0827513114, -0.0924524665, -0.0258024223, 0.0426663868, 0.0223136432, 0.0189467799, -0.0888263211, -0.0168585666, 0.0467407368, 0.0250087865, 0.0849696398, 0.0141149284, -0.0978944674, 0.0288448688, 0.0328417420, -0.0919952616, -0.0963282362, -0.0571720973, 0.0590511337, 0.0075569632, 0.0100076199, 0.0305353999, -0.0807251930, -0.0973152891, -0.0509814993, 0.0698647276, 0.0104305511, -0.0487006195, -0.0260081645, -0.0575870760, -0.0659826398, 0.0002064467, 0.0157082565, 0.0088870889, 0.0225228909, -0.0269261356, 0.0619957447, 0.0198309422, -0.0624792948, -0.0126979351, 0.0352263115, 0.0933874398, 0.0103615643, 0.0586487167, -0.0536346808, 0.0019394398, -0.0171336774, -0.0170719866, -0.0270289071, -0.0901163220, 0.0794917345, 0.0018154264, 0.0515040420, -0.0689964816, -0.0677181855, -0.0600765124, 0.0435038581, -0.0566876195, 0.0316961780, -0.0934246406, 0.0628924966, -0.0500897430, 0.0745527521, 0.0660050064, -0.0305142049, 0.0038172125, 0.0208095666, 0.0483393334, -0.0128455879, -0.0974701792, 0.0477719568, 0.0939279348, -0.0033263923, 0.0051811934, -0.0710240602, 0.0789877772, -0.0174262654, 0.0788825080, 0.0954002291, -0.0160999540, 0.0589834452, 0.0097181201, 0.0098489169, 0.0007771016, 0.0431761034, -0.0520988218, -0.0425059460, 0.0973632559, 0.0956407785, -0.0768494830, -0.0675636083, 0.0103689199, -0.0425087698, 0.0480382442, 0.0901874304, 0.0144592887, -0.0543413162, 0.0985962078, 0.0250397325, 0.0007310629, -0.0170292854, 0.0202400088, -0.0334952250, -0.0732925087, 0.0983090028, -0.0629996881, 0.0882833228, 0.0932911262, 0.0225886237, -0.0632862821, -0.0554450639, 0.0860135481, -0.0708742663, -0.0847284794, 0.0330152884, 0.0221635234, 0.0957388058, 0.0112563968, -0.0104148034, -0.0145408874, 0.0213580728, -0.0161622893, -0.0315673463, -0.0330448151, 0.0521724224, 0.0069501759, 0.0926772729, -0.0790003762, 0.0390121937, 0.0305110700, 0.0082970029, 0.0558640249, 0.0766912103, -0.0234885812, -0.0834336653, -0.0373275764, 0.0730196461, 0.0657021999, 0.0637800023, -0.0468603037, 0.0429623500, 0.0608055480, -0.0878571495, -0.0443964265, -0.0883511677, -0.0428362153, -0.0577928536, 0.0658810660, 0.0220508464, -0.0598035716, 0.0162775405, -0.0775223896, -0.0847229287, 0.0676408336, -0.0817465782, -0.0905119702, -0.0907634869, 0.0292328130, -0.0339546315, -0.0600919127, -0.0133896470, 0.0711865649, -0.0344687589, 0.0439719930, -0.0407726057, -0.0568831339, 0.0075671198, 0.0933961794, -0.0987930223, -0.0020581484, -0.0618683808, 0.0269379858, 0.0010738611, 0.0432487391, -0.0060480237, -0.0783013031, -0.0477936044, 0.0594105721, 0.0734311119, 0.0231646188, 0.0502101779, 0.0520509854, -0.0728539154, 0.0176306497, 0.0174630173, -0.0280642044, -0.0130992774, -0.0900194645, 0.0232295878, 0.0475221165, -0.0398675315, -0.0853615999, 0.0247170925, 0.0940947309, 0.0585420616, -0.0113183735, -0.0286291596, -0.0942544863, 0.0207514521, 0.0822437927, -0.0517903455, -0.0088456273, -0.0090785623, 0.0449699275, -0.0267708898, -0.0967276692, 0.0359835401, 0.0488856696, 0.0711252242, 0.0755600482, 0.0103104832, 0.0913876221, 0.0822411701, 0.0447118543, 0.0489452593, -0.0139692305, -0.0098454831, -0.0279770251, -0.0254494082, 0.0160795096, 0.0375764482, -0.0628235266, -0.0674839392, 0.0030451061, -0.0622729659, 0.0090189222, -0.0453503616, 0.0955233797, 0.0352194570, -0.0332432278, 0.0513846278, 0.0986591801, -0.0505494960, 0.0565395616, 0.0797274262, 0.0756709203, -0.0847133547, 0.0479776859, 0.0473513864, 0.0281567816, 0.0316835418, -0.0162182804, -0.0382301100, 0.0468691364, 0.0802948028, 0.0352714919, 0.0952173248, -0.0097762942, 0.0546844378, -0.0273305532, -0.0208079349, 0.0598221906, -0.0951842219, -0.0733001158, -0.0937572494, 0.0808071494, 0.0058487295, 0.0687550530, -0.0281129722, -0.0733028203, 0.0488534234, 0.0325799957, -0.0591226816, 0.0734803006, -0.0111854076, 0.0612580292, 0.0267570019, -0.0485005975, 0.0138675217, -0.0540886894, 0.0031101822, -0.0732568279, 0.0812788233, 0.0238133799, -0.0524829887, -0.0253823157, -0.0013817310, -0.0303816441, 0.0055892230, 0.0281923302, -0.0579502583, -0.0800481215, -0.0285968073, -0.0081170676, 0.0449848771, -0.0715462714, -0.0905330330, -0.0987678990, -0.0389113799, 0.0780982748, -0.0585282817, 0.0855244622, -0.0265236255, -0.0298232436, 0.0045184135, 0.0938169956, 0.0323437713, 0.0913194790, -0.0545007475, 0.0470205061, -0.0520482063, -0.0540952198, 0.0198231693, 0.0778060928, 0.0868704319, 0.0933011696, 0.0973914638, 0.0647490844, 0.0802185535, 0.0850713998, -0.0282622818, 0.0679975748, 0.0775968656, 0.0140687702, -0.0977219343, 0.0428748131, 0.0438061021, 0.0652412325, -0.0988693014, 0.0443425179, 0.0518727303, -0.0999715701, 0.0306929480, -0.0391769186, 0.0192940123, 0.0009020686, 0.0684729740, -0.0279736407, -0.0706431270, 0.0688029528, -0.0220671780, -0.0360353105, 0.0426053517, 0.0997327119, 0.0013296008, 0.0548194423, 0.0432994366, -0.0488204733, 0.0058223009, 0.0269558318, -0.0815003142, -0.0304499995, -0.0044947984, 0.0714416057, -0.0988598838, 0.0345587395, -0.0635139868, -0.0898810998, 0.0228339322, -0.0211741328, 0.0072623254, 0.0527761579, 0.0925041586, -0.0048387768, -0.0065081241, -0.0936113596, -0.0095056174, 0.0700974464, 0.0063560605, 0.0254721995, 0.0658868924, 0.0292926673, -0.0007796049, -0.0850969553, 0.0696857199, 0.0935663730, -0.0536556952, 0.0013639927, 0.0016000152, -0.0043493272, 0.0939384922, -0.0114331963, -0.0644523501, -0.0744977966, -0.0130458837, -0.0949360952, -0.0075176242, -0.0579771511, -0.0165587664, 0.0140249608, -0.0605092645, -0.0620530024, 0.0347791687, -0.0032594563, 0.0921163708, 0.0010430098, -0.0919963717, -0.0354377516, -0.0694881901, -0.0791704282, 0.0368634723, 0.0607323758, -0.0996126160, 0.0293376688, -0.0617398508, -0.0915007591, 0.0796412975, -0.0412570015, -0.0717931911, -0.0586948059, -0.0768794417, 0.0904810056, -0.0124050379, -0.0635300651, -0.0896459818, -0.0933119878, 0.0831691250, -0.0507952459, 0.0154226301, 0.0969550982, -0.0482505821, 0.0597794428, -0.0577971004, -0.0898486599, -0.0183601268, 0.0091692209, 0.0045700432, 0.0809221640, 0.0472972766, 0.0507946014, 0.0897946134, -0.0686997101, 0.0687677860, -0.0365784653, 0.0021579147, -0.0709089786, -0.0059734466, 0.0644110218, -0.0084441183, -0.0826017782, -0.0506448857, 0.0392811298, 0.0810980946, -0.0283295047, -0.0797404870, 0.0149994260, 0.0816769972, -0.0128099201, 0.0593839400, 0.0489219911, -0.0808247253, 0.0845467374, 0.0622378364, 0.0057514790, -0.0443785191, -0.0171452761, -0.0017464042, -0.0392549299, -0.0784542933, -0.0737278685, -0.0121609094, -0.0071266890, -0.0506739393, -0.0975516066, -0.0349547863, 0.0830947906, -0.0556042083, 0.0418256409, -0.0072862031, -0.0643622428, -0.0050800801, -0.0197738297, -0.0781886131, -0.0853636488, -0.0622081272, -0.0771568790, 0.0174996983, -0.0456701033, 0.0980085656, -0.0762659833, -0.0932163373, -0.0646012574, 0.0592721477, -0.0872622877, -0.0282221083, -0.0739845857, -0.0660543069, -0.0323791504, -0.0354456790, 0.0001358032, -0.0046651005, -0.0642259493, 0.0995768830, -0.0945127755, -0.0328233354, -0.0921622515, 0.0532477982, -0.0174128059, 0.0346673988, -0.0189605840, -0.0638323203, -0.0799158216, 0.0377697833, -0.0532359742, -0.0341677666, 0.0088500623, -0.0850956813, 0.0932328701, -0.0662700534, -0.0144145964, 0.0064287069, -0.0191781521, -0.0428235643, 0.0235860106, 0.0033447624, -0.0770120770, 0.0677345023, -0.0200274941, 0.0412459634, 0.0657498389, -0.0090189818, 0.0522930399, -0.0229490530, 0.0654951259, -0.0371532217, 0.0806699395, 0.0314119235, -0.0861561820, 0.0449937843, -0.0480934866, 0.0994460210, -0.0556249283, -0.0469030850, -0.0937103033, 0.0248859059, -0.0831841603, 0.0916531906, 0.0143672703, 0.0030643702, 0.0208805799, -0.0937365815, 0.0885258541, -0.0931462646, 0.0986826792, -0.0951927826, -0.0434755087, 0.0947360173, 0.0646625087, 0.0099896071, -0.0624443293, 0.0969495773, 0.0392013080, 0.0109490631, 0.0127190119, -0.0201664101, -0.0480890647, -0.0918151885, 0.0569765568, 0.0580661893, -0.0193062183, -0.0641828924, 0.0524831191, 0.0613447800, 0.0316568725, 0.0685277134, -0.0643973574, -0.0009786487, -0.0627164468, 0.0870762244, -0.0176894069, -0.0182698499, -0.0116357571, -0.0548045896, -0.0382825248, -0.0242180713, -0.0042330506, -0.0196122285, 0.0996955857, 0.0562316291, -0.0313422456, -0.0211649667, -0.0227813721, -0.0771989152, 0.0189268347, -0.0634276271, -0.0853770152, 0.0053589107, -0.0625139624, -0.0494839065, -0.0665805936, 0.0337281339, -0.0606319197, -0.0145651819, 0.0198583007, -0.0876344219, 0.0825349465, -0.0280279163, 0.0547237173, -0.0066912654, 0.0761479735, 0.0356980339, -0.0411364101, -0.0710175782, -0.0855155587, -0.0275144111, 0.0309912097, 0.0639310852, -0.0182640441, -0.0453085676, -0.0204990748, 0.0220213886, -0.0332216136, 0.0929889604, -0.0046807649, -0.0423741341, 0.0537767410, 0.0031620741, -0.0340287946, 0.0811709166, -0.0851887465, 0.0283187386, 0.0093751792, 0.0563239232, 0.0251675975, -0.0586786643, 0.0329141133, 0.0382193439, -0.0497395061, 0.0542780422, 0.0284848101, -0.0948113352, 0.0004365802, -0.0734776780, -0.0992657915, 0.0940278769, -0.0447817706, 0.0467583537, 0.0002683520, -0.0725334808, 0.0036980987, 0.0037332773, 0.0732906982, 0.0109727746, 0.0224146843, 0.0880113989, -0.0954660699, 0.0762650371, -0.0253478177, 0.0091587668, -0.0151010752, 0.0832940117, 0.0371786617, -0.0352380984, -0.0136832120, 0.0408286229, -0.0936030522, 0.0868200064, 0.0568237565, 0.0988238603, 0.0734475404, -0.0502414107, 0.0015807868, 0.0079820035, 0.0051354053, 0.0467842817, 0.0692202225, -0.0626584888, -0.0528087504, 0.0185622927, 0.0339742303, 0.0119224908, 0.0277108438, -0.0476262830, 0.0098832725, -0.0112740872, -0.0164904837, -0.0777607560, -0.0063064098, -0.0639868900, -0.0618780144, -0.0035078765, 0.0577680580, -0.0946888253, 0.0685683638, 0.0065988661, 0.0778013989, -0.0261876825, 0.0112425331, 0.0370430127, -0.0802578479, -0.0962290689, 0.0509435907, 0.0153643256, -0.0710202828, 0.0345958732, 0.0521245264, 0.0177858118, -0.0694675371, 0.0636441261, -0.0588596351, -0.0591835268, -0.0387702473, 0.0570622683, -0.0434038043, -0.0763156638, 0.0805029869, -0.0404977575, 0.0527239814, 0.0928252861, -0.0122377519, -0.0413647182, -0.0442350172, -0.0942970663, -0.0513697378, -0.0344027877, -0.0518276468, -0.0828678012, 0.0695754066, -0.0919867158, -0.0443010107, 0.0921639800, 0.0838338658, -0.0573012121, -0.0488907471, -0.0316219926, -0.0373001471, 0.0601317175, -0.0042821290, 0.0503932610, 0.0074465275, -0.0187921654, 0.0061681988, -0.0728465095, -0.0504393093, -0.0155916093, 0.0178053975, -0.0420391336, 0.0360800400, 0.0868905708, -0.0973971039, -0.0545349829, 0.0034691214, -0.0971478224, 0.0138667589, -0.0976930410, -0.0002446056, 0.0035336257, 0.0186137445, -0.0571526662, 0.0254523512, -0.0781952292, 0.0297858715, -0.0036897659, -0.0502239466, 0.0622917898, -0.0967711583, 0.0381636135, 0.0931340083, 0.0466510169, -0.0163273215, 0.0593077540, 0.0756889805, 0.0889952332, -0.0970557481, -0.0458900332, -0.0851875097, -0.0798225924, -0.0444633029, -0.0040251971, 0.0047406913, -0.0771234557, -0.0897299796, -0.0576392412, 0.0628659502, 0.0423608534, -0.0802941918, -0.0528832078, 0.0853264555, -0.0743428618, 0.0404640697, 0.0015904069, -0.0647250414, 0.0960581675, -0.0485127084, -0.0315796845, -0.0289201383, 0.0325238220, -0.0538933873, -0.0896471515, -0.0017455578, -0.0933362469, -0.0980614647, -0.0981258675, -0.0832361355, 0.0134136919, 0.0763671547, -0.0425409786, -0.0593368784, -0.0299463756, -0.0133108739, -0.0520477407, -0.0961091146, -0.0827361345, 0.0208274964, -0.0338323005, 0.0582022071, -0.0616757162, 0.0248925332, -0.0443839692, -0.0812309906, 0.0191714056, 0.0283000711, 0.0121400598, -0.0205785390, -0.0733504072, 0.0744938254, 0.0230452660, 0.0140999323, -0.0262062084, -0.0845707878, -0.0658890754, 0.0464106575, -0.0663217902, 0.0659789443, 0.0578390360, -0.0477349646, 0.0447938219, -0.0191447027, 0.0842338428, -0.0127912043, -0.0042958739, 0.0342097171, -0.0424464606, -0.0052645090, -0.0568096414, -0.0295652878, 0.0660512969, 0.0931841955, -0.0591918007, -0.0300377738, -0.0471729748, 0.0378937982, 0.0708315521, -0.0215187911, -0.0046753050, 0.0528865457, 0.0825335011, 0.0348557942, -0.0381853096, 0.0644231811, -0.0476159118, -0.0841736421, -0.0983134285, -0.0868280157, -0.0263606552, 0.0006767273, 0.0571291223, -0.0448943041, -0.0565630309, -0.0601530559, -0.0898655877, 0.0953702256, 0.0679862872, 0.0760994107, 0.0879449025, 0.0038218142, -0.0637076125, 0.0755215064, 0.0958361253, 0.0677395463, -0.0328015685, -0.0840665251, 0.0529105067, -0.0395295620, -0.0009090900, 0.0585572831, 0.0798655376, 0.0764912590, -0.0209672209, -0.0181220174, -0.0069576623, 0.0064004543, -0.0895536095, 0.0739350542, -0.0089565637, 0.0489721783, -0.0766816884, -0.0083954455, 0.0259290822, 0.0078411223, 0.0914614573, 0.0966395140, -0.0065683606, -0.0164201744, -0.0226839315, 0.0718391687, -0.0623700134, 0.0947037712, -0.0928226337, -0.0447052829, 0.0295463800, 0.0158607718, 0.0362767354, -0.0068240403, 0.0431015268, -0.0375184417, 0.0740504861, -0.0453886762, 0.0889580026, -0.0557057150, -0.0737075582, 0.0964790210, 0.0062987446, 0.0991494432, -0.0323098414, 0.0130652431, -0.0856629163, -0.0420705080, 0.0046368479, 0.0786398575, 0.0772771165, 0.0977560505, -0.0537973046, 0.0516227968, -0.0588318706, 0.0288059711, 0.0409336947, -0.0319197662, -0.0012773157, 0.0701862127, 0.0713094026, -0.0253915917, -0.0943610594, -0.0402017608, -0.0864792392, -0.0196095351, -0.0700075999, 0.0391811244, 0.0130488044, -0.0665341243, 0.0527441762, -0.0580551140, 0.0034330606, -0.0166269429, 0.0578712486, -0.0063364389, -0.0395520814, -0.0153329493, -0.0924819037, -0.0947046876, 0.0800348520, 0.0489261262, 0.0009973049, 0.0598463416, -0.0921016857, 0.0537969843, 0.0525648259, -0.0576469190, -0.0859128758, 0.0329748653, 0.0516420119, -0.0812293440, -0.0576109402, 0.0310376529, 0.0269516353, 0.0783656761, 0.0258390903, 0.0428585187, -0.0571877956, 0.0083846813, -0.0719011799, 0.0544518232, 0.0635112673, 0.0534627102, -0.0533544309, -0.0856058821, 0.0146093965, -0.0388500355, -0.0980024934, 0.0718961507, 0.0036236525, -0.0793845803, -0.0156347882, -0.0348977819, -0.0223026164, -0.0510648005, -0.0419096015, 0.0819203854, -0.0162376296, -0.0725323111, -0.0314306132, 0.0141856913, -0.0742716938, 0.0179620273, -0.0796162412, 0.0990407392, -0.0428715348, -0.0328543559, 0.0240423679, -0.0211957451, 0.0970767960, -0.0319746621, -0.0720239058, 0.0231228713, -0.0768816248, 0.0048756362, 0.0018551827, 0.0632904321, 0.0655611679, 0.0130116586, 0.0375556946, -0.0736813769, -0.0556627177, 0.0513995662, -0.0996249244, -0.0557260029, -0.0453547016, 0.0493535511, 0.0427095555, 0.0792849883, 0.0516351946, 0.0125874998, 0.0835553408, -0.0271781683, -0.0231190324, -0.0460203663, 0.0106168510, -0.0716164038, 0.0661050305, 0.0777176768, 0.0739722475, -0.0685581192, 0.0962392911, 0.0392329954, -0.0463609211, 0.0636239424, 0.0042070746, -0.0056836843, -0.0422592163, 0.0846514925, -0.0043201330, -0.0552866720, -0.0476140156, 0.0360265635, 0.0934878960, -0.0492900871, -0.0048377155, 0.0277341492, 0.0875334367, 0.0363015421, -0.0744765624, -0.0231016409, -0.0496832021, -0.0313948505, 0.0276067015, 0.0330591202, -0.0854797959, -0.0562737584, 0.0500137918, -0.0475559607, 0.0296118613, -0.0070474744, 0.0689282343, 0.0405902155, 0.0928302407, 0.0137764458, 0.0893369466, -0.0804061666, -0.0484509952, -0.0541715287, -0.0747750625, 0.0533104055, -0.0460645221, -0.0632335320, -0.0996190086, -0.0002822995, 0.0505050421, 0.0713680610, 0.0266543031, -0.0557919256, 0.0085904244, 0.0674209967, -0.0853558406, -0.0199471246, 0.0185692068, 0.0032050132, 0.0454886928, 0.0019008160, -0.0638021454, -0.0441720970, 0.0071840170, 0.0056817653, -0.0319931507, 0.0157162547, -0.0620642565, -0.0870280042, -0.0528495573, 0.0316175818, 0.0823798329, 0.0872361436, -0.0706273541, 0.0996407643, -0.0836561248, 0.0604703203, -0.0386522673, 0.0753957257, -0.0269187819, -0.0761113688, -0.0634187385, 0.0586145781, -0.0163853299, 0.0584309362, 0.0742613003, -0.0677964911, -0.0968324319, -0.0614964738, 0.0114470003, -0.0586261414, -0.0840014964, 0.0215669032, -0.0588210337, -0.0445712097, -0.0385192893, 0.0813568234, -0.0974603295, 0.0340511687, -0.0285264980, -0.0683970228, -0.0880996212, -0.0457909591, -0.0390831493, 0.0463675857, 0.0978323594, -0.0218399651, -0.0002363324, -0.0799494386, 0.0018082022, -0.0283442270, -0.0204481129, 0.0107532265, -0.0204101093, -0.0799374729, 0.0478776693, -0.0537609719, -0.0075659277, 0.0194493420, 0.0481988676, 0.0159025788, 0.0242187511, 0.0575901046, -0.0658476502, 0.0730518475, -0.0035979988, 0.0249463078, 0.0229760408, 0.0913830176, -0.0384910703, -0.0352996252, -0.0835164115, 0.0549794324, 0.0664320737, 0.0617313869, -0.0102522019, 0.0800743923, -0.0194426533, -0.0332945362, 0.0501732342, -0.0998919755, 0.0030023218, 0.0555440187, 0.0657864213, 0.0257199053, 0.0951717049, -0.0821480155, -0.0675628111, -0.0367913358, -0.0951139852, -0.0456532948, 0.0304191597, 0.0764935836, 0.0377657302, 0.0701082349, -0.0395525694, -0.0996724889, -0.0643412247, 0.0292984135, -0.0185879003, -0.0269054901, 0.0896627903, 0.0871433020, 0.0027282119, -0.0154251223, 0.0883503705, 0.0492997169, 0.0855746418, 0.0012130976, 0.0985865593, 0.0624424927, -0.0330975913, 0.0620758533, -0.0572838783, -0.0378421322, -0.0906390697, -0.0886247084, -0.0936400220, -0.0900433436, -0.0850636885, -0.0599649921, -0.0261037704, -0.0127978204, -0.0921294093, -0.0133462669, 0.0631600544, 0.0675410554, 0.0450154431, -0.0699270517, -0.0173156019, -0.0924277827, 0.0583379865, -0.0460900329, -0.0733442903, 0.0653179660, -0.0087787630, 0.0848765150, 0.0902443454, 0.0771218315, 0.0684984699, 0.0193926692, 0.0836566910, -0.0932977200, -0.0551574603, 0.0601206310, 0.0609785318, -0.0409782417, -0.0365515351, -0.0733084008, -0.0512857698, 0.0524016395, -0.0468636863, -0.0777717754, 0.0909658894, -0.0265736226, 0.0250520241, -0.0597731955, -0.0337138772, 0.0364175439, -0.0838759914, -0.0592651032, 0.0025816560, 0.0852015242, -0.0380091071, -0.0193937421, -0.0636057407, -0.0848042592, 0.0637942329, -0.0108252885, 0.0870264322, 0.0374752060, 0.0245483648, -0.0897184387, 0.0866868123, -0.0395260341, 0.0177121162, -0.0208075531, 0.0812746435, -0.0548652783, 0.0630679280, -0.0987231657, -0.0438341275, 0.0697949529, 0.0962895676, -0.0477456339, -0.0090463404, -0.0214382056, -0.0919907019, -0.0922427922, -0.0694491193, 0.0734419599, 0.0904653445, 0.0746351257, 0.0364633799, -0.0119992262, 0.0332704559, -0.0372027643, -0.0491642840, 0.0366592072, -0.0701031014, 0.0482350960, 0.0537241958, 0.0579398163, -0.0869862959, 0.0618991628, 0.0174278151, 0.0460723154, 0.0489385240, 0.0273487326, 0.0442670248, -0.0761568770, -0.0731757283, -0.0007966519, 0.0793673396, 0.0474822782, -0.0599226840, 0.0149168968, 0.0455056801, 0.0957082435, 0.0831507817, 0.0608755946, 0.0052951337, -0.0524468534, 0.0470784791, 0.0239287019, -0.0674296170, 0.0167954210, -0.0013237715, 0.0099655865, -0.0592218526, 0.0789999589, 0.0386003740, 0.0574790351, -0.0508896969, -0.0453723557, -0.0569298379, 0.0317144394, 0.0318480246, -0.0161087271, 0.0482967980, 0.0145938164, -0.0110315084, 0.0418120027, -0.0740348250, 0.0078282356, 0.0716363341, -0.0764704943, 0.0495631211, 0.0990554094, -0.0283423550, -0.0254315976, 0.0364269502, -0.0434487723, -0.0123705510, -0.0612715743, -0.0958210751, 0.0012719631, 0.0428218246, -0.0829249248, -0.0283083916, -0.0368032344, -0.0794375464, -0.0678671002, -0.0916576907, 0.0305848476, 0.0984942541, 0.0842529461, -0.0708451420, 0.0069886446, -0.0346240997, -0.0314922705, 0.0301823504, -0.0108031631, -0.0210710894, 0.0884608179, 0.0656761453, -0.0227401741, -0.0828534961, -0.0767318606, 0.0729379877, -0.0317555331, -0.0922446474, -0.0616128929, 0.0746381283, 0.0007151365, 0.0901514888, -0.0177328587, -0.0748030469, -0.0064247609, 0.0120547889, 0.0549476035, 0.0606378913, 0.0314438455, -0.0403628610, 0.0702627525, -0.0502293706, 0.0968490243, -0.0890042558, -0.0914418921, 0.0101539856, -0.0649737343, 0.0782102942, -0.0514994375, -0.0346083157, -0.0920091271, 0.0100468043, 0.0638973042, 0.0837504268, -0.0728586465, 0.0424966589, 0.0930324197, -0.0146179199, 0.0264061224, 0.0643729195, 0.0753721967, 0.0197819714, -0.0916934386, 0.0557399504, 0.0513581894, 0.0849304944, -0.0988742262, -0.0159986857, 0.0278208498, -0.0191116221, -0.0096418858, 0.0303038359, 0.0521541834, 0.0460655689, -0.0223416686, 0.0401537903, 0.0830142498, -0.0971442685, 0.0386520624, 0.0745228752, -0.0404706709, 0.0789065585, -0.0111907003, -0.0411984101, 0.0947082862, -0.0573421232, -0.0900326148, 0.0816450641, -0.0738824233, 0.0052564624, -0.0073024272, -0.0629884750, -0.0131505970, -0.0767057166, -0.0411673896, 0.0614222288, -0.0362398140, -0.0176820401, 0.0262488723, 0.0023841143, -0.0881359503, 0.0845040902, -0.0373791233, -0.0237705112, -0.0446879268, 0.0802804232, 0.0481103659, 0.0402858518, 0.0563547388, -0.0057010176, 0.0026970149, 0.0596548207, -0.0322253592, -0.0300430413, -0.0898009166, -0.0996287689, 0.0722125694, -0.0555903688, 0.0530076511, -0.0243515018, -0.0051156045, -0.0358682536, 0.0381757393, -0.0250012036, 0.0223073363, -0.0509621985, -0.0274026990, 0.0728373900, 0.0398025177, -0.0758333579, -0.0596530922, 0.0531892292, 0.0878757760, -0.0019698502, 0.0958742127, 0.0027339577, 0.0461255908, -0.0607783683, 0.0707529187, -0.0718874335, 0.0147992736, -0.0872692689, -0.0538180582, -0.0217596889, 0.0179161318, -0.0346396938, -0.0990981013, -0.0026964545, -0.0049131750, -0.0488073230, -0.0817041025, 0.0311123133, 0.0011567593, 0.0462055691, -0.0598743930, -0.0380541570, -0.0078477142, -0.0421400927, -0.0445235372, -0.0741799101, -0.0276066419, -0.0710203573, 0.0546887182, 0.0195810795, 0.0441263579, -0.0688173547, 0.0625981912, 0.0499576703, 0.0957026407, -0.0807562694, 0.0841072202, 0.0136083243, -0.0707240328, -0.0588256232, 0.0415933020, -0.0776931047, 0.0668217093, 0.0682593212, 0.0254824404, -0.0925077349, 0.0770068690, 0.0449737422, -0.0972141847, 0.0790122300, 0.0118734837, 0.0973215848, -0.0074049593, -0.0720429644, 0.0604388118, 0.0077169300, -0.0523886085, -0.0566544197, -0.0675565600, 0.0706818849, 0.0769338608, -0.0164577253, 0.0636874810, -0.0897681639, 0.0545798652, 0.0315843485, 0.0064166668, -0.0304006338, -0.0580866113, 0.0017760516, 0.0901412293, 0.0359680429, 0.0811954737, 0.0777852535, -0.0231104027, 0.0355859064, -0.0235802066, -0.0095260385, -0.0971421152, -0.0801800266, -0.0158662796, -0.0379305966, -0.0980985090, 0.0519679673, -0.0692769662, 0.0730421320, -0.0809817240, -0.0201613549, -0.0708472878, 0.0615246408, -0.0089491485, 0.0350101590, -0.0935766473, 0.0641988441, 0.0807188675, -0.0131288171, -0.0193271171, -0.0093724132, -0.0019554496, -0.0041472316, -0.0082332017, -0.0907599330, 0.0553111099, -0.0573240519, 0.0224334355, -0.0827090889, -0.0368816853, 0.0588366762, -0.0115067726, -0.0217425581, 0.0226243623, -0.0686236545, -0.0819737315, -0.0546314232, -0.0724987760, -0.0066705705, -0.0558836833, -0.0896410868, 0.0703736320, 0.0990811586, -0.0667085424, 0.0904799029, -0.0516340397, -0.0216635596, -0.0315897949, 0.0449002162, 0.0331136249, 0.0958520100, 0.0189799666, -0.0642860457, -0.0980618000, 0.0772913918, 0.0250189546, -0.0814491287, 0.0095673203, -0.0973188207, 0.0316668414, 0.0430542342, 0.0176587831, -0.0640519485, 0.0118528372, -0.0595952161, -0.0222571250, 0.0744567066, -0.0154634956, -0.0045303586, 0.0043730619, 0.0297401901, 0.0680496097, -0.0501072295, 0.0696135908, -0.0123592615, 0.0413055196, 0.0501658805, -0.0846748948, -0.0314743035, 0.0393578894, 0.0321924351, -0.0260232221, -0.0596358664, 0.0647500306, -0.0470916517, -0.0177866109, -0.0971448943, 0.0904922411, 0.0457046628, 0.0646113679, -0.0978336111, -0.0403315201, -0.0927489772, 0.0612598918, 0.0820634142, 0.0779775307, -0.0094524147, -0.0833013654, 0.0463832505, 0.0060414434, -0.0555148497, 0.0112780100, 0.0741690546, 0.0118361833, 0.0261731278, -0.0121179819, 0.0643836260, -0.0062546493, 0.0773088336, -0.0405872725, -0.0532698892, -0.0870892406, -0.0450186729, 0.0339754112, -0.0183221940, -0.0177777298, 0.0022035956, 0.0515779369, -0.0733169913, 0.0012696385, -0.0409244411, 0.0963438749, -0.0242571831, -0.0274049770, 0.0209514145, 0.0112876659, 0.0809370205, 0.0350167267, 0.0216977485, 0.0971575528, -0.0663811117, -0.0733367130, -0.0958565250, -0.0592581891, -0.0525873676, -0.0524277091, -0.0335285775, 0.0147618297, 0.0088187223, 0.0723517090, -0.0251885299, 0.0264216550, -0.0451877117, 0.0841071159, -0.0936830565, 0.0520403050, -0.0134566426, -0.0301546454, 0.0048336508, 0.0299091339, -0.0791183114, -0.0415546894, -0.0567528978, 0.0072268965, -0.0924764797, -0.0564470887, 0.0471649058, 0.0860085711, 0.0677933618, 0.0793596059, 0.0195870753, 0.0962573811, -0.0272860415, 0.0444612391, -0.0481064580, 0.0945679769, -0.0553833954, -0.0062173009, -0.0100417137, -0.0661448464, 0.0132469777, -0.0140957478, 0.0538952947, -0.0794802904, -0.0237680431, 0.0121534830, -0.0193928611, -0.0676675811, -0.0052598356, -0.0185916554, -0.0214983467, 0.0821424946, -0.0117697595, 0.0369165652, 0.0634567365, -0.0786435008, -0.0166233666, -0.0384741686, -0.0365262143, 0.0752320662, -0.0182050709, -0.0317107923, 0.0285425782, 0.0757692084, -0.0317622684, -0.0643769875, -0.0249937903, 0.0341918841, 0.0851782188, 0.0734504089, 0.0256117582, 0.0641985685, -0.0203804504, -0.0595656149, 0.0110739833, 0.0463542938, -0.0020715238, 0.0867171213, 0.0015552760, 0.0162386540, -0.0955851600, 0.0654453188, -0.0034080148, -0.0471255071, -0.0615406297, -0.0213279016, 0.0231458787, 0.0548159368, 0.0477367155, -0.0742474347, 0.0318545960, -0.0462475680, -0.0198443178, -0.0553225875, 0.0395199172, 0.0957254320, -0.0500864051, -0.0173308253, 0.0576478951, 0.0738115832, -0.0580748208, 0.0456562527, -0.0724695846, -0.0815670118, 0.0317202210, -0.0146085499, -0.0950447097, -0.0960322842, -0.0173399206, -0.0205027219, 0.0939787850, -0.0115927579, 0.0331713818, -0.0696639344, -0.0975640789, -0.0621575378, -0.0731042176, 0.0493348353, -0.0369032621, -0.0199113376, -0.0259158015, 0.0942512676, 0.0461742058, -0.0151471263, 0.0771683678, -0.0140274288, -0.0137703782, -0.0776202828, 0.0514819883, -0.0210169200, 0.0504584089, -0.0731878281, 0.0830734149, -0.0724151134, -0.0758298263, -0.0646866187, -0.0287882928, 0.0671392679, -0.0469944961, 0.0642194152, -0.0724187642, 0.0531980656, -0.0537326001, 0.0525789633, 0.0343588851, -0.0155907869, -0.0549647920, -0.0577614084, 0.0440592282, -0.0387041830, -0.0850443840, -0.0851235166, 0.0240804907, 0.0456908718, -0.0333334580, 0.0932565704, 0.0726288930, -0.0489028580, -0.0402048826, -0.0066128853, 0.0360361934, 0.0677795783, 0.0888629109, 0.0820534602, -0.0568241961, 0.0960680619, -0.0335926190, 0.0544680841, -0.0290149208, 0.0174014457, 0.0856759176, -0.0747137219, -0.0344118364, 0.0107732536, -0.0021531344, -0.0914817080, 0.0776690841, -0.0294294599, 0.0021054745, 0.0804014355, -0.0399430394, -0.0308726318, -0.0335430987, 0.0834777877, 0.0562893264, 0.0034729242, -0.0344401859, 0.0847735628, 0.0941772610, 0.0704482198, -0.0468766093, -0.0118130567, -0.0054505230, -0.0580243580, -0.0833815336, 0.0096628787, 0.0327085741, -0.0192456003, -0.0496710539, 0.0338021629, 0.0023970008, -0.0606912263, 0.0358942263, -0.0046119215, 0.0054641725, 0.0068811178, 0.0039068819, 0.0702724084, 0.0214410555, 0.0945724472, -0.0929984972, 0.0306416750, -0.0152120711, 0.0196732525, 0.0699542537, 0.0139716268, -0.0460252538, -0.0131767392, 0.0091156242, -0.0364534259, -0.0053474191, -0.0445962213, -0.0543118827, 0.0116715673, -0.0255818255, -0.0922113657, -0.0353962779, 0.0970505625, 0.0554192439, 0.0572168715, -0.0952721760, 0.0457285531, -0.0410838388, -0.0155323269, -0.0850575119, 0.0844165906, -0.0534830354, 0.0758125782, -0.0608120672, -0.0588086247, -0.0215540063, 0.0152019141, 0.0982311592, -0.0189365987, -0.0787483603, 0.0450754426, -0.0458168276, -0.0933689997, 0.0995621830, 0.0709153637, 0.0704699159, 0.0006495357, -0.0207046159, -0.0077871801, -0.0200175401, -0.0752703100, -0.0485234149, 0.0878747851, -0.0342885368, -0.0236292966, 0.0029823184, 0.0914725438, 0.0583014376, -0.0811521783, 0.0346529856, -0.0553587452, 0.0117895845, 0.0695209429, 0.0756524950, 0.0730168000, -0.0902248845, 0.0744648576, -0.0387049690, -0.0615374558, -0.0845027566, -0.0585602783, 0.0579367280, -0.0160478950, -0.0445364602, 0.0821519643, -0.0826060399, 0.0542227402, 0.0586494468, 0.0899531990, 0.0779328942, 0.0659912601, 0.0352019183, -0.0692899749, 0.0318709984, 0.0524786599, 0.0285645965, 0.0497191213, -0.0475804210, -0.0090668676, -0.0695001855, -0.0029786706, 0.0435072891, -0.0383112319, 0.0215973258, -0.0382029079, 0.0856213346, 0.0259962678, 0.0483213179, -0.0461164005, 0.0887917429, 0.0132674938, -0.0383617170, 0.0277861115, -0.0099800592, 0.0538833030, -0.0262895953, -0.0623588674, -0.0324128531, -0.0727811009, -0.0158783682, -0.0262294896, -0.0830421373, 0.0949445292, 0.0054082992, -0.0027849437, 0.0723235607, -0.0560896993, -0.0990097523, 0.0758505389, 0.0651319847, -0.0961976051, 0.0002862930, -0.0227686521, -0.0641049892, -0.0036623597, 0.0252778772, -0.0583308004, 0.0467194319, 0.0859201476, -0.0753952637, 0.0289700516, 0.0906507373, -0.0118127232, -0.0405983925, -0.0452793352, -0.0949906856, 0.0251054522, 0.0676811710, -0.0717174038, -0.0337327607, 0.0646025538, 0.0644509196, -0.0779512078, 0.0552909262, 0.0898638517, -0.0848448202, -0.0660267845, 0.0505894087, 0.0125193596, 0.0291151647, -0.0268547069, -0.0611955523, -0.0537942648, 0.0303082354, 0.0778155550, 0.0796943456, -0.0485495813, -0.0041372301, 0.0552683473, -0.0690458417, 0.0430121534, 0.0518528484, -0.0423640274, -0.0706316978, 0.0395656116, 0.0750804320, 0.0851419196, 0.0562362336, 0.0996948704, -0.0546956547, 0.0578582771, -0.0762776062, -0.0310780164, 0.0215465073, -0.0043027401, 0.0839712769, 0.0598248132, -0.0356564783, -0.0904064700, 0.0895862132, 0.0337333679, 0.0344812274, 0.0026965023, -0.0016212463, -0.0406634472, 0.0414452553, 0.0745671615, -0.0282154083, 0.0829438120, -0.0388033651, 0.0524580851, -0.0097233299, 0.0240410212, 0.0628128201, -0.0421651118, 0.0818508193, 0.0724347606, -0.0357387662, 0.0963721201, -0.0839946046, -0.0249307286, -0.0394135490, 0.0239511132, -0.0033028245, -0.0867742524, -0.0867298469, -0.0709696561, -0.0337793604, -0.0377147682, -0.0261624940, 0.0205545183, 0.0602943413, 0.0288265347, 0.0454491973, 0.0129310368, 0.0085746525, 0.0338793285, 0.0957085267, -0.0248686075, 0.0425938480, -0.0898478553, -0.0180623885, -0.0201706532, -0.0911198184, 0.0276953708, 0.0795459971, 0.0207902323, -0.0663135797, -0.0216963775, 0.0130999805, 0.0791053995, 0.0080783842, -0.0592121594, 0.0094109299, 0.0724770427, -0.0813582167, -0.0578530692, -0.0785269737, -0.0954459533, 0.0375211015, -0.0966395959, 0.0950496197, -0.0819877535, 0.0582745187, -0.0543899536, 0.0433352105, -0.0261905789, -0.0247112270, 0.0138698583, 0.0207744241, -0.0370211005, -0.0404533260, -0.0276136994, 0.0718821064, -0.0211429484, -0.0506415628, 0.0904390141, -0.0329930186, 0.0777462050, 0.0962860808, -0.0978034884, -0.0467539802, 0.0870642811, -0.0250090249, 0.0825838596, 0.0932924077, 0.0927970633, 0.0364684835, -0.0859467015, -0.0211045388, -0.0743469819, -0.0357183814, 0.0168530103, 0.0614645258, 0.0572741628, 0.0038469434, 0.0424628370, -0.0731662139, 0.0434919707, 0.0048374059, 0.0269828681, -0.0980633646, -0.0280703548, 0.0604630969, -0.0261119604, 0.0984896347, 0.0517076850, -0.0815264806, -0.0912491307, -0.0926839113, 0.0190263875, 0.0959905013, 0.0814725533, 0.0591493361, 0.0167001970, -0.0538719781, -0.0709302574, -0.0670895353, -0.0784153491, 0.0109250424, -0.0840954334, 0.0347844847, -0.0703880563, -0.0214729309, -0.0158961415, 0.0734659806, -0.0516227856, -0.0309225917, 0.0864971057, -0.0375604518, 0.0518738404, -0.0308897384, -0.0955908448, 0.0992814824, 0.0095539810, 0.0540784113, 0.0656736419, 0.0905072838, 0.0262855049, 0.0010010361, -0.0741388574, -0.0689433366, 0.0359339118, -0.0265733842, -0.0695528984, 0.0701720864, 0.0548246019, 0.0578572415, -0.0865124837, -0.0729376078, -0.0045557260, -0.0959200189, -0.0400272496, 0.0718222782, -0.0419295318, 0.0934688374, 0.0784585029, 0.0444276109, -0.0716906413, -0.0237192865, 0.0253994223, 0.0471909046, 0.0638385937, -0.0883487016, -0.0823140517, -0.0123768216, 0.0019990446, -0.0349614993, 0.0235887766, 0.0694460869, 0.0233698022, 0.0007933378, -0.0097383503, 0.0781095773, 0.0755108148, -0.0132221701, -0.0741862282, 0.0494708195, 0.0063207867, 0.0093534952, 0.0208043940, 0.0680156276, 0.0725933686, -0.0149047142, 0.0031007768, 0.0792058483, 0.0306345820, 0.0117850900, -0.0852711126, -0.0588653944, -0.0754413232, -0.0400643013, -0.0085853105, -0.0395394564, 0.0687134787, 0.0577750579, -0.0736904144, -0.0504183285, -0.0597703457, 0.0723564848, 0.0634281561, -0.0292491913, 0.0567489639, -0.0449080355, -0.0144319655, 0.0631527826, 0.0243741032, -0.0554088019, -0.0329797640, 0.0010559083, -0.0235392936, -0.0145298243, 0.0436060317, -0.0483154170, 0.0628756061, -0.0701911598, -0.0275047775, -0.0844547376, 0.0813728794, 0.0291092992, 0.0633548722, -0.0172526482, 0.0474813245, 0.0352233052, -0.0141234398, 0.0472215787, -0.0564983003, -0.0463653579, -0.0580503605, 0.0170229431, 0.0226216316, 0.0096283676, 0.0690103695, 0.0329464562, 0.0287066102, -0.0144081116, -0.0107390163, -0.0964904651, 0.0733747706, 0.0649885461, -0.0579325818, -0.0853276774, 0.0318694003, 0.0483418964, 0.0813174397, -0.0362869389, -0.0297601465, 0.0374339819, 0.0282334927, 0.0750277564, -0.0555507205, -0.0203224309, 0.0389335640, -0.0701270327, 0.0357784741, -0.0356155299, 0.0675454959, 0.0814620852, -0.0879467949, 0.0803678781, -0.0218557846, -0.0407727472, -0.0298620109, 0.0608452559, -0.0926263556, 0.0797244087, -0.0252238270, -0.0190492626, -0.0171341784, 0.0996516123, 0.0552967452, 0.0514735095, -0.0572947636, 0.0720377117, -0.0497415327, 0.0979237109, 0.0894422457, 0.0536412485, -0.0657967925, -0.0938741714, 0.0258721001, 0.0192317721, 0.0836182758, 0.0750852823, -0.0070241811, 0.0179460533, -0.0842614174, 0.0931989327, 0.0575431362, -0.0612975247, 0.0002614141, -0.0375973471, -0.0086625339, 0.0401023738, 0.0260994434, 0.0944393501, 0.0806371123, 0.0423272848, 0.0516703241, 0.0468778126, 0.0201668143, -0.0403703451, -0.0008678198, -0.0165746212, -0.0280649662, 0.0834543630, 0.0078423619, -0.0764203593, -0.0481014848, 0.0178192258, 0.0854869112, 0.0903801695, 0.0991594717, -0.0504315272, 0.0980625153, 0.0768424645, -0.0326127410, -0.0236535668, -0.0942976028, 0.0207184553, 0.0347625986, -0.0231188424, -0.0085410243, -0.0110677360, 0.0864497572, -0.0489711277, 0.0633638874, 0.0465429798, 0.0818172619, 0.0576757304, -0.0079529760, -0.0919967294, -0.0768884048, 0.0387119316, 0.0766758919, 0.0788487792, 0.0162135847, 0.0799094662, 0.0524441265, -0.0992254615, -0.0082088476, -0.0418833010, -0.0179817677, 0.0379883051, -0.0748964921, -0.0315062664, -0.0566576608, 0.0152425645, 0.0627401248, -0.0673245788, -0.0450695418, -0.0526590459, 0.0652395412, 0.0585030206, 0.0799221620, -0.0382646099, -0.0073686005, -0.0474899076, -0.0606385581, -0.0813053250, -0.0317845121, -0.0586416014, 0.0116724614, -0.0800779462, -0.0596936941, 0.0426114909, 0.0312756673, 0.0745946169, -0.0952602774, 0.0969308019, -0.0238482840, 0.0440603979, -0.0902622566, 0.0212923177, 0.0804450288, 0.0693043470, 0.0761577263, 0.0150818471, -0.0905442461, -0.0315006375, 0.0534397252, -0.0021920085, 0.0496691354, 0.0057115317, 0.0152312396, -0.0152350310, -0.0376273990, 0.0365393162, -0.0114238029, 0.0152777908, 0.0322450772, -0.0066527608, -0.0918449685, 0.0083770398, -0.0283146743, -0.0271166321, -0.0034146905, 0.0120812422, -0.0856978670, 0.0207911134, -0.0374544039, -0.0071300031, -0.0825532600, 0.0262051355, -0.0433168188, 0.0530044921, 0.0181777235, 0.0534380786, -0.0680302382, 0.0990448594, 0.0154103879, -0.0843710303, 0.0333494656, -0.0605947487, 0.0123373149, 0.0595446602, -0.0021805645, 0.0285468940, -0.0677782893, 0.0312521718, 0.0854261294, -0.0577462688, -0.0358606465, 0.0294243824, 0.0036691308, -0.0202846285, -0.0637173876, -0.0577709936, 0.0359712504, 0.0637965947, -0.0040748119, -0.0855527446, -0.0259143244, -0.0922981426, 0.0666696653, -0.0504185073, -0.0972520933, 0.0715750009, 0.0310214646, -0.0461137407, 0.0090874201, 0.0853077322, -0.0528431423, 0.0505931154, -0.0506494157, 0.0744832680, -0.0673562065, -0.0091508273, -0.0261011962, 0.0775410309, 0.0746049061, -0.0421454571, 0.0262684114, 0.0191046000, 0.0685545728, 0.0012854099, -0.0688063055, -0.0630484000, -0.0379887335, -0.0173897501, 0.0300983079, 0.0517572165, 0.0573411584, 0.0874935016, -0.0581181049, -0.0636964440, -0.0787693784, 0.0118893748, 0.0527956598, 0.0719462261, -0.0999168903, -0.0805617794, -0.0367101207, 0.0067485212, -0.0818656608, 0.0089122057, 0.0203086268, -0.0179909114, 0.0670955554, -0.0660359636, 0.0888971090, 0.0563209914, 0.0923005491, -0.0156353842, -0.0398862027, -0.0735903159, -0.0338070989, -0.0321908854, -0.0805953965, 0.0804783925, 0.0693602189, -0.0882520005, -0.0500823148, 0.0251670834, 0.0895198211, 0.0355312489, -0.0626040623, -0.0253270622, -0.0580172651, -0.0884326920, -0.0485212468, 0.0655085221, 0.0687625408, -0.0088904500, 0.0000960827, -0.0548112392, -0.0595417731, 0.0128646493, 0.0856075510, -0.0087395189, 0.0294104945, 0.0150334006, -0.0617983341, 0.0564694069, -0.0828680769, -0.0309720766, -0.0947995782, 0.0542311184, 0.0259917863, -0.0177697297, -0.0881051794, 0.0297321919, 0.0586604737, -0.0524759553, 0.0061805607, 0.0737949014, 0.0036252977, -0.0817992464, 0.0061325911, -0.0938002691, 0.0700535700, -0.0278038736, -0.0912943631, -0.0314428322, -0.0941803083, -0.0914948136, 0.0066701653, 0.0821163058, -0.0437399521, 0.0833784714, -0.0695170984, -0.0388579965, 0.0798580647, -0.0526668914, -0.0844131932, -0.0514692441, -0.0488274805, 0.0346618891, 0.0906259045, 0.0267402418, -0.0192904472, 0.0960219651, -0.0386717208, 0.0728351697, -0.0718639866, 0.0271516331, 0.0293339249, -0.0882410929, 0.0242419839, -0.0077117085, -0.0435644984, -0.0976184532, -0.0343478434, 0.0954969451, 0.0481437333, 0.0341475122, -0.0097994208, -0.0147713423, -0.0155155184, 0.0901667103, -0.0665294677, -0.0186538342, 0.0272237789, -0.0015132427, 0.0675054193, -0.0079528932, 0.0110718012, 0.0124506829, -0.0553836338, -0.0377348326, 0.0652692840, 0.0933320895, 0.0579112545, -0.0116766570, -0.0081387525, 0.0497477651, -0.0966766626, -0.0994208083, 0.0493906401, 0.0178331025, -0.0307714101, -0.0116311433, 0.0313237570, -0.0272351261, -0.0524070375, 0.0148210768, -0.0930523649, -0.0588383190, -0.0329267383, -0.0077390312, -0.0218010079, 0.0657555386, 0.0301728137, 0.0869382843, 0.0670168623, 0.0670383200, -0.0253221281, -0.0124165891, -0.0079088574, 0.0834127590, -0.0957391262, -0.0555344336, 0.0964972898, -0.0793420002, 0.0263166912, -0.0926416069, -0.0628183037, 0.0726453066, 0.0229227077, -0.0820895210, 0.0470803045, 0.0884971619, 0.0344828852, 0.0835273489, 0.0062184692, -0.0024533630, 0.0445464626, -0.0119191883, 0.0061429027, -0.0618668087, -0.0020361783, 0.0690240040, 0.0435029864, -0.0144730574, -0.0118191605, -0.0006780505, 0.0575888418, 0.0950819254, 0.0857707635, 0.0586356036, 0.0730044022, 0.0526822582, -0.0798715949, 0.0279704574, 0.0947594047, -0.0063929679, 0.0933846235, 0.0265968926, 0.0890728384, 0.0503867380, -0.0433083437, -0.0029168010, 0.0239277370, 0.0423138142, -0.0978591666, 0.0521538034, 0.0159354806, -0.0033579350, -0.0460119024, 0.0039759399, -0.0411477573, 0.0107003218, 0.0970453396, 0.0465715528, -0.0186885353, -0.0799447894, 0.0100743296, -0.0634973049, -0.0656632707, 0.0408832319, 0.0527629964, 0.0592561252, -0.0791448578, -0.0470378995, 0.0329542421, 0.0440693162, 0.0962412879, -0.0988097340, 0.0045137526, -0.0758000836, 0.0071205138, -0.0741345659, -0.0222684145, -0.0641300678, -0.0290452596, 0.0944423825, -0.0059726122, -0.0219151136, -0.0770935044, -0.0829553530, -0.0446044691, -0.0377712362, 0.0289528128, -0.0300231464, -0.0631155968, 0.0212748051, 0.0489253774, 0.0301773902, 0.0911747962, -0.0510476232, -0.0179343708, 0.0071407915, 0.0695745125, 0.0289111976, 0.0197681915, -0.0665655881, -0.0004115105, 0.0609516390, -0.0618370436, -0.0513995774, 0.0639188215, -0.0199370272, 0.0957024843, -0.0128484014, -0.0030011893, 0.0798687935, 0.0040263296, -0.0965439454, 0.0021421553, -0.0907978788, -0.0285783894, -0.0195771456, 0.0570714250, -0.0346274264, 0.0141355516, 0.0930514336, -0.0858726278, 0.0040340186, -0.0104121212, -0.0517025366, 0.0938233286, 0.0101650720, -0.0610614419, -0.0904271528, 0.0277366042, 0.0569324009, 0.0739944354, 0.0699715018, -0.0060599446, -0.0854271427, 0.0175523758, -0.0796680823, -0.0492470749, -0.0852245614, -0.0813776404, -0.0348626971, -0.0032319308, 0.0256946683, -0.0443376787, 0.0194554571, -0.0828171372, 0.0996762887, 0.0276971813, -0.0948379561, 0.0378159657, 0.0267856605, -0.0168794151, 0.0046223402, -0.0322316773, -0.0744346380, -0.0822100565, -0.0617175959, 0.0651138648, -0.0871874243, -0.0777656436, 0.0861917734, 0.0712531358, 0.0091293454, -0.0902731344, -0.0371719599, 0.0234138966, 0.0750181302, 0.0986360684, -0.0753651261, 0.0861236081, 0.0457124375, 0.0645358786, -0.0343978889, -0.0900040641, 0.0127144577, -0.0151153328, -0.0659521744, 0.0089090234, 0.0285493620, 0.0956327245, 0.0088508008, -0.0910490155, -0.0977162346, -0.0885984898, 0.0217489842, -0.0923725292, 0.0776495114, 0.0199451689, 0.0784721598, 0.0379692800, 0.0967641026, 0.0030308128, 0.0457065217, 0.0987410098, 0.0583499447, 0.0389492996, -0.0937603116, 0.0756668821, 0.0189567804, 0.0285216104, -0.0603067987, -0.0181448702, 0.0390859954, -0.0270980000, 0.0866967812, 0.0633336827, 0.0281372666, -0.0904797241, 0.0259410031, 0.0504712351, 0.0583128110, 0.0058218599, -0.0504409671, 0.0520802848, -0.0841593146, 0.0162111763, 0.0559163801, 0.0334875360, -0.0930225849, -0.0935674831, -0.0241465811, -0.0908028483, -0.0636731312, 0.0448329709, -0.0797226653, -0.0778639466, 0.0310206655, -0.0413200967, -0.0245561358, 0.0209540259, 0.0158406384, -0.0582092181, -0.0850156173, 0.0774133727, 0.0799454972, -0.0913018808, -0.0758922324, -0.0244003069, -0.0488436706, -0.0320861004, 0.0513214469, 0.0389532708, 0.0178325530, -0.0622593053, 0.0929399729, 0.0250673890, 0.0079186326, 0.0610301383, -0.0564775728, 0.0042484761, 0.0159082301, -0.0561350361, -0.0486283787, 0.0932745263, -0.0095501542, 0.0410819165, 0.0915620923, 0.0674869344, -0.0181357265, -0.0770848393, -0.0673006177, -0.0635876283, 0.0072876099, 0.0211674571, 0.0567373037, 0.0270691402, 0.0928219482, -0.0644398928, -0.0182614569, 0.0543439500, -0.0575203188, -0.0020309091, -0.0416028388, -0.0063470723, -0.0251761079, 0.0856768861, -0.0107630966, -0.0719672590, 0.0142721059, 0.0605763309, 0.0290643219, -0.0369476564, -0.0326627977, 0.0245015863, -0.0296646245, 0.0105518820, -0.0774377361, 0.0206255205, 0.0355286375, -0.0421653278, 0.0124423029, -0.0948325768, -0.0482630506, 0.0546765700, -0.0143180136, -0.0162538644, -0.0233843084, 0.0232567079, 0.0282396562, 0.0095984461, -0.0192041285, 0.0572829023, 0.0279675256, -0.0039728642, -0.0703056231, 0.0814849064, 0.0720612928, -0.0099269748, 0.0429066680, 0.0243538618, -0.0567629002, 0.0420673005, 0.0987783596, -0.0634822845, -0.0984873325, -0.0098722102, 0.0144505501, 0.0967545062, -0.0730373040, -0.0963634625, -0.0527497642, 0.0137019632, -0.0426792391, -0.0980116650, -0.0969207883, -0.0738706514, 0.0721684247, 0.0521286987, 0.0705403015, -0.0412645340, -0.0531351678, 0.0597799793, -0.0738256946, -0.0476998687, 0.0656363964, -0.0796473622, 0.0674890801, -0.0569882281, 0.0094159720, -0.0059998753, -0.0910857543, -0.0275396351, 0.0934573412, 0.0439171568, -0.0700800940, -0.0988373756, -0.0390864499, 0.0588078275, -0.0401687734, 0.0597090013, -0.0078504086, -0.0208909996, -0.0327858925, -0.0471899621, 0.0120659117, -0.0279967319, 0.0544752963, -0.0600171797, 0.0720347762, 0.0104269981, 0.0431719683, -0.0166888367, -0.0594511889, 0.0705243498, 0.0133546470, -0.0466277003, -0.0792089626, 0.0834824592, 0.0531606339, 0.0077656866, 0.0546856895, -0.0325219631, -0.0590264462, 0.0215684772, -0.0515103936, 0.0576130748, 0.0915925056, 0.0182782542, -0.0331375375, -0.0158093106, -0.0989495665, -0.0184902307, -0.0604266785, -0.0103520630, -0.0369665027, 0.0919231400, -0.0108894706, 0.0352016799, -0.0186444409, -0.0608464479, 0.0792917162, 0.0639455914, -0.0698534399, 0.0007075548, -0.0598176010, 0.0757549629, -0.0865522549, -0.0676762685, -0.0586009286, -0.0068572522, -0.0554458871, 0.0112494230, 0.0653542057, 0.0286500584, 0.0102431420, 0.0273785125, 0.0872234702, 0.0428972952, -0.0616299883, -0.0453058742, -0.0036297084, -0.0789605379, -0.0743685290, -0.0489323139, -0.0790101290, 0.0390363224, 0.0035286068, 0.0816759989, 0.0686705336, 0.0232097860, -0.0529687777, 0.0400513299, 0.0613714941, 0.0321446434, 0.0160595179, 0.0156516917, -0.0263477918, -0.0625621676, -0.0608137026, -0.0026924491, 0.0678945184, 0.0405576602, -0.0208019614, -0.0615463965, 0.0065166475, 0.0752853379, -0.0886111408, -0.0353978649, -0.0654810295, -0.0074562789, -0.0330762267, 0.0770261213, -0.0691306815, -0.0579799674, 0.0584600233, -0.0562890656, 0.0383211747, -0.0280362256, -0.0316637866, 0.0338818692, 0.0924729705, 0.0436654203, 0.0860811397, 0.0316311233, -0.0859488770, -0.0551024787, 0.0678170845, 0.0786390826, 0.0549401306, 0.0899501592, -0.0870864317, 0.0938674808, 0.0111212609, -0.0557778738, -0.0672186986, -0.0266850591, 0.0051014065, 0.0493430011, 0.0255026352, -0.0082955360, -0.0049107908, -0.0354299806, 0.0963465348, 0.0049956921, -0.0739443451, 0.0128854755, 0.0622934699, -0.0293380022, -0.0447400473, 0.0577602386, -0.0851924047, -0.0134422779, -0.0641060844, -0.0351936929, 0.0847997889, 0.0415214300, 0.0910783187, -0.0620927103, -0.0057274820, -0.0404431336, -0.0711758658, -0.0341515653, -0.0864079520, -0.0744960532, 0.0162172448, -0.0874066874, -0.0662018284, -0.0339817069, -0.0924268737, -0.0444351099, -0.0216290113, -0.0368068330, -0.0759495273, 0.0938345119, 0.0196817163, 0.0447135568, 0.0261262190, -0.0731179267, 0.0496838801, 0.0173052680, 0.0244701859, -0.0300532933, 0.0124031426, 0.0303281676, 0.0609310381, 0.0139897466, -0.0765594617, -0.0898715034, -0.0318344012, 0.0116051557, 0.0548608191, 0.0595477335, -0.0764487386, -0.0956004411, 0.0745525882, 0.0954113826, -0.0550625436, 0.0363545418, -0.0230931286, 0.0118698003, 0.0402133949, -0.0566342585, 0.0723931938, -0.0506755970, 0.0586943030, 0.0439857729, -0.0702470168, 0.0007081509, 0.0343516134, -0.0551989786, -0.0604645126, -0.0846187100, 0.0973148495, 0.0396183245, -0.0385747440, 0.0979537740, 0.0836165100, -0.0950816423, -0.0498977788, 0.0287218448, 0.0420015231, -0.0475928187, 0.0839483142, -0.0819662213, -0.0255103111, 0.0719201937, -0.0567852147, 0.0273769852, 0.0211686492, 0.0364534147, 0.0618734360, 0.0155254127, 0.0888513550, 0.0106506823, -0.0161365997, -0.0775215998, 0.0685036704, -0.0378189795, -0.0817860290, 0.0324887522, -0.0650250688, -0.0297100432, 0.0837024227, 0.0272186287, 0.0336341150, 0.0655714273, -0.0444824360, 0.0914589688, -0.0628411770, 0.0481163636, -0.0492683537, 0.0029412867, -0.0006668806, 0.0990044028, -0.0132552152, -0.0258705858, -0.0344570167, 0.0338188782, -0.0168563016, 0.0585216284, 0.0843588486, 0.0447614901, 0.0020684840, -0.0709225908, -0.0408941172, 0.0719949976, 0.0731444508, 0.0466148145, -0.0092832567, 0.0234033465, -0.0681388751, -0.0850298405, -0.0901662484, 0.0225404631, 0.0512638465, 0.0585035793, -0.0030059337, 0.0236571915, 0.0604330897, -0.0685881749, -0.0736775994, 0.0787121654, 0.0905590206, 0.0999112874, 0.0249386560, 0.0160268079, 0.0245484840, 0.0729347467, -0.0442825332, -0.0972077250, -0.0487278588, -0.0823950693, -0.0508161448, 0.0440418236, -0.0644607767, 0.0523779280, 0.0006934285, -0.0932420716, 0.0772980973, -0.0850750357, 0.0101190209, -0.0323058479, -0.0656312332, 0.0075569511, 0.0669467077, 0.0883446857, -0.0334966779, 0.0154790161, 0.0569572113, 0.0920867249, 0.0770066530, 0.0806489810, -0.0661809817, -0.0777022988, 0.0104067568, -0.0649782643, 0.0602815039, 0.0419753566, 0.0999683887, 0.0932341442, 0.0421922579, 0.0222084410, 0.0340628400, -0.0994508490, -0.0919338986, -0.0231770277, -0.0422527194, 0.0575201511, 0.0112557290, 0.0264645573, 0.0511018522, 0.0418757461, -0.0663655177, 0.0562859178, 0.0169806015, 0.0366969220, -0.0953348428, -0.0948466584, 0.0186261777, 0.0322479121, -0.0878177658, -0.0146201374, -0.0337049477, -0.0395707488, -0.0604877956, -0.0734200850, 0.0337656736, -0.0699262396, -0.0378565192, -0.0432647839, -0.0189054739, -0.0292175058, -0.0604024641, 0.0398988500, -0.0617421269, 0.0575888269, 0.0440233722, 0.0513764285, 0.0689448714, -0.0209286567, 0.0658333898, -0.0141499517, -0.0005140781, -0.0904045030, 0.0014936209, 0.0453815125, 0.0877625346, -0.0507775918, 0.0587026589, -0.0154010179, -0.0685218498, -0.0837668777, -0.0069055082, 0.0462792292, 0.0724437758, 0.0322888270, 0.0002531886, 0.0623705760, 0.0168565270, 0.0352730639, -0.0317327641, -0.0847727284, 0.0808450803, 0.0963465124, -0.0931404456, 0.0516011715, 0.0706977472, -0.0181115512, -0.0748971030, 0.0630101562, -0.0608180538, -0.0604512095, 0.0585740805, -0.0525508299, -0.0201582313, 0.0044151782, -0.0646077618, 0.0380979069, 0.0501611494, 0.0503349677, -0.0786763802, -0.0923261642, 0.0983273312, 0.0090212943, 0.0221356042, 0.0829529911, -0.0445989259, -0.0528503172, 0.0197946560, 0.0305372234, -0.0707526579, -0.0659693629, -0.0715670511, -0.0406947248, 0.0700151250, -0.0331346765, 0.0027157664, -0.0340616480, -0.0159530286, 0.0451904312, -0.0312076341, 0.0371975079, 0.0339746960, 0.0267798901, -0.0670184121, 0.0854787603, 0.0438817404, -0.0354545377, -0.0745175704, -0.0280768760, 0.0101266745, -0.0827291608, 0.0929152966, -0.0822775587, -0.0684589148, 0.0150556685, 0.0890309811, -0.0116893649, -0.0008205295, -0.0948746204, -0.0616087802, -0.0738964453, -0.0962029696, -0.0122433426, -0.0833580866, -0.0167412162, 0.0830587074, -0.0771661550, -0.0923936889, 0.0060621738, -0.0305978302, 0.0857549533, -0.0331427567, -0.0681961700, -0.0356761813, -0.0891103968, 0.0312991627, 0.0611557849, 0.0702228099, -0.0034420134, 0.0560653917, -0.0060607553, -0.0216236357, -0.0463341363, -0.0374067798, 0.0252651814, 0.0929559469, -0.0399164222, -0.0494734645, -0.0880530253, 0.0891756192, -0.0076899887, -0.0100565916, -0.0331420191, -0.0017887474, -0.0983205587, -0.0745726004, 0.0622836463, 0.0817486867, 0.0902954713, -0.0669379160, -0.0803066269, -0.0824533328, -0.0041890503, -0.0496059172, 0.0707795247, -0.0713699609, 0.0867738128, -0.0841840431, 0.0417541750, 0.0436152592, 0.0572067983, 0.0961918384, -0.0235786438, -0.0975928530, 0.0635190234, 0.0932065770, 0.0291133877, -0.0305585396, -0.0029819726, 0.0259610545, -0.0853722841, 0.0286134016, 0.0355937742, -0.0414111130, 0.0333715454, -0.0064930916, 0.0812626630, -0.0260630604, 0.0732682943, 0.0479884036, -0.0749572068, -0.0153778559, -0.0736650229, 0.0646777377, -0.0109272478, 0.0688471571, 0.0081591252, 0.0529289730, 0.0531144999, -0.0876843706, 0.0678890273, -0.0660128966, 0.0725461617, -0.0696453005, 0.0041043758, -0.0843284726, 0.0143432738, -0.0783772692, 0.0352415703, -0.0676004440, 0.0799971223, -0.0041153431, 0.0609801188, -0.0635395646, -0.0616330169, 0.0106834536, 0.0425123088, -0.0093957186, 0.0404506698, 0.0676251575, -0.0447083227, -0.0280725602, 0.0986263677, -0.0767904893, -0.0468763113, -0.0979465991, -0.0896884948, -0.0517261736, -0.0050178529, 0.0899649188, 0.0618909113, -0.0009224295, 0.0540384427, -0.0695716292, 0.0548484102, -0.0646691322, 0.0070864083, 0.0652757064, -0.0906466618, -0.0038305165, 0.0706483647, -0.0951204300, -0.0548092127, 0.0592345968, -0.0363532193, -0.0327054746, -0.0327544473, -0.0616532080, 0.0784628019, -0.0742936283, 0.0456741937, -0.0556865819, -0.0258403905, 0.0361271165, -0.0665454194, 0.0307435989, 0.0982160941, 0.0006816030, 0.0575838797, 0.0338506959, 0.0540103689, -0.0957776904, -0.0496473573, 0.0455764197, -0.0621738918, -0.0821203589, -0.0551992320, -0.0966897383, 0.0143323420, 0.0051415563, 0.0632231236, -0.0859324262, -0.0371713415, 0.0661843643, 0.0379822627, 0.0166038033, -0.0660580918, -0.0659496188, 0.0584608801, 0.0791857839, -0.0684628114, 0.0612440817, 0.0060883285, -0.0928201303, 0.0044374350, 0.0841441527, -0.0698502883, 0.0632986352, -0.0908043012, 0.0073324204, -0.0697451383, 0.0591865294, -0.0098106861, -0.0229752306, -0.0702969953, -0.0698969960, -0.0144740222, -0.0923688188, 0.0403089784, -0.0708686486, -0.0964075550, 0.0490117669, -0.0976432934, -0.0560728200, 0.0581810735, -0.0397791527, -0.0271895528, -0.0916125178, -0.0229296330, 0.0622010492, 0.0863936096, 0.0258248448, -0.0447019227, 0.0499847531, 0.0020704628, -0.0817204937, 0.0053202990, -0.0608672388, -0.0089811804, -0.0293999668, 0.0401050933, -0.0384519957, 0.0482541211, 0.0458925031, -0.0284323096, 0.0015187860, -0.0892147422, 0.0231837034, -0.0744991675, 0.0052057863, -0.0953882113, -0.0191695932, 0.0588953011, -0.0310962200, 0.0744072571, 0.0539604537, -0.0829049274, 0.0668220073, -0.0325103886, -0.0162102822, 0.0095956447, 0.0485974438, -0.0647211596, 0.0017489434, -0.0398509763, 0.0234481823, 0.0029808045, 0.0163074378, -0.0355239622, 0.0596275926, -0.0181499254, 0.0948848501, -0.0077749016, 0.0312762633, 0.0304721352, -0.0899244547, 0.0357373729, 0.0520762689, 0.0704336911, -0.0654950738, 0.0489304326, -0.0931601301, 0.0860242173, -0.0128618125, -0.0427237414, 0.0887338892, 0.0647935197, 0.0865326300, -0.0858593807, -0.0596047416, 0.0799749643, -0.0504366420, 0.0057108286, 0.0065326095, 0.0941089019, 0.0102792028, 0.0620734468, 0.0669840947, 0.0073282840, -0.0055714487, -0.0989497304, -0.0363315120, -0.0519917272, 0.0563566685, 0.0444119349, 0.0357571132, 0.0457088724, -0.0261126515, -0.0457423925, 0.0723538920, -0.0892318040, -0.0204730518, -0.0244067907, 0.0455677398, -0.0540536307, -0.0410121940, -0.0793001652, 0.0471494570, -0.0330377482, -0.0848904997, 0.0137320282, -0.0060152533, -0.0098336339, 0.0566558614, 0.0866666660, 0.0397013798, -0.0534074791, -0.0261443742, -0.0757608563, -0.0801362395, -0.0240608584, -0.0796038136, -0.0492088199, -0.0883893743, -0.0985798761, -0.0662204027, 0.0770067796, 0.0623493455, -0.0573027730, -0.0825976357, 0.0230360981, 0.0691140667, -0.0694998130, -0.0046067834, -0.0623807572, -0.0433259979, -0.0597673766, 0.0551018231, 0.0071128728, -0.0669274479, 0.0211869366, -0.0080563193, -0.0653829798, -0.0412565582, 0.0405457392, 0.0008707881, -0.0808032528, 0.0661261082, -0.0893362686, 0.0399788991, 0.0942671895, -0.0090020178, 0.0879558250, -0.0147567987, -0.0158649441, 0.0683791637, -0.0010053397, -0.0270043742, -0.0265738014, 0.0948642492, 0.0798128769, -0.0881924555, 0.0691092238, -0.0067396164, 0.0709282979, -0.0891832039, 0.0763497725, -0.0210834499, -0.0991827771, 0.0596005209, 0.0340541378, -0.0575163253, 0.0731126592, 0.0180749893, -0.0192691330, 0.0646308884, -0.0813192725, 0.0061190962, 0.0958374664, -0.0677165315, -0.0690582171, -0.0522533543, -0.0488569029, -0.0858669207, 0.0762745366, -0.0502417684, -0.0047098040, 0.0821066499, -0.0309805032, 0.0469873212, -0.0756106898, -0.0140628461, 0.0217890274, -0.0858409554, 0.0580029599, -0.0092169642, -0.0583618656, 0.0298821460, -0.0734238774, -0.0782277584, 0.0100966813, 0.0888042077, -0.0200105067, 0.0723653212, -0.0710757375, -0.0467601530, 0.0522552505, 0.0300168525, -0.0687908456, -0.0694887787, -0.0323522799, 0.0604015477, 0.0806827173, 0.0783891007, 0.0591279157, -0.0908957049, 0.0578524359, -0.0705175549, 0.0956373811, 0.0388735645, -0.0194983613, -0.0297964215, 0.0704846382, -0.0619203709, -0.0887162462, -0.0088775633, -0.0162820704, -0.0623555891, -0.0337122455, 0.0723143369, -0.0134141091, 0.0505216829, 0.0095946556, -0.0885027796, 0.0283197407, 0.0122529147, -0.0286197904, -0.0558692478, 0.0839246139, 0.0961181894, -0.0204355847, 0.0081554055, -0.0300437696, 0.0591375232, 0.0582438372, -0.0625087619, -0.0254711863, -0.0001661420, -0.0965812132, 0.0857410654, -0.0427412167, -0.0806625038, 0.0263087638, 0.0368784070, 0.0481759086, 0.0408552885, 0.0792601034, 0.0468891151, 0.0483645201, -0.0190375689, 0.0184907559, 0.0276452787, 0.0638832450, -0.0701970831, 0.0577706099, -0.0870833993, -0.0523515455, -0.0100934152, 0.0835216045, -0.0205176957, -0.0854649693, 0.0284319054, 0.0434756652, 0.0565438271, 0.0187809356, -0.0752106830, -0.0504907481, -0.0997268930, 0.0594907068, -0.0798808858, 0.0694625378, 0.0084732771, -0.0396222584, -0.0210031867, 0.0588767305, -0.0521504879, -0.0313115977, -0.0939795151, 0.0638197660, -0.0382495634, -0.0241563916, -0.0545275584, -0.0872122273, 0.0886256322, -0.0541131161, -0.0675994903, 0.0580552593, 0.0372741818, 0.0656887069, 0.0863873586, -0.0280652046, -0.0018801570, -0.0301619302, -0.0407067649, 0.0931244418, -0.0037087798, -0.0709827095, -0.0870568305, -0.0491192713, 0.0626791343, -0.0110456822, -0.0106883291, -0.0795697123, -0.0225952994, -0.0460284017, -0.0623277426, -0.0757836103, 0.0167789347, -0.0352960937, 0.0589076541, -0.0316663496, 0.0985476747, -0.0770186707, 0.0638693348, -0.0783440471, 0.0386675596, -0.0171917323, -0.0188321006, -0.0561221018, 0.0158620365, -0.0175692923, -0.0873573199, 0.0334923044, -0.0492284670, 0.0239939447, -0.0482157581, -0.0904531404, -0.0114440564, 0.0818155929, -0.0579371117, 0.0405645370, 0.0641770884, 0.0902524218, 0.0794193894, -0.0861809626, 0.0035669804, -0.0687672496, -0.0481339805, -0.0349712148, -0.0965936333, 0.0035850287, 0.0350715779, -0.0954864174, -0.0387363322, -0.0276389960, -0.0083764559, 0.0491878986, 0.0978363529, 0.0629717633, -0.0044923783, -0.0593699217, 0.0911037698, 0.0833598748, -0.0863104835, -0.0135527849, -0.0304686911, -0.0970462188, 0.0753585100, 0.0104179149, -0.0621707812, 0.0381985418, 0.0964271575, -0.0328114741, 0.0310723074, -0.0005383968, -0.0414036885, -0.0391110666, 0.0804150477, -0.0891002044, 0.0648605004, 0.0291595105, -0.0309383161, -0.0254724976, -0.0992221162, -0.0602293275, -0.0050502182, -0.0295158029, 0.0468199030, -0.0086357361, -0.0621312857, 0.0581397302, -0.0634947643, 0.0720703006, 0.0688433573, 0.0139116645, -0.0033452273, 0.0112015847, -0.0026463747, -0.0556694046, -0.0547880903, 0.0529078506, 0.0778795257, -0.0078002214, 0.0601506010, -0.0759477615, 0.0637893677, 0.0317362547, 0.0833739638, -0.0566369556, 0.0831714422, 0.0736968741, 0.0511633419, -0.0801002383, -0.0972396955, 0.0302951336, 0.0517963767, -0.0610748902, 0.0186173320, 0.0414872654, -0.0699852854, 0.0068455101, 0.0975784287, -0.0297656544, -0.0173485521, -0.0242840890, -0.0875003114, -0.0358065143, -0.0639888644, 0.0424701571, 0.0434879325, 0.0660571009, -0.0608243123, -0.0368977897, -0.0030463219, 0.0109851724, 0.0108542442, 0.0425030105, 0.0852860808, -0.0778172389, 0.0443527363, -0.0627145171, 0.0984259620, -0.0724377558, -0.0012579442, 0.0588411950, 0.0597817414, 0.0912647769, 0.0209734328, -0.0852737650, 0.0657784939, -0.0378803387, -0.0894656181, 0.0304316413, -0.0914390832, 0.0638291612, -0.0122157577, -0.0148448711, -0.0698420331, -0.0363491550, 0.0241088402, -0.0376688726, -0.0394711271, -0.0447376631, 0.0619110130, -0.0737987533, -0.0846148506, -0.0155122159, -0.0914219543, 0.0900743380, 0.0657093897, 0.0492678992, -0.0443627611, 0.0490006916, 0.0194267519, 0.0357457399, 0.0694060922, 0.0325295925, -0.0937173888, 0.0534551628, -0.0254753958, -0.0588418022, 0.0107288724, 0.0955986753, -0.0290883910, -0.0423888676, 0.0339101069, -0.0083606960, 0.0531393401, -0.0467770956, 0.0848443657, -0.0121040223, 0.0568768755, -0.0282191038, 0.0267388355, -0.0109707955, 0.0150388600, -0.0544217601, -0.0184186455, 0.0097934129, -0.0852008387, 0.0953291580, -0.0470974222, 0.0938773081, 0.0150462268, -0.0054264069, -0.0623737946, 0.0729411766, -0.0002499461, 0.0390423313, 0.0092506055, 0.0441180840, 0.0865947753, -0.0188807603, -0.0394898541, 0.0542801283, -0.0274372585, -0.0473830365, -0.0105276229, -0.0993155017, 0.0005201459, 0.0597345941, 0.0387312062, 0.0424730442, -0.0840612575, 0.0935974866, 0.0693057403, -0.0081504826, 0.0301304217, -0.0743745565, 0.0928505883, 0.0704092905, 0.0646788105, 0.0149610043, 0.0513983369, 0.0022642612, 0.0412528999, 0.0153953312, 0.0810361877, -0.0846794844, -0.0219947696, -0.0969951898, 0.0350976475, -0.0158467535, -0.0618759654, 0.0411691777, 0.0195208788, 0.0119778877, 0.0805631205, 0.0299837478, -0.0387542844, 0.0770578980, -0.0465197079, 0.0173191186, 0.0435227267, 0.0954311267, 0.0487554334, 0.0167972799, 0.0910838023, 0.0282834526, 0.0902190134, 0.0300098062, 0.0969339758, -0.0905268118, -0.0027401687, 0.0974787474, 0.0353017226, 0.0268407222, -0.0060304999, -0.0299607757, -0.0455998182, -0.0702302679, 0.0680719241, -0.0191437602, -0.0746781752, 0.0724621937, -0.0014632464, 0.0791807100, -0.0513313189, 0.0379381441, 0.0317321196, -0.0373357311, 0.0816092864, 0.0125742434, 0.0570534356, -0.0604499467, -0.0949167237, 0.0549212806, -0.0286631715, -0.0210176352, 0.0168308504, -0.0601026788, 0.0793790370, -0.0494794250, -0.0383432284, 0.0423020720, 0.0464978926, 0.0144418478, 0.0949125811, -0.0755287930, -0.0406800881, 0.0671923682, 0.0072667720, -0.0191607233, -0.0941551849, 0.0721886680, -0.0442893766, -0.0226277113, 0.0793380886, -0.0683765560, -0.0417361371, -0.0382196084, 0.0199361574, 0.0550375469, 0.0088830236, 0.0679154173, -0.0799535289, -0.0758021846, -0.0496727005, 0.0197186712, 0.0623753779, -0.0369476192, -0.0238111503, -0.0803044811, -0.0683568269, -0.0566074513, 0.0237973463, -0.0642886758, -0.0090499995, 0.0930208936, -0.0299025904, 0.0956992730, 0.0986094251, -0.0924679786, -0.0670660064, 0.0398875736, -0.0605067015, 0.0172729027, 0.0498225354, -0.0486647375, 0.0508290045, 0.0210137721, -0.0901394114, -0.0375114679, -0.0574572086, 0.0758597776, -0.0575211756, 0.0467390306, 0.0154753206, 0.0274788979, 0.0045153499, -0.0546838529, -0.0439895056, 0.0731354505, -0.0844230801, -0.0681947842, 0.0934738889, -0.0154228685, 0.0674899593, -0.0848180652, 0.0221984386, 0.0009884477, -0.0688121468, 0.0755419508, -0.0422708765, 0.0329840779, 0.0992269441, -0.0932146311, 0.0055001020, 0.0064556482, -0.0259536505, -0.0142802596, 0.0063130497, 0.0259311330, 0.0417622700, -0.0277667772, 0.0699564591, -0.0332243219, 0.0710966215, 0.0250712391, -0.0034239055, 0.0139077073, -0.0593464039, 0.0010649801, 0.0631407723, -0.0604734309, -0.0709523559, 0.0860188827, -0.0057778480, -0.0846539736, -0.0695436522, 0.0442143083, 0.0698513389, 0.0443511270, 0.0917170420, 0.0293213371, 0.0821329877, -0.0639245883, -0.0562394522, -0.0171754491, 0.0094199544, 0.0197671652, 0.0634937510, -0.0324396379, 0.0516610146, -0.0566363819, 0.0460411794, 0.0390779264, 0.0396944769, 0.0959002972, -0.0244494677, -0.0307116397, -0.0940207019, 0.0556730144, 0.0905810744, 0.0037735223, -0.0343791358, -0.0815631300, -0.0646931678, 0.0209607966, 0.0114735244, -0.0962885171, 0.0156357177, 0.0952608734, -0.0519064553, 0.0692057163, -0.0960256383, 0.0421081185, -0.0687081143, 0.0100536114, -0.0355274677, 0.0073849559, -0.0817845240, -0.0275724288, 0.0098554017, -0.0107270842, -0.0474712029, 0.0469385274, 0.0247558355, -0.0102442149, -0.0138190985, -0.0303868782, -0.0445524231, 0.0510107391, -0.0157519933, 0.0893378779, 0.0363264345, -0.0662215948, 0.0352067240, -0.0452704094, -0.0813939348, -0.0431997776, -0.0672438145, -0.0921560302, 0.0873935595, 0.0638046488, -0.0031306625, 0.0623087287, -0.0263426304, -0.0553112291, 0.0524462350, -0.0985146910, 0.0304032322, 0.0705731884, 0.0160345435, -0.0279368162, 0.0976337194, -0.0402343757, 0.0210078713, -0.0399416201, 0.0444381610, -0.0464329384, 0.0183101054, -0.0199378487, -0.0081189750, 0.0252403263, -0.0801738650, -0.0538598076, -0.0592578165, 0.0664210916, -0.0113785863, 0.0115911961, 0.0009860396, 0.0412659757, 0.0646982566, -0.0473253131, 0.0013335109, -0.0982160568, 0.0319878943, 0.0379083417, 0.0295399558, 0.0865060687, -0.0859330222, 0.0479066372, 0.0588874221, 0.0290080309, 0.0530096404, -0.0567266010, -0.0880586877, -0.0726415440, 0.0685894266, 0.0076316833, -0.0369038954, 0.0378459580, 0.0128139025, -0.0244107246, 0.0901811868, 0.0118213892, 0.0152518274, 0.0846472979, 0.0609530471, -0.0998414308, 0.0125039695, 0.0654044673, -0.0904285461, 0.0940979719, -0.0989965573, 0.0114280824, 0.0074333786, -0.0583412647, 0.0559888855, 0.0372391939, -0.0562369227, 0.0529874451, -0.0386067405, 0.0455956347, -0.0276359916, -0.0865340233, 0.0839490667, 0.0270190369, -0.0232169386, -0.0345014334, -0.0834516659, -0.0154792545, -0.0681285039, 0.0884509906, 0.0818715915, -0.0874717161, -0.0263052825, -0.0452441238, 0.0286281239, -0.0352033488, 0.0349827893, 0.0936469808, -0.0289071556, 0.0343966745, -0.0715434700, -0.0580408685, -0.0539374612, 0.0816132799, 0.0666577443, -0.0458799265, 0.0416786335, 0.0239075311, -0.0613705628, 0.0896762162, -0.0245796796, -0.0895954296, -0.0684661493, -0.0254899263, -0.0926676318, 0.0151743414, 0.0064859390, -0.0564781912, 0.0933401212, 0.0196390990, 0.0123812798, -0.0327732563, -0.0341782235, 0.0151383402, 0.0997920781, -0.0101724984, 0.0875819325, -0.0615332015, -0.0175627824, -0.0793154836, -0.0733789802, -0.0922637209, -0.0709072128, -0.0260269288, 0.0084361434, -0.0285151489, 0.0229099635, -0.0865199715, 0.0388308764, -0.0923329145, 0.0360997915, 0.0318913236, -0.0214786418, 0.0926136374, -0.0729162470, -0.0707917362, -0.0899621993, -0.0579563379, -0.0165880080, 0.0386825800, 0.0965501070, 0.0460674278, -0.0843642503, -0.0350121260, -0.0623510368, 0.0114529133, 0.0249473453, 0.0869929120, 0.0894669220, 0.0141573912, -0.0747383237, -0.0276221521, 0.0625138283, -0.0738566667, 0.0076317908, 0.0911611915, 0.0958029181, -0.0224010702, 0.0329732560, 0.0017507315, -0.0856684819, 0.0204592105, -0.0135974409, -0.0762359127, -0.0197819471, 0.0534974709, 0.0040973546, -0.0278349165, -0.0121651059, 0.0804042220, -0.0921401903, 0.0042885183, 0.0782913789, -0.0570669547, 0.0909877047, -0.0361418240, 0.0280158874, -0.0466237925, -0.0108067039, -0.0166129712, -0.0159635898, -0.0391673930, 0.0795384422, 0.0331371315, 0.0766193494, 0.0553543344, 0.0284173843, -0.0918909535, -0.0429896601, -0.0058943392, 0.0353485234, -0.0841755196, -0.0093312263, 0.0647694692, 0.0150748370, -0.0251807701, -0.0191665646, -0.0301332828, -0.0431517139, -0.0653642789, 0.0038702488, -0.0948376879, -0.0845259205, 0.0973355696, -0.0728899166, -0.0269456506, 0.0299764872, 0.0507455356, 0.0763625428, -0.0610343218, -0.0662676319, 0.0131502748, -0.0194108486, -0.0074202060, 0.0132135153, -0.0863893256, 0.0476413481, 0.0010598302, 0.0041171196, -0.0768611431, -0.0126674771, -0.0448225997, 0.0693570971, 0.0772428066, -0.0156402346, -0.0759008080, -0.0726277754, 0.0912882686, -0.0074634552, -0.0263268352, 0.0818483233, -0.0402063392, 0.0711883232, 0.0062997579, -0.0271375775, -0.0449571274, -0.0530700572, -0.0362167358, 0.0265037175, -0.0049719694, 0.0064156535, 0.0500068441, 0.0665289089, 0.0156351812, 0.0738121271, -0.0657802820, -0.0538362525, -0.0486651771, -0.0000834227, 0.0564530157, 0.0784106478, -0.0031678439, -0.0259788036, -0.0997648463, -0.0437413715, 0.0629313812, 0.0438957475, 0.0666979179, -0.0940781385, -0.0438717268, -0.0726800933, 0.0489846952, -0.0641313717, 0.0903470293, 0.0844605491, -0.0080133798, -0.0295944698, 0.0928209424, -0.0291859265, -0.0020525455, -0.0493650548, 0.0752506182, 0.0518380776, 0.0370919369, -0.0596844666, -0.0286799315, -0.0558891073, -0.0781967416, -0.0330482125, -0.0234298594, -0.0761243105, -0.0576339029, -0.0899862051, 0.0266349558, 0.0694568679, -0.0614047907, 0.0676176772, 0.0538897775, 0.0907905921, -0.0596864931, -0.0311786421, -0.0875244066, -0.0999610201, 0.0785756260, -0.0654202923, 0.0035552026, 0.0340974331, 0.0180948731, 0.0899820104, 0.0368898995, 0.0228106137, -0.0451194756, -0.0610480309, -0.0056648734, -0.0616670251, 0.0286716223, -0.0914712101, -0.0559589379, -0.0505592227, 0.0471274257, 0.0565837994, 0.0599258803, 0.0963193327, -0.0627668425, 0.0612580888, -0.0765018389, 0.0669276714, 0.0583456047, 0.0630743876, -0.0022580505, 0.0360827819, 0.0112472540, 0.0471005812, 0.0465025306, -0.0549912564, -0.0728768632, 0.0337941311, 0.0836461708, -0.0941611528, -0.0393581875, 0.0513428114, 0.0051867603, 0.0388185047, -0.0262225997, 0.0554708354, -0.0127057079, 0.0735251084, 0.0978657529, -0.0320121050, 0.0452015288, -0.0119808791, -0.0851799026, 0.0671350285, 0.0031348229, 0.0259745605, 0.0991972461, 0.0205016863, 0.0956303850, -0.0558042414, -0.0933950320, -0.0085506318, -0.0188517217, 0.0560127981, 0.0964098349, -0.0502077714, -0.0403801687, 0.0248124488, 0.0584044233, 0.0949020013, 0.0891280994, -0.0730484352, -0.0408229232, -0.0859036595, -0.0554545633, -0.0649085417, -0.0799406692, 0.0867341906, 0.0338897705, 0.0148495557, -0.0301042199, 0.0480879322, -0.0958399177, -0.0285827052, -0.0880956575, 0.0440405123, 0.0784313828, 0.0362155922, 0.0316892974, -0.0312926173, -0.0107267378, 0.0684886351, -0.0384221449, -0.0639331117, 0.0930014178, -0.0471920371, 0.0714169368, -0.0936150178, -0.0119022727, -0.0243014097, -0.0913869068, -0.0012183547, 0.0110204816, -0.0984783918, 0.0099161509, -0.0506951101, -0.0083774207, -0.0695616379, 0.0864939094, 0.0918677449, 0.0726742521, -0.0893925801, 0.0456902869, 0.0472144000, -0.0187128540, -0.0285973437, 0.0958552510, -0.0891309381, 0.0073292376, 0.0625000596, -0.0215249546, 0.0950229391, 0.0641337037, 0.0789165869, 0.0097822072, -0.0364700817, 0.0091007473, 0.0692154914, 0.0586229227, -0.0471115597, -0.0132020712, 0.0265723951, -0.0545227192, -0.0101616383, 0.0544884093, 0.0332325101, 0.0678802729, -0.0996717960, -0.0234061480, 0.0153652905, -0.0821296722, -0.0611161590, -0.0814474821, 0.0366290323, -0.0493262075, 0.0354677439, -0.0237253308, 0.0184541829, -0.0434361808, 0.0774249658, 0.0342527144, -0.0083778622, -0.0075229527, -0.0924865529, -0.0729772598, -0.0446263440, -0.0518656261, 0.0070086955, -0.0478196628, -0.0823927298, -0.0160809048, -0.0786729231, 0.0044311881, 0.0434095636, 0.0970129147, 0.0521529578, -0.0154405115, 0.0455433130, 0.0104667423, 0.0580317266, 0.0235748533, 0.0669768453, -0.0601191893, 0.0273059849, -0.0757105127, -0.0139320856, -0.0077792048, 0.0711296722, -0.0435179956, 0.0207951795, 0.0595062375, 0.0026279211, -0.0359766372, 0.0890527144, -0.0512462519, -0.0984277353, 0.0716398284, -0.0320992954, 0.0838894844, 0.0312018525, 0.0259863269, 0.0194290411, -0.0385079756, 0.0428903364, 0.0936570391, -0.0477480553, 0.0869512111, 0.0416416898, 0.0582658052, -0.0133776907, 0.0429022685, -0.0478144996, 0.0710529834, -0.0059419037, -0.0292405486, -0.0697855875, 0.0630770549, -0.0778908134, 0.0138155464, 0.0873410627, -0.0670675561, 0.0166071784, -0.0511835329, -0.0187682994, -0.0990115777, -0.0518557541, -0.0785507709, -0.0503445975, 0.0590467118, -0.0215873849, 0.0909417793, -0.0389394425, 0.0651378781, -0.0883282423, 0.0492293946, 0.0987853333, -0.0514962189, 0.0757218972, -0.0504908934, -0.0651829615, 0.0810655281, -0.0691725537, 0.0725755468, 0.0816648975, 0.0892570615, -0.0071556689, -0.0045757890, -0.0720130354, 0.0401784293, 0.0591894649, 0.0999728814, -0.0335367806, 0.0096664196, 0.0340612419, 0.0332484506, -0.0872326046, -0.0488317013, 0.0935992375, -0.0011927724, 0.0785431266, 0.0993361026, 0.0044660689, -0.0299617890, -0.0251887925, -0.0997639075, 0.0922425613, 0.0980042815, 0.0708300248, -0.0940899625, 0.0246951580, 0.0385129228, 0.0205674302, -0.0611391179, -0.0071088909, 0.0271773823, -0.0439465903, 0.0983790979, 0.0173703786, 0.0283377524, -0.0662154555, 0.0321147926, -0.0597113147, -0.0429275744, -0.0200361498, -0.0378556959, -0.0093991756, 0.0510292538, 0.0950452313, 0.0168494117, 0.0950477645, 0.0565975197, 0.0848338977, 0.0460369959, 0.0309728514, -0.0718792826, -0.0609025732, -0.0669214725, -0.0180146229, -0.0158142205, -0.0034237385, 0.0557435639, 0.0741248280, 0.0981308743, 0.0185442697, 0.0168668162, 0.0450922623, -0.0275591370, -0.0272973776, 0.0363759398, 0.0932865292, -0.0570549145, -0.0593219064, -0.0186683536, 0.0240655188, 0.0372170918, -0.0719804764, -0.0210119374, 0.0912606344, -0.0435079224, 0.0868609175, 0.0220881589, 0.0819128081, -0.0446632020, -0.0009384036, -0.0070964335, 0.0100669386, 0.0074105742, -0.0197736379, -0.0556686521, 0.0053579211, 0.0881706253, 0.0387240537, 0.0603011623, -0.0165662523, -0.0535937324, 0.0682415143, -0.0190215707, 0.0257295724, 0.0045543793, -0.0959967300, -0.0933788940, -0.0689084902, 0.0995055959, 0.0039237379, 0.0477472916, 0.0495435111, 0.0174050685, 0.0547495857, -0.0231677182, 0.0382560603, 0.0471013077, 0.0596082471, -0.0860262513, -0.0318276547, -0.0763140097, 0.0217955597, 0.0604031086, -0.0462899581, 0.0656703338, 0.0807464719, 0.0600561611, 0.0310574528, -0.0126492260, 0.0541546717, -0.0619967096, 0.0964519382, -0.0136633758, -0.0994757190, 0.0131648546, 0.0945909619, 0.0565544255, 0.0441371202, -0.0667195842, 0.0455637835, -0.0937106162, 0.0465070382, 0.0674919859, 0.0103462813, 0.0925973803, -0.0947127268, 0.0577514768, -0.0046999454, 0.0233702548, 0.0108065484, 0.0100457668, -0.0168389808, -0.0455602407, -0.0517007113, -0.0243055709, -0.0650357828, -0.0994922072, 0.0953621641, 0.0588761941, -0.0673555136, -0.0827043429, 0.0874379799, 0.0063499571, -0.0329778567, -0.0796852335, -0.0512937196, -0.0431545153, 0.0791066065, -0.0750378519, -0.0070314528, 0.0372024551, -0.0926547870, 0.0800714120, -0.0320765749, 0.0927826762, 0.0260276087, -0.0456652045, 0.0119905239, 0.0580185652, -0.0763120800, -0.0975802466, -0.0901171491, -0.0342386253, -0.0029571056, -0.0269155502, -0.0349503644, -0.0939635634, 0.0253199935, -0.0209841132, 0.0531670451, -0.0763508677, -0.0465468168, -0.0628749952, 0.0818865895, 0.0226826668, -0.0700213462, 0.0524061583, 0.0403756164, 0.0294515975, 0.0227954388, -0.0334208496, -0.0676710829, 0.0582000986, -0.0182724241, -0.0675465465, 0.0505030155, -0.0748790875, 0.0983981043, -0.0066894414, -0.0782131106, -0.0622654222, -0.0498838089, -0.0444860831, 0.0472862832, -0.0780963674, 0.0007426858, 0.0288962368, -0.0724059269, -0.0517260432, 0.0078333495, 0.0284550674, 0.0912630185, 0.0440807603, 0.0947694704, -0.0332215205, -0.0584411286, 0.0885441825, -0.0751949698, -0.0921211839, 0.0328050144, 0.0897074491, 0.0231596585, -0.0215049740, 0.0276115183, 0.0022639632, -0.0336415879, 0.0702845678, 0.0464298613, -0.0486533158, 0.0973265991, -0.0756294653, 0.0268041622, 0.0279420260, 0.0882884413, 0.0223300215, 0.0953679606, 0.0821416974, -0.0257853400, -0.0761079118, -0.0772862062, -0.0176081900, -0.0281929728, 0.0465462469, 0.0149750952, 0.0306568500, -0.0483754054, -0.0254058484, -0.0032574893, -0.0051365020, 0.0205120798, 0.0975526720, 0.0974306613, -0.0315172449, 0.0289091598, 0.0692185983, -0.0764362216, 0.0109370714, -0.0414454341, 0.0818648115, 0.0986655504, -0.0250589382, -0.0555470362, 0.0100222947, -0.0407760628, -0.0836665183, -0.0580089465, -0.0878079459, -0.0454104207, -0.0934628770, 0.0858601257, 0.0922241956, -0.0677914172, -0.0059227110, -0.0821392760, 0.0091076372, 0.0026098967, 0.0267417785, -0.0705304146, -0.0137406588, 0.0956511423, -0.0676567927, -0.0829296634, 0.0322236083, 0.0416425839, 0.0498894453, 0.0196821447, -0.0871412084, -0.0962756202, -0.0659086853, -0.0938574001, 0.0121127609, -0.0996588841, -0.0586407296, -0.0557755232, 0.0835925266, 0.0690516457, 0.0305001140, -0.0879776254, -0.0778192505, 0.0520097502, -0.0381141081, 0.0126036648, -0.0378969423, 0.0520424359, -0.0352789424, -0.0082118390, 0.0445973873, 0.0013656140, -0.0571899079, -0.0873001814, -0.0972453728, 0.0246572141, -0.0059681418, -0.0882236362, -0.0968670622, 0.0077425363, -0.0011600137, 0.0438560843, 0.0003532410, -0.0493202209, -0.0017888070, 0.0545437112, -0.0554515496, 0.0661680698, 0.0956673622, 0.0880547538, 0.0450480580, -0.0373394862, -0.0886742622, 0.0914698243, -0.0168336872, 0.0357051976, 0.0103594661, -0.0313279741, 0.0882142559, 0.0822872669, 0.0148747209, 0.0722264647, -0.0492596999, 0.0923884436, -0.0280425306, -0.0568377264, -0.0145396115, -0.0393304005, 0.0268791206, -0.0463493951, 0.0596657991, -0.0626533404, -0.0348680131, 0.0091208462, -0.0947055742, -0.0109549165, 0.0808522329, -0.0450629592, 0.0017023444, -0.0392534025, -0.0566307083, -0.0075745583, 0.0936833397, -0.0534589179, 0.0991607532, -0.0427593365, -0.0621441863, 0.0524501912, 0.0576431155, -0.0188145638, -0.0399537347, -0.0634016916, -0.0789259002, 0.0578847192, -0.0045762779, 0.0228282344, -0.0382435918, -0.0167350769, -0.0169734359, 0.0378222577, 0.0857466981, 0.0306177977, 0.0104208468, 0.0213137027, 0.0696024895, 0.0542446747, -0.0790416747, -0.0378442518, -0.0113263968, 0.0360044353, -0.0483885184, -0.0494905971, 0.0919193774, 0.0363182537, 0.0576257110, -0.0176157840, 0.0468804352, -0.0554067157, 0.0065885307, -0.0745745897, -0.0240720268, 0.0433306694, 0.0762380734, -0.0919325724, 0.0219688062, 0.0130267385, -0.0004714251, -0.0591533557, -0.0680482984, -0.0238089692, -0.0180913564, 0.0546719804, -0.0743082538, -0.0013733268, -0.0230878238, -0.0973171964, 0.0278502703, 0.0979653224, 0.0750110745, -0.0266500246, -0.0545572415, -0.0278486963, 0.0295479894, 0.0607853048, 0.0657016039, 0.0550827868, 0.0136639243, -0.0839864016, -0.0417939313, -0.0961539522, 0.0561847351, 0.0587873235, -0.0642892867, -0.0062292935, -0.0683429763, 0.0924243331, 0.0244454276, -0.0600003973, 0.0582320690, 0.0293632038, 0.0739388019, 0.0526745692, 0.0868289620, 0.0446040519, 0.0156648885, 0.0188875329, 0.0822450444, -0.0419843905, 0.0895830020, -0.0810922608, 0.0847381875, 0.0570812114, -0.0295218229, -0.0354395024, 0.0880429521, 0.0088181021, -0.0455290340, -0.0416032337, -0.0666874573, -0.0459743254, 0.0295017958, -0.0926469788, -0.0209582802, 0.0386398695, 0.0314448476, -0.0161319375, 0.0389485620, 0.0766008869, -0.0651986748, -0.0378325842, 0.0333616994, -0.0661107078, -0.0314168707, -0.0524319671, -0.0134892706, -0.0014238119, 0.0866838470, -0.0701171160, -0.0111433864, 0.0096305488, 0.0069901827, -0.0175386555, 0.0378570668, 0.0903387591, -0.0744797364, 0.0985398218, -0.0343518965, -0.0880171210, -0.0467915311, -0.0690216571, -0.0018481016, -0.0329179876, -0.0457388163, -0.0397735722, 0.0229792725, 0.0103781465, 0.0525388010, 0.0541084893, -0.0851798877, -0.0830105320, 0.0488984957, 0.0025285364, -0.0506004579, 0.0625479966, 0.0186666735, 0.0548256412, -0.0493501313, 0.0089838151, 0.0825854167, 0.0899538398, -0.0329270475, 0.0699454471, 0.0225994717, -0.0951111317, 0.0338593610, -0.0200108420, 0.0838820860, -0.0412518270, 0.0077887774, -0.0312385913, 0.0387774818, -0.0825392231, 0.0864283592, 0.0931397676, -0.0360315703, 0.0189608820, 0.0180283077, 0.0841459557, 0.0651921034, -0.0022827031, -0.0766307637, 0.0806506425, -0.0374950543, -0.0607154146, -0.0834764466, 0.0782619268, 0.0781437382, -0.0576484315, -0.0622582920, 0.0916952267, -0.0354893915, 0.0051384452, -0.0952221379, -0.0980041772, -0.0562841669, -0.0322082303, 0.0429365896, -0.0468878634, -0.0865515471, 0.0211333390, -0.0464363359, -0.0026564121, -0.0060188891, -0.0925446749, -0.0210144650, 0.0716334134, -0.0509640835, 0.0759668872, 0.0117317205, -0.0089520933, 0.0031280876, 0.0621324070, -0.0029020309, -0.0990878865, -0.0743656084, 0.0832628831, 0.0206693653, -0.0745550394, -0.0258074161, 0.0699690729, -0.0859313607, -0.0010021925, -0.0566642284, -0.0729608089, -0.0478171706, -0.0558938868, -0.0964961797, -0.0847560391, 0.0520331860, 0.0735035315, -0.0648107305, 0.0352266543, -0.0899432525, 0.0073024989, -0.0849070325, 0.0704219118, 0.0230222344, -0.0373159535, -0.0248433482, -0.0989377871, -0.0771320611, -0.0262535810, 0.0401878469, -0.0791612417, 0.0790780336, -0.0962819979, -0.0463666320, -0.0338128470, -0.0628028661, 0.0757648498, -0.0501570813, 0.0327117220, 0.0853876248, 0.0036501766, -0.0301103946, 0.0197195411, -0.0409320854, 0.0655140430, 0.0778671503, 0.0091154939, 0.0335991494, -0.0729178563, 0.0262692925, 0.0437665097, 0.0562894605, -0.0688435808, -0.0119403480, 0.0926519409, -0.0031697394, 0.0959573165, 0.0006716609, 0.0813782215, 0.0575909875, -0.0749826655, 0.0912321582, -0.0129913213, 0.0817886814, 0.0631562024, -0.0557008758, -0.0044581294, -0.0409787074, 0.0433745496, 0.0154087422, 0.0573570989, 0.0115099549, -0.0166043285, 0.0911894813, 0.0150024658, -0.0733235702, -0.0024198652, -0.0056426409, -0.0704086944, 0.0489884131, -0.0139298802, -0.0566682108, 0.0959425941, 0.0652558208, 0.0423048995, -0.0966956019, -0.0296570659, 0.0035174608, -0.0448449962, -0.0922569856, 0.0362510346, 0.0593377948, 0.0848363563, -0.0932172462, -0.0112627987, -0.0370959900, 0.0129690887, 0.0579308644, 0.0261139404, 0.0315775648, 0.0396715999, 0.0831882879, 0.0915289149, 0.0710552856, 0.0779715329, 0.0249091033, 0.0545062907, 0.0186434519, 0.0646513030, -0.0160924792, -0.0168066975, 0.0721725971, -0.0579528920, -0.0662082806, -0.0477700718, 0.0068714023, 0.0181924943, 0.0205573440, -0.0326477550, -0.0059628966, -0.0438160785, -0.0755727068, 0.0829703137, 0.0762499496, -0.0728862658, 0.0338667147, 0.0100748418, 0.0094316248, 0.0272216201, 0.0832281634, 0.0049145343, 0.0872794911, -0.0878193527, 0.0945459157, 0.0117378710, 0.0297292713, 0.0520778187, -0.0372703560, 0.0505312569, 0.0202101711, -0.0785638019, 0.0526111610, 0.0682160780, 0.0176968332, 0.0525923036, -0.0081094150, 0.0299974922, 0.0054589869, -0.0426481850, 0.0423394106, -0.0392938741, -0.0173084624, 0.0739331990, 0.0134752756, -0.0331478603, 0.0664554611, 0.0221036803, -0.0448922515, -0.0304673910, -0.0781686082, -0.0154384496, 0.0282619838, 0.0228408817, -0.0926424786, -0.0980107412, 0.0301963575, 0.0152392508, -0.0800599381, 0.0908630639, 0.0398643874, 0.0843080804, 0.0758386850, -0.0221953392, -0.0124342684, -0.0176707637, 0.0803484321, -0.0080788014, -0.0261543635, 0.0754552633, 0.0594565868, -0.0501482375, 0.0233233925, 0.0950046703, 0.0701520666, 0.0344391838, 0.0940361544, 0.0018300057, 0.0392366312, -0.0292820334, 0.0838841349, 0.0318842195, 0.0010278582, -0.0987230688, -0.0136169670, 0.0878481045, 0.0193634033, 0.0348407887, 0.0347192399, -0.0811415315, -0.0327347517, 0.0851296708, 0.0845814347, -0.0629298240, -0.0155732157, 0.0621254928, -0.0500754379, -0.0711618811, 0.0248243455, -0.0801058188, -0.0518447645, 0.0820095763, -0.0612017512, 0.0974901915, 0.0581327192, 0.0060150982, -0.0613622069, 0.0335019939, -0.0443400033, 0.0102555398, -0.0875790715, 0.0031714321, -0.0326245315, 0.0308874734, 0.0055382135, 0.0711170584, -0.0028543950, 0.0200740825, 0.0264389645, -0.0813522339, -0.0186604392, -0.0232670661, 0.0473835729, 0.0248345491, -0.0495568402, 0.0378296487, 0.0552722216, 0.0476126336, -0.0050796154, -0.0389421247, 0.0605278127, -0.0277938135, -0.0682901517, -0.0485972874, -0.0459792130, -0.0866230652, 0.0633863732, -0.0271621346, -0.0621112846, 0.0477246903, 0.0118440632, 0.0263311155, 0.0475006364, 0.0966809988, -0.0629243627, 0.0608305000, 0.0286401510, -0.0883492455, -0.0428530835, -0.0211075544, 0.0631934628, 0.0195610523, -0.0661574155, -0.0749854222, 0.0632980987, -0.0017496109, -0.0097545981, 0.0863072276, -0.0295418389, 0.0016179801, 0.0960952565, -0.0375332944, 0.0950456634, 0.0408416390, 0.0254206192, 0.0605410710, -0.0911729112, -0.0312886722, 0.0904639363, 0.0452052616, -0.0221763384, -0.0369178317, -0.0229094867, -0.0599302165, 0.0601017252, 0.0571947098, 0.0099918488, -0.0650265440, 0.0368437283, 0.0683140084, -0.0326079242, 0.0721541271, -0.0789868981, 0.0811759010, -0.0022461177, -0.0650022179, -0.0340636857, -0.0449933521, 0.0065078260, -0.0686409399, -0.0407676212, 0.0191246998, 0.0715418085, 0.0578900240, -0.0691193268, 0.0447984710, 0.0735202953, 0.0621549152, 0.0347527862, -0.0742089674, 0.0263392217, -0.0418366902, -0.0682916269, -0.0159644615, 0.0438876525, 0.0548495762, 0.0109655978, 0.0081816083, 0.0430937670, -0.0788409933, 0.0721993819, -0.0454000495, 0.0616941713, -0.0585082658, -0.0653924495, 0.0404481404, 0.0810480639, -0.0017371774, 0.0725212023, 0.0742373839, 0.0387297273, -0.0463913679, -0.0183730125, 0.0875329748, -0.0554169416, 0.0998564288, -0.0417556874, -0.0881487951, -0.0572471991, 0.0545948036, 0.0655366704, -0.0745508000, -0.0624857321, 0.0096345907, -0.0892063975, 0.0633524060, -0.0057771802, 0.0078069209, 0.0082213283, -0.0328857303, -0.0001731992, -0.0124120237, -0.0679480061, -0.0040214541, 0.0848411471, 0.0650486574, -0.0008340717, 