//Numpy array shape [8, 2, 16]
//Min -0.244597434998
//Max 0.249174863100
//Number of zeros 0

#ifndef ATTENTION_OUTPUT_WEIGHT4_H_
#define ATTENTION_OUTPUT_WEIGHT4_H_

#ifndef __SYNTHESIS__
mha_attention_output_weight_t attention_output_weight4[256];
#else
mha_attention_output_weight_t attention_output_weight4[256] = {0.0195563734, 0.1477921307, 0.1971861422, 0.0502635837, -0.1856714785, -0.0174997747, 0.0634061098, -0.1781679988, 0.2019524872, -0.2257611156, -0.1399179995, -0.1395568550, 0.2223686278, -0.1452823281, 0.1418882906, -0.2306329608, -0.1038953960, 0.1153765023, 0.1409149766, 0.1909620464, 0.0267388523, 0.0246717632, 0.0186485946, 0.2466253340, 0.1242035627, -0.0261526406, 0.0029975176, 0.1145403087, -0.1628021598, -0.1601012051, -0.2423591614, 0.0247682333, 0.0168277621, -0.1266001165, 0.1665643156, -0.1450841129, -0.0857194960, 0.1143417954, -0.0538702309, -0.0929338336, 0.1791244149, 0.1403389871, -0.1853607297, 0.1449773312, -0.0372338891, -0.2243490517, -0.0685970485, -0.1241984665, -0.1217679381, -0.2279463708, -0.1976565421, 0.0696408153, -0.0199532509, 0.1021337211, 0.1348108649, 0.1420514286, 0.0190789402, 0.2175010741, 0.0781164169, -0.0221795440, 0.2381802201, -0.0903671384, 0.1257656813, 0.0916883945, 0.2043917775, -0.1354267597, 0.0549544692, -0.2188627720, -0.0602294505, 0.0197302401, -0.2135045528, -0.1969142556, 0.2491748631, -0.0242470205, 0.2161322236, -0.0930703878, -0.0046660900, -0.1706680357, -0.0886842310, 0.0460644662, -0.1477867663, 0.0836896896, -0.1674958467, -0.2096658349, -0.0542601049, -0.1975996792, 0.2351396382, -0.2087124586, -0.0244097114, 0.0159779489, -0.0810212791, -0.1582382321, -0.0025477707, 0.1742790043, 0.0811966956, -0.2417249978, -0.1644289196, -0.1024059951, 0.1123010814, -0.2399714589, -0.2227871120, 0.1275288165, 0.1538553536, 0.0607434511, 0.0699071586, -0.1655792594, 0.2386665940, 0.1830347776, 0.2276380658, -0.1761212945, -0.1349734068, 0.0088745356, 0.1857219636, -0.2208764851, -0.0514950454, -0.1258000433, 0.0189204514, -0.0941990316, 0.2253036499, 0.1044022739, 0.1909285784, -0.1844758391, 0.1234913170, 0.0148360431, -0.0926842690, 0.0201358795, -0.0227784514, -0.0411342382, -0.1414772272, -0.1759434640, -0.1874285936, 0.0879847407, 0.0150441527, -0.2089580297, -0.0225912333, -0.1089556813, -0.1732976139, -0.1646411121, -0.0540161729, -0.1371427178, 0.0303941071, -0.0462508798, -0.2109335959, -0.2267855108, -0.1196944714, -0.2078183889, 0.1403698921, -0.1934810579, 0.0257570446, -0.0361297727, 0.1417562366, -0.2233749032, 0.2178843617, -0.0164856315, 0.1729535460, -0.2044382393, 0.1913367510, 0.1257531345, -0.1630973816, 0.2270299494, -0.2445974350, -0.0051380694, 0.1785677969, 0.0506934524, 0.1116717756, -0.2386074960, 0.1304335892, -0.2435216010, -0.2062766552, -0.0238929391, -0.0020081103, 0.0565652549, 0.2207204998, 0.1968197227, -0.1317011416, -0.2209079862, 0.1522434652, -0.0086747408, -0.1412523389, -0.1748994589, 0.0567224324, 0.0904466510, 0.1230134666, 0.1957229972, 0.0000661910, -0.1437994242, 0.1733483076, 0.0452466607, -0.0545927584, -0.0169578493, -0.1337197125, 0.0802322626, 0.1975328326, 0.1849376261, -0.0647299588, -0.0970168710, -0.1781719029, -0.1454001963, 0.2363275588, -0.2195960879, -0.2356830835, -0.2216052711, -0.0715872049, 0.2472812831, 0.0353268087, 0.1793660223, 0.1894573569, -0.1891472936, 0.1649129391, 0.0945041180, 0.0642691553, 0.0060830414, -0.1727067232, -0.0188254118, -0.0512751043, -0.1462852657, -0.0784606934, -0.1659531593, -0.0208561122, -0.1749767065, 0.2449548542, 0.0595230162, -0.1679265201, 0.2486933470, -0.0319162011, -0.1929178238, -0.0807786286, 0.1871817708, -0.2078012228, 0.1997156441, -0.1226712167, 0.2474089265, -0.1913915873, 0.1981730461, 0.1226331294, -0.2287651300, -0.1990897954, -0.2226135731, 0.2214075327, 0.2050691545, -0.0911614001, 0.0724627078, 0.0782454908, -0.2236283123, -0.1509316862, 0.1626121998, 0.1732749045, -0.0170675516, -0.0807039440, 0.1127406657, -0.1105477810, 0.1020075381, 0.0137202740, -0.1795452237, 0.1437910497, -0.1229856014};

#endif

#endif
