-0.1481381208, 0.0243024956, -0.0012236707, -0.0130274836, -0.1564557552, -0.0104815150, -0.0350872502, -0.0668260753, 0.0665652454, 0.0698162690, 0.1989378333, -0.0581681803, 0.2103432715, 0.1762572825, 0.1191873550, 0.1848296672, 0.1520246714, -0.1117275357, 0.1042023599, 0.1061399281, 0.0321773738, -0.0602375120, 0.1160169691, 0.0517549850, -0.1134907752, 0.1600205898, -0.0631895289, 0.0390407071, -0.0560861304, -0.0170711204, 0.1859371960, -0.1982668787, -0.0852585435, 0.1786620766, 0.0539715104, 0.0249797702, -0.0465102531, 0.0646949559, -0.0108769033, -0.0219077989, 0.0599912107, -0.2202183157, -0.0321392827, -0.0711273998, 0.1673657894, -0.1927211434, -0.2229831517, 0.2024668008, 0.0835072175, 0.1270148605, 0.0614450276, 0.0773251057, 0.1789441556, 0.0691586658, 0.1964602619, 0.0316015482, 0.0522103496, -0.1969421208, -0.2021229118, 0.1818068177, 0.1049373671, -0.2172614634, -0.0456672311, -0.1326040924, 0.2027152032, 0.0775584280, 0.1673527360, 0.0390438251, -0.0351876356, 0.0355849974, 0.0041257367, 0.0777243078, 0.0177487954, -0.0075852065, 0.0921677276, 0.2127690166, -0.2178528756, -0.2066374719, -0.0380107723, 0.1385973990, 0.0338358283, 0.1900743097, 0.2180245519, 0.1200591922, 0.1920772493, 0.1472114027, -0.0435581282, 0.0738836005, 0.1549504697, -0.0899394229, 0.0325503983, -0.0839777216, -0.2048670948, -0.1758977920, -0.1777071208, 0.1286078244, 0.0961951315, 0.2147561759, 0.1830950528, -0.1344194412, 0.0083904313, 0.2013473213, -0.0395418406, -0.1357754916, 0.1204518080, 0.1191320643, 0.1814795285, -0.2118994296, 0.0822275430, 0.0430477709, -0.1255021393, 0.1631943136, 0.1294009984, -0.1366776079, 0.0089466888, -0.0515965931, 0.1808208674, 0.0454710983, -0.1356511116, -0.0434918888, -0.1508061439, 0.1493640244, -0.0304180756, 0.0597811863, -0.1123114377, -0.1021243632, 0.1928066611, 0.0975581333, -0.1242875531, 0.0520814396, 0.1948780715, 0.0225243531, -0.1058992520, 0.1598019302, -0.1569210589, -0.1586516798, 0.1154088601, 0.1624505520, 0.1653188169, 0.1705240160, -0.0947917998, -0.0614601150, -0.1511394829, 0.1263066083, -0.0875193253, 0.2208431512, -0.2215786129, -0.0827584490, -0.0385281667, 0.0848151743, -0.0220788512, 0.1723540425, -0.2087775320, -0.1215059683, 0.1017253995, 0.2146007121, 0.0017302681, 0.1859818101, 0.0196637902, -0.1070610508, -0.1351580024, -0.1353921741, -0.0988130718, 0.1056123525, -0.1028735265, -0.2205130458, 0.1848692000, 0.0992072374, -0.0620597973, -0.1096452177, -0.1160346642, 0.1715449989, -0.1199414730, 0.1902812421, -0.1563078165, 0.2130166888, -0.1574990451, 0.1634321362, 0.2220824510, 0.1546716094, -0.0649024695, -0.2071064562, 0.1837120801, 0.1414395422, -0.0300805848, 0.0606879443, -0.0204091184, 0.1630950421, 0.1651373506, -0.1273575276, 0.0364032015, -0.0710889846, 0.0357505567, -0.1211563796, 0.0374930054, -0.1117529646, -0.1808431447, 0.1668309122, -0.0225464776, -0.1321814954, 0.1038852558, 0.0661106333, -0.0648624897, 0.0193407461, -0.2227571309, -0.0702334642, -0.1041345149, -0.2050432563, 0.0500242636, -0.0188373737, -0.0734581724, -0.1067359596, 0.1893419623, 0.0114696268, -0.1231906042, -0.0911270007, 0.1832660139, 0.1560901105, 0.1188352555, 0.1015016213, 0.1375173479, 0.1575601995, 0.1618897170, 0.2024862766, 0.1092526317, -0.1836900413, -0.0384945013, -0.2055830657, 0.1179336384, 0.1173484847, -0.0243307501, -0.1726409942, 0.1678879559, 0.0534917302, -0.1226239502, -0.0970847532, 0.2232033312, -0.1737996191, -0.1952476352, 0.0039022795, -0.0207199808, 0.1961476952, -0.2036069483, 0.1494773179, -0.0377272852, -0.1713171452, -0.2165549546, 0.0000689591, 0.1222555637, -0.0105373859, -0.1024141684, 0.0019795550, -0.1586510390, 0.0583757758, 0.1129488871, 0.2030353695, -0.0618409254, 0.1024779230, 0.0746387914, -0.1807036847, 0.2106635123, 0.0718072578, 0.0295161959, 0.0764501467, -0.1632329971, 0.1922642142, 0.1799400747, -0.0197782237, -0.1267492920, 0.0563133992, 0.0552082434, -0.0298539810, 0.0710786730, 0.0226586722, -0.1179371849, -0.0374912731, -0.0290591791, 0.0712694749, -0.0151444506, 0.0717020482, 0.0594844781, 0.0946987718, -0.0900868848, 0.1741952002, 0.1484999210, -0.1742350459, 0.1709321588, -0.0876368731, 0.0160150360, -0.1375751495, 0.0279806238, 0.2132313997, -0.1233431548, 0.0564897321, -0.2168055922, 0.0868205354, 0.2000893503, -0.1996586323, 0.2231777906, 0.2025017887, 0.1648368835, 0.1957818717, -0.1665726751, 0.1733047217, -0.0984423161, 0.1626638323, -0.1610484570, 0.1294122189, -0.0728292242, 0.2198541611, 0.1368792653, 0.2051057070, 0.1112921908, -0.1212835833, -0.2100163698, -0.0612395108, 0.1369319409, -0.0787752420, 0.2081937641, 0.0801371261, -0.1059859917, -0.2178882509, 0.0334531553, -0.1023436636, -0.1749084890, -0.1196356267, 0.0675894767, 0.0184046403, -0.1674392074, -0.0746479854, -0.1030544415, 0.1087814867, 0.1460428834, -0.0947277695, 0.0393838510, 0.2042949945, -0.0666740313, -0.0575238764, 0.0552045107, 0.1332954764, -0.1091591492, 0.1183748469, 0.2018037587, -0.0742791221, 0.2233906090, 0.1020721421, -0.2001403123, 0.0141748916, -0.0829552561, -0.0487375222, -0.0475472808, 0.2143001705, 0.2231024355, -0.0815194547, 0.1122569740, 0.0933449119, 0.1745342314, 0.2042306215, -0.0235300846, -0.0644942075, -0.0172010157, -0.2233022749, -0.0891553089, -0.0465199314, -0.0954373553, 0.1486905664, 0.0637584999, 0.0138172749, 0.0359830782, -0.2096395493, -0.1925849020, -0.1520231813, 0.0349932052, -0.1263972372, -0.1919035017, -0.2132984847, 0.1840704679, -0.0821594372, -0.0776122436, 0.0501510389, 0.1034368798, -0.1553365439, -0.0747788399, 0.1831800044, -0.0471388027, -0.0124029331, -0.1148253605, 0.0542324185, -0.0231295768, 0.1356246918, 0.0696561709, 0.1041111946, 0.0307297911, 0.0369417891, -0.1644179821, -0.1253408641, -0.1988260895, 0.0283406135, 0.1610689759, -0.0263969637