0.1561727971, -0.0724641979, 0.1211235896, -0.0901231319, 0.1015269458, -0.1533203423, -0.0999768749, -0.1915181875, 0.1642971784, 0.1655825526, 0.0342903398, 0.1396709532, 0.1311830282, 0.1287717819, 0.2193007767, 0.2061644346, -0.0941549316, 0.1691983640, -0.0988290682, 0.1994606853, 0.1546226144, 0.0339205153, -0.0803204700, 0.1221229210, -0.0664447397, -0.0793881193, 0.2192380577, 0.0566859990, -0.1950592548, -0.0996486545, -0.0419169962, -0.1273798943, -0.2098503262, 0.0725695416, -0.1024659574, -0.1693826169, -0.0812229067, 0.0733614936, -0.0600166135, 0.1746820956, -0.0564358309, -0.0054927901, 0.0950172320, -0.2140676528, -0.2139331102, 0.1397789568, 0.1467531770, 0.1064273342, 0.0973784178, 0.1785447896, 0.1938998550, -0.1112723798, 0.1264060438, 0.0472795740, 0.0248209015, -0.1694064438, -0.1029706374, 0.0001530588, -0.1788506657, -0.2198244184, 0.1382736117, 0.0319142528, 0.1208165362, 0.1038111001, 0.0247216076, -0.1130999997, 0.1816305071, -0.0376704298, -0.0692516416, 0.2041975707, -0.1121690944, -0.0950447917, -0.0065611363, -0.1632838547, 0.0746501982, -0.0718195215, -0.0316355079, -0.1054609492, -0.2031261623, 0.0594665669, -0.0687386692, -0.0439616218, -0.0955586955, -0.0233142506, -0.0128202597, 0.0353714004, -0.0735019669, -0.1218789443, 0.1430802196, -0.0307273921, 0.1192638576, 0.1198261380, 0.0783006623, 0.0327903293, 0.0454977006, -0.1136494577, -0.2234960198, -0.0433174260, 0.1001110598, 0.1051236689, -0.0698325261, 0.0299993902, -0.1119410247, 0.1096048877, 0.0792845339, -0.1925859749, -0.0140173016, -0.0349219553, 0.0570467077, -0.0751712993, 0.0814763755, -0.0061765700, -0.0090981750, 0.1433640271, -0.1081206277, 0.0291246474, -0.0284840763, 0.0381364301, 0.1691390276, -0.0718007311, 0.0004271892, 0.0441009514, -0.0667224899, 0.1030438840, 0.0398000292, -0.1064615846, 0.1020624116, -0.1161716506, 0.0770973861, -0.1135984659, -0.1434826702, 0.1391916424, -0.0642514005, -0.0145817427, -0.0938609168, 0.0733219609, 0.1025024503, -0.0465854257, -0.1486569196, 0.1638148874, 0.1377104968, 0.1548297852, -0.1643442214, 0.1449920237, 0.1614195257, 0.0223531686, -0.2131665647, 0.0232956968, 0.0830578506, -0.1401555538, -0.0074963891, 0.1176213101, 0.0045250440, 0.0204315372, 0.1991572082, -0.1257545948, 0.1799217016, 0.0127311759, 0.2019653171, 0.0555642322, -0.1290767789, -0.1436433792, -0.0700531080, 0.0937604234, 0.1660522372, 0.2162099332, -0.0014396376, -0.0703461617, 0.0143931778, 0.1046657488, -0.0201916061, 0.0911191329, 0.1195759997, 0.0870724320, 0.1481207460, -0.1469540149, -0.0826925561, 0.0754521489, 0.2164316177, 0.1437578946, -0.0354507305, 0.0852873325, -0.1292421520, 0.0386566222, 0.0639874786, -0.1309105605, 0.1285422295, 0.1199660525, 0.2039828598, 0.1414921433, 0.0320479572, 0.1441053003, 0.1120531410, 0.0095690265, -0.0694005415, 0.0496818386, 0.1912661493, 0.0667081475, -0.1403235197, -0.1998291612, -0.0246625915, 0.1780723035, -0.0248958580, 0.0110499542, 0.1286614835, 0.1120822430, 0.0613276623, 0.0621646084, 0.1369149834, 0.0907278508, -0.1045174077, 0.0747119114, -0.0983067974, -0.1555845290, -0.0219532214, 0.2054418474, 0.0356684551, -0.0109203532, -0.0936365798, 0.0409710295, 0.1907684058, -0.0136171412, -0.0960334912, 0.2109139562, 0.0170137566, 0.1957187504, -0.0105562052, 0.2136062086, -0.1926274002, -0.0967492014, -0.0571197718, -0.0211692415, 0.0243187286, -0.0835612267, 0.1168568134, -0.0129062785, 0.0547947809, -0.2199133635, -0.1216287464, 0.1119092256, -0.1939281225, 0.1922629625, -0.0768294930, -0.1742477864, -0.0872297809, -0.0244399328, 0.2091805637, -0.0765968636, 0.0189455431, -0.1673045158, 0.1864637882, -0.1801957786, -0.1816782802, 0.0105384262, 0.0691279545, 0.1218799800, -0.1137480363, -0.0865563452, -0.1343686730, -0.1422411501, 0.0941424593, 0.0225243531, -0.0217519943, 0.0164697338, -0.0466334857, -0.1991320997, -0.2226256132, -0.1255261749, 0.0507363230, -0.1993823498, 0.0638794675, -0.2000281513, 0.1810435504, -0.1564176381, -0.0304637384, 0.2083910406, -0.1415214092, -0.0438026972, 0.0674972758, -0.2137465477, 0.0204966571, -0.0981433392, 0.1220542565, 0.1958910227, -0.1960109770, 0.0281912331, -0.1004757136, -0.0032750636, 0.0433193184, -0.1271881759, 0.0742974654, 0.1512199342, -0.0877614617, 0.1239781305, -0.0710346326, 0.1561204493, -0.0208192486, 0.1510335505, 0.0680488646, -0.0921375826, 0.2233539373, 0.1786929220, -0.1581927091, -0.0237158760, 0.1768263876, 0.1212703884, -0.0938849896, -0.0764803216, 0.0081132893, 0.1843412668, 0.0592108034, -0.1032980233, -0.1659905761, 0.1684549898, 0.1846183091, 0.0962014198, 0.2084584832, 0.1536195576, 0.2216402441, -0.1310376227, -0.0107453298, -0.0070128487, -0.0844785944, -0.1041133031, 0.0161020681, -0.0552260764, 0.0961758345, 0.1356828958, -0.2005697638, -0.1603539884, -0.0670142919, -0.1479331106, -0.0003824871, -0.1777739823, 0.1618154794, -0.1615897566, 0.0438114926, -0.0714203194, 0.0724278092, -0.1557394564, 0.1098740622, -0.0948199481, 0.1833280474, -0.0581112429, 0.1733479351, 0.1468560249, -0.0412538238, -0.0497133993, 0.2070310265, -0.1018733159, -0.1301697344, 0.1856586635, -0.0772056580, -0.1642509252, 0.1743154377, -0.1567136496, -0.1424944550, 0.0372210890, 0.1552002579, -0.1531232744, 0.1456271559, 0.0232937783, -0.0882412195, -0.1795593202, -0.0604960732, 0.1526788622, -0.0871864706, -0.1090056896, 0.1731181592, -0.0465136655, 0.2136755437, 0.1756322235, 0.1657412648, -0.0588868260, 0.0741099641, -0.0953466445, -0.0798323676, -0.0287641771, -0.1241963580, 0.1386457235, 0.1868295521, 0.0273853689, -0.0575437881, 0.1597726345, -0.0498851463, 0.2234365493, -0.1662297398, 0.0821047947, -0.0867822841, -0.0078063984, -0.1270857453, -0.1701466739, -0.1495030671, -0.0625271574, -0.0716042966, -0.1438328773, -0.1445920765, 0.1841947734, -0.1622123122, 0.1173914820