//Numpy array shape [2, 5, 10]
//Min -0.308540254831
//Max 0.313666582108
//Number of zeros 0

#ifndef ATTENTION_OUTPUT_WEIGHT4_H_
#define ATTENTION_OUTPUT_WEIGHT4_H_

#ifndef __SYNTHESIS__
mha_attention_output_weight_t attention_output_weight4[100];
#else
mha_attention_output_weight_t attention_output_weight4[100] = {-0.0100272521, 0.1616255790, 0.2030953020, 0.1127828583, 0.2821843326, -0.1819716692, -0.1101438180, -0.2866794169, -0.0580984950, 0.2049339563, 0.0667880550, -0.1351157129, -0.2653138041, 0.1921410710, -0.0514437519, -0.2858050764, 0.1893524230, 0.1194777414, -0.2414126694, -0.1629796922, -0.1599125266, 0.1895809323, 0.1779821962, -0.0041312082, 0.0054840129, -0.1696992069, 0.2312868088, -0.1092699245, 0.1152635291, -0.1278935075, -0.0625643805, 0.1756108105, 0.1232680902, 0.0098954998, 0.1152737811, -0.1624890715, 0.2909452617, 0.2902043164, 0.0773668960, -0.2322267443, -0.0005182623, 0.0634051040, 0.0494942367, -0.2980592251, 0.2656836212, 0.1815315187, 0.0645152107, 0.1843360066, -0.2647649348, -0.1707151085, -0.2597001493, -0.1444521993, -0.0438265651, -0.1448646784, 0.0196910277, 0.1040924639, -0.0564069413, 0.1209237725, -0.2572226524, 0.1427952051, 0.1233482733, 0.3136665821, 0.2031048834, -0.2735387981, 0.3013423085, 0.1468000263, 0.2105397582, 0.1800162643, -0.0597654656, 0.2483355105, 0.0112658720, -0.1512138397, -0.2715469003, 0.1193491966, -0.0725013092, 0.2607094944, 0.1361225694, -0.0892911479, -0.1814780235, -0.2440950572, 0.0390532576, 0.2493040711, 0.2847960591, -0.2737424374, 0.0085461633, -0.0168766975, 0.1394096166, 0.2978627086, -0.0203692764, -0.0480879024, 0.1129679158, 0.2393974066, -0.0539855696, 0.3051460087, -0.0692215711, 0.2595094740, -0.1459785998, 0.1152662784, -0.3085402548, -0.0899199024};

#endif

#endif
