//Numpy array shape [10, 2, 20]
//Min -0.223092973232
//Max 0.221155375242
//Number of zeros 0

#ifndef ATTENTION_OUTPUT_WEIGHT4_H_
#define ATTENTION_OUTPUT_WEIGHT4_H_

#ifndef __SYNTHESIS__
mha_attention_output_weight_t attention_output_weight4[400];
#else
mha_attention_output_weight_t attention_output_weight4[400] = {0.1261589378, 0.1047933772, 0.0570374578, -0.1333371550, -0.0412928201, -0.1274554878, -0.0966061950, -0.1193345487, 0.1100642532, -0.0094926571, 0.1819186956, -0.1394998133, 0.0806890950, 0.1359700859, 0.0452728309, 0.1214473248, -0.0330978036, 0.0337708704, 0.0520038977, 0.2126589268, -0.2085492909, 0.2130842805, 0.0827002600, 0.0828107521, -0.2131468505, 0.1524683684, -0.1903902888, 0.0413195826, 0.0284316447, -0.1727984995, -0.0035016930, 0.0697109997, -0.1465882063, 0.0720733926, -0.0527099892, 0.1770537645, 0.1081883386, 0.0269353092, -0.0821328387, -0.0472886115, 0.0254123975, 0.0644514561, 0.1933345348, -0.0732396170, 0.1429822594, 0.0106224185, -0.0269139837, -0.0717708170, -0.1977972984, 0.0197709743, -0.0124655748, 0.1359468400, 0.1792951822, 0.0647340864, 0.1606927216, 0.1912698299, -0.0836065412, 0.1137113795, -0.1960688680, -0.0164622441, 0.0429960340, 0.1339679509, 0.1970919818, 0.1927286834, 0.1209989488, 0.1968447268, -0.0004211382, -0.1802835017, 0.1437092721, 0.0671013519, -0.1049707979, -0.1307254285, -0.0660173073, -0.2044946849, -0.0863839611, 0.2156262845, 0.1315429509, 0.1336586624, 0.0562990867, 0.1684630364, -0.1573956162, 0.2150308341, 0.0176988691, 0.2211553752, 0.2085866481, -0.0972030461, -0.2058779448, 0.1988246590, 0.0767145753, 0.0455441326, 0.1321161538, -0.0437971242, 0.1582627892, 0.0262246337, -0.1968757808, -0.0769211352, -0.0613077506, 0.1410156637, 0.1590311229, 0.0434248745, -0.1943144798, -0.0698159486, 0.1435517371, -0.0770069659, 0.1664299518, -0.1929179132, -0.1648820639, 0.0330316424, 0.1285511553, -0.1191830635, 0.0170919653, 0.0152270580, 0.0348789841, -0.0410725884, -0.0889931321, 0.1820798516, -0.1252965033, -0.1770102233, -0.0210607238, -0.1666416824, 0.1665246040, 0.0779993981, -0.1851105690, -0.2127945572, 0.1219420657, 0.2137381285, 0.1181455553, 0.0383322462, 0.0057398914, -0.2141635120, -0.1964133978, -0.1190103814, -0.0296785310, 0.0128761847, 0.1779570431, 0.1444516182, 0.0181416254, 0.0535697788, -0.0574655272, -0.1187348664, -0.1465458274, -0.1543439031, 0.0514291935, -0.1222856566, -0.2042324394, -0.1553276777, 0.0464064814, -0.0053738775, -0.0748777613, 0.1886706352, 0.1114236563, -0.1251894534, 0.0886176303, 0.1097083166, -0.0484132543, 0.0130141554, -0.0465082824, -0.0341193974, 0.1068521217, -0.1788978279, -0.0459458940, -0.0019234442, 0.0042333738, 0.0461962484, -0.1059762910, 0.1021154597, -0.1903027594, 0.0055841403, 0.1359794140, 0.1374748051, 0.0824892521, -0.1556194425, -0.0881666616, 0.1581492424, 0.1493653655, 0.1313340068, -0.2104239911, 0.1853156835, 0.1281591207, -0.0505817719, -0.0365900360, 0.0342520364, 0.0085735582, -0.0695911571, 0.2206829190, 0.2113846987, 0.0180332158, -0.2112891674, 0.0407159328, 0.2169465572, -0.1072932035, 0.0176406782, 0.2102959603, -0.1724418402, -0.0336078405, -0.0630439073, 0.0093345605, -0.0612293296, -0.0592836514, 0.1185141504, -0.0548386574, 0.0555083081, 0.2027755529, 0.1258305311, 0.2131309807, -0.1810004264, 0.0743804723, 0.0758773088, -0.1198471934, 0.0240362808, -0.0792695284, 0.1722929180, 0.2071845680, 0.2093166411, 0.1539830863, 0.1263583750, -0.1209499016, -0.0922767520, -0.0362764262, 0.1343382299, -0.0295286458, 0.0198334828, 0.0065361597, -0.0318818092, 0.1046613455, 0.1940607727, 0.1754734069, -0.0082411580, -0.0310856756, -0.1823853552, -0.1186629981, -0.0659918487, 0.0439047366, 0.2190155387, -0.0623766035, 0.1301263869, -0.0048709055, -0.0486968458, -0.0443748422, 0.0412798114, -0.0987993702, -0.0304676294, -0.2213708609, -0.1168773696, 0.1631712765, -0.1799988747, 0.1433215886, -0.2230929732, -0.2004525363, 0.2090293467, -0.1527572572, -0.1125021875, -0.2069921792, -0.0122268973, 0.0526068844, 0.0503359772, 0.0964436755, -0.0110561922, 0.0010643210, 0.0620306879, -0.1083320901, 0.0561597273, -0.1845682263, 0.0830721632, 0.1104646251, 0.2197641432, 0.0889106318, 0.0093366401, 0.0637859032, -0.0355605781, 0.0671909451, -0.0832314864, 0.1765264273, 0.1925826073, 0.0450039506, 0.0274375081, -0.0469433628, 0.1995944530, 0.0309568215, 0.1627807170, -0.0625159889, 0.0611862242, -0.1592895836, 0.2144304961, -0.1481071413, -0.0909622908, 0.0649713501, 0.1561647505, 0.0149420248, -0.0305284858, 0.0518700294, 0.0094122896, -0.0772589743, 0.1521145105, 0.0343574621, -0.0645905435, -0.1622710228, 0.1401565969, -0.0960519910, 0.1018592119, -0.1544662565, -0.1034527123, -0.0026280691, 0.1255790889, -0.0443887562, -0.0165548734, 0.1957414597, 0.2112825513, -0.0400487334, 0.0789730325, -0.0894158706, -0.0534943156, -0.1080051288, 0.1941918135, -0.1904720515, 0.0511127599, 0.2183403671, -0.2041157335, 0.0343951248, 0.1066805646, 0.0000875650, -0.1978803575, 0.2198258787, -0.1336343139, -0.0890899748, 0.2091060877, 0.2181836516, -0.2162114829, 0.0600247718, -0.0158556066, 0.1391915977, 0.1954060197, -0.1637121886, -0.1962916404, 0.1936134547, 0.1371506006, 0.1914662868, -0.1459382325, -0.0677928925, -0.1212574840, -0.1115641296, 0.1700883359, 0.1286056340, 0.0964701399, 0.0294600856, 0.1737524718, 0.1832344830, 0.2036200464, -0.2156662643, 0.1592683941, -0.0062806085, -0.1440016925, 0.0633561313, 0.1642075330, 0.0096179675, 0.0830010772, 0.1635226160, 0.1780509353, -0.0342926085, -0.1725476086, 0.0085802488, 0.1683619469, -0.1400661469, -0.1852007955, -0.0437677242, -0.0474956185, -0.0518349782, 0.0046861260, 0.0379808396, -0.1503835917, 0.1700219810, -0.1973818690, -0.1434928328, -0.0884841383, -0.1534988582, -0.1678336561, 0.0876666233, 0.1265171915, -0.0249700416, 0.0318801031, 0.0390111469, -0.0754086748, 0.0213269647, 0.1453145295, -0.1777154356, -0.1390038580, -0.1809350848, 0.1631030142, 0.0677424818, 0.0023751836, -0.0834922940, 0.0687492266, 0.1080560461, -0.1894051582, -0.2182194293, -0.0959491804, 0.1335942894, 0.1102456450, -0.2045472115, -0.1065468341};

#endif

#endif
