-0.0892773271, 0.0287925601, -0.2340324223, -0.1771932244, 0.1705633104, 0.0728912055, 0.1316258907, -0.1315275133, 0.0694145560, -0.1128010750, 0.0236461461, -0.1713360846, 0.2215752900, -0.1785144806, 0.0175102353, 0.1239892542, 0.1815594137, -0.0403888524, 0.1809903681, 0.1009651721, 0.0587570667, 0.0412353873, -0.2182239890, -0.2326511741, -0.0815415382, -0.0240279734, 0.2088766098, 0.0197075605, -0.1518122852, -0.2376858890, -0.2107368708, 0.1984155476, 0.1710613370, -0.2168786228, 0.2498538494, -0.1171125770, 0.2478369176, -0.1996268928, -0.1552754045, -0.0790820420, 0.1870485246, -0.1649944484, 0.1122315526, 0.1478749812, 0.1917954385, 0.1104363799, 0.2251379490, 0.0601933599, 0.2392517626, 0.1592281163, -0.1577512622, 0.1350042820, -0.2211061418, 0.1435909271, 0.0033191442, 0.0339823663, 0.1740691960, -0.1770111918, -0.0726676285, 0.0006524920, -0.0486719608, 0.2037039101, 0.1639823020, -0.1413753331, -0.0430634916, 0.1608689427, -0.2272753417, -0.2013072073, -0.1116241515, 0.0696310699, 0.1903286874, -0.1899413168, -0.2422789931, 0.0338513255, 0.1830542684, -0.0070645511, 0.2039485574, -0.2306489646, 0.0350427330, 0.1438888311, -0.1363732815, 0.1694253683, -0.1359443367, -0.1949694753, -0.1896006167, 0.1922980249, 0.1727414727, -0.1585584283, -0.2409639657, 0.1237291694, -0.1966370344, -0.1316728890, -0.1204889715, -0.2071781754, 0.1576020122, -0.0425777137, -0.1061463952, 0.2380383313, 0.2483880222, -0.0720501244, 0.0524633229, 0.0797925293, -0.0914342701, 0.2386090457, -0.2305072844, 0.2165612578, 0.1695076227, 0.0347017944, -0.0523447990, 0.2445835471, 0.1632922590, -0.1000757813, 0.1364557147, 0.0740012527, 0.1138598919, 0.1420577765, -0.2289520204, -0.1860517263, 0.0365107954, -0.1721945405, -0.2095401585, 0.0294260681, 0.0817414522, 0.1727062464, -0.2391676307, 0.1264022291, 0.1899887025, 0.1276862919, 0.0257726014, 0.0280579329, 0.0431807637, -0.1659544110, 0.0319607556, -0.0449161530, -0.2109544277, 0.0096842647, 0.2338742018, -0.1756287217, -0.0262779593, -0.1911994517, 0.0735838711, 0.1895089447, 0.0453811586, 0.0413082838, 0.2470830381, 0.0471800268, 0.1931498945, 0.0032520294, 0.1396934986, 0.1753295660, -0.1062787175, -0.1308836937, -0.0792638659, -0.2336034477, -0.0222847462, 0.2052417696, 0.2177222371, -0.2297208309, -0.1600067019, -0.2265918851, 0.0003869534, 0.1900082231, -0.2447264791, 0.1350701451, 0.0081296861, 0.0847263634, -0.1291249394, -0.0254689455, 0.0624324679, -0.1805521548, 0.1862668991, 0.1405384541, 0.0703402758, 0.1101981699, 0.1890706420, -0.2137477994, 0.0322958231, -0.1091635227, 0.0995144546, 0.0527554750, 0.2453593910, -0.2212240696, 0.2404821813, -0.1481314003, 0.1577301621, -0.0968552530, -0.0657299757, 0.0382305980, 0.2397243083, -0.0706670284, -0.0366604030, -0.1533624828, 0.0903742909, -0.0330770016, 0.0471836030, 0.0278606117, -0.1797863543, -0.0352641642, -0.2486177981, -0.0653600097, -0.2230648994, -0.1796857119, 0.1145201027, 0.1680720448, -0.1876228452, -0.1761643887, 0.0979716480, 0.0904980004, 0.2250085771, -0.1608173847, -0.1968572736, 0.1848603785, -0.1351492405, -0.1294165850, -0.0997824669, 0.1886726618, 0.1914830804, -0.0635176301, -0.0606672466, 0.1154871583, -0.0348615348, 0.1382774413, -0.2460925281, -0.2189189792, -0.1175169945, -0.2152222097, 0.1369138360, -0.1788967252, 0.2402825952, -0.2439731658, -0.1767542362, 0.0053394437, -0.1884264052, -0.1139783561, -0.0326407254, 0.1145403087, 0.1685955226, -0.0836054087, 0.1467862725, -0.2076197267, -0.1051523685, -0.1525351703, -0.1215683520, -0.1561034024, 0.1286015809, 0.1732720733, 0.0150912702, -0.1726323366, -0.1851264834, 0.0060191154, 0.1751756072, 0.0142899156, -0.0112649798, -0.0515311062, 0.1106275618, 0.0324886143