-0.0980053693, -0.0159777440, 0.2190818340, 0.0586400181, -0.1856072694, 0.1899951696, 0.1203387305, 0.1058260277, 0.0427421629, 0.0389849693, 0.1076449007, -0.0789656192, 0.0514486246, -0.1844288558, 0.1447016746, 0.2082557678, -0.2143727541, -0.1357247382, 0.1171920151, 0.1967695504, -0.1523877233, -0.1955022812, 0.0379745737, -0.1442586333, 0.0197499953, 0.1865234077, -0.0332909264, 0.1373550147, -0.0783320591, 0.1556949317, -0.2079581171, -0.1544052660, 0.1896795332, 0.0215479974, -0.2181405276, -0.2029886991, -0.0445148647, -0.0722341016, 0.0224467032, 0.0071742246, -0.0827162042, 0.0729208365, -0.0991409123, 0.0721058324, 0.1820263267, 0.0303529296, -0.0606453232, -0.0263377614, -0.2196374536, -0.0981429666, 0.0849385113, 0.1044441015, -0.1092777178, -0.2056995034, -0.0975216702, -0.1883979440, -0.0637783632, 0.1585777551, 0.1861059219, -0.0410281271, 0.2028682381, -0.2034084201, -0.0285803303, -0.0931408629, -0.1798056513, -0.2180828899, 0.1042149365, -0.1866307259, 0.1127323061, 0.0813799649, 0.1352420747, -0.0235051345, 0.0882955194, 0.0422782414, -0.1715491563, 0.2203296274, -0.2140434235, 0.1441161036, 0.0649411231, -0.0691327825, -0.1994107664, -0.1737309545, 0.0226137564, -0.0058014132, 0.0795854256, -0.1603393555, -0.0993311852, -0.1325181276, -0.0250617377, -0.0098299095, -0.0111234449, -0.1000685692, -0.0145192603, -0.1868513077, -0.1267169565, -0.1376422942, -0.1609608829, -0.0152146891, 0.0656804517, 0.0848690495, 0.0699179843, 0.0220978558, 0.1465971619, 0.0191521011, 0.0705987290, -0.0707444847, 0.0615825206, 0.0443004705, 0.0996813104, 0.0145148886, 0.1600401551, 0.1561776847, -0.1702961624, 0.0297006834, 0.0228108242, 0.0444693640, 0.1567319185, -0.2030289471, -0.1270454824, 0.0197599921, 0.1040551066, -0.0676331371, -0.0925461650, -0.2229164541, 0.0701052174, -0.2076778561, -0.1149238795, 0.0082657076, -0.0348053873, 0.0232734662, 0.1320942938, -0.1349054724, -0.1176193357, 0.1789760888, -0.1783440411, 0.1491814852, 0.1008831784, -0.0647552013, 0.0665926263, -0.2048594356, -0.0381845161, -0.1285996884, 0.2028921396, 0.0236315895, -0.1818640977, 0.1146211475, -0.1464479715, 0.0979771689, 0.1387647539, 0.0968885049, 0.1834208667, -0.0350454003, 0.1362106502, -0.1813348532, -0.0667288080, -0.1974438429, -0.0273461044, 0.2154810578, -0.0290239137, 0.1226447150, 0.2025337815, -0.1984279007, 0.1566309631, 0.1949183792, -0.0392464139, 0.1812157929, 0.0722807720, 0.0593857728, 0.1637578160, 0.0945377126, 0.1351877749, -0.1838533282, 0.1441770941, 0.0073270700, 0.0414729342, -0.0433037765, -0.1504128575, -0.1503033936, -0.1547836810, 0.2157226205, -0.0036577906, -0.0702073127, -0.1811511666, -0.0081757437, -0.0895975307, -0.0216475558, 0.2180079967, 0.0410612859, 0.1426980346, -0.0856492147, -0.1365650743, 0.0519626886, -0.0086582443, -0.0701147616, 0.1211805269, 0.1598473787, 0.0522788279, -0.1888449043, -0.1171674356, -0.0867332593, 0.0841978788, 0.1112141684, -0.1172709167, 0.1150967181, -0.1190642565, 0.2160276920, 0.1872826815, -0.1815374792, 0.1200304255, 0.0685859621, 0.1781751961, -0.2127790153, -0.0914311409, 0.1282962114, 0.1455840170, -0.0260412656, -0.0409828909, 0.0175898187, -0.1269583702, 0.1415909529, -0.1278281659, -0.0710235164, -0.0792846680, 0.1164547354, 0.1984036416, -0.1923509240, -0.0053267232, -0.1912567765, -0.0575794280, -0.1102917865, -0.1241194308, 0.1215087995, -0.2233093083, 0.1196995750, -0.0262132771, -0.0642287433, -0.0825852156, 0.0880847499, -0.0721159875, 0.0363020711, 0.1760682315, -0.1611238122, 0.0610541999, -0.1856473088, -0.2102972865, 0.2156878561, -0.2081438899, 0.0988554806, 0.0545754284, -0.0102480082, -0.0441592485, -0.0365375765, 0.0360013619, -0.0150968693, 0.0355233960, -0.0983017832, 0.1382037401, -0.1273481697, 0.1772042811, 0.0139853675, 0.1499152780, -0.1718529612, -0.0093263770, 0.0062928703, -0.1617366523, -0.1158701181, -0.0553928092, -0.0387805998, -0.0115465559, -0.1463238001, 0.1605618000, -0.2180344164, -0.2010519207, -0.1136105955, -0.2087466270, -0.1583914906, 0.0806308463, 0.1066063792, -0.1074320227, 0.1535578668, -0.1200857684, 0.0476285256, -0.1537596881, -0.1241381690, -0.0206650160, 0.0635156408, 0.1989721358, -0.1755041331, -0.0525254495, -0.1879955083, -0.0211984571, -0.1192994118, -0.0321278460, 0.1319129616, 0.1805605888, -0.0710466281, -0.1902252138, 0.1914630681, -0.0660571605, 0.1624428034, -0.0267606322, 0.1833275110, -0.0290852487, 0.0383307263, -0.0676814914, 0.0089626024, 0.0203886461, -0.0089327209, -0.0996600911, 0.0888946131, -0.1758236438, -0.0829681009, -0.0414482802, -0.1826892048, -0.1180408001, -0.0068838606, 0.1925529987, 0.2108601034, -0.1754479706, -0.1399248391, -0.0758786947, -0.1054280251, 0.1372739822, -0.0745327845, 0.0702883974, -0.0754355639, -0.1047226563, 0.1123504862, 0.0398603007, -0.1368874162, 0.1488567889, -0.2020216137, -0.0433771871, 0.0681275055, -0.0721127391, -0.1762789786, 0.0984504968, 0.1117012501, 0.1725841314, -0.1874633580, 0.0008982274, 0.2224971652, 0.2120299637, 0.1577713639, -0.1109750122, 0.1995558739, -0.1797419041, -0.0344598182, 0.1039292961, 0.1983722001, 0.2028841227, 0.1067666411, 0.0953082368, -0.0536151715, 0.1975770444, -0.0856253579, 0.0979806036, 0.0582934357, -0.0979538709, -0.0693474934, 0.1616868824, -0.2028995007, -0.0612499602, 0.0941916928, 0.0974100083, 0.1325777024, -0.0517292619, 0.0954115540, 0.2131965309, 0.0489922501, 0.0280634183, 0.0292101316, 0.0207301360, 0.0710635856, -0.1513946354, -0.1463991851, 0.0245513022, -0.0643927827, 0.0164948441, -0.0764492676, 0.0978777930, 0.1851243973, 0.1857405752, 0.0836509764, 0.2215677649, 0.0077218190, -0.2170685530, 0.1558050215, 0.1846997887, -0.2047153860, -0.1744870842, -0.1303365231, 0.2232698947, -0.2230314761, -0.1997217089, 0.1734086573, 0.0490591824, 0.0654311702, -0.0494120009, -0.1526490599