//Numpy array shape [10, 2, 20]
//Min -0.223499879241
//Max 0.223581179976
//Number of zeros 0

#ifndef ATTENTION_OUTPUT_WEIGHT4_H_
#define ATTENTION_OUTPUT_WEIGHT4_H_

#ifndef __SYNTHESIS__
mha_attention_output_weight_t attention_output_weight4[400];
#else
mha_attention_output_weight_t attention_output_weight4[400] = {-0.0588221848, 0.0556085110, -0.2125441730, -0.0341818780, 0.0875157490, -0.1251234263, -0.1297570765, -0.2189520895, -0.1675067246, 0.2188036442, -0.1903351694, -0.1734138280, -0.0153084919, 0.2056639642, -0.0860721394, 0.1063630953, 0.0343711637, -0.1864071339, 0.1943245530, -0.0144272977, 0.0757595152, -0.0626667812, -0.1075839400, -0.0081630824, -0.0298427865, 0.1595153064, 0.1665170044, 0.0415308326, 0.1371166557, 0.0674253553, -0.0996924564, 0.0727767646, 0.2067352235, -0.1085968688, -0.2129403949, -0.0861058608, 0.2088077217, -0.1420835257, -0.1627377272, 0.1973443627, 0.0638137609, -0.1334806830, 0.1998615116, -0.2012412250, -0.0053205923, -0.0917817801, 0.0871507749, -0.2122266740, -0.1863336712, 0.1748363972, -0.1856750101, -0.0318362825, 0.1770910472, 0.0721911564, -0.0731260926, 0.0239535421, 0.0383998193, -0.0674021691, 0.0635610074, -0.1961371601, 0.0472526513, -0.1088630259, -0.1874646395, -0.0938725397, 0.0224804766, -0.0038301484, 0.0851745829, -0.1972380579, 0.1212913617, -0.1002354398, -0.0770967156, -0.2202785313, 0.1485894322, -0.1618043929, 0.0719305426, -0.1354232281, 0.1395192146, -0.1194451675, -0.0513183326, -0.0208002683, 0.2234466672, -0.0076173805, -0.0599583164, -0.1400537044, -0.0372449197, 0.0421192385, -0.0128216995, 0.0887377411, -0.0300749857, 0.1137701049, -0.0857342258, -0.0740219727, -0.1738020480, 0.1305350065, 0.0199362151, -0.2215784788, -0.1542335302, 0.2023794204, -0.2085967511, 0.1118413284, -0.2227641493, -0.1608585566, -0.2226965129, 0.1331057250, 0.1090647578, 0.1443300098, 0.0049256571, 0.2015466541, -0.1528623849, 0.0309434924, 0.1062727049, -0.1085005030, -0.1567680091, -0.0218042936, -0.1357599199, -0.0210540611, -0.0145056127, -0.1265181303, -0.1641115695, 0.0284655765, 0.1563685685, 0.2193439901, 0.0516839735, -0.0998646766, -0.1297910362, 0.0698344484, 0.1279340386, -0.2053847164, -0.0356066413, -0.0299035348, -0.1937073618, -0.0984702483, -0.1770096719, -0.1178698018, 0.0392198898, 0.1454460025, -0.1910669208, 0.1508365422, 0.1120444238, 0.1664248109, -0.0411192887, -0.0959292352, 0.1645194143, -0.0612214394, -0.2129844576, 0.0368167423, 0.0458403900, 0.1923575550, -0.0760833099, -0.0517559163, 0.1777888834, 0.0406921282, 0.1918468326, -0.0952163786, -0.1222093180, 0.1104894429, 0.0975553617, -0.0821446478, 0.1913186908, 0.1766861379, 0.0848848820, 0.0610084571, -0.1509048492, 0.0088716792, 0.0518331379, -0.1425132751, 0.1336796433, -0.1616544724, -0.0635138303, -0.1868668199, 0.1157496050, 0.0700351968, 0.2113424391, -0.0109487418, 0.0232028272, 0.0546542779, -0.0888390616, 0.0434481464, -0.1177830324, -0.1231852174, -0.1868302226, -0.0216539800, -0.0538316481, -0.0647448301, -0.1548902988, 0.1448838562, -0.0567864925, -0.0536259152, -0.1247378513, 0.1072946638, 0.0438217036, -0.1257769763, -0.1867643297, -0.1875619888, 0.1100349873, 0.1266193986, -0.0697059929, 0.1830338985, 0.0059936033, -0.0692887455, 0.0768417493, -0.1653326303, -0.0366030969, -0.1877826452, -0.1758676916, -0.1130743548, 0.1027404591, 0.0518397242, 0.1755468100, 0.0237232596, 0.0220255647, 0.0938483104, 0.0258228742, 0.0774102435, -0.0512369759, -0.1328582615, -0.0332859419, 0.1713669598, 0.1588864028, -0.0519377366, -0.2234998792, 0.0662647039, 0.0835342482, -0.2196000218, 0.0329556763, -0.1338236034, 0.0557971522, 0.1353230327, 0.1851669103, -0.1367391795, -0.0028715450, -0.0054763169, -0.0677784681, -0.0764347389, 0.1331180483, -0.0531194247, -0.1874468327, -0.2154866755, -0.1224898994, -0.1803603619, -0.1402461827, 0.1211910844, 0.2187469006, -0.1642621309, -0.0172246322, 0.0099896854, 0.2077988237, -0.1265644580, -0.1106062233, -0.1691843718, 0.2222950459, 0.0404652841, -0.1366537064, -0.0219037216, 0.1001432315, 0.0460699499, 0.1372452974, -0.0921596289, 0.1714103073, 0.0048896181, 0.1928794831, 0.1359634101, -0.1164180562, -0.0644043759, 0.0825052187, -0.1723505706, 0.1346716732, -0.2036742568, 0.1999931186, -0.0379726551, 0.0456444658, 0.0326218866, 0.1715564132, 0.1461699456, 0.0419727899, -0.0298222080, 0.1287980378, 0.1105665043, 0.0293773729, -0.2002660781, 0.1075277478, 0.1343223602, 0.1159249768, 0.2219866961, -0.0580049381, -0.2079690546, 0.0882481486, 0.1365080178, -0.1162103787, -0.1265049577, -0.2166961730, 0.2099543363, -0.1938248575, -0.0073830476, 0.1149454489, 0.0463337637, -0.1332028359, 0.0017933629, -0.0280417725, -0.0150524611, -0.1632778049, 0.1600370109, -0.0215866752, 0.0968176052, -0.1696225405, -0.0356239416, -0.1304948330, -0.0852511898, 0.1650903076, -0.1558373123, -0.0258407332, 0.0555199571, -0.0439933427, 0.0624896511, -0.0517194234, 0.0790743753, 0.1230594590, 0.1332509518, -0.0096538998, -0.0561283268, -0.0880018473, 0.2018271089, -0.1186300516, -0.1287281811, 0.1698200405, 0.0970311984, 0.0207362417, 0.1442027837, -0.0997186005, -0.0834142193, -0.1930928975, -0.0969216973, 0.2053148597, 0.2227685899, -0.0694039539, -0.1293114424, -0.2095202953, 0.0668229312, 0.1172005460, 0.1452871561, -0.2178083360, -0.1706251800, -0.0555385910, -0.2233182639, -0.1812338978, -0.0000077569, -0.0916955173, 0.0851506963, 0.0845914260, 0.0709480792, 0.1375017315, 0.1296447963, 0.0636731014, -0.0348079726, 0.2064079940, -0.0030837001, 0.1843077391, -0.1908995211, 0.1365530491, -0.1854344904, 0.2235811800, -0.0954830945, 0.2057115287, -0.1522985101, -0.0710030720, 0.0169984549, 0.0216272455, -0.2054906785, 0.0799302533, 0.2207983732, 0.0072504608, 0.1196784601, 0.1556412280, 0.1542323530, -0.1569549441, 0.1263300478, 0.1294909716, -0.1411151737, 0.1410478652, -0.1797778755, 0.0970556960, -0.0334263928, -0.1829476357, 0.0999827608, 0.1577283889, -0.0801751688, 0.0449732170, 0.2145221382, 0.2141052037, -0.1984822005, 0.1952914447, 0.1973391920, -0.0050377985, -0.0237955246, 0.0018845530, 0.1668179035, 0.0610914119, 0.0884191468, -0.1424301118, -0.1537906826};

#endif

#endif
