-0.3112899065, -0.0028265426, 0.0568135045, -0.1122013777, 0.1828863174, 0.0067762006, -0.1871666908, -0.1822640449, 0.2547821999, 0.0089729717, -0.0020454547, 0.1878528893, 0.0429071635, -0.0369284526, 0.1747576445, -0.2951727211, 0.0564213805, -0.0270530805, 0.3148468733, -0.1014726534, 0.1598140299, 0.0565746576, -0.0218273327, 0.2913450301, 0.2022496462, 0.0255309027, -0.1823808253, -0.0549174473, -0.1560790241, -0.0819738060, -0.0520790294, 0.1341278851, -0.2534995973, 0.0329515748, -0.1048021168, -0.3151152134, -0.2936111987, -0.2165585458, 0.0231559351, -0.0106498608, 0.1316813678, -0.0839123130, 0.1418809742, 0.0789312944, -0.2394479215, -0.2026820332, 0.0568734817, -0.1653010249, 0.0608230643, -0.2863606513, 0.1569845825, 0.2193859518, -0.0108015547, -0.1164271310, -0.1494908929, -0.0005347737, 0.2595835924, -0.1543870568, 0.1531718373, 0.0509934202, 0.2273920774, -0.2538200319, 0.0068969447, -0.2477839291, 0.0137835229, -0.1589763165, -0.2811587751, 0.2216710895, -0.0394710936, 0.0813531205, 0.2488494068, -0.1896909028, 0.1355043352, -0.0805093050, -0.0828717202, -0.2756340206, -0.2581702471, 0.1292351186, -0.2875340283, 0.1867254376, -0.2452720851, -0.1294484884, 0.0440658294, -0.2793679833, -0.1094512492, 0.1881372482, 0.3092543185, 0.2477088422, -0.2635761201, 0.2049681097, 0.1086097658, -0.1296179742, -0.3141584992, -0.1304437369, -0.2430926561, -0.2829940617, 0.2907044291, -0.1619633734, 0.2888092399, 0.0201300867