-0.1816017628, 0.0755958408, -0.0253249146, 0.1630835533, 0.0616898015, -0.0717115924, -0.0868515521, 0.1583070606, 0.0728892908, 0.1216110289, -0.1831549704, -0.1105115041, 0.0286418628, -0.0034284373, 0.2386100143, 0.0947091430, -0.0643149689, 0.0314352214, -0.1961193830, -0.1878210455, 0.0314114206, 0.0314525552, -0.2216974348, 0.2094016373, 0.2517451942, -0.2323553115, -0.2661378980, 0.1753914207, 0.0053899884, -0.2414217591, 0.2564896047, 0.1243941039, 0.0163211841, 0.0385600291, -0.0738231838, 0.2521718144, -0.0214945935, -0.2719642818, 0.2391510755, -0.0737202540, -0.0575186498, -0.1666525900, 0.1865898967, 0.1594265550, -0.1112502068, -0.0653836951, -0.1353392452, -0.0129479207, 0.1667704880, -0.1753789932, 0.2177870572, 0.1389454454, 0.0153090032, 0.0624481216, -0.0718721822, -0.1282000095, 0.1748694628, 0.1323644072, -0.1756333113, -0.2585855126, -0.2673065364, 0.2341216058, -0.0840986744, -0.0871810541, -0.2591862082, 0.0834220648, 0.1347946674, 0.1179913133, -0.0554005913, 0.1761147529, 0.1545512676, 0.1401852965, -0.0849393904, 0.2654275596, -0.1804509014, -0.2144848406, -0.0071039456, -0.0433288142, -0.2268994153, -0.1925793588, 0.0438626222, -0.1255764365, 0.0352847055, 0.2104049027, 0.1197433099, -0.1345337778, -0.0092175007, -0.0042311572, 0.2621132731, -0.2539493740, -0.0803212374, 0.0384916663, 0.1770134121, -0.1560103893, 0.2359046340, 0.1609569043, 0.1357751787, -0.0539107211, 0.0766387805, 0.2293743342, 0.0532168783, -0.1206503958, -0.0412411168, -0.2169597894, -0.1535326540, -0.2280304879, -0.0496612489, 0.2257258147, 0.2518886030, -0.0083126938, -0.0518337637, -0.0977440551, -0.1938031465, 0.0625275224, 0.1859692931, 0.1899261177, -0.1115570888, 0.0623003319, -0.2673942745, -0.1818256527, -0.0353962593, -0.1287885606, 0.1359484047, -0.0595819280, -0.0022468839, 0.1784197837, 0.0318633504, 0.2340701222, 0.2539795041, -0.0688982829, 0.1060845032, -0.1493294835, 0.1786567569, -0.1293231547, -0.0894228742, 0.1382114142, 0.2654005289, -0.1647656113, -0.0307567548, -0.1015873700, -0.0817719623, -0.0035517118, -0.0369561575, 0.1424834430, 0.0251982771, 0.0762062743, -0.1445304006, -0.0823854953, 0.1158530191, -0.1350911856, 0.0407688469, 0.2307763547, -0.0130321169, 0.0940119699, -0.0452392064, -0.2623347640, -0.1545126140, -0.1152137220, -0.1113228425, 0.2188430279, -0.2245122790, -0.0012048632, 0.1709055007, -0.1774051189, 0.1891290694, -0.0646406859, -0.1650824845, -0.0021074167, -0.1735262424, 0.1633467078, 0.0586377494, 0.1271783262, 0.1045051143, 0.0328606777, -0.0630709231, 0.0831979439, 0.0199913066, -0.2450208962, 0.1025350764, -0.1512712836, 0.0280040745, 0.2107494920, -0.0327102430, 0.2255101502, 0.1696303785, -0.2554551363, 0.2516856790, -0.0698073655, 0.2057582140, 0.0902038887, 0.2516708374, 0.2230769843, -0.0019734018, -0.0045647421, -0.0425273664, 0.1418993622, -0.2066376954, 0.2521931827, 0.1000324041, -0.1731547266, -0.0001847809, 0.2313254029, -0.2688884437, 0.0760983750, -0.1443602443, 0.1585421413, -0.0169233885, -0.0825843811, -0.2200520337, 0.2509715259, 0.0704863593, -0.1193330362, 0.1230369806, -0.1885567755, 0.2480880618, 0.2218095362, 0.2275331765, -0.1763866991, -0.1427491605, 0.0903331339, -0.0552884154, -0.1730467975, -0.0354164653, 0.1991353929, 0.2162826657, 0.0331850909, 0.1248565465, -0.2091846615, 0.2116843611, 0.2121795863, 0.0180221163, -0.1962846369, 0.1241910458, 0.1240537614, -0.2554611266, -0.2158947289, 0.1185338423, 0.0900870115, -0.0672214478, -0.1011298895, -0.2477519661, -0.0912945196, -0.2200108320, 0.1817426085, -0.2365396470, -0.2118467838, 0.2000947446, 0.0260000173, -0.0618074611, 0.1194392666, 0.1326304078, -0.1505725384, 0.2290808409, 0.2570319176, -0.1609815806, -0.1999208331, 0.1177412122, 0.2438235730, 0.2398126572, -0.0850590765, 0.1301704049, 0.2387147844, 0.1179035977, 0.0475884378, -0.0744127855, -0.0577622950, -0.0581714250, -0.1641774774, 0.0576433949, -0.2641022205, 0.2687510848, -0.1660156846, 0.2452309579, -0.1429794729, -0.0789356753, -0.0983285010, 0.0493380465, -0.0578620620, -0.0058509614, 0.1359268576, 0.2090477794, 0.0489862449, 0.1211965159, 0.0837164745, 0.1157932356, 0.0793034732, -0.2117671818, -0.2590002418, 0.1611156911, 0.0692310855, -0.1500437558, 0.0665457845, 0.2504095137, 0.2369731069, 0.0884854868, 0.2078535259, 0.0128146894, 0.1780196875, -0.1009707376, -0.1063117236, -0.1003588364, 0.1978546828, -0.1032079905, 0.1016731337, 0.1707830429, 0.2481694520, -0.1833997220, 0.2158963233, -0.0856292173, 0.1313384026, 0.1598743945, 0.1015412733, 0.1956826001, 0.1347584575, -0.2589441836, -0.1074583456, 0.2666054368, -0.1918848902, -0.1634104997, 0.1995785683, -0.2590053976, -0.1219854578, 0.1302147061, -0.2147736251, -0.0979315788, -0.1907754540, -0.1647455245, -0.1214290932, -0.0902279764, -0.1373558342, -0.0744633898, 0.0743573233, -0.1374348700, -0.0768066496, 0.1274046302, -0.1815443337, -0.1035999507, -0.2051440030, -0.0254152808, 0.1848362833, -0.1979057491, -0.0709130168, 0.1067101806, -0.0165793225, 0.2068295181, 0.0172203425, 0.1033607125, 0.1780039221, 0.1814924628, -0.2580583096, -0.0727687255, 0.1354474276, 0.0974814147, -0.0231608544, -0.1634710580, 0.1420635134, -0.2077797651, 0.2663781047, 0.0620679520, 0.2553938925, 0.1289575100, 0.1690282971, 0.2026829123, 0.1137757301, 0.1054560542, 0.1004205421, 0.1028716639, -0.1611747146, -0.1582143009, 0.2304441035, 0.0546408333, 0.1915524155, 0.2737944722, 0.1540419459, -0.1755785942, 0.1440516263, -0.1866168380, 0.1716029346, -0.0547723360, 0.2530052662, 0.1229044944, 0.0254549794, -0.0474771447, 0.0128700249, -0.1655994058, 0.1750742048, 0.2613647580, 0.1193734854, -0.1877902001, -0.0035559232, -0.2116357535, -0.1264148802, -0.2538813353, -0.2714675367, 0.1808053106, -0.1436548680, 0.0328848362, 0.2671534419, -0.1810272485, -0.0393206328