-0.1468503177, -0.2394223064, 0.1086254343, -0.2501229048, -0.2575876415, 0.1988984346, -0.0856437460, -0.2426824123, 0.1096379459, 0.2454160005, 0.1246361807, -0.2446621060, -0.0405329727, 0.2424459755, 0.2705568075, 0.0843789130, 0.1697132289, 0.0995096639, 0.0783358589, -0.1442746073, 0.1835057586, 0.1948215961, 0.0194756836, -0.1541321129, -0.2093251795, 0.0996913463, 0.0114811650, 0.2472181320, -0.0378106870, -0.1021432504, -0.2187041491, 0.1445484459, 0.0109619172, -0.1555140913, -0.1897111982, 0.2546851337, -0.2662167847, -0.0652033165, -0.2128942460, -0.1888849735, 0.1005294546, -0.0651148781, 0.0229978487, -0.1548822373, -0.2730526328, -0.1489504874, -0.0316631272, 0.1372011602, 0.1927363127, -0.0445759855, 0.0828176141, -0.0931677893, 0.1867771596, 0.1073290333, -0.1249901429, 0.2618339658, 0.1383398473, -0.0230525658, 0.1681011915, 0.1891993284, 0.1794765145, 0.1488396823, 0.2140253633, -0.2042520195, 0.1638030559, -0.2228688002, -0.2467718124, 0.0529720262, 0.0521267690, 0.2086241096, -0.0859955177, 0.0684221610, 0.0006100383, 0.2113088518, -0.0069944155, 0.0193298161, -0.0814753696, -0.1479753554, 0.0790726617, -0.0398945957, 0.2721588612, -0.1407267153, -0.1328071505, -0.0771246254, 0.1835439205, 0.1249174699, 0.1886889338, -0.0290268343, -0.2110126913, -0.0375358313, -0.2454562783, -0.0281939805, -0.1491653621, 0.0569330640, -0.1340430081, -0.2516161799, 0.0185034275, 0.0708976388, -0.0586751625, 0.2386774272, -0.1812191755, -0.1747372150, 0.1414970160, -0.0236767400, -0.2592013180, -0.0187227819, -0.1722548902, 0.2631041110, 0.1787163019, -0.0446939059, 0.0568677373, -0.1233005375, 0.1361218840, -0.0809330419, 0.2473028153, 0.2353035808, -0.1169786155, -0.0396980308, -0.1493143290, -0.0409675017, 0.1708917469, 0.2548061013, 0.1735948473, -0.1557831615, 0.0711531639, -0.0865248516, 0.2325210869, -0.0314180814, -0.1329926550, -0.0012405787, -0.0145290708, 0.1760219634, 0.2329523563, 0.0696525872, -0.2510481477, 0.1883814335, 0.1297264397, 0.2575778961, -0.1937291324, 0.0898651779, -0.1321375668, -0.1424199492, -0.1026300117, 0.1754845679, -0.0587803535, -0.0014327052, -0.1526620686, -0.0071020196, -0.0834843889, 0.2416759133, 0.0611446351, -0.1064229831, 0.0801885277, -0.1726895720, 0.1185491830, 0.1065586954, -0.0354036056, 0.2222704142, 0.1427250654, 0.1209743172, 0.1783854067, -0.2561036050, -0.1165275648, 0.1840386242, 0.1601114124, 0.0797665045, -0.1946291178, -0.1554730237, -0.2161912173, 0.1964088231, 0.0392608568, -0.0876293257, 0.0242954623, -0.0206585750, -0.2688024342, -0.1286034286, -0.0825075954, 0.0744846463, -0.2632605731, -0.0216176398, 0.2483752668, -0.2314626127, -0.1622786671, 0.1413874924, -0.2711357176, 0.0170478057, 0.0748149008, -0.0462982357, 0.1437436491, 0.1714715213, 0.1611628979, -0.2517531812, -0.2338925898, 0.0043865559, -0.1828714013, -0.1942728460, 0.2114123106, -0.1121973917, 0.1585644484, 0.0139424074, 0.0077333110, -0.0350373723, -0.0780500695, -0.2263290733, -0.2248470932, 0.1836408526, 0.2340302914, 0.2627029717, 0.1131074503, -0.1669031978, 0.1197241098, 0.2448350042, 0.2502466142, -0.2060623914, -0.1523320079, 0.2172926962, -0.2194899470, -0.2207712829, 0.2503841519, -0.2115891278, 0.1286074370, 0.2420739084, -0.2099525183, -0.2461379170, 0.1054832786, 0.1291259378, 0.0567385890, 0.1067216694, -0.0890621915, -0.0243165512, -0.2493621409, 0.0335308537, 0.1713447571, -0.0484866500, -0.2587388754, -0.0762950033, -0.0386597328, -0.1528978348, -0.2603920996, -0.1941629201, 0.0448565520, 0.1627875119, 0.0989551246, 0.1482417136, 0.2102591395, 0.0688091591, -0.0585015155, 0.2039902955, -0.1279812455, 0.2167745829, -0.2714251876, -0.0107375355, 0.0402788818, -0.0925117880, -0.2730203867, -0.1602117717, -0.2666581869, -0.0473751239, -0.1187622026, -0.1043183431, -0.0535696931, -0.2158329189, -0.0105231442, -0.0681069568, 0.0217158087, -0.1011931598, 0.1367538273, -0.0588538088, -0.1295917034, -0.0769017786, -0.0759112760, 0.0460090525, 0.1669890583, 0.1133536771, -0.0178799722, 0.2478061616, -0.0337035209, -0.1835821122, -0.2653844059, -0.1604558975, -0.0113215223, 0.0502950549, 0.1418816000, 0.0416424088, 0.0068078721, 0.2211642116, -0.1391310692, 0.1658162773, 0.0314775333, 0.0334069915, -0.1891525835, -0.2153702825, 0.2571036518, 0.0890616402, 0.1369840205, 0.1223464012, 0.2360475361, -0.0251379125, 0.2609337270, 0.1741302758, -0.1567532271, -0.0086069396, 0.0321747027, 0.2287025899, 0.0553772151, 0.2400069386, 0.0218326189, 0.0289119501, 0.0727989599, -0.1550197899, -0.2306392640, 0.0260360260, 0.2330452353, 0.1621242464, 0.2236027718, -0.0001304240, 0.1750984490, -0.2593229711, -0.2255740762, 0.1360772252, 0.0431848392, -0.2232252657, 0.0496823080, -0.2189355195, 0.0696436092, -0.1976906955, 0.2194349766, 0.1062972322, -0.0540793426, 0.0815773904, -0.2364912629, 0.2325263172, 0.1765181720, -0.1446710378, -0.1111299023, 0.2519277334, 0.1737228483, -0.2210235447, 0.1504033357, 0.0719335526, 0.1662732959, 0.1475276053, -0.0408581346, -0.0752000958, 0.1286576092, -0.1003732011, 0.1595056802, -0.0966159776, 0.0444438308, -0.2373856604, -0.1412379295, 0.1861728132, 0.1618815511, -0.1848646849, -0.0621801578, -0.0303481147, -0.1313813776, -0.1795143336, -0.0282241460, 0.0172793679, 0.2485059798, 0.1373313814, 0.0641928688, 0.0158908665, -0.1600664556, -0.1711111367, -0.1463193744, 0.1858631819, 0.0574946888, 0.0034810314, 0.0529438853, 0.1406601220, 0.0274999756, -0.0137246205, -0.1357537210, -0.0900315121, -0.2239539772, 0.1731432676, 0.1826456487, -0.0153675713, -0.2379276305, -0.1517533809, 0.1451772302, 0.2371316105, 0.0001143291, -0.1915250868, 0.1827128977, -0.2487288862, -0.1269634813, -0.0091486480, 0.1301742494, -0.0785196945, -0.0028404030, -0.0591641478, -0.0190606769, -0.0772839114, 0.0985610783, 0.2182337046, 0.1471046358, -0.2436752915