//Numpy array shape [10, 20, 2]
//Min -0.273733139038
//Max 0.273133397102
//Number of zeros 0

#ifndef KEY_WEIGHT4_H_
#define KEY_WEIGHT4_H_

#ifndef __SYNTHESIS__
mha_key_weight_t key_weight4[400];
#else
mha_key_weight_t key_weight4[400] = {0.0722975060, -0.2156455368, -0.0544019900, 0.1268581897, -0.0492231287, 0.2194044590, 0.2191968560, -0.0793347508, 0.0128536690, -0.1278599203, 0.1080821902, 0.1589683145, -0.1729592085, 0.1487696171, 0.0349327065, -0.0264178962, 0.0596762151, -0.2694987953, -0.2123062909, -0.1065008119, -0.2584618926, 0.2693733871, 0.0973812565, 0.2159988731, -0.0768550634, 0.2554738820, -0.1357904226, -0.2593568563, 0.0036772061, 0.0136365071, -0.1998109519, -0.1477427483, 0.0291541237, 0.1398516893, -0.0322881863, 0.1499184221, -0.0230830908, -0.0888909325, -0.1014667451, 0.0152005507, -0.1691489369, -0.1651664525, -0.1855493188, -0.1296858639, -0.1732299477, -0.0811021477, -0.1508227736, -0.1048943922, -0.2398215383, 0.1453364789, 0.1477408558, -0.2201544493, 0.2197902352, 0.1859611869, 0.0878017694, -0.1407722235, -0.1979831457, -0.0885028914, 0.1023354381, 0.0496882498, -0.0536932275, 0.0993590653, -0.1906445771, 0.1139157563, 0.0989186913, 0.1191132218, 0.2489253581, -0.2652353346, 0.1723055542, -0.1144486442, 0.1475331783, -0.0215984434, 0.1188269109, -0.2397211790, -0.1913335174, -0.2639569640, 0.0948885083, -0.2122540772, -0.1222762391, -0.0676481426, 0.0236538872, 0.0076683764, -0.0574753955, 0.0275040232, -0.1820789278, 0.0911839753, -0.1065313369, -0.1151673049, 0.2303464264, 0.2509365380, 0.2450111061, -0.1298642755, 0.2485622019, -0.0700772554, 0.0040637441, -0.2173451632, -0.2215862423, 0.0210145228, 0.0154498741, 0.1640268415, -0.0081964061, -0.1481297761, -0.0119426930, -0.0419840589, 0.2067736685, 0.2442708015, 0.2308616936, -0.1532040685, 0.0649900660, -0.1149059609, -0.0193783306, 0.0285987034, 0.1230587885, -0.1657813787, 0.2381318063, -0.1325103641, 0.0943918526, -0.1399786472, -0.2360677719, -0.1402351558, -0.1792142391, -0.2376226187, 0.0994694456, -0.2634297311, 0.0380050018, 0.0078105861, 0.2579022348, -0.0708760917, -0.0777643397, 0.2384934276, 0.1342612505, -0.2737331390, -0.2452682704, 0.1542002261, 0.2438157499, 0.1858474463, -0.0319523141, -0.1154014766, -0.1992336214, -0.1757382601, -0.0000268683, 0.0184566788, -0.0212133098, 0.0186137743, 0.1268144697, 0.1231515333, -0.2438186556, 0.2731333971, -0.0583422966, 0.0648953617, 0.1102817059, 0.1088549122, -0.1734817177, -0.1621821970, -0.0989469960, 0.1239852384, -0.2722121775, 0.1046277657, -0.0167225115, -0.1045279056, 0.1439171880, 0.2349087745, 0.1852568388, -0.2218170464, -0.0547848716, -0.2558843791, 0.2723413706, 0.2239053100, 0.1429857761, -0.1948391050, 0.0751889646, -0.0539435633, -0.0625374094, -0.1136344001, 0.1628013104, 0.1099204049, 0.0994933099, 0.0411743522, -0.2285182923, -0.2268161625, 0.1272762269, -0.0723665506, -0.1950147748, -0.1485871524, 0.1533612609, 0.2536261082, 0.0222179815, -0.0799395368, 0.2397281080, 0.1850126684, -0.1552607566, 0.1134932414, -0.1916781366, -0.0225935187, 0.0496463627, 0.2297576070, 0.1846351475, -0.1871335655, -0.1637428850, 0.1143241301, 0.2229054570, 0.2220104188, -0.0374373682, 0.2523867786, -0.1045064181, -0.1955292821, -0.0576927550, 0.0626186728, 0.2589740753, -0.2063797712, -0.2671555579, -0.1345235556, 0.1032816395, -0.0545593798, 0.1952133328, -0.1077921242, -0.0182794388, -0.1391451359, 0.1796942502, -0.2703285813, 0.1509327292, 0.0609192066, 0.1846604496, -0.1795465797, -0.0990413427, -0.2368258983, 0.1577475816, -0.0063593700, -0.0114322603, 0.1278515607, -0.1996883303, -0.0016218935, 0.0575581193, -0.0086851288, 0.2241709530, 0.0535878129, -0.1661174446, 0.1304551214, 0.1745207012, 0.2633858323, -0.0042814007, -0.0799845234, 0.2633377612, 0.0206178967, 0.2147964239, -0.0308353044, -0.2184381336, 0.0881800801, -0.1276452988, 0.1807075739, -0.0288495608, 0.2532678246, 0.2030410916, 0.1173738316, -0.1557655036, 0.1543968767, -0.0842910558, 0.1460981667, -0.1433918327, -0.1847254485, -0.1186412796, 0.1088575572, -0.0265112985, 0.0006818939, -0.1194915995, 0.2435011566, 0.1220788956, -0.2011533529, 0.2537628710, -0.1741103381, 0.0701998770, -0.1188842729, 0.0192997809, 0.1610699892, 0.1968329698, 0.2465717942, 0.0026190903, 0.0109648556, -0.1086106822, -0.2079257667, 0.0163128600, 0.0342519246, 0.0874282569, 0.1956120729, 0.0339746214, 0.1279013902, 0.0586353987, 0.2422554195, 0.0147794066, 0.1857455522, 0.0875523090, -0.0475175604, 0.0564005971, 0.0017401403, -0.2133585513, -0.0834011361, -0.0403804146, -0.1040217429, -0.1625394821, -0.1018278152, 0.2136144787, 0.0383894145, 0.0720137358, -0.1873396039, -0.2510708570, 0.1479804814, -0.1150937155, 0.1288750172, -0.2201304138, 0.0525368787, -0.0600112677, -0.2135428190, 0.1875802130, -0.0799890235, 0.0132112820, -0.1924980283, 0.2273211777, -0.0072673103, -0.0627177879, 0.0921377167, 0.2684040070, -0.0672796220, -0.2355907410, -0.2700127661, 0.0963316932, 0.1507633924, 0.2696200013, -0.0036984917, 0.1829893440, -0.0651056692, 0.0976065844, -0.2410372347, 0.2588852048, -0.0310352333, -0.2172974199, 0.2466704100, 0.1748259813, -0.0994573981, -0.2628815174, 0.1460707784, 0.0163494889, 0.0934023932, 0.0186790023, -0.0540499277, 0.1827832162, -0.0888775140, -0.0770868212, -0.0564389564, -0.0916773677, -0.1439156532, -0.1501645893, 0.1662789881, 0.0118095586, 0.1931366324, -0.0680836514, -0.2282258123, 0.2657297850, 0.2173163891, -0.1505844891, 0.2213706672, -0.1968842000, -0.0276185814, 0.0694059059, 0.1971542537, 0.1984363198, -0.1479983628, 0.1309861541, -0.0060106367, -0.2407925129, -0.0199074037, 0.0618050806, 0.1492443979, -0.2303407043, -0.0034639898, 0.0496316403, 0.0941269249, -0.0037695311, -0.0679453909, -0.1527260542, -0.2349556684, -0.0006342622, -0.2154719085, 0.0029972382, -0.1500944942, 0.2218416631, -0.1435391158, 0.1463578343, 0.0898054615, -0.2137391567, 0.1823568195, -0.1530082226, 0.2369888723, -0.1490716338, -0.1662280560, -0.0388681479, -0.2632007301, -0.2269411683, 0.1344978958, -0.1899544448, 0.1081323028};

#endif

#endif
