0.0222733375, -0.0873332918, 0.0812614933, -0.0861560702, 0.0509331375, 0.0101060402, 0.0788745508, 0.0925471634, 0.0014327221, 0.0849919319, 0.0894067809, -0.0998943970, 0.0556523688, -0.0367219448, 0.0744668096, -0.0990075767, 0.0944634974, -0.0527353138, -0.0357420146, -0.0716644675, -0.1183625311, -0.0952544138, -0.0401422791, 0.0466594845, 0.0205014981, -0.0771641657, 0.0997690260, 0.0401376076, 0.0362274833, 0.0546846464, 0.0893879384, 0.0736373365, -0.0697663277, 0.0826564580, 0.0535627455, -0.0538094565, -0.1122935340, 0.0909769535, 0.0160932336, -0.0214507245, 0.0896898359, 0.0005397656, -0.1039068997, -0.0905132964, 0.0958992168, -0.0728771240, 0.0502183177, -0.0257582199, 0.1148294359, 0.0620976239, 0.0872666314, 0.0719373301, 0.0331874490, 0.0190440584, -0.0872692987, 0.0732887462, -0.1137012690, -0.0696382970, -0.0892112479, 0.0101307146, 0.0380809642, -0.1064550281, 0.0876619294, 0.0876916200, 0.1168421283, -0.0605547167, 0.1046723947, -0.0285512470, -0.0980414748, -0.0315555818, -0.0421479531, -0.0285828281, -0.0868958309, 0.0633303672, 0.0555731058, 0.0217656475, -0.0327526145, 0.0627748668, -0.0555620827, 0.0889021009, 0.0272014830, 0.0531689376, -0.0484771393, -0.0265168119, 0.0371388495, 0.0368305668, -0.1220423058, -0.1092641428, 0.0668056011, 0.0373607539, -0.0946026668, -0.0111555979, -0.0580063723, -0.1135396957, 0.0748810321, 0.0099758366, -0.0019312277, 0.0732523203, -0.0883874670, -0.0750944242, -0.0421657041, 0.0178869870, 0.0112620033, 0.0593806058, 0.0968355909, 0.1099864841, -0.0337296091, -0.0854506865, -0.0441021472, -0.1023748815, -0.0326838344, -0.0458601415, 0.0448201336, -0.0722920150, -0.0602296889, 0.0616017617, -0.0823982134, 0.0860197246, 0.0184329711, -0.0179151073, -0.0209760610, -0.0903906152, -0.0629271567, -0.0485890023, 0.0678635687, -0.0543032177, 0.0236536153, -0.0777784064, 0.0595680140, -0.0111721102, 0.0301390812, 0.0365571678, 0.0322924927, -0.0418058261, 0.0029691048, 0.0384298898, 0.0935691372, -0.1034193411, 0.1127146855, 0.0241638608, -0.0981590152, -0.1074683443, -0.0180000216, 0.0436317883, 0.0598689355, -0.0971744135, -0.0439840145, 0.0304211397, -0.0043626111, -0.0056811748, 0.1187531129, -0.0452919938, -0.0696595684, 0.0783809498, 0.0981735140, 0.0738551244, -0.0053480444, 0.0705668479, -0.1207031161, -0.0113964118, 0.0593933091, 0.0081619797, -0.0152049782, 0.0221055821, -0.0540429726, -0.0664942116, -0.0307854712, -0.1120767221, 0.0306674298, -0.0761022717, -0.0229378026, -0.0838220567, -0.0319261923, 0.0577816926, -0.0643087700, 0.0088866409, -0.0827613175, -0.0195120946, 0.0273375846, -0.0282106120, -0.0742293596, -0.0300475974, 0.0563532896, -0.0561012365, 0.0298251491, -0.0464915261, 0.0252549257, 0.0928453878, -0.0188756026, 0.0963209942, -0.1057711095, -0.0564314760, -0.0508766770, 0.0631856844, 0.0656525418, 0.0384734720, -0.0911235958, -0.0408279859, -0.0925118178, 0.0876444802, -0.1058551073, -0.0852706358, 0.1138055921, 0.0008202188, 0.0712089911, -0.0650875196, -0.0494828522, 0.0192808434, -0.0005139818, -0.0346632116, -0.0942074284, -0.1196968183, 0.1132593825, -0.1086842418, -0.0279372409, 0.0903358161, -0.0316352695, -0.0375044793, -0.0780783817, -0.1214571074, 0.0675563365, -0.0282831173, -0.0481640808, 0.0851918831, 0.0877051279, 0.0051681423, -0.0636284202, -0.0012727196, 0.0001795812, -0.0181128792, 0.1006584913, 0.0322557166, -0.0460346714, 0.1211719662, -0.0561115555, -0.0160917733, -0.0144591471, -0.0839424506, 0.0949001163, -0.0991215706, -0.1091804802, 0.0303745214, 0.0394647457, 0.1123242229, -0.1134612039, -0.0847705975, -0.0125691351, 0.0220186971, 0.0441971794, -0.1017210931, -0.0927850306, -0.0308396965, -0.0469701290, -0.0397952795, 0.0188904814, 0.0722368360, -0.0775152519, -0.1159770489, 0.0077690030, -0.0858167782, 0.0605143197, -0.0628539249, -0.0630802736, -0.1217249855, 0.0377936065, -0.1114526242, 0.1108197272, -0.0491028987, 0.0837811604, -0.0949814841, 0.1095406562, -0.0179498401, -0.0283124782, 0.0626266897, 0.0317796059, 0.0890603364, -0.0673016831, 0.0014997219, -0.1092040017, 0.0460949726, 0.0988743901, 0.0650181696, -0.0326793790, 0.0707168505, -0.0214838088, -0.0794941783, -0.0862703770, -0.1148546636, -0.1208160445, -0.0430005528, 0.0270345025, -0.0731000975, -0.1157880202, -0.0888274983, 0.0796674415, 0.0199305043, 0.1208507940, -0.1139234528, 0.0061032488, -0.0333892070, -0.0092823617, -0.0953751728, 0.0491030738, 0.0317192785, 0.0557116307, -0.0240319334, 0.0181827266, -0.0555646941, 0.0155445915, -0.1149709225, -0.1013665274, 0.0362994745, -0.0877339616, 0.0781391487, 0.0304865930, 0.0036208532, 0.0658170432, 0.0185585618, 0.0136933569, 0.0048354934, -0.0763870627, 0.0903903916, -0.0715723559, 0.0496968441, -0.1104222834, -0.0338450074, 0.1203675568, -0.0950829685, 0.1197141632, 0.1089601964, -0.0062727416, -0.0961843133, -0.0231494755, 0.0003590602, 0.0336908624, -0.0606591515, 0.0050283317, -0.0160786919, 0.0920589939, -0.0480216742, -0.0595780872, -0.0324959010, -0.0092554102, -0.0345700346, -0.0260284524, 0.0261465088, 0.0708695650, -0.0962410867, 0.0704725906, 0.0114988023, 0.0079685869, -0.1186044812, 0.0740513653, 0.0288741142, -0.1075510383, -0.1157443523, -0.0086646462, -0.0753406286, -0.0166102368, 0.0614586361, 0.0011185572, -0.1071486324, 0.0448246896, -0.0078639332, -0.1031713039, 0.0742789060, 0.0730014890, 0.0706122741, -0.0209085941, 0.1077589020, 0.0832051635, -0.0558842197, -0.0095914314, 0.0998955667, -0.0470423438, -0.0764211640, -0.0850611404, -0.1068657711, -0.0352802873, -0.0782517865, -0.0131220557, 0.0073764212, 0.0289492030, -0.1127973050, 0.0307017826, 0.0391358063, -0.1192310005, -0.1217930838, -0.0389646925, -0.0103080617, 0.0842813775, -0.0218575113, -0.0311119147, 0.0072314129, -0.0679429024, 0.0335736647, 0.0980130136, -0.0523869283, -0.0053029740, -0.0480400100, 0.0605472997, 0.1090824753, -0.0605290048, -0.0750394315, -0.0772165209, 0.0431333110, -0.0467832051, 0.1052958369, -0.0886613354, -0.0708318427, -0.0416891575, -0.0973982066, -0.0150767751, -0.1041790023, -0.0589707680, -0.0779801831, -0.0843580738, -0.1175728962, -0.1135797873, -0.0416113250, 0.0357307270, 0.1097435951, -0.1040865257, -0.0717019811, 0.0950055122, 0.0807428509, -0.0263210088, 0.0015702696, 0.1006190926, -0.0464477986, -0.1023947969, 0.0189606491, -0.0730234757, 0.1083806753, 0.0813858584, 0.0387428142, 0.0131047107, 0.0342505425, -0.0334716998, 0.0437334925, 0.0123794070, -0.0767723843, -0.1094778851, -0.1128660738, 0.0974742845, -0.0072494005, 0.1043954939, 0.0991993621, 0.0282688085, -0.0804324001, 0.0571870133, -0.0095238183, -0.0921499953, -0.0558184609, 0.0037548819, 0.0447861031, 0.0510226041, -0.0556723699, -0.0441154018, 0.0665928498, 0.0075959335, -0.0675682053, -0.0989813805, 0.0761633739, 0.0028295133, 0.0438619889, 0.1026184112, -0.0720116869, 0.0295988191, -0.0559192300, 0.1132025644, 0.0652088597, -0.1077041179, -0.0637427643, 0.0545877144, 0.0149650695, 0.0304685328, 0.0329592489, -0.0928496197, -0.0394009165, 0.1081126332, 0.0607773252, -0.0952072591, 0.0091822483, 0.0266790185, 0.0698154420, 0.0138340145, -0.0440888293, 0.0818449855, 0.0500958487, 0.0351364911, 0.0513599105, 0.0704095215, -0.0768655390, 0.0244863760, -0.0545497127, -0.0074465745, -0.0895336270, 0.0019862994, -0.0465205945, 0.0461503044, 0.0092349257, -0.1089238301, 0.0829025134, -0.0027818878, 0.1015935466, 0.1208950728, -0.1176263466, -0.0120278075, 0.0420941934, 0.0856587514, 0.1090209484, 0.0559148043, -0.0305896830, -0.0471999049, 0.0174665339, -0.1093530431, -0.0475344956, 0.0347711518, 0.0787974223, -0.0918356255, -0.0278453920, -0.0643023401, -0.0594034120, -0.0084127653, 0.0541085117, -0.0066234064, 0.1119121015, -0.1069145948, -0.0335046090, -0.0441389382, -0.0755113214, 0.0164752007, -0.0106984247, -0.0362075530, 0.1133884639, 0.1021636352, 0.0127001861, 0.0955759212, 0.0292925816, -0.0035471956, 0.0296602994, -0.0568242744, -0.0880596340, 0.1218140647, 0.0843903497, 0.0816902220, 0.1063890755, 0.0785265565, 0.1122910455, -0.0468182750, 0.0499301255, 0.0834782422, -0.0129736895, 0.0969803035, 0.1012838334, -0.1130607203, -0.0263474360, -0.0834507346, -0.0730162784, -0.0750896260, -0.0677521974, -0.0231299549, -0.0067372289, 0.0794177800, 0.0248992518, 0.0276996680, 0.1121462882, 0.1114907414, 0.0975866914, 0.0281512775, 0.0385892503, -0.1033731177, -0.0464130789, 0.0153348902, -0.0295748897, 0.1158741191, -0.0849967524, 0.0560676120, 0.1097959206, 0.0636221394, -0.1072290316, -0.0222582258, -0.0977703035, -0.0692951679, -0.1128825694, 0.0207717605, -0.0458060205, 0.1096594110, -0.0920905620, 0.1126284003, -0.1135590672, 0.0741234496, 0.0800839961, -0.0380407125, 0.0546305515, -0.0191695467, -0.0346627906, 0.0788069069, 0.1175821945, 0.1197339594, 0.0024347559, -0.0439379252, -0.1131649092, -0.0578052104, -0.1154524982, 0.0519815385, 0.0985574946, -0.0574360192, -0.0947590768, 0.0457504690, 0.0972869545, -0.0577137284, -0.0962709934, -0.0154388575, -0.1069969982, 0.0510536171, 0.0028190012, 0.1221988946, 0.1031882241, -0.0777258873, 0.0411907248, 0.0691713542, 0.0538464971, -0.0478342660, -0.0967502370, -0.0618523136, 0.0179113112, -0.0084413234, 0.0019424844, -0.0706175566, -0.0218027476, -0.0544053018, 0.0930855721, 0.0613137484, 0.0738254488, -0.1089714840, 0.0669382736, -0.0710910186, 0.0691231936, 0.0232156869, -0.0742357224, 0.0095991837, -0.0753677562, 0.1075919494, 0.0622087903, -0.0941387191, 0.0053032953, 0.1031704098, -0.0305906478, 0.0687553585, -0.0780203268, 0.0402889363, -0.0397093408, -0.1112029329, 0.0872589350, -0.1084873900, -0.0275386721, -0.0998498127, -0.0285154618, 0.1081263423, -0.0206218325, 0.0379168428, -0.0060053263, -0.0795359239, -0.0040859389, -0.0759077668, 0.0858645663, -0.0098824697, 0.0282000136, 0.0568834655, 0.0454830229, -0.0910506845, -0.0096225441, 0.1036409736, 0.0653924122, -0.0824249014, 0.1210800856, 0.0326729715, 0.0281057693, 0.0512599871, -0.0653040558, -0.0230750870, 0.0634191707, 0.1028785706, 0.0451104715, 0.0866049379, -0.0690371096, 0.0119944168, -0.0468459576, 0.1069663092, 0.0405175164, -0.0338122882, 0.0540171862, -0.0194918886, -0.0950654298, -0.0048508528, -0.0844790936, -0.1145254001, 0.0170455836, 0.0260022599, -0.0928664505, -0.0838130638, -0.0056509962, 0.0713103563, 0.1145305410, -0.0479317941, -0.0899219215, -0.0897302479, 0.0979062617, 0.1118572205, -0.1029844359, 0.0497160144, -0.0430341922, 0.0634715557, 0.0091964109, -0.1135390773, 0.0072738118, 0.0909745842, 0.0132801598, -0.0468044467, -0.0581296124, -0.0215943009, 0.1084354147, -0.0975346416, -0.1167402938, 0.0602392964, 0.0418459065, 0.0434271544, -0.0788002536, -0.0438906923, -0.0915319920, 0.0030538000, 0.1045284867, 0.0951058418, -0.0234360453, 0.1089793816, 0.0343538523, -0.0461956821, 0.1195916086, 0.1066765934, 0.1126510426, 0.0142573444, -0.1066154093, -0.0187772866, -0.0892173648, 0.1193242222, -0.1038493589, 0.0448174328, -0.1152163371, -0.0874776319, -0.0789554492, 0.0418250263, 0.0938434154, -0.0955153331, -0.0930261910, 0.0041349372, 0.0836613700, -0.1140771955, -0.0324835479, -0.0111090960, 0.0244001038, -0.1076013371, -0.0423305258, 0.0787938833, -0.1094707921, -0.1204462275, -0.0022146010, -0.0714707002, -0.0252365284, -0.0651139170, -0.0165163446, 0.0060577551, 0.0411468521, 0.0770347342, -0.0657355487, -0.0288242698, 0.0056180730, 0.1162165478, -0.0058990084, -0.0559836179, 0.0914383754, -0.0810485780, 0.0838866904, 0.0210877806, 0.1116169021, -0.1102544367, -0.0081949318, -0.0205302034, 0.0510246493, -0.0400658324, 0.0676777959, -0.0140826833, -0.0437293909, 0.0504831038, 0.1131830439, -0.0952516571, -0.1104974449, -0.0476097465, 0.0986080244, -0.0327831730, 0.0272979457, 0.1151395887, 0.0760179535, -0.0804320350, -0.1041758806, 0.0323578864, 0.1005865037, -0.0594348907, 0.0049610687, 0.0917777792, 0.0025242544, -0.0445508808, -0.0905570388, -0.1155089810, -0.0234483536, -0.0516374595, -0.0926513672, -0.0217593126, 0.0897180140, -0.0976991281, 0.0116683096, 0.0869492069, 0.0258383751, -0.0385394655, 0.0040875743, 0.0077982908, -0.0625111163, -0.1016289666, -0.0445064083, -0.0137724755, 0.0399294235, 0.0101949116, -0.1211292893, 0.0252364408, 0.0461074822, 0.0621311180, -0.0117696775, 0.0941624045, -0.0936513245, -0.0358472653, -0.0427709073, -0.0225979276, -0.1018667370, -0.0940180048, 0.1037279889, 0.0840671957, -0.0014970793, 0.0274229087, -0.0847396627, 0.0692677796, -0.0760320276, -0.0532206520, -0.0263021607, -0.0083254715, -0.0108223362, -0.0201483369, -0.0580271631, -0.1156041175, -0.0925859138, 0.0508790426, -0.0209798273, -0.0284405928, 0.0076730074, 0.0980325788, -0.1211348400, 0.0329045281, 0.0140595129, -0.0062592803, 0.0886637717, 0.0509756505, -0.0118030682, -0.0878763124, 0.0146159083, -0.1094355434, -0.0914427117, -0.1084776670, -0.0003613232, 0.0637983456, -0.0674420372, -0.0589984916, 0.1163284555, -0.0719167143, 0.0701360032, -0.0353663675, 0.1117091477, 0.0831265077, -0.0904444456, 0.0885886997, -0.0466013625, 0.0055614104, -0.0334860496, 0.0686924160, -0.0141642103, -0.0550381579, 0.1069923490, 0.0408938192, -0.0992963612, 0.1222026572, 0.0880661905, -0.0839702636, -0.0797769576, -0.0054371050, -0.0314497612, 0.1110858247, 0.0268179830, 0.1055432335, -0.0834178850, 0.0513568893, -0.0126678171, -0.1055881009, -0.0664346293, -0.0481927581, -0.0864293277, -0.1038798615, 0.0092546502, 0.1199263856, -0.0934542120, 0.0311480798, 0.1101077199, 0.0439220816, 0.0833066925, 0.0183866452, -0.0740727112, 0.0821880996, 0.0506668165, 0.0271573905, 0.0119467331, -0.0994216502, 0.0850279853, -0.0958156884, 0.0192116238, 0.1215911806, -0.0029806972, -0.1050339416, -0.0823108628, -0.0405573733, 0.0351500511, 0.1218024269, -0.0053360579, -0.0346321128, -0.0912294313, 0.0599804521, -0.0436139628, 0.1202684715, -0.0776063725, -0.0683460161, 0.0840820298, -0.0298630670, -0.0327879190, 0.0758748278, 0.0420516953, 0.0643881336, -0.1117212325, 0.0171088744, -0.0307464153, -0.0763931200, 0.0239352379, -0.0588418320, -0.0468375608, -0.0051389565, -0.0491249599, -0.0420064926, 0.0480247699, -0.0966221392, -0.0905212685, 0.0833035335, 0.0859010667, -0.1020219401, 0.0668532401, -0.1018555984, -0.0249416512, 0.1093046144, 0.0876879171, 0.1049102470, 0.0794320703, -0.0784449428, -0.0973329693, -0.0623335913, 0.1215543970, -0.1103287786, 0.1096959859, 0.0135391075, -0.1144961044, 0.0195137002, -0.0943745226, 0.0308792628, 0.0490840934, -0.0506681725, -0.0250889957, 0.0755543411, -0.0034698006, -0.0359821431, -0.0469125025, -0.0123099396, -0.0204704162, -0.0640057549, -0.0521543026, -0.0745035782, 0.1013969406, 0.0710432976, 0.0522734411, 0.0224267263, 0.0768808648, 0.0760546029, 0.1215635240, 0.0209306106, 0.0843938142, -0.0062836478, -0.0518706366, 0.0913323462, 0.0543641597, -0.0938916281, -0.0880202129, 0.1118237004, 0.1029411182, -0.0756789297, -0.0339124016, 0.0543284044, 0.0300969742, 0.0605927780, -0.0386178084, 0.0744861588, 0.0577026457, 0.1153508350, -0.1055162400, -0.0755874440, 0.0397462510, -0.0351717211, 0.0231882669, 0.0662428439, 0.0053086244, 0.0060884589, -0.1111272573, 0.1203589588, -0.0315889306, -0.1193828732, -0.1200170219, 0.0856360942, 0.0305361450, -0.0109516056, -0.1206737980, -0.1202963963, 0.0822910219, 0.0042458833, 0.1048897058, 0.0389469117, 0.0788382292, -0.0537678748, -0.0292071868, -0.1094376072, 0.0942510068, -0.0501581505, 0.0059127179, -0.0414648280, 0.0136888893, -0.0226381067, -0.0561774485, 0.0831924602, -0.0753706321, -0.1042301282, -0.0047338475, 0.0772751868, 0.0901879594, -0.0567124076, 0.0506172925, -0.0743883252, -0.1186714917, 0.1033251137, 0.0855220333, 0.0277690180, -0.1118271127, -0.0738289356, 0.0846449211, -0.1152197570, -0.0469026640, -0.0427763686, 0.0790161416, -0.0666532964, 0.0622834414, -0.0616953485, 0.0724861175, -0.0390337817, 0.0487207696, -0.0327768363, -0.0302192792, -0.1035297960, -0.0246225372, 0.0746564418, 0.1172555611, -0.0059570582, 0.0751604810, -0.0764152259, 0.0440643765, 0.0529847704, -0.0094036441, -0.0494300723, -0.0053254580, -0.0496891774, -0.0145016182, 0.0202391781, -0.1032710373, -0.0111539625, 0.0513360985, -0.0795831382, 0.0536070578, 0.0667180195, -0.0132038016, -0.0092883185, 0.0046537076, -0.0125424461, -0.0713466406, -0.0275838450, 0.1033577025, 0.0485679507, -0.0211684890, 0.0937069207, -0.1168781370, 0.0552504137, 0.0445814803, -0.1215472296, -0.0334495939, -0.0898778141, -0.0518859401, 0.1119802967, -0.1180245206, -0.0302279815, -0.1137137860, 0.0093943002, 0.1142603830, 0.1078119129, 0.0211054180, -0.0272802077, -0.0792930350, 0.0013913015, 0.0607253350, -0.0940562114, -0.0134012820, -0.0006618515, -0.1025661603, -0.1206599250, -0.0454787165, 0.0412447751, -0.1081784666, -0.0688553378, -0.0467398278, 0.0758275688, 0.0790143013, -0.1022556424, 0.0776176602, 0.0177772380, 0.0734922439, 0.0790355504, 0.0270837191, 0.0193528216, 0.0255499929, 0.0192667693, -0.0276717525, 0.1188209131, -0.0599647574, -0.0398035869, 0.0988522172, -0.1045839190, -0.0860163942, 0.1133786812, -0.1122362837, 0.1206218228, 0.0497062765, -0.0253838580, -0.0589724444, -0.0946856663, -0.1217745394, 0.0474544317, -0.0490549654, 0.0984218940, -0.0803644061, -0.0412730835, 0.0603210703, 0.0812049359, 0.0987384766, -0.0308939647, -0.1043292657, 0.1171511263, 0.0032959718, 0.0118447514, 0.0865328610, 0.0370891057, 0.0407372341, 0.0994216502, 0.0270251278, -0.0718770623, -0.1132689342, -0.0119127147, 0.1018131450, -0.0395451635, -0.0116341887, 0.0058539817, 0.0282516386, -0.1217703968, 0.0561971441, 0.0344728865, 0.0828018337, -0.0378083959, -0.0345217958, -0.0173391476, 0.0168396197, -0.0792977512, 0.1084847301, 0.0491683073, 0.0379466712, 0.0272854473, 0.0924127996, 0.0828803107, -0.0934591442, -0.0460411981, 0.0247976352, -0.0387754887, -0.0814123377, -0.1044042334, -0.0968991891, -0.0736948177, -0.0759042352, 0.0090947207, -0.0955448374, -0.1104780808, -0.0862617344, -0.0611772053, -0.0845141634, 0.0704297721, 0.0213996824, -0.0954152793, -0.0597218536, 0.0928288847, 0.0721125901, -0.1198302880, 0.0893863142, -0.0824340731, 0.0335059948, 0.0268185083, 0.0725558326, 0.0903354213, -0.1186363846, -0.0573903807, -0.0217191037, 0.0048948866, 0.0000330400, -0.0940798968, 0.0782141015, -0.0617246367, -0.0792215243, -0.0722112581, 0.1170954257, 0.0371433757, -0.0470415242, 0.0497001000, 0.0433715135, 0.0487924404, 0.0045545436, -0.0023119836, 0.0386808962, -0.1153982133, -0.1158280522, 0.0441905633, 0.0342035145, -0.0384155251, -0.0515887700, 0.0628436059, 0.0824203342, 0.0259268656, 0.0650069863, 0.1162430719, 0.0161125194, -0.0150876520, 0.0376682766, 0.0042859898, -0.0986932516, 0.0641567335, 0.0042379554, -0.0833951980, -0.0886888131, 0.0069407104, -0.1148065105, 0.0533719808, 0.0404462516, 0.0690128282, -0.0011698765, 0.1034971327, -0.0407741256, 0.0606830381, -0.0794932172, -0.0863437131, -0.0133671761, 0.1013477966, -0.0304293744, -0.0434660763, -0.0483572856, 0.1081142202, 0.1109823808, -0.0742417946, 0.0784903094, 0.0201928969, 0.1197348088, 0.1169834882, -0.0045741517, 0.0781406239, -0.0282722842, 0.0278404560, 0.0141738467, -0.0949114114, -0.0404632762, -0.0112766037, 0.0304617584, 0.1182074770, -0.1111372933, -0.0933773816, -0.0887232050, 0.0678408220, 0.0153172966, 0.0721215084, -0.0030307465, 0.0953136012, -0.0978729874, -0.0284552369, 0.0566375107, 0.0069169416, 0.0702022240, 0.0055877487, 0.0784098431, -0.0539279245, -0.0218620524, -0.0816904455, -0.0798139349, -0.0963277593, 0.0412331112, 0.0534904748, -0.0500600226, 0.0647117719, 0.1162078306, 0.0741687343, 0.0967003182, 0.0069039911, 0.0102679851, -0.1001872942, -0.1073962674, -0.0789803863, -0.0872132108, 0.1217749640, -0.0127607323, 0.0822019130, 0.0832223147, -0.0343635604, -0.0607002378, -0.0471217372, -0.0995277315, 0.0081607094, -0.0947401524, 0.0772300884, 0.1218032613, 0.0360880494, 0.1017698944, 0.0451577455, -0.0198669489, -0.1120452136, -0.0682621822, 0.0587932877, -0.0761205107, 0.0960767642, -0.0204904173, 0.0599048063, -0.0137351286, -0.0370578766, 0.0848188177, 0.1029409990, -0.0161580294, 0.1014911234, -0.0013336750, 0.1145988405, -0.0019690420, 0.0318753831, -0.0877090693, -0.0060518859, 0.0902830660, -0.1137361974, 0.1057475060, -0.0592425466, 0.1195611656, 0.0646189302, -0.0648320913, 0.0820916221, -0.0552311577, -0.0406394564, 0.0343805254, -0.1161410660, -0.0759613216, 0.0827479884, 0.1100210994, -0.0891873464, -0.0822924525, -0.0522344299, -0.1179391369, -0.0808338299, -0.0399470031, 0.0665145069, 0.0939603522, 0.1216454357, 0.1043522581, 0.0237048324, 0.0869440660, 0.0950847045, -0.0105357943, -0.0334805027, 0.0709196329, -0.0470410138, -0.0820428208, 0.0854233205, 0.0466219895, 0.0271109920, -0.0381425023, 0.0843748748, 0.0754554421, -0.0471654348, -0.0701959804, 0.1168388054, 0.0703251287, -0.0146897407, -0.0669126362, -0.0257696509, -0.0430012979, 0.0390159674, 0.0029475696, -0.0998398513, 0.0478332005, -0.0367451422, 0.0999619961, 0.0229409412, 0.0961925164, 0.0575114712, 0.0367172845, 0.0809194148, -0.0514142253, -0.0214916337, 0.1109782234, 0.0460861251, 0.0797687471, -0.0433029495, -0.0232998412, 0.0332295708, 0.0256979950, 0.0371368937, -0.0194336195, 0.0581916198, -0.0007983040, -0.0123125389, -0.1136621609, 0.0444220938, 0.0970688388, 0.0438578576, 0.1174448505, 0.1150023714, 0.0669315308, -0.1224407554, 0.0806138590, -0.0465453416, 0.0067108902, -0.0664773658, 0.0482207462, -0.1046226546, 0.1164423078, -0.1084279642, -0.1176343635, -0.0724522769, 0.0369328409, 0.0172118936, 0.0161788780, -0.1096899658, -0.1133565903, -0.0496215820, 0.0269445069, 0.0561867617, -0.0100690732, -0.1063220054, -0.0308018234, -0.1212063655, 0.1022941470, 0.0753229931, -0.0560914390, 0.0604715832, 0.0747222528, 0.0739501566, 0.0396854691, 0.0403665081, 0.0793297514, -0.0345935114, -0.0720684528, -0.0075588785, 0.0883406252, 0.0461174697, 0.0779536068, -0.0856457576, 0.0253869537, 0.0098831411, 0.0524054542, 0.1017076001, 0.0659924075, -0.0955886692, 0.0168765280, 0.0679383799, 0.0846887231, -0.1180310622, -0.0413829498, 0.0666110292, -0.1177036092, -0.0379466861, 0.0980037451, 0.0981320813, 0.1063505933, -0.0320040099, 0.0897477567, -0.0162330288, -0.1046022177, -0.0528762490, 0.0764301047, 0.0535359085, 0.0139187826, -0.0885034800, 0.0210434403, 0.0308915544, -0.1063224971, -0.1212360635, -0.0931356624, 0.0233333334, -0.0428647138, -0.0766801760, -0.0432312787, 0.0613675900, 0.0562598072, -0.0799352229, -0.0583589785, 0.0353618413, -0.1123236492, -0.0450408570, -0.0338169336, -0.0835819319, -0.0321149714, 0.0750482306, -0.0659130961, -0.0145403231, 0.0472279824, 0.1149246022, 0.0017412221, 0.0981578082, -0.0444892086, 0.1006775200, -0.0635318980, 0.0592880994, -0.0006372066, 0.0316534899, -0.0069549894, 0.0806075558, -0.0569850206, -0.0837175772, -0.0048235799, 0.0948172733, -0.0209795944, -0.0294899177, -0.1204954535, 0.0425282568, -0.0738299116, 0.0976899192, 0.0943210423, -0.0623578429, 0.0344205573, -0.0782363713, -0.0702604204, 0.0840940028, -0.0099908896, 0.0278472025, -0.0251229983, 0.0476937704, -0.1195707843, 0.1079663113, 0.0063380185, -0.0162082817, -0.0196905807, -0.1053241342, -0.0223091654, -0.0395028070, 0.1067207456, -0.0023263355, -0.1103476882, -0.0666052923, -0.0729571655, -0.1172842383, 0.0487473868, 0.0755017102, 0.0143390317, -0.1052914411, -0.1135075539, 0.0858760029, 0.0696167350, -0.0322530158, -0.0055126166, -0.0139362300, -0.1210329011, 0.1081144288, 0.0360569656, 0.0643343478, 0.0387166366, -0.0337142795, 0.0999547839, -0.0886461809, -0.0501816273, 0.1008384675, 0.0513154827, 0.1083567441, 0.0750525519, -0.1072134525, -0.0772316009, 0.0978779197, 0.0621686690, -0.0338050053, -0.0938838050, -0.0375812910, -0.0941326320, 0.0032237305, -0.0756193623, -0.0589007884, 0.0988653526, 0.0106107369, 0.1042241752, -0.0796358734, 0.1113820300, -0.1204008013, 0.0179287139, 0.0691100657, -0.0333848558, -0.1124167293, -0.0450867750, -0.0301887933, -0.0889986083, -0.0116560450, 0.0949349776, 0.0212779325, -0.1045143977, -0.1219640523, -0.0311175361, 0.0676729903, -0.0313151032, 0.1079082191, 0.0984118059, -0.1040754840, 0.0397496819, 0.0238955393, 0.0824129283, -0.1066791639, 0.1003959104, -0.0536652245, 0.0140596591, -0.0619769432, -0.1197769567, 0.0763327628, 0.1223323643, -0.0655182973, -0.0882914811, -0.0971684158, -0.0183602925, -0.1067349091, -0.0011624305, 0.0488850214, -0.0492738634, -0.0776195899, -0.0480276458, -0.0340032429, -0.0388129242, -0.0337752365, -0.0782528371, 0.0643026456, -0.1085912809, 0.1126636863, 0.1092318594, -0.1167848408, -0.1015411317, 0.0450529344, 0.0280558076, 0.0145280305, -0.0002462160, 0.1111821830, 0.0001550968, -0.1053113118, -0.0962334797, 0.0503167510, 0.0732856244, -0.1121724695, -0.0193012692, -0.0101410514, -0.0691915900, -0.1169253066, -0.0995451212, -0.0435821190, 0.0088655874, -0.0362107791, 0.0704336837, 0.0729473680, 0.0092625348, -0.0498758107, 0.0781908035, -0.0062902179, 0.0866236389, -0.0627216771, -0.0603782162, 0.0592230260, 0.1065811962, 0.0097466595, -0.0860148147, -0.0415541939, 0.0248675272, 0.0997885764, 0.1161505431, -0.0214445479, 0.0453506298, -0.0125326933, 0.0996843800, 0.0288263131, 0.0883059204, -0.1003801450, -0.0777738094, 0.0305262748, -0.0602605119, -0.0576787330, 0.0490678884, -0.0376395583, -0.0852069929, 0.0993538126, 0.0108554782, -0.0473499373, -0.1011678800, -0.0640756637, -0.0576784089, 0.1075569093, 0.0170630738, 0.0252421796, -0.1137466803, 0.0980642438, 0.0324728489, 0.0454380848, -0.0606849343, 0.0505368039, 0.1206592247, -0.1162475422, -0.0247045886, 0.0869387984, -0.0536006764, -0.0417376012, -0.0726718307, -0.0419989452, 0.0508580208, -0.0807143971, -0.0374532193, -0.0270838495, -0.0414281376, 0.0302666705, 0.0258095097, -0.0336169712, 0.1089664176, -0.0199063122, -0.1134247631, -0.0623544417, 0.0576647148, -0.0787912905, 0.0776750669, -0.0142081417, -0.0448612198, -0.1178729832, 0.0805082917, -0.1085318327, -0.0178833660, 0.0979218408, 0.1166922599, 0.0552895144, -0.0703168511, 0.1165461317, -0.0950165391, -0.0364096612, -0.0425994880, 0.0464318693, 0.0331063308, -0.0923106149, -0.1021568850, 0.0335417353, -0.0599114373, -0.0602231920, -0.1157677844, 0.0705740303, 0.0645699203, 0.0814009532, -0.0992423594, -0.0415151678, -0.0560924150, 0.0813778117, 0.0917144194, -0.0196140036, -0.0693130493, 0.0063541080, -0.0739118010, 0.0215175934, -0.0000464721, -0.0730214342, -0.1178374961, -0.0846126229, -0.1139997840, 0.0636302531, 0.1100095361, 0.0996635854, -0.0441414788, -0.0024277477, -0.0453350507, 0.0222659204, -0.0894803703, -0.0879019201, -0.0691067949, -0.0397751443, 0.0349577256, 0.0024267258, 0.1017821506, -0.0474661551, 0.0802886188, 0.0627830401, 0.1194611564, 0.0256939363, 0.1030200571, -0.0459307767, -0.0771639943, 0.0693848953, 0.0148454215, -0.0819749981, 0.0734057948, -0.0538989566, 0.0546884276, 0.0509258062, -0.0794303939, 0.0640570894, 0.0521287397, -0.1055174097, -0.0635609478, -0.0257811416, -0.0313801467, -0.0037420192, 0.0474308655, -0.0067002471, -0.0736989900, -0.0129000461, -0.0951119065, 0.0070420937, -0.1100709140, -0.0888784528, 0.0230057798, 0.1065527126, -0.0769392923, 0.0837813839, -0.1187078655, 0.0687169582, -0.1173335165, -0.1194206998, 0.1162541881, 0.1094921231, -0.1066305637, 0.1042616069, -0.0982399136, 0.0310144294, 0.0992804244, -0.0549577251, -0.0499012619, -0.0723197684, 0.0815042928, 0.0797038376, 0.0988103151, -0.0892101675, 0.0979105681, -0.0445524715, 0.1074465141, -0.0714384466, -0.1128961518, 0.0211675987, 0.0666943341, 0.1056802273, 0.1147778556, -0.0367773362, -0.0851238295, -0.0574338734, -0.1174020618, -0.0324900039, -0.1053097770, -0.0785688385, 0.1197059825, 0.0865315273, -0.1137196124, 0.1220194548, -0.0409207568, 0.1044228077, -0.0913637206, 0.1121167541, -0.0269017871, -0.1179705858, 0.0657978877, 0.1216117218, 0.0840927884, 0.1179579720, 0.0156343225, -0.0448552482, -0.0865783393, 0.0392746665, -0.0670514405, -0.0122581385, -0.0117698824, 0.0840856209, -0.0338702239, 0.0780632570, 0.0805205405, -0.0217840876, -0.0900410414, -0.0017934613, -0.1222745180, 0.0817901790, 0.0307366047, -0.0293956585, -0.0633974746, 0.0107073458, -0.0981678516, -0.1010230705, -0.0737330690, -0.0551220514, -0.0991864577, -0.0436329730, -0.1036395282, -0.0126633206, 0.0520815961, 0.1187968254, 0.0720815808, -0.0525352061, 0.0344874561, 0.0833386034, 0.0324454866, -0.0013911410, 0.0894023180, 0.0124665545, 0.0252950899, -0.0981841311, 0.0052254037, 0.0589245297, 0.0520630665, 0.0610399358, -0.1071839631, 0.0332675017, 0.1211800426, -0.0718456879, -0.0934102312, 0.0037262512, -0.0098671680, 0.1069053486, 0.0978070050, -0.0753764138, -0.0144254789, -0.0669642314, 0.0092948442, -0.0684083849, -0.0363708399, -0.1033029258, -0.1060122624, -0.0185576137, -0.0002518225, 0.0148602407, -0.0799579546, -0.0741670430, -0.0034522950, -0.1195309013, -0.0849008039, -0.0470471159, -0.1218609735, 0.1065204740, 0.0671949014, -0.0203893986, -0.1202654466, 0.1120469198, -0.1205859780, -0.0611356832, -0.0300445314, 0.0930005237, 0.1200977191, 0.0076806140, 0.0966764763, -0.0401020125, 0.1072540879, -0.1048999429, -0.0368965007, 0.0139459679, 0.0609258525, -0.0390666910, -0.0436564349, 0.0667280629, -0.0597981252, -0.0610034205, 0.1001125649, 0.0066593811, -0.1121169552, 0.0388199762, 0.0650990382, -0.1173556000, 0.0398576334, -0.0125506073, -0.0004324841, 0.0392861888, 0.0886960551, -0.1069956794, -0.0570095517, -0.1053841189, -0.0256815832, 0.1101198271, 0.0908667669, -0.1115607396, -0.1214248389, 0.0069806417, -0.0198984854, 0.0428036116, 0.0706881210, -0.0415432453, -0.0087265363, -0.1039816514, 0.0370346643, -0.0859286487, 0.0529925078, 0.1021737084, 0.0821055397, 0.1033469290, -0.0333313048, 0.0589192882, -0.0308412295, 0.0982445702, 0.0920746773, -0.0343879126, -0.0220719445, 0.0034599747, 0.0929523334, 0.0964882821, 0.0918070376, 0.0205925740, -0.0910840109, 0.0026625465, -0.0834136903, 0.0100668687, 0.1175618991, -0.0945242941, 0.0803852677, 0.0626315624, -0.0989278406, 0.0230938345, 0.0087846154, -0.0457580872, -0.0448687375, 0.1029492617, -0.0668439269, 0.0369469300, 0.0309342742, -0.0960073844, 0.0831803977, 0.1156957000, 0.0183547009, -0.0596432611, 0.0296613649, -0.0795703530, 0.1127731577, 0.1071943268, -0.0118954722, -0.0187545102, -0.1074018255, 0.0628198758, 0.0685404018, 0.0301176179, -0.1192610636, -0.0798947960, 0.0700897947, 0.0889008045, -0.1084441990, 0.0029739665, -0.0632993281, -0.0419208482, 0.0825877339, 0.0946241841, 0.1113483608, -0.1180060506, -0.0480779558, 0.0382675081, -0.0803683326, -0.0871792212, -0.0289683137, 0.0834253281, -0.0913351178, -0.0250615906, -0.0379219688, -0.0797503069, -0.0589039698, 0.0389318727, -0.0695801303, -0.0547348559, -0.0125680836, 0.1094326824, 0.0981498733, 0.1046584100, -0.0844931230, 0.0586990751, -0.0926271304, -0.1085887402, 0.0532952994, -0.0221974757, -0.0944337174, 0.0395675898, 0.0726914555, 0.0763009936, 0.0067407475, 0.0596588403, 0.0785085112, -0.0085459324, -0.0598111935, 0.0486205854, 0.1073748320, 0.0811033770, -0.0454845130, -0.0923427790, 0.0650522038, 0.0057667899, 0.0284027644, -0.0652523115, 0.0845118240, -0.0341002904, -0.0949948132, -0.1020551994, 0.0051707262, -0.0448107310, -0.0598378517, 0.0467078835, 0.1044387817, -0.0477871522, -0.0562503450, -0.0495245643, 0.0897180438, -0.0655054525, -0.0414056405, 0.0589852221, -0.0348614380, 0.0402790233, -0.0293268487, 0.0825806111, 0.0548071116, 0.1155236438, 0.0105867637, -0.0057097035, -0.0364652164, -0.0873485059, 0.0313391350, 0.0503504761, -0.0841002762, 0.0909789354, 0.1117633581, -0.0672363788, 0.0588320643, 0.0529867001, -0.0314931534, -0.0042153546, -0.0610411912, -0.1054212227, 0.0905354321, 0.0626674965, 0.0729268640, 0.0186233856, 0.0717797205, -0.1158764511, 0.0220886320, 0.1192172468, 0.0359198712, -0.1071100906, -0.0338104777, 0.0449329056, 0.0597840659, -0.0163566489, 0.1223819628, 0.0259880256, -0.0819185972, -0.0320350640, -0.0782874078, -0.0611040294, 0.0433006585, -0.1199625507, 0.0355888866, 0.0140084708, -0.0649297088, -0.0655333176, -0.0791462436, 0.0484573692, 0.0877196118, 0.0572331361, 0.1200111881, 0.0796426609, -0.1135470942, -0.0290632136, -0.1188331470, -0.0322107747, -0.1104182228, -0.0575068444, 0.0287887622, 0.0351836048, -0.0709218383, 0.0737852529, -0.0619128756, -0.0372535177, 0.0165757369, -0.0557324663, -0.1066572964, 0.0929717794, 0.0429185443, -0.0083115865, -0.0394039527, 0.0098231928, 0.1134899780, 0.1143863499, -0.0217122268, 0.0344663598, 0.0638688952, -0.0553714484, -0.0797658712, -0.1100819781, -0.0828680173, -0.0482667349, 0.0089076208, 0.0313636623, -0.0805389211, -0.0091613270, 0.0388420075, 0.0178490262, 0.0037393766, 0.0915398151, 0.0856509358, 0.0063632331, -0.0191541146, -0.0926207453, -0.1208024994, 0.0098011615, -0.0899051428, 0.1002397314, -0.0465683788, 0.0481414534, 0.0652666762, -0.0765429288, -0.0279342774, 0.1136171594, -0.0584012307, 0.0911718905, -0.0100911632, 0.0112482645, -0.0263035335, -0.0995549932, -0.0916859508, 0.0033434657, 0.0013551080, 0.0426609702, 0.0820818841, 0.0847268850, -0.0911230817, -0.0114989923, 0.0694855228, 0.0737654567, 0.0225236844, 0.0202141106, 0.0744169801, 0.0675193295, 0.0062492206, -0.0794180110, -0.1157213971, 0.0011599776, 0.0487930998, 0.0262381826, -0.0692487806, 0.0333765075, 0.0826676711, -0.0007688848, -0.0912674367, -0.0117090289, -0.0511834547, 0.0835870877, -0.0719791576, 0.0306282863, 0.0180629622, 0.0401347317, 0.0556814075, -0.1058018580, -0.0191728473, 0.1212856397, -0.0416776687, 0.1070157886, 0.1175201759, -0.0562749915, 0.0016166249, 0.0727671683, 0.0783019811, -0.1068094894, 0.0783242732, 0.0003750327, 0.0989940241, 0.1010534018, 0.0100890603, -0.1036238298, 0.0352603719, -0.0333826952, 0.0948412344, 0.0213065483, 0.0267522819, -0.0104503110, 0.0667589381, -0.0235885438, -0.1135300398, -0.0081738783, -0.1084903106, 0.0429426059, 0.1203868911, -0.1015092880, 0.0214152746, 0.0543200970, -0.0268122442, 0.0653072819, 0.1063619033, 0.0133854849, -0.0060175466, 0.0545842573, -0.0487253815, 0.0151596889, -0.0785005987, -0.0802304372, 0.0484480262, 0.0891754478, 0.1078064665, -0.0364075750, 0.0999512672, 0.1107065454, 0.0789366886, -0.0138391685, 0.1095671207, -0.0257695932, -0.0428525805, -0.0114096245, 0.0569301248, -0.0023199846, -0.1209811866, 0.1019362807, -0.0119493175, 0.0631952882, 0.0216912758, -0.0393021144, -0.0915174633, 0.0459948145, -0.0590485707, 0.1100638732, 0.0089368504, 0.0112390369, 0.0227147862, 0.1149510667, 0.0315912217, 0.1023940668, 0.0170055050, 0.0571667627, 0.0955757052, 0.1069688424, -0.1145650446, -0.0720746741, -0.0348537713, 0.0673392788, 0.1051375717, 0.0061061252, -0.0822099149, -0.0059504882, 0.0629908144, -0.0909899473, -0.0358492509, 0.0560915545, -0.1000952646, -0.0597868115, -0.0074775708, -0.0880830958, 0.0858801901, 0.0431792587, 0.1027540937, 0.1111018881, 0.0719758645, 0.0739802495, -0.0273507684, 0.1047298312, -0.0481767543, 0.0260886047, -0.0285371300, 0.1022497863, -0.0213575605, 0.0867801383, 0.0423959494, -0.0257016886, 0.0051487093, -0.0730890781, 0.1101538017, -0.0614168830, 0.0084047057, 0.1072085351, -0.0710782930, -0.0962346345, 0.0089361491, 0.1173417047, 0.0702837706, -0.0827322453, 0.1121314391, -0.0238510389, -0.0581420511, -0.1102455184, -0.0875973329, -0.1136446521, 0.1042908207, -0.0579834953, 0.0538958907, 0.0621812269, -0.0527450964, 0.0116017330, 0.0080775032, -0.0609075278, -0.0234251246, -0.0296521243, -0.0626164079, -0.0470448248, -0.0990896299, -0.0006553545, 0.0299900286, 0.0697193891, -0.0678666756, 0.0594136901, -0.0346848927, 0.0031270341, -0.0030225266, -0.0137672778, 0.0907370001, 0.0087532103, -0.0801249743, -0.0995198637, -0.0004803870, -0.0603948906, 0.0256160144, 0.0839158818, 0.0584301390, -0.0542921647, -0.0885969475, -0.0745436102, 0.0742837414, 0.0442116894, 0.1166669726, -0.0539536476, -0.0061637955, 0.0135705704, 0.0768573284, 0.0710956678, -0.0634208769, 0.0994171947, -0.1008054465, -0.1095205918, -0.0120040383, -0.0626448989, -0.0104508223, -0.0564792901, -0.1206934750, 0.0507950485, 0.0678468645, -0.0156581793, -0.1186650097, -0.0416424833, -0.0247265771, -0.0725707263, -0.0414108373, 0.0550348014, 0.0336649008, 0.0182059109, 0.0984307081, 0.0121794585, 0.0591587424, 0.0553695373, -0.1026195660, -0.0351655595, 0.0031038490, -0.0758737251, -0.0277305618, 0.0422207639, 0.0494262315, -0.0127642797, 0.0573076978, 0.0671067610, -0.1024133265, -0.0917927772, 0.0810660571, 0.0917306989, -0.1181844324, -0.0315070376, 0.0681476444, -0.0884714127, -0.0500916764, -0.0690080523, 0.0375999361, 0.0847250447, 0.0213363916, -0.0433427356, -0.0770831928, -0.1187275574, -0.0886793360, -0.0093469229, -0.1175554618, 0.0020764987, 0.0447462127, -0.0230984762, 0.1129126772, -0.0750385523, 0.0881952941, -0.0589291714, -0.0644822121, 0.0163850449, -0.0494686142, -0.0432115234, -0.0671745762, -0.0391371623, -0.0629079714, -0.0629401505, -0.0857732296, 0.0755910501, 0.0457036309, -0.0719016045, -0.0276582036, 0.1155356243, 0.0559851788, 0.0901813507, 0.0981174335, -0.0127858883, 0.0337059870, 0.1080406532, 0.0592485480, -0.0849343985, 0.0927692279, 0.0369755924, -0.1144128516, -0.1184713095, -0.0919941440, -0.0862816498, -0.0727401301, -0.0041241916, -0.1152523682, -0.1129723787, 0.0888063833, 0.0625979453, 0.0702275708, 0.0770527944, -0.0748230368, 0.0934824720, 0.0479520299, -0.0326340459, 0.0777159929, -0.0004918043, -0.1172865555, 0.0721861720, -0.0203324296, 0.1014969200, -0.0260115750, 0.1213410646, -0.0433784910, -0.0523739308, -0.1043403596, -0.0213004164, 0.0390121415, 0.0289412607, -0.0052055768, -0.0047861892, -0.0391905718, -0.0048016943, -0.1117199808, -0.0889627114, -0.0282950308, -0.0679594055, -0.0941733047, 0.0173146334, -0.0249663983, -0.0524025932, -0.0058561568, -0.1120872200, -0.0550689511, -0.0184920430, -0.0784680098, 0.0555786826, 0.0559517443, 0.0722017363, 0.0648603141, -0.0054997541, -0.0058421264, -0.0145799192, -0.0620541908, 0.0048262370, 0.0669869035, 0.0043266071, -0.0529662594, -0.0559520945, -0.0085311430, 0.0077163698, -0.0464460291, 0.0302531812, -0.0349215195, -0.0761313140, 0.0702131167, 0.0903085470, -0.0110171447, -0.0702611804, 0.0172033962, 0.0253331233, 0.0451989621, 0.0664553568, -0.1011059731, -0.0781927705, -0.0438488498, 0.0714693144, 0.1108731478, -0.1011665612, -0.0067526321, -0.0427940078, -0.0095062982, -0.0091604656, 0.0165004153, -0.1171378419, -0.0749866217, 0.0094746305, 0.0181747843, -0.1058430001, -0.0078801978, 0.1111439615, 0.1114305183, -0.0037229809, 0.0136653688, 0.0701892301, 0.1004202664, -0.0465877987, -0.0914362445, 0.0438456945, -0.1020442918, 0.0683039203, 0.0842918009, -0.0800784901, 0.1221529469, -0.0429448411, -0.1123335510, 0.1058442593, -0.0207460653, -0.0099484175, 0.0973279476, -0.0670938939, 0.1214458048, 0.0533876605, 0.1064238846, -0.0649846643, -0.0693850294, -0.0557897277, -0.0707821399, -0.0302667152, -0.1212057322, -0.0756961107, -0.1125048548, -0.0529053770, 0.1156305447, 0.1139632389, -0.1046255901, 0.0077552353, 0.1020426825, 0.0506511517, -0.0879824162, -0.0147441262, 0.0889013037, 0.0745490119, -0.0973700434, 0.0202339087, 0.1134335622, 0.0517641455, -0.0508146994, 0.0547125041, -0.1180076450, -0.0758284628, 0.0949055776, -0.0666959733, -0.0077741132, 0.0451450907, -0.0710967928, -0.0536307395, -0.0117101092, -0.0979067087, 0.0212999936, 0.0203663744, 0.0395335406, 0.0268778577, 0.1104144976, -0.0541437119, -0.0236647259, -0.0478176363, 0.0383333266, -0.0877823755, 0.0172037166, -0.1071405560, 0.1157085672, 0.0642962381, 0.0531892292, -0.0844665468, 0.0075724130, -0.0967081636, 0.1061335281, -0.0868837684, 0.1213759407, -0.1034174785, 0.0808276981, -0.0370500796, 0.0804772377, 0.0410898961, -0.0733640641, 0.0290309489, -0.0260762107, 0.0745372325, 0.0300850756, -0.0988690034, 0.0321851969, -0.0035412533, 0.0303395689, 0.0768069178, -0.0095579531, -0.0021736624, 0.1085478291, -0.0118653812, 0.1054738984, 0.0549034737, 0.0128137749, -0.0273700561, -0.0523399301, 0.0456015319, 0.0185221210, 0.0731329173, 0.0164050627, -0.0902750790, 0.0366572514, 0.1201291084, 0.0615632907, -0.0951958373, 0.0681912228, -0.0998479724, 0.0030465145, -0.1148870066, -0.1030755118, -0.0272391364, 0.1133635566, 0.0871337652, 0.0775282755, -0.0450636335, 0.1135188565, -0.0120147550, -0.0725365058, 0.0073357015, 0.0852192566, 0.0324395597, -0.1038429216, -0.1085475385, 0.1097747833, -0.1123603433, -0.0217260085, -0.0799691975, 0.1122514978, -0.0397347473, 0.1068944708, 0.0526493341, -0.0909981206, -0.0826939493, 0.0861282423, 0.0495337620, 0.0199979115, 0.0559604764, 0.0992755890, 0.0719906539, 0.0674699470, 0.0846901760, 0.0256890450, -0.0070181056, 0.0809581578, -0.0867078975, -0.0475424826, -0.0032975485, 0.0739943087, 0.0922120437, -0.1052928418, -0.0228414424, 0.0732495263, 0.0557918884, 0.0819552615, -0.1067841277, 0.1182844043, 0.0053463215, -0.0770448670, -0.0036185901, 0.0324138924, 0.0856594220, 0.0165035408, -0.0140845664, -0.1140666530, 0.0261485968, 0.0460579321, 0.0174610727, -0.0080666114, 0.0409204625, 0.0491339527, 0.1020410806, -0.0782473460, 0.0634496808, -0.0030302501, 0.0706155375, 0.0249233712, 0.0249156039, -0.0452334210, -0.1127509549, -0.0812068433, 0.0625955015, -0.0396339335, 0.1090567783, -0.0756998062, -0.0240244437, -0.0305154268, -0.0395729020, 0.1004222631, 0.0951742306, -0.1001401469, 0.0446012951, -0.0516487621, -0.0857292414, -0.0010784215, 0.0218917634, -0.0108323516, -0.0863571167, -0.1013871282, 0.0159847979, -0.0230734665, 0.0823484585, 0.0932829529, 0.0924676955, -0.0427385680, -0.0446225367, -0.0271315631, 0.1191707924, 0.1094383970, 0.0822646767, 0.0830552205, 0.0916111618, -0.1141833514, 0.0406291485, -0.0594199374, 0.0930655375, 0.0720784441, 0.0780645832, -0.0343714729, -0.1217586547, -0.1097960249, -0.0940631330, -0.1213639826, -0.0509329624, 0.0031168431, -0.0303815156, -0.0304436684, 0.0927310064, -0.0062645511, 0.0021879412, -0.0317696184, 0.0213807020, 0.0573692806, -0.0404403396, -0.1082862690, -0.0741076469, -0.1213764101, 0.0031080830, 0.1029952988, -0.0129001485, -0.1091712862, 0.0328298509, 0.0860863999, 0.0314928591, -0.1221777350, 0.0193854831, -0.0793015435, -0.1035022289, 0.1067047864, 0.0111728115, 0.0472623222, -0.1009967625, 0.0682140440, 0.0317481868, 0.0916033536, -0.0278367475, -0.1003470197, -0.0133719072, -0.1133875027, 0.0640036538, 0.0353982262, 0.1088720560, -0.0090215895, 0.0432462022, -0.0102605829, -0.0314257294, -0.0730457529, -0.0104387626, -0.0184129253, 0.0998092070, -0.1212348789, 0.0356411412, -0.0865989849, -0.0161232799, -0.0817676783, -0.0654889643, -0.0799379498, -0.0120726004, -0.1007080898, 0.0149158817, -0.0426623262, -0.0051814867, 0.0637948588, 0.0690362900, 0.0202093367, -0.0529136546, 0.0369792990, -0.0421896800, 0.0269273371, -0.0470992699, -0.0751839280, -0.0474357866, 0.0256939642, 0.0031652863, 0.0955029204, 0.0196184851, -0.0347932838, -0.0296995454, -0.0889445618, -0.0682102367, 0.0207976624, -0.0725776181, 0.1086752489, -0.0325414389, 0.0629960150, -0.0602662638, 0.1060198694, 0.0387848765, -0.1024776250, 0.0572896674, -0.0034712313, 0.0596381947, -0.1136033162, 0.0328078903, -0.0614361092, 0.0397591293, 0.1113831848, -0.0531033091, 0.0310079772, 0.1075753644, 0.0063241925, 0.1141559482, -0.1215965226, 0.0155434962, 0.0937857777, -0.0877047330, 0.0751960278, 0.1138664111, 0.0908930749, -0.1192718223, 0.0537774526, 0.0526049212, -0.0134859048, -0.0038511842, -0.0987029597, 0.0374899246, -0.0168619864, -0.0434525013, -0.0398806594, 0.0020657531, 0.0142421750, 0.1067648977, -0.0651641563, 0.1010287553, 0.1058764532, -0.1066527665, -0.0240039602, -0.0944362953, 0.0703195706, 0.0063649705, -0.1047909632, 0.0036350735, 0.0623881370, 0.0961316600, 0.0871248320, 0.0829233378, 0.0484618209, 0.0458368696, 0.0229333639, 0.1017883196, 0.0418882035, 0.1163155660, 0.1175599173, 0.1127615795, -0.0533757769, 0.1169660985, -0.0400099866, 0.0907146037, 0.0590908676, 0.0422900841, 0.0460591130, 0.0739099681, -0.0887437761, -0.0377090275, 0.0108114732, -0.0467654951, 0.1097593158, -0.0541553795, -0.0320662782, 0.0854890645, 0.0058585806, 0.1128775775, -0.1152151525, 0.0197237227, -0.1210606843, 0.0627159998, -0.0375604108, -0.0183341876, -0.0703644753, 0.0922817662, -0.0773049966, 0.0817813724, 0.0825639218, -0.0904611126, 0.0665495470, 0.1071758494, -0.1052697003, 0.0779426694, 0.0384289846, 0.0774490833, -0.0813683495, 0.0077526802, -0.0993032381, -0.1094043776, -0.0831280425, -0.0697808117, 0.0689985678, -0.0290559735, -0.1012264565, 0.0859319791, -0.0141887972, -0.0647524670, 0.1110393405, -0.0695864856, -0.1150187701, 0.0450497083, 0.0048485459, -0.0158903953, 0.0618037544, 0.0189579912, -0.0551913418, -0.1153687760, -0.0062157135, 0.0971402079, -0.0868286565, -0.0920324773, -0.0715483129, 0.0794150159, 0.0840101913, 0.0524930097, 0.0169155989, -0.0092814714, -0.0420132205, -0.0053779748, -0.0201680623, -0.0356787071, 0.0490753166, -0.0071454914, 0.0330735110, 0.0367501490, -0.0635742620, -0.1085965410, 0.0299991239, 0.0009555033, -0.0517929494, -0.0589267053, 0.1196261644, -0.0623148009, -0.0972990245, -0.0965424329, 0.0304331705, -0.0298638251, 0.1053218842, -0.0531049147, -0.0463794097, 0.0048888274, -0.0593250692, -0.1058470160, -0.0117061678, 0.1072487161, -0.0852306038, 0.0655222237, 0.0958155543, 0.0515658036, -0.0858606398, -0.1057623699, 0.0843324512, 0.0350882374, 0.0041236221, 0.0333717614, -0.1134455949, -0.1048921868, 0.0502202883, -0.1197067127, 0.0257723667, -0.1212646067, 0.1198357195, -0.1011531577, 0.0961475745, 0.0688318014, 0.0316089317, -0.0357447304, -0.0652436987, 0.1217864379, -0.0140350871, -0.0782670304, 0.1153980494, -0.0555025563, 0.1013891697, -0.0516032241, -0.1224566400, 0.0933336243, -0.1119242087, 0.0875851437, 0.0505826473, -0.0061931419, -0.1042656824, -0.0642435476, -0.1195743829, 0.1001021564, -0.0644918531, -0.0630254596, 0.1083668023, -0.0591663644, 0.1062262431, -0.1108363271, -0.0662924796, -0.0565887317, -0.0843177587, -0.0888450444, 0.0927068889, 0.0566921756, -0.0695990697, -0.1049380749, 0.0453887805, -0.0453292839, 0.0949023813, 0.0541347899, 0.0493313000, -0.1138991639, -0.0539928786, 0.0377544053, 0.0393379591, -0.0415671468, -0.0944913253, -0.0667773932, -0.0345332138, 0.1212377697, -0.0009734906, 0.0976581872, 0.0563069209, -0.1155911386, -0.0842989236, -0.0146533279, 0.0626721680, 0.0186427757, -0.0210429877, -0.0383630954, -0.0650487989, -0.1074766964, -0.0707002953, -0.0937468931, 0.0526847243, -0.0379353128, 0.0036798082, 0.1000711173, -0.0632531047, 0.0368731692, 0.0624123290, 0.1164730415, 0.0386095606, 0.1091767624, -0.1029882580, -0.1099862754, -0.1004273146, 0.1206258759, -0.0003699226, -0.0389963016, 0.1025706679, -0.0411286317, 0.0687797368, -0.1223255321, 0.0245880801, 0.0657655671, -0.1213395894, 0.0705741942, -0.1186464280, -0.0111511592, 0.1187131032, 0.0416909382, 0.0748816580, -0.0034086406, -0.1197106838, 0.1116090044, -0.0475637279, 0.0437588543, 0.1208176762, 0.1144774258, -0.0798825249, 0.0296247490, -0.0852777585, -0.1013564989, -0.0867959931, 0.0085716434, -0.0513013639, 0.0088088075, -0.0434477255, -0.0011975582, -0.1092865095, -0.1159528568, -0.0840793252, 0.0298991874, -0.0211341940, 0.0044840984, -0.0308375340, 0.0343196280, 0.1193257421, -0.0886690691, -0.0449073277, -0.1143410057, -0.0879700184, 0.0389654972, -0.0710627735, 0.0101077491, -0.0605045222, -0.0209706295, 0.0796098262, 0.0038157059, 0.0385006145, 0.0002785990, -0.0829278752, -0.0468586162, 0.1161979884, -0.0889831334, 0.0560116358, 0.0798905715, -0.0417194813, -0.1116367280, 0.0607610159, -0.0649939328, 0.0077187787, 0.0152143221, 0.1111450270, -0.1155239344, 0.1130238995, -0.0387383327, -0.1121456027, 0.1160342470, 0.0969365910, 0.0044511165, 0.0742539987, -0.0460367911, 0.0385462679, 0.0412081741, -0.0433713235, -0.1035562456, 0.1158072948, -0.1134680510, 0.0681616440, -0.0061550941, 0.1083249152, -0.1088469177, 0.0662066042, -0.0821651965, -0.1172407568, -0.0572922677, 0.0445658006, -0.1005967036, 0.0876826718, -0.0550703816, 0.0526107475, 0.0345623977, -0.0945453197, -0.0531676672, -0.0175774358, -0.0876978263, 0.0111020301, 0.0139189288, 0.0669948012, 0.0878101438, 0.1169478819, 0.0824895352, 0.0546025634, -0.0621289872, 0.1160806194, -0.0976868495, 0.1127311513, 0.1125559062, -0.0626958683, 0.0596245602, 0.0684829503, -0.0722981840, -0.1044247672, -0.0616316944, 0.0051092454, -0.1132451519, -0.1139783785, -0.0622740090, -0.1219055057, 0.0721357614, -0.0917551666, -0.0837978050, 0.0065110154, 0.0650429204, -0.0408489816, -0.0189857166, 0.0696990341, 0.0445017666, -0.0364724994, -0.1223583147, 0.0140934438, -0.0460499600, 0.1008408368, 0.0315286890, -0.0728932992, -0.1179874986, 0.0122272009, 0.1148830503, 0.0267951619, 0.0464119539, 0.0657587573, 0.0327891745, -0.0197487622, -0.0726499930, 0.0929888487, 0.0522162654, -0.0312065240, 0.1217183024, -0.0573301688, 0.0181940999, 0.0871169046, 0.1178338155, -0.1195933893, -0.0526214764, 0.1056340486, -0.0053989696, -0.0823654234, -0.0456143804, -0.0898950547, -0.0034501925, 0.0423908830, -0.0155000612, -0.0831665844, -0.1137304604, 0.0186734069, 0.0686536059, -0.0049040262, 0.0480503179, -0.0969440863, 0.1071482822, 0.0661973208, -0.0067408350, -0.0439572111, 0.0477178022, 0.0020366842, -0.0018694693, -0.0245583840, 0.0974917635, 0.0322875567, 0.0197558720, -0.0707559362, 0.0574784465, -0.0432135239, -0.1026835442, -0.1162555292, 0.1150968075, 0.0070495834, -0.0465756655, 0.1161663681, 0.0109611247, -0.1056861132, 0.0493807681, 0.0526254922, 0.0504570566, 0.0984506831, -0.0400592759, 0.0340190120, -0.1198929846, -0.0837979987, -0.0347313508, -0.0033167915, 0.0504535250, -0.0185741410, 0.1001414731, 0.1043049246, 0.0440068804, 0.0894159079, 0.0368669815, 0.0032671804, -0.1200957224, 0.1119350865, 0.0598730221, 0.0137264850, 0.0022221054, -0.0597013421, 0.0937491581, -0.0828995630, -0.0931838453, -0.0900862738, 0.0106774149, 0.1054546833, 0.0307732355, 0.0363594070, 0.0042356630, -0.0817820877, 0.0604019985, 0.1212874204, 0.0640705824, 0.0881949738, 0.0793967694, -0.0721236989, -0.0290758144, -0.0073398482, -0.0925436616, 0.1139439270, 0.0689733475, -0.0814768001, 0.1168687046, 0.1192987114, -0.0763017386, -0.0958246961, 0.1214803085, 0.0949062183, -0.0395593680, -0.1026686355, -0.0056121019, 0.0757907331, -0.0336637646, 0.0371249653, -0.0451605059, -0.0484652109, 0.0738411695, -0.1012143940, 0.0243671816, -0.1129544601, -0.0463687219, 0.0338133834, -0.0533898212, 0.0325770192, -0.0838200599, -0.0080503179, 0.0970356837, 0.0239713863, -0.1142371818, 0.0271931905, -0.0173041355, 0.0421044007, -0.0844768137, -0.1088176966, -0.0973340645, 0.0755484924, 0.1036251187, -0.0676600263, 0.1209324822, 0.0019646767, -0.0318439044, -0.1192800105, 0.0018155074, 0.0287317634, -0.0525104739, -0.0468093231, -0.0480565540, 0.1144801304, -0.0649776682, -0.0432417318, 0.0915212110, 0.0820941329, -0.0354383476, 0.0011201923, -0.0841159001, 0.0646729693, 0.0672081113, -0.0043447404, 0.0252754539, -0.0184501279, 0.0591655187, 0.1023449227, -0.0249860641, 0.0911095962, -0.0397905335, 0.0859005004, 0.0446607172, -0.0228906870, -0.1021098346, -0.0829724073, -0.0012110488, -0.0214170571, -0.0135888057, -0.0658218190, -0.0280953012, -0.0995291173, -0.0760498717, -0.0225521997, -0.0585457161, 0.0377050266, 0.1207058281, 0.0867194608, 0.0424485393, -0.0053030909, -0.1145903170, 0.0510215834, -0.0073895175, -0.0402600877, -0.1030066162, -0.0879597962, -0.1131895706, 0.0735148415, 0.0032645231, -0.1093684733, 0.0403281823, 0.0297954381, 0.0586265102, -0.0161113385, 0.0636994019, 0.0565028824, -0.0701579005, 0.1122573093, 0.0181954578, 0.1144440398, 0.0711348504, -0.0122422241, -0.0368941091, -0.0662796199, -0.0120432395, -0.0390547179, -0.0953508914, -0.0168083459, 0.1002616212, 0.0817703828, 0.0309694316, -0.0505522937, 0.0895038471, 0.0697027147, 0.1173382699, -0.0673231483, -0.0624504238, 0.0821158141, 0.0880054533, 0.1196676716, -0.1031051651, 0.0974025875, -0.0639183596, 0.0951364934, 0.1154137030, 0.0072163898, 0.0478761680, -0.0541675687, -0.0363773219, -0.0275118966, -0.0716165379, -0.0724962950, -0.0634375513, 0.0258701444, 0.0548204407, 0.1078113317, -0.1053488329, -0.0861423165, 0.0907512754, 0.0973444656, 0.0539025925, 0.0771540031, -0.0813223347, -0.0411978513, -0.0360529386, -0.0751655623, -0.0583630949, 0.0699477643, -0.1138952374, 0.1097363383, 0.0578981712, 0.0729196966, -0.0989592746, 0.0618274808, 0.0338668376, -0.0889462382, 0.1027897894, 0.0678498745, -0.0726097524, 0.0902820751, 0.0384064727, 0.0349180587, 0.0078264987, 0.0763003975, 0.0556073859, 0.0828109458, -0.0687383488, -0.0749648213, 0.0635954216, -0.0690511242, -0.0187322292, -0.0648266599, -0.0071088159, -0.0039740000, -0.0529974885, 0.0978268385, -0.0670873076, -0.0664480329, 0.0417482741, -0.0778021738, -0.1194583997, 0.0320748948, 0.1219591126, 0.1132581607, -0.0371884592, -0.1107978672, -0.0986348167, 0.0385946520, -0.0664640293, 0.0229673386, 0.0971378535, 0.0591958575, 0.0709716678, -0.1187800169, -0.0767864436, 0.0882282928, 0.0067280456, 0.0966589898, -0.0681769326, 0.1060680375, 0.0214520972, -0.0624745265, 0.0710219368, 0.0875809118, 0.0798684806, 0.0299680270, -0.1041383669, -0.0246593580, 0.0246266983, 0.0723596513, 0.0963399187, 0.0998347551, 0.0283198357, -0.0549975559, -0.0913843364, -0.0038635067, 0.0507868156, -0.0849882662, -0.0254767742, 0.0239133518, 0.0967102945, 0.0261187684, 0.0805644244, 0.0713136569, -0.0758509338, -0.0561085492, -0.0110603757, -0.0247925986, -0.0286187883, 0.1176259965, -0.0943565518, -0.0305515490, -0.0428642780, -0.0593734831, 0.0163291264, -0.0735649467, 0.1199667826, 0.0778689682, 0.1069859117, 0.0168701187, -0.0568605140, 0.0672973618, 0.0764015615, 0.0588326342, -0.0135122286, 0.0666134208, -0.0798848048, -0.0098122433, -0.0984158590, 0.0240491480, -0.1221569180, 0.0554059036, -0.0099695008, -0.0573708899, -0.0433212891, -0.0512951165, 0.0520897992, 0.0652003065, -0.0183672868, 0.1109238937, -0.0629450604, -0.0079112230, 0.0439378060, -0.0815458149, 0.0565473251, 0.0354866870, 0.0512556396, 0.0377807841, 0.0294742510, -0.0642076284, 0.0405624844, 0.0312056765, -0.1192154363, -0.0445662811, 0.1223343089, -0.0514499657, -0.0433438458, 0.1026664004, -0.0686001703, 0.0895367861, -0.1080543771, -0.0566971824, 0.0605554171, -0.0954505056, -0.1109296158, -0.0142449783, -0.0594722815, 0.0074782278, 0.0479109883, -0.0651316121, 0.0666174516, -0.0774482563, -0.1008775532, 0.0917327851, 0.0036124871, 0.0677254647, 0.0979502797, 0.0098853307, -0.0109154116, 0.0601533763, -0.0590035431, 0.1014626697, -0.0912155882, 0.0487362742, -0.0722052604, -0.1006511226, -0.0769523904, 0.0336049534, 0.0590316206, -0.0345095620, 0.0552505292, -0.0547008514, 0.1129956022, -0.0603099614, -0.0127705438, -0.0181109086, -0.0003536727, -0.0852182657, 0.0360941403, -0.0140630314, 0.0236372501, 0.0053438544, 0.0002733576, -0.0538834818, -0.0751845986, -0.1213886738, 0.0649687648, -0.0220588911, -0.1199016124, -0.0593568087, -0.0534890443, 0.0972416177, 0.0613894351, -0.0320471972, 0.0605901368, -0.0084691066, -0.0576346815, 0.0740651339, -0.0293835402, 0.0564734042, -0.0111141484, -0.0459035188, -0.0883161277, 0.0356814079, -0.0062089977, -0.0057442472, -0.1094276011, 0.1116820201, 0.0986662805, -0.1081926674, -0.0393768959, -0.0279998891, -0.0591716357, -0.0312658884, -0.0624387711, 0.0171371996, 0.0190935098, 0.0903700963, -0.1201528609, 0.0084820576, 0.0649494305, -0.0449909866, -0.0451822020, 0.1013900042, 0.1195913702, -0.0120375892, 0.0782208368, -0.0193789564, 0.0817897841, -0.0925387964, -0.0872546136, -0.0781156868, -0.0602889061, -0.0684291795, 0.0518000610, 0.0797411576, -0.0708993673, -0.0211733375, 0.0318368226, -0.0930965468, 0.0710339621, 0.0765241981, -0.0040045292, 0.0943231508, -0.0786935240, 0.0966251567, -0.0919599906, -0.0372533873, -0.0528820306, 0.0782856420, -0.0866920725, -0.0621778965, -0.0504421070, 0.0249917153, -0.0512272865, -0.0863086581, -0.0993862748, 0.0528833605, -0.0735278204, 0.1212292016, -0.0203587394, -0.0733648092, -0.0006782183, 0.0428559408, 0.1174788699, -0.1142293140, -0.0158270597, -0.1171777993, -0.0496041775, -0.0295320675, 0.0461679436, -0.1001762077, 0.1158981919, -0.1061270908, -0.0780146047, 0.0227038357, 0.0428825989, 0.0201870427, 0.0003453215, -0.0000121181, -0.0826825798, -0.0032056994, -0.0620386116, 0.1196930781, -0.0132234972, -0.0280661583, 0.0284365788, -0.1072095111, -0.0336938240, 0.0822007284, 0.0104590710, 0.0520504676, -0.0537196808, -0.0736041367, 0.1165054366, 0.0835047513, 0.0309934933, 0.1198583916, 0.0385312028, 0.0602881759, 0.0879828930, 0.0277156103, -0.0177074932, -0.0870853662, 0.0076828483, -0.0547064580, -0.1027197242, 0.0682966113, 0.0117405364, -0.0571063645, -0.0813647732, -0.0903463736, -0.0922898501, 0.0383612290, -0.0007966689, 0.0096039874, 0.0702900887, 0.0667570978, -0.0985516682, -0.0982617140, 0.0404161774, -0.0417629629, 0.0404421203, -0.0179581922, -0.0030112115, 0.0673818514, 0.0286950879, 0.1186100394, -0.0742377937, 0.1128966883, 0.0475647636, -0.0892856047, -0.0817643479, 0.0779364854, 0.1064530686, -0.0787717849, 0.0967960358, 0.0018508250, 0.1099002212, 0.0942839310, -0.1116401181, -0.0267340317, -0.0081055500, -0.0235826746, -0.0769269317, 0.0309830401, -0.0735486448, 0.0018112879, 0.0113790380, -0.0695219338, -0.0185801703, -0.0739379376, 0.1089342684, 0.0089422818, 0.1168441176, 0.0526112728, 0.0495964251, 0.1110479981, 0.0047443011, -0.0149769243, -0.0679023042, 0.0618225746, -0.0988103971, 0.0826750025, -0.0351270288, -0.0137848705, -0.1089567244, 0.0941850170, -0.0151732666, 0.0599042103, -0.0365921780, -0.1009299383, 0.0864206403, -0.1041626483, 0.0800068751, -0.0272544529, -0.1014895067, -0.0150101986, -0.0080177886, 0.0484601855, -0.0647325963, 0.1108296663, -0.0386389643, -0.0072018332, -0.0958985388, 0.1205369458, -0.0317835622, 0.0403970219, 0.0236531924, -0.0100764604, 0.0303736310, 0.0170631316, 0.0284744073, 0.0628812686, -0.0614395700, -0.0150541449, 0.0297238249, -0.0755252764, -0.0750252828, 0.0136288982, 0.0106208399, 0.0724616349, 0.1100431755, -0.1019091085, -0.0917544514, 0.0063626636, 0.0143567128, 0.0517995805, 0.0082236798, -0.0730671436, -0.0927241296, 0.0286834221, 0.0277905092, -0.1205308884, 0.0380964540, 0.0332225189, -0.0017234100, 0.1099737808, -0.0246603955, 0.0811905637, -0.0384284444, 0.1052275524, 0.1087049320, 0.0091395872, 0.0057744985, -0.1030822396, -0.0813524947, -0.0241159126, -0.0579558723, 0.0626397580, -0.1210089549, 0.1129752100, -0.0339811705, 0.1052947268, -0.0820279568, -0.0287086666, 0.1211255118, 0.0788812563, 0.0947911069, 0.0426826663, 0.0697760209, 0.0596337132, 0.0394655354, -0.0818679631, 0.0317960009, -0.0299633387, 0.0495446958, -0.0260369498, -0.0188807864, -0.0983164757, -0.0706799701, 0.1166013777, -0.0697819218, -0.0099019455, -0.0688552633, 0.0683998317, -0.0564574338, 0.0004680207, 0.0866214484, -0.1013861746, -0.0425883047, 0.0987915918, 0.0274446048, 0.0745525286, -0.0419832319, -0.0756036490, 0.0060513895, 0.1111031547, 0.0608722381, 0.0273410305, 0.0727049187, 0.0639427826, -0.0186456814, -0.0036808595, -0.1121074930, 0.0030704732, -0.1173899844, -0.0948230997, -0.0759684443, -0.0998869389, -0.0479952171, -0.0941602811, -0.0147668440, 0.0829064250, -0.0030406599, -0.0038963568, 0.0183935221, 0.0503182672, -0.0614481270, -0.1034701690, 0.0003959546, -0.0078535527, -0.1205556393, -0.0810073018, 0.0723123774, -0.0153332697, 0.0794567913, 0.0351808444, 0.0012831002, -0.1187531501, 0.0870785788, 0.1028106213, -0.1184310615, 0.0627691895, -0.0300830752, -0.0164371394, 0.1070102826, 0.0330049470, 0.0870624036, -0.0169100501, -0.0245368481, -0.0762465373, 0.0701323524, 0.0736596137, -0.1169300228, -0.0672434568, 0.0818099901, 0.0225456301, -0.0103552639, 0.0873204321, 0.0498294719, 0.0457121730, 0.0191769060, -0.0428457335, -0.0681906715, -0.0668788776, -0.0325232781, 0.0573656335, -0.0054301117, -0.0221567117, -0.0425273068, -0.0025272327, -0.0509556942, 0.1085582823, 0.0590245537, -0.0551095530, -0.0875128135, 0.0214493368, -0.0012728510, -0.1179660931, -0.0702903122, 0.0935289338, 0.0536786392, 0.0984638557, 0.0207381379, 0.0106696039, -0.0915354639, 0.0625053346, -0.0490870848, -0.0547644049, -0.0527797565, -0.0233087614, -0.0865835473, 0.0211388953, -0.0902106091, -0.0201294888, -0.0493197106, -0.1049946919, -0.0546394438, -0.0092390431, -0.0713699311, -0.0193305705, 0.0347975343, -0.0664841086, -0.0101176770, 0.0497008003, -0.0816339999, -0.0712993518, -0.1116712019, -0.1106455177, 0.1188921779, 0.0161824990, -0.0011629415, -0.0780117586, 0.0948840529, -0.1072805449, -0.1001676396, -0.0306374840, -0.0667998940, 0.0496823899, -0.1207452640, -0.1118476763, 0.0687034950, 0.0263081174, 0.0691319779, -0.0495659821, 0.0728943124, -0.0334766321, 0.0990709662, -0.1212938353, 0.0951674134, -0.0221400540, 0.0612907074, -0.0452925935, 0.1048894450, 0.0805950835, -0.0548206605, 0.1205759719, 0.0117185339, -0.1065648794, 0.1187121123, -0.0191344917, -0.0666760579, 0.0501205698, -0.0435949527, 0.0999448150, -0.0018259903, 0.0911796466, -0.0516718999, 0.0182334315, 0.0994952321, 0.0252131391, -0.1006137580, -0.0839611962, -0.0651926249, -0.1039003581, 0.0474575125, -0.1001500785, 0.0696889758, 0.0687535927, -0.0141408937, -0.0202112198, -0.1195243448, 0.0245548207, 0.0727141723, 0.0310177151, -0.0542206094, -0.0961673856, -0.0084383450, 0.1067313328, 0.0308209341, 0.0632045940, -0.0982039720, -0.0501659438, 0.0025366060, 0.0028236003, 0.0722228512, 0.0046293400, -0.1087962240, 0.1056908146, -0.1106176302, 0.0010997815, 0.0708101466, -0.0173080489, 0.0307174642, -0.0512846932, -0.0536251329, -0.0735433102, 0.0430814251, -0.0173598211, -0.0601400286, -0.0018597603, -0.0640247539, -0.1158566847, -0.1043187976, -0.0179417524, 0.0248475671, 0.1063795835, 0.0703561381, 0.0087651238, 0.0635367259, -0.0424258485, -0.0127656814, -0.0349924304, -0.0139142275, 0.0536364317, 0.0635023266, -0.0098383771, 0.0058709467, 0.1015682742, -0.0814263746, 0.0495718382, -0.0943268538, -0.0475068018, -0.0771344975, -0.0611432306, 0.0024337338, 0.1094344407, 0.0868272558, -0.0726881847, 0.0628090724, -0.1123200431, -0.0840390474, -0.0852414221, -0.1060016155, -0.0930772498, 0.1222090572, -0.0672836378, -0.0920790434, 0.0085748555, 0.0932128429, 0.1093679741, 0.0881800726, 0.0149038369, 0.0089301048, 0.1142530516, 0.0873971954, -0.0838188604, 0.0550154708, 0.0012718436, 0.0652024224, 0.0526203960, 0.1206695214, 0.0568268001, 0.0332026929, 0.0720103905, -0.0520274006, 0.0280702617, -0.0533305034, 0.0606249422, 0.0284362715, 0.0406511500, -0.0503661111, 0.0331570506, -0.0982811153, -0.0428532697, 0.0629011989, -0.0121741006, 0.1039940044, 0.0832384750, 0.0803010240, 0.0223621503, 0.0121697206, -0.0749045834, -0.1114970222, 0.1062697172, -0.0609924570, -0.0520904697, -0.0354854763, 0.1177499816, -0.0570311137, -0.0129062077, 0.0588378459, 0.0322391018, 0.0675978735, 0.0283720028, 0.0623238683, 0.0787600577, 0.1081696600, -0.0001008429, 0.0424694605, 0.0686675236, -0.0502673872, 0.0202762336, 0.0130469818, 0.0815876424, -0.0723177642, 0.1060317382, -0.0096212737, -0.0006361116, -0.0101760337, 0.0390931740, -0.1183585823, 0.0546960793, -0.0476191938, 0.0482302196, -0.0526179895, -0.1128615737, -0.0547595881, -0.0905787647, 0.0760701969, 0.0063253897, 0.0664331689, 0.0833176076, -0.0844109952, -0.0568950698, -0.0919012278, -0.0591464192, 0.0165972728, 0.0305772293, -0.1055601984, -0.1104904339, 0.0368372835, 0.0752562508, 0.0207816456, 0.0294835512, -0.0745286122, 0.0143034952, 0.0482460894, -0.0734932050, 0.0894430652, -0.0609953031, -0.0600306168, 0.1134523228, 0.0810404941, 0.0207410716, -0.1075059697, 0.0662163571, -0.1015319303, -0.0997316241, -0.1050208732, -0.0132183144, -0.0054561729, -0.0801075026, -0.0850168988, -0.0925308838, 0.0166775584, 0.1083756685, -0.0430544280, 0.0486176200, -0.1037159190, 0.0092394808, -0.0594354160, -0.0856535658, 0.0280810948, -0.0706022382, 0.0026512314, 0.1215777323, -0.0695323423, -0.0671200752, -0.0715877339, -0.0353480019, 0.1202328727, 0.0932152644, 0.1218840107, -0.0663871318, -0.0258824956, 0.0077145742, -0.0286615808, 0.0623436943, 0.0596885085, 0.0485244133, -0.0766733140, -0.0213161688, -0.0086679608, 0.0881611034, 0.0036087495, 0.0111056510, -0.0626203567, 0.0439779870, 0.0011929008, 0.1105866060, -0.0610515289, -0.0458469316, 0.0798048303, 0.0583593883, -0.0222780686, 0.0240326338, 0.0777396709, 0.1173777804, 0.0320755951, 0.0190893039, 0.0201633461, 0.0253363363, -0.0742161423, -0.0044847406, 0.0944678485, -0.0936097130, -0.0467547365, -0.0066138436, 0.0425791368, 0.0997425318, -0.0986044332, -0.0234639756, 0.0225843191, 0.0761186853, 0.0133787980, -0.0601596832, 0.0297595076, -0.1018760577, 0.1175700054, -0.1203975454, -0.0651729032, -0.0162022226, -0.0857812017, 0.0051634260, -0.0940849483, -0.0364951603, 0.0699042082, -0.0375314467, 0.0143767586, 0.0404779501, 0.0048394939, -0.1127231643, -0.0879117772, -0.1222639531, 0.0001607617, 0.1113079041, 0.0015707952, 0.0800769553, 0.0291425809, 0.0093643991, 0.1098366827, -0.0539296903, -0.1021077186, -0.0650735199, 0.1153566465, 0.0492410585, 0.1113108695, 0.0697458312, -0.0706401840, 0.0557986461, -0.0465190746, -0.0180228408, 0.0687877983, 0.0366568267, 0.0031995527, 0.0616568476, -0.0009922518, 0.0703196973, -0.0629133657, -0.0640934557, 0.0997528657, 0.0999825522, 0.0928869769, 0.1022873372, 0.0362978987, -0.1078326777, 0.0912492126, -0.0452522524, 0.0451649465, -0.1216944307, 0.0153103182, -0.0709884092, -0.0430366732, 0.1199660450, -0.0802987888, 0.1201659888, -0.1168260425, -0.0253074709, -0.1146039516, 0.1084672660, -0.0963511914, -0.0122068487, -0.0074192723, 0.0090193264, 0.1027615070, 0.0595608316, 0.1057012975, 0.0328995511, 0.0396752656, -0.0489297844, -0.0026836144, 0.0199060347, 0.0095240073, -0.0453227125, -0.0666948035, 0.0795875192, 0.0128528737, -0.1179501638, -0.0296188649, -0.0137141477, 0.0532239638, 0.1158459708, 0.0105458684, 0.1145718917, -0.1023812890, -0.1069456339, 0.0886924043, 0.0552969873, -0.0164383352, -0.0451798216, -0.1203868911, -0.0935212523, -0.0595425665, 0.0037644887, 0.0341861248, -0.0571640618, -0.0973133519, 0.1098938286, -0.0391438790, -0.0562733263, 0.0656320751, 0.1186908409, 0.1178603992, -0.0794746131, 0.1182508543, 0.0134041877, 0.0029187198, 0.0847295672, 0.1002165377, 0.0309388153, 0.0980773717, -0.0132266507, -0.0655053779, -0.0751516297, -0.1164671108, 0.1185420379, -0.1123188585, 0.0050149872, 0.1029044837, 0.0838919505, -0.0679659322, -0.0369289145, -0.0671864152, -0.0631496906, 0.0342294015, -0.0653103888, 0.0340390019, 0.0722403452, -0.1034927964, -0.0459376536, -0.0320992023, 0.0500526354, 0.0876890421, 0.0937360078, 0.0707329139, 0.1029041335, -0.0276299380, -0.0036799104, 0.1123230383, 0.0178652331, -0.0832355842, -0.0699920282, 0.0204811022, -0.0576776378, -0.1094934344, -0.0114685073, 0.0660814643, 0.0670990050, -0.1095280275, -0.0000073876, -0.0609499253, -0.0530114621, 0.0228347555, 0.0458176993, -0.0571857430, -0.1104559451, -0.0654582605, -0.0079634180, 0.0505123772, -0.0624950826, -0.1005887389, -0.0037721978, -0.0224731248, 0.1212550402, 0.0664631575, -0.0850029886, 0.1097077355, -0.0557045788, 0.0184463896, -0.1220657378, 0.0120774629, -0.1036076844, 0.0460954532, 0.0234325845, 0.0422661975, 0.0883861631, -0.0872246847, 0.0879728049, 0.0779528767, -0.0104307616, -0.0562351905, 0.0239886008, -0.0910913274, 0.0370804034, -0.0930568650, -0.0100972224, 0.0551076382, 0.0985962003, -0.0309110172, -0.0739896074, -0.0482238419, 0.0372571088, -0.0227180421, -0.1055885255, -0.0150223020, -0.0001806032, -0.0915533379, -0.0937623903, 0.0606436618, 0.0920819342, -0.1222864091, 0.1221684217, -0.0230703857, -0.0279329475, 0.0492962338, -0.1087607294, -0.0703571662, -0.0301810857, 0.1169077456, 0.0505725145, 0.0370776728, 0.1200321689, -0.1019807532, 0.0380899124, -0.0249728225, 0.1007679403, -0.0791310593, -0.0975976586, 0.0593496114, -0.0129678929, 0.0299042817, -0.0312948525, 0.0845322683, 0.1029597893, -0.0850703344, -0.1001722664, 0.1065587997, 0.0427775532, -0.0800198689, 0.1167488992, 0.1186196953, 0.0521428585, -0.0331480280, -0.0963397697, 0.1206945851, 0.0387632996, -0.0670002103, -0.0518924780, 0.0368953645, 0.0550496913, 0.0424712859, 0.0997449085, 0.0729197115, 0.0322539918, 0.0438763984, -0.0877981484, 0.1018017679, -0.0070925662, 0.0431165062, 0.1035303473, -0.1102843806, -0.0951335132, 0.0308939796, 0.0199507102, -0.0753336474, 0.1042821109, -0.1156517714, 0.1190977320, 0.0348349549, 0.0387073383, 0.0636421815, -0.0263181478, -0.0890626907, -0.0340670757, 0.0981658325, 0.0490844287, -0.0107116960, -0.0609495752, -0.0462010838, -0.1028958112, -0.0160541348, -0.0918994769, -0.0764811411, 0.1044175699, -0.0741025135, -0.0742427856, 0.0545223355, 0.0854545683, -0.0738985613, 0.0011710153, 0.0746878609, -0.0076931850, -0.1129686087, 0.0801988542, -0.0292860419, -0.1162016839, -0.0308377389, -0.0149621349, -0.0721430629, -0.0196245145, -0.0019957894, 0.0382393003, 0.0558171161, -0.0152535820, -0.0903868452, 0.1151946709, 0.0779820904, -0.0266734716, -0.0351056531, -0.0730523393, -0.1159697026, -0.0492654555, 0.0722534955, 0.0702963397, 0.0760720819, -0.0477289706, 0.1091356575, 0.0486562662, -0.0142663820, 0.0231467001, 0.0516106114, 0.0649976134, -0.0661737099, -0.0746682808, -0.0975615829, -0.0442028418, 0.0029524169, -0.1073037311, -0.0891254097, 0.0306069124, 0.0302146655, 0.0292227790, -0.0733406320, 0.0234635808, 0.0414498188, -0.0917757079, 0.1013448164, -0.0268531833, -0.0136428121, 0.1123312414, 0.0209989678, -0.0192946251, 0.1098528355, 0.1082464829, -0.0891894773, 0.0356156491, 0.0806657374, 0.1014650911, -0.1113828942, 0.1117931828, -0.0324592553, 0.0909036174, -0.0893962905, -0.0968765616, -0.0547154360, -0.0248596128, 0.0819907412, 0.0833446756, 0.0837624297, -0.0052483841, 0.0186706614, -0.0716620609, -0.1223514751, 0.1169596016, 0.0528814159, -0.0122984201, -0.0688925683, 0.1223654971, 0.0332812555, 0.0136512360, -0.0806224346, 0.0127435336, -0.1102285236, -0.0992119461, -0.0805112645, 0.0425005294, -0.0394970849, -0.0581223704, -0.0582337379, 0.0978204980, 0.0180914756, -0.0954660028, -0.0857452825, -0.0787952021, 0.0453333147, 0.0576244332, -0.0837813541, -0.0021346654, -0.0798107088, -0.0820571259, -0.0203922167, -0.0019625158, 0.0249931160, -0.0618258454, -0.0878762528, 0.0241295639, 0.0687662065, -0.0469263010, -0.0468915813, 0.0997184515, 0.0291023869, -0.0215884317, -0.0095678084, 0.0323007703, 0.0397886485, 0.0186092686, -0.0964889526, 0.1218544468, 0.0624431372, 0.1165228710, -0.0733781159, -0.1068496630, -0.0089927977, 0.0955065414, -0.1072276160, 0.0661049709, -0.0554286800, 0.1029516608, -0.0914058611, -0.0769712552, 0.0974431857, -0.1165331826, 0.0830636248, 0.0832521319, 0.0415101908, -0.0082431268, 0.0340624489, -0.1199335828, 0.1157913506, 0.0126260901, -0.1217846721, 0.0653231665, 0.0231734775, 0.0977661982, -0.0263404138, 0.0320036002, -0.0699869171, 0.1041892469, -0.0278124250, -0.0154036125, -0.1201078966, 0.0368872881, 0.0339947902, -0.0310203712, 0.0368982814, 0.0608707778, 0.0613649487, 0.1167441383, -0.0305756237, -0.0991752297, -0.0271480326, -0.0803332627, 0.0567805171, -0.0177505482, -0.0548633933, -0.0261800904, 0.0459956340, -0.0973188952, -0.0811907873, -0.0253271516, -0.0748292580, -0.0693770722, 0.0480272658, 0.0295357313, -0.0879858583, 0.1062473655, 0.1013676971, 0.0980519950, 0.0195007790, -0.0529161654, 0.0797445700, 0.0783149004, 0.0875467733, -0.0929132029, -0.0994695202, 0.0920596644, -0.0456125699, -0.0451344438, -0.0208527185, -0.0336449444, -0.0204844307, 0.0292674117, -0.0413613431, -0.0949839354, -0.0149675366, -0.0758574456, -0.0749444142, -0.0066500371, 0.0118043823, 0.0294820182, -0.0171329789, -0.0078499019, 0.0386367030, 0.0366706513, 0.1185205132, -0.1136465520, 0.0029830916, -0.0637673363, 0.1012493894, -0.1195277050, -0.0730075464, -0.1021976098, 0.0956911892, 0.0847355574, -0.0708250850, 0.0242777988, 0.0550562479, -0.0902280658, -0.0363058709, -0.0741905943, 0.1178150848, -0.0647375882, -0.0965564251, -0.1082950160, -0.0339893885, -0.0231701192, 0.0733251870, 0.0884053931, -0.0405282900, -0.0986293331, -0.0240652505, -0.0670257583, -0.0426323116, 0.0520047843, 0.1107479632, -0.0728311092, 0.0627580136, -0.0504816435, -0.0854812264, 0.0858477503, -0.0466690622, -0.0306277163, -0.0990080535, -0.0577636026, -0.0629887432, -0.1210634559, -0.0181430578, 0.0470670611, 0.0632919297, 0.0069232490, 0.0269020051, 0.0306458790, -0.0294859316, 0.1187029034, -0.0389838181, -0.0552830733, -0.0026693793, 0.0787124038, 0.0384533405, -0.0298547577, -0.0386798605, 0.0144700091, -0.0816152990, 0.0447220504, 0.0002095990, 0.0277611483, -0.0417128541, -0.0921366811, -0.0930912495, -0.0265637953, -0.1044726074, 0.0397960208, -0.0349456668, -0.1106857657, -0.0705237910, -0.0926601961, -0.1090205535, 0.0446215719, -0.0866371021, -0.0327258967, -0.1007249951, -0.0008336509, 0.0660220012, 0.0507651046, -0.0329119153, -0.0855180025, 0.0653624833, -0.0858656317, 0.1177098751, 0.0236952119, 0.0390590392, 0.0071694939, 0.1069104895, -0.0182886217, -0.0426373482, -0.0901088193, -0.0329558626, 0.1037680209, -0.0807288662, 0.0817868784, 0.0374220312, 0.1069335714, -0.0008236498, 0.0836559236, 0.0194073524, -0.0346569195, -0.1093809009, -0.0940182954, -0.1087782383, 0.1157131642, 0.0908993259, -0.1094754338, -0.0983422026, -0.0647548288, -0.0800407827, 0.1016125828, -0.0798865035, 0.1202534437, -0.1072555035, 0.0098722782, 0.0801229924, -0.1211578473, 0.1183350086, 0.0397873633, 0.0299857073, -0.0875527486, -0.0596891791, -0.0857857540, -0.0449783280, -0.0605005212, 0.0214799531, 0.0308042467, -0.0226201490, -0.0132406233, 0.0472137183, -0.0184492804, -0.0959399939, -0.1218709052, 0.1182495654, -0.0187780745, -0.0094514452, 0.0247725081, 0.0413725860, 0.1025883630, 0.0722601414, 0.0852648541, 0.1124495342, 0.1102096140, 0.0851196572, 0.0549354888, 0.0212388188, 0.0804708675, 0.0500200912, 0.0712888986, -0.0026845927, -0.0752431303, -0.0774613768, 0.0352960676, 0.0189111549, -0.1163672209, -0.0597197078, 0.0077207498, -0.1198094115, 0.0421061665, 0.1040302292, -0.1060608253, 0.0652200431, -0.1123238951, 0.0019151384, 0.0404259153, 0.0207029227, -0.0103741568, 0.0286711287, 0.0001581190, 0.0693348795, 0.0248635691, -0.1034870446, -0.1105093136, 0.0496787094, -0.0191939287, 0.0160012823, -0.0781884789, 0.0199263431, -0.1197244227, 0.0063035623, -0.0005125072, -0.0532301702, -0.1132222414, 0.1176569015, 0.1045956016, 0.0892739519, 0.0512936264, -0.0589638017, 0.0291408282, 0.0163011830, -0.1066284999, 0.0846078172, 0.0761922821, 0.0163458884, -0.0988420248, 0.0295654293, 0.0329510011, -0.0470725223, 0.1024570689, -0.0422192439, -0.0824601427, 0.0185912810, -0.0161396768, -0.0841223225, -0.0804052576, -0.0549469665, -0.1042394638, 0.1065629795, 0.0266558044, 0.0566486344, -0.0258305930, 0.0522904210, -0.0928053930, 0.0887481868, -0.1072957441, -0.0653240308, 0.0186732598, 0.0345132537, -0.0814315677, 0.0832154527, -0.0922292769, -0.0309985001, -0.0078367619, 0.1107991934, -0.0605813749, -0.0681406036, 0.0492105894, -0.0522143245, 0.0257314723, -0.0359463282, 0.0073577771, 0.1194621176, 0.0659238324, 0.1015932187, -0.0522741117, -0.0707864910, 0.0949199721, 0.0277324598, 0.0546046682, 0.0786934420, -0.0007526350, -0.0463915132, -0.1032018736, 0.0273491628, 0.0983067229, 0.0678486601, 0.0875218809, -0.0691810995, -0.0096495105, 0.1109962091, 0.0040687695, -0.0975060686, -0.0194599722, -0.0488477461, -0.0140875308, -0.0498764701, 0.0337794833, -0.0401583388, 0.0273308549, -0.0059882295, 0.0777078718, -0.0865910947, 0.0066236551, 0.0049793483, 0.0405533314, 0.0622284152, 0.0463568829, 0.0961301401, -0.0942077488, -0.0607214794, 0.0992370993, -0.0908964798, -0.0499585494, -0.0195883792, 0.0725771040, -0.0263167899, -0.0737582445, -0.0535300709, -0.1128677204, 0.0686330646, -0.0549732447, -0.0516245253, 0.0730375350, -0.0282652453, -0.0187798403, -0.0569256134, 0.1100558341, 0.0278198849, 0.0449007712, 0.1077445522, -0.1196297556, -0.0972761214, -0.0018776599, -0.0269780718, 0.1178198010, 0.0776477829, 0.0112098223, -0.1068108305, -0.0276769493, -0.0509076752, -0.0328579098, 0.0404825769, 0.0711673051, 0.0206826124, 0.0624230169, -0.0354099199, 0.0437405594, -0.0833586976, -0.0815292597, 0.0757896677, -0.0691669956, -0.0983958170, -0.1086028591, -0.0945587680, -0.1075108051, 0.0732541159, 0.1134367213, -0.0468528494, 0.0140231000, -0.0417682752, -0.0847375244, -0.0167283379, 0.1015703604, 0.0033395677, 0.0655575693, -0.0605982840, -0.0203272030, 0.1092742160, 0.0423249789, 0.0464762971, -0.1181997806, 0.1212688982, 0.0197032392, -0.0060316208, 0.0634882003, 0.0283558257, 0.0384448729, -0.1218216717, -0.1016901955, 0.0453530103, -0.1116920933, -0.1210855469, -0.0568945594, 0.1120005101, -0.0255089961, -0.1031936407, -0.0201896559, -0.0842855051, -0.0004025100, 0.1215756163, 0.1205125228, -0.0854558647, 0.0141157238, 0.0672970116, 0.0000777309, -0.0240376852, -0.0402904265, 0.1169848889, 0.0820567906, 0.0395320244, 0.0696837604, 0.1020255163, -0.0598171800, -0.0892833099, 0.0924826041, -0.0899732858, -0.0575900786, -0.0790125802, -0.0468459278, 0.0850829259, -0.0398974493, 0.0140175521, -0.0793510005, 0.0460623987, 0.0377208069, -0.1173976511, -0.0081602568, -0.0656478256, 0.0396084115, 0.0360716097, 0.0996291265, -0.0028750217, 0.0962858424, -0.0878783762, -0.1024701446, -0.0038269772, 0.0141236363, -0.0766683742, 0.1024242267, -0.0728408992, -0.0576452687, -0.0701353326, 0.1022276580, 0.0794756562, -0.1132747307, 0.0867707655, 0.0135461157, -0.1161220148, -0.0361383483, 0.0744238868, -0.0207364727, -0.0838242173, -0.0706167221, -0.0707375556, -0.0272762496, -0.1087631136, -0.0645033717, 0.1046956405, -0.0027557681, -0.0901589543, 0.0376577079, -0.0921597332, -0.0292828865, 0.0023147576, 0.0885525793, 0.0837693810, 0.0680028424, -0.1125896946, -0.1039608195, -0.0715715960, 0.1204909012, 0.0681735426, -0.0791473240, 0.0416786894, 0.0077348975, -0.1092501134, 0.0566373654, 0.0812049061, 0.0604302660, 0.1148167178, 0.0758790523, 0.0355545208, 0.0590901673, 0.0896057114, -0.0250253975, -0.0606812425, 0.0419243947, -0.0665094852, 0.1087114140, 0.1093053147, -0.0041428939, -0.0334624425, -0.0704311579, 0.0047152471, -0.0766163096, 0.0151486220, -0.0082200589, -0.0721640140, 0.1139178500, 0.0512291826, -0.0670776740, 0.0705024227, -0.0181340054, 0.0379863419, -0.0808398128, 0.0770100206, -0.0560959801, -0.0572843812, 0.1035787910, -0.0771774501, 0.0199537762, 0.0933386311, -0.1130678207, -0.0221959278, 0.0521522723, 0.1093037203, 0.0642822534, -0.0799129680, -0.1068541035, 0.0657421574, 0.0778432637, 0.0174174327, 0.0518252328, -0.0461902060, -0.0803146586, -0.0895394534, 0.0262783486, 0.0706373677, 0.0786203817, -0.0537239872, -0.0699150860, -0.0490912609, -0.0064852168, 0.0410443321, 0.0658849031, 0.0924018472, -0.0034909267, 0.0534826480, 0.0453007706, 0.0257566720, -0.0147807579, 0.0267940387, -0.0240205899, 0.1127632856, -0.1005967632, -0.0346195437, 0.0877479091, -0.0392098725, -0.0226038247, -0.0972055271, 0.1179843396, -0.0149984304, -0.0685407519, -0.1163358465, -0.0255889613, -0.0638577417, 0.0630933344, -0.0091515742, 0.0459242240, -0.0755185857, 0.0721718222, -0.0344936475, -0.0498848334, 0.0082530398, 0.0189954694, -0.1131446138, -0.0951035395, 0.0727814659, 0.0215170532, 0.0976878256, 0.0760734379, -0.1121304631, -0.1114313677, -0.0633224696, 0.0358798243, -0.0946530923, -0.0271014571, -0.0944692940, -0.1218564063, -0.0626115352, -0.0208606031, -0.0798352063, -0.0767714679, -0.0686200410, -0.1139278039, 0.0632635728, 0.1210954338, 0.0052238414, -0.0308335051, 0.1131085381, -0.1132803783, -0.0610323288, -0.0107946834, 0.1171104535, 0.0555260628, 0.1181005910, 0.0500153750, -0.0584900603, 0.1155442744, 0.0201175753, 0.0856322348, -0.0898240730, 0.0646753907, -0.0504596569, -0.0882104784, -0.0123141883, -0.0190143045, 0.0401211828, -0.1125908047, -0.0766448230, -0.0438993797, 0.0285709146, 0.0631228909, -0.0342745744, 0.0052904617, 0.0994274318, -0.1006821916, 0.0809416622, -0.0096420208, -0.1063632220, -0.0158164017, 0.0923183337, 0.0196915586, 0.0043455875, -0.0707771033, -0.1059814543, -0.0454338938, -0.0079101129, -0.0900661126, -0.0479477681, -0.0663574263, -0.0509767048, 0.0158162694, -0.0048063369, -0.1131161600, -0.0645300597, 0.0474354513, -0.0115498006, -0.0250979159, 0.0788994282, 0.1096461117, -0.0688920990, 0.0538652465, 0.0466699973, -0.0064105666, -0.0262786262, -0.0618868284, 0.0872594789, 0.0359136537, -0.0785383135, -0.1149817407, 0.0391104296, -0.0638433322, -0.0555688553, 0.0862244144, -0.1132762805, 0.0968610942, 0.0842601210, 0.0467305444, -0.0937691480, 0.0054287831, -0.0815421790, -0.0047564195, 0.1097525582, -0.0454661027, 0.1068961397, -0.1080607697, 0.1208586618, 0.0949641541, -0.1161528006, -0.0012921231, 0.0786233693, -0.0500526913, -0.0713258535, -0.1077517793, 0.0440410748, -0.0947007537, -0.0406948924, -0.0175107121, -0.0712474212, 0.1204259470, -0.0939990133, 0.0586027279, 0.0634354353, 0.0229384601, 0.0342682786, -0.0449627638, 0.0376434997, 0.0814028382, -0.1103812531, 0.0076886588, -0.1020421013, -0.1009727046, -0.0010987887, -0.0455026589, 0.1131799594, -0.1092875600, 0.1153939068, -0.0769008845, 0.1169155389, -0.0412377827, 0.0902031437, -0.0504476987, -0.0506273657, -0.0168778431, -0.0966476575, -0.0510895923, 0.0144846970, -0.0206556767, 0.1020069048, -0.0836930349, 0.0161874034, 0.0595113486, 0.0348461680, 0.0213417485, 0.0265310761, -0.0361448452, 0.0169400238, 0.0504276976, 0.0668683127, -0.0517227091, -0.0175425112, -0.0617259517, 0.0262285173, -0.0771842375, -0.0736610517, -0.1205115765, -0.0933955759, 0.1068663523, 0.0615604892, -0.0989066735, -0.1073073074, 0.1077564061, 0.0996466950, -0.0867812186, 0.1025147066, 0.0629426613, -0.0110175246, -0.1056059003, 0.0816388354, -0.1023759618, -0.0292945672, -0.1208246425, 0.0913868919, 0.0172288585, 0.0263581090, -0.0556352288, -0.0942792445, 0.0696860850, -0.0228916518, -0.0418743454, 0.0584785379, -0.0539349876, 0.0457312092, 0.0378668979, 0.0104196649, 0.0279272106, -0.0252890158, -0.0572647303, 0.0867271423, 0.1185404435, 0.0504176207, -0.0213888790, 0.0130120879, -0.0566912815, -0.0883320719, -0.0155264428, 0.0199678503, 0.0468076877, 0.0462961905, 0.1141120866, -0.0984204933, 0.0563964918, 0.0433776155, 0.0423881970, 0.0968686342, -0.0304339584, 0.0355029665, -0.0414926112, -0.0625395551, -0.0329422392, -0.0706983358, 0.0005502047, -0.0351526365, -0.1047594696, 0.0919881240, -0.0908369049, 0.0697789863, -0.0427842811, 0.0760082155, 0.0395726264, 0.0791599080, 0.0671614781, -0.0479615778, -0.1205541641, -0.0457010455, -0.0460218824, -0.0616691560, -0.0319139399, 0.1193309203, 0.0470812954, 0.0848223716, 0.0866058469, -0.0587887317, -0.1028382629, -0.0762793422, -0.0283359401, -0.0366435833, -0.0670354366, 0.0714632347, -0.0887380540, 0.0643938556, 0.0929299742, 0.0250710510, -0.0708528832, 0.0574306622, -0.0655808449, -0.0882818028, -0.0915928409, 0.0296838935, -0.0595685542, 0.0327581353, -0.0820556059, 0.0622619949, -0.0062065739, -0.1200823784, -0.0480086952, -0.0259360336, -0.0997732654, 0.0475594774, 0.0229129829, 0.0770795122, -0.0160002895, 0.0933731943, 0.0316854343, 0.1106519997, 0.0530765466, -0.0464509800, 0.0832864568, -0.0118990783, 0.1046553999, -0.0974632204, -0.0954107270, 0.0780619234, 0.1024043560, 0.1147357747, -0.0830216110, 0.0155986696, 0.0901568905, 0.0817619115, -0.1214781031, 0.0393986218, -0.0388999432, 0.0463201180, 0.0286206119, 0.1033285037, 0.0060649528, -0.0120824119, -0.0171681661, 0.0559276678, 0.0367596708, 0.1073701009, 0.0479405262, -0.1214543581, 0.0984822884, -0.1124906614, -0.0079144053, -0.0471712314, -0.1128528863, 0.0988577604, -0.0260753483, 0.0011700079, -0.0082657570, -0.0765491351, -0.0270908587, -0.0633265153, 0.1193878502, 0.0233877338, 0.0704574212, -0.1181688979, 0.0420693755, 0.1185124740, 0.0009069872, -0.1086111665, -0.0408497266, -0.0552274920, -0.0774926394, -0.0145683261, -0.0214005150, -0.1098557636, 0.0415590554, 0.0293075182, -0.0848962292, 0.0464605577, -0.1053689942, -0.1005714759, -0.0495627560, 0.0630910322, -0.0106323594, 0.0094821202, -0.0202191472, -0.0598287433, 0.0634695217, -0.0170023087, 0.0074006575, -0.0362746827, -0.0272118337, 0.0584644787, -0.0057804557, -0.0104756271, -0.0566767566, 0.0873816311, 0.0691686124, -0.1089758947, -0.0398323201, -0.1115541980, 0.0636552498, 0.0399749018, 0.0593915284, 0.0167689696, 0.0291109718, 0.0515707508, -0.1073982492, 0.0584357902, 0.0288577620, -0.0552852191, -0.0600719340, -0.1098977104, 0.0583520308, -0.0534497537, -0.0631295592, -0.1024636924, 0.0062931231, -0.0128728757, 0.0537085868, 0.0995866582, -0.0752082169, -0.1066669747, 0.0956112295, 0.1043118760, 0.1222432479, -0.0895103589, 0.0351546220, -0.0333661102, -0.1048926562, 0.0819609836, 0.0847643316, 0.0360740796, -0.0242370348, 0.0746035874, 0.0443521999, 0.0620356500, 0.0567917041, -0.0523321182, 0.0680663362, 0.0736827254, -0.0015985646, 0.0478544571, -0.0358448438, 0.1059330106, 0.1222031265, -0.0685926080, -0.0936506838, 0.1058832854, 0.0823443979, 0.0190269183, -0.0996463150, 0.0012700477, 0.0309518967, -0.1103492975, -0.1010845378, -0.0024001535, 0.0014278018, 0.0176835638, 0.0093730278, 0.1194321141, 0.0995743349, -0.0438414477, -0.0404155180, 0.0621221252, -0.0540983193, -0.0664688945, -0.1139646173, 0.0010232477, -0.0790280178, -0.0966192484, 0.1153111532, -0.0042664255, -0.1204351708, -0.0286844000, -0.1048215628, 0.1158587262, 0.0218332466, 0.0201210640, 0.0015976740, 0.1209325418, -0.0807709768, 0.0587626882, -0.1044405326, -0.0219725464, -0.0585790761, 0.0131104188, -0.0904296786, -0.1172813624, -0.0166752078, 0.0896612033, 0.1036265790, 0.0786772594, -0.0064776684, 0.0196957346, -0.1136246249, 0.0568596944, 0.0354871564, -0.1187303215, 0.0338985175, 0.0498254858, -0.0201577973, -0.1188818365, -0.1049703434, 0.0699633509, 0.0867908299, -0.0152141470, 0.1089132726, 0.0726936162, 0.1132325679, -0.0895197466, 0.0725753233, 0.0526656136, -0.0052134460, 0.0482002459, 0.1078723446, -0.0933221653, 0.1035703644, -0.0648012832, -0.0135261426, 0.0142759299, -0.0340805091, -0.0772995800, -0.0613418519, -0.0254398640, -0.0057213395, 0.0677078590, 0.0163241625, 0.1220416054, -0.0585769862, 0.0889259130, 0.0701803267, 0.0854440853, -0.0121776043, -0.0884686559, 0.0361170322, 0.1006656662, 0.0121570472, -0.0241184533, 0.0029962901, -0.1145894974, -0.0531369336, 0.0362361260, 0.0034319423, -0.0481557585, 0.0992751047, 0.0120442323, 0.1068473458, 0.0304696709, -0.0161965434, -0.1065806150, 0.0522282533, -0.0256149787, 0.0812871456, -0.0608179569, -0.1168708205, 0.1198054552, -0.1198417619, -0.0436900146, -0.1114278436, -0.0611867830, -0.0360105969, -0.0760450810, 0.0222628396, 0.0374735408, -0.0966780707, 0.0412330665, -0.0970240906, 0.1013024598, 0.0764302313, -0.0504066423, 0.1057435349, -0.1122975126, 0.0276250765, -0.0966780409, -0.0280514564, 0.0472960174, 0.0507331751, 0.0540485494, -0.1084188223, 0.0814909041, 0.0391534567, 0.0889195055, 0.1172766760, 0.0608190373, -0.0006569021, -0.0462645665, -0.0910836607, -0.1210612804, -0.1028138027, 0.0177933853, -0.0681762993, -0.0220749658, -0.0882682428, 0.0967166126, -0.0708003938, 0.0386502668, 0.0288890637, 0.0158970524, -0.0920017213, 0.0026890896, -0.0000448077, 0.0619942881, 0.0700368658, -0.0286771581, -0.0400383994, -0.0037714385, 0.0522760674, 0.0617239363, -0.0442685299, 0.0638390556, -0.0487054698, -0.0169885997, 0.0030957023, 0.0819155946, 0.0056194309, 0.1205650270, -0.0923936740, -0.0056798756, 0.0481864363, 0.0706271306, -0.0848862752, 0.0351059884, -0.1118408218, 0.0892384425, 0.0277004857, -0.0071168314, 0.0797505006, 0.0287085194, 0.1007064283, 0.0999202728, -0.0279034115, -0.1061204374, 0.0443109870, 0.0728314593, -0.1199699119, -0.0873307064, -0.0546641164, 0.0484336428, 0.0491599552, -0.0588568710, -0.0551527552, -0.0202507414, -0.0063510421, -0.0931951851, -0.0082536098, -0.0113177318, 0.0832004771, 0.0894828960, -0.0051707407, 0.0357931592, -0.1198457405, -0.0517618395, 0.0053716968, -0.0079388749, -0.1190777868, -0.0479438417, -0.0225551333, -0.1170832664, 0.0203064270, -0.0181554686, 0.0572571978, 0.1212851778, 0.0836458951, -0.0655989498, -0.0706425831, 0.0551974438, 0.0337092131, 0.0702929050, 0.0808480456, 0.0658230335, 0.1018579379, 0.1209033206, -0.1125206947, 0.0782590583, -0.1066571325, -0.0427649952, 0.1054647565, 0.1178047284, 0.0031563365, 0.0391512252, -0.0853243619, -0.0832771510, -0.0942124352, -0.0484139174, -0.1107634082, -0.0374913104, -0.0112581486, -0.1150179952, 0.0112014860, -0.0300092138, 0.0072594890, 0.0932224467, -0.0430500470, -0.0182731450, 0.0518606938, -0.0751860887, 0.0713543370, -0.0112509653, 0.0017612972, -0.0822148472, -0.0574093163, -0.0343224891, -0.0142025799, 0.0999114215, 0.0168989990, 0.1143649071, 0.1058251336, 0.0772655755, -0.0319862254, -0.0806225166, -0.1206258908, -0.1113114879, 0.0094540296, 0.0725478753, -0.0418446064, 0.0108797140, 0.0052987984, 0.0126987258, -0.0810711533, -0.1186978444, 0.0778156817, 0.0424791388, 0.0945132002, 0.0305828806, -0.0214645658, -0.0841273442, -0.0326247774, -0.1142699048, -0.0806335136, 0.0701308623, 0.0150937550, -0.0991669074, -0.0106736338, -0.1066089794, 0.1103418916, 0.0283092223, 0.0043070577, -0.0365062542, 0.0785414502, -0.0583900027, -0.0871626064, 0.0762201995, -0.0180299208, -0.0282548945, 0.0990146250, -0.0202945285, 0.1161846742, -0.0642596930, 0.0949167311, -0.0535482168, -0.0143559100, 0.1206204444, 0.1092236564, 0.1034527346, 0.1076546684, -0.0445603095, 0.0653545111, 0.0623492450, 0.0781039745, -0.1188369840, -0.0178470854, 0.0466548428, 0.0263339449, 0.0959923193, 0.1020495072, 0.0590120107, 0.0660554171, -0.0954418480, 0.1147681624, -0.0442947373, -0.0831084326, 0.0199904218, -0.0508333445, -0.0785251856, 0.0307448097, 0.1041828990, -0.0742154121, 0.0578292310, 0.0262038000, 0.1032998264, -0.0845421627, 0.1206879839, 0.0228838250, 0.0121703194, 0.0254179500, 0.0534040853, 0.0586804152, -0.0838937461, 0.0108816996, 0.0629474074, 0.0113733001, 0.0003795733, -0.0230852924, 0.0382323526, 0.0274127610, 0.0073763481, -0.0689539164, 0.0307062808, -0.0000552906, 0.0274245571, 0.0604153723, 0.0010201087, 0.0786203369, -0.0477690920, 0.0024684237, -0.1097127572, -0.0744379610, 0.0163159575, 0.0880033225, 0.0805756673, 0.1057449505, -0.1002865881, -0.0449062027, -0.0643271953, -0.1190826073, -0.1135688350, -0.0448491760, 0.0034923868, -0.0666031167, 0.0950373560, 0.0953793600, 0.0841462240, 0.0967053846, 0.0096018994, 0.0824089721, -0.0635085180, -0.1054404899, 0.0578268059, 0.1050790399, -0.0795025453, 0.1190136895, -0.1006324068, -0.0561164320, 0.0327534601, -0.0634132400, -0.0043680714, 0.1049086675, -0.0497984178, -0.0865323916, 0.1075779051, 0.0707904771, 0.0745392740, -0.1066214368, -0.0246886313, -0.0119705899, 0.1025906578, 0.0129476432, 0.0572893620, 0.0693878904, -0.0160635374, 0.0755881742, -0.0748218894, 0.0249670837, -0.0637219623, 0.1007923633, 0.0789732784, -0.0992973298, 0.0916985944, -0.0150988065, -0.0761888772, 0.0727524534, -0.0718682408, 0.0799756944, 0.0192075949, -0.0594896674, -0.1182678491, 0.0836275443, 0.0956078395, 0.0073005152, 0.0181555264, -0.0444499776, -0.0343798697, -0.0557608902, -0.0044162371, 0.0281887855, 0.0957173407, 0.0227147415, 0.1098528206, -0.0602309443, 0.1143961474, 0.0952337831, -0.0878992975, -0.1098702326, 0.0767479315, -0.0818423852, -0.0215618312, -0.0675503537, -0.1095776185, 0.0943935215, 0.0514531769, -0.0675446317, 0.0031104775, 0.0242075585, -0.0192525629, -0.0553966500, -0.1011477560, 0.0654790923, 0.0272396188, -0.0437200479, 0.0258282851, -0.1190314293, -0.1180629209, 0.1198876947, -0.0548325740, -0.1115352437, -0.0055732219, 0.0399585515, -0.1081989035, -0.0699412525, -0.0078782849, 0.0991317034, -0.0539537929, -0.1214487851, 0.1035910398, 0.0349503234, -0.0768262446, -0.0036502723, 0.0306453835, -0.0341066718, 0.0746031180, 0.1185165718, 0.0088342698, 0.0590445399, -0.0829732344, 0.0451196693, -0.0519937314, 0.0011404427, -0.0808255523, -0.1123439297, -0.0593796298, 0.1089436561, 0.0121162841, -0.0413146950, -0.1182067767, -0.0038744130, -0.0417852402, -0.0038515783, -0.0382949412, 0.0751982927, 0.0671462789, -0.0973369852, -0.0683022290, -0.0018214788, 0.1218124852, -0.0523865484, 0.0435936227, -0.0188407674, -0.0350559689, -0.0113000656, -0.0475698151, -0.0476866886, 0.0888027325, 0.0746239424, -0.0878951773, -0.1212565005, 0.0125504620, -0.0824236497, -0.0609278083, 0.0419352725, -0.0093660494, 0.0184642747, -0.0831076056, -0.0037763880, 0.1088671908, -0.0352452174, -0.0896286890, 0.0848811045, -0.0154390465, -0.0979421064, -0.1201470569, -0.0597918034, -0.0974468961, -0.1156546474, -0.1121764779, 0.0131310346, 0.0086147720, 0.0083834333, -0.0244267490, -0.0712604597, 0.1202518120, 0.0434655361, 0.0264318399, -0.1188584045, 0.0265408140, -0.0806586519, -0.0728106201, 0.0336362869, -0.1126660258, -0.1091888621, -0.0811160356, -0.0332503468, 0.0268674176, 0.1166800559, -0.0278623719, 0.1031537354, 0.0321554989, -0.0175110493, -0.0291403178, -0.0955706835, 0.0292896759, 0.1119580641, -0.0400491729, 0.0552398153, 0.0716172680, -0.1048014313, -0.0805243328, 0.0757588446, 0.0408333167, -0.0980153382, -0.0470469408, -0.0805828199, -0.0040083104, 0.0873568431, -0.1073483452, -0.0503110252, -0.0662954152, -0.0206995048, 0.0383132957, 0.0507682413, -0.0290350951, 0.0982233733, -0.0317599252, -0.1182454228, -0.0866648406, -0.0121850064, 0.0132591939, -0.0860917866, -0.0953691155, -0.0472283773, 0.0529205464, -0.0040170266, 0.0737981424, 0.0838060826, -0.0131081855, -0.0768777132, -0.1116716564, -0.0647620112, -0.0340750925, -0.1123909876, 0.0128138186, -0.0014957506, 0.0073703770, -0.0843938887, 0.0902192965, -0.0605723113, 0.0432633720, -0.0262215249, -0.0159914270, 0.0811278298, -0.0605601631, -0.0878992230, 0.0399667546, 0.0029616149, 0.0002892425, -0.0839347541, 0.0231391955, -0.0257242154, -0.0420735627, 0.0783531070, 0.0159414802, 0.1034052521, -0.0291868765, -0.0732269883, 0.0541384555, -0.0178918634, -0.0752778053, -0.0084886132, 0.0286956858, 0.0577282682, 0.0524778850, -0.0200253744, 0.0246556643, 0.0270602852, 0.0359787829, 0.0425100066, 0.0841643736, 0.1195937842, -0.1000461355, -0.0164968241, -0.1197635084, 0.0967263803, 0.0580296442, -0.0066414378, 0.1121223122, 0.0719234645, 0.0096844481, -0.1071231812, -0.0337521210, 0.0482521653, -0.0736948475, 0.0641527623, -0.0919846967, -0.1184965894, -0.0871588513, 0.0585804470, 0.1070960388, 0.0302700140, 0.1118803918, -0.0166743025, 0.0397852026, -0.0684175715, -0.0630994588, -0.0038976271, -0.0724964887, -0.0484796911, -0.0522554815, 0.0772802979, -0.0371090062, 0.1124714166, -0.1160583720, 0.0427938439, -0.0655455664, 0.0263444427, -0.0310124289, -0.0186236054, -0.0758247226, 0.1000814587, -0.0561303049, -0.0785141364, -0.0724009424, -0.0373141244, -0.0735834464, -0.1217695922, -0.0110080782, -0.0326445028, 0.0591112785, -0.0293590557, -0.0732830837, 0.0179662649, 0.1026338413, -0.0620480292, -0.0778402239, -0.0128168697, -0.0668726340, -0.0128210746, 0.0639963374, -0.0159024689, -0.0356866643, -0.0522832498, 0.0125918826, -0.0298968796, 0.1177670509, 0.0213875789, 0.0381016806, -0.1059611440, 0.0119459303, -0.1206297502, 0.0504862405, 0.0032834741, 0.0889531001, -0.0201022737, -0.0548877753, -0.0921189412, 0.0341982581, 0.0596269667, -0.0071146125, 0.0145091526, -0.0792785063, 0.0787991881, 0.0624121688, -0.0641181320, -0.1064792499, 0.0818495825, -0.0377390571, -0.0489756279, -0.0094984286, 0.0342056155, 0.0225752387, -0.0753477663, 0.0686179101, -0.0412820354, 0.0317791551, 0.0769074634, -0.0423609838, 0.0665819123, -0.0460162461, 0.0637682453, 0.1100724041, -0.0167000722, 0.0583214276, 0.0779045820, -0.0410692953, 0.0146798128, -0.1133050248, 0.1078999415, -0.0340547115, 0.0707892552, -0.0527037643, -0.0683131367, 0.0326300189, 0.0454550944, 0.0413580574, -0.0109828198, 0.1074607223, 0.0767765045, 0.1095388457, 0.0599092767, -0.0398664698, 0.0245934818, 0.0745118260, -0.0947166607, -0.1048902273, 0.0591006055, -0.1011037081, -0.0649502948, 0.0912443399, -0.0293394774, 0.1019006968, -0.0831454471, -0.0380079038, 0.0398181267, 0.0526339151, -0.1130561531, -0.1080011725, 0.0087955650, 0.0941408798, 0.0204364117, -0.0110645080, -0.0464992188, -0.0288518928, -0.0752614662, 0.0027012513, 0.0353768654, 0.0867804587, 0.1086113974, -0.0603990667, -0.1144842431, 0.0819803551, -0.0454620272, -0.1198891848, -0.0541069359, 0.1029627100, -0.0911150724, -0.0438931584, 0.0218791645, 0.0572642945, -0.0710769296, -0.1102581024, -0.0388915762, -0.0479806624, 0.0214657187, 0.0578692779, 0.0286121145, -0.0006940447, 0.1184406802, 0.0441753343, -0.0694027096, -0.1055692062, 0.0858756527, 0.0518238172, 0.0340366215, 0.0036691793, -0.0850384533, -0.0668542907, 0.0313850082, 0.0807959959, 0.1121356338, -0.1150763258, -0.0539007373, 0.1092612520, 0.0966729745, 0.0206575152, -0.0550489053, 0.0645149350, -0.1140592545, 0.0384085737, -0.0907291323, 0.0139180673, -0.0824488774, 0.0944140479, 0.0874740556, 0.0469575301, -0.0198418666, -0.0045593474, 0.0747424886, -0.0510718822, -0.0010680993, 0.0175296925, 0.0397584550, -0.0888711363, -0.0755100325, 0.0063376683, 0.0883385986, 0.0799188241, 0.0343979597, -0.0306550767, -0.0648985058, -0.0553759038, 0.0157168861, 0.0423209630, 0.0966016427, -0.0213209875, -0.0081370715, -0.0624767467, 0.0121830208, 0.0053750984, -0.0133366473, -0.1029390916, 0.0448011532, -0.0678118393, 0.0095834006, 0.0162637625, 0.0369647704, 0.1182325706, 0.1193215922, 0.0735203624, -0.0184918549, 0.0289836433, 0.0097311689, 0.1057268307, -0.1097022295, 0.0146256611, 0.0763747096, -0.0126697589, -0.0002513407, -0.0013004014, 0.0627649948, -0.1111005247, -0.0312748514, 0.0166148804, 0.0199606232, 0.0046826452, -0.0986497253, -0.0098466408, 0.0964632481, -0.0453047566, 0.0042842086, 0.0880229548, 0.0751295239, -0.0385380052, 0.0749032646, 0.0732301548, 0.1036931127, -0.0891420990, 0.0287302453, 0.1016055271, -0.1146385670, -0.0915093422, 0.1078089923, 0.1191655770, -0.1211185157, 0.0180036705, 0.0475818887, -0.0514679104, 0.1089920700, 0.0489690155, -0.0303288959, -0.0501467623, 0.0200227480, 0.0880834013, -0.0625988171, 0.0155993560, 0.0742089599, -0.0409227423, 0.1145057529, 0.0344916470, -0.0674835593, -0.0095954025, 0.0789669007, 0.0945806056, -0.0270105135, 0.0877343416, -0.0818656459, 0.0601560473, 0.1155221090, -0.0401319861, -0.0489309654, -0.0507155508, -0.0497169346, 0.0107135940, -0.0895384327, -0.1060295179, 0.1036680862, 0.0758205056, -0.0994274169, 0.1059953719, 0.0448171869, -0.0819761381, -0.0494171195, -0.0908466280, 0.0017517634, -0.0303123686, -0.0439872853, 0.0308392290, 0.0277947281, 0.0481802300, -0.1014984846, -0.0762058422, 0.0365279652, -0.0118126608, 0.0951141492, -0.0729615986, -0.0724172965, -0.0014649590, 0.0646264330, -0.1112945154, 0.0421705805, -0.0267262068, -0.1107676774, 0.0094386702, -0.0554881617, 0.0464843847, -0.0122690452, 0.0125016533, 0.0017584502, -0.1101918295, 0.0492351316, 0.0125043690, -0.0376146808, 0.0205483790, 0.0424458683, -0.0645504743, -0.0935637504, -0.0601662099, -0.0571463667, 0.1003867462, -0.1094877124, -0.0716400295, -0.0063479319, 0.0093135908, -0.0642785579, -0.0650093108, -0.0516678877, 0.0687415749, 0.0186827946, 0.0200871769, -0.0901130661, 0.0008418270, -0.0718287826, -0.0923670530, 0.0819246173, -0.1025432050, -0.0942200124, -0.1097307205, -0.0043716924, 0.0939682797, 0.0600493327, -0.1175665632, 0.0928434432, 0.0431079380, -0.0440322123, 0.0245358851, 0.0082689831, 0.0804731622, 0.0258726999, 0.0026829720, -0.1106318086, 0.0750261843, 0.0371718742, -0.0367869996, 0.0006303592, 0.0649204254, -0.1183809415, 0.0391290300, -0.0477290303, 0.0150616197, -0.1123579890, 0.0742901787, -0.0331229009, 0.1114425212, 0.0313146822, -0.0888606533, -0.0691392645, -0.1103091612, -0.1119056195, -0.0274601243, 0.0347495303, -0.1097522825, -0.1033785194, 0.0521334670, 0.0399408564, -0.0043301987, 0.0972198248, 0.0250246227, 0.0413628481, 0.1071994081, -0.1143458188, 0.0135160973, 0.0492406189, 0.0738037750, -0.0345874541, -0.1105753630, 0.0084280223, -0.0652241930, 0.0778953210, 0.0879561156, -0.0738986358, -0.0212090202, 0.0336214676, 0.0373251177, 0.1182463095, 0.0558426380, -0.0597341023, 0.0171153862, -0.0771883279, 0.0041967393, 