//Numpy array shape [10, 20, 2]
//Min -0.273285537958
//Max 0.272004276514
//Number of zeros 0

#ifndef KEY_WEIGHT4_H_
#define KEY_WEIGHT4_H_

#ifndef __SYNTHESIS__
mha_key_weight_t key_weight4[400];
#else
mha_key_weight_t key_weight4[400] = {-0.1052454114, 0.2369705886, 0.1418919116, 0.0671346039, 0.0985973775, 0.2127905339, -0.1516304910, -0.1876192540, 0.1555046588, -0.1523029804, -0.2286882550, 0.1828344166, 0.1683042645, -0.2069454789, -0.2601174414, -0.1871854812, -0.2202896327, -0.2089989930, -0.1655129641, -0.1178302392, -0.1274733543, 0.1080411598, -0.1490151286, -0.2405222356, -0.0174819753, 0.0456366166, -0.0103616407, -0.2016223818, -0.1310847104, -0.1099736169, 0.2430407107, -0.0297294259, -0.0837396532, 0.2040187567, -0.2484604418, 0.0122594973, -0.0751186088, 0.2105970532, 0.0372438058, -0.0432416461, -0.1031341776, 0.0834231749, -0.2390136272, 0.1749317646, 0.0234287865, 0.0674836338, 0.1036008000, -0.1148080900, -0.1196702793, 0.1644873619, 0.2475103885, 0.0748433024, 0.2199922502, 0.1383537501, 0.0405067243, 0.1162436977, 0.2691547573, -0.1608815193, -0.1471274197, 0.1379422694, 0.0939607173, -0.1892091632, 0.0199374724, 0.2302572280, 0.1174461767, -0.2002946138, 0.0474728048, -0.1422872990, -0.1174322069, 0.1254179031, 0.1385367960, -0.1203643158, 0.2442096621, 0.0467211418, 0.0602401532, 0.0386864059, -0.0227418337, 0.2333514988, -0.1928297877, 0.2521812916, -0.2575582564, -0.2224883288, 0.1910166740, 0.0342848971, -0.0841246918, -0.1170880795, 0.2096898407, 0.1291496009, -0.0449893288, -0.1079614311, 0.0677938461, -0.0526137613, 0.0709575489, -0.0313883089, -0.0496884435, 0.1087203696, -0.0768135339, -0.0655057877, -0.0073565668, 0.1823292673, 0.1295527667, 0.0740984976, -0.2329450697, -0.1170876175, 0.2132405341, -0.2647380531, 0.0567325801, -0.1967176348, 0.2162519395, 0.1198482960, 0.0357675180, -0.1934746504, 0.0172117893, 0.0444776863, 0.1550842673, 0.0568246469, -0.0183945186, -0.0191561040, 0.2563033998, -0.0003155641, -0.1153089255, -0.1723008156, 0.1558092535, -0.1506138742, -0.2475292534, 0.2341760546, 0.2709884942, -0.1527593881, -0.0162220374, -0.0369205065, -0.0976140276, -0.0737708211, 0.1121591926, 0.1523506790, 0.1169079617, -0.1851398945, 0.0519212559, 0.1670316160, -0.1671709865, -0.1229131147, -0.1832536608, 0.0568218715, -0.0131404391, -0.2628354430, -0.2051293105, -0.2244174629, -0.0160429031, -0.0989233926, -0.1013385355, 0.1555397809, 0.2232371569, 0.1774760187, -0.0590875261, 0.0666072294, 0.0380649082, -0.0124448985, 0.2338730991, -0.0556993410, 0.1040984690, 0.0162339527, 0.2493207753, 0.0871028006, 0.0497170761, 0.0809827000, 0.2490046024, -0.2431083471, 0.2720042765, 0.0402314141, -0.1739516407, -0.2491000593, -0.2221361101, 0.2573946714, 0.1089014336, 0.0556262136, 0.2160380781, -0.0282403398, -0.0095738079, -0.0007651433, -0.2049587220, 0.0855129287, 0.0478363596, -0.0444235243, -0.1379619837, 0.1059193760, 0.1085688248, -0.1692886651, 0.1464817971, 0.2410127223, 0.2133079171, -0.0181026887, 0.0584759861, 0.1267670393, 0.1451570541, -0.1335718483, 0.2105603963, -0.2117635906, 0.2474322021, -0.2732855380, 0.1534501314, -0.1777016819, -0.2448830307, -0.0801726282, 0.1785337776, -0.0085999528, -0.0561763793, -0.1571766585, -0.0426826663, 0.2286164016, 0.1752717048, -0.1669919193, -0.1177242026, -0.1532330513, -0.2605947554, 0.1940163970, -0.1391614377, -0.1797059625, -0.2041016817, 0.0245868675, -0.1841096282, -0.0968273357, 0.0105880136, -0.1256934106, -0.1391927451, 0.2627018392, -0.0346832834, -0.1172235906, 0.2448469549, 0.0003842203, -0.1143656597, -0.0590356812, -0.2377687991, -0.0706106424, 0.1775457561, -0.1050554067, 0.2330173552, -0.1931213140, -0.0860487670, 0.1362291276, 0.1925090253, -0.0875669047, -0.2412781417, -0.0184222031, 0.0843993798, 0.1518396288, -0.2001754493, 0.0600886419, 0.2609274387, -0.2095112652, 0.1882440895, -0.1528782248, 0.0749860033, 0.1691173613, 0.1136961728, -0.1688905060, 0.0371382907, -0.2560376525, -0.1501142681, -0.0836531743, -0.1624827534, -0.1255252212, 0.1324528456, 0.2167115211, -0.0103957234, -0.1374102533, -0.2199939936, -0.0368580855, 0.1468656510, 0.1896978170, 0.0004412543, 0.0087742545, -0.2708697617, -0.0564559959, -0.1765838116, -0.1264883727, 0.2689793408, 0.1350819916, 0.0037306815, -0.0667323619, 0.0537051782, 0.0233281367, -0.1386715621, -0.2256856710, 0.1115129516, 0.0318844430, -0.0406041108, -0.2498745024, 0.0489817709, -0.1110170782, -0.0418923870, 0.1183953211, 0.1206825897, 0.1672466099, -0.0491111167, 0.1804151535, -0.2282664925, -0.0356158428, -0.0442146845, 0.2237606794, 0.0612025820, -0.0037421079, -0.1843134761, -0.1079737395, 0.0466784090, 0.2231341600, -0.0698124245, 0.0268095937, -0.1920528859, -0.2297142744, 0.2260664254, 0.2511890233, -0.2191227376, 0.0703221411, -0.0027359985, 0.1566141844, 0.2080668956, 0.1201372892, 0.0126335649, -0.2015525252, -0.1952210963, 0.0693136156, 0.0064545679, -0.0883460566, -0.0172174051, -0.2122341990, -0.2730838060, -0.1108602732, 0.1447546482, 0.2435363233, 0.2261613607, -0.1671294719, 0.1782621890, -0.0944986045, -0.0650836974, 0.0493001416, 0.1206154674, 0.0483771190, 0.0858198404, 0.0676221550, -0.2703380585, 0.1000953764, -0.2308675349, -0.2213544846, -0.0542951711, 0.1752054989, 0.2647983730, -0.1555226743, -0.1766738296, -0.0143232327, -0.0583482720, -0.1383607984, -0.0430503674, 0.1913064271, -0.2160679549, 0.0464546159, 0.2531154752, -0.1553316265, -0.1966403276, -0.1333967298, -0.1427513361, -0.0340183005, 0.0851594657, -0.2540791631, 0.2612622678, -0.1137763858, 0.1793941259, -0.2499061674, -0.0654914230, -0.1036612242, -0.2205242068, 0.2672381401, -0.0765471086, 0.1004185155, 0.0854885131, -0.0804939121, 0.2510976195, 0.2283733785, 0.1090288535, -0.1089139357, -0.1616697460, 0.2106597126, -0.1513832957, -0.2010703683, 0.2400439978, -0.0782824457, -0.0910113752, -0.0035850115, 0.0326808617, 0.1566095501, -0.2084601671, -0.1733786464, 0.0931250229, 0.1376651973, -0.1882525384, -0.0452652909, 0.1153287366, -0.0789595097, 0.1778742820, -0.1116661951, 0.2570182681, -0.0824655145};

#endif

#endif
