//Numpy array shape [8, 16, 2]
//Min -0.303954422474
//Max 0.306122839451
//Number of zeros 0

#ifndef KEY_WEIGHT4_H_
#define KEY_WEIGHT4_H_

#ifndef __SYNTHESIS__
mha_key_weight_t key_weight4[256];
#else
mha_key_weight_t key_weight4[256] = {-0.1830644161, -0.2592454553, -0.1456646919, -0.2293450087, -0.1114076078, 0.0499082804, 0.2019387186, -0.0763759166, -0.2125712037, -0.0115519250, 0.0980521739, -0.0803438574, -0.2341100723, 0.2834327817, 0.2129893154, -0.1326581687, 0.2508251667, 0.0068942755, 0.2270184010, 0.2019517571, 0.2416211665, -0.0639482439, 0.1023724899, 0.2679541707, -0.2879058123, 0.1301299781, 0.3013142347, -0.2610488236, 0.1736379713, -0.0052004452, -0.0266092606, -0.1641792655, -0.1736764014, -0.2303402871, 0.1584627330, -0.0477264039, 0.2707431316, -0.0872943103, 0.2448763400, -0.2452330440, 0.0182889216, -0.0238461569, 0.1875066012, 0.1490462273, -0.3039544225, 0.0074915653, -0.2869381905, -0.0919668153, -0.2552827299, -0.1011970714, -0.0491039604, -0.2967305183, 0.1266106516, -0.2542369962, 0.1164131835, 0.1112086102, -0.2480186820, 0.0880939215, -0.1619151086, -0.0902516320, -0.1349808574, -0.1169424355, 0.2255580723, 0.2390446961, 0.0452529639, 0.2629126608, 0.2843332291, -0.1735042036, 0.0655245408, -0.0769128725, 0.0041956664, -0.2941340804, -0.1450039744, 0.2290256321, -0.1252270043, 0.2744488418, -0.0508748777, -0.2427168638, 0.2772897780, -0.1929320395, 0.2933802903, -0.0178312082, -0.0789940432, 0.0232114531, -0.2819861770, 0.3061228395, -0.2936550379, 0.3034777939, 0.2946797907, -0.0184223298, 0.0654632226, -0.2040101141, 0.2462602407, -0.0471863449, 0.0460545085, -0.0825756341, 0.1634422541, 0.2307750881, -0.0816972926, 0.2600313127, -0.2687771022, 0.2143445760, 0.2646034360, -0.1997258663, -0.0918383002, 0.2655359209, -0.0422610380, 0.2100886405, 0.0683441460, 0.0068461681, -0.2525332868, -0.2003762275, 0.0852142721, -0.2366143614, 0.0561870858, 0.2275006473, -0.1842213273, 0.1157950163, 0.0777240917, 0.0767241642, 0.0652948096, -0.1352234781, 0.2742216289, 0.2128113061, -0.2944702208, 0.1469295025, 0.1394730508, -0.1477256417, 0.2844299972, 0.0597750619, 0.0213864781, 0.0739189014, -0.2636174560, 0.1576975882, 0.2274477184, -0.1417600513, 0.1077294424, 0.2436199188, -0.1567588747, -0.0257887729, 0.1681659967, 0.2836897373, -0.2815282047, -0.2900356352, 0.1765431315, -0.1801520586, -0.0746813565, 0.1162202805, 0.1490388811, 0.2605668008, -0.0094559724, 0.2992257178, 0.0252013728, 0.2131991982, -0.2320337594, -0.2535705566, -0.0495432019, 0.1810486913, 0.0972286910, 0.2498691678, -0.1665901691, 0.0448091589, -0.1809370369, 0.0696556419, 0.3038382530, -0.0448778532, -0.0148228584, 0.1148486361, -0.1215053648, 0.2692500949, 0.1417651474, -0.2663579583, 0.0445429608, -0.2884379923, -0.0878085941, -0.2601798773, -0.1335466802, 0.0703940392, 0.1940118968, -0.0110169780, 0.1739602685, 0.0841630623, 0.0430092216, 0.2167349756, -0.2152191997, 0.1764193177, 0.2234366387, -0.0075546377, -0.1209564358, 0.0988909453, 0.1651961505, 0.0972969458, -0.2016456574, 0.1283657700, 0.0250707399, 0.0318437256, -0.2496190220, -0.1148954257, -0.1576511115, 0.2998724878, 0.1240224615, 0.1632081717, -0.0673767477, 0.1233431920, 0.2705849111, 0.1098414585, 0.1911149472, -0.1051382571, -0.1340875477, 0.0314315259, -0.0245759413, -0.2778300047, -0.1822497249, 0.1446637511, 0.2646674216, -0.0566482320, -0.0635763034, -0.0706329718, -0.2718444765, 0.0701645613, -0.2876572013, 0.2190972269, -0.1154313982, -0.3034511805, 0.0221206080, -0.2615001798, 0.1895290762, -0.2220532447, -0.0974065214, -0.2337071449, 0.2425826192, 0.0641175658, 0.0866081789, -0.1150387675, -0.0422823541, 0.2607545257, -0.2766874731, 0.1116343141, -0.0793461278, -0.2474927753, -0.1286288947, 0.1520044208, -0.0291867983, 0.1387957186, 0.1685368419, -0.2080518156, -0.1672595888, -0.2289631069, 0.2882215381, -0.1488348097, 0.2821502388, -0.0726677477, 0.1630603522, 0.0628604963, 0.1256543547, -0.1811463237};

#endif

#endif
