//Numpy array shape [2, 10, 5]
//Min -0.373330712318
//Max 0.384882837534
//Number of zeros 0

#ifndef KEY_WEIGHT4_H_
#define KEY_WEIGHT4_H_

#ifndef __SYNTHESIS__
mha_key_weight_t key_weight4[100];
#else
mha_key_weight_t key_weight4[100] = {-0.3412050605, -0.1640138030, 0.2746576369, -0.2938391864, 0.3699225187, -0.1649390459, 0.0216263309, -0.0704469457, -0.0808611363, 0.3079768121, -0.2766288519, 0.0453470051, 0.3092290461, 0.0036334982, 0.1786802560, -0.2377140075, 0.1473851055, 0.3848828375, -0.2943169177, -0.3490141332, -0.1302697212, 0.2564614415, -0.1407053769, -0.2944996655, 0.1123969331, 0.3189744949, -0.1405024230, -0.3287449479, 0.1898809969, 0.1699396670, 0.2051618248, -0.1513919681, 0.2831169069, -0.1734747440, 0.2952896655, 0.2285855412, 0.1591084301, -0.1851573437, 0.1673011780, -0.2873389721, -0.1392523795, 0.1300378144, -0.2322907448, -0.2061140835, 0.2445645928, 0.2674640119, -0.2092619687, -0.2802407742, -0.0660292581, -0.0492513329, 0.2873093784, -0.3006246388, -0.3548663557, 0.0718464851, 0.3481416106, 0.2287169397, 0.2927202284, 0.1565057635, -0.2712265551, -0.2826050818, -0.0534218289, 0.0939382985, 0.1854894012, -0.0060740672, 0.2963580191, 0.2612745166, -0.1844452769, -0.1899255961, -0.2143559903, -0.3733307123, 0.1601436436, -0.1994879097, 0.1886526495, 0.3847182989, 0.0600756481, -0.2410586625, -0.3172477186, -0.3381017148, 0.3332297802, -0.1517769396, 0.1561575532, 0.3258012831, 0.3339784443, -0.0038546042, -0.3677118421, -0.1106959060, 0.0862290412, 0.3579891324, 0.3837538064, 0.0495730899, -0.0209712759, 0.0852198675, -0.2150952518, -0.1485805213, -0.1396862417, 0.1057947353, -0.2203519791, -0.0761506408, 0.0212355051, -0.1443451643};

#endif

#endif
