//Numpy array shape [10, 20, 2]
//Min -0.272815108299
//Max 0.271563947201
//Number of zeros 0

#ifndef KEY_WEIGHT4_H_
#define KEY_WEIGHT4_H_

#ifndef __SYNTHESIS__
mha_key_weight_t key_weight4[400];
#else
mha_key_weight_t key_weight4[400] = {0.2672022283, -0.1840586364, 0.2373637557, -0.2674926519, 0.1760306805, -0.0591368228, -0.2072535008, -0.2213109583, -0.2706218660, 0.0960810930, -0.2091101557, -0.2670813203, 0.1711125672, 0.1998864263, 0.2002191693, -0.0126391798, 0.0872090980, -0.2492286861, -0.1799056381, -0.0410049818, -0.0304185674, -0.2642711401, 0.2178714275, 0.0355175100, 0.1401290894, -0.2179837674, -0.0697191879, 0.1452678889, -0.2707523704, 0.0049828175, 0.0758737624, -0.1273062080, 0.0937748924, 0.0181592330, -0.2325914502, -0.1994724274, -0.1095254421, 0.0216062795, 0.2305239290, 0.0379894599, -0.1532823890, 0.0309721269, -0.1003618464, -0.2345764637, 0.1806017309, -0.1425046325, 0.2054711133, 0.1056956127, -0.0981582180, -0.0847247690, -0.2421261668, 0.0783508122, -0.2328841239, -0.2269630432, 0.0584594011, -0.2632185519, 0.1946691424, -0.2703320086, 0.0242332052, 0.0349238254, 0.0950097591, -0.1115516648, -0.1316335648, 0.1416354477, 0.1815900058, -0.0982329473, 0.0596370064, 0.0086098779, 0.1776543707, -0.2405014336, 0.0062996591, 0.0496851467, 0.1647477895, -0.0562063158, -0.0738222748, -0.0024817125, 0.2715639472, -0.2576392293, 0.2052993029, -0.2715206146, 0.0149646122, -0.0415410399, -0.1086155474, -0.2066592425, 0.1970133036, 0.0327842198, -0.0436829999, 0.0251594596, 0.2631624043, -0.1017824337, 0.1488782018, -0.0249855835, 0.1304557025, -0.0509655550, -0.2199366540, -0.1107801571, -0.1365540028, 0.2097446173, -0.2698003948, 0.1897508055, 0.0945589393, 0.1020395309, 0.1426006705, 0.1433806717, -0.0491445176, -0.2648506165, 0.0784028769, -0.0178240146, 0.0744497404, -0.0654513687, -0.2291171402, -0.0745585263, 0.2261582911, -0.2067101598, -0.0981974900, 0.0578043424, -0.1796287894, -0.0121874129, -0.0275017712, 0.0306445155, -0.0537410565, -0.0778637826, -0.0939399526, -0.1776816994, -0.2279794365, 0.1745704561, -0.2728151083, -0.0879481584, 0.1966113001, -0.1996533871, -0.0420280658, 0.1195204630, 0.0354368389, -0.0386586227, -0.2218957245, -0.1703100204, 0.0264243279, -0.1737483740, 0.2371843010, 0.0756002143, -0.1876786798, -0.1798899919, 0.1950759441, -0.1895307899, 0.2517714798, 0.2319025993, -0.0209969580, -0.1534897983, 0.0246196780, 0.0575678162, 0.0627004802, -0.2285095155, -0.0701493099, -0.2547430098, 0.1277866066, -0.1560114324, -0.1641293913, -0.0514389649, 0.1606755108, 0.0645322949, -0.2436677217, 0.1153165922, -0.1635949910, -0.0826147124, -0.1840942800, -0.2164697051, -0.2424005717, 0.0379658900, -0.0293294694, -0.1451920122, 0.0465844497, -0.1854887605, -0.2364501059, -0.1311853677, -0.2229995131, 0.1946683526, -0.1861298829, -0.1996997148, 0.1125627086, 0.1286188066, 0.1079406366, -0.2093080282, 0.0187290180, 0.2035330087, 0.2485413998, -0.0401843712, 0.0470693558, -0.1590529382, 0.1752914935, -0.1351373196, 0.0824131817, -0.0089338645, -0.2407854050, 0.0788299665, 0.0869208872, -0.0886997506, -0.1761643440, 0.0105856629, 0.2033577263, 0.0679649115, -0.0642514378, 0.1359081417, 0.0807454884, -0.0320217535, -0.0523796193, -0.2607258856, -0.1569482684, -0.2167408317, 0.1994629651, 0.0602043085, 0.0805720985, 0.1800068319, 0.0999905542, -0.1254181415, -0.0932268798, 0.1673845351, -0.2458883971, -0.1067302525, -0.1504050940, 0.0921824798, 0.0147312852, -0.2129198164, 0.0924726129, -0.0703690574, 0.0535423681, 0.0259687416, 0.2362464815, 0.1600135416, -0.1610452086, -0.1323256493, 0.1164870486, -0.1858673692, -0.2451835871, 0.0623625554, 0.1136050224, -0.2375317514, -0.1756871045, 0.0601233132, -0.1381135434, 0.0826201960, -0.0616848730, -0.1181253344, 0.2300641239, 0.2379115373, 0.0193568487, 0.0902060717, 0.1285567731, -0.1388158351, -0.1254987717, -0.2422784120, 0.1099707484, 0.2405147552, 0.1831154376, -0.1277737021, -0.1415757984, -0.1724742651, -0.2121945024, -0.1775531024, 0.0508509651, -0.1980966330, 0.2646123767, -0.0362537280, 0.0796481967, -0.2626770735, 0.2570481598, -0.2095732540, 0.0238714777, 0.2478071153, 0.1840918660, 0.0733591095, -0.1823579967, -0.0674388111, 0.2380770296, 0.0810343772, -0.2670611143, -0.1373112351, 0.1755150557, -0.0834020525, -0.1680750549, 0.1515706778, 0.0896338746, 0.1335982531, 0.0928307101, -0.1312039644, -0.1855770648, -0.1731627285, -0.1747493297, 0.0930938125, -0.0583649874, 0.0460033044, 0.0252272021, -0.0343080088, -0.0944844410, 0.1793234348, -0.2365196049, 0.2517674863, 0.1147941798, 0.1098267436, 0.1041982695, -0.1501725465, 0.1097460687, 0.2095656544, -0.2046295553, 0.1032400206, -0.2688440979, -0.0695064962, -0.0868676454, -0.1732896864, -0.1946215779, -0.0596500635, 0.2253485173, 0.2382545173, 0.1057731509, -0.0478468053, 0.1957698613, -0.0097892769, -0.1613734066, -0.1105811447, 0.0463667288, 0.2394324243, -0.1472015530, 0.1832799017, -0.2556763887, 0.1973635405, -0.0418537334, -0.1507522911, 0.0058206324, 0.1096948162, 0.0384366885, 0.1515552998, 0.1469597816, 0.1432635635, 0.1621823907, -0.0400091894, 0.1793949753, -0.0632262304, -0.1337421983, -0.0577940606, 0.0388001800, -0.2603658140, 0.1623961329, 0.1216065288, -0.0020824093, -0.0772576332, -0.0463199802, 0.1424569041, 0.1966674477, -0.1992506683, -0.0649995729, -0.0308204815, -0.2413968146, -0.0790998563, -0.0178271178, 0.1399285644, -0.0140576512, -0.0296159443, 0.1564112604, -0.2342988998, 0.0682759359, -0.1537221670, -0.1538466513, 0.0206035003, 0.2374755442, 0.0140226539, 0.0240129046, -0.0111102639, 0.2607648969, -0.1154763028, -0.0314920917, -0.2285052091, 0.2653513551, -0.0188022777, 0.1508374959, -0.1255151629, 0.2481270432, -0.1767010838, 0.2124699354, -0.0120410249, 0.2691384852, 0.1948438287, 0.1606520414, -0.0174457692, -0.1197462752, -0.1996689588, 0.1085532531, -0.0769004747, -0.0724035725, 0.2510136366, -0.2528128922, 0.0418937914, 0.0113241011, -0.1208111197, 0.2095645070, 0.2444998324, 0.0243554339, 0.0786890313, -0.2528258264, -0.2290029675, 0.2608189881, -0.0329457223};

#endif

#endif
