//Numpy array shape [10, 20, 2]
//Min -0.266189843416
//Max 0.273009330034
//Number of zeros 0

#ifndef KEY_WEIGHT4_H_
#define KEY_WEIGHT4_H_

#ifndef __SYNTHESIS__
mha_key_weight_t key_weight4[400];
#else
mha_key_weight_t key_weight4[400] = {0.0081434855, 0.0179104321, -0.2350967973, -0.0434334800, 0.2530567646, -0.1058521569, -0.0410763472, -0.0104290238, 0.0358968005, 0.2278965414, 0.1306526363, 0.0657597482, -0.2103272378, 0.1796892136, 0.0416415296, -0.2317323387, 0.1663803160, 0.1582600772, 0.0685541555, 0.2193996906, -0.1508928388, 0.1414286494, 0.2420762926, 0.2613243163, -0.0146150626, 0.2722042203, 0.2605306506, -0.0113559645, -0.2565852106, -0.1507914960, -0.2119174004, -0.1333759576, -0.1045969799, 0.2480299622, -0.0154597005, -0.1857515723, -0.1153077781, 0.2047683299, -0.1078433841, -0.1284358203, -0.0911508426, -0.0693301037, -0.0144737670, -0.2194906324, -0.1783321500, -0.0722770020, 0.1664425731, 0.1680557877, 0.0101814950, 0.2333139777, -0.0883812457, -0.0104157692, 0.0480468646, -0.0690020695, 0.1284236759, 0.0578955598, 0.2187795937, -0.0044098985, -0.1508551985, 0.1373057514, 0.2104016691, 0.1605507433, -0.0949882418, -0.0748721585, -0.0587527007, -0.1424022168, -0.1580090225, -0.0740687549, -0.1617025584, -0.1604880542, -0.2432560474, 0.1380158961, -0.0021641897, -0.0188053790, 0.0389949158, -0.1304288656, -0.1262030602, 0.1756925881, 0.0285336375, -0.2486032993, -0.0731466115, 0.0443169661, 0.2500770092, -0.1074336320, 0.2131569237, 0.1506223828, 0.0547059327, 0.0655903444, 0.0693551749, -0.1903751045, -0.0892494246, 0.0217286386, 0.0566544905, 0.2645467222, 0.1281024218, 0.0767127201, 0.1736346334, -0.0354251191, -0.1914609671, -0.0680863932, 0.0695642754, 0.1495058388, 0.2206391543, 0.1939585805, 0.2431192249, 0.0602500774, -0.1505877525, 0.2069732994, 0.2427588999, -0.1974442154, 0.2480568886, 0.1234851852, 0.0829151571, -0.1758380979, -0.1217578426, -0.1462002546, -0.0073062908, 0.2385381907, 0.1787037998, 0.2245276868, -0.1897757351, 0.1198324040, 0.2672221959, -0.2186239362, -0.1479323953, 0.0775419176, -0.0567140393, -0.1237522066, 0.1189908013, -0.1817830205, 0.2730093300, -0.0103364373, -0.0442025401, -0.2661898434, -0.0828492790, 0.0287720896, -0.1721249223, -0.1179754809, 0.0677198991, 0.2574304640, 0.2369369566, -0.1172436029, 0.2284679264, 0.2340519279, 0.0157351419, 0.0534149781, 0.0948597789, 0.1600528508, 0.2668043971, 0.1956046075, 0.1041293144, -0.2268917412, 0.1648167074, -0.0818133950, -0.0167270172, 0.0344415344, 0.0026857879, 0.0476733185, -0.1393793821, 0.1133232117, -0.2275944948, 0.2061657161, 0.1502786875, -0.1451278627, 0.0127286650, -0.0170921385, 0.0926957205, -0.0640338436, -0.0691974610, -0.2188197821, -0.0031734984, -0.1467819810, -0.2615173459, 0.2521319985, 0.1647724658, -0.2046798319, -0.0369484499, -0.2205824405, 0.1829656512, -0.2637212873, -0.1445215195, -0.2552586496, 0.0611784570, -0.1749852002, 0.1249080971, -0.2497500181, -0.0346988253, -0.1086664721, 0.1897112578, -0.2538250685, 0.0732513741, -0.2435322702, -0.2369949818, -0.1309512556, 0.2295764089, -0.2075534016, 0.1915501952, -0.2054291368, -0.1817796230, 0.0894546732, 0.1036235169, 0.0650370494, 0.2094531804, -0.2320796698, -0.1410027444, -0.1149518639, -0.1628822088, -0.1928132623, -0.2645210326, -0.2572774291, 0.1763723344, 0.2234087437, 0.2495714426, -0.2574458122, -0.1221385077, -0.1475893110, 0.1157081649, 0.1471124589, -0.1877356768, -0.1675577611, 0.2137235850, -0.1353616118, 0.1022837907, 0.2288403660, -0.1381848752, 0.1096933484, 0.2664426565, -0.2546273172, 0.0386671089, 0.1916826814, -0.1340020895, 0.2372531146, -0.1312830746, 0.1385266483, -0.1134149879, -0.0141722411, -0.1518252939, -0.0169332791, -0.1714423746, -0.0017775209, 0.0324222334, -0.1128342301, -0.2572138608, -0.2416361123, -0.2204272747, 0.0770085678, -0.0226371996, 0.0983087197, 0.2501465082, 0.0713644251, 0.1743420660, 0.0734569207, 0.2653004825, 0.0068337279, -0.1528472751, 0.0959343836, 0.2296587229, 0.2306398898, 0.2372497171, 0.1185532659, 0.1493604630, -0.2127094716, 0.0450159013, 0.0839734674, -0.1965662390, -0.2295411527, 0.0472142398, -0.0519977473, -0.2525978982, -0.1068230718, -0.1006843299, -0.1209450662, 0.2714646161, -0.1022336185, 0.0460314788, -0.0349725038, -0.1262496263, 0.0893372744, -0.1475134343, -0.0120468689, 0.2544899583, -0.0667381138, -0.2383525670, -0.1149253249, 0.1474885643, 0.2279227525, -0.1184702441, 0.0991327539, -0.1852495223, -0.2088180333, -0.0767088383, 0.0573973022, 0.2128473073, -0.1814473122, -0.0537559092, -0.2571373880, -0.0421562381, -0.0722166076, 0.1054848433, -0.2417217493, -0.2157491893, 0.2033725828, -0.1325590014, -0.1433794945, -0.1737305522, -0.1320601702, 0.1147437096, -0.1521012634, 0.0055383681, -0.1850498915, 0.0891365334, 0.2601335943, 0.1775908470, -0.2027982622, 0.0363274775, -0.1231509522, 0.0536747836, 0.1430824101, 0.0579999946, 0.2056980729, -0.1648465693, -0.2473686039, 0.0193017088, 0.0746464431, -0.0541720912, 0.0264053270, -0.2300732285, 0.0221539289, 0.1258187443, -0.1217079908, -0.0135148000, -0.0180442184, 0.1619943231, -0.0497316681, 0.1003223732, 0.1925336123, -0.0887704268, 0.2536537945, -0.0311491042, 0.2040110528, -0.1400042772, -0.1550858915, 0.0130603891, -0.1185718775, -0.0158205461, -0.0977246687, 0.0025585631, -0.0624557287, 0.0179701746, 0.1955907196, 0.0253286362, 0.0410541780, 0.1162838191, 0.0284426846, 0.2680695355, -0.0798688829, -0.1729050428, -0.1430141181, -0.0594350845, 0.1658605486, -0.0849082470, 0.1331812888, -0.0908798724, -0.2463568151, -0.1188851893, -0.1553995907, -0.1948739588, -0.0165486671, 0.1922663003, -0.0840745792, -0.1467082649, -0.1682816297, 0.2519111335, -0.0553506762, 0.1884820759, -0.2244779021, -0.1735023558, 0.0558460914, -0.0163318608, -0.2555033267, -0.1392579973, 0.0684638545, -0.2235215753, -0.1363728791, -0.0880440027, -0.1824956685, -0.0921094492, -0.0586431064, -0.1953957975, 0.0401116349, 0.2028551996, -0.1836532503, -0.0314593799, 0.2042013258, -0.0296197645, 0.1575239003, -0.0830204487, 0.2441566437, -0.0835779905, -0.0685255229};

#endif

#endif
