-0.0788319856, -0.0360466987, -0.0414628498, -0.0862229466, -0.1130164787, 0.1490647048, -0.0050828070, 0.2046115398, 0.3287174702, -0.2507690787, 0.0292275939, 0.2704714835, -0.0940582454, -0.1607161462, 0.3586882651, -0.3167861998, 0.1208083779, -0.1375961900, 0.0271702781, -0.0108951852, -0.3438796699, -0.0089872284, -0.2585791945, 0.0381258987, -0.0677448735, 0.2517282963, -0.0642168745, -0.0648687854, -0.0184608530, 0.1927254647, 0.2596065402, -0.2257450968, 0.0817378536, 0.3247013688, -0.0355029143, -0.3104270399, -0.2766014338, 0.3072181344, -0.1359623820, -0.2745167315, -0.1747680455, 0.0646700263, 0.0218337700, -0.0700889453, -0.0950109065, 0.2599116266, -0.2447671443, -0.1514370888, -0.3386220038, -0.3656861782, 0.0285190754, -0.2961579263, 0.3435934186, 0.2951140702, -0.1655325145, -0.1510964036, -0.0628544092, -0.0800285190, 0.2893817127, 0.1481703520, 0.2175548077, 0.1387830675, 0.1452198923, -0.0168603845, -0.1049252227, 0.2261697650, 0.2050746083, -0.1575162709, -0.3579127192, 0.2338365465, 0.3264059126, -0.0133521911, 0.1477186829, 0.3687247038, 0.0176876504, 0.1250046790, 0.2428573370, -0.0207378883, -0.3354769051, -0.1534564942, 0.0560299009, 0.1325388253, 0.2390348166, 0.1472864449, 0.1247405484, -0.2883849442, -0.1415268332, -0.2939373553, -0.0779305696, 0.1076476052, -0.1399379969, 0.0823339894, 0.1550007313, 0.3685238659, 0.2289125621, -0.3118153214, -0.3436650038, -0.2739530802, 0.0582951643, 0.2193890661