//Numpy array shape [8, 16, 2]
//Min -0.303877979517
//Max 0.302818447351
//Number of zeros 0

#ifndef KEY_WEIGHT4_H_
#define KEY_WEIGHT4_H_

#ifndef __SYNTHESIS__
mha_key_weight_t key_weight4[256];
#else
mha_key_weight_t key_weight4[256] = {0.1500393599, 0.1738920063, -0.2691996992, 0.0691441596, 0.2430126667, 0.2166898996, 0.2495460659, 0.3003993034, -0.1946146637, -0.0066417302, -0.1589106321, 0.1266544908, 0.0700524002, 0.0162239932, 0.0037540135, 0.0666861609, 0.1714921594, -0.1604813784, 0.1629609913, 0.0437540822, -0.0842773095, 0.2680388987, 0.2163155824, 0.2884170711, -0.1680678427, 0.0116602583, 0.0384927541, -0.1537978202, -0.0700617433, -0.0145964110, 0.2046426237, 0.2086908370, 0.3028184474, -0.2744502127, 0.2095274180, -0.2266727835, 0.2838037312, -0.1845759600, -0.0383948609, -0.0533551052, -0.0514016859, -0.2925140858, 0.3009004891, -0.2563623786, -0.2627681196, 0.2863023579, -0.1699369550, -0.0373939499, -0.2200222611, -0.0309649445, 0.2893007696, 0.0781857818, 0.2028752863, -0.2983890176, 0.0748017728, 0.1348280609, 0.2147721350, -0.1506363600, 0.0886897892, 0.2360245436, -0.2577356994, -0.1069769189, 0.2631560862, -0.2417939901, -0.2887303531, 0.1923331767, 0.2294995785, -0.1038754955, 0.0883044526, 0.2304830104, 0.0268450528, -0.2476255298, -0.2208723128, 0.1648208201, -0.2262781411, 0.2064433694, 0.2476847023, 0.0472736172, 0.1414773166, 0.1058509573, 0.1827247441, -0.2248617560, 0.0456839576, -0.2406971306, 0.0121403094, -0.1946892291, -0.0740162134, -0.2382701933, -0.0359646380, -0.0988239348, -0.0854292959, 0.1603795439, 0.2060260177, -0.2516277432, -0.2612332106, 0.2979067564, -0.0885022506, 0.0574036762, -0.0353371277, 0.0409524702, -0.2728999555, 0.1878704727, -0.2296716124, 0.0950997025, -0.2558416724, 0.2658102512, 0.2986516654, -0.1132971570, -0.0523404367, -0.1356828958, -0.0083900187, -0.1617473513, -0.2548641264, 0.2704272270, 0.1390294284, -0.1260153800, -0.0015693279, -0.2559129596, -0.1091913506, -0.1120682657, 0.0434514210, -0.2375881076, -0.2696499527, 0.0372710563, -0.1066266298, 0.0381431170, 0.2449995577, -0.2067460567, 0.2366228998, 0.2553147674, 0.2019995302, -0.0962384418, -0.2384277284, 0.0489156172, 0.0109973038, -0.1059393659, 0.2502782941, -0.2916158438, -0.1869096011, -0.2972930670, -0.1614527702, 0.1515841186, -0.0236157309, 0.0458100662, -0.2512408495, -0.1856173426, -0.0470743626, -0.1961358786, -0.0076964414, -0.1854628474, 0.0790243745, -0.2119712234, 0.1455242485, 0.2413993925, -0.0584706143, 0.2484969050, 0.1888697743, -0.2516764998, -0.1547227353, -0.2208788544, 0.2576131225, -0.0079278890, 0.1159129813, -0.0759732500, 0.2982118726, -0.2665961087, 0.2993046045, -0.2618623674, -0.2376407087, 0.0011073444, 0.2419840842, 0.2205876410, -0.0650254712, -0.0230708905, -0.1007989943, 0.2849269807, -0.0629647076, -0.2448580116, 0.2882330120, 0.1480332315, -0.2198350132, -0.0185847562, -0.1616114676, 0.1891870797, -0.0816722512, -0.1275801808, 0.1137629747, 0.0174482483, -0.2036586106, 0.0807077289, -0.0387494601, 0.1029217094, -0.2940163612, 0.1803433597, -0.1475625634, 0.1595854461, -0.2008871138, 0.1713709384, 0.1822578013, -0.1740326881, 0.0233586598, -0.2146825343, -0.0515485257, -0.1502985060, 0.2864320874, 0.1462197155, -0.0855097398, 0.0719080344, -0.0648583770, 0.1751774400, -0.2840813398, -0.0959357768, -0.2833340466, 0.0056808246, 0.2567144632, 0.2289993465, -0.2604553401, -0.2155203968, 0.2367024720, 0.1192347258, 0.1836730540, -0.1913298219, -0.0715317503, 0.1332159638, 0.0676789656, -0.0921179280, -0.1865296364, 0.2558761537, -0.0122913104, 0.1981140077, 0.0820491910, 0.1652985811, -0.1530783027, 0.1599135101, -0.1074849293, 0.2262504846, -0.2346193939, -0.1551484466, -0.1705774963, -0.2611000240, 0.1636594534, 0.1953801066, -0.3038779795, 0.1754166633, -0.0060531637, -0.2808342576, -0.1078832597, -0.0863546506, -0.1271152347, -0.0472667553, -0.2827428579, 0.1086352691, 0.1720495522, -0.0345032774, 0.0190070998, 0.0473576784};

#endif

#endif
