0.1040062681, 0.1626431793, 0.0218711756, 0.1070165038, 0.1373607367, -0.0012508952, 0.2159077227, 0.2278994173, -0.1254644990, -0.0147754233, 0.0668265149, -0.1084515899, 0.0353118330, 0.2329871505, 0.1928978264, -0.2655229867, -0.0206468869, 0.0620893687, 0.0643294305, -0.2034320980, 0.0174043737, -0.1219312996, 0.0363047197, 0.0964125916, -0.1269968152, 0.2379115671, -0.2102010548, 0.1651048064, 0.0716656595, -0.0224097501, 0.2691160440, -0.1115660965, 0.0950384215, -0.1659978032, 0.1520260423, -0.1076817140, -0.0171994492, -0.0675234944, -0.2333567142, 0.2115222365, -0.2073482424, -0.0321204774, -0.0540419631, 0.1027117297, 0.1790440530, 0.0198268648, 0.0178321768, 0.2302761972, -0.1676870137, 0.1128659919, 0.0946960524, 0.1006669626, -0.2486537695, -0.0507634729, 0.0442228802, -0.0963155627, -0.1698289961, 0.1595536768, -0.0942729861, 0.0448524058, 0.1232362539, -0.1568786651, -0.2327706814, 0.1704054475, 0.0604293756, 0.1275445521, 0.2103610188, -0.1124335900, -0.0545648336, 0.2172480673, 0.2251838148, -0.0183940623, 0.2130596787, -0.1181185767, -0.1517128944, -0.0572561063, -0.0427125730, 0.2167797387, 0.1635443568, -0.0507959537, -0.0757211074, 0.0461257622, -0.2683040202, 0.0637991801, -0.1094851568, 0.1880194396, -0.1745486856, 0.1274185330, 0.0248906463, -0.1149771363, -0.1533697844, 0.2691387236, -0.0883961692, -0.1341605633, 0.1961824149, -0.1134150848, 0.1550777256, -0.1449533403, 0.1672313511, 0.1368512809, 0.0708754063, -0.2279028744, -0.0315289833, 0.0171302706, -0.1319131255, 0.0635801852, -0.2429184169, 0.2667343020, -0.2254735976, -0.0683724061, -0.0161890965, 0.0164499432, 0.0278411675, -0.0031764694, -0.1647919267, 0.2446947545, -0.0477123335, -0.0154455323, 0.0122598894, -0.2208863497, -0.2301909924, 0.1708471924, -0.0084619876, -0.0067880880, 0.0849317834, -0.0346150845, -0.1091271862, -0.2684552372, -0.0251387618, -0.0140890246, -0.0401591994, 0.0821206644, -0.1136215106, -0.1735279411, -0.0010936682, 0.0036726028, 0.1742635518, -0.2426231951, 0.0811983645, 0.0465759970, -0.1924327612, 0.2572688162, 0.0459824428, 0.0846838355, 0.1761774570, -0.0980899855, 0.0152067207, 0.2093867511, 0.1541312039, 0.1211724505, -0.2053517997, -0.1705545336, 0.1345308125, -0.0735212341, -0.0591325462, -0.2117927819, 0.0437702946, -0.1376554668, -0.0862579346, -0.1694471538, -0.0240467582, 0.1115214378, 0.1673922390, -0.2285145074, -0.1826165915, -0.0795954987, -0.0176580399, 0.0707761645, -0.1397760808, 0.0821327493, 0.0968408510, 0.2246852070, 0.2423444241, 0.2345053703, 0.0830992237, 0.1680970192, -0.2358365655, 0.1189082637, -0.1499188244, 0.0271969140, 0.2406099886, -0.1718305796, -0.2308589369, -0.1453171521, 0.0098604793, 0.0081314389, -0.1107955351, -0.0400715098, 0.0748719648, 0.1046041325, 0.2244706452, 0.0949001610, -0.0181341600, 0.0753238946, 0.2166725397, -0.0922949463, -0.1963453889, -0.0028923440, 0.1590668112, 0.0138233779, -0.0496984981, 0.0934453234, -0.0981571078, -0.1787342578, -0.0954861715, -0.1646726280, -0.1719712466, -0.2316299379, -0.2170465291, -0.0227423217, 0.1991104484, 0.0619213656, -0.0287750289, -0.0766191557, -0.1580479443, 0.0902019292, -0.1654203087, 0.0383504033, 0.1024538204, -0.2481486350, 0.0092050945, 0.2691368163, 0.1854795516, 0.1600614935, 0.1583765298, -0.0411279947, 0.0149835795, 0.2574983239, -0.0745598599, -0.0840639696, 0.0930805579, 0.2648727000, -0.0743857250, 0.2401866615, 0.0377888791, 0.1452957094, 0.2038975507, -0.2433324456, -0.2255054265, -0.0834484100, -0.2095323503, 0.1532941461, 0.0702515244, 0.2060491294, 0.1800673306, 0.1580341607, -0.0852101296, 0.0107343365, -0.0942018777, 0.2505008280, 0.2334540784, 0.2610100806, -0.1283829212, 0.2697687447, -0.0812447518, -0.0061789309, 0.1052427664, 0.2157540470, -0.1986823529, 0.2005457878, -0.1550775021, 0.1222606674, 0.2547873259, 0.0574381761, 0.0935903043, 0.1523455232, -0.2155330032, -0.2079328150, -0.1358310282, 0.1147959754, 0.0678891391, -0.1516516507, 0.1032819077, -0.0183323920, -0.0291396286, 0.1870102882, 0.1432561576, 0.0797214210, 0.0848249942, -0.2532246709, 0.1234098375, -0.0807792768, -0.0343567207, -0.2703843415, -0.0425203815, -0.0462593213, -0.1570199281, -0.0100716064, -0.1608945131, 0.1623653769, 0.2489550710, -0.2411001176, 0.1425615400, -0.1881148368, -0.1184473261, 0.0086932248, -0.1356889158, 0.0894308090, -0.0809299052, 0.2409511805, 0.0157737304, 0.2606748044, 0.0222337171, -0.1467486471, 0.2261162400, 0.0170238428, -0.0725850537, 0.1619630456, 0.0764413327, -0.0283607729, -0.1770894825, 0.2361949682, -0.2702519000, -0.2567975521, -0.0670607910, 0.0519057512, -0.0266491007, 0.2287491709, -0.2652819455, 0.1487871557, 0.0348350592, -0.0791633576, -0.0999278352, -0.2641583085, -0.1462078840, 0.1496762484, -0.1899597347, -0.1478195637, -0.2322206497, -0.1436396688, -0.1484327316, -0.1748865098, 0.1476905048, -0.0769364163, -0.1383843720, -0.2059033662, 0.2081388831, 0.2114664763, -0.1001273766, -0.2062452435, 0.2566841245, 0.1388868093, 0.1566978991, -0.1802682132, -0.0471485890, 0.2038282603, -0.1726871580, -0.0912236422, 0.0394832790, -0.2482391000, -0.0751745328, 0.2447465062, 0.1113961712, 0.1957124919, 0.1632561535, -0.1804974824, -0.1081481725, 0.1154944897, -0.0736632198, 0.0042045172, -0.0872342661, -0.1294372529, -0.1694662273, -0.1693596095, 0.0639966577, 0.0390318744, -0.1736845821, -0.0295569524, -0.2003180236, 0.2159896344, -0.1485777199, -0.1567487568, -0.1398286670, 0.0120804626, 0.0426579863, 0.2606909573, -0.1089328676, -0.1475629956, -0.2451883852, -0.1450212747, 0.1339421570, 0.1165957972, -0.2516156137, 0.1991839707, 0.0999713838, -0.2634232938, 0.2509802580, 0.2320075631, -0.1032464802, 0.2492836267, -0.0942484364, -0.1973621696, -0.0044182558, -0.0773661137, 0.1010116115, 0.0180063155, 0.1581860036, -0.2328962684, -0.1969276518, -0.2462539971