//Numpy array shape [2, 10, 5]
//Min -0.384308129549
//Max 0.383965969086
//Number of zeros 0

#ifndef QUERY_WEIGHT4_H_
#define QUERY_WEIGHT4_H_

#ifndef __SYNTHESIS__
mha_query_weight_t query_weight4[100];
#else
mha_query_weight_t query_weight4[100] = {-0.3359616399, -0.2256569117, 0.1699331552, -0.2105602920, 0.2595072687, 0.2936169505, -0.3245848417, -0.1663784236, 0.0360716321, 0.2954658866, -0.0323502272, 0.3054577112, 0.1726309359, -0.3414079249, -0.1552733183, 0.3701224327, -0.0819301903, 0.0204237048, -0.0685765222, -0.2475761026, -0.1995011121, 0.3684619367, 0.3751681745, 0.2693319917, 0.1219231933, 0.0885585696, -0.3498167992, -0.2222027332, -0.3551497757, 0.2457090467, -0.0673079714, 0.2747049034, -0.1199438572, -0.0617053881, 0.2505540848, 0.1497981995, -0.2134368867, 0.3683082461, -0.1134230494, 0.2969041765, -0.2015030831, -0.0748465359, -0.0663263574, -0.1937557310, 0.3051975071, -0.3398213983, 0.3487447798, 0.1942232847, 0.0697148368, -0.3513312340, 0.2222311348, -0.3236415088, -0.3485637605, -0.3430114985, -0.0433980003, 0.1920408159, 0.1484961212, 0.0357465036, -0.3146459758, 0.2839435041, -0.1472062916, -0.2342194766, -0.2361222208, -0.3125604093, -0.3843081295, 0.2281972617, 0.3558078408, -0.1451275945, -0.1334252805, 0.1911455393, 0.0588331334, 0.3839659691, -0.0929550231, -0.1827099472, 0.2106996328, 0.0754041299, -0.0293281972, 0.0074778069, -0.3285473883, -0.1308450401, 0.0786329955, -0.3748934567, -0.1660246253, -0.3729048073, 0.3753126860, -0.1361552328, -0.0453441404, -0.1945556700, 0.3349424899, -0.0244463198, 0.0720536485, -0.2583743334, -0.0213404484, 0.1564836055, 0.3538223803, -0.3102792501, 0.2718944848, -0.3055121601, -0.0351598300, 0.3090537190};

#endif

#endif
