0.0425274298, -0.2551245093, 0.1705825776, 0.0958848968, 0.0353626497, 0.3870629668, -0.1027321666, -0.0719146803, 0.2376175076, 0.0328867175, -0.2836521268, 0.3492064178, -0.3800247014, -0.2578867376, 0.2964166701, -0.1111280993, -0.3662471175, -0.1387718022, 0.3046600819, -0.1509273201, 0.1922577620, -0.0679915100, 0.2824171782, -0.3212839067, -0.2297592610, -0.1854033768, 0.1467555761, 0.2935035825, 0.2351699173, 0.1342092305, 0.3861485422, 0.0167095959, -0.2122053653, -0.3362939060, -0.0204302147, 0.3554682732, -0.1224811003, 0.0463936217, -0.2316530943, -0.3019289374, -0.1405385733, 0.1125950962, 0.1619204879, -0.1309053898, 0.1573994160, 0.2050839812, 0.0975170359, -0.2207161188, -0.0875265449, 0.0920187011, 0.3004366457, 0.3598635197, 0.3436291814, -0.3677918017, -0.2934872806, -0.0167733561, 0.0969326720, 0.0606486127, -0.0608007871, -0.3700252175, 0.1259357482, 0.3136841059, -0.0987140313, 0.2366389036, 0.0662240908, -0.2469691038, -0.0331472531, 0.0371603109, -0.2606163621, 0.2981348038, -0.1478993893, 0.2549202740, 0.2765212357, 0.1247628927, 0.3590409458, -0.2442738116, 0.3163950145, 0.0287259612, 0.1161422506, 0.3695575893, 0.2416246086, -0.1451333612, 0.2949322760, 0.2302789986, 0.1066790670, 0.1960239559, -0.1549727470, -0.1632694602, 0.3291932642, 0.2493483126, -0.0178606492, 0.3247901499, -0.0349428765, -0.0189866778, -0.3430316746, -0.3401561379, -0.2152810395, -0.1991778463, -0.0192696508, 0.1469264477