//Numpy array shape [8, 16, 2]
//Min -0.301829338074
//Max 0.305661618710
//Number of zeros 0

#ifndef QUERY_WEIGHT4_H_
#define QUERY_WEIGHT4_H_

#ifndef __SYNTHESIS__
mha_query_weight_t query_weight4[256];
#else
mha_query_weight_t query_weight4[256] = {0.2453380972, 0.2083027959, 0.2919085324, -0.1583961993, -0.1804976463, -0.1662692279, -0.0056358199, 0.0087137027, -0.1147351936, 0.1116877869, -0.1391704232, -0.1886285096, 0.2185929865, 0.1393535137, 0.0435743555, 0.1992069334, -0.0021840285, -0.1149181649, -0.1296883970, -0.0912730172, -0.0837908313, -0.1270948350, 0.2289568186, 0.2646483183, -0.3018293381, 0.1895198524, -0.0195860676, 0.0826431587, -0.2953807116, -0.2050681114, -0.1868875623, -0.2888514698, -0.0096493866, 0.2696507275, 0.1307412088, -0.0886017829, 0.0136822257, -0.1596566588, 0.2042023242, 0.2957354188, -0.2003100514, 0.2746740580, 0.1263012439, 0.2329599857, -0.2922322452, 0.0488156453, -0.0646879897, -0.0747786686, -0.1437690854, 0.2750272453, 0.0633079931, 0.0557975546, 0.1669025123, 0.0155009599, 0.1240531206, 0.2698984146, 0.2447962463, -0.2919989228, 0.2999235988, 0.1454397440, -0.1201917976, -0.0089834398, -0.2693265378, -0.0639180243, -0.2969226539, -0.2376416922, -0.2821387649, -0.2942063510, -0.0533655100, 0.1461153328, -0.0600313284, -0.1310073584, -0.2339770645, 0.0241651684, -0.0156798847, -0.0333560742, 0.0747180432, 0.1841241568, 0.2449604273, -0.2613744140, 0.0338943452, -0.0415880121, -0.0140644563, 0.1025311202, 0.2008177340, -0.1607248038, -0.0778133348, -0.0679743662, 0.0374961533, 0.1087948903, 0.2537552118, -0.1470846236, -0.2829405665, 0.1513188332, 0.2418023497, 0.0667166039, 0.1487092525, 0.1333821863, -0.1057195216, 0.0545611456, 0.1179421023, 0.1041750535, 0.0890971273, 0.2595816255, 0.0550890863, -0.1248767078, -0.0306712277, -0.1965343952, 0.2207379937, 0.2695939243, -0.2357201427, 0.1069530845, -0.2052238137, -0.0192055143, 0.2150086612, -0.0324359760, 0.2167748660, -0.2376513332, -0.1422937512, 0.1927932203, -0.1570443362, -0.2955966294, -0.2471673787, -0.1876168400, -0.0921798646, -0.1822231859, 0.1385441869, 0.2271909118, 0.2869990468, -0.1478538364, -0.0663019270, 0.2292387486, 0.0782098025, -0.2664215267, -0.2409086823, -0.0464553200, -0.0813604295, 0.0812144279, -0.2682464421, -0.0525339618, -0.2517619431, 0.1937336177, -0.2766748965, -0.1276283860, 0.1902849674, -0.0004934103, 0.1801731586, 0.2576202750, -0.2728150487, -0.0569022708, -0.2757042050, -0.0197383463, 0.3056616187, 0.1709258854, -0.2653811872, 0.0513054729, 0.1687459499, 0.1871307939, 0.0288252998, 0.1144544706, 0.1556181312, -0.1668777913, 0.0071458351, -0.0235834271, -0.0590595081, 0.2062591165, -0.2535474896, 0.0037351064, 0.1946299821, -0.0065562464, -0.1323218048, 0.1635664552, -0.0102365660, -0.1449236274, -0.2361521572, -0.1956633180, 0.0667888001, -0.2229771316, -0.2415767908, -0.2136412114, -0.2465022802, 0.0557243004, -0.2558019161, -0.2613768876, -0.0722080618, 0.2148746699, -0.0207412262, -0.2542421818, 0.1816576272, 0.1837372631, -0.1790427864, 0.1735368967, 0.1145288944, 0.0206710007, 0.0806764141, -0.2759599388, -0.2812490463, 0.1479513645, -0.0669237450, -0.1942364872, 0.2987249196, 0.2151179761, -0.2050762475, 0.0633168221, 0.1331402957, 0.0572021231, 0.0947302505, 0.1187313870, -0.0782699138, 0.1361109763, -0.0987433046, 0.2296482474, 0.1451062709, -0.0201449953, -0.2246875316, 0.2422475517, 0.1715092808, 0.2355596423, 0.1250027418, 0.2739211917, -0.2574178278, -0.2224262804, 0.1069343239, 0.0148391007, 0.2252369076, 0.0935365409, -0.1612355560, 0.0417096317, -0.1498445272, 0.2761485875, 0.1309960485, -0.2147284895, -0.0714614913, -0.2184780836, 0.0521722808, -0.0271807462, -0.1336215138, 0.1234698445, -0.0936059281, -0.1973557174, -0.0609136112, 0.2449345440, 0.1453068852, 0.0009720745, -0.0082962131, 0.2010259926, 0.1927684098, 0.1477337480, -0.1774483323, -0.1251951754, -0.1143947542, -0.2290708125, -0.2337531745, -0.0732948929, 0.0452731475, -0.1751951128};

#endif

#endif
