-0.1115666851, 0.2484084368, 0.2405302972, 0.2575118244, 0.0453070477, 0.2067858726, -0.0169278923, -0.0166897345, -0.2010507137, 0.0286551490, -0.2717906535, 0.2641517222, -0.0986345038, 0.0038649580, -0.1210947186, 0.0516143106, 0.1177164987, 0.2645660043, 0.1017791703, 0.0042411471, 0.1436369568, 0.0999199376, 0.2540822327, 0.0616582669, -0.2424137592, -0.2521246374, 0.1188927889, -0.1115283892, -0.2568616569, 0.1850031763, -0.0392438807, -0.2403609604, 0.2614399493, 0.0057748943, 0.1870329827, 0.1199560016, 0.0553878918, 0.2355080843, 0.1578122973, -0.2304951549, -0.1635130495, -0.2399227470, 0.0386541821, 0.0201568585, 0.1483850777, -0.0766927078, -0.1554543823, 0.0797872394, 0.1519602835, -0.2396886349, 0.1703494489, -0.1806872636, -0.0274623986, 0.1950090230, 0.2357156426, -0.2124231011, 0.0227889419, -0.1611470729, -0.1464732736, -0.0448125787, 0.2663708031, 0.2104480863, -0.2364422977, 0.1290107220, 0.2521179020, 0.1258411109, -0.0139804082, 0.1197052076, 0.1617043465, -0.1082201600, 0.0181498956, 0.2169514000, -0.2258066535, 0.1218353137, 0.0802318826, -0.0058176941, 0.0826537535, -0.0751069561, -0.1243907735, -0.1815999299, 0.0156636126, -0.2316901386, 0.0800485089, -0.0146869505, 0.2046901435, 0.2021451890, -0.2334740907, -0.1287559420, 0.1894454509, -0.0442737751, 0.0119269900, 0.0108934240, 0.2169503868, -0.1364121139, 0.2676226199, 0.1411190629, -0.1435969621, -0.1239844561, 0.1477054358, -0.0362022743, 0.1410898119, -0.1630212218, 0.0640456975, 0.1992530525, 0.2131481171, -0.0683685541, 0.2601529360, -0.2064177394, -0.1228482798, 0.1722837836, 0.0124345496, 0.1428315938, 0.2447400391, -0.0138290906, -0.2493689358, 0.2540824115, -0.1014591381, -0.2066947818, -0.0977495089, 0.1018372178, -0.1895854473, -0.1942443103, 0.1780046672, -0.1483640075, -0.0080549475, 0.2142774612, -0.2242043763, -0.0200706702, 0.0162770133, 0.2153985202, -0.2732944787, 0.2622183859, -0.2713561058, -0.2293793559, 0.1323018521, 0.2604518831, -0.0875900835, 0.1263593733, -0.1307025403, -0.0299234446, 0.0040139579, -0.1694905460, 0.0431250967, -0.1200426817, 0.1730982512, 0.0739510655, 0.0125571061, 0.0748737901, -0.0980801582, -0.0450793691, -0.0105397943, -0.0356855430, -0.0598664470, -0.0372069478, -0.1126018465, 0.1277237236, -0.0868978724, -0.0153474938, -0.0427074134, 0.0504123233, 0.0094122384, 0.0306566283, 0.2590229511, -0.2441755086, -0.1337656081, 0.0507630780, 0.2306376696, 0.1720804572, -0.1877092570, -0.2577729821, 0.0591372475, 0.2644668221, 0.2228998840, -0.2233496606, 0.1058457270, 0.0511965975, -0.1828833818, -0.1153214276, 0.0640937835, -0.0377215594, -0.1433433294, -0.1427771300, 0.0634064376, -0.1085568443, -0.0149675505, 0.0938009098, -0.0162306558, -0.0810904279, -0.2476272881, -0.2287534177, -0.2432906479, -0.0354008302, -0.1802292615, 0.0773413032, -0.0857254937, -0.1576558203, 0.1876069754, -0.2578009665, -0.2032509446, 0.1879174560, 0.0977586508, 0.1201058477, 0.0680297837, -0.1585139334, 0.1379178464, 0.1516191959, 0.0824714601, -0.1627304405, 0.1551744044, -0.0866219103, 0.1146001592, 0.2612114847, -0.0120324390, 0.2212046236, -0.0956990272, -0.1744201183, 0.1341094673, -0.0598522127, -0.2280431837, -0.1673921049, -0.1275447905, 0.0115708783, -0.0210306179, 0.1260950416, -0.1105043590, -0.1986457556, -0.0174938906, 0.0603627414, 0.0092247156, -0.0259468034, -0.0347690471, -0.2110414803, -0.1718381792, 0.2447001189, 0.1117063835, -0.0858822018, -0.1041200161, 0.1186959296, -0.1244096160, 0.0469666161, 0.1332465857, 0.1185027584, -0.1717375666, 0.0841608644, -0.0649152100, -0.1658066809, -0.1476599574, -0.0732274503, -0.1913203597, -0.2254703939, 0.0806360841, 0.0444413833, -0.2214958668, 0.1372316480, 0.0811967924, 0.2667128742, 0.0997856557, 0.2027156949, -0.0444966890, 0.1007842273, -0.0877114311, -0.0601549149, 0.1955723464, -0.1818325073, 0.1586956829, 0.2705291808, -0.1878308058, 0.0626460612, 0.0495094098, 0.1458853632, -0.1685449630, -0.0844169781, -0.0259178784, 0.2369014174, 0.2250812799, 0.0052187233, -0.2162325531, -0.1171262711, -0.1775983572, 0.0279380307, -0.0410040356, -0.2169627696, 0.1151719391, -0.1583507657, -0.0401073582, 0.1272301078, 0.0206066016, -0.2738210261, 0.0996269286, 0.2514350414, -0.2178905159, 0.1732686311, 0.0007153896, 0.0685010999, -0.1148239225, -0.0772645846, -0.0046097296, 0.0567345396, 0.2492885590, 0.2061513215, -0.1625010967, -0.1352699697, -0.1705089658, 0.2145119309, 0.1396616548, -0.2489157319, 0.0419354141, -0.2279665619, -0.1294742376, 0.2651976347, 0.2717567682, 0.0766309425, 0.0280970521, -0.2532459199, -0.0275994502, 0.0497604311, 0.2006691396, 0.2110205293, 0.0564390197, -0.1647600979, -0.0510411002, 0.0744937509, 0.1883229613, -0.0480223149, -0.0739273950, 0.0369983017, -0.0091055548, 0.0560475849, -0.1426955760, 0.1892095208, 0.1867824495, 0.2350847870, -0.1679076403, 0.1295270920, 0.2364996970, -0.0666533262, -0.2352923751, 0.2063974738, 0.2282754332, -0.2651684880, -0.2628154159, 0.1010159254, -0.1312991679, 0.1854877472, -0.2475499809, -0.2052257508, -0.1297335625, -0.1914150417, -0.1595512331, 0.2690499127, 0.2017725259, -0.1617133021, -0.1766688675, -0.0213679578, 0.1344272941, -0.1912212074, -0.0073365215, 0.1373942643, -0.1965401918, -0.1658501625, 0.2731423974, 0.1583859026, -0.2711568177, 0.0414211303, -0.0696600005, -0.0324730948, 0.1945175976, 0.1044093966, 0.2213592827, 0.1766058952, 0.0160183534, 0.0564909279, 0.0127891917, -0.1865056455, -0.2036790699, -0.2251278311, -0.1810031533, 0.0076027890, -0.2037848085, 0.2652938068, -0.2693515420, 0.0939774364, 0.1165536493, 0.0060300292, 0.0134797040, -0.2736169696, 0.1835146993, -0.1116638109, -0.2687867582, -0.2702023387, 0.0147035681, -0.2540371418, -0.0158302747, -0.2684930861, 0.1183582991, 0.0372786410, -0.0383852050, 0.1547221094, 0.1241446882, -0.0861491859