//Numpy array shape [10, 20, 2]
//Min -0.273666381836
//Max 0.272329986095
//Number of zeros 0

#ifndef QUERY_WEIGHT4_H_
#define QUERY_WEIGHT4_H_

#ifndef __SYNTHESIS__
mha_query_weight_t query_weight4[400];
#else
mha_query_weight_t query_weight4[400] = {0.2654816508, -0.1934512854, 0.1334645301, -0.0575433001, -0.0523420088, 0.0098243719, 0.2703238726, -0.1701012403, -0.0357156768, 0.1412182748, -0.1996451616, 0.0102647450, 0.0837582946, -0.2160480917, 0.1569228023, 0.2617973089, -0.1947468966, -0.1466599852, 0.2092584074, -0.0294890143, -0.2551816106, -0.1054979041, -0.0214518271, -0.1382075548, -0.2067251503, 0.2499550134, 0.1923024058, 0.0810457692, 0.1772660464, 0.0483684018, 0.1465880871, -0.2474477738, -0.2431715876, -0.1901583970, -0.1286568940, 0.0722550303, 0.0709331632, -0.0075272769, -0.2051334828, 0.2152203321, 0.1376819760, -0.2146958411, -0.2697983384, -0.1545250565, 0.2444318831, -0.1682784110, -0.1136556566, -0.0937740430, 0.1167916730, -0.1910128295, -0.1341384649, -0.2234651595, -0.2725669444, 0.0959228873, -0.1152682155, -0.0433930308, -0.0362244770, -0.0153882699, -0.0314319581, -0.0298064072, 0.0364290401, -0.1291174144, -0.1934963316, 0.0679760128, -0.0028228064, 0.1887433231, -0.0261341296, 0.1997542381, 0.1875963360, -0.0154808890, -0.0859577432, -0.0544072464, -0.1911542565, 0.2470994294, -0.1134905294, -0.0837605149, -0.0704809055, 0.1265991628, 0.1456581205, -0.1902240515, 0.1411163509, 0.2603407800, -0.0306209121, 0.2015134394, -0.2629703581, 0.2590445578, -0.0307907071, -0.1072371304, -0.2385564148, -0.1622554213, -0.1481347382, 0.0042784298, 0.0847161189, -0.2439601123, 0.0994279832, 0.0907630250, -0.2031758875, 0.0565997735, 0.0721987486, 0.2347460985, -0.0862796381, 0.1741830707, 0.1202012077, 0.1551230103, 0.1145774722, 0.0598986037, 0.2054111511, 0.0455030575, 0.0281061288, -0.1916045547, 0.2175012082, 0.2465562522, 0.0608385392, -0.2327154428, -0.1942574978, 0.2235569954, -0.1487929970, -0.1114228442, -0.0246401466, 0.1531760842, -0.0443807580, 0.1322818995, -0.0591627434, -0.1523556113, -0.2019868493, -0.0633020625, 0.2107132226, -0.0075734723, -0.1731657982, 0.1117317155, -0.0304008406, -0.1293836832, 0.0263273343, 0.0745702088, -0.1553348005, 0.0620411150, 0.1999536157, 0.0152621223, 0.1566281617, -0.2034103572, -0.2324851155, 0.1963960528, 0.1228698939, 0.2319078147, -0.2404783517, 0.2673798800, -0.1845780462, -0.1612796187, 0.0175766181, -0.2570362985, 0.2438681722, 0.0717037246, -0.1444936097, 0.1563198417, 0.0646368638, 0.1626997143, -0.2495912313, -0.0609343238, 0.2190138400, -0.1875864863, -0.0977027938, 0.0928228125, -0.0043972968, -0.2118281126, -0.2155568898, -0.2669686079, -0.1756356508, -0.1706217974, -0.2559074461, -0.0664811134, 0.0061573517, 0.0487817787, 0.2380617708, 0.2677223682, 0.2658213973, -0.2377448380, 0.0081187719, 0.1383465677, -0.0336325467, 0.1249560565, 0.0923581868, -0.1886602938, -0.2683662772, 0.1861777306, -0.2273370028, -0.0892435163, 0.1854180843, -0.2165007144, -0.2207542658, 0.2621965408, 0.1019716933, 0.0011221035, 0.1281617433, 0.2545390725, -0.0979389921, -0.2466070503, -0.1037149951, 0.1092846394, 0.1583430022, 0.1775326729, -0.1621241271, 0.2267512828, 0.0204360206, -0.1276167035, 0.2250443548, 0.0654962286, -0.0563822500, 0.0683410019, -0.1093074307, 0.0648326799, 0.2361592203, 0.2407919317, -0.0319496058, 0.1049642935, -0.0938551351, 0.2723299861, -0.0049113207, -0.1625768989, 0.1153355613, 0.2444456369, 0.1101204008, 0.2434598953, 0.2230492085, -0.1683655083, -0.1729723960, -0.0766178817, -0.2428325564, 0.1935653538, 0.0013823638, 0.0942102373, 0.2203204185, 0.0607669763, -0.1585760713, 0.0697271526, -0.0275670961, 0.2010812312, 0.0137695428, 0.1924563050, 0.2261845469, -0.1951857060, -0.2674789131, -0.0581603907, -0.2405327111, 0.0671556294, 0.0834648311, -0.1723979414, 0.2659235001, 0.0868134201, 0.1635270864, -0.2674200833, -0.0476389118, 0.0276922975, -0.1510143429, -0.2085330635, -0.0209216755, -0.1305346191, 0.2317863107, -0.1687290967, -0.1531241536, 0.1993481815, -0.1540547162, 0.1994262040, 0.0427066311, 0.1609154344, -0.0036246774, -0.1142807454, -0.2196228951, -0.0012638232, 0.0375486612, 0.1298722029, -0.2159910351, -0.1884155124, -0.1881600767, -0.0313649327, -0.1642261147, 0.2539566457, 0.0893910155, 0.2593695223, 0.2523287535, -0.2327101827, 0.2182982862, 0.2315385789, 0.1664297730, 0.2601374984, -0.0612404533, 0.2301643491, 0.2072723359, 0.1625758857, -0.2357529253, -0.1336346567, 0.1652918756, 0.0596371032, 0.0379727446, 0.2037118226, -0.0949882418, -0.1932420433, -0.2626200914, 0.1171757355, -0.0834842250, 0.0767037123, 0.1599461883, -0.1527985334, -0.2597062290, 0.0244738106, -0.0266263466, 0.1402786076, 0.1769166589, 0.1400307268, 0.0868010148, -0.2213894427, 0.0873102024, 0.1234164312, 0.0070525925, -0.0755954832, 0.0300824363, -0.0121325338, -0.1447348297, -0.0521745309, 0.2218426168, -0.0334774107, 0.0042864280, -0.2636358440, 0.1107875034, 0.1972853541, -0.1010975391, -0.2252939343, -0.2417958230, -0.1528110951, -0.2290440053, -0.2321388572, -0.0028746496, -0.0780871212, -0.2007335424, -0.0096409619, 0.1809286773, -0.1764599532, -0.0022770823, -0.1207630634, -0.0615788363, 0.2552227378, 0.1173343286, 0.1756563932, 0.1943437159, -0.2172182947, 0.0891320258, 0.1603994966, -0.2407707721, -0.0754144862, 0.2064106613, 0.2514624894, 0.1809017807, 0.0528243668, 0.0384173281, 0.0964022726, -0.1492691785, -0.0674082190, -0.1926274449, -0.1775141805, -0.1631439477, -0.2587134838, -0.1363760382, -0.2713076770, -0.2288050354, 0.1625032872, -0.0148594240, 0.1172176823, -0.1206109598, 0.1009181440, 0.2120292783, -0.1032551005, -0.2736663818, 0.2402339280, -0.1850484461, -0.2101042271, 0.2415521443, -0.2185905278, -0.0325613059, -0.2042869925, 0.1071282551, -0.0421293378, 0.0462856032, 0.0112486212, -0.1447713673, 0.0618486963, -0.2620472610, 0.1627480686, 0.1022005081, 0.0045013423, 0.0478679948, -0.2112201899, 0.0279547442, -0.1172757000, 0.2310470492, 0.1297695339, 0.0045981072, 0.1567845792, -0.2562416196, 0.1257838756, -0.0161926541, -0.1717719436};

#endif

#endif
