//Numpy array shape [8, 16, 2]
//Min -0.305074542761
//Max 0.305476814508
//Number of zeros 0

#ifndef QUERY_WEIGHT4_H_
#define QUERY_WEIGHT4_H_

#ifndef __SYNTHESIS__
mha_query_weight_t query_weight4[256];
#else
mha_query_weight_t query_weight4[256] = {-0.1676241457, -0.1675374955, 0.2440064549, -0.0528806746, 0.0229341239, -0.3037271202, 0.2966445684, 0.1647801250, -0.2733240426, 0.0666979924, 0.2648421824, 0.1265497059, -0.1163805872, 0.2697615325, 0.2405752838, 0.2174502015, -0.2368009835, -0.1221167073, -0.1315094978, -0.2833348513, 0.1679620743, 0.1899720877, 0.1120734811, -0.1202561110, -0.1864736080, -0.0220121648, 0.2266313583, 0.2425555736, 0.2980231047, -0.0320714489, -0.1103265807, 0.1569630206, 0.0822603777, -0.1932113022, -0.0418413244, 0.1969525367, -0.1117961928, -0.0607465878, 0.1486453116, -0.0370926037, 0.2336169630, 0.0619641244, 0.0715533271, -0.1514176428, 0.0091600278, 0.2326358706, -0.0556522869, 0.2278857678, 0.1920315027, 0.1426857710, -0.1868234575, 0.1517011821, -0.0134698302, 0.0951582119, -0.0944116339, -0.0827589706, 0.0819685236, -0.2722350657, -0.2618637681, -0.1420420110, 0.1748044491, -0.0820249543, -0.2801682353, 0.0051313504, -0.2885915935, 0.2733791173, -0.0645583048, -0.3011126816, -0.0040522935, -0.2565533221, -0.1764059365, 0.0525842570, 0.0967948511, 0.0133268228, 0.1831844300, 0.2365665436, -0.1257658601, -0.0172820613, 0.1770909727, 0.0482745282, 0.0300084930, -0.1322501600, -0.2359441370, -0.0435929336, -0.0341123976, 0.1585355997, -0.2125801146, -0.0260492377, -0.2881397009, -0.1272580922, -0.1499242038, 0.2746502459, -0.2697699964, -0.0376745649, 0.1123803407, 0.1577215642, -0.1210152432, -0.0918442085, 0.2488713562, 0.0918603465, -0.1939688921, -0.0038286564, 0.0417085737, -0.1312265843, 0.0909272134, -0.1611446738, 0.0288127810, 0.1500909328, -0.2426243722, -0.2389473468, -0.1116574556, 0.2931074202, 0.0572832264, 0.0282233376, -0.1491228342, 0.1761664152, 0.0494280457, 0.0306551661, -0.2300537676, 0.2401254624, -0.0502884276, -0.2386695445, -0.1272201687, -0.2453896403, 0.1112823784, -0.0556863025, 0.0545468405, 0.0941041559, -0.2840566039, -0.1591832191, 0.0139640803, 0.0049597626, -0.0180383828, 0.1870906800, 0.0465190485, -0.1549078673, -0.2133578211, 0.1189973652, 0.2641407847, -0.0720867366, -0.1075571999, -0.1442332268, -0.0992043391, -0.1251333803, -0.1078935489, 0.2724564672, 0.1424014568, -0.3050745428, -0.1172235608, -0.1329007447, -0.1109037995, 0.1454396397, 0.2197098881, -0.0594484583, -0.0703842565, 0.2377217710, -0.0562274568, 0.0088044060, -0.3050673008, 0.0332824551, 0.0078161620, 0.2392029613, 0.1748676300, 0.3012672961, 0.1816862375, 0.2043874115, 0.2191035151, -0.1348360926, -0.2689352036, 0.0185958520, 0.2751522660, 0.1768473983, 0.0605080947, 0.1439878345, 0.1017849818, 0.1993117332, -0.2849439681, 0.1131511927, 0.0365906544, 0.2352880090, -0.1913187206, 0.2560768425, 0.0951515734, 0.1523297131, -0.0161301512, -0.0209105518, -0.1126026288, 0.1432550550, 0.2074659616, -0.0627304465, 0.1515340358, -0.2132320851, 0.0366980731, -0.2280213237, -0.1033536121, 0.3054768145, 0.0411083996, -0.1742308736, 0.2320390940, -0.1914046854, -0.2733626068, 0.1873862296, 0.1088821962, 0.0630429983, 0.2084195614, 0.2713004947, -0.3019694388, 0.1913646758, 0.2867344320, 0.2912772000, -0.0729045644, -0.1801990271, 0.1492526978, -0.2032212019, -0.2928054929, 0.2656778991, 0.2417827845, 0.2789324522, -0.1968194246, -0.0685885549, 0.2742558420, -0.1064011678, -0.1527010649, 0.1960196644, -0.1979199350, 0.2709725201, -0.1421762556, -0.0961715728, 0.1079052314, -0.0791586637, -0.1447553337, -0.0226861052, -0.0014379270, -0.0799706057, 0.2737631500, 0.1874414086, -0.0012235977, 0.0205860641, 0.2609585822, -0.0523106866, 0.0216764361, -0.0388144329, -0.1557790637, 0.0876111314, 0.0403289348, -0.2812904418, -0.1869194955, -0.1210874021, -0.2194610983, -0.1869404167, 0.0330438539, 0.0847494751, 0.2231125832, -0.2400200516, -0.1104723662, 0.2123160064};

#endif

#endif
