-0.0144493803, -0.1495129168, -0.2155491263, 0.1892170310, 0.1092429832, -0.1610481441, -0.1563104689, -0.0264197569, -0.2538982630, 0.0677119642, 0.2707620263, -0.1279501021, -0.0197179541, 0.2716447711, 0.1654798239, 0.2624670267, -0.2309021354, 0.2555419207, -0.0422341973, 0.0500180125, 0.0935130641, -0.0018381133, -0.0590296090, -0.0895333514, 0.2235655785, -0.1757643223, -0.1234067008, -0.2364021391, -0.0830562562, -0.0435196683, 0.0234824903, -0.2560475767, 0.0342189819, -0.0351618230, 0.1821856201, -0.1355588585, 0.0052932231, 0.1871536821, -0.1642642766, -0.0266687218, 0.1376269609, 0.1913070679, -0.1488424540, -0.0655303448, -0.2341113240, 0.2465759367, 0.1467678398, -0.2446961701, -0.1280523092, -0.1147662699, 0.2329529375, 0.0170725510, -0.2707399726, 0.2510040700, 0.1887529194, -0.0395521969, 0.0450461656, -0.2215628028, -0.1413785070, 0.1815227270, 0.1109030396, 0.1448987871, 0.0198256560, -0.0273434017, -0.0677855536, -0.2732512951, -0.2411043644, 0.2289345115, 0.2673791051, -0.1544777751, 0.0120667508, -0.2694583237, 0.1275111288, 0.0472797640, 0.0547305159, -0.2188852727, 0.0078117284, -0.1642355174, -0.0150917061, -0.2145633250, -0.2226858735, 0.0880006179, -0.0160255358, 0.0235617254, 0.1008736491, -0.1601668149, 0.2357421815, 0.0638194829, 0.2320079207, -0.2257887274, 0.0098986104, -0.2100274712, 0.0913265422, -0.2261757851, -0.0226311926, -0.0882032216, 0.2557635903, -0.1144754812, -0.1264538616, -0.1278989315, -0.1119649410, -0.0309187155, 0.0549491830, 0.1545220166, -0.2394451499, -0.2123550326, 0.0659495294, 0.0164037477, -0.2074588239, 0.2352138013, -0.1928475797, -0.0524895415, -0.1530760229, 0.1684175134, -0.2204868197, -0.0938733518, 0.0763714015, -0.1646566987, -0.1780186146, -0.0135344528, -0.2053048760, 0.2193355709, -0.2586807907, 0.2130101174, -0.1544302553, 0.1305744350, 0.0079774437, 0.0325369537, 0.1891141832, 0.0202934202, 0.0627905875, 0.1351458430, -0.2585663199, -0.1782832146, -0.1859141439, 0.0888016745, -0.1050061807, 0.2601445019, -0.0987960994, 0.0372766480, -0.0984586626, 0.0454081222, 0.1949493140, -0.1304243058, -0.0419733822, -0.2260106653, -0.1531150788, -0.2504248619, 0.0309453234, 0.0273368061, 0.1741402745, 0.0350003168, -0.0852610618, 0.2243534476, 0.1985867620, -0.0225024018, -0.1116145775, 0.1724512875, -0.1196765453, -0.1862019002, -0.1417118013, -0.1526691765, -0.1882324666, -0.0826296285, -0.0082504693, -0.1030238345, 0.2070316374, 0.2410523295, -0.0437149927, 0.0959188715, 0.0006782048, 0.2416533828, -0.1287761927, 0.0987077281, 0.1034761891, 0.2709622979, 0.1497725993, 0.0711955130, 0.2381877601, -0.2586532235, -0.0042854813, -0.1294789761, 0.0203436967, -0.2424917221, 0.0944728777, 0.2219627202, -0.0135944253, 0.1898637861, -0.0004766761, -0.2694677114, 0.1950679868, -0.1587543190, -0.0071188328, 0.0067904713, 0.2150752544, 0.1741672754, -0.1848920733, 0.1720805168, 0.2477028966, 0.1735613793, -0.2203691006, -0.1870078444, 0.0592966601, -0.2074224204, -0.2708737254, 0.2038005888, 0.1402659416, 0.0912496299, 0.2075109631, -0.0079779336, -0.1278871149, 0.2314740121, -0.2092769891, -0.0240020324, -0.2135987729, 0.1638215929, -0.1143608242, 0.0757261068, 0.0803330243, -0.0388247631, -0.0233976413, -0.1262027025, 0.1219740286, 0.1159716249, -0.2326650023, -0.0161911193, 0.0049529779, -0.0399225093, 0.0190895032, -0.2095085233, 0.1451624036, 0.0283926371, -0.0819797665, 0.1928084642, -0.0379630812, 0.0089991912, -0.1552586257, 0.0501159877, 0.1878685206, 0.0877523050, 0.1721654385, -0.0353645273, -0.1658851057, -0.0134974970, -0.0623942576, 0.1589261442, 0.1076074466, 0.2074859440, 0.0913360417, -0.2138994187, -0.2187677026, 0.1914627999, -0.0375760533, -0.0404894240, -0.1334804296, 0.0311361104, 0.0210877489, 0.2219950110, -0.2287373245, -0.0969740152, -0.2709879577, -0.0553097688, 0.1574260890, 0.2421174198, -0.0676538199, -0.1252048910, 0.2165458351, -0.2050145268, -0.2696163654, -0.0777303204, 0.0031658916, 0.0150313424, -0.0532600395, -0.0049924483, 0.0845413655, -0.2414192110, -0.0622151233, 0.2157153636, 0.1327431947, 0.0331373625, -0.0386189222, 0.1681999564, 0.1256850660, 0.0352641381, -0.0207378082, 0.2119052559, -0.0237578992, 0.2510429621, -0.2412381768, 0.2651658654, -0.1800861657, 0.0238209087, -0.2200540304, 0.0807750598, -0.1757003665, 0.0685528815, -0.1560752839, -0.2125602812, -0.0954995900, 0.1798661351, 0.1317556053, -0.2135368139, 0.1654714346, 0.0408782139, 0.1241791919, -0.1225315407, 0.0068720882, -0.1231811494, -0.2653575242, 0.1140013188, -0.2013876885, 0.2357179672, 0.2489377409, -0.2731779218, -0.1755215228, 0.2667130530, 0.0339612700, -0.1733545661, -0.2687707841, 0.2533507347, -0.1399544626, -0.1548683345, -0.1411577910, -0.2413596213, 0.1066669524, -0.0161964409, -0.2538697720, -0.1240134463, 0.2155135423, -0.1046993956, 0.2694350779, 0.1253401488, -0.0908856839, -0.0672374740, -0.0350824259, 0.2257799208, -0.1520811170, -0.1575585306, 0.2273545712, -0.0970650688, -0.2370261252, 0.2422727644, -0.1224968731, 0.1930683404, -0.2733728588, 0.0221206956, -0.2104789764, 0.2426077873, -0.1811795086, 0.0897615254, 0.0837364867, -0.0623689555, 0.2135502547, 0.1889707297, -0.1445117593, -0.2439490408, 0.0059395321, 0.2443581671, 0.2213447094, -0.1622413844, -0.0436050370, 0.1818740070, -0.2447989732, -0.2657591701, 0.2530425191, -0.2156787962, 0.2363432497, 0.1709398776, -0.0777506307, -0.0593495481, -0.0650698245, -0.1238097250, 0.1300614625, -0.2039826214, -0.0864306688, -0.1678742021, -0.0551510081, 0.0306488257, 0.0427199490, -0.1107796654, -0.0577668324, -0.1780713350, 0.0202454627, 0.0432047546, 0.1536623687, 0.2701731324, -0.2544280887, -0.0160504449, -0.2474457473, 0.0107275462, 0.0208084565, -0.1057514697, 0.0809463263, 0.1038155779, -0.2031172812, 0.2421809882, -0.1008824632, 0.1951795071, -0.2682900727, -0.1408171207