-0.2364334911, 0.2662883997, 0.1555034518, -0.0475982986, 0.1199097410, -0.0050511798, -0.1718306094, 0.2093041539, -0.0222804025, 0.1086210907, 0.0728395060, -0.2065045834, -0.2616710365, -0.2063357383, 0.2347043157, 0.1135293469, 0.0648230463, 0.2114600837, -0.0721723363, 0.0008534529, 0.2658095360, 0.0929826200, 0.2162376195, 0.0598051697, 0.2617849708, -0.2453072816, -0.2466423362, 0.0238640346, 0.0736223459, -0.0487637222, 0.0608834289, -0.0388597921, -0.1013052687, 0.0385258459, 0.0695971549, 0.0541495979, -0.1318161637, 0.1645184010, 0.1535262913, 0.1976510286, -0.2277137786, -0.1058114767, 0.2228006274, 0.2451686263, 0.0782564953, 0.2416248769, 0.0090668024, 0.0177557506, -0.0581415519, 0.0950193554, -0.1786786318, -0.1367389709, -0.0543262511, -0.0354691930, -0.0211489294, -0.2102851272, 0.0106701199, 0.2444441020, -0.1168257892, 0.1495570242, -0.1727389395, 0.2456612736, 0.1781002283, -0.1975523382, 0.1919348985, 0.1279469877, 0.0281998906, 0.0448826365, -0.1640145630, -0.0585591719, -0.2412507832, 0.0585226044, -0.0761027485, -0.1392508149, -0.2264636755, -0.2600144446, 0.1396971047, 0.2629778683, 0.0308429748, 0.2616205513, 0.2035369873, -0.2426181883, 0.0407633297, 0.0717758387, -0.0955861360, -0.0729152486, -0.1285055429, -0.0244982634, -0.1161519960, -0.0326931365, 0.1374941915, -0.0467313305, -0.1323709637, -0.0779341087, -0.2357361466, 0.2490462810, -0.2274956107, 0.2014516145, -0.2192271501, -0.0463336594, -0.2034991533, -0.2640633583, 0.0809554011, -0.1280245930, -0.2200750560, -0.0826670453, 0.2097690403, -0.1030772105, -0.2406773418, -0.0035488715, -0.1572737545, 0.0149372211, 0.2025977820, 0.2288363129, 0.1267712563, -0.0412967764, 0.2726744711, 0.0373771377, 0.0938030630, -0.0499176905, 0.2501567900, -0.2438205779, 0.1315444112, 0.2710703909, -0.1873044819, -0.2586664259, -0.0950694382, -0.1023348495, 0.1504999697, 0.1230270863, -0.2162756473, -0.2341952473, 0.0086535262, -0.0044563874, 0.1856536567, -0.0508277863, 0.2257167101, -0.2119516432, 0.0393277518, -0.1537503153, -0.2161886394, -0.1032327414, 0.1138319522, -0.0557295419, -0.1279560030, 0.0374256186, -0.0245240219, -0.1662496924, 0.2691350877, -0.1753203571, -0.1812519133, 0.1353110075, 0.0183837451, -0.1793354601, 0.1410944164, -0.2555951476, 0.0029605106, 0.0870513469, -0.0654525757, -0.2405229211, -0.0586263575, -0.1790199578, -0.1812116057, 0.0377493091, -0.2560100853, -0.1513557285, -0.2270931005, -0.1723754555, -0.2456548661, 0.1725690067, -0.0625364333, -0.0481583551, -0.0143463798, 0.0911482573, -0.2629227340, -0.1845973730, -0.0946001410, -0.0941755027, -0.1891236603, 0.2340179086, 0.2251936197, -0.0333915800, -0.2686438262, 0.0135786245, -0.1193346679, 0.1259245574, 0.0717157051, -0.1891036481, -0.1725715250, -0.1191266403, 0.0015914993, 0.0321323611, 0.1056101099, -0.0545592494, -0.2098123580, 0.1472603530, -0.0134121254, 0.0417848788, -0.2356529981, 0.0563580580, 0.2083890885, -0.0942788944, -0.1691990197, 0.2426295280, -0.1122842282, 0.0243530832, -0.0568228513, 0.0546579733, -0.1474783123, -0.0427510627, -0.0044302698, 0.1732977480, -0.1989626884, 0.1040041149, -0.0157224759, 0.1901984215, 0.0546702817, 0.0700883567, 0.2355859131, -0.2661991417, -0.1445420533, 0.1469465941, 0.2680958509, 0.1248749942, -0.2530169487, -0.1828936040, 0.1002857089, -0.2016676068, 0.0712151602, 0.0096046263, 0.2258876115, 0.1133860946, -0.0088862330, 0.2020591348, -0.0940739065, 0.0711748749, -0.1751420349, -0.1358297616, -0.0527737327, 0.2432030588, -0.1747077405, 0.1661468893, -0.1077220365, -0.2429610491, -0.1039376482, 0.0916709378, 0.1014314517, -0.2542550564, 0.1143502817, -0.1066235006, 0.0836823955, -0.2621409595, 0.0328457914, 0.2505074143, 0.2513339221, -0.0795905069, -0.0027768069, -0.1206358373, -0.1721474826, -0.0647616088, -0.1235323623, -0.1269332767, 0.1869417727, 0.1748149842, 0.1061409190, -0.0840123892, 0.1146315336, -0.1068136990, 0.2188093960, -0.0702836812, -0.1694424003, 0.0390465632, -0.1735780239, -0.1211424842, -0.2135671377, 0.0482842736, -0.1823570877, -0.2356088310, 0.0746203884, 0.1501503140, 0.1567839235, -0.1922129840, -0.2162763923, 0.1161579341, 0.0466591157, -0.0123644238, -0.2715384960, 0.0079846587, -0.1833266616, -0.0422366485, -0.2303998321, -0.0773142427, -0.2194995135, 0.1474002153, 0.2150648087, 0.1007217094, -0.2325623184, 0.2087823898, -0.1082978249, 0.1416353434, -0.1738299578, 0.2564791739, 0.2714468539, 0.0318631567, 0.2530340552, 0.0532665364, 0.1417993903, 0.0317884907, -0.1085812300, -0.0607321411, 0.0861649215, -0.2256346643, -0.1106049120, 0.1317105889, 0.0798160657, -0.2090277672, -0.1934772730, 0.0381164253, 0.1816169769, -0.0470491126, 0.0386260711, 0.0219390485, 0.0435963534, -0.1686326861, -0.0362039730, -0.0795722231, 0.0512011684, 0.0573810115, 0.0468079187, -0.1869724840, 0.2315962017, -0.1813261211, -0.1081935167, -0.1880498677, 0.0907874778, -0.1653880179, 0.1923759282, -0.1759606898, -0.1371307075, -0.1654292792, 0.2297251225, 0.1685090810, -0.1011975706, 0.1417374015, -0.2688786387, -0.0846501067, -0.0902601331, 0.1879614592, -0.2135041654, 0.2083131224, -0.1703629345, 0.2676627636, 0.0227331817, 0.0775589272, -0.1238017008, -0.1430124491, 0.2165911794, 0.0416417234, -0.2588144541, 0.2166530043, 0.2007808834, -0.2699874640, 0.1674908698, -0.1763953120, 0.0628599599, -0.2297768295, 0.1169504076, -0.1781270355, 0.0341607071, 0.1672687083, 0.1021790281, -0.1932399869, 0.1663845628, 0.1462445110, 0.1731991023, 0.2251004726, -0.1588001847, -0.1964257360, -0.1625263691, -0.1129462421, 0.2439814210, 0.1420261264, -0.2024163604, -0.2727150619, -0.1678891182, -0.0427623242, 0.2427486777, 0.2544054091, -0.0544970892, 0.0439628810, -0.2429080009, 0.1192736849, 0.2276058197, -0.0971602350, -0.0488080271, 0.0241208673, 0.2279711664, 0.1007334292, 0.0933704302, 0.1497150064