-0.2222613692, -0.0501588210, 0.1696364433, -0.1507302225, -0.1065576524, -0.0789910480, 0.1509215683, -0.0289688203, 0.2419208288, -0.0265182201, -0.2326435745, -0.2632458806, -0.1791587025, 0.1135485396, 0.0711448714, -0.2207945585, -0.1176288053, 0.0506246909, -0.0185223315, 0.2697035074, 0.2504111826, -0.1221398115, -0.2188692093, -0.2094455361, 0.0169580914, -0.2417126745, -0.1477037370, -0.1078825593, 0.0276194941, 0.0718197525, 0.2712224126, -0.1047227383, 0.1139736399, -0.2082155794, -0.2356781065, 0.2708736062, 0.0016650526, -0.2051767409, 0.1602546722, -0.1080616564, 0.1259950101, 0.1603881270, 0.1875683218, 0.0287830923, -0.2424212992, -0.1281568110, -0.1509355009, 0.2235117853, -0.2459841520, 0.1878586859, -0.2537494898, -0.1777497381, -0.2546437085, 0.0319681466, 0.0819876939, -0.1469296068, -0.2064723670, 0.0409734771, -0.2516976893, -0.1401823014, -0.0480023660, -0.0739435256, -0.0764870048, -0.0785234421, -0.1344725341, -0.0949676409, -0.0339451097, 0.2699776888, -0.1880240738, -0.1554226428, -0.2317553908, -0.0359571315, -0.2451547235, -0.0281304177, 0.0469462425, 0.1829553992, -0.0988990068, 0.2142491639, -0.2429639548, 0.0839194432, -0.2189834118, 0.0765479505, 0.0563000776, -0.0785802528, 0.0357801206, -0.0213380530, 0.0638918281, 0.2065510750, -0.0535609424, -0.1151027232, 0.1517011076, 0.0465951599, 0.2108131200, 0.2325433493, 0.0763139725, -0.0132658025, 0.0192575045, 0.0747333169, -0.0344478041, 0.2073285282, 0.0334144346, 0.2464991808, 0.1549876928, -0.1023964211, 0.0727088526, 0.0057514212, -0.0435030833, -0.0521445945, 0.1334198713, 0.2090729177, 0.0267008785, -0.0948192328, 0.1368594021, -0.2291404754, -0.1492912471, -0.0426112041, -0.2249326408, 0.0934002697, -0.1010286883, 0.2532375455, -0.0601108074, 0.2412459850, -0.0305783413, 0.0544511564, -0.2010684311, -0.1141805500, -0.2537782788, -0.2580319941, -0.2418421805, 0.2485967129, -0.0515837893, -0.2343085706, -0.0451209582, 0.0394370519, 0.2512456775, 0.2668220699, -0.1543859839, 0.0438341536, 0.1215436831, -0.0389880277, -0.1311489940, -0.0819543973, 0.0588698685, -0.0658540055, 0.1503242254, -0.1755954623, -0.2454180121, 0.0465102457, -0.0444316864, 0.2598656118, 0.2410511822, -0.1590609103, 0.1960935146, 0.0536793210, -0.2497514188, -0.0129706431, 0.1243756935, 0.0843620002, -0.1512980461, -0.2658155859, -0.0366066732, 0.0385608114, 0.0839901865, -0.2050167024, 0.2151587307, -0.0346079692, 0.1954317987, 0.0164553635, -0.0606733449, 0.1616830379, 0.1755537540, -0.0923362151, 0.1659786403, -0.2575065494, -0.0876728445, -0.2596094310, -0.1959008127, 0.2569919825, 0.0556473695, 0.0317918546, -0.1948655397, -0.1956351250, 0.2295879126, 0.1558797657, -0.2097405642, -0.0968122184, -0.1713383198, 0.1144321263, 0.1683184654, -0.1589578688, 0.0043667718, 0.2340753376, -0.1473642439, -0.1815283448, -0.2024076432, -0.1706012636, -0.1983225495, -0.1448334903, -0.0390821472, 0.0591410026, 0.1376269311, -0.2730339766, 0.1785867065, -0.2696492970, 0.0479695573, -0.0570443906, -0.0695562512, 0.2582507730, -0.0947111994, 0.0011271964, 0.0171243288, -0.1695856154, -0.0621318743, 0.1778553128, -0.2147219181, 0.0274771545, 0.0983386189, 0.0136504797, -0.0434755273, 0.2082043737, -0.1642426699, 0.0629369095, 0.1916643232, 0.0842228308, 0.2653845847, -0.1421160996, 0.1329206973, 0.2215080112, -0.1312604845, -0.0475988537, -0.2207533866, 0.0902038515, -0.2576387823, 0.2056597471, -0.1343067288, 0.0662743971, -0.1894237399, 0.1461719424, -0.0666310266, -0.1112299636, 0.2039739341, -0.0101090847, -0.1817771494, 0.0771345198, 0.0093226228, -0.1229093596, 0.0582104698, -0.2442786098, -0.1256288439, -0.0247071702, -0.1654129922, 0.0141388113, 0.1273935586, 0.0354248248, 0.1338704973, -0.0474006198, -0.0980409160, -0.2468677610, -0.0383943133, -0.2223345935, -0.0800525248, -0.2407447845, 0.1997377872, 0.2068081051, -0.1343173385, 0.1706050485, 0.2105785161, 0.0915874615, -0.2243541330, 0.2027916014, -0.1430288702, -0.0412123203, -0.2319765389, 0.2145177424, -0.0177100450, 0.0023485462, 0.2402204424, -0.1342340112, 0.0553792417, 0.0855789781, -0.1370893121, 0.0702377483, 0.1105035767, -0.0743723735, 0.1133227572, 0.2378703058, -0.1233768612, 0.1553843468, -0.1657774299, -0.1112575531, -0.2273373008, 0.0426642559, -0.0419690423, -0.1664883196, 0.2257409096, 0.0237851273, -0.0094362013, -0.2706912458, -0.1629775167, -0.1729487926, 0.1212402582, -0.0118633285, -0.0893225819, 0.0878750905, -0.2668195069, -0.2372390777, -0.0826904178, -0.0896607116, -0.2396823615, 0.0528968759, -0.0280962680, -0.1758984327, 0.2294591069, -0.1847102642, 0.2001960874, 0.1546395868, 0.2069033682, 0.1853799820, -0.2604539394, 0.1367502064, 0.2725858986, -0.1602882892, 0.1255784929, 0.1303122491, -0.0311683342, -0.0270211119, -0.2080146074, 0.1533560753, -0.0257543176, 0.1038774475, -0.2406580746, 0.2010731101, -0.0840416998, 0.1325977594, 0.1132427752, 0.0250414740, 0.0733270198, 0.0459185876, -0.0978583246, -0.0177257489, -0.1390599310, -0.2364266962, 0.1113483459, -0.1222928911, -0.1741226017, -0.2631417811, -0.2589448690, -0.0040570190, 0.1703537554, -0.1417928636, -0.0375447795, 0.0424765013, 0.2538016737, 0.0275151562, 0.1981768161, -0.0491301529, -0.0068739816, 0.2467498183, 0.0944813043, 0.0183183532, -0.0156667475, 0.2404877543, -0.0922281221, 0.0651152059, -0.0603932030, 0.1553978026, 0.2452123165, -0.0002219004, -0.1319252998, 0.2471737564, 0.0197480880, 0.2417380363, 0.1554289460, 0.0616238229, -0.2726666331, -0.0365479067, -0.0436399058, 0.0432956442, -0.2400379926, 0.1297210157, 0.1583063006, -0.2430944741, -0.0271156896, -0.0210027378, 0.2035989910, -0.2302587926, 0.0732307807, -0.0995728374, 0.0281271525, -0.2597210109, -0.0442753434, -0.1403795779, -0.0739537403, 0.2384035885, 0.2359694391, 0.1193023175, 0.2653421760, -0.0046694078, 0.2285381407, -0.1698245555