//Numpy array shape [5, 100, 20]
//Min -0.122433371842
//Max 0.122451968491
//Number of zeros 0

#ifndef QUERY_WEIGHT4_H_
#define QUERY_WEIGHT4_H_

#ifndef __SYNTHESIS__
mha_query_weight_t query_weight4[10000];
#else
mha_query_weight_t query_weight4[10000] = {-0.0830294043, 0.0860040411, -0.0024683946, 0.0206318479, -0.0347540416, 0.0050146077, -0.0246037468, -0.0212879777, 0.1106121838, -0.0798559412, 0.0949598029, 0.0019661074, -0.0934375376, 0.0344312452, 0.1158085167, -0.0305117778, 0.1007132605, -0.1154911816, 0.1011456251, 0.0884233937, 0.0246030744, 0.0432256572, 0.0792374685, -0.0316737257, 0.0469647422, 0.0145442653, -0.0340066180, 0.1190437227, -0.0013108405, -0.0478899516, 0.0871206746, 0.0607772060, -0.0793882161, 0.0271958914, -0.0181312747, -0.0904252455, -0.0357913040, -0.0290199257, -0.0364147723, -0.0301037636, -0.0221203715, -0.0950407460, 0.0942959487, 0.0670556426, -0.0761723071, -0.0377721563, -0.0371368341, -0.0670539960, -0.1106609777, -0.0547775626, 0.0816832930, -0.0971030667, 0.0893945917, -0.0403829031, 0.1090888083, -0.0142750246, 0.1176750660, -0.0992452651, -0.0164821222, -0.0181876328, -0.0376695171, 0.0405580588, 0.0666180328, 0.0354146957, -0.0485872962, 0.0957065225, -0.1165201589, -0.0635989234, 0.0638054162, 0.0102984114, 0.0447072163, 0.0748705044, 0.0841250271, -0.0166469999, -0.1052991822, -0.0899042562, 0.0606991835, 0.1217245907, -0.0195956659, -0.1187667176, 0.0535358973, -0.0391188860, 0.1206913143, 0.0638217330, 0.0300993975, 0.0145415645, 0.0703290105, -0.0922003090, 0.0936288238, -0.0849084631, -0.0903131440, -0.0885426924, 0.0130638015, 0.0357443653, 0.0237350557, -0.0610338785, -0.1077308655, -0.0111319600, 0.0355166607, -0.0984809771, 0.0478230529, -0.0867053717, 0.0174203087, -0.0303159747, 0.0636857525, 0.0174732488, -0.0148043223, -0.0679344088, 0.0075479141, 0.0502609909, 0.0066434527, 0.0455354527, 0.0584725104, 0.0968880802, 0.0075894366, 0.0939353555, -0.0856756568, -0.0164435916, 0.0649178997, 0.0754237920, 0.0187198501, -0.0098741474, 0.0282662529, -0.0691619590, 0.0170780830, 0.1117106676, 0.0729392171, 0.0143734738, 0.0077039744, 0.1192631647, -0.0960608497, 0.0243902057, 0.0890577957, 0.0282385722, -0.0981618464, 0.0492602885, -0.0740581825, -0.0492324606, 0.0548609123, -0.1204461977, -0.0272293407, 0.0685659647, 0.0286971610, -0.0622962005, -0.0905221030, -0.0858441144, -0.0982231721, 0.0116918739, 0.0022142068, 0.0300928708, 0.0827356055, 0.0014256118, 0.0469858535, 0.1174029484, -0.0725795478, -0.0483955964, 0.0896480232, 0.1081931219, -0.0771859363, 0.0797694623, -0.0296899378, 0.1063338295, 0.1168410107, 0.0486824885, 0.0560601205, -0.0659831762, -0.0152285723, 0.0610225312, 0.0456593484, 0.1199441403, 0.0560065545, -0.0672318190, 0.0689612180, -0.0592366047, 0.1036248282, 0.0789259300, -0.0298573282, -0.0790046677, -0.1094234139, -0.0001657111, 0.0626411736, 0.0088402415, -0.0970924050, 0.0187724829, 0.0794590786, -0.0538527183, 0.0184221100, 0.1058103293, -0.0445288904, -0.0820954666, -0.0885499939, -0.1052821875, -0.0803705230, -0.0480957553, -0.0026439023, -0.0105208000, 0.0157123320, 0.0459414348, 0.1138844863, -0.1039723530, -0.1154123172, 0.0153964879, 0.0576008558, 0.1153756231, -0.0008275189, 0.1054468751, 0.0608124360, 0.0047092754, 0.0874591917, 0.0811443850, 0.0899313837, 0.0516832173, 0.0602869354, -0.0811519772, -0.1165982634, 0.1028247103, 0.1011519060, 0.0292674992, -0.0504628681, -0.0112789683, -0.0434768982, -0.0588693991, -0.0016999769, -0.0673494861, 0.0628453121, 0.0235707462, -0.0789046735, 0.0422036797, -0.0624962971, -0.0259885807, -0.1021246538, 0.0671863109, 0.1037262827, -0.0933671370, -0.0460285395, -0.0509014986, 0.0159344133, 0.0763830766, 0.0157095138, -0.0094037903, 0.0414444469, 0.0536484197, 0.0959705636, 0.0793728530, -0.0580942519, -0.0193084087, -0.1103498042, -0.0989718363, 0.0583910272, -0.1194432303, 0.0578216389, 0.0007364873, -0.1114000157, 0.0159598757, -0.0418829173, 0.0751485378, 0.0482224114, -0.0674223676, -0.0698098764, -0.0452868715, -0.0100871483, 0.0989250243, -0.0103933560, -0.0889507234, 0.0251693241, -0.0823165849, 0.0415692776, -0.0088043110, 0.0205711126, -0.0034269199, 0.1150447130, -0.0298487581, 0.1221463457, -0.0807024688, 0.0554005317, -0.0536659695, 0.0622428805, -0.0406439975, -0.1118311137, 0.1207811832, 0.0417138636, -0.0474966690, 0.0366869308, 0.0636863038, 0.0733614415, -0.1199872419, -0.0191187672, 0.0211407635, -0.0754003897, -0.0862344429, -0.0746807456, 0.0260925759, -0.0804841146, 0.0434562974, -0.0213426109, 0.0719740912, 0.0393800810, -0.0186899621, 0.0766603723, -0.0697729513, -0.0368282013, -0.0386816263, 0.0311467350, -0.0583825856, 0.1189003363, 0.0621222854, 0.0181850921, 0.1122074053, -0.0692718029, 0.1040206328, -0.1095185354, -0.0605265535, 0.0051708431, -0.0731566697, -0.0818371177, -0.1202100366, 0.0286742821, 0.0381082371, -0.0604764149, -0.0337942168, 0.1201684102, -0.0626633093, 0.1204225719, 0.0719296634, 0.0625668019, 0.0103853261, 0.0381067023, 0.0419729389, 0.0446930975, 0.1002650931, 0.0934440345, -0.1073800847, -0.0424482040, -0.0095407544, -0.0886600465, 0.1175000742, 0.0380364619, 0.0230154023, 0.0554440990, 0.0774170235, 0.0965250880, 0.0702520683, -0.0130265122, -0.0773293525, 0.1157039106, 0.0211384576, -0.0497653633, -0.0021853717, 0.0042781057, -0.1198224798, 0.0125721870, -0.0484177023, 0.0803499371, -0.0859152302, 0.0454894044, 0.0880983248, 0.0582629703, -0.0056861537, -0.0401682518, -0.0754379854, -0.1076489314, 0.0033591464, 0.0303742737, 0.1121924222, 0.0119578876, -0.0899100900, 0.0652813390, 0.0039776503, 0.0198780745, 0.0864463225, 0.1056540236, -0.0288276561, -0.1112140715, -0.0600071400, -0.1003962308, -0.0624828488, 0.0482637584, 0.1177843958, -0.0465189889, 0.0970371142, -0.0164550394, -0.0228194389, -0.0843015239, 0.0331856385, -0.0119341332, -0.0675246119, 0.0515045561, -0.0829074606, -0.1194227859, -0.0752891302, -0.0360424966, -0.1024922207, -0.0295504779, 0.0634304211, 0.1045085713, 0.0707990751, -0.0480335578, -0.0328183882, -0.0982723832, 0.0198459979, -0.0636401400, 0.0897535682, -0.1161347106, -0.0299396142, 0.0845874995, -0.0435647443, 0.0472174138, 0.0066862600, -0.1146315187, -0.0492565334, 0.0148055777, -0.0507556871, 0.0259843599, 0.0208962280, 0.0481477454, 0.0683960915, -0.0283740889, 0.0535954498, -0.0749384835, 0.0620146692, 0.0290827937, -0.0139882350, -0.0591864698, 0.0789983496, 0.0211777464, 0.0813190937, 0.1171462834, 0.0523750000, 0.0704501644, -0.0143993739, 0.0532387681, 0.0690719932, -0.0151476879, -0.0056341770, -0.0812462792, 0.0480615608, -0.0758075267, 0.0703035966, 0.0514270887, -0.0812443122, -0.0712343529, -0.0144995311, -0.0829234645, 0.0178298280, 0.0674846396, 0.1140545681, 0.0245162919, 0.0635641143, -0.1219546050, -0.1068383828, -0.0526953824, -0.1205980182, -0.0766949207, -0.0361374579, 0.0644051731, -0.0971244276, 0.0732510611, -0.0017395285, 0.0912136808, 0.1191856116, 0.0355708115, -0.0471200868, -0.0580943823, -0.0401213430, -0.0927372128, 0.0676859319, 0.0161422174, 0.0072138491, -0.0808404386, -0.0631679893, 0.0102527719, -0.0931143165, -0.1088303402, -0.0485647246, 0.0336077586, 0.0708269775, 0.0247779544, -0.0810434669, 0.0991514176, 0.1137347966, -0.0779915377, -0.0521684363, -0.0222018845, 0.0845589414, -0.0956544280, 0.0028880304, -0.0461875796, -0.0331603214, -0.0867562816, 0.0234073419, 0.1025839150, -0.1198265925, -0.0956117958, 0.0915377736, -0.0498101860, -0.0892757773, 0.0729931667, 0.0507759526, 0.0982327759, -0.0267916285, -0.1173779964, -0.0607492328, 0.0562447533, 0.1059793532, 0.0810851827, 0.0157256033, -0.0322969742, 0.0629760846, 0.0764355063, 0.0957478285, 0.1061111316, 0.1131193414, -0.0592787117, 0.0543619543, 0.0597147718, 0.0304865930, -0.0679847822, 0.0362067781, -0.0569997393, -0.0405889116, 0.0200497285, -0.0370140187, 0.0752635375, 0.0405397527, -0.0239545684, 0.0808108300, 0.0763211697, 0.1189660206, 0.0438670404, -0.0900685638, -0.0696128905, -0.0835859776, -0.0795100182, 0.0436970219, 0.0114577031, -0.0622556731, -0.0463940538, -0.0488635451, 0.0407781117, 0.0203720257, -0.1171492711, -0.0038622073, -0.0335182287, -0.0641037375, 0.0526436530, 0.0565792583, 0.0775805786, 0.0979979783, 0.0114841871, -0.0178555083, 0.0922791809, 0.0979770869, 0.0877636597, -0.0049304962, -0.1039207950, -0.0166700985, 0.1112065986, -0.0149863707, -0.0683449656, -0.0184055082, -0.0006246943, -0.0309312381, -0.0935585126, -0.0685330257, 0.0409880914, 0.0428560115, 0.0409071781, -0.0002970098, 0.0085746218, 0.0953421891, -0.0767487213, 0.0945733786, -0.0338425264, 0.1160155609, 0.0925498381, 0.0570158437, -0.0733046159, 0.0631315336, 0.0899944827, -0.0023064939, 0.0341080874, -0.1091354266, -0.0415672921, 0.0952420756, -0.0591789782, 0.1136486381, 0.0995612368, 0.1130509973, 0.1084459797, -0.0475178398, 0.0636393055, -0.0927968994, 0.0745433792, -0.0513663068, 0.0560457557, 0.1120811403, -0.1132932976, 0.0444716439, -0.0469374992, -0.0649904162, -0.0576680452, -0.0151117127, 0.0259007905, -0.0229086466, 0.0514396131, 0.0929810032, -0.0042450950, -0.0771684721, 0.0780982375, 0.0869129971, 0.0977491066, -0.0689142495, 0.0482044518, -0.0228186809, 0.0370474234, -0.0770835727, -0.0383624546, 0.0803989470, 0.0994677246, -0.0054319659, 0.0766633824, -0.1192066893, 0.0344321355, 0.0670304447, 0.0426361077, 0.1013281569, -0.1138899624, 0.0815824792, 0.1064138636, -0.0825150982, -0.0180231761, 0.0053418246, -0.0540817641, -0.0396043807, -0.1161673144, 0.0961893201, 0.0292094778, 0.0889535099, 0.0422349386, -0.0328394845, 0.0888442397, 0.0338584259, -0.1095208675, -0.0232770648, -0.0924496204, -0.0624448583, -0.0010468853, -0.0725730360, 0.0904052854, -0.0744619370, 0.0417734161, 0.1066360101, -0.0429369994, -0.0013854031, -0.1162321866, 0.0471953936, 0.0105478689, 0.0192966107, 0.0335749052, -0.0648062825, -0.0047502727, 0.1174268797, -0.0480134673, 0.0242372546, -0.0319986232, 0.0287330486, 0.1112315953, -0.0570399612, -0.0630570576, -0.1101816446, -0.0351367667, 0.1210497320, -0.0733671784, -0.0954215974, -0.0167240016, -0.1036024839, -0.0568171665, 0.0024356465, 0.1191790849, -0.0125395851, -0.1181533262, 0.1146628782, 0.0389842726, -0.0442595631, -0.1089013889, 0.0637568086, 0.1182993129, -0.0992009416, 0.0898045897, -0.0391066782, 0.1110153198, -0.0880675614, 0.0939145237, -0.0669764057, 0.1109392419, 0.0975864008, -0.0278742258, -0.0732519850, 0.0872615054, 0.0375328325, -0.1048238128, -0.1044861749, -0.0690730289, 0.0643850639, 0.0030760213, -0.0145286145, 0.0889363289, -0.0753322765, 0.1109153852, 0.0620407872, -0.0993779898, -0.0318646207, 0.0724526718, -0.0166739970, -0.0713042691, -0.1185243428, 0.1162534133, -0.0984112173, 0.0086587919, -0.1123637408, 0.0781009197, -0.1222346202, 0.1018633991, 0.0888898373, 0.1104582697, 0.0728977993, 0.0683799163, 0.0877922028, 0.1058238894, -0.0190122891, -0.1196129397, 0.0161126945, -0.1063226759, -0.0843689889, -0.0616424680, -0.1115600541, -0.0728535429, -0.0891174823, 0.0534217507, -0.1140387058, -0.0141492011, -0.0734633952, -0.1029351726, 0.1216425598, 0.0272604972, -0.0755806714, 0.0341898054, -0.0923788399, -0.1000402421, -0.0853184089, -0.0867072418, -0.0756209642, 0.0326790437, -0.0011343691, -0.0854498819, 0.1111295223, 0.1133463308, -0.1191323325, -0.0573668145, 0.0814516917, 0.0535342321, -0.0809111372, -0.0819133893, -0.0406001508, -0.0968517661, 0.0805910677, -0.0897310525, 0.0733670145, -0.0164345112, 0.0873006359, 0.0313386098, -0.0104800072, 0.0380438194, -0.1004102230, 0.0177601557, 0.1099069715, 0.0417008251, 0.1048786789, 0.0999987721, 0.0208115764, -0.0051885094, -0.0947840884, -0.0296629425, 0.0048587224, -0.0821081400, 0.0148467207, 0.0145993372, 0.0158326942, -0.0277580526, -0.1084478050, 0.0820095763, 0.1192724928, 0.0108626904, -0.0722372904, -0.0498689935, -0.0161462314, -0.0314942189, 0.0239937101, 0.0185177103, -0.0765237585, -0.0872294977, -0.0869382024, -0.0216371678, 0.0551386364, -0.0274724457, 0.0846648067, -0.0367752202, -0.0353288017, 0.0640129521, 0.0124494731, -0.1105857119, 0.0871438980, 0.0237544142, 0.1144310832, 0.1013883948, -0.0528064035, 0.0653074682, -0.1014973745, 0.0189961996, -0.0779809803, 0.0840561986, -0.0300204400, -0.0258375425, 0.0499352328, 0.0611612052, 0.0814002678, -0.0085453046, -0.0477722883, -0.0452574380, 0.0137273613, 0.0021907007, 0.0653836131, 0.0408609249, 0.0927059948, 0.0002209287, -0.0577933565, -0.0447644629, -0.0569278039, -0.0375537686, -0.0207291581, -0.0224758554, 0.0301859621, -0.0572383180, 0.0253000539, 0.0427573472, -0.1145112738, 0.0769656301, 0.0925673395, -0.0926895887, 0.1218320355, -0.0532848462, -0.1176684424, -0.1080022678, 0.0162317883, -0.0355719216, -0.0950454026, -0.0419366881, -0.0212392267, -0.0885819942, 0.0639717355, -0.0992939845, -0.0283264928, 0.0746754929, -0.0034859774, -0.0408963747, 0.0139516033, 0.0832663178, -0.0853452459, 0.0136505933, -0.0403004996, 0.0858091488, -0.0558714159, -0.0634125099, -0.0164292548, 0.0711984634, -0.0562706105, 0.0770417005, 0.0827774033, -0.0357347876, 0.0603414103, 0.0042224792, 0.0950944573, -0.0620029159, 0.1009842977, -0.0581600666, 0.0108359139, 0.0596404746, -0.0962764248, 0.0533365458, -0.0080824522, -0.0306574870, -0.0010680846, 0.0470871665, -0.1064582840, -0.0699458495, 0.0348808840, -0.1023377255, -0.0758268237, 0.0871515498, -0.0990153998, -0.0881888866, -0.0560394339, -0.0256058816, -0.1140308529, -0.0802971423, 0.1170997247, 0.0735214278, -0.0680709928, 0.0131920334, -0.0046721040, 0.1059290543, -0.0656821951, -0.0765826032, 0.0839017034, -0.0941201448, -0.0931478292, -0.1073275581, -0.1043587849, 0.0581572354, 0.0450838841, -0.0559230708, 0.0874604136, -0.0885405764, 0.0467456095, 0.0448182374, 0.0818801001, 0.0349224359, 0.0479920208, 0.1099411920, 0.0519018099, 0.0498763360, 0.1017668471, -0.1218555421, 0.0928532556, 0.0555336848, -0.0566045716, 0.0691930354, 0.0370523855, -0.0822509453, -0.0213582758, 0.1155754104, 0.0330491737, 0.0197843127, -0.0888974443, -0.0987070054, 0.1058784053, -0.0876003131, 0.1026380658, -0.0538664870, 0.0640711933, 0.0335795507, -0.1085341051, 0.0889181346, 0.0355222970, 0.0356169194, -0.1021990851, -0.1089888141, 0.0995190740, -0.0337136388, -0.0875815675, 0.0579574630, 0.0841951370, -0.1036313772, -0.0509173535, 0.0946230665, 0.1223818436, 0.0069192192, -0.0086538270, -0.0880552828, -0.0637577847, 0.0843758509, -0.1130686328, -0.0104609840, 0.0759784654, 0.0495420098, 0.0748650879, 0.0680287108, -0.0346951559, 0.0406288691, 0.0944853574, -0.0321942642, -0.0960509405, -0.0798681304, -0.1072121561, 0.0528495908, -0.1071086749, -0.0855399668, 0.1212279424, 0.0885887966, 0.0631074533, -0.0603079908, -0.0278230533, -0.1216689646, -0.0700899512, -0.0936019048, 0.0908127874, -0.0610004999, 0.0362513363, -0.0866384134, -0.0692764223, 0.0497991778, -0.0424026810, 0.0162724052, 0.1109354123, 0.0059402972, 0.0555691645, -0.0532464497, 0.1166587994, 0.0295544937, -0.0724078044, 0.0412418693, -0.0472508594, -0.0807400495, 0.0096522402, -0.0008289058, -0.1177520826, 0.0158798527, 0.0778345764, 0.1115841717, 0.0740871951, -0.0045763417, 0.0663576275, 0.0381130241, 0.0297409222, 0.0399954729, 0.0269992277, 0.0724170357, 0.0981058255, -0.1104738936, -0.0698924437, -0.1111723855, 0.0142481606, -0.0896311700, -0.0227238238, 0.0991673172, -0.0855194777, -0.1186877415, 0.0189131405, -0.0217354558, -0.0121294679, 0.0308153722, -0.0974334478, -0.0911488384, -0.0511261635, 0.0257746596, 0.0771822706, -0.0239728466, 0.1090044081, -0.0452792645, 0.0819982141, -0.0316044502, -0.0337526053, -0.0814672112, 0.0611715429, -0.0394196026, 0.0044334652, 0.0973613113, 0.0181208365, 0.0184120946, -0.1208092719, 0.0068634762, -0.1127733067, -0.0845600218, 0.1216249317, 0.0788203552, 0.1166458204, -0.0388314240, 0.0270776153, -0.0859942585, -0.0661147982, -0.0946709216, -0.0070095938, -0.0827569067, -0.0700146332, -0.0687333420, 0.0767393783, 0.0936834589, -0.0847080201, -0.0815496147, 0.0751089528, 0.0765314251, -0.0711690485, 0.0685553923, 0.0628788620, 0.0003701270, -0.0163958501, -0.0613088124, 0.0168223176, 0.0961207300, 0.0373352207, -0.0353412852, 0.0395964831, 0.0266803335, -0.1103745550, -0.0333615690, 0.1195674762, -0.0138706611, -0.0645138100, 0.0022348221, -0.0065805409, -0.0560311116, -0.0671879500, 0.0984919891, 0.1065936089, -0.0125952549, -0.0585875288, 0.1083617136, 0.0417414270, 0.1192902625, 0.0569333658, 0.0664148033, 0.1061759144, -0.0438245237, 0.0930274203, 0.0155700101, 0.0860399157, -0.1071595997, -0.0657061264, -0.1009571105, -0.0029644913, 0.0747517049, 0.0169181973, -0.0047491631, -0.0231577829, -0.0287648607, 0.0455146171, 0.0275416207, -0.0149731142, -0.1184774041, -0.0936641023, 0.0164080691, 0.1004744619, -0.1037654281, 0.1063730717, -0.0701599717, -0.0000003066, 0.0701669529, 0.0425006747, -0.0766653419, -0.0287569333, -0.0309133828, -0.0768212378, 0.0633702576, -0.0260581356, 0.1072391942, -0.1059688702, -0.1068518236, -0.0558971390, 0.0474524163, -0.0480269864, -0.0334701799, -0.0986614376, -0.1223950014, 0.0614113919, 0.0944060460, 0.0098646283, -0.0923095867, -0.0154181542, -0.0050207102, -0.0793032572, -0.0927180573, 0.1186329499, 0.0330562368, 0.0516568050, -0.0265278202, 0.0852504298, 0.0685304105, 0.1142531261, 0.1075910851, 0.0752682090, 0.0037288645, -0.1025223583, 0.0673455894, 0.0421502441, 0.1137207225, 0.0538490228, -0.0240717921, 0.0775424540, -0.0110679241, -0.0896616280, 0.0075804722, 0.0996710137, -0.0311142076, 0.0525601283, 0.0969195142, 0.0068236031, -0.0712611601, -0.1050522029, 0.0074791331, -0.0828585699, 0.0090270061, -0.0472923853, 0.0835726336, 0.0885414258, -0.0447754860, -0.1149818450, 0.0879607052, -0.0979787335, 0.0250220820, 0.0257985462, 0.0705085918, 0.0222315527, -0.0426300317, 0.0452193320, 0.0934946239, -0.1069109291, 0.0199217144, -0.0436828583, 0.0914046466, -0.0828845873, 0.0396498628, -0.1130130067, -0.0659127012, 0.0162262544, 0.0817907453, 0.0261459108, 0.0211908575, 0.0570741706, -0.0853595063, -0.0084584346, 0.0605682060, 0.1129867733, 0.0442591682, 0.0765876845, 0.0398444347, 0.0588794425, -0.0126187606, -0.0025618060, 0.0758817643, 0.0958067775, -0.1170335859, 0.0028636921, -0.1048596278, -0.1146596223, 0.0500702858, 0.0333428830, -0.0211343542, -0.0467390828, -0.0801807791, 0.0289481655, 0.0325595289, 0.0097832475, 0.0645673051, 0.0585579202, 0.0717355460, 0.0989074484, 0.1121582761, 0.0886814371, -0.0567345284, 0.0231122300, 0.0492264144, -0.0149715515, -0.1211385578, -0.0615159869, -0.0126700653, -0.0810762942, -0.0510465056, 0.0884880573, -0.1167539507, 0.0191595741, -0.0622504316, 0.1037582979, 0.0402609929, 0.0581849590, 0.0639935657, 0.0384804793, 0.0964077786, -0.0126329381, 0.0180317461, -0.0690543503, 0.0446069166, 0.1019799486, 0.0479134731, -0.0972044319, 0.1116637811, 0.0664707348, 0.0524397641, -0.1069816351, 0.0037056359, 0.0065764380, -0.1127516404, -0.0227733608, 0.0365494266, 0.1091782376, -0.0690773502, 0.0236290880, -0.0172848050, 0.1002023593, -0.0950078890, 0.0407997482, 0.0172104184, -0.0519875847, 0.0370528102, -0.0883731544, -0.0750587285, 0.0882974118, -0.0835467875, -0.0759404898, -0.1020502374, 0.0614971109, -0.0599022396, -0.0066651045, -0.0521336310, 0.0495816655, -0.0777622610, 0.0026480195, -0.0370365754, 0.0228438955, -0.0650644973, 0.1036518216, 0.0516574197, 0.0674407780, -0.0386714935, 0.0870531201, -0.0486774668, 0.0201310944, -0.0406836346, -0.0648742020, -0.0135168862, -0.0459560081, 0.1219129786, -0.1161191463, 0.0379008725, -0.0322040468, -0.0117807155, -0.0084836921, -0.1088022962, 0.0683528930, 0.1002195850, -0.0166756175, 0.0796740949, -0.0502868928, 0.0934539288, -0.0896726251, 0.0642916858, -0.0015514938, 0.1218675599, 0.0958510041, -0.0334019400, -0.0432060957, -0.1064637154, -0.0142338816, -0.0052373321, 0.0150790233, 0.0146648912, 0.0155225890, -0.1154988036, 0.0484034233, 0.0187899731, 0.0181765798, 0.1033607572, 0.0036123267, 0.0436746702, 0.0589659214, 0.0644713715, -0.0701713935, -0.0528531373, -0.0786068738, 0.0874626040, -0.0777371153, -0.0886644423, 0.0258952864, 0.0070126452, -0.0795559958, 0.0285966974, 0.0236141365, 0.0559120774, 0.0815042034, 0.0857771710, 0.0833276436, -0.0777548254, -0.1083026975, 0.0511968434, -0.0106580844, 0.1199331880, -0.0366165601, -0.0556327626, 0.0484586991, 0.0893887207, 0.0833132267, 0.1026069671, -0.0237368364, -0.0697219595, 0.0762780458, -0.1167974696, 0.0234566312, 0.1100470871, 0.0484451503, 0.1089967862, 0.0507777780, -0.0039330325, 0.0232845992, 0.0082899639, -0.0765362903, -0.0178548228, -0.0750539824, -0.0847696066, 0.1027799174, 0.0742244348, 0.0795956776, 0.0746250600, 0.0432369150, 0.0050608460, 0.1219249219, 0.0846070349, -0.0802015141, -0.0502231047, -0.0921327695, 0.0501456223, 0.1209994480, -0.0870436430, 0.0068389624, -0.0899307802, -0.1140124425, 0.0974279642, -0.0767935887, 0.0914109573, -0.0100817755, 0.0442052074, 0.0998972133, -0.0609187707, -0.0464980081, -0.0387014225, -0.0692203417, 0.0536364615, -0.1154834330, 0.0351956338, -0.0458249114, 0.0980647430, -0.0388125442, 0.1094554886, -0.0741619766, -0.0754610226, 0.1191252917, 0.0087433551, 0.0967415646, 0.0653802678, -0.0486380607, -0.0220554750, -0.0350077301, 0.0797211528, 0.0952289850, 0.0334141292, 0.0947918147, -0.0554017425, 0.0514836907, -0.0174028184, 0.0501333885, 0.0105436640, -0.1208726317, -0.0870285630, -0.1099313200, 0.0727385283, -0.0654592216, 0.1126955301, -0.1214199662, 0.0698703676, 0.0492147356, -0.0811721534, 0.1015940532, -0.0566178896, -0.0772608221, -0.0434950292, -0.0429776311, -0.1030594110, 0.0988841578, 0.0822751895, 0.0385521837, 0.0853395164, 0.0222687088, 0.0787797943, -0.0076892283, 0.0486711599, -0.0468573868, 0.1211684197, -0.1163161024, -0.0069865840, -0.0886699036, -0.0914764926, 0.0491459817, -0.0518000461, 0.0403532498, -0.0496744923, 0.0842520148, -0.1053440571, -0.0365158916, -0.0952660963, 0.0465769656, -0.0328942500, 0.0733870044, -0.0616314150, 0.0360657722, -0.0212417096, 0.0793161765, 0.0081852665, -0.0597625896, -0.1051118001, 0.0621292926, 0.0765895024, -0.0998419821, 0.1178866401, 0.0532233231, -0.0258305054, -0.0624344796, 0.0759351999, 0.1093100458, -0.0783709660, -0.0820008591, 0.0943941325, 0.0945314616, 0.0362499654, -0.0813929066, 0.0045314170, 0.0352495238, 0.0678883716, 0.0863503292, -0.0641842857, 0.0391351916, 0.0670448989, 0.1182517111, 0.0710098445, 0.0644893870, -0.0434517115, -0.0033413926, 0.0359636880, -0.0289253891, -0.0891264752, -0.0343874022, 0.0507314950, 0.0947810039, -0.0548058562, 0.0329551324, 0.0264861956, -0.0935495347, 0.0508649535, -0.1021915451, 0.1104075909, -0.0050911121, 0.0251172315, 0.0100884764, 0.0959989205, 0.1166815907, 0.0568427742, 0.1171280295, 0.0787230879, -0.0827547014, 0.0453185104, 0.0397781357, 0.0057870257, -0.0461983979, -0.0941588208, 0.0629048795, 0.0578709431, -0.0518677197, 0.0780313537, -0.1196983457, 0.0051331017, 0.1179517657, 0.0174808260, -0.0745733380, 0.0034221457, -0.0321334377, -0.0650219992, 0.1083890125, -0.0475504696, 0.0039954185, 0.0669806600, 0.1047511622, -0.0195854306, 0.1220734641, -0.0883828178, -0.0102199502, -0.0669933483, 0.1125796810, -0.1198581308, 0.0887273848, -0.0644818246, -0.0496228784, 0.0108607048, 0.0088052452, 0.0946954191, -0.0192565788, -0.0570318438, -0.0731924549, 0.0257367287, -0.1179575473, -0.0423293300, -0.1206831858, -0.1115203127, 0.1198055148, 0.1093459204, 0.0129944356, -0.0339698121, -0.0762315989, -0.0100787384, 0.1007557437, 0.0010781587, 0.1044286489, 0.0272804983, 0.0621872991, -0.0851855353, 0.0806918442, -0.0597701669, -0.0856711194, 0.0869130716, -0.0867556259, -0.0105008418, -0.0417627580, 0.0060675517, -0.0922084525, 0.0403822176, -0.0606018603, -0.0525391921, -0.1179726496, -0.0081098862, -0.0912782401, -0.0153682660, 0.0423972346, -0.0301089752, -0.0373630933, 0.0051882318, 0.0746867061, -0.0448228791, -0.0099998834, -0.0432330444, -0.1041353792, -0.0694967955, 0.0210395120, -0.0745765492, 0.0385394506, 0.0223519150, -0.0770766810, 0.0216435771, 0.0846272558, -0.0190058220, 0.0807548538, 0.0472667888, 0.0182624422, -0.0625738204, 0.0300216954, -0.0941022187, -0.0038691715, -0.0251132902, -0.0648393184, -0.0831869692, -0.0325929634, -0.0401873179, -0.0522561967, 0.0576716512, -0.0077285026, 0.0655655265, -0.1193052530, -0.1142466739, -0.0680834427, 0.0627143756, 0.0196005423, 0.0154258488, -0.0950358510, -0.1154785678, -0.0804946497, 0.0912483260, -0.0021173789, 0.0750509202, 0.0951273814, 0.0131032355, -0.0280158911, -0.0208759774, 0.0220746733, 0.0629984960, 0.0226758476, 0.0599664487, -0.0036594265, -0.0066549722, 0.0125079751, 0.0786959529, 0.0648524016, 0.0626419634, 0.1041131988, -0.0759481937, -0.0080740135, 0.0454758815, 0.0292133465, -0.0686542690, 0.0308564715, 0.0873342827, 0.0971759483, 0.0642184094, 0.0675588474, -0.0444082208, 0.0541543700, 0.0387446396, -0.0472573861, -0.1064768657, -0.0958765969, -0.0575566739, 0.0097724572, 0.0355112739, -0.0745555982, 0.0038337808, -0.1160847247, 0.0740993842, -0.0175689086, -0.0222317409, 0.1147603020, -0.0257729515, -0.0401231237, -0.0297934376, -0.0421440229, -0.0664251074, -0.1129389554, 0.1120872200, -0.0252889004, 0.0158527847, 0.1177812070, 0.0397231542, 0.1059914306, 0.0856447741, -0.0229359921, -0.0254441723, 0.0580163151, 0.0316808820, -0.0835229605, 0.0808256045, 0.0785815716, -0.0048401947, -0.1119659767, 0.0611182377, 0.0710609779, -0.0874211416, 0.0228957832, 0.0992379040, -0.1194671243, -0.0231651552, -0.0197301172, -0.0433780551, -0.0366251729, -0.0151910642, -0.0487611666, -0.0052959807, 0.0006832553, -0.0407003388, 0.1016328633, -0.0282711592, 0.0538976416, 0.0708384663, -0.0493310541, 0.0588432923, 0.0390509814, -0.0536310598, 0.0308093131, -0.0774256513, -0.1214050576, 0.0830197409, -0.0250088982, 0.1096908003, -0.0771633014, 0.0228294842, 0.0370634086, -0.0708103925, -0.0875164792, 0.0792708844, -0.0431753173, 0.0722438619, -0.0823913217, 0.0730388090, -0.0465041697, -0.0578493029, -0.0039385948, -0.0379395038, -0.0167440623, 0.0068614907, -0.0372741185, 0.0961581767, -0.0480403043, -0.0094262166, 0.0386583693, 0.1026037410, 0.0634911582, 0.0921700746, 0.0137098702, -0.0896840841, -0.0880940780, 0.0723203942, 0.0734153986, -0.1135801375, 0.0168957282, -0.0013402888, -0.0720620453, 0.0037324855, -0.0408652313, -0.0704531744, -0.0910697505, -0.0472934060, 0.1150465384, -0.0321557783, 0.0103754858, -0.0202379674, -0.0926323831, -0.0691006631, 0.0815512910, 0.0682394803, 0.0274825785, 0.1180615053, -0.0117139928, -0.1183693781, 0.0877089426, 0.0912954211, -0.0594526269, 0.0349318683, -0.0892949328, -0.0301494766, -0.0605427735, -0.0310403015, -0.0985094011, -0.0300561525, 0.0097032385, 0.0659348965, 0.0910077989, -0.0644915327, -0.0123048155, -0.1063359007, -0.0096454369, 0.0333777331, 0.0658718795, -0.0204124376, 0.0687871575, -0.0827970430, -0.0411364287, 0.1069164053, 0.0910684243, -0.0887061432, -0.0927801058, 0.0152773652, 0.0823794380, -0.0397098809, -0.1037529558, 0.0605504960, 0.0216296054, -0.0986901522, -0.0352367349, -0.0995457917, 0.0792078003, -0.0937679186, 0.0177558344, -0.0957781076, 0.0234739035, -0.0819362774, -0.0830210522, 0.0289228205, 0.0111367637, -0.0043177158, 0.1023457721, -0.0687392652, -0.0099367229, -0.1102241576, -0.0203785077, 0.0288257729, -0.0635367408, 0.0071440609, -0.0611385293, -0.0500946976, -0.0685506910, -0.0280835181, 0.0533037968, 0.1021146625, 0.0107977204, -0.0506282300, 0.0760616139, -0.1015394628, -0.1173400506, 0.0831029266, 0.1091408283, -0.1146274284, 0.0768959299, 0.0368891731, 0.0878921822, -0.1010212451, -0.0536509007, -0.0947155431, -0.1180609912, -0.0583928227, -0.0054834313, 0.1202734187, -0.0026029635, 0.0044476567, 0.0396923311, -0.1209843680, 0.0056662536, -0.0099043548, 0.0306396894, 0.0797099099, 0.0212127715, 0.0523435660, -0.0969269127, 0.0091946442, 0.0430994406, 0.1086160988, 0.1105678752, -0.1201644987, -0.0616075285, -0.0106677208, -0.0703227371, -0.0162684638, 0.0130980527, 0.1088277474, -0.1151627675, -0.0423121452, 0.0427801646, 0.0636610016, -0.0388096385, -0.0351653993, 0.0221849047, 0.0398175865, 0.0157644395, -0.1047129259, -0.0761803985, 0.0079345247, 0.1076784804, -0.0818969011, 0.1107269078, -0.1032922938, 0.0022802867, -0.0099405050, -0.0560838468, 0.0225155968, -0.0103981011, 0.0423668660, -0.1183798984, -0.0476561598, -0.0078881988, 0.0003056092, -0.0892362669, -0.0074809287, 0.0830992088, 0.0939797089, -0.0438759476, -0.0657836571, -0.0942887813, -0.0701587349, -0.0470671616, 0.0024163160, -0.0349931158, 0.0979373157, 0.0439943969, -0.0706630796, -0.0443522893, -0.0376756079, -0.0169033483, 0.0140235964, 0.0222233031, -0.1044361815, -0.0900052860, 0.0956882834, -0.1174229980, 0.0723362789, -0.0025210863, -0.0522651747, -0.0714557469, -0.0605777688, 0.0961969718, 0.0692844614, 0.0402992293, -0.0235506706, -0.0625778362, -0.0119952494, 0.0568947941, -0.0135067822, 0.1204755008, 0.0948676616, -0.0357586294, 0.0217043422, -0.0879474208, -0.0682428330, -0.0154849933, -0.0259554517, 0.0911969319, 0.0552505739, 0.0048690736, 0.0269623045, 0.0845881402, 0.0353517830, 0.0414837338, -0.0948332921, -0.0928971395, -0.0885879099, -0.0352195054, -0.0387652405, -0.0220530219, 0.0347989500, 0.0025845820, -0.0938025266, 0.0880010128, 0.0932084322, 0.0342622064, 0.0574970618, -0.0905304700, 0.0248781554, 0.0481781289, -0.1021047831, 0.0769687742, 0.0760853812, -0.0666686520, -0.1169685945, -0.0241067875, 0.0961944684, -0.0375511423, -0.0210299194, 0.0573716462, 0.0987359956, -0.1088554263, 0.0322376974, -0.1149129495, -0.1027285680, -0.0168003459, 0.1009682342, 0.0115933381, -0.0321230292, 0.0364972316, -0.0401130915, -0.0669225231, -0.0554583035, -0.0088245608, -0.0127969552, 0.0025547831, -0.0672696829, -0.0235207845, 0.1211013570, -0.0429014191, 0.0361214280, 0.0157449339, 0.0747849941, 0.0036028803, 0.0845107585, -0.0860347748, -0.0786767080, 0.0313912444, -0.0356054865, -0.0017952716, -0.0943734869, 0.0979064479, -0.0641027912, 0.0763554946, -0.0506898127, 0.0005552709, -0.0909577385, 0.0320847183, -0.0639134869, 0.1150304526, 0.0934926197, -0.1199667826, -0.1158185750, 0.0395008363, -0.0491932146, 0.0532089844, -0.0096988734, -0.1215305701, -0.0656796843, -0.0043128394, -0.0251911953, 0.0018140620, -0.1223523691, -0.0705867186, 0.0756852925, -0.0120620159, -0.0885719955, 0.0763538629, 0.0523905195, -0.0542699024, -0.0026272582, 0.1095523611, -0.1040344015, -0.0342993215, -0.0188715886, -0.0378457867, -0.0860170648, 0.0121272346, 0.0449446887, 0.0447019897, 0.1130894870, -0.0826911330, -0.0392072573, -0.0589016341, 0.0572516657, 0.0345184542, -0.0380889364, -0.0308945924, 0.1025130451, 0.0718573630, 0.0232719984, 0.0702183321, -0.0984756052, -0.0177429132, -0.0284514260, -0.0652568936, -0.0285207480, -0.0370357148, 0.0708273575, 0.0080347108, -0.1110889092, 0.0115735987, -0.0767521933, -0.0026931777, -0.1062760130, -0.1203595027, 0.0457837246, 0.1105813459, 0.0516272970, 0.1142579913, 0.1066904217, 0.0030331991, 0.0978242978, -0.0214036088, 0.0900824070, -0.0835577995, 0.0053113690, -0.0845579877, -0.0820857435, 0.0850297958, 0.0885347798, -0.0419676416, -0.0572037324, 0.0167332571, 0.0076179504, 0.0470447503, -0.0584788769, 0.0240729153, -0.0128215561, 0.1136865839, 0.0926045254, 0.0006168541, 0.0739421546, 0.0173446815, 0.0891302899, 0.0651568547, 0.0783134848, 0.0956297666, 0.0166252032, 0.1035369635, 0.0163608678, -0.0015681526, 0.1155413538, 0.0818232745, -0.1098075733, 0.1003032923, -0.0273259059, -0.0825264305, -0.0502601452, -0.0902311355, 0.0440216549, 0.0989333466, 0.0438513160, 0.1035289317, -0.1152792647, -0.0416769236, -0.0606445670, 0.1104600802, -0.1038103774, -0.0426379032, -0.0922746509, -0.0411248654, 0.0155817196, 0.1075775549, 0.1194123775, 0.1176173836, -0.1177815571, 0.0568046980, -0.0302986018, 0.0850816965, -0.0733666793, 0.1213471517, -0.1002206802, -0.0137542253, -0.0588069409, -0.0074979961, -0.1083309650, 0.0083373263, -0.1054259539, -0.0338902846, -0.0937513337, 0.0143044442, -0.0971940532, 0.0604064539, -0.0628237650, 0.0040623890, -0.0387937538, 0.0712066516, 0.1046817154, 0.0285729580, -0.1137296855, 0.1089059114, 0.0738069192, 0.0392932817, 0.0530688390, -0.0956256837, 0.0124419099, 0.0699211136, 0.0900181308, 0.0923537388, -0.0999963060, 0.0046193390, -0.0227871444, 0.0465753004, 0.0585826524, -0.0931058079, -0.0922468379, -0.0925146490, 0.0771332830, -0.0657430813, -0.1052844897, 0.0287386682, -0.0474923886, -0.0879292861, 0.0924410671, 0.0518736169, -0.0653369650, 0.0386299565, 0.0310430303, -0.0298698414, 0.0125028947, -0.0184357744, 0.0383718982, 0.0548827089, -0.0793968737, -0.0127066243, 0.0142989112, 0.1053108424, 0.0909010917, 0.0402428731, 0.0128386533, 0.0345761515, 0.0258716773, -0.0843882188, -0.0517454706, -0.1200904772, 0.1156418398, 0.0237325449, -0.0259657018, -0.0464919470, 0.1077173203, 0.0587502904, 0.0798411667, 0.0439101122, 0.0292580817, -0.0213329885, 0.0458024144, 0.0974542871, 0.1027887389, -0.0189394355, -0.1203754246, 0.1090844274, -0.0321656168, 0.1101127118, -0.0844066590, 0.0829242244, 0.0027352404, -0.0713292509, 0.0585668124, 0.0648277253, 0.0523764156, 0.0682882965, -0.1194528937, 0.1176917553, -0.0647979602, -0.1135368273, 0.0185796879, 0.1212000847, -0.0867123827, 0.0430593938, 0.0488440394, -0.0008610845, 0.1133918092, -0.0590529069, -0.0457393117, -0.0052340324, 0.0629894584, -0.0912718177, -0.0762467831, 0.0675794631, -0.0201115012, -0.0530623272, 0.0208940227, -0.0593915135, 0.0555676892, -0.0224959012, 0.1155130267, -0.0351305902, -0.0783149302, 0.0028321706, 0.0629182383, -0.0708613470, -0.0253844857, -0.0363869742, -0.1026366800, 0.0213036723, 0.0245215483, 0.0948641226, -0.1146272123, -0.0104933959, -0.1091501117, 0.0732150748, 0.0292960722, 0.1092782915, -0.0073631788, -0.0672237203, -0.0739505515, -0.0221005008, 0.1099679694, 0.1108419001, 0.0334552452, 0.1070478335, 0.0382630862, -0.0613209456, 0.0037328943, -0.0983232856, 0.0725905225, 0.0687892884, 0.0449229181, 0.0576767474, -0.0695024133, 0.0644101501, 0.0346836224, 0.0404949449, 0.1181589141, 0.0671312585, 0.0119951619, 0.0379453301, -0.0321189426, 0.0909721628, 0.0877819434, 0.0472243465, -0.0341026857, -0.0957466885, 0.0811248049, -0.0502716191, 0.0660871193, 0.0148325590, -0.0294805150, 0.0715150684, 0.0811442286, -0.0353849977, 0.1031967774, -0.0369581878, -0.0224198047, -0.1017785817, 0.0916830674, -0.0814941600, -0.0801899657, 0.0724945888, -0.1168287694, -0.1214667708, -0.0726528242, -0.0829500258, -0.0503554977, 0.0245105531, 0.0927307010, -0.0608596839, -0.1131806150, -0.0644068047, -0.0187394712, 0.0672089010, 0.0983418375, -0.0776898265, 0.0530239716, -0.0761425942, -0.0877700374, 0.0592351891, -0.1030147895, -0.0459784642, -0.0877798498, -0.0696623027, -0.0507548712, 0.0361296013, 0.0736679211, 0.0127991745, 0.0803337470, 0.0288672373, 0.0392572507, 0.0705620348, -0.0641555414, -0.0932575166, -0.0290797129, -0.0468704551, 0.0573583618, -0.0623693056, -0.0637715980, 0.0270444006, 0.0066625057, 0.0106141530, 0.0163167324, 0.0877740085, 0.0855161101, -0.0858748034, 0.0043482152, 0.0232493095, -0.0940342993, 0.1223077774, 0.0572302751, -0.0313724391, -0.0834118277, 0.0381665342, 0.0134560326, -0.0198451951, -0.0056420318, -0.0567493327, 0.0871521086, -0.1176342294, 0.0956691131, 0.0604337826, -0.0458247662, -0.0335876234, 0.0097182328, 0.1029279158, -0.1140078306, 0.0516131669, 0.1035777554, -0.0206970237, 0.1165028140, 0.0650065765, 0.0704948530, 0.0476702489, -0.0202220529, 0.0499284752, 0.0610200800, -0.0141577134, 0.0795180202, -0.1024974659, -0.0778554380, -0.0647825822, -0.0971538126, -0.1062399670, 0.1041013151, 0.0679645687, 0.0866966844, -0.0197388474, -0.0408265255, 0.1207257435, 0.0152403396, -0.0979278535, -0.0409874208, 0.0562681444, -0.0112725589, 0.0215898771, -0.0493798032, -0.0951474532, -0.0991518795, 0.1143776476, 0.0883505270, 0.1158790663, 0.0168943703, 0.0073707416, 0.0977931991, -0.1131803691, -0.1033601835, -0.0170113314, 0.0628741607, 0.0721583590, -0.0296203531, -0.0575436205, -0.0311611891, -0.0074686646, 0.0994874090, 0.1018174216, 0.0248382539, 0.0938651264, -0.0592602566, -0.1172086373, -0.1007958502, -0.1180316433, -0.0875022635, -0.0681203976, -0.0568112656, -0.0660484731, 0.0320521034, 0.1083717719, -0.1094622388, 0.0181895439, -0.0399313234, 0.1151273921, -0.0218102653, 0.0268938001, -0.0297321472, -0.1073429734, -0.0710585639, 0.0382421911, 0.0534650981, -0.0442982092, -0.0406376459, 0.0104237096, -0.0986259878, 0.0506199487, 0.0669697225, -0.1179270521, -0.0493286140, -0.0201753173, -0.1132758111, 0.0902648643, 0.0716160685, 0.0316132829, -0.0138309486, 0.0384903513, -0.1041607335, -0.0710640252, -0.0940827280, -0.0983065069, 0.0054961480, -0.0138324229, 0.1075332835, 0.0058156126, 0.0799689889, -0.0425603315, 0.0715540946, 0.0419833809, -0.1019539759, 0.0077667548, 0.0979780927, -0.0708484873, -0.0128571363, -0.0047998982, 0.0609394722, 0.0333326906, 0.0812253281, -0.0067429524, -0.0931861326, -0.0493329093, 0.0078658890, 0.0093933223, 0.1156601682, 0.0558219776, 0.0458945408, 0.0125982771, -0.0209348146, 0.0819246843, -0.1163677424, 0.0696645230, -0.0889442712, -0.0033550146, -0.0908817127, -0.0999030843, -0.1004096344, 0.0680200681, 0.0285239164, 0.0864076912, 0.0828238949, -0.0443339236, 0.1100568697, 0.0440837368, -0.0376882069, 0.1181259602, 0.0887783095, 0.0085335812, -0.0232917666, -0.0852834582, 0.1032901928, 0.0245466884, -0.0167947542, 0.0506034233, 0.0297914241, -0.0480541140, 0.0705974922, -0.0696903914, 0.0600504279, 0.0760389492, 0.0529663153, -0.0260649677, -0.0584047958, 0.1074540392, -0.0975086987, 0.0312675647, 0.0982795730, -0.0563738197, 0.0918005109, -0.1184841022, -0.0967040434, 0.0061179511, 0.0403715894, -0.0132446522, -0.1158184931, 0.0725873113, 0.0281920563, -0.1102998853, -0.0193068311, -0.0539182127, -0.0071699903, 0.0457999632, 0.1205007583, -0.0213904399, 0.1158286482, -0.0899505094, -0.0744452477, -0.0545364246, -0.0011884916, -0.0488409586, -0.0965212807, -0.0058398927, 0.0724448860, -0.0920975804, 0.0259149522, 0.0656415671, 0.0976488739, 0.0184423737, -0.1150104180, -0.1144342273, -0.0245519597, -0.0636649057, -0.0520987362, -0.0284559093, -0.0129439924, -0.0863176510, -0.0872044042, -0.0907324031, 0.0610244758, 0.0671440139, -0.1023507789, 0.0509534739, -0.1199158430, 0.0603435710, 0.0807522014, 0.0086807208, 0.0150594153, -0.0516545698, 0.0298021697, -0.1058653966, -0.0688232630, 0.0497014001, 0.0195487700, 0.0240832958, -0.0598273538, -0.0769838244, 0.0679718703, -0.0492781140, -0.0334080569, 0.0059172292, -0.0098156305, -0.1051425189, -0.1052700207, 0.0748298317, -0.1073284745, -0.0389098413, 0.0276261270, 0.0490791425, -0.1047953889, 0.0261253677, 0.1053626165, 0.0446723811, 0.0858495012, -0.0822828412, -0.0541905202, 0.0872010887, 0.0086057344, 0.0444500819, -0.1014099345, 0.0324704982, -0.0099018291, 0.0103776902, 0.1065762937, 0.1016510800, 0.0971130356, 0.1128503308, -0.0595998690, -0.0387114994, 0.1118167788, 0.1159802750, -0.1068116203, -0.0144460211, -0.0639792830, -0.0743566528, -0.0272196885, 0.0913033634, 0.0781987756, -0.0632678494, 0.0255098715, -0.0949624106, 0.0628425404, -0.1131498963, -0.0457579866, 0.1159076989, -0.0597865172, -0.0893753916, 0.0031536208, 0.0101154428, 0.0880405828, -0.0576728471, -0.0033413342, 0.0341773815, 0.0096902149, 0.1094062328, -0.1003466100, -0.0767959654, 0.1118468121, -0.1162604466, 0.0855131596, 0.0651021972, 0.0417518653, -0.0781883299, -0.0103844646, -0.0196433924, -0.0107634393, 0.0078859935, 0.1202521473, -0.0662231296, 0.0939551219, -0.1165872738, -0.0999709889, 0.0416211821, 0.0892465338, -0.0216376781, -0.0322584026, -0.0361404084, -0.0581206195, 0.1198813915, 0.1058451086, -0.0496922024, 0.0899466649, -0.0167788677, -0.0916637555, 0.0655992404, -0.0640933290, 0.0755221769, 0.0176320691, -0.1161152199, 0.1187641621, 0.0025426506, 0.0080759414, -0.0380000807, 0.0802212954, 0.0550063588, 0.0768203512, 0.0101945754, 0.0006945266, -0.0131271360, 0.0755811632, -0.0346840322, -0.1074192449, -0.0392621420, 0.0946346298, 0.0367750153, 0.0531508029, 0.0113258492, 0.0091080656, -0.0540902764, -0.0134936422, 0.0717973784, 0.0873349607, -0.0683313385, 0.1156471893, -0.0147135826, 0.0693515390, 0.1074919403, -0.0552479625, 0.0315540768, 0.1068375185, -0.1216325834, 0.1107215509, -0.1204574481, -0.0882917643, 0.0783941373, -0.0977248698, 0.0203993134, 0.0255107488, 0.0682448372, -0.1153461039, -0.1178137064, -0.0384600125, 0.0732288882, 0.0788842887, -0.0370216668, -0.0475997888, 0.0585999377, 0.0108387759, -0.1037598625, -0.0115672909, 0.1002183780, 0.0390988104, 0.0781047791, 0.0108201895, 0.1203607395, 0.0614893995, 0.0559148639, 0.0132928332, 0.0115621230, 0.1137390137, -0.0198409464, -0.0703395382, 0.0818059593, 0.0079000685, -0.1126967594, -0.0792203993, 0.0924402624, -0.0754524618, 0.0127924150, 0.0104495520, -0.0425589010, 0.0657600760, 0.0971414894, 0.1033859998, 0.0623721667, 0.0335398242, -0.1167226881, -0.0437135920, 0.0363689288, -0.0770154670, -0.0271890294, 0.0009825865, -0.0669481754, 0.0463474207, 0.0182849411, 0.0850401148, 0.0889790282, 0.0149860932, 0.1169294715, 0.0051300214, 0.0089881113, 0.0225552805, -0.0696970522, -0.0758385360, 0.0968462080, -0.0169528145, 0.0857320130, 0.1163652614, 0.0121830357, 0.0575403646, 0.1129591763, 0.0552886389, -0.0906780288, 0.0675763264, -0.0425184295, 0.1208113879, -0.0198553577, -0.0872868821, 0.0260451119, 0.0959595442, -0.0018100177, 0.0159097388, 0.1209390685, 0.0215870161, -0.0622937344, -0.0672749504, 0.1082158834, 0.0882655829, -0.0877934471, 0.0095251612, 0.0759396553, 0.0988008678, -0.0796507224, -0.0455981307, 0.0452618301, -0.0719148591, 0.0344911069, 0.0702598691, -0.0256805029, 0.0553390235, -0.0046216897, -0.0610185899, 0.0040069087, -0.0379958153, 0.1098822951, 0.0656701550, 0.0562481247, -0.0596516579, -0.1003820747, -0.0194175150, 0.0182410236, -0.0382777601, 0.0185396839, -0.0133912666, 0.0233797468, 0.0343754441, 0.1077740118, -0.0227629524, -0.0499097444, -0.0885494351, -0.0034194593, 0.0430309363, -0.0894092545, 0.0129657034, 0.0394649953, 0.1142503992, -0.0076145488, -0.1216015145, 0.0345929265, -0.0119985053, -0.0927639753, 0.0063390406, -0.1149784848, -0.0846436918, -0.0618229099, 0.0223953649, -0.0129845077, 0.0860248730, -0.0317145325, 0.1222420037, 0.0554956086, -0.0862786993, 0.0303704627, 0.0238757413, -0.0221255552, -0.0118878214, 0.0216281600, 0.0899450034, 0.1216108724, 0.0075172540, -0.0252961405, -0.0854767039, 0.0187412240, 0.1115128323, 0.0160255618, -0.0754499361, 0.1000321954, -0.0167261772, -0.0457803383, 0.0747362897, -0.0711334497, -0.0912443548, -0.0313782357, -0.0768269598, -0.0717873722, -0.1082269475, 0.0511142351, 0.0849748701, 0.0332218632, -0.1071258858, 0.1188587546, 0.1160336658, 0.0795598105, 0.0866944045, 0.0242921226, 0.1115771011, -0.0052998494, 0.0902503654, -0.0258416440, -0.0974179879, 0.0777335539, -0.0576470494, 0.0909399390, -0.0309077036, -0.0638166294, -0.0015884174, 0.1111627221, -0.0635478124, 0.1059043407, -0.0701174438, 0.0773530304, -0.0366057120, 0.1091325507, -0.1166651174, 0.0732370913, 0.0801867917, 0.0499428548, 0.0044960850, -0.0665586591, 0.0163805634, -0.0295650195, 0.1095164344, -0.0421762615, -0.0301667769, -0.0432837084, 0.0259905066, 0.0301491395, 0.0924280137, 0.0656293780, 0.0876424685, -0.0852450579, 0.1206053644, -0.0117666991, 0.1179763824, -0.0495803803, 0.0031393711, -0.1177926585, -0.0265006348, 0.0498740897, 0.0380253233, 0.0188086461, -0.0948470160, 0.0983894467, 0.0487543494, -0.0592323579, -0.0333163701, 0.0440384597, -0.0653765127, -0.0008570987, -0.0146820173, 0.0264060255, -0.0403138436, -0.0014841143, -0.0623047873, 0.0267293751, 0.0476609319, -0.0665103123, -0.0508872643, 0.0580213517, 0.0198721178, -0.0231004320, -0.0403958969, 0.0656395182, -0.1205047742, 0.0487029292, -0.0520075150, -0.0545511432, 0.0245755240, -0.1083904877, 0.1022095531, -0.0829179436, 0.0202929359, -0.0750498101, -0.0519182049, -0.0942571685, 0.1132623777, -0.0782029629, -0.0526652187, 0.1196685657, 0.1194922253, -0.0070509706, 0.0458428711, 0.1135041863, 0.0705341473, 0.0770257711, 0.0546054542, -0.0418563895, 0.0691734925, -0.0257669948, 0.0035917258, 0.1060578451, 0.0690047443, 0.0927329808, -0.0621599518, 0.0101810703, -0.1074536145, 0.0825133175, -0.0131084044, 0.0244823471, 0.0826410279, 0.0626976863, 0.0948952660, -0.0218590889, -0.0983299688, 0.0961742476, -0.0770719200, -0.0551607683, -0.0347017124, -0.1183629334, 0.0733550861, 0.0274806954, -0.0567709543, -0.0209410209, 0.0914484486, 0.0108196354, -0.1179659590, -0.0449360870, -0.0613461286, -0.0034084218, -0.0949936286, 0.0958924815, -0.0277298465, -0.0457743108, 0.0558642596, 0.0350962207, -0.1141951904, -0.1047420949, 0.0356709547, 0.0905724540, 0.0432646982, -0.0886679143, -0.0546446107, 0.0128839575, -0.0536673404, 0.0695322007, 0.0670590475, 0.0173027050, -0.0711214617, -0.1010513827, -0.0485928580, 0.0744971335, 0.0183133818, 0.0002285353, -0.0548894554, -0.0297408346, -0.0169959869, -0.0409774333, -0.0535093546, -0.0087840455, -0.0386981554, 0.1219198108, -0.1193715110, -0.0664295182, 0.0852525160, 0.0733956173, 0.0582145974, -0.0763284564, -0.1043107659, -0.0197501052, -0.0775455758, 0.1059381515, -0.0901985914, -0.0794610083, 0.0359697007, 0.1013548598, 0.0171234310, -0.1102047935, 0.0589339733, 0.0973822922, -0.0238684267, 0.0427220277, 0.0039527277, 0.0332581885, -0.0193832200, -0.0154827014, -0.0526287034, -0.0171323661, 0.1003711522, -0.1139393151, 0.0833518058, -0.0004164240, 0.0977369398, 0.0730488226, 0.0654721335, 0.1077429727, 0.0418175384, 0.0548167750, -0.0837465003, -0.0284708738, -0.0613677539, 0.0847785100, -0.0815693960, 0.0445283353, -0.0152478730, 0.0801233277, -0.1122692376, -0.0934051052, -0.0138056763, 0.0434120297, 0.0487904251, -0.0466619506, 0.0186068732, -0.0661810860, 0.0765177608, 0.0887347981, -0.0053734193, -0.0011413334, 0.0026542975, 0.0922326222, -0.0904962718, -0.0726133734, 0.1003284156, -0.0002666124, 0.0950312838, 0.1067546308, 0.0963832512, 0.0412302352, 0.0744702592, 0.0926655382, 0.0166404303, -0.0317340530, -0.0247075669, 0.0298902951, -0.0903612226, 0.0021900143, -0.0568317212, -0.0507653244, -0.1127027869, -0.1059402525, 0.1036575139, -0.0607171580, 0.0764017627, 0.0593943447, -0.0645680353, -0.0261168424, -0.0089184837, 0.0912737846, 0.0772014409, 0.0879523531, 0.0829844624, -0.0867793038, -0.0498437360, 0.0103063397, 0.0137733510, -0.0684656799, 0.0600648262, 0.0951491222, 0.0650262311, 0.0922603607, -0.0202736501, -0.0943347290, 0.0122393193, -0.0548585765, 0.0180216432, 0.0842988417, -0.0729299039, -0.0200812351, -0.0884027183, 0.0112778740, -0.0454386957, -0.0085880542, 0.0700150132, -0.0077906842, 0.0727700740, 0.0880536065, -0.0828631222, 0.0343568586, -0.0268616509, 0.0202232935, 0.0248960834, 0.0251446795, 0.0287185945, -0.0492616743, 0.0268673170, 0.0915575251, 0.0007222230, 0.0368949398, 0.0461586416, -0.0340606831, -0.0151294814, -0.0510678068, 0.1040211469, -0.0544728562, 0.0282469671, -0.0476490781, -0.0872998908, 0.0623702258, 0.1155981272, 0.0342499875, -0.0869671553, 0.0945942998, 0.0190931000, 0.0700443685, -0.0658683479, -0.0378061756, 0.0786428228, -0.0560515933, 0.1209432557, 0.0354610793, 0.0685531572, -0.0680211037, 0.1206784695, 0.0814749748, -0.0935546979, -0.0194981657, 0.1199495867, -0.0812434778, -0.0916737542, -0.0778004527, -0.0928741768, -0.0195927750, 0.0457814336, -0.0188030843, -0.0465572961, 0.0345102176, -0.0903962925, 0.0258644931, 0.0454351790, -0.0524902381, 0.1215571314, -0.0446054973, 0.0511635840, 0.1133504733, -0.0015528516, 0.0319948271, 0.1183099970, 0.0304052401, -0.0113797383, 0.0684725270, -0.1206001937, 0.0560939945, -0.0816518590, -0.0141398720, -0.0572341159, -0.0796008185, -0.0576981790, 0.1028673276, -0.1053871885, 0.0120881349, -0.0196892079, -0.1080434695, -0.0801546872, -0.0880306512, 0.0700165257, -0.0615148209, -0.0687135607, -0.1209285408, -0.0467090644, -0.1131173521, 0.0088610463, -0.0526602566, -0.0269892272, 0.1073226780, 0.0250082705, -0.0434088446, -0.0949249044, 0.1222316697, 0.0927215442, -0.0235579424, 0.0362648442, -0.0490533598, 0.0559506044, 0.0903192312, -0.0682130083, -0.1189126894, 0.1132100075, -0.0172372386, -0.0365976542, -0.0143219503, -0.0072940476, -0.0212047268, 0.1052834988, -0.0395217761, -0.0387952588, 0.0045943581, 0.1208691597, -0.0236832108, 0.1037788540, 0.0298321433, 0.0412015431, 0.0268679876, -0.0154010281, -0.0689632371, 0.0307691190, 0.0929070562, 0.1200825945, -0.1005174592, 0.0627400875, 0.1024707481, 0.0660514608, 0.0637858957, 0.0786342919, -0.1115849987, -0.0297919344, 0.0081163542, -0.0920122042, -0.0483359396, 0.0026662403, 0.0233707093, 0.0264245681, 0.0621732399, 0.0106312502, 0.0302452818, -0.0889739767, 0.1166885421, 0.0305795372, 0.0458000787, -0.0893671736, -0.0460898168, 0.0409822203, -0.0954882801, 0.0317623354, -0.0033045420, -0.0907147229, 0.1192771196, 0.1074484736, 0.0993604735, -0.0424734317, -0.0168841928, -0.1004719809, -0.0133955879, 0.0144085288, -0.1140404940, 0.0603105314, 0.0508040562, 0.0032591356, 0.1145762280, -0.0984483734, -0.1212215498, -0.0855264887, 0.0870816335, 0.0048650731, 0.0741564259, -0.0603326783, 0.0129902456, -0.0862378329, -0.0960896313, -0.1075444818, -0.0851961449, 0.0183734465, -0.0766410008, -0.0905393288, 0.0284587126, 0.0191995502, -0.0551074073, -0.0173699819, 0.0957659557, 0.0045630555, -0.1002733558, -0.1053095013, -0.0128026931, -0.0206640847, 0.0769100040, -0.0229139607, 0.0004043643, -0.1008008420, 0.0064277072, 0.0942749083, -0.1160121635, -0.0685036480, 0.1101062447, -0.0185673516, -0.0385500081, -0.0959598199, -0.0683474317, 0.0633404180, 0.0303694420, 0.0384347253, -0.0440316275, 0.0613114536, 0.0252939947, -0.0597665757, -0.0547622032, -0.0055463575, -0.0289873369, -0.0706108809, -0.0726059899, 0.1205047816, -0.0441797152, 0.0121762026, 0.0126875564, 0.0215147752, -0.0887359828, 0.1126364842, -0.0949184075, 0.1007803306, 0.0547068380, 0.0571516678, 0.0449492149, -0.0285929888, -0.1108776107, 0.0666595399, -0.0937120318, -0.0733534992, -0.0186656974, 0.0080993008, -0.0996064544, -0.0331087112, -0.1143186241, -0.0218095798, -0.0396407209, 0.0231353715, -0.0549598448, 0.0146146668, 0.0337145142, 0.0659715831, 0.0971053392, 0.0177468844, 0.0181130115, -0.0011187616, 0.0041073281, -0.0448005423, 0.0006836203, 0.0354478061, 0.0900638923, -0.0107126888, -0.0969453976, 0.0230846349, 0.0443831533, 0.0205542929, 0.0534185991, 0.1170055941, 0.1093049794, -0.0652817935, -0.0684091598, -0.1148051843, 0.0058402573, 0.0605584830, 0.1054644957, -0.0980870053, 0.0155244572, -0.0786774084, -0.1158688292, 0.0543385521, 0.1088382751, -0.0193648823, -0.1174993441, 0.0922177285, 0.1007573381, 0.0821936205, 0.0140352473, 0.0299683176, 0.0013952728, 0.0512171686, -0.0766584203, -0.0224015992, -0.0528038479, 0.0183624383, -0.1018016264, 0.0382086113, -0.1182832643, 0.0321202837, 0.0435244218, -0.0891281888, -0.0404743589, -0.0968856663, 0.0923815519, 0.0692053288, 0.1057710946, 0.0687924251, -0.1213718131, 0.0935080424, 0.0222116373, 0.0326995887, 0.0373135544, 0.0938978791, -0.0012546300, -0.0333709717, -0.0363532193, 0.0050541153, -0.0903539956, -0.0217227247, -0.0529124290, -0.0206993446, 0.0285241790, 0.0795358643, 0.0486959629, 0.0055285599, -0.0298843384, -0.1164412424, -0.0034782686, 0.0153557537, -0.0581357442, 0.0220499113, 0.0234604422, -0.0682273731, 0.1100544631, 0.0952922702, 0.0851516426, -0.0507026464, 0.0385736860, 0.0590948686, 0.1025460362, -0.0192802884, 0.0099445051, -0.1097029895, -0.0045771301, -0.0357860476, -0.0970440954, -0.1038790271, -0.1021772400, -0.0964153856, 0.0356993973, 0.0054087806, -0.0651338622, -0.0177732818, 0.0829829350, 0.0291583780, 0.0209411364, 0.0181121491, -0.0667843595, 0.1065152213, 0.0074270982, 0.0968680754, -0.0285718180, 0.0371715985, 0.0348061025, 0.0397902839, -0.0659286454, 0.0461375751, 0.0852240771, 0.0264584403, 0.0021429437, 0.1187993512, 0.0844592378, 0.0649500787, 0.0292039588, -0.0223938618, -0.1095652804, 0.0301708952, -0.1194205657, 0.0865211785, -0.0419101007, -0.0927183628, 0.1147013232, -0.0390581936, 0.1116572469, 0.0852617323, -0.0226704460, 0.0988913551, 0.0756729990, -0.0525312908, 0.0899171308, 0.0274471734, -0.0764381438, -0.0621889643, 0.1210650653, 0.0212203488, -0.0890330821, -0.0373616740, 0.0088090999, 0.0774156228, -0.0049673906, -0.1154538691, 0.1120084748, -0.0902229324, -0.0999901593, 0.0923387036, -0.0648068339, -0.0624551252, -0.0515028164, -0.0193881392, 0.0514666401, 0.0786411539, 0.0189168192, -0.0313765556, 0.0899344161, -0.0684256256, 0.0537588969, 0.0888261646, -0.1224170476, 0.0173733551, -0.0373531766, 0.1108911484, -0.0614992119, -0.0913567990, -0.1070913523, -0.0123205390, 0.0222221501, -0.0277819838, -0.1149858758, 0.0132854301, 0.0610213801, -0.0966327637, 0.1108826473, -0.0749835670, 0.0185359903, 0.0983125493, 0.0398458242, -0.0966735035, 0.0704718456, -0.0981144011, 0.0080519672, 0.0134259276, 0.0461298786, 0.0097310953, -0.0933803767, 0.0913533121, -0.0052013574, 0.0672226548, 0.0568277650, 0.0053344662, 0.1143093109, 0.0287301857, -0.0601100847, -0.0700349808, -0.0661351681, -0.0465538390, -0.0949167609, -0.0030964469, 0.0324018039, 0.0287540425, -0.0440811366, -0.0338392556, 0.0438440442, 0.0816667601, 0.0054981625, 0.0719151422, -0.0113619408, 0.0824417174, -0.0546129756, 0.0532557927, -0.0453253277, -0.1091276035, -0.0067571434, 0.0843496025, -0.0084391767, -0.1189844757, -0.0058745239, -0.0070797033, -0.0384250432, -0.0878742859, -0.0310985986, -0.0691851377, -0.0187841766, -0.0386830866, -0.1108868718, 0.1073417440, -0.1196306199, -0.0952934548, -0.0371939354, -0.0947652236, 0.1144659668, -0.0725201815, -0.0044842297, 0.0693157092, -0.0637021437, -0.0172008984, 0.0075503960, -0.1188729033, -0.0093174307, -0.0672976822, 0.0345325433, 0.0719647631, 0.0534359291, -0.0227134582, -0.0332802050, -0.0483174287, -0.1095456034, 0.1001777276, -0.0818346366, -0.1040565968, 0.0153233120, -0.0991599858, -0.0593378879, -0.1083618999, -0.1008732617, 0.0527585149, 0.0599416867, -0.0439965278, -0.1107883453, -0.0033501820, -0.0843923390, 0.0137434797, 0.0312876850, 0.0724692866, -0.0402514152, 0.0019896135, 0.1201738417, 0.0423026532, 0.0840463266, 0.0366938822, -0.1206018627, -0.1112315208, -0.0972255319, 0.0313911699, 0.0040368242, -0.0518984646, 0.0562453680, -0.0625563189, 0.0915786922, -0.1169027388, 0.0708544105, -0.0565322302, -0.0122480355, 0.0680014193, 0.1140959710, 0.1163246781, 0.0369124599, -0.1150734350, 0.0925606564, 0.1044056714, 0.0884427875, 0.0200876445, 0.0943595022, 0.0589329675, 0.1190758720, -0.0367795825, 0.1024330333, 0.0491126515, 0.0938287005, 0.0107399765, 0.0915974677, -0.0688367113, -0.0213731825, 0.0265339371, -0.1005903557, 0.0817298070, -0.0562361963, -0.0796773210, 0.0246532988, 0.0508615822, 0.0787775815, -0.0712023750, -0.0133898500, -0.0365155265, -0.0289972518, 0.0032411630, 0.0657149479, -0.0039035985, 0.0953415334, 0.0592375398, -0.0032139483, 0.0232690200, 0.0482245833, -0.0649290830, 0.0807954296, -0.0895563364, -0.0976323038, -0.0164107420, -0.0335727185, 0.0051528704, -0.0733504593, -0.1025055945, -0.0088360952, -0.1028212532, 0.1052209958, 0.0783795342, 0.0935605392, 0.0584187508, 0.0485671461, 0.1118009686, 0.0733875558, -0.0763291419, -0.1105689704, -0.0365445502, 0.0743723512, -0.0630467311, 0.0358800739, -0.0227252245, 0.0059391293, -0.1157614440, -0.1007361263, -0.1220573336, 0.0387578234, 0.0181417298, -0.0498546436, 0.0421935469, -0.1089571342, 0.0135607887, -0.0666434839, 0.0501423217, 0.0442601927, 0.1176075265, 0.1006457359, -0.0846135467, 0.0468100384, 0.0395213813, -0.0555403121, -0.0988528728, 0.0317065902, -0.0815964341, -0.0828138217, 0.0408351570, 0.0730775967, -0.0779282153, -0.0851449743, 0.0815738216, -0.0769321546, -0.0704487935, -0.1053693593, 0.0957532972, 0.1058307067, -0.1149559468, 0.0591898859, -0.0668635666, -0.0151201515, 0.0409196019, 0.0212952476, -0.0380969085, 0.1105291098, -0.0489129052, -0.0225967448, -0.0110002961, 0.0193653479, -0.1058103442, -0.0841029957, 0.0799145028, 0.0202099942, 0.0620034710, 0.0447118171, -0.0332964994, 0.0058945259, -0.0071292999, -0.0209394731, 0.0952221900, -0.0953714028, -0.0684502572, -0.0331037603, -0.0704613924, -0.0261935797, -0.0095924679, -0.1211693659, 0.0615949295, -0.0476416014, 0.0971067846, 0.0914428383, -0.0780571774, 0.1022342965, 0.0588778518, -0.0815807208, -0.0739485845, 0.1002238318, -0.0841453299, -0.0401419289, 0.0946557373, 0.0619071536, 0.0618246198, 0.0779766589, 0.0565123446, 0.0847785249, 0.0644457564, -0.0126060592, 0.0774255246, -0.1099597961, 0.0000029638, 0.1056614071, 0.0854846612, 0.0461903252, -0.0385353789, 0.0382798016, 0.0498862229, -0.0336487405, -0.0027394160, 0.0972978771, 0.0565306395, 0.0055225301, -0.1183248162, -0.0517352372, -0.0327381752, 0.0271518137, 0.0691239685, -0.0555513650, 0.0327778719, 0.1097041890, -0.0902396888, 0.0233130828, -0.1118119135, -0.0112892613, 0.0117467996, -0.0690389946, -0.0091169421, -0.0213319808, -0.0194377806, 0.0585525632, 0.0496081039, 0.0130514931, 0.0975574926, -0.0910422429, -0.0345658734, 0.1205314472, -0.0022421952, -0.0147499368, 0.0521241985, 0.0777399093, -0.1073076129, 0.0414301232, -0.0525937229, 0.0382606909, 0.0827608183, 0.0674811900, -0.0916688517, -0.0838353261, 0.0845286697, -0.1151603758, 0.0430628657, -0.0485948287, -0.0013156147, -0.0588016994, -0.0631767511, 0.0469856225, 0.0313436612, 0.1125471070, 0.0013477349, 0.0439548008, -0.1117426530, 0.0156323519, -0.1137845516, 0.0187499113, 0.0619578734, -0.0641967729, -0.0459732078, 0.0036722745, 0.1029615849, -0.0435492545, -0.0133392755, -0.0259676725, -0.0157542340, -0.0809305683, -0.0736210272, -0.0920791700, 0.0093421340, -0.1075560600, 0.0182524994, -0.0830191225, -0.0099440524, 0.0144873839, -0.0483118780, -0.0982060432, -0.0402742065, 0.0572408885, -0.0885002762, -0.0572540015, -0.0381779522, 0.1198308915, -0.0614941604, -0.1004594937, -0.0241574794, -0.0470401682, 0.1022828594, -0.0389169082, 0.0995289311, 0.1181746125, -0.1001788080, -0.0074104834, 0.0234175473, 0.1024796069, 0.0430053733, -0.1112179980, 0.0595782772, 0.0974918827, -0.0206388272, 0.1166559830, 0.0580160804, 0.0939272344, 0.0284046624, -0.0437828712, 0.0383543931, -0.0057093091, -0.0456397980, 0.0613925159, -0.0704863146, 0.0782492310, -0.1216095313, -0.1198847070, -0.0646016449, 0.0002668606, 0.0485771336, 0.0803005323, 0.0611432604, 0.0325163268, 0.0583651252, 0.1051230878, -0.0792091414, 0.0893590599, 0.0978621393, 0.0029982904, 0.0884357914, 0.0530007891, -0.0256247893, -0.1059452891, 0.0986675695, -0.0634438545, -0.0093017071, -0.0124543058, -0.1020512283, -0.0552630275, -0.0922190398, -0.0287243016, -0.0848488212, 0.0118833976, -0.0011845934, 0.0985718220, -0.0355850495, -0.0991498679, 0.0689254925, -0.0350086801, 0.0486593023, 0.0609096177, 0.0095359944, 0.0326183662, 0.0075556664, -0.0508549102, -0.0643478185, 0.0322934873, -0.0701744258, 0.0375298262, -0.0441771187, -0.0912718996, -0.0894256309, -0.0922147930, -0.1187569648, -0.0508774370, 0.0331527144, -0.0115450555, 0.0723602101, -0.0024718547, -0.0852309540, 0.0832252353, -0.0981867015, 0.0450230911, -0.0303533953, -0.0740357563, -0.0679146722, -0.0571074896, -0.0480865128, 0.0762598962, -0.1176135167, -0.0961780474, 0.0511082374, -0.0086682374, -0.0188744646, 0.0077414964, -0.0738191381, -0.0046071042, -0.0100391433, 0.1068844274, 0.0744876638, -0.1209214702, 0.0613938421, 0.0390200578, 0.0364621766, 0.0902001560, -0.0337523110, 0.0622565188, -0.0525397174, -0.0494448766, -0.0427016467, -0.0455111414, 0.1067810878, -0.0293788984, 0.0896508843, 0.0476602167, -0.1003825516, -0.0163495243, 0.0290251076, -0.0634012967, -0.0377301835, -0.0831181854, 0.0373006016, 0.0761892870, -0.0005342467, -0.0228488296, 0.0727658868, -0.0244920999, -0.0723566636, -0.0853483528, 0.0012259847, 0.0364969112, -0.1074991971, -0.0481347367, -0.0244642273, 0.0706851706, -0.0243416745, 0.0604051836, 0.1200702116, -0.0048732492, -0.0277409721, -0.0087284781, -0.0858854055, -0.1140399650, 0.1093801558, -0.0534083061, -0.0699243397, -0.1077272594, -0.0320716947, -0.0248768553, 0.0072336178, -0.1123344824, -0.0279280860, -0.1059030816, 0.0053684409, -0.0659649596, -0.0341954567, 0.0757183060, -0.0140971374, -0.0445323065, 0.0671767369, 0.0149704274, 0.0958352387, -0.0093196649, -0.0127692884, -0.0297586471, 0.0753368586, -0.0972882956, -0.1173029691, -0.0104140444, 0.0931090191, 0.0713687763, 0.0604207180, -0.0902812406, 0.0517741181, 0.0313717090, 0.0923400149, -0.0859780833, 0.0385434218, -0.0091151614, 0.0560941547, 0.0189496260, -0.0786139295, 0.0961304083, -0.0591339245, 0.1193499938, 0.0893170387, -0.0611176379, -0.0892639980, 0.0654978156, 0.1093644723, 0.0400377400, 0.0601644553, 0.0136426222, 0.1040016860, -0.0053485408, -0.0189417265, -0.0677090585, 0.1127982289, -0.0677769929, 0.1189617738, 0.0960402340, -0.0990767926, 0.0343300253, -0.0009019647, 0.0121633839, -0.0897745788, -0.0677492172, -0.0683450922, -0.0062128082, -0.1052798480, -0.0418237410, 0.1161229759, 0.0797098503, 0.0101421904, 0.0032936502, -0.0073168236, 0.0437052287, -0.0027632143, 0.0694930702, -0.0714593679, 0.1044269875, -0.0980161130, -0.0110297007, -0.0728605688, 0.0526800081, 0.1139053777, -0.0916835815, -0.0266828872, -0.0754342601, -0.0520733297, 0.0337932669, 0.0735713914, -0.0083183907, -0.1174722314, 0.0265937988, -0.0369719975, 0.0807313323, -0.0812614635, 0.1140871793, 0.0533959232, -0.0261983685, 0.0426088907, 0.0609881058, -0.1010875478, 0.0019556244, -0.0300639495, -0.0395571813, 0.0514855459, 0.1077445373, -0.0862636641, -0.0957746580, -0.0775401592, -0.0367394499, 0.0314287059, 0.0749168918, 0.0880998001, 0.0919312015, -0.0238854662, -0.0968895704, -0.0872773305, -0.0674429983, 0.0249196924, 0.0896542966, -0.1008070037, 0.0776531398, 0.0805684850, 0.1218630001, 0.1160944924, 0.0008103345, 0.1014469117, -0.0584620982, 0.1211357564, -0.0122201787, -0.0710535124, -0.0248840824, -0.0265393108, -0.0496071689, 0.0519147143, 0.0121268835, -0.0728846714, 0.0520426407, -0.0318826959, 0.0596759357, -0.0389284268, 0.0613837093, -0.0074916012, -0.1223999634, -0.0103030689, -0.0007378305, 0.0145207597, -0.0345193148, 0.0676328763, 0.0435442030, -0.0732861012, 0.0821358785, 0.0055473796, -0.1131466255, -0.0816335753, 0.0936470628, 0.0407353640, 0.0960166305, 0.0759118870, -0.0557080396, 0.0114533370, -0.0066483584, -0.0340774134, -0.0872520581, -0.0784646571, 0.0611327626, 0.0213316306, 0.0451934002, 0.0473639518, 0.0038593749, 0.0211865641, -0.0580402873, -0.0916748494, 0.0361694619, 0.0764669999, 0.1138834059, -0.1176948920, -0.0648894385, 0.0947292373, -0.1204724312, 0.0991449431, -0.0065428726, 0.0246810094, 0.0965186208, -0.0368634164, 0.0343971699, -0.0220044479, -0.0307270996, 0.0268318970, 0.0959142074, 0.1000440046, -0.0462083556, -0.0145250373, 0.0120600443, -0.0158858821, -0.1110002548, 0.0524757542, 0.0192820262, -0.0578263961, 0.0154598374, 0.0091153514, -0.0223207735, 0.0509076156, -0.0488415696, -0.0798960775, 0.0650746748, -0.0288925972, -0.0730084404, -0.0075499727, -0.0830638036, 0.0628281236, -0.0086926054, 0.0013281123, -0.0127940495, 0.0356601663, 0.0161791407, -0.0102774454, -0.0266399495, -0.0054870374, -0.1073026955, 0.0458858684, -0.0206211619, -0.0294048712, 0.0586770438, -0.0496487953, -0.0899390727, 0.1062226966, -0.0078719044, 0.0092734555, 0.0548664331, -0.0439219214, 0.0514370315, 0.0108690560, -0.1022752374, -0.0303944517, 0.0523446165, -0.0859473795, -0.0267780516, 0.0572305508, -0.0733737648, 0.0610654876, 0.0293941982, 0.0181666948, -0.0841668993, -0.0605063923, 0.1046136022, 0.0589178987, 0.0144631620, 0.0028041238, 0.0737625882, 0.0621502437, -0.0163339023, -0.0316979922, 0.0924785882, -0.1141056344, 0.1010696366, -0.0865189284, -0.1024913490, -0.0827132240, -0.0737262070, -0.1160973832, 0.0092711924, -0.0496143959, 0.0944895595, -0.0033807107, -0.0207539499, -0.0280829631, -0.0277484898, -0.0581627972, -0.0860040709, 0.0372168571, -0.0275988970, 0.0180247091, 0.1050292253, -0.0574888587, -0.1197041720, 0.0188583452, -0.0413936824, 0.1042167097, 0.0895036012, -0.0646254122, -0.1031196490, -0.0355547220, -0.1115662158, 0.0932099372, -0.0970001742, -0.0346850380, 0.1171562374, -0.0596255660, -0.0440095514, 0.0712153539, 0.0772427619, 0.0782011375, -0.1115270406, -0.0013534727, -0.0514054634, 0.1007017568, -0.0744626075, -0.1123547927, -0.0675449818, 0.0598909222, 0.0158990957, -0.0792491063, -0.0089450702, 0.0054500699, -0.0348705351, 0.0326881111, 0.0993915871, 0.1117671952, -0.0402330756, -0.0631609783, 0.0030466020, 0.0303505771, -0.1067542657, -0.0183424652, 0.0434355624, 0.1185655445, 0.0941392183, 0.1169413999, 0.0027715070, -0.1019858643, -0.1134128943, -0.0085486630, -0.1042147279, -0.0346408002, 0.0350210741, -0.0257762652, 0.0292168371, 0.1068673283, 0.0163677745, 0.0077623748, 0.0338962413, 0.0809239820, 0.0783670098, -0.0173606966, -0.1121948361, 0.0567856729, -0.0650509074, -0.0037792057, -0.0942998156, 0.0998782665, -0.0530610569, 0.0882392302, -0.0627847910, -0.0315527208, 0.0660671592, 0.1012204215, -0.0295916069, 0.0739369318, -0.0544175655, 0.0445107147, 0.0045650853, -0.0876141116, -0.0000130087, -0.0136473374, 0.0943164155, 0.0170645341, 0.0819936618, -0.0448410846, 0.0458607413, -0.0553942397, -0.0105412547, 0.1107135937, 0.0606082268, -0.0436307825, -0.0015233157, 0.0094030313, 0.1163625047, -0.0273102839, 0.0617581867, -0.0307094622, 0.1185867116, 0.1028594747, 0.0613945425, 0.0030783573, -0.0132534709, -0.0154542895, 0.0484907739, 0.0897993073, -0.0640697330, 0.0415682681, 0.0518003665, -0.0921429768, -0.0596517026, -0.0383152515, 0.0009771406, -0.0417168699, -0.0998983085, -0.0927759930, 0.0930478871, -0.0416794643, -0.1156947687, 0.0635958761, -0.0851486400, -0.0114753693, -0.0718445331, 0.0715456530, 0.0544451736, -0.0867333934, 0.0335634612, 0.0889073014, 0.0002381130, -0.0193181615, -0.1037944779, 0.0015589253, 0.0993711576, 0.0780754611, -0.1009988114, -0.0215649698, -0.0047647706, 0.0175018217, 0.0002547717, 0.0255663600, 0.0315206572, 0.0434392430, -0.1051446646, -0.0574117117, -0.0181222521, -0.1044766679, -0.1013586894, -0.0795050710, 0.0280156713, -0.0335726142, 0.0366330855, -0.0690508336, -0.1158074364, -0.0860150233, 0.0168446712, 0.1057716981, 0.0733618662, 0.0474436991, 0.0621970519, 0.0725925863, 0.0115689561, 0.0347922631, -0.0080465656, -0.0778464898, 0.1005781963, -0.0408133566, -0.0326236077, 0.0874723420, 0.0394515619, 0.1154065505, -0.1027796566, 0.1064803451, 0.0186182614, -0.0272294432, -0.0354639553, -0.1195252612, -0.0843894333, -0.1064642966, -0.1081339791, -0.0649261177, 0.0321954452, -0.0124474727, 0.0063959081, 0.0261382610, 0.0270910766, -0.1025181413, -0.0241754092, 0.0467454791, -0.0915028602, 0.0915676281, -0.0923557580, 0.0370522998, -0.0717827901, -0.0767870024, -0.0587638989, -0.0009256461, -0.0276569631, -0.0509873331, 0.0928582475, -0.0554572381, 0.0276369452, -0.0344809890, 0.0660169646, 0.0910889208, -0.0591221564, -0.0503728278, -0.0804566219, -0.1045457423, -0.0269510336, -0.0633135214, 0.0402967036, 0.0475587770, -0.0963389128, 0.0658200234, 0.0598546267, -0.0902292803, -0.0168121271, -0.0188342258, 0.0356296077, 0.0557961948, 0.0905519575, -0.0091380980, 0.0422295816, -0.0658472776, 0.0236958973, -0.0727794617, 0.0353668481, -0.0681260526, 0.1189685911, 0.0212118085, 0.1163850203, 0.0593210235, -0.0059853825, 0.0242708195, 0.0007761849, 0.0771008581, -0.0107869310, -0.0215704739, -0.0438483804, 0.1023909301, -0.0403252020, -0.0603298470, 0.0810205489, 0.0119653922, 0.0916959196, -0.0344273783, 0.1080357805, -0.0731939301, 0.0990383402, -0.0511111282, -0.0085195946, 0.1159204245, 0.0464669801, 0.0304969586, 0.0978130847, 0.0740415975, -0.1029477865, -0.0880445093, -0.0623668209, 0.0512369648, -0.0052480190, 0.0943676308, 0.0296215359, -0.1091284230, 0.0935029611, -0.0099711651, -0.0441855267, -0.0161706731, 0.0504733063, 0.0592395104, 0.0519061610, 0.0961259827, 0.1048754528, -0.0787290037, -0.1015938222, 0.0373662598, -0.0951725096, 0.0038228892, 0.1202710494, 0.0359463878, 0.0841092691, -0.0778403804, -0.0705932900, 0.0225533675, -0.0208535213, 0.0307034627, 0.0374331996, 0.1139868796, -0.0219840948, 0.0659494549, -0.1085170284, 0.0556897745, -0.0848255828, -0.0904935002, 0.0837534815, 0.0897919387, 0.0249789841, 0.0984547585, -0.0416999497, 0.0356163234, -0.0310481712, 0.0151463002, 0.1073160544, 0.0638264492, 0.0845532715, 0.0539077893, -0.0249182470, 0.0511061773, 0.0238513593, -0.0277494546, 0.0789052844, -0.0318220332, -0.0000227762, -0.0911054462, -0.0915866345, 0.1026878953, 0.1140239313, -0.0436929911, 0.0041752481, -0.0489599779, -0.0131094558, -0.0921744257, -0.0082981838, -0.0288474392, -0.0043557780, 0.0133737028, 0.0885075033, -0.1049698144, -0.0379569940, 0.0680806115, 0.0825752243, 0.0719700381, 0.1086044833, -0.0522346906, 0.0500916168, -0.1139807478, -0.0415854268, 0.0923580304, -0.1024558693, -0.0358199216, -0.0619299859, 0.1184373945, 0.0244673956, -0.0204112120, -0.0959633812, -0.1187785715, -0.0521006919, -0.0432354547, 0.0535725430, -0.0561038032, -0.1182498112, -0.0619042329, 0.1133211404, 0.0565965883, -0.0360812470, 0.0658568442, -0.1189886257, 0.0312451553, -0.0839876384, 0.0069660707, -0.0594985038, 0.0231419262, -0.0305253118, -0.0397979952, 0.0775645748, -0.0163870025, 0.0095536755, -0.0249891896, 0.0367945060, 0.1081033498, -0.1104160622, -0.0705535635, 0.0548627079, -0.0186600611, -0.1131098643, 0.0681491345, 0.0628985986, -0.0755178332, 0.1145546585, 0.0023221015, -0.0807975009, 0.1089220643, 0.1095749810, -0.0516493581, 0.1043711230, -0.0908871144, 0.0302183889, 0.0736756921, -0.0776179209, 0.0041985787, -0.0239550788, -0.1204989776, 0.0945505872, 0.0062703327, -0.0998308286, 0.0714958236, 0.0413866006, 0.0615682565, -0.0024166226, 0.0033100462, -0.0104035614, -0.0313683227, -0.1137068048, -0.0136690773, -0.0958101824, -0.1205724701, -0.1099930480, 0.0043909061, 0.0779344216, 0.0061022416, 0.0523219407, -0.0325192176, -0.0126496544, -0.1205217391, -0.0687552989, -0.0715585873, -0.0556112565, 0.0707065761, -0.0379997157, -0.0965757370, 0.1201684400, -0.0802696049, 0.0812568367, 0.0322745331, 0.0507439338, 0.0716427043, -0.0336559676, -0.0715264976, -0.0685426369, -0.0905496627, 0.0050230464, -0.1062354520, 0.0117768319, 0.0130667360, 0.0113026649, 0.0492468551, -0.1123670563, 0.1020016149, -0.0924117044, -0.0952602103, -0.0975601375, -0.0781527683, 0.0955161974, -0.0008553175, -0.0165909212, -0.1054180413, -0.0124838557, 0.0609557517, 0.0342679583, -0.0597238690, -0.0724011585, -0.0098304786, -0.0291108396, -0.0573294088, 0.0278777312, 0.0849828944, 0.0409157611, 0.0259623881, 0.0486100428, 0.0867368951, 0.0251789764, -0.0414863937, -0.1005034298, -0.0054938262, -0.0738860667, 0.0811333805, 0.0991671830, 0.0673110411, 0.0715213194, -0.0734070912, 0.0306085758, -0.0955305770, 0.0115480479, -0.1130414531, 0.1196078435, -0.0008709104, 0.0241356678, -0.0039358209, 0.0706226230, -0.1131681353, -0.0682295784, -0.1120071784, 0.0319296382, 0.0028362439, 0.1211367920, 0.1188793555, -0.1039075255, -0.1168003753, 0.0953663215, 0.1075059697, -0.1160055622, 0.0103716310, 0.0386601351, -0.1146899611, 0.1049341634, -0.0091727441, -0.0501843542, 0.0298063587, 0.0970183834, 0.0698153675, 0.0028248995, 0.0757931620, 0.0147560835, 0.0626266301, 0.0454947166, 0.0486153141, 0.0721912012, 0.0133881420, 0.0861553103, 0.1004481092, 0.0728784949, -0.1077557355, 0.0843198746, 0.0638255030, 0.0048189661, 0.1044722125, 0.0273671951, 0.1083225086, 0.0292189680, 0.0620368458, 0.0761792287, 0.0657870546, 0.0603290126, -0.0237596277, 0.0200189520, 0.0271961112, -0.0431637093, 0.0310363006, -0.0341443978, 0.0508997329, -0.0012042306, -0.1142219380, -0.0150339380, -0.0254491512, 0.0206277315, 0.0619182922, -0.0930120572, -0.0501182452, -0.0084468713, -0.0160135906, -0.0067449086, 0.0548709594, 0.0111608095, 0.0464217812, 0.0356866494, -0.0703734159, 0.0563969612, 0.1007056087, 0.1115343422, 0.0695702434, 0.0448939241, -0.0333248079, 0.0767998919, 0.0342216343, -0.0957104936, 0.0796294659, -0.0798394307, 0.0426639766, -0.0233953539, -0.0360549539, -0.0594352707, 0.0638497844, -0.0068440433, -0.0250598975, -0.0078063942, 0.0147766257, 0.0601316951, 0.0804548785, 0.0791274682, 0.0175498705, 0.0641156659, 0.0307577886, -0.0427365415, -0.0134072974, 0.0629958212, -0.1067055613, 0.0438261740, -0.0155956037, -0.0512389205, -0.0648923591, -0.1179386303, 0.0315386169, -0.0435764529, -0.0564165823, 0.0275152680, -0.0688847005, 0.1020578966, 0.0750365704, -0.0334779173, -0.0343101807, -0.0883060992, 0.0886742547, -0.0574474372, -0.0463257842, 0.0975971296, -0.0704991072, -0.0035240836, 0.0603825077, -0.0788568705, -0.0907124579, -0.1056933999, -0.0758029222, 0.0563636720, 0.0651598051, -0.0640500411, -0.0976910517, 0.0471448191, -0.1209337488, -0.0555811487, 0.0719331428, -0.0567385890, 0.0048020883, 0.0990087837, -0.0543920323, 0.0632968917, 0.0959347039, -0.0496334210, 0.0354994200, 0.0043900884, 0.0166247059, -0.1084266230, 0.0187112205, -0.0035122430, -0.0096446779, 0.0161487721, 0.0928122103, -0.0466137417, 0.0200427938, 0.0555429570, -0.0857881233, 0.1188059151, 0.0391447134, 0.1019806638, -0.0490217805, -0.0452577583, 0.0403773263, -0.0257079378, -0.0700090080, -0.0571529083, -0.0908397436, 0.1180364490, -0.0420580283, -0.0311958790, 0.0030054736, -0.0751012042, 0.0837211981, 0.0742913932, -0.1215702891, -0.0305389632, 0.0404426903, -0.1113026664, -0.0660931766, 0.1103152782, -0.0653838143, 0.0774816424, -0.0174692497, 0.0677252784, -0.1131327599, -0.0892208964, 0.0932590067, 0.1075466275, 0.0106240371, 0.0170906242, 0.0001294007, 0.0937620252, 0.0826313645, -0.0974974111, -0.0285329241, 0.1116490364, 0.0373897813, 0.0495087206, 0.0469266064, 0.0871288925, 0.0106716780, -0.0669009537, 0.0283590220, -0.1000869423, -0.0919483826, 0.0122379027, -0.0656743422, -0.0899943933, -0.0723134279, -0.0301164370, 0.1019573510, -0.0396831334, 0.1125739664, 0.0779917464, -0.0049375482, 0.0687851235, -0.0834388658, 0.0222264566, -0.0649331957, -0.1052602381, -0.0727732033, -0.1048666686, -0.0062432787, -0.1150100827, -0.0382222645, 0.1184122413, 0.0342252254, -0.0148904342, 0.0940115377, 0.1013139188, -0.0576609485, 0.0119147440, 0.1187688336, 0.0012663540, -0.0861345977, 0.0551946722, 0.0057230773, 0.0393264703, -0.0837837607, 0.0314698070, -0.0716413856, 0.0182678588, 0.0850508586, 0.0145515213, -0.0828859136, 0.0803235099, -0.0719954222, -0.0687768012, -0.1094536483, -0.1128811985, 0.0297040269, -0.0127036171, 0.0015060145, 0.1174720228, -0.0759274215, 0.0087628169, 0.0775948837, -0.1167944595, -0.0593595803, 0.1109346673, 0.0104545737, -0.0220220257, 0.0944412053, 0.0706067383, 0.0834793970, 0.0503689162, 0.0394724123, -0.0883451700, -0.0924769938, -0.0957969278, 0.0272048991, 0.1210675612, 0.0267135482, -0.0150830671, 0.0853703693, 0.1166317910, -0.0582700372, -0.0095278909, -0.0952063799, -0.0470812656, -0.0496780835, -0.0649939030, -0.0717656761, -0.0419627652, 0.0803102851, -0.0395388119, -0.0742180571, -0.0631706044, 0.0296659507, 0.0224959739, 0.0394896977, -0.0104288049, -0.0731843114, 0.0094220117, 0.0729948282, -0.1117524058, 0.0451025590, -0.1193279177, 0.1008887514, -0.0660527050, -0.0021088670, 0.1016132385, -0.0478500202, -0.0092176246, -0.0143275419, 0.0599866845, -0.0647046939, -0.0797861218, -0.0675812438, -0.0229146183, -0.0424012206, -0.0365862660, 0.0482988991, 0.0514419787, -0.1030201167, 0.0608170368, -0.0740622729, -0.0914714262, -0.0034799476, -0.1124112830, 0.0346278809, 0.0446075276, -0.0627214909, 0.0152605027, -0.0347813554, -0.0172391217, -0.1126181483, -0.0581568256, 0.0032487551, 0.0181494094, -0.0486075021, -0.0902083591, -0.0414990373, 0.0180449020, 0.1155107766, -0.1193565205, -0.1061549783, -0.0150769502, 0.0874223411, 0.0160064362, 0.0543852858, 0.0414864086, -0.0142913917, 0.0242089015, 0.0681949183, 0.0942097083, 0.0447369441, -0.0766015053, -0.0437278561, -0.0280520264, -0.0089889290, 0.0736290291, 0.0772830844, -0.1176005453, -0.1016510949, -0.0551792234, -0.0127324667, 0.0859693810, 0.1050775051, -0.0793132856, 0.0843298212, 0.0307444595, -0.0574444160, -0.0679759905, 0.1193859056, -0.1188591793, 0.0069940011, -0.0190428905, -0.1165070161, 0.1186844707, -0.1083002165, 0.0666237697, -0.0529315546, 0.0155175664, -0.0699352771, 0.1027123928, 0.1115110666, -0.0815001056, -0.0494966321, -0.0907330737, 0.0251947008, 0.0981870219, -0.0511977784, -0.1158998683, -0.0794386864, 0.1174818203, 0.0076055112, 0.0209061690, 0.0579386279, -0.0519601516, -0.0073990221, -0.0307835285, -0.0425501540, -0.0045234896, 0.0297374036, -0.0455186479, -0.0953960046, 0.1149940640, -0.0895023271, 0.0783407763, 0.0582763143, 0.0937980413, 0.0726266727, -0.0424597822, 0.0804207176, -0.0241931770, 0.0544049516, -0.0701032355, -0.0765864402, 0.1167849600, 0.0761769637, 0.0930775106, -0.0308816135, 0.0107019870, -0.0908812806, 0.0287087392, 0.0744969323, 0.1045360193, -0.1073724329, 0.0631592423, -0.1164246276, 0.1218016371, -0.0217672400, 0.0860532448, 0.0497160740, -0.1116719469, 0.0146568324, -0.0030912638, 0.0422872081, -0.0651343837, -0.0348705500, -0.1101378277, 0.0981963202, 0.1084205061, 0.0629935339, 0.0538827069, 0.0083094109, 0.0010865100, -0.0815464705, 0.1177766547, 0.0031345678, 0.0639905408, 0.1109063625, -0.1138738021, -0.0556048155, -0.0787339061, -0.0961452276, 0.0827749074, -0.0899187550, -0.0092875734, -0.0678399578, -0.0809224471, -0.0336531475, 0.0828834623, 0.0316915512, 0.0135863824, 0.0260648504, -0.0681217164, -0.0552915558, 0.0306996070, -0.0815294757, -0.0344756469, -0.0377692096, -0.1057415605, 0.1003744081, 0.0397347324, 0.1010017544, -0.0490293577, 0.1210834458, -0.0054968926, -0.0747744069, 0.0866839215, -0.1154685393, 0.0783594325, 0.0591761619, 0.0228586700, 0.0545080714, 0.0026681384, -0.1003975645, -0.1195028126, -0.1044044569, 0.0566489138, -0.0850031748, 0.0664122030, -0.0574603565, 0.1206930801, -0.0343760587, -0.0579786040, -0.0460632741, 0.1068917438, 0.0961157158, 0.0747673735, 0.1076245382, -0.0146966465, 0.0020758710, -0.0343877375, 0.0558314994, 0.0170417149, -0.1211064234, 0.0817809030, -0.0183726586, 0.0744592026, -0.0435989536, 0.0217433535, 0.1078728139, -0.0069358340, -0.1085377708, -0.1118707433, 0.0239277761, -0.0920487866, -0.0181556437, -0.0675122887, 0.1169008538, 0.0734251514, -0.0010639528, -0.0137285730, -0.0355368257, -0.0292328671, 0.0225949623, -0.0958799869, -0.0917294249, -0.0497627631, 0.0261710808, -0.1174229383, 0.0477082543, -0.1200935170, -0.0765326396, 0.1163555682, -0.0324667729, -0.0401345566, -0.0146003738, -0.0286080278, 0.0843512416, -0.1098374277, 0.1055055335, 0.0187391657, -0.0866425037, 0.0727507025, 0.1186688244, -0.1104454473, -0.0499402434, -0.0466834120, 0.0002000651, 0.0662114620, 0.0882034898, 0.0215567350, -0.1154922396, 0.0377580971, 0.0916148573, 0.0595268980, -0.0509798266, -0.0672290772, 0.0606143735, -0.1003280208, -0.1106926426, 0.1151513085, -0.1113993898, 0.0443038009, 0.0595425814, -0.0282606762, 0.1116091833, -0.1218134612, 0.0186469946, -0.0378849730, -0.1031876430, 0.1142409220, 0.0245096628, 0.0701024383, 0.0693161786, 0.0432434566, -0.0384836644, -0.0221084729, 0.0920838118, -0.0783070773, -0.0168707911, 0.0374878198, -0.1221218780, 0.0066367076, -0.0732459351, -0.0495827720, 0.0416890867, -0.0220022146, -0.0828254670, 0.0369742326, -0.0916277692, 0.0525074489, -0.0531517230, -0.0749665722, -0.0666754693, -0.0350251198, -0.0137574077, -0.0034907516, 0.0437469706, 0.0803422406, -0.0899179652, 0.1109509766, -0.0744688883, 0.0002810080, 0.0707123280, -0.0843267068, 0.0039503188, 0.1039798707, 0.0850789547, 0.1027725711, -0.0714609325, 0.1178126186, -0.0732849091, 0.0970957205, 0.0831174701, 0.0445906632, 0.0378024802, 0.1149553061, 0.0080799563, 0.0744829327, 0.0463262498, -0.0464684702, 0.0453654192, 0.0497800075, 0.0781959370, 0.0220080093, -0.1071098223, 0.0582721680, 0.0886428505, -0.0313498080, 0.0300914124, -0.0135418810, 0.0232978407, -0.0972832739, 0.0965630487, 0.0240839832, 0.0404042788, -0.1103680134, 0.0843211785, 0.0470511466, -0.1006068662, 0.0202301275, 0.0356612466, -0.0595218055, 0.0408841670, -0.0707527250, -0.0515733361, -0.0293274615, -0.0604519919, 0.1102366373, -0.1104735583, -0.0075964010, -0.0694113523, 0.1220689937, 0.0628829524, -0.1211974174, -0.0246149879, -0.0093050506, 0.0210589599, 0.0179729667, -0.0892213061, -0.0092372615, 0.0853752196, 0.0832438767, -0.0925565660, -0.0750623792, -0.1196965650, 0.0163876303, 0.0410732813, -0.0013125194, 0.0429541990, -0.0017529314, 0.0856254324, 0.0353893191, 0.0946808234, -0.0591485687, -0.0752887130, -0.0039383760, -0.0317092054, 0.0073331902, 0.0735623837, -0.1068073288, -0.0550330319, -0.0956403092, 0.1188185290, 0.0165082421, 0.0096808420, -0.0169944093, 0.1009545848, 0.0662374124, -0.0562378317, -0.0838437825, -0.0468170494, -0.0323366597, 0.1073198020, 0.0292011406, -0.0673361719, -0.0818956047, -0.0480071008, 0.0805828050, 0.0074831042, -0.0482308045, -0.0577956215, -0.0937124863, 0.0729161203, 0.0145317530, -0.1035879180, -0.0427618995, 0.0819457248, 0.0419893526, 0.0349762812, 0.1143678501, 0.1063258424, 0.1116843447, 0.0649482086, -0.0469089560, -0.1175271571, -0.0238448773, -0.0109942816, 0.0121719399, 0.0378539898, -0.0168605857, 0.0312862396, -0.1120498106, -0.0705919936, 0.0153675945, 0.1044279039, 0.0791438520, -0.0668410957, -0.1139215603, -0.1187414750, -0.0031875076, -0.0311177112, 0.0710913315, 0.0183510799, -0.1053705141, 0.0692311749, 0.0039178776, -0.1132943779, -0.0250342879, 0.0335209146, -0.1063963473, 0.0682472885, -0.0041464567, 0.0667658448, -0.0623855852, -0.0247255266, 0.0160994232, -0.0189925358, 0.0247683916, 0.0762894601, 0.0039293384, -0.0714034662, -0.0568283200, -0.0605770126, -0.0625334382, 0.0690044910, -0.0012426872, -0.0439316742, 0.0681110397, 0.0857439116, -0.0350524373, 0.0700966567, -0.1134740338, 0.0320957117, -0.0539983101, 0.0448937193, -0.0004555084, -0.0398616791, 0.0485911928, 0.0272741914, 0.0909130052, -0.0585208200, 0.0211001169, -0.0703556314, 0.0721682757, 0.1101822108, 0.0154007217, 0.0122038992, 0.0693226159, -0.0497587472, 0.0780106783, -0.0127055002, -0.0330866799, 0.0091092484, 0.1219503731, 0.0871191099, 0.0687141567, 0.0781968758, -0.0036566963, -0.1090245992, -0.0775392428, -0.1148390844, 0.0312511995, 0.1190238521, -0.1010434106, -0.0740158856, 0.0169125479, 0.0045450102, 0.0082477257, -0.0603608266, -0.0463314764, 0.0697985366, 0.1090340167, 0.0406142846, -0.0228293538, 0.1221890226, -0.0850303620, -0.0538602211, -0.0549336635, -0.0625337437, 0.0510675311, -0.0087245358, -0.1104441658, 0.0392075367, -0.0904848576, -0.0877629742, 0.1068019345, 0.0715663582, -0.0863890052, 0.0531957708, -0.0261958428, 0.0899912864, -0.1165061966, -0.0104814675, -0.0224902648, 0.1127984598, 0.0225359201, -0.1150034666, 0.0346825868, -0.0079050465, 0.1084987894, -0.0609642640, 0.0253928956, 0.0166757330, -0.0324498974, 0.0640168488, 0.0817496926, -0.1204460040, 0.0381442830, -0.0734636560, -0.0846676975, -0.0509041548, -0.1223592311, 0.0039524212, 0.0879946053, 0.0988319963, 0.0349950157, 0.0168006364, -0.1203215271, -0.1176147684, -0.0603958368, -0.0940115824, -0.0019274901, -0.0957606435, -0.0789063200, -0.0744031742, -0.0637152120, 0.0782589391, 0.0399758071, -0.0843615308, -0.0098124035, -0.0574762151, -0.0334085226, 0.0153451245, -0.1148875430, -0.1101888716, -0.0668332949, -0.0464020856, -0.0105583658, 0.0577536598, -0.0208376218, 0.0996372327, 0.1111348495, 0.0582000278, -0.1119286567, -0.0474324264, 0.0207200330, -0.0720783696, -0.0728066489, -0.1010684669, 0.0191716347, 0.0573223419, -0.0722608566, -0.1057196930, 0.0824774876, 0.0647952557, -0.0139356311, -0.0172923692, -0.0738941655, -0.0331423357, -0.1062417924, -0.0894591734, -0.0974747837, -0.0870072022, 0.0804917291, 0.0365133360, -0.0097116483, 0.0382723287, -0.0492242388, 0.1126161069, -0.0995962620, 0.0346042998, -0.0174859371, -0.0531480163, 0.0139165632, -0.1149967387, 0.0580541715, -0.0579403229, -0.0714465603, -0.0031966912, 0.0013371937, 0.1019748971, -0.0307157412, -0.0011749574, 0.0375352129, -0.0992777944, 0.0653644726, -0.1069053039, -0.1140323430, -0.0814982057, 0.0472830534, -0.1019757465, -0.0511462241, 0.0146198943, 0.1156111509, 0.0052320468, -0.0901590511, -0.0261578094, -0.0021396733, 0.0260045957, 0.0931359977, -0.0672558248, 0.0387908630, 0.0670624152, -0.0134649826, 0.1214369610, 0.0282156207, 0.0143360095, 0.0639954358, 0.1180895343, 0.0631937683, -0.0143043855, -0.0303809606, 0.0418119170, -0.0838415027, -0.0272889677, -0.0902686864, -0.0987540111, -0.0877157599, -0.0444455110, 0.1085825488, -0.0681554973, -0.0360430405, -0.0078903735, -0.1192022786, 0.0609207265, -0.1203231737, 0.0943386853, 0.0891618505, -0.0594338253, -0.1058750227, 0.0983274430, 0.0984235704, -0.0138338543, 0.0307689738, 0.0515203662, -0.0237266757, -0.0862224624, 0.0782822967, -0.0345759057, 0.0546533577, -0.0590047576, -0.0128313825, 0.0672308877, 0.0305025652, 0.0783095285, -0.0907257721, -0.0429058708, 0.0176361855, 0.0367999375, -0.0056087147, 0.0879593343, 0.0736973286, 0.1010127217, 0.0730204359, 0.0481898524, 0.1146876365, -0.0665929541, 0.0024626274, -0.0631110221, -0.0810137615, -0.1224333718, -0.0499456301, -0.1115517840, -0.0749905333, 0.0003087044, 0.0134456372, -0.0804990157, 0.0847563744, 0.0788493827, -0.0110578649, -0.0684035644, -0.0382666476, -0.1007083282, -0.0670707822, -0.0993289351, 0.0694472715, 0.0698559880, -0.0133905951, -0.0145132402, -0.0396711491, -0.0594926775, 0.0075805890, -0.0048227622, -0.0573697351, -0.1007404029, -0.0334730707, -0.1129345447, 0.0721161366, 0.0582313612, 0.0369700119, -0.0730741546, -0.0761301145, -0.0462897383, -0.0526217967, 0.0466971807, 0.0035348001, -0.0230609104, -0.0882139876, -0.0540215224, -0.0258657057, -0.0986333042, 0.0442481749, 0.1187382489, 0.0427671000, -0.0544357710, -0.0726790726, -0.0028620423, 0.0984858274, 0.1157887802, 0.0988829657, -0.0117238332, -0.0497200601, 0.0797255486, -0.0311339162, -0.0803903937, -0.0278466027, 0.0514424890, 0.0937822759, -0.0569663197, 0.0088664051, 0.0465162732, 0.1160624698, -0.0221641734, 0.0801232830, -0.0540062375, 0.0826865807, 0.1208798215, -0.1116339415, 0.0424938276, 0.0649640486, 0.0421710052, 0.0171220005, 0.0626540035, -0.0684769750, 0.0211155489, 0.1183552146, 0.0195910372, -0.0461761169, 0.0039362004, -0.0641533956, -0.0419563837, 0.0485902168, -0.0550446399, -0.1220834181, -0.0021104000, 0.1199740693, -0.0984873176, -0.0942363515, -0.0925294384, 0.0850191638, 0.0919639617, 0.1014853716, -0.0143021960, -0.0120150177, -0.0393845178, -0.0544867702, 0.0297257528, -0.0958691239, 0.0175381619, 0.1027709991, -0.0813387856, -0.0802751854, -0.1181565225, -0.1120730713, 0.0223626308, 0.0033931646, 0.1119829863, -0.0928520262, -0.0292342249, -0.0846921653, 0.0667012855, -0.0642272979, 0.0122723300, 0.0657138824, 0.0543507263, 0.0129980426, 0.0267494209, 0.0510520972, -0.0958851650, -0.0463349223, 0.0782898217, 0.0422976017, -0.0936606526, 0.0469858237, -0.0995213985, 0.0065562902, -0.0115513336, 0.0462803617, -0.0538664870, 0.0742580444, 0.1151120812, -0.0848822147, -0.0422120318, -0.0142451972, 0.0074421363, 0.0287846886, 0.0358534865, -0.0538865887, 0.0868442804, -0.0091433981, 0.0151476292, 0.0529301092, 0.1086042598, 0.0522453934, 0.0194905307, 0.0167042334, -0.0275035594, 0.1022568271, 0.1118082106, 0.0409871116, 0.0112631563, -0.0580812544, 0.0486114286, -0.1041300297, -0.0831502751, -0.0595080070, -0.0850926489, -0.0258779544, 0.0562248677, 0.0990053564, 0.0115114022, 0.0656744018, -0.0514714569, -0.0860749409, 0.0963698328, -0.0649756715, -0.0843560398, 0.0933172032, -0.1101786792, -0.0540230125, -0.0738764703, 0.0720065907, 0.0206117146, -0.0673782155, 0.0987761766, 0.0124770235, -0.0303424895, 0.0716769099, -0.0492422841, -0.0239887759, 0.0786956102, -0.0488508567, 0.1052492931, -0.0495023988, -0.1050551087, 0.0278352741, 0.0985501409, 0.0091141686, 0.0070662275, 0.0752208903, -0.1062370613, 0.0816170797, -0.1111501828, 0.1130678430, -0.1091692671, -0.1090115607, 0.0720725432, -0.0561322607, -0.1039824709, 0.0165923238, -0.0392188504, -0.0679205060, -0.0466306619, -0.0425127782, 0.1016955525, 0.0287605394, 0.0053881654, 0.0737978369, -0.0487846583, -0.0331655070, 0.0214891955, 0.0489091240, -0.1198063493, -0.0914274082, -0.0712652728, 0.1175885051, -0.0599727854, -0.1144198850, -0.1117199659, -0.0052146432, -0.0694096163, -0.0847829059, 0.0828067511, 0.1081097424, 0.0059592631, 0.0759885833, -0.0052483552, 0.0021482583, 0.0298624523, 0.0909211636, 0.0715608671, -0.0616205223, -0.0512934215, 0.0805492848, -0.0913566872, -0.0778618604, -0.1060154140, 0.0851724967, -0.0936070979, 0.0241994690, 0.0231633447, -0.0158118308, -0.0612600930, 0.1049388647, -0.0680631250, 0.0372765847, 0.0344025865, -0.0985053182, -0.0038059531, 0.0677202269, -0.0901202783, 0.0103862751, -0.0990781635, -0.1069172323, 0.0179232974, 0.1156953126, -0.0264847931, 0.0372026525, -0.0332426094, -0.0075715077, -0.0639138073, -0.0591562465, -0.0103395395, -0.0882902443, -0.0196970925, -0.0418246053, -0.0668712035, -0.1112607643, 0.0194778424, 0.0912554935, -0.0446375757, -0.0297164656, -0.0031687904, -0.0122676138, -0.1166611761, -0.0173403881, 0.0259681847, -0.1209938005, 0.0405328162, 0.0144486492, 0.1143158749, 0.0906176418, -0.0988311172, 0.0826249197, -0.0814167187, 0.0571632460, 0.0896713957, -0.0631422475, 0.0813456029, 0.0064808512, -0.0594418831, 0.0886782408, 0.0637518764, -0.0871423855, -0.0498279519, -0.0738470703, 0.0837249979, -0.0485560372, 0.0561423190, 0.0655867308, 0.0584059767, 0.1190603524, -0.0517423451, -0.1175863892, 0.0157352239, 0.1003486216, -0.0077932831, 0.1060244665, -0.1080347151, 0.0590663701, 0.0692755729, -0.0735996813, 0.1056634784, -0.0670529678, 0.0906191766, -0.0359940417, 0.0142853912, -0.0679309890, 0.0435527004, 0.0490714200, -0.0875333846, -0.0507068783, -0.0295119341, -0.0910371915, 0.0054364773, 0.0995899886, -0.0817443207, 0.0247656759, -0.0897345394, -0.0746525675, 0.0704189092, -0.1061430648, 0.0008376075, 0.0832882524, 0.1039257497, -0.0240102522, 0.0191755183, -0.0926724449, -0.0058185472, 0.0702387542, -0.0613078922, -0.0527991019, -0.0742826462, -0.0166592784, 0.0531380586, 0.0020908213, -0.0361301564, -0.0435657091, -0.0828460976, -0.0135166673, 0.0165332798, -0.0531213842, 0.0782628059, -0.0159681104, 0.0333702117, 0.0886541381, 0.0187125057, 0.1081064269, 0.0669854879, -0.0096441954, 0.0266387071, -0.0843528435, -0.0626447946, -0.0659147501, -0.1141837612, -0.0219846349, -0.1078346446, 0.0741015151, -0.0611273460, 0.0705250949, -0.0481577739, 0.0154822199, 0.0496594831, 0.1150954366, 0.0514617488, -0.1160541624, -0.0671706796, 0.0208339728, 0.1037026271, 0.1101775095, -0.0242495034, 0.0875241160, -0.0219019260, 0.1168320030, -0.1126873419, -0.0128203733, 0.0817608610, 0.1050791293, -0.0287774913, 0.0696604475, 0.0383628346, 0.0830147713, -0.1029741690, 0.0095851822, 0.0959682018, -0.0650054514, 0.0718842745, 0.0956479162, -0.0047418778, -0.0061847470, -0.0800623745, 0.0638632774, 0.1076092646, -0.0826244280, 0.0209667459, -0.0347338766, 0.0895421281, -0.0252997484, -0.1103357896, 0.0546099953, -0.1053422913, -0.1087453887, -0.0088600833, -0.0418406352, 0.1101235300, -0.1012728512, 0.0579065084, 0.0128734307, 0.0153288599, -0.0149080120, 0.1056898758, 0.0920152515, 0.1182882413, 0.0659540221, -0.0772990435, -0.0392288677, 0.0363490731, -0.0789586604, 0.1132733151, -0.0438319258, 0.1082170233, -0.0391128249, 0.1108899489, -0.0050200825, -0.0493235923, -0.1107664183, -0.0095912702, 0.0231607892, -0.0614877939, 0.0993480459, 0.0783281699, -0.0447491035, -0.0402543619, 0.0816023052, -0.1050034240, 0.0752236098, 0.0112274596, 0.0224421881, -0.0325716026, 0.0828350484, -0.0207308512, 0.0486231223, 0.0194434300, -0.1169927940, -0.0205625128, -0.0759961009, -0.0571980961, 0.0412625894, 0.0475859046, 0.1193294451, -0.0434580036, 0.0367253013, 0.1043145061, -0.0394355915, -0.1144582257, -0.0995845124, -0.0590453595, 0.0997985080, -0.0092772227, -0.0804378614, 0.0005688344, -0.0704850182, 0.1134168357, 0.1093610451, -0.1018023416, 0.0954676345, -0.0005851135, 0.0576660000, -0.0527554192, -0.0929135233, -0.0665837079, -0.0767509416, 0.0052717007, -0.0914829746, -0.0611599796, -0.0436263271, 0.0962082967, 0.0995256156, 0.1219564751, 0.0195945259, -0.0530441217, -0.0373374969, 0.0456924178, -0.1141760051, 0.1182476133, 0.1116603985, -0.0417782627, -0.0507089831, 0.1200348958, -0.0256503392, 0.0521324016, -0.0722400770, -0.0850800723, 0.0044376263, -0.0156683568, -0.0390902832, -0.0756686330, 0.0332887881, 0.0826903060, 0.0641353056, 0.1222192273, -0.1170480773, -0.0988118052, -0.0992683619, -0.0605845600, 0.0621023253, -0.0558751523, 0.0808752328, -0.1007673070, -0.0643850639, -0.0656062886, 0.1122516990, -0.0002809497, 0.0056214314, -0.0443679839, -0.0545548350, -0.0065723937, -0.1091157869, 0.0706508756, -0.0250422172, 0.0811749175, -0.1008429676, 0.0063824030, -0.0716445819, -0.0834671035, -0.0985182226, -0.0950047672, -0.0333286636, -0.0932105184, 0.0539316610, -0.1205766872, 0.0950746462, -0.0659533069, -0.0696132705, -0.0118614538, 0.0375765450, -0.0588013604, -0.0734032243, -0.0308430251, 0.0737734511, 0.0784909502, -0.1091854349, 0.0841290802, -0.0495235696, 0.0688987151, -0.0695866570, 0.1166707277, 0.0068191499, -0.0677066445, 0.0038005656, 0.0293555222, 0.0380020924, -0.0560049489, -0.0104716122, 0.0622576736, 0.0238872170, 0.0366023816, -0.1200607121, -0.1094847471, -0.0875910297, -0.0741660222, 0.0249064937, -0.1195521429, 0.0661507696, -0.0703659207, 0.1054547727, 0.0564053245, 0.0219440181, -0.0229955465, -0.0932376906, -0.0177697334, -0.0736140385, 0.0216888078, 0.0916807503, 0.0569315143, -0.1000148505, -0.1080871820, -0.1140243709, 0.0183406267, -0.0403041653, 0.0845096335, -0.1047088951, 0.0504407324, -0.0175926201, -0.1168585271, 0.0732588917, -0.0284632519, -0.0950955078, 0.0168344658, 0.1187363788, -0.0426636562, -0.0734406039, 0.0533631183, 0.0247384608, 0.0638213009, 0.0319758169, 0.0826377720, 0.0184885114, -0.0098602623, -0.1217163876, 0.0253539570, 0.0599773414, -0.0349198692, 0.0612346008, -0.1032617912, -0.1181144416, -0.0362038426, 0.0504090376, 0.0646274313, -0.0918223709, -0.0739963278, 0.0476733446, 0.0068930122, 0.0821122229, 0.0692651793, -0.0249005072, 0.0677712932, 0.0847798362, 0.0766985863, 0.0868961066, 0.0079434598, 0.1154427007, -0.0942066088, -0.0839692727, -0.0772621781, -0.0168631691, -0.1155107468, -0.0334030502, 0.0255086161, 0.0934808403, -0.1127510816, 0.0618834868, -0.1138396785, 0.0518421531, 0.0964654908, 0.0337429531, -0.1186926365, -0.0062821000, 0.0041237390, -0.0759454817, 0.0468932018, 0.0577503443, 0.0509636216, -0.1000330448, 0.0633838624, 0.0033751042, 0.0573832095, -0.0476644970, -0.0465105772, -0.0623513609, 0.0799059197, 0.1119902879, 0.0147478497, 0.0056076781, 0.0224665701, -0.0956120566, 0.0167694371, 0.0510751940, 0.0027158223, -0.0545394048, -0.0128721753, 0.1188331917, 0.1156198978, -0.0022918500, -0.0244277865, 0.0624155849, 0.1156075150, -0.0450955965, -0.0764288306, -0.0406129435, 0.0146461595, -0.0995886028, 0.0979000106, 0.0971632451, 0.0275641643, -0.0912188143, 0.0751313344, 0.0762523785, 0.1158796474, -0.0406001806, -0.0257505402, -0.0462299064, -0.0187847037, -0.0169551354, 0.0161913745, -0.0862402171, 0.0507684052, -0.1204445288, -0.1010253504, -0.0144170988, 0.0462657474, -0.0813106075, 0.0620828941, -0.0614879839, 0.0200568233, -0.0220289752, -0.0512552895, -0.0339199640, -0.0855760127, 0.0561800599, 0.1138311401, 0.0806666985, -0.1148291454, 0.0409529917, 0.0893852934, -0.0075285248, -0.0052434201, -0.0131554166, 0.0707446486, -0.0330659039, 0.0831427127, -0.0829437152, 0.0652624592, 0.0796287507, -0.0677713677, -0.0437070802, -0.1091984883, -0.0643059164, -0.0028939727, 0.1107722148, 0.1222442091, -0.0386948995, -0.1118118614, -0.0218286030, -0.1121702194, 0.0550524816, -0.0941976160, 0.0398107693, 0.0167687945, 0.0448762439, -0.0022653071, -0.0748851076, -0.0660549253, -0.1109753773, -0.0919074714, 0.0611350276, -0.0429038592, -0.0470006019, -0.1036751792, 0.0052792486, 0.0603641570, 0.0884323567, 0.0047783777, -0.0109655922, -0.0076344782, 0.0221310295, -0.0129729882, -0.0192602724, 0.1120899171, 0.0094590662, -0.0398271792, 0.0982710570, -0.0811732188, 0.0443228707, 0.0318184569, 0.0420629345, 0.0698849931, 0.1098087281, -0.0441898033, 0.0977924243, -0.0581357293, 0.1018554419, -0.0424841791, 0.0971547663, 0.0804349259, -0.0891023576, -0.0902256444, 0.1051149294, -0.0147652822, 0.0344974138, -0.0096501959, 0.1201580316, -0.1132574752, -0.0149600906, 0.0752309412, -0.0390389189, 0.0980923697, 0.1090599298, 0.0338606313, -0.0983380601, -0.0516593605, -0.0735058039, 0.0476633720, -0.1183040217, 0.0688169077, -0.0906143412, -0.0883698389, -0.1119051129, 0.1015439928, -0.0657120720, -0.0810039192, 0.0551689006, -0.1175696105, 0.0633276850, -0.0886817724, -0.0529080033, -0.1030806527, 0.0733310431, -0.1199068502, 0.1084351465, -0.0559820086, -0.0587799586, 0.0558419675, -0.0984863639, -0.0196432322, 0.0040879538, 0.0291334987, -0.0882313177, 0.0626158118, 0.0028746712, -0.1101529524, -0.0640311465, -0.0182074290, -0.0963354781, -0.0187976528, 0.0360084958, -0.0894564986, 0.0641219318, -0.1186373457, 0.1076945290, -0.0175591707, 0.1063200906, -0.0268635936, -0.0108876424, 0.0157103464, -0.0009809805, -0.0717716515, -0.0439702496, -0.0340551622, 0.1190970913, 0.0219208039, 0.0734111518, -0.0866565034, 0.0834525600, -0.0075418404, 0.0459752940, -0.0058207079, 0.0003087044, 0.1130340472, -0.0999995172, 0.1041416228, 0.1206993014, -0.0007285740, -0.1208988726, -0.0318241641, -0.0882694051, -0.0082357973, -0.0079535190, -0.0243374705, -0.0072713587, -0.0395327546, 0.0123930434, -0.0998949111, 0.0082246577, 0.0225752816, -0.0845037624, -0.0233687088, 0.0602431931, -0.0289854687, -0.1149692163, 0.0771896988, 0.0214161947, -0.0870354101, 0.0136427535, 0.1166816205, 0.0025829030, 0.0625477433, -0.0494922251, -0.0504581071, -0.0816821381, 0.0334368758, 0.0008970299, 0.0403936207, -0.0363912806, -0.0867988691, 0.0241937023, -0.0677747875, -0.0530562401, 0.0831467882, 0.0362505652, -0.0075836256, -0.0209013671, 0.0147181237, 0.0378786214, -0.0500363708, -0.0548484735, 0.0216920786, -0.0141621809, 0.0849362910, 0.0924135447, -0.0681855008, -0.0522766076, 0.0013223453, -0.0759843290, -0.0986524299, 0.1160598993, -0.0501949713, -0.0531252548, 0.1220215186, 0.0739945024, 0.1018381119, -0.0346120819, 0.0087721320, 0.0518123843, -0.1205853075, -0.0809123740, 0.0378592163, -0.0685004815, -0.0836801454, -0.0525112450, 0.0861148462, -0.1137894541, -0.0494947508, 0.0396792963, 0.1202655211, -0.0173718072, 0.0199332479, 0.0928242579, 0.0415964052, -0.1173418611, -0.0204596985, 0.1043650061, 0.0394876264, -0.0325452052, 0.1220666319, -0.0668298677, -0.1100587398, -0.0125017557, -0.0723774061, -0.1170987561, 0.0591762774, -0.0332403183, -0.0477173775, 0.0963093042, -0.0142384954, 0.0166365318, -0.0815211833, -0.0785543844, 0.0199996345, -0.0186275616, 0.0344099887, -0.0235863682, 0.0314291157, 0.1013788506, 0.0729900897, -0.0409134850, 0.0045781960, 0.0206375141, -0.0562777780, 0.0376364216, 0.0641068444, 0.0693980977, 0.0042030467, 0.0013926009, -0.0745803118, -0.0764978305, 0.0638214573, 0.0455896333, -0.0643710792, 0.1004595235, -0.1012228355, 0.0854270905, 0.0460925475, -0.0510063134, 0.1170722172, -0.0771763995, -0.0756398588, 0.0287934486, -0.0400643423, 0.0568601489, -0.0466367528, 0.0365069844, 0.0927793011, 0.1108077094, -0.0663556829, -0.0885253176, -0.0355574675, -0.0250177607, -0.0324819572, 0.0462908186, 0.0772098228, 0.0783467591, -0.0254715327, -0.0411936752, 0.0167492740, 0.0730519444, 0.0361684375, 0.0674366057, 0.0330136940, 0.1014139354, -0.0445193127, -0.0771015435, -0.0302039348, 0.0446240976, -0.1021063700, -0.0333908871, 0.0159058273, 0.0239548460, 0.0071667056, -0.0898574144, -0.0090368753, -0.1197796836, -0.0749953091, 0.0801917166, 0.1160773337, -0.1164347902, -0.0145622240, -0.0397886634, 0.0786763430, -0.0761131346, -0.0709504560, 0.0456467904, 0.0489166304, -0.1213875189, -0.0026419458, 0.0317640565, 0.0485112853, -0.0378932506, -0.1118517146, 0.0416903570, 0.0331149586, 0.0515724756, 0.0276707150, 0.0300379023, 