-0.3493607640, -0.1717455536, -0.0870680362, 0.0404043682, -0.3341709971, -0.1536909491, -0.2362716198, -0.3801466823, 0.0273399986, 0.2500590086, -0.0950461328, 0.2949069142, 0.3434585333, 0.1370215565, -0.1077706516, -0.1772225052, -0.1831102371, -0.0216415189, 0.2442342937, 0.0908170491, 0.3001799285, 0.2671628892, 0.3065754473, -0.3754969537, -0.1309532225, -0.2776944339, 0.2067290545, 0.3415372372, 0.2958932221, -0.2702167332, -0.2960404754, 0.2615856528, 0.1213909015, 0.0529502518, -0.1528531462, -0.0990270600, 0.2019941360, -0.0895733833, -0.0613719970, 0.3019614518, 0.3187730312, 0.1082203388, -0.3415651321, 0.2888505161, -0.0989805236, 0.0763987601, -0.1633055210, -0.3054212034, 0.3501421809, 0.1749184579, -0.2946220934, -0.2094305307, 0.3215045035, 0.0499619283, -0.0425801091, 0.3526761234, -0.0401259661, -0.1544057429, 0.2175395638, 0.3481901884, -0.2894903421, -0.1204143688, 0.0039662886, 0.3610952795, -0.1610150933, 0.2430284470, 0.0755563006, 0.3530573845, 0.3411625028, 0.1352812946, 0.3789299726, 0.2327126414, 0.0181573331, 0.2587316930, -0.2041410208, -0.1314702183, -0.0604555756, 0.1302818209, -0.3062764406, 0.3151789010, -0.3599708676, -0.1403402239, -0.0371077210, -0.3214712739, -0.1244786754, 0.2588827014, 0.1416266114, -0.0042564180, 0.2530093789, -0.1598252207, -0.0271591973, -0.0715105534, 0.1869498789, -0.0766301155, 0.0564837009, -0.3854810596, 0.2375342101, 0.1665330529, -0.1640435904, 0.0422141217