0.0852560997, -0.1616791338, -0.1901772916, 0.2086342126, 0.0949141383, 0.1982135773, 0.1794681102, -0.1416060477, 0.0571405478, 0.2724571526, -0.2866957784, 0.2704513371, -0.0472892784, 0.1131437048, -0.1527330726, -0.1379873008, 0.1851426214, -0.1087476537, -0.2053045183, 0.1642079502, 0.2378863543, 0.2008468211, 0.0932612196, -0.0038268315, -0.1031134427, -0.0176753886, -0.2476979792, -0.1018542200, -0.1103755683, 0.0008603837, -0.1817766875, 0.2659661770, 0.2674538791, 0.1398964226, -0.1200290397, -0.1995897144, 0.1534165740, 0.1039280146, 0.2183885425, 0.0541474186, -0.0071675894, -0.0094260415, -0.1876181513, 0.0636954084, 0.2994603515, -0.2759580314, -0.2001340091, -0.2468652725, 0.1090505347, 0.0518339947, -0.2447725683, 0.1313128769, -0.0406139307, -0.1157050058, -0.0449931920, -0.0582510643, -0.2546071112, -0.1522199214, -0.2234921157, -0.0598135330, 0.0026165198, 0.0943856835, -0.0270407312, -0.2106169164, 0.1133418307, -0.2735935152, -0.1700135022, -0.0561237596, 0.1221941635, 0.1570553184, 0.2547684014, 0.2143919915, -0.0375967845, -0.2922300994, -0.1796689034, 0.2896411121, 0.2584294677, 0.1632951200, -0.1466527581, -0.1634257138, -0.1507296115, 0.1940979213, 0.0246560965, -0.0913612023, -0.0508357845, -0.2141955495, 0.0541213192, 0.0622246638, 0.1292668581, 0.1649939120, -0.1511151344, -0.0683910549, -0.2717528045, -0.0179264732, -0.2835216522, 0.0007273038, -0.1051591337, -0.1253235787, -0.1677094847, -0.0240864009, 0.2573210299, -0.1092541665, 0.2259366065, -0.0999046713, -0.0559364036, 0.2847244740, 0.1200772971, -0.2142847180, -0.1791956127, -0.2094812840, -0.2888452113, -0.2583285272, -0.0294614993, 0.0057615633, -0.2050886601, -0.0592171177, 0.2599850297, -0.1231826618, 0.0311328825, -0.1697236449, -0.1710984260, 0.1058000028, -0.2453143299, 0.1396331042, -0.2814063132, -0.1857666373, -0.1490821093, 0.2980995178, 0.1997099072, -0.0633986220, -0.0633857027, -0.2821091413, -0.1223504916, -0.2785982490, 0.2791438103, 0.0835108757, -0.1522191912, 0.1085189804, 0.1973576546, 0.2672235668, 0.2458578646, -0.2383238822, 0.2352769524, 0.2329846323, -0.0921128541, -0.1398897022, 0.1180896014, -0.2627995908, 0.1642653942, -0.1083642542, -0.2638420463, 0.0673739761, 0.2927051187, 0.1263561696, -0.0885161161, 0.2534208894, 0.2091415077, 0.1063294411, -0.2678802013, 0.2093021423, 0.0959394649, -0.0495842285, -0.2401941568, 0.0614369176, -0.0678190216, -0.1300727725, 0.0067688972, -0.2679500282, 0.2423139066, -0.0051774136, 0.0581234246, 0.2936991751, 0.0514800511, -0.2130858302, 0.0139467428, -0.0520548560, 0.2272559851, -0.0506617166, 0.0549121685, -0.1946091503, 0.2695917189, -0.2942037582, 0.2138627768, 0.1812686026, 0.2668963969, 0.1737580150, -0.0783768222, 0.0804256201, -0.2349230796, 0.2196521163, 0.0452820174, 0.1264357865, -0.2919113040, 0.2980535626, 0.2297797948, 0.1740472764, 0.0914947540, -0.1240647659, -0.0266092252, 0.1710267365, -0.2958624661, 0.1653751135, 0.1863515079, -0.1345416903, -0.2648713887, -0.2409141660, 0.3030765057, 0.0741464868, -0.2744202614, -0.1744263321, 0.1630622000, -0.0767803043, -0.2385924160, -0.1935469210, 0.1423577368, 0.2156254053, 0.2519391775, 0.0499987267, 0.1511337757, 0.0830685645, 0.0661122724, 0.3020958900, -0.2514509857, 0.0672752410, -0.2226103097, -0.2211384028, -0.2620134056, -0.2278669626, 0.1329319179, 0.0998905078, -0.2466531694, 0.2795276940, -0.1693711579, 0.0061848201, -0.0863497928, 0.0604344010, -0.2492879033, -0.1852088720, 0.0637012795, 0.2728811204, 0.0621650964, -0.0520924181, 0.0826615170, 0.2580449581, 0.0198385399, 0.1915598810, 0.1005855054, 0.2400468439, -0.0729496405, -0.1116663590, -0.0533679537, 0.0553534590, 0.0742125139, -0.2329885662, -0.0539155304, 0.0000971271