//Numpy array shape [10, 20, 2]
//Min -0.270753026009
//Max 0.271771430969
//Number of zeros 0

#ifndef VALUE_WEIGHT4_H_
#define VALUE_WEIGHT4_H_

#ifndef __SYNTHESIS__
mha_value_weight_t value_weight4[400];
#else
mha_value_weight_t value_weight4[400] = {-0.1897979081, -0.0499192253, 0.1122437119, 0.1791992784, 0.2159874141, 0.2357848883, 0.1648297608, -0.0581293739, 0.0518496968, -0.0405097604, 0.0005132405, 0.2255953699, -0.1800638735, -0.1126176491, -0.0766568929, 0.2319502681, 0.0896532685, 0.0754041076, 0.1308852434, -0.0021930821, 0.1962805539, 0.0733813122, -0.2052943408, 0.1527439058, 0.1131275296, -0.1267181933, -0.1109828949, 0.0048013339, 0.0266210902, -0.2545957267, -0.0527954400, -0.1486401707, -0.1167501807, 0.2174822688, 0.2429111302, -0.2175652236, 0.2406987548, -0.1004604995, -0.1823953688, -0.0165162496, -0.0033130308, 0.2533612847, -0.0278106425, -0.1441190839, -0.1758244187, 0.0214306712, 0.0664176196, 0.2600612938, -0.0052315858, 0.1101646051, 0.2635409832, -0.1278602481, 0.0596908070, 0.1617542654, -0.2691909373, -0.0840617120, -0.1757708788, -0.0619658306, -0.2620338202, 0.2358681113, 0.1391943395, -0.0373998918, 0.0876322612, -0.2265949100, 0.1212248877, -0.2483631521, -0.1082161441, 0.0614307187, 0.1079761907, 0.2013357133, 0.1141862944, 0.2229904383, -0.1185419336, 0.2354553193, 0.0655696839, -0.2151518166, -0.1197343618, -0.0942602530, -0.2445495129, 0.2162514925, -0.2036937028, 0.0389060192, 0.2643468678, 0.0477297008, -0.0882587880, 0.0417924225, 0.2538969219, -0.0184510630, -0.0728058442, 0.1311158240, 0.2079309523, -0.1180561185, 0.1656932384, 0.1943257898, -0.1282435209, -0.1652824432, 0.0731536970, -0.2059667259, -0.1142162383, -0.2282901555, -0.2331375927, 0.0980969071, 0.2170865983, 0.2149362117, -0.1913623512, 0.1246423200, -0.0965791568, 0.1342879236, -0.0233193878, 0.2500152290, -0.2617954314, -0.1628173143, 0.1925102770, -0.1543788314, 0.0892964378, -0.0081182169, -0.0591780879, 0.1536225677, 0.1329905987, -0.2215270549, 0.0902533457, -0.1642321944, 0.1015588418, 0.1927181929, 0.1845890135, -0.2455379963, 0.2468328327, -0.2114824057, -0.1176490113, -0.1656880379, -0.1759336293, 0.0042355643, -0.2428848892, 0.0829149634, 0.2388593704, -0.2262511402, 0.1379136443, 0.1365635991, 0.0229961518, 0.1205079257, 0.1282256693, -0.2360488325, -0.2515936792, 0.0760969371, 0.0270798430, -0.1694530100, 0.0414404906, 0.0621554442, 0.0798984319, 0.1909787804, 0.1177020296, -0.2289589345, -0.2606566548, 0.0621251501, 0.2458530366, -0.2006769031, -0.2439995408, 0.2431031317, -0.1622104347, -0.2493129075, 0.0310607627, -0.1752724946, -0.2230222374, 0.1906595826, -0.1373108774, -0.2570478320, 0.0156620461, -0.1197448075, -0.0029413796, 0.2441293448, -0.0562804230, 0.1101943403, -0.0626442954, 0.1815578192, -0.1862610579, -0.0725006014, 0.1121122167, 0.0280499104, -0.0841435939, -0.1656226218, -0.1895826012, -0.0331850909, -0.1428492218, 0.1150453016, 0.0535530746, -0.0749144703, -0.1178167537, 0.1190026179, 0.1246017367, -0.1995590776, -0.1597836465, 0.0214816015, -0.0137901101, -0.1802784204, -0.0662944093, 0.2267173082, -0.0195828620, 0.0089354319, 0.1641209573, 0.1560970247, -0.1675707251, -0.1907224357, -0.2306731790, -0.2674378753, 0.1690774411, -0.1776447743, -0.2289333045, 0.0534313358, -0.2541743517, -0.2521580160, -0.2626133859, 0.2306835949, -0.2019006759, 0.2674398720, -0.1824681163, 0.2145110220, -0.1182562485, -0.1485965252, 0.2310868502, 0.0436483584, 0.1519971192, -0.2428523302, -0.1910436153, -0.0164876506, 0.1745039821, 0.1259694397, -0.0865552127, 0.0826670080, -0.0660039485, -0.1208016872, -0.2477768809, -0.2538604140, -0.1795456409, -0.0377406925, -0.0157732740, -0.0761591271, -0.0347807370, 0.0627010688, -0.0025586612, 0.1972070336, 0.0310317390, 0.2022369951, 0.1472144872, 0.1707871109, -0.1991586238, 0.0491435677, 0.0929160491, 0.0806469917, -0.1066321209, -0.1049529314, -0.0982543603, 0.2691782117, -0.1519802958, 0.1613129079, 0.0865792111, -0.1235341206, -0.0868229493, 0.2316271216, 0.0757078528, 0.2061796188, -0.0287833866, 0.2334176302, -0.0850488245, -0.0271529071, -0.0126389181, -0.0522090383, -0.1723961830, 0.1650350690, 0.1242865324, -0.0642139539, 0.2029452324, -0.2030199617, 0.0915496200, -0.1835492402, -0.0431490280, -0.0976930633, 0.2309029847, 0.2717714310, 0.2166422755, 0.1991583407, -0.1911427975, -0.2101398110, 0.2412585169, -0.0352292061, -0.1126172915, 0.1639880240, 0.0396898352, -0.0918304175, 0.0878094062, -0.1299960017, -0.1799281240, -0.0229819175, 0.1656547785, 0.0535353161, 0.1615943015, 0.1076922268, -0.0158059858, 0.1234598532, 0.1562259495, -0.1962011307, 0.1478027552, 0.1834494472, 0.0604849719, -0.0164914057, -0.0706242546, 0.2166644335, -0.2370786518, -0.1666991115, 0.0205683056, -0.1315953732, 0.1486599296, -0.0889737234, -0.2562174797, 0.0547699854, 0.1352378428, 0.1569203585, -0.2707530260, -0.0518297814, 0.1262919009, -0.2608750761, 0.1233343557, -0.1443405896, -0.0091312146, -0.1985180676, -0.1795376688, -0.2221938968, 0.2483716458, -0.2113308907, 0.1564533114, 0.0064563635, 0.1658468097, 0.2268717289, 0.0480034463, 0.0713067353, -0.1787442267, -0.1285216063, -0.0051903203, -0.1334001571, -0.0266779605, -0.2351562828, 0.0000721495, -0.0919932872, -0.2131506950, 0.2367679775, -0.1822716147, 0.1172424629, -0.1417534649, 0.2572823763, -0.2279972285, 0.1680936962, -0.1467923671, 0.2060485184, 0.2562368512, 0.0122288093, -0.2497732937, -0.0724236146, 0.0719890893, 0.1843342036, 0.2157361954, 0.0759573430, -0.1176155806, -0.0133803273, 0.1995613277, -0.0299740490, 0.2138005644, 0.1006234065, -0.0077865580, -0.2505648732, 0.1039526016, 0.0074187261, -0.0407829806, 0.0402786881, -0.2190282941, -0.1225936338, 0.1305348426, -0.2133968174, 0.2226328552, -0.2472853214, 0.2711202502, 0.0047002267, -0.1705365479, -0.2205941975, -0.0040145456, -0.2019262612, 0.1485932618, 0.1293519139, 0.0138812605, 0.1428239197, -0.1860314459, 0.1636152714, -0.1454644948, 0.0565874986, -0.1723738164, 0.2276394069, 0.0422343612, -0.2597541511, 0.0021886094, -0.1621678621, 0.2591131032, 0.0474687554};

#endif

#endif
