//Numpy array shape [10, 20, 2]
//Min -0.271291226149
//Max 0.272239297628
//Number of zeros 0

#ifndef VALUE_WEIGHT4_H_
#define VALUE_WEIGHT4_H_

#ifndef __SYNTHESIS__
mha_value_weight_t value_weight4[400];
#else
mha_value_weight_t value_weight4[400] = {-0.0255829208, 0.0874164030, -0.0259567276, 0.1107145399, 0.1361759752, 0.1234986708, -0.1171360984, -0.0727258623, -0.0138774728, -0.1378722489, 0.1966558546, 0.1439742595, 0.0129918959, -0.0840285122, 0.2710403204, -0.0949046984, -0.0865112692, 0.0558438376, -0.2358435541, 0.0390393808, 0.2647009790, 0.1278895289, 0.1910728365, -0.0671642497, 0.1796052158, 0.2328964025, 0.1085400283, -0.1446784884, 0.2302859277, -0.0225158837, 0.2169954181, 0.1609131843, 0.0055200858, -0.0172860287, 0.1991781145, 0.1886929125, -0.1251023859, -0.1377711296, -0.0932017118, 0.0281669814, -0.1804781258, -0.0838552266, 0.2497473806, -0.0093045365, 0.0978243351, -0.1431897581, -0.1267212629, 0.2498451173, -0.1860377491, 0.0414123461, -0.1530712992, 0.0404277854, -0.1979829818, 0.2227792889, 0.0133107249, -0.1217109635, -0.1020592153, 0.2267183512, -0.1905963570, 0.2089206129, 0.2649023533, -0.0430669859, 0.1239056140, 0.0751581490, 0.1273534447, -0.0592550710, -0.0705801472, 0.1776546687, -0.2089077234, 0.2413166910, -0.1361245960, 0.0975740030, 0.2333037257, -0.1023685783, 0.2564334869, -0.2668389678, -0.0395162217, 0.0820025802, 0.1807807684, -0.1427426934, -0.2692738771, 0.0368423164, -0.1070830375, 0.0609492101, -0.0545483120, 0.1584194899, -0.2450643927, -0.2428096384, 0.2435220182, 0.2359523624, 0.2398614585, 0.2320310920, 0.2712654173, -0.0944454595, -0.0887069330, 0.1970715523, 0.1044169068, -0.0923752263, 0.0777233392, 0.1107698083, -0.1636158824, 0.0178164411, 0.0815133378, 0.2374035120, 0.1127363518, -0.2287018746, 0.1198089942, -0.0325491950, 0.0517133623, 0.1622956544, -0.2312246859, -0.2509897947, -0.0452956185, 0.0405189358, -0.1898404509, 0.0916574225, 0.0351254866, -0.2609660029, -0.1966554374, -0.0179627314, 0.0740973577, -0.2204992622, -0.2533387840, 0.1119037941, 0.1710482538, 0.0850253850, -0.2245031297, -0.1587660462, -0.1648274362, 0.2245412618, 0.0697860792, 0.1093334779, -0.0965249911, -0.1392150372, 0.2478964925, 0.0639056042, -0.0905414522, 0.0101418942, -0.1843469739, 0.1538518518, 0.0642801970, -0.1132765636, -0.1304351985, 0.0616526529, 0.1811102629, -0.2121452093, 0.0092645446, 0.0618516020, 0.1070034131, -0.0914716944, 0.2621454000, -0.2539640963, -0.2256498486, -0.1915278286, -0.1655766517, 0.1133044735, -0.0857516453, 0.0724641308, -0.0217031743, -0.0888740197, -0.0324708745, -0.1849129349, -0.2044550180, 0.2320931554, -0.1199860051, -0.0193914864, -0.2389376909, 0.0386134386, 0.0755264014, 0.0143263992, 0.1312867552, 0.2139350921, 0.0191504229, -0.2341267616, 0.0750686973, 0.1783945411, -0.1183934286, -0.0810660422, 0.0624461658, 0.1079201996, 0.2461995482, -0.2465350926, -0.1814817190, 0.2198420763, -0.2504514456, -0.2418391109, 0.0773280859, -0.0214521214, -0.0144401081, 0.2701243758, -0.0107055418, -0.0011548483, 0.1653791666, -0.0085539212, 0.0781352073, 0.2395562232, 0.1274899691, -0.2519519925, 0.0207493324, 0.0930907801, -0.2527644336, -0.1654174924, -0.0174175296, 0.0314291157, 0.1769057810, 0.2575660050, -0.2605507672, -0.0102950409, 0.2457424998, -0.1394993961, -0.0517568141, -0.0219217446, 0.2447809130, 0.0097701782, -0.2069143355, -0.0736090541, 0.0147043513, 0.0684930384, 0.2566341758, -0.2113297135, 0.0080982372, -0.2712912261, -0.1802528352, 0.2016309798, -0.1915586144, 0.0261133667, 0.2351674139, 0.1218094900, 0.2139078677, 0.1628833562, -0.0631524771, 0.0642195418, -0.2333948761, 0.1653889716, -0.0717903972, 0.1136130169, 0.0958173424, 0.2098056972, -0.0055302717, -0.2049402893, 0.1935585886, -0.0641533285, -0.0385195129, 0.0417155400, -0.2136368304, -0.1196870878, -0.2691285908, 0.0807766989, -0.1010524184, 0.1072473526, 0.0630066469, 0.2324902117, 0.1369718760, 0.0391372554, -0.2365359366, -0.0239304379, 0.1947009116, -0.1406526417, -0.0766231716, -0.0824295357, -0.2005064189, 0.2191772312, 0.1988369226, -0.1117638052, -0.0342608988, 0.0614638552, 0.2472736239, -0.0217066687, 0.0705834180, -0.2217549831, 0.1397203803, 0.0247639101, -0.0158658270, -0.0978242084, 0.1312679201, -0.1873683929, -0.2687959373, 0.2722392976, 0.0186617654, 0.1993851364, 0.1129682809, 0.0282766744, 0.1474509835, 0.0326431207, -0.1652319729, 0.0347013064, 0.2325403243, 0.0136201512, 0.0096930666, 0.0132109234, -0.1565032303, 0.2467684895, 0.0418205969, 0.1485238224, 0.2021466345, 0.2644275129, 0.0555085205, -0.0327542499, -0.2160749286, 0.2715749443, -0.1568300128, 0.1028991863, 0.2420920879, -0.0521913767, -0.2155086398, -0.0499910489, -0.0052624699, -0.0726196915, -0.1645662040, 0.0788639486, 0.0909136608, -0.0530898832, -0.0393987261, 0.0492484942, -0.1126353443, -0.1446924955, -0.2428350598, -0.1244369745, -0.2478762567, 0.0888919756, -0.2457776815, 0.0759538487, 0.0878235400, -0.1395052373, -0.0180662218, -0.1445990801, -0.1026670337, 0.0823220983, -0.2287451029, -0.0276879873, 0.0461827964, 0.0151677728, -0.2055671066, 0.1902759224, -0.0211470686, -0.2111888230, 0.2487794906, -0.2407822311, -0.2571462095, 0.1785126626, -0.0313670561, -0.2446185946, 0.1747187376, 0.2461398393, 0.0529610254, -0.0792431086, 0.1289240420, -0.1188556105, -0.2290832251, -0.1435381323, 0.2357743084, -0.2085815072, -0.1745993197, 0.0610335693, 0.0180017129, -0.2033371627, -0.2681573927, -0.1201847270, 0.0624798872, -0.2469058335, -0.0978540778, 0.0917686149, 0.1370407343, -0.0144074615, 0.0194375832, -0.0060332282, -0.1117909327, -0.2232090086, 0.2684331834, -0.1434609592, -0.1704066545, -0.2123327553, -0.1910232753, 0.0068637305, -0.1030851081, -0.1003485546, -0.2683953941, 0.2047768235, -0.1185476184, 0.0102668013, -0.1133286953, -0.1054953262, -0.1844007373, 0.2463345379, 0.2715970576, -0.0818821788, -0.2667686343, -0.0703727156, -0.1757178605, 0.1004533172, -0.0291156974, 0.0401299484, -0.0889498591, -0.0454098843, -0.2044458091, -0.0147969052, -0.1154813617, 0.1701348722, -0.1182893813, 0.1401566118};

#endif

#endif
