//Numpy array shape [10, 20, 2]
//Min -0.273309141397
//Max 0.273645907640
//Number of zeros 0

#ifndef VALUE_WEIGHT4_H_
#define VALUE_WEIGHT4_H_

#ifndef __SYNTHESIS__
mha_value_weight_t value_weight4[400];
#else
mha_value_weight_t value_weight4[400] = {0.1846309900, 0.0376017131, -0.2123380154, 0.0157221165, 0.1500652730, -0.2369477302, -0.0743757039, -0.1467137784, -0.0028302171, -0.1235557720, 0.0199935585, -0.0185386874, -0.1374407858, -0.1015993878, 0.2463341802, 0.1384471506, 0.0805658624, 0.2284281254, 0.2256759703, -0.1201298758, -0.1125350893, -0.0559146479, -0.1887513101, -0.1443287432, -0.1529717594, -0.1660094857, 0.0885499343, 0.1822212636, -0.0398541465, 0.2175424397, 0.1637566239, -0.0994706154, -0.0688437298, -0.2052053064, -0.1732253134, 0.2354140878, 0.1757147908, -0.1880037040, -0.2121082842, -0.0104492642, -0.2640673220, 0.1654739082, 0.2434355468, 0.2554294765, 0.2567437887, -0.0285479054, -0.2384990156, 0.0064899246, 0.0683686584, 0.2433885336, 0.2334532589, 0.2681071162, 0.2632161975, -0.0450991206, 0.2158195078, 0.0139330383, -0.1135009751, -0.0371218696, 0.0214568228, -0.1197546050, 0.1237506717, 0.0730502754, 0.2358071208, -0.0097037414, -0.2215983123, -0.0264538731, 0.1304748952, -0.0603565387, 0.1970877200, -0.0633035004, 0.0333012789, -0.0309665445, 0.1926504225, 0.0099018430, -0.1935001612, 0.0745491832, 0.1957570910, -0.1819752753, 0.1453406960, -0.1508382857, 0.2285843492, -0.0648933053, -0.0840991288, 0.1133586988, -0.2289252430, -0.1109156758, 0.2684691250, 0.1301031262, -0.1465486884, 0.0510676727, -0.2121681273, 0.1538530886, 0.2550779581, -0.0544129945, -0.2286122590, 0.0901997760, 0.2670534551, -0.1628667712, 0.1771456003, 0.2718162835, 0.0184680056, 0.2627979815, -0.0303879119, 0.1467890739, 0.1628957689, -0.0392917730, 0.0111205811, -0.2107611150, -0.1358477175, -0.1605224013, -0.2556335628, -0.1965555698, 0.0461004637, 0.2736459076, 0.1263340712, -0.2102335691, -0.1045320779, 0.0989288762, -0.2117948085, -0.1872574389, 0.0000627798, -0.1287851334, 0.0626028702, -0.0470059849, -0.2103623301, 0.0475229807, 0.2072359473, -0.1169562489, 0.0958510637, -0.2347908020, -0.0442552306, -0.0218337625, -0.1725618988, -0.0454762205, -0.0388473533, -0.2495901138, 0.2698131502, 0.1517304927, -0.1996565610, -0.2617794871, 0.2128938287, 0.0330566578, 0.0744764805, -0.1669588238, -0.0114576267, 0.2261846364, -0.2547581792, -0.0848676637, -0.1532364488, 0.1551309526, 0.0553578250, 0.2122979313, -0.1697578579, 0.1731040627, -0.0612682998, 0.1403885633, -0.2674383521, -0.1990687251, -0.1051896214, -0.1041705534, -0.0531183183, 0.1671701819, 0.2150242925, -0.0492065139, 0.0797900110, -0.2151742727, -0.1734895557, -0.2302758098, -0.0464242212, 0.2583614886, 0.2079582214, 0.0688941404, 0.1261145622, -0.0506171808, 0.2128508985, 0.1450418383, 0.1693755984, 0.1414214373, -0.0350338146, 0.2611809969, 0.1606741399, -0.0966244340, -0.1314176470, 0.1635618806, -0.0309963506, 0.1744070947, -0.2298358977, 0.0597882234, 0.2447431684, 0.2082681060, -0.1072101668, -0.1907306910, 0.0930039734, -0.1322129518, 0.0092756767, -0.2034006864, 0.1252522320, -0.1116036102, 0.1425578147, -0.0372611433, -0.1763856858, -0.0456200652, -0.2118794322, -0.0088098068, 0.2455072403, -0.0762528926, 0.1706620157, -0.1781304628, 0.0498641506, -0.1153424531, -0.1905810386, 0.2592299879, -0.0141554931, -0.0615045652, 0.2298071682, 0.1265827417, -0.0417677723, -0.0268434156, 0.0718686506, 0.0484977514, 0.2562305033, 0.1413091719, -0.1120621338, -0.2685206234, -0.1810489893, -0.2733091414, 0.1190711781, -0.0711921453, -0.1566547751, 0.1850947142, -0.0290522985, -0.1173956767, 0.1313737035, 0.2331286520, -0.1694496423, 0.2049240619, -0.0153850047, -0.2543940246, -0.1565644294, -0.0838471949, -0.0216314830, -0.0932619795, 0.0294713844, 0.0004130148, 0.1029788107, 0.0723343939, -0.1042708382, -0.1653167903, 0.1155000702, 0.1499526799, -0.2688712776, 0.1583447605, 0.2321459502, 0.0705367923, 0.1624445468, 0.0441761278, 0.2706973851, 0.1451971382, -0.1730964184, -0.1358515024, 0.0331721604, -0.2247661352, 0.0657772794, -0.0958864540, 0.0558884665, -0.0656932518, -0.2729148865, -0.1630900055, -0.1233330220, -0.0590566434, 0.2234037817, 0.2059827894, -0.1861547828, 0.1180252656, -0.0968539119, -0.1871147603, 0.1458154768, -0.2631903291, 0.0339649916, 0.0286912564, -0.1846438199, -0.0415190384, -0.0432230718, 0.2275249809, -0.0938223600, 0.2326117158, -0.2672944665, -0.1598360687, -0.0136415344, 0.1796127558, 0.2603893876, 0.1374695152, 0.1772158891, 0.0763414651, -0.0560724288, -0.0587530285, 0.0924191996, 0.1643504649, 0.0334665701, 0.1386416256, 0.0023715622, 0.1163721308, 0.1760084480, -0.2430623472, -0.1923390329, -0.1656661034, -0.2521820068, -0.2528287172, 0.1173751056, 0.2612199783, 0.2043754905, -0.0986379907, -0.1817380339, 0.0305828452, 0.1399630159, -0.1379108280, -0.2161318660, 0.1730362177, -0.2360294759, 0.0274127424, 0.0737732351, -0.1417250186, 0.0026236281, -0.2554403841, 0.2230079770, 0.0260596965, -0.1963873357, -0.1451559812, 0.0324056819, -0.0818461403, 0.0404279791, -0.1691879481, -0.0485357493, -0.0257130191, 0.0823185742, 0.0404368266, 0.1828955561, 0.1357222944, 0.2463027835, 0.0706438124, -0.2702641189, -0.0178717449, 0.1771055162, 0.1116800681, 0.2005822212, 0.2422411889, -0.1921131909, -0.2273417115, 0.1259004027, -0.2507726252, -0.1869333088, -0.2704978585, -0.2036314756, -0.0913269073, 0.2248382121, -0.1911045015, 0.0025567350, 0.0211524554, -0.0836858526, -0.1477420926, 0.1887333989, 0.0180209409, -0.1013608351, 0.2528693676, 0.1693896055, 0.2041228414, -0.2473313808, 0.1957740039, -0.1499960870, 0.0048997640, -0.1611137986, 0.2468483448, -0.0737609640, -0.2424328327, 0.1141361818, -0.2655082345, -0.2234732211, -0.0485260561, 0.0396383516, -0.0737403631, -0.1984388381, 0.1228962690, 0.1854226738, -0.1419518590, -0.1038546264, 0.2694487572, 0.1393785030, 0.1510429829, 0.2317532450, -0.0939916000, -0.1076573953, -0.1723153740, 0.0278528538, -0.1975890398, 0.1353083253, 0.1309978068, 0.2654297352, -0.1545223743, -0.1634216756, -0.0927129537};

#endif

#endif
