//Numpy array shape [10, 20, 2]
//Min -0.273690313101
//Max 0.272882401943
//Number of zeros 0

#ifndef VALUE_WEIGHT4_H_
#define VALUE_WEIGHT4_H_

#ifndef __SYNTHESIS__
mha_value_weight_t value_weight4[400];
#else
mha_value_weight_t value_weight4[400] = {-0.0395983942, 0.1451614648, -0.1460750848, 0.1925186664, 0.1146594509, 0.0994358510, -0.1552258134, -0.2418162227, -0.1747095287, 0.2337097228, 0.1709940583, 0.0590189025, -0.0732762218, 0.0808826685, -0.1906225383, -0.2618980408, 0.1454862952, 0.1131771505, 0.2609634101, -0.2291810662, 0.2037340552, -0.2467657775, 0.1424765587, 0.1305092424, -0.1273554713, 0.1003242359, -0.2639497519, -0.0878092721, 0.1387071162, 0.0412256084, -0.1973687410, -0.1818611771, 0.0507667027, -0.0153313009, 0.1272449195, 0.1470306814, -0.1295781285, 0.1662193388, 0.1550191641, 0.0382173993, -0.0088424860, 0.0933884531, 0.0924864858, 0.2726970613, -0.2454771101, -0.0215146728, 0.1370978951, -0.2365608066, -0.2147824466, -0.1378468126, -0.1886343509, -0.1333601624, 0.0521879159, 0.0393789075, 0.0562881939, 0.0436368994, -0.0462477989, 0.1151696220, 0.0783654377, 0.0177328326, -0.2301392108, 0.2462729067, 0.2336196303, 0.2254763991, 0.1140537187, 0.0750561282, 0.0180140529, -0.0114626214, 0.1525424868, -0.2190785706, -0.1262169480, 0.1941376477, -0.2069117874, 0.0652346238, 0.1947263330, -0.2064526081, 0.1638104916, -0.1076607853, 0.1814945787, 0.1042797863, -0.1793543547, -0.0554592572, -0.0348493606, 0.2689027488, 0.2192987800, -0.1459726393, -0.1985070258, -0.2074062973, -0.2736903131, 0.0953052789, -0.2426931113, 0.1711253375, -0.0794915855, 0.2180824876, -0.1605895609, -0.1590224802, -0.0329729170, -0.0217044484, 0.2601948380, -0.2224979699, 0.1909998357, -0.2732831240, -0.1368146837, -0.0913549438, -0.2234055847, 0.0362541527, -0.0920127779, -0.1983758211, 0.1493261755, -0.1625507176, 0.0109492503, 0.2406209260, -0.1690377444, 0.0386760868, 0.2124082446, -0.2677544355, 0.0492138900, 0.0227240082, -0.1612387449, 0.0949063674, 0.0751797929, 0.1682282984, 0.1549428105, -0.0251950771, 0.0048040762, -0.0004552271, -0.2611365318, 0.1387845576, -0.2458496690, -0.1431196630, -0.2093553692, -0.2145276666, -0.0866153464, 0.1614476144, -0.2686621547, -0.1280601770, 0.0984818786, -0.2640963197, 0.0958587080, 0.1203788072, 0.1867265999, 0.2135510445, 0.2040378600, -0.2328934222, -0.0180039965, 0.2202855200, -0.1438294053, -0.0602320582, 0.1432343572, 0.2018754035, -0.1326158196, 0.1701436788, -0.1964974850, 0.0380719602, -0.1774921119, -0.2615509033, -0.1636215597, 0.2581607401, 0.2353791296, 0.0213025976, 0.0710198730, 0.2006351203, 0.1178804785, 0.1062057167, 0.2237862349, -0.2010530978, -0.2297761440, 0.0372161232, 0.1707658023, -0.1132907271, 0.0196912177, 0.2299747765, -0.1994919479, 0.1014629900, -0.1187466681, -0.1805192232, 0.0031734004, -0.0162880477, -0.2218545675, 0.0541999713, -0.1866014302, -0.1274776012, -0.1608237624, 0.0108364224, 0.0771565214, 0.1725265384, 0.1133239642, 0.0273175109, -0.2555758953, 0.1231002137, -0.0201678276, 0.2389388978, -0.1171781197, 0.2350856215, 0.1256138235, -0.0644845366, 0.1722050011, 0.0920122936, -0.0536555871, 0.0054227002, 0.0176999904, 0.2718312442, 0.2451183796, -0.0233071130, -0.1218956113, 0.2463737875, -0.2640756965, -0.1925548017, 0.0323319621, 0.1301439553, 0.2556925416, -0.1279044896, -0.1756178290, -0.0879366323, 0.1567860693, -0.1003683433, -0.0665876418, -0.1883447319, -0.2350814790, -0.2161585093, -0.1079288870, -0.2013494670, 0.2728824019, 0.1879365146, 0.2047530562, 0.1422885358, 0.0436234511, -0.0217123162, -0.2020036429, 0.0136696761, -0.1012419984, 0.1916554868, 0.1904231012, 0.0096561098, -0.1420646459, -0.2719777226, -0.1119264886, 0.0429719836, -0.0771229267, 0.2499168515, -0.2182754576, -0.0265079681, -0.0877450556, 0.1692118049, 0.1525920331, -0.1490205377, 0.1158334911, 0.0743868649, -0.2703028321, -0.2648941278, 0.1183772311, 0.0247045923, 0.0970010832, -0.1116420329, 0.1428705007, 0.1455232799, -0.1056929678, 0.1357637793, -0.1672961563, -0.0832940564, 0.0786807388, -0.0907967538, -0.1719620079, -0.1389724016, 0.2404026240, -0.1011726931, -0.2203938812, 0.2072365582, 0.1965134889, 0.0104966676, -0.1534676254, -0.0777283981, -0.0213014558, 0.1170219705, 0.0125041194, 0.2233605236, -0.0271945968, 0.0424472205, 0.0119785061, 0.0081291208, -0.1820165813, -0.1609472036, -0.0991664156, 0.1128892377, 0.2541316748, -0.2564984858, -0.2679175735, 0.2567013204, 0.0876753926, 0.2473643273, 0.1424397230, -0.1462201327, 0.1789450347, 0.2366162390, -0.2038610131, 0.1825904697, -0.1153839156, 0.2581160665, 0.1362588704, -0.0482747406, -0.0885704979, -0.0141998278, -0.2523085475, 0.1102006137, 0.1911391765, -0.1467015743, 0.2046537697, 0.0088581564, 0.0554647110, 0.2120756358, -0.0685652867, 0.1352231205, -0.1651527286, -0.0243802462, 0.1668721437, 0.0212858170, -0.0645644516, -0.0518629178, 0.2003840953, 0.0156837553, 0.1121845916, -0.2508842051, -0.0091544269, 0.2151638567, -0.1430174410, -0.2330613285, 0.1614642590, -0.0513739660, 0.2682630718, -0.1332089752, -0.1649957001, -0.1805518717, -0.2493928373, 0.1092031896, 0.2609000802, -0.1546036303, -0.1241708696, 0.0805146098, 0.1953689307, 0.2527039945, 0.1057965234, -0.1485744268, -0.2500621378, -0.1785676628, 0.1650333703, 0.1541376710, 0.0426658876, -0.1699354649, -0.0044904053, -0.1118482947, 0.2064651102, 0.1318173707, 0.0239682756, -0.0595444851, -0.1441723555, -0.0479779802, -0.2487509251, -0.1488176733, -0.2445075363, 0.0832391456, 0.1080846116, 0.1013890728, 0.1341263503, -0.0891742036, -0.1159955487, 0.1308417171, 0.1581049412, -0.0025798487, 0.0531421825, -0.0469103977, -0.1172210500, 0.2498811036, 0.0231324527, -0.1721273065, 0.2260880768, 0.0552432984, -0.1096593291, -0.1958580315, 0.0742251649, 0.2685637176, -0.2488322556, -0.2072487324, 0.1919204146, 0.0935535803, -0.0711266547, -0.0047562812, -0.0917253271, 0.1050920412, 0.2501862049, 0.2099352181, 0.1879758835, -0.0772877932, -0.1650433987, 0.1327120513, 0.1844350845, 0.1340171397, 0.1896895915, -0.2377314270, 0.0773171112, -0.1835230589};

#endif

#endif
