-0.0964963287, -0.0238760784, -0.0324620306, -0.0921368152, 0.1136052907, 0.0683522522, -0.0108777722, 0.0980129018, -0.0258910954, -0.0319471844, 0.0620573871, -0.0447054654, -0.1077500656, -0.1211414114, -0.0836723521, -0.1110162437, 0.1037884802, -0.1000282541, -0.0173712671, -0.0289886519, -0.1182630882, 0.0167056639, 0.1081254780, 0.0615179725, 0.0438548066, -0.1052150205, -0.0437495112, 0.0556536689, -0.0011692779, -0.0834980682, -0.0886628255, -0.0699306801, -0.0987945125, -0.0955630317, -0.0453417823, -0.0078616263, -0.0255799964, 0.0139041971, 0.0101735517, -0.0632131174, 0.0533376560, 0.0691034645, -0.0547151156, 0.0030341044, 0.0040811943, 0.0587168261, -0.0526619926, 0.0605260730, 0.0917962939, -0.0604858771, -0.0241903160, -0.0528453402, -0.0024141697, -0.1082253158, 0.0225651935, 0.0458614863, -0.1102406234, -0.0818054751, 0.0159181636, 0.0523585603, 0.1114704907, -0.0096985083, -0.1139684543, 0.0819474608, -0.0020603801, 0.0134444544, -0.0302434564, -0.0790770724, 0.0693899617, 0.0299930368, -0.0917009860, -0.0997843146, 0.1154704541, 0.0235999171, -0.0029968740, -0.0117466534, 0.0115869287, 0.0959129408, -0.0988721848, 0.0637047440, 0.0983829796, 0.0671633184, -0.1041789278, 0.1044713557, 0.0900288671, 0.0270441230, 0.0934402198, 0.0549869426, 0.0399930067, 0.0682669804, -0.0949503556, 0.0282750428, -0.0576928072, 0.0047632377, -0.0647511780, -0.1079921499, 0.0885594413, 0.0396640822, -0.0377601720, -0.0557929985, -0.1027911007, -0.0933305472, 0.1125456914, 0.0666682273, -0.0948479474, 0.0314311907, -0.0633732229, 0.0382281467, -0.0691479966, 0.0044994866, 0.1008490399, 0.0824087411, -0.0554787293, -0.0972254723, -0.0407767706, 0.0145048741, 0.0496073179, -0.0633843318, -0.0218344443, 0.1205852032, 0.0743126199, 0.0049119103, -0.1152634099, 0.0426041037, -0.0441539921, -0.0930007473, 0.0859409273, -0.0862684175, -0.0742445737, -0.0249148458, 0.0242526289, -0.0722526908, 0.1013406515, -0.0036546376, -0.0160651859, -0.0119255483, -0.0076108114, 0.1041537300, 0.0241791457, 0.0194304660, 0.0285552181, 0.0450108834, 0.0198598839, -0.0484093949, -0.0813796967, -0.1065526530, -0.0897090212, -0.0381803326, -0.0885438174, -0.0069267820, -0.0103308382, 0.0633526370, 0.0023211525, -0.1053437218, -0.0003091716, 0.0948113427, -0.0687419400, 0.0451395847, 0.1030091718, -0.0028180375, -0.0035021252, 0.0492187366, -0.0101890713, 0.0734562352, -0.0628814921, 0.0233725645, 0.0541114472, -0.0479298979, -0.0517261699, 0.0699423999, -0.0085537294, 0.0544707254, -0.0710563436, -0.0069401264, 0.0015080002, -0.1187683940, -0.0850773901, -0.1214321107, 0.0719841719, -0.0296603870, -0.0187988058, 0.0357121862, 0.0060203057, 0.0555200763, 0.0074839070, 0.0187311638, 0.0716199800, -0.0903652832, -0.0276131909, -0.1163193583, -0.0727486610, 0.1001885459, 0.0166668277, -0.0044741118, 0.1217855364, 0.0519372001, 0.0570782311, -0.0736811683, 0.0593889430, 0.0674964190, 0.0713292360, -0.0665348172, 0.0968742669, 0.1196298599, -0.1187337190, 0.0071774218, -0.0614251904, 0.0700303093, -0.0788737461, 0.0777773261, -0.0152495233, -0.1108125821, 0.0473731942, -0.0540874563, 0.0371492133, -0.0908884332, -0.0187358651, -0.0060234009, 0.0577442572, -0.0900396258, 0.0436859392, -0.0768083930, -0.0202455297, 0.0249856561, -0.1055373326, -0.0279804412, 0.0377667546, -0.0218464304, 0.0742584094, -0.1180006340, 0.0322259180, -0.0368971005, -0.1129806414, 0.0889132172, 0.0498205945, 0.0809424669, -0.0108563248, 0.1166323274, -0.0195616614, -0.0619908981, -0.0303946696, 0.0843748003, -0.0687813610, 0.0226141326, -0.0527140126, 0.1074042916, -0.0185374059, -0.1195980459, 0.1027868241, 0.0289192870, -0.0353935696, 0.0791633278, -0.0548515692, -0.0546420589, -0.0835615918, -0.0579964295, -0.0580142848, -0.0996490270, 0.0742460042, -0.1049603373, -0.1035884693, 0.0797805488, -0.1213470772, 0.0228635017, -0.0042547747, 0.0465244167, -0.0483345687, 0.1129963621, -0.1139629930, 0.0110705961, 0.0697322935, -0.1183100268, 0.0829769000, 0.1221313998, -0.1049362496, 0.0196305010, 0.0194930416, -0.0642469376, 0.1170840561, 0.1155199632, -0.1147171333, -0.0374284573, 0.1176750213, -0.1097936109, 0.0443137735, -0.0561573729, 0.0660898015, -0.0265449323, 0.0064286562, 0.0274220183, -0.0173331462, 0.0397026129, -0.0146555910, 0.0535411388, -0.0107981293, -0.1011367366, -0.0432890356, -0.0078241332, 0.0682119131, 0.1177462861, 0.0049199988, 0.0797649696, -0.0916660875, -0.0733660981, 0.0921428725, -0.1130858213, -0.1121946126, -0.0725774467, -0.0900697932, 0.0819441900, -0.0736422986, 0.0854910687, 0.0818985850, -0.1078547537, -0.0642254576, 0.0868956447, -0.0066536143, -0.0693023950, -0.0935621634, -0.1206156611, -0.0487680882, -0.1043184921, -0.1100296825, -0.0438539572, 0.1141376719, 0.0016340428, 0.0249416940, -0.1121646240, 0.0974638760, 0.0764758438, -0.0639489591, 0.0016796681, 0.0432747863, 0.0336423591, 0.0915330574, -0.0661429316, 0.1204693541, 0.0579358116, -0.0816631839, -0.1013024449, -0.0119269211, -0.0534103625, -0.0101098949, -0.0200814679, 0.0435079522, 0.0006485071, 0.0253075287, 0.0499293506, -0.0719361305, -0.0078793503, 0.0686271265, -0.0312518142, -0.0825315565, -0.0574520491, -0.0558009706, -0.0503112003, -0.1141637415, 0.0741257221, -0.0449230373, -0.0326323695, -0.0618412197, 0.0000675838, 0.0047129551, -0.0909054279, 0.0848943889, -0.1217401698, 0.0730835572, 0.0536990948, 0.0441232137, 0.0683438852, -0.0771038681, 0.0763563141, -0.0322076380, 0.1012455970, -0.0069403895, -0.1015273184, -0.0823258385, -0.0363370553, -0.0966600254, 0.0323661938, 0.0900566205, 0.0001288312, 0.0916428939, 0.1180347428, -0.0542278104, 0.0527825467, 0.0872868970, 0.1146611124, 0.1152751148, -0.0330761969, 0.0270975456, -0.0743059665, 0.0799682587, -0.0376319811, -0.0210013632, 0.0606498644, 0.0870997235, 0.0803455263, -0.0737228766, -0.0305157788, -0.1124047711, -0.0542570390, 0.0613602772, 0.0068535190, -0.1109154299, -0.0195521563, -0.0498462617, 0.0362866856, -0.0045194016, -0.0291329734, 0.1114478484, 0.0058104587, 0.0994203314, 0.0069392361, 0.0294809807, -0.1089058146, -0.1177123711, -0.0541100875, -0.0985064954, -0.0358268693, 0.0877387375, 0.0491707884, -0.0004510846, -0.0003149533, 0.0012252838, 0.0450237021, -0.0067181615, 0.0849780664, 0.0423557535, -0.0673365667, -0.1098654047, -0.0441680662, -0.0614220947, -0.0285707377, -0.0059415381, 0.0799144730, 0.0316033550, 0.0123059535, 0.0673124418, -0.0665339082, 0.0350258350, 0.1120636240, 0.1130082086, -0.0223655086, 0.0574727245, 0.0191849787, -0.0181580372, 0.0706600845, 0.0510623902, 0.0625204742, 0.0497564711, 0.0167881977, 0.0199978389, -0.0909596831, 0.0244339034, 0.0890920907, 0.0012136184, 0.0232233070, 0.0301923864, 0.0648681968, -0.0703452528, 0.0536609888, 0.0637888312, -0.0709979311, -0.1098493114, 0.0178131685, 0.1164866909, -0.0705423504, 0.0681896061, 0.0926565155, -0.1172946021, -0.1109749377, -0.0204274189, 0.1016584858, 0.0363569856, -0.0172815211, 0.0361708626, 0.1155864075, -0.0215355214, -0.1017763391, 0.0834207758, 0.0335880332, 0.0210501272, -0.0313674323, -0.1217471808, 0.0166365765, 0.0611274354, 0.0761233568, -0.0620434433, 0.1175636947, -0.1220813319, 0.0879079700, 0.0125477025, -0.0635342151, 0.0163129792, 0.0462522581, -0.0636310279, 0.0276950393, 0.0254697371, -0.0250344928, -0.0451503582, -0.1067524254, 0.1103879809, 0.0911407322, 0.0089050801, -0.0577795468, 0.0069591068, -0.0477861576, 0.1079389751, -0.0516406298, 0.0793066099, 0.0159038268, 0.0096982457, 0.0478819795, -0.0198927764, -0.0954491198, 0.0685063228, 0.0294992179, 0.1126351878, -0.0534623265, 0.0794194266, 0.0839610621, -0.1221906021, -0.0461448468, 0.1060710102, -0.0153568480, -0.1095224619, 0.0423329808, -0.1207312346, 0.0657190010, 0.0639207810, 0.0726135373, 0.0855747536, -0.1205481067, -0.1198236346, -0.0748537853, 0.1056623980, -0.0932660103, -0.0705219507, -0.0538858585, 0.0497308038, -0.0976966470, -0.0939108729, 0.1068326011, 0.1140344441, 0.0125815449, -0.0678065717, -0.0812484995, 0.0711530596, -0.0307321362, 0.1200023517, 0.0815834850, -0.1175929010, -0.0366405025, -0.0905225500, -0.1016916558, 0.0443538800, -0.0328996815, -0.0055335970, -0.1188136563, -0.0552252308, 0.0286469068, 0.1086222231, -0.0837814808, -0.0558110289, -0.1096122116, 0.0492286906, -0.1222255081, 0.0701837167, -0.0691432208, 0.0536626838, -0.0722944066, 0.1220759302, -0.0118299173, -0.0038386134, 0.0261422899, -0.1123025715, -0.1044966727, -0.0497822538, 0.0667439178, 0.0729596615, 0.0237147752, -0.0077644773, 0.0002323167, -0.0058460389, -0.0176421292, 0.0390790552, 0.0547413230, -0.0637578890, -0.0062154946, -0.0618911348, -0.0967225730, -0.0789190233, 0.0154481716, -0.0247131009, 0.1152030528, 0.0100448513, -0.0604970008, 0.0618665367, 0.0852556005, 0.0157852154, 0.0811168626, 0.0252676420, -0.0366722718, -0.0331241302, -0.0049654343, -0.0245811604, -0.1099375412, -0.0963880271, 0.0224120095, 0.0243661590, 0.0474264845, 0.0852514058, 0.0110376142, -0.1058299690, 0.0294345971, 0.0653441623, -0.0758769885, -0.1029336974, -0.0377149843, -0.0832330585, -0.0662851259, -0.0985356122, 0.0687455907, 0.0325852409, 0.0736665800, 0.0715084970, 0.1029386818, -0.1109064594, 0.0128329005, -0.0081627676, -0.0877868161, 0.1213237941, -0.0389747657, 0.0837606639, -0.0612668954, -0.0999196842, -0.0301146843, -0.1132967174, 0.0889823437, -0.0179106966, -0.0215521958, -0.0365167372, -0.0962467566, -0.0576857701, 0.0029485624, -0.1042314023, -0.0310236719, -0.1173705384, -0.1030171290, 0.0990521610, 0.0834235772, -0.0949884430, -0.1015928686, 0.0308966208, -0.0667172596, -0.0097689973, 0.0277786534, 0.0987628475, 0.0995630175, -0.0679212809, 0.1160285994, -0.0481458753, 0.0454923213, -0.0504053272, 0.0231925733, -0.0382951163, 0.0280795917, 0.0419792607, -0.0968618840, -0.0239900164, -0.0685722753, 0.0277606808, -0.0783810541, 0.0382553749, 0.0860420167, -0.0911342800, -0.0539533421, -0.0234514344, 0.0839057490, 0.0401443504, -0.1209046692, -0.0795082971, 0.0391123146, -0.0332268104, 0.0470488816, -0.1036199927, -0.0796558633, -0.0485863611, 0.0390317068, -0.0094109010, -0.0416955985, 0.0891492218, 0.1070016548, 0.0903123096, -0.0152566331, 0.0069997241, 0.0809396952, -0.1079811007, -0.0359520502, -0.0790860057, 0.0905291215, 0.0632382706, -0.0355259776, -0.0733079314, 0.1109146699, -0.0459967144, -0.0377302542, -0.0859172568, -0.0420467742, 0.0977639556, 0.0613229871, -0.0089601232, -0.0595104173, -0.0405396484, 0.0925948173, 0.0264653023, -0.0663394034, -0.1043707430, 0.0878601223, -0.0310190879, 0.0128522459, -0.0976192653, 0.1025872380, 0.0685091838, 0.0562269986, 0.0775253251, 0.0943018347, 0.0328459665, -0.0748623163, 0.0653505549, 0.0251265168, -0.1043927148, -0.0470564887, -0.0842766911, 0.0404450558, 0.0810119957, -0.0462384894, 0.1114670932, 0.0563481376, -0.0757820159, -0.1131762788, -0.0038061575, 0.0842046067, 0.0547436886, 0.0724911094, -0.1012372002, -0.0043612239, -0.1152274311, 0.0636148080, 0.1154698953, -0.0847498178, -0.1223559901, 0.0992597640, -0.0482321903, 0.1068960056, -0.0716772452, 0.0669415444, -0.0839121565, 0.0141572896, -0.0202054828, 0.0394020081, -0.0658331215, 0.0587275438, -0.0968350619, -0.1042120159, -0.0008638585, 0.1211393178, 0.1208721250, -0.0714444593, 0.0783880502, 0.0121777505, 0.0854352936, 0.0473626107, -0.1182295680, -0.0273221824, 0.0469630361, 0.0523773059, -0.0172289461, 0.0194023158, -0.1123255938, 0.0141982874, -0.0230940972, -0.0365267694, -0.0082171243, 0.0405387282, -0.0449849702, -0.0460001454, 0.0673812702, -0.0671981722, -0.0759830326, 0.0815499946, 0.1087693870, -0.0240908451, -0.1059793681, -0.0097912336, 0.0446756370, 0.0586508065, -0.0778769106, 0.1012501940, 0.0206385218, -0.0234301761, -0.0428094231, 0.1150149629, -0.0313961506, -0.1154574752, -0.0535424799, -0.0253130477, 0.0524875522, 0.0694492012, 0.0136299348, 0.0244084708, -0.0435665846, 0.1068590954, 0.0984535888, 0.0319687948, -0.0151999267, 0.0184788592, 0.0231795646, 0.1097069457, -0.0323858745, -0.0978042185, 0.0419446602, -0.0071453601, -0.0381133482, -0.0087645110, 0.0987752900, -0.0709291250, 0.0808879361, 0.0342859738, -0.0606801473, -0.0594257191, -0.1112186983, -0.0910774916, -0.1157799885, 0.0709737241, -0.0634009317, -0.0570113771, 0.0513758250, 0.0832127258, -0.1024849117, -0.0961026251, -0.0113786869, 0.0602547303, -0.1203003675, 0.0276231915, 0.0737039149, -0.0457401760, 0.0183923692, -0.0148898354, 0.1212593466, 0.0829146057, -0.0539053231, 0.0080297757, -0.0127301011, -0.0714267045, -0.0634436980, -0.0583319403, -0.0517245345, -0.0324841924, 0.0214850195, -0.1215370297, -0.0416747183, -0.0148945944, 0.0745450258, -0.0672406107, -0.0217210893, 0.0067010792, -0.0953317359, -0.0351931527, 0.0812295303, 0.0413513705, -0.0915926099, -0.0593424141, -0.1002271473, 0.0298377499, -0.0997786373, 0.0196413919, 0.0758292824, -0.0991077051, -0.0498499982, -0.1135444120, -0.0133032575, -0.0018556138, -0.0611061193, 0.0164023619, -0.0144146457, 0.1093384847, -0.0122586936, 0.0882680640, -0.0941017345, -0.1013979316, 0.0840279460, -0.0462463759, 0.0066335099, 0.0037192286, -0.0456187315, 0.0406952128, -0.1032652557, 0.0762951672, -0.0580361858, 0.0731116608, -0.0005112078, 0.0698189884, -0.0302261859, 0.1059714705, 0.0958601311, 0.0665338486, -0.0678808838, 0.0280420985, -0.0210016109, 0.0663522407, -0.1089353934, -0.0080819419, 0.0521329269, -0.1050316319, -0.0156676546, 0.0989515111, -0.1215983033, 0.0448668264, 0.0212323796, -0.0054034228, -0.0223267600, -0.0775712579, -0.0238409489, 0.0928565115, 0.0640592203, 0.0705997422, -0.0968296453, 0.0800923184, -0.0900406465, 0.0070422981, -0.0673385337, 0.0047142543, -0.0309834331, 0.0976508930, 0.1139434427, -0.1047688425, 0.0797721669, -0.0504527949, 0.0391966589, 0.1058716476, 0.0907822326, -0.0830994844, 0.0390337668, 0.0224971417, 0.0525592081, -0.0145255188, 0.0201508198, -0.0257052500, 0.0569946282, 0.0068827337, 0.0098985443, -0.0522128940, -0.0998696387, -0.0099866707, 0.0466322824, -0.0573199205, -0.0382179581, -0.0412123911, 0.0775648057, 0.0507863611, 0.0779562816, -0.0564916693, -0.0596252158, -0.1190200448, 0.0902460441, -0.0374582112, 0.0859754235, -0.1071780920, -0.0978898183, 0.0762118027, -0.0370044969, 0.0591703653, 0.0967761800, -0.0450386703, 0.0409664102, 0.0602415018, -0.0440691337, -0.0845696107, 0.0480733737, -0.0905891284, -0.0296803322, 0.0380908325, 0.0522699803, 0.0824402496, 0.0085868426, -0.0068270341, -0.0589465164, -0.0238439869, -0.0593812615, -0.1154145077, -0.0902666748, -0.0736627579, 0.0114742741, 0.0890503675, -0.0890740901, 0.0773759559, -0.0002259073, 0.0973932445, -0.0450387858, 0.1015500799, -0.0864270926, -0.0220182296, -0.0437753387, -0.0137734683, -0.0128366528, 0.0934227481, 0.1001197621, 0.0566800423, 0.1213953197, -0.0252650864, -0.0177952405, -0.0718347058, -0.0359287485, 0.0201410819, 0.0010514405, -0.1068511680, -0.0984526649, 0.0542451814, -0.0709623247, 0.0566313788, -0.1180994511, -0.0262231007, -0.0264737271, 0.0311982892, -0.0540135950, 0.0298294127, 0.0741010830, 0.0358086340, -0.0900715292, -0.0893066972, 0.0129846539, -0.0599846840, 0.0532392673, 0.0696936324, 0.1139935926, -0.0659771636, -0.0127657400, -0.0992999375, 0.0376670063, -0.0844409540, 0.1023780033, -0.0922754556, 0.0852505788, 0.0540535711, 0.0091341557, 0.0717738867, 0.1101103798, -0.0902135968, -0.0632263720, 0.0828218609, -0.0731941089, -0.1186848804, 0.0574516840, 0.0757913366, 0.0426827669, 0.0072691105, 0.0799305215, -0.0983213708, 0.0220527295, 0.0841307044, -0.1184503585, -0.0275004935, 0.1070369706, -0.0826905668, -0.1020444408, -0.0661825463, -0.1074490026, -0.0574909747, -0.0751197711, 0.0505706891, 0.0346311666, -0.0695795193, 0.0121201528, 0.0088771945, -0.1119761989, 0.0858568996, 0.0322102942, 0.0167469233, -0.1000094935, 0.0705639422, -0.0279913917, -0.0907542706, 0.0215237103, -0.1090852767, 0.0911531001, 0.0696808696, 0.0110139186, -0.1022724509, 0.1180419549, -0.0681916475, 0.0456601083, -0.0188922770, 0.1052482575, -0.0490017198, 0.0906263590, 0.0598735921, 0.1110341549, 0.1044637188, 0.0576150008, -0.1111734584, 0.0370597616, 0.0541609563, 0.0636355281, -0.0302236732, 0.0333179608, 0.0728729963, 0.0306144897, 0.0944281965, -0.0679834634, -0.0877368972, -0.0501004197, 0.0795558393, 0.0034570545, -0.0960071087, -0.0263099875, 0.0575061440, 0.1074285880, 0.0859948471, -0.0543445945, -0.0303328671, -0.0960896835, -0.0946836695, -0.0853719041, 0.0283328015, -0.0838426575, -0.0345540494, -0.0679482520, 0.0246328451, 0.0124850534, 0.0140874432, -0.1191060096, 0.0651083812, -0.0710611045, -0.0312221739, 0.0487485528, 0.0574738644, -0.0715843290, 0.0854806453, 0.0078008608, 0.1211700961, 0.1116750091, 0.0486989431, -0.1078137830, 0.0776162297, 0.0559590012, -0.0131853763, 0.1078657433, -0.1191087514, -0.1009687483, 0.1102328449, 0.0783484504, 0.0399402268, -0.1159383878, 0.0765378624, -0.0535422452, -0.0720694512, 0.0587256886, -0.0702100992, -0.0397168770, -0.0710018277, 0.1132232323, -0.0750353709, -0.0867858082, -0.0939635634, -0.1217898130, -0.0395457335, -0.0688080490, -0.0133989751, 0.0704917908, 0.1019502655, 0.0603852980, 0.0756994113, -0.1153398529, 0.0196302533, 0.0286650993, -0.0097331982, -0.1076194867, 0.0551865250, 0.0714985579, -0.0719853938, 0.0076200091, 0.1046048701, -0.0858711973, -0.0850233138, 0.1199515164, -0.1174769849, 0.1192506403, 0.0661393106, -0.0702562779, -0.0209497660, -0.0510352626, 0.0765244216, -0.0545517281, -0.0582237542, 0.1122649014, 0.0643822923, 0.1158155128, 0.0102781318, 0.1215849891, 0.0165161844, -0.0600277260, 0.1188155562, -0.0446908511, -0.0058045750, -0.0184696615, 0.0158716477, 0.0752260610, -0.1111843437, 0.0637208670, 0.0126477126, -0.0997468382, -0.0024928935, 0.1121211201, -0.0650703385, 0.0284482446, -0.0493945926, 0.0361814313, -0.0839625075, 0.0139532248, -0.1020981520, 0.1197693050, 0.0328561589, -0.0373128690, -0.0875613764, 0.0036870644, -0.0027145520, 0.1199331209, -0.0870842710, 0.0451689325, 0.0970869735, -0.0659822300, -0.1064663529, -0.0661167577, -0.0406591520, -0.0921265483, 0.0298813898, 0.1126682162, 0.0470202677, 0.0264449213, -0.0696741715, -0.0410520844, -0.0923302472, 0.1042303815, 0.1053756401, 0.0700670704, -0.1132524088, 0.0292417593, 0.0845511556, -0.0069046919, 0.0263461508, 0.0426280908, 0.0637089685, -0.0719988719, 0.0034849991, -0.0479733460, -0.0561776236, 0.1192124113, -0.1171706766, -0.1046917737, 0.0502361283, 0.0671156794, 0.0643225461, 0.0787367895, 0.0126498006, 0.0448442549, -0.0649999231, -0.0803573206, 0.1196008474, -0.0033258288, -0.0142950565, -0.0151397595, -0.0964953974, 0.0247381981, -0.0970939249, -0.0035989967, -0.0264974963, -0.1010904536, 0.1061008126, 0.0593810603, 0.0341098681, 0.0297206137, 0.0126876002, 0.0465135723, -0.0689330101, -0.0174541529, -0.0794072375, 0.1198390201, -0.0533890203, -0.0875274017, -0.1077215523, -0.0146585116, 0.0375526026, -0.0082901828, 0.0941312164, -0.0083364509, -0.0588511042, -0.0930963159, 0.0668251514, -0.0101315910, -0.0543524064, -0.0626083836, -0.0605672002, -0.0309046954, -0.1146224812, -0.0984121263, 0.0666765943, 0.0305188447, 0.0851109847, 0.0058667129, 0.1009642780, 0.0805825293, 0.0274919663, 0.0872589648, 0.1170151010, -0.0969330594, 0.0014814864, -0.0301674344, -0.0709364936, 0.0251814872, -0.0221566241, -0.0051686238, -0.0213971119, 0.0104536545, 0.0562590770, -0.0501628928, 0.0344332755, -0.0731709972, 0.0940160900, -0.1209845468, -0.0067363675, 0.0764754489, 0.0936283320, -0.1084698811, -0.0162790790, -0.1121483445, 0.0380249731, -0.0362691507, 0.0981692523, 0.0168916695, -0.0865776911, 0.1204530150, 0.0128982216, 0.0491334721, 0.0272799730, -0.0306737069, 0.0778211579, 0.0994550809, -0.0914911851, -0.0975804180, -0.0563850589, -0.0018274357, -0.0115581080, 0.1097141281, 0.0441449247, -0.0264980644, -0.0382876433, -0.0998769626, -0.0211855285, -0.1049401909, 0.0538128316, 0.0195993446, 0.0999020785, 0.0520469621, -0.1187483370, 0.0827190056, -0.0800493211, 0.0784152076, 0.0999583751, -0.0995313972, 0.0222051404, 0.0726135224, -0.0241502970, -0.0660006255, -0.0191834457, 0.0199718513, 0.0227040108, -0.0047959127, 0.0114774713, 0.0642485097, -0.0054869060, 0.0682561919, 0.0227440875, -0.1026892811, 0.1155054197, 0.0161789358, 0.0791695341, -0.0710001513, -0.0402968191, -0.0808361322, -0.0618772954, 0.0373916775, 0.0221743193, 0.0008838168, -0.0853225961, -0.0233146455, -0.1085528433, 0.0416391827, -0.0991229713, 0.0771474019, 0.0365521871, -0.0472132787, 0.1176888049, -0.0101189325, 0.0279703382, -0.0234748814, -0.0100719789, 0.1025037020, -0.0222776011, -0.1035479233, -0.0054175700, 0.0868773758, 0.0395566672, -0.0304788109, 0.0241026133, -0.0617740303, -0.0281376708, 0.1116213575, 0.0523935407, 0.0265985131, 0.1090424955, -0.0450489894, 0.0504676141, 0.0270931069, -0.1009952873, -0.0109710237, -0.0708148777, -0.1088235527, 0.1063966379, -0.0428332090, -0.0587566420, -0.0385439917, 0.0086162034, -0.0461408459, -0.0310418494, 0.0192824490, -0.1031937152, -0.0043527996, 0.0833488554, 0.0920895487, -0.0392893702, -0.0809074864, 0.0971832648, -0.0924078599, -0.0595936365, 0.0666302815, -0.0782051086, 0.0232059918, -0.0999803767, 0.0890852287, 0.0256582089, -0.0324241407, 0.0758046061, 0.0644316673, -0.0143393241, 0.0163288210, -0.0663688257, 0.1118206605, 0.0549942255, -0.0375816114, 0.0127955386, 0.0222216677, -0.0784167349, -0.0341609120, -0.0329637453, 0.0830948725, 0.0196586065, 0.0067554498, 0.0553111508, -0.1016153395, -0.0883391500, -0.0392885506, 0.0689958483, -0.1112193987, -0.0825519115, -0.0580094829, -0.0863690004, 0.0166867562, 0.1044880971, 0.1172302142, 0.0372295454, 0.0816999748, 0.0224619992, 0.0651934445, -0.0976805687, -0.0073708734, -0.0649861246, 0.0796124414, -0.0387079641, 0.0800583884, -0.0387202725, -0.0377849042, -0.0821762905, 0.0668877587, -0.0243473258, 0.0783757120, 0.0098010302, 0.1207465902, -0.0923015028, -0.0775643513, -0.0322519355, 0.0294983853, -0.0363639630, 0.0572478250, -0.1199242547, -0.0590848811, -0.0421462730, -0.0625767410, 0.0274718776, 0.0207660235, -0.0453026667, 0.1017081216, 0.0382216945, -0.0760460049, -0.0071685449, 0.0958968028, -0.0880848318, 0.0649715960, -0.0910282582, 0.0607016943, 0.0271888394, -0.0116435327, -0.0773944706, -0.0483847335, -0.0758117288, -0.0863145143, 0.0833054781, -0.0060749394, -0.0487837233, -0.0916887373, -0.0714563280, 0.0751720294, 0.0291949958, 0.0742083639, -0.0836637914, -0.0834283233, -0.0015803290, -0.0705327764, -0.0907791778, 0.1041863039, 0.0619258694, -0.0506146513, 0.0346984714, 0.0463034026, -0.0984156579, 0.0870709568, 0.0431239083, -0.0864437371, -0.1219640672, -0.1141648218, 0.0243692249, -0.1070255935, -0.0639162585, 0.0933357850, -0.0802200958, 0.0786773637, -0.1113775820, -0.0967715532, 0.0633552223, 0.0219550561, -0.0733292475, 0.0563150086, -0.1100807860, -0.1042503119, -0.0316419713, -0.0629384294, -0.1068121865, 0.0713454261, -0.0160043184, 0.0132494410, -0.0010075234, 0.1149523854, -0.0627215207, -0.1221277043, -0.0439433418, -0.0518754981, -0.1112070903, 0.1167367771, 0.0078101172, 0.0933492035, 0.1071017385, 0.0078331996, 0.0750895962, 0.0438927822, -0.0226127319, -0.0043642172, -0.0827960819, 0.0151028503, -0.0995415747, -0.0152149796, -0.0128920898, -0.1197835952, -0.0776383653, 0.0618215539, -0.0038476947, -0.0379784256, -0.1003744230, 0.0282829702, 0.0992517620, 0.1104212999, 0.0519805625, -0.1136688441, 0.0250348151, 0.1199008077, -0.0490894653, 0.0566673093, 0.0958865434, 0.0245653633, 0.0257454012, -0.1139325798, 0.0456630290, 0.1183045655, 0.1046080962, 0.0774991214, 0.0218928885, -0.0126381060, -0.0173787866, 0.0641089678, -0.0971548632, -0.0922202393, -0.0680242702, -0.1075621322, 0.1126466617, -0.0405358225, -0.0906038284, -0.0755414814, -0.1178217828, -0.0977497771, -0.0530702993, 0.0725025460, 0.0591228865, -0.0667555705, -0.0057192957, -0.1165632680, 0.0887552276, 0.1113951132, 0.0844887272, -0.0574786365, -0.1042798758, 0.1140517890, 0.0775474906, -0.0745670721, -0.0864877850, 0.0033053157, -0.0268216040, -0.0290005207, 0.0095111597, 0.0487076305, -0.1208912954, 0.0968630984, -0.0286326576, -0.0159363840, -0.0877131149, -0.0895770788, 0.0547302552, -0.0047766115, 0.0134905474, 0.0307852235, -0.0850154981, -0.0737082809, 0.0096672345, 0.0760919079, -0.0422391891, -0.0817581043, 0.0533645935, -0.0891578123, -0.1066488400, 0.0891222432, -0.0748250559, -0.0490592159, 0.1217434555, 0.0336362869, 0.0945642963, 0.0001362773, -0.0682020560, 0.0056490987, 0.0636840016, -0.0216146987, -0.1138463542, -0.0442619435, 0.1089556292, 0.0598552860, -0.0142836245, -0.0486240871, -0.1130767688, 0.0625678673, 0.0116832601, 0.0863932669, 0.1203806996, 0.0596041642, -0.0985459015, 0.1038017944, -0.1084918380, -0.1006169543, 0.1088844389, -0.0152461799, 0.0570120774, 0.1047009230, 0.0597124659, 0.0583774932, 0.0260511711, -0.0101476070, -0.1138792187, -0.0600795001, -0.1062007621, 0.0046362751, -0.0820701942, -0.0988609046, -0.0739457607, 0.0525649898, 0.0022530723, 0.0215487927, -0.0700381771, -0.0342685878, -0.0343204178, 0.0357103460, -0.0199970212, 0.0418141782, -0.0287256166, 0.0824782476, 0.0576995797, 0.0950460434, 0.0101414165, 0.0546213388, -0.0549139827, -0.0110460091, 0.1187979430, -0.0186253283, -0.0032178904, -0.0233790036, -0.1072326005, 0.0173404031, -0.0654729903, 0.0861179978, -0.0472412556, 0.0295411628, 0.0729034171, -0.0527858883, -0.0401303656, 0.0439507142, 0.0486508198, 0.0437143072, -0.1222153157, 0.0601168759, -0.0528354868, -0.0541283824, 0.0434100293, -0.0125278169, -0.0897006392, 0.0272221565, -0.1136675626, -0.0566959120, -0.0167978201, 0.0800171718, 0.0967696309, -0.0381987132, 0.0663310587, -0.0053228447, 0.1041501388, 0.0712553188, 0.0113482894, 0.0311985519, -0.0412654206, -0.0837131292, -0.0334925614, -0.0055579063, -0.1130627692, -0.0645552874, 0.0787278041, 0.0661857426, -0.0244936328, -0.0452299006, 0.0453310795, -0.0395386368, 0.0596327074, 0.0553406142, 0.0711318031, -0.0700471029, -0.0026529981, 0.0526196808, -0.1099001244, -0.1012449339, 0.0403698944, 0.0180167519, -0.0177849475, -0.0499484465, -0.1054410040, -0.0240620244, 0.0114796758, -0.0292965677, -0.0513199531, -0.0814239904, 0.0947194993, -0.0960440636, 0.0135291060, 0.0978500471, -0.0568168163, -0.1126918793, -0.1018842757, -0.0083676800, -0.0073880428, 0.0689322203, -0.1052978188, -0.0438131504, 0.0373363309, 0.0162791368, 0.0350744985, -0.0714517459, 0.0639543608, 0.0635217503, 0.0469973460, 0.0725875199, -0.0941465870, -0.0227196924, 0.1046380997, -0.0733499378, -0.0611595698, -0.0440050103, 0.0529802591, -0.0390644409, -0.0117844092, 0.1021958590, -0.0857818425, 0.0383307859, -0.0565431640, 0.0620657541, -0.0163080152, 0.0359755717, 0.0696821138, -0.0806337297, 0.0027903558, 0.0797371119, 0.0424800031, 0.0435937978, 0.1008337513, -0.0864673182, -0.0368569940, -0.0543690361, -0.0504764616, -0.0848003402, -0.0502535738, 0.0733463466, 0.0103066312, 0.0730701387, -0.0672440454, 0.1051122546, 0.0265322588, 0.0353462771, 0.0112897577, 0.1091516763, 0.0357259549, -0.1196458638, -0.0428255573, -0.0474892966, -0.0511295944, 0.0966902450, -0.0718575269, 0.0809477046, -0.0967311412, 0.1105913892, 0.0420426279, -0.0684844106, 0.0625614598, -0.0452906229, -0.0714406669, -0.0898094103, -0.1219357848, 0.0677690804, 0.0225430448, -0.0144047905, -0.0332818106, 0.0771084204, -0.1169891879, -0.0992826000, 0.1110963523, -0.0058947303, 0.0600597300, -0.0563857891, -0.0212911312, -0.0061641461, 0.0325346068, -0.0331673883, 0.0537679791, -0.0575962849, 0.0734406859, -0.0905138776, 0.0002280681, 0.1123333424, -0.0529781580, -0.0562102385, -0.1073036715, 0.0539758839, -0.0829649046, 0.0148565909, 0.0710536614, -0.1104127914, 0.0820389464, -0.1058630347, 0.0199930351, -0.0671378598, 0.1064057052, -0.1164381504, -0.0377137288, 0.0460145399, -0.0626744926, -0.1214131266, -0.0930077359, -0.1193013713, -0.0523320287, -0.0809630230, -0.1013963521, 0.0886638910, 0.0843335986, -0.0371729247, -0.0803503469, -0.1101981848, -0.0551663041, -0.1051038429, 0.0797735825, 0.0502083004, -0.0550560579, -0.0180095844, -0.0319734812, 0.0797713473, -0.0824794918, 0.0032934020, 0.0941881537, 0.0368737392, 0.0634204522, 0.0165426396, 0.0436841585, 0.0712282658, 0.0280818250, -0.1005331054, 0.0948502421, -0.0450070016, 0.0245684721, -0.0370265581, 0.0391871706, -0.0189540051, -0.0534940362, -0.0215406753, 0.0668077022, -0.0710665062, -0.1033031717, -0.1208183840, -0.0134458421, -0.0856493786, -0.0367992669, 0.1040979549, -0.0196471009, 0.0731679127, -0.0972757563, 0.0618360229, -0.0112238238, -0.0189985353, -0.1152160764, 0.0059968145, -0.1058917418, -0.0052601518, -0.0919177681, 0.0877019763, 0.0781984478, 0.0210054219, -0.0660548508, 0.0637274757, -0.1086427644, -0.0280923527, 0.0521587133, -0.0279819611, 0.1073975787, -0.0199114066, -0.0245294459, -0.0200127028, -0.0276341140, 0.0385768712, 0.0125204297, -0.1134508476, 0.0443043150, -0.0432002544, -0.0047887438, -0.0131742796, 0.0254388135, -0.0345322341, 0.1091684252, 0.0810192898, 0.0801104680, -0.0897478983, 0.0848503113, 0.0321223289, -0.0409756973, 0.0257490501, -0.0232677646, -0.0394461751, 0.0626114309, -0.1107844934, -0.1141576245, -0.0237918794, 0.0211253315, 0.0419247299, 0.1045903116, -0.1221155003, -0.0764880776, 0.0956797153, 0.0178508814, -0.0725550056, -0.1100839227, 0.0778109953, 0.0812127739, -0.0288680401, 0.0330575220, 0.0612513162, -0.0993885919, 0.0507040620, 0.0441317707, 0.0983318686, -0.0762180537, -0.1028652862, -0.0938765481, 0.0423299409, -0.0118605047, -0.0022162653, 0.0084180655, 0.0823701099, 0.0557661615, 0.0905402899, 0.0861399695, -0.0686787963, 0.1136046946, 0.0776547864, 0.0085618906, -0.0986940116, 0.0891069397, 0.0480687730, -0.0383291803, -0.0479845442, 0.0560113415, -0.0581451319, 0.0531052947, 0.0413411520, 0.0068937275, 0.0906904563, 0.0982122198, -0.0897121876, -0.0707647949, -0.0594243929, 0.0956177413, 0.0180677213, 0.1110438630, -0.1168918312, 0.1078456119, 0.0992416739, 0.0340159014, 0.0177118592, -0.0757865310, -0.1157174408, 0.1144516021, 0.0594699606, 0.0255696308, 0.0143596325, -0.0321012624, 0.0152727226, -0.0420899317, 0.1155430302, -0.1125031114, -0.1003539041, -0.0173713118, 0.0643517748, -0.0872474760, 0.0947572067, 0.0057178941, -0.0728303045, 0.0856765732, -0.0907995030, -0.0712439269, 0.0927097797, 0.0418202952, 0.0450521447, -0.0878509134, 0.0544309840, -0.0572825447, 0.0863625035, -0.0007822147, 0.1074168533, 0.0594262592, -0.0170940403, -0.0579937287, 0.0618066750, 0.0226083212, 0.1091171503, 0.0404487327, 0.0253610089, 0.1032990813, -0.0612331405, 0.0116099818, 0.0677061975, -0.0171941388, 0.0788071603, -0.1020773724, 0.0508271120, -0.0452224836, 0.1007961556, 0.0267369803, 0.0099343872, -0.0220099669, 0.0996834114, -0.0480285659, -0.0083381590, 0.0441030674, 0.0496925078, 0.1154824719, 0.1039654315, 0.0552449822, 0.0048125712, -0.0762694255, 0.1023302823, -0.0515064672, -0.0671989545, -0.1091016829, -0.0089356964, 0.0527932607, 0.0120643517, 0.1173253208, 0.0512947217, 0.0095179779, 0.0051810192, 0.0458189845, 0.0654231310, 0.0575730279, -0.0012064206, 0.1035476625, -0.0971534774, -0.0774579346, 0.1085279584, -0.0666566640, 0.0546546727, -0.0864067152, -0.0161531083, -0.0772835836, 0.0347600840, 0.0866994187, -0.0584453680, -0.0468654782, -0.0164983124, -0.1056731045, 0.0109337931, -0.0243848171, -0.0843902826, -0.0413220376, -0.0821641311, 0.0995411947, -0.0771006420, 0.0991479829, -0.0311382972, 0.0867966786, 0.0742930099, -0.0806398615, 0.0084026912, -0.0906722024, -0.0189257246, -0.1150852442, -0.1120975390, -0.0971380621, -0.1197994947, -0.0469932556, 0.0136398626, 0.1193820238, 0.0754515454, -0.0581214353, 0.0489908271, 0.0150693143, 0.1017651856, -0.0557276905, -0.0304688234, -0.0675839037, -0.0635777265, 0.0902498066, -0.0311037097, -0.0186968688, -0.1103276983, 0.1000729129, -0.1058895960, -0.0939607918, 0.0518559776, 0.1196043715, 0.0675858483, 0.0112571558, 0.0695268884, -0.1088515595, 0.0527493432, -0.0271608066, -0.0317973457, -0.0247050561, -0.0953460857, -0.0971709415, 0.1050212085, -0.0276646130, 0.1182656288, 0.0687124357, 0.0289902147, -0.1181883812, 0.0755651742, 0.0237580948, 0.1125075668, -0.0973794609, 0.0254506692, -0.0137373330, 0.0222366471, -0.0875299871, -0.0425616913, -0.0843315572, 0.0468263030, 0.0697602853, 0.0189551879, -0.0527820326, -0.1058495268, -0.0755433962, 0.0956404135, -0.0859748721, 0.0534245558, 0.0952908993, -0.1153928712, -0.0337715261, 0.0592328385, -0.0685760379, -0.0891067386, 0.0631939620, 0.1105126664, 0.0065885270, 0.1114467084, 0.0853276923, -0.0563200191, -0.0731675923, -0.0004012107, -0.0914715156, -0.0280557498, -0.1208050475, -0.1197751760, -0.0504564010, 0.0823469982, -0.1180738136, 0.0779859796, 0.0758745074, 0.0067387912, -0.0350868627, 0.0440097563, 0.0565612838, 0.1089460328, -0.0197117794, -0.0338943712, -0.0866046622, 0.0896422416, 0.0760456994, -0.0348453932, 0.0588674434, 0.0201642513, -0.1133402660, 0.0631860197, 0.0134754358, 0.0752496570, -0.0294864271, 0.0353376493, -0.0631600022, -0.0825551227, -0.0595527552, 0.0159745347, -0.0607638471, -0.0916667357, -0.0598939620, -0.0922439769, 0.0266341232, 0.0341954678, -0.0250714757, -0.1098756343, -0.1065891087, -0.0095168827, 0.0463082045, -0.1171763465, -0.0344108641, -0.0699964836, -0.0090134274, 0.0674137697, 0.0878500640, 0.0396873690, 0.0954314396, 0.0666568577, 0.0794253722, 0.0511698462, 0.0773875341, 0.1199152917, -0.1209744141, 0.1215299144, 0.0382356681, -0.0948842913, 0.1122393087, -0.0328835472, 0.0030814963, -0.0781522691, -0.0324950106, 0.0218863767, -0.0768487900, -0.1095894575, 0.1164813042, 0.0204891190, -0.0913747326, 0.0346162431, -0.0857381597, 0.0391845405, 0.0866542011, -0.0121055823, 0.0976090580, 0.1039664820, -0.0900942311, -0.0588036254, 0.1118627563, 0.0494058207, -0.0462527089, -0.0774654374, -0.0189009923, 0.0043388712, -0.0624368005, -0.0544595271, -0.1032563075, -0.1075634807, 0.0357117169, -0.0129699958, 0.0615458451, 0.1050777361, -0.1030580476, -0.0750602484, -0.0541355200, 0.0385874845, -0.0176600870, -0.0063499613, 0.0951672122, -0.0503795892, -0.0476666428, -0.0715127885, 0.0883931741, -0.0206015967, -0.0055789887, 0.0477798060, -0.0038816691, -0.0960087702, -0.0075146551, 0.0128032044, 0.0810433552, 0.0809668899, 0.0394988246, 0.0213555600, 0.0251385178, 0.0927356333, 0.0345555656, 0.0045686769, -0.0071142619, 0.0701086372, 0.0469302572, 0.0757911578, 0.0205679145, -0.0239436030, 0.1049689129, 0.0324859582, 0.1105843857, 0.0248203687, -0.0359702297, -0.0876692384, -0.0713855624, -0.0710952431, 0.0968210921, 0.0896378756, 0.1038384140, -0.0219127741, -0.0369059928, -0.0977239162, 0.1034327000, -0.0585454814, 0.0689388067, 0.1067354605, -0.0410624221, -0.0675604865, 0.1115740687, -0.0192281511, 0.0963636115, 0.0220533721, 0.0655189827, -0.0339095853, 0.0250529908, 0.1224707738, -0.0483618714, 0.0021713993, -0.0180669334, 0.0415300019, -0.0379441604, -0.0220646728, 0.0287630651, 0.0196147338, 0.0489709564, -0.0148917185, -0.0215447638, -0.0147395413, -0.0826661959, -0.0833582878, 0.1146408021, -0.0012745884, -0.0701008886, 0.0560458116, 0.0923943445, 0.1218376160, 0.0708261505, -0.0003316558, -0.0276710223, 0.1221629754, -0.0140749160, -0.0933457911, 0.0123526156, -0.0591322295, -0.0891943797, 0.0137424432, 0.1156721413, 0.0849861950, 0.0820766166, 0.0109345671, 0.0575289652, -0.0365785398, -0.0328748189, -0.0072462177, 0.1088442877, 0.0292014331, -0.0665806159, 0.0811991543, 0.1202113107, 0.0903711095, 0.0487132370, 0.1132640988, 0.0320687331, -0.1108672172, 0.0935866907, -0.1052820832, -0.0104334475, 0.0742169172, -0.0761542171, 0.0838551298, -0.0455665775, -0.0075049750, -0.0351154506, -0.1153957844, -0.0723283663, -0.0107507957, -0.0106671518, 0.0337123238, -0.0111505603, -0.0724894926, 0.0325137414, 0.0759722590, 0.1017369777, -0.0625928044, -0.0340637602, 0.0537517741, 0.0562063977, 0.0484993160, -0.0175240859, -0.1059908420, 0.0756883994, 0.1180759296, 0.0820503682, -0.0662881583, -0.0957883000, -0.0312905610, 0.0846226513, -0.0007243692, -0.0109299384, 0.0998609066, -0.0997673795, 0.0470362827, -0.0244930331, 0.0873211622, -0.1124910861, 0.0181471743, 0.1076257750, 0.0831725895, 0.0162223559, 0.0544365309, -0.0197205991, 0.0209785271, -0.0374555551, 0.0230266154, 0.0706949383, 0.1187378690, 0.0104313744, -0.1017922536, -0.0999177992, -0.0626233444, -0.0347111896, 0.1055816188, 0.0604902431, 0.0309448317, -0.0391919576, 0.0147470897, 0.0075117494, 0.0489138998, 0.0333812796, -0.0923112258, -0.0157338083, 0.1216217056, -0.1083977595, -0.0664192140, -0.0217547566, 0.1171331406, -0.0242856983, 0.0498775057, 0.0458173081, -0.0441961996, -0.0339567438, -0.0752561390, 0.0590621047, -0.0666139722, -0.0740316585, -0.0676375031, 0.0262248237, -0.0386361182, 0.0921562761, 0.0311612189, -0.0400623269, -0.1152699962, 0.0982887074, 0.0683956668, 0.0946673900, 0.0842576548, -0.0722760707, 0.0933211893, 0.0604794100, -0.0203760993, -0.1000255644, -0.0923575833, -0.0199527536, 0.1153845042, 0.0207527373, 0.0586150214, 0.0927994400, 0.0011214333, -0.0318258591, -0.0486457087, 0.0718273669, -0.0315787680, 0.0638030618, -0.0016068720, -0.0647342727, 0.0272552408, 0.0844000205, 0.0625481531, -0.0031435322, 0.0822716728, 0.0324991122, -0.0250922944, -0.0009667600, -0.0312709697, 0.1159573048, -0.0097253872, -0.1086941138, 0.0010156702, -0.0547870658, 0.0217672400, 0.0511079580, -0.1203589588, 0.0730818361, -0.0316525400, 0.1075872928, -0.0378980376, -0.0375230648, 0.0447351784, -0.0576062128, -0.0809265822, -0.1088169962, 0.0400100760, 0.0607836172, -0.0686066970, -0.0622663312, 0.0820602179, 0.0671257973, -0.0534116067, 0.0652732924, -0.1090271547, -0.0407577753, -0.0653052106, -0.1003587693, 0.0723817572, 0.0792953297, 0.1164034158, -0.0363267772, -0.0776033401, -0.0334852636, 0.0518330298, -0.1028439403, -0.0222874843, 0.0208876133, 0.1194438115, -0.0332568288, 0.1118553951, 0.0384026468, -0.0538592301, 0.0055894423, -0.0890582502, -0.0064901952, -0.0690006986, 0.0097558722, 0.0138174146, -0.0718428567, -0.0180692114, -0.1183940619, -0.0480939299, 0.0557621755, 0.0878325999, 0.0930365324, -0.0076087089, -0.1202359125, -0.0126126874, 0.0128091751, -0.0662398636, -0.0496482104, -0.0407788865, 0.0712005794, -0.0826828256, -0.1118152589, 0.0259406622, 0.1053128466, -0.0546411537, 0.0159771182, -0.0693875402, -0.0923638120, -0.0535478815, 0.0714684501, 0.0511966087, -0.0783486292, 0.0116446428, -0.0727831274, -0.0411864184, 0.0648953244, 0.0792203844, 0.1150799617, 0.0868336782, 0.1198537499, 0.0806285217, -0.0759333372, 0.0616557673, -0.0283035561, -0.0949825794, -0.0086886929, 0.0902327970, -0.0683091953, 0.0595095679, 0.1053642407, 0.0695070848, 0.0872001722, -0.0131735504, -0.0615904331, -0.0114322109, -0.0098802792, -0.0542368330, 0.0961514190, 0.0176987033, 0.0976838544, 0.0814781561, 0.1065516323, 0.0568421595, -0.0947745517, 0.0919437557, 0.0722087771, 0.0817827880, -0.0753304958, 0.0898855776, -0.0920812413, 0.0655716583, 0.1085940152, 0.0966561437, 0.1176450029, -0.0688727871, 0.0215142202, 0.1175542399, -0.0049129031, 0.0797463655, -0.0614064559, -0.0997793227, 0.0099041359, -0.0753397346, -0.1160366312, -0.1152534634, 0.0269269869, -0.0496577024, 0.0593734235, -0.0629279464, 0.1208959669, -0.0481310003, -0.1208907217, 0.0293328203, -0.0548623726, -0.0031815069, 0.0973077118, -0.0890614316, -0.0109921936, -0.0756917447, -0.0113383476, 0.1172386110, -0.1008746028, 0.0181613658, 0.0734150782, 0.1195427850, 0.0403260775, 0.0337904617, 0.0142329913, -0.0224956814, -0.0389464274, 0.0822308213, -0.0449786633, -0.0647716075, 0.1085424125, -0.0070081484, -0.1178107932, -0.0582430996, -0.1174185872, 0.0363058262, -0.0382581949, 0.0575314462, 0.1090823561, -0.0547985137, -0.0509271361, -0.0747090578, -0.1107585803, 0.0757790431, -0.0022869299, 0.0443648435, 0.1088333055, -0.0941727683, -0.0403497294, -0.1004045084, 0.0647725537, -0.0237425454, -0.0313968919, 0.0522532612, 0.0482460782, -0.0498049445, -0.1088065282, 0.0249691568, -0.0967399776, -0.0178552456, 0.0190210063, 0.1182220280, -0.0009865139, -0.0658567846, -0.0275040995, 0.1212664694, -0.0303360224, -0.0980042294, -0.0893182606, -0.0008105243, 0.0056181024, -0.0301576965, 0.0900528207, 0.0268807765, 0.0948172882, 0.0121420091, -0.0976708308, 0.1104077399, 0.0915526077, 0.0161525682, -0.0033321800, -0.0324290022, -0.0914770663, -0.0956618190, -0.0870000869, -0.0262758955, 0.0816424266, -0.0863394961, -0.0844139755, -0.0941485614, -0.0790779591, 0.0852397308, -0.0213420708, -0.0011495532, 0.0944215655, -0.1124121100, 0.0984463766, 0.0030229208, -0.1007404476, 0.0098365229, 0.0580880009, -0.0437550135, -0.0399247669, 0.0512511842, -0.1036079749, -0.0587394126, 0.0272039939, 0.0450607017, -0.0008869413, -0.0713532269, 0.0644574389, -0.0308069773, -0.1186660752, 0.0177108068, -0.0286412723, 0.0989594683, 0.0829293653, -0.0759705231, -0.0815614089, 0.0321870074, -0.0436139181, -0.0094282161, 0.0232894160, 0.0927207172, 0.0764465556, 0.1143418476, 0.0224762782, -0.0397642814, 0.0271222778, -0.0602317788, -0.0157833025, -0.0572635792, 0.0096565327, -0.0076362444, 0.0868453905, -0.0210256130, 0.1199801862, -0.0132029839, -0.1085246354, 0.1104541942, 0.0602814183, -0.0279781781, -0.0536884964, -0.0526010208, 0.0965967774, 0.0627019256, 0.1206902191, 0.1219862252, -0.0119407475, -0.0954215601, 0.0410166793, 0.0304570701, -0.0398834050, -0.0310157724, -0.0524158068, -0.0293103792, 0.0473613553, -0.0010371032, 0.0351804942, -0.0656758323, -0.0547346212, -0.0599067062, 0.0723480582, -0.0045084953, 0.0752930939, 0.0084216129, 0.0421161689, 0.0380205065, -0.0863896608, 0.0520664118, -0.0283529777, 0.0336634703, -0.0052709705, 0.0888234526, 0.0786563382, -0.0908569247, -0.0699946284, 0.0927782506, 0.0979383513, 0.0357905887, -0.0441805050, -0.0645484701, 0.0998667479, 0.0910352096, -0.0297219120, 0.0527805761, 0.0017662904, 0.0229530297, -0.0051564765, -0.0568194874, 0.0319260731, 0.0281749014, 0.0798624381, -0.0244478174, 0.0192342699, -0.0679133981, 0.0957337394, -0.0252163373, 0.0752760991, -0.1059445441, -0.0999507084, -0.0341580920, -0.0957112387, -0.0486079976, 0.0285020452, -0.1208760664, 0.0469508134, 0.0093195038, 0.0430701673, 0.1164353713, 0.0593111552, -0.0281527825, -0.0400935151, -0.0396590158, -0.0345321037, -0.0985771641, 0.1117790341, 0.0567323975, -0.1100161746, 0.1018325314, 0.1009141430, -0.0729507506, -0.0144021334, 0.1095609069, 0.0831649229, -0.0462020636, 0.0540258326, 0.0388393365, 0.0172117185, -0.0263441503, 0.0324459821, 0.0954500288, 0.0785525739, 0.0273706838, -0.0101075592, -0.0583608039, 0.0744802430, 0.1107560694, -0.0214827415, -0.0327528939, 0.0985972807, 0.0962386951, -0.1004043370, 0.1040348858, -0.0332046933, -0.0968349651, 0.1020207256, 0.0646748468, 0.0037132571, -0.0152238412, 0.0241072699, -0.0034398995, 0.1200684309, -0.0350879580, 0.0662357882, -0.0008193866, -0.0468434170, -0.0375030935, -0.1070852354, -0.0258939862, 0.1117091179, -0.0081787407, 0.0820816085, 0.0268828943, -0.0010981609, 0.0538015738, -0.1061280593, -0.0836961195, 0.0330531448, -0.0363261327, -0.0397484861, 0.0981303975, 0.0400503725, -0.0159744173, -0.0052750004, 0.1035386845, -0.0050503048, 0.0769365355, -0.0442053117, -0.0277148522, -0.0450329036, -0.0712611601, -0.0463541374, -0.0139615173, -0.0830754563, -0.0490068570, 0.0949750394, 0.0121013187, -0.0134205110, -0.0235553570, -0.0281568989, -0.0709431395, 0.1197615936, 0.0845220909, 0.1002745852, 0.0170465317, 0.0241995566, -0.0863096192, 0.0580178909, -0.0535393693, 0.0833751932, 0.0819319263, -0.0835677832, -0.0495059043, -0.0238543674, -0.1010210142, 0.0710646957, 0.0804595277, -0.0926068053, -0.0216680896, 0.0013330034, 0.0332381129, -0.0630746931, 0.0228481572, -0.1120476946, 0.0229084846, 0.0592714995, 0.0027141871, -0.1213943958, -0.0348940678, -0.0520081706, -0.0593845472, 0.0207968447, 0.1219580919, -0.0385523848, -0.0788502023, 0.0513968654, 0.0073121954, 0.0777172893, 0.1215642691, 0.0409533121, 0.0834498852, -0.0240591913, -0.0904946253, -0.0563720241, -0.1166681126, 0.0749454349, -0.0566369109, -0.0613545962, -0.1126959398, 0.1212157384, 0.0130533623, 0.0027561623, 0.0652423128, -0.0207286905, -0.0638369322, -0.0823642537, 0.0632691234, 0.0754914880, 0.1161808968, -0.1101280153, 0.1181213483, 0.1136448532, -0.0249500014, -0.0470483415, -0.0597874671, 0.1137623116, -0.0140769016, -0.1221930981, 0.0446826033, -0.0844385475, -0.0175540466, 0.0677495748, -0.0377845541, -0.0971610397, 0.0824693888, 0.0640371144, -0.0407105871, 0.0161695052, 0.0746761486, -0.0874036252, -0.1183190495, -0.0034514044, -0.0326405726, -0.0816118196, -0.1098568216, -0.1161227971, 0.1078504696, 0.0668364987, -0.1131539568, -0.0148599483, -0.0847139508, -0.0929275379, -0.0171909425, -0.0998094678, 0.0801516697, 0.0914391801, -0.0297689978, -0.1071509421, 0.0637948141, -0.0402483642, -0.0024901633, 0.0443462580, -0.0410655439, 0.0030341775, -0.0065950532, 0.0678888559, 0.1142409518, -0.0209082291, -0.0290895961, -0.0401630253, 0.0907969177, -0.0460919477, 0.1124326140, 0.0568043180, 0.0739801154, -0.0033037097, -0.0553964898, -0.1135088131, -0.0092128217, -0.0240564179, -0.0666539669, 0.0593607947, -0.0448352322, 0.0743870363, -0.0880940482, 0.0631935522, 0.0767471269, -0.0776555315, -0.1033388078, -0.0900604427, -0.1037976295, -0.1036671475, -0.1182469204, 0.0913146809, -0.0208053123, -0.0394809246, 0.0534493886, -0.0016908225, -0.1213459373, -0.0632326826, 0.0744745210, 0.0182794519, 0.0247485936, 0.0965998396, -0.0345557705, -0.1121863797, -0.0658901185, -0.0911735445, -0.0719063506, -0.0405139104, -0.0442532115, 0.0600372441, -0.0286447033, -0.0484397188, -0.0488323160, 0.0677768141, -0.0016693020, 0.0379596651, 0.0885913074, -0.0183836091, -0.1143106818, 0.0082253003, 0.0171423815, -0.0970827416, -0.0083124628, -0.0270619933, -0.0357008427, 0.0511408970, 0.0182282198, -0.0086945184, -0.0570219606, 0.0451344438, 0.0398102738, 0.0232443754, -0.1191355884, -0.0505093671, 0.0052938052, -0.0420397371, -0.0251378771, -0.0631742477, 0.1175766513, -0.0379394293, 0.0724944398, 0.0254468583, 0.0904179886, -0.0895815045, 0.1035623401, 0.1087378487, 0.0943137780, 0.0173498634, 0.0236596167, -0.1016562805, -0.0459974408, -0.0222067907, -0.0370893106, -0.0878992379, -0.0217172634, 0.0062186043, 0.0750621334, -0.0751536861, 0.0095067210, 0.0804267749, -0.0451643467, 0.0606194958, 0.0301922243, -0.1105873361, 0.0806560144, -0.0965494141, 0.0894002467, -0.0842438862, 0.0073993434, 0.0064001274, -0.0619089790, -0.0928817838, 0.0555509999, -0.1082136929, 0.0619832054, -0.0484044142, 0.0308855101, 0.0738467723, -0.0420474894, 0.0370953269, 0.0217390172, -0.1106004566, 0.0944680423, -0.0445050485, -0.0647579655, -0.0248659346, -0.0597302653, -0.0889663324, -0.0004383095, -0.0711845085, 0.1180054396, 0.0741439164, 0.0847938731, 0.1145831868, -0.0714592040, 0.0427522212, 0.0840522125, 0.0470864922, -0.0596958064, 0.0955697224, 0.0285183974, 0.0880050287, -0.0261405241, 0.0221310295, 0.0198828056, 0.0600844026, -0.0750270486, -0.0117007801, 0.1127585322, 0.0960025713, 0.0686927810, -0.1106394380, 0.0130854091, 0.0428903103, -0.1183189005, -0.0435441434, -0.0853969082, 0.0062428261, -0.1111895591, -0.0360233709, 0.0542339422, -0.0785501227, 0.0700732619, -0.0241031386, -0.0189066865, 0.0748519748, 0.0138712013, 0.0916543379, -0.0677546635, 0.1190108880, 0.0584607124, -0.0521773696, 0.0859654695, 0.0161023587, 0.0981449410, 0.1145992950, -0.0871756822, 0.0059766956, -0.0349273123, 0.0193983298, -0.0277407952, -0.0760924593, -0.0847233385, -0.0587458685, -0.0725291148, 0.0756591856, -0.0078724446, -0.1062832102, -0.1142129302, -0.0697771460, -0.0480432957, -0.1147952825, 0.0759320185, 0.0622917190, -0.1064738035, -0.1216931865, 0.0926498175, 0.0490817428, 0.0197641067, 0.0535717681, -0.0263883155, -0.1081661731, 0.0339883678, -0.0465316735, 0.0709204748, 0.0003765657, -0.0140064852, -0.0239352379, 0.0897696093, 0.1104188338, 0.0855646655, 0.0740139633, -0.0707518011, 0.1009231657, -0.0845719501, 0.0378123820, 0.0519634783, -0.0838034004, -0.0878521353, -0.0180158764, -0.0919778496, -0.0663753226, -0.0513750389, 0.0091029266, -0.0718142241, -0.1147593111, -0.0275270361, 0.0866272748, 0.0431213826, -0.0526517853, 0.1023788229, -0.0796342418, 0.0863928124, -0.0197834671, 0.0637496710, -0.1046148464, -0.0530645475, -0.0242836531, 0.0770096257, 0.0875394344, -0.0154100368, -0.0924928337, -0.1140230149, 0.0632321984, 0.0488035828, 0.0296122655, 0.0547266789, 0.0432514437, 0.0187484212, 0.1013863981, 0.0263198558, -0.0576496758, -0.0680364072, 0.1216070056, -0.1197531745, 0.0967804044, 0.0753960237, 0.0033389397, -0.0349886790, -0.0001055003, -0.0029891508, -0.0936527252, -0.1060299873, 0.0400328785, 0.0572107695, 0.0754428580, -0.1156615242, -0.0348194204, -0.0101928087, -0.0296967272, 0.0661518276, -0.0417130291, -0.0037725042, 0.0491184480, -0.1224646270, -0.1081589311, 0.1173200384, -0.0430201180, -0.0214385912, -0.0989868566, 0.0321168229, -0.1039495915, -0.0371491425, -0.0478250235, -0.0826838762, -0.1083481461, -0.0261051189, 0.1143605858, 0.0439698100, -0.0498829372, -0.0786241591, 0.0856583863, 0.1148667708, 0.0058416445, 0.0151569294, 0.0271784011, -0.0254668463, 0.0832968056, -0.0023233278, 0.1157671884, -0.0098273689, -0.1196514219, 0.0479064211, 0.0572460443, 0.1005919054, -0.0261286236, 0.0765291527, 0.0910251737, 0.0903398767, 0.0900788158, -0.0178294182, 0.0363583714, 0.0754036829, -0.0294646155, 0.1007376015, -0.0672141239, 0.0791857839, 0.0746032074, -0.0113828480, 0.0453506857, -0.1022720560, -0.0404391289, -0.0685948282, 0.0877484605, 0.0186920650, -0.0613990240, -0.0695932880, -0.0228984840, -0.1040314957, -0.0780949816, 0.0784398466, -0.0852261633, -0.0790210068, 0.1036331654, 0.0019105540, -0.0770672485, 0.1077214926, 0.0218830761, 0.0503316708, -0.0373004563, 0.0197255481, -0.0551861748, -0.0783971474, 0.1133290604, 0.0201241300, -0.0714926124, 0.0597275347, -0.0899628997, 0.0516702943, 0.0020299391, 0.0935034975, 0.1088890210, 0.0060468782, -0.0054038023, -0.0094786454, 0.1102188155, -0.0480655469, 0.0385839082, 0.0043158615, 0.0819610581, 0.0747976527, 0.0920781493, -0.0873444751, 0.0494650826, 0.1206535175, -0.0881946981, -0.0770604908, -0.0835326239, 0.1182834655, -0.0270853825, 0.0154604511, -0.0939146206, -0.0733807534, 0.0149466880, -0.0214465056, -0.0226033721, 0.0284888167, -0.0483755358, -0.0907458141, -0.1070750207, 0.0885172039, -0.0499483310, 0.0821348131, 0.0130358562, 0.0248834696, -0.0906996503, -0.0068918732, -0.1072899178, 0.0068063606, 0.0776363164, -0.0339066647, 0.0746903270, 0.0712225512, 0.0180961322, 0.0455211736, -0.1002045795, -0.1209650934, 0.0907991379, -0.0830848292, -0.0917070881, -0.0615914986, 0.0658673719, 0.0245831888, 0.0984600261, -0.0711472929, 0.1083891615, 0.1195047498, 0.0303154215, 0.0466347076, 0.0452157110, -0.0527012385, 0.0834725574, 0.0187603943, -0.0085172290, -0.0995009243, -0.0154175702, -0.0787723511, -0.0126429237, -0.1197838932, 0.0853845924, -0.0726366937, 0.0275074858, 0.0762384906, -0.0920556933, 0.0457660593, -0.1142157093, 0.0043525808, 0.0018353051, 0.0054271333, -0.0758780837, -0.0494484529, -0.0206803363, 0.1018446758, 0.0049764719, 0.0178255644, -0.0163653642, -0.1049331129, 0.0878724456, 0.1071816683, 0.1129873842, -0.0030753205, 0.0358026624, -0.1082682833, -0.0728271455, -0.0465222709, 0.0776259080, 0.0523489527, 0.0085565466, -0.0560332127, 0.0694478080, 0.0872399285, 0.1028518826, -0.1202670932, -0.0629667863, -0.1108981669, 0.1096252576, -0.0043084738, 0.0492051877, -0.1062055826, -0.0638303086, 0.0005389772, -0.0401267447, 0.0168371815, -0.0457645990, 0.0415556543, -0.1183375642, -0.0491677374, 0.0612634495, 0.1020625830, 0.0625902340, -0.0463076085, 0.0502881631, 0.0599075817, -0.1079586446, 0.1179303676, 0.0197447184, 0.0676019639, -0.0500973985, -0.0627231225, 0.0973486975, -0.0095458347, 0.0686731264, 0.0821891800, -0.1186505258, 0.0812724903, 0.0017760287, -0.0608958043, -0.0443272628, 0.0149837574, -0.0935302600, 0.0158321690, -0.0764305145, 0.0475526005, -0.0133216968, 0.0526949465, -0.0917104483, 0.0986700505, -0.0240918808, 0.0184567124, 0.0442215018, 0.0086329635, -0.0187958721, -0.0096296538, 0.0760503411, 0.0498999320, -0.0199368540, 0.0899816304, 0.0531722493, -0.1008380353, 0.1076345816, -0.1117951274, 0.0056636110, 0.1160087883, 0.0472330786, 0.0327997580, 0.0717458948, -0.0639689937, 0.0957188904, 0.1157534346, 0.0726454780, -0.0323967971, -0.0880743936, -0.0258981474, 0.0489993989, 0.0179587025, 0.0475809388, 0.0847391039, -0.0597857162, 0.0299500395, 0.0291634724, 0.0774582699, 0.0349417962, 0.0170100033, 0.0186948832, 0.0873306692, 0.0969862938, 0.0632436424, -0.0365263447, 0.0432035103, 0.0139557207, -0.0551791377, 0.0427503064, 0.0357460417, 0.0436464772, 0.0520146079, -0.0873560384, -0.0122063961, 0.0023340005, -0.0177326929, -0.0453881659, 0.0834912956, 0.0033187917, 0.0253020395, -0.1200008020, -0.0697269067, -0.0825909227, -0.0320139676, -0.0246220846, 0.0582131259, 0.0664245710, -0.1052953973, -0.0257925447, -0.0362166204, -0.0884897113, -0.0772732422, 0.0526747964, -0.0389350839, 0.0418466628, -0.0355073884, -0.0889721960, -0.0498774610, 0.0309020523, 0.0380472392, 0.0645996407, 0.0233959090, -0.0271390527, 0.0463347472, -0.0645645633, -0.0041295788, 0.0701877698, -0.1177888885, -0.1057015881, 0.0096212151, -0.1062181666, 0.1047796458, -0.0896104723, 0.0676996112, -0.0094586285, 0.0552241355, -0.0347655602, -0.0984755158, -0.0799762905, 0.0619624443, 0.0946650654, -0.0482145995, 0.0975613445, -0.0709161311, -0.0670073032, -0.0042673163, -0.0703784078, 0.0805622637, 0.0707691610, 0.0670176819, -0.0734114125, 0.0065995357, -0.0315500051, 0.0820880160, -0.0491887480, -0.0760952607, 0.0988365188, 0.0946476236, 0.0691016242, 0.0915280879, 0.0802356005, -0.0164994076, -0.0273021515, -0.0722625032, 0.1175494790, 0.0134579455, -0.0650202855, 0.0106719984, 0.0884130001, 0.0760478303, 0.0632311478, 0.0196962152, 0.0759985521, -0.0208893511, 0.1102954522, 0.0477152169, 0.0865263343, 0.0367771611, -0.0093501350, 0.0784972161, 0.0680039600, -0.0614429154, -0.0735670552, 0.1074067727, -0.1052674204, 0.0262913276, 0.0567191243, -0.0225720704, 0.0993055627, 0.0562175959, -0.0916524231, 0.0518634543, -0.0321848914, 0.0364760496, 0.1087496504, 0.0131689217, 0.0164841078, -0.0880554020, -0.0072371070, -0.0555825382, 0.0039762049, -0.0497902706, 0.0620930269, -0.1167358309, 0.0224171635, -0.0950418934, 0.0118879238, -0.1007591188, -0.0700044408, -0.0442704558, 0.0705147535, 0.0414430723, -0.0034100276, 0.0128206369, -0.0604496971, -0.0596136376, 0.0659404024, 0.0290952474, 0.0634839162, 0.0527619720, -0.1223688498, 0.0048624743, -0.0899399668, -0.0121525358, -0.0823629647, 0.0228654444, 0.0469948910, 0.0013949808, 0.0137519324, -0.0905263647, 0.0104698604, 0.0549142919, -0.0832655430, -0.0150018325, 0.0546364225, -0.0280718096, -0.0359612778, -0.0982373133, 0.0038729091, -0.0625895336, -0.0919794962, -0.1106256917, 0.0643720254, -0.0025069388, 0.0453640185, 0.0287279226, -0.0524958447, 0.0585172139, 0.0221180357, 0.0071645007, -0.0929812714, 0.0443050303, 0.0600176677, -0.0872453302, 0.0073548714, 0.0954368412, 0.0357923396, -0.0516712889, -0.0482325405, 0.0964873657, 0.1018772349, 0.1157978624, -0.0964203924, -0.0966472924, 0.0059816889, 0.0321598202, 0.0028712403, -0.0773239806, 0.0397937894, 0.0901920646, -0.0293931775, 0.0443094522, 0.0954965129, -0.0960053578, 0.0884391889, -0.0233675130, -0.0724949688, 0.0174427498, -0.0699088052, -0.0661980957, 0.0784781873, 0.0161380265, -0.1029214188, 0.1198526993, 0.1032602936, -0.0573479235, -0.1195187122, -0.0427956842, 0.0153918453, 0.0413257927, -0.0307514817, 0.0513353236, -0.0425137877, 0.1163030788, -0.0611749142, -0.0237140022, -0.0106345788, -0.0189408660, -0.0523694344, -0.1149639338, -0.0629735589, -0.0523415208, -0.0384182110, 0.0569281690, -0.0105476789, 0.0959074944, 0.0302422307, -0.0514309406, -0.1110589877, 0.1120534167, -0.0969449431, -0.0261921063, 0.0332911685, 0.0000443259, 0.1210976094, -0.0988684371, 0.0730256811, -0.0169115681, 0.1202316433, -0.0390023477, -0.0751063824, -0.0874851346, 0.1152964905, -0.0409638397, -0.0863748416, -0.0710087791, -0.0173596889, -0.0954200849, 0.1160558611, -0.0321228243, 0.0975194871, 0.0093069039, 0.0574148186, 0.0937606767, -0.0748671591, 0.0153538408, -0.0748772919, 0.0076866732, -0.0149715515, -0.0969287977, -0.1064989269, -0.0535853617, -0.0859381631, 0.0750004724, 0.0006539675, -0.0145722246, 0.1135630086, -0.0134572592, -0.0731546432, 0.0878197253, -0.1016019955, -0.0914628431, -0.0719370544, -0.0395092480, -0.0713291317, 0.0975442082, -0.0808810741, -0.0902908817, -0.0687559396, 0.0881345645, -0.0747680888, 0.0961723104, 0.1142383963, -0.0848358124, 0.0111239012, 0.0719719306, 0.1109491810, -0.1121910512, -0.0169081967, 0.0636650771, 0.0486755520, -0.1013679877, -0.0736188069, 0.0258014798, -0.0555242226, 0.1050527468, -0.0895631239, -0.0779313147, -0.0688875467, -0.0662425458, -0.0689351112, 0.0273040496, 0.0252056643, -0.0147307087, -0.0682693645, 0.0019689689, 0.0140950056, 0.1050122157, 0.0718114749, 0.0042487886, -0.0208862852, -0.0052264696, -0.0427501462, 0.0526462384, 0.0674322546, -0.0095862476, 0.0755758658, 0.1086452603, -0.0146517511, 0.0430088900, -0.0232278910, 0.1154960319, -0.0696107075, 0.0252307914, 0.0863915160, 0.0744379163, 0.0606280975, 0.0740377009, 0.1103989780, -0.0435911566, -0.0264754780, 0.1060477123, -0.0700286925, -0.0964540765, -0.0378764011, -0.1177366525, 0.0316112377, 0.1134489998, 0.0155223114, -0.0949843749, -0.0765907317, 0.1049397215, -0.0841798484, -0.1043385789, -0.0256000571, 0.0815653652, 0.0060800789, -0.0154610788, -0.1065896377, 0.1038684249, -0.0389507785, 0.0063298424, 0.0673206374, 0.1080379784, 0.0501341037, 0.0586538129, 0.1154101118, -0.0767373294, 0.0569797792, -0.1106048822, 0.0316435322, -0.1128148586, -0.0161368437, 0.0777368248, 0.0201235171, -0.0351765975, -0.0224974789, -0.0527938306, 0.0347693115, 0.0399243869, -0.0178766642, -0.0298946165, -0.1046462953, -0.0012316058, 0.0357869081, 0.1174447536, 0.0001947799, -0.1020306423, 0.0344154350, 0.1053099260, 0.0450850390, -0.0085672047, 0.0375850722, -0.1192391142, 0.0378029346, 0.1055101380, 0.0677314848, 0.0941393301, 0.0540028661, -0.0431081131, 0.0618864074, -0.0072179516, -0.0887571126, 0.0159854703, 0.0583838299, 0.0994712263, -0.1162056848, -0.0438760482, 0.1151371151, -0.0614129975, -0.1061583087, 0.0467788391, -0.0509975664, 0.0946938172, 0.0392170995, 0.1037879214, 0.0784262419, 0.0396369398, 0.0185620375, -0.0165575463, 0.0398271792, 0.0996987298, -0.0787676200, 0.0604143217, 0.0782779306, 0.0463009067, 0.0780593678, -0.1068632603, 0.0202364922, 0.0601091236, -0.1047489569, 0.0510996655, 0.1077566370, -0.0567445159, 0.0476747304, 0.0995768905, -0.0287321713, -0.1169010028, -0.0602265373, -0.0838942826, -0.0519637428, 0.0940198004, -0.1113721654, 0.0169299804, -0.0385811180, -0.1119036674, -0.1130238697, -0.0028556474, -0.0196413193, 0.0351699665, 0.0237907693, 0.0328422450, 0.0268721934, 0.0635923669, -0.1039971113, 0.1101869568, 0.0449548922, -0.0822688714, -0.1155484468, 0.1022796482, -0.0015751460, 0.0601634942, -0.0820817575, -0.0920899883, -0.0181350429, 0.0668480471, 0.0378084816, 0.0907598063, 0.0509739444, 0.0635552406, -0.1192301065, 0.0958622172, -0.0111664599, 0.0400514081, 0.0445926785, 0.1127260700, -0.0790352002, -0.1120878309, 0.0795521438, -0.0649996027, 0.0051911664, -0.1016496196, 0.0800524727, 0.0200183094, 0.0612693764, 0.0948264599, -0.0347529873, -0.0936327204, -0.0698616803, 0.0284618940, -0.0249139257, 0.0974929482, -0.0301838741, -0.0500727668, -0.0809646994, 0.1170865074, 0.0542665571, 0.0749056190, -0.0136707705, -0.1025644764, -0.0441900231, -0.0538968556, -0.0345985778, -0.0901770145, -0.0401918441, -0.0968142599, -0.1050765738, 0.0842277631, 0.0247445051, -0.0366162807, -0.0036141225, 0.1080709919, 0.0742712617, 0.0830443576, 0.0661307573, 0.0179441031, -0.0908865780, -0.0510114357, -0.1222814098, 0.0561472401, -0.0972425565, 0.0770221055, -0.0455649570, -0.0316263214, -0.0384595580, -0.0905778557, -0.1147346348, 0.1028894782, -0.0554813743, -0.0572516061, -0.0812048316, -0.0718032420, 0.0256746486, 0.0413365960, -0.0021574709, -0.0736728609, 0.0717943385, 0.1142137349, -0.0161206815, -0.0391925871, -0.0831935108, 0.0222935881, 0.0960505903, 0.0609813333, 0.0427636094, 0.0440331586, 0.0204344690, 0.0440953411, -0.1184839979, 0.0749713182, -0.0698806718, 0.0354559980, -0.0523195453, -0.0157865155, 0.1040109545, 0.1176441610, -0.0630012080, 0.0630743429, 0.0047552660, -0.1144672185, -0.0078243818, 0.0168201141, 0.0991224945, -0.1162908152, -0.0239274707, 0.0799062699, 0.0415274203, -0.0935270339, -0.1098765582, 0.1056673229, -0.0411670022, 0.0388956778, 0.0684593394, -0.0529944785, 0.0400975160, -0.0436508730, -0.0869319513, -0.0182217080, 0.0754414871, 0.0616636686, -0.1186687499, 0.0627453700, 0.0501829982, 0.0651508868, 0.0546396188, 0.0648311898, -0.0844603851, 0.0828610063, -0.0863309130, 0.0800031722, -0.0930943564, -0.0578597710, -0.0590656251, -0.0360930301, 0.0127161294, -0.0548833385, -0.0352854542, -0.0070658773, 0.0286981836, -0.0929855332, 0.0776890516, -0.0218729451, 0.0720147416, 0.0750765875, -0.0936228111, 0.0154588595, -0.1064073145, 0.0971328169, 0.0378869884, 0.0213390924, -0.0964058489, -0.0267111380, 0.0364329480, -0.0740638673, 0.0462793857, 0.1162197739, -0.0517965406, 0.0670997053, 0.1112765744, 0.0258731525, -0.0017302429, -0.0040620826, 0.0237274636, -0.0053600166, 0.0924702659, 0.0476020798, 0.0768117085, -0.0642536208, -0.0799029544, -0.0482656546, 0.0837752223, 0.0138875535, -0.0206819996, 0.1200197712, 0.0803470016, 0.1171831489, 0.1075571105, -0.0489608087, -0.0067440765, 0.0460597835, -0.0527617261, 0.0613083877, -0.0431170352, 0.0923261940, -0.0709939599, 0.0429833122, 0.0871022791, 0.1186614186, -0.0174219012, 0.0392062068, -0.0411832370, -0.0194625854, 0.0818282366, 0.0142730977, -0.0137852067, -0.1012847200, 0.0205357075, 0.0615774691, -0.0925408527, -0.0561850108, -0.0007019726, 0.0314722881, -0.0620621182, -0.0154548883, 0.0400823019, -0.0627934337, -0.0608907677, 0.0683191493, 0.0857980028, -0.1088722721, 0.0187568888, 0.1223829538, 0.0234007128, 0.0515001304, -0.0425822325, -0.1074524596, 0.0107954284, -0.0066808290, -0.0359967984, 0.0497652031, -0.0662333220, -0.0717140511, -0.1099302098, -0.0395871252, 0.0467640348, -0.0633856729, -0.0837171599, 0.0987600014, -0.0093645453, -0.0009311503, -0.0318645053, 0.0181557462, 0.1002163440, 0.0433427952, -0.0068835658, -0.0235475749, 0.0236870646, -0.0899319947, -0.0662449598, 0.1148029938, -0.0876540020, -0.0038402632, 0.0280391630, -0.0810239762, -0.1014407277, -0.0512262173, -0.0104053570, 0.0835049003, 0.1077806875, 0.0138964588, 0.0667586327, -0.0912541896, 0.0079483213, -0.0424618088, -0.0115831764, 0.0682925656, -0.1181717515, -0.0742595196, -0.0201489646, -0.0490785465, 0.0591094829, 0.0941321775, -0.0372706130, 0.0481655560, -0.0453255735, 0.0684293360, 0.0851493850, -0.0918915197, -0.0832626969, 0.0345354490, 0.1099914610, 0.0538809411, -0.0058272490, 0.1116478145, 0.0846866742, 0.0655446053, 0.0020510361, 0.1053155288, -0.0626376867, -0.0397854522, -0.1074730605, -0.0137782134, -0.1098913774, -0.0060898168, -0.0132314544, 0.1057875380, 0.0421861447, -0.0505397506, -0.1199316755, 0.0714600086, -0.0025693688, -0.0729744658, 0.0820937008, 0.0982291847, -0.0626533926, -0.0320883989, -0.0839906037, 0.0657397211, 0.0350559689, -0.1003488302, 0.0569798537, 0.0021532951, 0.0128786573, 0.0067109927, -0.0024819141, 0.0274212733, 0.0344760977, -0.0572483800, 0.0411170684, -0.0563699938, -0.0034569523, -0.0166590009, 0.0457934663, 0.0293205418, -0.0833931193, -0.0407153778, -0.0042138216, 0.0328065343, 0.0820663497, -0.0627966374, -0.0867768079, -0.0073386799, -0.0572160408, -0.1085207164, -0.0722938776, 0.0673350617, 0.0289918780, 0.0273447968, -0.0004928701, -0.1120573580, 0.0564152524, -0.0536374673, 0.0103178732, -0.0471970141, -0.0113452235, 0.0032374253, 0.0650171638, -0.0071678003, 0.0178861693, -0.0097659025, -0.0213932283, -0.0591627136, -0.0380891412, -0.0155361956, 0.0024006208, 0.0911639631, -0.0241536554, 0.0806787163, -0.0946202576, -0.0695404187, -0.0896718502, -0.1101872325, -0.0963545740, 0.0182392579, -0.1072431356, -0.0237665921, -0.0291651953, -0.0530663282, -0.0996872410, -0.1206739247, -0.0053834645, -0.0379843824, 0.0435963683, -0.1180060208, 0.0980426371, 0.0095579382, 0.1150265113, 0.0674607679, 0.0775877163, -0.0071380017, 0.0457851589, 0.0439473838, -0.0686141327, -0.0047186487, 0.0881473348, 0.0183461886, -0.0359145738, -0.0488367826, 0.0473791510, -0.0844725817, 0.0243507419, 0.0223481338, 0.0441031232, -0.1165833920, -0.0697374493, -0.1193962619, -0.1020639017, 0.0616337359, 0.0035848054, -0.0564062148, 0.0142551688, 0.0960182473, -0.1017350480, -0.0549018383, -0.0116477525, 0.0944055244, -0.1080031618, 0.0019070208, -0.1010779664, 0.0022769433, -0.0095402719, 0.1139997989, 0.0969083905, -0.0197092537, -0.0507118292, 0.0514631197, 0.0175226554, -0.0891673863, -0.0879390687, -0.0872955397, -0.0342517085, 0.0639746413, 0.0400942452, 0.0601200424, 0.0487012491, -0.1097679362, -0.0526061170, -0.0681296438, -0.0922055915, 0.0903588980, -0.1212903410, 0.0691012517, -0.0256806351, -0.0643862933, -0.1211438775, -0.1101677716, 0.0274849143, -0.0860716105, -0.0468245521, -0.0231091045, 0.1111280173, 0.0416086391, 0.0596635863, -0.0395572223, -0.0843983963, -0.0995378494, -0.0713693127, -0.0195003711, -0.0646881089, 0.0065124752, 0.0913826898, 0.0035937408, -0.0180198327, 0.0187101103, 0.0251286495, 0.0075450963, 0.0391900316, -0.1048045456, -0.0756080300, -0.0437125862, 0.0810099468, -0.0934551880, 0.0162891522, -0.0846304223, 0.0633294955, -0.0627978891, 0.0686350837, -0.0778789744, -0.0936230868, 0.1129129380, -0.0777257904, 0.0579555631, -0.1119761541, 0.0738622099, -0.0316601172, -0.0976599678, 0.0934257060, 0.0694752857, -0.0993456990, -0.0036673252, 0.0541746058, -0.0316503383, -0.0012605285, 0.0563828982, 0.0783616081, 0.0828732699, -0.0955945551, 0.0947783068, -0.1065843254, 0.0553552881, -0.0581950769, 0.0197840948, -0.0473469160, -0.0380329601, -0.0918029696, -0.0744450912, 0.1179819778, -0.1022232771, -0.0767906830, -0.0842986330, 0.0559499040, -0.0329627693, -0.0762147829, -0.0714393333, -0.0430631153, -0.0294977427, 0.0654830486, -0.0316170044, 0.0747642145, -0.0515334792, 0.0435662046, -0.0370374359, 0.0206480697, 0.1109219939, -0.1083955541, 0.0902121663, 0.0022999239, 0.0761673003, 0.1160054281, -0.0977703184, -0.1115168184, -0.0760046393, 0.0746956989, -0.0535742491, 0.0408873074, -0.0996586978, 0.0280992724, 0.0775594339, -0.1111866683, 0.0677580535, 0.0734838471, 0.0833502561, -0.0734641775, -0.0086488491, 0.0487125926, 0.0549752899, 0.0731305107, 0.0962253511, -0.0723487362, 0.0343482755, 0.0942317694, -0.0586219989, 0.0579812303, -0.0323178396, -0.0298915654, -0.0818432048, -0.1074159443, -0.0824425071, -0.0387429334, 0.0203825515, 0.1111648381, 0.1107621565, 0.1009380594, -0.0084647415, -0.0811242983, -0.0029059739, 0.0262129698, -0.1107080802, 0.0847917497, 0.1169109419, -0.0259472039, -0.0900518000, -0.0539392233, 0.0663662404, 0.0128523773, -0.0933746547, -0.0646583363, 0.0129318889, -0.0011679931, 0.1192749441, -0.0054272353, -0.0696911514, 0.0502082705, -0.1075503826, -0.0859357119, -0.0921556354, 0.0495118462, 0.0689512640, 0.1200514510, 0.0065723355, -0.0199411623, 0.0687099099, 0.1060972363, 0.0014575714, -0.0314250290, -0.0507828705, 0.0596329533, -0.1043588296, 0.0671192408, -0.0483522937, -0.0339631252, -0.0552530438, 0.0937946066, -0.0418673828, 0.0166613664, 0.0563604608, 0.1171064228, -0.0117528290, 0.0891290754, 0.0406460091, 0.0913588032, 0.1064303517, 0.0821649209, -0.0157314278, -0.0984005779, -0.0957324207, -0.1201716140, 0.0497147739, -0.1001750827, 0.0508495793, 0.0964331254, 0.0598413274, -0.0815794542, 0.1084486693, 0.1114458367, -0.0158820581, -0.0811569989, 0.0204997621, 0.0485348962, -0.1170196086, 0.0379360877, 0.1080964878, -0.0907306597, -0.0577814877, 0.0557441153, -0.0003271152, 0.0742098391, -0.0490690544, 0.0694866180, -0.0072789658, 0.0246102866, 0.0169007070, -0.1130556688, 0.1148778498, -0.0822196379, -0.0374448374, 0.0606519543, -0.0526430421, -0.0349846482, -0.0987272933, -0.1075197682, 0.0838467330, 0.0841687098, 0.0803779960, 0.0914969817, -0.0605448894, 0.0754637942, -0.0583972447, -0.0660688654, -0.0839910805, -0.0984810218, 0.0692647845, -0.0081424881, 0.0971291810, -0.0504007004, -0.0977307782, -0.0017796058, -0.0937745050, 0.0876042694, 0.0147162257, 0.0430825613, 0.0208100285, 0.0530424565, 0.0283881351, -0.0478195064, -0.1219163686, 0.0356421508, -0.0112042017, -0.0387220830, 0.0471962579, 0.0982393473, 0.0137630291, 0.0513371639, -0.0307273045, -0.1215197667, 0.1008548662, -0.0436739847, 0.1215972826, -0.0614137426, 0.0423383377, -0.0721901879, -0.0643376186, -0.0567319579, -0.0570259318, 0.0632898137, -0.0727069154, 0.0030512011, 0.0576925129, -0.0763839632, -0.0270881709, -0.0430244245, 0.0726312622, -0.0666013733, -0.0969912857, 0.0449805893, 0.0281933695, -0.0107028782, -0.0070551168, -0.0965106636, 0.0229446068, 0.0050085336, -0.0611095950, 0.0449979343, -0.0327019803, -0.0965980291, 0.0508157946, -0.1094532982, -0.0893795267, -0.0512343794, 0.0312385559, 0.0779289156, -0.0706530362, 0.0629872680, 0.1153250784, 0.1108255759, -0.0039397045, -0.0154027659, 0.0198566131, 0.0331557803, -0.0160456076, 0.0673100501, 0.0891450047, 0.0949824154, -0.0392089374, -0.0423701219, 0.0603855327, 0.1049484983, -0.0648761988, 0.0514231287, -0.0307657309, -0.1069130898, 0.0064281304, -0.0026678902, 0.0731266439, -0.0989676267, 0.1060745195, 0.0416632593, 0.0606615469, 0.1140980870, 0.0281084701, -0.0391507111, 0.0378447063, -0.0656016320, 0.0914473981, -0.1220618263, -0.0789898038, -0.0622716732, 0.0664417967, -0.0150902653, -0.0594229624, 0.0532081984, -0.1168672740, -0.0940707549, 0.0077953856, 0.1063740999, -0.0903159454, -0.0168365836, -0.0660794377, -0.0585143976, 0.0378247909, -0.1135196462, 0.0851054788, -0.0286807939, 0.0415042341, -0.1090654507, -0.0836839378, -0.0812182948, 0.1068406850, -0.0798391402, 0.0629789159, 0.0803882182, 0.1222564876, -0.0935856551, 0.0338627920, 0.0569495149, 0.0219323076, -0.0844579339, 0.0805709958, 0.1046808958, 0.0669213533, 0.0759040043, -0.0011441365, -0.0738295764, -0.0911652222, 0.0191071760, -0.0078439601, 0.0173612367, 0.0544645786, 0.1086039543, -0.1025333256, 0.1081275791, 0.1136278734, -0.0122232735, 0.0528551936, 0.1198869944, 0.1153606027, 0.1131443828, -0.0217363890, 0.0366025306, -0.0424086675, -0.0236175545, -0.0590909123, 0.1062730029, 0.1157260314, -0.1143351644, -0.1120935977, -0.0080221836, -0.0581684485, 0.1213856786, 0.0440152325, 0.1189449728, -0.0743533671, 0.0117621152, 0.0683166981, 0.0991984010, -0.0285991505, -0.0995619670, 0.0256448351, -0.0942956284, -0.0278713070, 0.0934877917, -0.0548921563, 0.0016474311, -0.0626834854, 0.0729110539, -0.0602476932, -0.0216734335, -0.0488999709, -0.0727892891, 0.0460751876, -0.0959921032, -0.1100512221, -0.0322253034, -0.0806815177, -0.0679841787, 0.1090147272, -0.0992664173, -0.0225391034, 0.0033332019, 0.1009245068, -0.0047346796, -0.0304042045, 0.1120041385, -0.0717141107, 0.0416222885, 0.1030705944, -0.0897187591, -0.0908628702, 0.0624161698, -0.0361584798, -0.0052937320, 0.0238827504, -0.0509801619, -0.1109933928, -0.1195232496, 0.0176004153, 0.1000829116, 0.0778591856, 0.0920776352, 0.0682847053, -0.0567785464, -0.0595578812, -0.0575342923, 0.0516273417, 0.0852697715, -0.0095905550, 0.0925619826, -0.0999107808, -0.0221328549, 0.1190760955, 0.0026484721, 0.0807293952, 0.0105935233, -0.0962980017, -0.0858606100, -0.0903544948, -0.0842944458, -0.0505966768, 0.0705922097, 0.0858378783, -0.0278228056, 0.1217135563, 0.0341581814, -0.0306057297, 0.0579508469, -0.0215129796, -0.0679165646, 0.1175373271, -0.1116641238, -0.0319179110, -0.0102441432, 0.0699765384, -0.0610055961, -0.0067725903, -0.0870273188, 0.1002105027, 0.0268834196, -0.0848585069, -0.0131137185, 0.0278720222, -0.1125985235, -0.0031514745, -0.0840290710, -0.0288179480, -0.0175382625, 0.0721134692, 0.0390033089, -0.0560479313, 0.0901727676, 0.0328050144, -0.0790222064, 0.0870510042, 0.0869530514, -0.0756557137, 0.0205530226, 0.0765668899, -0.1017715335, -0.0382448211, 0.0366580524, 0.0705764443, -0.0146848056, 0.0487326682, 0.1216775253, 0.1080804989, 0.0988827869, 0.0310236868, -0.0386799909, -0.1085854098, -0.0649145395, -0.0460135452, 0.0478555523, 0.0425317585, 0.0484130010, -0.0630229190, 0.0717532858, -0.0263179149, 0.0376260839, -0.0677455738, -0.1183917746, -0.0780113339, -0.0310342424, -0.1222717315, 0.0227425843, 0.0337129943, -0.0547896214, -0.0565497801, -0.0406082124, 0.0743719861, 0.0308670420, -0.0712143481, -0.0956723839, 0.0053742807, 0.0927395895, 0.0472073816, 0.0622102208, -0.0162820574, -0.1204086617, 0.0277924519, 0.0162596460, -0.0484589748, 0.0698051155, 0.0860848948, 0.0854810402, 0.0901093856, -0.0869287103, -0.0519333743, -0.0622640960, 0.0203922316, 0.1102848500, -0.0453766175, 0.1024210900, 0.0688206777, 0.0375740193, 0.0751872137, 0.0653332844, -0.0162130706, 0.1096722856, 0.0116443364, -0.0926941559, 0.0375933349, -0.1055396125, -0.0648788288, -0.0831321180, 0.0430965200, -0.1078217104, 0.0800033137, 0.0728008822, -0.1187030300, 0.0866569281, -0.0651224181, -0.0319116339, -0.0645640492, 0.0639584810, 0.0038603824, -0.0339849070, 0.0992052779, 0.1013047546, 0.0934408531, 0.0189109500, -0.1189094186, -0.0313900597, -0.0911468416, 0.0414194800, -0.0699893311, -0.0667466745, -0.1118952259, 0.0291673280, -0.0727625117, -0.0907691494, 0.0093501788, 0.0543990955, -0.0655103847, -0.0299921166, -0.0322737321, 0.1163301244, -0.0849057063, -0.1083682626, -0.0843388885, 0.1121853143, -0.1087143049, -0.1031246409, -0.0332722031, -0.0894026533, -0.0700557008, 0.1200894713, -0.0489314944, 0.0543446392, -0.0508670583, 0.0274260622, -0.0235198792, -0.0461609215, 0.0933046341, 0.0049624266, 0.0468575507, 0.0977740735, -0.1106356010, 0.0135712279, -0.1156134754, -0.1217682660, -0.0063011823, 0.0684336573, 0.0996001214, 0.1043025330, 0.0231901351, 0.0249080565, -0.0432673134, 0.0143460548, 0.1205037609, 0.0475028306, 0.0662404448, -0.0866374820, -0.0524328724, 0.0302063152, -0.0349030495, 0.0235670954, 0.0500041172, -0.1027826592, 0.0256471429, -0.0920079201, -0.1190942377, 0.1049832925, -0.0879590064, -0.0402631834, 0.0324462317, -0.0804338455, -0.0827902704, -0.0097882841, 0.1000941023, -0.0449045971, -0.0800169930, 0.0612353459, -0.1059744954, -0.0553055592, 0.0096382685, -0.0688018128, 0.0298539419, 0.0845841393, -0.0115135042, -0.0530733652, 0.0975437388, -0.1007038429, 0.0098798266, -0.0341270529, -0.1034294143, 0.0268303491, -0.1000734717, -0.0965371206, -0.0575188734, -0.0875851586, 0.0036920432, 0.1080412641, 0.0423378833, 0.0573781580, -0.0724928677, 0.0500782728, 0.0564510375, 0.0409478545, 0.1012097225, 0.0897126421, -0.0367923453, -0.0249841660, 0.1125652269, -0.0308524277, 0.0976040363, 0.0766085163, -0.1101020575, 0.1138793528, -0.0221712831, 0.0093221031, 0.0997729003, 0.0631469935, -0.0673675761, -0.0121787870, -0.1152467504, -0.0937291607, -0.0150416177, -0.0437820666, 0.0295953155, 0.0677025020, 0.0182618145, 0.0025393364, 0.0396662429, 0.1032291204, 0.0916781798, -0.0123761510, 0.0822449848, -0.0284571052, 0.0958908945, 0.1163713932, -0.0346329473, 0.1007074192, 0.0676478967, -0.0527153127, -0.0320319086, -0.0860548764, 0.0713965148, -0.1002423912, 0.0974538177, -0.1104876623, 0.0439345203, 0.0115261339, -0.0596552491, 0.0087179076, 0.0339339525, 0.1170773283, 0.0385300033, -0.0380840003, -0.0875985622, -0.0422140472, -0.1119177118, -0.0082963295, -0.0071198535, 0.0617197901, -0.1073095277, 0.1223683283, 0.0160469506, 0.0743423477, -0.0975992456, -0.0285259448, -0.0285889748, 0.0943710953, -0.1145611852, -0.0415179729, -0.0703423470, 0.1121067405, -0.0127353724, -0.0374225415, -0.1002857983, -0.1026256382, 0.0001295028, 0.0117522012, 0.0533382557, -0.0026823734, -0.0097447904, 0.1189141944, 0.0221656188, -0.0882224515, -0.0936494693, 0.0632671490, -0.0638727918, -0.0313123874, -0.1212819070, -0.0753832757, 0.0469374843, -0.1002013534, -0.0787670389, -0.0573676489, -0.0880797505, -0.0293507334, -0.0198503491, -0.0568648651, -0.0720965490, 0.0469409749, -0.0853840783, -0.0844668299, 0.0270259324, 0.0113467565, 0.1160879061, -0.1200017557, 0.0229095370, 0.0601300746, -0.0208281614, 0.0172690526, 0.0300364569, 0.0332712382, -0.0865541026, -0.1072350815, 0.0037456402, 0.0453266427, -0.0075414022, -0.0988423005, -0.0595217757, 0.0557294451, -0.0417506099, -0.0187582038, -0.0296258293, 0.0771756098, 0.0830499455, -0.1146917716, -0.0631632134, 0.0464047864, -0.0831258371, 0.1070922911, 0.0678583533, 0.0335358940, 0.1151868030, -0.0731477514, 0.0412724726, -0.0197764151, 0.1137349978, 0.0524608605, 0.0192529578, -0.0862258300, -0.0119299721, 0.1031215191, 0.1179864556, 0.0450710095, 0.0275436211, -0.0318398476, 0.0870689005, -0.0015634659, -0.0724847466, -0.0832815319, 0.0175237209, 0.0431515761, -0.1042060554, 0.0919482708, 0.0254074819, -0.0699139312, 0.0465697646, 0.1027469039, 0.0540347807, 0.0506229289, -0.0214783046, -0.0875779465, 0.1129945517, -0.0166517012, -0.1036984250, -0.1193017215, -0.1034011841, 0.0562680252, -0.0942878127, -0.0791638717, 0.0269799568, 0.0945661068, 0.0886117220, -0.1110601574, -0.1069731116, -0.0603146479, 0.0560306571, -0.0323356055, 0.0198808201, 0.0369737521, 0.0625340044, -0.0044864197, 0.0564952493, 0.0773103386, -0.0426627956, 0.0646181405, -0.1039464101, -0.0463365726, 0.0719547495, 0.0619689859, -0.0970594510, 0.0015496688, 0.0543563776, 0.0444014780, 0.0000503995, 0.1140222698, 0.0796219036, 0.0800640211, -0.0035292958, -0.0182112549, 0.0734941140, 0.0120532410, 0.0231070183, -0.0302187391, -0.0912618861, 0.1030956432, 0.1028148085, 0.0159942601, -0.0194971729, 0.0586468913, 0.0443333536, 0.0201031212, -0.0895135552, 0.0953692123, 0.0672518387, -0.1100848690, 0.0187962800, 0.0494013838, -0.0262617338, 0.0662576184, 0.0649223477, -0.0174435377, -0.0084893722, -0.1055360064, 0.0615605041, -0.0689325705, 0.0707858503, -0.1043669954, -0.1065285951, -0.0551931076, -0.0563627072, 0.0440505333, -0.0110946279, -0.0808774233, 0.1156722382, 0.0134354178, -0.0734826773, 0.0829905793, 0.0899376571, 0.0333071984, 0.0864181593, -0.0661183596, -0.0134941535, -0.1148396432, 0.1123476252, -0.0903664604, 0.0785086453, -0.0189075489, -0.0220307428, 0.0535872430, -0.0859507546, -0.0938835666, 0.0693275779, 0.0491736643, -0.0360317379, -0.0289004520, -0.0641803741, 0.0873426944, 0.0794170648, 0.0286240149, 0.0679493994, 0.1124121547, 0.0485384874, 0.0293321777, -0.0889294520, 0.1127372831, 0.0507092737, -0.0768959299, -0.0313509032, 0.0075584990, 0.0902283639, 0.0703267828, -0.0204248037, 0.1152509376, -0.0118594542, 0.1009696350, 0.0384832695, -0.0622899830, -0.0862728283, 0.0938603655, 0.0976027250, -0.0223989282, 0.0809070468, 0.0638348311, 0.0566329844, -0.0991831869, -0.0562491938, 0.0686487928, 0.0233720392, 0.0622681268, -0.1131204963, -0.0845560655, 0.0961497799, 0.1166366339, 0.0424464084, 0.0628100261, 0.0196476560, -0.1181513965, 0.0562427379, -0.0815474615, -0.0392718054, 0.0907297283, -0.0573680252, -0.0191117451, 0.1220389083, -0.0759094507, 0.0942031816, -0.0484034643, -0.1067137644, -0.0702804103, -0.0307704620, -0.0545531735, -0.0272857547, -0.1065784544, -0.1176860183, -0.0963900387, 0.0822332725, 0.0458153225, 0.0310137719, -0.1112885475, 0.0299662892, 0.0553713776, -0.1045989767, -0.0327312984, 0.0032763784, -0.0380738378, -0.0853943825, 0.1137797758, 0.1125468388, -0.0948922038, -0.0155594535, -0.0945634395, -0.0352898911, 0.0345408767, 0.0287051462, -0.0454073660, -0.0864612609, 0.0954678953, 0.0098416768, -0.0581544451, 0.0157580599, 0.0189448521, -0.0384069271, -0.1022898480, -0.0088893706, 0.0231959168, -0.0236407965, 0.0511693209, -0.1043318063, -0.0970390290, -0.0064919912, 0.0244402401, 0.0085873092, -0.0750929117, 0.0634842813, -0.0118728569, -0.0969882756, -0.0888431743, 0.0537007004, 0.0929545239, -0.0174599346, -0.0406101979, 0.0484062843, 0.0577269420, 0.1119784489, 0.0985003784, 0.0518211424, -0.0734163821, 0.0123280436, -0.0415953659, 0.0761318207, -0.0586266853, 0.1188898087, 0.0860219598, -0.0477354527, 0.0751546249, -0.1013738737, -0.0966310129, 0.1013011634, -0.0141452737, 0.0866380632, -0.1038359404, -0.0562202856, 0.1045763567, -0.0831709355, -0.0518664196, -0.0610697493, 0.0315138996, 0.0975255743, -0.1148900837, 0.1090407893, 0.0232528280, 0.0978606194, 0.0535109304, 0.0431189314, 0.0560077205, 0.0458979271, -0.0890845433, -0.0934078544, -0.1045002043, -0.0519128330, 0.1035404801, -0.1075910255, 0.1047022566, -0.0298429616, -0.0873110592, -0.0308506023, 0.0402483344, -0.0750473738, 0.0417838544, -0.0435562171, 0.0006089554, -0.0085803010, 0.0572559424, -0.0513980761, 0.0940891355, -0.0122673800, 0.1089436114, 0.1067528352, -0.0750308111, 0.0170916896, 0.0718494803, -0.0042254138, -0.0359948277, -0.0114573380, 0.0633130223, 0.0901196748, -0.0203233492, 0.0797929689, 0.1200548112, 0.1169021651, 0.0800089389, -0.0275981817, -0.0834627673, -0.0788562149, 0.0173178166, -0.0679573193, -0.0242089443, 0.0704888999, 0.1113818288, -0.0522599779, 0.0152603565, 0.0619459152, 0.0305298809, 0.1051887274, -0.0556357540, -0.1131112650, 0.0027212244, -0.0814010128, -0.0028934763, -0.1201305687, -0.1189809591, 0.0512379557, 0.1162885129, 0.0076174689, 0.0469244160, 0.0241206288, 0.0830891654, 0.0753664821, -0.1048059762, -0.0759045407, 0.0844139755, -0.0166092161, 0.0769795626, 0.0091648018, 0.0302870087, 0.0160256643, 0.0301293563, 0.0374820530, -0.1207894012, 0.0009028115, 0.0521195270, -0.0368476659, 0.0136836041, 0.0108692022, -0.1057053655, 0.0955576599, 0.0647478178, 0.0617815033, 0.0856734514, 0.0667632446, 0.0516066253, -0.0489941426, 0.0151488557, 0.0982576236, -0.0395485796, -0.0513949096, -0.0227891579, -0.0854313523, 0.0746626556, -0.0828023851, 0.1081398502, 0.1005523205, -0.0844927281, -0.0225636605, 0.0467264839, -0.0367098674, 0.1140948907, -0.0697269365, 0.0107848141, -0.0998947173, -0.0543273687, -0.0892560557, -0.0266062673, -0.0678342208, -0.0963758752, -0.0237365011, -0.0693648085, 0.0233021341, 0.0721457005, -0.0798063278, -0.0515129343, -0.0331232250, -0.0781354532, 0.1125903502, -0.0408092104, -0.0693812668, 0.0697752908, 0.0433691926, -0.0065987618, 0.0960456952, 0.0342459269, 0.0298206527, 0.0910220966, -0.0779349655, -0.0055086603, 0.0340300947, -0.0268821940, 0.1156830192, -0.0696533099, -0.0606545359, -0.0075854361, -0.1115922853, 0.0484539233, -0.0661855042, 0.0856543556, -0.0918627828, 0.1217407137, 0.0543055087, 0.0995239615, 0.0097215613, 0.0216441024, -0.1046116278, -0.0875278413, 0.0898623392, -0.0135692274, 0.0957241580, 0.0127660614, -0.0435882658, 0.0448260196, -0.0567309521, 0.0931205973, -0.1134809554, 0.0988776013, -0.0021762173, 0.0654200688, -0.0826949328, 0.1014291495, 0.1076068580, 0.0091224611, -0.0064424677, -0.1098639145, -0.0178089924, -0.1172542945, -0.0357570648, 0.1086246446, 0.0700867102, -0.1162830517, -0.0332169421, -0.0043538655, 0.0901541933, -0.0461782068, 0.0568143018, -0.0730466023, 0.0996745229, -0.0737528354, 0.0653825477, 0.0635771975, -0.0683564544, 0.0684911981, 0.1062028110, -0.0491722338, 0.0412343666, -0.0504366606, 0.0631860942, -0.0687545687, -0.0189309511, -0.0565197021, -0.0442212522, 0.0098333983, 0.0953824893, 0.0542225949, 0.1055379510, -0.0934958160, 0.0519286878, -0.0061322595, 0.0546343625, -0.0198547151, -0.0354239494, 0.0607094504, -0.0677601695, 0.0991332829, -0.0321669020, 0.0786283538, -0.0932359099, -0.0504573323, 0.0266540665, 0.0165086500, -0.1005796120, 0.0293522235, -0.0815805942, -0.0336482860, 0.0213081390, 0.1041798070, 0.1027215868, -0.0405612290, -0.0701215491, -0.0313703790, 0.0726218894, -0.1069304794, 0.0946486592, -0.0908046290, 0.0180923510, -0.0199764203, 0.0224147402, -0.0169206932, 0.0671719313, -0.0964996442, -0.0632907152, 0.0327807777, 0.1098018065, 0.1145194471, 0.0814103410, -0.0751019344, -0.0277584922, -0.0914423317, -0.0412335172, 0.0855489597, -0.0399350598, -0.0144039290, 0.0761247873, -0.0583733469, -0.0196834113, 0.0354163572, 0.0338080861, 0.1103887707, 0.1206320524, 0.1093169227, 0.0296591036, -0.1128591523, -0.1052858457, -0.1081718206, -0.0350235999, -0.1060241908, -0.0088123409, -0.0682724714, -0.0890456215, -0.0927519724, 0.0590194128, 0.0594829805, 0.0145723270, -0.1223939657, 0.0934273601, 0.0505023152, 0.0607348979, -0.0097813495, -0.1063939109, -0.0566735603, 0.0648958236, -0.0948944762, -0.0579673462, -0.1068307310, 0.1008570567, -0.0923190787, -0.0015354775, 0.0165912565, 0.1215994731, -0.1196981147, -0.0653747022, 0.0664482340, 0.0129996771, -0.0022397570, -0.1122788116, 0.0910627395, -0.1132385060, 0.0148951644, 0.0279472712, -0.0718529895, 0.0756289214, -0.0921685249, 0.0815363079, 0.0891590938, -0.0088360654, 0.0748490989, -0.1011836156, -0.1058654115, -0.0748293474, 0.0932060182, 0.1040045917, 0.0437349677, -0.0410788469, 0.0634805337, -0.0518879816, 0.0826132447, 0.1170519367, 0.0297765322, -0.0942572281, -0.1088929474, 0.0256306585, -0.0281696152, 0.0984148830, 0.0223757569, 0.0913724527, -0.0464300290, -0.0209196303, -0.0170748997, -0.1146365851, -0.1197460890, -0.0175448190, -0.0239919145, 0.0746403337, -0.0369643345, -0.1093338430, -0.0346978605, 0.0786471143, 0.1085777208, -0.0113160526, -0.0753312558, -0.0246739443, -0.0559057258, 0.0229134932, -0.1210677177, -0.1041268036, -0.0759845376, -0.0223235041, -0.0965393707, 0.0748945251, -0.1047775447, 0.0135603650, 0.1021014974, 0.0843732432, 0.0601407439, -0.0750026926, -0.0846111625, -0.0897759497, -0.0264552720, -0.0800759792, -0.1175684705, -0.0468583666, -0.0431337655, -0.0985738784, 0.0713317618, -0.1187691838, -0.0405989103, 0.0783690810, -0.0949731469, -0.0277352631, -0.0241417270, 0.1012578011, 0.0841592476, -0.1142538115, -0.1079947352, -0.1195469350, -0.0166466944, -0.0373616889, -0.0907901302, 0.1049921066, -0.0789729729, 0.1123756245, -0.0486470535, -0.0583923273, -0.0437839068, 0.0948369727, -0.0454733856, -0.0673708022, 0.0166461971, 0.1045375541, -0.0674887002, -0.0569732562, -0.0914893746, 0.0071029468, 0.0469866730, -0.0137562109, -0.0480859280, 0.0558058619, -0.0788673237, 0.0864418671, 0.1119460166, 0.0162489284, 0.0310320091, 0.0254565813, 0.0724078193, 0.0425563157, -0.0032824958, -0.1172778606, -0.0443028957, 0.0988731235, 0.0985202119, -0.0126899807, -0.0129397875, 0.0847866982, -0.0307089668, -0.0935489461, 0.0977667719, 0.0922274217, -0.1093182340, 0.0780924261, -0.1214890629, 0.1218254194, -0.1099749655, -0.0996392071, -0.0095200948, -0.1166915894, -0.0636086762, -0.0088069094, 0.0962860286, -0.0100120455, 0.0631966516, -0.1000345573, -0.1159141064, 0.0146067543, 0.0437730588, -0.0340709314, -0.0981544629, -0.1094510555, 0.0838665292, 0.0539537072, -0.0463973247, -0.1070581228, -0.0675034150, -0.1093346328, 0.0199553818, 0.0156351253, -0.0275013689, -0.0508922711, -0.0360487625, -0.1199056134, -0.0724515915, -0.1124403328, 0.0277928598, 0.1048885807, -0.0070895585, 0.0476466566, 0.0481264740, 0.0475500301, -0.0176196452, -0.0979859009, 0.0102940900, -0.0219248924, 0.1002452821, 0.0406586826, 0.1031869650, -0.0536946282, -0.0777758807, 0.0797916725, -0.1034391001, -0.0803352222, 0.0277071279, -0.0628674999, 0.0190255307, -0.0955131426, -0.0579380430, -0.0774591193, 0.0945603848, -0.0772097781, -0.0768801942, -0.0078001451, -0.0240529869, 0.0285820831, 0.0709307268, 0.0678171664, 0.0580156296, -0.0262566525, -0.0864466578, 0.0073458338, -0.0231094565, -0.0026670434, -0.0483089313, 0.0360503830, -0.0933659226, -0.0691024438, -0.0405769944, -0.1047511920, -0.0487084165, -0.0756790414, -0.0167575814, -0.1108135357, -0.0442061573, 0.0778101757, 0.1063958779, -0.0702038035, 0.1129171476, 0.0872496665, 0.0567357987, -0.0279957131, 0.0704843476, -0.0031225663, -0.0535039641, 0.0831341147, 0.0752473325, 0.0279489942, -0.0189724453, -0.1177807450, 0.1067130789, 0.1046205088, 0.0249312557, -0.1141893938, 0.0632776022, -0.0131145660, 0.1151708588, -0.0443506539, -0.1040018424, 0.1194413453, 0.0043471493, -0.0038338685, 0.0766037107, -0.0753758475, -0.0518845096, -0.0935918614, -0.1045552716, -0.0537368953, -0.0629609898, -0.0747002661, 0.1104901731, -0.0434873216, 0.0865408033, -0.0038525420, 0.0913645104, 0.0878740698, 0.1083827019, 0.0042043896, -0.1120356768, -0.1108883768, 0.1133077666, -0.0982317701, -0.1124883220, 0.1150570065, 0.0566751063, -0.0047147651, -0.0538183786, -0.0078903735, 0.0806751847, 0.0619062483, 0.0943543464, 0.0265237913, 0.1060816869, 0.0328747146, 0.0209533274, 0.0072481008, -0.0413836241, 0.1133667678, -0.0738926232, 0.0941947103, 0.0498349629, -0.0200206600, -0.1111437157, -0.0539362878, 0.1152322516, 0.0879049003, -0.0150797972, -0.0290566441, 0.0247954465, -0.0205737837, -0.0687280670, -0.0692834258, -0.0506857224, -0.0481970049, 0.0517545976, -0.0634681061, 0.0544671789, -0.0378371850, -0.0543797091, -0.0171496663, 0.0636178181, 0.0578697287, 0.0557890274, 0.1213161722, -0.0026714527, 0.1025156677, 0.0404467620, -0.0869503617, -0.0344736874, 0.0722558200, -0.0942411721, 0.0318976492, -0.1102138460, -0.0277369414, -0.1217422485, 0.1086938754, -0.1187337339, -0.0184196718, 0.0761328414, 0.0310652964, 0.1169688180, 0.0324360393, -0.0041820370, -0.0096921567, -0.0943466946, -0.0312486887, -0.1139503196, -0.0601487309, 0.1119994670, -0.0509610511, 0.0326464139, -0.1050803661, 0.0349948667, 0.0367894992, -0.0098545244, -0.0689283833, -0.0453271084, 0.0493913665, -0.0382636972, 0.0760246441, 0.0237113014, 0.1078080609, -0.1022437438, -0.0453727469, -0.0188171305, 0.0164399855, -0.1203442886, 0.0353486724, -0.0204710569, -0.0003625058, -0.0907401368, -0.0565554574, -0.1044153795, 0.0627714768, 0.1224621609, 0.0745629370, 0.0230440330, 0.0765150338, -0.1023439914, -0.0509487875, 0.0392677039, 0.1156012118, -0.0491222851, 0.0286041293, 0.0339308269, -0.0256811306, -0.0242251363, 0.0346399546, -0.0218295082, 0.0166441686, -0.0436627567, 0.0925919563, -0.0016974218, -0.0170590598, -0.0151744494, -0.0837526023, -0.0506897233, 0.1125655472, 0.0747867748, -0.0060901237, -0.1066545025, 0.0886303112, -0.0941190794, 0.0210128091, -0.0121507253, -0.0545054004, -0.0382390097, -0.0460033119, -0.0953514054, 0.0142061422, -0.0844998509, 0.0907087475, -0.1086120307, -0.0441103503, -0.0591666400, -0.0495888628, -0.0043335422, -0.0641629845, -0.0089312289, -0.0892392620, -0.0036666244, -0.0537997037, -0.0937376097, 0.0522617586, -0.0128927752, 0.0835513175, 0.1206322908, 0.0606511943, -0.1118709296, -0.0499595143, -0.0038085957, 0.0604793355, -0.0853853226, -0.0575845167, 0.1037755013, 0.0040468108, -0.0654704645, -0.0952688828, 0.0508785024, -0.0942845196, -0.0245088022, 0.0971852317, -0.0736254528, 0.0806913748, 0.0820315778, 0.0964114293, 0.0086711580, 0.0005948371, -0.0057645268, 0.0621893294, 0.0302795768, -0.0955007896, -0.0855878517, -0.0048731472, -0.0263674818, 0.0230115913, -0.0635055304, 0.0463401787, 0.0122743882, 0.0666023269, 0.0181093030, 0.0733065009, 0.0963445604, 0.0995288417, -0.0889286920, 0.0337715559, 0.0523013398, -0.0550567433, 0.0976349488, -0.0309587158, -0.0457126833, 0.0867119431, -0.0795522779, 0.0992946103, 0.0876012519, 0.0889150277, -0.1094048172, -0.0106864963, -0.0913209319, 0.0440272316, -0.0630047992, 0.0717969984, 0.1072556674, -0.0961522758, 0.0623852611, -0.0761834905, 0.1113628894, 0.0549435206, -0.0398570225, -0.0181550290, 0.0654265508, 0.0851177722, 0.1116811708, 0.0044129668, -0.0867933854, -0.0834620222, 0.1129354388, -0.0318324454, 0.0300445016, 0.1079621166, 0.0701048747, -0.0485252440, 0.0905141011, 0.0970411003, -0.0698157325, -0.0354033634, 0.0531420149, -0.0820733011, -0.1057412997, -0.0941220894, 0.0769217014, -0.0964346603, 0.0252711307, -0.0022502544, -0.0720947608, 0.0043106345, -0.1035812125, 0.0379778594, -0.0218503866, 0.0608683266, 0.0774951205, 0.0856944025, -0.0433615558, 0.1165566295, -0.0164469350, 0.0459154062, -0.1139924377, -0.0798614919, -0.0500616133, 0.1178341955, -0.1150366291, 0.1188186631, -0.0249732900, 0.0611388944, -0.0833823010, 0.0434690863, 0.0834117085, 0.0534869134, -0.0981551334, -0.0731082857, -0.0548776165, -0.0411515981, -0.0862450153, 0.0164235160, -0.1219583675, -0.1016931608, -0.1211126596, 0.0798260123, 0.0816677585, 0.0248341355, 0.1057905927, 0.1051955447, 0.0554561727, -0.0866298303, 0.0520825163, 0.0358643904, 0.0639396310, 0.1053772569, 0.0537323393, -0.0156534631, 0.0280467700, -0.0950307846, -0.0330811180, -0.1160410717, -0.1214563921, 0.1138924584, 0.0471176505, -0.0753325671, -0.0899481848, 0.0651060194, 0.0191253517, -0.0156503841, 0.0720968992, 0.1000437587, 0.0238567330, -0.0749266595, -0.0998303741, 0.0218808725, -0.0157372244, 0.1081993580, -0.1114497930, -0.0159821119, 0.0086043626, 0.0906817541, 0.0313728750, -0.0983835682, 0.0114982035, 0.1147259623, 0.1065989509, -0.0174768846, 0.0961929113, -0.0387068279, -0.0492838211, 0.0496952534, -0.0497861691, 0.0799675733, -0.0856090337, -0.0474880114, -0.0938886628, 0.0781938806, 0.1131804734, -0.0805256739, -0.0994752273, 0.0396254510, -0.0804933533, 0.0979553759, -0.0535259694, -0.0939265043, -0.0782258436, -0.1077510789, 0.0227459129, -0.0825617015, 0.0804528967, 0.1041727364, -0.1025817394, 0.0056678159, -0.0835502893, -0.0504811332, -0.0009562479, 0.0142368162, -0.1201995090, -0.0759877786, 0.0681939721, 0.0143596036, 0.0183976255, 0.0185798202, 0.0944662988, 0.0833925381, 0.0135470061, 0.0030486754, -0.0003803325, 0.0837952793, 0.0435586125, 0.0990436226, 0.0929797664, 0.0730064958, -0.0881792232, -0.1215866953, -0.1105368584, 0.1112576127, 0.0711567700, 0.0161681324, 0.0295271613, -0.0789439455, -0.0494305231, -0.0434411988, 0.1119124666, -0.0878144652, 0.0851592794, 0.0583616234, 0.0223246273, -0.0734039694, -0.0805845484, -0.0897927508, 0.0280465651, -0.0302520134, -0.1051274687, -0.1060198545, -0.1116010621, -0.0568043627, -0.1104926690, -0.0179732293, -0.0674984753, -0.0425385050, 0.0283877701, 0.0034002310, 0.0439704545, -0.0189594366, 0.0450981930, -0.0503913425, 0.1033891812, 0.0870179459, 0.0029027620, -0.0570515394, -0.0120881498, 0.1130900830, -0.0993473455, -0.1219221205, 0.1205809116, 0.0275919475, -0.0581392758, -0.1050296649, -0.0778486803, -0.0146230180, 0.1103507504, 0.0217143428, 0.1194501445, 0.1108499467, -0.0669995174, -0.0459081046, 0.0774237961, -0.0191635452, 0.1207572222, 0.0484117009, -0.0040800846, -0.0410851240, -0.0240465049, -0.1026516408, 0.0565832555, 0.1013291925, 0.0862520412, 0.0567489527, -0.0713399649, 0.0106752543, 0.0740158036, -0.0104250237, -0.1197672486, 0.0804968700, 0.0056177373, 0.0280975923, -0.0236415863, 0.0917485654, 0.0102193225, 0.0940918103, -0.0799185336, 0.0984781906, -0.0736628324, 0.0097893355, 0.0493759327, 0.0017109853, 0.1169806421, 0.0514426790, 0.0884136856, 0.0453787781, -0.0263357274, 0.1126003638, 0.0148502104, -0.1198370904, -0.0340571180, 0.0906242132, -0.0803445652, -0.1030724049, -0.0099007925, 0.0613424517, 0.0453721061, 0.0760849863, -0.0185061470, -0.1025266945, 0.0503516719, 0.0072999313, -0.1100099608, -0.0091278777, -0.0854987204, 0.1033763587, -0.0206994321, -0.0002031895, -0.0275282189, -0.0624921657, -0.0890540630, 0.0436236709, -0.1057363227, 0.0724394545, -0.0927179381, 0.0770437717, 0.1149518713, -0.0472987927, -0.0974171534, 0.1048415527, 0.1110896915, 0.0640145168, 0.0014510744, 0.0948960558, 0.0329413638, 0.0678714514, -0.0379528329, -0.0949764848, -0.0149118667, 0.1116336957, 0.0110120354, -0.0389378145, -0.0604333915, 0.0444962904, -0.0157379992, 0.0019090939, 0.0444102064, -0.0614630617, -0.0904137269, -0.0853432715, 0.1015640348, -0.0017915048, -0.1099191308, 0.0659832656, 0.0222273916, 0.0923354924, 0.1048253030, 0.0479942411, 0.0849438533, 0.1020715386, 0.0849274918, -0.0928364620, 0.0479294136, 0.1037430689, -0.0016087992, 0.0009541601, -0.0284468420, -0.0920932740, -0.0654838383, -0.1091100648, -0.1061276048, -0.1059812382, 0.0031626290, -0.1195844114, 0.1075137332, 0.0028335429, -0.1037834138, -0.0133479191, -0.0676126108, 0.1185305044, 0.1112691611, 0.0279023014, -0.0446845442, 0.0822093487, -0.0158492066, -0.1170172468, -0.0302374847, 0.0034396076, 0.0495647565, -0.1037126482, -0.1089502871, -0.0169686116, 0.0476200394, -0.1052650139, -0.0506015085, 0.0384191014, 0.0473534837, 0.0537641235, -0.0847562626, 0.0678495541, -0.0722705200, 0.0221746415, 0.0243599247, -0.0426774696, 0.0026470413, 0.0408716984, 0.0650057867, 0.0484618656, -0.0314237140, 0.0164756831, -0.0043051741, 0.0249071810, 0.0103020174, -0.0410919860, -0.0996793136, 0.0810650513, 0.0815394968, -0.0533811934, -0.0824675784, 0.1010875031, 0.0955202356, 0.0332863666, -0.0887352079, 0.0402048118, -0.0429820716, 0.0744675100, 0.1046978757, -0.1217014492, -0.1213520691, 0.0711594969, 0.0044192886, -0.0144429114, -0.0126533341, 0.0948864892, -0.0752288327, -0.0997539461, -0.1209717989, 0.0365533568, -0.0320622213, -0.0783604980, 0.1120224074, -0.0129011702, -0.0148431296, 0.0438248329, -0.0797188357, -0.0305558108, 0.0791325495, 0.0666119903, -0.1176538840, -0.0754830837, 0.1093766764, 0.0315845497, 0.0666783452, -0.0411980115, 0.0012937729, 0.0125727709, 0.0196588114, -0.0932047367, 0.0833208486, -0.0041281627, 0.0646942854, -0.0630589277, 0.0109778419, 0.0812821090, -0.0314179175, 0.0345413014, 0.0432639830, 0.0552197695, -0.0010881014, -0.0999959707, -0.0458472669, -0.0705937892, 0.0706744492, 0.0369104743, -0.1064987704, 0.0501744151, 0.0155884204, -0.0565941036, 0.1011103094, 0.0577288233, -0.0818059295, 0.0385687687, -0.0726960227, 0.0656475499, -0.0332625397, -0.0514111891, -0.0593689419, -0.0340045728, 0.0219382364, 0.0345501192, -0.1061558723, 0.0061077019, 0.0608063191, -0.0927823856, -0.0826406479, -0.0578701533, -0.1168693453, -0.1145462394, -0.0848791376, -0.0685744211, -0.0451225303, 0.0848597288, 0.0221445058, 0.0752348676, 0.0529424176, 0.0235191789, -0.1154640839, 0.1009227708, 0.0478837006, 0.0924084634, -0.0522153154, -0.0661231652, -0.1095355302, 0.0444343872, 0.0779939070, 0.1024225205, 0.0727590397, -0.0288617481, -0.1060938165, 0.0081216246, -0.1203925982, 0.0750338808, -0.0826762095, 0.1168922558, 0.1119133458, -0.1188127622, -0.1135596037, 0.0260139257, 0.0286945477, 0.0318832211, -0.0782042593, 0.0893479288, 0.0429301821, -0.0535712875, 0.0125265177, -0.0355031416, 0.1156722531, 0.0327180400, -0.1177050546, 0.1206851080, -0.0119097801, -0.0835796818, 0.0258516744, -0.0941076651, -0.1214856058, 0.0573122241, 0.0249094870, 0.0333832502, -0.0572093837, -0.1179355606, -0.1144392192, -0.0900669396, 0.0974770784, -0.0976532698, -0.0950014964, 0.0019225845, -0.0035627594, -0.0086937733, 0.0185813084, 0.1093753651, -0.0353329927, 0.0840893388, -0.0682299733, 0.0265002549, 0.0491965711, -0.0662535578, -0.0377113186, -0.1066689715, -0.0970786661, 0.0753782541, -0.1180949211, -0.0739306360, 0.0949776098, -0.0798390210, -0.0085110096, 0.0771418288, 0.0011368949, -0.0456751324, 0.0795997083, 0.0451649167, 0.0576820597, 0.0780688897, 0.0107966103, -0.0347844958, 0.0352370255, -0.0268881358, 0.0767857730, 0.1218485311, 0.0580671392, 0.0085004680, -0.0338955820, 0.0693189502, 0.0713247284, 0.0907679796, -0.0709203929, 0.0896344110, -0.0425137728, 0.1160789728, 0.0020995669, -0.0504552312, 0.1145578772, 0.1092210561, 0.0710815787, -0.0136800418, -0.0429405756, -0.0309421308, 0.0008765022, 0.0020979024, -0.1013480723, -0.0722886994, 0.0391871855, 0.0108187003, -0.0740629882, 0.0512043461, -0.0256205108, -0.0271153711, 0.0070811636, -0.1073036566, 0.0778564140, -0.0596284270, -0.0551201664, -0.0388485044, -0.0286242049, -0.0491317771, 0.0141491722, -0.1126900837, -0.0422588997, -0.0964571387, -0.0529280342, -0.0844291449, 0.0478077680, -0.0678313747, -0.0062431032, 0.0165486839, -0.0906507149, 0.0199588127, -0.0359943472, 0.0214912239, -0.0126063507, 0.1075585708, 0.0422787406, 0.0932040066, -0.1163186878, 0.0050482899, -0.1005350798, 0.0597677864, 0.0131706446, -0.0621191189, -0.0460893661, -0.0620302036, 0.0505812168, 0.0437042192, 0.0546966046, -0.0227244068, -0.0215274189, -0.0145078963, -0.0689113289, 0.0851467252, -0.1104347929, -0.0126246596, -0.0936452523, -0.0218173172, -0.0472277775, 0.0479075573, -0.1000056639, -0.1074011400, 