//Numpy array shape [8, 16, 2]
//Min -0.296984702349
//Max 0.304836004972
//Number of zeros 0

#ifndef VALUE_WEIGHT4_H_
#define VALUE_WEIGHT4_H_

#ifndef __SYNTHESIS__
mha_value_weight_t value_weight4[256];
#else
mha_value_weight_t value_weight4[256] = {0.2594531775, -0.0968669727, -0.2099468410, -0.2377991974, 0.0684041232, -0.1805934161, 0.0380188338, -0.2930589914, -0.1057229564, -0.2117427588, 0.0117993243, 0.1376482546, -0.0163106807, 0.2506276071, 0.0100378953, -0.2080685347, 0.0238949209, 0.1804477870, 0.0435743928, 0.1008963808, 0.1221349984, -0.0456910394, 0.2877492905, -0.2481237948, -0.0490606315, 0.0793903992, -0.1490448713, 0.3038705587, 0.1078929305, 0.1762902588, 0.1506098956, -0.2536585331, 0.2087787241, 0.2003347576, 0.2675008178, -0.0132246586, -0.1114903167, 0.2958081663, -0.0692309216, 0.1724159420, 0.2177587748, -0.0543183833, 0.0008020928, 0.0419938937, -0.2861254811, 0.0123457694, 0.1398580968, 0.2928296626, -0.1505854428, 0.3048360050, -0.0350090973, -0.2024200112, -0.0252098776, -0.1826772839, 0.2490213662, 0.0721530616, -0.2030609548, -0.2013124973, 0.0186200887, 0.2859574556, -0.1607806832, 0.2663042247, 0.1338575929, -0.0154296383, -0.0395203829, 0.1388919353, 0.2257926613, 0.1295437366, 0.0377665460, -0.1065288782, -0.1988170445, 0.0444794148, -0.0067086350, -0.0345355086, -0.0742588341, 0.1102005467, 0.2165461183, -0.0277038310, 0.2587885857, 0.1103884876, 0.0173853934, 0.0881759748, 0.2938750684, 0.2374304980, 0.2285650373, 0.0247474574, -0.1736101210, -0.1079126745, 0.1703921109, -0.0072443127, 0.0203144662, 0.2462883145, -0.2069260478, -0.1392107606, -0.2936864197, 0.2287934124, -0.1811826378, 0.2812612057, 0.1292641908, 0.2951335311, -0.1018732712, 0.0321026221, 0.2984235287, -0.1690825969, -0.1560536474, 0.1613495052, 0.3008358777, -0.2405977696, 0.0618184544, -0.0182526391, 0.1097895205, -0.0959561095, 0.0060445862, 0.2628661990, 0.0384841412, -0.1481894553, 0.2404505014, 0.0016877347, 0.2881901860, 0.1618717164, 0.0429350547, 0.1635442972, -0.1680686474, 0.0902550295, 0.0238082688, -0.1135063395, -0.2909867465, 0.0968691260, 0.1852851212, -0.1832155287, 0.2964386642, -0.0108498065, -0.2490705103, 0.2401427925, -0.2110500187, -0.0796026886, 0.2196590453, -0.2718394995, 0.1141072810, 0.1998389065, -0.2291607857, -0.1510130018, 0.0796873271, -0.1300008297, -0.0403405055, 0.1019214168, -0.1786070019, 0.1509827375, -0.1818059236, 0.1030865014, -0.2969847023, -0.2537550032, -0.2777114809, 0.2173517197, 0.2672287524, 0.1031809300, -0.0775118098, -0.2603533864, 0.2754324973, 0.1958819479, -0.2652167380, -0.0410533920, -0.2302985787, -0.2379516959, -0.0178843159, 0.1670447141, -0.2366934866, -0.2414664030, -0.0855802223, -0.2041766942, 0.1472878307, -0.0174578466, -0.1574570090, -0.1525536478, -0.1744407862, 0.1956726909, -0.0841964632, 0.1792538911, -0.1996992528, -0.2103184164, 0.1195041686, 0.0963226110, 0.1479705274, 0.2150457501, -0.2488122284, 0.1428633034, -0.1036049575, 0.0277814306, -0.1340447664, -0.0377921686, -0.0642430559, -0.0507962555, -0.0810231268, -0.0779235661, -0.2040869892, 0.1211179867, 0.2878468931, -0.0396728069, 0.2438675761, -0.2571617961, 0.0460227542, 0.0137359900, 0.2788403928, 0.1966480911, -0.2927305698, -0.2909518182, -0.1262724400, 0.2449809760, -0.0264109913, 0.1991270036, -0.2891486883, -0.1481341571, 0.0154598234, -0.1384023130, -0.2543095648, -0.2653853893, 0.2217764556, -0.1581085771, 0.0075943498, -0.1390286535, -0.0858283490, 0.0953191817, 0.0288475286, -0.1500882655, -0.1410547197, 0.2094240487, -0.0015380108, -0.1324586868, 0.1824464649, -0.1655436754, -0.1357697397, 0.2344611734, -0.1014703065, 0.0577136725, 0.0895962343, 0.2361071557, -0.0140473014, -0.0581928492, -0.0365275815, 0.0631815568, -0.2431619465, -0.0869314224, 0.0713892207, -0.2786551118, 0.0693774745, 0.0916874036, -0.2122130394, 0.0966817364, 0.2703020275, -0.1095600799, 0.1108540818, -0.0295991786, 0.0355784670, -0.2779078484, -0.0017793503, -0.1558447629};

#endif

#endif
