//Numpy array shape [10, 20, 2]
//Min -0.272090911865
//Max 0.270855575800
//Number of zeros 0

#ifndef VALUE_WEIGHT4_H_
#define VALUE_WEIGHT4_H_

#ifndef __SYNTHESIS__
mha_value_weight_t value_weight4[400];
#else
mha_value_weight_t value_weight4[400] = {0.0429474339, 0.2142864764, 0.2099380791, 0.2332261056, -0.1826023608, 0.1798274368, 0.1932541281, -0.2052425295, -0.0380943231, -0.1828913391, 0.2450367361, 0.0995255262, 0.0058495249, 0.2471397817, -0.2295713276, 0.0238818601, -0.1269729137, -0.1816426069, -0.0175353847, -0.1046623066, -0.1455942988, 0.1565166712, 0.1062339246, -0.2470668107, 0.0880790353, -0.1521009356, -0.0943206176, 0.0116940876, -0.2349143624, -0.0964865983, 0.1444462389, -0.2488286644, 0.1260786206, -0.2433754653, 0.0731406733, -0.1943188757, 0.0134627931, 0.0279809926, 0.0604593791, -0.0810007527, -0.2090711445, -0.0813690722, -0.2683415413, 0.1323785037, 0.2351353765, 0.1236819848, 0.0404962115, 0.1427006125, -0.2310336977, 0.2373402864, -0.2311327904, 0.2355474532, 0.1824792176, -0.0146892685, -0.0236033499, 0.0912387595, -0.1066440716, -0.1914154887, -0.0475634634, 0.1388494223, 0.1639069617, -0.1365313679, -0.0665887818, -0.1913390607, 0.1095133647, 0.1667029411, 0.0921028182, -0.0327158570, 0.1922645420, -0.1668536961, 0.2077638060, 0.1072574034, -0.2584127188, 0.1951787621, -0.1597355455, 0.2366444468, -0.2298930883, 0.0122606074, 0.1754884273, 0.0232955888, 0.0458822846, -0.1631583422, -0.0304064881, 0.0006449704, 0.0940916315, -0.2065457553, 0.2543286979, 0.2374924421, -0.1467498839, 0.1018184125, -0.2126799226, 0.2200741619, 0.1688999087, -0.2556838393, 0.0456319787, -0.2000454515, -0.1423837095, 0.2611486018, 0.1813696176, 0.2639777660, -0.2405852824, 0.1401182860, -0.1719714403, -0.2346798629, -0.1468536407, -0.1186352447, -0.0204790831, -0.1994552910, 0.0548567288, -0.2608955503, -0.0362694636, -0.1540783197, -0.2366476804, -0.1870746166, -0.1709450930, 0.2336355895, -0.2499257624, 0.0220321901, 0.0663286895, 0.0119460877, 0.2387095243, -0.0317974053, 0.0781674609, -0.0859290808, -0.2535774112, -0.1628047824, 0.2034014761, 0.2549064755, 0.0976327360, -0.1585696638, 0.2445544749, -0.1215502098, 0.0115218423, 0.1188173443, -0.0222125947, -0.0894592479, 0.1280051321, -0.2682887614, -0.0010449591, -0.0197592527, 0.1889374703, 0.1515205950, -0.1577835381, -0.0208375119, 0.2276473790, 0.0571598969, 0.0274039935, -0.1992615312, 0.0858163834, -0.0114880204, -0.1867582947, 0.1484928131, -0.1396744102, -0.2018274367, 0.1970375031, -0.1024155244, -0.2565560341, 0.0029627632, -0.2611236274, 0.1069355085, -0.1234952733, -0.2638543844, -0.1612286866, -0.0857887343, 0.2369113714, -0.1015800908, -0.0920818299, 0.2269121110, 0.0529344827, 0.1757074744, 0.0809034631, 0.1650031209, -0.0345229246, 0.1351815611, 0.0352272801, -0.0165455993, 0.2576376498, -0.1341474056, -0.1774042696, -0.0327069126, -0.2458873838, 0.0299974233, 0.0611967072, 0.1413847804, 0.0996031612, 0.2629855275, -0.2114842683, 0.0362341404, 0.2551626265, -0.0633437559, -0.2399910390, -0.2629088461, 0.2342964262, -0.0277635008, -0.0628961325, -0.0746696219, 0.0208844580, -0.1762895435, -0.2121692300, 0.2048058361, 0.2224120349, -0.1073668003, 0.0505048446, 0.0487201400, -0.1403524578, -0.2128176242, -0.1358117759, 0.1934504658, -0.1677568704, -0.2246956825, 0.1213674545, -0.0621337034, -0.1718939394, -0.2232024223, 0.2532386482, 0.1073963493, 0.1782801747, -0.1454606950, -0.1010390371, -0.1428572834, -0.2475009561, -0.1611897051, 0.2092899829, -0.1095284149, 0.1348188519, -0.1497066766, -0.0592677705, -0.0883836970, 0.2514378130, -0.0767134726, -0.2704834640, -0.2223462909, 0.0188998915, -0.1609312147, -0.2037045360, 0.2657512724, 0.2410041392, -0.2461792827, -0.0826002508, -0.0121649196, -0.2250813693, 0.2292400151, -0.0850930586, -0.2327216119, -0.0106980661, -0.1044157594, -0.2561565936, 0.2677347660, 0.2458660305, -0.2517715394, -0.0960585028, -0.1718566865, 0.1863943487, 0.0212709960, 0.1045142561, 0.1245199293, 0.0536030903, 0.0539034754, -0.1916145384, -0.2317346931, 0.2118947059, -0.0907474905, 0.1199083403, -0.2220636308, 0.0503987409, -0.0915444270, -0.2378548235, 0.0832238048, 0.2569251359, -0.2429939657, 0.0016122301, 0.0991529003, -0.1292636991, 0.2137334347, 0.1603849232, 0.1831664294, -0.0064472225, 0.1070859432, -0.2191797048, -0.0720756352, -0.0109533966, 0.0764667615, 0.1310422719, 0.2355868220, 0.1224878579, 0.0233470723, 0.1547186226, 0.2450218797, 0.1218044311, -0.2693952024, 0.0648773760, 0.1998685002, 0.2696160972, -0.0354203507, 0.1924157590, -0.1930719912, -0.2351288795, 0.2530694902, 0.0942052454, 0.0138952984, 0.1092717126, -0.1931795329, -0.0503150672, 0.2580248415, 0.0276423469, 0.2153584957, -0.1663887799, 0.0486125350, -0.2655644715, -0.0814534649, 0.0426528603, -0.2405506074, 0.0461332053, -0.2720909119, -0.0684272870, -0.1473677903, -0.0277402550, -0.0741923228, -0.0125299105, 0.1837132573, -0.1850585639, -0.1579821259, 0.0405575223, -0.2010479718, 0.1264748573, -0.1453928947, -0.1952441782, 0.0557507277, -0.0219391137, -0.0387340374, -0.1319832206, 0.1886274517, -0.0392002985, 0.2674664259, -0.1537569761, 0.0071187350, -0.0297485888, -0.0001310443, -0.0266849473, 0.0088662207, 0.2321442217, -0.0214298889, -0.1882548183, -0.1442654729, -0.1754387915, -0.2252094746, 0.1772409081, -0.2141444236, 0.0083907200, 0.0956176072, 0.1851157695, 0.1252829880, -0.0764356479, -0.2492297888, 0.1692372411, -0.0441087447, -0.1171481833, 0.2242153883, -0.0353731439, -0.0911890045, 0.2500109971, 0.1420763731, 0.1210225075, 0.0463761650, 0.2229548246, 0.2034961134, 0.1461415142, 0.1995257735, -0.2274942398, 0.1252445281, 0.2708555758, -0.0976051465, -0.0842736885, 0.1302229017, -0.0172599442, -0.2345742881, 0.0201923456, 0.0288002640, 0.0596665516, 0.2609127164, 0.1576608121, -0.1496354491, 0.1433272660, 0.2496653348, -0.2569304705, 0.1712538749, 0.2272250205, 0.1452832669, 0.1586417556, -0.2117656469, 0.2115626186, 0.2292928398, -0.1796196848, -0.1969314367, -0.1338123828, -0.1257272065, 0.0611482896, 0.0262697451, -0.2566017807, 0.1841317266};

#endif

#endif
