0.2677187920, 0.0629031882, -0.2259061635, -0.2537502050, 0.1711180508, 0.1354316920, -0.1034186929, -0.2428085953, -0.2690372467, 0.1423601657, 0.1280292571, -0.2198977768, 0.1378435791, 0.1629497260, 0.2638917565, 0.1738851964, 0.1764788926, -0.1332487017, -0.0258492213, -0.0915391743, 0.0491067097, -0.1820800006, 0.0893667862, 0.2360056192, -0.0592845492, 0.2212966681, 0.1577936262, -0.0641901270, 0.2102042288, -0.1547587365, 0.0124490121, -0.0423553512, -0.2063507587, -0.0247552916, 0.2354308665, -0.1962736696, -0.0080368612, -0.0409856215, 0.2521634400, -0.2493732721, 0.2260890454, -0.0195677802, 0.1212529913, -0.1970053166, 0.2572084665, 0.1523792446, 0.1290928274, -0.1101820692, 0.2447149754, -0.0083526205, 0.0906351805, 0.0844185129, 0.0348488055, -0.2670638859, -0.1716720015, -0.1203652918, -0.0612131618, 0.1251969188, -0.0162532143, 0.1152816340, -0.2146468312, -0.0377448387, 0.1332665235, -0.1810521483, -0.1367116570, -0.1750694960, 0.1840082556, 0.1745487154, -0.0037283637, 0.1736230105, 0.0213933885, 0.0937278792, 0.2587332726, -0.2687472105, 0.0975683182, 0.2566753030, 0.2180373669, 0.0023704523, -0.2338786423, 0.0451155417, 0.1635937244, 0.1955926865, 0.1756935716, 0.1894972324, 0.0908750370, -0.1796193123, 0.2356617153, -0.2606903911, -0.1179684624, 0.2325237393, 0.2727658153, 0.0563953407, -0.1751798689, -0.1554958075, -0.1700329781, 0.2069535106, -0.1196652800, 0.1668749899, -0.0296529010, 0.2682472765, 0.0312909558, -0.1082224771, 0.2435940355, 0.0137261227, -0.1437180191, 0.1182140633, -0.0945063084, -0.0030976599, -0.2631911933, -0.1339698732, 0.2511033714, 0.2694434524, -0.0135951759, 0.2042915225, -0.1833442599, 0.1800685674, 0.0898355022, -0.1244557127, 0.0567017645, -0.2412875146, -0.0579476953, 0.1735191345, -0.2684315443, -0.0718047619, -0.2310801595, 0.0226993263, -0.1966520995, 0.1088638902, -0.2550229132, -0.1528720558, 0.2610046268, 0.1191921979, 0.0595920831, -0.2215094268, 0.0193152558, -0.1455091536, 0.0290548448, -0.2475988865, 0.2665671110, 0.1560524404, -0.2316878438, 0.2301400006, -0.0360119790, 0.1613354087, -0.0476048924, 0.2437566519, -0.2555993497, -0.2599079013, -0.0813147500, -0.2077396214, -0.0812768415, -0.1493674070, -0.0785775110, -0.2320311666, 0.2290498465, -0.2327951342, 0.1510122269, 0.2191108614, -0.2272718102, -0.2338809967, -0.1922661662, -0.0179142840, -0.2012211233, -0.0069349986, -0.1845581681, -0.2254677415, 0.1332014948, 0.2153654844, 0.0898654386, -0.0842028782, 0.2161836475, -0.1368769705, -0.1444450617, 0.2665003538, -0.2086439282, -0.0986273810, 0.0299828947, -0.2609483898, -0.0160297137, -0.0973330364, 0.2213950902, 0.1934575886, -0.0063955751, 0.1557825804, -0.1183084175, 0.0932789221, 0.0561067425, 0.0501517355, -0.0472960845, -0.2236975729, -0.2433596402, 0.1882194728, 0.0563941300, -0.2324511260, -0.2576655746, 0.0694420487, -0.1863164604, -0.0485495292, 0.1793945134, 0.0534290820, -0.2714245319, -0.1324555874, -0.0269991737, 0.2644962668, -0.2057181299, 0.2701843083, -0.2087286115, -0.0859279037, -0.2504022717, -0.2483743429, 0.1064872965, 0.0288425423, 0.2708883286, 0.2028473318, 0.1634927094, -0.1560594589, -0.2128207386, -0.2102272063, -0.2687776685, 0.2247436047, 0.2337070853, -0.2684473395, 0.2433238178, 0.0256310422, -0.1035847664, 0.1546629816, -0.0712552220, 0.1855138689, 0.2246070504, -0.0364232957, -0.0208210908, 0.2710865736, -0.1077564731, 0.2529709041, 0.1830594391, -0.1365118474, -0.2551837862, -0.1960952133, 0.0540534221, -0.0607622750, 0.1672522873, 0.2258186638, -0.1413156986, -0.1644465774, -0.2698887289, -0.0486883745, -0.0379083976, -0.1300349236, -0.1505347639, 0.1881478727, 0.2067036629, -0.1087067947, 0.0232615042, 0.1222636104, 0.2025111318, -0.1859261543, -0.0019554787, -0.0167318173, 0.1416421980, -0.1509973109, -0.2332375646, -0.0539093502, -0.1879305393, -0.2224238217, 0.0217394773, -0.0107133444, 0.1375106871, 0.2605988085, -0.1452801675, 0.1542636454, 0.0170340277, -0.0811325759, 0.1948006451, -0.1387714297, 0.2393397093, -0.1757604927, -0.2303362638, 0.0878475681, 0.0576564521, -0.1507693380, 0.2510229945, 0.2722582221, -0.1729297340, -0.2117279172, 0.0620825775, -0.2610411942, 0.0921945572, -0.1839759350, 0.1129797697, 0.1000481397, 0.1338809133, -0.0493749380, -0.0547410622, -0.0883224532, 0.0078681754, 0.1436302215, 0.0742597356, -0.0924210325, 0.1706797481, 0.0952393934, 0.1319875270, -0.2043587118, -0.0294770990, -0.0585735030, 0.0239340942, -0.0968423560, -0.2383491993, -0.2113575935, 0.0735607743, 0.1572830230, 0.2482736707, -0.0965854526, -0.0987461880, 0.2603258491, -0.1574098915, -0.1285032332, -0.1386370212, 0.2705000639, -0.0105174305, 0.0942707658, 0.2538717687, -0.0470783971, 0.0761497319, -0.0605643690, 0.2320649177, -0.1018362045, 0.2014312148, 0.0786285996, -0.0440808646, -0.1303450614, -0.1553597748, -0.2411222160, 0.0499405749, -0.1403942704, -0.1830883622, -0.1885791123, 0.0328044295, -0.1032166779, -0.2295362204, 0.2532846332, -0.1684984118, -0.0985768437, 0.1993590891, -0.2259907126, -0.1818029732, -0.0087641664, 0.1998029500, -0.2320126146, 0.1073186845, -0.1175937727, -0.0225086696, 0.1076321229, -0.1354548782, 0.0930710584, -0.0080739800, -0.1855333894, -0.1905350387, -0.1437512487, 0.0880636275, 0.0129462229, 0.2707204521, -0.1693594009, 0.0894744620, -0.1965460032, 0.2214259356, 0.1862643808, 0.1074966416, 0.0338253267, -0.0172137488, 0.1812788844, -0.2197573632, 0.2380214185, -0.0142499078, 0.1608978808, 0.1268379539, 0.1105971709, -0.2697960436, -0.2466213852, 0.2377388030, -0.0480326638, 0.1870952398, 0.1919030696, -0.0428396352, 0.1123908535, -0.1987953037, 0.2717177868, 0.2294552028, -0.0197871011, 0.1858351082, -0.0587176047, -0.0953829736, 0.2075633556, -0.2451571971, 0.0567055494, -0.1515125334, 0.2145585269, 0.0905761868, 0.1121727079, 0.2306371480, 0.1622549444