0.1075013876, 0.1313268840, -0.0882783756, 0.0854516923, -0.0001390278, -0.1370373368, 0.0017864555, -0.0694667622, 0.0063545406, -0.0624913871, 0.1277377903, -0.1419696957, 0.0123806894, -0.0383524597, 0.0025700629, 0.1054117978, -0.1369314194, 0.0221687108, -0.1572978944, -0.0305813402, 0.1161816716, -0.0137238353, -0.1519400179, -0.0123527795, 0.0114180446, 0.0092279017, -0.1386563778, 0.1394277513, -0.0640835315, 0.0276314318, 0.0794243664, 0.1276272535, 0.0503673255, -0.0782080367, 0.0342087895, 0.0010760725, -0.0553830042, 0.0736666620, -0.1008823141, 0.0530072451, 0.0135550797, 0.1590386033, -0.0793690905, -0.1384975016, -0.1287240833, 0.0371658951, -0.1121342033, 0.1400248706, 0.0352898240, -0.1503349990, -0.0949366763, 0.1062926948, 0.0695485473, 0.0478826314, 0.0092655718, -0.1356017739, 0.0885234773, -0.0034991205, 0.0599132925, -0.0067814589, -0.1609732956, 0.0793062449, 0.1626769304, 0.1044351757, 0.1177793741, -0.0715158358, 0.0089394897, 0.0239500105, -0.0994819105, 0.0539419800, 0.0310596973, 0.0123752654, -0.0929510295, 0.1034438610, 0.0426935107, -0.1116224676, 0.0436323285, 0.0556142032, 0.0192351192, -0.1483718753, 0.1023343801, 0.1010996997, -0.0923892483, -0.0697119012, -0.1393271834, 0.1062218249, 0.0461531878, -0.0371589661, -0.0580385551, 0.1265118718, 0.0038303286, 0.0850118399, -0.0210241675, -0.1035480201, -0.0476571694, -0.0732529983, 0.0794935077, 0.1498306990, -0.1401229203, 0.1165225506, 0.0349586606, -0.1117268801, 0.0321959704, 0.0511796921, -0.0749524385, 0.0073833615, -0.0553533211, 0.0086846948, -0.0780722052, 0.0046585947, -0.1340162754, 0.1221452653, 0.0718521625, 0.1254431009, -0.0018832386, 0.0670172125, 0.1540135741, 0.1346331835, 0.0252807140, 0.0763469785, -0.0373379141, -0.1326865256, 0.0702764392, -0.1046938673, -0.0398207307, -0.0139643699, 0.0080321282, -0.1277132481, -0.1546421051, 0.0533122420, 0.1427973211, 0.0388125330, 0.0464037955, -0.1414301246, 0.1479131281, 0.1104222834, 0.0945787728, -0.0559347495, 0.0070884973, -0.0349870026, -0.0990618020, -0.1180355102, 0.0097831488, 0.1318555772, 0.0152489692, -0.1462842524, -0.1620411426, -0.0786799714, -0.0944474563, 0.1356022060, -0.0918023065, -0.0693088323, -0.0528635755, -0.0855148211, -0.0673345253, -0.1222026050, -0.0813684389, 0.0731433481, 0.0414990783, -0.1440307498, -0.1549075246, -0.0402908176, -0.0879557878, 0.0370002091, 0.0625766665, 0.1551034153, 0.1079719067, -0.0520150736, 0.0967429876, 0.1232823133, 0.1091138124, 0.1243478656, -0.1187764406, 0.0429272652, 0.0449268967, 0.0992312729, 0.0103898048, -0.1292213798, -0.0264290869, 0.0704027861, 0.0329011977, -0.1328495294, -0.0303421468, 0.1303369105, 0.1018305421, -0.0775344744, -0.0553143397, -0.1611243635, -0.1368924081, -0.0425478294, -0.1097417101, 0.0367115289, -0.1091948897, 0.0346874893, 0.0739268363, 0.1277004182, 0.1452848613, -0.1573941559, -0.0119087994, -0.1495857537, -0.0851173848, -0.0265544206, -0.1513422877, -0.0055070221, -0.0037246644, 0.1400215328, -0.1479497850, 0.1633355916, -0.1024679616, -0.0723841041, -0.0252624154, -0.0103737861, -0.0861804709, 0.0751018226, 0.0788357705, -0.0131060779, 0.1403749585, 0.0154218972, 0.1071416736, -0.0988722146, -0.0786002800, 0.1638936698, -0.1239571273, -0.1448836178, 0.0163710862, 0.1067349017, 0.1340644062, -0.1195196509, -0.0002538860, -0.0390986204, 0.1463524103, -0.1647876799, -0.0288914293, -0.0740314499, 0.0761422366, -0.0996723995, -0.0726981089, 0.1230391860, 0.1572488844, -0.0154727399, -0.0776305497, 0.0148105472, 0.1565100253, 0.0214754194, -0.1151337177, -0.0664645731, 0.1242972910, 0.1148897111, -0.1217420176, 0.1125880778, 0.1160928309, -0.0940210000, -0.1538489312, 0.0590533316, -0.0593816265, 0.0895909965, 0.1586465538, -0.0195410848, 0.1552055776, 0.1145935059, 0.0357253700, 0.1527138650, -0.0186898708, 0.1094323993, -0.1321930140, 0.0264014453, -0.0499754101, -0.1191517860, -0.1221650094, 0.0500157624, -0.1390153468, 0.0930604339, -0.0178124309, 0.0614459813, -0.0482860059, 0.0437299758, 0.0880029798, 0.0730387717, 0.0274095684, 0.0659473538, 0.0007651448, -0.1047255993, 0.1586346924, -0.0882754624, 0.1206614375, -0.0251531154, 0.0599856526, 0.1023431420, 0.1413615346, -0.0144508332, 0.0884333849, 0.1540662944, 0.0365593135, -0.0279144198, -0.0780926347, -0.0809976533, -0.1215145960, 0.0049702376, -0.0130901188, -0.0092547089, 0.0226319432, -0.1332621574, 0.0277141631, -0.0120621175, -0.1014770493, 0.0977708697, 0.1421225965, 0.0103656352, 0.0617415905, 0.0890673101, -0.0328838229, 0.1344282925, -0.0470541641, -0.0604730174, -0.1434108913, 0.0109810829, 0.1547299623, -0.1085768864, -0.0975909978, 0.0000835508, 0.0263178647, -0.1033529192, -0.0624419749, 0.0773912370, -0.0639050156, -0.0549358800, 0.0779985338, -0.1514285207, -0.0919081420, 0.0615774542, 0.0963291228, 0.0146091580, 0.1471815407, 0.1161829531, 0.0913051665, -0.1115633696, 0.1421760917, 0.0963623822, -0.0988235474, 0.0362994373, -0.1346164495, -0.0654366836, 0.0105390400, -0.0692739114, -0.1162712201, 0.0057164431, -0.1530240923, 0.1428069770, 0.0846925527, 0.0834779888, -0.0081504434, 0.1289840341, -0.0667824745, 0.0289054513, -0.1306179911, 0.0806671530, -0.0260983109, 0.0091429651, 0.0910982788, 0.0010511577, -0.0443579033, -0.0623333380, 0.0057793260, 0.0613522679, -0.0947796479, 0.0848489702, 0.0330569595, 0.0594401360, 0.0357498676, 0.1338334680, 0.0268491656, -0.0845190659, -0.1403243542, -0.0693122968, 0.1471464038, 0.1542780995, -0.0657371804, -0.0561889037, -0.0455899462, 0.0299052149, 0.0538218915, 0.0282340497, 0.1519484520, -0.1071783379, 0.0044040531, -0.0355944633, 0.0790889859, -0.0968605056, 0.0360178798, -0.0359964669, -0.1166786551, -0.1092244610, 0.0658137649, -0.1188212484, -0.0969388187, 0.0959912539, 0.0937222242, 0.1211173534, -0.1305419207, -0.0147800297