//Numpy array shape [10, 2, 20]
//Min -0.165032267570
//Max 0.164344131947
//Number of zeros 0

#ifndef ATTENTION_OUTPUT_WEIGHT3_H_
#define ATTENTION_OUTPUT_WEIGHT3_H_

#ifndef __SYNTHESIS__
multi_head_attention_attention_output_weight_t attention_output_weight3[400];
#else
multi_head_attention_attention_output_weight_t attention_output_weight3[400] = {-0.1062441170, -0.0444951653, -0.0174040496, -0.1128047407, 0.1077795625, 0.0382659584, 0.0583095700, -0.0247590989, -0.0110619962, 0.0790686607, 0.1161986291, -0.0133259296, -0.1527773738, -0.0590328947, -0.1488297433, 0.1391770244, 0.1113530695, -0.1265648454, -0.0934943408, -0.1169274598, 0.1610188186, 0.1452647150, -0.1645806134, 0.0808225572, 0.0898395181, 0.0323824137, 0.1598975956, 0.1072877049, 0.1561183035, 0.1111664474, -0.0126109421, 0.1363973916, 0.1546006799, 0.1642364860, -0.0098319650, -0.0392113477, -0.0373095274, -0.0737382770, 0.1626062989, -0.0752993971, -0.0889362618, -0.0053327084, -0.0790207908, 0.0166801661, -0.0747104883, -0.0276922286, 0.0341772437, -0.1140422821, -0.0627306998, -0.0770280957, 0.1643441319, 0.0016214401, -0.0048677921, 0.0742346942, 0.0256473720, -0.1245906949, -0.0819608122, -0.1461610496, 0.0622503012, -0.0917146206, 0.1448531449, -0.1400608718, 0.1253469288, -0.0301757157, 0.1025752127, -0.1602976024, -0.0802423954, 0.1334309876, 0.0446247756, 0.1376376152, -0.0821183473, -0.0823010355, 0.1300979555, 0.0880389810, 0.0064165890, 0.1606991291, -0.0364798158, -0.0739772394, 0.0415857732, 0.1380704045, -0.0334892422, 0.1382767260, -0.0707157329, 0.1047657132, 0.1191749871, -0.1265177429, 0.1036819816, -0.1592529416, -0.0955573171, 0.0839540213, 0.0309719741, -0.0415461212, 0.0622399002, -0.0105654150, 0.0346504450, -0.1596109718, 0.0359546095, 0.0972031653, -0.0526293367, 0.1438082755, 0.1246493459, 0.0543279499, 0.0453127474, 0.0760922581, 0.0529895723, 0.0992420018, -0.1650322676, -0.0828100964, 0.0942162573, 0.0458407849, 0.1566729546, -0.0164926648, 0.0848596096, -0.0586004928, 0.1308781207, -0.1351356357, -0.1646328270, 0.0393052995, -0.1278234571, 0.0743348300, -0.1028266996, -0.0853448883, -0.1205912083, 0.0305346102, 0.1407226622, 0.1479088664, 0.0605966896, -0.0781446099, -0.0316484123, -0.1149499640, -0.1140254289, -0.1301512569, -0.0698426589, 0.0560940951, -0.0808140934, 0.0736435056, -0.0120030940, 0.1206194758, -0.1183067560, -0.0105266273, 0.0784369260, -0.0154259950, -0.0944107249, 0.0097929388, -0.0903990716, 0.1635967493, 0.0197009742, 0.0544828475, 0.1517778933, 0.1165301800, 0.1323767602, 0.0405927300, -0.0516630709, -0.0332210958, -0.0844239816, 0.0195975006, 0.1553657055, -0.0316332430, -0.0721747577, 0.0211722553, -0.1035311669, -0.0075211376, -0.0527526587, -0.0645990893, 0.1106629372, -0.1457166374, 0.1338606775, 0.0152257830, 0.0305685401, 0.1038837433, 0.0086955726, 0.0567234755, 0.1468915939, -0.0566522926, -0.1191300154, -0.1149224415, 0.1142020524, 0.1596901417, 0.0537335277, 0.1469793916, -0.0612686798, -0.0427448526, 0.0867421031, 0.1119583249, -0.1647125185, -0.0849510357, -0.0442360044, 0.1587764025, 0.0082553625, -0.0095428824, -0.0508202463, 0.1311636567, 0.0147452354, -0.0585012734, -0.0050473660, -0.0425888523, -0.1450409889, -0.1508743018, 0.0501929075, 0.1466899514, -0.1117771268, -0.0941314027, -0.0874827504, 0.1146267056, -0.0664267316, -0.1613257229, 0.1202729642, -0.0361021459, 0.0626422614, 0.0203515887, 0.1566883922, 0.0111529529, -0.0433771536, -0.0055776089, 0.0367127806, -0.0006437898, 0.0517713875, 0.0379814357, -0.1458345652, 0.0499804467, -0.1280069351, -0.0944942310, -0.1002288684, 0.0312179774, 0.0177699775, 0.0220398903, -0.0364697278, 0.0133371502, -0.1032246798, -0.1082744598, 0.0019588321, 0.0934685171, 0.0150467157, 0.1402151287, -0.0993444249, -0.1600061655, 0.1514053345, -0.1322092712, 0.0811794847, -0.1135644913, 0.0272210836, -0.1350799948, 0.0934051573, 0.1621080637, -0.0779846385, -0.0889992639, 0.0840713531, -0.1307745427, -0.0947465375, -0.0997127220, 0.0621999800, 0.1631202102, -0.0146943927, 0.0729679018, -0.0839149952, 0.0262530446, 0.1328537464, -0.1382008940, -0.0346990675, -0.1055297703, 0.0023176074, 0.1131318808, 0.0418001562, 0.0015546679, -0.0330598354, 0.0227471143, -0.1466802210, -0.1612713039, -0.0126565844, -0.0531333983, 0.1466235816, 0.0145686418, 0.1115416586, 0.0698113590, -0.0249884576, -0.1506958902, 0.1364727318, 0.1223603487, -0.0239346921, -0.0425169170, 0.0802468359, 0.0243902951, 0.0311279595, -0.1196588799, 0.0630322993, 0.1022790074, 0.0779007673, -0.0187220424, -0.1183056906, -0.0144608766, -0.0525914654, -0.0380835384, 0.0493782610, -0.1312162280, -0.1454816610, 0.0293122977, -0.0941134095, 0.1047945023, -0.0570440218, -0.1339367032, 0.1327137649, 0.1550285220, 0.0010862350, 0.0337146074, 0.0463396162, -0.0370894670, 0.1395514011, -0.1313052177, 0.1283695698, -0.1115756929, -0.1309863329, -0.0938160643, -0.0247391313, -0.0604005754, 0.0284152925, 0.0492406934, -0.1168382019, 0.1012553871, 0.0315296501, -0.0603811592, 0.1463827193, -0.0690408200, 0.0189292133, 0.1026748419, 0.0113935918, -0.1450837106, 0.0842874348, -0.1506159306, 0.0512706041, -0.0114661604, -0.1169926971, 0.1491269767, -0.1364611089, -0.0770606175, -0.1568801701, 0.0475138128, 0.1307460070, 0.1039231718, 0.1350959539, 0.1002802849, -0.1027892902, 0.0556506217, -0.1195559949, 0.0501817167, 0.1580385864, 0.0342520624, 0.0093010068, 0.0623452365, 0.1289509535, -0.0507465750, 0.0717774779, 0.0990892351, 0.0430692881, 0.1354341209, 0.1041948795, 0.1368346512, -0.1179466844, -0.1571805626, 0.0640228987, -0.1151276156, 0.0833715647, -0.0827998221, 0.0098458976, 0.1358750165, 0.0925008357, 0.0865326822, -0.0538368896, -0.1090600342, -0.0789992511, 0.0674757212, 0.0887359679, 0.0039664507, 0.0021213740, -0.0350856036, -0.0871815458, 0.0546895564, -0.1589110196, -0.0830127522, -0.1167343706, 0.0587733388, -0.0058533102, 0.1194209456, -0.0594872609, -0.0115068406, -0.1463744044, -0.0459700525, -0.1461986154, 0.0226178169, -0.0552226380, -0.0829124302, 0.0388310105, 0.1338409483, 0.0423942357, 0.0098574460, 0.1230964363, -0.0358321965, -0.1369128376, 0.0099743009, 0.1621751785, 0.0347129256};

#endif

#endif
