//Numpy array shape [10, 2, 20]
//Min -0.164505690336
//Max 0.164150446653
//Number of zeros 0

#ifndef ATTENTION_OUTPUT_WEIGHT3_H_
#define ATTENTION_OUTPUT_WEIGHT3_H_

#ifndef __SYNTHESIS__
multi_head_attention_attention_output_weight_t attention_output_weight3[400];
#else
multi_head_attention_attention_output_weight_t attention_output_weight3[400] = {-0.1192709729, 0.0197244436, 0.0339923054, 0.0001696944, -0.0816906318, 0.0170623213, -0.1201765239, -0.0655653924, -0.0317355841, 0.0334869176, 0.1338724792, -0.0240551084, 0.0754448920, 0.0567285568, -0.1125792041, -0.0195348561, 0.1488260925, -0.0092676282, 0.1256494820, -0.0261205584, -0.1501696706, -0.0031033456, 0.0357008427, 0.1159946918, -0.0515771583, -0.1548867673, -0.1506431699, -0.0282896906, -0.1578778177, 0.0823818296, -0.0160916448, 0.0438725501, -0.0500806496, 0.1590809226, -0.1498071998, 0.1637404263, 0.0235686749, 0.1118111312, 0.0179336220, 0.1637975872, 0.0361023843, 0.1012045145, 0.1222919524, 0.1125297546, 0.0825066864, -0.0146565586, 0.0013426840, 0.1542758048, -0.1475513726, -0.1545623392, 0.1629826725, -0.1151662022, -0.1480389684, -0.0765514001, -0.1638045311, 0.0447082967, 0.0971540809, 0.1314047575, -0.1128807664, 0.0764719397, -0.0766539276, 0.0937972069, 0.0289160013, -0.0736329556, 0.0643683970, -0.0907270089, -0.0657845885, -0.1006603613, 0.0969769657, -0.0268531889, -0.1053233743, -0.0502983853, 0.0131233484, 0.0659538507, -0.0165456980, -0.0692818612, -0.1355794072, 0.1082822382, -0.0659912601, 0.0434735715, 0.0721391588, -0.1645056903, 0.0249847472, -0.1446886659, 0.1352798939, -0.1065029651, -0.0858666673, 0.0844163001, -0.0625154823, 0.0086656362, 0.0557046533, 0.1370899081, 0.1559182405, -0.1033728421, 0.0125892907, 0.0256532282, -0.0910264850, -0.0524942130, 0.0221898258, 0.1180859208, 0.0663144737, -0.1359312087, 0.1378966570, -0.0581385270, 0.0467763096, -0.1270026714, -0.1255617589, -0.0487358496, -0.0632373542, -0.0860037655, 0.1246888041, 0.0466944873, 0.0784731060, 0.1538360417, 0.1058730781, 0.0730108917, -0.1339461505, -0.0572330132, -0.0573523119, -0.0351853371, -0.0140055269, 0.0927820206, 0.0688206851, -0.1488087624, -0.0465342402, -0.1527938694, 0.0703587234, 0.0599112362, -0.1493617296, -0.0500866771, -0.0693788826, 0.1590251029, -0.0710011870, 0.0780624002, 0.0868836343, -0.1310941279, 0.0106804669, 0.1221563518, 0.1124693155, 0.0762615651, -0.1114938334, 0.0352339596, -0.0487587228, 0.1101972759, 0.0970354676, -0.1366954595, 0.1396575272, 0.1641504467, 0.1635470986, -0.1066939980, 0.0927264690, 0.0575186312, -0.1290722191, -0.1084356904, 0.0850195885, -0.0468959212, 0.1243845820, -0.0717544407, 0.1109154224, -0.1064573303, 0.0084972382, 0.1284994483, -0.1406917870, 0.1040705740, -0.0851226225, -0.1107377857, -0.1589917392, -0.1424315870, 0.0623689294, -0.0010938346, 0.0197020769, -0.0202160180, 0.1055907905, 0.1392636597, -0.1030095816, -0.1633716971, -0.0530480742, 0.0470727086, -0.0572497845, -0.0889892206, -0.1237228215, -0.0165660232, 0.0248819441, -0.0443373173, -0.0311615914, 0.0460080504, -0.0979243740, 0.0121700019, 0.0417605937, -0.0182333738, 0.0778110027, -0.0745492950, -0.0933817700, 0.1048508584, 0.0784227401, 0.0497583449, 0.1626780331, -0.0026555061, -0.0911320895, -0.0545000583, -0.1638752371, -0.1329931915, 0.1144257486, 0.0052893162, -0.1585157961, -0.1068937480, -0.0871592164, 0.0452439338, 0.0569952279, 0.1022359729, -0.0447923169, -0.1015661880, 0.0707866848, -0.1420976967, 0.1397151351, 0.0831098109, 0.0017640591, 0.1129774749, -0.0861087739, 0.0584828109, 0.0304262191, 0.0652799308, -0.0579047650, 0.0288496912, 0.0126321763, 0.0176016241, 0.0964918137, 0.0420143604, 0.0201570392, -0.1460410804, 0.1441632807, -0.1317501813, 0.0973636508, 0.0827720165, -0.0627391264, -0.0041356832, -0.0965014920, 0.0039923638, 0.0163476616, -0.1404433399, 0.0492900759, -0.0178314894, 0.0700451136, 0.1542392075, 0.0769847780, -0.0685423464, -0.0375726670, 0.0444092155, -0.1243686676, -0.1192715243, 0.0210153461, 0.0416670442, -0.0824557394, -0.1253629327, 0.1002496481, -0.1414720565, -0.1102613658, 0.1008329391, 0.0161325932, -0.0432828888, 0.0051481724, -0.0624651238, -0.0942645296, 0.1114374399, -0.1477323622, -0.0787530467, -0.1327772737, 0.1505152881, -0.0949137956, -0.1378452778, 0.1028139889, -0.1172334701, 0.0597011745, -0.1231331229, -0.1530630291, 0.0225682408, 0.0389302671, -0.1435711682, -0.1321915984, -0.1116785705, -0.1418322027, -0.0908491090, -0.0982781500, 0.1582187116, -0.0118978620, -0.0032997727, -0.0963397101, 0.0359759182, -0.0032957941, -0.0328510255, 0.1019895077, 0.0264769346, 0.0046824217, 0.0757480562, 0.1284266710, -0.0254295170, 0.1468182802, 0.1530749500, -0.1094616055, 0.0913957059, -0.0230357647, -0.1443681419, -0.0835782364, -0.0914584547, -0.0502337739, -0.1247407421, -0.0613169521, 0.0860676169, -0.0024693459, 0.0072448105, -0.0913408846, 0.1519417167, -0.1206920817, 0.1348294616, -0.0107021183, -0.0155790001, 0.0853621662, -0.0043995231, 0.0594295412, -0.0056884140, 0.0281729847, -0.0964553878, 0.1295517087, 0.0139759928, -0.1553580314, 0.0542638898, -0.1546139866, -0.0671717972, -0.0489433482, 0.0932155252, 0.1469516754, -0.0150807351, 0.0509017855, 0.0207651258, -0.1221300066, 0.1564602554, 0.1182599664, -0.0837273821, 0.0115293562, -0.0422900841, 0.1171046793, -0.1178967953, 0.0795791447, 0.1584218144, -0.0450276509, -0.0094833076, 0.0917313099, -0.0904614776, -0.1338248104, 0.0579869747, -0.1614005715, 0.0022177547, 0.1525515020, -0.0570001155, -0.0414439887, -0.1387752891, -0.0746195391, 0.1050344110, -0.0864330158, -0.1485542506, -0.1393320560, -0.0351539552, 0.1377176642, -0.0999014005, -0.0630237982, -0.0276617110, 0.1404024065, 0.0556725562, -0.0035453141, -0.1385076940, -0.0137487650, 0.0345273912, 0.0768386275, -0.0244341940, 0.0999051332, 0.0598900169, -0.1126397997, 0.1491167545, -0.1589714289, -0.0723150074, 0.1168249846, 0.0637371987, 0.0637698770, 0.1557002664, -0.1356579959, 0.0264829546, 0.0223464519, -0.0472250879, -0.1368621588, -0.0683064237, -0.0341287851, -0.1183630228, -0.0878306925, -0.1174452230, -0.0601606295, -0.0593995005, -0.1637102962, 0.0298426598, -0.0179551542, 0.1388059855};

#endif

#endif
