0.0138063729, 0.0417165756, 0.1537868679, -0.1531316191, -0.0426419303, -0.0407086089, -0.0528934151, -0.1044940501, 0.1286069453, 0.0232313275, -0.0585424602, -0.0772290602, -0.0241536498, 0.1269300282, 0.0355056673, 0.1323173940, 0.1074903607, 0.1445868909, -0.0455146208, -0.1040753126, -0.1451582760, 0.0157887936, -0.0182674229, 0.0838583410, -0.1604274511, -0.0062092394, -0.0864716023, -0.0379049033, 0.0120269209, -0.1082802862, -0.0578226671, -0.1470588446, 0.0899208784, -0.0551359802, -0.0756758898, 0.0887283683, 0.1276811957, -0.0712620765, -0.1491533518, 0.1436744928, 0.1083678603, 0.1233793497, 0.1403726637, -0.1144242436, -0.0734162405, 0.0039142072, 0.1332726479, 0.0075698793, -0.0618935004, -0.0457967743, -0.0757028982, -0.1090796888, -0.0033988059, -0.0766690448, -0.0157943815, -0.1091097295, -0.1100002825, -0.1593018025, -0.0693259612, 0.0933780670, -0.1323802769, -0.0336974412, 0.0634437203, -0.0219683051, -0.0471550822, 0.0505771488, 0.0365000516, -0.1224993616, -0.1369402409, 0.0114367157, -0.0937671587, 0.1487472057, 0.1393814683, -0.0065460503, 0.0882846713, 0.0264952034, -0.1585508287, 0.0178245604, -0.1316970587, 0.1163681448, 0.1551957726, -0.0661928132, -0.1645125002, 0.1132414341, -0.0760778114, 0.0599212050, 0.1076447964, -0.1217477620, -0.0217937231, -0.0997181535, -0.0537218004, 0.0675886422, 0.1392340660, 0.1253393292, -0.0466912985, -0.0097278655, 0.1480194926, -0.0084220320, -0.0470443591, -0.0078074634, 0.0109220147, 0.1567550600, -0.0975478068, 0.0117034316, -0.0695512593, -0.0764402449, 0.1635015309, 0.0638223290, 0.0029286891, 0.1605837643, -0.0527485609, -0.1414796114, 0.0322373211, -0.0630931333, 0.1562364101, 0.0824910998, -0.0994618312, 0.1003589332, -0.0051051676, 0.1004225910, -0.1167224795, -0.0525846481, -0.0390376747, 0.0811041147, 0.0943115354, 0.0613438785, 0.1174309552, 0.1008275449, 0.0320549309, 0.0991414785, 0.1501508057, 0.0614103824, 0.1134095192, -0.0535259545, -0.0180497766, -0.0574570075, 0.0467481166, -0.1361781657, -0.1395477057, 0.0238789767, 0.1107721031, 0.0617159307, 0.0259032547, -0.0016088039, 0.0550165623, 0.1187863946, 0.0693367124, -0.0238536298, 0.1459755898, 0.0300611854, -0.0294296294, -0.0251416564, 0.1204614043, -0.1385218799, -0.0830863416, -0.0535506830, -0.0918395892, -0.0909359306, 0.0787421018, 0.0978486538, -0.0661899373, -0.0272912979, -0.0422469750, 0.0761603415, 0.0113884062, 0.0527517945, -0.1271937937, 0.1634439826, 0.0739807785, 0.1035428941, -0.1562764645, -0.1260913014, -0.0145878494, -0.1205829382, -0.0624182671, -0.0300733000, 0.0936450660, 0.0493566841, -0.1465014666, -0.0411714837, 0.1243368089, 0.0692792684, -0.0522578508, -0.1371980608, -0.0008567721, -0.0214249492, 0.0780625194, 0.0682251602, -0.0575355962, 0.0705572069, 0.1039075255, -0.1281654090, -0.0495107174, -0.1037655920, 0.1388211548, 0.0811639279, -0.0513326526, 0.1513780653, 0.0971038342, -0.1269952357, -0.1440429837, 0.0822272450, -0.0532230511, -0.0623774007, -0.0590215176, 0.0924752355, 0.0779171139, 0.0832606852, 0.0658690482, -0.0953384042, -0.1345159262, -0.0396211594, -0.0306005627, -0.0349540561, 0.0521782786, -0.1096608788, -0.1591074616, 0.1213782132, 0.0319896489, -0.1083867103, -0.1252937913, -0.0335282534, 0.0350913852, 0.1342614591, 0.0790449977, -0.1392379254, -0.0416251048, -0.1082264185, -0.1370894611, -0.1412840784, 0.1597764790, 0.1108809710, 0.0321538001, 0.0500235260, -0.0793762952, -0.0648415908, 0.0216124803, -0.0759527236, -0.0760691911, -0.0507835895, -0.0729686022, -0.0071807057, 0.0049505979, 0.0138263255, 0.0906639397, 0.0262680501, -0.1367388070, 0.0348983705, -0.0553650931, -0.1544602364, -0.0614881888, 0.1259913743, 0.0482092351, -0.1088826209, -0.0746543854, 0.0953424871, 0.1508864760, -0.1104273200, -0.0697971880, -0.0775472745, 0.0373337120, -0.1625208259, -0.0411395952, -0.0313512087, 0.0103097260, 0.1300141513, -0.1007452533, 0.0815917999, 0.0458853245, 0.0236060023, 0.1568988264, -0.0415093526, -0.0632505864, -0.1485368013, 0.1085509062, -0.0588004738, 0.0660418570, 0.1206935644, -0.0885596946, -0.1510740370, -0.0879287347, -0.0674203262, 0.0831694603, 0.1571355462, -0.1521935910, 0.0567471087, 0.0932227969, -0.1420161128, 0.1330838799, -0.0821923241, 0.1633177102, -0.0898363441, -0.0834006593, 0.1337739825, 0.0054557472, 0.0010480434, 0.1399470866, 0.0016508102, 0.0189157873, -0.0259309411, -0.1360498071, 0.1212568283, -0.0901099890, 0.0818166584, -0.0571790338, 0.0769387931, -0.0132724643, 0.1564806402, 0.0810718387, -0.0890141428, 0.1242913306, 0.0969422162, 0.1597506106, 0.1393264234, -0.0213853866, -0.1011848599, -0.0850454122, 0.0634482354, 0.1071095765, -0.0479013249, 0.0507992208, -0.0485781580, -0.1118953228, 0.1535210609, -0.1296959817, -0.1210918427, -0.1010007113, 0.1094043255, -0.1591380537, 0.1421747804, -0.1597629488, -0.0690153837, 0.0773906410, -0.0583842546, -0.0259194374, -0.0671799481, -0.0880999342, 0.0047996789, -0.0972792432, 0.0437770337, 0.1400882006, 0.1119618714, 0.1396214664, 0.1420418918, 0.0862497389, -0.0969666168, -0.0892397165, 0.1081161797, 0.1533292234, 0.0565876812, 0.0385265350, 0.0419534892, -0.1003722250, -0.1650096625, -0.1601656973, -0.0374120623, -0.0913184062, 0.1306565404, 0.0101690739, 0.0433959365, -0.0409157127, -0.0588035807, -0.1133369505, 0.1145095825, 0.0496675521, 0.0208007544, -0.0663383007, -0.0878464058, 0.0235106051, 0.0881873667, -0.1470671147, 0.1601451039, 0.0620174855, 0.1567458808, 0.1222739518, -0.0503760725, -0.0780159384, -0.1611531079, -0.1189934313, -0.1152101010, 0.0500888824, -0.0107073188, -0.0648590326, 0.0012862980, -0.0013489723, -0.0978309810, 0.1395210624, 0.0096298605, -0.0850459263, -0.1294916719, 0.1024668515, -0.1000346392, -0.1486864686, 0.1085064113, 0.0927758813, 0.0752827823, -0.0594491139, -0.1502403766, -0.0537389666, -0.0447701067