//Numpy array shape [10, 2, 20]
//Min -0.164885714650
//Max 0.165001630783
//Number of zeros 0

#ifndef ATTENTION_OUTPUT_WEIGHT3_H_
#define ATTENTION_OUTPUT_WEIGHT3_H_

#ifndef __SYNTHESIS__
multi_head_attention_attention_output_weight_t attention_output_weight3[400];
#else
multi_head_attention_attention_output_weight_t attention_output_weight3[400] = {-0.0282602310, -0.1279493272, -0.0802862942, 0.0489392579, 0.1515812576, -0.0319904834, 0.0566407889, -0.0590645522, -0.1349116415, 0.1523423493, 0.0193891823, -0.1292532235, -0.0819828957, -0.0402214378, 0.1496973932, 0.0179729909, 0.0888190567, 0.0115586966, -0.0750810727, -0.1017395929, -0.1140721291, 0.0427991897, 0.0110149831, 0.0671790093, -0.0136519521, -0.0984854475, 0.0445422977, -0.1066411287, 0.0097574294, -0.1418450326, -0.1299449354, 0.0260129124, -0.0101969987, 0.1272979081, -0.0399848074, -0.0642278343, -0.0590538383, 0.0381866544, 0.1536981165, 0.0510194749, 0.1082007587, 0.0100717545, 0.1476165652, 0.0254589319, -0.0716767162, -0.0452980250, -0.0410863981, -0.1513677984, 0.1123020053, 0.1323454380, -0.0567117035, -0.0583322421, -0.0961813852, 0.0134633034, 0.1223063171, -0.0493087769, -0.0121351182, -0.0669591799, -0.0839773268, -0.0241221935, -0.0491204113, 0.0670975000, 0.0768215060, 0.0120714456, -0.1143227071, 0.1623969078, 0.0323426723, -0.0242752731, -0.0451075360, 0.1490056217, 0.0764682740, -0.1581937522, -0.0936850682, -0.0180637091, -0.1297903657, 0.0303424597, 0.0732037872, -0.1365141720, 0.1580108404, -0.0321710855, 0.1647259891, -0.0228955448, -0.1480646431, -0.0927213207, -0.1512748003, -0.1090183035, 0.0875634253, -0.0999936908, 0.1367839277, 0.1525574625, -0.0649686530, -0.0860525072, -0.1280830801, -0.0083192289, -0.1199880093, 0.0699327141, -0.1324439347, -0.0252603590, 0.0235715210, -0.1269040406, 0.0386922508, -0.1600139886, 0.0797699541, 0.1600854993, -0.0164636821, -0.1607742906, -0.0370313227, -0.0520841777, 0.0071869344, -0.0172603279, 0.1636184156, 0.1144168377, 0.0698495507, -0.0392896682, -0.1040295959, 0.0874997675, -0.0558793917, -0.0532236025, 0.0221977681, 0.0121233463, -0.0937481076, 0.1036583483, -0.0951149985, 0.0225497335, 0.1527732313, -0.0755690262, -0.1322827786, -0.1098627076, 0.0998215079, 0.1622932553, -0.1497637331, -0.0508281589, 0.1515017450, -0.0410047397, 0.1076054871, 0.0953625441, 0.1312675774, 0.0890081525, -0.0647425279, -0.1214127392, -0.0362636596, 0.1099077463, -0.0336914957, 0.0880001187, 0.0723939091, -0.0432109535, -0.1011338308, -0.1405438632, 0.1531559229, -0.0594068244, 0.1555539668, -0.0876037478, 0.1334107518, -0.1005777940, 0.0307790041, 0.0560286492, -0.1462598294, -0.0163216293, -0.0094985515, -0.0387587100, 0.0681862533, 0.0713002235, -0.1225188524, -0.1399766505, 0.0207874179, 0.0932258964, 0.1493417919, 0.1003510952, 0.0331452638, 0.0374924988, -0.0327957571, -0.0981440395, 0.0522576869, -0.0214747936, -0.0183538944, 0.1027517617, -0.0672165230, -0.0389733464, -0.0218924731, -0.1128491461, -0.1029464304, 0.0077813119, -0.0585162342, 0.0479399562, -0.0271433294, -0.0741243735, 0.0282576680, 0.1551276147, 0.0942137241, 0.0294462889, -0.1408259273, -0.0312073827, -0.0199983269, -0.0618058965, 0.0495762378, 0.0203567445, -0.0396483541, 0.1263307631, -0.0348684937, -0.0836382806, -0.1167152375, 0.0102532655, -0.0589758828, -0.0019418597, -0.0967419520, 0.0122324973, -0.0142112523, -0.0852247179, -0.1307549775, -0.1274339706, 0.0221702158, 0.0125170052, 0.0194048882, -0.0703623518, -0.1110308394, -0.1648857147, -0.1404324770, -0.0513125733, -0.1106104106, 0.0193826109, 0.0188177973, 0.1408101022, 0.0018114597, -0.0783703774, -0.1385801435, -0.1306022108, 0.1160529256, 0.1020437181, -0.1061197817, 0.0698636919, -0.1307183951, -0.1185758337, -0.1496489495, 0.0573896021, 0.0989201069, -0.0632400736, -0.0105317533, 0.0972780585, -0.1453411281, -0.1488077790, -0.0779978633, 0.1103027165, 0.1643196940, -0.0793882981, 0.0737037808, -0.0075027496, -0.0158847719, 0.1439064145, 0.1216564476, 0.0742401332, 0.1115115881, 0.0434438437, -0.1525303125, -0.0502944887, -0.0097223073, -0.1443428099, 0.1553571224, -0.0614850000, 0.0427773297, -0.1621227264, 0.0506531894, -0.1079558432, -0.1436853111, -0.1049020365, -0.0867255181, 0.1380006075, 0.0314143747, 0.0996503532, 0.1264700294, 0.0974926949, 0.1584062278, 0.0663166046, 0.0530490577, 0.0008381009, -0.0491526574, 0.1065184474, 0.0601899177, 0.0705050379, 0.0000075549, 0.1572695673, -0.0362514406, -0.0043559372, 0.0244969577, 0.1276677251, 0.0096276104, -0.0933227912, 0.0033586472, -0.1011189446, 0.1527518928, 0.0159776658, -0.0691280738, 0.1587902009, 0.1631139219, 0.0152685791, -0.1523194164, 0.0783250630, -0.0284849405, 0.0731542856, -0.1579060555, -0.0841185972, 0.0073919892, 0.1331070960, 0.1512670219, -0.0370278209, 0.1251441240, -0.0536971092, -0.1440638602, -0.0895060003, 0.1217322946, 0.0348936915, 0.0035025477, 0.0160266459, 0.0883151889, -0.0228016824, -0.1622505635, -0.0405201316, 0.1383988559, -0.1274954379, 0.1256958544, 0.1275423765, -0.0854904503, 0.0221680105, 0.0061833709, 0.0304311365, -0.0268684179, 0.1288010478, -0.1007570624, -0.1078212261, 0.1333198547, -0.0862692967, 0.1258126795, -0.1236090288, 0.0273781121, 0.1446345747, 0.0721410513, -0.1428236365, 0.0828188360, -0.1507567614, -0.1216647625, 0.0166373998, 0.1442075372, 0.1207235456, -0.1014010981, -0.0988853276, 0.1538649201, -0.0346058756, -0.0677529499, -0.0251514912, 0.0188388228, 0.1416043341, 0.0286774039, 0.1497471631, 0.1312691569, 0.0368982404, -0.1433274150, 0.0328995734, 0.0066115260, -0.1266348511, 0.0565012991, 0.1016658545, -0.1417832971, -0.0307152122, 0.1198329628, -0.0463507548, -0.0486609638, -0.0919606611, -0.0961409137, -0.1616248488, 0.0106655806, -0.0996979550, -0.0333147794, -0.1283920109, -0.0679133981, 0.0618605465, -0.0810957775, 0.1573322117, 0.0031633079, 0.0446665883, 0.0906995833, 0.0326419920, 0.0304048657, 0.0145348161, -0.0998526961, -0.0092165619, 0.0683099329, 0.0514992476, -0.0317427814, -0.1395660192, -0.1229529083, -0.0020549446, -0.1123281196, 0.0366414040, 0.0190355331, -0.1601526737, -0.1626617908, 0.0227681845, 0.0564356148, 0.1650016308, -0.1219502240, -0.0914445519};

#endif

#endif
