//Numpy array shape [8, 2, 16]
//Min -0.202412247658
//Max 0.204116523266
//Number of zeros 0

#ifndef ATTENTION_OUTPUT_WEIGHT3_H_
#define ATTENTION_OUTPUT_WEIGHT3_H_

#ifndef __SYNTHESIS__
multi_head_attention_attention_output_weight_t attention_output_weight3[256];
#else
multi_head_attention_attention_output_weight_t attention_output_weight3[256] = {-0.2024122477, 0.1741467118, -0.1027716398, 0.0743613243, 0.1586441100, 0.1776860952, -0.1908163577, 0.1692838967, -0.0644914508, 0.0211626440, 0.0834167898, 0.1900892258, -0.0827692151, 0.0051939338, -0.1737082601, -0.0451244712, 0.0073681772, 0.2008771896, -0.1514247060, -0.1536153108, -0.1863041520, 0.1361134946, 0.0365360081, -0.0413394421, 0.1952467561, 0.0798131824, 0.0931347609, 0.0970849097, -0.0223118216, -0.1809345186, 0.0544664264, -0.1276366711, -0.0173056424, 0.1138775945, -0.1413585246, -0.0958926603, -0.1575129479, 0.0775988400, -0.1020115614, -0.0023712516, 0.2003087997, 0.1442836225, -0.0615121573, 0.0528029501, 0.1870617867, 0.1759079993, 0.0222229511, -0.0191501230, 0.1090090871, -0.0278884768, -0.0751638860, -0.1243901476, 0.0648294985, -0.0285084844, -0.2015920579, 0.0802599490, -0.0071710795, -0.1504211426, 0.1895066202, -0.0358563811, 0.1153551340, -0.0046018958, 0.0496222377, 0.0178067684, 0.0238307714, 0.1655310392, -0.1329168528, -0.1477034390, 0.0213272423, 0.0956108868, -0.1618722528, 0.0933189988, 0.1681060195, 0.0230188966, -0.0956295133, -0.1358455718, -0.0511587858, -0.0467816740, 0.2041165233, -0.0466073602, 0.1415274441, -0.1947844774, 0.0425151438, 0.0281876326, -0.1883391589, 0.0658111572, 0.0157458186, -0.1376212835, 0.1736133993, -0.1101105735, -0.1880222410, -0.1728290915, -0.1899514943, -0.1826853156, 0.0434389412, -0.0509327352, -0.1764533222, 0.0176924020, -0.0103303045, 0.1725475490, -0.0965982825, -0.0520092994, 0.1734038591, -0.0270140767, 0.0315375179, 0.0974711180, 0.1381050944, -0.0981206372, -0.0582608134, -0.0190865546, 0.0250721574, 0.1862987876, 0.0358637273, -0.1962840408, 0.1378878057, -0.1384496540, -0.0482491404, 0.0596718490, -0.0882634297, -0.0834359527, -0.0037067235, 0.1758233607, -0.1308438778, -0.1956148744, 0.0744197071, 0.0325650722, 0.0045656413, 0.0842207670, 0.0063486099, 0.1579515040, -0.1906097233, -0.1166518107, -0.0171117485, -0.0957934260, 0.0689353943, -0.1276638806, -0.1776298881, 0.0156552047, 0.0421615839, -0.1060800701, -0.1306383610, -0.0235327333, -0.1623607278, 0.0635510981, -0.1733823866, -0.1857222319, 0.2005881667, 0.0999048650, 0.0036973357, -0.1977494657, -0.0726434588, -0.1523065567, -0.0280679017, 0.0863074064, -0.0326231420, 0.0246106982, 0.0062172562, -0.0930295810, 0.1735826433, -0.1266638339, 0.1348505914, -0.0030308366, 0.1478652954, 0.0703476965, -0.0644752979, 0.0639780760, -0.1346696317, 0.0069790930, -0.1123749018, -0.0986980647, 0.0093660653, -0.1791416407, 0.1233713627, -0.0932978317, 0.1542133689, 0.0182852596, -0.1074504405, -0.1985846311, -0.1102934629, 0.1960968375, 0.1245599389, -0.1026738212, -0.0686817318, -0.1590686440, -0.0616771430, 0.0961524546, 0.1288709342, 0.0448287278, -0.1897452474, 0.1445284188, -0.2012380064, -0.1981198192, 0.0133091062, -0.1321598291, 0.1064317822, -0.1422440261, -0.0830232576, 0.0245373100, 0.0295540541, -0.1287327558, -0.0546507984, -0.1894239038, 0.1731117070, -0.0380036682, -0.1897969842, -0.1454780400, 0.0974394083, -0.0233151317, 0.0726663470, 0.1369325519, 0.0050703734, 0.0813921392, -0.0820781440, 0.1604135633, -0.0873176828, -0.0642246157, -0.1279082298, -0.1363999546, 0.1625134349, -0.0911330730, 0.1134422123, 0.0990174115, -0.1316835284, -0.2010366172, 0.0386555642, 0.0669037700, -0.1706347913, 0.1017881930, 0.1654794514, 0.0048886538, -0.0736689717, 0.0004558563, 0.1325582862, -0.1345526874, -0.1934871525, 0.1711456478, 0.1982765198, 0.1283796132, -0.0542262197, -0.0249782801, -0.0496128350, -0.0455610603, -0.1848090589, 0.0085364282, -0.0615134686, -0.1115019172, 0.0528780818, 0.0419092923, 0.1122403443, 0.0518709421, 0.0089489818, -0.1989283264, -0.1461690664, -0.1279673278, -0.1837144792, -0.1472874880};

#endif

#endif
