//Numpy array shape [10, 2, 20]
//Min -0.164140820503
//Max 0.162563979626
//Number of zeros 0

#ifndef ATTENTION_OUTPUT_WEIGHT3_H_
#define ATTENTION_OUTPUT_WEIGHT3_H_

#ifndef __SYNTHESIS__
multi_head_attention_attention_output_weight_t attention_output_weight3[400];
#else
multi_head_attention_attention_output_weight_t attention_output_weight3[400] = {0.1573256552, 0.0760095417, 0.0105156451, -0.0092932135, 0.0389542878, 0.0560272336, 0.1455311179, -0.1256551892, 0.0784353018, -0.1451664716, -0.0078709275, 0.1060968935, -0.0203763545, 0.1350502968, 0.1511840522, -0.0409970209, -0.0171121657, 0.1030919850, 0.0959473252, -0.0783248246, -0.0147684216, 0.1386188865, 0.1519115269, 0.0400871783, 0.1058949828, -0.0240258127, -0.1433916390, 0.0398459285, 0.0894328058, -0.0553660765, 0.1133826077, 0.1563231647, 0.0761623532, 0.0602097660, -0.1278902292, -0.1207692176, 0.1171417832, -0.0641959086, -0.0618386120, 0.0177716762, -0.0380603075, -0.0408967733, 0.0822439492, -0.1532446593, -0.0885639116, 0.1513953209, -0.0434368029, -0.0118907690, -0.1257763058, -0.0787937194, 0.1625639796, 0.0295088440, -0.1114144549, -0.1303349733, 0.1264718473, -0.0401237607, 0.0692026466, -0.0816640109, -0.1050128341, 0.0236749500, -0.0990199819, -0.0826534331, -0.0347864777, -0.1412267536, 0.0210934579, 0.0688472986, 0.1467306316, -0.1451901793, 0.0051380843, -0.1268484890, 0.0559192747, -0.0479034111, -0.0160779804, -0.0456998721, -0.1208554804, 0.0060630888, -0.1641408205, -0.1357142627, -0.0925804451, -0.0128221512, 0.0182649046, 0.0379671454, 0.0090743452, 0.0855892301, 0.1497428119, 0.1042626202, 0.1137055159, 0.1196933985, -0.1189635396, -0.0059667379, -0.1380878985, 0.1002929211, -0.0376268774, 0.0693966746, -0.0614949986, 0.0668437034, 0.0205075890, -0.1229152679, -0.0416724309, -0.0922251344, -0.1021449044, 0.0570995808, 0.0006724596, -0.0531691089, 0.1395025253, -0.1021404937, -0.0637990981, 0.1449409723, -0.0962670222, 0.0569522828, 0.0512790978, 0.1534702182, 0.1436622441, 0.1149985194, 0.0629744232, 0.0921317935, -0.0678058714, 0.0297260731, 0.0004347563, -0.0130708367, 0.0359832346, 0.1534139812, -0.0813773349, 0.1124455333, -0.1284583211, 0.1517633796, 0.0640614033, 0.1512344182, -0.1509808451, 0.0031178743, 0.0967006981, 0.0199268609, -0.0335191935, 0.1300441325, -0.1065030843, 0.0896610022, -0.0068539530, -0.0174309760, -0.0963010415, 0.1417368054, 0.0026292801, 0.1439538598, 0.0868052542, 0.0236207396, 0.0673708767, 0.1271105111, 0.0054357946, 0.1436533928, 0.0386163741, -0.0209415555, -0.0981767997, -0.0359979570, -0.0847253799, -0.0419996306, -0.1387740225, -0.1287281066, 0.0790685117, 0.0275080800, -0.1571692228, -0.0081515461, -0.0335914493, -0.0238427967, 0.0470685363, -0.0656583533, -0.0526360720, -0.0431293696, -0.0044070780, 0.1396796405, -0.0691239759, 0.1310131550, 0.1341930330, -0.0704678744, 0.1218554080, -0.0987878367, 0.1212757528, 0.0505125374, 0.0524171144, 0.0933310986, 0.0075789392, 0.1351183355, 0.0094090551, -0.0325725377, -0.1167898104, -0.0013297647, 0.0301637501, -0.0493422374, -0.0463678837, -0.1338804811, -0.1631345898, -0.1275189370, -0.0359168500, -0.0637408271, 0.0532901436, -0.0347655267, -0.1473709196, 0.0497078300, 0.1080451906, -0.0592287779, 0.1495563090, 0.1030541658, -0.1600206047, 0.1418981552, -0.1084266007, 0.1149382293, 0.1522079110, -0.0661615878, 0.0975499749, -0.1519641876, 0.0440572947, 0.1611438096, -0.1134658977, 0.1193060279, -0.0657646656, 0.1440621912, -0.0267875493, 0.0572670698, 0.0587655157, -0.0242879540, 0.0192215294, 0.0057294816, -0.1536785513, -0.0773147345, 0.0049142092, -0.1538327485, 0.0991534591, 0.0085826069, 0.1490440667, 0.1495745778, -0.0608567968, 0.0510334969, 0.0581493527, 0.1170414388, 0.1220494509, 0.0307548195, -0.0767781511, 0.0710593760, 0.0479355007, 0.0416134596, -0.1498104185, -0.1332545280, 0.0755098909, -0.0764209926, 0.0227862149, 0.0734777451, 0.0973610580, 0.0098714978, 0.0436272174, 0.1547668278, -0.0484673977, 0.0820401013, 0.0017237663, 0.0578017235, 0.0894704163, -0.0276872665, 0.0265021622, -0.0135538727, 0.0242724419, -0.1325613111, -0.0258239955, -0.1119941920, 0.1006211042, 0.1174129248, 0.1534354985, 0.1364821196, -0.1136518195, -0.0813694596, -0.0561807156, 0.1109043658, -0.0241872370, 0.1244743466, -0.0929804370, -0.1542573422, 0.0410560071, -0.0429224670, 0.1326940060, -0.0348820388, -0.0854381621, -0.0908434391, -0.0296155512, -0.0668985844, -0.1019832343, -0.0139708370, -0.1463928819, 0.0146713257, 0.1236631274, -0.1321743429, -0.0406330898, -0.1470607370, -0.1055958346, 0.1255913675, 0.1203007400, -0.0827054009, 0.0665709525, -0.0486141816, -0.1544552743, -0.0020585656, 0.1410072744, 0.1278515160, 0.0016347170, 0.1179370880, -0.0111247599, -0.0781863481, 0.0989613533, 0.0221272111, -0.0215379149, -0.0041442961, 0.0268775076, 0.0031584203, 0.0428875834, -0.0036062598, 0.0824367553, 0.0689157695, 0.0726164132, 0.0238227993, -0.1256944090, -0.0196326226, -0.1062661260, -0.0474045873, 0.0577064008, -0.0943649709, -0.1576668173, -0.0326651484, 0.1617509127, -0.1348572671, -0.1004378274, -0.0970433503, -0.0861752778, -0.0043458194, -0.1390488893, -0.0581199825, -0.0957323760, -0.1206382588, -0.0585159957, 0.1210697591, -0.1569177359, 0.0586543977, -0.0774728954, -0.1078705192, 0.0956055820, 0.1599887311, -0.1295354515, 0.1225748062, 0.1574358046, -0.0024304837, 0.0787144303, -0.0871511847, -0.0619990230, -0.1531944573, 0.1279859543, 0.0043200254, -0.1472870559, 0.0132718682, -0.0609003380, 0.1045373678, 0.0250235349, 0.0923773944, 0.0526773036, -0.1196330935, 0.0109272897, 0.0015229732, 0.1089874804, -0.0767325982, -0.1368287355, 0.0776789784, 0.0100425333, 0.1181707680, 0.0995457470, -0.0218822360, 0.1556020379, -0.0509728566, -0.1291311234, 0.1126298308, 0.1289776862, 0.0263175517, -0.1067038476, -0.1543790102, 0.1423493326, 0.0667622685, 0.0616343468, 0.0965842307, 0.1593187451, -0.1103749946, -0.0662087575, 0.0067739338, -0.0728148520, 0.0277288109, -0.0355989039, 0.1360647380, -0.0494402051, 0.0325141847, 0.0297460407, 0.0383332372, 0.1314464509, 0.0675450563, 0.0313709080, -0.0905097872, -0.0501572341, 0.0553180426, 0.0528687686, -0.0108037889};

#endif

#endif
