//Numpy array shape [10, 2, 20]
//Min -0.163363501430
//Max 0.165078222752
//Number of zeros 0

#ifndef ATTENTION_OUTPUT_WEIGHT3_H_
#define ATTENTION_OUTPUT_WEIGHT3_H_

#ifndef __SYNTHESIS__
multi_head_attention_attention_output_weight_t attention_output_weight3[400];
#else
multi_head_attention_attention_output_weight_t attention_output_weight3[400] = {-0.0701402053, -0.1024711132, -0.1407760084, 0.1546914279, -0.0829744413, 0.1474570930, 0.1364271343, -0.0101797581, -0.0656132773, 0.1293193400, 0.0786346197, 0.0971309245, -0.0805954114, -0.0540402085, 0.1146868169, 0.1495346129, 0.0213263929, -0.1488152146, 0.0267779380, 0.1554163098, -0.0707974285, 0.1650782228, 0.0270156413, 0.0666379333, 0.1292129159, 0.1492031217, 0.1112165153, 0.0701382011, 0.1056577563, 0.1380926967, -0.0968531370, -0.0020410419, -0.1491130441, -0.0734086856, 0.1124768257, -0.1249440685, 0.1227063239, -0.1189153939, -0.0449496135, -0.0924405903, -0.0718174800, -0.0517409965, -0.0488725901, 0.0895659328, -0.0862724856, 0.0095945001, 0.0374036282, 0.0154567510, -0.1103821993, 0.0070172250, 0.0900149345, 0.1435322762, 0.0188887417, -0.0939500928, 0.1389868855, 0.0222931355, 0.1135641336, -0.1581363082, -0.0743729398, 0.0513365567, 0.0279200822, -0.0914774314, -0.0992731154, 0.1045943201, -0.1420345455, -0.0311246663, 0.0360922664, 0.0568721592, 0.0803322494, -0.0541279390, 0.0468505323, -0.0330317169, -0.1078319773, 0.1130163372, -0.0336201489, 0.1382336915, 0.0603389144, -0.0309537053, -0.0666104481, -0.0599032491, -0.0315165818, 0.0515766442, -0.0388101041, -0.1528929025, -0.0478077754, -0.0029371828, 0.1230850816, 0.0596397966, -0.0999139994, 0.0573213995, 0.1406016350, 0.0274180770, -0.1429311931, 0.0634232014, -0.0068056434, 0.0219018012, 0.1019699275, -0.0299517959, -0.1433500946, 0.1010172069, -0.0160999596, 0.0568347424, -0.0537957847, 0.0122838318, -0.0446188748, 0.1141340733, 0.0126611888, 0.1047036052, 0.1325197220, 0.0513779372, 0.0436901301, 0.0729937255, 0.0674268603, 0.1120980084, 0.1390293539, -0.0399380624, -0.0471118465, 0.0218122602, 0.1367671788, 0.0746930540, -0.0611554831, 0.1595261097, 0.1560327709, 0.1048049033, -0.1226977259, 0.0538662970, 0.0242854804, -0.0329122543, 0.1421750784, -0.0112073272, 0.0342133939, 0.0857122838, 0.1333028674, 0.0404134244, -0.1074072942, -0.0715740696, -0.1090929955, 0.1242974401, 0.1520143151, -0.1321747899, -0.0864610896, -0.1512708217, 0.1478583515, -0.0124351084, 0.0537124723, 0.0034520030, -0.1066249013, 0.0892277956, 0.0297281593, -0.0519248694, -0.1480643600, -0.0625955686, -0.0052731335, -0.1208808422, -0.0195142776, 0.0803151876, 0.0544359535, -0.1030801386, -0.1139440835, -0.1532059163, 0.0475486517, -0.0115674287, 0.0349136591, -0.1250572205, -0.1525796056, 0.1561215520, -0.1239729971, 0.1459610760, 0.0385683477, 0.1523593366, -0.1164667457, -0.1333263814, 0.0946160853, 0.1560749412, 0.1397379637, -0.1161320359, 0.1384890079, -0.0648696274, -0.0604424253, 0.1330232918, -0.1196944714, 0.0007905066, 0.0072876513, -0.0595809743, 0.1487061083, -0.1385131329, 0.0318170488, -0.1476314068, 0.1619968712, 0.0569724739, -0.1035736129, 0.1138564348, -0.0254903883, 0.1487904191, -0.0860476643, -0.0623390526, -0.0834846869, -0.0698182881, 0.0497771651, -0.0282533765, 0.0160106570, -0.0152915716, 0.0675243884, 0.0266096592, 0.0885409415, 0.1304825842, 0.0912722945, -0.1048380136, 0.0703162849, -0.0354866534, -0.0985491574, 0.1257769763, -0.0056080073, 0.1246792078, 0.0669316947, 0.0213512778, 0.1035204530, 0.1228372157, -0.0890686810, -0.0327718109, -0.1034563556, -0.0356973410, 0.1208281219, 0.0997521877, 0.0602203161, -0.0032224506, -0.1016815156, 0.1120479703, 0.1556098163, 0.1288481951, 0.0181995034, 0.1476600468, 0.1419054270, -0.1068511829, 0.1430583298, 0.0785568506, -0.0465073884, -0.0617636442, -0.0071610212, -0.1633635014, 0.0270963460, -0.0560247153, 0.0745200068, -0.0453863442, -0.0076001137, 0.0822085887, 0.0111585408, 0.1392113864, 0.1239636242, 0.0126392543, -0.1272210777, 0.1568742990, -0.0688662380, 0.1256653070, -0.1417676657, -0.0588394552, -0.1196608841, 0.0065989643, 0.1445252001, 0.0519620776, 0.0227543116, -0.1111281365, 0.1388026476, -0.0105481744, -0.0531731248, -0.0780461356, 0.0006450117, -0.0880556777, -0.0006186813, -0.0977332965, -0.1478307992, 0.0000060648, -0.1001716629, 0.1524289846, 0.1192862988, -0.0591354221, 0.1084336340, 0.0289553702, 0.1216056347, 0.1136179864, -0.1143785343, -0.1009360179, -0.1082288176, -0.0848969370, 0.1184419096, 0.1306641400, -0.0480286181, -0.1303160340, -0.0567607284, 0.1378662288, 0.0544500500, 0.1188278198, 0.0141928196, 0.0275654048, 0.0886040628, 0.0974926949, 0.0939326882, 0.1420617104, 0.0189823359, 0.0898358226, 0.1491552591, 0.0817094892, 0.1265618205, 0.1370038986, 0.0874193907, 0.0358751118, 0.1434358358, -0.0897450373, -0.1309123486, -0.0232670754, 0.0993122160, 0.0218170285, 0.1266211867, 0.0024619102, 0.0416544825, 0.0791465491, 0.0937514901, 0.1575562954, 0.1026702225, -0.0831819773, 0.0052042305, 0.1024405956, 0.1062695086, 0.0357726663, -0.1592327505, -0.0754912645, 0.0218761265, 0.1483444571, -0.1353013217, -0.0771654323, 0.1400221288, -0.0451218337, 0.0177390724, -0.1337221563, -0.0718402341, 0.1577135921, -0.0238035768, 0.0238696188, -0.0311598182, 0.0318696797, -0.0520409048, -0.0055216998, -0.1394898295, 0.1343556941, -0.0691349208, -0.0669928864, 0.0612559617, 0.1312679052, 0.0851515234, -0.0804826096, -0.0923671573, 0.1119324863, -0.0148561001, 0.0487450957, 0.0616800487, 0.1576215327, -0.0786016211, -0.0596664548, -0.1440323591, 0.0021242052, -0.1586578190, 0.0243261456, 0.1000727117, 0.0680876672, 0.1138777137, -0.0843431875, 0.1336000264, 0.0735541284, -0.0428270623, -0.0212797374, -0.0644516349, -0.0004989803, 0.1503838897, 0.1536696553, 0.0515264124, 0.1228663325, 0.1369293034, 0.0181517154, -0.0078369528, -0.1417920440, -0.0813488662, -0.1532758027, -0.0032225698, 0.1451005340, -0.1069322526, -0.1306553483, 0.1218119860, 0.0742233247, 0.0656347722, 0.1386643946, 0.0231291950, -0.0478902608, -0.1404530257, 0.0091287941, 0.1417402625, 0.0797050595, -0.1296190470, -0.0321053714, -0.1096991450, 0.1573668420};

#endif

#endif
