//Numpy array shape [8, 2, 16]
//Min -0.203820571303
//Max 0.202862471342
//Number of zeros 0

#ifndef ATTENTION_OUTPUT_WEIGHT3_H_
#define ATTENTION_OUTPUT_WEIGHT3_H_

#ifndef __SYNTHESIS__
multi_head_attention_attention_output_weight_t attention_output_weight3[256];
#else
multi_head_attention_attention_output_weight_t attention_output_weight3[256] = {0.1829242706, -0.1617938876, 0.0971835852, 0.0594606996, -0.0024936050, 0.0563136935, 0.0355038792, -0.0435851365, -0.0803849697, -0.0559301525, 0.0421150923, -0.0608150065, -0.1639782637, -0.1323623955, -0.0881756321, -0.0911657289, -0.0060767978, -0.0296232551, 0.0301510990, 0.1521164179, 0.0627132058, -0.0880223811, 0.0051502287, 0.0849613845, -0.0193444937, -0.1144095734, -0.0753431618, -0.0055356771, 0.0266772956, -0.1125305369, -0.1971632689, 0.1812762618, -0.0706295222, 0.1833581328, 0.2002342939, -0.1891128123, 0.0018347949, 0.0890220106, 0.0642154515, -0.1447246820, -0.1718575954, 0.0580920875, 0.0455216914, -0.1335936189, -0.1564519703, -0.0658108145, 0.0556097329, -0.1730634719, 0.1138551533, 0.0132709593, -0.0457375795, -0.0341483653, 0.1211808026, -0.1079145744, -0.1512893736, 0.1834599674, -0.1869108826, -0.1828089356, -0.0375208855, -0.1403757483, 0.0992774367, 0.0588925183, 0.0371964276, -0.0573003739, -0.0837739483, -0.0562830865, 0.0595923364, -0.0861182362, -0.1813005060, -0.0736078918, 0.0578609109, 0.0644111633, 0.0528798997, 0.0939627290, 0.1846613586, 0.1018199921, 0.0539397299, -0.1074772999, -0.1923740953, 0.0003236830, 0.1811166406, -0.1875773817, 0.0433472991, -0.0241159499, 0.0579674840, 0.0347006768, -0.1129577905, 0.1160433590, 0.0336492807, 0.0817367435, 0.0516482890, -0.1759097129, -0.0920372605, 0.1643010676, -0.1550446153, 0.1866781414, 0.1909984648, -0.0162214935, -0.1499915719, 0.0698855519, 0.0897388756, 0.1099793315, -0.0189838260, 0.1026473939, 0.0422802716, 0.1524853706, 0.1635593772, 0.2008423507, 0.1683912873, -0.0492571294, -0.1787525862, -0.1849716902, 0.0049220771, 0.0009601563, -0.1107222736, -0.1855155975, 0.0829663277, 0.1142047346, 0.0058408678, 0.1066311300, 0.0526846051, 0.1916233003, 0.1269083619, -0.1980228722, 0.1158591211, -0.0487345457, 0.0114096403, 0.0173631161, -0.0557339787, -0.1804871857, -0.0502727628, -0.0193920434, 0.1625407040, -0.0209066570, 0.1469810307, 0.1841335893, -0.0524599552, 0.0952312648, -0.1968478113, -0.1399715692, -0.0516360700, 0.0886168480, 0.1023951173, -0.2018397748, -0.1922966093, 0.1373336613, -0.0878987685, 0.0731910169, 0.1542670131, -0.0179983228, -0.1213453487, 0.1850537062, 0.1334064007, 0.2004608512, -0.0826491043, 0.1394794583, 0.1481606662, -0.1589484364, 0.0493803620, 0.0392252952, -0.1721424013, -0.1252384633, -0.1433542669, -0.1094135642, -0.0530048758, -0.0896440148, 0.0088671297, 0.0374644399, 0.1863049269, 0.0465756655, 0.1417849362, -0.0556862801, -0.1894794255, 0.1829161048, -0.0533061177, -0.0889491439, 0.1455971301, -0.1253309250, -0.1111747250, -0.1479465812, 0.1245176196, 0.1948244870, -0.1567543298, 0.0349519998, 0.0283690095, 0.1198898554, -0.0828868896, -0.0356496423, -0.1859179288, -0.0578316152, 0.0382738560, -0.1474902779, -0.1496146917, 0.1945901811, -0.0683145374, 0.1771648824, 0.0396675318, -0.1444216371, -0.0561257899, -0.0151522309, -0.0025120378, 0.1799440980, -0.1240629628, 0.0098308772, -0.1643589437, -0.1423796564, 0.0533309877, -0.1497138739, -0.0708747059, -0.0234280974, -0.2038205713, 0.1845717430, 0.0492849648, -0.1722248346, 0.0190235376, 0.1135209501, 0.0406431705, 0.0964843631, -0.1575604081, -0.1624913514, 0.0713619292, 0.0417699516, -0.1482195556, -0.1291702688, -0.1346569359, -0.0420919359, -0.1945086718, -0.1491869986, -0.0870334655, 0.0274472535, 0.0939028561, -0.0442087501, -0.1819678694, 0.1709271371, -0.0276956558, 0.1718894243, -0.0091451555, -0.1977259517, 0.0305138081, -0.1792885661, -0.1435095072, -0.0282693356, 0.1222853959, 0.1837152243, -0.0448561162, 0.0948786438, -0.1265296936, 0.1782427132, 0.2028624713, -0.1030304059, -0.1161646992, 0.1933268905, -0.1609346867, 0.1490156054, -0.0118570328, -0.1296296865};

#endif

#endif
