//Numpy array shape [2, 5, 10]
//Min -0.445986032486
//Max 0.446108102798
//Number of zeros 0

#ifndef ATTENTION_OUTPUT_WEIGHT3_H_
#define ATTENTION_OUTPUT_WEIGHT3_H_

#ifndef __SYNTHESIS__
multi_head_attention_attention_output_weight_t attention_output_weight3[100];
#else
multi_head_attention_attention_output_weight_t attention_output_weight3[100] = {-0.2903396785, 0.1039400101, 0.1469594836, 0.0356140137, -0.0881671906, 0.2179040313, 0.3058898449, 0.1511843204, -0.0907200873, -0.0261226594, 0.4036350846, 0.4293150306, 0.1866878271, -0.0048918128, -0.1212353706, -0.1065793633, 0.4172155857, -0.3575671911, -0.0497865975, -0.1710790992, -0.3956758976, -0.3102617264, 0.2243094444, 0.2539723516, 0.0327275097, 0.1624925733, -0.4459860325, -0.3933189809, -0.0511125624, 0.2146005034, -0.0587156117, 0.3969032764, 0.3778055310, 0.4461081028, -0.3074250221, -0.4346833527, -0.2939274907, -0.2568362951, -0.3122856617, -0.3704316020, -0.1778935492, 0.2036749125, 0.3623577952, 0.2503806353, -0.3755892217, 0.2108581066, 0.3371233344, -0.1805704534, -0.0835714936, 0.1960201859, 0.4000934362, 0.0518320799, 0.4119827747, -0.3633235097, -0.1572629809, 0.2906945348, -0.3467717171, 0.0157223642, -0.0572955012, 0.4297333360, 0.0252419710, -0.1012002826, -0.3252867758, -0.1021146774, -0.3847626150, -0.4153532684, 0.2061213255, -0.1148147881, -0.3606209159, -0.1181702316, 0.3526070714, -0.0737869143, -0.3729876876, -0.1079794466, -0.3415008783, 0.2150309086, 0.2551580071, -0.3279076815, 0.1631067395, -0.4171035886, 0.3782371283, -0.3137383461, 0.1831830740, -0.1257044971, 0.1783601642, 0.2753494978, -0.0819092095, -0.3606423438, 0.0189715028, 0.3090097904, -0.0656227171, 0.0501951873, -0.1295004189, 0.1626452804, -0.0925543606, -0.1150123477, -0.3475895524, -0.3392149806, -0.1914689243, 0.0797805786};

#endif

#endif
