//Numpy array shape [10, 2, 20]
//Min -0.164763703942
//Max 0.164652526379
//Number of zeros 0

#ifndef ATTENTION_OUTPUT_WEIGHT3_H_
#define ATTENTION_OUTPUT_WEIGHT3_H_

#ifndef __SYNTHESIS__
multi_head_attention_attention_output_weight_t attention_output_weight3[400];
#else
multi_head_attention_attention_output_weight_t attention_output_weight3[400] = {0.0695781112, -0.0006043464, -0.0690343976, 0.0633742660, -0.0105118603, -0.0931191891, 0.1256929934, 0.0196669549, 0.1606062949, 0.0983009040, -0.0000288188, -0.0175217390, 0.0664548874, -0.0115145892, 0.0791569352, 0.0440427959, 0.1395867765, 0.0007419586, -0.1025314704, 0.0270680785, 0.0389579386, 0.0896844268, 0.0076934695, 0.0753806233, 0.0476682782, -0.0120651573, -0.1262417734, -0.1288585067, -0.1001764238, -0.0498997718, -0.0390806645, -0.1074468270, -0.1264081746, -0.1470368803, -0.0642154366, -0.1000842527, 0.1090828776, 0.0085035861, -0.0336166024, -0.0235176086, 0.1427635849, 0.0421136171, 0.0992211401, 0.0892976224, -0.0282556713, -0.0342226475, 0.1458239257, -0.1080901921, 0.1392700374, -0.1020579636, 0.0619889796, 0.0218062401, 0.0974254608, 0.0370638371, 0.0235751718, -0.0948904082, 0.1162902117, 0.0589839965, 0.0023235530, -0.1210551411, 0.1315751970, -0.0941802263, -0.0389035642, -0.0620556399, -0.0937488899, 0.0573818833, -0.0181744695, 0.1030298173, -0.0094581097, -0.0402816832, 0.1229898036, 0.1118038297, -0.1329892278, 0.0739080161, 0.0247546583, -0.1135421246, -0.0155100226, 0.1389213502, 0.1173254550, -0.1195213869, -0.0963647887, -0.1323920786, 0.1499564052, 0.0820048749, -0.0862179920, 0.0218021423, -0.0062773675, -0.0901884586, 0.1572546661, -0.1494977921, -0.1523578465, 0.0255841315, -0.0661076903, -0.0369863212, -0.0305707902, 0.0025804639, -0.0434522331, -0.0211698860, 0.0658816099, 0.1352755129, -0.1622369885, -0.1334619373, 0.1078739166, 0.1588282883, 0.1150546670, 0.1031318009, -0.1232817173, 0.1311676204, -0.0255422741, 0.0824165940, 0.0828047395, -0.1130017191, 0.0474838167, 0.0907406211, 0.1096929610, -0.1213424504, -0.1224423498, -0.1014651582, -0.1072631925, -0.0234959126, -0.1279298067, -0.1647637039, 0.0254971534, -0.1132777333, 0.0004429072, -0.1599363089, 0.0070003420, 0.0693879426, -0.1397403330, -0.0990797505, -0.0989523008, -0.0208959728, -0.1353338063, 0.0163440704, -0.0032250136, -0.1544055492, 0.1400864124, -0.0325627327, 0.0114383250, -0.0506105423, 0.0483406186, -0.0276262015, 0.1500925720, -0.1382271200, -0.0176425725, -0.0887509733, -0.0992172062, 0.0355593860, -0.1005109027, -0.0671681762, -0.0982115641, 0.0240575075, -0.0090481192, -0.0687887520, -0.0325502604, -0.1108488590, 0.0185744315, -0.1475818008, -0.0004217327, 0.1144230664, -0.0363290459, 0.1492684484, 0.1484842300, 0.1180455387, -0.1510943919, 0.1388395429, -0.0188395977, -0.0591754690, -0.1083156765, -0.0282270759, -0.1290665865, 0.0513390750, -0.1292561740, 0.0996186435, -0.0488510951, 0.0780337304, 0.0103787035, 0.1153965294, 0.0098528713, -0.1408286542, 0.1562722921, 0.0378440619, -0.1480633318, -0.0813336298, 0.1016378999, 0.1335109174, 0.0840073228, 0.0757824332, 0.1118906736, -0.0549258441, 0.0070845187, 0.0094430745, -0.0764225721, -0.0015830845, -0.0521322861, -0.1256692111, 0.0074596703, -0.1453102678, -0.1429988742, -0.1373293996, 0.0225732327, -0.1633259803, -0.0367195159, 0.0393030196, 0.0222478211, 0.0338522643, -0.1589793414, -0.1488661617, -0.0484535396, -0.0333316624, -0.0329917967, -0.1521110982, 0.0324757248, -0.0332781225, 0.0661537498, -0.1198026314, -0.1287147552, 0.0707083344, 0.0434125811, 0.1591586769, -0.0593013018, 0.1562937498, 0.1397000849, 0.0481167436, -0.1620874107, 0.0127264708, 0.1159092188, -0.0463834405, 0.1159085929, 0.0210949630, -0.1078320965, -0.0646749660, 0.0993437171, 0.0838464499, 0.0480706692, 0.0740004331, 0.1646525264, 0.0877699554, -0.1622995436, 0.1347684860, 0.1424889266, 0.1009762585, 0.0632631928, 0.0296022445, 0.1293461919, -0.1589210629, -0.1177588701, 0.1221475899, 0.0426272750, 0.0192356706, 0.1291143894, 0.0904019475, -0.0102136135, 0.0320989639, 0.1422591805, -0.1456038356, -0.0449483097, 0.0462497622, 0.0069773048, -0.0864763632, -0.0392182469, -0.0683160722, 0.0820617676, -0.1242571622, -0.1214956939, 0.0203550458, -0.0079672337, 0.0820426345, -0.1473700106, -0.0356211513, 0.0675736070, 0.0793298334, 0.0610703975, -0.0136999786, -0.0930861533, 0.0747360438, -0.1033528447, 0.0321770012, -0.0513956919, -0.0191982239, -0.0312419534, 0.1175169945, -0.0400004834, -0.1027042866, -0.0718081072, -0.1035245508, -0.0817980394, 0.1583574712, 0.0764776468, -0.0531917885, -0.0332540572, 0.0867947042, 0.1018266380, -0.1572104096, -0.1308295429, 0.1073587537, -0.0058587044, -0.1556784511, 0.1284648180, -0.0515726730, -0.1500120908, -0.1214793548, 0.0394419581, -0.1196085215, -0.1434619576, -0.0623730272, 0.0718105137, 0.1282437146, 0.0960790813, 0.0406184793, -0.0801673830, -0.0580727309, 0.0084279478, 0.0282447934, 0.1527369916, -0.0223989338, 0.0499614328, 0.1171672940, 0.0989458859, -0.1639418602, -0.0414792299, 0.1014324427, 0.0855532885, -0.1548613012, -0.0444042087, 0.0053489804, -0.1083664298, 0.0948856175, -0.0274516195, -0.1040738523, -0.0891098604, 0.0789563358, 0.0867138207, -0.0368178338, -0.1158209443, -0.0354062170, 0.0136882067, -0.1314181089, -0.0650356635, -0.1501100212, 0.1462084949, -0.1092939526, 0.1192412078, 0.0168973804, 0.1198450923, -0.1646326333, 0.1417266130, 0.0214441717, -0.1603881568, -0.1537438035, 0.0193409026, -0.0407266393, -0.1102632582, 0.0509774685, -0.1285298169, 0.0789797604, -0.0763523281, -0.0647175238, 0.0007643551, -0.0278701633, 0.1213577688, -0.0506190434, 0.0297844261, -0.0721339285, -0.0214700699, -0.0569892526, 0.1238167584, -0.0522355288, 0.0227893591, -0.0068626553, -0.0561565384, -0.0656287894, -0.1025198996, -0.0519048274, 0.0704538226, -0.0286436081, 0.0724996328, -0.1624895334, -0.0895990357, -0.1481043249, -0.0966520980, 0.0924777091, 0.1477038860, 0.1128918827, -0.0445392206, -0.0442117900, 0.1348786354, -0.0000912249, 0.0296917707, -0.1096034721, 0.0533238500, 0.0140762776, -0.1011878103, 0.1268602610, 0.1477296948, -0.1443229765, 0.1523602903, -0.0130108297, 0.1450899839, 0.0887641609};

#endif

#endif
