//Numpy array shape [2, 5, 10]
//Min -0.446457207203
//Max 0.443452239037
//Number of zeros 0

#ifndef ATTENTION_OUTPUT_WEIGHT3_H_
#define ATTENTION_OUTPUT_WEIGHT3_H_

#ifndef __SYNTHESIS__
multi_head_attention_attention_output_weight_t attention_output_weight3[100];
#else
multi_head_attention_attention_output_weight_t attention_output_weight3[100] = {0.1373844147, 0.2003256679, -0.4386409223, 0.3160065413, 0.2363755703, -0.1067394018, 0.3480936289, -0.2069538236, -0.0666684806, -0.1891864240, -0.1052790880, 0.0739459991, -0.2156883627, 0.4142571688, -0.4177280962, -0.2569695711, 0.1793907881, 0.2943704724, -0.4033907950, -0.2206574678, -0.2830318809, -0.2201897055, 0.3045144677, -0.3446912766, -0.2239996046, 0.0891783237, 0.1480029821, 0.4146522880, -0.2750405073, 0.0215526521, -0.4004923105, -0.0819258392, -0.1315506995, -0.1573846340, 0.4434522390, 0.3106158376, -0.0584823191, -0.1536113322, -0.0850415230, 0.1553660035, -0.2026783079, -0.4464572072, 0.1508543491, -0.0509445369, -0.1756349504, 0.1875503063, -0.3928381205, 0.3970253468, -0.3159410655, 0.2569330931, 0.2372481823, -0.2543467283, -0.2278245240, 0.2318719625, 0.3811308146, 0.3226157427, 0.1725811362, 0.0963133574, 0.2804087400, -0.1727020442, 0.2392238975, -0.0419476926, -0.3547724783, 0.0761728287, 0.3214168549, 0.1365733147, -0.2531804442, -0.3109171391, 0.2925320864, 0.3565322161, -0.1984559000, -0.0219450295, -0.1586683989, 0.1685639620, -0.0540658534, -0.3080465198, -0.0584652722, 0.0316970944, -0.2928454578, -0.3919205070, 0.3326942921, 0.4266786575, 0.3900370002, 0.0972946286, 0.3947739601, 0.0665936470, -0.0679230392, 0.2203022242, -0.0079805851, 0.2829216123, 0.2417288423, 0.1797926426, -0.0964707434, -0.3139975071, -0.3761961162, 0.2582821250, -0.1709996760, -0.0353703797, -0.3378722370, -0.0403703153};

#endif

#endif
