//Numpy array shape [5, 20, 100]
//Min -0.099992252886
//Max 0.099985189736
//Number of zeros 0

#ifndef ATTENTION_OUTPUT_WEIGHT3_H_
#define ATTENTION_OUTPUT_WEIGHT3_H_

#ifndef __SYNTHESIS__
multi_head_attention_attention_output_weight_t attention_output_weight3[10000];
#else
multi_head_attention_attention_output_weight_t attention_output_weight3[10000] = {0.0724133924, -0.0587596186, -0.0805165023, 0.0842960849, -0.0725046843, 0.0765322670, 0.0866988674, 0.0980240181, 0.0637852624, 0.0874412730, -0.0436237566, -0.0572790615, -0.0152365938, 0.0354922786, 0.0158512369, -0.0021357983, 0.0513694361, 0.0168710500, 0.0825883374, 0.0410575345, -0.0931078941, -0.0488157980, -0.0651552454, -0.0047458857, -0.0078918487, -0.0507964604, -0.0439162739, 0.0960109904, -0.0146396384, -0.0913532004, 0.0867830291, 0.0164160728, 0.0916020349, 0.0529081151, 0.0531420931, 0.0346985087, -0.0597763062, -0.0128747225, -0.0325058699, -0.0949066654, 0.0091335028, 0.0529984310, -0.0876016617, -0.0496835224, -0.0139023289, 0.0773563161, 0.0808934048, 0.0868360773, -0.0873055458, 0.0378672853, -0.0355564132, 0.0990768149, 0.0396328494, -0.0277228802, -0.0720454231, -0.0457089208, -0.0160026103, -0.0036317557, -0.0645586997, 0.0902445987, -0.0435984619, 0.0583803728, -0.0538840294, 0.0070966259, 0.0517921522, 0.0835136250, 0.0736805275, -0.0278651491, -0.0461152792, -0.0704545230, 0.0734052137, 0.0914531723, 0.0852701440, 0.0554388240, -0.0477039590, -0.0824247822, -0.0405299440, -0.0005756840, -0.0308732539, -0.0436482206, 0.0761932209, -0.0625545979, 0.0151120201, 0.0913427547, 0.0358309820, 0.0348876491, 0.0365677848, 0.0826274231, 0.0931558684, 0.0729658827, -0.0572512150, -0.0349025279, 0.0781045929, -0.0080189258, -0.0999587104, -0.0878471658, -0.0312176943, -0.0645607263, -0.0079124197, -0.0205968171, -0.0708630085, -0.0541508198, -0.0238692984, -0.0358928666, 0.0761055723, 0.0479885414, 0.0700054690, 0.0121819749, 0.0833027586, 0.0392883345, 0.0441250131, 0.0271774754, -0.0367576331, 0.0129473954, 0.0995179191, 0.0079475641, -0.0777908340, 0.0548630431, -0.0873579979, 0.0756951347, -0.0165404826, -0.0807145834, -0.0245954767, 0.0514310077, 0.0356837288, 0.0731756911, -0.0921724588, -0.0760869235, -0.0896146521, -0.0026528612, 0.0742559955, 0.0817385241, 0.0338385776, -0.0612687580, -0.0157106370, 0.0320437625, -0.0323638171, 0.0024514943, 0.0983183905, -0.0970970616, 0.0986023918, -0.0508848429, -0.0366455317, -0.0282004327, 0.0788474306, 0.0320392326, 0.0631843284, 0.0944264457, -0.0877580419, 0.0854191110, -0.0581914186, 0.0596947894, 0.0043090805, 0.0084857941, 0.0866708979, -0.0985993370, -0.0840368718, -0.0062266588, 0.0481035188, 0.0268159136, -0.0425071977, 0.0890336558, 0.0462459102, -0.0916960016, 0.0124040395, -0.0373222828, -0.0105882138, -0.0619614832, 0.0164861679, -0.0414971374, -0.0307550430, 0.0948184058, -0.0366008729, 0.0447462872, 0.0572618768, -0.0639747381, -0.0989450216, 0.0976113155, 0.0650908276, -0.0397391804, -0.0220161229, 0.0570879057, 0.0828293636, 0.0755926147, -0.0888073966, 0.0590109155, 0.0512364879, -0.0504889749, -0.0837328434, 0.0220188126, 0.0311092809, -0.0018159375, -0.0385325216, -0.0961172581, 0.0311027542, -0.0670873672, 0.0415059850, -0.0019205809, 0.0677559450, 0.0926502421, 0.0232447162, -0.0656841546, -0.0585704818, 0.0320002511, 0.0322198197, -0.0674903691, -0.0957753882, 0.0864729658, 0.0090638623, 0.0243414417, 0.0403347090, -0.0727387667, -0.0461143963, -0.0257419348, 0.0879930034, 0.0725583360, 0.0157842189, -0.0147100687, -0.0674822778, 0.0524495915, -0.0217751041, -0.0658686906, 0.0008659810, -0.0141022652, 0.0555880144, 0.0407806709, 0.0254603103, 0.0685128942, 0.0577578619, -0.0903150812, -0.0564962141, -0.0087256432, 0.0838884786, -0.0289620161, -0.0696096867, -0.0763489231, 0.0894773528, 0.0330479816, -0.0277928859, 0.0914621428, 0.0715197101, -0.0171575323, 0.0170931369, 0.0300847962, -0.0537110083, 0.0946717337, -0.0306579098, 0.0294839218, 0.0184517875, -0.0127801895, -0.0799300224, -0.0525428765, 0.0479582027, -0.0399959087, -0.0929828659, 0.0885968283, 0.0931010321, 0.0712661818, 0.0356691405, 0.0114805251, 0.0093745217, 0.0549465641, -0.0913906097, -0.0432181619, 0.0024878979, 0.0167680532, -0.0297993645, -0.0807341784, -0.0448285118, 0.0272653326, 0.0893569961, -0.0570006371, 0.0015013218, -0.0152357817, -0.0843653232, 0.0751087144, 0.0834936872, -0.0802251101, -0.0124707967, 0.0410129055, -0.0896587595, -0.0037003979, 0.0102074146, -0.0653812438, 0.0172394067, 0.0708186105, -0.0856986269, -0.0535607599, -0.0343097448, 0.0420620665, 0.0108419880, 0.0770274475, -0.0168288946, 0.0106313676, 0.0542198643, -0.0199004859, -0.0664999932, -0.0955743119, 0.0976670757, -0.0510721691, 0.0033644885, 0.0148080587, -0.0942874923, 0.0163038746, 0.0123717785, -0.0492295995, 0.0010750741, -0.0504035018, -0.0087791234, 0.0382419303, -0.0832416266, 0.0483982787, -0.0114992410, -0.0143456459, 0.0950959250, 0.0532407090, 0.0058481246, 0.0467639640, 0.0693826750, -0.0096899047, -0.0592459217, -0.0873267874, 0.0664497837, -0.0564956665, -0.0794824362, -0.0211837068, 0.0178258643, -0.0068532676, -0.0638648272, 0.0881088302, -0.0177563876, 0.0582816824, 0.0417560413, 0.0024914965, 0.0575786307, -0.0796277970, -0.0204734579, -0.0003616586, 0.0275382474, 0.0627831295, -0.0538399220, 0.0122107044, 0.0487630591, -0.0236622319, 0.0883242413, -0.0717206970, 0.0652408078, -0.0253597274, -0.0757777244, 0.0928049609, 0.0593845919, -0.0177339092, -0.0937121660, -0.0271219239, 0.0050781742, -0.0179842487, -0.0267523304, 0.0612767413, -0.0145309418, 0.0506522879, -0.0647456944, 0.0152968615, -0.0116791278, -0.0964200273, 0.0945430771, 0.0563258603, -0.0039039105, 0.0885157362, 0.0135827512, 0.0448902324, -0.0253286138, -0.0949969813, 0.0855991915, -0.0825463757, 0.0487973765, 0.0994350389, 0.0757696703, -0.0029656887, -0.0179352537, -0.0241865143, -0.0513992310, 0.0038306713, -0.0969743952, -0.0685451478, -0.0204961747, 0.0127470493, 0.0601371303, -0.0106726661, -0.0338323116, -0.0886308923, -0.0573673025, 0.0495733246, 0.0191378146, 0.0900057033, -0.0451292507, -0.0235730410, 0.0795436576, 0.0495991185, -0.0225781426, -0.0628935397, 0.0936586633, -0.0678876415, 0.0163763762, -0.0619124435, 0.0637122914, -0.0916683897, 0.0003025755, 0.0790402368, -0.0031508952, 0.0782706216, 0.0071049184, 0.0616400018, -0.0814513415, -0.0702165142, -0.0436886065, -0.0196477920, 0.0241960287, 0.0877031758, -0.0892643705, -0.0206586570, -0.0980181471, -0.0489651449, -0.0968295112, 0.0770431533, 0.0930890068, -0.0245576650, 0.0480908230, 0.0626698956, 0.0130346268, 0.0060095042, 0.0364497676, 0.0521533564, 0.0834759250, -0.0973605886, 0.0181713104, 0.0010197386, -0.0973766372, 0.0697498992, -0.0792369395, 0.0230805129, -0.0008621216, 0.0413382575, 0.0545891300, 0.0538127944, 0.0018219501, -0.0382949114, -0.0142665654, -0.0349083170, 0.0999376997, -0.0120564252, 0.0996728614, 0.0763018802, -0.0356274620, 0.0739048049, -0.0499629043, -0.0353243798, -0.0718121529, -0.0811878666, 0.0859879032, -0.0501690395, -0.0279025808, -0.0786601529, 0.0152008086, -0.0151731744, 0.0600895956, 0.0295139328, -0.0117108375, 0.0355286673, -0.0898759887, -0.0212454796, -0.0142154917, -0.0588952564, 0.0625971034, 0.0092140436, -0.0830545872, -0.0668844432, -0.0708900467, -0.0913681537, 0.0153879151, -0.0264076740, -0.0384976156, -0.0522977598, -0.0483634248, -0.0040370226, 0.0653470829, -0.0916779563, 0.0464847311, 0.0064412132, -0.0201295614, -0.0613128208, -0.0838547498, 0.0320460275, 0.0961380228, -0.0776825696, 0.0470971391, -0.0894917473, 0.0665323213, -0.0118377432, -0.0110560879, -0.0196178183, -0.0243879780, -0.0916903019, -0.0222346559, 0.0227180272, 0.0176017508, -0.0109005719, 0.0378352180, -0.0840834156, 0.0598333851, -0.0604781173, -0.0211037397, -0.0554721840, -0.0061396360, 0.0955339447, -0.0715288371, 0.0861774459, -0.0702459067, -0.0903016105, -0.0282212496, -0.0227356702, 0.0937342867, 0.0372797474, 0.0060276240, -0.0022618026, -0.0475399755, 0.0341028944, 0.0177263245, 0.0806343630, 0.0870135501, -0.0991185457, 0.0819236562, 0.0038123578, 0.0676291510, -0.0974296331, 0.0360215381, 0.0176452845, 0.0348235443, -0.0773255602, -0.0469761863, -0.0086039081, -0.0780368298, -0.0927390605, -0.0323033109, 0.0763870999, 0.0868064836, 0.0430599228, -0.0433936119, -0.0511517525, -0.0432843454, -0.0844120309, 0.0919192359, -0.0020385534, -0.0858760402, 0.0849825367, 0.0947826132, -0.0800656527, -0.0716932267, 0.0358359590, -0.0808675736, -0.0051176772, 0.0387885049, 0.0900717452, -0.0006633550, -0.0868133530, -0.0364627615, -0.0778412372, 0.0615095869, 0.0086445361, -0.0350733250, -0.0610690117, 0.0317015424, -0.0006790906, 0.0485467389, -0.0058758259, -0.0766345710, 0.0367117450, 0.0097707957, 0.0721750036, -0.0876715183, -0.0917606130, 0.0651472881, 0.0659536347, 0.0436499193, 0.0492142513, -0.0555486940, 0.0768927559, 0.0381452814, -0.0181253701, 0.0780731961, 0.0964099839, -0.0311101452, 0.0298010185, -0.0022305697, 0.0896131471, 0.0281647518, -0.0440899841, -0.0235793814, 0.0355195031, 0.0189686045, -0.0898572728, -0.0065336451, -0.0858217254, -0.0365289450, -0.0360738039, -0.0184210315, -0.0182555467, -0.0136205181, -0.0164641589, 0.0560114905, -0.0779047459, -0.0463953018, 0.0757674500, -0.0648248196, -0.0248157233, -0.0576162115, 0.0178217441, 0.0400580689, 0.0492000803, 0.0751305297, 0.0607507750, -0.0887516290, 0.0533278957, 0.0412104800, -0.0603902824, 0.0967613533, 0.0572808757, -0.0211640149, -0.0858109221, 0.0759985223, 0.0087747797, 0.0248055682, -0.0342133269, -0.0659848005, 0.0339467600, 0.0375660434, -0.0245885104, 0.0560735539, 0.0847722813, 0.0611795411, -0.0321414694, -0.0246785432, -0.0631107092, -0.0831158906, 0.0322551504, -0.0123990551, 0.0774520412, 0.0519027039, -0.0259998068, -0.0219515786, 0.0476112142, 0.0031682998, -0.0776583180, -0.0039932504, 0.0440693423, -0.0660299361, 0.0627856329, 0.0291517004, -0.0641714334, -0.0976478383, -0.0650852025, -0.0216610879, 0.0552757010, 0.0609851405, -0.0852172151, 0.0818642601, 0.0498347506, -0.0614950657, 0.0567124113, -0.0332617760, -0.0624727011, -0.0577912591, 0.0526842400, -0.0288388506, 0.0872502550, -0.0441538095, -0.0818732753, 0.0063089356, -0.0380770676, 0.0661478713, -0.0487417467, 0.0314696506, -0.0663320273, -0.0221571922, -0.0740076751, -0.0511996038, 0.0185313448, 0.0144869089, -0.0151960403, -0.0067347065, 0.0120134130, -0.0336831808, -0.0667098016, 0.0170768276, 0.0103067160, 0.0203415379, 0.0198093429, 0.0780334547, 0.0156160370, -0.0641244426, 0.0863602236, -0.0110769272, -0.0085134506, 0.0242393985, 0.0981764868, 0.0496739820, 0.0967582539, -0.0750551671, -0.0650804490, -0.0443066843, -0.0406062119, 0.0580945984, 0.0082590356, -0.0513137840, 0.0674007609, 0.0420552269, -0.0998296961, -0.0506926291, 0.0014411211, -0.0776502118, 0.0382456556, 0.0460304245, 0.0604129061, 0.0758483484, 0.0608239248, -0.0116095766, -0.0527927168, -0.0658546463, -0.0035300478, 0.0980552658, 0.0058114305, -0.0119795799, -0.0273717642, -0.0953769013, 0.0835326985, -0.0584050901, 0.0716750845, 0.0952110365, 0.0290171579, 0.0470196232, -0.0418378599, 0.0530565307, 0.0185973868, -0.0197877660, 0.0834474787, 0.0221848711, -0.0680079460, -0.0666745007, -0.0223593488, 0.0722446665, 0.0746173933, -0.0749501437, -0.0903000832, 0.0081936568, -0.0272233039, -0.0364263058, 0.0018814579, -0.0418150686, -0.0122982487, 0.0264702514, 0.0253041461, -0.0520394109, -0.0244385451, -0.0656073540, -0.0586355925, 0.0400908515, -0.0766033381, 0.0500469729, 0.0815504566, -0.0886309668, 0.0096329004, 0.0132286772, -0.0404563211, -0.0298031345, -0.0093527809, -0.0038833395, -0.0755260736, -0.0879148766, 0.0695050731, 0.0086288229, -0.0701670200, 0.0949420705, -0.0736593232, -0.0934512168, 0.0754107460, 0.0755101666, 0.0177647322, -0.0502117872, 0.0145975798, -0.0752375349, -0.0191847831, 0.0512092635, 0.0853368714, -0.0929734036, 0.0244412422, 0.0612401739, 0.0232134089, -0.0395389572, -0.0911974683, 0.0695180669, 0.0082641616, 0.0306706950, 0.0537056997, 0.0362068191, -0.0654836893, 0.0335935131, 0.0897421613, -0.0988980085, 0.0131200552, 0.0403972194, 0.0111351982, 0.0946731344, -0.0869893581, -0.0606806278, 0.0506328866, -0.0336072892, 0.0003893599, 0.0891037956, -0.0240992084, 0.0870050862, -0.0678381696, 0.0143010393, 0.0990861878, -0.0613089092, -0.0060087219, -0.0126739964, -0.0592990182, -0.0478160381, -0.0427134298, 0.0692922100, 0.0298942551, 0.0816452280, 0.0926311985, 0.0930061117, 0.0669401959, 0.0060001165, 0.0854004696, -0.0350687280, -0.0476200581, -0.0571792386, 0.0645709559, 0.0272082612, -0.0029234439, 0.0420090929, -0.0661624223, -0.0547563098, -0.0120027810, -0.0504910946, 0.0219494551, 0.0281414315, 0.0155295134, -0.0145210028, 0.0910575166, 0.0261764601, -0.0378010049, -0.0445731878, -0.0067272931, -0.0844736323, -0.0235682279, -0.0021645054, -0.0023348331, 0.0625078902, 0.0920198187, 0.0914587006, 0.0576356873, 0.0615279451, 0.0274865106, 0.0860214308, -0.0402192585, 0.0667661950, 0.0995570198, 0.0418312624, 0.0552423224, -0.0017448664, 0.0720129088, 0.0520626381, 0.0913653150, -0.0700828284, -0.0360672697, 0.0651067719, 0.0059902892, -0.0781545416, 0.0962047800, 0.0127987862, -0.0967688784, -0.0267047659, -0.0205992460, 0.0832265392, 0.0112442970, -0.0082018822, -0.0335957035, -0.0466224663, -0.0939750448, -0.0151640624, -0.0771646053, -0.0440477841, -0.0035904646, 0.0644405559, 0.0099086985, 0.0541883036, 0.0845617279, -0.0122229308, -0.0586096309, 0.0126969814, 0.0488793179, -0.0721561164, -0.0562760830, -0.0169733316, -0.0562870018, 0.0947468504, 0.0850467458, 0.0414421335, 0.0507565066, 0.0284777954, 0.0989337638, 0.0054022297, 0.0654184893, 0.0670970753, -0.0491020195, -0.0615308546, 0.0153824314, 0.0841403976, 0.0791587606, 0.0771559998, -0.0692940950, 0.0625917390, -0.0626354665, 0.0319513157, -0.0647614449, -0.0837520584, -0.0686175078, 0.0228037611, -0.0935819671, 0.0686891153, -0.0540736914, 0.0024534911, -0.0570746921, 0.0787718967, -0.0004653484, -0.0114065632, -0.0320683718, 0.0493051335, -0.0591049455, 0.0148168355, 0.0673420504, 0.0336528048, -0.0407925360, 0.0248550624, 0.0485970452, -0.0532987118, -0.0700664297, 0.0522067025, -0.0686982647, 0.0928410366, -0.0857331082, -0.0746344551, 0.0904474929, 0.0360620543, 0.0100925714, -0.0647550076, 0.0544557795, -0.0949031338, -0.0163436159, 0.0017693043, 0.0433807895, 0.0981544480, -0.0484610796, -0.0475204699, -0.0454233661, -0.0493834503, -0.0473678112, -0.0692658424, -0.0146744698, -0.0634297431, 0.0988044962, 0.0055990443, 0.0050419345, -0.0592827313, 0.0546913221, -0.0683374852, 0.0396971181, -0.0257842317, 0.0603459403, -0.0085139275, 0.0013963953, 0.0503368154, 0.0839554295, -0.0637303889, -0.0060680881, -0.0810312033, 0.0281067863, -0.0224156827, -0.0640116483, 0.0908291116, 0.0153379217, -0.0068864375, 0.0039833784, 0.0169937164, -0.0623893514, -0.0227764398, -0.0547606461, 0.0965583101, 0.0125846639, 0.0857651308, -0.0113747120, -0.0713029876, -0.0114544407, -0.0993166938, 0.0280878320, -0.0395891927, 0.0886958167, 0.0041719228, -0.0042623058, 0.0083808452, -0.0139291734, 0.0891570374, 0.0379221663, -0.0754490867, 0.0666044429, 0.0054008514, -0.0534073114, 0.0037396699, 0.0057557076, 0.0857316926, -0.0159205943, 0.0795165077, -0.0796851367, -0.0698652267, 0.0493193343, 0.0758539960, 0.0001906157, 0.0656997487, 0.0376961902, -0.0635824203, -0.0156112462, 0.0243996605, -0.0798303112, -0.0424067974, 0.0076973215, 0.0819625333, -0.0231177360, 0.0951265618, -0.0145493746, -0.0263590813, 0.0513047054, -0.0588734858, -0.0205589980, 0.0085929185, 0.0427473262, -0.0686560869, 0.0109299198, 0.0029670447, 0.0875754431, -0.0425370932, -0.0421087034, 0.0561439767, -0.0351676717, 0.0070853457, 0.0962815508, 0.0025485307, -0.0918009505, 0.0716040358, -0.0832274929, -0.0745943785, 0.0252522454, 0.0324771479, 0.0856764987, 0.0650388673, 0.0040853024, -0.0434731506, 0.0726434663, 0.0492756590, -0.0552130006, 0.0977227911, 0.0550376847, -0.0609322786, -0.0349306613, -0.0206087381, 0.0730809048, -0.0667680949, -0.0340372100, 0.0761769488, -0.0394311436, -0.0280013308, -0.0104763508, -0.0231904238, -0.0565552227, -0.0452146530, -0.0714587718, 0.0269791409, 0.0680284575, 0.0767033622, -0.0574261919, 0.0292062983, -0.0240375772, 0.0259840712, -0.0111700296, 0.0280608013, -0.0176925436, 0.0354060903, -0.0871709809, -0.0891746283, 0.0504221991, -0.0129566193, 0.0829985216, -0.0390129350, -0.0880391821, 0.0463540033, 0.0787515119, 0.0726723447, 0.0243865252, 0.0308802351, -0.0702026635, 0.0777069405, -0.0858111903, 0.0674613938, 0.0827070698, 0.0766743198, -0.0939185396, 0.0077627450, -0.0850096941, 0.0530327782, 0.0355032906, 0.0053359494, -0.0414870977, 0.0937615708, -0.0062638298, -0.0744975060, 0.0694608763, 0.0439573303, 0.0318146721, 0.0784662738, -0.0292437524, 0.0776193663, 0.0896708742, -0.0261353701, 0.0374143794, -0.0163389221, -0.0751470551, -0.0138819665, 0.0599072203, 0.0161975399, 0.0949061885, -0.0708877593, -0.0893106684, 0.0279462561, 0.0470988527, 0.0397373661, -0.0703718662, -0.0639515668, 0.0507347658, 0.0612588450, -0.0080361813, -0.0372715220, 0.0985131338, -0.0312664509, 0.0669332966, -0.0460054874, -0.0270582438, -0.0865506455, -0.0817266703, 0.0436500385, 0.0518130735, -0.0084354877, -0.0967947990, -0.0952769518, 0.0533469692, 0.0717424378, -0.0535570867, 0.0777883008, 0.0288069025, -0.0814705640, -0.0566990636, 0.0389468744, 0.0155386925, 0.0450597033, 0.0754422620, -0.0594391339, -0.0132895708, -0.0936959013, -0.0081509352, -0.0561561100, -0.0428737402, -0.0488236919, 0.0279649273, 0.0242665038, 0.0098524541, 0.0636433437, 0.0768529698, -0.0382436998, 0.0419225022, 0.0147772580, -0.0813640803, -0.0373793617, -0.0431937464, 0.0113153458, 0.0449133441, 0.0541424975, 0.0367678180, -0.0095128566, -0.0008907765, -0.0169061646, 0.0296062306, 0.0440421179, -0.0439435244, 0.0871399716, 0.0602731183, 0.0584128872, 0.0133975297, 0.0792391524, 0.0033025518, 0.0655273423, -0.0817547590, 0.0453043059, -0.0335393697, -0.0541011579, -0.0925423428, -0.0686791688, 0.0428285077, -0.0914192945, 0.0278378054, -0.0152510852, -0.0452899449, -0.0088023394, -0.0688273460, 0.0881678537, -0.0055802613, 0.0584700629, -0.0737808943, -0.0853586420, -0.0599043146, -0.0481175184, -0.0807768553, 0.0242254511, 0.0158701688, 0.0768078789, -0.0633791685, -0.0324095711, -0.0480010025, -0.0124801397, -0.0439103842, 0.0431873277, -0.0130190104, 0.0505623296, 0.0463813022, 0.0395595804, 0.0895105675, 0.0624551997, -0.0693649277, -0.0360197797, 0.0626677051, 0.0465470627, -0.0180500522, 0.0356983170, 0.0838698819, -0.0500424393, 0.0168340430, -0.0124647841, 0.0509615615, -0.0040988177, -0.0804378018, -0.0580682270, 0.0157305971, 0.0052539557, 0.0236468762, 0.0336490944, 0.0506487414, 0.0887882486, -0.0760102496, 0.0629862323, -0.0169633403, -0.0250453502, 0.0090148672, -0.0594880842, -0.0242359191, -0.0157858357, 0.0715728328, 0.0433076099, -0.0827689618, 0.0460710302, 0.0807358995, -0.0177347660, 0.0865877941, -0.0754937381, 0.0099565759, -0.0727031231, -0.0622812770, -0.0087133422, 0.0155399814, -0.0331824273, 0.0295780227, 0.0561700389, 0.0336569026, 0.0840382054, 0.0222068802, 0.0527379736, -0.0519487858, -0.0209545866, 0.0580945984, -0.0695966929, 0.0165654197, 0.0102889314, 0.0588378385, -0.0470976830, -0.0814278573, 0.0129902810, 0.0765888765, 0.0364231542, -0.0134882927, 0.0018836483, -0.0382654443, -0.0581295267, -0.0827933326, -0.0764291286, -0.0944621116, 0.0521381870, -0.0466892011, 0.0699271187, -0.0885360017, -0.0290513486, 0.0024249777, -0.0955743566, -0.0500293262, 0.0661674961, -0.0888267979, -0.0839971751, 0.0455854163, -0.0487205759, 0.0479219928, -0.0356651992, 0.0718771443, 0.0118060112, 0.0159118399, -0.0978652239, 0.0226850063, 0.0958772972, -0.0005454272, -0.0138807520, 0.0828680024, -0.0698991790, 0.0944386497, -0.0034635067, 0.0714446381, -0.0254623145, 0.0646063164, 0.0042168871, -0.0550889261, 0.0862134472, 0.0481374338, 0.0575033650, 0.0701244399, 0.0360894874, -0.0889115557, -0.0374809504, -0.0710283294, 0.0192322955, -0.0600141771, -0.0819599181, 0.0982672200, -0.0923504606, -0.0475460775, 0.0583675578, 0.0276994184, 0.0801466778, -0.0290972963, -0.0888962969, 0.0709062293, 0.0159604773, -0.0266662836, -0.0118036717, -0.0288629308, 0.0128175244, 0.0253054574, 0.0998229310, 0.0614199713, 0.0972065255, 0.0077712759, 0.0338599756, -0.0245184675, -0.0774971992, -0.0187981576, 0.0435558334, 0.0454645678, 0.0489397272, -0.0100254789, -0.0613205209, 0.0431252047, 0.0839372948, -0.0601138845, -0.0755270720, 0.0426174626, 0.0442360416, -0.0155427679, 0.0559763238, -0.0275801644, 0.0250447020, 0.0711267218, -0.0547249317, 0.0974088237, -0.0787924528, -0.0867831931, 0.0559278056, 0.0552193448, -0.0370790735, -0.0833679214, -0.0375385545, -0.0674802810, -0.0005979985, 0.0897307172, -0.0737681836, 0.0012191534, 0.0524596646, 0.0697990134, -0.0507892855, -0.0847554207, 0.0479828194, 0.0199387521, 0.0596174970, 0.0716540292, 0.0227309018, 0.0446574017, 0.0564425662, -0.0407551527, 0.0094492659, 0.0317363217, -0.0343907326, -0.0069340691, 0.0597714707, -0.0083454400, -0.0196549669, 0.0994016156, 0.0724751428, -0.0930521041, -0.0411365740, -0.0244824663, -0.0900676474, -0.0674756542, -0.0696437359, -0.0882177353, -0.0231348500, 0.0412974581, 0.0501546189, 0.0780370310, -0.0503220074, 0.0596670583, -0.0469477437, -0.0413073786, 0.0380933806, 0.0222375616, -0.0198054314, 0.0685021207, -0.0258437842, -0.0287887603, -0.0927071571, -0.0657475740, -0.0667065158, 0.0128909796, -0.0123724490, 0.0806005672, 0.0841315761, 0.0418348536, -0.0094847679, 0.0013029799, 0.0017755777, 0.0282124802, -0.0252120271, -0.0861030146, -0.0504914038, 0.0742276385, -0.0216515064, -0.0922150388, 0.0538403019, 0.0433836207, -0.0589183085, 0.0653351322, -0.0720134526, 0.0836652741, 0.0970996097, 0.0594722107, -0.0485465303, 0.0154103786, 0.0135341659, 0.0177783743, -0.0601919182, 0.0763565376, -0.0893682018, -0.0975535437, -0.0890983865, 0.0546334758, -0.0556656606, 0.0602279380, -0.0968380943, -0.0277922601, -0.0831761360, 0.0360353962, 0.0359609351, -0.0386101492, -0.0706341714, -0.0149878040, 0.0061784014, 0.0021121278, -0.0468733311, -0.0520901941, -0.0457487367, -0.0036754608, 0.0148923621, 0.0808140710, -0.0295066088, -0.0677199662, -0.0275884122, 0.0355003551, 0.0178928375, 0.0180061832, -0.0621807091, 0.0480998233, -0.0062870011, 0.0656998679, -0.0550846830, 0.0173254982, -0.0982883498, 0.0626306608, -0.0301955938, -0.0706176013, 0.0068897232, 0.0747141317, 0.0566340014, -0.0081462413, -0.0072474927, 0.0244368315, 0.0425061658, -0.0726893693, 0.0825392976, -0.0670820475, -0.0602377430, -0.0165389776, 0.0328970626, -0.0397150777, 0.0346488282, -0.0236420855, -0.0870801732, 0.0789288357, 0.0382888094, 0.0614722744, -0.0462890863, -0.0732482672, -0.0906542093, -0.0148688331, 0.0066351146, 0.0924345478, -0.0183071122, 0.0867715105, -0.0996947289, 0.0708464608, -0.0643367544, -0.0820352808, -0.0312460884, 0.0528922155, 0.0272509083, -0.0916402340, -0.0537573099, 0.0940436199, 0.0671100393, 0.0009926558, 0.0704413429, -0.0607040897, -0.0081871524, -0.0816164762, 0.0239163190, 0.0522551313, -0.0405430794, -0.0911076590, 0.0814016387, -0.0591893904, -0.0353138223, -0.0355821103, 0.0058078542, -0.0331721306, -0.0292862207, -0.0253971368, 0.0352087542, -0.0371527225, -0.0063454658, -0.0954539999, 0.0389112011, -0.0336628929, -0.0178118721, -0.0983654037, -0.0803087205, -0.0866081044, 0.0042979494, 0.0750039294, -0.0458140634, 0.0612607226, -0.0573408864, -0.0903588086, -0.0859091803, 0.0762917027, -0.0528471954, -0.0189997926, -0.0174789876, -0.0627571791, -0.0075013861, 0.0033070818, -0.0633697510, -0.0657905117, 0.0303826854, 0.0401786640, 0.0731301829, 0.0124831200, 0.0009625405, -0.0454879515, -0.0754533783, 0.0706121996, -0.0357283354, -0.0366887599, 0.0943832919, 0.0142920017, -0.0619801059, 0.0758951381, -0.0613915436, -0.0061823353, -0.0046180263, 0.0040905252, 0.0929974392, 0.0919290558, -0.0702525601, -0.0886295065, 0.0780680850, -0.0767285377, 0.0268650576, 0.0768261030, 0.0780099407, 0.0898051932, 0.0910643414, 0.0573932007, 0.0086053610, 0.0172163993, -0.0744896680, 0.0017461553, -0.0496339314, -0.0402368084, -0.0592938922, -0.0411575101, 0.0032797307, -0.0758139640, 0.0853630081, -0.0565578453, 0.0417762771, -0.0837042108, -0.0127326995, -0.0440843813, 0.0335130766, -0.0237830430, 0.0064149350, -0.0581013225, 0.0152776986, 0.0771472529, 0.0941446796, -0.0451433659, 0.0080901831, -0.0580432676, 0.0496497825, -0.0983144566, 0.0349435136, 0.0305440500, 0.0568926558, -0.0484846346, 0.0374494568, -0.0958075523, -0.0618980639, -0.0674783289, -0.0556775592, 0.0315997079, 0.0035476238, -0.0009042993, -0.0761694163, 0.0602883771, 0.0179796219, -0.0631485730, -0.0529402755, -0.0989356786, -0.0023078471, 0.0947936252, -0.0235252157, -0.0707029849, 0.0381785408, -0.0112014264, 0.0967480019, -0.0456602573, -0.0672598183, -0.0999876782, 0.0417758897, 0.0898820236, 0.0111728907, 0.0911633000, 0.0036292523, -0.0790017098, 0.0626655892, -0.0971410796, 0.0175911933, -0.0540913828, -0.0834153146, 0.0557640567, 0.0258494690, -0.0412133932, -0.0465431474, 0.0254765972, 0.0170777068, 0.0292344317, 0.0638981834, 0.0550214723, -0.0945497975, 0.0811358765, 0.0252005383, 0.0781816021, -0.0560286045, 0.0110852495, -0.0443022028, 0.0956111029, -0.0292665958, 0.0402194038, -0.0361976847, -0.0216145068, 0.0367122367, 0.0650889203, 0.0403474793, 0.0003252774, -0.0995924994, 0.0259095505, -0.0700129718, -0.0759970173, -0.0648291558, 0.0724046901, -0.0639774799, 0.0196550637, 0.0798110440, 0.0155190006, -0.0603218339, 0.0052258223, -0.0348224193, -0.0124080405, -0.0972431451, -0.0326647535, -0.0971460566, 0.0591562763, 0.0344243571, 0.0316572860, -0.0512556322, 0.0991583094, 0.0845071152, 0.0805915073, -0.0712702274, 0.0955385491, 0.0535031334, -0.0159279108, -0.0298304111, 0.0778608546, 0.0072393417, -0.0346701369, -0.0276338086, 0.0492805466, -0.0480574630, -0.0065769702, -0.0092188343, 0.0535754040, 0.0787734762, -0.0750233680, -0.0651161671, 0.0646067187, -0.0102237016, -0.0427465439, -0.0174463242, 0.0061579496, -0.0510610342, 0.0217635632, -0.0532742254, 0.0181781277, 0.0926399752, 0.0721669868, -0.0672028512, -0.0399464145, 0.0242286474, -0.0375034586, -0.0491696112, 0.0585468784, 0.0322475955, 0.0108000040, -0.0898391977, 0.0514561608, -0.0340755731, -0.0172387585, 0.0338300988, 0.0511801317, -0.0167121664, -0.0221488252, -0.0363900214, -0.0493834279, -0.0719299316, 0.0841719583, 0.0758328661, -0.0644538850, 0.0959124044, 0.0350588039, -0.0766617283, -0.0477560274, -0.0477459915, -0.0273101553, -0.0778434053, -0.0892084613, 0.0422068164, 0.0334962383, -0.0085798949, 0.0037579760, 0.0514126346, -0.0929772854, 0.0061683208, -0.0261278898, -0.0748312026, 0.0994471982, -0.0247511119, 0.0779813305, -0.0220187157, -0.0247009546, 0.0083954111, -0.0537778400, -0.0945181623, 0.0915171877, 0.0076607689, -0.0715528950, -0.0591819063, -0.0234570503, -0.0489747524, 0.0394074395, -0.0867406130, 0.0887372568, -0.0143431872, -0.0564451702, 0.0003891960, 0.0033455640, -0.0407247059, -0.0928700939, 0.0355296358, -0.0877677724, -0.0652307719, -0.0302499309, -0.0995848179, 0.0772584453, -0.0536308065, 0.0032559857, -0.0181176439, 0.0104014650, 0.0062864795, 0.0712656006, 0.0292842910, 0.0200086087, 0.0641941503, -0.0909570456, -0.0543881170, 0.0761117414, 0.0576576665, 0.0795446113, -0.0102203339, -0.0216378942, 0.0722097233, -0.0997006893, 0.0261079296, -0.0197578669, 0.0557300523, 0.0026876926, -0.0250305161, -0.0076754540, -0.0396459103, 0.0400627181, -0.0104945451, -0.0388796329, -0.0933063999, -0.0334176570, -0.0509342216, 0.0173477381, -0.0190661401, 0.0875035599, -0.0212631449, -0.0008667707, -0.0765898004, -0.0459207296, -0.0267386213, -0.0841119066, -0.0838552266, 0.0363687947, -0.0310265794, -0.0868488327, -0.0582287312, 0.0655426756, -0.0644873157, -0.0448766463, 0.0468498543, -0.0271001607, -0.0560583137, 0.0004011616, 0.0768321827, -0.0109312311, -0.0659066439, -0.0786433443, -0.0279888660, -0.0238777846, 0.0138658732, -0.0948538780, 0.0529855266, 0.0624725297, -0.0457265861, 0.0492164865, -0.0558124781, 0.0176433548, -0.0200167671, 0.0123682022, -0.0449589491, 0.0280885920, -0.0695141777, 0.0511489436, -0.0360900387, 0.0921453908, 0.0145648718, -0.0528287403, 0.0985801890, -0.0481756218, -0.0619765297, 0.0129364282, 0.0883168206, 0.0012578964, 0.0582509115, -0.0887032971, -0.0626174957, -0.0765801221, -0.0304665789, -0.0588555820, 0.0957780406, 0.0867629573, 0.0444950387, 0.0204995126, 0.0312216803, -0.0180835500, 0.0022241622, 0.0683548972, -0.0200406089, -0.0388400815, -0.0127473325, 0.0238388032, 0.0644287542, -0.0140702277, -0.0562966838, -0.0582622774, 0.0632950142, -0.0701003298, 0.0381693617, -0.0340421423, -0.0982258320, -0.0690123066, -0.0053792447, 0.0848691240, 0.0106922835, -0.0061442405, 0.0011568069, -0.0767556205, -0.0725899935, 0.0227159485, 0.0076154470, 0.0825207308, 0.0847500637, 0.0008570701, 0.0345047787, -0.0351781622, -0.0079973489, 0.0382493511, -0.0852739811, 0.0077695400, -0.0661045313, 0.0408830717, -0.0315228924, -0.0892225504, 0.0218232647, 0.0362183377, 0.0889958814, -0.0688108653, -0.0300734043, 0.0978322551, 0.0252201781, -0.0031995773, 0.0436783507, 0.0176399201, 0.0768316016, 0.0044234991, 0.0197863132, 0.0759575441, 0.0675963685, -0.0125057250, -0.0088651404, 0.0200886279, 0.0638769343, 0.0792133585, 0.0529856011, 0.0118034333, 0.0582702234, 0.0928927436, 0.0548467711, 0.0180951580, -0.0199713260, -0.0373089537, -0.0199471265, -0.0623388290, 0.0240552649, -0.0523475409, 0.0131771788, -0.0221564546, -0.0080882311, -0.0740462318, -0.0750625357, -0.0051420480, -0.0933455974, -0.0605515018, 0.0343942419, 0.0162018090, 0.0216373950, 0.0890174583, -0.0788709149, -0.0878903419, 0.0567357615, 0.0378352478, 0.0751097724, -0.0656973124, -0.0131672621, 0.0472941622, -0.0911303088, -0.0992023721, 0.0767515972, 0.0192212313, -0.0928675681, -0.0420953035, 0.0531539991, 0.0656110570, -0.0775063261, -0.0099852532, 0.0219568759, -0.0867188945, 0.0012346730, -0.0627669841, 0.0117188916, -0.0168732628, -0.0637052506, 0.0674168840, 0.0154128820, 0.0140667409, -0.0040477067, 0.0429395959, 0.0786214098, 0.0196034908, -0.0112102777, 0.0048349649, 0.0482869372, -0.0423099063, 0.0244417414, 0.0168540925, -0.0133162737, 0.0083947182, -0.0261452645, 0.0269138590, -0.0384363644, -0.0787571669, 0.0214042887, -0.0295177475, 0.0886796042, 0.0497041270, -0.0427771583, -0.0474474914, -0.0046570525, 0.0697108731, -0.0666519180, -0.0850320384, 0.0425351933, -0.0108538419, -0.0878748447, 0.0001924783, -0.0950837880, -0.0116239041, 0.0727717355, 0.0293224081, -0.0229519606, 0.0454482064, 0.0662392452, -0.0997546241, -0.0683576614, 0.0965810046, -0.0073908791, -0.0457914136, 0.0725722536, -0.0022333860, 0.0826330706, 0.0274159387, 0.0479966924, 0.0588208959, 0.0636768118, -0.0858936310, 0.0468620583, 0.0196069255, -0.0249640718, 0.0514604822, -0.0855958983, 0.0199057832, -0.0464701168, -0.0262932554, -0.0221772417, 0.0783334300, -0.0378830209, -0.0580890439, 0.0160254985, 0.0252023414, 0.0566705540, 0.0363607630, -0.0308552980, -0.0487662330, -0.0225913078, 0.0466952994, -0.0740351677, -0.0853835121, -0.0497135893, -0.0268691331, 0.0449042544, 0.0874266401, -0.0946214423, 0.0847754553, 0.0320735648, 0.0385525897, -0.0231772214, -0.0787130594, -0.0022763461, -0.0766434222, -0.0903838873, 0.0358728841, 0.0137808323, 0.0809277073, 0.0092422962, 0.0950520113, 0.0747021511, 0.0273528174, -0.0049074143, -0.0358935371, 0.0828211978, -0.0667258501, -0.0339311361, 0.0239395127, 0.0785489306, -0.0136938840, 0.0011212379, -0.0224196687, 0.0832264647, 0.0720031336, -0.0738854855, 0.0014456734, -0.0583946481, -0.0525539890, -0.0205648392, -0.0279220790, -0.0979173928, -0.0238563269, 0.0771662667, -0.0996265188, 0.0719419494, 0.0456223562, 0.0665611699, -0.0789885521, -0.0625381768, 0.0355034396, -0.0336732417, -0.0912574083, -0.0718390495, 0.0498070493, -0.0353862047, -0.0658975393, -0.0065184087, -0.0568537004, 0.0427870229, -0.0041765943, -0.0430676006, -0.0002687722, 0.0191323310, -0.0004077181, 0.0796820596, 0.0316128954, 0.0270580277, 0.0785649344, -0.0817278400, 0.0310819820, -0.0176023021, -0.0991952941, 0.0232969299, -0.0665563345, -0.0760081261, 0.0840765461, 0.0578973964, -0.0403017998, 0.0871667936, 0.0774266049, -0.0353486538, -0.0554855131, -0.0953353420, -0.0269404203, -0.0218935236, -0.0940563232, 0.0446201786, 0.0782339051, 0.0625861362, 0.0652717873, 0.0084675997, 0.0907323882, -0.0232889652, -0.0261412859, 0.0530654863, -0.0588128567, 0.0275514796, -0.0790305361, -0.0596068166, -0.0383470058, -0.0273898095, 0.0091904178, -0.0311151966, 0.0737423375, 0.0510413721, 0.0473371819, 0.0580969527, -0.0867761374, -0.0150361061, 0.0244332999, -0.0873661041, -0.0217168555, 0.0067347512, -0.0447510481, 0.0681251511, -0.0259937048, 0.0252739713, -0.0961901695, 0.0039752945, -0.0257315412, -0.0638303757, -0.0134486407, -0.0645053387, -0.0194883794, -0.0623953342, -0.0177066326, 0.0447364077, -0.0315705985, -0.0872677788, -0.0302123576, -0.0149398595, 0.0691777691, -0.0933636948, -0.0480931289, 0.0406306311, -0.0598646887, 0.0589292273, -0.0431785844, 0.0957663581, 0.0975242332, -0.0845736042, -0.0040877312, -0.0332736000, 0.0875779167, 0.0552662387, 0.0038867965, 0.0970642641, -0.0775205866, 0.0422315374, 0.0396795943, 0.0692126527, -0.0763593689, -0.0438201688, -0.0382594578, -0.0111166686, 0.0172379017, 0.0443827882, 0.0502904728, 0.0145550519, -0.0115319490, 0.0083590299, 0.0201082677, -0.0165993720, -0.0293925032, 0.0231218338, 0.0995233282, -0.0690944940, -0.0971378610, 0.0085737258, 0.0232499614, -0.0792686492, 0.0056518316, -0.0720468760, 0.0916890129, 0.0746703371, -0.0117867440, 0.0796831623, 0.0346927717, -0.0713932514, 0.0593665913, -0.0971280858, 0.0377481952, 0.0000199080, -0.0871511027, -0.0106038302, 0.0412194058, -0.0362926275, -0.0593338981, 0.0952722803, 0.0412738398, 0.0097525865, 0.0340618566, 0.0145354047, -0.0858272314, 0.0643250272, -0.0607488640, 0.0377878174, 0.0750262216, -0.0121368393, -0.0802717432, -0.0956796184, 0.0634046569, -0.0614597797, 0.0586181358, -0.0730314478, 0.0639612451, -0.0787238330, -0.0374563709, 0.0440313593, -0.0126345158, -0.0005363971, 0.0240391269, 0.0340587124, 0.0206492916, -0.0356995836, -0.0279609188, -0.0107978582, 0.0516600683, 0.0729451850, -0.0056134909, 0.0220515504, -0.0297421440, -0.0440680981, 0.0194373876, 0.0045319051, 0.0486687496, -0.0319800377, 0.0273123011, -0.0065819472, -0.0173228011, 0.0756651685, -0.0427372940, 0.0813357905, -0.0471798182, 0.0673008934, -0.0226023421, 0.0814463869, 0.0432199314, -0.0548396818, 0.0494176820, -0.0184255615, 0.0949375853, -0.0264810771, 0.0911753699, -0.0623872988, 0.0614717230, -0.0621917024, 0.0536969677, -0.0659431964, -0.0015277117, -0.0755575448, 0.0578034893, 0.0238667279, -0.0506192446, -0.0929559022, -0.0104103833, -0.0912389755, -0.0683977604, 0.0503233895, 0.0902385786, 0.0998909250, -0.0528316498, -0.0738214031, -0.0765986219, -0.0254359022, 0.0476962849, 0.0725120381, 0.0673573241, 0.0933033302, 0.0220013633, 0.0328215435, 0.0479648337, -0.0221561939, 0.0758524910, -0.0447438024, -0.0696378201, -0.0244156122, 0.0096870661, 0.0634012446, -0.0406887531, 0.0445460752, -0.0197685510, -0.0599922650, 0.0559198633, -0.0422731638, -0.0665316135, -0.0419914015, -0.0060401931, -0.0036230832, -0.0999546573, 0.0780326352, -0.0799865276, 0.0792714879, 0.0076963454, -0.0969832465, -0.0672978610, 0.0257498696, 0.0014898032, 0.0060026199, 0.0463326499, -0.0915155932, 0.0618841425, -0.0950081348, 0.0356693342, -0.0973003879, 0.0397139266, -0.0390653871, 0.0397530273, 0.0986523405, 0.0993902013, 0.0409542844, -0.0373354182, 0.0028137714, 0.0553809628, -0.0619375966, -0.0851871520, -0.0948203355, 0.0721278414, -0.0109879971, -0.0998878255, 0.0803187564, 0.0188948885, 0.0974877104, 0.0693305954, 0.0272395834, 0.0704514310, 0.0239125490, -0.0928631797, 0.0403725132, -0.0570652969, -0.0880224705, -0.0801225677, -0.0580973402, 0.0488609597, -0.0599733591, 0.0897017196, 0.0802871212, 0.0712529942, -0.0182152987, 0.0116946697, -0.0767916888, 0.0535021350, 0.0753557160, -0.0830134898, -0.0074753314, -0.0444542170, -0.0465108640, 0.0107810050, 0.0205300823, 0.0178403854, 0.0550628230, -0.0936475545, 0.0319115445, 0.0238634571, -0.0036046281, 0.0089204088, -0.0761629120, 0.0592113957, -0.0185321793, 0.0552905127, 0.0942919329, -0.0092613474, -0.0505109094, -0.0652161390, 0.0737614110, 0.0247063190, 0.0442174897, 0.0546380803, 0.0614823774, -0.0342956334, 0.0073334947, 0.0426536128, -0.0441359989, 0.0383369401, -0.0579234622, 0.0457670763, 0.0052198172, -0.0465512536, -0.0450558923, 0.0061199218, 0.0922761485, 0.0061734691, 0.0731298998, 0.0498198345, -0.0667178631, -0.0650175065, -0.0170850009, -0.0038996711, 0.0743286684, 0.0620486811, -0.0473716967, -0.0137373656, 0.0076772422, 0.0692202374, 0.0244568363, 0.0187788978, 0.0855073258, -0.0604730844, 0.0734911039, 0.0959114358, 0.0486032292, -0.0841933042, 0.0736205354, 0.0819416717, -0.0139114857, 0.0586355403, -0.0981392190, 0.0254231170, 0.0071579218, -0.0677714646, 0.0611696765, 0.0133942589, 0.0063069612, 0.0591793731, 0.0053254142, 0.0687680915, -0.0337126702, 0.0866883770, -0.0262181535, 0.0249614939, -0.0641901791, -0.0972173735, 0.0004024729, -0.0106921941, -0.0906207114, -0.0531499647, 0.0914515033, -0.0340311080, -0.0795762539, 0.0348614529, -0.0802368373, -0.0404090881, -0.0888150930, 0.0134584904, 0.0622730926, 0.0122439638, -0.0117015094, 0.0864742324, -0.0787643194, -0.0520127080, -0.0305283815, -0.0397415422, 0.0309643969, 0.0262762532, 0.0686344579, 0.0610944703, 0.0714626983, 0.0462298915, 0.0452687219, 0.0899246410, 0.0447187647, -0.0792012215, -0.0992854834, 0.0184439421, 0.0281082913, -0.0296546444, -0.0848653540, -0.0696464032, -0.0207901746, 0.0955289379, -0.0345822573, -0.0432504416, -0.0056106076, 0.0807912573, 0.0850526318, -0.0722128600, -0.0075165033, 0.0245371312, -0.0775809735, -0.0240982026, -0.0800193325, -0.0216141716, 0.0125427693, -0.0935165659, -0.0289428234, 0.0281003490, 0.0623885468, -0.0295129791, -0.0066706166, 0.0533115342, 0.0989368036, -0.0905343816, -0.0289337859, 0.0052256137, 0.0355450436, 0.0744149014, -0.0457712188, 0.0790946558, -0.0097259730, -0.0922144428, -0.0112425089, 0.0513368174, 0.0643084720, -0.0466956384, 0.0396401659, -0.0269513577, 0.0781070963, -0.0231835097, 0.0033388883, 0.0684439018, 0.0668438748, -0.0869080797, 0.0813875869, 0.0627414659, 0.0614000335, -0.0394122601, -0.0825557485, -0.0444614403, -0.0866490379, -0.0039650649, 0.0278829560, 0.0593374297, 0.0760456100, 0.0846942142, -0.0318683162, -0.0200311393, -0.0119917840, 0.0048199147, -0.0016297325, 0.0261337236, -0.0501135103, 0.0649511591, 0.0905938670, -0.0637780726, -0.0130827203, -0.0447425619, 0.0138945580, 0.0727521405, 0.0025415868, 0.0202090964, -0.0791844875, 0.0844434574, -0.0018324107, 0.0961439088, -0.0687721968, 0.0828532949, -0.0345549583, -0.0028403774, 0.0077113658, 0.0592203364, 0.0108258948, 0.0031929761, -0.0720710978, -0.0139146298, -0.0554935709, -0.0348707661, 0.0958862081, 0.0220231563, 0.0446386412, -0.0344612151, -0.0411341190, 0.0956026390, 0.0713168457, -0.0367049947, -0.0181015283, 0.0008025393, 0.0011627451, -0.0949255005, 0.0252627358, 0.0473453030, -0.0322097763, -0.0859932899, -0.0384278297, 0.0330370441, -0.0840733498, -0.0295246616, -0.0337515324, 0.0834535882, 0.0604017004, -0.0495953336, 0.0050695688, -0.0477821603, -0.0325611830, 0.0606272295, 0.0911138728, 0.0121478289, 0.0566110685, 0.0958319232, -0.0909590498, 0.0321545675, -0.0603370927, 0.0521918759, 0.0716306642, 0.0856347308, 0.0064014941, 0.0562409684, 0.0506996438, 0.0816012099, -0.0649400055, -0.0742283612, -0.0878781304, -0.0381575115, -0.0966149345, 0.0945212618, -0.0795459300, 0.0952981785, 0.0442351773, 0.0312684849, 0.0450560525, 0.0809707716, -0.0241661519, -0.0779400840, 0.0197345763, 0.0857048258, -0.0861837864, 0.0114573687, -0.0954681858, 0.0574943796, 0.0405918136, 0.0313427672, -0.0720268935, 0.0795833096, 0.0185563788, 0.0744292960, -0.0985654145, 0.0130559653, -0.0544697754, -0.0074208751, 0.0211840644, 0.0556367412, 0.0170493126, 0.0667742565, -0.0667423010, 0.0003263950, 0.0491641089, -0.0554825552, -0.0149991289, -0.0470662825, 0.0768027082, 0.0678107515, 0.0951983407, 0.0280417725, 0.0253128335, 0.0513953641, 0.0617111996, -0.0581640974, -0.0814529657, 0.0143464059, -0.0301618129, 0.0467387512, 0.0401606634, -0.0739953518, -0.0855357200, 0.0829395279, -0.0801337212, -0.0065927058, 0.0801725611, 0.0059067458, -0.0328282863, 0.0272779539, -0.0610704422, -0.0505402349, -0.0269117802, 0.0313125327, 0.0909939483, -0.0352094397, -0.0755988359, -0.0555603020, 0.0808803514, 0.0855444744, 0.0580952391, -0.0122445077, 0.0648563132, -0.0426522009, 0.0736320093, 0.0885161832, 0.0927455202, 0.0006068945, 0.0937191322, -0.0697120652, 0.0298309401, 0.0782760605, 0.0810124353, 0.0758327916, 0.0873085484, 0.0176682249, -0.0937694833, -0.0585379116, -0.0846168548, -0.0666193962, 0.0659926459, 0.0060915723, -0.0723551065, 0.0617842153, -0.0434573665, -0.0667932034, 0.0258782580, 0.0277399793, 0.0871183351, -0.0057957619, 0.0917284265, 0.0770898536, -0.0362848788, 0.0520030782, -0.0329395309, -0.0525227562, 0.0635168031, -0.0467807315, 0.0033033341, -0.0798014179, 0.0163858682, -0.0904475227, 0.0971662328, 0.0755408034, -0.0312115923, 0.0603801087, -0.0276278257, -0.0847869664, 0.0500958636, -0.0413689390, -0.0001817197, -0.0439569242, -0.0170755386, 0.0425699428, 0.0547604635, -0.0441514030, 0.0543174818, 0.0187133327, 0.0632892326, -0.0234375224, -0.0134811401, -0.0626799837, 0.0407059416, -0.0545221083, 0.0465727523, -0.0112487301, -0.0154708177, -0.0462157242, -0.0855721235, -0.0262621865, -0.0245126262, 0.0527237430, 0.0830892399, -0.0469493866, 0.0284855589, -0.0401350521, -0.0980512425, -0.0347002000, 0.0445530191, 0.0411624387, 0.0314367339, 0.0003307834, -0.0448336378, 0.0568402782, -0.0249402747, -0.0515581146, -0.0995992646, 0.0466758534, 0.0009541735, 0.0758082941, 0.0976426676, 0.0710677430, 0.0888549611, 0.0337181613, 0.0516925529, -0.0549542904, -0.0730418935, -0.0540718101, -0.0539110415, -0.0596129410, -0.0627574697, 0.0930492952, -0.0999922529, 0.0040011182, -0.0012731105, -0.0507636070, -0.0300218612, 0.0753189847, -0.0098348856, 0.0461752638, 0.0925756171, 0.0517647490, -0.0642572418, -0.0696159378, -0.0713818818, -0.0457456112, -0.0093544945, -0.0607547052, 0.0078544617, 0.0328422263, -0.0145761222, -0.0299104229, -0.0710001960, -0.0500273481, 0.0599087700, 0.0190912932, -0.0333011374, -0.0316957235, 0.0009561032, -0.0864099264, 0.0354910567, 0.0379570201, -0.0937213227, -0.0128582716, 0.0932056978, 0.0312487558, 0.0156474337, 0.0035735369, 0.0344269052, 0.0568571761, 0.0875814632, -0.0272791833, -0.0730157122, 0.0476256087, 0.0468385890, 0.0389740542, -0.0720045120, 0.0006596297, -0.0983544812, -0.0838613063, 0.0611576065, 0.0879261568, 0.0897631720, 0.0010842830, -0.0376245268, 0.0141438693, -0.0369798690, -0.0333325118, -0.0535476916, 0.0016595349, 0.0621638522, 0.0769460723, -0.0434029102, -0.0168379322, 0.0538392141, 0.0611220077, -0.0088731050, 0.0142119676, 0.0293589905, -0.0891391560, 0.0504248813, -0.0711812228, 0.0304312930, -0.0406456701, -0.0414821878, 0.0770525262, 0.0785759762, -0.0353560001, -0.0694890469, 0.0331114009, 0.0188354030, 0.0224192590, -0.0232418776, 0.0448250547, -0.0635785833, -0.0535372756, -0.0625111833, 0.0703323558, 0.0925224051, -0.0522175096, 0.0213057026, -0.0721920729, -0.0580437891, 0.0557940975, -0.0751540661, -0.0118161887, 0.0590847209, 0.0163399726, -0.0556370281, -0.0595387928, -0.0053704232, 0.0836741254, 0.0117265210, 0.0702012256, -0.0803720728, -0.0569196716, -0.0388319008, -0.0984232947, 0.0307058170, -0.0963179842, -0.0742743239, 0.0976158604, 0.0157788023, 0.0568291470, 0.0056543574, -0.0263719782, -0.0505383983, 0.0756582543, 0.0388096347, -0.0275547057, 0.0104631931, 0.0025009364, -0.0123413801, 0.0986346975, 0.0867434219, 0.0944883600, 0.0821974799, 0.0073541626, -0.0512702949, -0.0268306509, 0.0232896060, -0.0850014687, 0.0637194440, 0.0014816970, 0.0912682787, 0.0622164980, 0.0389300659, 0.0642917231, 0.0699536130, -0.0231206417, -0.0316507593, -0.0175992474, -0.0260315165, 0.0132505447, 0.0464195982, -0.0243431106, -0.0952485353, -0.0522217266, -0.0221772939, -0.0089335889, 0.0606543794, 0.0055933446, -0.0821186528, 0.0788818076, -0.0954173580, -0.0862734541, -0.0000805408, 0.0293500200, -0.0319434181, -0.0455209501, -0.0946250707, 0.0377595648, 0.0355990455, -0.0947132111, -0.0313111544, -0.0200660974, -0.0222217813, 0.0994308516, 0.0318420157, -0.0972282216, 0.0970350727, -0.0877788812, 0.0866916850, 0.0491326526, -0.0646605790, -0.0509856455, 0.0583530888, 0.0445380285, -0.0627981201, 0.0894967392, 0.0725535378, -0.0742355585, -0.0752239004, 0.0237197876, -0.0051044002, -0.0734001622, 0.0415279195, -0.0071601644, 0.0213799030, -0.0080339164, 0.0204242021, -0.0414210819, 0.0832382217, 0.0592127070, 0.0599517301, -0.0394857898, -0.0042060390, -0.0749977380, 0.0938691869, 0.0656369701, -0.0770135671, 0.0090438128, 0.0287494734, -0.0650508702, -0.0705966726, -0.0565702431, 0.0094453841, -0.0893312693, -0.0634104982, 0.0549414232, -0.0872352868, -0.0860246643, 0.0056735501, -0.0624973290, -0.0081249475, -0.0984826311, 0.0575005487, -0.0845161453, -0.0742704868, 0.0166576356, 0.0260024741, 0.0111549348, -0.0900455490, -0.0015864149, 0.0160053521, -0.0604254492, 0.0562610403, 0.0230029821, -0.0440840498, -0.0593691580, 0.0992554650, 0.0643039420, 0.0921980217, 0.0758661702, -0.0736619011, -0.0416033268, -0.0371569172, 0.0124865994, -0.0777278915, -0.0357447416, -0.0571095943, 0.0447691455, 0.0859223083, -0.0101421326, 0.0818384662, -0.0021294579, 0.0502627417, 0.0076298490, 0.0142081976, -0.0489515327, -0.0411365516, 0.0815504268, -0.0042888895, 0.0072570071, -0.0542046539, -0.0705715418, -0.0371643305, 0.0496045575, -0.0841464996, -0.0493977070, -0.0577564016, -0.0016090423, 0.0777489021, 0.0644934252, -0.0070435777, 0.0397684798, -0.0660071149, -0.0318612084, 0.0148950815, -0.0344758481, 0.0459595248, -0.0044566169, 0.0827853456, 0.0381737277, -0.0643965453, -0.0266815424, 0.0041051880, 0.0766159073, 0.0578143075, -0.0818687454, 0.0548404232, 0.0891850218, 0.0972124115, 0.0299972519, -0.0747783184, -0.0982190594, -0.0865433738, 0.0614761338, -0.0884012505, 0.0520072207, 0.0253809914, 0.0394445732, -0.0406273864, -0.0012448281, 0.0760925487, -0.0670733452, 0.0116281733, -0.0730659515, 0.0641327575, -0.0222815052, -0.0681330413, 0.0795584247, -0.0062407255, -0.0903100297, -0.0890954509, 0.0336214527, -0.0498058088, -0.0835268945, -0.0835189074, 0.0328777507, 0.0153810009, 0.0818186030, 0.0069829226, 0.0556618646, 0.0322596356, -0.0449932329, 0.0505181327, -0.0417743437, 0.0475365147, -0.0198591948, -0.0963191316, 0.0030227676, -0.0808825046, -0.0316918865, 0.0304597393, -0.0579589121, 0.0868890509, 0.0668728128, -0.0458259583, -0.0884357467, -0.0189192072, -0.0795300454, 0.0313762501, 0.0661575124, 0.0158999413, -0.0663408786, 0.0004148707, -0.0279868841, -0.0093178526, -0.0281924009, -0.0860900655, 0.0510960594, -0.0430500768, 0.0999840572, -0.0021336824, 0.0214861855, 0.0900963768, -0.0917268321, 0.0555663332, 0.0841725543, 0.0709567294, -0.0992404968, -0.0995777398, -0.0521479137, 0.0919023976, 0.0063582212, 0.0026716217, 0.0487817004, -0.0095680207, 0.0996767953, 0.0738156810, 0.0466692969, -0.0998925194, -0.0448033325, 0.0442782715, -0.0230572969, -0.0453312397, 0.0898172930, 0.0857181624, 0.0374877974, -0.0555079952, 0.0730511025, 0.0553366169, -0.0316236466, -0.0698670894, 0.0232968554, -0.0689661279, 0.0920522735, 0.0269552693, 0.0919578746, 0.0477701649, 0.0027248412, -0.0575631857, 0.0087305754, -0.0330730900, -0.0121532455, 0.0434304252, 0.0139207393, 0.0046815425, 0.0689914003, -0.0516006723, -0.0572322123, -0.0499568693, -0.0087095723, -0.0697213188, 0.0120239705, 0.0852516666, 0.0099441558, 0.0324380621, 0.0363790765, -0.0844067559, -0.0325038210, 0.0573947951, 0.0730431601, 0.0569164082, -0.0031354874, 0.0234839916, 0.0266130939, 0.0077967420, -0.0200886726, 0.0711121038, -0.0642205253, 0.0964521691, -0.0161601081, 0.0291729942, -0.0866161361, 0.0272013471, 0.0185567364, -0.0272086412, 0.0247461051, -0.0996784195, -0.0475991741, 0.0057171136, 0.0454390272, -0.0224677101, 0.0843040273, -0.0020920485, 0.0901648477, -0.0220457539, -0.0995231196, 0.0689272359, -0.0688768625, 0.0960993543, -0.0010067970, 0.0063367337, 0.0273949131, 0.0397484526, 0.0094036832, -0.0321409479, -0.0519210100, -0.0830291733, -0.0782599449, -0.0052623302, 0.0208285600, 0.0172409564, -0.0807720870, -0.0414463282, -0.0565802827, -0.0060403571, 0.0167079419, 0.0867839530, -0.0629997551, -0.0716171265, 0.0361074731, 0.0334377065, 0.0587790981, 0.0328487232, -0.0438766256, 0.0639840886, 0.0235662460, 0.0232245699, 0.0152835622, -0.0480033159, -0.0783195272, 0.0607668385, -0.0172726139, -0.0439987183, -0.0774115548, 0.0149633139, -0.0078777075, -0.0972660109, 0.0938157514, -0.0561208986, -0.0323752388, 0.0288296714, -0.0874538198, 0.0606622025, -0.0288395882, -0.0236746818, 0.0985087380, -0.0729567036, 0.0040421933, 0.0253751948, -0.0016457066, -0.0850973651, -0.0488070734, 0.0711695626, 0.0328968093, -0.0146744028, 0.0955662057, -0.0258949772, 0.0599628016, -0.0416129120, 0.0939567164, -0.0036440119, -0.0687548146, -0.0904356465, -0.0905591026, 0.0635663494, 0.0575139746, 0.0775131062, -0.0118381232, 0.0807324722, 0.0087415427, -0.0517832302, -0.0964338556, 0.0055344105, -0.0460535288, -0.0131677166, -0.0373968855, 0.0199933797, 0.0412209257, -0.0040913075, 0.0642392710, 0.0527531430, 0.0213892236, -0.0053288192, 0.0255513415, 0.0997164324, 0.0103619099, -0.0132606253, -0.0934410840, 0.0331898406, 0.0167007446, -0.0565279983, -0.0633165836, -0.0485005379, 0.0712023005, -0.0157945603, -0.0356670618, -0.0330823883, 0.0995859578, 0.0844013020, 0.0271201357, 0.0459387824, -0.0504600778, -0.0720452070, 0.0670979097, 0.0879372880, 0.0317457244, -0.0970360786, 0.0652360693, 0.0546710566, -0.0380964763, 0.0402631238, -0.0261002555, 0.0559991077, 0.0890069976, 0.0757811591, -0.0855071768, -0.0737946779, -0.0629763603, 0.0282700136, -0.0024549738, -0.0678843260, -0.0401330963, -0.0744213089, 0.0684342459, 0.0298056379, 0.0328999981, -0.0943586826, 0.0658183768, 0.0638902411, -0.0119856372, -0.0811807886, 0.0096807480, -0.0513477102, 0.0130635723, 0.0778561905, -0.0001713485, 0.0839904621, 0.0171730518, 0.0196542516, -0.0085742474, 0.0240568146, 0.0420889631, -0.0757698044, 0.0363069251, 0.0615777299, 0.0656953529, 0.0382822528, -0.0318602771, -0.0402170196, 0.0646423176, 0.0234709978, 0.0130319819, -0.0135424882, -0.0899012834, -0.0852338299, -0.0244133025, 0.0737239793, 0.0938486084, 0.0942584798, 0.0033118725, -0.0095764622, -0.0720664263, -0.0169855803, 0.0611221567, 0.0438169017, -0.0990874767, 0.0084953532, 0.0509685501, -0.0528393984, 0.0544761643, 0.0249490961, -0.0236053914, 0.0362094417, 0.0799601153, -0.0088653341, 0.0221841335, -0.0110558718, 0.0261422619, 0.0585586056, -0.0967235342, -0.0898111612, 0.0071569905, -0.0430357717, 0.0569580272, 0.0386552289, 0.0187113509, 0.0150943547, -0.0507418886, -0.0115604624, -0.0977500901, -0.0496832617, -0.0500148535, -0.0413467176, 0.0128099695, 0.0409011617, 0.0039021969, -0.0089204758, 0.0521808639, -0.0871282592, -0.0927551016, 0.0539286360, -0.0572844744, -0.0807176381, 0.0384597853, -0.0415527336, 0.0472145155, 0.0989589468, -0.0775781423, 0.0884211138, 0.0163978338, 0.0756390616, 0.0272501782, 0.0750105157, 0.0278329179, -0.0561716333, 0.0645367429, 0.0300920978, 0.0883459076, 0.0797702298, -0.0550051443, 0.0382694080, 0.0881440416, 0.0856863335, -0.0650465041, -0.0714492574, -0.0918282792, -0.0615623482, -0.0278330073, 0.0217010230, -0.0714275837, -0.0652768910, 0.0080162063, -0.0030319691, -0.0510768183, -0.0550876632, 0.0503690466, -0.0145517141, -0.0933707505, -0.0761787891, 0.0217341930, -0.0412515886, -0.0866990611, -0.0194302574, 0.0627308115, 0.0432031378, -0.0040658936, -0.0452469364, -0.0154039636, -0.0936450735, -0.0723994225, -0.0320235714, -0.0388783477, -0.0504771955, -0.0591251366, 0.0413544849, -0.0814445764, -0.0859417245, 0.0141355768, 0.0348725542, -0.0461458676, -0.0669717789, -0.0889760777, 0.0076463223, -0.0808299780, -0.0922541171, -0.0882050022, -0.0308933705, 0.0632363632, 0.0519804731, -0.0447815172, 0.0663555339, -0.0578390621, -0.0333149433, 0.0253967717, -0.0073702782, -0.0513643026, 0.0494499281, 0.0716177747, 0.0772776827, -0.0711921901, 0.0276202187, -0.0339421257, -0.0372456536, 0.0905983672, 0.0158117265, 0.0479595736, -0.0184869990, -0.0733003169, 0.0302435830, 0.0319888666, 0.0524312034, 0.0141955838, 0.0014048591, 0.0467345044, -0.0405765288, -0.0267289653, 0.0161562413, -0.0363012999, -0.0931982547, -0.0818038955, 0.0492864922, -0.0590794347, -0.0103176609, 0.0390070453, 0.0572945401, -0.0141984224, 0.0191124901, 0.0252239928, -0.0637566149, -0.0640315115, 0.0747650638, 0.0134699121, -0.0151062757, -0.0136039034, 0.0229879841, -0.0342493504, -0.0895274431, -0.0180118829, -0.0327722058, 0.0236585140, 0.0879063085, -0.0868513584, 0.0285129771, 0.0901444480, -0.0202033967, -0.0208725706, -0.0034542829, 0.0908289030, 0.0754199550, -0.0758403763, -0.0625664964, -0.0751128420, -0.0077249780, -0.0433362015, -0.0934816822, -0.0966464058, 0.0570825413, -0.0216757506, 0.0588798746, -0.0811334848, -0.0508110300, -0.0464684479, -0.0191679224, -0.0834626704, -0.0253319293, -0.0929670110, -0.0899907351, -0.0539941080, -0.0926397070, -0.0990451127, -0.0787751451, -0.0460271835, -0.0383776911, -0.0513498075, 0.0266656205, 0.0539151654, 0.0474181846, -0.0447357185, 0.0844066665, -0.0690405816, -0.0969841480, 0.0890163854, -0.0868220553, 0.0124772042, 0.0791843161, 0.0291993394, 0.0970559642, 0.0216602087, 0.0773036256, -0.0559389591, 0.0458859876, -0.0958846360, 0.0044280738, -0.0013527647, -0.0269369632, 0.0862068459, -0.0937355086, 0.0730160251, 0.0956173614, -0.0001823157, -0.0786429420, -0.0532220379, 0.0419786945, -0.0928935781, 0.0337289646, -0.0980034396, 0.0190716982, -0.0158665404, 0.0563313290, -0.0860168487, -0.0271099061, -0.0018727556, 0.0330565199, 0.0573641732, -0.0395293944, 0.0272480324, -0.0324330106, -0.0238202363, -0.0174321681, -0.0590626486, 0.0852597430, 0.0588784292, 0.0113018528, 0.0602387413, 0.0507867113, -0.0964990854, 0.0390738323, 0.0925172046, 0.0767435506, 0.0650845543, -0.0794817209, -0.0237706155, 0.0023731962, -0.0249244720, -0.0507620573, 0.0630641952, -0.0746272355, -0.0266956836, 0.0876837745, 0.0258747414, -0.0944265649, -0.0806751698, -0.0725806206, 0.0573421791, 0.0174380988, 0.0971089676, -0.0317106992, -0.0853015706, -0.0422478430, -0.0989300981, 0.0208443850, -0.0790991336, -0.0300034508, 0.0874888673, 0.0126747116, 0.0889285877, -0.0870039016, -0.0028427616, 0.0677754655, 0.0380443111, 0.0589984134, 0.0272717997, 0.0042428523, -0.0326783434, 0.0166482478, 0.0294488445, 0.0815529153, -0.0251526386, -0.0305174142, -0.0896328911, 0.0992280468, 0.0570143685, 0.0706166551, 0.0095536709, 0.0816820338, 0.0045085698, 0.0278951451, 0.0192401633, -0.0668018162, -0.0843858942, 0.0514867976, 0.0007171854, -0.0916520879, -0.0117691308, -0.0859318003, 0.0663059428, 0.0018521771, -0.0835985690, 0.0934333876, 0.0672109798, -0.0928021222, 0.0046543851, -0.0680526271, 0.0426375195, 0.0151410550, -0.0856931955, 0.0650930926, 0.0962268338, 0.0839194283, 0.0745098814, -0.0630850568, -0.0318432599, -0.0823650584, -0.0669570416, -0.0971021205, -0.0415046699, 0.0568184182, -0.0125830397, -0.0596721172, -0.0147875771, -0.0264836326, 0.0441638455, -0.0621919893, -0.0512221828, -0.0654171258, -0.0889686868, -0.0173711330, -0.0971683785, 0.0249735340, 0.0800992772, -0.0393938087, 0.0553221926, -0.0151566714, 0.0186129063, 0.0653886124, 0.0034346804, -0.0337478891, 0.0634115711, -0.0560509674, -0.0320032090, -0.0694231763, -0.0206283331, -0.0208677799, 0.0391179398, -0.0940816179, -0.0657657161, -0.0950909853, -0.0834915861, -0.0980790183, 0.0275682434, -0.0952285528, 0.0729940459, 0.0301533714, 0.0896527246, -0.0121722221, -0.0581682920, -0.0700003356, -0.0037629828, 0.0584496930, 0.0115192682, 0.0131435394, 0.0789868608, -0.0572041534, 0.0927620009, -0.0039293319, -0.0396352783, 0.0233741775, 0.0967531279, 0.0511622652, 0.0005273074, -0.0920042768, 0.0937098935, 0.0558413938, 0.0781999603, 0.0264617875, 0.0905996338, 0.0298389271, 0.0031057373, -0.0411584862, 0.0787865594, -0.0223201290, -0.0085354075, -0.0489063263, 0.0259885266, 0.0593968406, -0.0513810180, -0.0015651956, -0.0840843692, 0.0175232440, -0.0465465300, -0.0421022177, 0.0132663697, -0.0347700119, 0.0292901322, 0.0635717139, -0.0709302649, -0.0112235099, -0.0666486025, -0.0993779674, -0.0331697464, 0.0626727119, 0.0710996166, 0.0130445957, -0.0727249607, -0.0573354959, 0.0852558091, -0.0999712721, -0.0812502354, 0.0198240727, 0.0755175129, 0.0966501758, -0.0224648491, -0.0502181053, -0.0598150007, 0.0843599364, -0.0871876255, 0.0231864452, 0.0123343468, 0.0136075243, 0.0715076998, 0.0080101490, 0.0424165204, 0.0612925962, 0.0578132644, 0.0929794088, 0.0496471003, 0.0659097508, 0.0648727939, 0.0221354961, 0.0932748839, 0.0862277076, 0.0560361221, 0.0779303387, 0.0541913733, -0.0300543755, 0.0280734971, -0.0501207374, -0.0032992586, 0.0868768767, 0.0545379594, 0.0371962562, 0.0950368121, -0.0112622231, 0.0242390856, -0.0122140869, -0.0954719782, -0.0436405428, -0.0263307840, -0.0395525470, -0.0974295139, 0.0627422854, -0.0328360572, 0.0791062787, 0.0308497623, 0.0464896038, 0.0767940059, -0.0788629279, 0.0243134499, 0.0275122151, -0.0917105004, 0.0540916249, 0.0013718158, 0.0547727421, -0.0318167433, 0.0558320507, 0.0788610652, 0.0837902054, 0.0405784175, 0.0805552080, -0.0699493438, -0.0843481794, 0.0065311193, -0.0388930105, -0.0896303654, -0.0158078447, 0.0227274150, 0.0991548821, 0.0586235747, -0.0439404026, 0.0233190283, 0.0214058384, 0.0196311921, -0.0696012527, -0.0644404665, -0.0134464055, -0.0659647286, -0.0013735071, -0.0413436890, 0.0987016186, -0.0506498590, 0.0173656195, -0.0620098598, 0.0110272169, -0.0909769312, -0.0672632456, -0.0303189009, 0.0182731599, 0.0827144906, 0.0545866564, -0.0536398180, 0.0181263462, 0.0307724997, -0.0623505823, -0.0526258945, -0.0864543244, 0.0095166191, 0.0627739951, -0.0122071505, 0.0457981601, -0.0425863974, 0.0650853887, -0.0660899431, -0.0960603505, 0.0306881741, 0.0560785308, 0.0717535987, -0.0453389175, 0.0370337740, -0.0851046592, 0.0849450305, -0.0450555570, -0.0579538122, 0.0057728067, 0.0151694044, 0.0678709224, -0.0119629353, -0.0943610445, -0.0143820494, 0.0511069819, 0.0131139755, 0.0317540839, -0.0676802695, -0.0819692165, -0.0556095131, -0.0844833180, -0.0262564868, -0.0190215856, -0.0350692049, 0.0928236470, 0.0898609683, 0.0105887875, 0.0096466541, 0.0301581398, 0.0769603476, -0.0724762231, 0.0354135707, -0.0062815696, 0.0964904800, -0.0135729536, -0.0035989285, -0.0364446864, -0.0296834931, -0.0574509390, -0.0129282475, -0.0540587902, -0.0449751392, 0.0420427397, 0.0852920339, -0.0850256458, 0.0361905620, 0.0446525589, 0.0264186636, 0.0974464640, 0.0513361916, 0.0441004261, 0.0458915457, -0.0521055460, 0.0738264844, -0.0998549014, 0.0051074997, 0.0224085078, -0.0781844109, 0.0561496243, 0.0760173276, -0.0804122686, 0.0501293913, 0.0291250423, 0.0865743682, -0.0407450907, 0.0959220454, 0.0991081521, 0.0924757943, 0.0144382268, 0.0581943020, -0.0376274362, -0.0024054796, -0.0396974348, 0.0967732742, 0.0589872673, -0.0130684376, -0.0977914333, 0.0946392044, 0.0136991516, -0.0475132465, -0.0933294818, 0.0117278099, -0.0204514265, -0.0568182953, 0.0956281200, 0.0041693226, 0.0435054526, -0.0204061270, 0.0119497031, 0.0832914338, -0.0928518549, -0.0407438762, -0.0535618551, -0.0733593926, -0.0775295943, 0.0798873976, -0.0607177727, 0.0202430263, 0.0515049472, 0.0925172046, 0.0710897520, 0.0685090497, -0.0299664959, 0.0868481472, 0.0969961211, -0.0077092424, 0.0501162782, 0.0208290368, -0.0313065276, 0.0291480049, 0.0435883775, 0.0821949020, -0.0701229349, 0.0585569367, -0.0230237693, -0.0570704713, 0.0049909130, -0.0575174801, 0.0572503284, -0.0645602196, -0.0181934386, 0.0185960755, -0.0017118230, -0.0254370198, -0.0715133920, 0.0956775472, -0.0818699375, -0.0179789290, -0.0584042780, 0.0483805463, -0.0014221221, -0.0289357156, -0.0156630725, 0.0758120790, -0.0504059084, 0.0802476928, -0.0345826373, -0.0977979451, 0.0483813807, 0.0850212798, 0.0930498317, -0.0365582481, -0.0428355448, -0.0475560687, -0.0263436586, -0.0390113592, 0.0812073722, -0.0551520586, -0.0234040022, -0.0551245213, -0.0045913458, -0.0026100427, 0.0929001644, 0.0098093972, -0.0482413284, -0.0735918060, -0.0908987075, -0.0800037831, -0.0243199840, -0.0784054771, 0.0134253278, -0.0695462003, -0.0343922153, -0.0368715525, 0.0428277329, -0.0853530169, -0.0087338910, -0.0512463823, 0.0822869763, -0.0014346093, 0.0801365599, -0.0504165180, -0.0347377509, -0.0824565440, -0.0433536544, 0.0298994556, 0.0555543676, -0.0936417580, 0.0090839639, 0.0527226999, 0.0804403350, 0.0012594461, -0.0551122688, 0.0226644278, -0.0037440807, 0.0739582852, -0.0369130149, 0.0574769750, -0.0321181789, -0.0022486895, 0.0518890396, -0.0005113110, 0.0217388123, 0.0689950958, 0.0098773465, -0.0537703522, 0.0066087246, -0.0915077701, -0.0255108625, -0.0272410661, 0.0531409010, -0.0292770416, -0.0923037305, -0.0147434697, -0.0236007422, 0.0777392909, 0.0019567758, -0.0846290365, -0.0535430908, 0.0912515596, 0.0165953189, -0.0864334628, 0.0724482313, 0.0572868362, -0.0735661760, -0.0773219317, -0.0773948878, -0.0696396083, 0.0302515700, -0.0859562159, -0.0672801286, -0.0339253694, -0.0843333006, 0.0843576416, 0.0645733103, 0.0469011739, -0.0588285215, 0.0477394834, -0.0108273253, 0.0783018544, 0.0843316838, -0.0432555191, -0.0001273900, -0.0020264611, 0.0592302755, -0.0762149096, -0.0509557985, -0.0113977939, -0.0929295048, -0.0734942183, 0.0784953609, 0.0500227734, 0.0246969461, -0.0923084989, 0.0689131543, 0.0399024263, 0.0057408586, -0.0018412098, -0.0117492676, -0.0973147377, 0.0189824328, -0.0376666784, 0.0544164404, 0.0197983533, 0.0901169851, -0.0145509690, 0.0802738443, -0.0443742052, 0.0524879768, 0.0772242323, -0.0964380503, -0.0378125422, -0.0663320273, 0.0417227522, -0.0732566863, -0.0936596394, -0.0873643383, -0.0092399865, -0.0959730893, 0.0033281296, 0.0288610235, 0.0360925868, -0.0635725558, -0.0796555728, 0.0654845312, -0.0051215440, 0.0061069727, -0.0899850130, -0.0220220834, 0.0615844503, -0.0558528677, -0.0042886510, 0.0646711364, -0.0068994313, 0.0908498839, 0.0380412564, 0.0578676984, 0.0835230127, 0.0802891031, -0.0538090952, -0.0088724345, 0.0777909979, 0.0638125464, 0.0760308579, -0.0335359573, 0.0442797020, -0.0481810831, -0.0374505073, 0.0013866201, 0.0444966629, 0.0810186937, 0.0069368854, 0.0299257711, -0.0523058884, -0.0069111139, -0.0066225082, -0.0227201730, 0.0845425352, 0.0865705237, 0.0008768067, -0.0818539858, -0.0432450548, 0.0962282643, -0.0814862475, -0.0976095721, 0.0715129450, 0.0558531061, -0.0855113491, 0.0424478278, -0.0413157232, -0.0273726955, 0.0112301856, -0.0993681476, -0.0208168775, -0.0335395113, -0.0932183489, 0.0951147154, -0.0516311415, 0.0165417194, -0.0336846560, 0.0432336852, 0.0224771053, -0.0090039968, 0.0775951818, -0.0234203786, 0.0180468112, 0.0825095400, -0.0895903856, 0.0337389782, -0.0867603049, -0.0143649802, 0.0647635236, 0.0204643011, 0.0902204737, 0.0686985031, -0.0309587494, 0.0965115055, -0.0648499504, 0.0555590466, 0.0131834745, -0.0553952456, 0.0174597278, 0.0708961263, -0.0633423105, -0.0545227528, 0.0996421799, 0.0832625851, 0.0894143656, 0.0225564688, -0.0178030729, 0.0987655148, -0.0206922740, -0.0118209347, -0.0761581659, -0.0834614486, -0.0867474303, 0.0010432750, 0.0261004046, 0.0771928057, 0.0309003070, -0.0466787815, 0.0494092926, 0.0667421296, -0.0796361193, 0.0414375141, 0.0123988837, 0.0124061331, -0.0777907595, -0.0031104833, -0.0777580962, 0.0088834539, -0.0777214989, -0.0507102497, 0.0504713133, -0.0034002066, -0.0980133340, 0.0204236507, 0.0279024616, -0.0858226344, 0.0820877776, 0.0921911225, 0.0784974620, 0.0613599494, 0.0074296966, -0.0432325602, -0.0944099426, -0.0907521248, 0.0011939034, 0.0278921202, -0.0844301730, 0.0756586865, 0.0172557384, -0.0133381113, -0.0862911269, 0.0656612888, -0.0389608853, -0.0988386422, -0.0071929470, 0.0912112221, -0.0712592602, 0.0644719377, 0.0763178095, -0.0491213314, -0.0456704870, 0.0023948923, -0.0292525291, 0.0746231154, 0.0811705366, 0.0087253079, -0.0083157569, -0.0388105176, -0.0666494370, 0.0124848858, -0.0889268443, -0.0926659629, 0.0007840842, -0.0990308523, -0.0130659789, -0.0522071607, -0.0167486668, 0.0591827109, 0.0419985577, 0.0926307216, -0.0288895145, -0.0714335218, -0.0101287588, -0.0635595620, -0.0927234665, -0.0201404318, -0.0299000293, -0.0644378439, -0.0324906558, -0.0166472197, 0.0430504754, 0.0095610395, 0.0777144954, -0.0259706974, -0.0936177522, -0.0378382914, 0.0014309883, -0.0633577555, -0.0347511023, -0.0323128253, -0.0220385343, 0.0439924523, -0.0550037138, 0.0643487051, 0.0137374178, 0.0096704513, -0.0809011236, -0.0699403509, 0.0102615580, -0.0489005558, 0.0587077662, -0.0473002680, 0.0008657202, -0.0601798557, -0.0561077856, 0.0209496245, -0.0187107101, -0.0759359822, -0.0811753497, 0.0536786988, -0.0478695631, 0.0179058313, -0.0170298591, -0.0190261602, -0.0851257071, -0.0078545064, 0.0378036574, -0.0490669981, -0.0661542416, -0.0625282973, 0.0923193023, -0.0665188134, -0.0622305870, -0.0105215758, -0.0356711894, -0.0342480391, -0.0785035342, -0.0162825808, -0.0535980463, -0.0247951001, -0.0534947626, -0.0127798766, 0.0974288210, -0.0928244367, -0.0271057859, -0.0347179174, 0.0820538774, -0.0610004924, -0.0508332737, -0.0247687325, -0.0594415665, -0.0217361674, -0.0290554315, 0.0050457269, -0.0044265017, -0.0364319533, -0.0090733543, -0.0230985880, -0.0646429509, -0.0412018076, 0.0062042475, 0.0795728490, -0.0277117044, -0.0358795896, -0.0472591892, 0.0102272034, 0.0163291469, 0.0680415854, -0.0447098501, -0.0912446007, 0.0088311434, -0.0102686137, 0.0812581256, 0.0463562682, -0.0828954428, -0.0685477704, 0.0768878683, -0.0437789932, 0.0156377330, 0.0929064974, -0.0290841311, -0.0379612707, 0.0624390617, -0.0656342953, -0.0145108923, 0.0708716437, -0.0871886238, -0.0391166471, 0.0584498718, 0.0891500190, -0.0512229688, -0.0043706149, 0.0584846810, 0.0787762478, -0.0812472105, -0.0990700945, -0.0542127378, -0.0122544989, -0.0374404937, -0.0969065651, -0.0212642178, 0.0553540215, -0.0394543894, -0.0578228012, 0.0776290968, -0.0336433873, -0.0071468353, -0.0415310636, 0.0661522225, -0.0406464115, 0.0975672081, -0.0400848873, 0.0988119617, 0.0348604247, -0.0205320120, 0.0308977887, 0.0107481927, 0.0743584707, -0.0431353338, -0.0353928059, 0.0004540682, -0.0531571880, 0.0200964436, -0.0379933119, -0.0836615339, 0.0610962138, -0.0885125175, -0.0016462579, 0.0664864555, 0.0564486459, -0.0580359958, -0.0295783281, 0.0444789901, 0.0438035056, 0.0776759461, -0.0171688795, -0.0671204627, 0.0402237698, 0.0707382932, -0.0180268064, 0.0049668774, -0.0997048840, -0.0679042637, 0.0995865539, -0.0223871246, -0.0738021880, -0.0824419707, 0.0375348106, 0.0913194641, 0.0758290365, 0.0243558139, -0.0006277785, -0.0040158257, -0.0053939372, -0.0164361224, 0.0944983736, -0.0712069720, 0.0170256868, -0.0193876475, -0.0271113664, -0.0531720184, -0.0884929225, 0.0715706572, 0.0929449126, -0.0227821320, 0.0320460871, 0.0733966902, 0.0753605440, -0.0988516137, -0.0181396231, 0.0273389891, 0.0889556482, 0.0761284158, 0.0834584907, 0.0058969706, -0.0333339944, -0.0964350924, 0.0013452321, -0.0968785509, 0.0708946511, 0.0990148857, 0.0564854816, 0.0932724997, -0.0920990035, -0.0185629576, -0.0327244774, 0.0073870420, -0.0286947042, 0.0605551675, 0.0644103810, -0.0257784128, -0.0358022004, -0.0473430417, 0.0543930754, -0.0311711580, -0.0698358268, 0.0870567039, 0.0333624855, 0.0545680746, 0.0342365578, 0.0941705778, -0.0608579628, 0.0208294392, -0.0162702799, 0.0341717675, 0.0263593271, 0.0929869190, -0.0095538870, -0.0376956724, -0.0407836698, -0.0189632922, -0.0819689259, 0.0841349587, -0.0009467155, 0.0312844738, -0.0368991867, -0.0880319849, 0.0031961203, -0.0236108750, 0.0843749568, -0.0877803341, 0.0845006779, -0.0487793200, -0.0418007374, 0.0882459357, 0.0757916942, 0.0153495818, -0.0040757656, -0.0786376446, 0.0791280940, 0.0170777813, -0.0737266764, -0.0757804364, 0.0922075585, 0.0933476016, -0.0199411139, 0.0863937214, -0.0750957951, -0.0065625161, -0.0193540305, -0.0329774395, -0.0750784874, -0.0831534415, 0.0847416148, 0.0795157477, -0.0676790923, -0.0701497793, 0.0261502489, 0.0530287996, 0.0734238848, 0.0668369010, -0.0963819548, 0.0544210151, -0.0932871103, -0.0029533133, 0.0567970946, -0.0903871804, 0.0427901521, -0.0487296358, -0.0372381434, 0.0496078506, -0.0403498895, 0.0966781452, 0.0489860997, -0.0576011427, -0.0715325624, 0.0886692777, 0.0954031274, -0.0305881724, -0.0959560424, -0.0161369815, 0.0064805746, 0.0605080798, -0.0951070786, 0.0008143410, 0.0683642700, -0.0256981403, 0.0433466658, -0.0056843981, 0.0442336574, 0.0857655481, -0.0622579344, 0.0371538624, 0.0597902015, -0.0591448061, 0.0774425939, 0.0362825468, 0.0854878500, -0.0294658914, -0.0354010090, -0.0717500001, -0.0351163596, -0.0414635204, -0.0909843966, 0.0046226010, -0.0404940136, 0.0856202915, 0.0091627091, -0.0205214992, -0.0053315610, 0.0114709586, -0.0169126242, 0.0390691534, -0.0313206464, 0.0531247333, -0.0082180053, 0.0452426150, -0.0065283775, -0.0082306862, -0.0230551511, -0.0414478555, 0.0061268061, 0.0901209638, 0.0597654060, -0.0732600465, 0.0890476182, 0.0127798766, 0.0898213461, 0.0788303390, -0.0765315071, 0.0939874724, 0.0413369462, 0.0023031980, 0.0979283080, -0.0626772195, -0.0361940414, 0.0656738505, -0.0033398122, 0.0054342002, -0.0197926760, -0.0291074514, -0.0673442632, 0.0388971642, -0.0022656173, -0.0898927450, -0.0803625584, -0.0651016682, 0.0634303167, -0.0265637860, -0.0499541052, 0.0747740492, 0.0729949251, 0.0534564927, -0.0822878629, 0.0569344983, 0.0389489457, 0.0151316673, 0.0274324939, 0.0682599619, 0.0108442754, 0.0850125775, 0.0810196623, -0.0725771189, -0.0885404348, 0.0785245970, 0.0263351277, 0.0816951469, -0.0601110719, 0.0780376717, -0.0634291172, -0.0056069866, 0.0893125013, 0.0249077082, -0.0588299036, -0.0515897274, -0.0506980903, -0.0335659236, -0.0411606096, 0.0828551129, -0.0162273198, -0.0922107697, -0.0976869613, -0.0226685554, -0.0771535411, 0.0206879377, -0.0647567287, -0.0941507146, -0.0534963869, 0.0121830478, -0.0133759528, -0.0410339609, 0.0134934187, -0.0808314532, -0.0332629681, 0.0056005269, -0.0009215623, -0.0965460315, -0.0830784068, -0.0915273651, 0.0826460198, 0.0643972829, 0.0493953750, -0.0653929710, -0.0959597826, 0.0998241380, -0.0272352919, -0.0507674478, -0.0821744949, 0.0924607292, -0.0596513040, -0.0029128343, -0.0594681986, 0.0228734761, -0.0856701136, 0.0159952641, 0.0105505213, 0.0385114625, 0.0363442972, -0.0796263218, 0.0025184378, 0.0071920902, -0.0033591986, 0.0519631878, 0.0487823710, -0.0834795460, 0.0276027992, 0.0505919680, 0.0234132782, -0.0143059269, 0.0795369670, -0.0292682201, -0.0788044930, -0.0719993338, -0.0810102448, -0.0072075576, 0.0845239386, 0.0665351674, -0.0682314187, -0.0583114885, 0.0362421349, 0.0198338032, 0.0755680874, -0.0951225311, 0.0271357074, 0.0748654678, 0.0651806369, -0.0350611657, 0.0585111901, 0.0073515400, 0.0487682894, 0.0001378506, 0.0884596631, 0.0744122043, 0.0226413012, 0.0521937087, -0.0103132725, -0.0940118581, -0.0292189121, 0.0940945372, -0.0007303953, -0.0511500835, -0.0928760543, 0.0963442102, -0.0630851984, -0.0891512185, -0.0527805351, -0.0961337313, -0.0161939412, 0.0465062186, -0.0993080661, -0.0190980881, 0.0388955548, 0.0111907944, 0.0168634877, -0.0142135173, -0.0381350033, 0.0767136142, 0.0630332455, 0.0482375100, 0.0723894313, 0.0222697705, -0.0115691423, 0.0609368309, -0.0429870375, -0.0685585737, 0.0413002446, 0.0268690661, 0.0206800923, 0.0029010028, -0.0396207832, -0.0572725050, -0.0456651449, 0.0676238015, -0.0222224742, -0.0557720922, -0.0440044887, -0.0502337217, -0.0764168948, 0.0826833919, -0.0624755137, -0.0010599345, -0.0998232365, -0.0215370879, 0.0686988160, 0.0439916626, 0.0333308652, 0.0585938022, -0.0154522434, 0.0781022534, 0.0554195419, -0.0215339437, -0.0524842255, -0.0660682470, -0.0431252718, -0.0135410577, -0.0976085886, 0.0164858326, -0.0276217461, -0.0677020997, -0.0268705115, 0.0062363595, 0.0452537760, -0.0624139570, -0.0471496359, 0.0393910632, 0.0351982191, 0.0700211748, -0.0401675217, 0.0197156891, -0.0905481130, -0.0552042983, 0.0373616442, -0.0250131860, 0.0582062677, 0.0267464593, 0.0445854142, -0.0015315264, 0.0714128241, 0.0585372224, -0.0737598389, 0.0824772343, -0.0996536538, 0.0283198133, -0.0082343817, -0.0182484835, 0.0235505849, -0.0875529572, -0.0621067286, -0.0016148314, -0.0819836110, -0.0341920406, 0.0206544176, 0.0518646762, -0.0965152010, 0.0847931579, 0.0491434857, -0.0797146112, -0.0377770923, -0.0722762123, 0.0985746607, -0.0030560717, 0.0758549049, 0.0462746397, 0.0438018814, -0.0533854254, -0.0613377802, 0.0530811623, 0.0876429603, -0.0254892856, -0.0167894587, -0.0449038744, 0.0849805549, -0.0383591168, -0.0757759362, 0.0742868260, -0.0469639301, 0.0106427222, 0.0731150582, -0.0541791208, 0.0692972913, 0.0084168911, 0.0951478258, -0.0101599917, -0.0858451128, 0.0801733062, -0.0910039470, 0.0786464736, 0.0859081224, -0.0731364712, 0.0542710796, 0.0901731476, -0.0654566735, 0.0229262561, -0.0661041290, 0.0052585378, -0.0849842578, -0.0856576487, 0.0894622579, -0.0741974115, -0.0034172535, -0.0310611948, -0.0226854533, -0.0596323982, 0.0455202535, 0.0026553869, 0.0126975775, 0.0819970444, 0.0032429472, -0.0556971096, 0.0331188962, 0.0567170903, -0.0003979951, -0.0403107405, -0.0326198786, 0.0991681144, 0.0303056762, 0.0542798266, -0.0890285522, 0.0905949399, -0.0600297712, 0.0017148480, -0.0913071632, 0.0625833943, -0.0454497822, -0.0942150354, -0.0270675868, -0.0441547632, -0.0340029001, 0.0986073539, -0.0255433545, -0.0515511297, -0.0560724251, 0.0146928579, -0.0549449921, -0.0766081810, -0.0872798190, 0.0694093034, -0.0585849769, 0.0491632745, -0.0642138273, -0.0300840884, -0.0152052417, 0.0374575630, 0.0627386346, -0.0218716636, 0.0422818139, -0.0725521594, 0.0744420514, -0.0746783987, -0.0485734232, 0.0893879160, -0.0748207346, -0.0379087925, -0.0283559784, 0.0027777702, -0.0655822530, 0.0454332307, -0.0322713107, -0.0837666541, 0.0312694386, -0.0325210840, -0.0481872559, 0.0307319388, 0.0265212134, 0.0563136414, 0.0139148235, 0.0462443605, -0.0541088097, 0.0712954029, 0.0871075168, 0.0365134701, 0.0430718735, 0.0379487798, -0.0252451897, -0.0024490580, 0.0509865060, 0.0475262478, -0.0183240399, -0.0937805697, 0.0709895566, -0.0499695800, 0.0530722663, 0.0059924871, 0.0505553260, -0.0347974300, 0.0359323695, 0.0175995082, 0.0087620988, 0.0206953064, 0.0173413754, 0.0538482144, -0.0914610177, 0.0122992024, 0.0175596476, -0.0330548733, 0.0602837577, -0.0870586410, 0.0080847517, -0.0869990140, -0.0164897889, -0.0523764156, 0.0352724120, -0.0072983950, -0.0827077404, 0.0143869147, -0.0741139874, 0.0861621872, 0.0249849111, 0.0690873936, 0.0585407093, -0.0573343746, -0.0129099339, -0.0273914561, 0.0104103088, -0.0100392103, -0.0527915470, -0.0608025081, -0.0311589018, -0.0693962127, -0.0524034984, -0.0388514772, -0.0055046827, -0.0137381107, 0.0131265372, -0.0656702965, 0.0783626363, 0.0808356330, -0.0998140126, -0.0670619011, 0.0677115396, -0.0223134980, 0.0904749110, -0.0209686533, 0.0807909742, -0.0074983612, 0.0275787190, -0.0425921679, 0.0231340677, -0.0677822828, -0.0916758776, 0.0552650765, 0.0522791371, 0.0208334178, 0.0379144028, -0.0608504303, 0.0391189530, 0.0710122362, -0.0537024736, -0.0698065311, 0.0540705249, 0.0418688729, -0.0172954798, -0.0088688359, 0.0757160708, -0.0142720491, 0.0240891427, 0.0591244772, -0.0966506526, -0.0612833276, 0.0252386108, -0.0535288565, -0.0186318159, -0.0482177995, -0.0646924227, -0.0864388719, -0.0609740503, 0.0622166470, -0.0028326064, -0.0620931163, 0.0779652819, -0.0931132808, 0.0340171829, -0.0873265490, 0.0320754126, -0.0809284672, -0.0793981105, -0.0222152025, 0.0366531685, -0.0939466506, 0.0238747597, -0.0360649824, 0.0786947086, -0.0679150373, -0.0464549772, 0.0188898295, -0.0597161539, -0.0105725303, 0.0897010341, 0.0232688636, -0.0563119426, -0.0061728731, -0.0920119509, 0.0486949161, 0.0895918086, 0.0282551572, 0.0674427226, 0.0592936352, -0.0590408109, -0.0527146570, -0.0867782608, 0.0803050771, -0.0970481634, 0.0524335578, 0.0316635892, 0.0748179033, 0.0093388334, 0.0521142259, 0.0923309997, 0.0607322529, -0.0015845075, -0.0578011274, 0.0230921283, 0.0454983488, 0.0641700551, -0.0361391082, -0.0491800085, 0.0900748745, -0.0371101350, 0.0716912076, 0.0463366583, 0.0433917567, -0.0633061677, 0.0577308461, 0.0510670021, -0.0977723151, -0.0348201543, 0.0736234710, 0.0767136887, -0.0758552998, 0.0099367127, -0.0970378444, 0.0620445088, -0.0866820142, -0.0550208092, 0.0621863082, 0.0721017644, 0.0234796256, 0.0564938858, 0.0305606201, 0.0869889334, -0.0227682814, 0.0868676230, 0.0391493812, 0.0084514618, -0.0686924011, 0.0059497356, -0.0689598769, 0.0255769566, 0.0370234326, 0.0655045733, -0.0639542341, -0.0179145113, 0.0464232191, -0.0239456668, -0.0699845329, 0.0353312269, -0.0298449248, -0.0855568647, 0.0280757919, 0.0335162953, -0.0914926305, -0.0766834468, -0.0698400959, -0.0123236626, -0.0997026935, -0.0837498158, -0.0995891094, -0.0725329146, 0.0414832160, 0.0451307371, 0.0904396847, 0.0812987164, 0.0879411921, -0.0113871843, -0.0434919856, 0.0806637332, -0.0339604840, -0.0681842119, 0.0250618234, 0.0791694149, -0.0499727726, 0.0889861658, 0.0281634107, 0.0344218686, -0.0503948443, 0.0671913847, -0.0446057320, 0.0431178138, 0.0202482194, 0.0115383416, -0.0654691756, -0.0269332901, -0.0676931590, -0.0676892251, 0.0463121459, 0.0740720704, -0.0479695089, -0.0349159464, 0.0635938123, 0.0700529143, 0.0365406051, -0.0626814142, -0.0090659857, -0.0530478470, -0.0306979865, -0.0740977302, -0.0560241938, 0.0374799296, 0.0399104133, -0.0222081915, -0.0722849146, 0.0600844845, 0.0803666785, 0.0770480856, 0.0076410323, 0.0828502253, -0.0404159799, 0.0793657377, 0.0508084968, -0.0570666790, -0.0441615582, 0.0898269191, -0.0229609460, -0.0640600696, 0.0321957096, -0.0832031742, -0.0753512159, -0.0179843903, -0.0172498450, -0.0347061604, 0.0832085088, -0.0985739753, -0.0447913408, -0.0154463798, -0.0403125063, -0.0123039261, -0.0637315065, 0.0632310137, -0.0433949493, 0.0148836151, -0.0199166536, 0.0731272027, -0.0313296542, 0.0249231830, 0.0009132847, -0.0606832989, -0.0389987938, 0.0121818334, 0.0397527292, 0.0007988960, 0.0539259389, 0.0770262554, -0.0347113386, -0.0090387315, -0.0781575665, -0.0848379657, 0.0637925193, -0.0805632323, 0.0203157440, -0.0597138889, 0.0153018013, -0.0299596041, -0.0627103820, -0.0903084055, -0.0558437593, 0.0350672081, -0.0258624107, -0.0175203532, 0.0888678804, -0.0498518012, -0.0058133826, -0.0656883493, 0.0577420518, 0.0386119857, -0.0490215532, 0.0286124721, -0.0681754649, -0.0897928476, -0.0856797472, 0.0483982340, 0.0873649195, 0.0876875147, 0.0153534189, 0.0780214295, 0.0723624900, -0.0091383904, 0.0361441448, -0.0295103565, 0.0002134070, 0.0712145343, -0.0490261093, -0.0445634611, -0.0601344109, -0.0186497718, 0.0196446925, -0.0494416021, -0.0678507388, 0.0382538363, 0.0822914615, 0.0989118144, 0.0271857753, -0.0486125462, 0.0047778115, 0.0055326670, -0.0413771160, 0.0334745720, 0.0742464736, -0.0884760842, -0.0065722242, -0.0210231319, -0.0237804204, 0.0675157830, -0.0909432694, -0.0737981349, 0.0519889370, 0.0187099725, -0.0704917163, -0.0051085204, -0.0782768279, 0.0246100202, -0.0251201168, -0.0196214169, 0.0328333452, 0.0664845034, 0.0678775981, 0.0786120221, -0.0488062166, -0.0158927441, -0.0598708652, 0.0479250029, 0.0565346703, -0.0500387922, 0.0824244991, 0.0359852836, -0.0143870339, -0.0451677814, -0.0791651979, -0.0784729943, -0.0664144754, -0.0083612427, -0.0975722820, 0.0383572355, -0.0197599679, -0.0732949004, 0.0150107890, -0.0758275241, 0.0718194023, 0.0483297780, -0.0333162546, 0.0379895642, 0.0332390741, 0.0109096989, -0.0042667836, 0.0798668936, -0.0165479630, -0.0975419506, -0.0684681386, -0.0112488493, -0.0522567742, 0.0380733982, 0.0686377510, -0.0966605917, 0.0917488113, 0.0806988552, -0.0211563334, 0.0869850889, -0.0240373388, 0.0987951085, 0.0774129853, 0.0031181797, -0.0365245342, -0.0260505900, -0.0699875131, 0.0333798602, -0.0181933418, -0.0692119822, -0.0766409412, -0.0929169208, -0.0309084654, 0.0527410731, -0.0428377390, 0.0444240049, 0.0263219550, 0.0910370871, 0.0772848651, 0.0368855223, -0.0461572893, 0.0714304969, 0.0290829912, -0.0043897852, 0.0505344644, -0.0124679580, -0.0915195271, 0.0707030818, 0.0853643194, -0.0771749243, 0.0093630105, 0.0520724580, -0.0569584370, -0.0842929333, -0.0594554916, -0.0718719512, 0.0065967813, -0.0491376407, -0.0298801437, -0.0090536848, -0.0406452902, 0.0130340084, 0.0628115162, -0.0927639008, 0.0042001754, -0.0516016260, 0.0524595752, 0.0529031083, 0.0827148631, -0.0341274515, -0.0408451557, -0.0852366686, 0.0222973600, -0.0209004134, 0.0777107552, -0.0563179031, 0.0532968715, 0.0913087353, -0.0303097516, 0.0125729293, 0.0913889632, 0.0525481924, -0.0200278312, -0.0614061132, 0.0353002772, -0.0167907029, -0.0481916666, -0.0255130529, -0.0771757141, -0.0934999511, 0.0656307265, -0.0339049101, -0.0939977393, 0.0086060986, -0.0882055312, 0.0979179218, -0.0552856699, -0.0204854459, -0.0344846025, 0.0993621573, -0.0344941616, -0.0798670799, -0.0119475350, -0.0778034478, 0.0425319746, -0.0256936997, -0.0092400536, -0.0988301262, 0.0904283747, 0.0213616118, -0.0347899422, -0.0120853409, 0.0836198106, -0.0077164173, -0.0074855536, 0.0537358746, 0.0841572955, 0.0197676420, -0.0477813743, 0.0150437579, -0.0500975363, 0.0019891262, -0.0436704420, 0.0803900287, 0.0913065448, 0.0950975940, -0.0194472820, 0.0110180825, -0.0888185278, -0.0159609318, 0.0003539324, -0.0241041407, -0.0214956030, 0.0541025177, 0.0278506055, 0.0221864209, 0.0894531086, -0.0321704596, 0.0910519138, 0.0943309292, -0.0937279239, -0.0497153290, 0.0781768635, -0.0675232187, -0.0294360369, -0.0655919760, -0.0975682512, 0.0709960535, 0.0105120167, -0.0910389200, -0.0926275253, 0.0617024228, -0.0920664072, 0.0997127369, 0.0142609626, 0.0737319961, -0.0746686906, -0.0643880144, -0.0249984264, 0.0576222911, 0.0783102736, 0.0173226595, 0.0417044833, -0.0987656340, -0.0072352439, 0.0402452424, -0.0772360563, -0.0958792940, -0.0962543041, 0.0696588829, -0.0693008676, 0.0024142489, 0.0931680277, -0.0206561834, 0.0553708151, -0.0483408682, 0.0902722552, 0.0400966480, 0.0658588931, -0.0930564404, -0.0576822534, -0.0365332589, 0.0402322039, 0.0389045551, 0.0591761842, -0.0808392316, 0.0939613655, 0.0826884732, 0.0411488488, 0.0924817398, 0.0820590928, 0.0802245364, -0.0838182420, 0.0125860944, -0.0304739252, -0.0950096399, 0.0224601254, -0.0879898295, 0.0223934203, 0.0382340923, -0.0326197147, 0.0667859986, -0.0389566198, -0.0091280714, -0.0762896985, 0.0578919724, 0.0997112468, 0.0525027737, -0.0258062109, -0.0195496082, 0.0416672006, 0.0380767807, -0.0109027177, -0.0154202953, 0.0801708773, 0.0139372349, 0.0869605765, -0.0539371036, 0.0188247710, -0.0558752306, 0.0740093663, 0.0411122814, -0.0151499957, -0.0042894855, 0.0176434517, 0.0394937024, 0.0558420643, -0.0896391869, 0.0688230023, 0.0400976613, -0.0199566334, 0.0285927281, -0.0605721474, -0.0813527331, -0.0547634847, -0.0471191406, 0.0841363743, -0.0664705485, -0.0861117616, 0.0385650620, 0.0227770805, -0.0978692994, -0.0761780739, -0.0627769008, -0.0820767432, 0.0466222838, 0.0016787797, 0.0531810746, 0.0590983704, 0.0805200860, 0.0120988116, 0.0897843614, 0.0200769454, -0.0360639319, 0.0014709681, 0.0133111700, 0.0853423849, 0.0048326477, 0.0780394748, -0.0731471553, -0.0723406821, -0.0544568300, 0.0817267373, -0.0089983940, -0.0480788462, -0.0470334068, 0.0838035420, -0.0578966402, 0.0409721360, -0.0781925172, 0.0644211099, 0.0967742279, -0.0766132101, 0.0099199265, 0.0895164981, -0.0790586025, -0.0492931865, 0.0123758540, 0.0870175883, -0.0897809044, -0.0075810403, -0.0731678456, 0.0406157300, 0.0810176358, -0.0417109989, -0.0604740642, -0.0283276290, -0.0819285139, -0.0215486735, 0.0565166250, -0.0579474233, 0.0160054415, -0.0492251404, -0.0486618057, -0.0933440924, -0.0594457388, -0.0433468595, -0.0720453486, 0.0991078392, -0.0430000536, 0.0452535227, -0.0046645179, -0.0289604217, 0.0825718120, -0.0236326680, -0.0512549169, 0.0723173395, -0.0598269477, -0.0089141577, -0.0525976419, -0.0457438007, -0.0714729056, -0.0809059590, 0.0520469919, 0.0157385617, 0.0195516124, 0.0025169849, 0.0643046424, -0.0616396666, 0.0555667654, -0.0807869658, -0.0560385250, 0.0484167859, -0.0810987204, -0.0857998356, -0.0376696102, 0.0216216817, -0.0751837939, -0.0804272667, -0.0960956588, -0.0940270647, 0.0434587523, 0.0143728033, 0.0963723436, -0.0306840390, -0.0476871990, -0.0404000543, 0.0115027875, -0.0212562308, 0.0731316283, -0.0238814354, -0.0703702942, -0.0664607733, 0.0425305441, -0.0363684669, -0.0220950618, 0.0189805776, 0.0465743020, -0.0361613035, 0.0165676102, 0.0252049491, -0.0399603844, 0.0094843656, -0.0094165057, -0.0856285840, -0.0265387744, 0.0085003376, 0.0919188485, 0.0697067454, -0.0610695146, -0.0099844187, 0.0931813046, 0.0531441197, -0.0560238846, -0.0027643666, 0.0237752944, 0.0157664567, 0.0091916099, 0.0003344566, -0.0275307149, -0.0616288446, 0.0414742902, 0.0958230570, -0.0722688660, -0.0353976488, 0.0433357731, 0.0806828812, 0.0226327181, -0.0394099951, -0.0166060701, -0.0984886885, 0.0552607253, -0.0557179227, 0.0327322558, 0.0704373196, -0.0566606037, 0.0917113051, 0.0806112811, 0.0043662563, -0.0159168690, -0.0362503082, 0.0717775896, -0.0658477992, -0.0555271879, -0.0321073085, -0.0711537376, -0.0887954980, -0.0530102961, -0.0396591686, 0.0615670905, -0.0692782849, 0.0309187844, 0.0134629235, -0.0021587163, -0.0213715807, 0.0629688278, 0.0971911624, -0.0715537518, -0.0448469892, -0.0236218199, -0.0447166674, 0.0466354415, -0.0368727222, -0.0663044751, -0.0513199829, -0.0164556280, 0.0148394853, -0.0722325817, -0.0288555846, 0.0455982909, -0.0066518337, -0.0101521239, -0.0452362299, -0.0809379369, -0.0120036602, 0.0292455927, -0.0415006168, -0.0951534733, 0.0614502653, 0.0818442181, -0.0715882555, 0.0950836912, -0.0634387508, -0.0325787067, 0.0351743922, -0.0220844969, -0.0203109235, -0.0558702946, -0.0300492048, -0.0294337496, -0.0009822100, -0.0581635721, -0.0364196301, 0.0130576119, 0.0407620743, -0.0320774093, 0.0720864013, 0.0795183405, 0.0645068362, -0.0750227422, 0.0664998963, 0.0570376441, 0.0457170084, -0.0439214706, -0.0463497899, -0.0183947533, 0.0346983746, 0.0567949489, 0.0666931346, -0.0280112475, -0.0956823826, -0.0597444065, 0.0076705217, -0.0126370415, -0.0966992602, -0.0954067037, 0.0364976600, -0.0722649321, -0.0968538746, -0.0216024667, 0.0799140260, 0.0318378881, 0.0259622112, 0.0495528504, -0.0607242361, 0.0319354609, -0.0390205160, -0.0091273338, 0.0833087638, -0.0151677355, 0.0741132721, 0.0005067140, -0.0964766070, 0.0145620853, 0.0016456395, 0.0452207103, -0.0543248653, 0.0119673982, 0.0021693259, -0.0814507008, -0.0881224424, 0.0549479797, 0.0984746441, 0.0451048836, 0.0199562758, -0.0692618638, -0.0193994269, 0.0012113824, -0.0165366679, -0.0343136340, -0.0670359135, -0.0471151136, 0.0230175480, -0.0988050476, 0.0877661183, -0.0656642690, 0.0576178804, 0.0160934702, -0.0543693565, -0.0508350618, 0.0826485828, -0.0504997484, 0.0288474634, 0.0604533181, -0.0395915024, 0.0684298053, -0.0704670697, 0.0797354653, -0.0015312210, 0.0880558714, -0.0030104890, 0.0341659263, 0.0585692897, -0.0977531672, -0.0306940526, 0.0592340305, -0.0978228375, -0.0885209590, -0.0387618542, -0.0067353472, 0.0252782330, 0.0204283968, -0.0541437156, -0.0087541565, -0.0928039774, 0.0724753812, -0.0788581371, -0.0708369240, 0.0401013568, -0.0146239027, -0.0180761069, -0.0611940138, 0.0910163447, -0.0175026655, 0.0106051415, -0.0940725803, 0.0388352945, 0.0064275041, -0.0304536074, 0.0117224008, -0.0034746379, 0.0687391087, -0.0141282305, -0.0618511438, 0.0900948718, 0.0555991903, -0.0643538535, -0.0044573992, 0.0488673970, -0.0135198608, -0.0423257351, -0.0572708137, 0.0297775045, -0.0260272250, 0.0811523721, 0.0350119397, -0.0233545080, -0.0275827423, 0.0259267613, -0.0479816906, -0.0058711544, -0.0262532234, -0.0802641660, -0.0587602369, 0.0213038921, -0.0512082092, -0.0635123700, -0.0053626746, 0.0678028837, 0.0801599994, 0.0796532705, 0.0315263942, 0.0650272891, 0.0043497309, 0.0598902777, -0.0051387101, 0.0421425626, -0.0753131881, 0.0741675124, 0.0138548836, -0.0600208528, -0.0006040558, -0.0439110510, 0.0182377845, 0.0157802105, -0.0375828259, 0.0152865648, -0.0753176436, -0.0110945702, -0.0971464664, 0.0603630766, 0.0664274022, 0.0320401266, 0.0709606931, -0.0278902501, -0.0908254609, -0.0385187380, 0.0987595543, 0.0577494130, 0.0416101292, 0.0418145135, 0.0787509009, -0.0379405282, 0.0497812107, -0.0232923031, -0.0541826747, -0.0492460504, -0.0809920803, -0.0273111612, 0.0205083638, -0.0650063530, 0.0768256858, -0.0231206641, -0.0821665078, 0.0138276070, -0.0318417326, 0.0867565200, 0.0440707281, -0.0708776265, 0.0840659812, -0.0319169015, -0.0296557397, -0.0618405342, -0.0002599508, 0.0658400282, -0.0936323926, -0.0672977939, -0.0313917398, 0.0985929295, -0.0463600419, -0.0058641657, 0.0686379746, 0.0008664578, 0.0894897506, -0.0188782439, -0.0967070386, 0.0324808881, 0.0463601574, -0.0398229845, 0.0594155565, -0.0849607512, -0.0875391290, -0.0498718731, 0.0279646888, -0.0398971327, 0.0626271740, 0.0125038624, 0.0032764450, 0.0732007697, -0.0677498132, 0.0957922712, -0.0649558604, -0.0569036268, 0.0650279596, -0.0077755004, -0.0852799937, 0.0213654041, -0.0303012878, -0.0933397338, -0.0894225612, -0.0129645839, 0.0842488036, 0.0088035837, 0.0214065537, -0.0566164739, 0.0061036572, -0.0532630198, 0.0539389625, -0.0356347337, 0.0902564749, 0.0194339976, 0.0566304252, -0.0753632784, -0.0259799510, 0.0138315931, -0.0330365673, -0.0894981176, 0.0624207333, 0.0397852138, -0.0262583494, 0.0786298290, -0.0288678631, 0.0414924696, 0.0551547334, -0.0287416205, -0.0549057983, -0.0701344460, 0.0254619196, 0.0783742890, -0.0944693089, -0.0563013330, 0.0509533957, 0.0256862417, -0.0835853815, 0.0427884385, -0.0975696072, 0.0016386956, -0.0234212428, 0.0007447749, 0.0801595524, 0.0716485754, 0.0887218490, -0.0775463358, 0.0551823899, 0.0423041359, 0.0967173651, -0.0724223405, 0.0565097407, -0.0424911492, 0.0235951170, 0.0538102612, 0.0687727407, 0.0424619243, -0.0127296671, 0.0606557205, 0.0711981282, 0.0077864677, 0.0729020163, 0.0098035559, 0.0552836433, 0.0361182168, 0.0193928927, -0.0493175052, 0.0595471933, -0.0524885431, 0.0555750206, 0.0294271931, 0.0604746118, 0.0481460318, -0.0471483245, -0.0971784368, -0.0996494293, 0.0170987099, 0.0995310619, -0.0410202034, -0.0343898758, 0.0885100439, 0.0232040435, 0.0592067018, -0.0172108635, 0.0352110937, 0.0384807363, -0.0654268712, 0.0310620293, 0.0753506646, -0.0828834325, -0.0622738376, 0.0963052288, -0.0107893944, -0.0261980519, 0.0334637389, 0.0947376266, -0.0561973117, 0.0790509060, 0.0904222801, 0.0598236844, -0.0828482881, -0.0849025473, 0.0957436040, -0.0649246722, -0.0446660779, -0.0875586793, -0.0137811676, 0.0588798299, 0.0112609416, -0.0278919712, -0.0536536239, 0.0168181881, 0.0366192833, 0.0267602876, -0.0920662880, -0.0179131031, -0.0321212783, -0.0292700306, -0.0737767965, -0.0692058057, 0.0397059247, -0.0581209660, -0.0851228982, -0.0388087295, 0.0218500644, 0.0575310513, -0.0176501274, -0.0791830048, -0.0060240254, 0.0939403847, -0.0199924260, -0.0421970375, 0.0546390340, -0.0777132511, 0.0319810584, 0.0908231959, 0.0082077235, 0.0823912099, 0.0858746842, 0.0082920566, 0.0067232624, 0.0238844380, -0.0317473859, -0.0260473266, -0.0761894733, 0.0231281742, 0.0305593088, 0.0808619037, 0.0868703201, -0.0250169039, 0.0806459710, -0.0000270829, 0.0006263703, -0.0677127838, 0.0914091840, 0.0043652803, 0.0221227407, -0.0394383445, -0.0028442144, 0.0407709554, 0.0225273818, -0.0476364866, -0.0471817963, 0.0664561465, 0.0897264257, 0.0804546550, -0.0026445612, 0.0849890038, -0.0683863908, -0.0513154045, -0.0284898505, 0.0312517360, 0.0242407769, 0.0881182626, -0.0349381715, 0.0025502890, 0.0209839791, -0.0961638689, 0.0992680565, -0.0006222278, 0.0033362880, -0.0366085321, -0.0023448691, 0.0556266829, 0.0097940415, -0.0824462399, 0.0624920353, -0.0238683447, 0.0886930451, -0.0332413912, -0.0170690045, 0.0931169018, -0.0116723776, -0.0584037788, -0.0687449723, 0.0244840607, -0.0846527368, -0.0303704292, -0.0680103078, 0.0672236159, -0.0177441612, -0.0012949929, 0.0451031700, 0.0242581367, -0.0002238974, -0.0811665803, 0.0604639277, -0.0265447125, 0.0724767968, -0.0888599679, -0.0160986409, -0.0822199360, -0.0522318147, 0.0970477387, 0.0004481524, 0.0637801364, -0.0291129351, -0.0435838215, -0.0422991291, -0.0279302821, -0.0357137471, -0.0647361577, -0.0962123200, -0.0752912313, 0.0785284117, 0.0801200643, 0.0070212334, -0.0258143693, 0.0853554085, 0.0951947197, -0.0531496070, 0.0446056798, -0.0994658247, -0.0686782598, 0.0284296498, -0.0424650423, -0.0349825397, 0.0830427930, -0.0900003240, -0.0754066259, -0.0633396879, 0.0972119644, 0.0753515288, -0.0332203656, -0.0874177739, 0.0017110556, 0.0094301254, 0.0080647245, 0.0601564124, -0.0958124921, -0.0065599680, 0.0480440632, 0.0447484329, 0.0970431343, 0.0232531577, 0.0726355538, -0.0230349749, 0.0605726466, 0.0239306465, 0.0289358124, 0.0146738067, -0.0644256324, -0.0873363242, -0.0856827721, -0.0573554300, -0.0203629285, -0.0557206646, -0.0513109677, -0.0908490941, 0.0541534945, -0.0357968062, 0.0150258765, 0.0475865826, 0.0230378136, 0.0898823813, -0.0583556890, 0.0470694527, 0.0931482390, -0.0335343331, -0.0943539664, 0.0686347559, 0.0158956796, -0.0286111832, -0.0364810452, 0.0164218917, 0.0546159223, 0.0575374886, -0.0194093958, -0.0999082550, -0.0605819710, -0.0032480508, 0.0714320168, -0.0021635294, 0.0990300253, 0.0300871357, 0.0917504057, 0.0348582789, 0.0784991756, 0.0402971283, -0.0404944196, 0.0505863652, 0.0653182045, -0.0197384581, 0.0785238221, 0.0924228504, 0.0717964843, -0.0484195240, -0.0643697232, -0.0178756714, 0.0686584488, 0.0825682953, 0.0941019729, -0.0094020367, -0.0095028430, 0.0040275827, -0.0436239503, 0.0651716068, -0.0483984239, 0.0033860207, -0.0904857889, 0.0347647443, 0.0707040802, 0.0683651194, -0.0000321642, 0.0873944238, 0.0390559658, -0.0643961877, 0.0829051062, 0.0289784446, -0.0386473648, -0.0985045657, -0.0321529880, 0.0660452321, 0.0346493199, 0.0216701254, 0.0913621858, 0.0543679073, 0.0248976201, -0.0642907172, -0.0991332754, 0.0861487463, 0.0014327765, -0.0584663413, 0.0851458982, 0.0036728606, -0.0309065133, 0.0477588847, 0.0061652884, 0.0987804160, -0.0689121932, -0.0470992588, 0.0377599075, 0.0176316053, 0.0005726591, 0.0858497694, 0.0812371448, 0.0781780258, -0.0790369064, -0.0454308763, -0.0818488151, -0.0912125632, -0.0438568592, 0.0800640807, 0.0444239154, 0.0394600406, -0.0790799633, -0.0847992897, 0.0562645867, -0.0207814947, 0.0358936563, 0.0595911071, -0.0151411742, 0.0682591721, 0.0358845666, 0.0793193802, 0.0219069719, -0.0208126307, -0.0219268054, 0.0617477670, -0.0028173476, -0.0352497846, 0.0678054169, -0.0382225290, -0.0180392712, 0.0272023156, -0.0574743748, -0.0390083082, -0.0137423053, 0.0568821505, 0.0560783669, -0.0271265507, 0.0635889843, -0.0640801936, -0.0008984357, -0.0094215870, 0.0952129140, -0.0745879635, -0.0277884230, -0.0503758192, 0.0769978091, -0.0473848358, 0.0249466673, -0.0387946628, 0.0114032477, -0.0045103803, 0.0549639538, 0.0288427398, -0.0652904809, 0.0381498858, -0.0757423863, -0.0826521665, 0.0267974660, 0.0147384182, 0.0219403505, -0.0953744873, 0.0393895581, 0.0006841421, 0.0488007143, 0.0152803212, -0.0231629387, -0.0199979320, 0.0683479831, 0.0854163393, -0.0766956061, 0.0791866556, -0.0139718056, 0.0142864734, 0.0538635328, -0.0139295831, -0.0451981537, -0.0074314326, 0.0942383334, 0.0562702194, -0.0340364426, 0.0226035118, 0.0700686648, 0.0968020633, 0.0631442592, 0.0674966648, 0.0381652191, 0.0243712217, 0.0128316432, -0.0886753127, -0.0814581886, -0.0941260383, -0.0572549365, -0.0916304365, 0.0889201388, -0.0197189301, 0.0405375287, -0.0025365800, -0.0250555053, 0.0885594860, -0.0680516064, -0.0541137457, -0.0888296142, -0.0154412016, 0.0292055681, -0.0033846647, 0.0534435585, -0.0778776631, 0.0973321274, -0.0921750069, 0.0945760533, -0.0208396465, 0.0969497189, -0.0413391367, -0.0299916044, -0.0130184889, -0.0995305777, -0.0778111219, -0.0492867492, -0.0657115951, -0.0048708916, -0.0544256456, 0.0464734063, -0.0182166547, -0.0399419554, -0.0592936985, -0.0204882175, -0.0322038159, 0.0866622403, 0.0569590852, -0.0122389048, 0.0687249973, 0.0997408852, 0.0209115967, 0.0513932034, -0.0635232925, -0.0195907578, 0.0785855278, 0.0450641587, 0.0650936589, -0.0231699720, 0.0033658296, -0.0878382251, -0.0550792702, 0.0110636503, -0.0383735187, 0.0260431096, -0.0839989632, -0.0714610815, -0.0611624010, -0.0610048547, 0.0931768194, 0.0959418043, 0.0449960902, -0.0193960667, -0.0385605097, 0.0999738052, -0.0182184950, 0.0641955659, 0.0571098104, 0.0485377833, 0.0968617722, -0.0455301292, 0.0419811979, -0.0252477154, -0.0725336298, 0.0311467126, 0.0220640674, -0.0269306675, -0.0809231251, -0.0398340933, -0.0628120005, 0.0299691483, 0.0893107727, 0.0274050310, 0.0781863257, 0.0364665762, -0.0695920959, 0.0901331380, -0.0372553840, -0.0418270603, -0.0070760995, 0.0446960703, 0.0024384037, -0.0138423890, 0.0983539149, -0.0664221495, 0.0249169096, 0.0965146348, -0.0546085127, 0.0415917709, 0.0154123753, -0.0626884699, -0.0543004982, -0.0873066932, 0.0326458886, 0.0622367188, 0.0521120057, -0.0573620796, -0.0916602835, -0.0807530433, 0.0354090706, 0.0211334229, 0.0520307347, -0.0173094273, 0.0883502290, -0.0747655854, -0.0344285220, -0.0560093187, -0.0992452130, 0.0234787911, 0.0122465342, 0.0218060464, 0.0107874423, -0.0023579597, -0.0217241049, 0.0972326025, -0.0090833902, -0.0283782482, 0.0402575806, 0.0612904802, 0.0941807255, 0.0504814163, 0.0303342417, -0.0059241802, -0.0831786618, -0.0632630140, -0.0241450295, -0.0311506540, -0.0873181596, -0.0189136043, -0.0400092602, -0.0721870884, 0.0806632712, 0.0764033124, -0.0186987370, -0.0215379968, -0.0849346146, 0.0944463536, 0.0983716473, -0.0005190820, -0.0418750308, -0.0572199821, 0.0864294544, -0.0892463923, -0.0820028782, -0.0640743226, 0.0544914231, -0.0258124322, 0.0521755889, -0.0505488180, 0.0837811008, -0.0467291847, -0.0386485830, 0.0959144160, -0.0376593135, 0.0891310498, -0.0176522285, 0.0559772477, -0.0511145107, 0.0744484141, -0.0509918928, 0.0708085373, -0.0331810936, 0.0997075513, 0.0640049204, -0.0870807171, 0.0160676986, 0.0131901726, -0.0547432415, -0.0756300688, -0.0405451320, 0.0586434677, 0.0420050398, 0.0418792740, 0.0232942104, -0.0325241312, 0.0158250108, -0.0812155977, 0.0127237588, 0.0068090707, 0.0572044626, 0.0466389880, -0.0376359485, 0.0108580589, 0.0949098542, 0.0371343866, 0.0776710734, -0.0633311719, -0.0301181823, 0.0543145463, -0.0467913151, 0.0671804175, 0.0042382702, -0.0492312200, 0.0359429196, 0.0423583016, 0.0880590901, 0.0761472210, 0.0297935978, -0.0127175823, -0.0795075670, 0.0962968394, -0.0872976109, -0.0366862267, -0.0613208078, 0.0029977560, -0.0104602575, 0.0888951495, -0.0455826037, 0.0865860209, -0.0973383412, 0.0537970141, -0.0227539763, 0.0332078263, 0.0784687772, -0.0916745663, -0.0761582106, -0.0213716477, -0.0422379971, 0.0967307165, -0.0647479296, 0.0839644447, 0.0417202041, 0.0367394760, 0.0766688064, -0.0482975952, 0.0883274302, -0.0135281086, -0.0795081109, 0.0181090608, -0.0616936944, 0.0464018360, 0.0667100176, 0.0650101379, 0.0165747181, 0.0949856713, 0.0394393429, -0.0103719980, -0.0377799049, 0.0602934584, -0.0256163329, -0.0438287966, 0.0349221304, -0.0271985084, 0.0323417410, 0.0706286207, -0.0434023403, 0.0745763555, 0.0230574161, -0.0906305537, -0.0123804063, -0.0307390243, 0.0431572720, 0.0995275751, -0.0984807983, -0.0237594619, -0.0122846365, 0.0883916095, -0.0202062875, -0.0192676038, 0.0108753219, 