-0.0695986226, -0.0532692373, -0.0159131736, 0.0313868821, 0.0365119427, -0.1347303540, 0.1288903654, 0.0101205707, -0.1212664619, -0.0666877776, 0.0669218600, 0.1525238752, -0.0665799305, 0.0695233047, -0.1604416668, 0.0818572938, 0.0252553672, 0.0165349096, 0.1275310814, 0.0728278905, 0.0675328076, 0.0768111050, -0.0189318508, -0.1487906426, 0.0520227551, -0.1576921344, -0.0993896201, 0.0076446086, -0.1591764390, 0.0154812783, 0.0530567020, -0.0706908479, 0.0157722086, -0.1552690864, 0.0489400774, -0.1271683276, 0.0758678317, 0.1569241285, 0.0744896829, -0.0299297571, 0.1597423553, -0.0103121996, -0.0601266101, 0.1259974241, 0.0359464139, 0.0075142831, -0.0639323816, -0.0133206099, -0.0299259275, -0.1137074977, 0.0619670898, 0.1313030124, -0.0486677364, -0.0559040755, -0.0840465426, -0.1611663848, -0.1513001919, -0.1522746086, -0.0793451443, -0.1567017287, 0.0204729438, 0.1448237300, -0.1007219404, 0.0804351717, 0.0821296871, -0.0097833425, 0.1534430385, -0.0371586084, -0.0661363527, -0.0930663943, -0.1109443381, 0.0055712312, -0.1114617437, -0.1376315206, -0.0295597613, -0.0530622154, 0.1336432993, -0.0103462636, 0.0848224014, -0.0837617144, 0.0187651068, -0.1460580081, 0.1297259927, 0.0910630226, -0.0352734923, -0.1647301614, 0.0473566800, 0.0980406404, 0.1006998420, 0.0053599924, 0.0247593373, 0.1208632290, -0.1174838096, 0.0842486918, 0.1561963260, -0.0131068975, 0.0114937276, -0.1370941848, -0.0715424567, -0.1323358566, 0.1276202202, 0.0688533187, 0.0645609796, 0.0139925331, 0.0264035314, 0.0515939742, -0.0033831745, 0.1619782150, 0.1299423873, -0.0727484301, -0.0938541740, -0.0387350470, -0.0882150605, -0.1241909266, -0.0474321097, 0.0712088048, -0.0123904198, -0.1030024141, 0.0464047045, -0.1143677086, -0.0451569110, 0.1376519799, -0.1089433730, 0.0703536570, 0.0492292792, -0.0229468197, -0.0539148897, 0.1025789082, 0.1048409641, -0.0245103389, -0.0357549936, 0.1079417765, 0.1373174787, 0.0528589338, -0.0215466470, -0.0717799589, 0.1165699959, 0.0701980442, 0.0538780689, -0.0409060270, 0.0737686306, -0.1185869724, 0.0197467357, 0.0272202939, 0.1007548869, -0.1134678274, 0.0527956188, 0.0177813619, 0.0066136122, -0.1505999416, 0.0386402011, -0.0850399360, 0.0997817516, -0.1200443059, 0.0521422923, -0.1619294733, 0.0528576225, 0.0911004245, 0.0320750922, 0.0922682583, 0.0681544095, 0.0049133897, 0.0828984976, -0.1006093323, 0.0956133902, 0.1400416493, -0.1045588106, 0.0830660611, -0.1568200588, 0.0748748332, -0.0166869760, 0.0624116212, -0.1043373793, -0.1039114743, 0.0800260752, -0.0201599598, 0.0191747546, -0.1355907470, -0.0621032417, -0.0913210809, -0.0966640264, 0.0275260806, -0.0626839250, -0.0731020793, -0.0013651252, -0.0106523186, -0.0793615654, -0.0158944279, 0.0412037671, -0.0934495330, 0.1109721661, -0.0090914667, 0.1190598607, -0.0517687127, -0.1406183541, -0.1128213555, -0.1323158145, -0.1478757709, -0.1015984416, -0.0888790563, 0.0886101723, -0.0415885299, -0.0883128643, -0.1636216342, -0.0881973803, -0.0834365711, 0.0313203484, 0.0797850639, -0.0801727027, 0.0227157772, 0.0914390385, 0.1186983883, 0.0717818141, 0.0022754371, 0.0411954671, 0.1366869807, 0.0230546147, 0.1594900489, 0.0231594741, -0.0941262841, -0.0395849347, 0.0793299824, 0.1490598321, 0.1620029807, 0.0291754752, 0.1435385644, 0.1252949238, -0.0652419850, 0.0441273749, -0.1030021831, 0.0360867083, -0.0196195990, 0.1207625568, 0.0969210267, -0.0574036986, 0.1495731473, -0.0981328189, -0.1629408300, -0.1471201926, 0.1418043971, -0.1045552343, 0.0084473491, 0.0990254879, 0.1504921019, 0.0710740685, -0.0544823408, -0.0225202888, 0.0048143268, 0.0037117749, -0.0992728770, 0.0402128249, -0.0250536501, -0.0889075249, 0.1053568721, 0.0412507802, 0.1059814990, 0.1619861424, 0.0442032069, 0.0008350015, -0.1074468642, -0.0462885872, -0.1228460893, -0.0896311700, -0.1338310242, 0.0009640604, -0.1167614162, -0.0799798518, 0.0598597825, -0.1191331595, -0.0701039806, -0.0186308473, 0.0221133977, -0.1431442797, 0.1060836613, 0.0160796046, 0.0302574933, -0.1027481854, -0.1299177408, -0.0731766969, -0.1011630818, 0.1510437131, 0.0749043971, 0.1143671274, -0.0379598290, 0.0588539094, -0.1191133559, -0.0853292197, -0.0283470154, -0.1188832596, 0.0520585775, -0.1267678440, 0.1586465538, -0.1560220718, -0.1471751481, 0.0674143434, -0.0243395716, -0.1266628504, 0.0842272341, -0.0719716698, 0.0555956215, -0.0410446599, 0.0283039808, 0.1547931433, -0.0496885702, 0.0768842250, -0.0879692882, -0.0446516722, 0.1650194824, -0.1622686088, 0.0800736398, -0.0332132280, 0.1114854813, 0.1225782335, 0.0526415855, -0.1309325397, 0.0375127345, 0.0727097243, 0.0766286105, -0.0332042575, 0.1121467948, 0.0953185558, 0.0274166167, 0.0735646039, 0.0957072973, 0.0799851716, -0.0018921793, 0.1604409516, 0.0689385235, 0.1563803554, 0.0954599977, -0.0891943201, 0.0241332650, -0.0593207553, 0.1590694189, -0.0913599059, -0.1224315241, 0.0593380779, -0.0218951851, 0.0701470524, -0.0787892714, 0.1106481254, 0.1467649937, -0.0233017653, -0.0103835911, -0.1164019853, -0.1175704673, 0.0232368410, 0.1408782601, -0.0319337845, -0.0865260139, -0.1286638081, -0.0460754186, 0.0351202786, -0.0618901551, 0.0331474692, -0.0016729832, 0.1122901738, 0.0561861843, 0.0077849776, -0.0346827209, 0.1360679865, -0.0097116828, -0.0522385165, -0.0097329766, -0.1312683672, -0.1032643318, -0.0758540556, -0.0395040214, 0.0020852685, -0.1453534961, 0.1405825615, -0.1520604193, 0.1413954198, -0.1555849910, 0.0033777803, -0.1267966330, 0.0478649139, -0.0125529170, 0.1243067682, -0.0388198942, -0.0819288418, 0.1029331088, -0.1025434434, 0.0296463817, 0.1264119446, 0.1134586632, -0.1420847028, 0.0658890456, -0.0978184640, 0.1034088731, 0.1070769131, -0.0943633541, -0.0979552418, 0.0039872825, -0.0571053252, 0.0605192780, -0.0836186707, -0.0072353631, -0.0025688857, 0.0694759339