//Numpy array shape [10, 2, 20]
//Min -0.163432911038
//Max 0.164409101009
//Number of zeros 0

#ifndef ATTENTION_OUTPUT_WEIGHT3_H_
#define ATTENTION_OUTPUT_WEIGHT3_H_

#ifndef __SYNTHESIS__
multi_head_attention_attention_output_weight_t attention_output_weight3[400];
#else
multi_head_attention_attention_output_weight_t attention_output_weight3[400] = {-0.0136234015, 0.0415488482, -0.0229343772, -0.0971405283, -0.0082686394, -0.1070505306, -0.1451092958, -0.0742891133, 0.0076822042, -0.0520357043, -0.0425526276, 0.0468894690, 0.1390142441, -0.1359260529, 0.0702096969, 0.0054388642, 0.0418042541, 0.0251244009, -0.0075842440, -0.0344256163, 0.0972767174, 0.0179076344, -0.1490450352, 0.1492955089, -0.1082954034, 0.0655237734, -0.0346159935, 0.0571501255, 0.0985734761, -0.1086849645, 0.1211292744, -0.1257983595, -0.1151147410, 0.1200802028, 0.1220896840, -0.0900930986, -0.0198843777, 0.0134302378, 0.0043395162, 0.0439655930, 0.1204220057, -0.0547733456, 0.1446720958, 0.0200551897, -0.0761295110, -0.0242696851, -0.1209009588, -0.1326760054, -0.0326135755, 0.0554404110, -0.0652484000, 0.1091325581, 0.1305992603, 0.0006754994, 0.0197484642, 0.1330200136, 0.0864585638, -0.0721939728, 0.1327910125, 0.0014088601, 0.1322550178, -0.1426788568, 0.1644091010, 0.0412422717, 0.1429612637, 0.0052666366, 0.1122660637, 0.1256179214, -0.1389160752, 0.1467083693, 0.0399539769, -0.1429726630, 0.1173410118, 0.0789753050, -0.0134301484, -0.1420401335, -0.0545497835, -0.1270991415, 0.1206567585, -0.1057667136, 0.0214240104, -0.0862971768, 0.0234791487, 0.0943896472, 0.1396585405, 0.1276351810, -0.1527229548, -0.0431086197, 0.0185362697, 0.0250098258, -0.1610258967, -0.0947092101, 0.0994817615, -0.0709250420, -0.0114201009, -0.0264451504, 0.1527187526, 0.0193586648, -0.0359148383, 0.0577295870, -0.0249345154, 0.0641428679, -0.0287509412, 0.0834701210, -0.0456558913, 0.0643436313, 0.1483969092, 0.1075775325, -0.1204842627, -0.0748414844, -0.0369421840, -0.0456082150, -0.0140806437, -0.0303881317, 0.1367590427, -0.1183047071, -0.0613828227, 0.0508043766, 0.1186309159, -0.0228649974, -0.0813776106, 0.0749985874, 0.0295065194, 0.0241350234, -0.1385073066, 0.1353821754, -0.1605914533, -0.0654394403, 0.1290228069, -0.0990130529, 0.1593120694, 0.1221498549, 0.1554104090, -0.1495073289, -0.0068350881, -0.1247925982, 0.0316867232, 0.0499538630, -0.0321094245, -0.1365696937, -0.1008346304, 0.0033640414, 0.0321167111, 0.0328670889, 0.1203441322, 0.0559442788, -0.1122829989, -0.1081279069, -0.0533454269, -0.0991800353, 0.0414819866, 0.1174070239, 0.0885768235, -0.1279466599, -0.0191380233, -0.0332142115, 0.1187971830, -0.0297440290, -0.0878611729, -0.0287895352, -0.1324855089, -0.0862715393, 0.0212240666, 0.0118836761, -0.0262228847, 0.0854456723, -0.0856854692, -0.0020111948, 0.1294758022, -0.1528511941, -0.0358190835, 0.0146138817, 0.0135792941, -0.1262418181, -0.0545671880, 0.0136604905, -0.1010558680, 0.0997963846, 0.1328329146, -0.1064424068, -0.0290488452, -0.0650267676, 0.0033308417, 0.0512277931, -0.0153369009, 0.0547333509, 0.0432307571, -0.1125746369, 0.0673112124, -0.0469406098, -0.0482377708, 0.0780838579, -0.0240364820, -0.0859250948, 0.0245809704, -0.0274855644, 0.0349182189, -0.0549335182, -0.0986752659, -0.1153753996, 0.0259378254, 0.0430009812, 0.0763538629, -0.0746144578, -0.0003686100, -0.0784276277, -0.1462870091, -0.0771952346, 0.0991905630, 0.0045850426, 0.0211640149, -0.1531352848, -0.0272878259, -0.1545919478, -0.0977962166, -0.0824260116, 0.0388904959, -0.1334622949, -0.0029279292, -0.0344655812, -0.0380814075, -0.0513076112, -0.1491851360, 0.0072809905, -0.1520058960, 0.0416666418, 0.0740558654, -0.0285531282, 0.1046014130, 0.0681813359, -0.1094048321, -0.0999959335, 0.1096601784, 0.0872676969, 0.0634408742, -0.0592928007, 0.0512101203, -0.1459347308, 0.1276435554, 0.0851205885, 0.0692359209, 0.1611968577, 0.1258428991, 0.1116003096, 0.1196037233, 0.1511336863, -0.0129101127, 0.1288267374, 0.1289049685, -0.1561442018, 0.0885191560, -0.1584158987, 0.0691622794, -0.1605295539, 0.0654300302, 0.0591422766, 0.0479735732, -0.0158257931, -0.0211435109, 0.1079989970, -0.0967418700, -0.0847172365, 0.1054730415, -0.1334747076, 0.0869245231, 0.0180056393, -0.0070493221, -0.0593746975, -0.0004905611, 0.1187609136, -0.1394994408, -0.0466184169, -0.0959525481, 0.1244494319, -0.0704402700, 0.0227291137, -0.0446710438, -0.1132168993, -0.0451232865, -0.1083502918, 0.1599642634, -0.1494939029, -0.1529650688, -0.0667951927, -0.1549633890, -0.0479972437, -0.0406130925, 0.0347167104, -0.0397161543, 0.1442825496, -0.0305647254, -0.0877272636, 0.0446211249, 0.1530516446, -0.0532893986, -0.0752158463, 0.1175647080, 0.0947990119, 0.0960583091, 0.0261076093, -0.1348428428, -0.0712842047, -0.0414263904, -0.0543734729, 0.0116897672, -0.1353083998, 0.0991693139, -0.1631781310, 0.0370316803, 0.1455266476, 0.0648232847, -0.0043677092, 0.1637530625, -0.0624219328, 0.1193011701, -0.1165775508, 0.1278714836, 0.1226458251, 0.1269353926, -0.0202040970, -0.0388551801, 0.0298426896, -0.0238754004, -0.0906799585, -0.1572591811, 0.0910256505, -0.1634329110, 0.1590257287, 0.0433930159, -0.0086829215, -0.0162495375, -0.1387412250, 0.0091772974, -0.0180521756, -0.0438614488, -0.0124839693, -0.1424743533, 0.0487661213, 0.0206305087, 0.0478888452, 0.0417546481, 0.0535146594, 0.0519282222, 0.0441311151, -0.1609208882, 0.1267242134, -0.0615958348, 0.0917138755, 0.0882914364, 0.0524763018, 0.0883594155, -0.1313787252, -0.0937935039, 0.0014142245, -0.0733326897, -0.1232479736, -0.1322438866, 0.1231527328, -0.0659771264, -0.1105099320, 0.1316227317, 0.1210832894, -0.0468826145, 0.0953915417, 0.1017683446, 0.1378527284, 0.0006573349, 0.1148391664, -0.0879447982, -0.1227788776, 0.1010391414, 0.0649494380, -0.1234896928, -0.0654441640, 0.1457981169, 0.1066274643, 0.0402729362, 0.0374805331, -0.1450933218, -0.0949403718, -0.1397897750, -0.0249103308, 0.1565784216, 0.1431340873, 0.0658425838, -0.0304746032, -0.0532680154, -0.0957736745, 0.1306809485, -0.0115656257, -0.0804573298, -0.0883065611, -0.0325177014, -0.0544351712, 0.0610502362, 0.0838914067, -0.1481305063, 0.0543257892, 0.0172282457, -0.0135474503};

#endif

#endif
