0.0728728473, 0.1393973678, 0.1327931732, -0.1220839471, -0.1137351692, -0.1415860653, 0.0886153877, 0.0300845057, -0.0275762081, -0.0339252576, -0.1470667720, 0.1036682874, 0.0160408765, 0.0823830515, 0.0526642352, -0.0118292272, -0.0976965576, -0.0149729103, -0.1109525412, 0.0340043157, 0.0901823193, -0.1473995149, 0.1310330480, 0.0628273934, 0.1080010384, -0.0011561811, 0.0565961748, -0.0657371357, -0.0089666396, 0.1477571875, -0.1152268499, -0.0733103678, -0.0689173862, 0.0157187879, 0.0241068155, 0.0219477415, -0.1155802161, -0.1092479452, 0.1518542618, -0.0452105105, 0.1429621726, -0.1464645565, 0.1531795710, 0.0719851255, 0.0405041575, -0.0067735165, 0.1002336293, 0.0445552170, 0.1084041148, 0.1089915186, -0.0420661047, 0.1291226298, 0.0099936277, -0.1067082435, -0.1115850955, 0.1104361862, 0.0421356112, -0.0324577093, -0.1223718822, 0.0309356749, -0.0377375111, -0.0330508649, -0.0230748802, 0.0418486595, -0.0109043866, -0.0771563947, 0.1138322800, 0.0563526601, -0.1032523066, 0.0245878249, 0.1449990720, 0.0763559639, -0.1418259740, -0.0904060081, -0.1163934320, 0.0955868214, 0.0123763233, -0.1084778607, 0.1041375250, -0.0815410390, 0.1515861005, 0.0676937401, -0.1085756868, -0.0024974495, -0.0640255213, 0.0219104588, 0.0445202291, -0.0731789917, -0.1015039384, 0.0694730878, -0.0911825746, 0.0313921571, -0.0197160542, 0.0291002691, -0.1180948168, 0.0695116073, -0.0618957058, 0.0020775795, 0.1044135243, -0.1571501940, 0.1183958203, -0.1544813663, -0.0204378068, 0.1106390208, 0.1307360083, 0.1021494418, -0.0172116756, 0.0245279968, -0.0625244528, -0.1505831331, -0.0676799342, 0.0386030376, 0.1049263328, 0.0692405999, -0.1172660440, 0.1533541530, -0.0767571777, -0.1514341831, 0.0736249834, 0.1004521996, -0.0426829383, -0.0794749260, -0.0646781772, -0.0447387993, 0.1147570163, -0.0664455742, -0.0602260903, 0.1172949821, 0.0324857086, 0.0728459358, 0.0444378704, -0.1398847550, 0.0748323947, -0.0854637101, 0.0009750426, 0.1477368623, -0.0328148156, -0.0799136460, 0.1222462207, -0.1532900631, -0.0506371856, -0.0168390721, 0.1391288787, -0.1151746362, 0.0252141654, 0.1467978805, -0.0492587462, 0.1051764935, -0.0711301416, 0.1558959633, 0.1540159136, -0.1232682019, 0.0690748096, 0.0146749467, 0.0011551529, -0.0598571077, -0.1100785285, -0.0037619323, 0.1449168473, 0.0840125084, 0.0700702071, 0.0192598403, 0.0340757072, 0.1484775394, 0.0720375180, 0.0266837180, 0.1443823725, 0.0443278998, -0.0806918740, -0.0388553441, -0.0295329243, 0.1442862898, 0.0007893741, -0.1059852093, -0.0872810930, 0.0830851644, 0.0179560483, 0.0090351403, 0.0519336611, 0.0579795539, 0.0094956458, 0.0726304650, 0.0328194797, 0.1410842389, 0.0094821155, 0.1518404633, 0.0681584626, -0.0817333013, -0.0761859119, 0.1294065565, 0.1458331496, -0.0282933265, 0.1454100460, -0.1195782870, -0.1371783167, 0.0496486872, -0.1564379781, 0.1462029964, 0.0822591335, -0.1571906805, -0.0320764333, -0.0015981346, -0.0671029836, -0.1188920736, -0.1321807057, 0.1192187220, 0.0114933699, 0.0204795003, -0.1529636383, -0.0863098204, -0.1167020947, -0.0269586146, -0.1102826223, -0.0407211781, 0.0697475523, -0.0195836276, -0.1503200382, 0.1185899824, 0.1488301009, -0.0705404058, 0.0606548190, 0.1213472635, 0.0809928924, 0.1049487144, 0.0087420046, 0.0994666666, 0.0564389825, -0.0263085216, 0.1520480365, -0.0419756249, -0.0432838723, -0.0326740891, -0.0794067308, -0.1022811830, -0.1371498108, 0.0073782951, -0.0527850613, 0.0767889619, 0.0827954561, -0.0761126354, 0.1478347033, -0.0769630820, 0.0716690272, 0.0680313110, 0.1316152960, -0.1214011014, 0.0137370080, 0.1263182908, -0.1272126287, -0.1450784653, 0.0579981059, -0.1393424869, 0.1328728050, -0.1564561874, -0.0870778337, -0.1248498708, -0.0126717240, -0.0268694907, -0.0935334191, 0.0705539733, 0.0435563922, 0.1130264252, 0.0148057193, -0.0389648601, 0.0628019422, 0.0984721333, 0.0974242538, -0.0401382223, 0.1029059440, 0.0095041692, -0.0471014008, -0.1390716583, 0.1049629599, 0.1040688902, 0.1327052265, -0.0437740535, -0.1054938212, 0.1221257001, -0.0506929010, -0.1068070829, 0.0504784733, 0.0396887958, 0.1349760145, 0.0272105038, 0.0926587731, -0.0363540947, 0.0804126114, -0.0394220501, -0.0357875451, -0.1465001702, -0.1163739413, 0.0319453925, 0.0969681293, -0.0562182292, -0.0315276682, -0.0237887949, 0.0102639943, 0.1308369190, 0.1426439732, 0.0321647525, 0.1423893124, 0.0252333134, 0.1335042566, 0.1182735711, -0.0496670827, 0.1175099164, -0.1131510437, -0.0078433007, 0.0047134757, 0.1486162394, -0.0280582011, 0.0228983164, -0.0232522488, 0.1548142284, 0.0692505985, -0.1218448281, -0.0077727288, -0.1444996595, -0.0363713577, -0.0984715372, -0.1351651996, 0.1420486420, 0.0558764637, 0.0633702725, 0.0411055684, 0.0346831977, -0.0949592739, -0.0491550788, -0.0640079975, -0.0542260036, 0.0455652028, 0.0357818156, -0.1512591988, 0.1566199511, -0.0246126354, 0.0394862145, 0.1262139231, 0.0629004538, -0.1159566641, -0.0238316655, -0.0933931842, 0.0058562756, 0.1479938179, 0.0292691886, 0.0496491790, -0.1087248921, -0.0332290679, 0.1256952435, -0.1499743611, 0.0923167318, 0.0088320524, -0.1082628816, 0.1460112482, 0.1102897078, -0.0584002584, 0.0415364951, 0.1456008404, -0.0163463801, -0.0327025801, 0.0796605945, -0.0026366264, -0.1381417513, -0.0616516918, -0.0078592449, 0.0603927821, 0.0345283747, -0.0640746802, -0.1115029156, -0.0135891885, 0.0177240968, -0.0721489117, 0.0923504978, -0.0856788829, 0.0314105451, -0.1075444371, -0.1164366677, 0.0492724329, -0.0265432298, -0.0121430904, -0.1046802029, 0.0014640838, -0.0115235299, -0.0403938890, 0.0858411342, -0.1092860550, 0.0289876312, 0.1421834975, 0.1229944974, 0.0077156126, 0.1577386707, 0.1392697245, -0.0023601502, 0.1199521273, 0.0954783410, -0.0758718997, 0.1175890714, 0.0864509642, -0.1164248288, -0.0326567888, -0.0054648221