//Numpy array shape [10, 20, 2]
//Min -0.157829716802
//Max 0.156774237752
//Number of zeros 0

#ifndef KEY_WEIGHT3_H_
#define KEY_WEIGHT3_H_

#ifndef __SYNTHESIS__
multi_head_attention_key_weight_t key_weight3[400];
#else
multi_head_attention_key_weight_t key_weight3[400] = {0.0193388164, -0.0671794713, 0.0207719952, 0.0155550689, -0.0115508288, -0.1033742875, 0.1310022324, 0.0073087513, -0.0909635946, -0.0081636161, 0.0668367296, -0.0900348052, -0.0339481011, 0.1567742378, 0.1239518970, -0.1491881460, 0.0034965426, 0.0546545088, -0.0584114566, 0.1034817547, 0.1054228693, -0.0856730416, 0.0243064612, 0.0099544525, 0.0754753947, -0.0350838453, -0.0323508382, -0.1271060109, -0.0025550872, 0.0178215802, 0.0844909251, 0.0481882542, -0.0994034111, 0.0540094674, 0.1100908071, 0.0877994746, -0.1078792661, -0.0578429401, 0.0507796854, 0.0891977400, -0.1119093746, 0.1424547285, -0.0671931133, 0.0918726623, -0.1547195017, 0.0224966109, 0.1052040309, -0.0541091412, -0.1106090397, -0.0282347351, 0.0776193887, 0.0471225083, 0.0111015886, -0.1174387783, 0.1283846349, -0.1229475886, -0.1237333119, 0.1453116983, 0.0724665821, -0.1341853738, 0.0730487406, -0.0129380077, -0.1107092798, -0.0374382287, 0.0983342379, 0.0191076547, 0.0166266859, 0.1384728700, -0.1578297168, 0.1213773340, 0.1484488994, -0.0340095907, -0.1509958804, 0.0495087504, -0.0296957791, 0.1488066167, 0.1085684150, 0.0453979373, 0.0923498720, 0.0474114269, 0.0823825896, -0.1129820496, 0.0987764150, -0.0667187721, -0.0085054189, 0.0428233296, -0.1288962662, 0.1065809280, 0.1356391460, -0.0325505883, -0.1435824782, -0.0921469107, -0.1203269511, 0.0485777110, 0.1562616974, -0.1169131249, -0.1064605713, -0.0885905102, 0.1540481299, 0.1566596478, 0.0220289379, -0.1210173815, -0.0042702705, -0.0435174108, 0.0482219905, -0.1411231458, 0.1049598008, -0.0074540675, 0.0330921859, 0.0822736919, -0.1089225411, 0.0436743796, -0.0121383816, 0.0937273055, 0.1189011782, 0.0977015644, 0.0100523531, -0.0636608005, 0.1065299064, -0.0263851583, 0.0169973224, 0.1329749972, 0.0964212567, -0.0491458401, -0.1455090344, 0.1458690017, 0.0177899152, 0.0831040889, 0.1003064960, 0.0305970758, -0.1393695027, 0.0210847408, 0.1404878348, -0.1300922036, -0.0870211348, 0.0854092687, 0.0488374829, -0.1049293056, -0.1512151212, -0.0811000243, 0.0528152138, 0.0988559574, 0.0536275208, -0.0220892876, -0.1528185457, 0.1235289127, 0.0059655607, 0.0973131806, 0.0690602213, -0.0192517787, -0.1263658702, -0.0108778924, 0.0281488597, -0.1251368523, -0.1145479232, -0.0180324167, 0.0656897873, 0.1157236844, 0.1362406760, -0.0944069773, 0.0830835700, 0.0855715275, 0.0490983427, -0.0002056062, 0.0342918634, -0.1468541622, 0.0492437035, 0.0869715959, 0.1496942788, 0.0808238089, -0.0835319459, 0.0693385750, 0.0999484807, -0.0994861573, 0.1463002414, 0.0288086832, 0.1047927290, 0.0248657763, 0.0298470110, -0.1561968625, -0.0018835068, -0.0692353621, 0.0066198260, -0.1476461738, -0.1074119732, 0.1397453099, 0.0099940449, -0.0482828766, 0.0055311322, 0.0584056824, -0.0887983367, -0.0956869498, 0.0017344207, -0.0289113671, -0.0797804296, -0.1304986179, 0.0099682212, -0.1134666502, 0.1252832860, -0.0514697284, -0.0224131793, 0.1158874780, 0.0238698870, -0.0537431017, 0.0018233061, -0.0408609584, 0.1091230661, 0.0557720065, -0.1380323917, -0.0379251689, -0.0194730163, -0.1364812553, 0.0024748594, -0.1168172210, 0.1033598632, -0.0333635285, -0.1508293748, -0.0240596831, 0.1362705380, 0.1234580725, -0.1337919682, 0.0006012321, 0.0192072242, -0.1284561753, 0.1005323082, -0.1421212256, 0.1343161613, -0.1565079838, -0.1187397838, 0.0440422297, 0.1305981725, 0.0940962285, -0.0510124192, 0.1064219624, -0.0676651224, -0.1145912334, -0.1042846814, -0.1238375902, -0.1305350065, -0.0723771304, 0.1289452761, -0.0117988288, -0.1418053508, -0.0912366733, -0.1542128921, 0.0023008883, 0.0966988653, -0.0284983963, 0.1484444886, 0.0839255899, 0.0720990747, 0.1153512448, -0.1125056669, -0.1415241361, -0.1269694716, -0.0739176720, 0.0721040517, 0.0181227028, -0.1507472247, 0.1431530863, -0.0487121716, 0.1411542445, -0.0217330158, 0.0176816136, 0.0758768320, -0.0363824442, -0.0424752310, -0.0561428741, 0.1067222208, 0.1276956052, -0.1384463459, -0.1489911824, -0.1474917680, 0.1506023854, -0.0929959267, -0.0384736657, -0.1114965826, -0.0570375398, -0.0862600282, 0.0645201057, 0.0566584170, 0.0217465460, 0.0603775233, -0.0552268624, 0.0079276264, -0.0861047879, -0.1448199749, -0.0407331213, 0.0569765121, 0.1226570457, 0.1198920757, 0.0998948365, 0.0077787638, 0.1100303382, -0.0457221717, -0.0969464928, -0.0292642862, 0.1228172332, -0.1118500009, 0.0855515748, -0.0352457538, 0.1074949056, 0.0645122379, -0.0180710256, 0.1165589243, 0.1451925784, -0.1262654811, 0.0581770986, -0.1035376713, -0.0163999051, 0.1090451330, 0.0158813000, -0.0571027920, 0.0239392519, -0.1160328537, -0.0895439088, 0.0542268008, 0.0081256479, 0.0924571902, -0.0543415472, -0.0760170296, 0.1077964753, 0.1090754718, 0.0940392762, 0.1329231113, -0.0110771954, -0.0957316607, 0.0622192919, -0.0349255204, -0.0495165959, 0.0832984149, 0.1378022581, 0.0177959800, -0.0837539881, -0.0823093131, 0.1201805025, 0.0845200270, 0.1364511997, 0.0563102514, -0.1089169234, 0.1417589635, -0.1577685028, -0.0934230760, 0.0950141698, 0.0842716843, 0.0705340803, -0.1163215339, 0.1299603134, 0.1419474632, 0.0248034596, 0.0768838823, -0.0857611746, 0.0780753344, -0.0248298794, -0.1456888616, -0.0224168450, 0.0815386325, 0.0802722573, -0.1134713590, -0.0474669933, -0.1313561201, 0.0612975955, 0.1306969374, -0.0723299012, -0.1440987885, -0.0627714470, 0.1103001982, -0.0131350905, 0.1321896762, 0.1456305236, 0.0710414350, -0.1204568893, 0.1378181428, -0.0646079853, -0.0749154761, -0.1464897692, -0.0175970495, 0.1318718940, 0.0737181455, 0.0186085552, 0.0627754480, 0.1079513878, 0.0287413895, 0.1071107835, 0.0833690166, 0.1254053265, 0.0268975049, 0.1042281240, -0.1525281668, -0.1554163396, -0.0456597805, -0.1103352830, 0.0973863751, -0.0353214517, 0.0485608578, 0.0713619888, -0.1355285645, 0.1307629794, -0.1193875670, -0.0547751784};

#endif

#endif
