//Numpy array shape [10, 20, 2]
//Min -0.157769784331
//Max 0.154544517398
//Number of zeros 0

#ifndef KEY_WEIGHT3_H_
#define KEY_WEIGHT3_H_

#ifndef __SYNTHESIS__
multi_head_attention_key_weight_t key_weight3[400];
#else
multi_head_attention_key_weight_t key_weight3[400] = {0.0379458666, 0.1282827407, 0.0565847903, -0.0909455717, -0.1094561517, 0.0152426660, 0.0520596504, 0.1098390371, 0.0348479748, 0.1395914704, 0.0465929061, 0.0770565718, 0.0498432368, 0.0343974531, 0.0197457969, -0.0319888592, 0.1438660771, 0.0927173346, 0.0278690755, 0.0195133537, 0.0585186630, -0.0687250942, 0.1276495308, -0.0379849896, 0.0569118559, -0.0717484578, 0.1311328858, 0.1086835712, -0.0396190211, 0.0169497132, 0.0203370899, 0.0796133578, 0.0260089040, 0.1462485343, 0.0508052707, 0.0210859776, -0.0813675597, 0.1177491695, -0.0084140003, -0.0123198926, 0.0994813293, 0.0561512709, -0.0370711386, -0.0583530664, 0.1523451656, -0.0234134793, 0.0509126335, -0.1481300890, 0.1358120888, -0.0685891584, -0.0175815225, -0.1262283027, 0.1381149739, -0.0675645471, -0.0786438882, 0.0146531314, 0.1039208621, -0.0747310296, -0.0439631790, 0.0604334325, -0.0706300512, 0.0044885725, 0.1208219975, -0.1564775109, 0.1432032138, -0.1337899268, -0.1101512834, -0.1547437757, 0.0331876427, -0.1555146575, 0.0209604502, 0.0619897246, -0.0419430211, -0.1216677725, 0.0194292217, 0.0305236876, -0.0113025159, -0.1458817571, 0.0056861490, 0.0683286339, -0.0997599512, -0.1182617098, 0.1331737190, 0.1469097584, 0.1388964802, -0.0275242925, 0.1029965729, 0.0774003714, -0.0161048025, -0.0028364509, 0.1057666987, -0.1415311098, 0.1545445174, -0.1507970691, 0.0737666488, -0.1404247731, -0.1142007634, -0.0535690859, -0.1077235788, -0.1343158782, 0.0091396272, -0.1352954507, 0.1344279498, 0.1510713547, -0.0559315383, 0.1047752649, 0.0571077764, 0.0178997964, -0.0234723687, 0.0779843032, -0.0319433957, -0.0675384626, 0.0172252506, 0.0662343651, 0.0639296919, -0.0540711433, 0.0320188701, -0.1059882194, 0.0921238512, -0.0341438279, -0.1091329306, 0.1125346273, -0.1577697843, 0.0195654631, -0.1296555996, 0.0685011297, 0.0972137898, -0.1084564924, 0.0322228521, -0.1305029541, -0.1334598213, 0.0214698911, -0.0719957128, 0.0541893989, 0.0111392885, 0.1070276946, -0.1033864319, -0.1498322338, -0.0040727407, 0.0765500665, -0.1231652498, 0.0674098730, 0.0149996430, -0.0245059580, 0.0269959271, 0.0611668974, 0.0156825632, 0.0508191139, -0.0058032721, -0.0220625252, 0.0709070116, -0.0648023114, 0.1441431195, -0.1461394131, -0.0175900012, 0.0237504244, -0.0198268145, -0.0458289310, 0.0707768500, 0.0355054885, -0.1422548592, 0.0297929645, -0.0463566184, -0.0283536017, 0.0028432459, 0.1018034965, 0.0975518376, -0.0014823675, -0.0719561279, 0.1206273586, -0.1039664000, -0.1233356446, -0.1105471104, 0.0542809665, -0.1302957684, 0.0270643085, 0.0395230055, 0.0220124573, 0.0695522130, 0.1400304288, 0.0960514396, 0.1425937265, 0.0196931362, -0.0032410175, 0.1097815484, -0.0897321329, -0.1413286328, 0.0185793340, 0.0944945961, 0.0130184144, -0.0765530467, 0.1517269164, 0.0561193526, 0.0361645520, -0.1191041246, 0.1132252067, -0.1396912187, -0.1458569467, -0.0815430358, -0.1064152196, -0.1236567497, -0.0097929984, -0.0028862953, -0.1412720978, 0.0795754343, -0.0708814189, -0.0889741182, -0.0865226611, -0.1435031742, -0.0522018448, 0.1237102896, -0.0920032859, -0.1223909557, 0.0757413954, 0.0419623256, -0.0958485603, -0.0091902167, -0.0230384022, 0.1316470355, -0.1569018811, -0.0963015258, 0.1253755540, 0.1413227469, 0.0268364698, 0.1414299756, -0.0076901764, 0.1162237376, -0.0394455343, -0.1071886569, -0.0978354663, 0.0835127980, -0.1491399258, 0.1328876764, 0.0939171761, 0.0023310483, 0.0815414190, -0.0679526776, 0.0642848760, -0.0149902850, 0.0829416513, 0.0399785787, -0.1290459633, 0.0006861240, -0.0696093589, -0.1284607500, 0.0253020376, -0.0139221698, 0.0740908086, -0.0559515581, 0.0722528398, -0.0886723101, -0.1562039107, 0.1387527734, 0.0439856797, 0.1177567095, -0.1457163393, -0.0652195141, -0.1492824554, -0.0599014759, -0.0822030827, 0.0979976803, 0.1438696533, 0.0104571581, 0.1490337402, -0.1307565868, 0.0633627623, -0.0898763612, 0.1519961506, 0.0531868339, 0.0966093391, 0.1493435949, 0.0946166962, -0.0081655383, 0.0045922399, 0.0187467039, 0.1423161179, 0.0817156136, 0.0836390406, 0.0207035691, -0.1274754554, -0.0529150814, 0.0772306919, 0.0010259002, -0.1230054200, -0.0044558644, -0.0529876053, 0.0921468288, -0.0490580052, 0.1190592200, -0.1298697889, 0.0108724684, -0.1322671920, 0.1377235204, 0.1359574050, 0.1132061630, 0.0827750564, 0.0983598083, -0.1320286095, -0.0582263619, 0.1268784851, 0.0077037811, -0.1281652749, -0.0897051021, -0.1031279042, 0.0227215141, 0.0308342725, -0.1462132931, 0.0467393547, 0.0687849224, -0.1529281735, -0.0218951106, -0.0446519107, 0.0264800042, 0.1216674894, -0.1157849878, -0.0465770364, 0.1238617152, -0.0265267491, 0.0605758131, 0.0328593701, -0.0370008275, 0.0291210413, 0.1089630574, -0.0575528219, -0.1466249228, -0.1533489525, 0.1033274680, 0.0053495020, -0.0457199514, 0.0424797535, -0.0262493342, -0.0982429013, 0.0156061053, 0.0314523131, 0.1219213158, 0.0040804744, -0.0966337174, -0.1121083796, 0.0017695427, -0.0341647118, 0.0291044116, 0.0815280378, 0.0090486258, 0.1203302592, 0.1467630416, 0.0302877724, -0.0919618160, -0.0239566565, -0.1481771767, 0.0198876113, -0.0530707687, -0.1413637400, 0.0015062392, 0.1148733646, 0.1266052574, -0.0740707591, 0.1394893974, -0.0236710310, 0.1330559999, 0.1014169306, -0.0202266276, 0.1301965266, 0.0755399764, -0.1432861388, -0.0134453028, 0.0818623751, -0.0279460102, 0.0729378462, -0.1240112558, 0.0923026055, 0.0380390137, 0.1324650496, -0.0826572552, -0.1551262140, 0.1465224475, 0.0745161176, -0.0230428129, 0.1206386238, -0.0224261135, 0.0797148347, -0.0864267200, 0.0385096222, 0.0039636046, 0.0429464430, -0.1289139390, 0.1159458905, 0.0206820071, 0.0840548426, 0.0649476796, -0.0900770649, 0.0041782856, 0.0093136728, 0.0019696057, -0.0009145737, -0.1426221132, -0.0834089071, 0.0060352981, -0.1064116806, 0.0192111731, 0.0998277813};

#endif

#endif
