-0.1113473624, 0.1412380040, 0.1232050061, -0.0705744699, -0.0271563381, 0.1775318980, 0.1112547815, 0.0028324127, 0.0538876802, 0.0963004827, 0.0691612065, -0.1550212801, -0.1852445602, -0.0323141217, -0.0633541048, -0.0624034256, -0.1147289574, 0.1647981405, 0.0572296977, -0.1689803600, 0.1250916123, 0.1405017674, -0.0641241223, -0.1716238856, -0.1098490208, -0.1752078980, 0.0365012884, 0.1759796739, -0.0896695033, -0.1166242212, -0.1819572896, -0.1365530789, 0.0783805847, 0.1404350102, 0.1881469488, -0.1801392734, 0.1642380655, -0.0756933764, -0.1560698748, -0.0124958307, -0.1409347057, 0.0058700442, 0.1517398655, -0.0930070132, -0.0983317420, -0.0970868319, -0.1317402720, 0.0748175383, 0.0444605500, 0.0885227919, 0.0176894069, -0.0228761435, 0.1276963353, 0.0160387009, 0.0507384986, 0.1235100031, -0.0862245634, 0.0661045015, -0.0014785826, 0.0409761816, -0.0912945345, -0.0134412497, -0.0773593113, -0.1561039984, -0.1341487020, 0.0279125869, 0.1836687326, -0.0464629233, -0.0314779878, 0.1133672893, 0.0533330888, -0.1265286952, 0.1096380651, 0.0194725245, -0.1577788889, 0.1698612869, 0.0994176567, 0.0701610148, 0.0920996964, 0.0813387036, 0.1688774526, 0.1343010068, -0.1760091633, 0.1194212139, -0.0819708258, 0.0663698912, 0.1571304500, -0.0974317193, -0.1165030226, 0.0282505602, -0.0414011180, 0.1892192960, -0.0499211103, -0.1693407148, 0.1246697605, 0.0812323093, -0.1877438575, 0.1915251017, -0.0428008437, -0.1703940332, -0.0376400501, 0.0665762424, -0.0843208060, -0.0076199621, 0.1482237279, -0.1493453234, 0.0067234486, 0.0862670839, -0.0285369009, -0.1791200787, 0.1844003797, -0.1792125553, 0.0308716893, -0.1857721359, 0.1847348809, 0.1275472343, -0.1047831997, 0.1863872111, -0.0216057897, 0.0325237811, 0.0808816850, 0.1463437080, -0.1416207403, -0.1860653609, 0.0407816619, -0.0061203241, -0.1335346103, 0.1661337912, 0.0811353028, 0.1521814764, -0.0637311190, -0.0774476826, -0.0447570086, -0.1914863586, -0.0487830788, -0.0137937069, 0.1881699860, -0.0532055646, 0.0563951433, -0.1113341078, -0.0511666834, 0.1393497884, -0.1838327348, -0.0104771703, 0.1707128882, 0.0784461796, 0.1819807887, 0.1743102074, -0.1880497783, -0.1198360026, -0.0242386013, -0.0836276188, 0.0835489035, 0.1682893932, -0.1616833955, 0.0553676039, 0.1166547835, -0.1912909299, -0.0667616874, 0.1716388464, 0.0854262114, -0.0540520400, 0.1147333980, 0.1551041603, 0.1831527054, 0.1154389977, 0.1302315295, 0.0031576753, -0.1207614243, -0.1700213403, 0.0416831225, -0.0104465485, 0.1292346418, -0.1155351251, 0.0312090963, 0.1931068301, 0.0341942459, 0.0771361887, 0.1300502717, 0.0686373413, 0.0135094970, 0.1590802670, -0.0042463094, -0.1851740628, 0.1816996038, 0.0029195249, 0.1902670562, -0.1137018725, -0.0656275898, -0.0846475065, -0.1062095687, 0.1076529324, -0.0970641598, -0.1856442094, -0.0940502137, -0.1225700229, 0.0099477917, 0.1500663459, -0.0243099779, -0.1644126177, -0.0149834007, 0.1199461222, -0.0124884993, 0.0214547217, 0.0770547390, 0.0174645633, 0.1425910890, 0.1903322637, -0.1141820326, 0.0331031084, -0.0033590198, -0.0776414126, -0.1171444580, 0.0102929920, -0.1005718485, -0.1291583776, 0.0946965814, 0.1125213206, 0.0641458631, 0.0593596399, -0.1348289251, 0.0434133261, -0.1318784952, 0.1041308343, 0.0997520983, -0.0818521231, 0.1586155295, -0.0718115792, 0.1535723209, 0.0945900381, -0.0103910118, 0.1860274076, -0.0700984597, -0.0684891194, 0.1279778779, -0.0065107346, -0.1043776944, 0.1327924430, 0.1626118720, 0.0326389223, -0.1325797737, 0.1712994576, 0.0072892457, 0.0675343871, -0.0319807827, 0.0278887749, 0.0766735971, -0.1849164814, 0.1551977694, 0.0997129977, -0.0171865225, -0.0210069716, 0.0042904913, 0.0027068704, 0.0395053476, -0.0123576969