0.2810509801, 0.2013332248, -0.0874909908, -0.0494619906, 0.1067521870, 0.1545541286, 0.1230771542, 0.0477220416, -0.0546836555, 0.0172688961, 0.1878345907, 0.0171667933, 0.0128905177, -0.1153284460, -0.2909485400, -0.2332895249, -0.0381707847, 0.0733778179, 0.0697283149, 0.1214900613, 0.0160661340, 0.0806497931, -0.1827576905, -0.2916611433, 0.2871373892, 0.2487393022, 0.2627153397, -0.1582735926, 0.0693439245, -0.0517331213, -0.0782591403, 0.2564381957, 0.1304015219, -0.1822443604, -0.0361370146, -0.0962289274, 0.0582598746, -0.1643051654, -0.0861367583, 0.0050343275, -0.0987329185, -0.1423724592, 0.1843082607, -0.0713612586, 0.0148214996, -0.1163041294, 0.2089393139, 0.0771036446, -0.1715796888, -0.0287491977, -0.2473818213, 0.2396137118, -0.1397794634, -0.0235058963, 0.0310063958, 0.2742840052, 0.1180146933, 0.2406175137, -0.1003486961, -0.2455379367, 0.1781919003, -0.0676868856, -0.1167532355, 0.2668758035, 0.2894152403, -0.1692565531, 0.0941969156, -0.0129167438, -0.2026658654, -0.2749311328, 0.0549100041, 0.1732880175, 0.0958561897, 0.1937858164, -0.1850083768, 0.0878612101, 0.0350585878, -0.0715897828, -0.0091619194, 0.2069989443, -0.1801489890, -0.0925557464, -0.1543744653, -0.2106165737, -0.1559423506, -0.0865785480, 0.0530423224, 0.2189555168, 0.2701479793, 0.2157729864, 0.2201490402, -0.0136952698, -0.1754367352, -0.1940612495, -0.2100973874, -0.2391073704, -0.2394627333, 0.0107706189, 0.0572079718, 0.1023893356