//Numpy array shape [10, 20, 2]
//Min -0.157934173942
//Max 0.154730960727
//Number of zeros 0

#ifndef KEY_WEIGHT3_H_
#define KEY_WEIGHT3_H_

#ifndef __SYNTHESIS__
multi_head_attention_key_weight_t key_weight3[400];
#else
multi_head_attention_key_weight_t key_weight3[400] = {-0.0085249096, -0.0652476698, -0.0974148810, -0.1461887658, 0.0947252959, 0.0795789361, 0.0469987541, 0.1340509504, 0.1010577530, 0.0837644637, -0.1503050327, -0.0341740996, -0.1475840807, 0.1111162454, 0.1392641515, 0.1193407029, 0.0449371338, 0.0673739910, 0.0549612492, -0.0650972575, 0.0474272966, 0.1085193604, 0.0530883670, 0.0148125142, 0.1003038734, -0.1476900578, -0.0706217960, -0.0801013857, 0.1275761873, 0.0505853444, -0.0786660612, 0.0842072964, -0.0741752908, -0.0797152892, -0.0887275040, -0.0905934423, 0.1089791507, 0.0310992450, 0.0531191379, 0.0583195835, 0.0166287571, 0.1399674267, -0.0698544309, -0.0527913943, -0.0460007936, -0.0489430279, -0.0169368982, 0.0671793520, -0.0085637718, 0.1542363912, -0.1281942576, 0.1431195885, -0.0420207158, 0.0198664367, -0.1519950479, 0.1002010852, 0.0621880144, 0.0591796935, -0.0720655248, -0.1207071990, -0.0726610720, -0.0112227499, 0.1547309607, -0.0860111862, 0.0684736520, 0.0244605243, -0.0153014809, -0.1474075913, 0.0033581853, 0.1458823532, -0.0633348748, 0.0477997512, -0.1454772204, -0.1466563940, 0.1319877058, 0.0071649700, -0.0581456125, -0.1116317362, -0.1021584421, -0.1052285880, -0.0296908319, -0.0933815688, -0.0486517772, 0.0298683941, 0.1006461829, -0.1489395648, -0.0013816804, -0.1031878442, -0.0490446240, 0.0626932979, 0.1020651907, -0.0690646693, 0.1014251262, -0.1023817956, -0.0041797608, 0.0149892718, -0.0041944981, 0.1469589919, -0.1133871078, 0.0598997027, 0.0155234039, 0.0293342173, 0.0215045661, 0.1267933995, 0.0768848658, 0.1026638597, 0.1207416207, -0.1442172229, 0.0255197436, -0.1364667416, 0.0401963890, -0.1267611980, -0.0443625823, 0.0527587831, -0.0552298054, 0.0898280293, -0.0851107836, -0.0222171247, 0.0406509787, -0.1415193081, -0.1098942608, 0.0527902246, -0.0367905945, -0.1479001343, -0.0739947259, -0.0164371133, 0.0555420071, -0.1424011290, -0.0652635023, 0.0407997370, -0.1380479187, 0.0043029934, 0.1255215853, -0.0429515317, 0.1020223647, 0.0398897678, -0.1023269445, 0.1057240814, 0.0206583738, 0.0292563736, -0.1515452415, -0.1513902694, -0.1544484943, -0.1062230766, 0.0867553353, 0.0917431265, 0.0145836920, -0.0343030244, 0.0615181327, 0.1098104268, -0.1216160804, -0.1028190851, 0.0693992376, 0.0223553628, -0.0524830669, 0.0947734565, 0.1211206764, -0.0679978356, -0.0347990468, -0.0949589387, -0.1295015216, -0.1562854946, -0.1232795119, 0.0892903209, 0.0851392895, 0.0105492771, -0.1307635605, 0.0695935637, 0.0737124532, -0.0318629146, 0.0236088336, 0.0761532634, 0.1316367537, -0.0034758747, -0.0895512626, 0.1498451978, -0.0315668434, 0.0261290520, -0.0466381386, 0.0964637250, -0.1241202801, -0.0740960911, -0.1278776377, 0.0679902583, 0.0996990651, 0.1455040723, 0.0776458532, 0.0007658154, 0.1328814775, -0.0579477400, -0.1570855826, 0.0187564045, -0.0754399970, -0.0311894864, 0.0422888100, -0.1142945141, 0.0746012330, -0.0358140841, -0.1103837639, 0.1514892131, 0.0340921432, -0.0562980324, 0.1072266847, -0.0026522279, -0.0657809377, 0.1418578774, -0.0992714316, 0.0708076060, -0.0711805448, -0.0043347031, 0.0792277455, 0.0065371692, -0.0436959416, -0.0480165035, -0.0630795509, 0.0123805404, -0.1113269925, 0.1225026399, 0.1007492691, 0.0210321844, 0.0837818831, -0.0163282007, -0.1176044494, 0.0818481594, -0.1243296862, 0.0686613172, 0.0381965488, -0.0987045020, -0.0445143133, 0.1077551693, 0.0705700368, -0.0154277980, 0.0666315705, 0.1014207155, -0.0832916275, 0.0433884859, 0.1071927994, -0.0494192615, 0.0344216973, -0.1048354805, -0.1471004635, 0.0960679799, -0.1079133078, -0.1333400905, 0.0272486508, -0.0686734095, 0.1293909103, 0.1315490156, -0.1122178882, -0.1096845120, -0.1272415817, 0.0172415376, -0.1346492022, 0.1339780539, 0.1433779746, -0.0235738456, -0.0549865440, 0.0600777864, 0.1540683359, 0.0500627160, -0.1579341739, 0.1373493820, 0.0167175382, 0.1342363805, 0.0564885885, 0.0656174123, 0.0997287482, 0.0406698734, -0.1308634132, -0.1508508921, -0.1563974172, -0.1482560337, 0.1343977600, -0.0598615929, 0.1154498607, 0.1488435417, -0.0030382574, 0.0896375477, 0.1288906485, -0.0815191045, 0.0779734403, 0.0254233927, 0.0463469326, 0.0926260799, -0.0140347779, -0.0885740370, 0.0409497768, 0.0747983605, 0.0965231508, -0.0779386535, 0.0285601765, 0.1285786480, 0.0675727278, -0.1422417760, -0.1345721930, -0.1518147737, 0.0724797100, 0.0225292891, -0.1128452122, -0.0322500616, 0.1328315288, 0.0309215337, -0.0289581865, -0.0295440406, 0.0253590047, 0.0769252032, 0.0518687963, 0.0064530224, -0.0375504196, 0.1196474284, 0.0832785070, -0.1181618124, 0.0750303864, -0.1191825718, -0.1319829822, -0.0061427355, -0.0676624849, -0.1137696207, 0.1053985208, 0.0155372769, -0.0281115025, 0.1339441389, 0.0869120806, -0.0205218345, 0.1102067977, -0.1501838416, 0.0890287757, -0.1231046394, 0.0542301089, 0.0917116553, -0.1355419904, -0.1085399538, -0.0398496166, 0.1472317427, -0.0560651794, 0.0074526072, -0.0169503987, 0.1343721002, -0.0247008801, 0.0960465521, -0.0732725561, -0.0645794496, -0.1461230516, 0.0854173452, -0.1312247813, 0.1204117984, -0.1302007735, -0.0598036572, -0.1287137270, 0.0011308044, 0.1007490605, 0.1203926057, -0.0216257274, 0.0730914176, -0.1411988437, -0.1559080184, 0.0383109301, -0.0427386984, 0.1256755143, -0.1417234093, -0.0778101757, 0.0358927250, 0.0200872570, 0.0936138183, 0.0520108789, 0.1403033584, 0.0390586853, 0.1371770650, 0.1431938261, -0.0467022657, 0.1499570459, -0.1250496209, -0.0989278257, 0.0812726021, 0.0459540039, 0.0413283259, 0.1111043543, -0.0118214488, 0.0230927616, 0.0886509717, 0.0479687750, 0.0179315060, -0.0120385587, 0.1323351711, -0.1248100996, 0.1104158312, 0.1022010297, -0.0262698382, 0.0387147367, -0.0676863864, -0.0959662497, 0.0168597400, -0.0692812800, -0.0821861550, 0.0230502635, 0.0030859709, 0.0657058805, 0.1543219537, 0.0867761075, 0.0834389925};

#endif

#endif
