//Numpy array shape [10, 20, 2]
//Min -0.156481206417
//Max 0.157350733876
//Number of zeros 0

#ifndef KEY_WEIGHT3_H_
#define KEY_WEIGHT3_H_

#ifndef __SYNTHESIS__
multi_head_attention_key_weight_t key_weight3[400];
#else
multi_head_attention_key_weight_t key_weight3[400] = {0.0805924237, -0.1012590602, 0.0389550179, -0.1084820107, 0.1262225062, -0.1235640943, 0.1110062450, -0.1405375898, -0.0961979777, 0.0825711638, 0.0180207789, -0.1307435334, 0.1156092137, -0.1537514031, 0.0877330899, 0.0784171373, 0.0980860442, 0.0605249852, 0.0207859874, -0.0194274485, -0.0693306252, -0.1296067834, 0.1197345406, -0.1228140667, -0.0043888688, 0.1223992854, -0.0813972279, -0.0536956787, 0.0417816788, 0.1247854382, -0.1051276326, -0.0085096359, -0.0421938598, -0.0020223856, 0.0188354552, -0.0558818579, 0.1360822767, 0.0536117554, 0.0274327248, 0.0939051956, 0.0254406929, 0.0977448076, -0.0297273993, -0.0029573590, 0.0253036618, 0.0660730600, -0.0128028989, 0.0935589820, -0.0893659815, -0.0217636675, 0.1158830076, -0.1403110027, -0.1221332178, 0.0811718404, -0.1147492230, 0.0945535153, 0.0530491620, -0.1188367754, 0.1455732733, -0.1453812122, -0.0315089822, -0.1168861687, 0.1348621696, -0.0155391544, 0.1180595607, -0.1424678117, 0.0495729893, 0.0232944787, 0.1122007817, -0.1036261097, 0.1312575191, -0.0425703004, -0.0944962800, 0.0428530723, -0.1381582618, -0.0580520108, 0.1408736259, 0.1048668772, -0.0324282199, -0.1439388692, 0.1174974591, 0.0739213675, 0.1156345159, 0.0107952654, -0.0754180253, 0.0777794123, -0.1559730172, 0.0174644738, 0.1299347430, 0.1190340966, -0.0656920448, 0.0195649713, 0.1254760474, 0.0323336720, -0.0136228949, 0.0317334682, -0.0171961039, -0.0473372340, -0.1278155595, -0.0268107206, 0.1487334818, -0.0075019449, 0.1326241046, 0.0419272631, 0.0675842166, -0.1540051848, 0.1341037899, 0.1151384562, 0.0870024711, 0.0185469836, 0.0819072276, -0.0905703679, 0.0761373639, 0.0818693042, -0.1214053929, 0.0083263069, -0.1483621895, -0.0267318189, 0.1412078291, -0.0250612646, -0.1447371095, -0.0872056633, -0.0488758907, 0.0622857213, 0.0488233715, -0.1348513812, -0.1367858499, 0.0857639611, -0.1014694870, -0.0333758220, 0.1548326761, 0.0010573715, 0.1422960609, -0.0108611882, -0.0769693032, 0.1357880384, 0.0780038983, 0.1573507339, 0.0983066708, 0.1374063045, 0.0790193230, -0.0495729893, 0.0147843063, -0.0607095957, -0.0410974696, -0.1221337020, -0.0539825186, 0.1167237312, 0.0503275394, -0.0561239496, 0.1177093536, 0.1477325112, 0.0241880119, 0.1184636801, -0.0521278456, 0.0187828690, 0.0105472505, 0.0581084043, -0.0739950985, 0.0849882364, 0.1517502517, 0.1352318972, -0.0859200731, -0.1106655896, 0.1571263522, 0.0765215009, 0.1391672343, -0.0291970372, -0.0722287595, 0.0602087080, 0.0355473012, 0.1115141064, 0.1204941720, 0.0240272284, 0.1333848685, 0.0743119419, 0.0874205679, -0.1491674185, -0.1325221062, -0.1113041416, -0.0009006262, -0.0136141926, -0.0404552221, -0.0474580601, 0.0083004534, 0.1203642637, 0.1071245223, 0.0436814278, 0.0440661609, 0.1219063848, 0.1536064893, -0.1015106887, -0.1524215937, 0.1492993385, -0.0088751167, -0.0973937660, 0.0800754130, 0.1226698309, 0.0626058877, 0.0955890566, -0.0448537394, 0.1398759037, 0.0288184881, -0.0164928585, -0.0545308217, -0.1409685463, 0.0118653774, -0.0105735213, 0.1385992318, 0.0042545199, -0.1551614255, -0.0249511600, 0.1205330938, 0.1158831865, -0.1548063159, 0.0490211397, 0.0694085509, 0.1383274049, 0.1345799118, -0.0605786368, -0.0441794470, -0.0420068055, 0.1447530836, -0.0786072910, 0.1153326184, -0.1558265984, -0.1421360672, 0.1571164876, -0.0302745849, 0.0886826068, -0.0508120582, 0.0948259681, 0.0963957459, -0.0841377079, -0.0814156979, 0.0562864989, -0.0426176488, -0.0611747801, -0.0972942486, 0.0369714200, -0.0746595934, -0.0673381761, 0.1222281009, 0.1354479045, -0.0093904734, 0.0459147990, -0.0402142182, 0.0351317674, 0.0106049627, 0.0170391053, 0.0840822458, 0.1191070527, 0.0956718177, 0.0621249080, -0.0959895402, 0.1384347528, -0.1165210307, -0.0544378981, 0.1567607075, 0.0128309131, -0.1249960661, -0.0197111219, 0.0503628999, -0.1357174665, -0.0919600800, 0.0795889944, 0.1513979286, -0.1532134563, -0.0287179053, 0.0255935192, 0.0743604600, 0.1545407921, 0.1507742256, -0.1289525032, -0.0994296074, -0.0167953074, -0.1518832743, -0.1079059541, -0.0517236590, -0.1037789732, -0.0071181506, -0.0654681996, -0.0552596226, 0.1018501073, -0.1563180238, 0.1361019462, 0.1292128116, -0.0127353519, -0.0410641804, 0.0493412316, 0.1441650242, 0.1023858339, -0.1457653046, 0.1022974402, -0.0551002771, -0.1435754746, -0.0339931175, 0.0491350889, 0.1273874789, -0.0977058262, -0.0486384332, 0.1365299374, -0.0367194936, -0.1230157465, -0.1204361990, -0.0319126695, -0.0863936990, -0.0283082426, -0.0428945348, -0.0485293791, -0.0453085601, -0.1394180655, -0.0194442570, -0.0850681514, -0.0284754336, -0.0864445940, 0.0816242397, 0.0092901140, 0.1366638094, -0.1231620461, 0.1012584120, -0.0304385573, 0.0231984556, -0.1564812064, -0.0362494066, 0.0690474808, 0.1380870491, -0.0158665627, 0.0146616846, -0.0261214375, -0.1327422559, 0.0370477587, 0.1136589795, -0.0745075196, 0.0371226370, 0.0918426514, 0.1140202433, -0.0476596653, 0.1254624575, 0.1418039948, 0.0204792023, -0.0668329522, -0.1316287816, 0.1301622540, -0.1114723086, -0.0760334656, -0.0293270946, -0.1390464455, -0.0640957952, -0.0555974320, 0.1542644352, 0.0278280228, 0.1381837279, 0.1069492847, -0.0607615039, -0.1120656654, 0.0649261922, 0.0706466734, 0.0523674935, -0.0701626465, -0.0499625877, -0.1054762602, -0.1138027161, -0.0992559344, 0.0388414413, -0.1410205811, 0.0486262590, 0.0018230379, 0.1562972516, -0.1503591686, -0.0236983597, 0.0921418518, -0.1300867349, 0.1452934891, 0.0865694135, -0.0792302713, 0.0445893705, -0.1416754574, -0.1547835916, -0.0938476622, -0.0192512870, 0.1495910138, -0.1042819694, -0.1104992330, -0.1113031209, 0.1215889305, 0.0198092461, -0.0380427837, 0.0632409304, 0.0008054823, -0.1324734688, 0.1019359380, 0.0550530404, 0.1294507235, 0.0169384480, -0.0551163778, -0.1323612481, 0.1284745783, 0.1447511762, -0.0000812411};

#endif

#endif
