//Numpy array shape [10, 20, 2]
//Min -0.157139942050
//Max 0.157909587026
//Number of zeros 0

#ifndef KEY_WEIGHT3_H_
#define KEY_WEIGHT3_H_

#ifndef __SYNTHESIS__
multi_head_attention_key_weight_t key_weight3[400];
#else
multi_head_attention_key_weight_t key_weight3[400] = {-0.1564952433, 0.1129016429, 0.0739563406, -0.0718385503, -0.1376311332, -0.1385942996, 0.0580718070, -0.1376032382, 0.0951211005, 0.0656246394, -0.1570961326, 0.1120608300, -0.0409994572, 0.0431569815, 0.0991339236, 0.0169655085, -0.0652552471, -0.0879559889, -0.1393189132, 0.0661645085, -0.0448744372, 0.1549694091, -0.1032635421, 0.1018413752, 0.1448249966, -0.0725829601, -0.0091581792, 0.0184910148, 0.1532803029, -0.0955761969, 0.0710545629, 0.1317823380, 0.0174419731, -0.1476981193, 0.1227503568, -0.0131170005, 0.1410614997, -0.0181809515, 0.0078746974, 0.1130173355, -0.1181794852, 0.0462928265, -0.0150127113, -0.1425537169, -0.0618465841, -0.0932751521, 0.0028389841, 0.0232663453, 0.1197642833, -0.1180576533, -0.0774147734, 0.0402962118, 0.1235793978, -0.0759973526, 0.0617232025, 0.1433498412, -0.0422750562, 0.0535272807, -0.0465009212, 0.0126975775, 0.0102519989, 0.1106999964, 0.0361717194, -0.0456000343, 0.0318735391, -0.1198529825, -0.0694935173, -0.0240364671, -0.0650966540, -0.1244094148, 0.0555313826, 0.0175470710, -0.0205828696, -0.0356698483, -0.1278864592, -0.0692868978, -0.0346866697, -0.0536439940, -0.0209196210, -0.1254340708, 0.1059095711, -0.0344118923, -0.1551834047, -0.0089748949, -0.0506324694, -0.1101176962, 0.0574874133, -0.1416265219, 0.1425897330, -0.0544284731, 0.0972663015, -0.1539292932, -0.0731694549, -0.1123946458, -0.1424312443, 0.1197310835, 0.1541526467, 0.0280416608, -0.1047407389, -0.0676792562, -0.1428030133, -0.0280804485, -0.0841842592, -0.0761117265, 0.0478583574, -0.1055804119, 0.0485577285, 0.0216183066, -0.0196979195, 0.0028602779, 0.0471653342, 0.0879182965, -0.1388550997, -0.0330712199, -0.0256497562, -0.0563352033, 0.0852825046, 0.0341046602, -0.0073917955, 0.1496416777, 0.0527996868, -0.1379374266, 0.1140101701, 0.0600995421, -0.0768455043, 0.1556970328, -0.0575628132, -0.0853657722, -0.0269606113, 0.1543261260, -0.0411784798, 0.0892259032, -0.0639498308, 0.0281260163, -0.0843821764, -0.0612769425, 0.0448139012, 0.0379078239, 0.0639577508, -0.0050142705, -0.0782610029, 0.0265069604, -0.0668353662, -0.0721923038, -0.0918068066, -0.1242927760, 0.1016647667, -0.0232996792, -0.0964673162, 0.0278866738, -0.1355448514, 0.1233020872, 0.1070999950, 0.0019826889, -0.1030168831, -0.1141339689, 0.1550235003, -0.0183624625, -0.1311214864, -0.1221653670, -0.0501395762, -0.1046579927, 0.0372633189, -0.0016250908, -0.1289367825, 0.0595866293, 0.0433057696, 0.0333414078, -0.1551010013, 0.1540915519, 0.1363427490, -0.1359397322, -0.1362847835, -0.0877087340, 0.0072637349, -0.1528350562, 0.1431072801, -0.1103195697, 0.0739997327, -0.0405370593, 0.0042461455, -0.0339916423, -0.1024811268, 0.1393719465, 0.0419726819, 0.0466970652, -0.1300430894, -0.1213768572, -0.0922776088, 0.0699926615, 0.0256972909, -0.1247059405, 0.0737385303, -0.0458099321, 0.0126205981, 0.1522038132, 0.1459514648, -0.1517115980, -0.1420414150, 0.0689481497, -0.0041788518, 0.1043036729, 0.0868936032, -0.0516813621, 0.0490975529, -0.0130698830, -0.1510903090, 0.1318619698, -0.0438717604, 0.0304178298, 0.0006658137, 0.1132027954, 0.1340675801, -0.0868496075, 0.1071501225, 0.0106797516, -0.0297411978, -0.0603914708, 0.1408897191, 0.1456023306, -0.1501525491, -0.0437488332, 0.1518732458, -0.0397660360, -0.0679655671, 0.0356312543, -0.0652957708, 0.1229161471, 0.1106153280, -0.0856261477, -0.0138400644, 0.0314267278, -0.1190759689, -0.0323974639, -0.1001876667, 0.0330084562, -0.0645028874, 0.0784056485, 0.1202325672, 0.0471037775, -0.1307586581, 0.1212927848, 0.0886007994, -0.0448573232, -0.1286990643, -0.0596441925, 0.1199363321, -0.0091585964, -0.1124400049, 0.0148747116, -0.0153234154, 0.0165720284, -0.1153563410, 0.1320005804, -0.0390713513, 0.1384277195, -0.0070492029, -0.0244730860, 0.0190061778, 0.0069123209, -0.1310324073, 0.1380054206, 0.1087538451, 0.1027324945, -0.0874376148, 0.1261240095, 0.0314785093, -0.1089384854, -0.0996769369, 0.0191902220, -0.1438042521, 0.0447884053, -0.0364587456, -0.0178295672, -0.1481649280, 0.0364128202, 0.0565290749, 0.1461585611, -0.0735230520, 0.0685212612, -0.0143048018, -0.1272067428, 0.1419498473, 0.0353329480, 0.0379661471, 0.0054168701, -0.0651765764, 0.0227856338, 0.1010803431, -0.1232204437, 0.0482667089, 0.0615429282, 0.0333953798, 0.0091840327, 0.0801087320, 0.0966892093, -0.1571399420, 0.0676964074, -0.0175318420, -0.0470508859, -0.0589740872, 0.0966975838, -0.0684463605, 0.0407963842, -0.0076301247, 0.0811003596, 0.0699038953, 0.0198199898, 0.0452835709, 0.0252431184, 0.1343468279, -0.1288884580, 0.0930619091, -0.0610563755, -0.0349809304, 0.0776213855, -0.0844222084, 0.0720372498, -0.0055900514, -0.0017737746, 0.0054345131, 0.1134893447, -0.0019686222, -0.1118387282, -0.0172755420, -0.0488815457, 0.0935923010, 0.1289552301, -0.1552117169, -0.1202690899, 0.0813798457, -0.0097798109, 0.1388845295, 0.0214660764, 0.0047878921, 0.0917082280, 0.0028426349, 0.0119695663, -0.1508646905, 0.0985263139, 0.0122839659, -0.1468239576, 0.0153925866, 0.0117533356, 0.1102240533, 0.0725820214, 0.0090614110, 0.0677074939, 0.1336495131, -0.1527727395, -0.0593146831, -0.1184969395, 0.0316950530, 0.1383299679, -0.1375453770, 0.0860089660, -0.0292559266, 0.1034123152, -0.0929336920, 0.0809390545, 0.1572436839, 0.0042364895, -0.0505136847, 0.1272123903, 0.0634838194, 0.1321875602, -0.1316161156, 0.1069447547, -0.0924211219, -0.1408963203, -0.1036958843, -0.0823618993, -0.1073083803, -0.0791468471, -0.0658096224, 0.1579095870, -0.1407070905, -0.0853080153, -0.0742193982, 0.1541682631, -0.0751959458, -0.0970538855, 0.0086995512, -0.1133342534, 0.0950669795, -0.0464176908, 0.0071185976, 0.0338024050, -0.1135478839, 0.0646595955, -0.0549409315, -0.0964323729, 0.0564312190, 0.1088029891, -0.0517159253, -0.1313216239, -0.1011320576, -0.0528965294, 0.1306104809, 0.0347384959};

#endif

#endif
