//Numpy array shape [10, 20, 2]
//Min -0.156936600804
//Max 0.157982304692
//Number of zeros 0

#ifndef KEY_WEIGHT3_H_
#define KEY_WEIGHT3_H_

#ifndef __SYNTHESIS__
multi_head_attention_key_weight_t key_weight3[400];
#else
multi_head_attention_key_weight_t key_weight3[400] = {0.0124295056, 0.0871734321, 0.0908347368, -0.0948363096, 0.1413627118, 0.0710392594, -0.0228080601, -0.1553411782, -0.0607114434, -0.0405354425, 0.0526738912, 0.0676911026, -0.0273358077, 0.0510485321, 0.0339089036, 0.0546904653, -0.1335185468, 0.1222264916, -0.0738133267, 0.0316994190, 0.0643076897, -0.0221134871, -0.0339913070, -0.1180118471, 0.0413195044, 0.0799753219, -0.1035334468, 0.1388770193, 0.1524291188, -0.1247511059, -0.1059874669, -0.0564814657, 0.0025122911, -0.0455270484, 0.0948726386, 0.0462059081, 0.0184442997, 0.1279821247, -0.0400353447, -0.1455406994, -0.0936854854, -0.0430723578, 0.1518590599, 0.0679691583, 0.0770364106, 0.0063099265, -0.0741847157, -0.0001862198, 0.1508436948, 0.0343088359, 0.0725072622, 0.0323586762, -0.1085253656, 0.1301722676, 0.0408098698, -0.1175303012, 0.1120373458, -0.0513772145, 0.0944929272, -0.0130144656, -0.0477568805, -0.0456523597, 0.1199993938, 0.0759788007, -0.0010634065, 0.0576972812, 0.1579823047, -0.0995521992, 0.0199038982, 0.0468072146, 0.0434457064, 0.1557973474, 0.0713930130, 0.0222816169, 0.0848998725, 0.0514592528, -0.0661495402, -0.1033546180, -0.0205226690, -0.0046936870, 0.0834704190, 0.1106256694, -0.1171077490, 0.1483197957, -0.0815014243, 0.0501138717, -0.0135338157, 0.0974010378, -0.1051551849, 0.0993333310, 0.0033948720, 0.0205817819, -0.0470716953, -0.0314111561, 0.1142851561, 0.1496833116, 0.0017989874, -0.1230168045, -0.0661061108, 0.0305256844, 0.1002212018, 0.0018332601, 0.1420467347, -0.1569366008, 0.1058098823, -0.0283619314, -0.1353660226, 0.1297861785, 0.1416959912, 0.0467565060, -0.0169894099, 0.0918575823, -0.1043077111, 0.1016608328, -0.0848633051, 0.1468222886, -0.1289381832, 0.0833409429, -0.1506962627, 0.0287977904, 0.0216707736, -0.1057078242, -0.0573974028, 0.1223178059, 0.1451681107, -0.0764513016, 0.0131395459, 0.1307308227, -0.0509340838, 0.1555795819, 0.0743234456, -0.0372270867, -0.1003943980, -0.1337018311, -0.1245997548, 0.1140074581, -0.0009839386, -0.0213796347, -0.1515441090, -0.0608535632, 0.0020784736, -0.0391655192, -0.1000420004, -0.0100945383, 0.1511176676, 0.1195358485, 0.1387008578, -0.0116428137, 0.0096326768, -0.1537677199, -0.0554257929, -0.0267353356, -0.0957505405, 0.0824038237, -0.0607274622, -0.0859761685, -0.1163898855, -0.0456845909, 0.1319951564, -0.1206897870, -0.1153662503, 0.1328936368, -0.1550156176, -0.1014405712, 0.0920611173, 0.0842581093, -0.1294819713, -0.0500353053, 0.1249770969, -0.1412101537, -0.1315105706, -0.0204669535, 0.0857632905, -0.0214378387, -0.0534333810, -0.0197196752, -0.1001321748, -0.0868035480, -0.0564737767, 0.0807268918, -0.0184570849, 0.0989460200, -0.0618653223, -0.0992304981, 0.0696401894, -0.0594604239, 0.0115633756, 0.0137957335, -0.1136382446, 0.0448358655, -0.0969564468, 0.0397995114, 0.0248149931, -0.0051314235, -0.0602484420, 0.1399997324, 0.0227949023, 0.1519300193, -0.0902889594, 0.0252810419, -0.0011572242, 0.0108828694, 0.0854461044, -0.0061849207, 0.1401246935, 0.1486216038, 0.0035448223, -0.1250012219, 0.0086214095, -0.1018804237, -0.0793353319, -0.1373865604, 0.1037627906, 0.0343898833, -0.0622378811, -0.0923720002, 0.1241171807, -0.1510197818, 0.1342831701, -0.0384588838, -0.0781919360, 0.1069514900, 0.1461149007, 0.0311296731, 0.0330013037, 0.0283131450, -0.0115414709, 0.1171389669, -0.0492954627, -0.0074450970, 0.0538194031, -0.0849954337, 0.0953439027, -0.0755730718, -0.0606567040, -0.0981870294, -0.1408474296, 0.0784084797, -0.1048317105, 0.0778516382, 0.1145231575, 0.1083330661, 0.1041611582, 0.1242853254, -0.0235494971, 0.0110355020, 0.1410163790, -0.1560102999, -0.0137931406, -0.1378346980, -0.1385374963, -0.1117104441, -0.0199728459, 0.0484765619, 0.1236050278, 0.1130183190, 0.1091584116, 0.1054852754, -0.1314739287, 0.0964563042, -0.0025485307, -0.1453985870, 0.1524054557, -0.1372600496, 0.1369221956, 0.0934921354, -0.1542640030, 0.0543489754, 0.0313332379, -0.0822675079, -0.1535286456, 0.0783300549, 0.0570103675, 0.0666601807, 0.1303876787, -0.1157996953, -0.0607204884, -0.1325603276, -0.0468200296, 0.0091956854, -0.0120788962, -0.1325041503, 0.1495838612, 0.0768913478, -0.1426857412, -0.0102422386, 0.1521737427, 0.1458909661, 0.1167810708, 0.0905365944, -0.0840386376, -0.0309132785, 0.1329993457, -0.1460521072, -0.1042423472, -0.0190373212, 0.1197672337, 0.1388592273, -0.0501799881, 0.1342056841, 0.1350194961, 0.0683332682, 0.1274139136, 0.0328514129, 0.1462652832, 0.1466040462, 0.1310438067, -0.0568048358, -0.0975111201, 0.0542450696, -0.1299157143, -0.0462620333, -0.0156882554, -0.1543907076, -0.0446171537, 0.1179218739, -0.0147417486, 0.0851898044, -0.0213180482, 0.0990973860, 0.1153431684, -0.0088372678, -0.1567428261, 0.0019902587, -0.1561819762, -0.0967005938, 0.1244371980, 0.0020548105, 0.1008354574, -0.1001105756, -0.0942935422, 0.1067975909, -0.1212212816, 0.0613130927, 0.1042387038, 0.1402460486, -0.0276556760, -0.1157232448, 0.1509961933, -0.0522347912, -0.1327717602, 0.0100178719, -0.0614631623, 0.1249887198, -0.0926365182, -0.0053469390, -0.0176802129, 0.1259329170, -0.1450473666, -0.1162396222, -0.0871511549, 0.1391287297, -0.0425098017, 0.0970008820, -0.0430745408, 0.1434981078, -0.0356725305, -0.0564707965, -0.1060417891, 0.1563705355, -0.0942829847, -0.0788399950, -0.1295145750, -0.0470575243, -0.1538597792, -0.0885741487, 0.0520417392, 0.1158565432, 0.0281708091, 0.1245613247, -0.1369851977, -0.0565950125, -0.0840672106, 0.0145206153, -0.1222601086, -0.0915337652, 0.0698159784, -0.0577173755, -0.0190542489, -0.0975952968, -0.0496988967, -0.0693976134, 0.0792284608, -0.1441830397, 0.0553671718, 0.0801256895, -0.1112857088, 0.1087195128, -0.1463429481, 0.0821542293, 0.0413575023, -0.0833356231, -0.0527338311, 0.0848318189, -0.0073115826, -0.0146132708, 0.0451403558, 0.0502538830, -0.1320697367, 0.0200707912};

#endif

#endif
