//Numpy array shape [10, 20, 2]
//Min -0.158012062311
//Max 0.157049492002
//Number of zeros 0

#ifndef KEY_WEIGHT3_H_
#define KEY_WEIGHT3_H_

#ifndef __SYNTHESIS__
multi_head_attention_key_weight_t key_weight3[400];
#else
multi_head_attention_key_weight_t key_weight3[400] = {-0.1063617617, 0.1401959807, 0.1480344087, 0.0428799838, -0.1209973246, 0.1137501448, -0.0697024688, -0.1356855780, 0.0955071002, -0.0297033191, -0.1042940691, -0.0120205283, -0.0039926022, 0.1353670806, 0.1303448826, 0.0987435132, 0.0556114167, 0.1516688615, -0.1188993901, 0.0158707500, 0.0076429695, 0.0575158000, -0.0462531000, -0.1074736118, -0.0965355188, 0.0337783545, 0.1035612375, 0.0826184750, 0.1002628058, 0.0571915656, 0.0946974009, -0.0540473163, -0.0354514346, 0.0832071155, -0.0734069869, -0.1222268566, 0.0367524028, 0.0087206215, 0.1403912455, 0.0684502125, 0.0725974292, -0.0326929688, 0.1333069652, -0.0551529750, 0.0802409351, 0.0342828929, 0.1175972074, 0.0995735377, 0.0242954046, -0.0794516727, 0.1456267685, 0.1263182312, 0.0246271491, 0.1070800573, 0.1451547295, -0.0257732272, 0.0136353672, -0.1006531119, 0.0032547861, 0.1137826592, 0.0166700482, 0.1214055568, -0.0976461172, 0.0949301869, -0.0091355592, -0.0054970533, -0.0650620833, -0.1455372423, -0.1110793948, -0.0769217685, 0.0061261803, -0.0038250685, 0.1117153913, 0.0587094873, 0.1507368535, -0.0231849998, -0.0975186974, 0.1095260829, 0.0514455289, -0.0068900883, 0.0639916658, -0.0536964685, -0.1388560385, -0.0638132915, 0.0087348372, 0.1334901601, 0.1129541248, -0.0448982194, -0.0338120908, 0.0496323258, 0.1536779553, -0.0069110394, 0.0432958305, -0.0516075492, -0.0042056292, 0.1114354879, -0.1196438372, -0.1442426443, -0.0658476949, -0.0058710575, 0.1176772565, 0.1510735005, -0.0182280391, -0.1223920137, 0.0176308751, -0.0497454926, 0.1460109800, -0.1224219799, -0.0587094501, -0.0239530057, 0.0260289609, -0.0887754560, 0.0510069132, 0.0691038072, -0.0055077225, 0.0485836267, -0.1247873306, 0.0284795016, -0.0338716134, 0.0429629236, 0.0916721076, -0.0361546353, -0.0201637149, -0.0272065848, -0.1407213360, -0.1222495139, 0.0246100724, -0.1075831205, -0.0887107998, 0.0166184306, -0.0439678133, -0.0850320011, 0.1243904978, 0.0768478066, 0.0152374655, 0.1350446492, -0.0713725761, -0.0590734184, 0.0382109135, -0.0121071190, 0.1416517049, 0.0236114711, 0.0303119421, 0.0728919953, -0.1548688263, 0.1184792072, -0.0053293407, -0.1319284439, 0.0861036628, 0.1245342642, -0.0586863458, 0.0985280424, 0.0587983429, -0.0126716793, -0.1246133223, -0.0271992683, -0.0805847719, 0.0846120566, 0.0324846953, 0.0273080617, 0.1466523260, 0.0799256712, 0.0359406322, 0.0643301904, 0.0263131261, 0.0227627903, 0.0117972940, 0.1460838765, 0.0589270443, 0.0770594031, -0.1150107235, 0.0655509084, -0.1410592496, -0.0345328227, -0.0138168484, -0.1163040102, 0.0797833353, 0.0964197069, -0.0968012810, -0.0738903359, -0.0367216468, 0.1124523729, -0.0884817168, -0.1579350829, -0.1100334078, 0.1374890953, 0.0997851640, 0.0536582768, -0.0680925325, 0.1296590418, 0.1240665466, 0.0387203544, 0.1153337806, -0.1191641763, 0.1383067816, -0.0917678624, -0.1074803919, -0.0160810202, -0.1388494074, -0.0108187497, 0.0898445100, 0.1299917847, 0.0313629806, -0.0475180298, 0.0050146431, 0.1107710153, 0.1122074872, -0.0148341805, 0.1002943367, -0.1197884083, -0.0003738850, -0.0410975069, 0.0421349406, 0.0193623751, 0.0690481663, 0.0637032837, 0.0742034167, -0.0513272285, 0.0139650702, 0.1136634797, -0.0183752477, -0.1171971336, 0.0578209609, -0.1234258190, 0.0570215583, -0.1577164829, 0.1561583430, 0.1373386830, 0.0066508502, -0.1547890604, -0.1035841852, 0.1362787336, 0.1000816971, 0.0436366796, 0.0781742930, -0.0012424588, -0.0732536688, -0.1062600613, -0.0401670262, -0.1026515588, -0.1146941036, 0.0921772271, 0.0582494736, 0.1322790235, 0.1264897436, -0.1069647670, -0.1580120623, -0.1364232451, -0.1466408968, 0.0528617352, -0.1117852330, -0.0452016070, 0.0148583502, -0.0390840918, -0.0085708201, -0.0020834208, -0.0618159324, -0.1422823817, 0.0721255839, 0.0384464115, 0.1405144781, -0.1169631854, -0.0155062526, -0.0835855156, -0.0772142634, -0.1311742365, 0.0904915482, -0.0330249369, 0.1503681391, 0.0234546065, -0.0481603220, -0.0174450576, -0.0893697515, 0.0408992171, -0.1459498703, 0.0142824054, 0.1003737301, 0.0954919308, 0.1021788865, -0.0364984348, 0.0073992163, -0.0695628002, 0.0600561947, -0.1010104865, 0.1067815870, -0.0472868010, 0.1113454849, -0.0146535784, 0.0931280702, -0.0334125012, -0.0958678946, 0.1269905418, -0.0867759511, 0.0366320014, -0.0189792216, 0.0823991448, 0.1096561402, -0.1251843274, 0.1458207220, -0.0501009002, 0.1511447579, 0.0462817103, 0.1284540743, -0.1364016831, 0.0471550822, -0.0713497698, -0.0807118863, -0.1357850581, -0.0445218906, 0.1451377124, 0.1376040429, 0.1280196756, -0.0030187219, 0.1038839966, -0.1165825576, -0.0537610054, 0.0665493160, -0.1373305023, 0.0522603840, -0.0171827674, 0.0444537699, 0.0535922796, 0.0173032880, 0.1080481857, -0.1009337306, -0.1114765331, 0.0990322381, -0.0854878351, 0.0252273679, -0.0919401050, 0.0789572746, -0.0333308131, 0.0806694776, -0.1310232878, 0.1519153267, 0.1151673347, -0.0987610072, 0.1385262161, -0.0291991830, 0.0583088845, 0.0481952727, -0.0243262500, -0.1433613151, -0.1242860705, -0.1099563912, 0.1035098881, -0.1177013367, -0.1231735870, 0.0914011747, 0.0925320238, 0.1436411887, 0.0972901732, 0.1403027922, -0.1425410956, 0.0861541033, 0.1081542224, 0.0318320841, 0.0141955912, 0.0520732552, 0.1277771145, 0.0638832897, -0.0699834302, 0.0727313012, 0.0266661197, 0.1570494920, -0.0425903574, 0.0827134252, -0.1299347878, 0.0161090344, -0.0950266421, -0.0283027142, 0.0591489226, 0.1492056102, 0.0391922891, 0.0516698658, -0.0901127979, 0.1324027032, -0.0565773696, 0.0780149847, 0.0028387904, 0.0590785891, -0.0882122144, 0.1458135098, -0.0411880538, 0.0743013471, 0.0535294712, -0.0302230418, -0.1432005018, -0.0308370143, -0.0372321755, -0.1131674051, -0.0967884660, -0.0783826485, -0.0711584538, 0.0968995839, 0.0457654446, 0.1009028107, 0.1451842040, -0.0142594576, 0.0865291506};

#endif

#endif
