-0.1247025132, -0.0851872340, 0.0582950115, -0.0406797826, -0.1359340847, 0.1066888124, -0.0202471316, -0.1396330446, 0.1086246222, 0.0079713911, -0.1094986647, 0.0748328418, -0.0053242445, -0.0067909360, -0.0221893042, -0.0276118666, -0.0840099156, 0.0603205562, -0.0257731378, 0.0165304542, 0.1513360292, -0.0427061990, 0.0542506576, -0.0306748450, 0.1489509195, 0.0672987103, -0.0962416679, -0.0931386501, -0.1065318882, 0.0648508370, 0.0732441694, 0.1330344528, 0.0381933451, 0.0881269127, 0.1092934161, 0.0701726675, 0.0481166244, -0.1494959444, -0.1135170162, 0.0194775909, 0.0022972375, 0.1184454709, 0.0346727967, -0.0155893415, -0.0371092856, -0.0443690643, 0.1391573995, 0.0531903505, 0.1501529664, -0.1438266039, -0.1540503800, 0.1200784594, 0.0703921765, -0.0555507243, 0.0229031742, 0.0653190315, -0.0220952034, 0.1081136316, 0.0804992765, 0.0010784119, 0.0352388918, 0.1024218053, -0.0855452120, -0.0059162080, 0.0084561855, 0.1164753288, -0.0437792912, -0.1543523669, -0.0035030544, -0.0764258578, -0.0041561574, 0.0704822838, 0.0159680843, -0.1468138248, 0.1537651867, -0.0958713293, 0.1246698946, 0.0774453133, -0.0685595274, -0.1224903241, -0.1543654948, 0.1106188446, -0.1084661782, -0.0329751372, 0.0197962075, -0.1005325168, 0.1116470248, 0.0538783967, -0.0368424654, 0.0499900281, -0.1213290542, 0.0224878192, 0.0286951065, -0.1081269011, 0.0361288488, 0.0467082560, -0.0016933233, 0.0129855871, 0.0900987834, 0.0204676688, 0.1228151172, 0.0944795758, 0.1545019895, 0.0385414809, -0.1456794292, 0.1454028934, 0.1266199201, 0.0762420446, -0.0260612965, -0.1536194235, 0.1347471029, 0.0739391595, -0.0487220064, 0.1138292998, 0.0534250885, -0.0722629875, 0.1065089256, 0.1388722509, -0.0226918012, -0.0879618302, 0.1528605074, -0.1099739522, 0.0602245033, 0.1314379126, 0.1178899258, -0.0435140505, -0.0002275854, -0.0290326476, 0.0421476364, 0.0869700164, -0.1065775827, 0.1523022801, -0.0498253331, -0.0241702944, 0.0080623925, 0.0392244458, -0.0411169231, 0.0636508167, 0.0470438749, 0.0012222528, -0.0129616857, -0.1104080081, -0.0033866912, -0.0072521716, 0.0004239082, -0.0486819372, -0.0264951587, -0.0232649148, 0.1164193302, -0.0367144793, -0.1433134675, 0.0533118844, 0.1418911666, -0.0159001052, 0.1221072823, -0.0593931302, -0.0410811082, 0.0203998089, -0.1062731743, -0.0812448561, 0.1430798322, 0.0126241744, -0.1025051475, 0.1060576588, 0.1131982058, -0.1185513735, 0.1229855865, -0.0691145062, 0.1486165076, -0.0011437386, -0.0554599836, -0.0871240497, 0.1256071776, -0.0595176816, -0.1065114215, -0.1510313153, 0.0418152660, -0.1410816461, 0.0412272960, 0.0887474418, -0.0869061202, 0.0724406838, 0.0054448098, 0.0954411477, -0.0077866316, -0.0037994385, 0.1250025779, 0.1202570647, -0.1177659109, -0.0116729289, 0.1563199013, -0.1134450883, -0.0206794441, -0.1451992095, -0.0316814035, -0.0599060059, -0.0960460156, -0.0342640057, 0.0054944158, -0.0216484219, 0.0574059635, -0.0452141613, -0.0507340655, -0.0553829670, -0.1492950916, -0.1543892026, -0.0280702263, -0.0980790257, 0.1419625431, 0.1103757769, -0.0564494655, 0.1151697487, -0.1102973968, 0.0816027969, -0.1077389270, -0.0433561057, 0.0530640185, 0.0984334499, -0.0880720243, -0.1390967667, -0.0720909312, -0.1318521500, -0.0007991493, 0.0773933232, -0.0197477639, -0.0648029968, -0.1376179457, -0.0329087526, 0.1276345998, -0.0551848337, -0.1514870822, 0.1355626732, -0.0407987908, -0.0972779617, 0.0658725351, -0.0177217573, -0.0865481421, 0.1238796264, 0.0975512713, -0.0015881062, 0.1513926834, 0.1118991822, -0.0089406669, 0.0177514255, -0.0691097975, 0.0414137840, 0.0379104614, -0.0747978613, 0.0134416074, 0.0069447756, -0.0056330711, 0.0813905150, 0.0217086971, 0.0789704323, -0.1268897802, 0.1557799429, -0.0157631189, -0.0476526469, 0.1455238909, -0.0035071224, -0.0484795049, 0.0172760636, 0.0048792362, 0.0757833868, 0.0285685062, 0.0402690768, -0.1219269782, -0.1502360106, 0.0310819447, 0.1423674375, -0.1331232190, -0.1253102273, -0.0554741994, 0.0415053517, -0.1423046887, -0.0188103020, 0.1150190085, -0.0895753130, 0.1222201437, 0.1178348213, -0.1311378926, 0.1083001643, -0.1361161619, 0.0469907969, 0.0463184267, -0.0798655450, -0.0520601794, 0.1243509799, -0.1250210106, -0.0253321230, 0.0694506615, -0.0198599845, 0.0077584833, -0.0980280638, 0.1005545110, 0.0915594399, 0.0583608299, -0.0942461565, -0.0293990225, -0.0314691365, 0.0300653577, -0.1134561300, -0.1576254368, -0.1272691637, -0.0361451730, -0.1512096226, 0.1387049705, 0.0722047836, 0.0451876670, 0.0574920624, 0.0688440353, -0.1504536867, 0.0308658183, -0.0468626320, 0.1468373388, 0.0559036434, 0.1501680762, 0.0011688769, 0.0719189197, -0.0909409374, 0.1247889251, 0.1455761045, 0.0619428605, 0.0090122521, 0.0502304733, -0.1564307809, -0.1156951934, -0.1150570586, 0.0755123347, -0.0356000736, 0.0140258074, -0.1328749508, 0.0812286437, -0.0052374750, -0.1396154761, 0.0681568831, -0.1548694968, 0.0095992684, -0.1100980192, 0.1566675752, 0.0184128284, -0.0826453865, 0.0761865526, -0.1419009268, -0.1101598442, 0.0191354752, -0.0639287159, 0.1057074219, 0.1250913590, -0.0913759992, 0.1273876280, 0.0294004232, 0.1226271242, 0.1204029769, 0.0792228132, -0.1131425276, -0.0508490056, -0.1160893217, -0.0277621597, -0.0576997697, 0.0773536712, -0.1282634437, -0.1431622356, -0.1225494742, 0.0393962711, -0.0732935518, -0.0704665929, -0.0846443921, -0.0444478169, -0.0459875241, -0.1456161439, 0.1062971503, 0.0528115183, -0.0587548018, 0.0057733804, 0.0383161604, -0.0186239630, -0.1407844722, 0.1067865640, -0.1429003179, 0.1301924139, 0.0408391654, -0.0036604404, -0.0071458220, -0.0150810331, -0.1408588141, -0.0809974074, -0.0337969363, 0.0605798066, -0.0443105996, -0.1023831964, -0.0362942293, 0.1160430163, -0.0816281959, 0.0766196251, -0.0271306187, 0.1194734424, -0.1351503581, -0.0139408410, 0.0945377797