//Numpy array shape [5, 100, 20]
//Min -0.048989724368
//Max 0.048988968134
//Number of zeros 0

#ifndef KEY_WEIGHT3_H_
#define KEY_WEIGHT3_H_

#ifndef __SYNTHESIS__
multi_head_attention_key_weight_t key_weight3[10000];
#else
multi_head_attention_key_weight_t key_weight3[10000] = {0.0086957142, 0.0327762812, -0.0422101058, -0.0268119331, 0.0350968912, -0.0293116216, 0.0452273265, -0.0222846773, -0.0007740632, 0.0429321006, -0.0187111795, -0.0179900993, 0.0131329522, -0.0251613520, 0.0010487065, 0.0368939340, -0.0054763444, -0.0247985218, -0.0157907531, 0.0222290084, -0.0295771454, -0.0202733204, -0.0049675964, 0.0229670703, 0.0114380904, 0.0420798957, 0.0246027038, 0.0274504572, -0.0082632117, 0.0418312028, 0.0406991020, 0.0134678297, -0.0157629885, 0.0174846351, 0.0135778412, -0.0342450514, -0.0156779699, -0.0357587188, 0.0364282429, 0.0399219096, 0.0409801602, -0.0439267382, 0.0313017294, -0.0331873298, -0.0441469066, -0.0055905506, -0.0446550138, -0.0168892406, -0.0275028795, -0.0219330713, 0.0278672650, -0.0233996343, -0.0357630886, -0.0370947234, -0.0041919090, -0.0099687465, -0.0155867226, 0.0454223156, -0.0412317961, 0.0428501740, -0.0322915353, -0.0016878769, 0.0019968972, 0.0027170889, -0.0219305009, -0.0416664816, -0.0138468705, -0.0218474213, -0.0124275424, -0.0477411114, -0.0484955646, -0.0145978555, -0.0168543048, -0.0374339372, 0.0033836365, 0.0174411237, 0.0041899346, -0.0136793926, 0.0014660135, -0.0132473670, -0.0263122246, -0.0270873960, 0.0428826064, 0.0248489827, -0.0363044143, 0.0061052702, 0.0370651707, 0.0107814819, -0.0468761809, 0.0274220407, -0.0102972277, -0.0374406166, -0.0430863090, -0.0127684027, -0.0348683372, 0.0141117647, 0.0345755294, 0.0463102907, 0.0130354688, -0.0326917395, -0.0478528664, -0.0097891428, -0.0091239959, -0.0044043362, -0.0219964236, 0.0245546997, -0.0316896513, 0.0474629030, 0.0185083300, 0.0348672867, -0.0457693301, -0.0276757572, -0.0244017728, 0.0094079040, -0.0076083429, -0.0079986677, 0.0217461288, -0.0054920875, -0.0274131056, 0.0163828507, -0.0460160486, -0.0274519194, -0.0148856975, 0.0399087667, 0.0480354503, -0.0174584202, -0.0346052870, 0.0203056633, 0.0227476731, 0.0392519981, 0.0474878922, -0.0215651728, -0.0412170067, 0.0486679748, 0.0362084135, -0.0029012486, -0.0263163466, 0.0351371542, -0.0024644844, 0.0126173683, 0.0147178322, 0.0277021900, -0.0213893875, 0.0226235539, -0.0017172769, 0.0459489897, -0.0255270302, 0.0382565483, -0.0420040935, -0.0133937672, -0.0094471499, 0.0179614127, -0.0240577478, -0.0469616316, 0.0138142034, -0.0374737307, -0.0243937951, 0.0160508305, 0.0079698414, -0.0273685008, 0.0042387471, -0.0331432819, -0.0384955853, -0.0082049966, 0.0435750261, 0.0083989687, -0.0320652127, 0.0299418047, -0.0246304329, 0.0137146264, -0.0471288078, -0.0304110087, 0.0477121472, -0.0313196257, 0.0116227530, -0.0369549468, -0.0426087454, 0.0075452141, 0.0309981331, -0.0071651079, 0.0409239531, 0.0324902236, -0.0359651186, -0.0226860512, 0.0150090382, 0.0483953878, 0.0104947723, -0.0170329399, -0.0412781537, -0.0248793010, 0.0156701431, -0.0251905974, -0.0014168508, -0.0271848198, 0.0274035037, 0.0002016090, 0.0424855351, 0.0125035942, 0.0032910854, 0.0162035152, -0.0443782657, -0.0094154738, -0.0357384682, -0.0185873825, 0.0300245509, 0.0125815794, 0.0254406184, -0.0262848344, 0.0462397113, -0.0000450164, -0.0436863154, -0.0219191369, 0.0352734923, 0.0369546190, -0.0144955479, 0.0202910379, 0.0365602970, -0.0325492471, -0.0423887633, -0.0122350194, -0.0353238136, 0.0067079403, 0.0437118039, 0.0358780101, -0.0213284399, 0.0449443683, 0.0378491357, -0.0065961257, -0.0456044637, 0.0295854285, 0.0467496291, -0.0155643448, 0.0064952783, 0.0432216227, -0.0333885774, -0.0438457355, 0.0196829140, -0.0316048637, -0.0010386631, -0.0480340011, -0.0178147219, -0.0396557786, -0.0326570272, -0.0162049271, -0.0396890678, 0.0449948460, 0.0273310691, -0.0273529999, -0.0398156419, -0.0164570287, 0.0357611850, 0.0209718496, 0.0187400505, -0.0337176025, 0.0460386723, -0.0351360068, 0.0251852274, 0.0316881090, 0.0392711163, 0.0201904997, -0.0310981125, 0.0371974111, -0.0112417340, -0.0140915215, -0.0140961148, -0.0227380507, -0.0376098491, -0.0439291447, 0.0135650933, -0.0024262443, 0.0051502027, 0.0025330707, 0.0410737544, -0.0040809363, 0.0096352808, -0.0098360032, 0.0465601161, 0.0192168951, 0.0421935916, -0.0351543948, -0.0422610529, -0.0098206550, 0.0219283998, -0.0144510716, 0.0247662738, -0.0063260347, 0.0165502131, -0.0167183615, 0.0429428220, -0.0353874117, 0.0483375713, 0.0237897858, -0.0199928470, 0.0138506293, -0.0346901342, 0.0297949463, -0.0295056272, 0.0458856300, 0.0419344530, 0.0343910158, 0.0100552402, -0.0223736912, 0.0132651925, -0.0015785620, -0.0274904631, 0.0387132689, -0.0320626274, 0.0399307832, 0.0218086317, -0.0205880627, 0.0215597749, 0.0225254521, 0.0101946294, 0.0178919286, 0.0451907441, -0.0104180574, 0.0084816404, -0.0064732842, -0.0370214432, 0.0226444080, 0.0430638492, -0.0324679986, 0.0119103044, 0.0030656010, 0.0280905887, -0.0066344813, -0.0079756938, -0.0233967137, 0.0361669958, -0.0141419210, 0.0071498416, -0.0096919052, -0.0422971211, 0.0342633352, 0.0054258518, -0.0036986247, 0.0392635390, 0.0456574336, 0.0128591359, -0.0143386498, 0.0063160844, -0.0029742979, 0.0275485516, 0.0461868122, 0.0088523179, -0.0433307402, 0.0019761063, -0.0311606359, 0.0253977999, 0.0363610238, 0.0111427009, -0.0279777106, 0.0488085449, -0.0015498511, -0.0467932746, 0.0190840587, -0.0216315500, -0.0396121517, 0.0437334105, -0.0033892766, 0.0244714469, 0.0272020102, -0.0389744192, 0.0235501751, -0.0392770395, -0.0406233668, 0.0281434283, 0.0326471478, 0.0411285162, 0.0110515505, -0.0088170804, -0.0430651829, 0.0474637225, -0.0262208618, -0.0377183221, 0.0440026224, 0.0116744936, 0.0357336551, 0.0234958977, -0.0428843983, -0.0224038605, -0.0015499592, 0.0405177549, 0.0437784493, -0.0290027764, -0.0292897206, -0.0232945476, 0.0433498248, -0.0327149630, 0.0325544924, -0.0450044945, -0.0181395803, 0.0092478283, -0.0081040710, 0.0340502411, -0.0376934782, -0.0331880637, -0.0329268053, 0.0272052363, -0.0061750002, -0.0006056242, -0.0173386186, 0.0306037962, 0.0292448923, -0.0341479219, -0.0394575447, -0.0403987840, -0.0299201775, -0.0329373032, 0.0403126553, 0.0039158277, 0.0403097942, -0.0287079718, 0.0087596141, 0.0094102994, -0.0117364563, 0.0211081207, 0.0267067924, -0.0208353549, 0.0462018400, -0.0233654566, -0.0239943359, -0.0173630081, 0.0450471714, 0.0329488590, -0.0237321537, -0.0181197710, -0.0463676862, 0.0172936544, 0.0394062698, 0.0161232278, 0.0435835645, -0.0406946056, 0.0416356772, 0.0151306763, 0.0014346987, 0.0184613913, -0.0118157417, -0.0350120142, -0.0302942190, 0.0211607143, 0.0161770359, -0.0464064404, 0.0341067389, 0.0279219747, -0.0240180120, -0.0370036885, 0.0165001526, -0.0106999204, 0.0420657843, -0.0322292224, 0.0285030007, -0.0069585480, 0.0067885555, 0.0219211951, -0.0183087196, -0.0406517982, 0.0199749395, 0.0006725863, -0.0470430665, 0.0455033630, -0.0048246309, 0.0204635859, -0.0142579861, 0.0449735969, -0.0051448755, 0.0270411223, -0.0471452773, -0.0053100660, 0.0176314265, -0.0223694630, -0.0016130880, 0.0309705287, -0.0445857048, 0.0480585396, 0.0282539874, 0.0241547972, -0.0257210489, -0.0269836411, -0.0351461694, -0.0203258228, -0.0053790137, 0.0382686779, 0.0352181345, -0.0045338422, 0.0390389785, -0.0160357319, -0.0271810815, 0.0211185813, 0.0260605663, 0.0396712273, -0.0268214513, 0.0349255353, 0.0103222579, 0.0003380924, -0.0008687861, 0.0111792572, 0.0206940696, 0.0099265575, -0.0290336125, -0.0367130041, 0.0384414941, 0.0449157581, -0.0142657533, 0.0266826451, -0.0104423761, -0.0429217741, -0.0087796450, -0.0280728210, 0.0180284828, -0.0441774651, 0.0487747043, 0.0123118982, -0.0157033838, -0.0405436866, -0.0372404084, 0.0244150311, -0.0326676704, -0.0282902811, 0.0025983602, 0.0438043401, 0.0391044170, -0.0230321661, 0.0352235287, -0.0342434160, -0.0255178977, -0.0298674293, -0.0433880538, -0.0373606905, 0.0351966769, -0.0476814285, -0.0035055541, 0.0416844413, 0.0290469974, 0.0184497088, -0.0253225137, -0.0368782096, -0.0348906331, 0.0234532207, 0.0133887194, -0.0099061057, 0.0029591024, -0.0196060725, -0.0028934367, 0.0189032853, 0.0052301623, -0.0407609008, 0.0397239998, -0.0120677054, 0.0430480465, 0.0068178251, -0.0416742340, -0.0226048734, -0.0215817578, 0.0304934680, -0.0453013554, 0.0136152878, -0.0463740751, -0.0008073859, -0.0234015137, 0.0186078921, -0.0333993100, -0.0087646246, 0.0256912783, 0.0458637625, -0.0109087378, 0.0332353339, 0.0202580988, 0.0390989184, -0.0392111279, 0.0336337090, -0.0093298815, -0.0061596185, 0.0243610069, 0.0250206962, 0.0465234444, 0.0119045116, -0.0166792572, 0.0350540876, -0.0050857626, -0.0002416596, -0.0079004392, 0.0350186601, 0.0130521953, 0.0068985559, -0.0210085344, 0.0274769738, 0.0020780861, -0.0350054838, 0.0169389471, 0.0178958327, -0.0274445135, -0.0380405858, 0.0112815052, -0.0230131038, -0.0485386997, 0.0338160321, -0.0406070873, -0.0196329020, 0.0221392140, -0.0011909343, 0.0430207178, 0.0020672791, -0.0312753581, 0.0428127497, -0.0389100388, -0.0253960509, 0.0142172500, 0.0124232098, -0.0439271592, 0.0107130483, -0.0132071413, 0.0063222051, -0.0345960632, 0.0194110274, 0.0452694818, -0.0269367341, 0.0327894092, -0.0415624119, 0.0393737480, -0.0477632955, 0.0092739128, 0.0382814184, -0.0197823718, -0.0407356694, 0.0171673521, -0.0074548200, 0.0422364548, -0.0302301776, 0.0473284572, -0.0335380211, -0.0229773987, -0.0173749104, -0.0429195426, -0.0251205284, 0.0449561253, 0.0076036379, -0.0240526199, 0.0327514634, 0.0481361672, -0.0122421794, -0.0055097602, 0.0081504509, -0.0330440626, -0.0279928707, -0.0232328661, 0.0075145885, -0.0351255536, 0.0434276387, -0.0055444390, 0.0301822200, 0.0075761639, -0.0028793961, -0.0334570445, -0.0257496648, 0.0451956838, 0.0017440207, -0.0383884683, -0.0000676513, 0.0229945108, -0.0457264408, -0.0367399752, -0.0165590197, 0.0198180452, -0.0176934712, 0.0265387818, -0.0453155823, 0.0178200230, 0.0274526551, 0.0050658137, 0.0258798376, 0.0333416238, -0.0011636056, 0.0316183046, -0.0454910509, 0.0219944119, -0.0323353261, -0.0443097502, 0.0383744165, -0.0259130578, -0.0215634089, 0.0244182199, 0.0154948607, 0.0313376486, -0.0489482954, -0.0278711636, -0.0333591625, 0.0104420111, -0.0119020939, 0.0145001188, -0.0019666106, -0.0250513367, -0.0240399707, 0.0151038021, 0.0113060363, 0.0295343846, 0.0358329341, -0.0325331502, -0.0078053288, 0.0489791632, -0.0184774511, 0.0049740188, -0.0009747036, -0.0280261356, -0.0256200749, -0.0321827829, 0.0120345689, -0.0305233598, -0.0242366400, 0.0442376733, -0.0426509827, -0.0024734326, -0.0371220298, 0.0391760096, -0.0380399078, -0.0198875051, 0.0068409294, 0.0338077471, -0.0383477844, 0.0466533452, 0.0235386118, -0.0070936270, 0.0246701092, -0.0227421969, -0.0479457602, -0.0190038588, 0.0376591608, -0.0413191952, -0.0432534628, 0.0245484859, 0.0241718367, 0.0055657327, -0.0458748117, -0.0038823634, 0.0239333212, -0.0200772360, -0.0027283020, 0.0394563675, -0.0009643883, 0.0371404737, 0.0183574632, 0.0426639467, -0.0480313972, 0.0109581314, 0.0241152942, 0.0073320046, 0.0329804495, 0.0073635653, 0.0256870613, 0.0360421240, -0.0399642028, 0.0279187113, 0.0160322413, -0.0354504958, 0.0438514501, 0.0282663628, -0.0189700462, -0.0086235292, -0.0042526349, 0.0394464210, -0.0382189304, -0.0131798461, -0.0353026614, 0.0313997269, -0.0017903447, -0.0188732408, 0.0067951083, 0.0247869194, -0.0340462923, -0.0277960021, -0.0411433876, -0.0366250910, -0.0055017471, 0.0385634899, -0.0338993818, -0.0372624137, 0.0002924465, 0.0217383876, 0.0014142022, -0.0341474190, 0.0245541483, 0.0431905314, -0.0255836565, 0.0448592156, -0.0142874084, 0.0429608300, -0.0269949138, -0.0041491948, 0.0356733277, -0.0286583193, -0.0137457103, -0.0261096917, -0.0482877530, 0.0187318996, -0.0157028139, -0.0211893544, -0.0154735558, -0.0010545254, 0.0016001947, -0.0191359036, 0.0176077187, 0.0442497507, 0.0241811574, 0.0176213235, -0.0397592410, 0.0406699926, 0.0146838054, 0.0228488594, 0.0476616621, -0.0376288630, -0.0270350929, -0.0420660786, -0.0205020625, 0.0349730849, 0.0029418245, 0.0347872674, -0.0265350565, 0.0273202136, -0.0344288871, 0.0286045671, -0.0426065177, 0.0044973791, 0.0402938873, 0.0096298270, -0.0116023943, 0.0101621561, -0.0017694384, 0.0265195221, -0.0153915137, -0.0298502594, 0.0175467581, 0.0375659987, 0.0175247639, -0.0247196462, -0.0018971264, 0.0118389837, -0.0406542271, 0.0054423101, -0.0213926695, 0.0376648381, -0.0435710810, -0.0164910182, -0.0126851723, 0.0469264314, -0.0032127462, -0.0308781527, -0.0187706556, 0.0240475237, -0.0306127127, -0.0482772291, 0.0124231055, -0.0332682244, -0.0129112042, 0.0406605676, 0.0269981623, -0.0260829441, -0.0067921765, 0.0432833880, 0.0486875251, 0.0118571483, -0.0455078371, 0.0482685119, 0.0087117851, 0.0355544910, -0.0451773927, 0.0225942805, -0.0332896225, -0.0106745847, -0.0455007702, 0.0051504225, -0.0246586055, -0.0090165772, -0.0436068811, -0.0012610145, -0.0062189884, -0.0129328929, 0.0112662278, -0.0458751172, -0.0483695380, -0.0185682736, -0.0028672963, 0.0176447406, -0.0216313973, 0.0164232999, -0.0341421515, 0.0327907205, -0.0021757297, -0.0315114930, 0.0455741212, -0.0156541653, 0.0070852637, 0.0478036851, -0.0235409737, -0.0362276994, 0.0299697816, 0.0397827849, 0.0234692842, 0.0428841859, -0.0179372691, -0.0089921653, -0.0223219004, -0.0003500991, 0.0357824191, 0.0104946308, 0.0170558691, -0.0229271278, -0.0450017154, 0.0274482965, 0.0050467029, 0.0331632569, -0.0195291247, 0.0425780043, 0.0173920915, 0.0251951218, -0.0084442534, -0.0056982189, 0.0168044791, 0.0319514498, -0.0275896750, -0.0385968499, -0.0459448583, 0.0264536664, -0.0263573676, -0.0393400416, -0.0459888577, -0.0286793895, 0.0135892555, 0.0149349049, -0.0217432696, 0.0139964819, -0.0000007376, 0.0365302041, 0.0404404774, -0.0430519953, -0.0377818607, 0.0096394047, -0.0266764089, -0.0030620508, 0.0485886410, -0.0264638904, 0.0317455381, 0.0345950350, -0.0137513876, 0.0184115618, 0.0235393643, 0.0329816788, 0.0243137777, 0.0269084200, 0.0438163728, -0.0263515618, -0.0325250104, -0.0348406211, -0.0303536132, 0.0021828897, 0.0252273679, 0.0240474194, 0.0070983805, -0.0264926106, -0.0284433234, 0.0191524550, -0.0046945959, 0.0399486944, 0.0094416142, 0.0479507819, -0.0398080871, -0.0323153511, 0.0064033680, 0.0045727491, 0.0444634184, -0.0214013010, -0.0124154799, -0.0279487316, 0.0214665085, 0.0216418728, -0.0314884149, -0.0222077873, -0.0398481935, -0.0132939480, 0.0376714170, 0.0070244931, 0.0240824968, -0.0116676502, 0.0291088521, 0.0037077814, -0.0047828034, 0.0177180469, -0.0418344401, 0.0387679487, 0.0360927507, 0.0273571238, -0.0031913482, 0.0199308693, -0.0148879997, -0.0466221496, 0.0297265574, 0.0165780261, -0.0420825817, -0.0093283057, 0.0066397041, 0.0436146855, -0.0232546609, -0.0448887348, -0.0026144572, 0.0352448672, -0.0065717362, -0.0399870723, 0.0439802334, 0.0013001226, 0.0378740430, -0.0378763527, -0.0227963217, 0.0069790557, -0.0288500953, -0.0470986031, -0.0443379469, -0.0328545272, -0.0263109859, 0.0445025861, -0.0354264341, -0.0436769351, -0.0029597655, -0.0207515154, 0.0349414647, 0.0308723375, -0.0260746274, -0.0015196726, 0.0429894030, -0.0455489829, 0.0059317723, -0.0428268835, 0.0095122568, 0.0404748768, -0.0147177726, -0.0458707698, 0.0458633676, 0.0031104870, -0.0314679146, 0.0063924231, -0.0172998756, -0.0215763617, 0.0471088588, 0.0151949525, 0.0241997764, 0.0166102275, 0.0004216172, 0.0358754620, -0.0170068480, 0.0085260719, -0.0447056703, -0.0348658264, 0.0382217690, -0.0281042289, 0.0042461529, 0.0355456769, 0.0197207257, 0.0226801410, -0.0315013081, 0.0348674953, -0.0109044984, 0.0326093137, 0.0478144735, 0.0100214146, 0.0157579780, 0.0462757796, -0.0455736183, 0.0230336860, 0.0001843572, -0.0199784227, -0.0380396619, -0.0413156562, 0.0463318303, -0.0086975917, -0.0395079888, 0.0468108654, 0.0036584102, -0.0482888632, -0.0450569391, -0.0233193096, 0.0319822803, 0.0035415627, 0.0316288769, 0.0214929506, 0.0267563835, 0.0235055611, -0.0458373651, 0.0290679410, 0.0268359333, 0.0190144330, -0.0252901465, -0.0247455295, -0.0211996324, 0.0080718435, 0.0068976246, 0.0293831751, -0.0433002673, 0.0112194270, -0.0445756726, -0.0261474065, -0.0351043418, 0.0256607682, 0.0138477162, -0.0207253285, 0.0393629000, -0.0314255059, 0.0430652425, 0.0275653303, 0.0307417065, 0.0281603262, 0.0460733473, -0.0273293257, -0.0061944127, -0.0271034203, 0.0336229354, -0.0031827390, 0.0376318693, 0.0331023782, -0.0031553507, 0.0370874479, -0.0068666339, -0.0174304023, 0.0353441611, -0.0021325238, -0.0193896051, 0.0285106450, 0.0275533497, -0.0249879714, -0.0259527229, -0.0071996227, -0.0388082117, -0.0351461470, -0.0324713066, 0.0343625620, -0.0366402864, 0.0396667570, 0.0083048381, 0.0379257798, 0.0433098078, 0.0026945360, 0.0250627697, 0.0407461375, -0.0462901779, 0.0366255939, 0.0390460566, -0.0481835417, -0.0060552098, 0.0217627957, -0.0455160104, 0.0046093427, -0.0218184777, -0.0059862845, 0.0117530413, -0.0195187647, 0.0451494828, 0.0055291504, -0.0032830946, 0.0383274630, -0.0123550445, 0.0485020205, 0.0303605273, -0.0455940701, -0.0114489980, -0.0267698839, 0.0338521898, -0.0070879385, -0.0301207472, -0.0028049238, -0.0010261871, -0.0302140824, -0.0039919019, 0.0039956383, -0.0391078182, 0.0454234034, -0.0410882942, -0.0441621281, -0.0162386596, 0.0406804606, 0.0415313318, 0.0216190889, -0.0112728998, 0.0137293264, 0.0272356868, -0.0213969667, -0.0134165660, -0.0261776466, -0.0258168131, 0.0229385719, 0.0397496074, 0.0167815760, -0.0214105509, 0.0351885930, 0.0164629519, -0.0303555522, -0.0017004907, -0.0197592806, 0.0433366597, -0.0444993079, 0.0231639072, -0.0189150441, 0.0488049239, -0.0344040543, -0.0369671434, -0.0137802958, 0.0240925327, -0.0049099438, -0.0140798315, -0.0457818285, 0.0467801839, -0.0407631174, -0.0085144490, 0.0004063733, 0.0453354120, -0.0458799265, -0.0382860675, -0.0269367583, 0.0060379468, 0.0441842377, -0.0342077911, 0.0218475461, -0.0411252603, -0.0409005471, -0.0450437851, 0.0205544829, 0.0323918760, -0.0062209629, 0.0060240589, -0.0181805547, 0.0417682379, 0.0148721039, 0.0151859596, -0.0157998390, -0.0432682969, 0.0166357905, -0.0415694788, -0.0278912764, -0.0247577578, 0.0273940563, 0.0441628397, -0.0039864555, -0.0417076275, 0.0370647386, -0.0030474365, 0.0093932934, 0.0418129861, 0.0112420730, 0.0309579372, 0.0333658904, 0.0052713938, -0.0001535565, -0.0253815092, 0.0240475982, 0.0085265376, -0.0013974383, -0.0299009401, -0.0337610394, -0.0328405462, 0.0220375359, -0.0451648049, -0.0060422458, 0.0258084536, 0.0191704780, 0.0262738764, 0.0260743499, 0.0386993438, -0.0192946121, 0.0221982226, 0.0085298307, 0.0394614190, -0.0258895457, 0.0439155847, 0.0071965046, 0.0303889439, 0.0201594532, 0.0158064738, 0.0081238225, 0.0345735922, -0.0145366639, 0.0027538575, 0.0057190917, 0.0108922571, 0.0368270725, -0.0038491338, 0.0002652556, 0.0446434170, -0.0412955433, -0.0286796466, -0.0069591887, 0.0339606106, -0.0044497699, -0.0009689219, -0.0097925663, -0.0198981334, 0.0077496953, 0.0296643972, 0.0201473832, 0.0135252625, -0.0206078254, -0.0151165091, -0.0456291698, 0.0220440179, 0.0172358081, -0.0233680271, -0.0077327117, -0.0145541839, 0.0009252504, 0.0147283822, -0.0169028491, -0.0482734218, 0.0184179395, 0.0221108049, -0.0317727774, -0.0244871881, -0.0087153353, -0.0050024725, -0.0437736362, -0.0467167236, -0.0153041258, 0.0357701555, 0.0299124569, 0.0018294379, -0.0377338901, 0.0233862251, 0.0162011236, 0.0105086714, -0.0013971701, -0.0251542144, -0.0431604534, -0.0400018468, -0.0040889382, 0.0092808381, -0.0111217462, 0.0442061946, -0.0406478010, 0.0072195381, 0.0156309232, 0.0401333049, 0.0142771900, -0.0069656819, 0.0069211014, -0.0264995731, -0.0453746244, 0.0122121498, 0.0082890838, 0.0309899673, 0.0220202953, -0.0071284212, -0.0171620883, 0.0337859988, 0.0026126914, -0.0010845065, 0.0142315328, -0.0199590102, 0.0333309472, -0.0030325204, -0.0047765449, 0.0286588818, 0.0298524573, -0.0436318181, 0.0014040731, 0.0015624799, 0.0131213516, -0.0039576441, 0.0286211297, -0.0238795802, -0.0107387900, -0.0297514349, 0.0387327597, 0.0019186623, -0.0442636609, 0.0349101946, 0.0008796863, -0.0411819331, 0.0341767967, 0.0262401104, -0.0154106021, 0.0144460723, 0.0464053676, -0.0148183741, -0.0004186742, -0.0243653078, 0.0148391649, 0.0187983364, 0.0189629346, -0.0251478255, 0.0467275009, 0.0363135561, 0.0119666122, 0.0171352327, 0.0177301690, -0.0118129030, 0.0482807308, -0.0253528114, -0.0037358254, -0.0036674142, -0.0151080750, -0.0042029954, -0.0287107397, -0.0101766996, -0.0092165284, 0.0122069642, 0.0110299289, -0.0486849323, -0.0016043745, 0.0199035406, 0.0245463029, 0.0361092165, -0.0139944628, 0.0385280326, 0.0289015695, -0.0113528371, -0.0188979451, -0.0146444328, -0.0326078236, 0.0295981094, -0.0233558919, 0.0122189485, -0.0134212486, -0.0157849453, 0.0019984245, -0.0367778651, 0.0049075484, 0.0394987613, -0.0454177819, -0.0143995397, -0.0217395332, -0.0241008587, -0.0071963742, 0.0086946487, 0.0333975703, 0.0183475763, -0.0338128209, 0.0101261027, 0.0264599100, -0.0165667981, -0.0256279111, 0.0288186371, 0.0439419821, 0.0235115886, -0.0005838275, -0.0296279304, 0.0331379175, -0.0101496838, 0.0142189190, -0.0282870568, -0.0478116386, 0.0163657144, 0.0303799883, -0.0205556285, 0.0350117236, 0.0207324997, -0.0246732403, 0.0414495096, -0.0183924660, 0.0295281112, -0.0432814509, -0.0264966413, -0.0400984176, 0.0300793201, 0.0469009057, -0.0196662247, -0.0106669925, 0.0145308003, -0.0313194022, -0.0259911623, -0.0418573096, 0.0129341558, -0.0200657658, -0.0202285741, -0.0099049024, 0.0181821659, 0.0453254655, 0.0005765520, -0.0075491033, -0.0378404483, -0.0404205434, -0.0313294604, 0.0450361967, -0.0284041837, -0.0365763269, 0.0053460523, -0.0254056286, -0.0182010178, -0.0005215034, 0.0476756841, -0.0449315980, 0.0158289373, 0.0270339325, 0.0243986621, 0.0085472018, 0.0065180212, 0.0244875625, 0.0182011202, -0.0014390908, -0.0327439643, -0.0040527433, -0.0113322549, 0.0144207701, 0.0466215909, -0.0143283717, -0.0189973656, 0.0331494287, 0.0021572039, 0.0362605527, -0.0360868499, -0.0019332394, 0.0120016523, 0.0235586464, 0.0191591680, -0.0254410543, -0.0263775624, -0.0221099183, 0.0007198565, 0.0277060196, -0.0053093322, 0.0286169127, -0.0023535825, 0.0255212039, 0.0449553356, -0.0254999325, 0.0471548885, -0.0259790849, 0.0047178641, -0.0001472048, 0.0382182896, 0.0361502469, -0.0329698808, 0.0354206637, -0.0387056507, -0.0030475073, -0.0417566858, 0.0484552830, -0.0152682550, -0.0206679553, -0.0480129682, 0.0326233804, -0.0166980959, -0.0018253401, 0.0333856642, -0.0002620667, 0.0300279260, -0.0479499511, -0.0445854366, 0.0292447209, -0.0329762548, -0.0168731101, 0.0074089542, 0.0205922797, -0.0036716685, -0.0309040248, -0.0194205940, 0.0165470168, -0.0358188376, -0.0079115815, -0.0121875405, -0.0202091262, -0.0167184323, 0.0216221735, -0.0242062714, 0.0021996871, -0.0122149214, -0.0200232156, -0.0471919142, 0.0005145781, 0.0089059435, 0.0136948451, 0.0476872995, -0.0010528639, -0.0313926265, -0.0380158722, 0.0022299364, 0.0041353665, -0.0102220178, -0.0066865422, -0.0440557115, 0.0164876878, 0.0348772109, -0.0028540604, -0.0034100451, 0.0455151945, 0.0372196883, -0.0099436343, -0.0290464479, 0.0119236670, 0.0253878534, -0.0443186052, 0.0228853598, -0.0323776416, -0.0250446796, -0.0186949559, -0.0284506474, 0.0428534895, 0.0390207097, 0.0009633265, -0.0130615719, -0.0427780375, -0.0470776744, 0.0028486773, 0.0360666215, 0.0067338087, 0.0175166503, -0.0220984723, -0.0462193638, -0.0171013512, 0.0277153179, 0.0375179946, -0.0362184942, -0.0328989103, 0.0003078617, 0.0134106427, 0.0079295337, -0.0387070403, -0.0433137454, 0.0245950446, 0.0468619317, 0.0482786149, 0.0005696006, -0.0320143439, -0.0273244306, -0.0189978797, -0.0137341470, 0.0061173253, 0.0226841494, 0.0028786585, -0.0486880653, 0.0310031548, 0.0426758602, 0.0346315354, 0.0143145770, -0.0206046607, -0.0000692979, 0.0102014132, -0.0372880027, -0.0028128326, -0.0161271282, 0.0450981557, -0.0423649028, 0.0456501842, 0.0108363330, 0.0375682712, 0.0392901674, -0.0045404769, -0.0334404930, -0.0297822226, -0.0484987646, 0.0479166880, -0.0275745373, -0.0382927842, -0.0199708305, -0.0112136565, -0.0107687525, 0.0207232460, 0.0228563547, -0.0287973247, 0.0419166535, 0.0305992216, 0.0250569806, -0.0485397018, -0.0222779252, 0.0090090409, 0.0132319741, -0.0325464532, -0.0195514560, -0.0047295913, -0.0070470944, -0.0317111649, 0.0309924632, -0.0084373131, 0.0317267701, 0.0007429942, -0.0167121701, -0.0034734681, -0.0210822709, -0.0022154897, 0.0259334967, -0.0436283462, 0.0477978438, 0.0361154675, -0.0383338034, 0.0436754674, -0.0419006869, -0.0143606439, -0.0087589361, 0.0372717083, 0.0300444663, -0.0433584675, 0.0369561985, -0.0016650185, -0.0109748244, -0.0475890040, -0.0283165015, 0.0350999758, -0.0254437290, 0.0480864123, -0.0366463959, 0.0103379302, 0.0159572139, 0.0088915750, 0.0095032491, -0.0379432812, 0.0358087122, -0.0474710464, -0.0165934302, 0.0482450128, -0.0129206777, 0.0462175608, 0.0083450526, -0.0452847928, 0.0152216852, 0.0047275349, 0.0086530559, -0.0207245219, 0.0327602252, 0.0110559054, 0.0473281890, -0.0470771603, -0.0449420996, -0.0289139729, 0.0444072336, -0.0091345683, 0.0434646532, 0.0182202980, 0.0087708496, 0.0467668548, -0.0198566578, 0.0384546891, 0.0055765025, -0.0485220775, 0.0126449317, -0.0255347397, 0.0121428296, 0.0373558775, 0.0040050037, -0.0294332113, -0.0415482447, -0.0479122251, -0.0444949977, 0.0481321588, 0.0121902637, 0.0411595553, 0.0344523713, -0.0173195228, -0.0059267282, -0.0305614471, -0.0382224917, -0.0437928513, 0.0190448016, 0.0097865276, -0.0373883955, -0.0224452317, -0.0091083013, 0.0234836042, 0.0116749033, 0.0238629729, 0.0266040042, 0.0390060395, 0.0054424964, 0.0363812894, 0.0417800099, -0.0402778350, -0.0020734593, 0.0057191849, -0.0376219377, -0.0173199661, -0.0105351731, -0.0165092982, 0.0269610733, 0.0129033066, -0.0238843448, 0.0205152482, -0.0107295513, -0.0406619571, 0.0233774185, 0.0324662030, -0.0231241696, -0.0197881646, 0.0442108065, 0.0375898033, -0.0181061178, -0.0230852179, 0.0351917073, 0.0265696421, -0.0021370575, 0.0101152398, -0.0410634503, -0.0274208039, -0.0123087354, -0.0217309352, -0.0250112507, 0.0160365924, 0.0258591995, 0.0300107896, -0.0121384747, -0.0406450555, 0.0249499679, -0.0352582857, 0.0114600249, 0.0368485674, 0.0362707302, 0.0069399513, -0.0171095394, 0.0355073661, -0.0195162296, -0.0489008874, 0.0171983317, -0.0130454898, 0.0203953087, 0.0362277701, 0.0068891309, 0.0297626257, 0.0093238428, 0.0389251411, -0.0472534336, 0.0462924764, -0.0098235160, 0.0358994678, -0.0281292126, -0.0092900880, -0.0118025094, 0.0334805921, -0.0066766590, -0.0153089724, 0.0223656222, -0.0068742260, 0.0348775759, -0.0323709697, 0.0213350430, 0.0127882846, 0.0014378987, 0.0159908757, -0.0480149537, 0.0383086801, 0.0485879630, -0.0206902530, 0.0083424971, -0.0097710043, -0.0093931295, 0.0434715524, 0.0434578508, 0.0094161294, 0.0077884383, -0.0384093523, -0.0219163913, -0.0442289263, 0.0022037514, -0.0289733429, -0.0299163107, -0.0129291564, 0.0266770646, -0.0090602599, 0.0170880333, 0.0159161612, -0.0166479647, -0.0042572133, 0.0390926152, -0.0108498335, 0.0128703341, -0.0114246458, 0.0056399591, -0.0072369277, -0.0296636242, -0.0005035400, 0.0269632712, 0.0071607269, 0.0269349813, -0.0287691522, -0.0292191617, 0.0137763619, 0.0182846263, 0.0277243257, 0.0327410176, -0.0084118731, 0.0296966583, 0.0208208710, -0.0487569645, 0.0302078202, 0.0151597336, 0.0049595721, 0.0364243910, 0.0316133797, 0.0274051502, 0.0179779753, -0.0074157864, -0.0163757131, 0.0289674327, 0.0070989169, 0.0211416408, -0.0372972339, 0.0337538794, -0.0357489325, -0.0141504258, -0.0189749505, -0.0348167941, -0.0123509355, -0.0123595558, 0.0103422403, -0.0381800681, 0.0138129443, -0.0364139602, 0.0066726059, -0.0344415568, 0.0109420232, -0.0244580004, 0.0335460678, 0.0372439623, -0.0237367321, -0.0340774320, 0.0294724926, 0.0434310585, -0.0357289016, -0.0165584385, 0.0107846595, 0.0271792337, -0.0216792505, -0.0024002679, -0.0080702901, -0.0074958988, 0.0266657099, 0.0192657262, 0.0154817551, -0.0433883108, 0.0376855135, 0.0010921918, -0.0030032285, -0.0399161279, 0.0356624797, 0.0036631040, 0.0135753006, -0.0103697591, -0.0270209480, 0.0128330886, -0.0230156165, -0.0441814698, 0.0224745125, -0.0036937445, -0.0001649708, -0.0098479167, -0.0484785102, -0.0183290429, -0.0462955981, -0.0277829915, 0.0045162663, 0.0330528468, -0.0150968395, -0.0239307024, 0.0050176196, -0.0245133638, 0.0470649153, 0.0154703930, -0.0104381926, 0.0263540968, 0.0147335082, -0.0015722550, -0.0270178057, 0.0233748257, -0.0287108216, -0.0444385596, 0.0226784572, 0.0363023356, -0.0050219297, 0.0171539783, 0.0469394624, 0.0400202647, -0.0393190533, 0.0423511192, -0.0069755390, 0.0399919227, -0.0268826317, 0.0180936083, -0.0177094601, -0.0276657119, 0.0401623696, 0.0483106598, 0.0468803272, -0.0178489219, -0.0218875539, -0.0360235088, -0.0323360264, -0.0070858374, 0.0128593929, 0.0350053534, 0.0213630497, 0.0233682021, 0.0024787001, -0.0150929391, 0.0149458125, 0.0183681399, -0.0032756180, 0.0062490404, 0.0006857961, -0.0120605789, 0.0011535361, -0.0459668860, -0.0351302959, -0.0048489273, -0.0135900751, 0.0323191956, -0.0380835831, -0.0281502120, -0.0188103449, -0.0423871763, -0.0154792219, -0.0013628677, -0.0201851707, 0.0210107565, 0.0088708661, 0.0256851688, -0.0267070103, 0.0251280367, -0.0247128010, -0.0164350830, 0.0293550715, -0.0101635605, -0.0279491637, -0.0277671404, 0.0374263451, 0.0189183727, -0.0222488530, 0.0091626346, -0.0173255019, -0.0079828314, 0.0242442191, -0.0439429507, -0.0397748426, 0.0068839230, 0.0082136765, 0.0464935675, -0.0352985859, -0.0289735179, 0.0434868187, 0.0260058418, 0.0270975083, 0.0280025676, -0.0483194068, 0.0052985847, 0.0166473016, 0.0185349286, 0.0122744069, 0.0292914361, 0.0467595533, -0.0274814237, -0.0306020714, -0.0083524249, 0.0055626258, -0.0188443679, -0.0446821488, 0.0175132826, 0.0429896489, 0.0320358574, 0.0346846655, -0.0158066154, 0.0211184546, -0.0276677553, -0.0097681656, 0.0277065784, -0.0154288933, 0.0349849612, -0.0003849417, -0.0446042866, 0.0218555704, -0.0373984985, 0.0322433114, 0.0478036925, 0.0025042668, -0.0485843793, 0.0459009409, -0.0149625652, -0.0296971686, -0.0443562046, 0.0467819199, -0.0265580323, 0.0147024244, 0.0302779377, -0.0306674801, -0.0152128562, -0.0240331963, -0.0056573264, -0.0479910560, -0.0403559655, -0.0107436962, 0.0350880772, 0.0431110859, -0.0387888253, -0.0343275145, -0.0153617412, 0.0346115753, 0.0068813041, 0.0431754515, 0.0115275234, 0.0419143066, -0.0335903950, 0.0127409324, -0.0067845136, 0.0242082104, 0.0096104145, 0.0440333560, 0.0337950811, 0.0064196140, -0.0211402513, 0.0317665786, 0.0053945594, 0.0069374628, 0.0270152241, -0.0283735469, -0.0233194139, -0.0419857204, 0.0305489004, -0.0034423880, -0.0229261108, -0.0350957960, 0.0083721168, 0.0191045627, 0.0381678864, -0.0435348973, 0.0147268623, -0.0350981429, 0.0197917596, -0.0485598631, 0.0395762250, 0.0009645186, -0.0487040170, -0.0193428397, 0.0100645944, -0.0096416585, 0.0094051734, 0.0265736133, 0.0045217425, 0.0201225504, -0.0094692148, 0.0382322893, 0.0276423767, 0.0438406244, -0.0045109279, 0.0181184784, 0.0309965312, 0.0480029136, -0.0143001154, -0.0085078254, -0.0192179196, 0.0124228150, -0.0146548301, 0.0041154400, -0.0081408843, 0.0112225451, 0.0468645468, 0.0329633057, -0.0088099204, -0.0094591789, 0.0248972997, 0.0442267507, 0.0150880814, 0.0256075338, -0.0188469253, -0.0456724539, 0.0102801621, -0.0168380700, -0.0184934177, -0.0405034609, -0.0026754141, -0.0080578066, -0.0445307866, 0.0443776250, -0.0011036620, 0.0076955482, 0.0175740644, -0.0108494014, 0.0280065686, 0.0483914390, 0.0416955203, -0.0468162261, -0.0157979839, 0.0397968963, -0.0458419807, -0.0224619806, -0.0455043539, -0.0351628028, 0.0420767218, 0.0310464054, 0.0082432255, -0.0000218078, 0.0462340415, -0.0166928880, -0.0385469534, -0.0035043135, 0.0234068781, -0.0260591283, 0.0341686159, 0.0400577262, -0.0269654561, -0.0052148029, 0.0103601106, 0.0341225266, 0.0005952641, 0.0413570479, 0.0022587739, -0.0043421611, 0.0228798911, 0.0128915831, 0.0475980416, -0.0138786174, -0.0238158181, 0.0280620307, 0.0313326716, -0.0076047480, 0.0435944870, -0.0320565701, 0.0326804742, 0.0243878961, 0.0394843966, 0.0063162819, 0.0260902941, 0.0047250688, -0.0343194418, 0.0383711234, 0.0400875807, 0.0039144717, 0.0112061687, 0.0279781073, 0.0403858870, -0.0386411548, 0.0021753795, 0.0306761935, -0.0437037796, -0.0345102958, -0.0204710867, 0.0006884225, -0.0429364219, 0.0283316523, -0.0145684220, -0.0315283611, 0.0346285179, 0.0193013251, 0.0164918154, -0.0181619953, -0.0430598781, 0.0413113460, 0.0328349248, -0.0011799932, 0.0186937153, 0.0156106129, 0.0046003386, 0.0170844644, 0.0212476030, -0.0119749978, 0.0413204953, -0.0302728098, 0.0137969404, 0.0461468846, -0.0441198461, -0.0370345116, -0.0361288153, 0.0395598114, 0.0304051340, 0.0107393302, 0.0427950472, 0.0127941221, -0.0353679173, 0.0441879183, -0.0029874817, -0.0182736795, 0.0075624175, -0.0389553457, -0.0484699495, 0.0356640667, -0.0312115140, -0.0296700243, -0.0391955934, 0.0395996422, -0.0427549332, 0.0156881064, 0.0327955335, 0.0471965745, 0.0190948248, -0.0486560352, 0.0424934849, -0.0315350890, -0.0295240004, 0.0113307498, 0.0393232033, 0.0425075963, 0.0132382922, 0.0294282362, -0.0021820255, 0.0386833847, 0.0310967937, 0.0424723476, 0.0358799100, -0.0132319853, 0.0358459577, 0.0145440772, 0.0081265643, -0.0262326002, 0.0410915017, -0.0427009724, -0.0473632403, -0.0203574169, -0.0091738701, -0.0418083109, -0.0065870844, 0.0432350412, -0.0020992942, -0.0086594708, -0.0012379028, 0.0308921561, 0.0135791525, -0.0345921256, 0.0160158649, -0.0047184937, -0.0334669836, -0.0116225295, 0.0199791566, 0.0135355890, 0.0003035180, 0.0302078426, 0.0433212295, -0.0354300216, -0.0468142740, 0.0072631389, -0.0416846424, -0.0322461575, -0.0024500228, -0.0378885940, -0.0273962989, 0.0163197890, -0.0187093578, 0.0287585557, 0.0486328378, 0.0292080343, -0.0213810131, 0.0429873914, -0.0027577020, -0.0174175873, -0.0278191064, 0.0298239067, -0.0255292729, 0.0231792554, -0.0444233418, 0.0074257031, -0.0123432837, -0.0337314904, -0.0175185055, 0.0115179569, -0.0087078698, -0.0421945229, -0.0454457104, 0.0009024031, 0.0234679952, -0.0048419647, 0.0436478406, 0.0326306671, -0.0141135156, 0.0467854589, 0.0048353523, 0.0162988380, -0.0485158414, -0.0182298683, 0.0387082919, 0.0384949744, -0.0015096255, 0.0121366382, 0.0006904453, -0.0272345878, 0.0178758353, -0.0339292809, 0.0258262381, -0.0242878441, -0.0047474243, -0.0061453693, 0.0277340189, -0.0351511799, 0.0212035552, -0.0108131245, 0.0098783672, 0.0360139981, 0.0347327068, -0.0334559344, -0.0011615716, 0.0178540945, -0.0318045095, 0.0223766789, -0.0264463238, 0.0466226414, -0.0411328152, -0.0140257627, -0.0123531409, 0.0076549016, -0.0196056291, -0.0097113401, -0.0479454920, 0.0375114828, 0.0482383072, -0.0081172697, 0.0355583280, 0.0107149892, 0.0389389917, -0.0120545998, -0.0101706274, -0.0074965432, 0.0424598530, -0.0147192329, -0.0178172346, 0.0488795489, 0.0141033530, 0.0412806273, 0.0373363048, -0.0403323695, 0.0015573613, 0.0151740685, 0.0282282457, -0.0153807700, -0.0301225465, -0.0025443397, 0.0302503034, -0.0244624261, -0.0100741945, 0.0214157924, 0.0017506815, -0.0375847369, -0.0351209044, 0.0479320809, 0.0048243627, 0.0001720116, -0.0386383273, -0.0075344443, 0.0175106451, -0.0212203879, 0.0038687587, 0.0154538900, 0.0277629122, -0.0029343851, 0.0340365618, -0.0039796010, 0.0159827247, 0.0098250583, 0.0151053220, -0.0233604349, 0.0292378515, -0.0388533473, 0.0426853672, -0.0463976488, -0.0080269240, -0.0442828164, 0.0244516209, -0.0201151017, 0.0404203311, -0.0003000610, -0.0055379234, 0.0203661621, 0.0135267302, 0.0428898782, -0.0037745573, 0.0221501887, 0.0350100845, -0.0038520768, 0.0154608637, 0.0100810975, -0.0046290830, 0.0349332318, -0.0194269698, 0.0041042976, -0.0464651473, 0.0095527135, -0.0166373700, 0.0277388170, 0.0177310333, -0.0188717004, -0.0337934420, 0.0169460997, -0.0133829527, -0.0192319956, -0.0474676713, 0.0364204347, 0.0260085166, -0.0230697654, -0.0095872059, 0.0375216380, -0.0415297635, 0.0384555906, 0.0335647911, 0.0292668492, 0.0208504573, 0.0416663960, -0.0135174692, 0.0388843790, 0.0303129330, 0.0438762009, -0.0282796286, 0.0448765829, 0.0096522048, -0.0474903993, 0.0429520383, -0.0078720339, 0.0050195120, 0.0169498697, -0.0325405896, -0.0186710116, -0.0421793982, 0.0412110165, -0.0330643952, -0.0031029880, -0.0305432044, -0.0172478408, 0.0058560856, 0.0421927050, -0.0479075909, 0.0052776299, -0.0320845544, -0.0230824258, 0.0463101715, 0.0115438625, 0.0215623900, 0.0176312029, -0.0231132954, -0.0179834887, 0.0186906457, -0.0016852729, 0.0176703110, -0.0051495954, -0.0075075701, 0.0075207539, 0.0094053596, 0.0182116926, -0.0432730392, 0.0282935500, -0.0096352212, 0.0454649106, 0.0215597078, -0.0421215929, 0.0456963852, -0.0365668312, 0.0302441940, -0.0165692046, 0.0039064847, -0.0293551292, -0.0070279017, -0.0415243432, -0.0061735883, -0.0154818855, -0.0351038650, -0.0057010576, -0.0035340749, 0.0454419479, -0.0123927481, -0.0048416965, -0.0129413605, -0.0463857576, 0.0141484737, 0.0370504335, -0.0021839999, -0.0026531890, -0.0162866414, -0.0038301200, -0.0027756430, 0.0190166607, 0.0129349865, 0.0417647213, 0.0011813715, 0.0303201750, -0.0270157494, -0.0042359568, -0.0296286531, 0.0093771964, 0.0263192356, 0.0179503635, -0.0416118056, 0.0471385047, 0.0223867223, 0.0481380224, -0.0077183954, -0.0439880602, 0.0272373110, -0.0344202779, 0.0481843874, 0.0330797210, -0.0047644563, 0.0297271311, -0.0241396129, 0.0269453451, -0.0222222824, 0.0133446157, 0.0118490309, 0.0255296603, -0.0155347250, 0.0456820875, -0.0226425193, -0.0391437598, -0.0433164313, -0.0023152940, 0.0050807036, 0.0213932991, 0.0442531481, 0.0276422575, 0.0399462730, -0.0340102240, -0.0224758554, 0.0051319338, -0.0114266314, -0.0107306615, 0.0485140756, 0.0319278538, 0.0386657417, 0.0021912530, 0.0146506578, -0.0274423417, 0.0263944194, 0.0230940357, 0.0111652911, 0.0261324197, 0.0164082423, 0.0328293815, -0.0414544642, 0.0236939937, -0.0048969314, 0.0076490976, -0.0079139434, -0.0007681735, -0.0397405289, -0.0218344554, 0.0453343540, 0.0443923324, 0.0150850192, 0.0357710198, 0.0338552520, -0.0277946834, 0.0103695951, -0.0316846035, -0.0302279126, 0.0122806318, -0.0401536301, -0.0027450398, 0.0056351013, 0.0485348925, -0.0306825358, 0.0474357828, 0.0354222059, -0.0345935635, -0.0363249816, -0.0385404006, -0.0060523711, -0.0386486053, -0.0304195583, 0.0191518590, -0.0358829498, -0.0182297267, -0.0420400202, -0.0466365628, 0.0112505779, 0.0396423191, -0.0234192200, -0.0051523522, -0.0465190634, -0.0265657287, -0.0130211599, -0.0236236919, -0.0091351420, 0.0183836594, -0.0453180000, 0.0205568448, -0.0079347678, 0.0374634266, 0.0147947073, -0.0358694829, 0.0048565306, 0.0356347337, -0.0183918942, -0.0340589657, 0.0434317738, 0.0152733251, -0.0389449745, -0.0158426948, 0.0282584429, 0.0072543435, 0.0420688093, -0.0064684041, 0.0004634783, -0.0351766683, -0.0197173487, 0.0090285614, 0.0256891847, -0.0470745303, 0.0185294300, -0.0484636426, -0.0327797979, 0.0155709684, 0.0238601565, -0.0080692619, 0.0470820516, 0.0119253956, -0.0010871105, 0.0301704705, -0.0405992344, -0.0145102553, -0.0316011384, 0.0325325578, 0.0397058278, -0.0486323833, -0.0214578323, -0.0486272089, 0.0129578672, -0.0406296737, -0.0125048198, -0.0032687038, -0.0433218256, -0.0088692680, 0.0276732221, 0.0084540993, 0.0435697287, -0.0198303070, -0.0144761838, -0.0102436841, 0.0276999772, 0.0028152503, 0.0203900486, 0.0002174005, 0.0399376675, 0.0173772424, 0.0031282641, 0.0201626644, 0.0090182237, 0.0035146177, 0.0368020087, 0.0359915122, 0.0217654705, 0.0269830599, -0.0085405409, 0.0088620968, 0.0286478549, 0.0174357966, -0.0418603793, 0.0124850348, 0.0455940440, -0.0254041441, 0.0321437567, 0.0447583944, 0.0123416036, 0.0340844542, -0.0459079817, -0.0119395517, 0.0488794148, 0.0265406370, -0.0265911091, -0.0421626270, 0.0381675288, 0.0015296713, -0.0143887326, 0.0221283063, 0.0381929055, 0.0258594081, 0.0025829561, 0.0035486296, 0.0071155280, -0.0065183938, 0.0442296639, 0.0133639351, 0.0293231606, -0.0087990575, 0.0361792520, 0.0346622169, 0.0365369394, 0.0192239136, 0.0329237878, -0.0459951870, -0.0107308142, 0.0407289788, -0.0263654161, -0.0148966536, 0.0161642358, -0.0124416649, 0.0064457431, 0.0377552509, -0.0305904374, 0.0250111893, 0.0023939237, -0.0449409559, 0.0362985879, -0.0001374036, -0.0123911016, -0.0426333584, -0.0426059328, 0.0456728488, -0.0332955346, -0.0082494617, 0.0046857335, 0.0219407827, -0.0165903009, -0.0458809547, -0.0188344046, 0.0327039361, 0.0108835436, 0.0246722847, -0.0351434015, -0.0452555120, -0.0170916691, 0.0077142119, 0.0208716318, -0.0226089731, -0.0033840090, -0.0428081490, 0.0035268702, 0.0053644255, -0.0350251198, 0.0208600312, 0.0106730312, 0.0394289270, 0.0047708675, -0.0131896473, -0.0035548210, 0.0236602649, 0.0295102671, 0.0284620821, -0.0017366521, 0.0220138133, -0.0240492448, -0.0195250008, 0.0464193597, -0.0004430376, -0.0012222864, 0.0234415680, 0.0160410330, -0.0261253305, 0.0261341706, -0.0368956588, -0.0366141237, 0.0447278395, 0.0208018422, 0.0064949393, -0.0253522042, 0.0451945290, 0.0451659858, 0.0181392506, -0.0211783051, -0.0411392413, -0.0452391468, 0.0262838081, 0.0326508507, -0.0322174020, -0.0093310140, -0.0468596518, 0.0332517549, -0.0034218766, -0.0227289516, -0.0008602254, 0.0140825063, 0.0210391730, 0.0344454274, -0.0094999447, 0.0039744154, 0.0021324307, 0.0429502279, 0.0462253690, 0.0460275412, -0.0037095584, -0.0064726211, 0.0044313148, 0.0265430585, 0.0250507519, -0.0317209736, 0.0296075568, 0.0348958671, 0.0060152747, -0.0128771923, -0.0182538461, 0.0376227126, -0.0401302949, -0.0108632557, -0.0303100813, 0.0040231682, 0.0238044262, -0.0345047116, 0.0096481517, 0.0059272200, 0.0291562527, 0.0420036390, 0.0220734924, -0.0151078887, 0.0121143088, 0.0153345317, 0.0399962887, -0.0360335857, 0.0188871548, 0.0335796997, -0.0054423921, -0.0416888930, 0.0440981984, 0.0095941313, 0.0331186727, -0.0248471685, 0.0180662796, 0.0171616897, -0.0259856377, 0.0181065947, -0.0061136894, -0.0483448692, -0.0121751241, 0.0170691684, 0.0428951681, 0.0342143327, -0.0229021907, -0.0384222455, -0.0145422556, 0.0218392015, -0.0279293302, -0.0127490163, 0.0329522640, -0.0204262603, 0.0269097388, -0.0371583663, 0.0285924450, -0.0459211133, -0.0091530681, -0.0451853834, -0.0176415071, 0.0338513404, -0.0449573770, -0.0440805070, 0.0126297846, -0.0237631164, 0.0108088590, -0.0387634449, -0.0260452293, 0.0467968807, -0.0353885330, -0.0302019827, 0.0238171965, 0.0209820941, -0.0232710131, 0.0229070634, -0.0443920866, 0.0097782798, -0.0073623732, -0.0208366979, 0.0187135413, -0.0482450016, -0.0227426998, 0.0428801253, -0.0266575105, -0.0052611381, -0.0393664166, 0.0356002003, -0.0075741224, 0.0481451973, -0.0123640262, -0.0476270579, 0.0079110675, 0.0166492388, -0.0117887147, 0.0153590366, 0.0184407309, -0.0065313466, -0.0473117642, -0.0107539408, 0.0186384395, -0.0266531426, 0.0001666285, -0.0132591203, -0.0183500089, 0.0403805524, 0.0230436102, -0.0428249799, 0.0251003131, -0.0419024415, -0.0439368188, -0.0203920715, -0.0066517442, -0.0293388367, 0.0099054985, 0.0003742538, -0.0224164054, 0.0172464624, 0.0394153520, 0.0003265627, -0.0054144301, -0.0455170386, -0.0462996066, -0.0134652480, -0.0201738067, 0.0086759515, 0.0059839487, -0.0293710604, -0.0286018588, 0.0423462838, 0.0428048447, 0.0375706777, 0.0213792697, 0.0001322664, 0.0214544907, -0.0095071606, -0.0336746424, -0.0358021334, -0.0262486730, -0.0107682385, 0.0312800184, 0.0253565982, -0.0146610066, -0.0037106909, -0.0424758866, 0.0217401162, 0.0014915802, -0.0099413805, -0.0321482681, -0.0060354806, 0.0038627647, 0.0337659270, 0.0320279524, 0.0394587591, -0.0379929096, 0.0311986655, -0.0407969691, 0.0340441540, -0.0419026986, -0.0282468889, -0.0022665076, -0.0321488380, -0.0443916172, -0.0480094738, -0.0364752710, 0.0313249305, -0.0165065527, 0.0355247483, 0.0204319358, -0.0358736627, 0.0415863544, 0.0475635380, 0.0218452960, -0.0372998826, -0.0108949654, 0.0155383721, 0.0276138186, 0.0273963809, -0.0489322469, 0.0158928856, -0.0206593703, -0.0165010989, 0.0149789974, 0.0411412716, 0.0236740708, -0.0484855212, -0.0234891959, -0.0127404183, 0.0194181055, 0.0172159225, 0.0087386258, -0.0440632552, -0.0056264326, -0.0030440725, 0.0171789303, 0.0360718295, -0.0249985550, 0.0378251597, 0.0064440407, 0.0149890110, -0.0039482750, -0.0446713790, -0.0319821686, 0.0224012285, 0.0388014987, -0.0077378303, -0.0165756866, 0.0106243491, -0.0312445685, 0.0374131128, -0.0141657852, -0.0164497420, -0.0401113480, 0.0349475965, 0.0162685737, -0.0046006180, 0.0283776224, -0.0060770623, -0.0403449237, 0.0463218465, 0.0076369122, -0.0103437938, 0.0363056287, -0.0018741377, -0.0094820969, 0.0358360559, 0.0272769406, 0.0338156000, 0.0027501211, 0.0264814198, -0.0418087430, -0.0227984823, -0.0372252241, 0.0348061398, 0.0111797377, -0.0100264475, 0.0036726706, -0.0467328541, -0.0477810837, 0.0055453256, 0.0082637481, -0.0422067642, 0.0121212453, -0.0337705165, -0.0130597986, 0.0428046361, 0.0239885673, 0.0427110195, -0.0025044642, 0.0430775881, 0.0067011751, -0.0480027013, -0.0081773959, 0.0342581794, -0.0301020592, 0.0104947463, 0.0426711217, -0.0241166390, -0.0134693384, 0.0399198681, 0.0378275737, -0.0267652590, -0.0238073040, 0.0098322295, 0.0195292085, -0.0320153236, -0.0064712167, 0.0448745042, -0.0091615133, 0.0445870012, 0.0333483815, 0.0128919780, -0.0070314296, 0.0290814638, 0.0322485045, -0.0109596513, -0.0193314739, -0.0361181758, -0.0357587188, 0.0066559389, -0.0369989686, 0.0407713056, -0.0255500413, -0.0273018312, -0.0476525649, -0.0022913143, -0.0038964488, -0.0112285726, -0.0244595073, -0.0265055522, -0.0276180226, -0.0189034343, 0.0421959609, 0.0311385393, -0.0426676162, -0.0458953939, 0.0467304140, -0.0022129640, -0.0051713884, -0.0004077032, -0.0482823215, -0.0471703559, -0.0391402096, -0.0301160626, -0.0211795419, 0.0189149007, -0.0191957168, 0.0100397281, 0.0368507057, -0.0217744093, -0.0191975031, -0.0174179636, -0.0052342527, -0.0445270725, 0.0252521262, 0.0200425312, -0.0034009703, -0.0236412250, -0.0060130805, -0.0067707188, -0.0286084451, 0.0247819275, 0.0119140074, 0.0187044442, -0.0269611701, 0.0182254165, -0.0489867814, 0.0308895633, -0.0190570969, -0.0089761280, 0.0022170171, -0.0367451832, 0.0033604391, -0.0460888036, -0.0064221025, -0.0233285129, 0.0080647096, 0.0098655783, -0.0232646465, 0.0433650687, 0.0489042401, -0.0232742596, 0.0376786217, 0.0457835793, 0.0485315844, 0.0322976485, -0.0301339813, -0.0407557711, -0.0207873601, 0.0363707468, 0.0448993742, -0.0446953587, 0.0459485799, 0.0077114105, 0.0448199287, -0.0281635635, 0.0258795694, 0.0486335158, 0.0124589987, 0.0481227934, 0.0412570015, -0.0289039519, 0.0366079435, 0.0208883435, 0.0454499349, -0.0296827443, -0.0194647312, 0.0268152356, -0.0081159957, -0.0294960141, 0.0270868093, -0.0282657631, 0.0130305514, 0.0347345769, 0.0263472870, -0.0290468689, -0.0071606338, -0.0225995481, -0.0260040462, 0.0234393477, -0.0074414946, -0.0371276475, -0.0130795240, 0.0128426291, 0.0280616656, -0.0080875643, 0.0154759288, 0.0361332074, -0.0213885233, 0.0036765262, 0.0053463914, -0.0084006153, -0.0024020560, -0.0396935865, -0.0116200782, -0.0092867240, 0.0110133775, 0.0200057849, 0.0372031480, 0.0402894542, -0.0044698380, 0.0059073493, -0.0488822795, -0.0085133873, 0.0266004801, 0.0008222908, 0.0216124728, 0.0126461945, 0.0361002013, 0.0012561791, 0.0303862691, -0.0084126703, -0.0289086122, -0.0399669819, -0.0218481459, -0.0462250374, 0.0386796296, 0.0446889773, -0.0165824629, 0.0278414860, 0.0043753572, 0.0150866881, -0.0226760283, -0.0125974305, -0.0303059816, 0.0063604563, 0.0417024791, -0.0215095747, 0.0142228529, 0.0287103876, 0.0236421227, 0.0341622159, 0.0068906024, -0.0334888138, -0.0208014473, 0.0003929660, 0.0293598697, 0.0476660430, 0.0451150909, -0.0269301236, -0.0311448798, 0.0260152444, 0.0157584473, 0.0136185363, 0.0132657513, -0.0067351758, 0.0227148160, 0.0355196893, -0.0253818706, 0.0139074102, 0.0332925990, 0.0396930575, 0.0435266346, 0.0007418953, -0.0408994965, -0.0114139691, -0.0335135534, 0.0086670145, 0.0417222083, -0.0177614503, -0.0242749620, -0.0139413998, -0.0304644220, -0.0098087303, -0.0317699388, 0.0168077797, -0.0314976200, -0.0445266515, 0.0019492656, 0.0116806850, 0.0435413420, 0.0270395204, 0.0446682051, 0.0187212452, 0.0237801224, 0.0255729929, 0.0065431334, -0.0420734026, -0.0053649880, 0.0031719804, 0.0164205506, -0.0092271566, 0.0211923122, -0.0048906952, -0.0347996913, -0.0065923519, 0.0010606088, -0.0279496536, 0.0337801501, -0.0088284798, -0.0033581965, -0.0389256328, -0.0390558317, 0.0251203179, -0.0069304891, 0.0187040120, 0.0430548340, -0.0243754461, -0.0427480675, -0.0447899327, -0.0049358010, -0.0428515412, 0.0234071091, 0.0371777341, -0.0014575906, 0.0196621642, -0.0173347667, 0.0192862600, -0.0243237149, -0.0099712349, 0.0212715790, -0.0288190842, 0.0193702877, -0.0315147191, 0.0045820475, -0.0194552708, 0.0383489877, 0.0193346292, 0.0185125694, -0.0349917114, -0.0156841017, 0.0070015155, -0.0001802221, -0.0024730340, 0.0398800820, 0.0453355983, 0.0350293666, -0.0317343250, 0.0290973037, 0.0035024583, -0.0199065655, 0.0279092863, 0.0258854777, 0.0210605785, -0.0291320160, -0.0207478348, 0.0098777600, -0.0443767235, -0.0240708869, 0.0159248710, 0.0266413465, 0.0154479221, -0.0154905058, -0.0376069546, -0.0226871129, 0.0391973928, 0.0045457818, 0.0234364048, 0.0074664317, 0.0456922278, -0.0427607521, -0.0338390768, -0.0237478744, 0.0416548848, 0.0297483131, -0.0383695811, -0.0004692823, 0.0452074707, -0.0345684290, -0.0421165973, 0.0194392204, 0.0074722245, 0.0488640368, 0.0130287893, -0.0098291934, 0.0198939368, 0.0014956445, -0.0152919777, 0.0450553223, 0.0185674578, -0.0073430203, -0.0014398247, 0.0413179696, 0.0102544874, -0.0280045159, -0.0122002624, 0.0191242844, 0.0327982083, 0.0449791700, -0.0447276980, -0.0086403154, -0.0343625993, 0.0431464016, -0.0057769790, 0.0008976944, -0.0103911795, 0.0327415019, -0.0422552824, 0.0470299497, -0.0262415372, 0.0047442354, -0.0472119935, -0.0399967432, 0.0121646486, 0.0284279734, -0.0445898287, -0.0475063659, -0.0139193684, 0.0352395177, 0.0426301062, 0.0176091194, -0.0303191096, 0.0135463327, 0.0238339826, -0.0090392344, -0.0200563390, 0.0352334231, -0.0342388041, -0.0026655234, 0.0356106982, 0.0428217128, 0.0297305509, -0.0101653449, -0.0465730950, -0.0332310945, -0.0369897895, -0.0453732461, 0.0121000819, 0.0156866014, 0.0285612345, -0.0083359890, 0.0079639889, -0.0295898300, -0.0473431498, -0.0009222925, -0.0017068684, 0.0407284796, -0.0142154843, 0.0242791995, -0.0250996333, -0.0178952329, 0.0153733045, -0.0068890490, -0.0151777938, 0.0430666283, 0.0111844093, -0.0124945045, 0.0292314291, 0.0201764554, -0.0341724269, -0.0484693535, 0.0228628293, 0.0088793598, 0.0143191814, -0.0283536091, -0.0192507524, -0.0175100714, -0.0148225911, 0.0363376662, 0.0447395444, -0.0033643171, -0.0319342911, -0.0198109988, -0.0252020322, 0.0451869965, -0.0248564668, 0.0072263703, 0.0152943358, -0.0456390828, -0.0327875912, -0.0116147399, 0.0028091744, -0.0486117825, 0.0444739759, -0.0348938107, 0.0194885731, -0.0482809544, 0.0314925984, -0.0119898431, 0.0209372416, 0.0186291263, -0.0438906103, 0.0060709529, -0.0401050635, -0.0486194789, 0.0244132206, 0.0072357394, 0.0429493636, 0.0200948343, -0.0001119301, -0.0302992761, 0.0290737301, 0.0070417896, -0.0083436295, 0.0436403081, -0.0461595245, -0.0207548551, -0.0033954084, -0.0021420568, -0.0043812208, -0.0248357579, 0.0061081797, 0.0011767671, -0.0380480513, 0.0144400224, -0.0272499118, 0.0174899921, 0.0304179713, -0.0455613658, 0.0053958558, -0.0236303378, -0.0271497332, 0.0168871582, 0.0259869099, 0.0357992277, -0.0129879415, 0.0013728291, 0.0115713142, 0.0194919556, -0.0209303368, -0.0256635007, 0.0323621780, -0.0313116610, -0.0480824150, -0.0314304829, 0.0404195711, 0.0423312187, 0.0127962939, -0.0267281402, 0.0034226142, 0.0208807513, -0.0030564442, 0.0241863430, 0.0303197652, 0.0360640287, 0.0326124728, -0.0483351611, 0.0033851080, 0.0270364210, 0.0102603883, -0.0044077113, 0.0467654765, 0.0177380815, 0.0054955594, -0.0228287354, -0.0125737190, 0.0057671778, 0.0054388046, -0.0104489736, 0.0322711915, -0.0218911748, 0.0008769520, -0.0404191390, 0.0379027873, -0.0068909414, -0.0378716923, -0.0214248709, -0.0466420427, 0.0048879497, 0.0365910977, 0.0048710927, 0.0489275306, -0.0309086386, 0.0196758732, -0.0122447051, -0.0302958433, 0.0299323350, -0.0189066455, -0.0323982686, 0.0110601671, -0.0128744021, -0.0069898963, -0.0144694895, 0.0186315328, 0.0082517415, -0.0336641334, -0.0064233765, -0.0454717912, 0.0408067480, 0.0377397686, 0.0233050734, 0.0487118363, 0.0372274294, -0.0366826616, 0.0092185251, -0.0242468603, -0.0344019160, 0.0360540301, -0.0351971760, -0.0448421538, 0.0133218765, 0.0071427636, 0.0280537456, -0.0376699902, -0.0484054647, -0.0287913084, -0.0007497333, 0.0401257947, -0.0108637698, -0.0003570467, -0.0357924886, -0.0459446833, -0.0146822669, -0.0317523032, -0.0350835323, 0.0290834755, 0.0104261525, 0.0142597631, -0.0007457025, -0.0286595337, -0.0238589048, 0.0472344756, -0.0468737632, -0.0205745958, -0.0131634250, -0.0059474036, 0.0163148120, 0.0446119979, -0.0231440384, -0.0252391398, -0.0331529900, -0.0218795296, 0.0436491370, -0.0173296034, -0.0393190645, 0.0094719715, -0.0441239215, 0.0240476876, -0.0277606715, -0.0058206841, 0.0387110114, 0.0300235078, -0.0123800077, 0.0188545287, -0.0366657972, -0.0174565315, -0.0129282437, -0.0274665430, -0.0149998106, 0.0405587181, -0.0110732727, -0.0362969376, 0.0441746041, -0.0017714724, 0.0278162807, 0.0125534795, 0.0219660699, 0.0258625671, 0.0110778660, 0.0082829371, -0.0159610584, 0.0164598599, 0.0238260254, 0.0054097809, -0.0205615852, 0.0105115660, -0.0298151840, -0.0064761117, -0.0181199703, -0.0028943233, 0.0218091607, -0.0043683723, 0.0390147492, -0.0209765304, -0.0236375332, -0.0331820622, -0.0216590688, 0.0190908089, -0.0078430213, -0.0367254466, 0.0233480781, 0.0219701529, 0.0015273467, 0.0104322359, -0.0090745911, -0.0097703747, -0.0247350521, -0.0264773685, -0.0361698233, 0.0048241988, 0.0000490546, 0.0007892698, 0.0329222158, 0.0468765572, -0.0240743570, -0.0297924317, 0.0129566751, 0.0278580934, -0.0102859885, -0.0438340567, -0.0486964509, 0.0297234505, 0.0055807158, -0.0012637265, 0.0065174960, -0.0420468301, -0.0257384758, -0.0409416370, 0.0285535753, -0.0245831758, 0.0017763525, 0.0486868471, -0.0329731740, 0.0360551402, -0.0191866755, 0.0463458821, -0.0446665660, 0.0456189588, 0.0214676410, 0.0466763452, 0.0212688968, 0.0120804235, -0.0301772207, -0.0343033113, 0.0065961368, 0.0191783458, -0.0205662102, 0.0328129232, 0.0139975920, 0.0009834990, 0.0242815167, -0.0063622780, 0.0429218188, -0.0319699608, -0.0387637131, 0.0269785523, 0.0319847465, -0.0480726771, 0.0221019387, 0.0316570252, -0.0167826116, 0.0338871256, 0.0293910801, -0.0080213621, 0.0488384888, 0.0320498869, 0.0141436011, 0.0253816620, -0.0420298465, -0.0157420114, -0.0249244682, 0.0400749668, 0.0458581001, 0.0350184813, 0.0018940307, 0.0185159370, -0.0038562939, -0.0241527185, 0.0125733353, -0.0319784991, -0.0057309344, 0.0017899834, 0.0373580530, 0.0338537842, 0.0093691610, 0.0249055699, 0.0279756635, 0.0033624619, -0.0039660297, 0.0154800937, -0.0196397584, -0.0342226401, 0.0422888175, 0.0316670164, 0.0141055658, 0.0272774771, 0.0271445662, 0.0226840153, -0.0288615301, -0.0290575325, -0.0118936375, -0.0117482059, -0.0398516990, 0.0134397261, 0.0220257863, -0.0140060484, -0.0152600668, -0.0219763927, -0.0359017886, 0.0402747840, -0.0226960965, 0.0227101371, -0.0251086745, 0.0462706387, -0.0101886354, -0.0166573785, -0.0232037827, -0.0485163443, -0.0014927238, 0.0183375478, 0.0263986215, -0.0117832832, 0.0045170486, -0.0183381177, -0.0346973762, 0.0235066935, -0.0452801920, -0.0283671580, 0.0156330839, -0.0029912107, 0.0037230141, 0.0195041373, 0.0038966015, -0.0022736304, -0.0450890101, -0.0311947763, 0.0216987357, 0.0244028792, 0.0140887275, -0.0448645540, 0.0284212455, 0.0326340422, 0.0432853475, -0.0349974819, -0.0408972055, 0.0059220344, -0.0228976235, -0.0383193567, -0.0229513645, 0.0364472941, -0.0180079453, -0.0366725102, -0.0024679415, -0.0136600621, 0.0127698407, 0.0334597081, -0.0459673293, -0.0072929114, 0.0202125162, -0.0146271251, 0.0403786451, 0.0094270259, 0.0255865902, -0.0176079497, -0.0362097248, -0.0275183916, 0.0364127234, 0.0306078196, -0.0437348932, -0.0031700656, 0.0178766251, 0.0408752933, -0.0123555474, 0.0295128003, 0.0003543161, 0.0047269054, 0.0152492896, 0.0065469183, -0.0061287470, -0.0305037834, 0.0310526192, -0.0165941678, -0.0133373290, 0.0251248777, -0.0068798810, -0.0207221042, 0.0118761845, -0.0133649297, -0.0394587927, 0.0055780672, 0.0045763366, -0.0177644286, 0.0021025203, 0.0426521525, 0.0351177529, -0.0048991628, -0.0011820830, -0.0385842249, -0.0030948333, -0.0035399981, 0.0446735993, -0.0111700185, 0.0483702123, -0.0013760179, -0.0342988633, 0.0268203393, 0.0176784545, -0.0459823981, 0.0330038443, -0.0198221784, 0.0003260858, 0.0372430682, -0.0437825844, -0.0216679107, 0.0182264000, 0.0343892872, 0.0431422964, 0.0429232419, -0.0469043776, -0.0244238358, 0.0343938097, -0.0351167358, 0.0001365617, 0.0273414031, 0.0203835219, -0.0069608577, -0.0120689310, -0.0482348539, -0.0345098861, -0.0423933901, 0.0049718805, -0.0289930832, -0.0133968964, -0.0421266295, -0.0203137342, 0.0179071575, 0.0041721947, 0.0014424063, -0.0426944904, 0.0398584753, -0.0294247549, 0.0109457523, -0.0431235582, 0.0368798822, -0.0436954945, -0.0286886301, 0.0195349157, -0.0198298506, -0.0451404862, -0.0151265524, -0.0087491125, 0.0127213337, -0.0048516691, 0.0060476623, 0.0145074353, -0.0344007351, 0.0309507698, -0.0391781442, 0.0262852088, 0.0206208229, -0.0171267539, -0.0412694141, -0.0187253244, -0.0173915178, 0.0285638422, -0.0407423154, -0.0159624852, 0.0136860460, -0.0200219657, -0.0381533951, 0.0331562012, -0.0313826725, -0.0352281779, 0.0093329772, 0.0025017560, 0.0285344869, 0.0170306414, -0.0010665879, -0.0088816956, 0.0394331887, -0.0245419331, 0.0407254249, 0.0302904025, 0.0206008628, -0.0325284787, -0.0027742982, -0.0216398891, 0.0023652613, 0.0344705209, 0.0389204696, 0.0270644426, -0.0258277003, -0.0115348473, 0.0467952341, 0.0327911377, 0.0270643532, 0.0365859643, -0.0473555997, -0.0474058352, 0.0062812753, 0.0367103294, -0.0141751878, 0.0292441472, -0.0000530146, 0.0020203963, -0.0489015765, -0.0454411432, -0.0245216340, -0.0333793126, 0.0209303722, 0.0287537575, 0.0270012766, -0.0304954555, 0.0311500877, 0.0326317400, 0.0040654279, -0.0269016717, 0.0229438320, -0.0294129457, 0.0126161873, 0.0386621058, 0.0034923665, -0.0205418691, 0.0241518319, 0.0198154375, -0.0060779490, 0.0200886726, 0.0349679887, 0.0177727789, -0.0437146276, 0.0384609401, -0.0097908713, 0.0264956802, 0.0087192133, 0.0412159115, 0.0338563994, 0.0086645856, 0.0357936993, 0.0002181120, 0.0415009186, -0.0115103759, -0.0315064825, 0.0093883537, 0.0333797559, 0.0427285731, -0.0114513822, -0.0304874200, -0.0277071875, -0.0197558459, -0.0047863908, 0.0466374308, 0.0462709665, 0.0054084249, -0.0420878753, -0.0174186751, 0.0174665749, -0.0022727214, -0.0227675550, -0.0099832304, -0.0450756252, 0.0184704885, 0.0087388605, -0.0372224227, -0.0350078195, -0.0037094653, 0.0408886597, -0.0411987044, -0.0290265922, 0.0190924630, -0.0076389685, 0.0298863053, -0.0307356920, 0.0306960717, -0.0081473812, 0.0275018513, -0.0029470138, -0.0234374180, -0.0484931134, 0.0352268443, -0.0276639946, 0.0349323675, -0.0117865540, 0.0054665692, 0.0068017542, -0.0094003715, 0.0470995829, 0.0212199241, 0.0382610708, -0.0418097116, -0.0417896584, 0.0010089353, 0.0093088709, -0.0454027839, 0.0151253641, 0.0333140194, 0.0054204687, 0.0341738611, 0.0452910438, -0.0300235692, -0.0272078868, -0.0082080103, -0.0480479710, 0.0408379063, 0.0066344365, 0.0012440458, 0.0472540557, -0.0307520907, 0.0162359625, 0.0408953503, -0.0224926993, 0.0083985813, 0.0028642341, 0.0238230452, 0.0114277638, 0.0239664912, -0.0298881847, -0.0398477279, -0.0242307764, -0.0179619156, -0.0283688288, 0.0454523787, -0.0332569182, -0.0170568489, -0.0030440725, 0.0091966838, 0.0003596768, 0.0176309720, 0.0391995311, -0.0274647549, -0.0104050674, 0.0393555984, 0.0422784239, 0.0284374058, 0.0176121294, -0.0139758661, 0.0477451682, -0.0240057018, -0.0216375310, 0.0237355605, -0.0380609930, -0.0363818295, 0.0479982048, 0.0027347393, -0.0134809352, 0.0416725203, -0.0268035941, -0.0350204110, 0.0066982917, 0.0081235990, -0.0054708086, 0.0083568506, -0.0237988941, -0.0176167563, -0.0332475156, 0.0058713630, -0.0119506232, -0.0481208898, -0.0400786772, -0.0371978804, 0.0096895136, -0.0410862938, 0.0143764094, -0.0312578827, 0.0045151897, -0.0347363502, 0.0422917604, -0.0096746311, -0.0003113896, 0.0410529599, 0.0287317634, -0.0074779242, 0.0136094242, -0.0390310362, -0.0069119893, 0.0256050080, 0.0322278664, -0.0392219089, -0.0351002328, -0.0202830378, -0.0328480005, -0.0324487984, 0.0047883540, -0.0009912662, 0.0424010530, -0.0110694207, 0.0054930598, -0.0023791604, -0.0066764951, -0.0256085116, -0.0374026783, 0.0272923484, -0.0293228105, -0.0075165965, 0.0313195214, 0.0285425931, 0.0303794965, -0.0411891490, 0.0043310076, 0.0452916026, -0.0132937133, 0.0325171277, -0.0373757817, -0.0431402363, 0.0227802470, 0.0230025724, 0.0322792381, 0.0226302221, 0.0274625346, 0.0429514498, -0.0152760819, 0.0317093655, -0.0304806344, -0.0189717039, -0.0042833537, -0.0097374246, 0.0402819812, 0.0053312555, -0.0323804095, 0.0154098049, -0.0445077270, -0.0400559008, -0.0485305227, 0.0363596156, 0.0010139719, 0.0288480371, -0.0260086935, 0.0482940376, 0.0319680423, -0.0443492644, -0.0212525781, -0.0086338446, -0.0407026634, 0.0326792449, -0.0035694093, -0.0380928665, 0.0080426335, 0.0141226500, 0.0144518763, 0.0103086494, -0.0323437452, -0.0097465105, 0.0477862433, -0.0442269295, 0.0265458599, 0.0236328170, 0.0066237599, 0.0076201744, 0.0041941293, 0.0152448118, 0.0341494009, -0.0017500855, 0.0248002037, 0.0281581283, 0.0148513690, -0.0298371669, -0.0285516102, -0.0380446985, 0.0273069590, 0.0067565516, -0.0277602263, -0.0284499824, -0.0452941731, -0.0260692444, -0.0278345942, -0.0134912841, -0.0106247477, -0.0210755076, -0.0434856527, -0.0266489256, -0.0384696908, -0.0331033841, 0.0416828468, 0.0217973143, -0.0302500576, -0.0065150894, -0.0070742741, -0.0320249870, 0.0120268576, 0.0267435238, -0.0406685248, -0.0270426255, -0.0014100075, 0.0217596665, 0.0387205333, -0.0478181317, -0.0140175298, 0.0098229460, -0.0381294489, 0.0215275586, 0.0175920874, -0.0446273461, 0.0240934789, -0.0362743363, 0.0359481499, -0.0348768532, -0.0065723807, -0.0437555686, 0.0143478662, 0.0408653542, -0.0103914961, 0.0165848807, 0.0346686766, 0.0027686581, -0.0141714960, -0.0273875035, 0.0218479559, 0.0179292709, -0.0275064427, 0.0220019147, 0.0332172737, -0.0273317434, 0.0481628329, 0.0382506773, -0.0290083252, 0.0000346415, 0.0378612429, -0.0050795265, -0.0410220660, -0.0359534398, 0.0365958288, 0.0002006292, 0.0452800766, -0.0419130474, -0.0415802598, 0.0408863574, 0.0358016938, 0.0257628635, 0.0252633393, 0.0181045309, 0.0058312677, -0.0272835046, -0.0415208749, 0.0285497680, 0.0383325219, 0.0403287262, -0.0309120249, -0.0211294927, -0.0168350451, 0.0443380997, 0.0264256522, -0.0237532128, -0.0434546284, 0.0397597179, 0.0419984385, -0.0378055274, -0.0010738075, 0.0261594951, -0.0287754945, 0.0406097621, 0.0262485296, 0.0413258448, 0.0338686034, -0.0404057316, 0.0312921777, -0.0009943955, -0.0366229638, -0.0110203065, -0.0202460829, 0.0354186818, -0.0089476295, -0.0302934013, -0.0313437805, 0.0208176672, -0.0084106736, 0.0487615094, 0.0212539658, -0.0472993255, -0.0332963988, 0.0360395014, -0.0007960908, -0.0147392638, 0.0015910268, 0.0350318924, -0.0049764253, 0.0207194090, -0.0288777538, -0.0357145928, 0.0089642368, -0.0184858944, 0.0305620432, 0.0103203878, 0.0439426452, -0.0304141864, -0.0418819785, 0.0279579088, -0.0150926337, 0.0292316973, 0.0419349000, 0.0478398576, 0.0275763795, -0.0140541010, -0.0196766201, 0.0106280632, -0.0161647834, 0.0136457160, -0.0476467982, 0.0087556429, 0.0300065279, -0.0001883991, 0.0232329592, -0.0033692457, 0.0389671549, -0.0171569809, 0.0217088163, 0.0081150942, -0.0235574786, -0.0432143696, -0.0391747095, 0.0410970673, 0.0432839245, 0.0128996521, -0.0071281642, 0.0091651715, 0.0339239091, 0.0293765068, -0.0015588701, 0.0223641843, -0.0059533119, 0.0404655784, 0.0136997849, 0.0262040421, 0.0437124893, -0.0081986897, -0.0108489804, 0.0343226567, -0.0318626314, -0.0444453694, 0.0352924392, -0.0436354131, -0.0278164204, 0.0156250224, 0.0446643382, 0.0286872834, -0.0379978493, -0.0144944638, -0.0298372824, -0.0228074063, -0.0080921426, 0.0289566517, 0.0182853565, 0.0288369432, 0.0071763806, -0.0380440429, 0.0202721506, -0.0072046444, -0.0182276014, 0.0313349590, -0.0246553589, 0.0457375348, 0.0469130054, -0.0463062972, 0.0140813738, 0.0043571368, -0.0432804674, -0.0208386704, 0.0389494002, 0.0111122280, 0.0099786185, 0.0369400233, -0.0407894924, 0.0365964994, -0.0153265260, -0.0424444452, 0.0168979988, 0.0378406122, -0.0367467254, 0.0097694620, 0.0106150396, 0.0257513598, -0.0217319280, -0.0228122082, 0.0468882695, 0.0390766710, -0.0115941241, 0.0467882305, -0.0168253370, -0.0131920278, 0.0393955931, 0.0239386782, 0.0152715296, 0.0277209580, -0.0276035275, -0.0058262795, 0.0393787995, 0.0172506422, -0.0159175992, -0.0419233590, -0.0123304017, 0.0289377570, -0.0013318546, 0.0428536683, -0.0290180072, 0.0310665742, -0.0472080708, 0.0052494928, -0.0272824541, 0.0397448614, 0.0092695206, 0.0312361345, -0.0421247929, 0.0440474376, 0.0315163732, 0.0012308247, 0.0437771901, -0.0268908907, 0.0255142525, 0.0308564156, 0.0054385588, 0.0103874095, -0.0169858932, 0.0294924974, -0.0478548184, -0.0413483977, -0.0047251992, -0.0205175392, 0.0331274569, 0.0441212133, -0.0010038577, 0.0207675770, -0.0058532506, 0.0092726275, -0.0234775748, -0.0230523385, -0.0391452536, 0.0313499942, 0.0332427397, 0.0114786774, 0.0150282905, -0.0463639498, -0.0276342332, 0.0274344683, 0.0259160623, -0.0193847120, 0.0401988178, -0.0180522837, 0.0449724123, -0.0103278048, -0.0025798939, -0.0226633325, -0.0067275278, 0.0249298140, -0.0167853124, -0.0209376477, -0.0267523993, 0.0123247355, 0.0188074932, 0.0277763605, -0.0142586641, -0.0481052995, -0.0180986077, 0.0317574516, -0.0018324070, -0.0067550912, 0.0358982831, -0.0071328357, 0.0297252014, -0.0181964505, -0.0380943269, -0.0375267118, 0.0489125773, 0.0398855954, 0.0396069065, -0.0001071282, -0.0234790575, -0.0448400863, 0.0462794006, 0.0012392104, 0.0190434307, 0.0066017210, 0.0206862018, 0.0018047579, 0.0371415466, 0.0149233192, -0.0212666169, -0.0471733548, -0.0280240439, 0.0020804890, -0.0021346733, -0.0111700557, 0.0442921743, 0.0059203841, -0.0363899916, -0.0474630818, 0.0262184665, 0.0462084413, -0.0262655038, 0.0222006738, 0.0084220357, -0.0280234255, 0.0061365962, 0.0067034774, 0.0371081904, -0.0479371175, -0.0049338639, 0.0236663818, 0.0280172154, -0.0431160592, 0.0104710013, -0.0226004701, 0.0102098361, -0.0306023750, -0.0267200340, -0.0473269150, -0.0394251086, -0.0207558591, 0.0430022478, -0.0198462382, 0.0081163906, 0.0004373156, 0.0332873762, 0.0427151769, -0.0401767679, 0.0004266724, 0.0459438786, -0.0111313350, 0.0108930953, -0.0195450205, 0.0465103239, 0.0414245501, 0.0310156196, 0.0391477048, 0.0142007098, 0.0382344052, 0.0015212148, -0.0025545396, 0.0046454817, 0.0260386392, 0.0305782557, 0.0130605698, -0.0481367521, 0.0218064561, -0.0348202847, 0.0473440588, 0.0417822748, 0.0067951642, 0.0053695552, -0.0411476046, -0.0001176633, 0.0196031183, 0.0302051008, -0.0064606480, -0.0158400051, 0.0291425958, 0.0194635838, -0.0486881807, -0.0144182146, -0.0323816687, -0.0440825149, -0.0454016179, 0.0079010464, -0.0003155619, 0.0065404586, -0.0437316932, -0.0425444022, 0.0032116026, 0.0092326328, -0.0372798145, -0.0058409274, 0.0079468228, 0.0392991602, -0.0216421559, -0.0003376715, -0.0146982446, 0.0112419352, 0.0079156458, -0.0452915318, 0.0169638544, -0.0103923827, 0.0471077636, -0.0217333306, -0.0350347199, 0.0003647320, 0.0467963815, 0.0310132354, 0.0423979014, 0.0162737444, -0.0261332393, -0.0041613542, 0.0271889418, 0.0069367737, -0.0262451451, -0.0459828079, -0.0183696672, -0.0390502363, 0.0177165270, -0.0364576578, -0.0395941995, 0.0416061431, -0.0287561510, 0.0200367272, 0.0016671680, 0.0291205794, -0.0202550404, -0.0382738858, 0.0389782861, -0.0209694058, -0.0261822958, -0.0144310966, 0.0229412466, -0.0310336966, -0.0221671741, 0.0449766591, -0.0033280291, 0.0158343539, -0.0356197283, -0.0258089881, -0.0238093361, 0.0476859808, 0.0172088072, 0.0368591473, 0.0030787624, -0.0427949280, 0.0116946064, -0.0169169232, -0.0389533639, 0.0394841135, -0.0363929830, -0.0272609740, 0.0268985853, 0.0286958739, -0.0478498787, 0.0232268125, 0.0337940827, -0.0316087753, -0.0020918213, -0.0236853752, -0.0387836732, -0.0418665484, 0.0221188888, -0.0003887936, -0.0360043645, -0.0272067543, -0.0026329346, 0.0278102979, 0.0208977461, -0.0136368982, 0.0197952911, 0.0073060878, -0.0356534719, 0.0094283931, -0.0155003145, 0.0076628216, -0.0238769390, 0.0060131624, 0.0230309665, 0.0075098127, 0.0462994277, 0.0156891569, 0.0162279010, -0.0409101248, 0.0058646612, -0.0466748253, -0.0134699307, 0.0343125761, 0.0220110714, -0.0058365948, -0.0362216607, -0.0205606278, -0.0337781981, -0.0319075994, -0.0129360110, 0.0484755710, -0.0206505749, 0.0119861774, 0.0274270624, -0.0317861624, -0.0194128733, -0.0103494003, -0.0048475713, -0.0355963185, -0.0289499238, 0.0155261159, -0.0307807289, 0.0302444771, -0.0258213449, -0.0264540203, -0.0212971382, 0.0356818661, 0.0289017111, -0.0033455230, 0.0430066958, -0.0419716462, -0.0122905821, 0.0134924650, -0.0350858644, 0.0299105421, 0.0430173725, -0.0040387623, -0.0154095031, -0.0045592934, 0.0091358051, -0.0271528158, 0.0333804786, -0.0351852626, 0.0423309356, -0.0433824584, 0.0432111472, -0.0482568368, -0.0147937052, 0.0075836517, 0.0185610428, -0.0154947191, -0.0391398817, -0.0140120499, -0.0053033382, 0.0057361908, 0.0113538057, -0.0041432381, -0.0075747520, 0.0349089578, 0.0163022354, -0.0410364568, -0.0133432038, 0.0116286017, 0.0451096594, -0.0476315655, -0.0418463312, 0.0139547363, -0.0115893111, -0.0015349500, 0.0371919125, 0.0455805585, 0.0024353415, 0.0273029953, 0.0408077613, 0.0061026402, 0.0172830597, -0.0353998728, -0.0380279124, 0.0402762815, 0.0044635534, -0.0341292918, 0.0477264747, 0.0185392648, -0.0232873987, -0.0190728307, -0.0129347853, 0.0277021527, 0.0394609794, -0.0210961588, -0.0364767760, -0.0233018715, -0.0483100601, -0.0435589664, 0.0053735711, 0.0290954337, -0.0304697007, 0.0026147254, 0.0339816585, 0.0018923022, -0.0150854401, -0.0016359352, 0.0245982930, -0.0479576401, 0.0295414180, 0.0185782984, 0.0207810178, -0.0085480884, -0.0223006438, -0.0489164926, -0.0465749055, 0.0185473114, -0.0427670479, -0.0001123957, 0.0371363014, 0.0225545093, 0.0164887086, 0.0084018409, -0.0229651351, -0.0082366988, -0.0165429600, 0.0478537679, -0.0004125275, 0.0276939794, 0.0477003977, 0.0215204358, -0.0391966216, -0.0377344191, 0.0337430090, -0.0224328041, -0.0358828306, -0.0090227798, 0.0372865945, -0.0199437793, -0.0216368176, -0.0015331395, -0.0373046249, 0.0195051432, -0.0436682366, -0.0394950584, -0.0437467620, 0.0409583375, 0.0324891508, 0.0432230234, -0.0262078866, 0.0125134736, 0.0391710401, -0.0126068108, -0.0328833535, -0.0064452551, -0.0074402429, -0.0062326752, -0.0254818872, 0.0322626978, 0.0173325241, -0.0153582022, 0.0446709543, 0.0029849857, 0.0027425401, 0.0162146538, -0.0172382407, 0.0256526768, -0.0291848332, 0.0287643075, -0.0121911615, 0.0452040732, -0.0446671285, 0.0343607888, -0.0309553817, -0.0435942300, 0.0186108574, 0.0193466023, -0.0281296670, -0.0308538359, 0.0286516622, 0.0423289537, 0.0100951977, -0.0364386067, -0.0235574190, -0.0070441961, -0.0444494560, -0.0282932706, 0.0394394398, -0.0453649648, 0.0014179386, -0.0129248686, 0.0251023769, -0.0157286972, -0.0337322280, 0.0000321195, 0.0093612447, 0.0060574412, -0.0126200318, -0.0179100316, -0.0230997242, 0.0381718501, 0.0044616386, -0.0418938696, -0.0110210292, 0.0387353301, -0.0405332074, 0.0100479610, 0.0289964601, 0.0132033117, 0.0372281447, -0.0121816657, 0.0285091326, -0.0167466141, -0.0332001969, 0.0289601758, 0.0285433084, 0.0483288318, -0.0004434809, -0.0383077562, 0.0265206322, 0.0431464016, 0.0284590721, 0.0467060506, -0.0452751555, -0.0105902553, 0.0126469992, 0.0337201878, 0.0276087001, -0.0481583364, -0.0420312248, -0.0122416690, -0.0098675266, -0.0387270488, 0.0097549073, 0.0156058893, -0.0191516001, -0.0216560196, -0.0405295752, -0.0444658920, -0.0204726644, -0.0000076145, -0.0440734625, 0.0433381423, 0.0263367966, 0.0419220179, 0.0272167996, -0.0375034548, 0.0328754336, -0.0321603455, 0.0210723057, -0.0228723940, 0.0051859878, 0.0159117579, -0.0047061369, 0.0309579149, 0.0146587789, 0.0037658773, 0.0352905020, 0.0401866958, -0.0049917623, -0.0126602128, -0.0134596191, 0.0096960403, -0.0299712773, 0.0481627658, -0.0449291803, -0.0394537225, -0.0458130129, -0.0317640752, -0.0310287569, -0.0078175105, 0.0283944458, 0.0194646642, -0.0413754582, -0.0262742285, 0.0135594830, 0.0436469316, -0.0397121906, -0.0266825873, 0.0143663883, 0.0002441965, -0.0179292578, 0.0487549081, 0.0375857279, -0.0335574448, -0.0466449372, 0.0314487144, -0.0317091905, -0.0351356715, -0.0237992313, -0.0071731210, 0.0236159489, -0.0189829413, -0.0367797464, 0.0269018933, 0.0415060222, 0.0074133091, -0.0042518973, 0.0074359588, -0.0339724161, 0.0341711268, 0.0484196991, -0.0090440251, 0.0355044603, 0.0207305104, -0.0435961820, 0.0458206385, -0.0300145522, 0.0426645577, 0.0379239991, 0.0407636464, 0.0453493148, -0.0283764564, -0.0182719622, 0.0341641679, 0.0486019328, 0.0068839565, -0.0237572193, -0.0031015500, -0.0469102971, 0.0215018988, -0.0456731804, -0.0024925061, -0.0142919645, -0.0084770508, 0.0298440680, -0.0178336091, -0.0467066206, 0.0278099701, -0.0480737165, -0.0218614247, 0.0101581626, -0.0428104624, -0.0154213347, -0.0444288179, 0.0280507654, 0.0271989852, -0.0478979051, 0.0090343654, 0.0065861046, -0.0373267829, -0.0456964672, 0.0410219133, -0.0377300717, -0.0135936961, 0.0344347507, -0.0157200284, -0.0295703225, 0.0126263499, 0.0229714438, -0.0278005581, 0.0188382268, 0.0132509209, 0.0333009884, -0.0141225569, -0.0209490489, 0.0186738521, 0.0258089527, 0.0367112681, 0.0007870607, 0.0386707038, -0.0243887845, -0.0072925016, -0.0252005849, 0.0441896096, 0.0161903054, 0.0412115157, -0.0220916048, 0.0244666934, -0.0387893394, -0.0066029243, 0.0192238539, -0.0414964519, -0.0338252112, -0.0376710407, -0.0407714359, 0.0112746507, -0.0396709517, 0.0238714740, -0.0341853425, -0.0477030724, 0.0322450176, -0.0333921611, 0.0380726382, 0.0461071655, -0.0027707256, 0.0189921111, -0.0280258432, -0.0011103414, 0.0240390375, 0.0377539471, -0.0062420443, 0.0486958548, -0.0475106202, -0.0165888295, 0.0147924200, 0.0067235082, 0.0415155366, -0.0215666443, -0.0470685400, -0.0022881404, -0.0383439660, -0.0469570048, 0.0338484868, -0.0344680846, 0.0299923569, -0.0488114059, -0.0323833413, 0.0222200975, 0.0019815378, -0.0033361353, -0.0413469486, 0.0235227644, 0.0223636776, 0.0075416863, 0.0230757669, 0.0186787322, -0.0149230734, 0.0046811067, 0.0217931643, -0.0118970685, 0.0134917274, 0.0475093126, 0.0073219836, -0.0148634128, 0.0245374739, 0.0115530081, 0.0290368274, -0.0249474663, -0.0260882583, -0.0090277754, -0.0240030270, -0.0035757050, 0.0405283943, -0.0383890159, 0.0489362106, 0.0223752111, -0.0125725418, 0.0384854004, 0.0353143066, 0.0084524974, 0.0273289159, -0.0487999693, 0.0477925390, 0.0293904021, -0.0384243838, 0.0455965549, 0.0242922604, -0.0456052013, 0.0069279335, -0.0359659120, -0.0415942036, 0.0467789918, 0.0078566857, -0.0390944928, 0.0282028317, -0.0309897326, 0.0286074728, 0.0448082238, -0.0359464549, -0.0242303442, -0.0148724169, 0.0480599105, -0.0450153463, -0.0103281327, -0.0073519647, 0.0127041042, 0.0441349372, -0.0201017745, -0.0044628978, 0.0034981370, -0.0127230138, 0.0165842175, 0.0420569554, 0.0125434697, 0.0237995014, 0.0236124545, 0.0122616291, -0.0326240100, -0.0328748748, 0.0285004899, 0.0323555917, -0.0430454761, 0.0469179153, 0.0198118538, 0.0096815564, -0.0456419364, -0.0098584294, 0.0394083485, 0.0203755945, -0.0221876036, -0.0080643222, 0.0317869708, -0.0469498336, -0.0356107578, -0.0128113404, 0.0039564855, -0.0062613748, 0.0379909500, 0.0170858502, -0.0278846435, 0.0240643546, -0.0404750407, -0.0027443059, -0.0383429825, -0.0362459086, -0.0151028670, -0.0249107312, -0.0405433103, 0.0099656656, -0.0276627690, -0.0410620011, 0.0209889337, 0.0050893128, -0.0053521506, 0.0419924930, -0.0359656811, 0.0170430914, 0.0305233449, -0.0313971452, -0.0380011909, -0.0261183344, 0.0478376970, -0.0192491654, -0.0187400300, -0.0347805470, 0.0031621009, 0.0025776066, 0.0278548673, 0.0027063675, -0.0458775349, 0.0034776479, -0.0144238435, -0.0147969164, 0.0444562212, 0.0322019011, -0.0166378729, -0.0478819050, -0.0437212624, -0.0032255240, 0.0019793175, 0.0046639256, 0.0138760284, -0.0398364216, 0.0368263721, 0.0223864466, -0.0122416206, 0.0083819255, -0.0344384275, 0.0136356875, -0.0267657842, 0.0206255317, -0.0479705445, 0.0218179151, -0.0141730495, -0.0133013874, -0.0225454234, 0.0403747484, -0.0476669557, -0.0438004658, -0.0341858789, -0.0357147567, -0.0163562782, 0.0193162188, -0.0034904294, 0.0412068218, 0.0216445625, -0.0407992937, 0.0397415236, -0.0097025931, -0.0083143823, -0.0187502392, -0.0233227555, 0.0099806599, -0.0068306141, -0.0353208110, -0.0281136781, 0.0119498298, 0.0008285157, -0.0214619432, 0.0155919567, -0.0291530415, 0.0051001646, -0.0326779597, 0.0136761442, 0.0430636480, -0.0442353263, -0.0206715185, -0.0248267986, 0.0085630044, -0.0333817080, -0.0441112965, -0.0382937528, -0.0022481009, 0.0087636560, 0.0341774151, -0.0048364289, 0.0306267515, -0.0362674333, -0.0237956122, 0.0045201778, 0.0202586651, 0.0180398449, 0.0394248068, 0.0185001194, 0.0249302164, 0.0246192068, -0.0355730765, -0.0312902145, 0.0200828165, 0.0277723745, 0.0299241915, 0.0104665421, 0.0345747843, 0.0484831929, 0.0290578008, -0.0322244093, -0.0064512119, 0.0367223248, -0.0037550963, -0.0045539699, -0.0334973857, 0.0487766936, -0.0248875003, 0.0177758187, 0.0299507678, -0.0415009037, 0.0134273358, -0.0073556341, 0.0124909207, -0.0333591402, -0.0164227039, -0.0050332025, -0.0242657699, 0.0320930928, -0.0154677629, -0.0358722843, -0.0402390212, 0.0423400551, 0.0468026176, 0.0075754635, 0.0202489197, -0.0461522005, 0.0436662734, -0.0245561358, 0.0072354004, -0.0237941872, -0.0119177550, 0.0476233661, 0.0331773087, 0.0075484477, -0.0053384043, -0.0326376632, 0.0012091585, 0.0222859010, 0.0053826459, 0.0107924715, 0.0423447639, -0.0432435572, -0.0443620682, 0.0051528178, -0.0051833950, -0.0035557188, -0.0298266318, -0.0065831132, -0.0231416672, -0.0200164523, 0.0214004964, 0.0071702600, 0.0329988822, 0.0451095477, -0.0487327278, -0.0080945492, -0.0143378563, 0.0160282329, -0.0100797415, -0.0051512159, -0.0074270219, -0.0053550936, 0.0455115363, -0.0396986082, -0.0400757939, 0.0330922604, -0.0144221857, 0.0019697398, 0.0103253983, 0.0225666463, 0.0285497904, -0.0308885127, 0.0448453203, -0.0095626675, -0.0471407212, -0.0110037997, 0.0095917024, -0.0104820058, -0.0012772046, 0.0280494615, -0.0308312923, 0.0421889052, -0.0030139387, -0.0105724782, -0.0128708966, -0.0037324391, -0.0333587453, 0.0424139574, -0.0248099212, -0.0384580567, 0.0448482037, -0.0442830026, 0.0388527736, 0.0339888036, -0.0342847630, -0.0038972571, -0.0037036575, -0.0078529492, -0.0155095644, 0.0438812226, 0.0040099472, 0.0134687535, -0.0182856638, -0.0439723134, -0.0114525482, -0.0052615814, -0.0131138526, -0.0404372215, 0.0100876875, -0.0036517195, -0.0197048280, 0.0340691879, -0.0230807550, 0.0342342108, 0.0328121036, -0.0072567500, 0.0246536881, 0.0458442196, 0.0257142410, 0.0252137333, 0.0295705572, -0.0472470224, -0.0198916849, 0.0365129709, -0.0158609711, -0.0295346398, 0.0320650339, -0.0484753698, -0.0301897526, -0.0237216409, -0.0028205402, 0.0355352014, 0.0093105175, -0.0250582509, -0.0086953975, 0.0419076160, 0.0156792104, 0.0437730551, 0.0175699666, 0.0192773640, 0.0467865691, 0.0279311910, 0.0007893145, 0.0266099945, 0.0414121374, 0.0456321687, 0.0211620107, 0.0223101601, -0.0095560551, -0.0057821274, 0.0130675659, -0.0310956948, 0.0448214933, -0.0199773815, -0.0378313027, 0.0360564664, 0.0451841131, -0.0196286496, -0.0394628346, 0.0021528006, 0.0412782356, 0.0361799076, -0.0078231879, -0.0043968149, -0.0111561902, 0.0239596218, 0.0232449993, 0.0481512696, 0.0022918992, 0.0064205490, -0.0007705949, -0.0229838584, -0.0159789771, 0.0347355902, -0.0198849812, 0.0256604254, -0.0163148604, -0.0125373267, -0.0359774083, 0.0098207258, -0.0477627553, 0.0225951299, 0.0246624947, -0.0425992981, 0.0169966295, -0.0344878696, -0.0328746177, 0.0474934056, 0.0213336498, 0.0073805712, 0.0121696927, -0.0023917183, 0.0342907310, 0.0371839255, -0.0153369121, 0.0451183319, 0.0237611085, -0.0400060043, -0.0101268850, 0.0144283399, 0.0049361996, -0.0040337257, -0.0216177795, -0.0294444002, 0.0483553484, 0.0432687774, -0.0094752647, 0.0186864510, 0.0101917535, 0.0017636344, 0.0332847610, -0.0365173519, -0.0408919528, -0.0145151466, -0.0005102679, -0.0298062488, 0.0450497046, -0.0238548405, 0.0237816796, -0.0265814140, -0.0176218376, 0.0312352851, 0.0380346626, 0.0091357715, -0.0173537433, 0.0180384442, -0.0413956083, -0.0111763626, -0.0222723074, -0.0448455736, 0.0049583688, -0.0303034000, -0.0140407830, 0.0389714092, 0.0372923166, -0.0194279756, 0.0288929865, 0.0378521383, -0.0230873320, -0.0098680072, 0.0154081210, 0.0162799135, 0.0394411683, 0.0479417220, 0.0452181920, 0.0334569141, 0.0041044131, 0.0089774355, -0.0018588826, 0.0194659084, -0.0458185375, 0.0078019314, 0.0329856351, 0.0348160341, 0.0066717081, 0.0404952168, 0.0282765925, -0.0089277476, 0.0215822682, 0.0275189877, -0.0340932682, -0.0468709134, 0.0144256428, -0.0022313856, -0.0127018392, 0.0374380723, 0.0008611940, -0.0444470048, -0.0237192940, 0.0223882422, -0.0065065734, -0.0214079227, 0.0433341414, -0.0367935151, 0.0217730999, 0.0349096730, -0.0247993730, 0.0164263248, 0.0245532393, -0.0221046973, -0.0450263694, 0.0353202298, 0.0378228128, 0.0270113721, 0.0192268118, 0.0307571739, -0.0403833538, 0.0322617739, -0.0315422826, 0.0295458436, 0.0263943225, 0.0435212180, 0.0390918255, -0.0034535900, 0.0307353511, -0.0276468713, 0.0395354629, -0.0041982271, -0.0266115256, -0.0255954769, 0.0421697199, -0.0438593104, -0.0479494743, -0.0113775283, 0.0449579731, -0.0126490220, 0.0115894973, 0.0122739039, 0.0033610240, 0.0035987496, 0.0460974947, -0.0392269455, -0.0375021473, -0.0117729567, -0.0433040857, 0.0104069598, -0.0443452932, -0.0284342133, -0.0465040281, 0.0473152250, 0.0236182734, 0.0216596425, -0.0309977457, -0.0028701797, -0.0437464900, 0.0018885396, -0.0467339531, 0.0075816326, -0.0043960549, -0.0132548921, -0.0087726600, 0.0469104722, 0.0023207851, 0.0388181880, -0.0201564971, -0.0170462653, -0.0206810012, 0.0064725727, 0.0302841514, 0.0037356876, -0.0439964086, 0.0026002303, -0.0476303622, 0.0318332687, 0.0155251846, -0.0235393383, -0.0336474180, -0.0094715953, 0.0265890434, -0.0146532059, -0.0337568000, 0.0119432062, 0.0259590223, 0.0176060796, -0.0016883202, 0.0332717746, 0.0327921435, 0.0217089206, -0.0336183012, 0.0193094090, 0.0406792909, -0.0038722269, 0.0043973289, -0.0348892435, -0.0290227495, 0.0092921443, -0.0173281766, 0.0051251017, 0.0267768353, 0.0249792784, 0.0083724298, 0.0202377215, 0.0154725835, -0.0226232819, -0.0116418004, -0.0196101256, -0.0360782743, 0.0303927734, 0.0458894446, -0.0348771065, 0.0421134681, 0.0390016362, -0.0151167996, -0.0368302166, 0.0378581434, -0.0407466516, -0.0290529076, -0.0197094418, 0.0488021225, 0.0046140850, -0.0086803176, -0.0424698256, 0.0397485495, -0.0006591305, -0.0320293084, 0.0143250078, 0.0310253426, -0.0328012556, 0.0006827936, 0.0361015052, -0.0380822606, 0.0065664463, 0.0093499124, 0.0170605406, -0.0374236926, 0.0137160793, 0.0453664139, -0.0396509096, -0.0161563158, -0.0321076103, -0.0043794923, -0.0053364299, -0.0128063746, 0.0017884187, -0.0171546936, -0.0367114879, -0.0390186980, -0.0436099060, -0.0489897244, -0.0180757958, -0.0194460433, 0.0448127910, -0.0040190332, 0.0377715826, 0.0205059499, 0.0288577080, -0.0331582092, -0.0389178544, 0.0099754855, -0.0280292183, -0.0121211745, 0.0076551810, 0.0332456827, -0.0395363830, -0.0102384053, 0.0054907463, -0.0109434985, -0.0314283296, 0.0258553252, -0.0429815650, -0.0395066105, 0.0213677436, 0.0464613140, 0.0006678551, -0.0335439891, 0.0467221513, -0.0480627231, 0.0411274210, 0.0351464525, 0.0107934661, 0.0064015351, -0.0125414245, 0.0370915681, 0.0370787233, -0.0119766928, 0.0235705376, -0.0193710234, -0.0445615500, -0.0025700964, -0.0019994900, 0.0228289664, 0.0134656690, -0.0356780924, 0.0466772690, -0.0432292521, 0.0071444698, -0.0005563684, 0.0202395990, -0.0479075909, -0.0056177676, -0.0027521178, 0.0110601224, -0.0063183270, 0.0115306191, -0.0270206667, 0.0031559467, 0.0461753160, -0.0191696584, -0.0101383664, -0.0113703683, -0.0111536905, 0.0416632891, 0.0482801720, -0.0090667419, -0.0115729235, 0.0345189273, -0.0424342453, 0.0421164632, 0.0345905572, -0.0172393136, -0.0103013143, -0.0195380356, -0.0090801157, 0.0397152901, -0.0097538792, -0.0014317334, 0.0141733438, 0.0239882991, 0.0466289446, 0.0467796773, -0.0308940150, 0.0465595648, 0.0075504705, -0.0049413145, -0.0427143574, -0.0177447945, 0.0205676109, -0.0034044050, 0.0137804672, -0.0253301859, 0.0346290693, -0.0319909379, 0.0149555355, 0.0178687572, 0.0037101544, -0.0407283828, 0.0459620953, -0.0075927638, -0.0362595841, -0.0020010434, 0.0488427207, -0.0089742951, -0.0406046808, -0.0219218004, 0.0458630472, 0.0016333647, -0.0316926874, -0.0144180618, 0.0064796507, -0.0061443150, 0.0217439011, -0.0034366176, 0.0304367170, -0.0445446260, 0.0408199802, 0.0373929143, 0.0469482094, 0.0034947842, 0.0101120621, -0.0456621051, 0.0038009323, 0.0167038292, -0.0065641813, 0.0052319989, 0.0422805697, 0.0230958015, 0.0049048029, -0.0113643184, 0.0429798961, 0.0127798282, -0.0160596855, -0.0049860030, 0.0136768296, 0.0441103056, -0.0054294355, -0.0367564186, 0.0015143454, 0.0450532585, 0.0065435879, -0.0213000700, 0.0421377718, -0.0310243405, 0.0472751260, 0.0198656544, -0.0411391817, 0.0188961551, 0.0026841760, 0.0141607597, -0.0211571399, -0.0363480747, 0.0027537309, -0.0461464077, 0.0004418455, 0.0246943235, 0.0390793309, 0.0150517300, -0.0124906525, -0.0165455192, 0.0068983473, -0.0070772171, 0.0311589316, -0.0071430802, 0.0366304517, -0.0179253686, 0.0319480598, -0.0142814405, 0.0358210206, 0.0079719201, 0.0410079956, -0.0047884211, 0.0479416922, -0.0055348277, -0.0356928557, -0.0258132517, -0.0389334485, 0.0430901200, 0.0215276703, 0.0056517795, -0.0142527185, 0.0200999156, -0.0202382226, 0.0341375172, 0.0387061760, 0.0316247642, -0.0049848817, -0.0103114657, 0.0135126114, 0.0290196911, -0.0317118429, -0.0418475457, -0.0403788574, 0.0068770535, 0.0315711871, 0.0366667882, -0.0035217069, -0.0129019767, 0.0077461116, -0.0000076257, -0.0343272798, 0.0047522485, 0.0034965724, -0.0215142593, -0.0277339350, 0.0383960009, -0.0314444974, -0.0329564363, 0.0119650140, -0.0060005337, -0.0002832189, 0.0216308236, 0.0052212402, -0.0360193141, -0.0378515087, -0.0281861182, -0.0352927782, 0.0425447300, 0.0287344530, -0.0471521802, -0.0243973341, 0.0378689095, 0.0415197909, -0.0056017525, -0.0342077799, 0.0375970826, 0.0359776318, 0.0394625217, 0.0429505184, 0.0112179555, 0.0454451516, 0.0065542161, -0.0254882760, -0.0432934575, -0.0389235169, 0.0169766620, 0.0193586051, 0.0294851735, 0.0454803556, 0.0339297056, -0.0432513133, 0.0488870665, 0.0330281854, 0.0157047734, -0.0335864499, 0.0220453367, 0.0040220357, -0.0034158751, -0.0120384581, -0.0403646529, -0.0277522951, 0.0169835910, 0.0477429479, 0.0426644385, 0.0461741015, -0.0031000450, -0.0177245289, -0.0100986995, -0.0483466536, -0.0146843232, -0.0349646136, 0.0428033844, -0.0387143269, -0.0209350791, 0.0021365769, -0.0482831858, 0.0343834385, 0.0146537423, 0.0203836858, 0.0271224976, 0.0075310804, -0.0244858917, -0.0154769085, 0.0464500710, 0.0476558954, -0.0117627271, 0.0228801966, 0.0069209598, -0.0378979966, 0.0324918851, -0.0249289647, -0.0224685092, -0.0352972522, 0.0042899996, 0.0248454288, 0.0047532208, 0.0475397334, 0.0100080743, 0.0272493064, 0.0487317219, 0.0202014297, -0.0287337620, -0.0488016531, -0.0358031765, -0.0452323593, -0.0444003642, -0.0383762121, -0.0403156802, -0.0236538500, 0.0284675732, 0.0089298859, 0.0242826790, -0.0240254160, 0.0192639753, -0.0475304499, 0.0429696590, -0.0102254041, -0.0332848094, 0.0410549492, 0.0333999842, 0.0081480220, 0.0025353357, 0.0156897306, -0.0216152091, -0.0017373301, 0.0377192348, -0.0140135586, -0.0027614608, 0.0459164307, 0.0401522964, -0.0481073670, 0.0470333025, -0.0129439570, -0.0064607300, -0.0237738863, 0.0235022753, 0.0479669794, -0.0368196107, 0.0076382235, -0.0048587248, -0.0040020049, 0.0079282597, -0.0161388516, -0.0046586096, 0.0238239914, -0.0341498591, 0.0215609521, -0.0469208695, 0.0327607393, -0.0479103699, 0.0090152323, -0.0131612979, 0.0314395651, 0.0447832048, -0.0397294573, -0.0059489198, 0.0331410170, 0.0454651415, 0.0012888834, -0.0123159401, -0.0298091583, 0.0128873549, 0.0103329308, -0.0189051516, 0.0414311513, 0.0192161649, -0.0292318705, -0.0015771128, 0.0068624206, -0.0405281968, -0.0313112363, 0.0312760323, -0.0447930396, 0.0440247357, 0.0341758505, -0.0192143004, -0.0398630984, 0.0082920715, -0.0313093141, -0.0190277696, -0.0360176079, 0.0251785591, -0.0314960033, -0.0350780413, 0.0043719001, 0.0223587900, 0.0053103343, 0.0340913907, 0.0188512504, -0.0406559557, -0.0046986975, 0.0475178137, -0.0435015038, 0.0059924535, -0.0022351108, -0.0316962153, 0.0262522325, -0.0241860766, 0.0047346950, 0.0110755749, -0.0213600341, -0.0280520767, -0.0118963942, -0.0380010381, 0.0371865481, 0.0253948271, 0.0135074481, -0.0179063641, -0.0081687309, 0.0183478966, -0.0426421538, -0.0327802189, -0.0390776396, 0.0477590039, -0.0381112844, -0.0342558697, 0.0145116448, 0.0272463039, -0.0133515559, 0.0198099464, -0.0481173173, 0.0105009973, 0.0351263285, -0.0256880056, -0.0139715336, 0.0326978192, -0.0367026329, -0.0304725282, 0.0029785484, 0.0070928670, -0.0332335681, -0.0328399278, 0.0436190963, 0.0101851337, 0.0463034213, -0.0175423659, -0.0248436537, 0.0050984472, -0.0198986586, -0.0320971794, 0.0182670131, 0.0192878619, -0.0294655189, 0.0257019550, 0.0108854249, -0.0009982027, -0.0107651874, -0.0098697692, -0.0429103039, -0.0247237813, -0.0417692997, 0.0001826175, -0.0043942071, -0.0316457823, -0.0284580290, -0.0470476896, 0.0261838734, -0.0384357236, -0.0140902139, -0.0375794247, -0.0135362297, 0.0361655280, 0.0218441486, 0.0117498897, 0.0089433901, -0.0000446066, -0.0373516157, 0.0098776780, 0.0457047746, -0.0147458278, -0.0006830059, 0.0368614048, -0.0123847350, 0.0187917575, 0.0080713667, 0.0422118381, -0.0454979427, 0.0060336813, 0.0330631956, 0.0423662439, 0.0374978259, -0.0230520349, -0.0173552185, -0.0028616302, -0.0026043989, 0.0352391899, 0.0327415541, 0.0060129054, -0.0024184063, 0.0215644911, -0.0354441181, -0.0153990500, 0.0214537829, -0.0292220470, -0.0134301372, -0.0131493732, 0.0009964854, -0.0193589814, 0.0172684193, 0.0302956179, -0.0458446406, 0.0213731751, 0.0055592842, 0.0469395667, -0.0430983044, 0.0421395004, 0.0115724206, 0.0243022442, 0.0218982175, 0.0434919372, 0.0481694341, 0.0022507384, 0.0038403757, -0.0031405278, 0.0164145529, -0.0311160292, -0.0231805500, -0.0268125627, -0.0016716756, 0.0270879790, -0.0439871587, -0.0434862226, -0.0447328389, -0.0039807931, 0.0371171460, 0.0104781725, -0.0234351177, 0.0171490833, 0.0016568638, 0.0252483338, 0.0230480731, 0.0298333466, -0.0369245782, -0.0025262609, 0.0373519436, 0.0207890049, -0.0193496011, -0.0246001706, -0.0070396513, 0.0443693101, 0.0207399502, -0.0441846810, 0.0459547862, 0.0125936121, -0.0470929518, -0.0454305820, -0.0209952425, 0.0240585431, -0.0301036239, -0.0324198306, 0.0476897806, 0.0398550630, 0.0018564314, 0.0153162852, 0.0151203424, 0.0020382069, -0.0283321887, 0.0023518763, -0.0308645107, -0.0221423078, -0.0042666867, 0.0198902488, -0.0276040994, 0.0338166505, -0.0099496394, -0.0360989273, 0.0423999503, -0.0375923887, -0.0045233220, 0.0414163545, -0.0442261100, -0.0397393964, -0.0212072600, 0.0468179882, 0.0194406137, 0.0481040478, 0.0107718594, 0.0149008259, 0.0484037474, 0.0317073241, -0.0324876904, -0.0232820623, 0.0391576216, 0.0180357695, -0.0113059767, -0.0104991868, -0.0443196669, -0.0241403021, -0.0450075418, -0.0342026651, 0.0309165791, -0.0239504650, 0.0013880245, -0.0481821746, 0.0481217429, -0.0272727124, 0.0150840953, -0.0183927231, -0.0220635850, -0.0112669989, 0.0000785477, 0.0273344293, -0.0241325460, 0.0380304158, 0.0210056230, -0.0054698624, 0.0397210345, 0.0314807668, -0.0409708023, 0.0452923998, 0.0067345574, -0.0167900287, 0.0365471393, -0.0216404274, -0.0124112628, -0.0427705385, 0.0418763161, 0.0349534154, -0.0273535382, 0.0286590308, 0.0132266134, -0.0245617423, 0.0148020685, -0.0202180035, -0.0045224093, 0.0232923254, 0.0367532000, -0.0440001711, -0.0446105711, -0.0003091022, -0.0170128718, 0.0292623863, 0.0337279662, 0.0369488522, -0.0298109557, 0.0375613198, -0.0181466583, -0.0157416128, 0.0195218250, -0.0479404218, 0.0423392504, 0.0184181258, 0.0191127434, 0.0115934946, 0.0327043086, -0.0290055908, -0.0058581419, -0.0409553498, 0.0137705058, 0.0040398948, 0.0209153891, 0.0386206433, -0.0203800760, 0.0256303325, -0.0336750895, 0.0413433984, 0.0027521998, -0.0184580032, -0.0063197874, -0.0086650513, -0.0246877950, 0.0294452757, 0.0422329158, -0.0054124780, 0.0411177725, -0.0085924827, 0.0019145645, -0.0440452546, 0.0167113021, 0.0033370107, 0.0462831855, -0.0102152191, -0.0441687144, 0.0044726767, -0.0252322964, 0.0485002473, -0.0084763132, 0.0096215457, -0.0400524698, -0.0434563123, -0.0019405149, 0.0205360875, 0.0385214239, -0.0374566875, -0.0302611534, 0.0399750546, -0.0218578856, -0.0227546357, 0.0145834759, -0.0241988655, 0.0291675851, 0.0198084787, 0.0410617217, 0.0219707265, 0.0003672317, -0.0216354504, -0.0025897063, -0.0023338534, 0.0171050504, 0.0074280612, -0.0349803604, 0.0112285949, 0.0393832326, 0.0128142126, -0.0038148984, 0.0053219683, -0.0067727380, -0.0105220340, 0.0196135342, 0.0086404644, -0.0179645773, 0.0250972658, 0.0136218816, 0.0361214206, -0.0201123804, 0.0134277679, 0.0154248625, 0.0310300067, -0.0115062557, -0.0051109232, -0.0428847820, 0.0432644561, 0.0129080974, 0.0337628275, -0.0335539319, -0.0046942681, 0.0336925015, -0.0448891073, 0.0033657774, -0.0132399648, 0.0065646954, 0.0355187282, -0.0478482433, -0.0074500777, 0.0093564913, 0.0295191854, 0.0224229917, 0.0034830458, 0.0223361254, 0.0094995722, 0.0166992545, 0.0310454220, -0.0174806602, 0.0467677787, 0.0099307187, -0.0070883371, 0.0385542512, 0.0027434751, -0.0033590049, 0.0284777656, -0.0210514348, -0.0110274069, 0.0199188665, 0.0489053130, -0.0379599817, 0.0270309448, -0.0271439385, 0.0424748212, 0.0317041799, -0.0240632836, -0.0065274686, -0.0062018521, -0.0161561519, 0.0479563326, 0.0106607340, -0.0253877342, -0.0114023946, 0.0185947269, 0.0377042443, -0.0076356865, -0.0053734183, -0.0030762181, -0.0063847154, -0.0095298216, 0.0413263366, 0.0321881771, -0.0245356839, 0.0217787102, -0.0073650703, -0.0430432446, -0.0213428773, 0.0269669592, 0.0000661314, -0.0423266739, 0.0226397067, -0.0192426592, 0.0110387839, 0.0180396214, -0.0071245320, 0.0304885060, -0.0157753229, 0.0429168120, 0.0154827833, 0.0104187094, 0.0158329159, 0.0097588114, 0.0221143663, 0.0213531181, 0.0477470681, -0.0269821826, -0.0384720862, -0.0347435586, 0.0050913692, -0.0130645037, -0.0042307451, 0.0190290287, -0.0027191341, -0.0007327832, -0.0265230853, -0.0163783766, 0.0021333322, -0.0162295029, -0.0331437141, 0.0087084658, 0.0084998384, -0.0475994237, -0.0245448295, 0.0457098186, -0.0274812952, 0.0467000678, 0.0160517544, -0.0243465845, -0.0204751063, 0.0116003267, -0.0364833996, 0.0099490546, 0.0403908864, -0.0272229202, 0.0061130151, 0.0248380378, 0.0455406308, 0.0035857260, -0.0433931686, 0.0327112377, -0.0018028915, -0.0040882491, 0.0352070853, 0.0317206979, 0.0264622793, 0.0324530378, -0.0451375656, -0.0426420122, -0.0205413662, -0.0282479394, 0.0029640310, -0.0464088358, -0.0368337408, 0.0025816374, 0.0138077587, 0.0248594210, 0.0455990955, 0.0137106255, -0.0097733736, -0.0293001514, -0.0169391036, -0.0345239155, -0.0281326696, 0.0218765289, 0.0456810296, 0.0295915604, 0.0353878513, -0.0415604934, 0.0049763657, 0.0109152645, 0.0425059870, 0.0110863671, -0.0354999602, -0.0243858639, -0.0191555601, -0.0320787355, 0.0393909439, -0.0188229233, -0.0468625724, -0.0237404350, 0.0468321815, -0.0402055830, 0.0329065248, -0.0049833767, -0.0271634907, -0.0014104992, 0.0256297439, 0.0021225400, 0.0013576560, -0.0226708781, -0.0039116219, 0.0012870505, -0.0408237167, 0.0159978867, -0.0113832168, 0.0113458633, 0.0393935591, 0.0173719451, -0.0167256854, 0.0285281837, 0.0152447820, 0.0344219133, -0.0203667618, -0.0224381294, 0.0212980136, 0.0392484963, 0.0377090275, -0.0426509827, -0.0366151854, 0.0142902732, 0.0297358558, -0.0123547055, 0.0147359967, -0.0299641527, -0.0465724505, -0.0318331644, -0.0441195406, -0.0046762004, 0.0384645388, 0.0047917999, 0.0049498901, 0.0218226612, -0.0127502047, 0.0104796439, 0.0487902761, -0.0406307839, -0.0179661084, -0.0423301645, 0.0120022483, -0.0485482775, -0.0205875728, 0.0005553775, 0.0190932155, -0.0067033358, 0.0146234110, 0.0369235128, -0.0168132856, 0.0331205800, 0.0352819189, -0.0235539265, 0.0469640940, -0.0402887687, 0.0443280414, 0.0002544858, -0.0146939456, 0.0020391904, 0.0152559206, -0.0339104645, -0.0280106589, -0.0075950883, -0.0332648978, 0.0227111131, -0.0105161704, 0.0275511071, 0.0029966645, -0.0296559725, -0.0390727073, 0.0459220782, -0.0120235309, 0.0075515918, -0.0284591503, 0.0151560903, -0.0004772134, 0.0388581902, 0.0386381149, -0.0172380321, -0.0321228430, -0.0093275569, -0.0010612383, 0.0107491165, 0.0284440741, -0.0368583761, 0.0238775834, -0.0453230217, -0.0445217229, 0.0293696821, 0.0257345513, -0.0009256117, 0.0237223506, -0.0383109115, 0.0469718501, -0.0450332165, 0.0217451826, -0.0331242532, 0.0087250881, 0.0393356979, 0.0043623000, 0.0406519845, -0.0117899291, 0.0489435196, 0.0246552154, 0.0390481725, 0.0155817494, -0.0441080704, 0.0259161964, 0.0420418307, 0.0164716914, 0.0267813429, 0.0415810272, 0.0392677188, 0.0282886550, 0.0464958921, -0.0314114913, 0.0175443962, -0.0428409949, 0.0366792381, -0.0169183239, -0.0330454856, -0.0297051109, -0.0256485380, 0.0226319358, 0.0249076933, 0.0271928534, -0.0041692965, -0.0229866728, -0.0168850571, 0.0353472456, -0.0375185013, 0.0201912001, -0.0387699977, 0.0039817728, -0.0172036104, 0.0385699421, 0.0381409898, -0.0398823246, 0.0076187849, 0.0100721978, -0.0096357018, -0.0415482447, 0.0472809076, -0.0103633925, 0.0314697474, -0.0458222292, 0.0346641913, -0.0334954597, 0.0304925963, -0.0288917925, -0.0176682994, -0.0164565742, -0.0471271276, -0.0388822295, -0.0386021063, -0.0424176604, 0.0316145271, -0.0231309105, -0.0130419731, -0.0068159923, -0.0453636199, -0.0016191751, 0.0459429175, 0.0371120200, 0.0165410712, -0.0068064034, -0.0466908999, -0.0444915071, -0.0134453215, 0.0264096335, -0.0327415839, -0.0179170277, 0.0039355420, -0.0446359180, 0.0218824595, 0.0362380594, -0.0232108366, 0.0246958658, 0.0083798133, -0.0065287650, 0.0253946260, -0.0453046598, 0.0329611525, -0.0445698798, -0.0197889246, -0.0200897101, -0.0257549100, -0.0175458230, -0.0368124731, -0.0066573061, 0.0375999585, -0.0477303565, -0.0449228734, 0.0360542387, -0.0202256199, -0.0050394498, 0.0059740208, 0.0314179361, 0.0298662037, -0.0397219472, -0.0279444791, -0.0125018880, 0.0136046633, -0.0385206267, -0.0458938032, -0.0269942582, 0.0118822232, 0.0137719885, -0.0134686008, 0.0204726085, -0.0118968002, 0.0252850577, 0.0309914052, -0.0153151974, 0.0162977949, 0.0440230891, -0.0313601904, -0.0027490221, 