//Numpy array shape [10, 20, 2]
//Min -0.157961502671
//Max 0.156686022878
//Number of zeros 0

#ifndef KEY_WEIGHT3_H_
#define KEY_WEIGHT3_H_

#ifndef __SYNTHESIS__
multi_head_attention_key_weight_t key_weight3[400];
#else
multi_head_attention_key_weight_t key_weight3[400] = {0.0657342225, 0.1065838784, -0.0935201496, -0.1108075529, -0.0313164890, -0.1370424926, -0.1450271159, -0.0064170957, -0.1338786781, 0.1043952852, -0.1381688118, 0.0722067058, -0.0266646147, 0.1116334349, 0.0078071803, 0.1372498423, -0.1529500633, 0.1405074149, 0.1101982445, 0.0252006054, 0.1504603177, -0.0376086608, -0.0410315022, -0.0262920856, -0.0834189728, -0.0980870202, -0.0806540251, 0.1032219082, -0.0978155583, 0.1382020265, -0.0928277224, -0.0545802042, -0.0773751885, -0.0468243286, 0.0486112982, 0.0090044439, -0.1145811677, 0.0581009090, 0.0924323052, 0.1468533128, 0.0730720013, 0.0604587197, -0.0217458308, -0.0591784045, 0.0200412422, 0.1222649664, 0.0130223781, -0.0761871189, 0.1120625287, -0.0625150725, -0.1159942150, 0.0661743134, 0.1088675112, 0.0614328235, 0.0577186942, 0.0024265051, -0.0622691363, 0.1300031394, -0.0265958458, 0.0242701173, -0.1000378951, -0.0256705284, -0.0781115294, 0.0211739987, 0.1370367259, -0.0427368134, 0.1405834109, 0.0133042783, -0.0396836326, 0.1120673269, -0.0341082066, 0.0506963730, 0.1239123791, 0.1212653965, -0.1043279171, -0.1538397670, -0.0925375670, -0.0770321041, -0.0062175691, 0.1098309308, 0.0535020679, -0.0731810257, -0.1208501458, -0.1439030617, -0.0508079156, -0.0596205965, -0.1180818900, 0.1048860699, 0.1448820084, -0.0432296246, -0.0591025203, 0.1323720962, -0.0155412704, 0.1180249304, -0.0318433195, -0.1027098447, 0.0737968087, -0.0439333618, 0.1121292561, 0.0954900831, -0.0289420485, 0.0135372430, -0.0632370487, -0.0238299221, -0.0536317006, 0.0129406452, 0.1551516205, -0.0567981228, -0.1475225240, -0.0153262913, -0.0051860213, -0.0741123408, -0.1301096231, -0.0658448339, -0.0435566530, 0.1551009268, -0.1120390147, 0.1066916138, 0.0409051031, 0.0130694211, -0.0974755287, 0.0725416839, -0.0571127087, -0.0618159771, 0.1442001015, -0.0671629161, -0.0790589005, -0.1208680943, -0.0221812725, 0.1300474852, -0.0901708156, -0.0090497285, -0.1248336285, -0.0060008466, -0.0717394799, -0.0833806694, -0.0746505782, 0.0847093165, -0.0754566267, -0.0230069607, -0.0146816671, -0.0731678680, -0.1494380832, 0.1435029060, -0.0973030701, 0.0557568520, 0.0172872990, 0.0343064517, -0.0158512890, -0.0098344237, 0.0474439263, 0.0709593445, 0.0834177285, 0.0495340824, 0.0919373482, -0.1197631508, 0.0270113051, 0.0663904697, -0.0413621813, 0.1521319598, -0.0868664607, 0.0170123726, -0.0578493178, 0.0717914253, 0.0843744874, 0.1302552372, 0.1279131621, -0.1562380344, -0.0600848421, 0.0796562880, 0.0345834941, -0.0849357173, -0.0449954420, 0.1022866815, -0.0571119189, -0.1110909283, 0.0520855486, 0.0145380348, 0.1300429255, -0.1579615027, -0.0933900177, 0.0659487993, 0.0775165558, 0.0689812154, -0.0635495558, -0.1046976894, 0.0328248739, 0.0140780210, -0.0374902561, -0.1271592081, 0.0647031665, -0.1418683082, -0.0669806525, 0.0971205384, -0.1454713494, 0.1228758246, 0.0315779299, -0.0254035592, -0.0683204159, 0.0234638900, 0.0139195025, -0.0303718299, 0.0116714984, -0.0547066778, -0.0685104877, -0.0716595277, -0.0072359890, 0.0409829021, -0.0157093704, 0.1052908748, -0.0109385103, -0.0763251707, -0.0476282611, -0.0044409633, 0.0131241232, -0.1395530552, 0.0177997947, 0.1178624481, -0.1464576870, 0.0044970214, -0.0802570730, 0.1404188126, -0.0730672181, 0.0045905560, -0.1099614426, -0.0633529276, 0.0253282040, -0.0004213452, 0.0764848143, 0.0311384797, -0.0163795799, 0.1454747468, 0.0485028028, 0.1441321522, 0.0387231112, -0.0811012238, 0.0016817451, -0.0392623618, -0.1335926205, -0.0819664523, 0.1474362761, -0.1418066323, -0.1319023222, -0.1046360955, -0.0165185332, 0.0537145585, 0.0512461811, 0.0229531974, -0.1025372595, -0.0741058961, -0.0535448119, -0.0854386389, 0.1194559783, 0.0019557327, 0.0219354928, -0.0272196680, -0.1454434395, -0.1173607036, 0.0958614200, -0.1027138382, 0.0261838138, -0.0052441806, 0.0329066366, 0.0425724089, -0.1483722925, -0.0434135497, 0.0203973204, 0.0080176145, -0.1322254539, 0.1547699422, -0.0137935877, -0.0783595070, 0.0106705129, 0.0222566277, 0.1534162015, -0.0818417147, -0.0900400057, 0.0247493684, 0.1170168370, 0.0683439821, -0.1164489537, 0.0140886456, -0.1579344869, 0.1307152957, 0.1457654089, 0.0734209716, -0.0015455186, 0.0476906896, -0.0695698559, 0.1300856620, 0.1566860229, -0.0186145008, 0.1120879203, 0.0969100446, -0.1194520295, 0.0947756618, 0.0962296873, -0.0464137644, -0.1148329079, -0.0074106902, -0.0287804157, -0.1504171491, 0.1437054127, -0.0244507939, 0.0377448201, 0.0207288265, -0.0452679545, -0.0553460643, 0.1041411310, -0.0523325428, -0.0095741004, -0.0338549912, -0.1472210288, -0.0005247891, 0.1334622353, -0.1365286410, 0.1048717350, 0.0254648626, -0.1016072333, -0.0640092418, -0.1472958475, -0.0514658466, -0.0587998107, 0.0774135590, 0.0841480792, 0.0444668531, 0.0274292231, -0.1311343908, 0.0665778220, 0.1534421593, 0.1126742810, 0.0815279633, -0.1493113786, -0.1385503411, 0.1136457771, -0.0457846746, -0.1094525605, -0.1425966173, 0.0797499716, -0.1205666289, 0.0568352938, 0.0757456124, -0.1360044181, 0.0571171194, -0.1352220476, 0.1104349941, -0.0204188824, 0.0528395772, -0.0434797108, -0.0137434453, -0.0577491894, -0.0683782771, -0.0261800885, -0.0897078589, 0.0631642491, 0.0306306332, -0.0374487117, 0.1137150675, -0.0954163596, 0.0385446101, -0.1152473167, 0.1278872043, 0.0380157232, -0.0487234816, -0.1474339813, -0.0110832602, 0.1542426199, 0.0509284288, -0.0765717849, 0.0180050135, -0.0324578583, -0.1225686967, -0.0844364539, -0.1508699656, 0.0208572745, 0.0099662244, -0.1396930963, -0.0744660497, -0.1084282175, 0.0034533739, -0.0206451863, -0.0644586682, -0.1117615625, -0.1162436604, -0.0605378076, 0.1442153007, -0.0753782541, -0.1086451635, -0.0543918312, 0.0066704899, 0.0661078095, 0.0715514868, 0.1090375930, -0.0838553160, 0.0769763887, -0.1232642829, -0.0875436589, -0.1427119076, -0.0903151259, -0.0262377709};

#endif

#endif
