-0.0712706447, 0.1139414459, -0.1364518553, 0.1525910050, -0.0792482942, 0.1051337868, -0.0998858213, -0.0384948105, -0.0002139360, 0.0908060521, -0.1082538292, 0.1321981996, 0.1149698347, -0.0478705019, -0.0379278436, -0.0432009399, 0.1237987429, 0.1130654365, 0.1320954412, -0.0395188183, -0.1106817573, 0.0481041819, 0.0258841664, -0.1066659093, 0.0736609101, -0.0873892829, -0.1033288240, 0.0980628282, 0.0313685983, -0.0789506361, -0.0074543804, 0.1507771462, -0.0784987956, 0.1264987141, 0.1091680676, 0.1069941372, -0.0873683989, 0.1158167273, -0.0315367281, -0.0124094188, -0.0808741376, 0.0948130041, -0.0566404387, 0.1177733392, -0.0364361256, 0.0860226452, 0.0143058151, 0.1127733439, -0.0437344313, 0.1229798347, -0.1564295292, -0.0114406347, 0.0898926109, 0.0915232450, 0.0835288167, -0.0090099871, 0.0650691688, -0.1559761465, 0.0244324356, 0.0926614851, 0.1305383891, -0.1006388217, 0.0818924159, 0.1308868974, 0.1248137802, -0.0748295262, 0.0848204345, 0.1498003453, 0.0535957366, -0.0807824209, -0.0724838525, 0.1070932895, -0.1387344301, -0.0923947692, -0.0458258018, -0.1085197851, -0.1497748196, 0.1431956738, -0.0330215394, -0.0086285323, 0.1130561978, -0.0140514374, -0.0072237849, 0.1304154843, -0.1398129761, 0.1409195215, -0.1124571115, 0.0265801251, 0.1433139294, 0.0525123626, 0.0579135120, 0.1112888902, -0.1295844615, 0.0023755729, 0.0860553682, -0.0596216172, -0.0017997026, -0.1011680216, -0.0385472476, 0.1126082689, 0.1322845072, 0.1405815929, -0.0021873415, -0.0830645040, 0.0747080296, 0.1568185240, -0.1333710849, 0.0572369248, -0.0110764056, -0.1037065536, -0.0537703931, -0.0631818622, 0.0163106024, 0.0272125006, 0.0639439523, -0.0386875197, 0.0793186426, -0.0516658276, -0.0843120217, -0.0188971609, -0.0607378334, 0.1459063739, 0.0076663494, 0.0171782076, -0.1571697146, 0.0961838812, -0.0694594756, 0.0734578073, 0.1280278414, -0.0667212978, 0.1577162892, 0.0113921613, 0.1463186890, -0.0545402840, 0.0957477838, 0.0939864665, -0.1059868634, -0.0483654663, -0.0208496898, 0.0458007306, 0.0034807771, -0.0511585772, 0.0166882426, -0.0280752778, 0.0837802589, -0.0537683591, 0.1547906548, 0.0828170627, -0.1067541987, -0.0061982274, -0.0267859548, 0.0125323832, -0.0820354819, 0.0680757910, -0.0133801997, -0.0938017815, 0.1317851394, -0.0568410978, -0.1230787784, 0.0630412847, 0.0534549356, -0.0841617212, -0.0525148809, -0.0953811854, 0.0528179258, 0.1046426147, 0.0265460461, -0.1065388322, 0.0305237919, 0.1103347987, -0.1443593055, -0.1058995202, -0.0682873949, -0.0927574560, 0.1339265853, 0.0471237153, -0.0746120140, 0.0491406769, 0.0634277910, 0.0881870687, 0.0988330096, -0.1434391886, -0.1114550084, -0.1317971349, 0.1002922803, 0.0666471124, 0.0244403630, -0.0262170285, -0.0134673864, -0.1533434391, 0.1528683752, 0.1526466757, 0.0858509392, -0.0901367739, -0.0369658843, 0.0545246005, 0.1180339009, 0.0796927810, 0.0737971961, 0.0559898168, 0.0103298426, 0.0959785730, -0.0343760774, -0.1232734099, -0.0483767763, 0.0467690974, 0.0915446132, 0.1336181015, 0.1577142626, -0.1085806265, -0.0541479290, -0.0557018891, -0.1509172469, -0.1236576587, -0.1407725662, -0.0342404470, -0.1508517265, 0.0114972144, -0.1108829081, -0.0745178089, -0.0029334128, 0.0361881852, 0.0361038595, -0.0458988249, -0.1064694673, 0.1125514656, 0.0867870003, 0.1508212239, -0.1221688762, -0.0683230534, -0.0358088762, 0.0123263299, 0.0148405582, -0.1471383125, 0.0108783394, 0.0998240262, -0.0268709213, -0.1105739102, 0.0450609624, 0.1357192844, 0.0130578130, -0.0180229247, 0.0669881552, 0.0574011356, -0.1298672259, -0.0857465863, -0.0757166594, 0.0811865777, 0.0408198982, -0.0325072706, 0.1430121511, -0.1230596602, 0.1532699615, -0.1449257880, 0.0023794174, 0.1523009688, 0.1347074062, -0.0848540291, -0.0764868185, 0.0731595755, -0.1522788703, -0.1443174630, -0.1352524459, 0.1225432009, 0.0733468980, 0.0822548717, -0.1270170212, 0.1214380413, -0.1242844164, -0.0538419038, -0.0205016285, 0.1425681859, 0.0118246973, 0.0579145700, 0.0623589605, -0.1577127427, -0.1135430932, -0.0661599860, 0.0240122676, 0.0116554052, -0.0469161198, 0.0621783584, -0.0275269002, 0.0988710374, -0.0607447326, 0.1439800411, 0.0311889648, -0.1103789806, 0.0262432247, 0.0512134284, -0.0220266432, -0.0294604748, 0.0673214793, 0.0558084548, 0.0059326887, 0.0331736058, -0.1422886401, 0.0248373449, 0.1248675436, 0.1412888914, 0.1490634829, -0.0817699358, -0.1073150188, -0.0334510282, 0.1387197226, -0.0589283258, -0.0212688893, -0.1060380191, 0.0304117650, 0.0093419105, 0.0196064413, -0.1256397367, 0.0769222528, -0.0711016804, -0.1050674319, 0.0196945667, 0.1390762180, 0.0402378589, -0.1494306922, -0.1048919111, 0.0156622082, -0.1061083972, -0.0591800660, -0.0040892512, 0.0746490657, 0.0202544183, 0.0526162088, 0.1553792208, 0.1282784492, -0.0113707483, -0.0084224045, -0.1389815658, -0.1328199506, -0.0445015728, 0.1015451103, -0.0241141319, -0.0142062157, -0.0728916973, 0.0975427479, -0.1221006066, -0.0946060568, -0.0105361342, -0.0352093801, 0.0658357441, 0.0998257846, 0.0149721950, -0.1444320232, 0.0220583826, -0.0050809979, 0.0752121955, -0.0987158492, 0.0280510038, -0.0565785766, 0.0617998391, 0.0721424222, -0.1369230300, -0.0106615424, -0.0918341726, 0.0374711454, 0.1419350654, 0.0065256208, -0.0655518845, 0.1511570066, -0.0973601788, -0.0036269277, -0.0659005120, -0.0807482675, 0.0927552730, -0.1302448511, 0.0132701546, -0.0560231805, -0.0803764984, -0.1331196725, -0.0707478970, 0.0092369318, 0.0346397310, 0.1260942966, -0.0882357433, 0.1201964170, -0.1450455189, -0.0437499657, -0.1215231568, -0.0812663436, -0.1476149261, 0.1265476495, 0.1051542908, 0.0743238628, 0.0338003635, 0.0903438479, 0.1199970096, -0.0408538729, 0.0681589246, -0.0980728492, -0.1448626071, 0.0453937203, -0.0013866574, -0.0884726644, -0.0695989206, -0.0303978175, 0.1110746413