-0.0010489225, 0.1387113482, 0.0130194426, 0.0188928992, -0.0391013622, 0.1536542922, -0.0179946870, 0.0368249267, 0.0559979975, 0.1166853458, -0.0268353373, -0.0135159492, -0.0001291186, -0.0143633485, -0.1347549409, 0.0442987531, 0.1323291212, 0.1093310267, 0.1155507416, -0.0730884075, -0.0623707995, -0.1302102357, 0.1174362153, -0.0996509343, 0.0644918829, 0.1077563018, 0.0942281336, -0.0836322233, -0.0705255568, -0.1011532098, 0.0189848393, 0.1080607027, -0.0690437108, -0.1441027820, -0.1267952770, -0.1127891913, -0.0141020715, 0.0845987499, -0.0052131563, -0.1428285688, -0.1206147671, -0.1243337542, -0.1057929844, 0.1522510797, -0.1449856907, 0.1573872715, 0.0019582957, -0.0615532249, 0.0026740879, -0.0825298056, -0.0325817317, 0.0746289790, 0.0878183991, 0.0511649102, 0.1274353713, 0.1032103151, -0.1129012257, -0.0342154875, -0.1010728329, 0.1203687340, -0.0021325052, 0.0660793483, -0.1233733073, 0.1575397998, 0.1474799067, -0.0912443623, -0.0927136913, 0.0606796592, 0.1091717929, 0.1332893223, 0.0561219901, -0.0449768975, -0.1241376996, 0.0841752887, -0.0250176191, -0.1331400722, 0.1220159680, -0.0153328031, 0.0305538327, 0.0176943839, 0.0299909413, 0.1338202506, 0.1334841698, -0.0942671150, -0.0301293731, -0.1067266315, 0.1031524688, 0.1027600020, 0.0478190780, -0.1251503974, 0.0841958374, -0.0001131743, 0.0167898834, 0.0674009770, -0.0210804790, -0.0135443658, 0.0441950113, -0.0547050238, 0.1536548883, 0.1274290830, 0.0925796777, 0.0174001306, 0.0635483116, -0.0356396213, 0.0784524679, -0.0351245999, -0.0923939794, -0.0818940401, 0.1083486825, 0.0683084279, -0.1324484795, 0.1214570850, 0.0457597226, -0.1325967014, 0.0519893020, 0.0896942914, 0.0400270522, 0.1523521096, -0.0313404649, 0.0117987543, 0.0160036981, 0.1216734499, -0.0737729520, -0.0170799196, 0.0152317733, 0.1213028282, 0.1055880934, -0.0948431715, 0.1343035847, 0.0174794048, 0.1079598218, 0.1485358924, -0.0160861462, 0.1480508894, 0.1042679101, -0.1233396381, -0.0589087233, 0.1520143002, -0.0430455878, 0.1116805822, -0.0440183282, -0.1113650650, 0.1406788379, -0.0266761035, 0.0687846988, -0.0670433417, 0.0584033132, 0.0272542387, -0.0550590008, -0.0797174722, -0.0765784234, -0.1343530566, 0.0705137551, 0.0580149889, -0.0047757626, -0.1182161719, 0.0714565665, 0.0088859349, -0.1017633379, -0.1564029902, -0.1204694510, -0.0272949785, 0.0599642098, 0.1379126459, 0.0411181599, -0.1011576504, 0.0947082490, 0.1454210430, 0.0070398152, -0.0228222460, 0.0888598263, 0.0960195214, -0.0151135623, 0.0661082566, -0.1295887530, -0.1047301143, 0.1227681786, 0.1569793075, -0.0186522752, 0.0175210238, 0.0903629959, 0.0805153400, 0.0780310035, 0.0437597632, -0.0387165472, 0.1078410894, -0.1220206469, -0.0530850217, 0.0485731363, 0.0174962878, -0.0496351123, -0.1240365505, 0.0786906034, -0.0407681465, -0.0099951029, 0.1157223731, 0.0684031546, -0.1246073246, 0.0796967745, 0.0475828797, -0.0868939832, -0.1132886782, 0.0327104628, 0.0877707750, -0.0182797611, 0.0332752764, -0.0596048012, 0.0235124379, 0.1025214046, -0.0806209296, 0.0107121021, 0.1420010775, 0.0291105211, 0.0976129323, -0.0356803313, 0.0049400032, -0.0162598193, 0.0715965331, -0.1202872545, 0.1436241418, -0.1510580033, -0.0624666661, -0.0567299277, -0.1532614082, 0.1486042589, 0.0451535434, 0.0460463315, -0.1244390085, 0.0182125419, 0.0068823993, 0.0260301232, -0.0732060224, -0.0147943050, 0.0789527148, -0.0601671711, 0.1469502896, -0.1536371410, -0.0946388915, 0.1424676925, -0.0668499172, 0.1395383030, -0.0874890313, -0.0431448445, -0.0829309374, -0.1060978845, 0.1541978568, -0.0128245354, -0.0760956705, 0.0053975284, -0.0778098032, -0.1067230925, -0.1215282530, 0.0406145602, -0.1073497683, 0.0204100609, -0.0323058963, -0.0216735601, 0.1185170263, 0.0724805295, -0.1484663486, -0.1574628949, 0.0307925791, 0.0484040678, 0.1294095367, -0.0666432232, 0.0973768681, -0.0025958717, 0.0713547468, 0.0804184228, -0.0717797801, -0.1181687042, 0.0762184411, -0.1341589838, -0.0049527884, 0.0959842950, 0.1074511260, -0.1088998467, -0.0544806868, -0.0176206231, -0.0956610888, 0.1161064655, 0.0900585502, 0.0726044476, 0.1004249603, -0.0656932890, -0.0625898615, -0.0503304005, -0.0195193142, 0.1221119612, 0.0233157724, 0.0378907472, 0.0073285401, 0.1343627125, 0.1296258122, 0.0291559845, -0.0754324198, 0.1555728167, -0.0421995893, -0.0290399492, 0.0195902586, 0.0697684437, -0.0919818357, -0.0624965951, -0.0860229880, -0.0338336527, -0.1155855358, 0.0338350534, -0.1168247238, 0.0851203203, -0.0126627833, 0.1255384535, -0.0472363234, 0.1296434850, -0.0458515137, -0.0166395754, 0.0598744899, 0.0782983154, -0.0523177311, 0.1385093778, 0.0569707751, 0.0840637088, -0.0965454280, -0.0232056975, 0.1010335237, 0.0711503923, -0.1284230798, -0.0947705284, -0.0876279846, 0.0337909013, 0.0317351222, -0.0871827826, 0.0594401062, -0.0477823690, 0.1326127499, 0.0665093958, 0.1406612843, 0.0157919973, -0.0555757880, 0.0817775577, 0.1546465307, -0.0086491555, 0.1425909251, -0.1453757435, 0.0285388082, -0.1473516077, -0.1312110275, 0.0653502792, -0.0619620532, 0.1516775340, -0.0870098993, -0.0661771372, 0.1036005765, -0.0183069706, 0.0586691946, 0.0156087130, -0.0896114260, 0.1352102906, -0.0352384076, -0.0042475760, -0.0949074030, -0.0791490003, -0.1008525714, -0.1256762743, 0.1205214709, 0.0815408975, -0.0689617991, -0.0100727975, -0.0403756797, -0.1348719895, 0.0199970901, -0.0147388130, 0.0824302882, -0.0379657298, 0.0144934803, 0.0813927799, 0.0052439123, -0.0752696097, 0.0605524033, 0.1122615486, -0.1227675527, 0.1285433322, 0.0393928289, -0.1057746261, 0.0619846284, 0.1276284009, 0.1485762149, 0.0542113036, 0.0306146443, -0.1222698316, -0.0589480400, -0.0709335878, -0.0313120782, -0.0931475088, 0.0218590051, -0.1392806172, -0.0503612012, 0.0009369254, 0.1448759586, -0.0681729838, 0.0414250195