//Numpy array shape [5, 100, 20]
//Min -0.048983629793
//Max 0.048987157643
//Number of zeros 0

#ifndef QUERY_WEIGHT3_H_
#define QUERY_WEIGHT3_H_

#ifndef __SYNTHESIS__
multi_head_attention_query_weight_t query_weight3[10000];
#else
multi_head_attention_query_weight_t query_weight3[10000] = {0.0457546338, 0.0111232996, 0.0066193119, -0.0052326880, 0.0125569366, -0.0152455159, -0.0124017783, 0.0481495559, 0.0014696121, -0.0407335795, -0.0074765235, -0.0482764691, 0.0386426002, 0.0142685100, 0.0023151562, -0.0461580902, 0.0008492135, -0.0098183081, 0.0020828731, -0.0203334726, 0.0177032351, 0.0366341993, -0.0323579833, -0.0140834413, 0.0149745122, -0.0424278453, 0.0442552641, -0.0466326028, -0.0239445437, 0.0430210978, 0.0153067634, -0.0150799602, 0.0087239891, -0.0130122937, -0.0384291820, 0.0047139525, 0.0003746748, 0.0328955501, -0.0480324365, -0.0086587220, -0.0044883750, 0.0245148391, -0.0357742310, -0.0339756608, 0.0325227454, -0.0012491830, 0.0036278442, -0.0370424539, -0.0410023741, -0.0283817928, -0.0465474911, -0.0145862438, 0.0142953023, 0.0171915293, 0.0327845141, -0.0075174980, -0.0338344388, -0.0318133980, 0.0015702471, 0.0237117112, -0.0293178577, 0.0435436442, 0.0323801413, -0.0299660917, 0.0137965903, -0.0382458754, 0.0171848014, 0.0383462906, 0.0183134526, -0.0379772820, -0.0229404904, 0.0277722478, 0.0227076933, 0.0143373907, -0.0017770752, 0.0175340772, 0.0431282148, -0.0277897771, 0.0166975707, -0.0028645843, 0.0429300889, -0.0033584423, 0.0447569266, 0.0109902062, -0.0480009727, 0.0011697710, -0.0150056183, -0.0147696100, 0.0138292313, -0.0361460783, -0.0373721607, 0.0350184739, -0.0251249317, 0.0284927040, 0.0165217817, -0.0134022832, 0.0404384136, -0.0068892241, 0.0419170782, 0.0275376290, -0.0141130723, -0.0182757471, 0.0189022869, 0.0455779508, -0.0150372721, 0.0398303345, 0.0005909763, 0.0200693309, -0.0470720083, 0.0439950526, -0.0260560215, -0.0346905775, 0.0080485530, -0.0134223476, -0.0476693138, 0.0254458413, 0.0310088098, 0.0205219314, -0.0066507868, 0.0142083839, 0.0246584564, -0.0369287729, -0.0341436788, -0.0022402145, 0.0127859116, -0.0479952358, -0.0459509902, 0.0322968140, -0.0388446897, -0.0403082035, 0.0099806860, 0.0423661843, 0.0446302444, 0.0379373729, 0.0402497202, 0.0009906329, 0.0240081996, 0.0013249516, -0.0441992469, -0.0466249287, 0.0487505719, -0.0064736940, 0.0259787142, -0.0065329112, -0.0313135535, -0.0424477383, 0.0068039969, -0.0045836344, 0.0385547355, 0.0080290735, -0.0253180284, 0.0056843422, -0.0477306023, -0.0012566596, -0.0255596526, -0.0349082239, 0.0459606946, -0.0313812867, -0.0129788667, -0.0021116510, -0.0454322062, -0.0436882190, -0.0479381084, 0.0304698423, 0.0068712011, -0.0218565091, -0.0275961105, 0.0459158123, 0.0317243785, -0.0104341619, -0.0242067743, 0.0176226422, -0.0418855622, -0.0400050804, -0.0290331095, -0.0426673591, -0.0233804546, -0.0474458747, -0.0245719049, 0.0139069110, -0.0376318768, -0.0355310738, -0.0177254155, -0.0024411716, -0.0435244776, 0.0358115137, 0.0359866545, 0.0080240741, -0.0022418164, 0.0078931972, -0.0290163364, 0.0405947864, -0.0198347215, -0.0360999666, 0.0466443300, -0.0246142335, 0.0249236748, -0.0249158125, 0.0321095586, 0.0349440202, 0.0235215276, 0.0389958546, 0.0068044513, -0.0252297036, -0.0275142565, 0.0080775693, -0.0177022330, 0.0267195776, -0.0328543186, -0.0290019233, 0.0244260281, -0.0009635128, -0.0460304022, 0.0093691610, 0.0144801885, 0.0342055634, -0.0097020790, -0.0220581647, -0.0485968776, 0.0309768394, 0.0432000831, -0.0102698468, 0.0352381766, -0.0175302774, 0.0404276922, 0.0247580633, -0.0138194710, -0.0431486703, 0.0018410012, 0.0481390059, 0.0387499332, 0.0238144770, -0.0356523842, -0.0074217655, -0.0481138229, -0.0182708055, -0.0224739984, -0.0474935323, 0.0214872062, -0.0284579359, -0.0153137147, -0.0288814213, -0.0054796487, -0.0396544226, -0.0220049508, -0.0400633551, -0.0150261149, 0.0084526725, -0.0086015351, 0.0256502554, 0.0430405736, -0.0064334571, 0.0113495067, -0.0222653225, 0.0186708570, -0.0344897509, 0.0332571492, 0.0112804659, 0.0035747588, 0.0026995242, 0.0106545314, 0.0327621475, -0.0047229789, 0.0101102516, 0.0229502767, -0.0176603571, -0.0298904516, 0.0202083662, -0.0198221076, -0.0007957518, 0.0457247794, -0.0210371967, 0.0020419471, 0.0404437035, -0.0265416801, -0.0013184585, 0.0155738294, -0.0274589155, -0.0039802901, 0.0193513632, -0.0399348028, -0.0196737126, 0.0346835703, 0.0093693361, -0.0397387184, -0.0183573328, -0.0101699941, -0.0434699543, 0.0411733836, -0.0367225967, 0.0437888429, -0.0053957179, -0.0082604662, 0.0077179968, 0.0267843679, 0.0133254491, -0.0425425805, -0.0215925742, 0.0221071243, -0.0273460038, -0.0209747553, 0.0240405425, 0.0174500570, 0.0365502238, -0.0246593989, -0.0046688989, 0.0092046969, 0.0094693415, -0.0439462438, 0.0480569154, 0.0050820969, 0.0316162631, -0.0218142383, 0.0456721634, -0.0302697849, 0.0393319279, 0.0230909735, 0.0472024977, 0.0423041657, -0.0431580506, 0.0216918066, -0.0125295222, 0.0084867440, -0.0176545642, -0.0486032441, 0.0168175474, -0.0029329620, 0.0484042391, 0.0025965497, 0.0159157962, 0.0399423838, 0.0077579655, 0.0172085837, 0.0487629548, -0.0294085424, 0.0017548278, -0.0048022419, 0.0093942992, -0.0054519922, 0.0398534164, -0.0247703847, -0.0004182868, 0.0223886669, 0.0289128199, -0.0050235763, 0.0192058086, 0.0109760948, -0.0159431994, 0.0057902932, 0.0154834390, -0.0360558853, 0.0257920250, 0.0324410051, 0.0308344439, -0.0177267119, -0.0181637928, -0.0437508821, 0.0421938151, 0.0315169394, 0.0250577629, 0.0346251205, 0.0325576887, -0.0220187213, -0.0331819057, -0.0195343569, -0.0109802075, -0.0412155576, 0.0144226328, -0.0255501810, 0.0335642323, 0.0174337626, 0.0063633993, 0.0162682235, 0.0436175093, 0.0252564028, -0.0411280617, 0.0103492253, 0.0423231721, 0.0095789582, 0.0238316879, 0.0174781978, -0.0456449836, -0.0091243610, 0.0091463178, -0.0210982952, 0.0385817587, 0.0162782818, 0.0168171301, -0.0255393069, 0.0173706338, 0.0268953964, 0.0451696515, 0.0241360366, 0.0307700336, -0.0343951173, -0.0401921272, 0.0061394237, -0.0256497059, 0.0366165489, -0.0447467156, -0.0459045246, -0.0413851999, 0.0220271647, -0.0328428596, -0.0276448857, 0.0344437212, -0.0397610143, -0.0322681293, 0.0489842147, -0.0065442994, 0.0039073117, -0.0138493963, -0.0330144502, -0.0125130415, -0.0247683991, 0.0174755082, -0.0481942892, -0.0381341688, -0.0191279724, 0.0464351401, -0.0475533679, -0.0107460432, 0.0074708462, 0.0095425770, -0.0285388082, 0.0118579865, 0.0362039730, -0.0126429945, -0.0423574150, -0.0461439081, 0.0330727547, -0.0457846522, 0.0089807883, -0.0433365330, 0.0179961249, 0.0018837042, -0.0042991564, -0.0474727415, -0.0210231226, 0.0426199511, 0.0306901187, 0.0200191289, 0.0123325735, -0.0200971384, 0.0362885520, -0.0441401936, -0.0013457797, 0.0368626490, -0.0472226106, 0.0117426813, -0.0280982591, 0.0274906605, 0.0045045726, 0.0001901984, -0.0141275339, 0.0159609914, -0.0047128424, 0.0382566079, -0.0454296246, -0.0403459668, -0.0485608429, 0.0001714528, -0.0096818842, 0.0429085866, 0.0233702660, 0.0055902153, 0.0369661227, -0.0277003888, -0.0381351262, -0.0242947936, 0.0374272168, 0.0152304694, 0.0403727368, 0.0080327503, -0.0111356452, 0.0139093399, -0.0395799875, -0.0441447571, 0.0345211923, 0.0432262942, 0.0390157476, 0.0171185210, -0.0446304977, 0.0423513800, -0.0339797735, 0.0406700671, -0.0382204838, -0.0253502652, 0.0034164712, 0.0278159529, 0.0308136195, -0.0296812728, 0.0233785287, -0.0128941983, -0.0150664225, 0.0253775492, -0.0145530254, 0.0008722208, -0.0214843918, -0.0224614311, -0.0305039361, 0.0366441309, 0.0074742436, -0.0416019708, -0.0204541516, -0.0023455471, 0.0336886495, 0.0194996670, -0.0408084020, 0.0394183323, 0.0234857947, 0.0320579782, 0.0098477527, -0.0438474789, 0.0401239246, -0.0070124716, 0.0282753408, -0.0177379958, 0.0352060571, -0.0420065112, -0.0037619770, 0.0255566612, 0.0015395507, 0.0292291716, 0.0001121387, -0.0139104687, -0.0117713213, 0.0414633080, -0.0014120974, 0.0373497680, 0.0365446061, -0.0171571709, -0.0023768619, 0.0429168418, -0.0307311937, 0.0481650531, 0.0459549725, 0.0282845199, -0.0132141262, 0.0343827456, 0.0377764627, -0.0204493739, -0.0473269969, 0.0352543071, -0.0451771840, -0.0043694004, -0.0371036120, 0.0280759186, 0.0324717462, 0.0274016112, 0.0367550328, -0.0191779044, 0.0048364624, -0.0484529659, -0.0442894511, -0.0201102309, 0.0228573307, -0.0415700972, -0.0247258823, -0.0213430412, 0.0396790430, 0.0486125275, 0.0324164331, -0.0387459360, -0.0043948144, -0.0155802183, -0.0149689056, -0.0316188224, -0.0406996384, 0.0129699893, -0.0224889610, 0.0188488662, 0.0381501541, 0.0464851335, 0.0086244754, -0.0106432848, -0.0067568533, -0.0068818554, -0.0112896375, -0.0482232198, 0.0328036398, -0.0158469453, -0.0073612295, 0.0107817501, 0.0272052735, -0.0234110802, 0.0210214406, -0.0031049140, -0.0468094982, -0.0435473919, 0.0419458076, -0.0161179230, -0.0055546612, -0.0233913530, 0.0333003476, -0.0450787209, -0.0133881010, 0.0040177703, -0.0133881494, -0.0468162969, -0.0008778870, -0.0458283350, 0.0262543112, -0.0410246029, 0.0147316232, 0.0449616536, -0.0229064077, 0.0050731376, 0.0057583936, -0.0255510341, -0.0284302887, 0.0263944194, 0.0010916889, 0.0048491471, -0.0205505583, -0.0186489262, 0.0423924550, -0.0101795606, -0.0387055203, -0.0441418514, -0.0218873434, 0.0219140425, -0.0247315820, 0.0383896828, -0.0208201706, 0.0220952705, -0.0488295667, -0.0218111780, 0.0057668760, -0.0121171698, -0.0061645806, -0.0401184969, -0.0038622394, 0.0181202292, 0.0042000040, 0.0426138043, -0.0211115535, 0.0395875052, -0.0361813307, -0.0372633003, -0.0084849112, -0.0305690859, 0.0073430203, 0.0270617604, 0.0142116174, -0.0214312021, -0.0093150139, 0.0363007784, 0.0078250431, 0.0251814872, 0.0092236288, 0.0097073466, -0.0437781215, -0.0158193670, -0.0036842339, -0.0460115373, -0.0085731894, 0.0400907919, -0.0231558345, 0.0479976162, 0.0011223517, 0.0075298175, 0.0470501408, -0.0284730960, -0.0016794540, -0.0046421178, -0.0468421318, 0.0348829851, 0.0466956198, 0.0337476060, -0.0113476738, -0.0404395461, -0.0445560142, 0.0202409774, 0.0224497989, 0.0073813200, 0.0224304423, 0.0449726582, 0.0035238191, 0.0130107068, -0.0299699698, -0.0066913180, 0.0332584232, -0.0184094254, 0.0056249611, -0.0079858080, 0.0097812712, -0.0020186193, -0.0221693013, -0.0044898577, -0.0295065269, 0.0051000006, -0.0067639574, -0.0078977533, -0.0151013806, -0.0209745690, -0.0041529462, 0.0389267057, -0.0267687514, -0.0037269257, -0.0122690573, -0.0238027945, -0.0100981742, -0.0372209363, 0.0319237784, -0.0284194853, -0.0014498830, -0.0001850724, 0.0284359455, -0.0139282010, 0.0195116401, 0.0264711455, -0.0171301067, 0.0246665329, 0.0003253967, 0.0306449980, 0.0061060041, -0.0179047883, 0.0383974984, -0.0345174894, 0.0118672140, -0.0195460729, 0.0366319343, -0.0165849961, 0.0042658336, -0.0397733264, -0.0102911778, 0.0365446061, -0.0063358583, -0.0075013191, -0.0258305967, 0.0279257596, -0.0428197719, -0.0177945159, 0.0271350741, 0.0377370343, 0.0189227983, -0.0370681956, 0.0124106295, -0.0340018049, -0.0007798783, 0.0009085797, -0.0426089466, 0.0432444736, 0.0225266740, 0.0045109503, -0.0018782727, 0.0150332972, 0.0393120721, 0.0224665850, -0.0296408590, -0.0464771762, 0.0479213968, 0.0381001458, 0.0143776834, -0.0026202388, -0.0384161361, -0.0170980580, 0.0023129471, 0.0145290121, 0.0212805718, 0.0424946174, -0.0415406972, 0.0459849983, 0.0072383657, 0.0195732266, -0.0201823786, -0.0200325940, -0.0444372632, 0.0234647840, 0.0079603232, 0.0312682465, -0.0406685807, -0.0243251044, 0.0243469551, -0.0439077467, -0.0199965723, 0.0084270239, 0.0120453015, -0.0103049353, -0.0444540828, 0.0267948881, 0.0426009223, 0.0222067833, -0.0330746025, -0.0177801382, 0.0150731131, 0.0089786984, 0.0420960858, -0.0386664644, -0.0188753437, -0.0280502308, -0.0384240672, -0.0338321626, -0.0307921637, 0.0003138781, 0.0298419520, -0.0200779587, 0.0252147987, -0.0396054238, -0.0004072599, -0.0314729847, -0.0022427142, -0.0239784755, -0.0271526519, 0.0247646049, -0.0336945690, 0.0463586450, 0.0328396261, 0.0380290672, -0.0289650727, -0.0379135087, 0.0206604898, -0.0067645758, -0.0434673391, -0.0276394077, -0.0289922059, -0.0045823529, -0.0347290263, -0.0231788568, 0.0127113014, 0.0399883091, -0.0423071682, -0.0410635434, 0.0444522053, -0.0288247950, -0.0171562098, -0.0381139144, 0.0469932631, -0.0271725431, 0.0338117480, -0.0428923294, -0.0459185205, -0.0336724147, 0.0406905711, -0.0179519989, 0.0076935142, -0.0229171291, 0.0128093660, -0.0378894359, -0.0245381948, -0.0176299661, 0.0244448259, 0.0359024704, 0.0290271193, 0.0106381923, -0.0070359260, 0.0362428576, -0.0255090557, 0.0065621957, -0.0462913811, -0.0201122873, -0.0298686679, -0.0330537781, 0.0030026101, -0.0272482298, 0.0020746738, 0.0391601697, -0.0415102951, 0.0276792049, 0.0473416895, 0.0061908029, -0.0123029761, 0.0096907131, -0.0209308267, 0.0105168484, 0.0022610538, 0.0131181180, -0.0137690715, 0.0126476549, -0.0221453682, -0.0468481258, -0.0445778109, 0.0010366179, -0.0242110603, 0.0269753337, 0.0255625620, -0.0446178839, 0.0362759009, 0.0278166980, -0.0438239537, 0.0176627189, 0.0414420739, 0.0211476237, 0.0083287954, -0.0153938159, -0.0175733529, -0.0174761415, 0.0479553118, -0.0115284808, -0.0011480004, 0.0254294202, -0.0315105021, -0.0006066859, -0.0472065285, -0.0201420356, 0.0090925768, -0.0025830492, -0.0117127597, 0.0325250477, 0.0370589197, -0.0439384766, 0.0081503354, -0.0289060064, 0.0348067805, 0.0028102621, 0.0247007608, 0.0338106826, 0.0025867037, 0.0026473813, -0.0277955942, -0.0287214741, 0.0316049829, 0.0089224465, 0.0470616221, 0.0051794015, 0.0091592260, -0.0186362993, 0.0423918590, -0.0236582309, -0.0433561914, 0.0411232784, 0.0039938986, -0.0347309187, 0.0356396437, -0.0151700489, -0.0119438730, -0.0388771370, 0.0243039429, -0.0335298479, 0.0443842337, 0.0378228351, -0.0416362286, 0.0304027274, -0.0348807275, 0.0343144536, 0.0369515717, -0.0274450053, -0.0140283220, -0.0397931710, 0.0130243264, 0.0176532716, 0.0181661025, 0.0351665840, 0.0302574486, -0.0342060067, -0.0390076973, -0.0145304352, -0.0238012057, -0.0471545272, -0.0373981483, 0.0127354078, 0.0104168169, -0.0472544730, 0.0448046476, 0.0157668293, -0.0334094465, 0.0222081691, -0.0084633380, 0.0200675502, 0.0103887618, 0.0018372647, -0.0379593410, -0.0129100233, 0.0119383931, 0.0281835943, -0.0129801854, -0.0260483474, 0.0290381759, -0.0074675158, -0.0410217419, 0.0388045087, -0.0218966529, -0.0315384045, -0.0066809915, -0.0170209445, -0.0386539772, 0.0386406630, -0.0183298495, -0.0150871091, 0.0010668226, 0.0282763541, 0.0103590004, 0.0272067562, -0.0250171609, -0.0182301011, -0.0146480538, -0.0216419809, 0.0266386941, 0.0363684222, 0.0024941750, -0.0454926640, -0.0209058542, 0.0472960547, -0.0127329789, 0.0043415911, 0.0028613731, 0.0069885291, 0.0177009329, -0.0477462038, -0.0348455943, 0.0083675496, -0.0012116916, 0.0016014203, 0.0379245430, -0.0210270938, -0.0365527421, 0.0355626717, 0.0175655782, 0.0340583920, -0.0017812364, -0.0004918464, -0.0331946984, 0.0078326948, 0.0086133555, -0.0051561706, -0.0273587704, 0.0418617800, 0.0448163375, -0.0204370990, 0.0200162455, 0.0457495749, -0.0181819797, 0.0073756538, -0.0472469181, 0.0054969825, -0.0171294883, -0.0336688757, 0.0186232775, -0.0038233325, -0.0083527155, -0.0310309865, -0.0471937396, -0.0095802546, 0.0177845508, -0.0212421827, -0.0350971259, 0.0483193621, -0.0099114701, -0.0270182379, 0.0254167020, 0.0445094109, -0.0041090846, 0.0206216052, -0.0197422151, 0.0202849805, 0.0461373925, -0.0367893465, -0.0069595389, 0.0312788039, 0.0459739044, -0.0311564077, -0.0333016291, 0.0459548533, 0.0280172452, 0.0455736741, 0.0090249851, 0.0046279952, -0.0226664394, -0.0073065087, 0.0031135567, -0.0022006184, -0.0133214779, -0.0423832871, 0.0404008254, -0.0039622225, 0.0434991419, -0.0208402593, -0.0261205900, -0.0285048559, 0.0188054815, -0.0256831814, -0.0230950993, 0.0004742444, 0.0012361482, 0.0139026418, 0.0282734111, 0.0471699610, 0.0158477426, -0.0383175798, -0.0440174937, -0.0173246749, -0.0338176303, -0.0406491086, 0.0355893448, 0.0359564871, -0.0232018083, 0.0342425779, -0.0306491647, 0.0403998569, -0.0292447526, 0.0282363668, 0.0346045271, -0.0218283832, -0.0224365517, -0.0273665506, 0.0000203364, 0.0103528835, -0.0168665685, 0.0145717934, -0.0051421188, -0.0054662637, -0.0184554681, 0.0013874881, -0.0281978678, 0.0197823122, -0.0291481931, 0.0373878554, 0.0201425701, -0.0331403613, 0.0387247354, -0.0189506449, -0.0085356236, -0.0075378530, -0.0481633246, 0.0145001635, 0.0392498374, 0.0026531182, 0.0211181492, 0.0259676725, -0.0447219647, -0.0343620181, -0.0466980115, 0.0286841914, -0.0447292402, 0.0145528764, -0.0362709835, -0.0463934764, 0.0267011151, 0.0102301836, -0.0015221611, -0.0413590036, 0.0186291039, -0.0400606804, -0.0067804009, 0.0402509049, 0.0172505304, 0.0182975084, -0.0058738776, -0.0013667569, 0.0291210711, 0.0152492747, -0.0230585523, -0.0043317080, -0.0307590049, -0.0142422654, -0.0314354450, -0.0312815607, 0.0115926526, -0.0103831813, 0.0199294388, 0.0160099864, -0.0425482914, 0.0473367870, 0.0438141450, -0.0047915056, -0.0442246981, -0.0285352115, -0.0428661294, 0.0195446908, -0.0430673063, -0.0317468010, 0.0320108905, -0.0253357589, -0.0155314654, 0.0470357090, -0.0371075012, -0.0471889712, -0.0072393231, -0.0482443012, 0.0308211744, 0.0445817560, -0.0244242214, 0.0399713516, -0.0422585905, -0.0404888615, 0.0167000592, -0.0029456913, 0.0373552442, 0.0029782914, -0.0309245475, -0.0360960998, -0.0457857735, -0.0258713365, -0.0307008959, -0.0401304327, 0.0012881942, 0.0048567392, 0.0240057707, 0.0249386579, -0.0109433196, -0.0412196480, -0.0289194621, 0.0277344584, -0.0363890007, 0.0389542952, 0.0046051852, 0.0489670634, 0.0075115412, -0.0399904251, 0.0133377612, -0.0292232260, 0.0053998753, -0.0392418355, 0.0345137194, 0.0002103001, 0.0006853975, 0.0053137466, 0.0057413168, -0.0388305560, -0.0358282514, 0.0375557020, 0.0317702666, 0.0104114562, 0.0315989330, 0.0264257565, -0.0321275964, -0.0200275593, 0.0068639256, 0.0164890438, 0.0156976953, 0.0376681536, -0.0316925719, -0.0245866682, 0.0180233270, -0.0171531849, 0.0001652502, -0.0128958337, -0.0156301260, 0.0418566912, -0.0249483883, 0.0198368207, 0.0219986215, 0.0297550932, 0.0247032121, -0.0449412018, 0.0413779020, 0.0442634895, 0.0197441205, -0.0365695506, -0.0281451549, -0.0261605475, 0.0135072134, 0.0225235894, -0.0340949856, 0.0234005526, -0.0389174111, 0.0013851523, 0.0061997622, 0.0257817954, -0.0219809599, 0.0220300183, 0.0229718983, -0.0410545617, 0.0359151736, 0.0313754454, 0.0275401175, 0.0001970306, 0.0033319071, 0.0489365458, 0.0450422466, 0.0066805035, -0.0387287065, -0.0214753058, -0.0177479833, 0.0451090783, -0.0161128417, -0.0482285358, -0.0002559684, -0.0380670652, 0.0396271273, -0.0396258645, -0.0265548658, 0.0205097347, -0.0247514509, -0.0450446382, 0.0130227506, -0.0194562413, 0.0092340820, -0.0323350579, -0.0424350649, -0.0121046491, 0.0215205774, -0.0185987353, 0.0159625188, 0.0337004587, -0.0370521620, -0.0172644965, -0.0327604562, -0.0035066381, 0.0091326647, 0.0010153390, 0.0033766516, 0.0322472826, 0.0139537528, 0.0013939105, 0.0095141940, 0.0004485250, 0.0062509328, 0.0479326174, -0.0099639706, 0.0382062122, -0.0001268461, 0.0048823878, 0.0278896391, -0.0306690559, 0.0145122483, -0.0426691324, -0.0159203894, -0.0402067974, -0.0231311209, 0.0159684047, -0.0258701909, -0.0316304676, -0.0473333374, 0.0367820337, -0.0306337588, -0.0415195078, -0.0261906236, -0.0419828929, 0.0190799534, -0.0393941440, -0.0073696040, 0.0425102711, -0.0461923480, -0.0167623833, -0.0065763518, 0.0020277426, -0.0199403558, -0.0120472759, -0.0053362548, -0.0278467536, 0.0484214574, -0.0313191786, 0.0184909254, -0.0005563237, -0.0137518905, -0.0324788727, -0.0470442921, 0.0216134116, 0.0060450025, 0.0111276694, -0.0332988501, 0.0374365151, 0.0359735489, -0.0167325288, -0.0448659807, -0.0160242133, 0.0200061128, -0.0195132047, 0.0245670900, -0.0150605254, -0.0423915572, -0.0385816097, -0.0159646347, 0.0232099816, -0.0143553987, -0.0366554223, 0.0368446261, -0.0142363682, -0.0054953136, -0.0210649967, 0.0251455382, 0.0293582231, 0.0271806270, -0.0026237443, -0.0212958883, -0.0219581947, 0.0086689889, -0.0361749157, 0.0337225199, -0.0404786058, -0.0410701558, 0.0260967240, -0.0042062998, -0.0353862531, 0.0152082294, -0.0100271143, -0.0188822467, 0.0064559877, 0.0180370882, 0.0103208534, -0.0137592256, 0.0117244385, 0.0009592026, 0.0021644123, -0.0427773595, 0.0063121580, 0.0279382989, 0.0356186181, -0.0344774723, 0.0399539471, -0.0086362846, -0.0024833716, -0.0477499440, -0.0181408301, 0.0018424839, -0.0298957415, 0.0053754747, -0.0083580874, -0.0306956396, -0.0164819211, -0.0248054713, -0.0164165571, -0.0452187434, 0.0473060906, 0.0211839229, 0.0239898413, 0.0439885482, -0.0373299234, 0.0329175517, -0.0354193673, 0.0348328203, 0.0252070576, 0.0309049115, -0.0307042021, -0.0167758018, 0.0064789392, -0.0169694126, -0.0181494858, 0.0037286542, -0.0359803140, -0.0110281408, 0.0363359824, 0.0222074687, -0.0344874859, 0.0026058704, 0.0003236681, -0.0028435253, -0.0091548897, 0.0308160633, 0.0031434260, 0.0280815810, -0.0333545059, 0.0160544291, 0.0342966318, 0.0201724395, 0.0356559232, -0.0323471911, -0.0419087484, -0.0035069883, 0.0418348238, 0.0169972479, 0.0038579181, 0.0408344865, 0.0104102418, 0.0140225738, -0.0165538229, -0.0055888221, -0.0337244831, 0.0353382826, -0.0200740583, -0.0028114058, 0.0417999700, 0.0222458839, 0.0412006751, -0.0317763761, 0.0301507190, -0.0295911487, 0.0206358805, 0.0446915030, 0.0121090859, 0.0410334691, 0.0349736065, -0.0437249430, -0.0171499290, -0.0281034224, -0.0469597280, 0.0144095048, 0.0169385746, 0.0102525018, -0.0185618270, -0.0385176353, -0.0258737188, 0.0458355471, 0.0056266673, 0.0249839649, 0.0330440402, -0.0271164551, 0.0070505515, -0.0219631940, 0.0125397667, 0.0392444432, -0.0057156458, -0.0430832841, -0.0136168562, 0.0092094839, -0.0009282380, -0.0256350022, -0.0320783854, 0.0177717730, -0.0106967799, -0.0325221121, 0.0475511253, -0.0418384559, -0.0393941700, 0.0455391407, -0.0304706246, -0.0402964205, 0.0148436278, 0.0124209449, -0.0440133698, -0.0229586288, 0.0051577836, -0.0040767677, 0.0306453779, 0.0480481908, 0.0316380933, 0.0381721780, -0.0450033732, -0.0327760279, -0.0183699355, -0.0360434093, 0.0402792022, -0.0071335025, -0.0164143853, -0.0082288235, 0.0161546469, -0.0366032273, 0.0482770279, -0.0460578613, 0.0020998456, 0.0150182694, -0.0389015973, 0.0085040666, -0.0243446566, -0.0028861687, -0.0036688298, 0.0080474578, 0.0294039547, 0.0458306819, 0.0279794410, -0.0279049315, -0.0095000379, 0.0487586334, 0.0163785964, 0.0276789442, 0.0333346874, -0.0332776159, -0.0421894453, -0.0125596449, 0.0070329942, 0.0148068890, 0.0153269619, 0.0076853633, 0.0166787803, -0.0089793280, -0.0002874248, 0.0478843376, -0.0423474759, 0.0343568921, -0.0163982436, -0.0129652470, 0.0023234375, 0.0138276443, -0.0308203958, -0.0430691540, 0.0377390683, -0.0459591895, -0.0172177404, -0.0167628974, -0.0396242067, 0.0117862709, -0.0125950463, 0.0485840440, 0.0182096511, 0.0121648572, -0.0247471984, 0.0214593485, 0.0116126724, -0.0312983915, 0.0443177372, 0.0347160846, -0.0415807478, 0.0125691779, -0.0206400286, 0.0476132259, 0.0165804774, 0.0110687315, -0.0290264748, -0.0062996149, 0.0033367053, -0.0035488531, 0.0380468965, 0.0082224011, 0.0440310538, 0.0483737439, 0.0258036032, 0.0212593526, -0.0091840439, 0.0373261869, -0.0007172972, 0.0241286829, -0.0179159530, 0.0483590215, 0.0221293345, -0.0184752420, 0.0042667091, -0.0261918735, -0.0484435186, -0.0145098791, 0.0133381337, 0.0047432333, 0.0370196104, 0.0334286764, 0.0011714287, 0.0123916976, -0.0457779616, 0.0254536942, 0.0295872837, -0.0039152429, 0.0346343964, 0.0204147398, 0.0070816427, -0.0357467383, -0.0321788713, 0.0181627795, 0.0417209566, 0.0460760370, 0.0146094188, 0.0087589957, 0.0325016454, 0.0331941023, 0.0430483520, 0.0116470456, 0.0254807696, -0.0485596061, 0.0355119780, 0.0020040311, -0.0079960413, 0.0264702588, 0.0136327744, -0.0174578950, -0.0396574028, 0.0359131992, 0.0183861032, -0.0018072464, -0.0144791156, 0.0301270857, -0.0316111371, -0.0121936984, 0.0300245956, 0.0000622422, 0.0336097702, 0.0384208634, -0.0036925264, 0.0382818133, 0.0091883428, -0.0196972117, -0.0382803082, 0.0347333848, 0.0000493824, 0.0224403813, 0.0461765528, 0.0405319929, 0.0234384835, -0.0331501961, -0.0176581852, 0.0337480903, -0.0424906164, 0.0476415381, -0.0227347333, -0.0382072739, -0.0127056353, 0.0130716413, 0.0163299516, 0.0455854237, 0.0085827410, 0.0157412663, -0.0333784372, 0.0367199406, -0.0048202612, 0.0120935291, 0.0406117216, -0.0295154043, -0.0200797934, -0.0209241584, -0.0065177642, -0.0396351032, 0.0246558860, -0.0063299946, 0.0025189370, -0.0008029230, -0.0284512546, 0.0160585046, -0.0098854564, 0.0210871100, 0.0106524639, 0.0160808861, 0.0288319290, 0.0115734264, -0.0033276528, 0.0219089985, -0.0450159758, -0.0272908043, -0.0112521537, 0.0084777735, -0.0419299491, -0.0331612118, 0.0096958652, 0.0478426814, 0.0073597692, 0.0377702415, -0.0066802576, -0.0121645890, -0.0428659655, -0.0218753722, 0.0325920731, -0.0455237105, 0.0341950133, -0.0037662052, 0.0412403420, 0.0068299249, 0.0000212453, 0.0042065457, 0.0405403823, -0.0113461688, -0.0443248525, 0.0349187702, -0.0285545532, -0.0349280685, 0.0138162598, -0.0456661023, -0.0346712470, 0.0055777058, 0.0350900218, 0.0239884704, -0.0352400914, 0.0076024570, -0.0200694222, -0.0090494566, -0.0104228817, -0.0211068336, -0.0321044922, -0.0312155318, -0.0292524267, 0.0334534496, -0.0192470383, 0.0488371849, 0.0374073610, 0.0137176886, -0.0010669976, 0.0273748413, -0.0269680955, -0.0189786181, -0.0198963229, 0.0402515084, -0.0311378129, -0.0386910029, 0.0480996445, 0.0075525939, -0.0040975474, 0.0213601962, -0.0155252405, -0.0140501857, -0.0297644585, 0.0080230795, -0.0298089944, 0.0014906824, 0.0132021531, 0.0203715861, -0.0151018389, 0.0234212205, 0.0450957194, 0.0321700498, -0.0244690608, -0.0157054886, -0.0099320374, 0.0296969935, -0.0017162338, -0.0073242374, -0.0277190078, -0.0325301252, -0.0056294464, -0.0270160884, 0.0474482253, 0.0395935848, 0.0206113905, 0.0373661444, -0.0058441982, -0.0376201980, 0.0213992447, -0.0037114248, -0.0435379669, 0.0309642851, 0.0097929053, -0.0402104780, 0.0172411874, -0.0466635562, -0.0319094434, -0.0140536316, -0.0265572481, -0.0415962264, -0.0387999564, -0.0165742747, 0.0098027140, 0.0460693538, -0.0299293809, -0.0365476608, 0.0185711682, 0.0291407183, -0.0448002554, -0.0358965322, 0.0080290958, -0.0143079199, -0.0064396597, 0.0366061106, -0.0102085508, 0.0062948503, 0.0107437223, -0.0230390467, -0.0283744466, -0.0258344151, -0.0207195934, -0.0110441670, -0.0286437310, 0.0389946774, -0.0408843234, 0.0271745995, 0.0208775550, -0.0376306847, -0.0015041381, -0.0460693203, -0.0144081824, 0.0261659399, -0.0118082650, 0.0037005767, -0.0284736566, 0.0086591318, 0.0190599933, -0.0182851851, 0.0007750094, 0.0134429857, 0.0164209306, 0.0366081893, 0.0426471978, -0.0328868106, 0.0020744167, 0.0145289302, -0.0000817366, 0.0342560783, -0.0139909573, -0.0076010786, -0.0118119679, 0.0480704308, 0.0400927737, -0.0167112462, -0.0240817256, -0.0054764152, -0.0214548074, 0.0170761794, 0.0249652043, -0.0225105919, -0.0264887102, 0.0321475565, 0.0300649852, 0.0336297452, -0.0476951152, -0.0037681907, 0.0418973565, 0.0423862413, -0.0141597576, -0.0121587850, -0.0076196603, 0.0399872363, 0.0006374642, 0.0392906591, 0.0129480325, -0.0228900425, 0.0010249279, 0.0295212194, 0.0479549542, -0.0016164295, -0.0056370869, -0.0306508001, 0.0068889223, -0.0393282697, 0.0463714376, -0.0060453974, 0.0140024126, -0.0244072378, -0.0317980647, 0.0238295421, 0.0007055216, -0.0082261749, -0.0412206873, 0.0076036938, 0.0147096887, 0.0090351924, 0.0375015959, 0.0025453344, 0.0244699270, -0.0114222169, -0.0158718452, -0.0387372337, -0.0172550008, -0.0221333262, -0.0444874279, 0.0168325827, -0.0337286666, 0.0108385272, -0.0120023526, -0.0251679737, 0.0243692696, 0.0176671222, 0.0359311551, -0.0358739570, 0.0085608326, -0.0254106279, 0.0139420629, -0.0334783942, -0.0381366797, -0.0463902317, 0.0134163089, -0.0119986050, -0.0115998946, 0.0318354517, 0.0433056727, 0.0179306567, -0.0317548476, -0.0216270406, -0.0457214639, -0.0097464509, 0.0270393789, -0.0036085583, -0.0265935156, 0.0400387570, -0.0275367983, -0.0353833921, -0.0049842857, 0.0281526223, -0.0062126443, 0.0283378437, 0.0184060857, 0.0161961541, 0.0018032864, -0.0321271159, -0.0342750475, -0.0228616260, -0.0391668268, -0.0368739702, 0.0044463724, 0.0397745743, 0.0322981924, -0.0420786589, 0.0034747049, 0.0180360377, -0.0020466894, -0.0204574335, 0.0084838346, -0.0259578973, 0.0413396508, -0.0037444569, -0.0318045467, -0.0307590980, -0.0034340955, 0.0415416658, 0.0078827552, 0.0382611975, 0.0260634646, -0.0046011694, -0.0240728613, 0.0463109240, 0.0373433828, 0.0338689312, 0.0292194411, 0.0387284979, 0.0195810869, -0.0038627200, -0.0258767325, 0.0130277015, -0.0437442362, -0.0426204987, 0.0436059833, -0.0180397276, 0.0005052574, 0.0271933451, -0.0019932501, -0.0158866793, 0.0297828317, 0.0061185509, -0.0428694114, 0.0201012269, 0.0287763104, 0.0081281178, 0.0171166062, -0.0419212095, 0.0360410735, 0.0356654525, -0.0252219010, 0.0297212899, 0.0155395567, 0.0000088289, 0.0152300522, -0.0332401320, 0.0403530076, 0.0396023914, 0.0280068889, 0.0488326252, -0.0407045782, -0.0342755392, -0.0018347986, -0.0298758391, -0.0485173017, -0.0468932576, -0.0215278547, 0.0260009989, -0.0333444849, 0.0155129060, -0.0219428819, 0.0244369507, -0.0135057084, -0.0083661489, -0.0211713780, -0.0431761071, -0.0263669919, 0.0083021037, -0.0056564733, -0.0303743556, -0.0473417118, 0.0012255795, 0.0156875700, 0.0224876180, -0.0404150188, -0.0155315474, -0.0126936734, -0.0387021340, -0.0383135155, -0.0416118763, -0.0295644123, -0.0447213575, 0.0054553561, 0.0310511142, 0.0083212852, 0.0457428023, 0.0236229822, -0.0080171824, 0.0467501134, 0.0290015489, 0.0311780944, 0.0356022194, 0.0453209653, -0.0016294755, -0.0024272017, -0.0082468837, 0.0476591438, 0.0237151235, -0.0243728403, 0.0191902146, 0.0107577816, 0.0252987817, -0.0469895601, -0.0328552052, -0.0362280272, 0.0124211423, 0.0015758760, 0.0321456417, -0.0086174570, -0.0175623856, 0.0033734031, -0.0218712371, 0.0472563431, -0.0156365968, -0.0359791480, 0.0426405370, -0.0455954261, 0.0263245478, 0.0365399569, 0.0279356390, 0.0218840167, -0.0295376666, -0.0302463435, 0.0264491737, -0.0398498438, -0.0359842964, -0.0446956381, 0.0128696114, -0.0072750300, 0.0120414011, -0.0375074521, 0.0261911973, -0.0276249480, -0.0166622847, -0.0162255429, 0.0192915723, 0.0311847106, -0.0011429898, -0.0080526173, -0.0261063743, 0.0377628580, 0.0442808643, 0.0478947982, 0.0090092868, 0.0162238106, 0.0245342329, -0.0052739866, -0.0213620793, 0.0377691314, -0.0008790903, 0.0158871561, -0.0224837288, -0.0134158768, 0.0300654620, -0.0314286575, 0.0108679980, 0.0125504173, -0.0485576428, 0.0459428728, 0.0270691514, 0.0121723451, 0.0360167548, 0.0276374444, 0.0481920838, 0.0137330294, 0.0152321979, 0.0452238843, 0.0074712448, -0.0134959556, 0.0209046528, 0.0046454705, -0.0015965365, 0.0206266791, 0.0424784347, 0.0094818175, 0.0412367210, 0.0379845947, -0.0415104330, -0.0093978271, 0.0132580809, -0.0056020319, -0.0147914737, 0.0074914955, 0.0153317451, -0.0117462464, 0.0105777457, 0.0100440383, -0.0362252705, 0.0057975128, 0.0427045599, -0.0100936294, 0.0248110071, 0.0145203695, -0.0415776744, -0.0302177612, -0.0082138292, 0.0099740736, 0.0430614874, -0.0479588062, -0.0120179467, -0.0225167368, -0.0169168748, 0.0070945509, -0.0111162327, 0.0015003160, -0.0292142220, -0.0262847412, -0.0413050503, -0.0024800897, -0.0324656852, 0.0415466279, -0.0132015347, -0.0097140856, 0.0322209671, 0.0474806204, -0.0423084050, -0.0098573305, -0.0371537879, -0.0396814495, 0.0215919465, -0.0224486291, -0.0052401833, -0.0077202842, -0.0385879055, -0.0183134973, -0.0066172667, 0.0346579328, 0.0082202852, -0.0402476639, -0.0406650417, -0.0105646290, -0.0086752623, -0.0299714413, -0.0247966647, -0.0450576283, -0.0137082413, -0.0214687176, 0.0442914143, -0.0051308125, -0.0482226722, -0.0447282381, -0.0252201725, -0.0231898706, -0.0338116959, -0.0462915935, -0.0078351013, 0.0228667557, -0.0370519385, -0.0390815847, 0.0244197249, 0.0449585468, 0.0112760887, 0.0265529156, -0.0087132566, 0.0237897485, 0.0137333497, 0.0188548788, 0.0414112359, 0.0152228996, -0.0245961528, -0.0360870138, -0.0241262391, 0.0213112906, 0.0173146650, -0.0302588399, -0.0023219399, -0.0457696915, -0.0311825592, -0.0479776822, -0.0164712928, 0.0383723229, 0.0401267558, 0.0255822763, -0.0232387520, -0.0128396302, -0.0299749915, -0.0360348150, 0.0241905004, 0.0218602791, -0.0286034122, -0.0238153972, 0.0018909238, -0.0427900329, -0.0346571840, 0.0452813730, 0.0076723732, 0.0163317025, 0.0193688646, -0.0250276849, -0.0294193458, -0.0393239930, 0.0401969403, 0.0105589405, 0.0053649396, -0.0096531399, 0.0264254138, 0.0076188780, 0.0087199472, 0.0468638316, 0.0414618701, -0.0468205810, 0.0192516744, 0.0364814103, -0.0004947223, 0.0191408917, -0.0053856708, -0.0264355652, -0.0462604649, -0.0476865657, 0.0000251010, -0.0052147582, 0.0232217833, -0.0228099991, 0.0346117392, -0.0033923164, -0.0349544659, 0.0084060803, 0.0027921796, -0.0426004194, -0.0267310366, -0.0082935430, -0.0089154392, -0.0245692655, -0.0088851973, 0.0419477224, -0.0204226729, -0.0263572745, -0.0225773212, -0.0057055093, 0.0034292117, -0.0200074930, -0.0247983336, 0.0234097838, 0.0091307722, 0.0421309844, 0.0172270611, 0.0176866949, -0.0364289209, -0.0209344830, 0.0379454195, 0.0137916580, -0.0096472874, 0.0134728886, -0.0002288260, -0.0427017100, -0.0388160050, 0.0208320692, 0.0303237960, 0.0137514547, 0.0286039859, 0.0047972761, 0.0110892877, -0.0127862990, 0.0097403191, 0.0179223642, -0.0399834402, 0.0026844665, 0.0398010463, 0.0482375026, 0.0173493400, 0.0034965612, -0.0238511618, -0.0484413467, -0.0207507201, -0.0167960562, 0.0331741795, 0.0340163931, 0.0316244140, 0.0345198363, -0.0275551137, 0.0429520234, -0.0273812078, -0.0325790644, 0.0110593997, -0.0142255276, -0.0346040055, -0.0077550225, 0.0205510259, 0.0023985989, 0.0238922536, -0.0174370818, 0.0043933578, 0.0222318023, -0.0382584669, 0.0073624440, 0.0174732059, -0.0056088194, 0.0286901146, 0.0123249702, 0.0405572951, 0.0411528572, -0.0232451987, 0.0444701165, -0.0265228860, 0.0065258592, 0.0040794760, 0.0449522957, -0.0260764025, 0.0249918401, 0.0030501597, 0.0252524540, 0.0115581378, 0.0291723162, -0.0253128763, -0.0260101072, 0.0209183171, 0.0374711603, 0.0459274203, 0.0185465813, -0.0321506858, -0.0342414193, -0.0320126489, -0.0133127086, -0.0236534644, 0.0419582352, -0.0174411461, 0.0183001235, -0.0289159827, 0.0354095697, -0.0045459792, 0.0315942615, -0.0294291005, 0.0146899372, -0.0319671929, -0.0133441612, 0.0335897803, 0.0199297145, -0.0185426362, -0.0306554846, 0.0258373693, 0.0018869638, 0.0149132982, -0.0174253806, -0.0153043829, -0.0336019844, 0.0300362408, 0.0115139857, -0.0461155847, -0.0149222799, -0.0414852872, -0.0285782758, 0.0222879574, -0.0476009883, -0.0461665578, -0.0037536845, -0.0233437568, -0.0194939673, -0.0430068150, -0.0117445998, -0.0359442346, 0.0326627046, -0.0148437098, 0.0293614268, -0.0314476043, 0.0102811307, 0.0122348331, 0.0227147862, -0.0141929425, 0.0038709641, 0.0303469300, 0.0320650041, 0.0433158353, -0.0393749401, 0.0009103119, 0.0127544701, -0.0126748234, 0.0231316835, -0.0132566765, 0.0285896137, -0.0254329238, 0.0246255398, -0.0250028297, 0.0064479150, -0.0239981320, 0.0198017582, 0.0345844179, -0.0108064190, -0.0444156453, -0.0298564732, -0.0036285780, -0.0322357416, -0.0222290680, -0.0438475832, 0.0068922974, 0.0379490405, 0.0052542724, -0.0489762127, -0.0139012299, 0.0157666579, 0.0428106487, -0.0040741041, 0.0382454917, 0.0110872313, 0.0116875544, 0.0159694254, 0.0132689551, 0.0361833721, 0.0273266956, 0.0259098709, -0.0052262619, 0.0452763960, 0.0285997540, 0.0301995054, -0.0320667773, 0.0078836791, -0.0109654218, -0.0358925387, -0.0362203754, -0.0183315184, 0.0162748694, -0.0223443732, -0.0082112812, 0.0130112916, 0.0434996560, 0.0482123196, -0.0122403353, -0.0323396102, -0.0306255594, 0.0210628808, 0.0006642230, 0.0364154577, 0.0438924953, -0.0427328721, -0.0360541455, 0.0476390421, -0.0189275071, 0.0048511326, 0.0479791760, -0.0454872325, 0.0378376544, 0.0064132251, 0.0475058332, 0.0103431977, 0.0446396321, 0.0041603148, 0.0283879265, 0.0373441353, -0.0007371195, -0.0162087120, 0.0249796659, 0.0084023103, -0.0311353840, 0.0127928518, 0.0032662041, 0.0002270602, 0.0330676511, -0.0037110746, 0.0338683352, -0.0456899516, 0.0089800879, 0.0127212740, 0.0246640593, -0.0075734667, -0.0210347325, -0.0486334488, -0.0016005076, 0.0084071085, 0.0326369256, 0.0084239654, -0.0024163499, -0.0473527499, 0.0047636367, -0.0097375736, -0.0230265129, 0.0405220464, 0.0209909305, -0.0017497241, 0.0345287621, 0.0337542444, 0.0452593416, -0.0134976022, 0.0048922598, -0.0296724997, -0.0440836735, 0.0465565547, 0.0118024722, -0.0426244102, 0.0320914090, -0.0392658263, -0.0345712639, -0.0299056359, 0.0113495663, -0.0271626264, -0.0390954614, -0.0038558841, -0.0192067549, 0.0008066967, 0.0047044083, 0.0301030874, 0.0136645809, -0.0068619736, 0.0303403586, 0.0021911003, 0.0111958571, 0.0195744634, -0.0160449445, 0.0286639929, 0.0233590081, -0.0008509271, 0.0053148568, 0.0205514133, -0.0135456175, 0.0069786012, 0.0045790821, 0.0009133369, 0.0313894600, -0.0322916768, 0.0015146360, 0.0489135832, -0.0006565601, -0.0236016512, -0.0052990764, -0.0160832554, -0.0464408286, 0.0114848316, 0.0368691906, -0.0215114206, 0.0056784451, -0.0445716307, -0.0043438673, 0.0188707337, 0.0073262602, 0.0084618405, 0.0208771825, -0.0344655141, -0.0140896067, 0.0016779266, -0.0238485578, -0.0234887060, 0.0417783782, -0.0068094619, -0.0079047382, -0.0119436495, -0.0211437549, -0.0237255767, 0.0170461386, -0.0077480264, 0.0089253671, 0.0225018412, 0.0272287503, 0.0384942740, 0.0260904878, -0.0221938398, 0.0400401726, 0.0219492912, -0.0296735745, 0.0410570055, -0.0475678742, -0.0400240161, 0.0464121625, -0.0403793715, 0.0277408510, -0.0258341357, -0.0385706425, -0.0374813564, -0.0250839703, 0.0336877033, -0.0480418056, 0.0017835610, -0.0355529636, -0.0207685437, -0.0357884355, 0.0395795107, 0.0369255021, 0.0430461541, 0.0204169154, -0.0327670425, -0.0126464851, 0.0472751930, 0.0110271387, 0.0390720218, 0.0022802539, -0.0056505427, -0.0183237754, 0.0178824887, 0.0240997151, -0.0077891387, -0.0382249355, -0.0452192575, 0.0403520837, 0.0397793055, 0.0324816853, 0.0458580628, 0.0062088147, -0.0088127591, 0.0006429069, -0.0193228070, -0.0055971406, 0.0145433694, 0.0180977881, 0.0482050776, -0.0353439003, 0.0334977582, 0.0357313454, 0.0142947435, -0.0158579610, -0.0245461967, 0.0075248070, -0.0097216666, -0.0030958503, -0.0246215686, 0.0418043733, 0.0432130992, -0.0000857301, -0.0029252283, 0.0378420129, 0.0203120261, -0.0189722534, 0.0409374014, -0.0226561725, -0.0153679550, -0.0462954007, 0.0114192255, -0.0286491513, -0.0258789510, 0.0363208130, -0.0455342457, 0.0278479680, -0.0003104210, 0.0276498720, 0.0240820870, 0.0249884278, 0.0221576691, -0.0291705970, 0.0270718932, -0.0421969891, -0.0208226927, -0.0037532076, 0.0010177679, 0.0342637151, -0.0269871801, -0.0213658754, 0.0057324432, -0.0166090578, 0.0021305047, -0.0134681687, 0.0463100970, -0.0147159509, -0.0181382149, -0.0435937978, 0.0296512544, 0.0022381842, -0.0404192582, 0.0173619464, 0.0153039396, 0.0235095918, -0.0159451403, 0.0028002970, -0.0090740770, 0.0295891166, 0.0259500220, -0.0482446887, 0.0041238144, -0.0252344795, -0.0214926619, -0.0118619725, 0.0178990439, -0.0461392589, 0.0226265639, -0.0418171287, -0.0390308835, 0.0133091211, 0.0320607722, 0.0246653929, -0.0401956216, 0.0079003796, -0.0441707820, -0.0159495659, 0.0325277746, -0.0355832875, 0.0151415244, 0.0392312631, 0.0235566273, -0.0175237134, -0.0271789785, 0.0441155583, 0.0160376579, 0.0440655574, -0.0045215338, 0.0016169660, 0.0064302795, -0.0441459604, -0.0225461461, -0.0181699134, -0.0151792541, -0.0305205211, 0.0237822458, -0.0046423301, -0.0084641799, 0.0407717526, 0.0469980985, -0.0216515455, -0.0081275366, -0.0450429805, 0.0464120284, -0.0154091865, -0.0334914401, 0.0180813298, 0.0315574557, 0.0354541838, 0.0483937860, 0.0016523004, 0.0216966867, 0.0340892375, 0.0069155879, 0.0236624703, 0.0029267222, -0.0043908805, -0.0294587910, -0.0115512125, -0.0121582933, 0.0242292956, 0.0103793591, -0.0184460655, -0.0414249375, -0.0488899201, -0.0091466233, 0.0193911940, 0.0114782564, 0.0410681069, -0.0419845656, 0.0028573573, 0.0090915859, -0.0395180359, 0.0423451364, 0.0485022366, 0.0017616600, -0.0239570774, 0.0350880176, 0.0135081150, -0.0290452447, 0.0196565092, 0.0026216060, 0.0275688022, 0.0216916427, -0.0057248846, 0.0214878246, -0.0191478524, 0.0455865040, -0.0265451241, 0.0390110016, -0.0148491152, 0.0464380383, -0.0132783316, -0.0062142685, -0.0290961247, 0.0160431117, 0.0399365872, -0.0354799032, -0.0112633556, 0.0199012756, 0.0276280344, -0.0304951053, 0.0374473184, -0.0081041157, -0.0038835555, 0.0445527434, 0.0321920589, 0.0103180744, -0.0012675561, -0.0072886720, -0.0429805815, 0.0005112030, 0.0373214334, 0.0362425297, 0.0426564366, -0.0108546689, -0.0082567632, -0.0035720468, -0.0072039813, 0.0480112061, -0.0277137402, 0.0459648743, 0.0100376606, 0.0182850808, 0.0461515114, -0.0066197067, 0.0276603848, 0.0261530131, -0.0237000324, 0.0416103899, -0.0390659571, -0.0199778266, -0.0204577837, -0.0441592187, -0.0066276714, 0.0374363214, -0.0045010448, 0.0131356716, 0.0039255805, -0.0229329206, -0.0345092900, -0.0407357663, -0.0374867283, 0.0200593621, 0.0054222420, -0.0410916694, -0.0198354926, 0.0298509225, 0.0216334537, 0.0187001303, 0.0365232602, -0.0199570935, 0.0149641261, 0.0486392677, 0.0449270457, -0.0454885997, -0.0384193249, -0.0433671698, 0.0477559566, 0.0039320849, -0.0166736618, -0.0317446627, 0.0194184110, 0.0014288835, -0.0303519070, -0.0053606667, -0.0137268230, 0.0063329972, 0.0231173113, -0.0349568725, 0.0207646862, 0.0155405849, 0.0203003213, 0.0367139876, 0.0302800313, -0.0307200048, -0.0050362162, 0.0377793834, 0.0026978292, 0.0262914076, -0.0459080301, -0.0298919920, 0.0144237876, 0.0459402874, 0.0204213634, -0.0208109543, -0.0436977148, 0.0325383842, -0.0003692880, 0.0196482241, -0.0466228724, 0.0149341375, -0.0369986892, 0.0224192515, -0.0259208716, -0.0321265087, 0.0287592262, 0.0368233845, -0.0066285357, 0.0364997759, -0.0172240622, -0.0242663771, -0.0232583620, 0.0403901860, 0.0058436580, -0.0316930711, 0.0428890809, 0.0106347091, 0.0310776755, 0.0415197909, 0.0247083977, -0.0369534753, -0.0183127020, 0.0312243402, -0.0465194248, -0.0203244202, 0.0072263367, -0.0456865057, 0.0320314467, 0.0020582266, -0.0170507394, 0.0325392857, 0.0173446313, 0.0447242111, 0.0128350519, 0.0402894914, 0.0402661189, -0.0072441138, 0.0169032440, -0.0111117363, -0.0071444809, -0.0025440715, 0.0378951803, 0.0418038964, -0.0198840592, 0.0295939669, -0.0008660890, 0.0113426521, 0.0268896371, -0.0245064031, 0.0428920612, 0.0026013181, -0.0276573952, 0.0387551710, -0.0204719286, -0.0470684581, 0.0186391994, -0.0289808773, 0.0036530718, -0.0044783168, 0.0099382028, 0.0440209731, -0.0166362710, -0.0033503734, -0.0382304005, 0.0419899747, 0.0073895045, 0.0453694835, 0.0165846124, -0.0485923812, 0.0186211020, -0.0153537542, 0.0310303569, -0.0261343829, -0.0253117681, 0.0452902094, 0.0400701165, 0.0093845464, 0.0456154197, -0.0473045930, 0.0297737196, 0.0260234550, 0.0331446379, -0.0137711018, 0.0335791931, -0.0234766398, -0.0319338441, 0.0454187319, -0.0343041793, -0.0038886704, 0.0370919406, -0.0423727632, 0.0154478252, 0.0299172476, 0.0315724388, 0.0109692030, 0.0012900643, -0.0437754467, -0.0403156430, 0.0292340741, 0.0212027356, -0.0335781798, 0.0399671197, 0.0093527623, -0.0217065010, 0.0140018165, -0.0084443577, -0.0034571402, 0.0421396419, -0.0070823543, -0.0463848114, 0.0375543088, -0.0286800098, -0.0349795185, 0.0290096551, 0.0120858662, 0.0347589031, 0.0027165413, -0.0347086117, -0.0281147063, 0.0398138687, 0.0268892646, 0.0141383931, -0.0002410077, 0.0313931033, -0.0037043840, -0.0222409815, 0.0469180644, -0.0228221361, -0.0067179613, -0.0456495397, 0.0386890098, -0.0330460444, -0.0454057157, -0.0107623152, 0.0031929947, 0.0215478018, 0.0365006998, -0.0324394628, 0.0246092677, 0.0375511423, -0.0398203395, -0.0338649005, -0.0358679891, -0.0150527693, -0.0205531046, 0.0466400310, -0.0449348241, -0.0275470894, 0.0369781554, 0.0402594134, 0.0034224018, -0.0003919825, -0.0445307270, -0.0256905761, 0.0447149947, 0.0211857706, 0.0044270866, 0.0234843493, 0.0340209603, -0.0164329596, 0.0301010683, 0.0221974403, 0.0273079947, -0.0114951581, 0.0208485797, 0.0269248784, 0.0123836845, -0.0349639021, -0.0234411322, 0.0356472656, 0.0093618631, 0.0245939419, -0.0157429352, -0.0425431877, -0.0190726444, 0.0375668779, -0.0350131094, 0.0026049726, -0.0444788449, -0.0298002809, 0.0386091471, 0.0375173464, 0.0236670375, 0.0416707546, -0.0050318241, 0.0178341120, -0.0145173892, -0.0371526666, -0.0291685984, 0.0208447576, -0.0029638298, 0.0476288944, 0.0091285631, -0.0008915886, 0.0275461897, -0.0039169714, -0.0340790190, 0.0004330724, -0.0352335013, 0.0358456671, -0.0009350032, -0.0284533817, -0.0280666538, 0.0187630132, 0.0096402466, -0.0452426635, -0.0410658419, -0.0274332203, -0.0425666533, -0.0187626667, -0.0488166139, 0.0277711824, -0.0445133001, -0.0232155677, 0.0175720081, 0.0398685560, 0.0482648611, 0.0373207182, 0.0108354576, 0.0058427937, 0.0043644011, 0.0392651409, -0.0218954384, 0.0384396017, 0.0197483152, -0.0401448943, -0.0380412415, 0.0359728709, -0.0168184601, -0.0244304109, 0.0096042603, -0.0074116066, -0.0394860879, 0.0267261863, -0.0343352333, -0.0253772810, 0.0343146995, 0.0236192271, 0.0318557024, -0.0383037403, 0.0316227078, -0.0404834300, 0.0126295164, 0.0385583192, 0.0250577256, 0.0330244824, -0.0153141916, 0.0324725509, 0.0251787230, 0.0449179560, 0.0204014406, -0.0324559100, 0.0257315710, 0.0272452980, -0.0246379077, 0.0152433738, -0.0377314985, 0.0147001147, -0.0276308227, 0.0294390395, 0.0431597531, 0.0343593210, 0.0030768365, 0.0448025838, 0.0372846052, -0.0145898759, -0.0277376492, -0.0440449752, 0.0069093481, -0.0090258606, -0.0466173962, -0.0227923505, -0.0244160574, 0.0321195796, -0.0479106009, -0.0418104008, 0.0489867553, 0.0217478946, -0.0433588177, 0.0090865046, -0.0234114416, -0.0468169264, 0.0093853734, 0.0183852911, -0.0041737482, 0.0362776518, -0.0209801178, 0.0264129266, -0.0274262819, -0.0253790673, -0.0323282257, 0.0357583463, -0.0489129275, 0.0246130750, -0.0353619605, -0.0282487702, 0.0237723887, -0.0187814701, -0.0147091076, 0.0059564784, -0.0055530369, 0.0379321724, 0.0265382230, 0.0172016472, 0.0084673688, 0.0245216563, 0.0439209715, 0.0483600721, 0.0117221735, 0.0259737596, -0.0129601434, 0.0053227730, -0.0481795706, 0.0339003727, 0.0276742131, 0.0343279019, -0.0034877658, -0.0233452972, 0.0121704526, -0.0253341105, 0.0214231387, 0.0226433948, 0.0100088120, 0.0178877786, -0.0410466194, 0.0102309547, -0.0147972219, -0.0201539733, -0.0085256286, 0.0235323682, 0.0167704895, 0.0367956311, -0.0442052148, 0.0208426416, 0.0407307222, -0.0200199801, -0.0129931644, -0.0154656954, -0.0032198131, 0.0359500870, 0.0233465508, -0.0448962450, -0.0057046302, 0.0296950564, -0.0330795422, -0.0070787594, -0.0119913630, -0.0418196283, 0.0302329957, -0.0079559535, -0.0266202278, 0.0460381731, 0.0049859695, -0.0460621268, -0.0419697538, 0.0046407767, 0.0377838835, 0.0205841884, -0.0351153836, 0.0394077152, -0.0282424502, 0.0449290499, 0.0261685848, 0.0065215006, -0.0330320299, -0.0027738325, -0.0348338932, 0.0208754539, -0.0216133520, 0.0164392740, -0.0149268135, -0.0395798348, -0.0439405665, -0.0320970044, -0.0450219661, -0.0461073853, 0.0186198205, -0.0467740484, -0.0474797487, 0.0221021995, -0.0097975060, 0.0286230892, -0.0231785998, -0.0268159974, -0.0463797413, -0.0139953382, 0.0189201012, -0.0220717601, -0.0387967788, -0.0455483198, -0.0410217755, 0.0372701958, -0.0337781161, -0.0073210038, 0.0031357631, -0.0312853679, -0.0475446209, 0.0211090744, -0.0250967480, -0.0212288331, 0.0288821831, -0.0432064980, 0.0139495134, 0.0415804684, -0.0205852836, 0.0011589080, 0.0251011252, 0.0221491084, -0.0075256005, 0.0248371437, -0.0166251287, -0.0346785598, 0.0287908912, -0.0458619744, 0.0241660103, 0.0074244179, -0.0391852818, 0.0087849945, 0.0292108580, 0.0365038067, -0.0218801256, 0.0273932368, -0.0297918469, -0.0448068902, -0.0278615523, -0.0182729680, -0.0141788200, 0.0088608451, 0.0478141159, 0.0384681225, -0.0015279278, 0.0137775615, -0.0451111346, 0.0039372370, 0.0206665620, -0.0486971848, -0.0474452786, 0.0367070511, -0.0334141776, -0.0303867366, -0.0008101426, -0.0479661189, -0.0329510272, 0.0389933288, 0.0352610424, -0.0467863269, -0.0234053098, 0.0174662322, 0.0074747130, 0.0289116576, -0.0278877839, 0.0193251446, -0.0253242999, 0.0269033536, -0.0214839727, -0.0140415430, 0.0347079784, -0.0443696603, -0.0002640747, 0.0107251592, -0.0249036998, -0.0163813792, 0.0210130066, 0.0166377947, -0.0106390566, -0.0444632620, -0.0010030046, -0.0072399676, -0.0476417840, -0.0002451874, -0.0071373209, -0.0441619866, -0.0470209904, 0.0039493740, -0.0347353704, 0.0107054934, -0.0444769636, -0.0016150512, 0.0136484876, 0.0179798901, -0.0385047048, 0.0307783335, 0.0047832616, 0.0206755251, 0.0063274466, 0.0220381692, -0.0327819958, 0.0362103656, 0.0442045256, -0.0463352650, -0.0001988783, -0.0371867977, -0.0403424054, -0.0441488363, -0.0049975775, 0.0006684288, 0.0195309147, 0.0421639234, 0.0113399662, 0.0094333813, 0.0437540337, -0.0371396430, 0.0442804918, 0.0451220050, -0.0235407278, -0.0435056500, 0.0125332586, -0.0203885678, -0.0405995511, -0.0007326454, 0.0307894573, 0.0289329737, -0.0415729582, 0.0258871838, 0.0144592151, -0.0229987968, 0.0051935576, -0.0123762675, -0.0068304986, 0.0210443959, 0.0193036720, 0.0291242525, 0.0277097076, 0.0095756203, 0.0165895149, 0.0142691880, 0.0109160356, -0.0456097424, 0.0137076080, -0.0481479317, 0.0265561640, 0.0073248670, 0.0099370591, 0.0029394552, 0.0464836359, -0.0332559720, -0.0032415949, -0.0488569103, 0.0043004528, 0.0450348258, -0.0316473469, -0.0319610238, 0.0096397549, -0.0426353179, 0.0267701969, -0.0410598516, -0.0035335608, -0.0012268759, -0.0397829041, -0.0392437391, 0.0153842866, 0.0067822821, -0.0450254120, 0.0111741647, -0.0236160308, -0.0143524446, 0.0355724469, -0.0428605340, 0.0341055468, -0.0040269047, -0.0090697184, 0.0406116024, 0.0207795501, -0.0229810309, -0.0274214111, -0.0194827430, -0.0314993337, -0.0454564095, -0.0383571051, -0.0292763822, 0.0431439430, -0.0343003236, -0.0369663835, 0.0376483724, 0.0036525577, -0.0038800649, -0.0321005881, -0.0374543183, 0.0404441357, -0.0146419704, 0.0141679123, -0.0417843312, -0.0253146049, 0.0320029482, 0.0289371237, -0.0076757036, -0.0345233902, 0.0306235030, -0.0256384816, 0.0426901653, -0.0311015807, -0.0402575955, -0.0145410299, -0.0489836298, -0.0098999999, 0.0261026472, -0.0322828591, -0.0179835819, 0.0178692415, -0.0246639308, -0.0409792960, 0.0318874866, -0.0071707144, -0.0105104595, 0.0024916753, 0.0001492612, 0.0032506473, -0.0189097878, 0.0240293443, -0.0026266500, -0.0415114835, 0.0385864824, -0.0236349292, 0.0353371948, 0.0137110427, 0.0307694376, -0.0211279169, -0.0169615299, -0.0473867878, -0.0351688638, 0.0249943137, 0.0104496516, -0.0204685889, -0.0272105616, -0.0270464215, -0.0410987101, -0.0465146340, 0.0292172357, 0.0247135237, 0.0306864455, -0.0172397010, 0.0142469928, -0.0246339720, -0.0345617235, 0.0327112004, -0.0012659319, -0.0146821626, 0.0166173875, 0.0103632770, 0.0439618453, -0.0245450642, 0.0175316408, -0.0023471713, 0.0019183829, -0.0138391517, -0.0233117640, 0.0008649230, -0.0099397562, 0.0162898302, -0.0471113808, -0.0107910968, 0.0105755404, -0.0474599265, 0.0156970546, 0.0454882979, -0.0016882159, -0.0080456212, 0.0404992700, -0.0357619449, 0.0475825891, 0.0078467689, 0.0403156579, 0.0060514025, -0.0109653398, 0.0410955250, 0.0051359981, 0.0370878875, -0.0040202141, -0.0037962012, 0.0447012559, -0.0102778375, 0.0084296167, -0.0116262212, -0.0294247083, 0.0103356764, 0.0463576987, 0.0234867111, 0.0318411514, 0.0314882025, 0.0479285792, -0.0058091693, -0.0474563986, 0.0280606300, 0.0303039476, -0.0053214654, 0.0432082117, -0.0079603717, 0.0065978430, -0.0089682788, 0.0296993405, 0.0226676315, -0.0377451740, 0.0063598491, 0.0291689634, -0.0080105700, -0.0439919382, 0.0022916794, -0.0156507418, 0.0232922137, -0.0373992473, -0.0018955134, -0.0009971857, -0.0009108596, 0.0245964453, -0.0404567271, 0.0277126208, 0.0384600088, 0.0326343551, -0.0119893439, -0.0064503215, -0.0106141306, 0.0077255070, -0.0340277925, 0.0039840266, -0.0130962767, -0.0324687921, 0.0050623454, -0.0483393893, 0.0245466605, 0.0341352969, -0.0187230818, -0.0164773762, 0.0451666042, -0.0449160188, 0.0042419471, 0.0287252665, -0.0014862902, 0.0413003787, -0.0012097768, 0.0244213864, -0.0026992299, 0.0258007273, 0.0003275909, -0.0167994313, 0.0045266822, -0.0013895780, 0.0155455172, 0.0474144071, -0.0241019335, 0.0386079103, -0.0430102162, -0.0005679540, -0.0305336602, -0.0267089028, 0.0290360525, -0.0167589597, -0.0003956743, 0.0300313681, 0.0015952550, -0.0180159118, 0.0036564730, -0.0045690350, 0.0352117568, -0.0467357747, 0.0351841897, 0.0208472684, 0.0142516345, 0.0253340974, 0.0114883594, -0.0409614928, 0.0234699473, -0.0356980562, 0.0407458544, -0.0075969659, 0.0262781680, 0.0007992908, -0.0391701534, -0.0321070142, -0.0317045748, -0.0269852541, 0.0437255278, -0.0270444490, -0.0254692491, -0.0277799536, 0.0232761949, -0.0286306962, 0.0355991572, 0.0054725483, 0.0376724973, -0.0434136093, -0.0329616927, 0.0223357677, -0.0195379667, -0.0252543837, -0.0266850870, 0.0188911855, 0.0306392834, -0.0082392916, -0.0023703650, -0.0082165264, 0.0254167393, -0.0084308796, 0.0295227170, -0.0351855457, -0.0270787403, 0.0023715347, -0.0433024392, -0.0078803599, 0.0021012351, 0.0073422007, 0.0059357807, -0.0270290188, -0.0146547481, 0.0291524455, 0.0381257460, 0.0254460648, -0.0301999021, 0.0102150925, 0.0027910247, -0.0251339022, 0.0470761880, 0.0323276073, -0.0485489406, 0.0124372393, -0.0051042065, 0.0145638734, -0.0482629314, -0.0231381394, 0.0328802019, -0.0320673138, -0.0295111164, -0.0278493464, 0.0007201359, 0.0464643985, 0.0308125243, 0.0100051314, 0.0245277658, 0.0467308536, 0.0362721160, 0.0283446014, -0.0225447807, 0.0127830394, 0.0205807835, -0.0290605463, 0.0065315925, -0.0392793193, 0.0060063526, -0.0381106324, -0.0117021874, 0.0470567271, -0.0473816022, 0.0132694431, -0.0189994797, 0.0448358431, -0.0172631554, -0.0238738209, -0.0085421428, 0.0207460374, -0.0048141778, -0.0338891260, -0.0051726736, 0.0143227801, 0.0234994143, -0.0386634842, 0.0353186280, 0.0001829453, 0.0466096997, 0.0142647251, -0.0227683596, -0.0440174229, -0.0161879100, -0.0486183465, 0.0463522971, -0.0121564604, -0.0144442953, -0.0271339528, -0.0202883519, -0.0284651890, 0.0000348873, 0.0271238834, -0.0350894853, -0.0254927725, -0.0182987098, 0.0380730703, -0.0075384863, 0.0478509516, -0.0122093707, -0.0017427616, 0.0473563746, -0.0289169401, -0.0113831013, -0.0171914026, -0.0410312340, -0.0485709459, 0.0165331364, 0.0449771509, -0.0072235093, 0.0028637685, 0.0350654274, 0.0382465422, 0.0245860368, 0.0450606048, -0.0379895568, -0.0481405966, -0.0259723682, 0.0036695637, -0.0198583268, 0.0318153054, -0.0351345390, -0.0370504893, 0.0403759107, 0.0471271500, 0.0109015889, -0.0311897770, -0.0427772328, -0.0427552387, 0.0227884948, -0.0261059999, -0.0280710571, -0.0431786776, -0.0339451544, 0.0328768268, -0.0160323419, 0.0412669480, -0.0156945772, -0.0196354240, 0.0482760817, 0.0272666514, 0.0357409641, -0.0485130623, -0.0001712777, -0.0371261314, 0.0370576158, 0.0276165009, -0.0383358374, 0.0011175014, 0.0042410120, 0.0436672866, -0.0370411463, 0.0147005245, 0.0480933860, -0.0088926628, 0.0479150638, -0.0453323647, 0.0365603939, -0.0196626857, -0.0116489269, -0.0162609704, 0.0072243139, -0.0238758530, 0.0353422314, 0.0004622266, 0.0089266971, 0.0482436121, 0.0018269978, 0.0425742641, -0.0062811486, 0.0032373779, 0.0134226978, 0.0427845344, -0.0162472688, 0.0024600476, -0.0284831543, 0.0391411185, 0.0135106370, 0.0286551788, 0.0140774697, -0.0221566390, 0.0470506698, 0.0067040361, -0.0037977286, 0.0295219570, -0.0481624827, -0.0124798007, 0.0097024180, 0.0211199746, -0.0108874775, 0.0200927928, -0.0421764217, -0.0095634386, 0.0280984566, -0.0060140602, -0.0194929633, 0.0324068442, -0.0175365135, -0.0183273498, 0.0307782516, -0.0294829682, -0.0388615206, -0.0191977490, 0.0110133216, 0.0333102643, -0.0312927254, 0.0175446421, 0.0411944315, -0.0026111752, -0.0291266330, -0.0470003970, -0.0334475935, 0.0482776836, -0.0051272735, -0.0190066975, -0.0139633939, -0.0368993618, 0.0140849203, 0.0217086300, -0.0209159590, 0.0411910862, 0.0197683871, 0.0369280949, 0.0227675214, -0.0266546253, -0.0450412408, -0.0400069170, -0.0152661875, -0.0333721191, -0.0458733886, -0.0175871365, 0.0413351953, 0.0241915509, -0.0084274448, 0.0259598717, -0.0454011038, -0.0212586876, 0.0467317477, 0.0197153836, -0.0186158828, 0.0034331940, -0.0109905899, -0.0310237929, -0.0076003671, -0.0252310466, 0.0127643608, 0.0182377547, 0.0153974220, 0.0054443888, -0.0203605704, -0.0087588429, -0.0404516608, 0.0114548728, -0.0131080151, 0.0218975991, -0.0457756594, -0.0452670269, 0.0445205048, 0.0402019620, -0.0057969391, 0.0445390567, -0.0470892265, 0.0006874762, -0.0288249012, -0.0475729443, -0.0061620586, 0.0453359038, 0.0232157037, 0.0349361822, -0.0227108244, 0.0075660720, -0.0472963490, -0.0126744509, -0.0055157878, 0.0334950760, -0.0455373861, 0.0396813378, -0.0355597287, -0.0375057906, -0.0384993814, 0.0474216640, -0.0439219959, 0.0042165294, -0.0242791437, -0.0441422462, 0.0110006481, 0.0104902871, -0.0197092202, 0.0483385175, -0.0102476552, 0.0081909224, 0.0018466562, -0.0173616633, -0.0468726978, -0.0366459042, 0.0398645326, 0.0281912088, 0.0027714483, -0.0409324467, 0.0222760811, 0.0360181332, -0.0067339391, 0.0325412899, 0.0440508127, -0.0159825049, -0.0129323788, 0.0289742574, 0.0035350323, -0.0255223587, 0.0268898830, 0.0357206762, -0.0225104522, 0.0379247591, 0.0060320124, 0.0354290158, -0.0195752252, 0.0479885638, -0.0242405180, -0.0076830983, 0.0451235995, 0.0288498402, 0.0157813132, -0.0114376582, 0.0343747362, -0.0138872154, 0.0411932766, -0.0012782216, -0.0274041947, -0.0291922037, 0.0248768702, 0.0202678889, 0.0178129002, -0.0134880617, -0.0361810252, -0.0433258675, 0.0418180078, 0.0478565842, 0.0175186694, -0.0347867981, -0.0120045021, 0.0190827325, -0.0075937919, -0.0344807208, 0.0315792039, 0.0172998682, -0.0488113463, 0.0174515918, 0.0187097341, -0.0101660118, 0.0340049937, 0.0461351052, -0.0253895912, 0.0077441372, -0.0338526368, -0.0231699795, -0.0196732916, 0.0324924365, -0.0401138477, -0.0188404433, -0.0429696031, -0.0100257583, -0.0358016454, 0.0272705406, -0.0350695625, 0.0040266477, -0.0027115531, 0.0438924655, 0.0067862310, 0.0061945505, 0.0314664766, 0.0324611887, -0.0139441304, -0.0194691364, -0.0255607162, 0.0056839474, -0.0206022896, 0.0119230710, -0.0379736945, -0.0317726508, 0.0446841121, 0.0203023553, 0.0019301102, -0.0160691589, 0.0020006448, -0.0090373084, 0.0172535032, -0.0168805718, 0.0452300683, -0.0170608908, 0.0156645924, 0.0463963598, 0.0137787685, -0.0295604542, 0.0409679264, -0.0176646821, -0.0431716219, 0.0354230553, 0.0378059000, 0.0082993247, -0.0395829640, -0.0073235966, -0.0117143802, -0.0388983823, -0.0031268634, 0.0175647661, -0.0434229523, 0.0337581933, -0.0050536320, 0.0384873152, 0.0463752076, 0.0035872571, -0.0424601994, 0.0400157794, 0.0006882474, -0.0351744257, 0.0163689628, 0.0316384658, -0.0467224121, 0.0089394413, -0.0050906315, -0.0190011375, 0.0006686039, 0.0214957818, -0.0037462562, 0.0112555772, 0.0141925290, -0.0076537430, -0.0212893821, 0.0242127851, -0.0207110196, 0.0395679474, 0.0489753559, 0.0036351681, -0.0103250369, -0.0451569557, 0.0261780769, 0.0306186229, 0.0297249332, -0.0362971015, -0.0198267326, 0.0077889189, -0.0451359525, -0.0087568574, -0.0340678990, 0.0200304911, 0.0418923944, -0.0023974515, -0.0071188658, -0.0202908516, 0.0297541767, 0.0371718332, 0.0158255920, -0.0057565607, 0.0149631873, -0.0126655251, 0.0336328298, 0.0383370370, 0.0186707675, 0.0216574594, -0.0309845470, 0.0434523374, -0.0340952091, 0.0433863625, 0.0207091942, 0.0116099268, -0.0176554546, 0.0227646902, 0.0250527859, -0.0054997765, 0.0481327847, -0.0384008139, -0.0002541468, -0.0201367456, -0.0402076989, -0.0142823532, -0.0097665302, -0.0145444870, 0.0194540471, 0.0070165396, -0.0096784867, 0.0435956195, 0.0190748945, 0.0406985730, -0.0211515110, -0.0150044970, 0.0100907572, -0.0318187848, -0.0075140521, -0.0442272313, -0.0070615746, -0.0489082336, -0.0218752902, 0.0211762264, -0.0236782730, 0.0388554558, 0.0199646428, -0.0229321271, -0.0323817283, -0.0044767633, 0.0039768107, -0.0468379632, -0.0410122573, 0.0113056600, 0.0312399566, 0.0344756022, 0.0245268196, 0.0486022606, -0.0329930298, 0.0056368522, 0.0468968451, 0.0057035089, 0.0254925191, 0.0405717045, 0.0114679337, -0.0281410553, -0.0267993063, -0.0164520666, -0.0132258758, -0.0170633905, 0.0054604933, -0.0090290606, -0.0118906125, 0.0456231683, -0.0211603753, 0.0005907305, 0.0142334923, -0.0026854239, 0.0362130851, 0.0361843854, 0.0070514716, -0.0431137457, -0.0143400878, 0.0272004008, -0.0417641252, -0.0294660442, -0.0217607543, -0.0309048779, -0.0410835966, -0.0048229136, 0.0267865732, 0.0356775820, 0.0094867907, 0.0096626244, 0.0160387680, 0.0043706484, 0.0216792077, -0.0220031515, -0.0230883472, 0.0165507495, -0.0033953153, 0.0041361712, -0.0314621218, 0.0054165535, -0.0150063410, 0.0410584733, -0.0348874442, -0.0007339306, -0.0036590658, -0.0432426482, 0.0328407660, 0.0148162916, 0.0215679780, -0.0203908104, -0.0420167297, 0.0050554313, 0.0327898189, -0.0100628771, 0.0103736706, 0.0268384665, 0.0473166481, 0.0216690674, -0.0367273241, 0.0334613174, -0.0340158641, 0.0272343680, -0.0206569172, 0.0181323886, 0.0455484614, -0.0027494803, -0.0389512368, -0.0142554753, -0.0483676791, -0.0419158861, -0.0152949914, -0.0465642512, 0.0289678648, 0.0301280096, -0.0317480639, 0.0333658010, 0.0134447962, 0.0076745823, 0.0169971064, -0.0357094780, -0.0055328980, -0.0277340058, 0.0314883217, -0.0131516494, -0.0236147102, -0.0014610030, -0.0096735805, -0.0433068536, -0.0183158554, -0.0102299005, -0.0108419620, 0.0011513047, -0.0207252335, -0.0165491290, -0.0370942429, 0.0290612578, -0.0304034166, 0.0143395141, -0.0278743524, -0.0054684505, -0.0377786383, -0.0271177758, -0.0045824200, 0.0164824128, -0.0142379776, -0.0305675920, -0.0072846189, 0.0044250563, -0.0421660952, 0.0083545595, 0.0211962536, -0.0187845435, 0.0300131589, 0.0406108126, 0.0203134194, -0.0160873905, -0.0077392794, -0.0007594973, 0.0278527662, -0.0253848266, -0.0228753034, -0.0020564869, 0.0098458491, 0.0477206632, -0.0271586329, 0.0443367660, 0.0249495655, 0.0020323209, -0.0469793044, 0.0123489127, -0.0115213469, 0.0064387470, 0.0253266841, -0.0209297985, -0.0292509664, -0.0064231418, 0.0222371742, -0.0483051538, 0.0026342310, 0.0468615592, 0.0395521075, -0.0477745980, -0.0121660978, -0.0319546610, -0.0132663250, 0.0238834918, 0.0188623443, 0.0328436196, 0.0089203902, -0.0130618289, 0.0260249674, 0.0146494806, 0.0187549368, 0.0304314569, -0.0019624382, -0.0273134988, 0.0151174292, 0.0059152916, 0.0083527043, 0.0084602647, -0.0422434770, 0.0284069628, -0.0093686953, 0.0346745625, -0.0308721736, 0.0401419178, 0.0381150693, -0.0329534113, 0.0208985582, 0.0401874334, 0.0275274217, 0.0096276887, 0.0219845697, 0.0114895180, 0.0071331412, -0.0225586090, -0.0222944636, 0.0261977687, 0.0103348233, 0.0178168342, -0.0336238593, -0.0427902080, 0.0341426283, 0.0436940119, -0.0259583648, -0.0441461504, -0.0184354726, -0.0294689164, -0.0070163757, -0.0227609426, 0.0461870804, 0.0206452161, -0.0098727010, -0.0387615152, 0.0472877845, 0.0126897134, 0.0395336300, 0.0239697024, 0.0362502858, -0.0163187981, -0.0420398228, 0.0429274365, 0.0408559665, -0.0292474162, -0.0283850171, 0.0087686181, 0.0287756473, 0.0213162005, 0.0355532542, -0.0364603326, 0.0189392343, 0.0419992954, -0.0433797128, -0.0151620731, 0.0034380294, 0.0372796506, -0.0115899183, -0.0410057157, -0.0322146937, -0.0229545999, 0.0073195063, 0.0122921132, -0.0150183588, 0.0289761201, -0.0140753910, 0.0201680139, 0.0037096627, -0.0075360090, -0.0363906138, -0.0080504231, -0.0201947596, 0.0085463598, -0.0050288811, 0.0279118568, -0.0049091615, 0.0154153332, 0.0447050408, 0.0352142081, 0.0061876364, 0.0019819699, 0.0029561445, -0.0071026683, -0.0256945938, 0.0212683901, -0.0447611623, 0.0362193212, 0.0049805939, 0.0457015410, -0.0462356918, -0.0368336141, 0.0015665069, -0.0367750525, -0.0474737212, -0.0063505732, 0.0447165444, 0.0479623303, 0.0026746690, -0.0330573395, -0.0143707804, -0.0434524678, 0.0424699262, -0.0269747879, 0.0403788909, 0.0100727230, -0.0484612025, -0.0385125652, 0.0275355577, -0.0205074716, -0.0362344384, -0.0450864881, -0.0278010610, -0.0440940894, 0.0048411228, -0.0033326410, 0.0397586599, 0.0230373144, -0.0183529761, -0.0093531720, -0.0069123507, 0.0103468075, 0.0005311854, 0.0380998775, 0.0044631101, 0.0119422823, 0.0130469501, -0.0255593378, 0.0422071293, 0.0091012679, 0.0063839443, 0.0339973196, 0.0012866780, 0.0342631713, -0.0265601110, 0.0338109136, -0.0189651288, 0.0328898355, 0.0372812748, 0.0033079498, -0.0462859869, -0.0244654398, 0.0058972239, 0.0145488679, -0.0298527703, -0.0197109357, 0.0249901563, -0.0459187403, 0.0063575357, 0.0239096209, -0.0187660065, -0.0327325761, -0.0485292971, 0.0388723239, 0.0384412855, 0.0446868762, -0.0427878723, -0.0012295730, -0.0448247492, -0.0138568580, 0.0328003764, -0.0124332309, 0.0075470246, 0.0048887916, 0.0101840943, -0.0483270101, 0.0078584142, -0.0403008461, -0.0196749270, -0.0234565046, -0.0419146940, -0.0283880308, -0.0044209100, 0.0477144271, -0.0464590155, -0.0081000179, 0.0068251006, -0.0141627602, -0.0086311102, 0.0428769588, -0.0021160208, -0.0100045577, -0.0356985778, 0.0388908163, 0.0152729303, 0.0440128818, 0.0475929752, -0.0086677633, 0.0208412260, -0.0113371499, 0.0173480809, 0.0041132309, 0.0238154903, -0.0135534555, -0.0360072851, 0.0317250416, -0.0023380704, -0.0461890884, 0.0457939059, 0.0101206936, 0.0378413498, 0.0420398936, 0.0202082172, 0.0474065170, 0.0445276797, 0.0385957062, 0.0166692957, 0.0273621604, -0.0081648640, -0.0292595159, -0.0470728129, -0.0175546668, 0.0434467942, 0.0389644802, 0.0352838635, -0.0048818514, -0.0195667818, -0.0357287712, -0.0010794029, 0.0184811726, 0.0169235766, 0.0252086520, -0.0166702978, -0.0069524609, -0.0196115617, 0.0187909082, 0.0396197215, 0.0285133570, -0.0347653553, -0.0345116034, 0.0165834352, -0.0202539433, 0.0215061978, 0.0396809503, -0.0343558602, 0.0433609784, 0.0169158131, -0.0117091946, -0.0076862164, -0.0310965348, 0.0456642658, -0.0210074726, -0.0134566873, -0.0434122421, 0.0426956490, -0.0370160230, 0.0242657363, -0.0049038790, -0.0253026914, -0.0366146341, 0.0054660998, 0.0394722596, -0.0167588331, -0.0084288940, -0.0009948276, 0.0101580583, 0.0124999620, -0.0240972731, -0.0430041291, 0.0471711978, 0.0408664644, 0.0016738027, -0.0051257797, 0.0474913716, 0.0372334272, -0.0250104442, 0.0300266072, 0.0140223801, 0.0047222897, -0.0356960110, -0.0110982694, -0.0217181928, -0.0312006753, 0.0324594751, -0.0024049729, 0.0421462134, 0.0024331808, -0.0459654741, -0.0193229485, 0.0460106730, -0.0059604943, -0.0158568397, -0.0199758410, 0.0441865027, -0.0479936264, 0.0468253121, -0.0168862715, 0.0374149308, 0.0045546480, -0.0017943159, 0.0441211388, 0.0391664207, -0.0473456718, -0.0316761248, -0.0390248075, -0.0010673851, -0.0236913785, 0.0451110527, -0.0057143271, 0.0262612626, -0.0388677120, -0.0199451800, -0.0369115435, 0.0005460568, -0.0119782798, 0.0220304951, -0.0151437819, -0.0437866002, 0.0153792500, 0.0345504135, -0.0271686893, 0.0353955775, 0.0422583073, -0.0287387259, -0.0272131432, 0.0245832130, -0.0148307309, -0.0241954792, -0.0423843265, 0.0084484555, -0.0320298225, 0.0195103660, -0.0298545118, 0.0325569287, 0.0460698083, 0.0309015214, -0.0103939734, 0.0280542523, -0.0181911606, -0.0162686668, -0.0066748261, -0.0059036724, -0.0040367171, -0.0380472317, 0.0337902158, -0.0360438675, 0.0227256566, 0.0058889315, 0.0224737301, -0.0170255937, 0.0064827800, 0.0479933247, -0.0304716174, 0.0246399641, -0.0024384968, 0.0116667487, -0.0229132976, 0.0157845020, 0.0025400557, -0.0187242851, 0.0487463698, 0.0036891513, -0.0193781015, 0.0464299694, 0.0045829341, 0.0437501371, -0.0056080483, 0.0420983732, 0.0300507098, -0.0072131008, 0.0445011184, 0.0473500863, -0.0360682420, -0.0148590207, -0.0432325564, 0.0348801911, 0.0043879375, 0.0315785483, -0.0230954718, 0.0452791899, -0.0029863045, -0.0133331455, 0.0265733674, 0.0420556143, 0.0303708315, 0.0481746346, -0.0054857247, -0.0422473885, 0.0246706679, -0.0117532872, 0.0141225085, -0.0029395595, -0.0404170044, 0.0108587220, -0.0098130181, -0.0209309086, -0.0035665482, -0.0132110305, 0.0064750612, -0.0459346473, 0.0452309325, -0.0315229967, 0.0435327142, 0.0458573028, 0.0467926115, -0.0367529169, 0.0259402618, -0.0144795105, 0.0270649493, -0.0182829760, 0.0473182499, 0.0013682283, -0.0188547168, -0.0293799266, -0.0461535789, 0.0001353733, 0.0047322288, 0.0425116047, 0.0367782414, -0.0330054238, -0.0072659552, -0.0130416602, -0.0081878044, -0.0334285200, 0.0435819924, 0.0017368607, -0.0186117589, 0.0406216979, 0.0388924256, 0.0374293923, -0.0407694057, 0.0038352720, 0.0169452578, -0.0136018470, 0.0358604193, 0.0461597368, 0.0002894774, -0.0139662065, -0.0387420915, -0.0122581013, -0.0000779070, -0.0116991177, -0.0145159662, -0.0369726904, 0.0257912204, -0.0452141985, 0.0418432802, -0.0038195252, 0.0267900079, 0.0282901525, 0.0148729682, -0.0364724100, -0.0082678609, -0.0262175575, 0.0473811999, 0.0427646860, -0.0091934130, 0.0438496172, 0.0088007860, -0.0488268696, 0.0121052340, -0.0355003215, -0.0267826859, -0.0462199934, 0.0326740667, -0.0119042993, -0.0361456573, 0.0001902580, 0.0015645213, -0.0107234791, 0.0445682108, -0.0115272216, 0.0074110106, 0.0114920996, -0.0082180202, 0.0387427956, 0.0051269233, 0.0033131577, -0.0049849749, -0.0351383202, -0.0177941192, -0.0417822190, 0.0254199728, 0.0459160432, 0.0261265710, 0.0192150921, -0.0305169821, -0.0150706284, -0.0194763076, 0.0281810462, -0.0321308747, -0.0289079119, -0.0324328393, -0.0217125397, 0.0322331116, 0.0437203273, 0.0462482348, 0.0100577138, -0.0058289431, 0.0094626732, -0.0055994540, 0.0329714939, -0.0429659821, -0.0143754408, 0.0390486047, 0.0074828081, -0.0121391639, -0.0080225877, 0.0177818164, 0.0376377627, 0.0294697955, -0.0032470860, -0.0347424969, 0.0159870014, 0.0009731017, 0.0462835804, -0.0293075796, -0.0440803319, -0.0372740477, 0.0078373775, -0.0374755412, -0.0037822202, 0.0028050169, -0.0063947849, -0.0395439193, 0.0168864951, 0.0238834247, 0.0483273342, -0.0070967898, 0.0031350367, 0.0413088277, -0.0470216796, -0.0099992566, -0.0136127695, 0.0413061604, 0.0277199075, 0.0150764659, -0.0264968053, 0.0345931277, -0.0202557426, -0.0271242000, -0.0057724230, 0.0182601437, -0.0438334607, 0.0160204545, -0.0387154520, -0.0389375687, 0.0099951923, 0.0172927082, -0.0374759845, 0.0310302749, -0.0058967918, -0.0096634999, 0.0371966511, -0.0008136928, 0.0334575325, 0.0133394785, -0.0358271077, 0.0262822285, -0.0034948438, -0.0330966190, 0.0287837163, -0.0463515706, -0.0459011048, -0.0482939072, 0.0442509875, 0.0420453846, -0.0375119708, -0.0256895013, -0.0366669968, -0.0166396834, 0.0323889628, -0.0349336155, -0.0151984431, 0.0045213103, 0.0148757324, 0.0111825652, -0.0148169473, 0.0439461172, -0.0179844815, 0.0382295251, -0.0358457379, -0.0193006732, 0.0186945274, 0.0071495622, -0.0077664554, -0.0403344035, 0.0029809661, -0.0461898819, -0.0466426238, 0.0357557088, -0.0003789961, -0.0241925474, -0.0177393146, 0.0299567506, -0.0368086994, -0.0320051759, -0.0149144083, -0.0278738160, 0.0478537455, 0.0155939907, 0.0223890170, -0.0339988470, -0.0149260759, 0.0045884363, -0.0035523102, -0.0049051754, 0.0031105094, 0.0438284650, 0.0003903024, -0.0455961153, -0.0151299760, 0.0374618843, -0.0186198894, -0.0334849954, -0.0487557836, 0.0137974545, -0.0369453207, 0.0236206576, -0.0433099009, 0.0039297268, 0.0324532613, 0.0124527477, -0.0027565211, -0.0219216123, -0.0164434016, 0.0188476518, 0.0061458461, -0.0238918550, -0.0010655262, -0.0372651704, 0.0319989473, -0.0278955996, 0.0092337802, -0.0445611663, -0.0100142658, 0.0119290948, 0.0214638934, 0.0286542922, 0.0065846220, -0.0320515446, -0.0093428232, -0.0061616600, 0.0196148008, 0.0187513679, 0.0370833799, -0.0136288851, 0.0010778606, -0.0080536120, -0.0421090052, 0.0039207451, 0.0277397409, 0.0038101822, 0.0332599431, -0.0081367381, 0.0181896910, -0.0457068309, 0.0122530423, 0.0110463053, -0.0044503883, 0.0345317200, -0.0133711174, 0.0114557967, 0.0200637802, 0.0070940591, -0.0442426130, -0.0373045430, 0.0116482489, 0.0163905323, 0.0433903337, -0.0290330276, -0.0073989332, -0.0305942800, -0.0318494663, 0.0224532187, -0.0096101463, 0.0086353160, -0.0182640795, 0.0105678886, -0.0349642299, -0.0282740109, -0.0277029835, 0.0458399504, -0.0178936217, 0.0483210981, -0.0451022796, -0.0111517869, -0.0025801286, -0.0451987907, -0.0358519144, -0.0221837498, 0.0259177759, -0.0121179298, 0.0204231441, -0.0488464683, 0.0225835964, -0.0040329099, -0.0277639404, -0.0246989243, 0.0287401006, 0.0231488124, -0.0422262959, -0.0154311098, -0.0056526661, 0.0293045789, -0.0042592809, -0.0371479392, -0.0327839702, 0.0285205171, 0.0128628500, -0.0015293770, 0.0345236361, 0.0346434265, 0.0187027156, -0.0118971504, -0.0324686393, 0.0040832162, 0.0183087513, -0.0020772666, -0.0441958718, -0.0226830952, 0.0354300290, -0.0267708655, 0.0201849639, 0.0481856018, 0.0162190497, -0.0182759576, 0.0436237901, 0.0038963221, -0.0305229854, -0.0058000572, -0.0415157005, 0.0410098732, 0.0172518268, -0.0066308379, -0.0132842176, -0.0177145079, 0.0386918709, -0.0153506473, 0.0451591164, 0.0178760663, 0.0243502781, -0.0413350351, 0.0326957926, -0.0444643609, 0.0296977907, -0.0346887559, 0.0262145773, 0.0149950087, 0.0409877822, -0.0194934644, -0.0051494874, -0.0485969000, -0.0116500817, 0.0333995521, 0.0124085620, -0.0294146389, -0.0070944540, -0.0280371141, 0.0262297988, -0.0086312965, -0.0217932370, -0.0377495065, -0.0315385088, -0.0373415351, -0.0327906832, -0.0476728790, -0.0236031581, -0.0377637111, -0.0401113592, 0.0171135291, -0.0224725045, 0.0295619220, -0.0045860298, -0.0260442607, 0.0228814483, -0.0249118991, -0.0213032588, 0.0247820392, -0.0322073102, -0.0197289828, 0.0372754857, -0.0128086880, -0.0317856967, -0.0202532653, -0.0266427584, 0.0369537100, -0.0314885452, -0.0178352334, 0.0056247041, 0.0093703754, -0.0321856104, -0.0219038483, -0.0138003379, 0.0382501632, 0.0110589080, 0.0096177161, -0.0002741665, -0.0399874672, -0.0119564384, 0.0158048347, -0.0029204264, 0.0343782753, -0.0449014865, -0.0166167095, -0.0070838965, 0.0289504156, -0.0253650863, 0.0048663281, -0.0466691144, 0.0007709898, 0.0452873185, 0.0116087124, -0.0256401990, 0.0146427155, 0.0294070467, 0.0132115707, -0.0222574733, 0.0117844604, -0.0472595915, 0.0061467215, -0.0428462140, -0.0391880386, 0.0188557431, -0.0393726192, -0.0187769048, 0.0438359156, -0.0370408446, -0.0154588521, 0.0359583646, -0.0175166465, -0.0282617453, 0.0105412006, 0.0245894343, -0.0254091676, 0.0211907923, -0.0420035794, 0.0330803022, 0.0130400583, 0.0456737429, 0.0050092712, -0.0133935437, 0.0067071430, -0.0272044539, 0.0201908946, 0.0349673331, 0.0036841072, -0.0088078193, 0.0269413516, -0.0309524611, 0.0143200085, 0.0289409161, -0.0423818156, -0.0026496127, -0.0417441651, -0.0441398658, -0.0402624644, -0.0474043749, 0.0017747767, 0.0158087537, 0.0385343060, -0.0082452334, 0.0309834704, 0.0441144705, -0.0029064007, -0.0407629907, -0.0453336500, -0.0324242935, -0.0061587058, 0.0141494423, -0.0167517178, 0.0274539888, -0.0057660453, 0.0109648257, 0.0038457923, 0.0003604703, -0.0268456526, -0.0079763606, 0.0024856366, -0.0254700445, 0.0228464678, -0.0314008743, 0.0049524345, 0.0345746428, -0.0295359604, -0.0353603363, -0.0375157557, 0.0390149653, 0.0396415889, 0.0435147956, 0.0175386518, 0.0029273294, 0.0356362313, 0.0187662169, 0.0167518109, -0.0268394984, 0.0147856474, -0.0072481073, 0.0035218596, 0.0147667751, 0.0103249438, -0.0350684635, 0.0157696679, 0.0101006404, -0.0054151043, 0.0225315914, 0.0302807391, -0.0107298195, 0.0342706293, 0.0020560920, -0.0381431505, -0.0189390238, 0.0050459802, 0.0165376365, 0.0283406228, -0.0150320716, -0.0375530124, -0.0041236505, -0.0433724709, -0.0264826603, -0.0012878105, 0.0163910463, -0.0256482940, -0.0321862027, 0.0350630209, 0.0425724089, 0.0158723742, 0.0195940286, 0.0303864256, 0.0044157244, -0.0394234732, -0.0334675200, 0.0417807922, 0.0289553702, -0.0427537560, 0.0036617853, 0.0235623270, -0.0380745530, 0.0483216047, 0.0450915918, 0.0260646790, 0.0088780038, -0.0128514841, 0.0060825422, 0.0201916322, 0.0447409451, -0.0163372047, -0.0227594022, -0.0102965608, 0.0441604555, 0.0279751271, 0.0152855292, -0.0415933728, -0.0033218041, -0.0265246499, 0.0175478905, -0.0276789684, 0.0012546256, -0.0126866065, -0.0083224177, -0.0109279156, -0.0441926010, -0.0273663271, 0.0433292240, -0.0473298579, -0.0350612327, 0.0158626214, -0.0147498585, -0.0295717139, -0.0397773460, 0.0466413870, 0.0367379412, 0.0309873596, 0.0118365549, -0.0423668288, 0.0361391529, 0.0060877018, -0.0209945776, -0.0044200681, 0.0126203597, -0.0173354410, 0.0434478447, 0.0416715145, 0.0239416733, -0.0111277848, -0.0422387570, 0.0217324197, -0.0048280060, 0.0421439931, -0.0172175430, -0.0217154939, 0.0125452317, -0.0092542768, -0.0037143230, 0.0263328776, 0.0127607882, -0.0165063553, 0.0219947547, 0.0414870009, 0.0086305030, -0.0391823724, -0.0240152553, -0.0029257759, -0.0103639662, 0.0172822997, 0.0180011019, 0.0198346600, 0.0385340154, 0.0323563814, -0.0080138892, -0.0402650237, 0.0275848508, -0.0121333003, -0.0140466727, -0.0177675001, 0.0079997554, -0.0195151437, -0.0112342723, 0.0015371330, -0.0385010839, -0.0233368054, 0.0261702314, 0.0229461417, 0.0122626089, 0.0069168136, -0.0141343176, -0.0190234818, 0.0047399029, -0.0442411788, -0.0462058708, 0.0434140787, -0.0397122987, -0.0163779557, 0.0207552984, -0.0188950822, -0.0412081778, -0.0094151720, -0.0133242346, 0.0010472350, -0.0207113121, -0.0487790182, -0.0033235326, 0.0413093865, 0.0397461504, -0.0308629572, -0.0085590221, 0.0461601093, 0.0435541421, -0.0194461606, -0.0120879449, 0.0217838734, -0.0126203001, -0.0385191068, -0.0211565793, -0.0207333528, -0.0037115440, 0.0122129470, -0.0143411160, 0.0100219846, 0.0340092704, -0.0339671709, -0.0075709894, -0.0276582483, 0.0340834484, -0.0141069293, -0.0136806518, 0.0073223338, -0.0317766890, -0.0152323060, -0.0386567824, -0.0338099003, -0.0302157886, 0.0169353858, 0.0351454914, 0.0205708146, 0.0207033679, 0.0032126643, -0.0248182602, 0.0317479894, -0.0108389482, 0.0447937399, 0.0472864434, 0.0132287741, -0.0283696465, 0.0416501611, -0.0447194763, -0.0142068528, 0.0276274681, -0.0058783479, 0.0184984729, 0.0185375661, -0.0247541834, 0.0188343450, 0.0368700176, -0.0472121574, -0.0444053784, 0.0062554516, -0.0036300868, 0.0378712863, -0.0043321773, -0.0391667560, -0.0487466864, -0.0114764236, 0.0011753887, 0.0144682974, 0.0284637064, -0.0066522360, 0.0321793109, -0.0141699761, 0.0312853232, -0.0414407291, -0.0069362149, 0.0123692602, -0.0179429930, -0.0089870133, 0.0249975398, 0.0181337371, 0.0074877478, 0.0182938501, -0.0472839549, -0.0067428499, 0.0099103935, -0.0068935826, 0.0099285804, 0.0012964532, 0.0361091197, -0.0204552151, -0.0022370517, 0.0445582420, 0.0045354553, -0.0390521884, -0.0093377419, -0.0359148607, 0.0123462863, 0.0136115775, 0.0304945931, 0.0116471276, -0.0384992175, -0.0483214855, 0.0004090481, 0.0014070272, 0.0165253133, 0.0204634219, 0.0334153250, 0.0283548832, 0.0080161057, 0.0331871882, 0.0201321319, 0.0298733041, 0.0397103205, -0.0120059066, 0.0366282538, -0.0335580185, -0.0030964948, -0.0102108866, -0.0224336553, 0.0145233497, -0.0325707495, 0.0002133586, -0.0222967416, -0.0015469082, 0.0065197274, 0.0227860063, 0.0335308388, -0.0362161919, -0.0212962143, -0.0111055821, -0.0277607515, 0.0330232680, -0.0312582813, -0.0394329913, 0.0383526087, -0.0315189362, 0.0228189901, 0.0267433450, -0.0312251449, -0.0052387007, 0.0321262479, -0.0166680440, 0.0201606750, 0.0235837251, -0.0097215138, 0.0042333044, -0.0133595094, -0.0080354512, 0.0280465037, -0.0314446241, 0.0015138909, -0.0038980283, -0.0207792781, 0.0205919445, 0.0219149813, 0.0015144385, -0.0293029901, -0.0154344402, -0.0285211951, -0.0206799395, -0.0084961802, -0.0272740778, -0.0073982328, 0.0379009023, -0.0122731440, 0.0396618024, -0.0422666855, 0.0319971517, -0.0203463789, 0.0097214468, -0.0103010796, -0.0396626703, 0.0309007987, -0.0475360677, 0.0049976148, 0.0186710581, -0.0171790011, 0.0379144773, -0.0182120670, -0.0035407096, 0.0088969730, -0.0312521607, 0.0418295115, -0.0295710117, 0.0003889017, 0.0085513704, -0.0137184262, 0.0321364030, 0.0059488863, 0.0241213813, -0.0171411335, 0.0288276076, -0.0033992305, -0.0371928215, 0.0125640482, 0.0184601992, 0.0300282091, -0.0145463794, 0.0332417563, -0.0277448203, -0.0484417304, 0.0165559277, -0.0164692588, 0.0203743204, -0.0404085591, -0.0392052419, -0.0221697558, -0.0281308237, 0.0395602733, -0.0183654036, -0.0200551841, -0.0369067192, -0.0048252754, -0.0092136525, -0.0020685643, -0.0486667603, 0.0454238579, -0.0392209999, 0.0239933804, 0.0263794214, -0.0190629382, 0.0177921429, 0.0351731628, -0.0078768358, -0.0155430511, 0.0398967043, 0.0364662409, 0.0288221687, 0.0044871569, 0.0296495929, -0.0037168004, -0.0303005856, 0.0206238031, 0.0183856562, -0.0162419640, 0.0260071158, 0.0294631496, -0.0393180139, 0.0070727654, -0.0010628067, 0.0467544273, -0.0219299290, 0.0018723272, 0.0081823729, 0.0385995805, 0.0117889009, -0.0273706727, -0.0270643048, 0.0345987454, -0.0390460566, -0.0360651128, -0.0028402917, -0.0451952070, 0.0415113419, -0.0388220549, -0.0424298421, 0.0453608036, 0.0051627122, 0.0175452530, -0.0476533733, -0.0319572762, 0.0312496498, -0.0235047899, -0.0197803043, 0.0141788870, -0.0412481576, 0.0399847627, -0.0413846523, 0.0355452672, -0.0435356200, 0.0359033570, -0.0075711645, 0.0001595132, 0.0305482000, -0.0268375706, 0.0092755333, -0.0480398908, -0.0307940226, 0.0175016597, -0.0266376194, -0.0049895756, 0.0374284014, -0.0231520273, -0.0246725976, 0.0427028909, -0.0465132669, -0.0283272248, 0.0269877315, -0.0210455731, -0.0261336472, 0.0212134495, -0.0243300218, -0.0098445080, 0.0104788505, -0.0306689404, -0.0108754970, -0.0436968729, -0.0139645711, -0.0016689189, 0.0002286136, -0.0069346018, 0.0047896244, -0.0116624981, -0.0299225952, 0.0097874030, -0.0273738727, 0.0223138183, -0.0283112228, 0.0023663603, -0.0245492328, 0.0090861768, 0.0365768299, 0.0055441111, 0.0171622187, -0.0140257515, -0.0469684750, 0.0226998180, 0.0055955052, -0.0263857506, -0.0366644636, 0.0215675086, -0.0439870432, -0.0381427296, 0.0006486513, -0.0090857930, 0.0479625687, 0.0327733606, 0.0407973677, 0.0358238220, 0.0473245904, 0.0442345068, -0.0447990187, -0.0335530564, 0.0198785141, -0.0114481561, 0.0209490731, -0.0169586539, 0.0328688249, -0.0230559818, 0.0193302333, 0.0308519527, -0.0081819296, -0.0111556314, 0.0089059547, -0.0236221496, 0.0022770315, -0.0028743371, 0.0287252143, -0.0473976023, 0.0480887964, -0.0045625754, -0.0002661087, 0.0437587798, 0.0236398354, 0.0246287957, -0.0467529781, 0.0122921132, -0.0471113361, -0.0383252539, 0.0439961627, -0.0078092888, -0.0306668133, -0.0441595912, -0.0183892548, 0.0077878311, 0.0388205126, -0.0488133207, 0.0405764282, 0.0354934558, -0.0054838322, -0.0045792572, -0.0175827667, 0.0082512498, 0.0340735391, -0.0074860305, 0.0263358727, 0.0100762025, -0.0006156564, 0.0060781352, -0.0433249585, 0.0096393451, 0.0129588358, 0.0424218401, 0.0241373554, -0.0418595411, 0.0248079449, 0.0485671535, -0.0019279718, -0.0128208585, 0.0120943449, -0.0170892626, -0.0044805929, 0.0324772522, 0.0022833385, 0.0268293694, -0.0366983823, -0.0086201057, -0.0436189808, 0.0215959027, 0.0422595143, -0.0288762003, -0.0388526209, 0.0454228148, 0.0059647113, 0.0225293040, -0.0307116881, 0.0332707092, -0.0038584322, -0.0367926061, -0.0021037236, -0.0459103212, -0.0277435593, -0.0125815235, -0.0306437686, 0.0022350177, 0.0138883963, -0.0235711206, 0.0250416994, 0.0135062933, 0.0190860629, 0.0096922331, -0.0157492161, -0.0225383788, 0.0143878460, 0.0113077387, 0.0416354463, -0.0113303624, 0.0441979468, -0.0112752095, -0.0211779065, 0.0168446228, -0.0377247334, 0.0262839198, 0.0187709704, -0.0244982615, -0.0257960223, -0.0084593296, -0.0302980859, 0.0367849097, 0.0266330764, -0.0473578423, -0.0259614475, -0.0288184192, 0.0173194632, 0.0332631171, 0.0399402082, 0.0416920856, 0.0379358083, 0.0071391538, 0.0483779833, -0.0060896762, 0.0063277520, -0.0378439426, -0.0281078257, 0.0118090957, -0.0149747133, 0.0285340995, -0.0419339426, 0.0440933332, -0.0375332758, 0.0108570531, 0.0481396988, 0.0340594575, -0.0456797443, 0.0229952335, 0.0176690966, 0.0399097726, 0.0344778970, -0.0000768565, -0.0403981656, 0.0109665543, -0.0023573451, -0.0473825932, -0.0454104021, 0.0225185230, -0.0417307802, -0.0008171983, -0.0227329228, 0.0019611195, 0.0168729797, -0.0393302888, -0.0300231948, -0.0247569289, -0.0190567710, 0.0300424993, -0.0386325456, -0.0143481940, 0.0046908930, 0.0251277685, 0.0431259871, 0.0262710899, -0.0129060782, -0.0222617835, -0.0440091081, 0.0189375654, -0.0465830564, -0.0282941237, -0.0406849459, -0.0169631876, -0.0342249498, -0.0039932206, -0.0070245862, 0.0308747888, -0.0395233706, -0.0421559438, 0.0181234628, -0.0027801506, 0.0224230513, -0.0466286540, -0.0022479258, 0.0170781687, -0.0304371491, 0.0209535360, 0.0281240940, -0.0139622726, 0.0156541616, 0.0091880411, -0.0366529450, -0.0297715589, 0.0317413956, -0.0155027919, -0.0017206520, -0.0149538405, 0.0101944990, 0.0445261821, 0.0165855810, 0.0022464767, -0.0323243588, -0.0213335101, -0.0304262042, 0.0099468939, 0.0430835560, -0.0101236366, -0.0090184100, -0.0169920959, -0.0021077879, -0.0110284351, 0.0041919686, -0.0374005772, 0.0003262721, 0.0083243214, -0.0093046986, 0.0046546757, 0.0448765606, -0.0269742738, 0.0471936241, -0.0189310927, 0.0098938197, -0.0095541850, -0.0192079227, 0.0047694892, -0.0101273395, 0.0171445161, -0.0100559033, -0.0167921074, -0.0349734686, 0.0333429649, -0.0237282291, -0.0212567132, -0.0473340973, 0.0112955347, 0.0445824489, 0.0139753744, 0.0139077604, -0.0051168650, -0.0305740274, 0.0487599671, -0.0224981997, 0.0448513925, 0.0475860015, 0.0159461871, -0.0463045239, -0.0365343355, 0.0154420584, 0.0130024254, 0.0232869238, -0.0304191038, -0.0472324565, 0.0469883084, -0.0352773853, 0.0044842400, -0.0317459255, 0.0034489296, 0.0316377208, -0.0363962762, -0.0012009107, -0.0224574357, 0.0017722547, 0.0119366422, -0.0275703780, -0.0409686081, -0.0138695538, 0.0304146558, 0.0473295674, 0.0268392563, 0.0415984690, -0.0115874559, -0.0209623165, 0.0009988919, -0.0253608357, 0.0352540016, 0.0298447609, -0.0138781741, -0.0181044005, -0.0397348776, 0.0136767179, 0.0275562257, 0.0291699171, 0.0248232111, -0.0031882189, -0.0069842301, 0.0045929812, 0.0220039114, 0.0035417862, -0.0041020066, 0.0340000167, -0.0378195047, -0.0195208192, 0.0381439999, 0.0028447397, 0.0219743475, -0.0330794156, -0.0396579877, -0.0321568549, -0.0031138845, 0.0051349252, 0.0273585245, 0.0180509761, -0.0394512005, 0.0257729217, 0.0018691644, -0.0197885390, -0.0489209071, 0.0388109013, 0.0007107779, -0.0287297200, -0.0406024605, 0.0177622288, 0.0092645101, -0.0266887192, -0.0338809490, -0.0097537972, 0.0413959026, -0.0201474093, -0.0135514699, 0.0373361632, -0.0182981491, -0.0470130816, -0.0425526239, -0.0223221462, 0.0138586685, 0.0394215360, 0.0158443153, 0.0024804398, 0.0003883503, 0.0351391658, 0.0346017256, 0.0295918584, 0.0246094763, -0.0421578139, -0.0419160835, -0.0160690285, -0.0255629010, -0.0152436681, 0.0488114133, 0.0067041665, -0.0446905456, -0.0168834217, 0.0013977550, -0.0354088917, 0.0080004446, 0.0473764986, -0.0376831666, 0.0306456983, -0.0339319222, -0.0232758597, 0.0351331681, 0.0180460736, -0.0124947987, -0.0160564259, 0.0187013447, 0.0020297766, 0.0114343166, 0.0341188237, 0.0465825871, -0.0012872145, 0.0047283992, -0.0165757574, 0.0368160829, 0.0126066096, -0.0373721346, -0.0061246119, 0.0420741960, -0.0078600831, 0.0022101030, 0.0284591392, 0.0299901962, -0.0003353693, -0.0343216844, 0.0035880618, 0.0130673312, -0.0405110531, -0.0073897503, 0.0395472497, -0.0324804708, -0.0211128145, 0.0403307453, -0.0130878426, 0.0408216864, 0.0128999315, -0.0321080908, 0.0139934570, -0.0432304293, -0.0105369836, -0.0232061520, -0.0017598495, -0.0445779487, -0.0126952864, -0.0359256864, 0.0181135088, -0.0290154498, -0.0361630507, 0.0015724078, -0.0009259135, 0.0106959604, 0.0367973968, -0.0478832237, -0.0334150530, -0.0326429754, 0.0304149240, -0.0258998703, 0.0221430287, 0.0194489062, 0.0022051409, 0.0324158594, -0.0266623236, 0.0133726150, -0.0374267064, 0.0195704103, -0.0085156187, -0.0108325109, -0.0282410961, 0.0221986845, 0.0449984297, -0.0010046847, -0.0454995669, -0.0369469337, -0.0088853389, -0.0060189553, 0.0241725296, -0.0418167897, 0.0091302805, 0.0428532138, 0.0230666474, -0.0293704774, -0.0150212459, 0.0389812067, 0.0290485173, -0.0183765218, 0.0040144436, 0.0461683795, 0.0431841090, -0.0183710326, -0.0354966186, -0.0147340074, -0.0069748163, 0.0451409444, -0.0458177775, -0.0385853797, -0.0107834898, -0.0389520749, -0.0240083765, 0.0289074406, 0.0424237251, 0.0009835921, -0.0333165675, 0.0146419555, 0.0376338959, -0.0435597040, -0.0003176033, -0.0477782786, -0.0263834838, -0.0227159876, -0.0289977193, -0.0010410100, 0.0112726875, -0.0184618104, -0.0020580515, -0.0488603115, -0.0001987591, -0.0208566710, 0.0397127047, -0.0360733941, 0.0154329315, -0.0458726622, -0.0230135024, 0.0257769525, -0.0192503668, -0.0455595180, 0.0462274775, -0.0231744424, 0.0019652769, -0.0187384412, -0.0096956901, 0.0449365750, -0.0091757625, 0.0345623791, -0.0128284171, 0.0080553889, 0.0006073639, -0.0064276867, -0.0139644444, 0.0181713402, 0.0038973130, -0.0056413822, -0.0194197763, -0.0317750312, -0.0110562108, -0.0173209831, 0.0349082127, 0.0065526180, -0.0078771375, 0.0030061714, 0.0233818293, -0.0474269204, 0.0257699043, 0.0139877945, -0.0116273426, 0.0460240021, 0.0346082300, 0.0194382891, 0.0076522715, -0.0122355595, 0.0462366641, -0.0352153033, 0.0425580442, -0.0321125500, -0.0351060145, -0.0144115686, -0.0428409241, -0.0165434852, -0.0014812425, -0.0448501781, 0.0375774950, 0.0404857621, -0.0109602474, -0.0469678678, -0.0189915951, -0.0036469065, 0.0316826627, -0.0284271818, 0.0049437322, 0.0230815113, 0.0033848174, 0.0297066197, 0.0342136249, 0.0083730854, 0.0059881173, -0.0219355244, -0.0094060712, -0.0028833896, -0.0233442355, -0.0055183694, -0.0263161715, -0.0167812109, -0.0241961218, -0.0021383874, -0.0161786117, 0.0042773485, -0.0044313408, -0.0049409531, 0.0459489450, 0.0470177680, -0.0321877711, -0.0450885892, 0.0307508856, -0.0292382129, -0.0216611233, 0.0417042524, 0.0116673000, 0.0288581625, -0.0033168048, 0.0053089932, 0.0136340410, 0.0053663068, -0.0185983386, -0.0440526046, 0.0372437462, 0.0102216564, -0.0401255414, 0.0255959556, 0.0431227982, 0.0327962637, 0.0381541848, 0.0173129365, 0.0017554574, 0.0254969671, 0.0019081049, -0.0007858463, -0.0287319049, -0.0319774114, -0.0248477999, 0.0253646523, 0.0420181528, 0.0212723911, -0.0386021063, -0.0170549452, 0.0337943509, 0.0280864015, 0.0043269768, 0.0333435461, 0.0146780759, -0.0421097390, -0.0166414008, 0.0346305296, 0.0111356564, -0.0442673638, 0.0134065673, 0.0229908451, 0.0442082137, 0.0362643823, -0.0338308886, -0.0133168064, 0.0157506689, 0.0486819819, 0.0430004150, 0.0351085588, -0.0101513639, -0.0479374304, -0.0011018626, 0.0206729546, -0.0398374051, 0.0486839861, 0.0010559857, -0.0165274143, -0.0219897088, 0.0364556089, -0.0401968919, 0.0142888129, -0.0138550028, 0.0018800609, 0.0452147350, -0.0455020554, 0.0220050067, 0.0014778562, -0.0234093163, 0.0202662051, 0.0160272419, 0.0429718792, -0.0177243873, 0.0445364267, -0.0091840699, 0.0060653351, -0.0072305985, -0.0041505620, -0.0016907714, 0.0386242270, 0.0394621938, 0.0305313915, -0.0428241491, -0.0293888617, -0.0045628101, -0.0276289303, -0.0289194975, 0.0062881112, 0.0442097038, 0.0177896023, 0.0278411359, -0.0211819597, 0.0092017986, -0.0115380362, 0.0209959522, -0.0037469342, -0.0400391296, 0.0238606110, -0.0236175247, -0.0412289910, -0.0464702621, 0.0354927182, -0.0111391731, 0.0340022668, 0.0272777230, -0.0379982591, 0.0057471804, 0.0199187398, -0.0365536772, 0.0079160668, -0.0156171732, 0.0163708925, 0.0237099975, 0.0181231126, -0.0149296969, 0.0246024132, 0.0462812781, -0.0364248119, -0.0244173761, 0.0294528231, 0.0192193910, -0.0329540670, 0.0333272442, 0.0057135783, -0.0322054401, -0.0382859260, -0.0467609093, 0.0026018992, 0.0139087439, 0.0320840403, 0.0068872273, 0.0115692094, -0.0030084625, -0.0274651535, -0.0177134089, 0.0060230903, 0.0167210028, -0.0003593601, -0.0149993338, -0.0407280922, 0.0439885929, -0.0297810677, -0.0200998243, -0.0404526405, -0.0231055170, -0.0309773646, -0.0223769844, 0.0233346820, 0.0212941691, -0.0160306618, 0.0003096387, 0.0258217305, 0.0291181877, -0.0241104942, -0.0006476492, 0.0330814272, 0.0119286999, -0.0387618206, -0.0001788326, 0.0298552811, 0.0056150444, -0.0240593832, -0.0145291388, -0.0394341834, 0.0459226444, 0.0221182555, 0.0298240259, -0.0082943738, -0.0069492012, 0.0124674179, 0.0457075313, 0.0195868611, 0.0302626118, 0.0038711391, -0.0289832819, 0.0090262815, -0.0192437097, 0.0096617937, 0.0395704657, -0.0432833545, 0.0272544324, -0.0256086159, 0.0312061310, -0.0388219841, 0.0304040611, -0.0460818075, -0.0414466970, 0.0342918113, 0.0393253714, -0.0219624583, -0.0216706675, -0.0018014759, -0.0394576862, -0.0390246324, -0.0246986561, 0.0344815180, -0.0463907346, 0.0074839033, -0.0333759040, 0.0456336513, -0.0456775352, 0.0118469968, -0.0115509667, -0.0002294183, -0.0308116935, -0.0444834679, -0.0250487551, -0.0195050985, 0.0137443468, 0.0371889547, 0.0005835816, 0.0078379177, 0.0369194150, -0.0234749932, 0.0188119933, 0.0075598359, -0.0088443309, -0.0291872174, -0.0116480142, -0.0489023365, 0.0286849290, -0.0149718747, -0.0444527045, 0.0392951593, 0.0015880354, -0.0427014977, -0.0346023813, -0.0126880780, 0.0053967088, 0.0022647902, -0.0401748866, -0.0037163422, 0.0017129891, -0.0178218596, -0.0455092378, 0.0313859805, 0.0144958720, -0.0021201558, -0.0450341962, -0.0238347165, 0.0278216675, -0.0149373114, 0.0401296392, -0.0242460538, 0.0198416859, -0.0069681704, 0.0361348391, -0.0406535491, -0.0257148109, 0.0448297858, 0.0044914559, -0.0333339013, 0.0377829745, -0.0139253139, -0.0382793732, 0.0319291949, 0.0189618319, 0.0090696141, 0.0231117979, -0.0204490237, 0.0217875615, -0.0258532446, 0.0211601630, 0.0150624067, 0.0284910947, 0.0115514100, -0.0456790552, -0.0085374489, -0.0072959252, -0.0068135373, -0.0480459034, 0.0429041833, -0.0454953015, 0.0220167711, 0.0103647262, -0.0008120909, 0.0278581306, -0.0331110917, 0.0330381840, 0.0259696022, 0.0413716286, -0.0225654542, 0.0375905186, 0.0433934256, -0.0059449710, 0.0181619003, 0.0337944478, 0.0425190330, 0.0284894034, -0.0440737903, -0.0154674128, -0.0427906662, -0.0154218003, -0.0357988402, -0.0357244387, 0.0336638838, 0.0113080665, -0.0133350752, 0.0039416626, -0.0349571854, 0.0418983996, 0.0204746500, -0.0119653977, 0.0057649128, -0.0081275813, -0.0191742145, -0.0060640983, -0.0045573674, 0.0488797128, 0.0218126178, 0.0154200271, -0.0428367406, 0.0353656411, -0.0234168153, 0.0180038810, 0.0111149848, 0.0475863516, 0.0428232253, -0.0282248016, -0.0101944432, -0.0241240319, -0.0272931755, 0.0155641437, -0.0296279993, 0.0441339985, 0.0260471180, -0.0386224315, -0.0321698524, 0.0010397024, 0.0094535872, 0.0178291574, -0.0401799344, 0.0480341166, 0.0250096247, 0.0319703445, -0.0255848467, -0.0216708649, -0.0114261508, 0.0439991653, -0.0136419199, -0.0070021935, -0.0083670802, 0.0431942567, -0.0257235598, 0.0481661037, -0.0188014898, 0.0436223671, -0.0113690719, 0.0243697241, 0.0066080280, 0.0072753318, 0.0234999433, -0.0404184759, 0.0298009664, 0.0459389016, -0.0382034071, 0.0309301987, -0.0143619031, -0.0486347564, -0.0421981104, 0.0338477194, -0.0328986645, -0.0315812826, -0.0423571691, 0.0031446144, -0.0446281619, 0.0036200769, 0.0185008720, 0.0377467051, 0.0208977014, 0.0028858446, 0.0425545648, -0.0263577420, -0.0227247942, 0.0462291837, -0.0015017204, 0.0398510844, -0.0049755387, 0.0097397603, 0.0276333839, -0.0154752620, -0.0069667473, 0.0069183446, -0.0000058301, 0.0017838627, -0.0399212651, 0.0004164986, -0.0115538277, -0.0359003656, -0.0079165474, 0.0126654096, -0.0090413615, -0.0327586830, -0.0242019501, 0.0232481286, -0.0449130759, -0.0209272411, -0.0249222014, -0.0472184531, -0.0013959929, -0.0307132192, 0.0211869106, -0.0412383117, -0.0031106248, 0.0421975181, 0.0147001594, 0.0297093242, 0.0402459130, 0.0058642179, 0.0116953216, 0.0309486762, 0.0381481275, 0.0207301378, -0.0352801755, -0.0060410872, 0.0179887190, 0.0361397564, -0.0142024718, 0.0413587913, 0.0028775260, -0.0071136467, -0.0205893721, -0.0019377731, -0.0319217816, -0.0256323274, 0.0487439558, -0.0196218062, -0.0352103189, 0.0380310565, -0.0147817098, -0.0195141863, -0.0398709364, 0.0137289390, -0.0072119571, -0.0217090715, 0.0063105226, 0.0123554878, 0.0121531673, 0.0024549291, 0.0133836158, -0.0267271474, -0.0053088181, -0.0457747728, -0.0218937788, 0.0240290388, 0.0221621767, 0.0357499495, 0.0248595998, -0.0114073232, 0.0200345367, -0.0077198520, -0.0297123995, 0.0369992182, -0.0411976539, 0.0363451764, 0.0390228331, 0.0189280808, -0.0447103418, 0.0027096011, 0.0431919470, -0.0419745073, 0.0272416994, 0.0381589904, 0.0311830640, 0.0016337410, 0.0241040438, 0.0077292547, -0.0472160578, 0.0277080759, -0.0055486783, 0.0425505787, -0.0311563369, -0.0110211335, -0.0115164034, -0.0454028547, -0.0211036690, 0.0342123285, -0.0125567839, -0.0348238833, 0.0308674648, 0.0083051175, 0.0033660568, 0.0141851306, -0.0020536482, -0.0311553683, 0.0211799890, -0.0022944696, -0.0290162209, -0.0148052350, 0.0400635302, 0.0281015188, -0.0404090732, 0.0280043632, -0.0350249894, 0.0204599649, -0.0270578694, 0.0235791430, -0.0010104217, -0.0386994034, 0.0234096423, 0.0025504604, -0.0419185013, 0.0262377188, -0.0345078409, 0.0277082026, 0.0286337584, 0.0210674107, 0.0470233858, 0.0481132492, 0.0447730795, 0.0341434628, -0.0136026889, 0.0201501399, -0.0473651998, -0.0358279012, -0.0079098307, 0.0481411591, 0.0238167048, 0.0290827602, -0.0146386884, -0.0382622741, -0.0335937962, 0.0484748930, 0.0241936594, 0.0367428586, 0.0118334703, 0.0436736643, 0.0360069945, -0.0217295345, -0.0379675627, 0.0363949612, 0.0133753121, 0.0289842188, 0.0325206518, -0.0143558420, 0.0457240716, -0.0168260969, 0.0152425840, -0.0145411603, -0.0205988437, 0.0055835210, -0.0266227983, 0.0221901238, -0.0319744572, -0.0232974794, 0.0199180394, -0.0000837594, 0.0263319835, 0.0087276213, -0.0407989658, -0.0301225223, 0.0321630165, 0.0187747777, 0.0033474751, -0.0368357636, 0.0026740618, 0.0090885237, -0.0077179037, -0.0059399046, -0.0259684790, -0.0223746840, -0.0125644915, -0.0094956122, -0.0381418653, 0.0109106638, -0.0461139716, 0.0422470495, -0.0112537779, -0.0135187656, -0.0436425395, -0.0308002830, 0.0461774990, -0.0401067697, -0.0193842798, 0.0224254429, -0.0139271244, -0.0173461400, 0.0012172274, -0.0047388300, 0.0139327794, -0.0449946150, 0.0473349839, 0.0381628871, 0.0171902254, -0.0120103769, 0.0126781762, -0.0426335558, 0.0265197232, -0.0451049320, 0.0082124248, 0.0368160009, 0.0438321382, 0.0188834518, 0.0107422471, -0.0300453752, -0.0051365830, -0.0409479588, -0.0334414169, -0.0222619940, -0.0278383307, 0.0223766565, -0.0042378232, 0.0459553674, 0.0420105755, -0.0234575439, 0.0165934414, 0.0011260062, 0.0235047415, 0.0279133320, -0.0181649141, 0.0074308775, 0.0153755918, 0.0342772976, -0.0447959006, -0.0288620554, 0.0121527016, -0.0427641608, -0.0114273429, 0.0120421723, 0.0355104506, 0.0097514503, -0.0326598883, -0.0047146864, -0.0191152170, -0.0245663449, -0.0080361255, -0.0161859244, 0.0278207213, -0.0090267025, 0.0407304019, 0.0249638557, 