//Numpy array shape [10, 20, 2]
//Min -0.157334908843
//Max 0.156312718987
//Number of zeros 0

#ifndef QUERY_WEIGHT3_H_
#define QUERY_WEIGHT3_H_

#ifndef __SYNTHESIS__
multi_head_attention_query_weight_t query_weight3[400];
#else
multi_head_attention_query_weight_t query_weight3[400] = {0.1374277622, 0.1008678228, 0.1548051387, -0.0945535824, 0.0227731913, -0.0446207300, 0.1098041385, -0.1383937150, 0.1401606649, -0.0406143442, -0.0775793567, -0.1061908826, 0.1181569546, 0.1103050858, 0.1251420230, 0.0784593970, -0.0185509473, -0.1052650735, -0.0505980551, -0.0080323070, 0.1006142050, -0.1144735366, -0.0692468658, 0.1045979112, -0.0988668278, 0.0459833741, 0.0739396811, 0.0708748996, -0.1357014179, 0.1031596810, 0.1417378038, -0.0322323889, 0.0982390791, -0.1012987942, -0.1049844921, 0.0580711961, 0.0027026385, 0.0382689983, 0.0713033229, 0.0113077164, -0.1105372682, 0.0269577503, -0.0923497602, 0.0125038475, -0.0042556077, -0.1559727937, -0.0538748875, -0.0796162188, -0.1446629614, -0.0389140397, -0.1186033189, 0.1109634489, 0.0541676432, -0.1088282615, -0.0340672657, 0.1437662095, 0.0141590685, -0.0474484786, -0.0131435692, 0.1450643986, -0.1118755192, 0.1406666487, 0.1215673536, 0.0987299234, -0.0524611250, 0.1275034100, -0.0522012785, 0.0993187875, -0.1182603091, 0.0228816569, -0.1033506989, -0.0249395072, 0.1495879740, 0.0728803873, -0.0319993049, -0.0585695580, -0.0408426747, 0.0867667198, 0.0351384729, 0.0789493918, -0.1174264476, 0.0228606462, 0.0834224373, 0.1125701815, 0.0974064320, 0.0078355670, 0.0978029817, -0.0406958833, -0.0808247179, -0.1110761464, 0.0314250290, -0.0839654654, 0.0502163619, 0.0664101392, 0.0041676164, -0.0518628731, 0.1007532626, 0.0069815069, 0.0336873829, -0.0814766958, 0.0144528002, 0.0283340663, 0.1161401421, -0.1247609854, -0.0776058957, 0.0963535160, -0.0072130412, 0.0983149260, -0.1285292059, -0.0542925745, -0.1094825715, -0.0791258886, 0.0652544498, 0.0392688513, -0.1260190159, 0.1314225346, -0.0196143836, -0.0497479811, -0.0894775614, -0.0204811245, 0.0253712982, 0.0598879457, -0.0428668633, -0.0778671429, 0.0261023492, -0.0531276166, 0.0156984627, -0.0985280424, 0.1261443347, -0.0581085980, 0.0897508711, 0.1415424198, -0.0944570377, -0.0903412849, -0.0779745355, 0.1174281090, 0.1371564418, 0.0791757256, 0.1502790302, -0.0037542731, 0.1412750930, -0.0019342452, -0.0880163386, 0.0728878528, 0.0524835587, -0.1265244633, 0.0129269958, -0.1108825728, 0.1161934286, 0.0976647884, -0.0124850422, 0.0012719482, -0.0713305771, -0.0156001896, -0.1180175766, -0.0491443723, -0.0492755547, 0.1309805661, 0.0956085473, 0.0833494514, 0.1384817809, 0.1182686836, 0.1338420957, -0.0870950595, 0.0891439021, 0.0687684119, -0.0829236284, 0.1464452893, -0.0246290714, 0.1080212742, 0.0840257108, -0.0788378790, -0.0495283902, 0.0758259445, 0.1496769935, -0.0082475990, -0.1270513982, 0.0780886859, 0.0429642051, 0.1418765038, -0.1146932393, -0.0697229803, 0.1482242197, 0.1308608502, -0.0353194922, -0.0604537800, -0.0128943622, 0.0779700875, 0.0430425704, 0.1511991471, 0.0998756737, -0.1157232448, 0.0723341256, 0.0152519494, 0.0169851482, -0.1067731529, 0.0864614844, -0.0374827161, -0.0003787130, 0.1387089640, 0.0720116943, 0.0041781068, 0.0139188170, 0.0712951869, 0.1353465766, 0.0714252740, 0.0380828232, 0.0761740059, 0.0554312617, 0.0682633817, -0.0128506720, -0.0261073709, 0.0643273741, 0.0957505852, -0.1374215782, 0.0751587003, 0.1136588901, 0.0954672545, 0.0670754164, 0.0201478004, 0.0186015815, -0.1170656830, 0.1459769160, 0.1026936620, 0.0700682551, 0.0985346884, 0.0272268653, -0.1241580844, -0.1265491545, -0.1334282607, 0.0503751487, -0.0431972072, -0.1435822248, -0.0518816039, -0.0335203111, 0.0848436207, -0.1554990858, 0.0107779503, -0.0490660369, -0.0299991667, 0.0047718734, -0.0566616580, 0.0363351405, 0.0983477384, 0.0797034502, -0.0775351003, 0.0107527673, 0.0284505934, -0.0148390830, 0.0020140558, 0.0841908604, -0.0101256818, 0.1425854415, 0.0368133187, 0.1224160343, -0.0306552798, -0.0989774689, 0.1146846861, -0.1252260506, 0.0861505121, -0.0843674690, -0.1216553599, -0.0723282769, 0.0227483958, -0.0043270439, -0.1099891067, 0.1346295923, -0.0704702139, 0.0473676622, 0.0680277646, 0.0241049677, -0.1236867607, -0.1074149907, -0.1507803649, 0.0866171718, -0.1146908700, -0.0488993376, -0.0422600880, 0.0637739003, -0.0159640163, -0.0697724372, 0.1147036403, 0.1023558527, -0.0463551506, -0.0650169998, -0.0408308730, 0.0932257026, -0.0187199116, 0.0258591324, 0.0533237606, -0.1485987455, 0.0382008404, 0.0938191563, 0.1330334097, -0.0855808705, -0.1274712682, 0.0232778043, -0.0573965684, 0.1518834382, 0.0368451774, 0.0033618510, 0.0431033820, -0.0143658668, -0.0613298267, 0.1038035899, 0.0754215717, -0.0183447450, 0.1316346675, -0.0755968541, 0.1341656893, 0.0731576979, -0.1334292144, -0.1191852093, -0.0053803027, 0.0873615742, -0.1047962755, -0.1064852625, 0.0325890481, -0.0989898741, 0.0032403469, 0.0821006596, 0.1556833833, -0.1314141005, -0.1369782239, 0.1205040067, 0.1503117830, -0.0906931162, -0.0858027935, -0.0639957413, 0.0849176198, -0.0326504558, 0.0684386343, 0.1429183334, -0.0727387220, 0.1563127190, 0.0126521140, -0.0807918459, 0.1312206835, -0.0063914210, 0.0594886541, 0.1043841988, 0.1419036239, 0.1134918183, -0.0110120922, -0.0708339959, -0.1573349088, 0.1129387766, 0.0838572830, -0.0627225563, 0.1000371128, -0.1292812228, -0.0249001533, 0.0264450610, 0.0754220188, -0.0322997570, -0.1408117712, -0.0480579361, 0.0863240659, -0.0569579601, 0.0377087444, 0.1287685186, 0.1324571520, 0.0539741516, 0.0012871325, 0.0406095982, 0.0466381758, 0.0077286214, -0.1139694527, 0.0279977322, 0.1274622828, 0.0328493714, 0.1496768445, 0.0310947895, -0.1170696765, -0.0149421096, 0.0540333241, -0.1215740517, 0.0776670426, -0.0903412849, -0.0031339973, 0.0552224964, 0.0319077075, -0.0988814533, 0.0934750587, -0.0837996006, -0.0621289387, -0.1335394382, 0.0446716249, -0.0134094208, -0.1279707551, -0.0355621129, 0.0051145852, 0.1486374587, -0.0181712657, -0.0637127534, 0.0406876653, -0.1570283175, -0.0028738081, -0.0050931722, -0.0792433918};

#endif

#endif
