//Numpy array shape [8, 16, 2]
//Min -0.191397845745
//Max 0.192455172539
//Number of zeros 0

#ifndef QUERY_WEIGHT3_H_
#define QUERY_WEIGHT3_H_

#ifndef __SYNTHESIS__
multi_head_attention_query_weight_t query_weight3[256];
#else
multi_head_attention_query_weight_t query_weight3[256] = {0.1924551725, -0.0667723566, 0.0921399891, -0.0369403064, -0.1599784940, 0.1079348326, -0.0171910077, -0.1913271695, 0.0388820171, 0.0469485819, 0.0048192739, -0.0119572729, 0.0642160475, -0.1122110561, 0.1827083826, -0.1215528622, 0.0689191520, 0.0689640641, -0.1803290695, -0.0862287655, -0.1179122105, -0.1163800284, -0.1200953349, -0.1257627010, 0.1276212037, 0.0892652571, -0.1493777335, -0.1010078713, 0.1542358696, 0.0096720606, -0.0317068994, -0.1783746183, 0.0869639814, -0.0830503106, -0.0424573869, 0.1555753648, 0.0291933417, -0.1565455645, -0.0911480859, 0.0113288611, -0.1535329968, 0.1303813159, -0.0809428543, -0.0423522592, 0.1290143728, -0.0213255882, -0.1838649213, 0.1042484641, -0.0400899947, -0.1463835537, 0.0493467599, 0.1768847406, -0.1555262804, 0.0028947443, 0.0393515676, 0.1060523689, -0.1798851937, -0.0607418269, 0.1078470945, 0.1336502135, 0.1517283618, 0.0381585807, 0.1638394296, -0.0674920082, -0.1913978457, -0.1205099374, -0.1536920518, -0.1275160313, -0.1415118277, 0.1805846691, -0.0053972155, 0.0077142417, 0.1635806561, 0.1495085359, 0.0255392939, 0.0865713060, -0.0498157144, -0.0456235111, -0.0600619316, 0.0906604826, -0.1503786445, -0.1898067594, -0.0379919559, 0.0774894655, -0.0782137737, 0.0937977433, 0.1888188124, -0.0202819258, 0.1884964108, 0.1468968093, -0.1758319736, 0.1502964497, 0.0756336451, -0.1116166636, 0.0488368720, 0.1331297457, 0.0145461857, -0.1596567333, -0.1865201741, 0.1734742820, 0.0346664637, -0.0343735218, -0.1221039891, -0.1139626801, -0.0037525743, 0.1480983794, -0.0108297169, 0.0974176824, 0.0669738948, 0.0928399563, -0.1732673049, -0.0984651744, 0.0965611935, -0.0294846594, 0.0412939638, -0.0309627801, -0.1649340093, -0.1580789983, 0.1057315767, 0.0672740936, 0.0947820842, -0.0821679235, -0.1740059704, -0.1168607920, 0.0889608860, -0.1333645582, -0.1619329900, -0.0506959856, 0.1024585664, 0.1085330844, 0.1183018386, -0.0859830007, 0.1550939977, -0.1863634735, 0.0783068538, -0.1732016504, -0.1904136091, 0.1827980876, 0.1619901955, -0.1206584647, 0.0670014918, -0.1293944865, -0.1774396449, 0.1193297505, 0.1033701897, 0.1455632150, -0.1438473612, -0.1474569887, 0.0969321132, -0.0240938216, 0.0757711232, -0.0413638204, -0.0293183625, 0.0393006355, 0.1758768559, 0.0374679416, 0.0290904194, 0.0677913129, -0.0179783851, 0.1559999287, -0.0483132601, -0.1761511862, -0.0580319464, -0.0120661408, 0.1105812192, 0.1890104711, 0.1876241267, 0.0114845932, -0.0002802908, 0.0733082592, -0.0086969584, 0.1522408426, 0.0494072437, -0.0894284993, 0.0951026976, 0.0515041798, -0.1507081538, -0.0226518512, 0.1491519809, -0.0993665010, 0.0890429914, -0.1870223582, 0.1516998410, 0.0074023157, -0.1142449155, 0.1157294512, -0.1728997827, 0.1737769544, 0.1257749796, 0.1426541209, 0.0521393269, -0.0137467086, -0.1817713678, 0.0583124757, -0.1575524211, 0.1904466748, -0.1798148304, -0.1627812237, 0.0538847744, -0.0167034119, -0.0060096681, -0.0814327151, -0.1693788469, -0.0452413708, 0.1148278415, 0.1521759927, -0.1779364645, -0.0086355507, 0.1530947685, -0.1894709617, 0.1741642654, -0.1316629797, -0.0784107819, -0.0606385469, -0.0859666169, -0.1522674859, 0.1915987432, 0.0561823994, -0.1493615806, 0.1507091820, -0.1792774647, 0.0470844060, 0.0818181932, 0.0790395141, -0.1687097102, 0.1524894238, -0.1596861035, -0.1791243702, 0.1865082085, 0.1496070623, -0.1567325443, -0.0607907623, 0.1623804271, 0.0290202945, 0.1559472382, -0.0765241086, -0.0622361004, 0.0282393843, -0.0837581381, 0.0822247565, 0.0571660399, -0.0677278340, -0.1679992080, 0.1487394869, -0.1162950769, -0.0234182626, -0.1194261536, 0.0959668458, 0.1593480110, -0.1000042856, -0.0639426708, -0.1650326252, 0.1483605802, 0.0458334982, 0.0158887506, -0.1697018445};

#endif

#endif
