//Numpy array shape [8, 16, 2]
//Min -0.192908942699
//Max 0.191408574581
//Number of zeros 0

#ifndef QUERY_WEIGHT3_H_
#define QUERY_WEIGHT3_H_

#ifndef __SYNTHESIS__
multi_head_attention_query_weight_t query_weight3[256];
#else
multi_head_attention_query_weight_t query_weight3[256] = {-0.0672584325, 0.1428458989, 0.1471527815, -0.1689138263, -0.0301633626, -0.0092025101, -0.0565257668, -0.1217179224, -0.1409855783, -0.0018063784, 0.1111708581, 0.1674706042, 0.0002857447, -0.0228073001, -0.1622906178, -0.0206254274, -0.1066232473, -0.0008950382, -0.0993507057, -0.1902799010, -0.1703250557, -0.0109536797, 0.0130148232, 0.0515772104, -0.1772339046, 0.0979553163, 0.0364017040, 0.0731256008, -0.0586939305, 0.1364177167, 0.0418024212, -0.1676325351, -0.1442851871, -0.0233479887, 0.0670732558, -0.1437886804, 0.0093229711, -0.0909808129, -0.1711514443, -0.0393350273, -0.0199808031, 0.1222236156, -0.0652362555, -0.1209279150, 0.0051286072, -0.1031258106, 0.0051379800, 0.0732377470, 0.0454540253, 0.0865183473, -0.0081641227, -0.0334021598, -0.1758670509, -0.1274399012, -0.0592389107, -0.0454712063, -0.1604969800, -0.1441849023, -0.0315742046, 0.1367937624, 0.0368870795, 0.1686124504, 0.1090442836, -0.0274445266, -0.0071856529, 0.0781612396, 0.0217274874, 0.0828116536, 0.1179425120, -0.0566468239, -0.1756565720, -0.0179751515, -0.0795305744, 0.1308802664, 0.1685620546, -0.1518080086, 0.1043141782, -0.1070724279, -0.1479769945, 0.1056668758, 0.0508415103, 0.0282118618, 0.0393436700, 0.0510646403, 0.0540092885, -0.1696299613, 0.1193816960, -0.0169911385, 0.0252261311, -0.0344389826, -0.1512105763, -0.1921135336, -0.0624507517, 0.1308016479, 0.1909737289, 0.0507515222, 0.1286111176, 0.1514556408, -0.1615236998, 0.1527716219, -0.0069639832, 0.1744561195, -0.1198147684, -0.0752215683, 0.1057783365, -0.0331513584, -0.1239306405, -0.1904281080, -0.0998716876, -0.0623285770, 0.1805204749, 0.1717855334, 0.0163720101, -0.1904880852, 0.0476793945, -0.0088933706, -0.0349347591, 0.1103224754, -0.1524890959, -0.1129626930, 0.0171740651, -0.0638073087, 0.1306592226, 0.0502114296, -0.1925784945, -0.1655432731, -0.1929089427, 0.0189220011, 0.0828993320, 0.1000398695, 0.0246679336, -0.0710911080, -0.1522399187, 0.1035578251, 0.0439783484, -0.0368502289, -0.0316944867, 0.0286272913, -0.1914079189, -0.0004476160, -0.0747485161, 0.0872334242, -0.1214867532, 0.1496534050, -0.1005051807, 0.0243271589, 0.0965861678, -0.0099501014, 0.1483890712, 0.0941480100, -0.1643702835, 0.1165082455, 0.1365595460, -0.0025781095, 0.1010185778, -0.0221170634, -0.0239873081, -0.1048795581, 0.1519328654, -0.0122286975, 0.1250681579, 0.0108224750, -0.0861728564, 0.1495805681, -0.1493644416, -0.0393496305, 0.1697267294, 0.1575478613, 0.1192034781, 0.0701498389, 0.1663927436, -0.0960094184, 0.0591275096, -0.0512715280, 0.0632078350, -0.0938370898, 0.1389394999, 0.0831193328, 0.0785402060, 0.0978338420, -0.0146462768, -0.1023597196, -0.1865409464, -0.1493489295, -0.1803341508, -0.0076050907, 0.1882874072, -0.1471709311, 0.0145267844, 0.0366532803, -0.0665012449, 0.1129030883, -0.1047105789, 0.1896945536, 0.0892543495, 0.0066386312, 0.0863626599, 0.1877095103, 0.0571777821, -0.1778484285, 0.0355088711, -0.0846728012, 0.0376440287, 0.0374251455, 0.0720465481, -0.0253725350, -0.0921433643, 0.1540097892, -0.0645685941, -0.1491982788, -0.1701158583, -0.0258898139, -0.1509860456, 0.1103104353, -0.1183952391, -0.1829293370, 0.1408391893, -0.0744065866, -0.1236286908, 0.0954012275, 0.1219825745, -0.0457075834, 0.0405986011, 0.1909357905, 0.0470845550, 0.0250576586, -0.1071209088, 0.1325340271, -0.1426151395, -0.0080406070, -0.1077169999, 0.1235524714, 0.0791272819, 0.1819962561, 0.0882140100, -0.1759776771, 0.0762626529, -0.0024846196, 0.0602695942, -0.0319480449, 0.1914085746, 0.1196096838, 0.1892994940, 0.0104825646, 0.1263879836, -0.0796173736, 0.0943633914, -0.0983852595, -0.1127106100, -0.1533357501, 0.1135903299, -0.0574269444, 0.0582713783, -0.0611433238, 0.1254018247, 0.1488119662};

#endif

#endif
