0.1410403550, -0.2276000530, -0.0669622719, 0.2820591331, -0.1818319112, -0.2801658511, -0.0787381232, 0.0108766556, -0.0377611816, 0.1169795990, -0.2105830014, -0.0652651787, -0.1301397532, 0.1322893202, -0.0686728358, -0.0774702430, 0.1510662138, -0.2262118310, -0.1378433704, -0.0077290833, -0.2307197005, -0.2865700126, 0.1018289924, -0.2144301236, 0.0205028951, 0.0840182900, -0.1028600931, 0.2015302479, 0.1517834961, 0.0801449120, -0.1125399917, -0.1998903453, 0.1005395353, -0.0802803189, -0.0494945794, -0.0727786571, 0.0646757185, 0.1064381897, 0.1342769861, -0.0383001268, -0.1042701602, 0.2430624962, -0.2022698224, -0.0059685409, 0.1229113042, -0.0789043158, 0.1582486629, 0.1238479614, -0.2418485582, 0.2444786429, -0.2774028778, 0.0963331461, -0.1418092251, -0.1494089663, -0.0463134348, -0.2268750966, 0.2335752249, -0.2452692688, -0.0766214579, -0.1763221025, -0.1038470864, 0.2737790346, -0.1384871453, -0.2371895611, 0.0537329614, -0.2151902616, 0.2339645624, 0.0864949822, 0.2535300255, 0.1069585085, 0.0564428568, 0.2047755718, 0.2087436318, 0.0228616297, 0.1129549146, -0.1163911074, -0.2606766224, -0.1594246924, 0.2691497207, 0.2918381095, 0.1831991971, 0.0581216812, -0.0749568194, -0.1114748865, -0.0230759084, -0.2758894265, -0.0837008208, -0.1604653001, -0.2659370899, -0.2221601158, 0.2137509584, 0.1319837868, -0.0932988524, 0.1940631568, -0.1246575266, 0.0212560594, -0.1962966621, -0.0174466968, 0.0238324404, 0.2025493085