-0.1391498148, -0.1082051247, 0.0427392274, 0.1203848273, 0.0333884060, -0.0522519052, -0.0850080997, 0.0305674076, 0.0291635692, -0.0238640755, 0.1351693422, 0.1331290156, 0.1357666701, -0.0727840737, -0.1431436837, 0.1481023580, 0.0806486309, -0.1101931334, -0.0550181717, 0.0895101726, -0.0033101290, -0.0951822177, -0.0229872763, -0.0098515451, -0.0454852432, -0.0575216860, 0.0177096575, -0.0923348293, 0.1101104468, -0.1030768976, 0.0015974939, 0.0409136564, 0.0134897083, -0.0692908540, -0.0200191140, 0.1443694383, -0.0667067096, -0.0776870251, -0.0104105175, -0.1339344978, 0.0005265176, 0.1507888883, -0.1291877031, 0.0772964805, -0.1481127590, -0.0659564137, -0.0607870668, -0.0030563027, -0.1123188436, -0.0133008063, -0.0400156304, -0.0695919469, 0.1121778041, -0.1347705126, 0.1496352702, -0.0350986272, 0.1105087250, 0.1080593020, -0.0040513277, 0.1203700751, 0.1100013107, -0.1011775210, -0.0075314641, -0.0636220500, -0.0816427097, 0.1549919099, 0.0238313526, 0.1303022057, -0.0209944546, -0.0516065657, 0.0383181572, 0.0221885145, -0.0782976076, 0.1373557597, 0.0325566977, -0.1218371093, 0.0517074019, 0.1435302347, -0.0330524892, -0.0731117427, -0.0736226514, 0.1425137967, -0.0051252544, -0.0102887601, 0.0290261507, -0.0058988780, -0.0566873327, 0.0107578635, -0.0720382333, 0.0284233838, -0.0608473420, -0.0397520885, -0.0289788842, -0.0906043351, -0.0468530133, -0.0075808167, -0.0932362452, -0.0757295936, -0.0019440502, -0.0945033655, -0.0357136577, -0.1573900580, 0.0441331565, 0.1286043972, -0.1358470023, -0.0727358982, -0.0079660714, -0.1458600461, 0.0746582001, -0.0466411188, -0.1369624287, 0.0081036687, -0.1267478913, 0.1301398128, -0.0660708323, 0.1148655564, 0.0377895683, -0.0937552676, -0.0352675840, 0.0408958197, -0.0072405487, 0.1022145003, -0.0488094315, -0.1101239547, -0.0282633454, 0.0760654658, 0.0975451618, 0.0320319831, 0.0042352080, 0.1448679119, -0.0683306679, -0.1208972335, 0.0363719314, -0.0632225722, 0.0253378898, -0.0023299903, 0.0585290343, 0.0853248686, 0.0318769366, 0.1194472760, -0.1155192703, 0.0784710497, 0.0305559188, -0.0087055415, 0.0736752450, 0.1469067186, 0.0978048593, -0.0595895723, 0.1529004127, -0.0451614633, 0.1206864566, 0.0576201975, 0.0711805075, -0.1272297800, 0.1527097374, -0.0906229988, 0.0377822518, 0.0938917249, 0.0580679923, 0.1106025726, -0.0218749046, -0.0609983206, 0.0835926086, -0.0816978961, -0.0078214258, -0.1156140342, 0.0111271888, -0.0883323997, -0.1476499885, -0.0570889190, -0.1520169079, -0.1201117784, 0.0635986030, 0.0890649259, 0.0686369538, -0.0385478139, -0.0905552581, 0.0950958580, 0.0647985041, 0.1307219118, -0.0520778596, -0.1448121369, 0.0055954456, 0.1307792813, -0.1543525606, 0.0042904019, -0.0043166429, -0.0066539049, 0.0711122751, 0.0808303654, -0.0338717252, -0.1461305171, -0.0688306466, 0.1119001657, 0.0634614676, 0.0110943168, -0.0052082986, 0.0859211236, 0.0536347926, 0.0224850327, -0.0277921408, 0.1398834735, 0.1096291393, -0.1482088119, -0.0037131757, 0.0721391141, 0.1009977013, -0.0651473925, -0.0460931882, -0.1232349202, 0.0562094003, 0.0633579791, -0.1265148520, -0.0143196583, -0.0154446214, -0.1188982278, 0.0832151473, -0.0253278315, 0.0202484578, 0.0414194018, 0.0958841294, -0.1276067197, -0.0549185798, -0.0094718635, -0.1101664379, 0.1581019014, 0.1141991168, -0.0173473805, -0.1232521087, 0.0667511523, -0.1334126890, 0.0195060819, 0.1549287885, 0.0978917927, -0.0930635929, 0.0513199568, -0.1497141421, 0.1111954600, -0.1377885640, 0.1040695459, 0.1340041906, 0.1504789442, 0.0680351257, 0.0118248463, 0.0597737581, 0.0035492033, -0.1039988250, 0.1109048575, 0.0242877603, -0.1204171926, 0.1060632914, -0.1419004351, 0.1574634761, 0.0026042014, -0.1060183793, -0.0463529229, 0.0411664248, -0.0980494320, -0.1227036119, 0.1241088957, -0.1362219304, 0.1048015803, 0.0362753123, -0.0167407990, 0.0472211987, -0.1377873868, 0.0485023856, 0.1350748688, -0.0268038213, 0.0310488790, 0.1102783531, -0.0834191963, 0.0266536027, -0.0853230581, 0.0448354185, -0.0002276599, 0.1114328057, 0.0015976131, 0.1438830346, -0.1572230905, 0.0800488293, -0.0050317198, -0.1378890574, 0.1015921086, -0.1009903103, -0.0953815281, -0.0821886063, 0.1048538238, 0.0539010465, -0.0288491249, -0.0584840626, 0.1373316795, -0.0868318155, 0.1311831325, -0.1104936898, 0.0886542201, 0.0279563814, 0.1542524844, -0.0574242026, -0.1070112512, 0.0859860033, 0.0198694915, 0.1302560717, 0.0060954243, -0.1574230790, -0.0927736238, -0.0824766532, -0.1513101310, 0.0711990595, 0.0371709615, 0.0474419594, 0.0387742221, 0.0177981704, 0.0648687333, 0.0772564858, 0.1358395070, -0.1197730303, -0.0941654518, 0.0889664292, -0.0136121958, -0.0681105182, -0.0767573342, 0.0971813351, 0.0889389813, 0.0737525225, -0.0928881168, 0.1399799734, -0.1032874733, 0.0577295870, -0.0246509314, -0.0822168812, -0.0600925684, 0.0013215989, 0.1555996686, 0.1298213750, -0.1345343441, -0.0625858307, -0.0388791338, 0.0918696076, -0.0299077034, -0.1338544339, 0.0861562490, 0.0181957334, -0.0140909404, 0.1055499464, 0.1292095631, 0.0156282037, 0.0684743673, 0.0853004009, -0.0917913094, -0.1390028298, 0.0024204701, 0.1196555942, -0.0179273933, -0.1205174029, -0.0816839114, 0.1433668882, 0.1176240593, -0.0421933681, 0.0142617822, 0.1569299549, -0.0166651756, -0.1389750391, -0.0799589977, -0.1082191095, 0.0599565506, -0.1283962131, -0.1403986812, -0.1368393004, -0.1576094478, -0.0805964619, 0.0273576379, 0.1274716705, -0.0272934735, 0.1166061610, 0.0073398948, -0.0911282152, 0.1464262158, -0.0588320419, 0.0636167675, -0.0217520446, 0.1434377879, 0.1269107312, 0.1003087014, 0.1497297436, -0.1414688379, -0.0388193503, -0.1172079146, -0.1171817482, 0.0187283456, -0.1270444542, 0.0053036660, -0.0575717464, -0.0684585720, 0.1568047553, -0.0936358795, 0.1239671856, -0.0973610431, -0.1341825873, 0.0583305508