-0.0454493538, -0.0461362377, 0.1505439728, -0.1084683686, -0.0693416744, 0.1527748853, -0.0452530310, -0.1566093862, -0.0384987667, 0.0207811147, -0.0404845849, 0.1157075316, 0.0902157873, 0.0595625490, 0.0651365817, -0.0555188283, 0.0293838978, -0.0945934281, -0.1440671980, -0.0395565554, -0.0850913748, -0.0975926593, -0.0507816374, 0.0219726562, 0.0489196628, -0.0568814725, 0.0267132372, 0.1284795254, -0.0956126824, 0.0953386575, 0.0637026429, 0.0040658414, -0.1498220563, -0.1235062256, -0.1508513093, -0.1034051627, 0.0213813037, 0.0241079777, 0.0745498538, 0.0493236929, -0.0676586404, 0.1353086382, -0.0934265777, -0.0362869576, 0.0529614538, -0.0001576543, 0.0844203532, 0.0103123188, 0.0352132618, -0.1427946091, -0.0861080661, 0.0459958166, -0.0093780309, -0.1509896964, -0.1153409928, -0.0692414716, 0.0790889412, -0.1366295964, 0.0315653384, -0.0355465785, -0.0778693259, 0.1218328029, 0.0549061745, -0.0450482965, 0.0568125248, 0.0329767168, -0.0034867674, 0.0174444169, -0.0777978152, -0.0269571394, -0.0312157273, 0.0810076296, 0.0060221106, -0.0556925759, 0.1283177286, 0.1085803360, -0.0476846173, 0.0531149805, 0.0211470127, 0.0475947857, -0.1186491549, 0.1512932628, 0.1050992757, -0.1361646354, -0.0345631689, -0.0223364383, -0.0703716725, 0.0170066804, 0.1179599017, -0.0720179155, 0.0174641758, 0.0697688162, 0.0499534309, -0.0732422099, -0.0978935212, 0.0400503576, -0.1102604941, -0.0129384995, -0.1561908275, 0.0587573349, 0.1562233716, -0.0634205937, 0.0666801333, -0.0787284076, 0.1198938340, 0.0407921970, -0.1451755315, -0.1277508289, 0.0866061300, 0.1218415052, 0.0403660685, -0.1277689934, 0.1450948864, -0.1193865538, 0.0414220840, -0.0659658387, -0.0727154687, 0.1306584328, 0.0551873595, 0.0798748285, -0.0453378484, 0.1080346256, 0.0347141474, 0.1129082888, 0.0517937690, 0.0775993764, -0.0479800478, 0.1568034440, -0.1518569291, 0.0518752038, -0.1215939969, 0.0059420764, 0.1032965630, -0.0284963548, -0.1038682014, 0.0621160865, 0.0852053314, 0.0344927162, -0.0215880275, -0.0010565370, -0.0387528464, -0.1335736215, -0.0343820751, 0.0762010664, -0.0332157239, 0.1429187208, -0.1538048238, 0.1015847772, -0.1393247545, 0.0112087280, -0.0245103985, -0.1274507642, -0.1177240312, -0.1364372969, 0.0734787285, 0.0462602228, -0.1010285392, -0.0991973206, -0.0652912855, 0.0126529485, -0.1301597208, 0.0577799529, -0.1496644467, 0.0806096196, -0.0154565275, -0.0679360554, 0.0247328579, -0.1444622278, 0.0990687460, 0.1393389255, -0.1090913489, -0.0526064858, -0.0973948985, -0.0358773023, -0.0815075636, 0.1158566326, 0.0364138037, -0.1475003213, 0.0993790179, 0.1327006966, -0.1140414551, 0.1009583920, 0.0340307802, 0.1453100294, 0.1567040533, -0.0898585692, -0.0067660660, 0.1556366831, 0.0354551673, -0.0803873911, 0.0821915120, -0.1330111474, -0.1080807596, -0.1452402920, 0.0568893105, 0.1157734245, 0.1150012761, -0.1035358235, -0.1578523070, 0.0385537297, -0.0010444075, 0.0824275613, 0.1528358608, -0.0837261304, -0.0698178634, -0.0639102086, 0.0061619282, 0.0539157540, -0.1105230600, -0.0575806424, 0.0517695397, 0.0477163196, 0.0653514862, -0.1258597374, 0.0797774941, 0.1412567049, -0.1029412597, -0.0743120983, 0.0278211683, -0.0367974937, 0.0295550525, 0.0742844641, 0.0742497444, -0.0779896900, 0.0977742821, 0.1155441850, -0.0076695532, -0.0596079677, -0.1306724846, 0.0808121711, 0.1300905794, 0.1012116820, 0.1411838382, 0.0138406307, -0.0607034117, 0.1054938883, 0.0043826103, 0.1188819259, -0.0801382139, -0.0358382836, 0.0357211232, -0.0439832732, -0.1396040916, -0.0622657016, 0.0976206213, -0.0358924568, 0.0221209973, -0.1190628484, 0.0568990856, 0.0497964621, 0.0336574167, -0.0707623661, -0.1297356337, -0.1175063998, -0.0631256178, 0.1017732471, 0.1453270465, 0.1273851246, -0.0116133690, -0.0341788828, 0.0166490823, -0.0205460787, -0.0256662667, -0.0239531994, -0.0358665586, 0.0315195620, 0.0754807889, 0.1048684269, -0.1459708661, -0.0778241232, -0.0007658899, 0.0024386346, 0.0273225754, -0.0344571695, -0.0814630091, 0.1200441867, -0.0473049283, 0.0084504187, -0.0671988428, -0.1481661648, 0.0582940280, -0.0681117624, 0.0987968296, 0.0183804482, -0.0800799355, -0.1537253559, 0.0258975029, -0.0856940746, -0.0794547573, -0.0167413652, -0.0707433671, -0.0857861713, -0.0146954954, 0.0252299607, 0.0553699583, -0.1095866933, -0.0369870737, 0.0360830575, 0.0475247055, 0.1219550222, 0.1325094551, -0.0669225231, 0.0079201311, -0.1433199197, 0.1032739431, -0.1554196924, -0.0773167610, -0.0712972581, -0.1546389908, -0.1491118073, 0.1251750439, -0.0915604904, -0.1049053296, 0.0721541494, 0.1429703087, 0.1486725956, -0.1233739480, 0.0683750808, -0.1401125193, -0.1489465386, 0.1051091701, 0.1444309801, -0.1113332063, 0.1505636424, 0.0946194977, -0.0935796350, 0.1292852908, 0.1218606979, 0.1209824234, -0.0745811015, -0.0130859762, -0.0494985729, -0.0574590713, 0.0664836466, -0.0417460501, 0.0196333826, 0.0464434326, 0.0056443810, -0.0280687213, 0.1495706290, 0.0980992764, -0.1520322859, -0.1445077956, 0.0742712319, -0.1368390024, -0.0703421608, 0.1496544629, 0.0190176070, -0.0767787844, 0.0033714920, 0.0557703823, -0.1466084868, 0.0066723078, -0.0715377629, -0.1501165479, -0.0316020548, -0.0144158602, 0.0634797066, 0.1282436699, -0.0115388781, 0.0027515292, 0.0723226219, 0.0316288918, -0.0595192686, 0.0874466598, 0.0287358165, 0.0701235831, -0.0499962121, 0.1430993527, 0.0209174752, -0.0764830485, 0.0883882940, -0.0836626068, 0.0277260542, -0.1112090647, 0.1141228825, 0.0192929804, 0.0290804803, 0.0475612283, 0.0878478736, -0.1214396656, 0.0742277652, 0.0052206963, -0.0194261223, -0.0802512318, -0.0019452870, 0.0543942451, -0.0425589532, 0.1007334143, 0.1404855102, -0.1132029146, 0.0170992613, 0.0302436650, -0.0110557824, -0.1087437421, -0.1354048103, -0.0634012595, -0.1541773379, -0.0720535368, 0.1410928816