-0.0054900795, -0.1189439148, -0.1431667507, -0.0561999083, -0.0656159744, -0.1328594834, 0.0307271034, -0.0800307766, 0.0870140046, 0.0657521784, 0.0810752511, 0.1028891653, -0.0803504512, -0.1265440285, 0.0817812085, -0.1192521304, 0.1224077195, 0.0852116644, -0.1507057995, -0.1139619946, -0.0552652404, 0.1027692407, 0.1508446783, 0.1513486058, -0.0058656186, 0.0718747377, 0.0351482034, 0.0006471127, -0.0844349116, 0.0313942283, 0.0624266267, 0.1465963870, -0.1246922910, 0.1273132712, 0.0647550374, -0.1251056045, -0.1140525788, 0.0689743906, -0.0633557960, -0.0773008540, 0.0285073668, -0.0302575082, -0.0397912189, -0.0472161546, 0.1359371096, -0.0866885707, -0.1403915882, 0.0874115676, 0.1349016875, 0.0631026179, -0.1108665168, -0.0806315914, 0.0109710842, 0.1269336194, 0.0742305517, -0.1115175039, -0.0587441698, -0.0492343530, -0.0316278785, -0.0532229170, -0.0441734567, -0.0966458917, 0.0354260951, -0.0608388633, 0.1060365587, -0.0006653965, -0.1039259136, -0.0431662202, 0.0512726009, 0.0130080134, 0.1109854132, 0.0905163139, -0.0550305769, -0.1003052816, -0.0546952933, 0.1115970761, -0.1131953448, -0.0848291144, -0.0121722221, 0.0860647857, 0.1503991038, -0.1163880005, 0.1002513617, 0.1091450304, 0.0976165980, -0.1082873791, -0.1150460839, -0.0187443346, -0.1380946934, -0.0633784160, 0.1091155857, -0.0782874227, 0.0874131471, -0.0075869113, 0.0920742899, 0.0865658224, -0.1445461065, 0.0343234539, 0.0742401630, 0.0853908062, 0.1533622891, -0.1036349684, -0.0872945935, 0.0125453174, -0.1062275246, 0.0159346461, -0.0963771120, -0.0496327356, -0.0625299960, 0.0116329342, -0.1217434257, -0.1172375828, 0.0442866981, 0.1204336733, -0.1343798935, 0.0886203647, 0.0543516874, 0.1090511531, -0.1132201850, 0.0097419918, 0.0592747182, 0.0146125555, 0.1063336283, 0.0557878017, -0.1464258730, -0.0001443475, -0.0429530442, 0.1216914505, 0.0450838059, -0.0765657499, -0.0823950768, 0.0575838536, 0.0639019907, 0.1100725681, -0.1204730645, 0.0885905474, -0.0530218408, -0.0951999351, -0.0621726662, -0.0163195729, 0.0554756671, 0.1192782074, 0.1351768523, -0.1571807265, 0.0371631235, 0.0756420195, -0.0037935972, -0.1089857966, -0.1338633597, 0.1419109553, -0.0838584825, 0.1289749295, 0.1422668844, -0.1311372519, 0.1396108419, -0.0010493845, -0.1504667550, -0.0857422873, 0.1369005591, -0.0762752220, -0.1221932322, 0.1082352549, 0.1488923281, 0.1511550397, -0.0613262132, 0.1273358613, -0.0798904300, 0.0224114209, -0.0974832624, 0.1152724177, -0.0956262201, 0.0511805117, -0.1246041209, -0.0343639031, -0.0673411116, -0.0445438325, -0.0215500295, -0.1334717274, -0.1268088073, 0.0062103271, -0.0962789059, -0.0581016988, 0.1499644369, 0.1121872514, -0.0964848101, -0.0149560571, -0.1207807511, 0.1115636379, -0.0871773511, 0.1384996325, -0.0059506297, -0.1272082180, -0.1437617689, 0.0089736134, -0.0285411030, 0.1447010487, 0.1294847876, 0.0256119519, -0.0954982340, -0.1326988190, 0.0523038507, -0.1520589441, 0.1128887385, 0.0946300179, -0.0457033217, -0.0302991122, 0.1515825242, -0.0332908109, 0.0608229935, 0.0285222977, 0.0908251703, -0.0912075713, 0.0591282398, -0.0750607252, -0.0458143055, 0.1354543716, -0.0984417498, 0.1399084777, -0.0940101743, 0.0094571114, -0.0192846954, -0.0619315505, 0.1308878511, 0.1016561538, -0.0082484633, -0.0109677315, 0.1536061913, -0.1398114264, -0.1041792780, -0.1249680519, 0.1287964135, -0.0924273357, 0.1249629706, -0.0901285559, -0.0171333402, -0.0072315037, -0.0119781643, -0.0135902464, -0.0597189888, 0.0872850865, 0.0734205544, 0.1036965996, 0.0007488132, 0.1049101502, 0.1542039961, -0.1261002123, 0.0958137363, 0.0480271727, -0.0932125002, -0.0902738422, 0.0478464216, -0.0927441493, -0.0262600780, -0.0028128177, 0.1237145811, 0.1164407283, 0.0384061784, -0.1328104138, -0.1506863832, -0.0538751557, 0.0192207098, -0.1042356342, 0.1414291412, -0.0210554451, 0.0630378872, 0.0380250961, 0.0496638417, 0.0778023303, 0.0331827402, -0.0046073943, 0.0851695538, -0.1342654824, 0.0327186435, -0.0645665526, 0.1099844426, -0.0343122184, 0.0196907967, -0.1116177887, -0.0843385980, 0.0848902911, -0.0279688984, -0.0950240418, 0.0481115431, 0.1051036865, 0.0856852531, -0.1186105907, -0.1571441591, -0.0172049999, 0.0614486933, -0.0174254179, -0.0020433366, -0.1119793057, -0.0839361027, 0.1280723959, 0.0903609246, 0.0949413031, 0.0071532130, 0.1010354310, -0.0968478769, -0.0338957012, -0.0054485351, -0.0586498156, 0.1102131158, 0.1112360209, -0.0184099674, -0.0168460906, -0.1316263676, 0.1365647167, 0.1237953156, 0.1458238512, 0.1285604984, -0.0644424558, 0.0258883089, 0.0849684030, 0.1176989526, -0.0266572237, -0.0394260883, -0.1362985373, -0.1358515918, -0.0754992217, -0.0039728731, 0.0081574619, 0.0629038364, 0.1297719032, -0.1165858731, 0.1123527735, 0.1031789929, -0.1551253945, -0.0388154984, -0.0055697411, 0.1223087460, 0.0389469862, -0.1133874506, -0.0586889088, 0.0437992662, -0.0657686815, 0.1361215860, 0.0203301162, -0.0997042730, -0.0506252348, 0.0110250562, 0.0457255989, -0.1389214694, 0.1541494578, -0.1077582613, 0.1522061974, 0.0809396207, 0.0853699893, 0.0743924230, -0.0172183812, -0.0027272552, -0.1398109496, 0.1466318518, 0.1222713739, -0.1568786949, 0.0239882171, -0.1489682496, 0.0389019847, -0.1157106534, -0.1224571466, 0.1158601493, 0.1444770247, -0.0006555617, 0.0951826721, 0.0705114603, 0.1514765471, -0.0866506100, -0.0898865834, -0.0512244701, -0.0636009052, 0.0822615474, -0.1057891399, -0.0360255986, -0.0309289247, 0.0588785261, 0.1267553121, 0.0265487731, -0.1565060616, -0.1261805445, -0.0303626060, -0.0390547290, -0.1534007341, 0.0898064375, -0.0919941589, -0.0794687048, 0.1394837052, 0.1506849080, -0.1279773563, 0.0579632372, 0.0558997989, 0.0669622123, 0.1434559673, -0.0623757020, -0.0954690576, -0.0788076892, -0.0806754753, 0.1192038208, -0.0196380615, 0.0156144798, -0.1332924813