0.0397561789, -0.0141380727, 0.2647802830, -0.2755191922, 0.1657578647, -0.1059696972, -0.0968202800, 0.1349930167, -0.1418240964, 0.0874884725, 0.1723819375, 0.2090189457, -0.1199659407, -0.1427371651, -0.0420691371, 0.0777772367, 0.1946672797, 0.1075474322, -0.0541810691, -0.0468672365, -0.1707141548, 0.1496306658, 0.1453480422, -0.1179497093, 0.1587793827, 0.1952011883, -0.0227428377, -0.0997495204, 0.0524162054, 0.0672784746, 0.2829290032, 0.1956225038, -0.2632159293, -0.2691023350, -0.2798955739, -0.0176320672, 0.2187789083, 0.0694394708, -0.1844917089, 0.2299906015, 0.0908249319, 0.0053378940, -0.2662680149, 0.1772437096, -0.0510684103, -0.1531047672, -0.0023216903, 0.1504543126, 0.2534182668, -0.2849862874, 0.1238846779, 0.1340578794, -0.0152153373, -0.2182750106, 0.1974270940, 0.1907534897, -0.1082742661, -0.0618294030, -0.1362454593, 0.0985544324, 0.1003177762, 0.2307801247, -0.1742457151, -0.0791392773, -0.0864549279, 0.1851627827, 0.0761941969, 0.0489867628, 0.2903011441, -0.0551075488, 0.0710242391, -0.0623564720, -0.0903221518, -0.1907098591, 0.2267403603, -0.2550119162, 0.2822256684, -0.1123618633, -0.1364377737, -0.0760548711, 0.2469280362, 0.1395892501, -0.2078952193, -0.0078550875, 0.2176977396, 0.0786630809, -0.0462755263, 0.2460419536, -0.1910764575, -0.1987585723, 0.0679602921, -0.2592280805, 0.0903784037, 0.2028608322, 0.0590336323, 0.1969838738, -0.2072080076, 0.0704773664, -0.2177962512, 0.2292915583