//Numpy array shape [10, 20, 2]
//Min -0.156755983829
//Max 0.157102122903
//Number of zeros 0

#ifndef QUERY_WEIGHT3_H_
#define QUERY_WEIGHT3_H_

#ifndef __SYNTHESIS__
multi_head_attention_query_weight_t query_weight3[400];
#else
multi_head_attention_query_weight_t query_weight3[400] = {0.0234037191, -0.0739881620, 0.0109171271, -0.1127721891, -0.0910386816, 0.0589375943, -0.0819395036, 0.0407937020, -0.0823729485, 0.1462537199, 0.0759530663, 0.0310871750, -0.0612925813, 0.0608360767, 0.0416015983, -0.1199230254, -0.0113177747, 0.1158979386, -0.0335784778, 0.0603509843, 0.1277870685, -0.1039769202, 0.0437706560, -0.0276358426, -0.1430008113, -0.1061195955, 0.1326915175, -0.0287147015, -0.1429277956, -0.1460977644, -0.0882545859, 0.1449588090, 0.0464092493, -0.0583222285, -0.0459677354, 0.0805915147, 0.0370417386, -0.0418988392, 0.0291461796, 0.0060104579, 0.0098593086, 0.0422109365, -0.0271567106, -0.1054405570, 0.1063479036, -0.0253738612, -0.0419268087, 0.0656880885, -0.1344735026, -0.0427208617, -0.1163969710, 0.1373325437, -0.1061439514, -0.0536361933, -0.0673842803, 0.0973934978, 0.0468732268, 0.0821778625, 0.1281091124, -0.1390564740, -0.0583942682, 0.0499945134, 0.1167469174, 0.0307112634, 0.0061134398, -0.0479278043, -0.1530356854, 0.0812608749, 0.0440737456, 0.1043415219, 0.1074277610, -0.0337769166, 0.1142158359, 0.1472479552, 0.0115856230, -0.0393620729, 0.1571021229, -0.1151151508, 0.0841725767, 0.0615417659, 0.0680871755, -0.1009514481, 0.0068081617, 0.0399912000, 0.0547104478, 0.0560329407, -0.1391048729, -0.1396045834, 0.1054740995, -0.0109990090, -0.1227303743, 0.0279188305, -0.0425346047, -0.1094796658, 0.0221111178, 0.0516594201, 0.0615888536, -0.0290587246, 0.0799750537, 0.0147918165, 0.0480432361, -0.1382569522, -0.0265601575, -0.0936050043, -0.1163030714, -0.0447673723, -0.1545451134, -0.1511968076, 0.0325058401, -0.0350430235, 0.1054282635, -0.0332533792, 0.0172824413, 0.0955358595, 0.0539513379, 0.0376809239, 0.0725904554, -0.0069992989, -0.0709046796, 0.0871477276, -0.0851984695, -0.1472333074, 0.0556053817, -0.0982286483, 0.0670616329, -0.1477375180, -0.0416333750, 0.0845233798, -0.0685905889, -0.0895545036, 0.0967193395, 0.1536587924, -0.0899781436, 0.1282252818, -0.0341953635, 0.0854129344, -0.1218763888, 0.0682136863, 0.0616351068, 0.1275590509, 0.0294848979, -0.0761067495, -0.0261460841, 0.1189863235, 0.1064893454, 0.0867175609, 0.0918156207, -0.0272824317, 0.0890698284, 0.0490675867, 0.0418211818, -0.0149087459, -0.0030410737, -0.0815108046, -0.0626652166, -0.0808613226, 0.0869134367, -0.0126147866, 0.1250715405, -0.0012293458, 0.0703952760, -0.0283201635, -0.0005313754, 0.0843239725, -0.0110046715, 0.0074134022, 0.1547459215, -0.1214691028, 0.0403363258, -0.0743061751, 0.0861329436, 0.0060374886, -0.1567559838, -0.0458458960, 0.0965696424, -0.0951459929, -0.1463960260, -0.0217320025, 0.0133658797, -0.0268655717, 0.1024616808, -0.0074887574, -0.1128562167, -0.0099102706, -0.0162479430, 0.0828972757, 0.0528858304, 0.0903544724, -0.1131338924, -0.1427569836, -0.0776101574, -0.0864761472, -0.0634523407, 0.0159460604, -0.0271774083, -0.0614298433, -0.0191155076, -0.0367387608, -0.0965763777, -0.0887906849, 0.1494947225, -0.1172003746, -0.1353255659, 0.0626244992, 0.1224565357, 0.0144537091, -0.0533014014, 0.1001682431, -0.0654703900, 0.1073015481, 0.1120088547, 0.0516253859, 0.0669427365, 0.0882378519, 0.1196666509, 0.1465369314, -0.1560267359, -0.1541167200, 0.1258077472, -0.0080887377, -0.0686083063, -0.0723583624, -0.1482422501, -0.0026921183, 0.0919293910, 0.1020024270, -0.0632690564, 0.0084667355, 0.1062114686, 0.0462079346, 0.1109809726, -0.0295696706, 0.0115213096, -0.0641692653, -0.1282787770, -0.0882770568, -0.0054171383, -0.1399962604, 0.0732221603, 0.1162666529, -0.0166167766, -0.1147538200, -0.0220287144, -0.0719353557, 0.0936550945, -0.0518078730, -0.1299634278, 0.0380539000, -0.0730735883, -0.1473039240, -0.1305686682, -0.0482065007, 0.1330131441, -0.0798191428, 0.0903244317, -0.0999776572, -0.0856733397, 0.0354911983, -0.1396007389, -0.0573500544, -0.1171997339, -0.1203359216, 0.1550018638, -0.0160089433, -0.0656047016, 0.0951450616, 0.0128161311, 0.0838028789, 0.0918225199, 0.0229067504, -0.0729142800, -0.0165996552, -0.1098085791, -0.1341819465, -0.0570856035, -0.0807360932, 0.0505363047, 0.1375101656, 0.1299616545, -0.1449237913, -0.0207564682, 0.0387455672, 0.0696420074, 0.0083839893, -0.0744838864, 0.0713239014, -0.0325027853, -0.0064506531, -0.0113073438, 0.1529267877, 0.1348230392, -0.1140912175, 0.1034372002, -0.0281757414, -0.1541631669, -0.0245396197, 0.0336155742, -0.0267992318, -0.0381954536, -0.1547984779, 0.0529045165, 0.0261664838, 0.0829083622, 0.0925867110, 0.1247460395, -0.1235715151, -0.1243730783, 0.1287658662, 0.0664544404, -0.0275719464, -0.1393446624, -0.1306053847, 0.0878630280, -0.1167313084, -0.0950932503, -0.1079609990, 0.1243915409, -0.0045254827, -0.0949058980, -0.0749921203, -0.1073544100, -0.0816670284, 0.0857692510, -0.1047454551, 0.1320233196, -0.1503547281, 0.1314558238, 0.0091203302, 0.0114019960, 0.0431400239, -0.0565845296, -0.0454083830, -0.0482647046, -0.0245577097, 0.1473662108, -0.0756325200, 0.0537405759, -0.0532699972, -0.0371094346, -0.0379689708, 0.1039373428, 0.0846354961, -0.0013255179, -0.0237306356, 0.1215369850, -0.1123215556, -0.0905459076, -0.0615007505, -0.0429345742, 0.0488246977, -0.1152207404, -0.0158844292, -0.0922866911, -0.0040620714, 0.0161579996, 0.0005831718, -0.0556952879, -0.0303125083, 0.0528461337, -0.1398081183, 0.1302769333, 0.0795684159, 0.0461792946, 0.1468144506, 0.0327720940, -0.1058907360, -0.1290688366, 0.1403239518, 0.0085866898, -0.0531660691, -0.0019970536, 0.0536979437, -0.0995168835, -0.0213275850, -0.0596038178, -0.0617244095, -0.0018454641, -0.1514431983, 0.1472684890, 0.0158280283, 0.1394225806, 0.0963679105, 0.0595130771, 0.1236475557, -0.1082096845, 0.0771341920, 0.0696427226, -0.1355589479, -0.0608269870, -0.0050319433, 0.1083608419, 0.0805656612, 0.1044268757, -0.0652066544, -0.0526848212, 0.1024071425, 0.1367923766, 0.1542662233, -0.0306793749, -0.0009428859};

#endif

#endif
