-0.0765514299, -0.1155850887, -0.0509495437, 0.0955372006, -0.0028986931, -0.0118874609, 0.1553787440, -0.1336376369, 0.1211218983, 0.0425309390, -0.0766992420, 0.0267466456, -0.1037373543, -0.1531664133, -0.0480692089, -0.0097102970, -0.0077532381, -0.1359426677, -0.0437742397, 0.1075903922, 0.1198337525, 0.0931969434, 0.0140306652, 0.1243839413, -0.1016861647, 0.1563276798, 0.1504016072, 0.1229941994, -0.0242029428, 0.0599459559, 0.1034034640, 0.0077715963, 0.1485249251, 0.0323985964, -0.1142495424, -0.0002451390, -0.0253120363, 0.0990984291, -0.0291130841, -0.0742573589, 0.0598239750, 0.1134663075, 0.1576288790, 0.0303042084, -0.1571670771, 0.0316075534, 0.1154768318, -0.1475856751, 0.1218623370, 0.0676070005, -0.0682201385, -0.0462819785, 0.1192453355, 0.0337962657, -0.0159941316, -0.1517304927, 0.0165825039, -0.0946914405, -0.1088747382, 0.1172607988, -0.1384360194, -0.1298433244, 0.0850030035, 0.0128171146, -0.0490695015, 0.1359001249, -0.1190070957, -0.0512297824, -0.0670684502, -0.0530971959, -0.0749195144, -0.0116211325, 0.0819035321, 0.1066090912, -0.0276611000, -0.0875500664, -0.0868378505, 0.0004725307, 0.1211759299, 0.0947050899, 0.0777270198, -0.0355335400, 0.1531281024, 0.0346841365, -0.1266959906, -0.1519075483, 0.0752825439, -0.0656586438, -0.1153461933, 0.0957700759, -0.1249402687, 0.0528257340, 0.1106582433, -0.0489550531, -0.1181597337, -0.0747227296, 0.1148918420, 0.0064899623, -0.1264076382, 0.1578398496, 0.1217966229, 0.1181733459, -0.1010195687, -0.1493422538, -0.1299688667, -0.1229298711, -0.1399039775, -0.1056138128, 0.1123771518, 0.1511719376, 0.0979133099, -0.0535068512, 0.0371980965, -0.0119375587, -0.0234944224, -0.0066247284, 0.0379326344, -0.1472158581, 0.1387006491, -0.0215625465, -0.1398870498, -0.0401926562, -0.0269462466, -0.0109882355, 0.1551494449, -0.0451172814, -0.0108255297, -0.0164420158, 0.0475077480, -0.1146983355, 0.0761569291, -0.0584169999, -0.1331622303, 0.1421729475, -0.0345038027, 0.0300230235, 0.1235984415, -0.0406931266, 0.0330628157, 0.1067307740, 0.0789690614, -0.1388445348, -0.0788403302, 0.0902258605, 0.0167471021, 0.0988238603, 0.1129218489, 0.0443414748, 0.0228770822, 0.0674530417, 0.0262311995, -0.0074973106, 0.0011730641, 0.0435055792, 0.0898928344, 0.0926271230, 0.0098501444, -0.1523555815, 0.0904485732, 0.0856981128, 0.0522810817, 0.0698266029, 0.0665647835, 0.0053243637, -0.1334979236, 0.1554726511, 0.0278395265, -0.0392490178, -0.0609558374, -0.0025748760, -0.0970843509, 0.1461311728, -0.0389069542, -0.0563937873, -0.0944427848, 0.1200037450, -0.0911671594, -0.0629470423, -0.1559162438, 0.0975636095, 0.0618952066, 0.0554555058, -0.0405027196, -0.0852621794, 0.0562786162, 0.0625802875, 0.1197212785, 0.0137058645, 0.0626780689, -0.0565653443, 0.0836030096, 0.0133213848, 0.1226566881, -0.0140365511, 0.0803673714, 0.0949592739, 0.0751069486, 0.1063727587, 0.1392250508, 0.0656089634, 0.1358240396, -0.0950826630, 0.0675318688, -0.1254978180, -0.0251146555, -0.1237981170, 0.1056425720, -0.0989048257, -0.0978539437, 0.1386885196, 0.1478663534, -0.0356358141, 0.0438860059, 0.0317557007, -0.0674511492, 0.0699210465, -0.1441377699, -0.1497703046, 0.0926445574, 0.0475226641, -0.0118548125, -0.0221194476, -0.1049991250, -0.0977184176, -0.0721998811, 0.0384792089, 0.0158579648, 0.0937851816, 0.0772535801, -0.0005681366, -0.1336309314, 0.0946805328, -0.0500038266, -0.0387398452, -0.0814292654, -0.1045977920, 0.0039956421, -0.0167650431, -0.0845730379, 0.1477422565, -0.0653909221, -0.0027021766, -0.1457850933, -0.0106486976, -0.1245018542, 0.1362712532, 0.0096148103, 0.0429803729, 0.1270619482, -0.0470255166, -0.1172253639, 0.1185574085, 0.1029901952, 0.1449404806, 0.0753926188, -0.1406649798, -0.1450364590, -0.0247547179, -0.1248779148, 0.0073519200, 0.1480047554, -0.1037314758, 0.1524192840, -0.1124818772, 0.0912626833, 0.1488002688, -0.0451018661, 0.0072487295, 0.0040821582, 0.1298838109, 0.0511035025, -0.0285741240, 0.0649793744, -0.1454828829, -0.0218724608, 0.0093467385, -0.0650271401, -0.0594830364, 0.1136905700, -0.1511137187, -0.0802724883, -0.0619805232, 0.0807236880, 0.1038320214, 0.0959836394, -0.0604288280, -0.0743713602, 0.1222131699, -0.0213917345, 0.0732010454, 0.0448692292, -0.1199514121, -0.0398164392, -0.0826690570, 0.1500229090, 0.0241091847, -0.0827143714, 0.1077058464, 0.0532673597, 0.0993990749, -0.1260612011, 0.1335177869, -0.0544122607, 0.0706908554, -0.0672988147, -0.0866328925, 0.1332018822, -0.0056969672, -0.1312980652, -0.0937789008, 0.1172926277, 0.0280310959, 0.1487680823, 0.0274529755, -0.0309656113, 0.0549716204, 0.0242161751, -0.1232546344, 0.0330971628, 0.0728496611, -0.0416712984, -0.0815541595, 0.1179073900, -0.0660754293, -0.0815715045, 0.0538276136, -0.1138057709, 0.1102680713, 0.0536672175, -0.1204171926, -0.0224721432, -0.0622056499, -0.0268839747, 0.0347203761, 0.1025001556, -0.0349692479, 0.0106586069, -0.1145735160, -0.0706660151, -0.0188906789, 0.1068069190, 0.1067489535, -0.0148762614, -0.0867502764, 0.0391342342, 0.1111734957, -0.1517390460, 0.1509979516, 0.1244468540, 0.0222693384, 0.1354066581, -0.1173558384, -0.0538341776, -0.0711039826, -0.1054380685, -0.0537336394, -0.0381622091, 0.0548703223, 0.0941001922, -0.0007061064, -0.1000864059, -0.0398772061, -0.0491424128, 0.1541910022, -0.1144398749, -0.0074203759, -0.0523553863, 0.0104229301, -0.1295370013, -0.0721126124, -0.1578558832, -0.1257224530, 0.1323428005, -0.0529270694, 0.0925599486, 0.1141565591, -0.0037403554, 0.0270083696, -0.0601570681, 0.1046903282, 0.0206966400, 0.0286067426, -0.0737988874, -0.1471759826, 0.1240125149, -0.0440320522, 0.0681740791, -0.0684581622, 0.0527574271, -0.0923582762, -0.0772282109, -0.0589179173, -0.0366985723, 0.0859774798, -0.1081893295, 0.1163244694, -0.0175619274, 0.1321963519, 0.0616747290, -0.0850394219