//Numpy array shape [10, 20, 2]
//Min -0.157475784421
//Max 0.158034369349
//Number of zeros 0

#ifndef QUERY_WEIGHT3_H_
#define QUERY_WEIGHT3_H_

#ifndef __SYNTHESIS__
multi_head_attention_query_weight_t query_weight3[400];
#else
multi_head_attention_query_weight_t query_weight3[400] = {-0.1003336683, -0.0193280429, 0.1563855261, 0.1296084374, 0.0483216196, 0.1574759930, -0.0915897414, -0.0871520564, -0.0477741882, -0.1464409232, -0.0919823572, -0.1386978179, 0.0203643739, 0.0031861067, 0.0653385967, 0.0172512978, -0.1390516162, -0.0477651805, 0.0117742568, 0.1281095296, -0.0899000391, 0.1425665170, -0.0767992511, 0.0858817697, 0.0818311274, -0.0862348452, 0.0352814943, -0.0127840936, -0.1028373688, -0.0094189346, 0.0243937671, 0.0210403651, -0.1129963696, 0.0665990114, -0.0535751209, 0.0072832257, 0.1088830382, -0.0283937454, -0.1475627571, -0.1185889170, -0.0408371314, 0.1008241326, -0.1490511596, -0.1254523844, -0.1450394094, 0.1080923229, 0.0443217903, -0.0210637748, -0.1130340695, -0.0055471957, -0.1058380008, 0.1320056766, -0.1104480028, -0.0439960882, -0.0975672528, 0.0375662446, 0.0367419571, -0.1569181979, 0.1189164370, 0.0948688835, 0.0594493002, 0.1310905963, 0.1116435975, -0.1334552169, -0.0124422163, -0.0706195682, 0.1228276640, 0.0346603543, 0.0340818167, -0.0006084740, -0.0701065138, 0.1552145332, -0.0877134427, 0.1274030954, -0.0798305273, -0.1442110091, 0.0631011128, 0.0802378058, 0.1329637617, 0.0474859178, 0.1182591766, -0.0804156661, 0.1289310306, 0.1122886389, -0.0656395704, -0.0350597948, 0.1105436832, -0.1180411726, 0.0480511934, 0.0405379236, -0.0076774657, 0.1469448060, -0.0616224334, -0.0110746324, -0.0984566808, 0.1174048036, -0.0968343765, 0.0026426166, -0.0170323104, 0.0866519213, 0.1254480928, -0.0649556667, 0.1170805246, -0.0674579367, 0.1047900766, 0.0499991626, 0.0397872180, 0.1189777404, 0.1192935556, 0.1041720361, 0.0661049485, 0.0901338011, 0.0268908292, -0.1341408193, -0.0149471611, -0.0568403825, -0.0485402346, -0.1070833281, -0.1494962871, 0.0667617023, -0.1322775185, -0.0556421727, 0.0854512304, 0.0272796750, 0.0876761228, -0.0317938179, 0.0120256990, 0.1466390938, 0.0861589611, -0.0098628849, -0.0018604398, -0.0476982296, -0.0291960239, 0.0371935368, -0.0034371614, 0.1315528005, 0.1416316181, 0.1376430839, 0.0647889376, -0.0250230879, 0.1507537812, 0.1575812250, 0.1197986156, -0.0730556101, 0.0427904129, 0.0446410924, -0.0358842388, -0.1165369451, -0.1542644650, 0.0376268327, -0.0304006040, 0.1269897968, -0.0569461286, -0.1450158060, 0.0516872406, -0.1381288171, 0.1097438782, -0.0736794621, 0.0545839816, -0.1498458534, -0.1194335967, -0.0835239217, 0.1470825523, -0.1447797120, -0.0847615227, -0.1387145966, -0.1336234212, 0.1031294912, 0.0745023191, 0.0573313534, -0.0759137422, 0.0028740466, 0.0530268103, 0.0282557011, 0.0882476121, 0.0314168036, 0.1355963498, -0.0763131455, -0.1137853786, 0.0043188632, 0.0468314588, 0.1143883914, 0.0879821181, -0.1417646110, 0.1444778591, -0.1377824843, 0.1319860369, 0.1511715204, -0.1543367654, -0.1248576045, -0.0106431097, 0.0674258173, -0.1555711925, 0.1240292341, -0.1228880659, 0.0131568462, -0.1016401425, -0.0269098282, 0.0334017128, -0.0230566412, -0.0209963024, 0.1093093604, 0.0552195907, 0.1303202361, -0.0593200326, 0.1086021513, 0.0500002801, 0.1288186163, -0.1440034062, 0.0775566995, -0.1036132574, 0.1091548949, -0.0218887031, 0.0113344789, -0.1365135610, 0.0555999130, -0.0920263901, -0.0632449239, 0.0720368773, 0.0361153930, 0.0737606287, -0.0002131760, -0.1033538580, 0.1579692811, 0.1222614199, -0.0282645226, -0.0035159141, 0.1327041835, -0.0618641153, -0.0312127918, 0.1531731933, -0.1192267984, 0.1293593198, -0.1231522486, 0.0990679115, 0.1487980932, -0.0421272069, 0.0463646054, -0.1050541997, 0.0812093765, -0.0689357445, -0.1475226730, -0.0652750358, 0.1447020918, 0.0800251216, 0.1487918347, 0.0526746511, 0.0980503410, 0.0477194190, -0.0780013055, -0.1362347901, 0.0851248056, 0.0580694675, -0.0129676461, -0.0665724277, -0.1235698238, 0.0621930957, -0.1312244833, -0.0983646661, 0.1200755984, -0.1030438766, -0.0807199180, 0.0470394343, 0.0062570721, -0.0393168032, 0.0007170439, -0.0503688902, -0.1049630046, -0.1317470074, 0.0500330031, 0.0434100777, 0.1195090264, 0.1347550601, -0.1080271155, 0.1425187141, 0.0567913055, 0.1580343693, 0.0694689751, 0.0670212954, -0.1427225769, 0.0268799365, -0.0447346568, 0.0844891220, 0.0203045458, 0.1171152145, 0.1230797619, 0.1082177907, -0.1128847152, -0.0771352500, 0.0500009209, 0.1505666822, -0.0843167305, -0.1329433322, -0.0370595232, -0.1254894137, -0.0201199055, -0.1456732154, 0.1325056702, -0.1159428656, -0.0106760263, 0.0977573842, 0.0146852732, 0.0119217336, -0.1124775112, 0.1144178659, 0.1239978820, 0.0551020056, 0.0570451617, -0.1288247854, -0.0635430738, -0.0057552010, -0.1443574280, 0.1336017996, -0.1273301244, -0.0836796090, -0.0011540204, 0.1282352060, -0.0244174302, 0.0379450023, 0.1182542890, 0.1007147580, 0.0828710049, 0.0364687741, -0.0618290901, 0.0774684846, 0.1217027754, 0.0834021121, -0.0760359168, -0.0791180506, -0.0959918052, -0.0533813164, -0.1326418668, -0.0534206405, 0.0964957029, -0.0543776602, -0.0363165513, 0.0100371242, 0.1190327555, -0.0681431219, -0.1414361447, -0.0009267181, -0.0029724240, 0.0562364757, 0.1210715622, -0.1161545366, 0.0185057819, 0.1317176074, 0.0907286257, -0.0600915104, -0.0731366202, -0.0658054426, 0.0019091815, -0.0282410681, 0.1003780812, -0.1369543523, -0.0086703002, -0.0444698706, 0.0216958076, -0.1506665945, -0.1574757844, -0.0379757211, -0.1005723327, -0.0269871056, 0.0689063370, -0.0293687880, 0.0806515813, -0.0238987654, -0.1003510058, 0.0298193842, -0.1267428398, 0.0754313320, -0.0668295622, -0.1097311527, -0.1179464757, -0.1440137029, 0.0501799136, -0.0709405988, 0.1497432142, 0.1151372343, -0.0881398022, 0.0869213045, -0.1077370346, -0.0833458006, 0.1514682919, -0.0779118091, -0.0416525602, -0.0448082760, 0.0780148357, 0.1547802836, 0.0247965604, 0.1390026361, 0.0795021057, -0.1096628457, 0.0132060796, 0.0768555254, -0.0236274153, -0.0190047175, 0.0689964443, 0.0304712802, -0.0964382887};

#endif

#endif
