//Numpy array shape [10, 20, 2]
//Min -0.154564425349
//Max 0.157694622874
//Number of zeros 0

#ifndef VALUE_WEIGHT3_H_
#define VALUE_WEIGHT3_H_

#ifndef __SYNTHESIS__
multi_head_attention_value_weight_t value_weight3[400];
#else
multi_head_attention_value_weight_t value_weight3[400] = {-0.0051838309, 0.0132056624, 0.0428517461, -0.0543114617, -0.0781128854, -0.0555687770, 0.1171584278, 0.1419560462, 0.0853666812, -0.0357572734, 0.0812410414, 0.1098331660, 0.0633809716, -0.1347276568, -0.0407038331, 0.0219183713, -0.0556959286, -0.1249171197, 0.1225162894, -0.0053049177, 0.0837497264, 0.0715515614, -0.1213083565, 0.0944512039, 0.1159050614, 0.0487638116, 0.0146087557, -0.0586012602, 0.1564946324, 0.0180373937, -0.1181272417, 0.0297935158, -0.0174147189, -0.0005916655, -0.1097966284, 0.1097777933, -0.1302429140, 0.1565663069, 0.0991855711, -0.0694563463, -0.1173758954, -0.1197741628, -0.0214786679, 0.1128919572, 0.0181074739, 0.1230315417, 0.0844428986, -0.0039533526, -0.0166274458, 0.0447533131, 0.1342273206, 0.1139839441, -0.0248730034, 0.1121897548, -0.1160128713, 0.0923667699, -0.0018789470, 0.1412072629, 0.0035309196, 0.0537010282, 0.0635837466, 0.0938323587, 0.1474812776, -0.0209586322, -0.0998453721, -0.0608342215, 0.1351991743, 0.0766214281, -0.0558112115, -0.1462209225, -0.0378361642, -0.0440741256, 0.1421786398, -0.1305834353, 0.1199389249, -0.0609363094, -0.1204566658, -0.0342084765, -0.1305244118, 0.1380742639, -0.0939867273, -0.0962484479, -0.0395356342, -0.1107954532, 0.0292991549, 0.0071492195, 0.0576441288, -0.0350875407, -0.0934360400, -0.0126698762, 0.0133739114, -0.0981164277, -0.0390309393, 0.0974438637, 0.0561047196, -0.0153795183, -0.1247572452, 0.0020151883, -0.0091311485, 0.1008606702, -0.0149867386, 0.0828389227, 0.0581033230, 0.0339856893, 0.1065477580, 0.0998110622, -0.0483719930, 0.1385390311, -0.0499098524, 0.1534602791, 0.1432438046, 0.1006024033, 0.0360375494, 0.0122699738, -0.0364662856, -0.1479871124, 0.0110245645, 0.0596277267, -0.1172424406, 0.1533811837, -0.0342050493, -0.0624224097, 0.1477401406, -0.1259601712, 0.1201404482, 0.1326194257, 0.1429770142, 0.0747477263, -0.0755883753, 0.0266431570, 0.0063585937, 0.1454206854, 0.0097874254, -0.0028879493, 0.0697759092, 0.0483805537, -0.0317915976, 0.0912299603, -0.1107352525, 0.1246385723, 0.0452033132, -0.1297523677, 0.0183653235, 0.0555357933, 0.1103072315, -0.0112564862, 0.0789418072, 0.1103621274, 0.1284464449, 0.1501937062, 0.0191703588, 0.0391137302, -0.1455606818, 0.0368832946, -0.0430870578, 0.0143529028, 0.0008108318, -0.0779050663, 0.1032282263, -0.1436493993, -0.0217437893, 0.0679771751, -0.1487518400, -0.0099316835, 0.1309698671, -0.0049830973, 0.1431982964, 0.0423192382, -0.1489754170, -0.0605730563, 0.0811500847, 0.0155375749, 0.0797616094, -0.0504230633, 0.1032931954, -0.0894423574, 0.1365547031, -0.1508818865, -0.0031804889, 0.1035741121, 0.1399170607, 0.0819543153, -0.0505702347, -0.1040214002, -0.0480793864, 0.1044806093, -0.0144022107, 0.1251347214, -0.0122959912, 0.0424517840, -0.1434525400, -0.0664593354, 0.1061395258, 0.0559921563, -0.0320534706, -0.0478336364, 0.0379767716, -0.0488861427, -0.0302076340, -0.1178681850, 0.1203166097, 0.1062541157, 0.0227200389, 0.0784935504, -0.1154381782, -0.1045423001, 0.0003530681, 0.1144470423, -0.1364293844, 0.1481108218, -0.1421009004, -0.0446915254, 0.0040379763, 0.0913026482, 0.0228608400, -0.0331053734, -0.1361077875, -0.0254840404, 0.1304155737, -0.0139664263, -0.0945584029, -0.1356092840, -0.0315445662, 0.1182857305, 0.0800709575, 0.1138351709, -0.0846895576, 0.0225357413, 0.0502372533, 0.0374373645, -0.1180419326, 0.1474948078, -0.0806623921, -0.1211646944, -0.1037789732, 0.1117360443, -0.1149271578, 0.0270271003, -0.1391977221, 0.1320254356, -0.0208435804, 0.0743348300, -0.0141402483, -0.0417811871, -0.0056805313, -0.1221290305, 0.0263706893, 0.0633326173, 0.1171019822, 0.0202715993, 0.0387281924, 0.0658726990, -0.1166267693, -0.0554697141, -0.1198827252, 0.0690148324, -0.0202624500, 0.0338459462, 0.1576946229, 0.0739966780, -0.1240184605, 0.1455855519, -0.1235971153, -0.0153169781, -0.0901955441, -0.1214050949, -0.0664913803, -0.0382197350, 0.0104629993, 0.0701937079, 0.0870253891, 0.1133189350, -0.0527706966, -0.1545644253, -0.0703836232, 0.0632868111, -0.1457213908, -0.0495393649, -0.1378729343, 0.0713562965, -0.1337131858, 0.0120643079, 0.0420856327, -0.0404052734, -0.0107533038, 0.1422287375, 0.0285259485, -0.1139901131, -0.1161848456, -0.1493798792, 0.0287091285, -0.0946349651, 0.0694933683, -0.0357133523, 0.0347106755, -0.0409086421, 0.0808547586, -0.0013332367, -0.1015411466, -0.1365800202, 0.0111428350, 0.0070556849, 0.0165113807, 0.0014194548, -0.0440308452, -0.1182330549, -0.1066703498, -0.1152004227, 0.0597993881, -0.0098882616, -0.1262221336, 0.0223997682, 0.0495267361, 0.1049887687, -0.0901128426, 0.0620015264, -0.0531606376, -0.0769330412, -0.0293966085, 0.0632514507, -0.0246314853, 0.0772713721, -0.1411211491, 0.0050239116, 0.0091634244, 0.0204269886, 0.0553682745, 0.0147207528, -0.1254107654, 0.1313086599, -0.1041878387, -0.1051372439, 0.1563386470, -0.1333526075, -0.0706180260, 0.1161105782, -0.0158424675, -0.0030417889, -0.1054813117, -0.0547153130, 0.0581641942, -0.1060080528, 0.0156667233, 0.0922893435, 0.0914627016, 0.0418980867, 0.0865672231, -0.1210600510, 0.0508012474, 0.0319243968, -0.1234719232, -0.1395250559, -0.0143474340, -0.0875860676, -0.1346302032, 0.0019506812, -0.0614001751, 0.0636333525, 0.0836176723, -0.0460046008, 0.0760203451, 0.0924886316, -0.0460195318, 0.0076614469, -0.0307361782, -0.0584825873, -0.1353510916, 0.0013106167, 0.0380591452, -0.0169591010, 0.0558352172, -0.1167898923, 0.1359161288, -0.0271549821, 0.0599521101, -0.0489404276, 0.0540928990, 0.0468954295, -0.1290436983, -0.0154016018, -0.0384945124, -0.0645954683, 0.0124843270, -0.1505217999, -0.0296635032, -0.0714239553, -0.0170149654, 0.0370975286, 0.1373784095, -0.0302529782, -0.0466993600, -0.1048772037, -0.0655562952, -0.0595248863, 0.0971213728, -0.0463497192, -0.0637564063, -0.0018217266, 0.0313755721, -0.1509421617};

#endif

#endif
