-0.1035060808, -0.0376660749, -0.0767709762, -0.1260274202, 0.0212620646, -0.1246732920, -0.1309679151, -0.0881284550, -0.0659291968, -0.1119761765, 0.1130796820, -0.1391247362, -0.0522176772, 0.1271572560, 0.0309098512, 0.1384621412, 0.0188855082, 0.0987095088, 0.0560375005, -0.0019633919, 0.0148676932, -0.0205138475, 0.0258576274, -0.0532791242, -0.1502497792, 0.0416563004, 0.0401927382, -0.1010955721, -0.1535439193, -0.0270370990, -0.0008964837, -0.1515487134, 0.1559630185, -0.0363271385, -0.0128289908, 0.1417779475, -0.0177922100, 0.0835379362, 0.0301564783, -0.0563763306, 0.0201352537, 0.0967086703, 0.0470456928, -0.1034064144, 0.0213540494, -0.0633945838, 0.0990760773, -0.0475390702, -0.1543389559, 0.1340227276, 0.0418241173, -0.1067800969, 0.1280731410, 0.0503996909, -0.0087564439, 0.0685401857, 0.0778775811, 0.0680809617, -0.1348998845, -0.0479014888, -0.0211642683, -0.0554065704, 0.0405881405, -0.1405285448, -0.0157856196, 0.0449356884, -0.0585776642, 0.0414946526, 0.0343213081, -0.0904982537, 0.1071401089, -0.1380964667, 0.1482014805, -0.0823205113, -0.1017030627, 0.1270029098, 0.0681864321, 0.0741628557, -0.1204706579, 0.0118326098, -0.0085901618, -0.1104559526, 0.0558496267, -0.0095639080, -0.1205013394, 0.1263169795, 0.1076637655, 0.0711976290, -0.0823769048, 0.0683905631, -0.0776377544, -0.0444870591, 0.0617597997, -0.1562382579, -0.0548327416, -0.0855737850, -0.0451953188, 0.1227583438, -0.0934953764, 0.0759945214, -0.0387478694, 0.0306357592, 0.1141951233, 0.1356650740, 0.0646045506, -0.1045024246, 0.1307439953, -0.0675197616, -0.0402227044, 0.1289536804, -0.0274463743, 0.0873080492, 0.0714844614, 0.0983166844, -0.0805918649, 0.0733213425, -0.1251625270, -0.0750079155, -0.1060609370, 0.1442182213, 0.1209393889, 0.1196140498, 0.1526094228, -0.0575853214, 0.0106710494, -0.0633790195, 0.1432700008, -0.0433913097, -0.0088588297, -0.1569638550, -0.1314680874, -0.1514769346, 0.0482939631, 0.1185798794, 0.1422567517, 0.0381218344, -0.0292219967, 0.1518471092, -0.1037766784, -0.0423029512, 0.0448702127, 0.0977288336, 0.1005340368, 0.0820436180, 0.0274264663, -0.0019402802, 0.1533716470, -0.0786650404, 0.0036942959, -0.0929028913, 0.0674476027, 0.1535458714, -0.0337298736, 0.1376884133, -0.1294039339, -0.1536368728, 0.0927643627, 0.0953271538, 0.0007682741, 0.1064412445, -0.0446584299, 0.1408234984, -0.1133042872, 0.0545625240, 0.0438130349, -0.1392505020, 0.0684656948, -0.0502520651, -0.0569492951, -0.0680361763, -0.1024589986, 0.1079282612, -0.1507435739, -0.1562453806, 0.1134654731, 0.1355698258, 0.1142648011, -0.1534310877, -0.0675286576, -0.1534017622, 0.0449181646, -0.0182151794, 0.0427267849, -0.0618846938, 0.0106580853, 0.0575968623, 0.0359970331, -0.0352444351, -0.0795112699, 0.0105351806, -0.0034964979, 0.0464494973, -0.0386026278, 0.1212094873, 0.1215305179, 0.1458781213, -0.0495521426, -0.1511943936, -0.0718444288, -0.1181057543, -0.1451841593, 0.0134272128, -0.1121873856, -0.1489244103, 0.1261157840, 0.0221272558, 0.0418526977, 0.1392009407, -0.1313353181, 0.1290789098, 0.1057408601, -0.1516264081, -0.1439654082, 0.1013758034, 0.0505835414, 0.0776039809, -0.0434227884, -0.1520711631, 0.0452514440, -0.0929288268, -0.1071571037, -0.0505482182, 0.1180597991, 0.0656687170, 0.0510086864, -0.1338213384, 0.1464780718, 0.0612550378, -0.1440919936, -0.1349857301, 0.1358049959, 0.0074787289, 0.1432942599, -0.0365840495, -0.1151014641, -0.0076542795, -0.0904792175, -0.0050982982, 0.1399701387, -0.1053697988, 0.1579428762, -0.0118951201, -0.0598402247, 0.0846085846, -0.0356083661, 0.0142444819, 0.1058347076, -0.0478833988, -0.0878040344, 0.0436245799, 0.0508829653, -0.0797736421, 0.0710138530, 0.0128364563, 0.0124442577, -0.1304128170, -0.0321036577, -0.0612828955, -0.0277707577, -0.1168227643, -0.0340509415, -0.0006158948, -0.0789622441, 0.0567791313, 0.0786789954, 0.0330062360, -0.0650794283, 0.0080675930, -0.1085483953, 0.0510080159, 0.0398596823, 0.0706474632, -0.1117181703, -0.1331407875, 0.0374050587, 0.0976743251, -0.0934049785, 0.1491222829, 0.0212084949, 0.0486393422, 0.1012375206, -0.0032580644, 0.0236569345, 0.1551972777, 0.0300273150, -0.0179603845, 0.1179450601, 0.1211466044, -0.1059239060, -0.1239504516, 0.0071668923, 0.0266573727, -0.0697583780, 0.0650261641, 0.0690709352, 0.1161469966, 0.0201701522, 0.1185202450, 0.0501484424, 0.1208915561, 0.1022787243, -0.1044531912, -0.1439242512, -0.1174434870, -0.1126980036, -0.0611199290, 0.1227696091, 0.0250129402, 0.0311937183, 0.1252530068, 0.1241735071, -0.0229230076, 0.0742340237, 0.0457714498, 0.0103045553, 0.1035840064, -0.0007363409, 0.0476217717, 0.0663856715, -0.0807768777, 0.0239926577, 0.0904975086, 0.1468863934, 0.0927331001, 0.0887153298, -0.0700194314, 0.0797940344, -0.1101427227, 0.0563256592, -0.0563112274, -0.1360245198, -0.0587434545, 0.0267116874, 0.0186970979, 0.1510557085, 0.0601557046, 0.0268357247, 0.1230280250, -0.0400977358, 0.0292166471, -0.0286658853, -0.0397136807, 0.0687206835, -0.0638343245, -0.0248290598, -0.1056633443, 0.1316651255, -0.0239237845, -0.0318018794, 0.0479383171, 0.1294781417, -0.1310853064, -0.0586281419, -0.1107358560, 0.0494119525, -0.0010774583, 0.1432273239, 0.0766843557, 0.0769271255, 0.0022583753, 0.0053095520, -0.1510381699, 0.1064385027, 0.1553044468, -0.0903697461, 0.0730865598, -0.1028193831, -0.0824389905, 0.0300419480, -0.1201316044, 0.0918498933, 0.1483845860, -0.1516921073, 0.0932539552, -0.0160978734, -0.0884599984, 0.0068831891, 0.1436237842, -0.0443271473, -0.0544281006, 0.1552485079, -0.0294132680, -0.0691012740, -0.0153075904, -0.1357959956, -0.0206277221, -0.0759854019, -0.0820633769, -0.0888563097, -0.1445548087, -0.0887735710, -0.0503529832, 0.1562293619, 0.0590410829, -0.0076522082, -0.1209241897, 0.0100737363, -0.1222740561, 0.0720555335, 0.0582321733