//Numpy array shape [10, 20, 2]
//Min -0.155981987715
//Max 0.158045843244
//Number of zeros 0

#ifndef VALUE_WEIGHT3_H_
#define VALUE_WEIGHT3_H_

#ifndef __SYNTHESIS__
multi_head_attention_value_weight_t value_weight3[400];
#else
multi_head_attention_value_weight_t value_weight3[400] = {-0.0752851740, -0.0293462873, -0.0073240101, -0.1274991632, 0.0595159531, 0.0015214682, 0.1557441503, 0.0124089271, 0.1024929732, -0.0255805105, -0.1298429966, 0.1164597720, -0.0203705579, 0.1218643934, -0.1424497217, -0.1468969434, -0.0183543563, -0.0450586975, -0.0549064353, -0.0581629202, 0.0575764179, 0.0178121924, -0.0234362185, 0.0036396384, -0.0287193805, 0.0579627007, 0.1111572832, -0.1538077593, -0.1024916098, 0.0450737029, -0.0136458129, -0.1342904419, -0.0395615324, -0.1117529273, -0.0197182894, -0.1194591597, -0.0197406709, -0.0723325387, 0.0653617084, 0.1327966005, -0.0390109271, -0.0769908279, 0.1263884455, 0.0865910053, 0.0409360528, 0.0349467844, 0.0543373972, -0.0675726160, -0.0033357590, 0.0492966324, 0.0933061093, -0.0530126393, -0.0310566127, 0.0019364357, 0.0174041986, 0.1144171506, 0.0836832225, -0.0662604496, -0.0290371329, -0.0292189717, 0.0783481151, -0.1325765252, -0.1444080472, -0.0776681006, -0.0124883503, 0.0040888786, 0.1172464937, -0.1014699787, 0.0533617884, 0.0695949197, 0.1547498852, -0.0902222022, -0.0352702588, 0.0839669704, 0.0999967605, 0.0169273615, 0.0748017132, 0.1359674484, 0.0619410574, -0.0617447644, -0.0130822361, -0.1017389074, -0.1554765105, 0.1037429422, 0.0368139297, -0.0835394114, -0.0061412305, 0.0877716094, 0.0460158288, -0.0594181642, -0.1026356518, 0.0102781206, -0.0582831353, -0.0457294509, 0.0631091446, 0.1348419935, -0.0183942020, -0.1339418888, -0.0441799760, -0.1517730057, 0.0641608983, 0.0769466460, 0.1292943805, 0.0233258307, 0.0394435823, 0.0981200486, 0.0164268911, -0.0783498511, -0.0088721663, -0.1457004696, -0.1128562912, -0.1084448025, -0.0175740570, 0.1023655981, -0.0416821539, 0.0493167639, 0.0798085183, 0.1016262621, -0.0064363927, 0.0477271825, -0.1063605994, 0.0178558826, 0.1410739273, 0.0888375342, -0.0480117202, -0.1374955773, 0.0024478734, -0.0864357725, 0.0009236932, 0.0548387766, -0.0917114690, -0.0232621729, 0.0960134417, 0.0207131505, -0.0480680019, 0.0171585977, -0.0029363483, -0.1215567142, -0.0323025435, 0.1443615407, -0.0148091465, 0.1298006326, 0.0952815264, -0.0592813939, 0.1577934474, -0.0810662434, 0.0886185616, 0.1555880755, -0.0333624408, -0.0679043904, 0.0843061060, -0.0957955122, -0.1437273473, -0.0711774901, -0.0602344573, -0.1555552483, 0.1580458432, 0.0256127119, 0.0978818089, -0.0448627472, 0.0194766819, 0.0940115601, -0.1185853332, 0.0753493756, 0.1478159279, -0.1412301362, -0.0650629178, -0.0866655335, -0.0354090631, 0.0546896011, 0.0727425367, 0.0378056616, 0.1092280895, -0.0964801013, -0.1348938644, -0.0956259966, -0.0774143562, 0.0361199528, -0.1330872625, -0.0150579512, 0.0731195360, -0.0130754858, -0.0478697121, 0.0046740919, 0.0011841804, -0.0176514834, -0.1383069754, -0.1119853705, 0.0437763929, 0.0985556394, 0.0650217831, 0.1079219431, -0.1267167181, -0.0594614744, -0.0161989033, -0.1432844400, -0.1389415264, -0.0127459466, -0.0359244570, -0.1070924848, 0.0747910440, -0.0305885524, 0.0066860616, -0.0584111139, 0.1436441988, -0.0683087632, -0.1440542638, -0.0144240409, 0.1101021320, 0.1500228494, 0.1563818008, 0.1174017042, -0.1209696904, -0.0463071615, 0.0731239468, 0.1463941783, 0.1325950772, 0.1512462050, 0.0986757725, -0.0533684641, 0.0298690647, 0.0067387223, -0.0405462608, -0.0650003403, -0.0407657698, 0.1240704507, -0.0741826072, 0.1115660518, -0.0800057054, -0.1165358126, 0.0524006933, 0.0051812679, 0.0463288724, -0.0509631485, 0.0786383897, -0.0410885364, -0.0999416858, -0.1096276343, 0.0335668027, -0.0153298676, 0.1546115130, -0.0265315026, -0.0722100958, 0.1426745504, -0.0415565819, -0.0928299874, 0.1008385867, 0.1000527591, 0.0600451827, -0.1353683621, -0.1223801374, -0.0691790432, -0.0419992656, 0.0497978479, -0.0280528814, -0.0769353360, -0.1532241702, 0.0937808305, 0.1369076520, -0.0234567970, -0.0236260593, -0.1102135926, -0.1368990242, -0.1215492114, 0.0338232517, 0.0234727859, -0.0939072594, -0.0935038999, 0.0575256795, 0.0558040440, -0.0563794598, 0.1217601150, -0.0478894636, 0.0172637701, 0.1099973768, 0.0869222581, 0.0987063199, 0.1117677540, -0.0099781752, -0.0717507154, -0.0517072231, 0.1566944569, -0.0635739118, 0.1112752408, 0.0576309711, 0.0815647095, 0.1540785879, 0.1103019267, -0.0142939389, -0.0558058545, 0.0397643000, 0.0430834442, 0.1154628247, -0.0055504292, 0.0861577839, 0.1171454042, 0.1326072961, -0.1507064849, -0.1430317611, -0.1225767583, -0.0302625895, -0.0818342119, 0.1121143252, -0.0236515403, 0.1023302227, 0.0049010962, 0.0414783210, 0.0313699096, 0.0270168185, 0.0803936124, -0.1027832031, 0.0846117884, -0.0783132836, -0.0830730200, -0.0732491463, 0.1239186376, 0.0055267215, 0.0881831497, 0.1209545583, -0.1090937257, -0.1404433846, -0.0282281041, 0.0647573471, 0.0567689091, 0.1409529895, 0.0496467948, -0.0041626543, -0.0421526507, 0.0990364403, 0.0391261578, -0.0221882910, -0.1363534182, 0.0310291648, -0.1443166435, -0.0742573962, -0.1058668792, -0.0806161016, 0.0326513201, 0.0673549920, 0.0797111094, -0.1155891567, -0.0587944984, 0.0608620793, 0.0195347667, 0.1397060007, -0.1325181425, 0.1532481760, -0.0233711898, -0.1453980953, -0.1076299399, 0.0015535355, -0.1003913060, 0.0804153681, -0.1559819877, 0.1063802391, 0.0309019387, -0.0839165747, -0.0634745806, 0.0482075512, -0.0608155653, -0.0086754262, 0.1027583927, -0.0407740250, -0.1281912029, 0.1013438553, 0.1207585782, -0.0558827966, -0.1356648803, -0.0579116642, 0.0839833319, -0.1161845848, -0.0119874030, 0.0465917736, 0.0191370249, 0.1409335285, 0.0743205100, 0.0259341896, -0.0168796778, -0.0497872606, -0.0038881004, 0.0519941002, -0.1113962755, 0.1390724629, -0.0063741207, -0.1228456572, -0.0977198929, 0.1383921057, 0.0129564106, 0.1099911183, -0.1521864682, 0.0286653936, -0.0081318766, -0.1539060771, -0.0142861009, 0.1357970983, 0.0295367241, -0.1535723358, -0.0672718659, -0.0582690388, -0.0886167064};

#endif

#endif
