0.1136637181, -0.1346990466, -0.1168974787, -0.0674075782, 0.1294360608, -0.1397872716, -0.1236525625, 0.0362374932, 0.0716535300, 0.1186353117, 0.0258112550, -0.0137778670, 0.1244674176, 0.1158666164, -0.1207327247, 0.1335735768, -0.1105443910, -0.1134182811, 0.0621374995, 0.1497421712, -0.0990310013, -0.0534599945, -0.0684224591, 0.1349094659, 0.0708877891, 0.0973200351, -0.1293807030, -0.1418359280, 0.0598068535, -0.1148389429, 0.0226067603, 0.0207976699, -0.0571165904, -0.1076340824, -0.1263547093, 0.0484732389, 0.0532836467, 0.1391830593, -0.0390260443, -0.0264351517, 0.0893087983, 0.1300110966, -0.0677706003, -0.0792634115, 0.1521268338, -0.0304196030, 0.0240380466, -0.0690356791, -0.0461866409, -0.0304842144, -0.0570902824, -0.0460169241, -0.0388270393, 0.0690367073, -0.0810749903, -0.0996422619, -0.0895036906, -0.0921817422, -0.0762849078, -0.0235130489, 0.0184549689, 0.0155745149, 0.1268444210, 0.1465325207, -0.0281687677, -0.0129412562, -0.1039230525, 0.0590984076, -0.1168906540, 0.1314190477, -0.0659820884, 0.0032486320, -0.0324849635, -0.0284063816, -0.0540554971, 0.0056593418, -0.0012112558, 0.1390209347, -0.1168735772, -0.0535338446, 0.0092126876, -0.1553546339, 0.1529247612, -0.0682654530, -0.0402598009, -0.1547530144, 0.1310597807, -0.0034165829, 0.1465524882, 0.1317839772, 0.1564219147, -0.0442451909, 0.0214120597, -0.0501838326, 0.0536098778, -0.1137031987, 0.1086222082, -0.0767257065, -0.1323702484, 0.1112026125, 0.0858473182, -0.0365480855, -0.1424330473, -0.0254999548, -0.1235674843, -0.0521767363, -0.0727390647, -0.1473108530, 0.0930616707, 0.0021427125, -0.1154661477, -0.1186736971, -0.0310752988, -0.0389950946, 0.0697282553, 0.1275940388, -0.1362736225, 0.0685584694, 0.0951559395, 0.0596230477, -0.1265578270, 0.0632805526, 0.0909819156, -0.0824455097, 0.0319570154, 0.1173357219, -0.0093278885, 0.0148099065, -0.0890046880, 0.0488081127, -0.0619341582, -0.1133630127, 0.1372396797, 0.0845392197, 0.1330125481, -0.1511217207, 0.0529645383, -0.0660272166, 0.0012594610, -0.0759245604, -0.0754871964, 0.1558181792, 0.0734604448, 0.0446320027, -0.0293005556, -0.1437733024, -0.0665083826, 0.0003622770, -0.0801133662, -0.0356995538, -0.0348417535, -0.0201596469, -0.1343744993, 0.0041888803, 0.0075086951, -0.0089977086, -0.0767971426, 0.1111252755, 0.1232345849, 0.1323075145, -0.0106984526, 0.1532849818, 0.1295646578, 0.0369783640, 0.1476375014, 0.0543404520, 0.0698655546, 0.1151211709, -0.1307533383, 0.0786983967, 0.0396906137, 0.1010429710, -0.0638639554, 0.1557546407, -0.0932353437, -0.0086551458, -0.0262694657, 0.0183775723, -0.1116001755, -0.0826083273, -0.0921855494, 0.1542462856, -0.1298263222, -0.0736125857, -0.0011549294, 0.0493722558, -0.0315156132, 0.0627613068, -0.0308804810, -0.0477972180, 0.0660134554, -0.1394305825, 0.1115182489, -0.0173251033, -0.0358149856, -0.1053714901, -0.0831752196, 0.0958950073, -0.1304623187, -0.1259633750, -0.0660120174, 0.1432447582, 0.0466696918, -0.0984544903, -0.0663431510, 0.0695410520, -0.0069423765, 0.0168814808, 0.1240279227, 0.0559334308, 0.0807072520, -0.0956441611, -0.0930307955, 0.1343678087, 0.1070122272, 0.1421534568, -0.0201088190, -0.0709941313, -0.1291899681, 0.1482864171, 0.0628024340, 0.1218744367, 0.1126281172, 0.1517032832, 0.1444178075, 0.0545749217, -0.0668272600, -0.0033975840, -0.0792309865, 0.0519582480, 0.0230137408, -0.0309149027, -0.1158664525, 0.1081895679, -0.0667192563, 0.1566535383, 0.0397910625, 0.0547840297, 0.0594120920, -0.1258148849, -0.0023491383, 0.0787118971, -0.1453888565, -0.0535130352, -0.1009362563, 0.1447762698, -0.0708550289, -0.0024399906, 0.1386402994, -0.0695870817, 0.1027404219, -0.0219256431, -0.1081922352, -0.0867027789, 0.1324462444, -0.1381690353, 0.0571744144, -0.0983895436, 0.1389660090, 0.1355093867, 0.1403458565, -0.0302713811, 0.1183864325, 0.0331137925, 0.1577716023, -0.0585304275, 0.0577231050, 0.0490901917, -0.1393170357, -0.0110766292, 0.0509797782, 0.0704221576, -0.0652225614, -0.0027303398, -0.1257642210, -0.1561486870, 0.1394641548, 0.0325318128, -0.0491600931, -0.0369901583, -0.0278149396, -0.0699818432, -0.1236607879, -0.0770109221, -0.1090771705, -0.0277641267, 0.0149673671, -0.0238059908, 0.0045488179, -0.1385037601, -0.0569836721, -0.0317179263, -0.1113349795, -0.0782451332, -0.0277068317, 0.1238252670, 0.0725941211, 0.0104364902, -0.0780414864, -0.1301241815, 0.1109715849, -0.0122844130, -0.0891937390, 0.1320039481, -0.1306859851, -0.1357360929, 0.0871188045, 0.0650230348, 0.0520391762, 0.0003950745, -0.1332820803, -0.0534593537, 0.0802611858, -0.1181478947, -0.1010129005, 0.0644211173, 0.0642759055, -0.0705500171, 0.0006606132, 0.0499011427, -0.1160313040, -0.0730588883, -0.0797562599, 0.0377955586, 0.0031275153, -0.1162655950, -0.1563565880, -0.0159888864, 0.1278531104, 0.1229497045, -0.0306504518, 0.0860772729, 0.1443330795, -0.0080923587, -0.1005198509, -0.0315441787, -0.0182023644, 0.0660221577, -0.1211068705, -0.1444443613, -0.1338535249, -0.0595685393, -0.1162228882, 0.0599805266, 0.0610176623, -0.0317590535, 0.1485579163, 0.0751241744, -0.0472202227, -0.0233547539, 0.0281701982, -0.0443056971, 0.1399628669, 0.0680332333, -0.1562997401, -0.0840483978, 0.1561368555, -0.1099588424, 0.1476708800, 0.0261891782, -0.0572585613, 0.1518047899, -0.0990642458, -0.0770424753, -0.1552273631, -0.1099396944, -0.1308539510, -0.0846332386, -0.1192700267, -0.1437904984, 0.0628819466, -0.0374156162, 0.1507857889, 0.1195821613, 0.0570453405, -0.0483767763, 0.1087365299, 0.1322406083, 0.0480991304, 0.0772043467, 0.0366958976, 0.0030971766, 0.0790700912, 0.1518174261, -0.0049429089, 0.1339931935, 0.1240767092, 0.0828667730, 0.0289175957, -0.0156199783, 0.0311742276, 0.0085223019, -0.0300574750, 0.0025248528, 0.0035785288, -0.1261006296, -0.1354547143, 0.0639088452, -0.1203332469, -0.0231501311