//Numpy array shape [10, 20, 2]
//Min -0.157815814018
//Max 0.157300755382
//Number of zeros 0

#ifndef VALUE_WEIGHT3_H_
#define VALUE_WEIGHT3_H_

#ifndef __SYNTHESIS__
multi_head_attention_value_weight_t value_weight3[400];
#else
multi_head_attention_value_weight_t value_weight3[400] = {0.1495925933, 0.1354492456, 0.0721512139, -0.1357173622, -0.0224754959, -0.0260606557, -0.0225800276, 0.1425119489, -0.0059497654, -0.0769498870, 0.0437149853, -0.1055843681, -0.0938052535, -0.0400814489, -0.0655150190, -0.1481660604, -0.1214550436, -0.1186814606, 0.0572864562, 0.0774399936, -0.1107754707, -0.0593032986, 0.1274480075, -0.0732970238, 0.0937216729, -0.0519923270, -0.0867084339, -0.0479236543, 0.1414657384, 0.1240797192, -0.1531780660, 0.1270683557, -0.0226699114, -0.1389119327, -0.0899420306, 0.0316659063, -0.1126595885, -0.0452860519, 0.0111297816, 0.0573201925, 0.0704643279, -0.0620708466, -0.0813932717, 0.1532148868, -0.1486528814, 0.0719127804, 0.0773901939, 0.0595999807, -0.1014546305, -0.0937648788, -0.0355124250, 0.0359882414, -0.0404303372, 0.0940629393, -0.0749761313, 0.0081942976, 0.0664449036, -0.1336651891, -0.1423119754, -0.1187573522, -0.0550451651, 0.0295688808, 0.0969872028, 0.1401869506, 0.1228428930, 0.1157382876, -0.0560305715, -0.1054068208, -0.1119478196, 0.0852944404, -0.0952860340, -0.0752210543, -0.1197687685, -0.0300081372, -0.0892046019, -0.1559381038, -0.0392076299, -0.0577393919, -0.0440502986, 0.0486449152, 0.0005181134, -0.1333737224, 0.0217067748, 0.1071205288, 0.1234759837, -0.0545365512, -0.0913505927, -0.1444492638, 0.0749774575, -0.1111010686, 0.1307611912, 0.0644798875, 0.1018403918, -0.1209769696, -0.0129046142, -0.1128542125, 0.0995283276, -0.0967189819, -0.1366680861, -0.1094833314, 0.0332047194, 0.0290629119, 0.0922967046, 0.1010711044, 0.0831964761, 0.1543508917, 0.1150073856, -0.0290668756, 0.0132557601, -0.1405524164, 0.1339567751, 0.0000669807, 0.0100156814, -0.0799652562, -0.1306197345, -0.0902406722, -0.1504786313, -0.0891825110, 0.0824803859, -0.1196439117, 0.0046772510, -0.1376890391, 0.0938896984, -0.0081063807, -0.0906557143, 0.0064327717, 0.1356449276, 0.1376893669, -0.0133002102, 0.1471847147, -0.0022179931, -0.1083750650, -0.0795284957, -0.1296136826, -0.0841151252, 0.1550242156, -0.0011479557, 0.0313192457, -0.1055630744, 0.0030012727, 0.0624289364, 0.1573007554, -0.1420808136, -0.1546939015, 0.1265873760, 0.0454488993, 0.0842894316, 0.0096625686, 0.0346663445, -0.0760400668, -0.0261817873, 0.1222651154, -0.0058981925, 0.1409923881, 0.0979193002, 0.0853991359, 0.1441377550, -0.0373368636, 0.0647020787, 0.1158763319, -0.1472076774, -0.1283937097, 0.0914787948, 0.0377969593, -0.0604306385, 0.1269652098, 0.0937035531, -0.0276058763, 0.1278125495, -0.0692208111, 0.0004284978, 0.1500615031, -0.0319185257, -0.0708062500, 0.0532760620, -0.0415556431, -0.0871839076, -0.1336302161, 0.0753306001, -0.0357285067, 0.0754972249, 0.0432601273, -0.0507904217, 0.0694160163, 0.0747182071, 0.0952108949, 0.1243471354, -0.1315076947, 0.0302472115, -0.1440186352, 0.0759804696, 0.1550170034, -0.0325001478, 0.1449239701, -0.0534557328, -0.0631263331, -0.0817803442, -0.0711986795, -0.1412888616, 0.1151975244, 0.1361610442, 0.0833229870, 0.1150929481, 0.0727989674, 0.0706069022, -0.1156958044, 0.0189830661, 0.0704945624, 0.0984510630, 0.0569167584, -0.1266648024, -0.1220498309, 0.0838371813, -0.0473171473, 0.1235490590, 0.0142084062, 0.0001144558, 0.1517661363, 0.1281737536, 0.0357602537, 0.1318602413, -0.1558668911, -0.0313064605, 0.0741748065, -0.0005881190, 0.0420284718, 0.0170668811, -0.0908795297, 0.0565098971, -0.0525484756, -0.0906390920, 0.1315612942, -0.0104621351, 0.0020209104, 0.0554052144, 0.0729532540, 0.0919240564, 0.0308389515, 0.0241959989, -0.0655805767, -0.0591835752, 0.0552135557, -0.0843471885, -0.1311841011, -0.0411873013, -0.1542141736, -0.0687791556, 0.1019073874, 0.0705910772, -0.0317671299, 0.1004221886, 0.0665366948, -0.0345146209, 0.0029858202, -0.1578158140, 0.1482839435, 0.0425752103, 0.0695433468, -0.0419366881, -0.1057239622, 0.0393030047, -0.0157297254, -0.1338541359, 0.0607936978, 0.1083811373, -0.0704447702, -0.0377223194, 0.1273327321, -0.1561295688, -0.0784891471, 0.0327501893, -0.1058913022, -0.0184132457, -0.0811454803, -0.0935728475, -0.1327189505, -0.0016914755, 0.1026565284, 0.1523183435, -0.0864726752, 0.1185472757, 0.1035445780, 0.0817848295, -0.0257927477, -0.0843825862, -0.0023451447, 0.0651839226, -0.1036936268, -0.0025517642, -0.0234955549, -0.0715011582, 0.0639875978, -0.0994529873, -0.0528100953, -0.0941034332, -0.0133537799, 0.0369975865, 0.1009861380, -0.0098790973, 0.1517748088, -0.0417788848, 0.1412467510, -0.0355420932, -0.1119127646, -0.0893163681, 0.0813326091, -0.0606741607, 0.0820237994, -0.0091706961, -0.0499727279, 0.1497393101, 0.0273284167, 0.0647998303, -0.1447209418, -0.1357435584, -0.0738415942, -0.1230338812, 0.0078692287, 0.0163468271, 0.1049913615, -0.0739543885, 0.0429928899, -0.0604168028, 0.0014006495, -0.0373662636, -0.1244045943, 0.0419462621, -0.1235354394, -0.0198351890, -0.1454865336, -0.0466549918, -0.0092223436, 0.1141859442, -0.1397986561, 0.0214233696, -0.0222552270, -0.0221668035, -0.1030148491, 0.0302247107, 0.0260807574, 0.0820232630, -0.0206785798, 0.0939205438, -0.0613046065, -0.0103499740, -0.0649402887, -0.1540294141, -0.0052517951, -0.0290409029, 0.1168882102, -0.0857871100, 0.0141216666, -0.1183277890, -0.0069568008, 0.0663617402, 0.1061335057, 0.0155314356, -0.1445198953, 0.1444164962, 0.0422530025, -0.0892108157, -0.1431735009, -0.0256853551, 0.0427747369, 0.1281657964, 0.0315934569, -0.1189731658, -0.0238678157, -0.0030826926, 0.0533971488, -0.1189428568, -0.1029152572, 0.1226536781, -0.0017606914, -0.1458665282, -0.0348449945, 0.1410035044, 0.0763780922, 0.0155296177, 0.0971613973, 0.0691305250, -0.0888611004, 0.1313061267, 0.0283879787, -0.1195236966, -0.1220490038, 0.0359138250, -0.0331759527, 0.0603130907, -0.1294622123, -0.0947158635, -0.0526869744, 0.0626191497, -0.0459200814, 0.0930360407, 0.0713409483, 0.1195905656, 0.0195309967, 0.0696551949, 0.0341036022};

#endif

#endif
