-0.0242756158, -0.0326591656, -0.0372303762, 0.0099788383, -0.0348559767, -0.0270042345, -0.0060188249, 0.0359897837, -0.0019307621, 0.0214331299, -0.0234975237, -0.0486532673, -0.0283667855, -0.0085516982, 0.0070610605, -0.0402335003, 0.0227215961, 0.0132128187, -0.0232080221, 0.0474890247, 0.0150315464, -0.0354067162, -0.0210099947, 0.0172925740, -0.0072706714, -0.0426382981, 0.0469721556, 0.0053334869, 0.0472374111, -0.0448973067, 0.0330890715, 0.0002940223, 0.0411258191, 0.0148500726, 0.0182460099, -0.0069262050, -0.0033065379, 0.0135344788, 0.0339097306, -0.0397410430, -0.0099493600, -0.0417105705, 0.0277784243, 0.0333771408, -0.0426722057, 0.0019516610, 0.0408056080, -0.0056424476, 0.0329834893, 0.0088858530, 0.0355563313, -0.0075938478, 0.0018384084, -0.0049234219, 0.0100833513, -0.0366456136, -0.0247805230, 0.0153188780, -0.0079581961, -0.0048487149, 0.0051881969, 0.0036997683, -0.0007736199, -0.0361432657, -0.0428031832, 0.0102628879, 0.0316121727, -0.0100343898, 0.0473676100, 0.0072549991, 0.0471227244, -0.0180616975, 0.0077542998, 0.0013602860, 0.0252100080, 0.0315467790, -0.0408342518, 0.0044624433, -0.0197130740, -0.0294478219, -0.0201821346, -0.0411185920, -0.0342418402, -0.0266285557, 0.0100462921, 0.0086066164, -0.0362736583, -0.0163026787, 0.0158933699, -0.0111047514, -0.0152076595, -0.0127272792, 0.0239397809, -0.0457784981, 0.0321268365, -0.0363178700, -0.0290641896, -0.0129682831, -0.0044149421, -0.0165919587, -0.0106109194, -0.0418846756, 0.0094150081, 0.0195465311, -0.0159066319, 0.0104716569, -0.0055617951, -0.0426689908, -0.0252274256, 0.0431002453, -0.0472227521, -0.0061176494, -0.0170400999, -0.0210674256, -0.0230442435, 0.0019797012, 0.0243946463, -0.0153208375, 0.0299739316, -0.0366033427, 0.0296144858, 0.0105727240, 0.0118262544, -0.0314789638, -0.0186152868, 0.0211288631, 0.0222369283, -0.0214971825, -0.0249773320, -0.0356625356, 0.0058948994, -0.0286183972, -0.0094869323, -0.0310448520, -0.0039368048, -0.0036427006, -0.0280056130, 0.0232810229, 0.0114861168, 0.0234370008, 0.0124894008, 0.0358565524, 0.0262291431, 0.0422020853, -0.0435965657, 0.0006952211, 0.0355771556, -0.0223759804, 0.0297190100, 0.0181377605, -0.0460174009, 0.0093423799, 0.0093133189, -0.0386629365, 0.0130989365, -0.0394113138, -0.0023355968, -0.0234616082, 0.0346396491, -0.0436644629, -0.0435952693, 0.0252877548, 0.0397286862, 0.0383837223, 0.0417909548, 0.0236903876, 0.0169219673, 0.0075457171, 0.0125867911, -0.0388158746, -0.0146466307, 0.0201334059, -0.0227134880, -0.0488270670, 0.0349706635, -0.0080860257, 0.0218069181, 0.0483714864, -0.0240001418, -0.0195499267, 0.0336559191, -0.0299603213, -0.0200440399, -0.0337495133, 0.0071994476, -0.0284396689, 0.0182433501, 0.0106534585, 0.0376654491, -0.0023861714, -0.0381159224, -0.0362180024, -0.0009340569, 0.0313396081, 0.0409975648, -0.0232671350, -0.0269924607, 0.0388306305, -0.0271853097, 0.0181122646, 0.0347219706, 0.0422756225, -0.0093375780, 0.0281566828, 0.0098913200, 0.0088577159, 0.0482751876, -0.0212127026, -0.0105684735, -0.0000125207, -0.0033507124, -0.0030935034, 0.0115058459, 0.0052546561, -0.0121956468, -0.0343278423, 0.0129544102, 0.0205143243, 0.0234746188, 0.0288915113, 0.0299357846, 0.0420065448, 0.0211751983, -0.0061026886, -0.0009529553, -0.0285705086, -0.0368899703, 0.0087299943, -0.0420172103, 0.0277360454, -0.0084890462, -0.0020901375, 0.0424724966, 0.0194924921, 0.0465622172, -0.0306025743, 0.0315163732, 0.0132491440, -0.0040745027, 0.0018800609, 0.0270112976, -0.0464679860, 0.0019353069, 0.0236451104, -0.0056480989, 0.0001542605, 0.0022291541, 0.0460650697, 0.0088305958, 0.0352746993, 0.0468685552, -0.0285659190, 0.0358776227, -0.0174602903, -0.0167482272, -0.0100245774, -0.0049234219, -0.0343298241, 0.0034533069, 0.0440830439, -0.0236844644, -0.0025623403, 0.0296993032, -0.0411173403, 0.0319620892, 0.0138081983, 0.0435418785, 0.0001089647, -0.0081588626, 0.0200689510, 0.0052047707, 0.0344481096, 0.0035221986, -0.0226285271, -0.0037949607, -0.0065841898, 0.0271667615, -0.0167586319, 0.0020524003, -0.0478283763, -0.0409757420, -0.0432363860, 0.0079539008, 0.0468662381, -0.0368865617, 0.0179556161, -0.0257036928, -0.0433122851, -0.0217663851, -0.0284192748, 0.0329611078, 0.0158966184, 0.0198053345, -0.0034801848, -0.0352566056, 0.0092840381, -0.0388719067, 0.0384053886, -0.0326953605, -0.0246906318, 0.0073292591, 0.0320902318, -0.0149174668, 0.0284607410, 0.0098696537, -0.0060901195, -0.0318422243, -0.0140126124, -0.0296633430, 0.0307148993, 0.0219482705, -0.0322210342, -0.0416936725, 0.0394485518, 0.0147484541, 0.0033015721, -0.0226970892, -0.0167534836, 0.0299935266, -0.0354635529, -0.0170025714, 0.0008621067, 0.0154163837, 0.0239101350, 0.0388410315, 0.0156043991, 0.0198365003, -0.0155887231, 0.0229626670, 0.0314211920, -0.0303181633, 0.0347613245, 0.0459829122, 0.0304775983, 0.0433581322, -0.0260176286, 0.0157665834, -0.0345076099, -0.0363156274, 0.0158817619, 0.0414996967, 0.0195336193, -0.0451621525, -0.0147508755, -0.0050759390, 0.0298486501, 0.0047162287, -0.0028004721, 0.0065297820, 0.0101261362, 0.0249445140, -0.0333768614, -0.0061875917, 0.0486359149, 0.0120954104, -0.0178925358, 0.0381532609, 0.0308495238, -0.0377719440, 0.0174276009, -0.0254358221, -0.0435071439, 0.0111942552, -0.0383821242, -0.0024607927, 0.0106640160, -0.0183978379, -0.0367464796, 0.0362745672, 0.0412712470, 0.0420713574, 0.0102741569, -0.0315311849, 0.0149155185, -0.0206909422, -0.0453090630, -0.0463846587, -0.0233002584, 0.0083170310, -0.0076653995, 0.0364905372, 0.0446226001, 0.0107420608, -0.0388428457, 0.0118408650, 0.0170220435, 0.0078851953, -0.0292454418, 0.0177876800, 0.0074363202, 0.0362342596, -0.0009480827, -0.0480253361, -0.0381292738, -0.0091203079, -0.0431190394, 0.0326015055, -0.0394241288, -0.0136030391, -0.0479226671, 0.0156859681, 0.0155726969, 0.0112359188, 0.0446449444, 0.0270165429, -0.0235318169, -0.0151394345, -0.0038570650, 0.0323661491, -0.0376079455, -0.0181610249, -0.0205112211, 0.0436638892, -0.0483253263, -0.0216634478, 0.0027093217, -0.0362474956, 0.0137008578, -0.0441123582, -0.0281454120, 0.0266344771, 0.0136101320, -0.0143424347, -0.0307171196, -0.0068715513, 0.0086624585, -0.0046336390, 0.0440260693, -0.0319161974, 0.0311518386, -0.0372868143, 0.0393411368, 0.0288162231, -0.0309904814, -0.0340017788, -0.0100183301, 0.0386586413, -0.0377603583, 0.0126702338, -0.0251924079, -0.0185034145, -0.0461648628, 0.0025537424, -0.0030023754, 0.0117620938, -0.0235997252, 0.0057886913, -0.0238162391, -0.0014013872, -0.0355839506, -0.0021375939, -0.0350481980, -0.0123527572, 0.0435042381, 0.0145511776, -0.0093092211, 0.0090865269, 0.0443629920, -0.0282157268, 0.0021439604, 0.0281085521, 0.0322669819, -0.0033601001, -0.0457087681, 0.0087625682, -0.0213144831, -0.0283477232, -0.0274936296, 0.0428763628, -0.0137840807, 0.0232073292, -0.0054597929, 0.0459758341, -0.0249320362, -0.0031993128, -0.0222129263, 0.0203332603, -0.0355035327, 0.0465436727, -0.0207205731, 0.0360394493, -0.0263588391, 0.0394083858, -0.0233387798, -0.0327568240, -0.0338726938, 0.0089920238, -0.0159305856, 0.0328359902, -0.0375689566, -0.0439629219, -0.0022019632, 0.0057527199, -0.0384074226, -0.0251119919, -0.0387757309, 0.0304840580, 0.0316260979, 0.0393873602, 0.0447257757, 0.0257032588, -0.0300832652, -0.0368364975, 0.0016422197, -0.0022524670, -0.0209735408, -0.0020128749, -0.0482320637, -0.0118471608, -0.0320187807, -0.0419147648, -0.0455957167, -0.0351595320, 0.0298186988, 0.0395062417, 0.0034364872, 0.0402213857, -0.0257085972, 0.0258891955, 0.0124082826, 0.0041336715, 0.0353715345, 0.0132208541, -0.0387284756, 0.0334414616, 0.0087423511, 0.0039064363, 0.0463856384, -0.0333951414, -0.0085220747, 0.0314677060, 0.0095740780, -0.0412197299, 0.0091800392, -0.0188818146, -0.0150179528, -0.0446643233, 0.0141376331, -0.0187239926, 0.0362252817, 0.0105487667, -0.0148640089, -0.0077988915, -0.0420212038, -0.0410924852, -0.0369898826, 0.0088034496, -0.0354074314, -0.0392969884, 0.0306916609, -0.0086343698, -0.0267852433, 0.0412835628, 0.0282090828, -0.0027481467, 0.0489201695, 0.0485822037, 0.0047935732, 0.0012303218, 0.0206369683, 0.0058884062, 0.0148410648, -0.0064628087, 0.0416754410, 0.0091992170, -0.0094341971, 0.0384775028, 0.0281385928, -0.0114876702, 0.0368743539, 0.0434376672, -0.0096152015, 0.0339626372, 0.0325899944, 0.0168657377, -0.0110295676, 0.0473093614, 0.0146822780, -0.0085951127, -0.0474183001, 0.0079279914, -0.0484274477, -0.0362804458, -0.0434249379, -0.0342312679, -0.0220621247, 0.0460323542, -0.0079280846, 0.0377867222, -0.0398169383, -0.0298428889, -0.0248178057, 0.0062611401, 0.0107583106, 0.0003867857, -0.0341795161, -0.0069108903, -0.0478300117, 0.0415628925, 0.0373984054, -0.0180588942, 0.0397329852, 0.0029293410, 0.0488467291, -0.0301789027, -0.0024051629, 0.0033892915, 0.0430386439, -0.0257936176, 0.0233955309, 0.0486291051, 0.0137392133, -0.0347056203, -0.0124373324, 0.0100142658, 0.0433242247, -0.0397611782, 0.0080373995, -0.0111076720, 0.0457541421, -0.0331529304, -0.0241363067, -0.0287960973, -0.0123549625, -0.0163136236, -0.0439431481, 0.0048972815, 0.0486737937, -0.0271145646, -0.0269688088, -0.0189532973, -0.0429229401, -0.0101681612, 0.0035232008, -0.0009544007, -0.0012252629, 0.0145165995, 0.0390653014, 0.0273117572, -0.0373485424, 0.0099481195, 0.0367588028, -0.0001141392, 0.0148390979, 0.0447251797, -0.0348039344, 0.0448858589, -0.0452751443, 0.0093422979, 0.0159561038, 0.0403117537, 0.0423440039, 0.0320136696, -0.0134022348, 0.0369838774, -0.0221175589, 0.0328685194, -0.0438234992, 0.0419468582, 0.0474949330, 0.0081616193, -0.0451136567, 0.0067937039, -0.0031099729, -0.0314588994, 0.0090886541, -0.0467740484, -0.0255051889, 0.0141330361, -0.0109114237, -0.0186999906, 0.0408721864, -0.0256776568, -0.0097739808, -0.0017937198, 0.0252459124, -0.0480831861, -0.0245152097, -0.0190645959, 0.0190525055, 0.0383300185, 0.0388073400, -0.0055920593, 0.0462039188, 0.0388048366, 0.0336187631, -0.0042201392, 0.0424604341, -0.0222557560, -0.0357247218, -0.0188200735, -0.0331394039, -0.0075941645, -0.0474582911, 0.0029408336, 0.0191176236, 0.0111961477, -0.0167553611, -0.0202536751, 0.0238640681, -0.0026340894, 0.0262152776, -0.0472128466, 0.0301068798, 0.0297695994, -0.0053981096, -0.0353874452, 0.0448854044, -0.0450713746, -0.0301827323, 0.0472371504, 0.0426518917, 0.0208035707, -0.0380585864, -0.0374289714, 0.0087761991, -0.0037582032, -0.0487374477, 0.0023267195, -0.0440796763, 0.0316476747, -0.0465227403, 0.0064822212, 0.0075677559, 0.0103012323, -0.0435438193, 0.0044706203, 0.0268293098, -0.0270004962, 0.0165731907, -0.0199238528, 0.0335259661, -0.0460460521, -0.0292716287, 0.0197176561, -0.0194441173, -0.0108716302, -0.0268621109, -0.0354238749, 0.0473059863, -0.0062412731, 0.0198081955, 0.0139382109, 0.0041481666, -0.0365131609, -0.0008827820, -0.0427506603, -0.0137410611, 0.0027711578, 0.0433950648, 0.0439145714, -0.0478330366, -0.0271559339, -0.0338829830, 0.0303108394, 0.0336267799, 0.0045279115, -0.0094424188, 0.0112336986, -0.0314156935, 0.0330606103, 0.0291107371, 0.0011939965, -0.0278567392, 0.0436947122, 0.0430053547, 0.0132388771, -0.0086266957, 0.0419175327, 0.0356527939, 0.0110213086, -0.0380342677, -0.0021298155, 0.0413397998, 0.0452285632, 0.0282148719, -0.0130190104, -0.0325744525, 0.0148916319, -0.0111813508, -0.0167585649, -0.0352025032, -0.0321387500, 0.0409214571, 0.0482113063, -0.0176386349, 0.0309002623, -0.0190917980, 0.0053496137, 0.0234522298, -0.0377463996, 0.0443839803, -0.0178553108, 0.0307410285, -0.0112031437, -0.0169630572, -0.0085543618, 0.0374069288, 0.0430442393, 0.0353366807, 0.0415680185, -0.0071986876, 0.0045337267, -0.0098057538, 0.0263220444, 0.0253463164, -0.0097162463, -0.0226580072, 0.0473679677, 0.0310479105, -0.0439520851, -0.0397373177, -0.0476090945, -0.0112803839, -0.0252901241, -0.0247532837, 0.0057528131, 0.0060401298, 0.0332965106, 0.0387222469, -0.0347283147, 0.0234908536, -0.0419940129, -0.0436154194, -0.0333749801, -0.0045532919, -0.0304179825, 0.0385865718, -0.0467624404, 0.0371225327, 0.0415427536, -0.0032595471, 0.0407319367, -0.0230012033, -0.0283097867, -0.0435353741, -0.0115043744, -0.0140630454, 0.0254771113, 0.0224981084, -0.0327774286, 0.0219883546, -0.0458058752, -0.0087357648, -0.0302897692, -0.0354819596, -0.0069798492, -0.0302839652, 0.0284315944, 0.0479523093, 0.0180402100, -0.0077072047, 0.0038082786, -0.0083974041, -0.0489429571, 0.0203358084, 0.0249153674, 0.0338824913, -0.0429836065, -0.0122348443, -0.0096471235, -0.0054949969, -0.0222610123, -0.0319686383, -0.0267142765, 0.0168381184, 0.0328605324, 0.0072435997, -0.0463177338, 0.0116693452, -0.0471285060, -0.0079301782, 0.0454100817, 0.0452932119, 0.0411547050, 0.0348864198, 0.0487020239, 0.0154642910, 0.0437875688, 0.0138134658, 0.0091244988, 0.0008828975, 0.0484638214, 0.0159201697, -0.0077384822, 0.0050986335, -0.0045682080, -0.0427857935, 0.0362821147, 0.0041705109, -0.0243910383, -0.0224213451, -0.0462208912, 0.0157940686, 0.0265549123, 0.0086724795, 0.0429162681, 0.0414302498, -0.0193727054, -0.0391789600, -0.0340725966, 0.0359639972, 0.0343824327, 0.0229553133, -0.0417127907, 0.0149189830, -0.0008880012, -0.0323319845, 0.0098921843, -0.0361384973, 0.0181304142, -0.0281129293, -0.0363824815, 0.0129282437, -0.0441691801, -0.0166348368, -0.0434050709, 0.0107723847, -0.0317953788, 0.0157042816, -0.0285641309, -0.0487187132, -0.0117884204, -0.0065179840, -0.0103275962, 0.0389724374, 0.0461624935, -0.0172412433, 0.0466110855, -0.0048009902, 0.0010468140, -0.0094422810, 0.0152432844, -0.0437865779, -0.0279731303, 0.0106296055, 0.0309968144, 0.0312677398, -0.0034861527, 0.0232403502, 0.0045807734, 0.0379382074, -0.0379103869, 0.0485459864, -0.0071413517, 0.0163554922, -0.0075752549, 0.0205160677, -0.0006131120, 0.0374179929, 0.0087729171, -0.0181369651, -0.0319366492, 0.0477943420, -0.0039221123, -0.0380861498, -0.0050002076, 0.0227566212, -0.0033112317, -0.0314296521, -0.0384725034, -0.0429793894, -0.0402349569, -0.0478233285, -0.0263319407, -0.0458667874, -0.0080649406, 0.0374452919, 0.0346256271, 0.0246669427, -0.0037562437, -0.0175045691, -0.0108703338, -0.0153372735, 0.0209471434, 0.0331955254, -0.0347823948, 0.0301092044, -0.0023889951, -0.0270783789, -0.0156592354, -0.0211369693, -0.0458245650, 0.0393391326, -0.0138295256, 0.0027464889, 0.0237373188, 0.0333594233, -0.0049737729, 0.0453611538, 0.0320982561, -0.0256610475, 0.0470224470, 0.0059670843, -0.0304827243, 0.0215705931, -0.0284716245, -0.0184279028, 0.0195146054, 0.0482019633, -0.0010664128, 0.0457870141, -0.0075352155, 0.0237732753, 0.0423610508, 0.0011955723, 0.0390473753, -0.0016695745, 0.0046276450, -0.0082427114, -0.0257460549, -0.0431814790, 0.0474767014, -0.0396720022, -0.0041462630, -0.0390027463, -0.0251000300, 0.0250191316, -0.0373178124, 0.0187964886, -0.0377894305, -0.0043020174, 0.0185914710, 0.0204429403, -0.0448217951, -0.0171471722, -0.0177031420, 0.0044634826, 0.0199567452, 0.0261607021, 0.0326882005, -0.0135873631, 0.0307221562, -0.0428771190, 0.0288972259, 0.0229426995, 0.0265507177, 0.0315063894, -0.0170605406, 0.0054095946, 0.0150672793, 0.0022185706, 0.0073806532, -0.0276952852, -0.0310570225, -0.0431954972, 0.0026841387, -0.0407024994, -0.0077345930, -0.0430650637, 0.0109247603, 0.0273893699, 0.0266611576, -0.0280656144, -0.0165822171, 0.0073736571, -0.0476896167, 0.0417325646, 0.0163677111, -0.0138717405, 0.0066430457, -0.0368832201, 0.0187937468, -0.0271908585, 0.0011264160, 0.0141448975, 0.0434845760, -0.0452007912, -0.0344886631, -0.0293997601, 0.0355455205, -0.0043613426, 0.0280287266, -0.0041719936, 0.0082122274, -0.0142594576, 0.0172919706, -0.0082287677, 0.0340400934, -0.0016747378, -0.0273773074, -0.0477643795, -0.0169934034, -0.0142640248, -0.0136703402, 0.0442315564, -0.0188390650, -0.0020294152, -0.0276147518, 0.0471967012, -0.0208131503, -0.0398423560, 0.0144621208, -0.0442284234, 0.0372177809, 0.0220344439, -0.0091806240, -0.0047401153, 0.0129172094, 0.0382083356, 0.0126220994, 0.0103799552, 0.0207668245, -0.0367254913, 0.0045794211, -0.0281147752, 0.0168230608, -0.0100733899, -0.0274029691, -0.0361105464, 0.0049425662, -0.0095016360, 0.0475936159, 0.0008053631, -0.0435840450, 0.0287751406, -0.0197920892, -0.0313785374, 0.0142026469, -0.0225902628, 0.0097867586, -0.0399312899, -0.0276871920, -0.0382423475, -0.0126286633, -0.0028914735, 0.0027293079, 0.0455982983, -0.0316829905, 0.0039646141, 0.0104498267, -0.0272226278, 0.0224227831, -0.0003637187, 0.0115723535, 0.0334757790, -0.0210037231, -0.0376300439, 0.0257956758, -0.0314155072, -0.0137374289, -0.0035522506, 0.0231967121, 0.0381487831, -0.0250934791, 0.0112295523, -0.0204125233, -0.0322159305, 0.0388402715, -0.0146586485, 0.0340835601, -0.0267451108, -0.0119092278, 0.0484062955, -0.0204175469, 0.0214943439, -0.0476558618, 0.0184260085, -0.0303152781, 0.0283006728, -0.0151512660, 0.0014939047, 0.0178559422, -0.0396544226, 0.0216093808, -0.0126198344, 0.0425006449, -0.0434538461, 0.0304928645, -0.0442303754, -0.0213279389, 0.0267667323, 0.0221672207, -0.0230271090, -0.0239507109, 0.0100597478, 0.0335759819, 0.0351138487, -0.0074472167, 0.0257220268, -0.0086185411, 0.0112740435, 0.0286609009, -0.0199382771, -0.0458557606, -0.0361707471, 0.0135488808, 0.0104781985, 0.0002643205, -0.0359595716, -0.0212615486, -0.0231320076, 0.0050533861, -0.0043722391, 0.0126373768, -0.0094761886, -0.0289014410, 0.0366587415, -0.0302557684, -0.0371862836, -0.0353084542, -0.0108665116, -0.0089394189, -0.0133060478, 0.0354681090, -0.0402621850, -0.0226683430, -0.0388688669, 0.0488979444, -0.0427289344, -0.0370949581, -0.0070307627, 0.0258096755, -0.0306811575, -0.0019934513, -0.0461667329, 0.0419167280, 0.0187212825, -0.0393120684, 0.0156930387, -0.0401957259, 0.0025500655, -0.0310840737, -0.0057914853, -0.0389111266, -0.0487912819, -0.0041967221, 0.0151136965, -0.0248346832, -0.0133639239, 0.0155764073, -0.0394066535, 0.0474727750, -0.0444548652, -0.0282089282, 0.0063874833, 0.0378422961, -0.0416752994, -0.0138302855, 0.0420378819, 0.0038730539, 0.0321853980, 0.0442417711, 0.0194420964, 0.0075979270, 0.0007656626, -0.0368190631, -0.0123656876, 0.0355332345, -0.0168513134, 0.0113682412, -0.0389675051, -0.0343380608, 0.0336986780, -0.0028607324, 0.0359722003, -0.0358055234, -0.0265558120, -0.0247487295, -0.0247347020, 0.0007777400, 0.0185404420, -0.0032820217, 0.0316619575, -0.0334829614, -0.0203064457, 0.0028643757, -0.0271907058, -0.0486354344, -0.0228206161, -0.0186444055, -0.0134826526, 0.0014080815, -0.0400078855, 0.0330630168, 0.0138652697, 0.0287107080, -0.0121565908, -0.0052034967, 0.0153198317, -0.0179341286, 0.0444627628, -0.0042307228, -0.0121647082, 0.0148910582, 0.0410910621, -0.0014339872, 0.0447501242, -0.0091705658, 0.0296242610, 0.0460547060, -0.0187954046, 0.0251559690, 0.0137078315, 0.0038668402, -0.0450704396, 0.0226355121, -0.0466162041, -0.0230236165, 0.0396333635, -0.0229221284, 0.0383007750, 0.0222271085, 0.0289054736, -0.0008254424, -0.0118209980, -0.0460802652, 0.0449807048, -0.0407953449, 0.0452073067, -0.0437157266, 0.0413485840, 0.0276140720, -0.0255527496, -0.0021637008, 0.0100389197, 0.0065522529, 0.0019537136, -0.0381101891, -0.0247043911, -0.0284176525, -0.0018038824, -0.0230917707, -0.0376827903, 0.0270353481, -0.0049357787, -0.0442484319, 0.0072546937, -0.0126256607, 0.0129872523, -0.0340446681, 0.0095889010, 0.0271952525, -0.0405844375, -0.0257033426, -0.0462062210, 0.0177204907, -0.0355743505, -0.0061275922, -0.0446350761, -0.0388054214, 0.0122574940, -0.0289460942, -0.0440370105, -0.0191106629, -0.0228978917, 0.0048521385, 0.0259281471, -0.0489221215, -0.0158450305, 0.0115017220, 0.0214092433, 0.0098442845, -0.0151960962, 0.0174737796, 0.0081507303, -0.0390639976, 0.0333639532, 0.0011499152, -0.0148919001, -0.0137952231, 0.0122255012, 0.0053193644, -0.0150209889, -0.0476971380, 0.0464024022, 0.0330549106, -0.0158611238, -0.0094487257, 0.0232651234, -0.0062676817, -0.0307147950, 0.0256232768, -0.0431158952, 0.0007880442, 0.0348784029, -0.0189600829, -0.0086355135, 0.0470881015, 0.0441974625, -0.0337287113, -0.0470646247, -0.0197561271, -0.0035840198, 0.0231042579, -0.0016052984, 0.0353474915, -0.0129566863, 0.0320899636, 0.0202042460, -0.0247634929, -0.0437754467, 0.0330399051, -0.0002058260, 0.0330089480, -0.0054198354, 0.0207465738, 0.0297261626, 0.0359174907, -0.0315864906, 0.0171032995, -0.0399935097, -0.0084196888, 0.0051640086, 0.0117011368, 0.0341873392, 0.0131472945, 0.0403047577, 0.0120128319, 0.0260158330, -0.0099260695, -0.0146058202, -0.0062603354, 0.0230345577, -0.0348753110, -0.0489342548, -0.0359407999, -0.0122385621, 0.0418988988, -0.0255071390, -0.0263495296, 0.0106576271, -0.0474209636, 0.0379613489, 0.0226652846, -0.0385254622, 0.0122485347, 0.0127636380, 0.0151213408, 0.0018641874, 0.0425068364, -0.0382243954, 0.0364448056, -0.0051442795, 0.0130010471, -0.0334970728, 0.0335516557, -0.0265873596, -0.0359503329, -0.0207087882, 0.0461319685, -0.0088615939, -0.0267054345, 0.0482144579, -0.0167655721, -0.0109130591, 0.0473572016, -0.0301618725, 0.0226684138, -0.0028440170, -0.0356055833, 0.0184347108, 0.0016491674, -0.0382670388, -0.0422150008, -0.0442727841, 0.0239348933, -0.0169955641, -0.0373664834, 0.0410134271, -0.0160691701, 0.0296252817, 0.0482373759, -0.0318916105, -0.0265753642, 0.0215594023, 0.0388030857, -0.0130625553, -0.0407279395, 0.0365822017, 0.0100865290, -0.0440872125, 0.0123049729, -0.0057829916, 0.0347999632, 0.0278800875, 0.0154278725, -0.0238647573, 0.0485391691, 0.0295166895, -0.0379179716, 0.0339741111, 0.0028409213, 0.0215262100, 0.0413337648, -0.0275198855, 0.0113590956, 0.0161575675, -0.0343760438, -0.0323808417, -0.0486833341, -0.0010839105, -0.0426359512, 0.0323475450, 0.0091918111, 0.0168247223, -0.0196293052, -0.0405514166, 0.0038908310, -0.0064224526, -0.0275891721, -0.0168251172, 0.0292538628, 0.0326228216, 0.0128144249, 0.0245731175, -0.0238725245, -0.0127314813, 0.0243711323, -0.0081963539, -0.0185729694, -0.0322982296, -0.0252654795, 0.0160914287, -0.0418395922, -0.0067038871, -0.0380092375, 0.0154942051, 0.0349831730, -0.0016452782, 0.0029870979, 0.0352002382, -0.0314745493, 0.0461754426, -0.0259203818, 0.0344166234, 0.0450533181, -0.0307492055, -0.0109391175, -0.0020427741, -0.0143235251, 0.0021210201, 0.0360653475, 0.0227517262, -0.0200618170, 0.0111542419, 0.0199998766, -0.0320424139, -0.0449208766, -0.0273820367, 0.0155085474, 0.0091670752, 0.0240489841, 0.0078388490, -0.0369225927, -0.0085216090, 0.0193938538, -0.0171580091, -0.0031840950, -0.0106631517, 0.0410792977, -0.0130734891, 0.0022741221, -0.0040016882, -0.0314862281, -0.0270908531, -0.0308644064, -0.0463965833, -0.0048828684, -0.0106731132, 0.0069884695, -0.0233060401, 0.0181690380, 0.0436676964, 0.0408703685, -0.0205806699, 0.0369094983, -0.0413654596, 0.0148073584, 0.0465737358, -0.0232674498, -0.0465105474, 0.0251275524, 0.0312272906, 0.0300501883, 0.0206178129, 0.0302670375, 0.0384579375, 0.0393671393, 0.0430749804, -0.0060507953, -0.0386256054, -0.0401497856, -0.0108188130, -0.0116609819, -0.0196855199, 0.0332765505, -0.0350109488, 0.0151313990, 0.0110993907, -0.0010383576, 0.0211783126, -0.0482962094, -0.0339790285, 0.0052676685, 0.0400396064, 0.0407160223, 0.0085395388, 0.0376261175, 0.0362970904, -0.0132832378, 0.0045857616, 0.0334199145, 0.0188609064, 0.0261685848, -0.0270552281, 0.0110098273, -0.0302296411, -0.0357704945, 0.0394287854, -0.0114349462, -0.0004521348, 0.0220930278, -0.0345450416, -0.0062377229, 0.0023760311, 0.0007141307, -0.0329978988, 0.0194265395, -0.0343576148, -0.0221365038, -0.0170785263, 0.0044995993, 0.0042892732, 0.0089367665, -0.0086174458, -0.0041585863, -0.0236014649, 0.0134575032, -0.0088150837, -0.0392768867, 0.0004431196, 0.0448926911, 0.0317451283, 0.0479159728, 0.0086539313, -0.0358096920, -0.0441027805, -0.0066708997, -0.0027303472, -0.0164041445, 0.0440917090, 0.0061056688, -0.0302319881, -0.0215685237, 0.0041674972, -0.0048103333, -0.0067779832, 0.0431542173, -0.0447965413, -0.0171991475, 0.0472782776, 0.0287308544, -0.0203032102, -0.0196405295, 0.0173644349, -0.0344491377, -0.0401607789, -0.0397875160, -0.0266877860, 0.0271152407, 0.0179235339, -0.0068773814, 0.0047275126, 0.0220018998, -0.0045315772, 0.0021925382, 0.0143910795, -0.0180204790, -0.0274680611, 0.0487708896, 0.0311859027, -0.0246449523, 0.0290379077, 0.0195389614, -0.0351564735, 0.0215035826, 0.0118428282, 0.0014578253, -0.0235134084, -0.0076104589, 0.0430935547, 0.0330640450, -0.0087396279, -0.0351533405, -0.0293291993, -0.0414638892, -0.0476110540, -0.0248893332, 0.0299786925, -0.0070651136, 0.0275571793, 0.0268258229, -0.0014090613, 0.0459644124, -0.0321098864, 0.0317629278, 0.0025265627, -0.0342991315, 0.0343126208, 0.0432045236, 0.0236553550, 0.0466970205, -0.0286543015, -0.0338254124, -0.0188926067, 0.0219990313, -0.0191017613, 0.0228918195, 0.0457037464, -0.0020488016, 0.0364814401, 0.0364012495, 0.0019808225, 0.0149631575, -0.0101624019, 0.0164400339, 0.0234773979, -0.0118731856, 0.0012379587, -0.0087529905, -0.0071364567, 0.0126219951, -0.0176298842, 0.0158842057, 0.0112090074, 0.0430307612, 0.0391600206, 0.0220356584, -0.0103474967, 0.0266471058, 0.0338248760, -0.0089672618, 0.0044028983, -0.0432890654, -0.0395208150, -0.0083294027, 0.0108069927, 0.0288746431, -0.0135278404, -0.0115432329, -0.0210982952, -0.0166210756, -0.0107010528, 0.0365943685, 0.0402594283, -0.0406468324, 0.0198977366, -0.0378863737, -0.0264603738, 0.0030430816, -0.0401102602, 0.0161183923, -0.0043832771, 0.0340462327, -0.0202264357, 0.0005089715, 0.0142594576, -0.0197641980, 0.0053271428, -0.0165956132, -0.0224606488, 0.0014694482, -0.0117276385, 0.0182156041, -0.0473565124, -0.0180021171, 0.0242766440, 0.0037024096, 0.0161535218, 0.0465511605, 0.0176271647, -0.0255939923, 0.0194422156, -0.0255916920, -0.0128127523, -0.0298207328, 0.0049264915, 0.0086840205, -0.0464034639, -0.0125455372, -0.0412318185, 0.0450830162, -0.0121650584, -0.0262654461, -0.0297908671, -0.0140420794, -0.0216071848, 0.0373071507, 0.0033581257, -0.0181003474, -0.0027137734, -0.0085187592, 0.0450455174, -0.0277813319, -0.0109678619, 0.0268393084, -0.0180478562, 0.0265149102, -0.0336006954, 0.0401208773, -0.0130923726, 0.0093406513, -0.0303024780, 0.0136337578, -0.0377881564, 0.0117588006, 0.0063113756, 0.0222937539, 0.0036576167, -0.0361091234, 0.0117845200, -0.0319706500, 0.0297319293, -0.0002611093, 0.0144220814, 0.0315313861, 0.0039458685, 0.0183169916, -0.0334629305, 0.0117602721, 0.0108657293, 0.0401918739, 0.0064700730, 0.0403542966, 0.0241549239, -0.0082602911, -0.0238011125, -0.0487648956, 0.0406930968, 0.0016371608, -0.0434596390, 0.0171376765, -0.0147419982, -0.0249464251, -0.0305433664, 0.0403895900, -0.0265135411, -0.0246267654, -0.0256386455, 0.0101872124, -0.0173848383, 0.0233123004, 0.0222739428, 0.0329757333, -0.0093395896, -0.0104513913, -0.0396151654, -0.0265004020, -0.0133935809, 0.0369131193, -0.0364378691, -0.0262657609, 0.0439833626, 0.0324350595, 0.0083171725, 0.0049715079, -0.0280471947, 0.0075152777, 0.0198797956, -0.0430171043, -0.0336703472, 0.0005197525, -0.0312583968, -0.0032763183, -0.0338754952, -0.0288899932, 0.0058726370, 0.0457446724, 0.0049287006, -0.0128409937, -0.0196548831, -0.0020342842, 0.0367225036, 0.0245366395, -0.0416998863, 0.0445401892, 0.0323152617, -0.0377448834, 0.0273454338, 0.0116180554, -0.0457463078, 0.0051200800, -0.0261069927, 0.0070248879, -0.0007683262, 0.0323204920, -0.0308804661, -0.0451199412, -0.0371915735, -0.0255096052, 0.0164653137, -0.0099752545, -0.0335055068, -0.0260521676, -0.0316393562, 0.0052407123, 0.0452102125, -0.0260604843, -0.0111285076, -0.0385640524, 0.0240182579, -0.0238426123, 0.0018332228, -0.0375115015, -0.0296052936, -0.0357603654, 0.0331943035, -0.0007271208, 0.0148771852, -0.0115274899, 0.0330854803, 0.0419960469, 0.0309013873, -0.0101750530, -0.0255239941, -0.0110693723, -0.0030001812, -0.0265706815, 0.0444139987, 0.0388090760, -0.0125055797, -0.0329248905, 0.0101939626, 0.0400454924, -0.0406650193, 0.0059586950, 0.0253887624, -0.0482802764, 0.0334472656, 0.0365671590, -0.0205042362, 0.0148571134, 0.0470265523, 0.0036181509, -0.0484965332, 0.0477277189, -0.0411284827, -0.0156891234, -0.0008108765, -0.0128412060, -0.0147097744, 0.0471554250, -0.0377935059, 0.0034704544, 0.0159631968, -0.0478728190, -0.0390600823, -0.0010130145, -0.0217140932, -0.0396477543, -0.0202169288, 0.0025282577, 0.0416977033, 0.0314297602, 0.0095116347, 0.0002164654, 0.0086565390, -0.0209911540, -0.0370510742, -0.0270027146, -0.0462669954, -0.0169417411, -0.0037058331, -0.0200789180, -0.0274118446, 0.0223954991, -0.0412441269, -0.0475815050, 0.0417992249, 0.0335636809, 0.0372359678, 0.0151834786, -0.0370772704, -0.0132512823, 0.0189158171, -0.0175243542, -0.0102211088, 0.0368087217, 0.0022505522, -0.0305216424, -0.0220931359, 0.0015306398, 0.0353640839, -0.0354591012, -0.0423754826, 0.0112301856, -0.0078268535, -0.0454740934, -0.0372425802, 0.0080520101, 0.0376638472, -0.0361934900, 0.0370826721, -0.0348360166, 0.0350681916, -0.0110952556, 0.0111862421, -0.0149628110, -0.0210317187, -0.0295976307, 0.0320959613, 0.0286704749, 0.0379007161, 0.0477201492, -0.0447647832, -0.0171633139, -0.0055487603, -0.0252495352, 0.0372393131, 0.0250450969, -0.0224705413, -0.0068015084, -0.0178773738, 0.0398916006, 0.0304727033, -0.0221250448, -0.0191967208, -0.0062511191, -0.0421883240, 0.0420518443, 0.0387653485, -0.0303793550, -0.0145719610, -0.0151959918, -0.0022669174, -0.0048662946, -0.0184737016, 0.0175824761, -0.0240612980, -0.0420281999, 0.0346685722, -0.0257836655, -0.0192710999, -0.0094817691, -0.0083355680, 0.0077420920, 0.0045154020, -0.0237317793, 0.0437473431, 0.0370499417, 0.0167673081, -0.0194031671, -0.0038049258, 0.0476314947, -0.0370962285, 0.0214199051, -0.0169988684, -0.0032389574, 0.0373928770, -0.0300601032, 0.0136684030, 0.0267374367, 0.0433631539, 0.0259942934, 0.0124298111, 0.0199404359, 0.0185599849, 0.0032735653, -0.0287950821, -0.0111999810, -0.0299529620, -0.0262694992, -0.0454507917, -0.0082431920, 0.0103868358, -0.0202883054, 0.0312454700, -0.0235456228, 0.0182044134, -0.0246668980, -0.0141444318, -0.0132859722, -0.0273106247, 0.0194804072, 0.0406933799, 0.0403400287, 0.0348750427, -0.0453066453, 0.0092686787, -0.0034240745, -0.0127728432, 0.0142448097, 0.0301778987, 0.0264469162, -0.0043576248, 0.0050128922, -0.0376206785, 0.0204076320, 0.0143596381, -0.0225946419, -0.0012611784, -0.0379868709, 0.0221181884, 0.0036319681, 0.0391217172, 0.0382856205, 0.0047781579, -0.0385797508, -0.0167567767, -0.0257801376, 0.0031894185, -0.0154160559, -0.0293435436, -0.0474759303, 0.0343191847, 0.0228736922, 0.0151852071, 0.0399931893, 0.0276871100, 0.0330776051, 0.0447343588, -0.0287255384, 0.0324885547, 0.0366725028, -0.0125087686, -0.0051024295, 0.0229900479, 0.0111260079, -0.0345581621, 0.0254870057, 0.0058762580, 0.0018632635, 0.0447322056, -0.0220984146, -0.0293548033, -0.0288967099, -0.0052770711, 0.0296038240, -0.0487762243, 0.0374964625, -0.0176759735, -0.0281421300, 0.0209886208, 0.0162861124, 0.0407810360, 0.0369456932, 0.0044811331, -0.0425854325, 0.0208153352, 0.0269974694, -0.0401799902, -0.0329513773, -0.0403203517, 0.0266005099, 0.0213729441, 0.0323118493, 0.0284877419, 0.0428573564, 0.0095654801, 0.0255343392, -0.0317460075, -0.0475525968, -0.0196604319, 0.0381321907, 0.0422182903, -0.0114531815, -0.0357753038, -0.0065904967, 0.0327595919, -0.0429890975, 0.0205276534, -0.0151970759, 0.0203358084, -0.0234884378, -0.0328838229, 0.0232027918, 0.0250642523, -0.0445798077, -0.0435668640, -0.0400522798, 0.0348963663, -0.0126643814, -0.0435660221, -0.0000124760, -0.0161601678, -0.0479783006, -0.0142525434, -0.0341320373, -0.0264681298, 0.0250481218, 0.0031586327, 0.0108425096, 0.0364509150, -0.0335149914, -0.0313894972, -0.0000796579, 0.0151411146, 0.0355986133, 0.0171518177, 0.0484477133, 0.0143082365, -0.0063080825, -0.0070766658, -0.0148591474, 0.0068039149, -0.0396837182, -0.0110949390, -0.0395534262, -0.0349002592, 0.0188559070, -0.0226217639, -0.0234412383, -0.0191884395, -0.0086773634, 0.0171243250, 0.0267130584, 0.0388694257, 0.0251792893, -0.0116703957, -0.0461267382, -0.0375483073, -0.0206791572, 0.0058132447, 0.0106677078, 0.0066189356, 0.0212542042, 0.0195804685, -0.0270307939, -0.0193673670, -0.0103412122, 0.0245623142, -0.0284427758, -0.0401269048, 0.0337105468, -0.0042186566, -0.0235296674, -0.0153144635, -0.0199473761, -0.0094791874, 0.0365495235, 0.0357324407, 0.0016915537, 0.0072043426, 0.0185866356, -0.0000157692, 0.0371172875, -0.0368277282, 0.0424259454, 0.0401074737, 0.0371948704, 0.0465775430, 0.0344305187, -0.0246791858, -0.0127389580, -0.0198059063, -0.0048526525, -0.0117678642, 0.0414604321, 0.0473068133, -0.0072081834, -0.0174252614, -0.0367075391, 0.0162403658, -0.0093217865, -0.0330323800, 0.0261277631, 0.0327269956, 0.0050874315, -0.0055911243, -0.0056806393, -0.0161497407, -0.0237515550, -0.0305933468, -0.0394355617, -0.0214577504, -0.0302316602, 0.0324291736, 0.0223997757, -0.0211880803, 0.0420026556, -0.0136417337, -0.0299615823, 0.0075166672, 0.0223003626, -0.0048534572, -0.0294647701, -0.0276556667, -0.0328227803, -0.0415778533, 0.0178225711, 0.0045324415, 0.0007461943, 0.0276826248, 0.0331169441, -0.0199501906, -0.0219601337, -0.0036266074, -0.0393830724, 0.0173654854, -0.0470470935, -0.0454261228, 0.0138926208, 0.0356088281, 0.0330225080, -0.0376916900, -0.0093570277, 0.0336610973, 0.0456407517, 0.0006274432, -0.0015379377, -0.0436973758, -0.0045314245, 0.0481495038, 0.0281027183, 0.0035766512, 0.0391136929, -0.0098560005, 0.0086591430, -0.0090116486, 0.0102290846, -0.0206148345, 0.0370286256, -0.0048672855, 0.0192963853, 0.0073945969, -0.0391728431, -0.0111546479, -0.0280473940, -0.0155887343, -0.0106813610, -0.0308543034, 0.0418493226, 0.0453359038, -0.0254503638, 0.0242128447, 0.0264659673, -0.0261376649, 0.0098519102, -0.0102209672, 0.0410845876, -0.0083660781, -0.0085987560, 0.0174945816, -0.0449706353, -0.0103253536, 0.0149543658, 0.0010395609, 0.0165477842, -0.0352810621, 0.0042050630, -0.0266690738, -0.0132384785, 0.0125803538, 0.0241806433, -0.0484687947, -0.0044475868, 0.0452908874, 0.0218199342, 0.0334484130, -0.0412046164, 0.0161932558, -0.0112022087, 0.0221060067, -0.0346700549, 0.0073880218, -0.0253243353, 0.0456650034, -0.0473780967, 0.0219848007, 0.0366359875, -0.0028488077, -0.0214714166, 0.0427871943, -0.0236517005, 0.0184805319, 0.0113644935, -0.0144043155, 0.0144156814, -0.0386268906, -0.0488413535, -0.0259461123, -0.0338905044, -0.0394420326, 0.0360604525, -0.0384402201, 0.0406715795, -0.0041793659, 0.0477565750, 0.0315975174, -0.0434421785, 0.0222782418, 0.0457538739, 0.0253104791, 0.0422842056, 0.0271575004, -0.0229991693, 0.0471936092, -0.0213337783, 0.0470713302, -0.0137936808, 0.0337424129, -0.0273315683, -0.0386313759, -0.0069330968, -0.0012588203, -0.0264523737, -0.0091234483, -0.0129456148, -0.0128753595, -0.0327906981, 0.0188152939, -0.0196496285, -0.0357887372, -0.0396629497, 0.0403333530, 0.0178659037, -0.0110507533, 0.0420476720, 0.0216222033, 0.0291574672, -0.0218180567, -0.0474769808, 0.0044458583, -0.0091530010, -0.0447482802, 0.0369696766, 0.0344807357, -0.0416788496, -0.0140701719, 0.0255620629, -0.0115461536, 0.0339899585, -0.0192082021, 0.0098587908, 0.0392051712, -0.0305969324, 0.0261397883, 0.0426989198, -0.0202734843, -0.0085214935, 0.0063595809, 0.0024008639, 0.0370042473, -0.0055767447, -0.0280339383, -0.0206371658, 0.0430344939, 0.0281389207, -0.0409712456, -0.0039814115, -0.0467237420, -0.0062757768, 0.0248754025, -0.0059859939, 0.0008017793, -0.0242512748, -0.0183376633, 0.0020024553, 0.0204069391, -0.0367319398, -0.0229250025, -0.0437146649, -0.0081377663, -0.0337056667, 0.0232455581, -0.0315422006, -0.0269370154, -0.0277294721, -0.0111484453, -0.0143583417, -0.0475547798, 0.0247168690, -0.0362231657, -0.0457702503, -0.0481212065, 0.0141704902, 0.0401115790, -0.0200001467, -0.0056691021, 0.0012849942, 0.0418334678, -0.0327635407, 0.0387299657, 0.0259640664, -0.0415521190, 0.0111445822, -0.0159375705, 0.0390827805, 0.0114800669, -0.0203384720, 0.0048633739, -0.0468992703, 0.0367704257, 0.0048684552, -0.0073610991, -0.0087633505, -0.0295910779, -0.0326362476, -0.0387274809, 0.0013221279, -0.0355362967, -0.0332914442, 0.0447524861, 0.0130471587, 0.0156326294, 0.0432039425, 0.0377834737, 0.0049316213, -0.0434673019, 0.0353686139, -0.0047037415, 0.0068756863, 0.0439613014, -0.0134048983, 0.0219675973, -0.0348144099, -0.0126946680, -0.0472266749, 0.0084322318, 0.0233826712, -0.0154503584, 0.0448770523, -0.0094954818, 0.0044281967, 0.0242592990, -0.0253853742, 0.0413113236, 0.0473007634, -0.0483110771, 0.0357680991, -0.0306273699, 0.0344195738, -0.0430221297, 0.0024387762, 0.0113077052, 0.0480225682, -0.0233514290, 0.0171952024, 0.0344947055, 0.0153810978, -0.0106493458, -0.0417348891, 0.0147432610, -0.0054601803, 0.0467763245, 0.0017429814, -0.0118788369, 0.0046028495, -0.0212450102, -0.0326961204, -0.0303441752, -0.0144079588, 0.0481644124, -0.0377111137, 0.0222611651, -0.0141574442, -0.0326320007, -0.0108760074, -0.0303847287, 0.0000400059, -0.0292827841, 0.0180944949, 0.0250679255, -0.0172572806, -0.0186638869, 0.0137989223, -0.0210222937, 0.0465130135, -0.0470460430, -0.0027258247, 0.0060996152, 0.0065817572, 0.0299426392, 0.0211096704, -0.0247653723, -0.0162403993, -0.0449226424, 0.0052843355, -0.0218477491, -0.0188921988, -0.0301272999, 0.0190516561, 0.0437424853, 0.0439027846, -0.0209259801, -0.0381866582, -0.0438487157, 0.0421613529, 0.0298390463, 0.0192409977, 0.0035503693, -0.0481497534, -0.0395027474, -0.0420261696, 0.0372887030, -0.0238340162, 0.0195989683, -0.0369266793, -0.0238610543, -0.0392760001, 0.0260415301, 0.0486802384, -0.0400561355, 0.0149254128, -0.0327051729, -0.0278675426, -0.0063967332, -0.0211497229, -0.0376620963, -0.0225648936, -0.0001502298, -0.0192443989, 0.0456874147, 0.0153710321, 0.0385667831, -0.0444822535, 0.0277246460, 0.0163582787, 0.0079060122, -0.0268821064, 0.0145752430, 0.0190128684, -0.0104379579, 0.0446913317, -0.0327790380, -0.0432576463, -0.0200565383, 0.0204018801, -0.0131598376, 0.0200250149, 0.0310636535, -0.0104591921, 0.0045056231, 0.0179029182, 0.0477554649, -0.0296103396, -0.0324866511, -0.0034615658, -0.0086577423, -0.0197391901, -0.0400753841, 0.0392602235, 0.0165216699, 0.0427689180, 0.0274737030, -0.0404236242, 0.0275377333, 0.0358153582, -0.0389411673, -0.0010566153, -0.0002135821, -0.0065480508, 0.0158636346, -0.0054654926, -0.0073324256, -0.0213910230, 0.0401016101, -0.0342143215, -0.0015966669, -0.0325312689, -0.0407090858, -0.0341932997, 0.0138045698, 0.0414339751, 0.0441572592, 0.0159545317, -0.0167852156, 0.0422148630, 0.0261914209, 0.0215061381, -0.0161764063, 0.0268015712, -0.0107324719, 0.0426488817, -0.0396668613, 0.0305684581, 0.0068359636, 0.0206078738, -0.0270284116, 0.0486611202, -0.0110710301, -0.0197029822, 0.0355599970, 0.0025611483, 0.0436461717, 0.0195733905, -0.0395652130, -0.0466248132, 0.0313175321, -0.0245780014, 0.0471905842, -0.0020000488, 0.0458295494, -0.0162426643, -0.0266591925, -0.0110427290, -0.0382691547, 0.0248075351, 0.0465400591, -0.0334775783, 0.0449869186, -0.0151864588, 0.0090571418, -0.0365930647, -0.0137352087, -0.0365140364, 0.0475152284, 0.0423928648, 0.0185820460, -0.0037919506, 0.0454026535, 0.0092989653, 0.0252427608, -0.0263688490, 0.0351356268, -0.0107201748, 0.0329890922, -0.0403103530, 0.0053443238, -0.0199277885, 0.0170543045, -0.0394094102, 0.0292857587, 0.0299519673, -0.0392801017, -0.0385627560, -0.0123663060, -0.0391206220, -0.0360484086, -0.0314993821, -0.0048757792, 0.0241251737, -0.0027762130, 0.0277248248, 0.0022115409, 0.0479219779, 0.0447849408, 0.0101078823, -0.0146465823, -0.0459019579, -0.0279987231, 0.0184942484, -0.0180185288, -0.0424189679, -0.0385775901, -0.0083710290, -0.0407332554, -0.0060905516, 0.0124087520, 0.0105131567, -0.0459014773, 0.0044209436, -0.0403455459, -0.0236536637, -0.0271954592, 0.0118754730, 0.0065954365, 0.0177670568, -0.0103616081, -0.0231046993, -0.0277296137, -0.0156141147, -0.0292957481, -0.0067670532, 0.0354717970, 0.0395781398, 0.0359303951, -0.0459315293, -0.0279548056, -0.0004701801, -0.0216046385, -0.0091387145, 0.0097293891, -0.0127573088, 0.0161731094, 0.0396079719, -0.0083696395, 0.0096222460, 0.0067804605, 0.0009678118, -0.0467771105, -0.0036052652, -0.0361144245, 0.0371445492, 0.0431990102, -0.0073944367, -0.0167509131, -0.0190354884, 0.0461685285, 0.0424172729, -0.0431954153, -0.0454921275, 0.0372646078, -0.0203480143, -0.0064670369, 0.0083669759, -0.0132675618, 0.0444664732, -0.0255478099, 0.0048357397, -0.0253699459, -0.0365781002, 0.0334603637, -0.0305025689, 0.0061203241, -0.0010330677, -0.0353613757, -0.0258296151, -0.0089336373, -0.0338688120, -0.0329215378, 0.0296323299, 0.0048974082, -0.0229205396, -0.0082062222, -0.0134923458, 0.0298351198, 0.0350601599, -0.0294217523, 0.0446811542, -0.0482547320, -0.0484240241, -0.0448979586, 0.0226031020, 0.0270124897, -0.0440113954, -0.0186523013, 0.0240796134, 0.0195683092, -0.0074554272, -0.0047049560, 0.0087207183, -0.0278452002, -0.0182067174, -0.0170411505, -0.0476211943, -0.0450563431, -0.0270474032, 0.0134462118, 0.0342151970, -0.0201350059, 0.0191334113, -0.0366030969, 0.0391016975, 0.0126309060, -0.0131371543, 0.0257169977, 0.0260871053, -0.0428639576, 0.0202212408, -0.0349778831, -0.0213021245, -0.0212413762, -0.0440668873, -0.0060749352, 0.0082260221, 0.0254957899, 0.0010063425, -0.0178573672, -0.0393860042, -0.0090334527, 0.0282048658, -0.0328706466, -0.0242211055, 0.0483214408, -0.0220423620, 0.0463815182, -0.0189476199, -0.0004152134, -0.0409482606, 0.0065497905, -0.0289211683, -0.0425743237, -0.0300727077, 0.0156953111, 0.0201789141, 0.0303855240, -0.0480147898, -0.0159118734, 0.0300960168, 0.0338143930, -0.0322316661, 0.0342525020, -0.0229045264, -0.0036783256, -0.0079094209, 0.0296710506, 0.0210871100, -0.0073804073, 0.0193312615, 0.0059651807, 0.0110652968, -0.0268701352, 0.0065893978, -0.0026404448, -0.0477783009, -0.0276424102, 0.0250790045, 0.0094171315, -0.0223275423, -0.0191749968, 0.0189428106, 0.0058119930, -0.0329383761, 0.0371032283, 0.0315200463, 0.0353305265, -0.0199995153, 0.0152804032, -0.0484934971, -0.0302210785, 0.0108864978, 0.0055354796, -0.0363945030, 0.0074698403, -0.0228214338, -0.0397366285, 0.0274292976, -0.0001708679, -0.0067627653, -0.0018347539, 0.0008614771, -0.0408457331, -0.0232476406, -0.0385003984, 0.0318879113, 0.0049402863, 0.0411738381, -0.0381293446, 0.0147040263, -0.0394040495, -0.0046075098, -0.0191878676, -0.0434825234, -0.0148928799, 0.0151739642, 0.0194910392, 0.0201788321, 0.0295745507, -0.0274760853, -0.0013340972, 0.0438421518, 0.0069397651, -0.0329512283, 0.0350291356, -0.0045365542, 0.0453755111, -0.0282220449, 0.0323817879, 0.0210321993, 0.0453876704, 0.0471010357, -0.0023358166, 0.0479740500, -0.0154232606, -0.0186364744, -0.0432957336, -0.0210202970, 0.0452265292, -0.0319750644, 0.0311359465, 0.0130942203, -0.0111867823, 0.0220506191, 0.0238323137, 0.0040150024, 0.0268819630, -0.0411932282, -0.0011487715, -0.0026088841, 0.0280861929, 0.0102682598, -0.0247902516, -0.0061560199, 0.0458288640, -0.0120551027, 0.0318297446, -0.0287773740, 0.0035473220, 0.0434200093, -0.0013876855, -0.0142129026, 0.0459828526, -0.0364467464, 0.0432576537, -0.0254620556, 0.0258499011, 0.0139488503, -0.0470215604, 0.0402131528, 0.0474417731, 0.0321143940, 0.0183966160, -0.0013203174, -0.0385880321, -0.0028033592, 0.0453013405, -0.0485441871, 0.0427515954, 0.0464579836, 0.0130903646, 0.0194514990, -0.0110347308, -0.0481086858, -0.0292341355, -0.0047159605, -0.0217868127, 0.0143242851, -0.0317370594, 0.0352586359, 0.0432957187, -0.0079866014, 0.0212424546, 0.0430241227, 0.0023762770, 0.0353943035, -0.0364759490, 0.0429712236, 0.0213370398, 0.0042817518, -0.0199116468, -0.0229800493, 0.0335484669, -0.0202161577, -0.0062463433, 0.0044098347, 0.0418894663, -0.0381246842, -0.0202165786, 0.0142778531, -0.0286860373, 0.0259809867, -0.0373551995, -0.0136273205, -0.0092567764, -0.0134842657, -0.0021590516, -0.0005330443, 0.0057307482, 0.0432565212, -0.0477917828, -0.0005536713, 0.0207423121, 0.0145370215, 0.0224367753, -0.0036717951, -0.0054080151, -0.0093171634, -0.0432083085, -0.0217239633, -0.0372752398, -0.0093809254, 0.0434097350, -0.0345289260, 0.0251589790, -0.0352583937, 0.0407496169, -0.0209664628, 0.0374436751, 0.0267575160, -0.0403119661, 0.0077072047, -0.0022130832, -0.0088241696, -0.0190820694, 0.0474416837, 0.0194816217, -0.0469494946, 0.0461294502, -0.0064513497, 0.0464422554, -0.0148195997, -0.0447890535, 0.0054630190, 0.0133775547, -0.0361298658, -0.0305644609, -0.0480321124, 0.0424056277, -0.0095238052, 0.0317377821, 0.0040455945, 0.0277037099, 0.0138355792, -0.0058226697, -0.0168878511, 0.0341362059, 0.0458837822, 0.0057798289, -0.0021228082, 0.0034183264, -0.0149976984, 0.0038289279, 0.0475465134, -0.0034986846, 0.0209193826, 0.0342292115, 0.0351970717, -0.0356798805, -0.0266243629, -0.0088925101, -0.0215234272, -0.0170956142, 0.0482417122, 0.0327664018, -0.0018456727, -0.0133267343, -0.0245794263, 0.0341162458, 0.0415318310, 0.0054739602, 0.0051039122, 0.0096800961, -0.0114917606, -0.0243494920, 0.0061358027, -0.0102292486, -0.0097142160, 0.0049309433, 0.0276870728, 0.0483701900, 0.0124166124, -0.0336446390, -0.0182515103, -0.0325914212, -0.0466033220, -0.0175992362, -0.0005116351, 0.0397515073, 0.0475535393, 0.0074332841, -0.0151517950, -0.0032533556, -0.0026539601, 0.0302044377, -0.0122088231, 0.0048485175, 0.0074857622, 0.0080709085, 0.0304216146, -0.0287849791, 0.0090126283, 0.0482500270, -0.0192035772, -0.0418062322, -0.0488780290, -0.0245733652, 0.0230643824, 0.0241103545, 0.0321541652, -0.0031583272, -0.0104652569, 0.0225958601, -0.0328867659, -0.0227072146, 0.0210068747, -0.0427103862, -0.0257351119, 0.0159174129, -0.0474514477, -0.0326406285, -0.0011542961, -0.0467941873, 0.0264943540, -0.0485475995, -0.0052035451, 0.0309331641, -0.0143772066, -0.0084191151, -0.0429493859, -0.0122415610, 0.0448248982, -0.0276553277, -0.0043195859, -0.0018066876, -0.0196350981, -0.0251976419, 0.0145006031, 0.0150206834, -0.0125312880, -0.0337871686, -0.0329442658, 0.0186698064, 0.0366027430, -0.0038908198, 0.0447945595, 0.0114790648, 0.0305379257, -0.0101932026, -0.0011325367, -0.0431635268, 0.0164923742, 0.0297826454, -0.0378664844, 0.0141319335, -0.0232216176, 0.0286512300, -0.0077714548, 0.0240218565, -0.0268078912, -0.0416347347, 0.0399148092, 0.0478445962, 0.0275418907, 0.0321010351, 0.0486384854, -0.0138652325, 0.0138142109, 0.0479321256, 0.0181280673, -0.0389425829, -0.0153426826, -0.0249522775, 0.0111792460, -0.0267538354, 0.0470221564, -0.0187950674, 0.0256831124, 0.0321781188, 0.0322027430, 0.0212590620, 0.0236479491, 0.0069662891, 0.0437003821, 0.0094079636, -0.0016465411, 0.0383525044, -0.0214468297, 0.0372755527, 0.0279899165, -0.0317841545, -0.0460363477, -0.0201920383, 0.0226584971, -0.0276157670, 0.0475468114, 0.0254860818, -0.0289755501, 0.0282846764, 0.0201716721, 0.0189045668, -0.0059546679, 0.0264836401, -0.0403295308, -0.0440823287, 0.0391006619, -0.0359041728, -0.0319905058, 0.0303991884, 0.0211510807, -0.0255801640, -0.0366727114, 0.0244327560, 0.0474263951, -0.0481438413, 0.0473088920, 0.0192500651, 0.0126360320, 0.0351324677, -0.0025608577, 0.0154912025, 0.0126276016, 0.0399920791, -0.0169617608, 0.0038181581, 0.0410231277, -0.0086174458, 0.0378523543, -0.0015437081, 0.0184046403, -0.0037410483, -0.0484781265, -0.0366844460, -0.0266703349, -0.0435936674, -0.0089516006, 0.0107963495, -0.0462604165, -0.0080944672, 0.0312123448, 0.0468417332, 0.0428564548, 0.0076153651, 0.0147025064, -0.0191242937, -0.0487569869, 0.0073958710, -0.0127951726, -0.0250336062, 0.0437233672, 0.0436924696, 0.0065917931, 0.0404883251, -0.0060214177, -0.0017169602, -0.0008062981, -0.0227826573, 0.0079300366, -0.0146758668, -0.0468607023, 0.0416549668, 0.0155660510, 0.0350009650, -0.0274574794, -0.0003815778, -0.0319347307, 0.0026046224, -0.0148432776, 0.0489129424, 0.0211766139, 0.0052985735, 0.0026875511, -0.0037911087, 0.0136563480, 0.0396911353, -0.0336024389, -0.0290890224, 0.0040086359, -0.0361174047, -0.0322489627, -0.0180140305, 0.0024950989, 0.0240514949, -0.0111122020, 0.0402421281, -0.0481796302, 0.0141757578, -0.0163725615, -0.0178121068, -0.0318615101, 0.0382652432, -0.0199673958, -0.0124981850, 0.0266728103, 0.0061301365, -0.0163420737, 0.0039590783, 0.0159875005, -0.0335384682, 0.0406193286, 0.0127957128, -0.0255465023, 0.0269533321, -0.0062319152, 0.0052950829, 0.0370452926, 0.0250637904, 0.0323480889, 0.0097150691, -0.0416761413, -0.0319321863, 0.0173748285, 0.0405178592, -0.0417156294, 0.0262368023, -0.0146866478, 0.0101483651, -0.0417757258, -0.0271389745, -0.0325518176, 0.0210367218, -0.0029922947, -0.0439163893, -0.0089280158, 0.0151601210, -0.0042099543, -0.0032354742, 0.0365825295, 0.0349803567, -0.0193369519, -0.0313682258, -0.0130532905, -0.0122253262, 0.0068913735, 0.0471872911, 0.0151995271, 0.0458355173, -0.0276073106, 0.0274501443, 0.0220117494, 0.0292172804, -0.0175841823, -0.0248221625, 0.0440990999, 0.0073996224, 0.0327493250, -0.0397118069, -0.0344090536, 0.0334582850, -0.0330168232, 0.0467634574, 0.0382597670, -0.0022873096, -0.0460955761, 0.0481880829, -0.0471019559, 0.0074404553, -0.0100527629, -0.0283682682, 0.0232279226, 0.0265463963, 0.0364756659, 0.0244761854, 0.0158573762, 0.0334445611, -0.0211454835, -0.0465650000, -0.0034496747, -0.0342692770, 0.0247704536, -0.0455709770, -0.0025186203, 0.0223880708, 0.0050703548, -0.0410701558, 0.0310377181, 0.0389246717, -0.0351225436, -0.0133462884, -0.0108712800, 0.0225522667, -0.0273727980, -0.0291740876, 0.0075497814, 0.0432874039, 0.0121400841, -0.0330992118, -0.0433645174, -0.0077073798, -0.0343192220, 0.0181966498, -0.0319433510, 0.0233924165, -0.0254699513, 0.0333390161, 0.0327208340, -0.0004086047, -0.0258097481, -0.0455717742, 0.0282697678, 0.0295312330, -0.0089013986, 0.0159217343, -0.0307559911, 0.0446546525, -0.0135548338, -0.0358823091, -0.0312796906, 0.0423836708, -0.0155023821, -0.0024373159, 0.0216100588, 0.0277318656, 0.0306298733, -0.0044075958, -0.0049252324, -0.0388211422, 0.0254040956, -0.0054337718, 0.0006150976, -0.0371110737, -0.0304648299, 0.0217449367, 0.0271176621, 0.0061468743, -0.0459126905, -0.0224778876, -0.0029632226, 0.0133952275, -0.0437680073, -0.0177558903, 0.0069350824, 0.0173019692, 0.0040412731, -0.0125340894, -0.0379738137, 0.0088529252, -0.0327744707, -0.0311848018, -0.0057599135, 0.0482461229, -0.0108106025, -0.0172623955, 0.0475744605, -0.0203986354, 0.0271851942, -0.0457364619, -0.0044845082, -0.0124754794, 0.0298010185, 0.0182696581, -0.0348859504, 0.0140414760, 0.0319930613, -0.0172433667, -0.0299405120, 0.0230557099, 0.0448071957, 0.0085682236, 0.0292302147, 0.0416569635, 0.0273075923, -0.0162275620, 0.0018506162, 0.0443112701, 0.0341610238, 0.0106660016, -0.0090241805, -0.0140004419, 0.0398936346, -0.0272776764, 0.0461400226, -0.0195343457, 0.0393250436, 0.0210678577, -0.0239673667, 0.0235367194, 0.0282947794, -0.0483409800, -0.0039728619, 0.0042208880, -0.0231394358, 0.0306290537, 0.0424215496, -0.0391011611, -0.0206625592, -0.0070438571, -0.0311780162, 0.0090168454, -0.0189868417, 0.0423844531, 0.0020551793, -0.0483926274, -0.0104525946, -0.0470681526, -0.0336463451, 0.0024267472, 0.0202411637, 0.0353885815, 0.0429165661, 0.0373715162, 0.0377221182, -0.0476077273, 0.0053445473, 0.0193404779, -0.0254412405, 0.0305972844, -0.0073108412, 0.0185193345, 0.0273748040, -0.0474767946, -0.0036129765, -0.0172306262, 0.0149927959, 0.0308460221, -0.0131572783, 0.0089248978, 0.0116485879, -0.0107149072, 0.0218200311, 0.0106176324, -0.0265494473, 0.0425430909, 0.0169720277, 0.0307457447, 0.0127912983, 0.0009705685, 0.0287975371, 0.0104422830, -0.0372351632, 0.0147264749, -0.0108517371, -0.0258453134, 0.0236221254, 0.0149382576, -0.0325429961, 0.0026490167, 0.0099265575, -0.0099394321, 0.0226678550, 0.0403400287, 0.0260440037, -0.0393425673, -0.0198181830, 0.0109474324, 0.0005449466, 0.0193152726, 0.0477873906, -0.0046827756, 0.0149958283, -0.0160918646, -0.0439006351, -0.0318975449, 0.0479451492, -0.0195884127, 0.0233935714, -0.0330065675, -0.0260656700, -0.0113101006, 0.0380619839, 0.0260502174, 0.0337817818, -0.0072105676, 0.0421231389, -0.0414688066, -0.0237357281, 0.0434474945, 0.0207685232, 0.0169692114, 0.0068126731, 0.0323416442, 0.0262127593, -0.0219215900, 0.0254170150, -0.0374914035, -0.0038671456, 0.0458205789, 0.0030625276, 0.0154815018, -0.0175844505, -0.0277221967, -0.0184589606, 0.0332149193, -0.0316081792, -0.0341542177, 0.0314833820, 0.0218819976, -0.0006191842, -0.0430520624, -0.0244361814, -0.0310949013, -0.0058924817, -0.0261575915, 0.0364716053, -0.0295712687, -0.0312314760, 0.0018284470, 0.0141063184, -0.0295914412, 0.0260440856, -0.0347432308, -0.0404764786, 0.0171261579, -0.0428920686, 0.0221176594, 0.0240682960, -0.0119657964, -0.0111930072, 0.0460737497, 0.0064738691, 0.0116902404, 0.0475210920, 0.0054265633, -0.0429532640, -0.0347203016, 0.0068232790, 0.0286220312, -0.0305465907, 0.0210408047, -0.0318588465, 0.0203822702, 0.0136809796, 0.0415498167, 0.0134948455, -0.0077115595, 0.0154918730, 0.0324402004, -0.0107003637, 0.0043224581, 0.0247926489, -0.0158325657, -0.0361011922, 0.0278466120, 0.0050982125, -0.0312171914, -0.0336032547, 0.0108944289, 0.0151935965, -0.0252862703, 0.0272839963, 0.0134030655, 0.0215373188, 0.0224948451, -0.0411799587, -0.0322548151, -0.0374363177, 0.0397060141, -0.0460781977, 0.0158194304, 0.0134047009, 0.0266237110, 0.0219751522, -0.0101870000, 0.0037809350, -0.0290034432, 0.0043610036, 0.0033033229, 0.0242848173, 0.0206311196, -0.0413940065, -0.0226900447, -0.0023441799, 0.0231287703, 0.0010750331, 0.0208841562, 0.0314057097, 0.0260013714, 0.0438556895, 0.0104379840, 0.0182055756, -0.0066962130, 0.0484225973, 0.0065816641, 0.0203435645, -0.0397792943, -0.0437830016, 0.0461500213, -0.0218372475, -0.0359122083, 0.0240873098, -0.0286752209, 0.0323390141, -0.0139219388, -0.0234941132, 0.0466544926, 0.0236004144, 0.0274461061, 0.0481334254, -0.0215614345, -0.0372713357, -0.0196489263, 0.0032657012, 0.0134378932, 0.0340335518, -0.0395536125, -0.0388804190, 0.0036641210, 0.0386765674, -0.0338879824, -0.0388516746, -0.0107499473, 0.0226834565, -0.0470132791, 0.0328796729, -0.0333755277, 0.0171841979, -0.0097780600, 0.0021679737, -0.0228609256, 0.0030343682, -0.0288566817, -0.0109494179, -0.0416986123, -0.0471490622, -0.0119296797, -0.0167638883, 0.0041461810, -0.0349965468, 0.0407714248, -0.0450420827, 0.0097173564, 0.0128918737, 0.0371197760, 0.0066329390, -0.0310767032, 0.0056546070, -0.0486961231, 0.0056064948, 0.0176957622, -0.0261663049, 0.0431075692, -0.0074043758, 0.0063990578, 0.0433196798, -0.0196395945, -0.0186864994, 0.0084560476, -0.0097796582, 0.0116884299, 0.0426197052, 0.0402982309, 0.0100429729, -0.0468841121, 0.0061815530, 0.0458510220, 0.0378057957, 0.0245481580, 0.0207833201, 0.0044505075, 0.0268169940, 0.0128301568, 0.0445273146, 0.0271428078, -0.0135632083, -0.0337543860, 0.0479922816, -0.0177176744, 0.0121541023, 0.0270716175, -0.0207318459, 0.0430794880, 0.0359162018, -0.0297333896, -0.0462135822, 0.0026304573, -0.0049856044, 0.0409048349, 0.0024311505, -0.0113765597, 0.0341756493, -0.0165411755, 0.0410950109, -0.0351104066, 0.0338815078, 0.0227797106, 0.0148632005, 0.0295455009, -0.0144146159, 0.0037037991, 0.0071797892, 0.0330409333, -0.0382247828, -0.0482919589, 0.0225488767, -0.0268051121, 0.0071731322, 0.0050453618, -0.0189430062, 0.0408288762, -0.0171057768, 0.0041859299, -0.0267913528, -0.0263599381, 0.0432274267, 0.0405064374, 0.0328123271, 0.0196458921, 0.0286809355, 0.0130516700, -0.0287461299, -0.0482517555, 0.0320372730, -0.0481524393, 0.0165293068, -0.0442014560, 0.0084959604, -0.0330451466, 0.0049055517, 0.0229847208, 0.0361959040, 0.0461661592, 0.0343347639, 0.0349813551, 0.0274465382, -0.0382689312, -0.0211467333, 0.0429251716, -0.0200883783, 0.0282214507, 0.0200054049, -0.0315807797, 0.0092011206, -0.0116069838, -0.0417266451, -0.0020889603, 0.0155670121, -0.0163707025, -0.0184452254, 0.0188457817, -0.0479897484, -0.0050197951, 0.0040267408, 0.0295619369, 0.0175089166, 0.0278895497, 0.0463583544, 0.0053492635, 0.0144104734, -0.0325515456, 0.0307490155, -0.0459430106, -0.0435400233, 0.0276878923, 0.0063924938, 0.0109790973, -0.0297340788, -0.0068425648, 0.0351344422, 0.0380222350, 0.0188167244, -0.0176820494, 0.0036203451, -0.0393881425, -0.0280242544, 0.0342738330, 0.0401552543, -0.0319354013, -0.0331695974, 0.0099426433, 0.0474761724, -0.0047246963, -0.0123866647, -0.0044224858, 0.0098731332, 0.0135521516, -0.0013641976, 0.0257684365, -0.0483070947, -0.0381243341, -0.0418496802, 0.0070651136, -0.0292625874, -0.0356919914, -0.0436571985, 0.0406513736, -0.0097048245, 0.0049224533, 0.0148411989, 0.0132129006, -0.0362503231, 0.0317892730, -0.0348807164, -0.0057099126, -0.0343279578, -0.0063609816, 0.0467284173, -0.0099758729, 0.0090559497, -0.0003371798, -0.0116400979, -0.0149040483, -0.0296737980, -0.0395488366, 0.0048513673, -0.0284099542, 0.0169302747, 0.0227865130, -0.0112904757, -0.0193664320, -0.0117730610, -0.0102322027, -0.0204091370, 0.0395100564, 0.0434795097, 0.0311292186, 0.0029051490, -0.0088024549, -0.0209340975, -0.0472076498, -0.0304291602, 0.0412718132, 0.0177107230, -0.0359449349, 0.0424228013, 0.0420035124, 0.0026744120, 0.0395308733, -0.0164891630, 0.0084478743, -0.0172479823, 0.0440002754, -0.0117412694, 0.0150818899, -0.0194166210, 0.0024111755, 0.0029096119, 0.0251313299, -0.0445886701, 0.0312470198, -0.0434504822, 0.0032184236, 0.0322557390, -0.0453255102, -0.0193933677, 0.0164777264, -0.0416378640, -0.0268900618, -0.0411091521, -0.0367872678, 0.0075062253, 0.0058971420, 0.0048206486, 0.0060995594, 0.0287689865, -0.0274557509, -0.0220940225, 0.0204037502, 0.0287540630, 0.0031261742, -0.0243758187, 0.0085658655, -0.0460458770, -0.0344449095, -0.0094077773, 0.0095805824, 0.0078915171, -0.0116804987, -0.0472666435, -0.0053723454, -0.0405959673, 0.0418711528, 0.0218240842, -0.0091701001, 0.0047791824, -0.0285606161, -0.0150890127, 0.0300526768, -0.0048239902, -0.0059798509, 0.0174290016, 0.0211421102, -0.0005155951, 0.0174199939, 0.0410834774, 0.0075567886, 0.0430097207, 0.0296328962, -0.0229095370, 0.0257954970, -0.0174196921, -0.0047665797, 0.0301150605, -0.0402634442, 0.0463808998, -0.0093924180, -0.0389769226, -0.0044689961, 0.0329382122, 0.0057645515, 0.0462639555, -0.0184311271, -0.0315676630, -0.0227767341, 0.0411385521, 0.0424539298, 0.0287070125, 0.0263667852, -0.0408002846, -0.0452723652, 0.0162462145, 0.0469958857, 0.0103936233, 0.0094270036, -0.0326467976, 0.0247039795, 0.0274342373, -0.0327586457, 0.0453095511, 0.0444926843, 0.0428021774, -0.0407916643, -0.0253888331, 0.0166872889, 0.0069908760, -0.0365855880, 0.0458234698, 0.0160973519, 0.0320940390, 0.0013168007, -0.0251622386, -0.0000304021, -0.0439757034, 0.0451789796, 0.0427985489, -0.0436888374, 0.0112932324, -0.0482909977, 0.0255632252, 0.0020228140, -0.0146182701, -0.0332141332, 0.0143859312, 0.0069052614, 0.0329080001, 0.0373952165, 0.0112443045, -0.0173199177, 0.0016307272, -0.0191437993, -0.0029745437, -0.0157235675, 0.0431779996, 0.0086863674, 0.0422546864, 0.0256246030, 0.0008356050, -0.0147367530, 0.0265057310, -0.0214239713, -0.0117307231, 0.0307280421, -0.0058560744, 0.0258404166, -0.0464552529, 0.0272417590, -0.0005397126, -0.0315157808, 0.0203680545, 0.0089175403, -0.0142698176, -0.0129075944, -0.0280573089, -0.0018620156, 0.0321318954, 0.0361307412, 0.0277367756, -0.0385826826, 0.0484588742, 0.0161371380, 0.0362354741, 0.0390219465, -0.0211631320, -0.0016507581, -0.0373260677, 0.0064933971, -0.0056230351, -0.0077604987, -0.0049639978, -0.0201815031, 0.0362890065, -0.0120866373, -0.0147260092, 0.0442210659, 0.0418208092, 0.0218882412, -0.0467816293, -0.0413155407, 0.0464063510, -0.0251141638, 0.0402571037, -0.0280492026, -0.0228609834, -0.0444944724, 0.0299302936, 0.0118119456, -0.0193954576, 0.0364136696, 0.0485703051, 0.0262446105, -0.0437643491, -0.0457989722, -0.0141098946, -0.0288293269, 0.0224485844, -0.0406363681, -0.0453674309, -0.0068921223, -0.0435486063, 0.0469610617, 0.0307433903, -0.0386661738, 0.0469894409, 0.0426863283, -0.0055359378, -0.0189868174, -0.0113075525, -0.0356272385, -0.0424399227, 0.0429945886, -0.0153361745, 0.0317325071, -0.0408348590, -0.0442972891, -0.0240050815, -0.0023824200, -0.0233525038, -0.0027539618, -0.0013513602, -0.0033754855, 0.0184740126, 0.0139144212, 0.0067592151, 0.0147398636, 0.0198438540, -0.0045045018, 0.0181103125, -0.0173486397, 0.0421328992, -0.0150899254, 0.0374253541, 0.0349009931, 0.0487735495, -0.0126501769, 0.0274582133, -0.0432896242, -0.0102174878, -0.0426594168, 0.0079503469, -0.0354030952, 0.0069671087, 0.0353538543, -0.0232486799, 0.0475089625, 0.0194889307, 0.0173906982, 0.0280813128, -0.0383286513, 0.0110797547, 0.0152226239, -0.0167197026, -0.0318989828, 0.0073498525, -0.0337657481, 0.0056711212, 0.0252573639, -0.0006131455, -0.0102530755, 0.0311200023, 0.0002983324, 0.0419402346, -0.0239272229, 0.0240150541, -0.0485103875, 0.0068074279, -0.0062646195, 0.0006512105, 0.0193333998, 0.0081464462, 0.0050897449, -0.0390549302, -0.0297645982, -0.0405808389, 0.0392236933, 0.0143558085, 0.0189085826, -0.0061663799, -0.0440494381, 0.0154058784, 0.0110125728, -0.0109181628, 0.0414099991, -0.0346659683, -0.0181208812, 0.0157921761, -0.0118779279, -0.0343023539, 0.0214433596, 0.0367194042, -0.0098892190, 0.0094361492, 0.0424528643, 0.0283837318, 0.0021986477, -0.0308333132, 0.0018289834, 0.0438575372, 0.0012869574, -0.0468767174, 0.0071429275, 0.0255752802, 0.0166010782, 0.0159765109, -0.0206779651, -0.0023153201, 0.0391490161, -0.0099499412, 0.0366946012, 0.0222318694, -0.0341383778, -0.0027996786, 0.0039230809, 0.0334443748, 0.0194611326, -0.0039023831, -0.0436980426, -0.0148687512, 0.0010568015, -0.0431933701, -0.0382946059, 0.0305967182, -0.0057443194, 0.0381388962, 0.0085075013, -0.0486137569, -0.0182785504, -0.0029023252, 0.0146925002, -0.0144172199, -0.0109003522, 0.0027690306, -0.0145803355, 0.0461691469, 0.0165274143, -0.0111065507, 0.0403410494, -0.0092721470, -0.0120170936, -0.0033042692, -0.0340725482, -0.0059454404, -0.0363702402, 0.0316494480, 0.0282738209, 0.0367802233, -0.0094312988, 0.0277063027, -0.0237426180, 0.0028555579, 0.0077551156, -0.0122958161, 0.0036341175, 0.0149395540, 0.0114034824, -0.0098073073, -0.0152015388, 0.0405492336, 0.0001558922, -0.0287900828, -0.0406229943, -0.0101287067, 0.0142937750, 0.0175265670, -0.0306428000, -0.0386859924, 0.0300524086, -0.0480314456, 0.0403338298, 0.0245856494, -0.0121061541, 0.0105653182, 0.0483178645, -0.0301410705, 0.0179077312, 0.0413845032, 0.0065100193, -0.0034452975, -0.0439654477, -0.0449383259, -0.0231188796, -0.0171351396, 0.0127832256, 0.0276951343, -0.0223732106, 0.0438224822, 0.0425438657, 0.0378088579, -0.0125475787, -0.0200300366, 0.0382784531, -0.0219869278, -0.0033599958, 0.0122591406, 0.0377449319, 0.0084362850, -0.0048389509, -0.0108766966, -0.0204648394, 0.0268893614, -0.0415577032, -0.0235631652, -0.0468815528, -0.0055132546, 0.0045886002, -0.0481750146, -0.0161642469, -0.0256524626, -0.0051541738, 0.0219458342, -0.0460474789, -0.0417515561, -0.0341698080, 0.0362887606, -0.0355276987, -0.0350650996, -0.0282617696, 0.0304453000, -0.0096865110, -0.0461703315, -0.0177856628, 0.0002571121, 0.0189827308, -0.0063487068, -0.0224816147, -0.0171728656, 0.0411798283, 0.0289133564, 0.0350299999, 0.0199240893, 0.0141255483, 0.0064614639, 0.0027392805, 0.0231561884, -0.0107226036, 0.0330494195, 0.0444451123, 0.0062274300, -0.0310297031, 0.0277034864, -0.0364637524, -0.0308916904, -0.0429609008, 0.0448371917, 0.0309864283, -0.0428494141, -0.0409107096, 0.0055605583, 0.0125688389, 0.0398501232, 0.0372574627, -0.0232362766, 0.0295461342, 0.0386149511, 0.0374163538, 0.0299407318, -0.0164172016, 0.0232652873, 0.0466117784, -0.0044943318, -0.0216684248, -0.0271838028, -0.0391069092, 0.0179624557, -0.0009664670, -0.0217910651, 0.0269055814, 0.0372214839, 0.0447850823, -0.0202536862, 0.0471037626, -0.0416610129, 0.0355055407, 0.0048940219, 0.0026247576, -0.0231366791, -0.0007639341, 0.0148238391, 0.0131121725, 0.0280424431, 0.0060656518, -0.0273072030, -0.0047121160, 0.0224816129, -0.0326486751, -0.0476660579, -0.0097839795, -0.0236588493, -0.0250201747, 0.0104541481, 0.0057124905, 0.0077748559, 0.0187225416, -0.0067897327, 0.0150916874, 0.0190620124, 0.0029826611, 0.0054748021, -0.0352024101, -0.0035458840, 0.0353328884, -0.0092979595, -0.0048752874, -0.0085395016, -0.0156157613, -0.0109718777, 0.0420667678, -0.0200954787, 0.0349554196, -0.0200910885, 0.0358053371, -0.0452821292, 0.0438850150, -0.0375620537, 0.0298986509, 0.0059134141, 0.0225128382, 0.0307982415, -0.0471921377, 0.0162888467, -0.0483420305, 0.0261664018, 0.0468706787, 0.0246291235, -0.0079391114, 0.0077896528, -0.0122101791, 0.0203089714, -0.0284742992, -0.0281904750, -0.0351842716, -0.0017170645, 0.0310436115, -0.0091042109, 0.0380335674, 0.0306271389, 0.0478570014, 0.0189213529, -0.0477327034, 0.0313564613, -0.0208205320, -0.0387005582, -0.0361083038, -0.0483977422, -0.0166745000, -0.0184710026, -0.0119406730, 0.0292387828, -0.0482439622, 0.0330588445, -0.0452156365, 0.0286425725, 0.0049994588, -0.0070617385, -0.0105331987, 0.0155620128, -0.0255311187, -0.0162334256, 0.0438861400, 0.0005329028, 0.0289207697, 0.0074580573, -0.0258369967, 0.0478794873, -0.0232089087, 0.0194776282, 0.0472535267, 0.0138077587, -0.0393361188, -0.0250524804, 0.0207378343, -0.0174518228, -0.0202741623, 0.0316097140, 0.0489088893, -0.0068130344, -0.0249883812, 0.0214817077, 0.0451287702, -0.0131601430, 0.0297781825, 0.0340550169, -0.0486795157, -0.0009795725, 0.0170856267, -0.0363264084, 0.0193129107, -0.0065238364, -0.0087676719, 0.0049244240, 0.0289093107, 0.0038750507, -0.0435079373, -0.0461061820, -0.0465334505, -0.0200862065, -0.0313668028, -0.0263800509, 0.0116488338, 0.0072433874, -0.0427682251, -0.0125066899, -0.0091448575, 0.0311682522, 0.0434350446, -0.0272164848, -0.0488461889, 0.0214179829, 0.0131414644, -0.0055066645, 0.0417212620, 0.0210049003, 0.0088802092, 0.0232477933, -0.0415692069, 0.0468281433, -0.0231899768, -0.0094695538, 0.0470202044, 0.0252109766, 0.0081201755, 0.0336462036, -0.0008291937, 0.0016385615, -0.0054127574, 0.0045577288, 0.0461688489, -0.0075639114, -0.0031671003, -0.0416248515, 0.0376648158, 0.0322754532, -0.0065717623, -0.0211526081, -0.0273459461, -0.0361215249, 0.0178501233, -0.0044039972, -0.0470079891, -0.0381057039, 0.0470311418, 0.0085333250, -0.0133663528, 0.0293417126, -0.0095329285, 0.0423344970, -0.0473919734, 0.0357244015, -0.0217670389, 0.0076449364, 0.0224432573, 0.0239434093, -0.0340592563, -0.0269575957, -0.0320792384, -0.0462628826, 0.0221929327, 0.0246272907, 0.0385169089, -0.0186888482, -0.0283198897, 0.0241217688, -0.0351170413, 0.0227034688, -0.0238631330, 0.0332568511, -0.0383005366, 0.0278786495, -0.0133100189, -0.0268717576, -0.0082196444, 0.0178750753, 0.0301385224, -0.0288690403, 0.0024659447, -0.0046352521, 0.0303838998, 0.0168542713, -0.0306248013, -0.0406558849, -0.0447316952, -0.0199743565, 0.0141438171, -0.0110748373, 0.0261289254, 0.0152458400, 0.0098581947, 0.0270345286, 0.0229535326, 0.0488803536, -0.0325678140, -0.0421707220, -0.0178131685, 0.0328080505, 0.0054094642, 0.0227205083, -0.0028607324, -0.0467156731, -0.0255918428, 0.0007991381, -0.0404230542, 0.0369322896, -0.0223969929, -0.0353740491, 0.0009642728, 0.0165833756, 0.0386450887, 0.0291877985, 0.0454980806, -0.0336921662, 0.0034982190, -0.0359756872, -0.0023603216, -0.0128240250, -0.0412512645, 0.0091149807, -0.0442764275, -0.0182767976, 0.0012661219, 0.0207580924, -0.0039568841, 0.0170231611, 0.0406225696, 0.0421713665, 0.0063365102, 0.0275447443, -0.0322906002, 0.0080628395, 0.0472536832, 0.0149691999, -0.0106876194, -0.0093886331, 0.0359811783, -0.0103692673, 0.0115694553, 0.0212923586, 0.0317498818, 0.0171768144, 0.0385574400, -0.0082658492, 0.0206685141, 0.0149206296, 0.0436549336, 0.0433094129, 0.0096953399, -0.0309956316, 0.0090547577, 0.0088962726, -0.0435107276, 0.0356808826, 0.0257179216, -0.0377370678, 0.0316687524, -0.0337928571, 0.0402224138, -0.0155920722, 0.0061010867, 0.0171305835, -0.0444235615, 0.0107919835, -0.0447336696, 0.0085544661, -0.0290522072, 0.0294354558, -0.0076377317, -0.0338677019, -0.0211042408, -0.0473678410, 0.0207705870, 0.0419170409, -0.0437906645, 0.0293459594, 0.0162966177, 0.0136366189, 0.0049781427, -0.0161080286, 0.0439769253, -0.0218427144, -0.0082282051, -0.0160447806, -0.0325552598, 0.0252179205, -0.0262880940, -0.0265043732, 0.0259599760, -0.0460124016, 0.0290044248, -0.0268064309, 0.0463625342, -0.0200507566, -0.0107206739, -0.0172584020, -0.0279806405, -0.0187679455, 0.0272364020, -0.0349300541, 0.0295647308, 0.0086770840, -0.0049097538, 0.0207617208, 0.0327723846, -0.0106385313, 0.0046159066, -0.0031273179, 0.0317265093, 0.0008056574, -0.0224807505, 0.0248591751, 0.0247277766, 0.0486732200, 0.0245744139, 0.0265486985, -0.0378686450, -0.0103015229, -0.0210609306, 0.0302404687, -0.0410302542, 0.0487139970, 0.0043672398, 0.0312238857, 0.0411944091, -0.0378383473, -0.0316565484, -0.0350114778, -0.0356495120, -0.0468802452, -0.0263147596, -0.0172028840, -0.0353842825, -0.0343348235, -0.0028915666, 0.0097798817, -0.0045421384, 0.0462248176, 0.0186940134, -0.0055315681, -0.0398157835, 0.0418956429, 0.0297563672, 0.0218008310, -0.0135777518, -0.0271195620, 0.0421582013, -0.0181077179, 0.0110889822, -0.0189630724, 0.0008308254, 0.0381745845, 0.0099875182, 0.0367433131, 0.0189244673, -0.0314606503, -0.0009157993, -0.0437769890, 0.0261596814, 0.0424001887, 0.0285810903, -0.0352400094, -0.0059590936, -0.0307802390, -0.0176017955, 0.0064963996, 0.0049760044, -0.0190654136, -0.0149449743, -0.0350111127, -0.0450113863, -0.0139269978, 0.0151359662, -0.0251225960, -0.0072044469, 0.0401167795, 0.0169319510, 0.0144041181, -0.0006409548, 0.0062808804, 0.0474519953, -0.0478688478, -0.0176828653, 0.0298324600, -0.0066136084, 0.0164041817, 0.0157257318, 0.0028554052, -0.0167710856, -0.0345127247, -0.0348538756, -0.0131771937, -0.0298633873, 0.0015917830, -0.0177493263, -0.0121737123, 0.0426005572, -0.0032395758, -0.0283499192, -0.0395093448, -0.0278270599, 0.0125780888, -0.0324233472, -0.0397589505, -0.0349300765, -0.0304267760, -0.0294201411, -0.0192121621, 0.0472313911, -0.0288352966, -0.0420029126, -0.0437521674, -0.0197450891, 0.0088867396, -0.0359612517, -0.0463343188, 0.0249187946, 0.0120506734, 0.0239308923, -0.0281021148, 0.0193484947, -0.0353081152, -0.0310220756, -0.0135007687, 0.0256788582, -0.0221623983, 0.0421347022, 0.0017735511, -0.0082354583, 0.0125981532, -0.0265690815, -0.0147329569, -0.0327289663, -0.0340797082, -0.0035909563, -0.0483387485, -0.0317868143, -0.0159077756, 0.0296578035, 0.0202136561, 0.0419846103, 0.0082164668, 0.0205486342, -0.0139505565, -0.0016845725, 0.0472933128, -0.0240818784, -0.0477266870, -0.0122195669, -0.0218894351, 0.0343148038, -0.0473216698, 0.0485737249, 0.0464028567, 0.0478301048, 0.0249571577, 0.0439765751, -0.0338308886, 0.0112386532, 0.0042405240, 0.0039356947, -0.0042474940, -0.0196973998, 0.0301176384, -0.0438864082, -0.0101184286, 0.0018759370, 0.0404387042, 0.0425127223, 0.0416790396, 0.0232968852, -0.0189203005, 0.0484367535, -0.0091495551, -0.0301439669, 0.0213816315, -0.0452602655, -0.0021684170, 0.0205634534, -0.0087276474, -0.0319701135, 0.0205072612, 0.0409646258, -0.0191652440, -0.0437054262, 0.0335351601, -0.0057757758, 0.0314492732, 0.0045204833, -0.0396075174, 0.0480510592, 0.0467697531, 0.0328169987, 0.0234289840, 0.0018988401, 0.0413202122, -0.0142512135, -0.0072692111, 0.0390808284, 0.0465233102, 0.0448587164, 0.0358424932, -0.0274027344, 0.0167973414, 0.0351300314, 0.0308793411, 0.0366805494, 0.0140296742, 0.0082987547, -0.0115947761, 0.0477270856, -0.0415903740, 0.0013764054, 0.0246377885, -0.0473159105, 0.0274317712, -0.0093775354, 0.0335060507, 0.0176640227, -0.0469989479, -0.0353629179, -0.0137222335, 0.0171831101, -0.0211805236, -0.0077667274, -0.0347733870, 0.0284308270, -0.0375530943, 0.0027710274, 0.0194550231, 0.0031939037, -0.0351817459, -0.0301156547, -0.0224595629, -0.0232816637, 0.0376986414, -0.0336685590, 0.0066538230, -0.0304683466, -0.0075939409, 0.0316705406, 0.0339195281, -0.0126259662, -0.0389843360, 0.0304394811, -0.0485579595, 0.0345100388, 0.0278330967, 0.0044363737, 0.0020529591, -0.0031176470, 0.0150092170, 0.0454246402, 0.0028942190, 0.0089712702, -0.0337263532, 0.0162969530, -0.0446024761, -0.0323333293, 0.0081844740, 0.0376899615, 0.0099215470, 0.0455466509, 0.0096619129, -0.0141546875, -0.0403200686, 0.0200167224, -0.0248533934, -0.0186780915, 0.0031499192, -0.0002468601, -0.0072132424, -0.0000126623, -0.0454984456, -0.0434295423, 0.0290361792, 0.0010842048, 0.0255860165, 0.0295619145, 0.0264719501, -0.0383810252, -0.0453606322, 0.0419861078, -0.0230805799, 0.0374026597, -0.0284986291, -0.0387329124, 0.0200138241, 0.0225589573, -0.0085230581, 0.0144675598, 0.0066511631, 0.0265219063, -0.0455031618, 0.0475087166, 0.0033398494, 0.0009711646, -0.0112971812, -0.0167902969, 0.0029949471, 0.0283343345, -0.0049489066, 0.0282692239, 0.0348090827, 0.0407548398, 0.0219108686, -0.0251665134, -0.0090492107, -0.0320849381, 0.0027484372, -0.0123975500, 0.0442117304, 0.0430284217, 0.0135018080, -0.0186153334, -0.0290759634, -0.0061670467, 0.0012158267, 0.0272025168, -0.0042644665, -0.0186900869, -0.0183236357, -0.0239545647, 0.0330307782, 0.0164424330, -0.0468159094, 0.0481780395, -0.0207946133, 0.0355967283, -0.0351658054, -0.0001417622, 0.0221223012, 0.0220676288, 0.0084335059, -0.0013324507, -0.0439859219, 0.0305382758, -0.0244641900, 0.0327552333, 0.0345387459, 0.0395361707, 0.0324090645, -0.0023523904, 0.0481411293, -0.0127027482, 0.0159704536, -0.0368253812, 0.0030783080, 0.0414862186, 0.0401630700, -0.0453196913, -0.0100803636, -0.0298474561, 0.0344500691, -0.0068365932, -0.0125463195, -0.0225372706, -0.0447043180, 0.0339838415, -0.0135261118, 0.0118380859, 0.0190306976, 0.0177821368, 0.0165962800, -0.0099342801, -0.0458560772, -0.0402555987, 0.0148864016, -0.0335976966, -0.0352927670, 0.0092148557, 0.0016530566, -0.0434647202, -0.0408197790, 0.0083009154, 0.0488305017, 0.0148813650, -0.0300236158, 0.0249012262, -0.0158296339, 0.0049071163, -0.0227558035, 0.0102065057, 0.0456755832, -0.0406389944, 0.0461276844, -0.0023424290, -0.0349108055, -0.0006581731, 0.0179531574, 0.0466640368, -0.0419273898, -0.0091073774, 0.0431455970, -0.0122122690, -0.0319147930, 0.0313047245, 0.0129248351, -0.0374250226, -0.0203816071, -0.0473940969, 0.0168399736, 0.0103050508, 0.0001397654, -0.0040077716, 0.0320108160, 0.0071093813, -0.0329149365, -0.0421208218, 0.0394048914, 0.0031777769, 0.0429179072, 0.0183875635, -0.0156020820, 0.0488749072, 0.0341389626, -0.0448871218, -0.0466344953, -0.0197487213, -0.0397885442, -0.0462946296, 0.0356398523, 0.0263017565, -0.0170979276, -0.0455067158, -0.0028406754, -0.0311631002, -0.0339512751, -0.0220851917, 0.0400072411, 0.0018053763, 0.0351771116, -0.0187005401, -0.0486869067, -0.0120576583, 0.0133434273, 0.0013194270, 0.0418169573, -0.0073788539, -0.0314520523, -0.0026189759, 0.0164630190, -0.0223579463, 0.0423174128, 0.0209689140, 0.0393304378, 0.0277812183, 0.0478252470, 0.0346737206, -0.0159692951, -0.0395983942, -0.0119324587, 0.0318339840, 0.0453210399, 0.0213724524, -0.0303967241, 0.0320612192, 0.0444415584, -0.0355922654, 0.0462964028, 0.0028136037, -0.0469375364, -0.0438359492, 0.0143624768, -0.0472772159, 0.0253211260, 0.0190878883, -0.0140197240, -0.0115993582, 0.0334519893, 0.0211294815, -0.0164985657, -0.0141890496, -0.0348497182, 0.0251760483, 0.0477735400, -0.0318529159, 0.0002793409, -0.0141208172, -0.0084648915, -0.0021283776, -0.0301716719, 0.0003420748, 0.0097956359, 0.0275914818, 0.0311104953, -0.0274357200, 0.0024503991, 0.0206569061, -0.0297873747, 0.0407756492, 0.0187935457, 0.0152083859, -0.0016464107, 0.0149396136, 0.0181435645, -0.0278635956, 0.0267287344, -0.0137059987, 0.0462446511, 0.0172569603, 0.0061947852, -0.0288473740, -0.0287632179, -0.0367863216, -0.0223815627, 0.0270107761, 0.0312874839, -0.0480726995, -0.0442920700, 0.0403046310, 0.0194756612, -0.0429587886, 0.0291607827, -0.0124194957, -0.0275201071, 0.0279312208, -0.0439438149, 0.0274965167, -0.0182322264, -0.0090615787, -0.0056938753, 0.0419465676, -0.0132967979, -0.0148835033, -0.0227654055, -0.0352882370, 0.0093639642, -0.0280809384, 0.0173154473, -0.0091179721, -0.0471200831, 0.0452663004, -0.0231603440, -0.0367508270, 0.0442420989, 0.0064625628, -0.0079587810, -0.0400787033, -0.0172866322, 0.0018746406, 0.0341221318, 0.0383084342, -0.0104615763, 0.0483335033, 0.0123009421, -0.0202642679, -0.0370500125, 0.0073393174, 0.0083742067, 0.0273451954, 0.0330870748, 0.0329278186, 0.0280875936, -0.0357911550, -0.0400797874, 0.0422339365, -0.0021408163, -0.0235034805, 0.0308938175, -0.0395644270, 0.0317536443, 0.0158774182, 0.0442549810, 0.0453576669, -0.0165008530, -0.0264943987, 0.0450033844, -0.0246950593, -0.0041714571, -0.0452236719, 0.0138539821, 0.0086223967, -0.0152653344, -0.0357227698, 0.0183535740, -0.0461597480, -0.0471347868, -0.0488541089, 0.0384566411, -0.0483662896, -0.0146109462, -0.0226454977, 0.0418099910, -0.0041025691, 0.0471595973, -0.0354082733, 0.0405596048, -0.0060911141, 0.0149925128, -0.0090406239, -0.0453686789, -0.0110105388, -0.0304947197, -0.0110566430, -0.0426272713, 0.0172611699, -0.0344762020, -0.0173152462, -0.0231728889, -0.0178410150, 0.0186379105, 0.0222311318, 0.0247256607, 0.0129995160, -0.0350355022, 0.0412856415, 0.0229076222, 0.0000357293, 0.0210559294, 0.0343830287, 0.0078450069, -0.0145022534, -0.0325314775, 0.0354199484, 0.0087863505, 0.0235349387, -0.0462082438, 0.0082493462, -0.0009921417, -0.0304748043, -0.0205717236, 0.0037757605, -0.0115860403, 0.0301605314, -0.0464475565, 0.0186787918, -0.0148526430, -0.0114111677, 0.0079783089, -0.0085137822, 0.0068698823, -0.0237444527, 0.0461569652, 0.0424886867, -0.0122446567, 0.0159757435, -0.0048219450, -0.0189582016, 0.0027781539, -0.0186895020, -0.0150517896, -0.0034313612, 0.0353612229, 0.0219473764, -0.0367802493, -0.0101230629, 0.0071445853, 0.0486336946, -0.0008567907, -0.0026219785, -0.0076022372, 0.0007389523, 0.0094617866, -0.0337397009, -0.0457365774, 0.0218845084, 0.0228778943, 0.0316120163, -0.0139853843, 0.0273586884, 0.0470224991, 0.0024691224, -0.0283147153, 0.0152268931, -0.0395952277, -0.0426092744, -0.0413302556, 0.0134700388, -0.0150714926, 0.0172301382, 0.0401599631, -0.0135654062, -0.0189604685, 0.0021939725, -0.0189609695, -0.0371641368, 0.0487411171, 0.0229514241, -0.0055472665, 0.0425346568, -0.0170392953, -0.0048715249, -0.0475641266, -0.0412405320, -0.0416751690, -0.0475233980, 0.0263613835, 0.0481708795, -0.0436594747, 0.0099856146, 0.0452109650, -0.0353121087, 0.0371398926, 0.0338771418, 0.0324077755, -0.0134617686, 0.0167103708, 0.0448908359, -0.0160161890, -0.0339035839, -0.0246564914, 0.0135207847, 0.0257426426, 0.0345842615, 0.0099839196, -0.0180628542, -0.0322098210, -0.0206234772, -0.0305440091, 0.0265614763, 0.0121192932, -0.0008652359, 0.0350918546, -0.0140827969, -0.0336750746, 0.0101781599, 0.0111373030, 0.0041835830, 0.0007334873, 0.0012616366, -0.0447360501, 0.0464748442, 0.0165259168, 0.0255922899, -0.0292317178, -0.0286000948, 0.0379708186, -0.0003498308, -0.0380501077, 0.0288113058, -0.0391138345, -0.0321353264, 0.0022534132, -0.0289089382, 0.0088381618, -0.0414211154, 0.0303851739, -0.0276935566, 0.0158978850, -0.0329098925, 0.0295096189, -0.0307961237, -0.0394646227, -0.0234241039, -0.0021423697, -0.0257882550, -0.0226450302, -0.0031218268, 0.0391786098, -0.0092056282, -0.0310452599, 0.0283247456, -0.0071100965, 0.0285554379, -0.0246849433, 0.0156865567, -0.0297666192, 0.0302000195, -0.0439096726, 0.0129709579, 0.0425012931, -0.0391624570, -0.0074068643, 0.0227853581, 0.0413011536, -0.0394443460, 0.0221778527, -0.0460044369, -0.0141991414, 0.0350694358, 0.0466207117, 0.0340067893, 0.0280031934, -0.0293571390, -0.0085152686, -0.0427534878, 0.0308510810, -0.0065161511, -0.0316351503, 0.0107107945, 0.0226315483, 0.0101735927, -0.0232741423, -0.0405882001, 0.0160512030, -0.0268024728, -0.0388287120, 0.0451461598, 0.0005514286, -0.0350700989, -0.0201749504, 0.0113103688, -0.0143460557, 0.0303964466, 0.0454954654, -0.0369307585, -0.0119357668, 0.0304383636, -0.0310583189, 0.0397734642, 0.0186294690, 0.0378423780, 0.0004154257, 0.0070551522, -0.0273635592, -0.0144273713, -0.0228248797, -0.0415634029, -0.0431391746, 0.0408441424, 0.0151441544, 0.0468931273, 0.0057658106, -0.0458118804, 0.0390196145, -0.0172302760, -0.0486743972, 0.0089019127, 0.0094683841, -0.0065777190, -0.0439918078, 0.0068047084, 0.0462233946, -0.0247294102, 0.0140050873, -0.0076787509, 0.0278834552, -0.0213863496, -0.0284919478, 0.0047932342, 0.0462859422, 0.0350385383, -0.0385793298, -0.0354717970, -0.0329552330, -0.0069727153, -0.0189148225, 0.0457811952, 0.0197884068, -0.0256680921, 0.0147960037, 0.0245052725, -0.0183185898, -0.0345947519, 0.0149063691, -0.0242208019, 0.0073570460, -0.0423766412, 0.0298234522, -0.0096942782, -0.0323013961, 0.0088649578, 0.0454304516, 0.0212446004, 0.0203972906, -0.0443071835, 0.0364122763, 0.0441237837, 0.0042747557, 0.0033454411, 0.0253180265, -0.0305964537, 0.0119624324, 0.0372961536, 0.0256239548, 0.0353953913, 0.0388687253, 0.0224772841, -0.0438813269, -0.0170898922, -0.0314570516, 0.0206368268, -0.0026621483, 0.0321455672, 0.0104674734, 0.0345003530, 0.0075633749, -0.0335190408, -0.0410507768, -0.0235492084, -0.0340219885, 0.0305514634, 0.0439755023, 0.0477082580, 0.0456327423, -0.0412344113, -0.0082157999, -0.0014731959, 0.0411512852, 0.0466760322, 0.0113411918, -0.0314813703, -0.0173546784, 0.0158226639, -0.0393377058, -0.0467368364, 0.0242416486, -0.0025224648, 0.0128797963, 0.0338076800, -0.0485950895, 0.0360441357, 0.0198481157, -0.0178444255, -0.0041968971, -0.0285499990, -0.0372353978, -0.0269731656, -0.0480673276, 0.0321780667, -0.0264890492, 0.0481106266, -0.0228921566, -0.0196502823, -0.0176359490, -0.0368952751, -0.0162011907, -0.0362855271, 0.0412327722, 0.0248753205, 0.0270826891, 0.0396605432, 0.0372302830, 0.0306831673, 0.0179473385, 0.0418031737, 0.0396330133, 0.0471309200, 0.0442566276, -0.0215766300, -0.0268265679, -0.0179392789, -0.0164560601, -0.0412707925, 0.0472635701, 0.0363096222, -0.0083466433, 0.0248654708, 0.0178885907, 0.0237554684, -0.0219248608, -0.0395351574, -0.0012484118, 0.0189584568, 0.0446270630, -0.0460643806, -0.0106778443, 0.0292052254, -0.0375029743, 0.0480819121, -0.0085470602, 0.0423405990, 0.0369380489, -0.0311980117, 0.0100136697, 0.0174941048, 0.0248478577, 0.0015061125, 0.0291000977, -0.0128338113, 0.0100187734, -0.0409526154, 0.0034230910, 0.0002855323, 0.0134447515, -0.0361766219, 0.0171812996, 0.0060019232, -0.0107565820, -0.0318967476, 0.0046514980, 0.0038173646, 0.0364739522, 0.0481130853, -0.0155972466, -0.0171100385, -0.0040602870, -0.0206284411, -0.0068370961, -0.0472039469, 0.0298072398, -0.0435815118, -0.0203951672, -0.0486056022, 0.0335558206, -0.0405722558, 0.0210462585, 0.0074346960, -0.0463829786, -0.0250583440, -0.0471623875, -0.0464493558, -0.0238304418, 0.0095018819, -0.0112097077, -0.0320520476, -0.0326244310, -0.0241914950, -0.0195453130, -0.0165593587, 0.0368051603, -0.0019540638, 0.0211265385, 0.0262903720, 0.0110508613, -0.0455040745, 0.0278689936, -0.0404946990, -0.0449344367, -0.0353054181, 0.0123829134, 0.0316055268, -0.0108798407, -0.0386632048, -0.0067880414, -0.0001319721, 0.0379819050, 0.0061465949, 0.0069079585, 0.0456095487, -0.0110407807, 0.0255756453, -0.0355231799, -0.0396215431, 0.0049839579, 0.0320864320, 0.0000753365, -0.0025591068, 0.0179257393, 0.0386833549, -0.0088880472, -0.0051102452, -0.0479091443, 0.0298060253, 0.0159438998, 0.0089031756, -0.0484601967, -0.0080981031, 0.0361205935, -0.0432993434, 0.0099342912, -0.0315734670, -0.0382543579, 0.0195692331, -0.0459794663, 0.0144281536, -0.0238129906, 0.0443993285, 0.0260148868, -0.0183925014, -0.0103173293, -0.0410315506, -0.0256973505, -0.0202832595, -0.0409666672, -0.0486128330, 0.0056897961, 0.0277969241, 0.0170962811, -0.0449429750, 0.0483785644, -0.0253396705, 0.0405971780, -0.0258624479, -0.0375704616, -0.0198531300, 0.0279368162, 0.0303335562, 0.0382664353, 0.0474606827, 0.0183196664, -0.0283392668, -0.0341537148, -0.0154336914, 0.0037361197, -0.0095738918, 0.0037759356, 0.0071587563, 0.0148873106, 0.0356604755, 0.0142675564, 0.0084707178, 0.0083454624, 0.0062616542, 0.0052873008, -0.0084207505, -0.0451070704, 0.0249736160, -0.0110876858, -0.0211342238, -0.0419137813, 0.0452627316, -0.0397217013, 0.0250406489, 0.0215364173, -0.0132685080, 0.0112339929, -0.0132130757, -0.0360532925, -0.0242617745, 0.0242858678, 0.0389063135, 0.0380542427, -0.0260902569, -0.0187083073, -0.0273245126, 0.0322659314, -0.0194825903, -0.0271306243, 0.0028955974, 0.0186387748, -0.0439536013, 0.0220042467, 0.0040593073, 0.0241659507, -0.0325162262, 0.0142320693, -0.0024679303, 0.0106606744, -0.0139426589, 0.0422648042, -0.0165766105, 0.0334833488, -0.0385785475, 0.0091936216, -0.0391633362, -0.0282752477, 0.0297852233, -0.0090171732, -0.0270895101, 0.0177600384, 0.0312290788, 0.0463773385, -0.0231728069, 0.0262165293, -0.0427910611, -0.0076480210, -0.0118133947, 0.0352549851, 0.0207604244, -0.0344403088, 0.0232575908, 0.0405034497, 0.0093896836, 0.0019964762, -0.0028541684, -0.0295374785, -0.0345750041, 0.0333196893, -0.0329882056, 0.0190409645, -0.0138882883, -0.0109158270, -0.0121890120, 0.0302547142, -0.0057845339, -0.0118264742, 0.0056015328, -0.0244990792, 0.0375199914, 0.0110845566, -0.0332038999, 0.0074293837, -0.0171397440, -0.0468228012, -0.0360742472, 0.0342412591, -0.0171206705, 0.0459559411, 0.0137442052, 0.0135832205, 0.0015959069, 0.0064552166, 0.0481559560, -0.0457063392, -0.0346352942, -0.0468322746, -0.0416559577, 0.0459739864, -0.0102323331, -0.0416214652, -0.0002351440, -0.0217347667, -0.0330130160, 0.0358802751, -0.0054227673, -0.0321944654, -0.0116546601, -0.0020415485, 0.0026661046, 0.0366305411, -0.0098714754, -0.0473059937, -0.0241111144, 0.0406531617, 0.0252362788, -0.0152002908, -0.0061279759, 0.0428999811, -0.0481587239, 0.0346419662, 0.0449269041, 0.0061182715, -0.0249915347, 0.0425586998, 0.0190615579, 0.0144387037, -0.0336567834, 0.0447547510, -0.0358817354, -0.0341823176, -0.0189334881, 0.0113916360, -0.0121293031, -0.0156186596, 0.0361311287, -0.0439787284, 0.0312326998, 0.0191626400, -0.0351260453, -0.0464755408, -0.0419721715, -0.0069531165, 0.0240151882, -0.0260235518, 0.0327682942, -0.0160950199, -0.0023433752, -0.0045053661, -0.0228967834, 0.0292956457, -0.0430671647, 0.0063717738, -0.0196057335, 0.0016008019, 0.0030472279, 0.0162944570, -0.0124364197, 0.0286069885, 0.0273933932, 0.0125915892, 0.0045043640, -0.0184574779, 0.0326527208, -0.0012024529, 0.0435587838, 0.0448249355, 0.0370613784, -0.0404119231, -0.0323365033, -0.0055238605, 0.0093315765, -0.0362297297, -0.0336863846, 0.0130369626, 0.0202648267, -0.0207911450, 0.0250515491, -0.0061497241, 0.0153946951, -0.0248019081, 0.0163991824, 0.0065294318, -0.0146225467, 0.0408765450, 0.0225685760, 0.0483694300, -0.0477565192, -0.0306583345, -0.0105993561, -0.0036836751, -0.0105409436, 0.0357347876, 0.0040011033, -0.0345552750, 0.0088458844, -0.0289873239, -0.0244299565, 0.0457863808, 0.0187208652, 0.0236196965, 0.0478179678, -0.0323994718, 0.0263480842, 0.0264824405, 0.0481879115, -0.0067299195, -0.0474605225, -0.0418425798, -0.0248846393, -0.0410477035, -0.0395087600, -0.0318718031, 0.0088893212, 0.0396972522, -0.0034582391, -0.0314528830, 0.0280179232, 0.0077495091, 0.0382328257, -0.0447382703, 0.0209212005, -0.0276079774, 0.0316780955, -0.0269133970, -0.0364433713, 0.0379800275, -0.0143106394, 0.0385073349, 0.0330230817, 0.0133506805, -0.0134273954, 0.0096854940, 0.0025481507, 0.0176100656, -0.0084193982, -0.0071495846, -0.0394368693, 0.0379587188, -0.0373792499, 0.0198167935, -0.0042638369, 0.0021369532, 0.0136904866, 0.0137511864, -0.0095275901, -0.0403064638, 0.0267842487, -0.0070761517, 0.0259996876, 0.0320545584, 0.0168844759, 0.0467440933, 0.0089689456, -0.0258263908, 0.0050633848, 0.0390323624, -0.0064378232, 0.0227105319, 0.0368100181, 0.0054583214, 0.0462968498, 0.0325936303, -0.0052270815, 0.0250186548, -0.0372139290, 0.0031304248, -0.0024622306, -0.0464451015, -0.0237412751, 0.0485983342, -0.0467975140, -0.0190648288, 0.0189370364, -0.0124227442, -0.0179223195, -0.0450644381, 0.0224177912, 0.0205340460, 0.0021054856, 0.0347355604, 0.0128655247, 0.0322351009, -0.0088679828, 0.0109716803, 0.0393518358, 0.0182799175, -0.0048839673, -0.0380440429, -0.0204258393, -0.0026359372, 0.0180788562, -0.0133936256, -0.0165039152, 0.0067735352, -0.0290348511, -0.0379869528, -0.0031505041, -0.0022109337, -0.0186950620, -0.0226046052, 0.0218304992, 0.0142807737, 0.0381954089, -0.0086734854, 0.0455598682, 0.0254139304, -0.0016712807, -0.0025855936, 0.0166968107, 0.0215359256, -0.0441043451, -0.0137663856, -0.0058662370, 0.0341483876, 0.0046755113, 0.0275311768, 0.0394326523, 0.0228605494, 0.0017886274, -0.0028878860, -0.0300330184, 0.0277503356, 0.0087842122, 0.0089279711, 0.0110190772, 0.0093944147, -0.0099501647, -0.0273381788, 0.0116441362, 0.0478719920, -0.0323006473, -0.0187428445, 0.0185494199, 0.0172804296, 0.0179305971, 0.0249257088, -0.0278195273, 0.0398431346, -0.0447924882, 0.0160490721, -0.0380924121, 0.0089778081, 0.0369081795, -0.0434983484, -0.0306095239, -0.0222005565, 0.0274822265, 0.0408494473, -0.0101810545, 0.0193637908, -0.0206381939, -0.0406093150, 0.0450017378, 0.0186526850, -0.0100655034, -0.0134855472, 0.0330286324, 0.0219240636, -0.0444449596, -0.0092407875, -0.0228705369, -0.0213398635, 0.0396179557, -0.0071212612, 0.0363557562, -0.0135295838, 0.0095158890, -0.0302305631, 0.0099669956, 0.0460112244, 0.0384554192, -0.0124892145, 0.0050881691, 0.0429496318, -0.0282840896, 0.0017965250, 0.0060894564, -0.0011440292, 0.0004998855, -0.0056982525, 0.0204932466, 0.0407339185, 0.0219744891, -0.0383630991, -0.0005384758, -0.0086973831, 0.0125087686, 0.0249575078, -0.0219077021, 0.0453018919, 0.0127461515, 0.0445049927, -0.0414459370, 0.0226683542, 0.0406200513, -0.0371640101, 0.0313556269, 0.0387539491, -0.0332668461, 0.0140649304, 0.0141791850, 0.0324945450, -0.0302861128, -0.0076542832, 0.0295057446, 0.0063750669, 0.0372835547, -0.0228596050, -0.0439263284, 0.0165813863, 0.0087515190, -0.0460470803, -0.0474950373, 0.0317467675, 0.0007164106, 0.0086585470, -0.0144351050, 0.0074079260, 0.0398574471, 0.0308396071, -0.0104334727, 0.0005664937, -0.0131828599, 0.0291122273, -0.0038043074, 0.0046050921, -0.0441913605, 0.0090910606, 0.0068270043, 0.0078456588, -0.0392489135, -0.0468326733, 0.0227439627, -0.0328059047, -0.0141098239, 0.0028035343, 0.0412168577, 0.0434876755, -0.0049478225, 0.0455394164, -0.0488560237, -0.0063647777, 0.0208929852, 0.0135655552, -0.0283521377, -0.0337390602, -0.0413277932, -0.0104315840, -0.0227823760, -0.0331326649, 0.0058094002, -0.0168267637, -0.0003355928, -0.0039199404, 0.0093831308, 0.0442236215, 0.0239478126, 0.0406590849, -0.0489186384, -0.0466024205, -0.0280788708, -0.0340864584, -0.0474368110, -0.0153688081, 0.0180423409, 0.0221660286, 0.0210348964, -0.0225172509, 0.0115745366, 0.0162266493, 0.0258341953, -0.0327246934, -0.0396644324, 0.0480923131, 0.0250010565, 0.0176106915, 0.0096767917, -0.0113765597, 0.0314279199, 0.0037302673, 0.0311907157, -0.0349778831, 0.0033105426, -0.0415097922, -0.0454515368, 0.0425342619, 0.0342371240, -0.0015653856, 0.0321176797, -0.0464310423, -0.0190115571, 0.0463861525, 0.0473607183, 0.0357339680, -0.0185300577, 0.0049411766, -0.0290054623, -0.0137838684, -0.0289356038, -0.0330030508, 0.0041865036, -0.0126831159, -0.0363466814, 0.0365260467, 0.0301143229, -0.0050933883, 0.0148859173, 0.0047050975, 0.0450085849, 0.0394152850, 0.0440471843, 0.0190187171, -0.0200914145, 0.0296280608, -0.0115720257, -0.0052447766, -0.0207344741, 0.0290450230, -0.0472149849, -0.0314775407, -0.0476494841, 0.0467780530, -0.0288362298, -0.0476959944, 0.0392458439, 0.0330471769, 0.0168274045, -0.0021379553, 0.0097116791, -0.0309727043, 0.0384592041, -0.0044238977, -0.0095361285, -0.0313228257, -0.0226648506, -0.0006289147, -0.0225835461, -0.0378512740, -0.0092804506, -0.0418310985, -0.0288487747, -0.0451248214, 0.0142576471, -0.0460131392, -0.0350131802, -0.0421671458, 0.0197739005, -0.0352993086, -0.0058180913, -0.0324015170, 0.0120488405, -0.0415912271, 0.0321828499, 0.0056916550, 0.0431922004, -0.0214794874, -0.0207976624, -0.0276995488, 0.0201952159, 0.0001597032, -0.0124481358, 0.0399503931, -0.0444108769, 0.0009352826, 0.0439583361, 0.0272514522, -0.0341899581, -0.0106466599, 0.0437456593, 0.0093540736, -0.0056454130, -0.0459979661, 0.0142871141, 0.0253156647, -0.0119173452, 0.0125229470, -0.0393145680, 0.0431151986, 0.0214966536, -0.0362875015, 0.0262303129, -0.0228743218, -0.0251284838, 0.0005061328, 0.0305468738, 0.0158115327, 0.0289679840, -0.0334594175, 0.0486395061, 0.0117797777, 0.0214447826, 0.0401033610, 0.0023180880, -0.0161554404, 0.0157996416, 0.0153981820, -0.0222341251, 0.0267558768, -0.0110639185, -0.0355187543, 0.0071646050, 0.0039204545, 0.0023044795, 0.0127114058, 0.0276376456, 0.0230286866, 0.0225760713, -0.0484527349, -0.0167223886, 0.0259222984, 0.0361096114, 0.0201637298, -0.0162664466, 0.0299311578, 0.0118519738, -0.0442506522, -0.0084992424, 0.0224157125, 0.0394723639, 0.0467814058, 0.0311445966, -0.0357133448, 0.0345457569, -0.0372556858, 0.0029953904, 0.0410433337, 0.0374642536, 0.0298998505, 0.0380394533, -0.0053791180, 0.0420429185, -0.0203741081, -0.0134621412, 0.0221115872, 0.0052896254, 0.0406476855, 0.0324263275, 0.0469653606, 0.0345640704, 0.0397508219, -0.0222649947, -0.0102711208, -0.0425265878, -0.0290122852, 0.0232335553, -0.0177487656, 0.0074642599, -0.0394763350, -0.0236178637, -0.0394420214, -0.0223842021, 0.0409960300, 0.0126747414, -0.0397407040, -0.0259437766, 0.0136557147, -0.0386453457, 0.0268369168, 0.0273641199, -0.0169063061, -0.0291298553, 0.0292217880, -0.0463577583, 0.0237127542, 0.0313212350, 0.0200910047, 0.0019563064, 0.0447574481, -0.0079163238, -0.0309381299, -0.0454953834, -0.0028421357, -0.0321777947, 0.0179245844, 0.0284486189, 0.0436015055, -0.0152933076, 0.0128425360, -0.0454364717, -0.0042999163, 0.0333452225, -0.0180155616, 0.0177832320, 0.0055225156, 0.0114946812, 0.0432051197, 0.0366595313, 0.0153550878, 0.0387056768, -0.0093106553, -0.0111692250, 0.0262232125, -0.0468015336, 0.0103992857, 0.0386387557, -0.0487206616, 0.0432216004, 0.0463430509, 0.0253827721, 0.0261977240, 0.0221649110, 0.0005857311, 0.0155125111, -0.0447132513, -0.0173821375, 0.0032614879, 0.0228506923, -0.0195574258, -0.0216890164, 0.0420809835, 0.0227962658, -0.0018681698, -0.0434336178, 0.0282707065, 0.0115036853, -0.0203827396, 0.0395501554, -0.0264012031, -0.0146214701, 0.0092106052, -0.0483796410, 0.0433912650, -0.0375961252, -0.0040421374, -0.0296632964, 0.0469944552, -0.0145900175, 0.0246118754, -0.0170420744, -0.0178246275, -0.0228071380, 0.0124211796, -0.0067617483, 0.0414239690, 0.0425755978, -0.0482428670, -0.0279697552, 0.0307279825, -0.0085875653, -0.0440474041, 0.0149993449, 0.0108903274, -0.0115030669, 0.0056695454, 0.0465804487, 0.0429717749, -0.0107947402, -0.0182830002, 0.0042161942, -0.0139157139, -0.0435089059, 0.0455955192, -0.0038122721, -0.0037769042, -0.0115267523, 0.0125676244, -0.0055250749, 0.0164431557, 0.0397758856, -0.0406685323, -0.0467799939, -0.0233619176, 0.0480602831, -0.0467007086, 0.0003712624, 0.0117397271, -0.0212479532, -0.0387738496, -0.0009841286, -0.0281082578, -0.0272707138, -0.0226796847, 0.0197895095, -0.0451482050, -0.0451772213, -0.0334628373, 0.0465911627, 0.0034330077, -0.0322437063, -0.0049988404, -0.0323111229, 0.0454016551, -0.0086036958, 0.0164845288, 0.0443775430, -0.0439241230, -0.0345224440, 0.0136691257, -0.0330108553, -0.0238010306, -0.0021405481, -0.0394408517, -0.0029603168, -0.0431563333, -0.0320840739, -0.0094814673, 0.0269993246, -0.0147778317, -0.0375355408, -0.0232190005, -0.0404837802, 0.0220621824, 0.0441135839, 0.0051909648, 0.0424126983, 0.0390486270, -0.0175022706, 0.0057691187, -0.0323109701, -0.0254601967, -0.0052299984, -0.0462588295, -0.0467007793, 0.0370412618, 0.0274124965, 0.0440295562, -0.0386819877, 0.0352673009, 0.0056501217, -0.0047919154, 0.0387418568, 0.0430572480, -0.0089860782, -0.0313236192, -0.0001291931, 0.0060795136, 0.0410020128, 0.0482707471, 0.0452747717, -0.0105694197, -0.0170352049, -0.0001418777, -0.0141686127, 0.0188045427, -0.0023777597, 0.0256079137, -0.0380407050, 0.0074442849, 0.0146446526, -0.0462665148, 0.0081809722, 0.0464290231, -0.0156727470, 0.0432818383, -0.0212809611, -0.0103353374, 0.0325205624, -0.0281893052, 0.0100338049, -0.0355806127, -0.0155378655, -0.0013805367, 0.0429294482, 0.0224498808, -0.0049952902, -0.0420792885, -0.0035081916, -0.0114246234, 0.0012513325, -0.0321995690, -0.0282638483, 0.0266825259, 0.0304631367, 0.0130493678, -0.0295836851, -0.0431513339, 0.0422037542, 0.0300121084, 0.0323544592, -0.0455606543, -0.0272633098, -0.0479452573, -0.0228992831, -0.0182237122, -0.0110234246, 0.0233129561, -0.0002365559, 0.0299726799, -0.0083571896, 0.0093666166, 0.0431385413, 0.0282771736, 0.0125285052, 0.0400438458, -0.0122228488, 0.0463938192, 0.0196280777, 0.0441902876, 0.0398248956, 0.0438017473, -0.0422502756, -0.0046699531, -0.0435395204, -0.0124093816, -0.0037674680, 0.0416704640, -0.0147932284, 0.0451101139, -0.0286291428, 0.0339982733, -0.0118283778, -0.0026841164, -0.0066163912, 0.0328836143, -0.0275818836, -0.0218821820, -0.0119821019, 0.0387059450, -0.0236895904, -0.0010261312, 0.0311842412, -0.0031676963, -0.0361267142, -0.0372288004, -0.0405306853, 0.0440017357, -0.0434601679, -0.0260461289, -0.0132747367, 0.0283590257, 0.0376228988, -0.0039570332, 0.0004540496, -0.0354209542, 0.0391504243, 0.0033982620, 0.0164964870, -0.0013777018, -0.0004116893, 0.0315863863, -0.0471722707, 0.0379201099, 0.0081140809, 0.0006988756, 0.0269176736, 0.0460947379, 0.0219623074, 0.0347795710, 0.0054529719, -0.0144539550, 0.0172149837, -0.0482072867, -0.0028422289, 0.0204212591, 0.0351724997, -0.0093528219, -0.0194710158, 0.0333385020, -0.0221437570, -0.0342031457, -0.0231550168, -0.0342270061, -0.0203265473, 0.0441804975, -0.0212633703, 0.0408822671, 0.0476682186, -0.0199383944, 0.0161882564, 0.0332913026, -0.0193235781, 0.0255216733, 0.0200292096, 0.0274923071, -0.0472835824, 0.0424082130, -0.0195161588, -0.0108766966, 0.0170521885, -0.0419637151, -0.0028264746, -0.0204538126, -0.0138929747, -0.0236611385, -0.0090974383, -0.0096836947, -0.0036642142, -0.0465192609, 0.0065993965, 0.0385354236, -0.0217775274, 0.0326073766, 0.0312863961, -0.0127157271, 0.0178377703, -0.0473083071, -0.0422643349, -0.0277636833, -0.0204430092, -0.0469701812, -0.0070135482, 0.0066615567, -0.0154260062, -0.0248664990, -0.0098634623, 0.0010946915, -0.0176747032, -0.0238563009, 0.0263982341, -0.0315298885, -0.0046552233, 0.0395336375, -0.0220516715, 0.0447110906, -0.0071679130, 0.0307463557, -0.0007441044, 0.0222561434, -0.0017644390, 0.0292878896, -0.0410025045, 0.0402515456, -0.0331417881, 0.0166725367, 0.0035375580, 0.0262323990, -0.0455169566, 0.0457953066, -0.0175933726, -0.0037703998, 0.0267880708, -0.0392795280, -0.0248126425, 0.0396630540, 0.0449188948, 0.0216931477, 0.0196349099, -0.0366014950, 0.0017550364, 0.0200639665, 0.0077887885, 0.0173003301, 0.0084505230, -0.0237316154, 0.0400488228, 0.0060453862, 0.0094101578, -0.0387006290, -0.0132623315, 0.0481381789, 0.0373865291, 0.0102697425, 0.0431490242, 0.0378458351, -0.0383957177, -0.0192287471, -0.0414735489, 0.0049414895, -0.0340457335, 0.0254346281, -0.0163411871, -0.0457465537, -0.0054624453, -0.0343261473, 0.0191692412, -0.0092834905, 0.0246314406, -0.0081257708, 0.0175209194, 0.0098362938, -0.0130534917, -0.0000879057, -0.0220187567, 0.0047058575, 0.0369838402, 0.0031045750, 0.0085969232, -0.0326175615, 0.0400355011, 0.0443344116, 0.0083185732, -0.0366760269, -0.0308570247, -0.0155090764, -0.0459225476, 0.0016247444, 0.0443141237, 