//Numpy array shape [10, 20, 2]
//Min -0.157390698791
//Max 0.157877132297
//Number of zeros 0

#ifndef VALUE_WEIGHT3_H_
#define VALUE_WEIGHT3_H_

#ifndef __SYNTHESIS__
multi_head_attention_value_weight_t value_weight3[400];
#else
multi_head_attention_value_weight_t value_weight3[400] = {-0.0867823958, 0.0093217790, 0.0296179354, 0.0436603874, -0.1148016602, -0.1050089970, -0.0288336426, 0.0615100563, -0.0975588113, 0.0689922571, 0.1067613810, -0.1396268010, -0.1072651446, 0.1080392152, -0.0202932060, 0.0354102254, 0.0969524831, 0.0595635921, -0.0497203469, -0.0381328389, -0.0789999813, 0.1095917374, 0.0944362134, -0.0325943232, -0.0385634601, -0.0079865158, 0.1541869491, 0.1047445089, -0.1463638693, 0.0176467001, 0.0872663856, -0.0354020894, -0.0570746735, -0.0133767277, -0.0690771490, 0.1018570513, -0.1377051324, -0.0889789015, -0.0646487400, -0.0242968500, 0.0680234730, 0.0204982013, -0.1404190063, -0.1069153547, -0.0120711923, -0.1442752779, 0.1040522307, -0.0923322290, -0.0169511884, 0.0131655484, 0.1413618475, -0.0410984084, 0.1475608796, -0.0201093554, 0.0906051248, 0.0204061419, 0.0883579105, -0.1316881925, 0.0588839203, 0.0522138029, 0.1210469455, -0.0605188087, 0.1009496897, -0.1140856743, 0.1196934432, 0.0900528580, 0.0287744105, 0.0756448507, 0.0185343176, 0.0533552766, -0.0431373417, -0.0783686638, 0.1514983326, 0.0925361663, 0.0151729733, 0.0161782056, 0.0617708862, 0.0531868786, 0.0070132762, -0.1249272674, -0.0846534446, -0.0671189278, -0.0173275173, 0.1025984734, -0.0496441945, 0.0005755574, 0.0589956939, -0.1201159954, 0.0093839467, -0.1148974895, -0.0211152285, -0.0850187689, -0.0960109532, -0.0239449739, 0.0376195610, 0.1572232097, -0.0274153501, 0.0971254855, -0.0471496582, -0.1084426194, -0.1200618595, -0.0640181378, -0.0499277934, -0.0826864392, -0.0646876767, -0.1336493641, 0.1312155873, -0.0131530315, 0.0724676102, 0.1220187992, -0.0784966499, 0.0045642704, 0.1434750706, 0.1380149275, -0.0802068189, 0.0537685454, 0.0398845971, 0.0268369615, 0.1578771323, 0.0701225698, 0.0051942021, 0.1007196158, 0.1364454776, 0.0958269984, 0.0828746259, 0.0212316066, 0.0319387615, 0.0172061324, 0.0759711862, 0.0407891423, -0.0385380909, -0.0337140039, 0.1031258255, 0.0082628727, 0.0464789867, -0.1537442356, -0.0783395246, 0.0014450103, 0.1385055333, -0.0310193598, 0.0513782352, 0.0705198646, -0.0825210586, 0.0148207247, -0.0282849222, -0.1215641797, -0.1544246674, -0.0221955925, 0.1113950163, -0.0866858885, -0.0963345170, -0.1381222159, -0.0033656508, 0.0869179964, -0.0741343945, -0.0000501722, -0.1060863137, -0.0381436571, 0.1311678141, -0.0763076767, -0.1113969907, 0.0369983763, 0.0296913981, 0.1294143647, 0.0600757897, -0.0494339615, 0.0332353264, -0.0462043583, 0.1142081767, -0.1398054063, 0.0861892700, -0.1387702376, -0.0553987995, 0.0511952192, -0.1264151782, 0.1127229184, 0.0272678435, -0.0016447306, 0.0401883274, -0.0686656460, 0.0783952475, -0.0049825311, 0.0659908354, -0.1382731944, 0.0168219954, 0.1133846194, 0.0465290099, 0.1543007344, -0.1040648296, 0.0044957846, -0.1532603204, 0.1405003220, -0.0207284987, 0.1204866618, -0.0033812970, 0.0760211796, -0.0039154291, 0.0749963075, -0.0198162943, 0.1122616082, -0.0345755368, -0.0960819423, -0.0568693355, -0.1513113678, 0.1316356808, 0.1246463805, 0.1094866544, 0.0089492649, 0.0684264600, -0.0401589572, 0.0642920882, -0.0050354898, -0.1019364446, -0.0824513584, 0.0238671005, 0.0948121697, 0.0790837854, 0.0467447490, 0.0545039475, -0.0011454374, -0.0739903152, -0.0545826554, 0.0195109099, -0.0579842329, 0.0027359873, 0.1228395551, 0.0811871737, -0.0891104341, -0.1308447570, -0.0351057872, 0.0994091481, 0.0084019303, 0.1001574248, 0.0459042192, -0.0664698556, 0.0421386659, 0.1042636782, -0.1444371194, 0.0757857263, 0.0260462612, 0.0215947032, -0.1573565453, 0.0825825483, 0.1459569186, -0.1348452717, -0.1366032362, -0.0389293134, 0.0637040734, 0.0817844123, 0.1093785912, -0.0827809051, -0.0127046257, -0.1301344633, -0.0341811851, -0.1337273121, 0.0040653944, -0.0828557685, 0.0676951706, -0.0382342488, 0.1353398710, -0.0698157921, -0.0208079964, 0.0699647367, 0.1406762153, -0.1236109138, 0.0331879407, 0.1327152699, -0.0265166909, 0.1076149493, -0.1552664936, -0.1417547613, -0.0765532032, -0.1438053548, 0.0300228745, -0.1005534083, -0.1522162110, 0.0233201832, 0.0134314299, 0.0794951767, 0.0233539194, -0.1190866679, -0.1219179630, -0.0951132327, -0.0420645550, 0.0956894010, 0.0773365945, 0.1232777387, -0.0703423470, -0.0944477618, -0.1357777864, -0.1160106063, 0.0047124624, -0.0604711249, 0.0751639754, -0.1439769864, 0.0686106831, 0.0599362403, 0.1363139600, 0.1519723386, -0.1446571201, 0.0158417225, 0.0928026587, -0.0306954235, 0.0309426188, -0.0266840309, 0.1421808451, -0.1050504595, 0.0997363180, -0.1302656084, 0.0883442014, -0.0265326351, -0.0984164178, 0.1168462485, 0.0131188780, 0.0737932622, -0.0513993055, -0.0678216442, -0.0087404996, 0.0413091779, -0.0030730516, 0.0868931115, 0.0565797091, 0.0778730959, -0.0413449109, 0.0026969761, 0.0686188638, 0.1201357394, 0.0254471004, -0.0872196481, 0.0303762108, -0.0341190621, -0.0454855859, -0.1416730732, 0.0401763767, -0.0037433356, 0.1509329528, 0.1422215849, 0.0538556576, 0.0043075234, 0.0251606703, -0.1403409243, 0.0066518337, 0.0926892310, 0.1129187196, 0.0520828664, -0.0898868814, -0.0884241909, 0.0939324349, -0.0067189336, 0.1005925685, -0.1415323168, -0.1419533491, 0.0292135477, -0.1336025745, -0.0091084987, 0.0296666324, 0.1369437128, 0.1349556893, -0.0921590850, 0.0279460549, -0.0067792088, 0.1431930214, -0.0187567323, 0.1467387527, 0.0031817704, -0.0896590799, 0.1575694829, -0.1573906988, 0.0953625888, 0.1144212633, 0.0702767968, -0.0970397890, 0.1150807291, -0.0141969472, 0.1319039613, 0.1224325746, 0.0549697727, -0.0257710367, -0.1058589220, 0.0860833377, -0.0120893717, -0.1120684892, -0.0272201896, 0.0587632060, 0.1049129218, -0.0618486926, 0.0752514303, 0.0497316867, 0.0771581978, -0.0450289175, 0.0761283189, -0.1209551394, -0.1020077318, -0.0969260633, 0.1435345262, 0.1165356487, -0.0953375325, -0.0630189329, -0.1431898326, 0.0376293510};

#endif

#endif
