//Numpy array shape [10, 20, 2]
//Min -0.157591998577
//Max 0.156144276261
//Number of zeros 0

#ifndef VALUE_WEIGHT3_H_
#define VALUE_WEIGHT3_H_

#ifndef __SYNTHESIS__
multi_head_attention_value_weight_t value_weight3[400];
#else
multi_head_attention_value_weight_t value_weight3[400] = {0.0117391646, 0.0531204492, -0.0690296888, -0.0026895553, 0.0892358869, -0.0057233572, 0.0406153649, -0.1499105692, -0.0522290990, 0.0935813636, 0.1125487834, -0.1575919986, -0.1449876428, -0.0896268114, -0.0949649736, 0.1454413980, 0.0910354108, -0.1429095119, 0.1473997086, -0.0843232498, -0.0634531304, -0.1120728254, 0.1018268615, -0.1143701002, -0.1151266098, -0.1103435010, 0.0501916409, 0.0336346477, -0.0404944643, -0.0387520567, 0.0043020844, -0.1264885366, 0.1433099955, -0.0877847299, 0.1301517636, 0.1415856928, 0.1464585215, -0.0634685457, 0.0400031954, 0.0263769031, 0.1299466938, 0.1548087448, 0.0631264448, 0.0733447075, -0.1280010939, -0.1408191919, -0.0212902576, 0.1273253113, -0.1233561933, -0.1455164999, -0.1023756564, -0.1044174135, -0.0069897175, 0.0548433363, -0.1346951574, 0.0210090429, -0.1460036635, -0.0743462145, -0.0450952649, -0.0848476961, -0.0807461217, 0.0711982697, 0.0512143224, -0.0173440725, -0.1073566377, 0.1101841182, 0.1039367467, -0.1431213617, -0.1525282711, 0.1229441315, 0.0265687406, -0.0424018726, -0.1202689707, -0.0487620085, -0.0380471945, 0.0940388590, 0.0236115754, -0.1557800770, -0.0170067847, 0.0722617358, -0.0470567346, -0.0395208150, -0.0899211094, -0.1415688396, -0.0501317754, -0.0766024366, -0.0988606811, -0.0086960793, -0.0669539645, 0.1554786414, -0.0327371955, 0.1179540604, 0.1104204506, 0.1095021516, 0.0424722135, -0.0410874784, -0.0697422773, 0.1467305571, 0.0616807938, -0.1066516191, -0.1181874052, 0.0856810361, 0.1443656534, 0.0224400610, -0.0461592376, 0.0095100403, 0.0442014635, -0.1017605513, -0.0588637888, -0.1511845887, -0.0724030286, -0.1343647391, 0.0167970061, -0.1123054177, -0.0978168100, 0.1307270378, -0.0389110669, 0.0191933513, 0.0500315428, -0.1181606799, -0.0292513967, -0.0335392728, -0.0963927507, -0.0523688793, -0.1294612736, 0.1352765709, 0.0475025028, 0.0204625726, 0.1058552116, 0.1070369631, 0.0576533973, -0.1233982295, -0.1087095886, -0.1564610451, -0.0911829174, -0.1417160183, -0.0770156309, -0.0292593539, 0.1397194117, 0.0243815929, -0.0577076450, 0.0191808641, 0.1392730325, 0.0151839703, 0.1492517442, -0.1262945086, -0.0195854306, 0.0998531133, -0.1107335240, 0.0829491168, -0.1341970563, 0.1500409395, 0.0372655392, -0.1219023615, -0.0750246495, 0.0659358352, 0.0393709689, -0.0795055777, -0.0566829219, -0.0328177065, -0.0018626302, -0.0318219364, -0.0080132335, 0.0337159187, -0.0905058309, 0.1561442763, -0.0745266676, 0.1487509459, -0.1039122343, 0.0270897299, 0.0859383494, -0.0491719991, -0.1571203321, -0.0485217273, 0.1077102274, 0.1498671025, -0.0571029484, 0.0345539302, -0.0965369493, 0.0782840401, -0.0690319538, -0.0040729642, 0.1023419648, -0.0325270295, -0.0782010257, -0.0361032933, 0.1076841205, 0.0219922215, -0.0424175188, 0.0344051123, 0.1328836530, 0.0125674158, 0.0435341150, 0.1423818618, 0.0970373899, 0.0972050875, -0.0437040105, -0.0647893474, -0.0292233527, 0.1009526700, 0.0138015747, 0.1501004547, 0.0897269249, -0.0364754051, -0.0004654527, -0.0025189370, 0.0405745655, -0.0376328230, 0.0397707075, -0.0202242583, 0.0650708377, 0.1008503586, 0.0310247540, -0.1573663503, 0.0229199529, 0.0848511308, -0.0966710374, -0.0854355097, 0.0830013901, 0.0601579696, 0.0470468104, -0.0705656633, -0.0566832274, 0.0665694177, -0.1364732683, -0.1253030300, 0.1238135248, 0.0783822685, 0.0453995615, 0.0249790847, -0.0740815029, 0.0980136245, 0.1172105223, -0.0662526041, -0.1361365914, 0.1509180814, -0.0736372396, 0.0139224380, 0.1556005627, -0.0295131654, 0.0072704107, -0.0560275912, 0.0417904556, 0.1546068341, -0.0303668678, 0.0913289487, 0.0780970603, -0.0556421727, -0.1489157826, 0.1133107394, -0.1444076449, 0.1007906348, -0.0600151345, -0.0275944918, 0.1184057742, 0.1254616231, -0.0677597448, -0.0576091036, -0.0316642821, -0.1122282892, -0.0140256137, 0.0289710462, 0.0658538491, -0.0701328963, 0.0143958777, 0.0440862626, -0.0155578256, 0.0862075537, -0.0115078092, 0.1004392654, -0.0653604642, 0.0047607124, -0.1064276993, -0.0338659957, -0.1019344777, 0.0923334807, -0.1216132939, 0.0167195797, -0.0488643944, -0.1457265168, 0.1028106660, -0.1503112912, -0.0777121633, -0.0793450624, 0.0405771732, 0.0975057930, -0.1547507197, 0.0053772926, 0.0843903869, -0.0064774454, 0.1343565732, -0.0255576670, -0.1052607745, 0.0638278425, 0.1212321669, -0.0579327792, 0.1009799391, -0.1166400760, 0.0284780711, -0.1029329002, -0.0380877554, 0.0688080639, -0.0010787398, -0.0067441911, 0.0960330516, -0.0724556148, 0.0537418574, -0.0159888566, -0.0757337734, -0.1570540965, 0.0056491643, -0.0494885817, 0.0249408633, -0.1475057453, 0.0254895091, 0.0320060849, -0.0594283044, 0.1325954944, 0.0042716265, -0.1317228377, -0.1108129472, 0.0926658958, -0.0090093166, 0.0579845011, 0.0199126452, 0.0674256682, -0.1163085327, -0.1161148399, -0.1425808221, -0.0427061245, -0.0626340434, 0.0897756368, -0.0521744415, 0.0803184360, -0.1270991862, -0.0116071850, 0.0420981795, -0.1120683849, 0.1059057266, -0.0742914751, -0.0225713998, 0.0382861197, -0.0627442300, -0.1236927956, -0.0985503942, 0.0086465478, -0.0295971632, -0.0488092378, 0.1002327055, -0.1203172952, 0.0474918336, -0.0567081794, 0.1150892526, 0.1374412924, -0.1389220059, 0.1337507516, 0.0595505238, -0.1471434832, 0.1088652462, 0.0256919861, -0.0257478952, -0.1210081428, -0.1160392985, 0.0840528160, 0.1024407893, 0.1536446661, -0.0213248581, 0.1453300267, 0.0296050757, 0.1339945048, -0.0092857033, 0.0447055846, -0.0332497582, 0.0730245858, 0.1008835286, 0.0668476522, 0.0509696007, -0.1517681777, -0.0319711417, -0.1448678076, -0.0977123529, 0.0785720795, -0.1280552745, 0.1028208584, 0.0702263862, -0.0569402054, 0.1012073308, 0.1298577935, -0.0531010777, -0.0681987628, -0.1147158593, 0.0432148874, -0.1257872880, 0.0620256811, 0.0390955955, -0.1502660662, 0.0014902055, -0.1119964123, -0.0300495625, -0.0084889084};

#endif

#endif
