0.1638188660, -0.0944736898, -0.1419858187, -0.0471250266, -0.2137439847, 0.2193360925, 0.2690933347, 0.0394959748, 0.0873068571, -0.2464329302, -0.0640165657, -0.0661218613, -0.2926200330, -0.2037274241, 0.2861469984, -0.0896297246, -0.0646602064, -0.0938389003, -0.2150591910, 0.0701182187, 0.0463236868, -0.0069320798, -0.0217412412, 0.2083424330, -0.2899223268, 0.2524390221, 0.1158738136, -0.2562717199, 0.1315586865, 0.1145134270, 0.2132262588, 0.1146118641, 0.2123421431, -0.1074370742, 0.0093545020, -0.2806828618, -0.2229487300, 0.1720102429, 0.1204116940, 0.0865437686, -0.1699841619, 0.0292293727, 0.1712826192, -0.1925862730, 0.0607324541, 0.0324845016, 0.0467587113, -0.2144773155, -0.0948991925, -0.2392778993, -0.2714239359, -0.0999350548, 0.0562749207, 0.1901188493, -0.2007976919, 0.1558705270, 0.1823072731, -0.2005878091, 0.1909358203, 0.2313364744, -0.1058153659, -0.1823930442, -0.0267364681, 0.1052325070, 0.2696323991, 0.0326274633, -0.2120214105, -0.2401000261, -0.1977442205, -0.0730466843, -0.2457398772, 0.0323337913, 0.0473030210, 0.0499912798, -0.0130901337, 0.1433835924, -0.1415346265, -0.0821103156, -0.0021309853, -0.1879147291, -0.2697826922, 0.2359001040, -0.1279548258, 0.1995266676, 0.2595620155, 0.2916680574, -0.2768677771, -0.0197159350, -0.0253111124, 0.2369401455, 0.2156094909, 0.1410261989, 0.0803972483, -0.1748787463, 0.0984074473, 0.2797603011, -0.2349135429, -0.0681503713, 0.0168368220, -0.1027187407