//Numpy array shape [10, 20, 2]
//Min -0.157927095890
//Max 0.156791880727
//Number of zeros 0

#ifndef VALUE_WEIGHT3_H_
#define VALUE_WEIGHT3_H_

#ifndef __SYNTHESIS__
multi_head_attention_value_weight_t value_weight3[400];
#else
multi_head_attention_value_weight_t value_weight3[400] = {0.0228998214, -0.0142151266, 0.0117357373, 0.1140865535, -0.1008214653, -0.0630832091, 0.0899239779, -0.1188902706, 0.0414489955, -0.0431411117, 0.0565923005, -0.0236017406, -0.0000793189, -0.1202358007, -0.0820593759, 0.1447873265, 0.0917101055, 0.0353010148, 0.0101587772, 0.0629559010, -0.1148221642, 0.0070773959, -0.1232560724, 0.1533027738, -0.0259051919, 0.1288939863, -0.0385933518, 0.0304966867, -0.0176275969, 0.0329801440, 0.1254724115, -0.0840597078, 0.0598226935, 0.0178184956, -0.1500322968, -0.1047144681, -0.0904868692, 0.0170706958, -0.0887841582, -0.0627592355, 0.0780292749, 0.0042161047, -0.0134322941, 0.1058680564, 0.1072666496, -0.0243877769, -0.1439035535, -0.1195279211, 0.0424215496, 0.0164700598, 0.0436461866, -0.0443503708, 0.0679592043, 0.1338134557, 0.1285112947, 0.0397613645, 0.0438101292, 0.0733317435, 0.0983859152, -0.0776938424, -0.0205588937, 0.0912560821, 0.0263995975, 0.1425955743, -0.1447292715, -0.0181042403, -0.1153558046, -0.0745588243, -0.0695474967, 0.0631105304, -0.0881171823, -0.0093627572, -0.0802924335, 0.0083641559, 0.0622390509, -0.1171612889, -0.0792525485, 0.0170438141, -0.0528209135, -0.0772755966, 0.0023140907, -0.0055574775, -0.1152613014, -0.1258020699, -0.0588551536, -0.1285456717, -0.0406940356, 0.0936725587, 0.1445586830, 0.1509435624, -0.0704287142, -0.1348446310, 0.0239196122, 0.0381556898, -0.1525214911, 0.1202518493, -0.0741031393, -0.0488629565, 0.1253705472, -0.0555060506, 0.0416074693, 0.1482597440, -0.0545713082, -0.0258666277, 0.0209871680, 0.1297341138, -0.0526385680, 0.0773739815, -0.0082584620, -0.0643814281, -0.1123097986, 0.1429711431, 0.0650467426, -0.1281834096, 0.0153856575, -0.0568227023, 0.1243329197, -0.0614592806, -0.0497913286, 0.0328494608, -0.0863500461, 0.0657800287, -0.0939747393, 0.1145737022, 0.0033281744, 0.0602814704, 0.1353052408, 0.1170499772, -0.0178185999, -0.1200819612, -0.1074274629, -0.0322425216, 0.1024007648, -0.1414550394, 0.0163817704, 0.0891767740, -0.1432922184, 0.0398944318, -0.1143927574, 0.0061241537, -0.0059365332, -0.1413162053, 0.0725825429, 0.1037855595, 0.0208351463, -0.0418666825, -0.1450476199, -0.0237623751, 0.1101267487, 0.0181204826, 0.0393854529, -0.0781684145, -0.1480677128, 0.1519245058, -0.1237157434, 0.0537168235, 0.1538180560, 0.0758723915, 0.1064958423, -0.0814556926, 0.0199827701, -0.0342917144, -0.1525814235, -0.1492098272, -0.0572700948, 0.0692985058, -0.1335442960, -0.0651944801, 0.1033320576, 0.0879404545, -0.1409529895, 0.0315683931, -0.1200253367, 0.0467111915, -0.0804783553, 0.1067265123, -0.1108132154, -0.1368848085, 0.0187428594, -0.1387821138, -0.1220734715, 0.0933802575, -0.1062770188, 0.0532451123, -0.0474972650, 0.0465849191, -0.0343469381, -0.1067962646, 0.0627589375, 0.1369916052, -0.0616137311, 0.1389795393, 0.0784132630, -0.0810288116, -0.0184106380, -0.1546922922, -0.1394428313, 0.0118878782, 0.1144849509, -0.0288352966, 0.0744279474, -0.0770763606, 0.1185294241, -0.1374911368, -0.0242557228, -0.1348495334, 0.1248185784, -0.1489694566, 0.0859784633, 0.0376523137, 0.1136830300, 0.0320029259, 0.1161551923, 0.0531120449, 0.1337900609, 0.0043099672, -0.0768519863, -0.1101423129, -0.1300872713, 0.1460273713, 0.1567918807, -0.0366148502, 0.0411277413, 0.1391533762, 0.0977082103, -0.1007412076, 0.0744728446, 0.0365874469, 0.0954388231, -0.0788201615, -0.1215569749, 0.1214748472, 0.0506557673, -0.0391635969, -0.1181446537, -0.0495400801, -0.0172984153, -0.0397980064, 0.1433876008, 0.0170576125, 0.0203879327, -0.0002702922, 0.1215304285, 0.0799147487, -0.1184788793, -0.0871597826, 0.0423735231, 0.0995791107, -0.1404905915, 0.1545005292, 0.1115002781, -0.0922916308, -0.1540691555, 0.0747565478, -0.1553571224, 0.0411203504, 0.0844513923, 0.0852305144, 0.0521318763, 0.1057044417, 0.0569714606, -0.0611803234, -0.1135287732, -0.0232614577, 0.1076623946, 0.1193458289, -0.1472645253, -0.1351443529, -0.0479572043, 0.1269146353, -0.0973391831, 0.0478914976, 0.1307024211, -0.1499364674, 0.1329852492, 0.1144178659, 0.0939768404, 0.1294661015, -0.0079149604, 0.0039359331, 0.0333653092, -0.1371598393, 0.1358802468, -0.1498812139, 0.0388715565, -0.1482490599, 0.1324941665, 0.1381495446, -0.1563154608, 0.0252421349, -0.1579270959, 0.0468144864, -0.0343976095, 0.0592286885, 0.0818287134, 0.1106598526, 0.1134974808, -0.1192310154, 0.0899737030, -0.1402508765, 0.0163427889, -0.0066447109, 0.1142583638, -0.1422380060, 0.0402515829, 0.0084499270, -0.0003089309, -0.1187175065, -0.1191160008, -0.1062237546, -0.0344032571, -0.1210793108, -0.1305298358, -0.0150070637, -0.0893075094, -0.1065735817, 0.0117289424, 0.0730146319, -0.0684113055, 0.0097522140, -0.1572913975, 0.0800329298, -0.0868106708, 0.1316031665, -0.1270665824, -0.0097641647, 0.0144371539, 0.0306291580, 0.0595628768, 0.0972267240, 0.0757806003, 0.0294606537, -0.1140505075, 0.1273400337, -0.0624959543, -0.1187401265, -0.1343051493, -0.0170160234, -0.0987841934, -0.0900363922, 0.1374029964, -0.1458116770, 0.1473649889, -0.0027373135, 0.0982949585, -0.0960848778, 0.1222531945, 0.1010277420, -0.0672878101, -0.1115768105, 0.1118732244, -0.1330650896, -0.0906086713, 0.0237301737, -0.1157320663, 0.1081545204, 0.0667193383, -0.0616988838, -0.0163126737, -0.1254620403, -0.0184501857, -0.0847645327, 0.0398685336, -0.0425574854, 0.0271043926, -0.0833793133, 0.0130913705, -0.1523685902, 0.0221972913, 0.0427750796, 0.0896707624, 0.1420307010, 0.0943037122, -0.0416643992, 0.1403534859, 0.1347894520, 0.1311098784, 0.0405167788, 0.0755525678, 0.1041577905, 0.1276807934, -0.0618421733, -0.0330555439, -0.0044530332, 0.0268498510, 0.1301565617, 0.0185086578, -0.0171876699, 0.1154714972, -0.1311390251, 0.1509385556, -0.1031374782, 0.0062736571, -0.0193405598, -0.1547483802, -0.0379495546, 0.0818039030, -0.1303083301, -0.1461538076, -0.0726586580};

#endif

#endif
