-0.1152206659, 0.0876828283, -0.0844496116, 0.1474051028, 0.0242580473, -0.0396011472, -0.1059481502, 0.0719866306, -0.0458100811, -0.0307533741, -0.0977507234, 0.1431586593, -0.1226205677, -0.1459591389, 0.0933089703, 0.1580450982, 0.0565882325, -0.1556723863, -0.0091701597, -0.1251378059, -0.0248294622, -0.0753540471, 0.0280565023, -0.1077245921, -0.0326570868, -0.1406667829, -0.0720261708, 0.1103247553, -0.0025924742, -0.0890129060, 0.0228099078, 0.0988776833, 0.0896395892, 0.0925980359, -0.0040053725, -0.0741074383, 0.0753949136, -0.1115496606, -0.1379317343, 0.1110221297, -0.0596044660, 0.1213354617, -0.0409977958, 0.1019586772, 0.1249106079, -0.1003053188, 0.0061361045, 0.0984735042, -0.1324488521, 0.0500817150, -0.0587695837, 0.0390016139, -0.1047602743, -0.0410570949, 0.1316346675, -0.0373810455, 0.0490923524, 0.0239659399, -0.0851720795, 0.0452051908, 0.1125788838, 0.0089934468, -0.0936944187, 0.0727598667, 0.1259897202, 0.1449582130, 0.0467350930, -0.0364843011, 0.1364062876, -0.1426818222, 0.0224726796, 0.0887235105, -0.1408889294, 0.1022333056, 0.0810881406, 0.0689078122, -0.0279085487, -0.1026189476, -0.0486704037, 0.1036126763, 0.0849099308, 0.1288014203, -0.0016801655, 0.1058076173, -0.1131866276, 0.0605071634, -0.0719121769, -0.0837860629, 0.0173472762, 0.0332024843, -0.0639253259, -0.0514767393, -0.0344094038, -0.0618376881, 0.0444473326, 0.1135574728, 0.0609903336, -0.0865528584, 0.0425641239, -0.0391110852, -0.0368723199, -0.0139924437, 0.0624443442, -0.0963933915, -0.0264611244, 0.1003047079, 0.1457706839, 0.0581637919, 0.0531902760, -0.1003827453, 0.0503331572, 0.0550688356, 0.1038945466, -0.0370687991, -0.1133136302, 0.1170623153, -0.0809758827, 0.1384033710, 0.0109423548, 0.1279828995, -0.0803123713, -0.0653224215, -0.0114344507, 0.0387921333, -0.0740454644, 0.1453091055, 0.0633461028, -0.0210243762, -0.0953005478, 0.1245480031, -0.1084703654, -0.0504169911, 0.0123260319, 0.0896843672, 0.1048170477, -0.0276074558, -0.0003349036, -0.1038486362, 0.1261460930, -0.0163887143, -0.0368861929, -0.1006605774, 0.1473070532, 0.0887988210, 0.1354150623, 0.1211987287, 0.0625118613, -0.1398119926, -0.1252666861, -0.0606670752, -0.1108829528, -0.0735687837, -0.1067081690, 0.0234894454, 0.0462979674, -0.1015924513, -0.1014267802, -0.1197040379, 0.1084726304, 0.1014575213, -0.1319647878, 0.0265172869, 0.0834504068, 0.0349698514, 0.0762329996, -0.0576811060, 0.1162194163, 0.0022226274, -0.0216014087, -0.0056121051, -0.0640133843, 0.0961222500, -0.1446572244, 0.0177567005, 0.0084329247, 0.1250173301, -0.1151464432, -0.1316165775, -0.1062208861, 0.0647995323, 0.0908667445, -0.0728413016, -0.1132961810, -0.0456743687, 0.1181406528, 0.0785059929, -0.0015065670, 0.0323996097, 0.0174948573, -0.0345003679, 0.0602397770, 0.1314285845, -0.1180535406, 0.1058704704, -0.0415364951, 0.0451205224, -0.1302987933, -0.0641700178, -0.0714221448, 0.1509536356, -0.0708843172, 0.0790613443, 0.0514169186, 0.0268315375, 0.0428152531, -0.0641991571, 0.1318213493, -0.0461807251, 0.1119946092, 0.1535596699, 0.0545223057, -0.1441255808, 0.0742497891, -0.0551657230, -0.0466026291, -0.0791641548, 0.1271592528, 0.1288130730, -0.0474986956, -0.1155616343, -0.1422139555, -0.0436622426, 0.0033113658, -0.1428416222, -0.0856034532, -0.1034152359, -0.0188416690, 0.0934623331, -0.0304949582, 0.1276296228, 0.0330940783, 0.1348273009, -0.0438617393, -0.0170277953, 0.1120197922, -0.1435512304, 0.0841167867, -0.1445543915, -0.1409805417, -0.1171160787, -0.0130056739, -0.0970227867, 0.1464528590, -0.0213460177, -0.0973680168, 0.0287111253, -0.0540397018, -0.1195240319, 0.1416744739, -0.1477360427, 0.1285459250, 0.0285620242, 0.0226534307, 0.1368013471, -0.0721298382, -0.0200292468, -0.0013545454, -0.1122642532, 0.0539448559, 0.1484370977, 0.0032719672, 0.0175094455, 0.0904782414, -0.1350689977, -0.0618716553, 0.1114995033, -0.1130188778, -0.0084265172, 0.0924283713, 0.0864397734, 0.1203768104, 0.1120819896, -0.1476067752, -0.1117426008, -0.0675362721, 0.1145058721, -0.0198158771, 0.1291676313, 0.0810846090, -0.0441346243, -0.0800705850, 0.1145245582, -0.0898434892, 0.0699779689, -0.0497272089, -0.0998750404, 0.0268166065, 0.0168112963, -0.0371518433, 0.0652915835, 0.1135191470, 0.0611278117, -0.0401254445, -0.0292818546, -0.1298155487, -0.0392642468, -0.0930220932, -0.1090081185, -0.1389231682, -0.1530524194, 0.0855694860, -0.0456316993, 0.1108780950, 0.0676990896, -0.0997359753, 0.0777887702, 0.0548331589, -0.0047518909, -0.1117092371, -0.1106200069, -0.1394841075, -0.0185893625, 0.1098279506, -0.0255677700, 0.0732310116, 0.0982967168, -0.1252487451, 0.0195800066, 0.1145369858, 0.0488366485, 0.0203690529, 0.0059433579, 0.0332406014, -0.0734771788, -0.1528027505, 0.0479476005, 0.1096615344, 0.1425742656, 0.1212776154, 0.1546059996, 0.1243270785, -0.0289640278, -0.1456671357, -0.0528784767, -0.1332362741, -0.1093484461, 0.0052778125, 0.0644333363, -0.1413321048, -0.0315215737, 0.0641941428, 0.0258246362, -0.0616617128, 0.1123173982, 0.0571046770, 0.1089150459, 0.1264248937, -0.0698836073, -0.1251211762, -0.0201610327, 0.1200410873, 0.1491100639, -0.0734967440, 0.0801695436, -0.0810397789, 0.1433445662, -0.0797511339, -0.0484119877, -0.0856356099, -0.0150803030, 0.1462603360, -0.0363504365, -0.0910536870, -0.0610432178, -0.1429809034, -0.0933779553, -0.0962743834, 0.0379082412, -0.1497331709, -0.0088158548, 0.1137351543, 0.0848978013, 0.0753296167, 0.0218950361, -0.0192326307, 0.1138443500, -0.0043779314, 0.1184568256, 0.0925598592, 0.0096312761, -0.0948809832, -0.0500340611, 0.0504897088, 0.0897573978, -0.0321789682, -0.1212109923, 0.1331177205, -0.1499059051, -0.1158441454, -0.1239256114, -0.1445009410, 0.1057505161, 0.0218835771, -0.0914296806, 0.0163370967, 0.0291913897, -0.0334619209, -0.1567036659, -0.0448819399, 0.1016293913