-0.0291571468, -0.1784903258, 0.1808609366, 0.1696921885, 0.1120160818, 0.1366574168, 0.0250801891, -0.0077646524, 0.0003998727, -0.0423029959, 0.1563266814, -0.1085125059, 0.1034003794, 0.1758140028, 0.1718809605, 0.0125360489, -0.1700633168, 0.1548629701, -0.0909760594, 0.0953172445, -0.1586569846, -0.0371740609, -0.0490536839, 0.1008847952, -0.0561183095, 0.0984168351, -0.1298367083, 0.1393375993, -0.0747677237, 0.0825611055, 0.1230948865, 0.1843636036, -0.0471840948, -0.0862490758, 0.0653367937, -0.0613094419, -0.1286236346, -0.1380612105, -0.0239475965, 0.1708708704, 0.0619118214, 0.0044489056, -0.1027468964, -0.1619767547, 0.1020019352, 0.1834511161, 0.0053506345, -0.0710050911, -0.0172266513, -0.1522861421, -0.1346849203, 0.0371584147, 0.1226349771, 0.1848533154, -0.1290283650, -0.0963229984, -0.0230498314, -0.1194428727, -0.0434861332, -0.1411925256, 0.0297863334, 0.1864885092, 0.1327510476, -0.1270977855, -0.1610604376, -0.1206592098, 0.1917081475, 0.0173155218, 0.0122493356, -0.0506239086, 0.0104985833, -0.1413674504, 0.0999770761, 0.0873786211, -0.0126134753, -0.0681131631, 0.0471598059, 0.0916610360, 0.1179850996, 0.1537590027, 0.1392185986, 0.1547990143, 0.1012640595, -0.1198878512, -0.0167926103, -0.0145297945, -0.1927088350, -0.1699510217, -0.1208248138, -0.0624539405, 0.0619053841, -0.1763223410, 0.1179109216, 0.0995058715, 0.1866514385, -0.0363065004, -0.0110851228, -0.0135402381, 0.1214824021, -0.0266223848, -0.0165374726, 0.0898059905, -0.0937267020, -0.1218661219, -0.1413013935, 0.1792242825, -0.1796417832, 0.0933725238, -0.0463131517, 0.0070734471, -0.0284599811, -0.1637482941, 0.0926030874, -0.0031954944, 0.0687393546, -0.1898679286, 0.1271345019, -0.1151337251, -0.0814314261, -0.1094399542, 0.0033998340, 0.1657093763, 0.1829923987, 0.0793022215, 0.0492553562, 0.1928187311, -0.1157696620, 0.0900234878, 0.0583323240, 0.1712352037, -0.1712781787, -0.0773130506, -0.0241343528, 0.1218607724, -0.1764796823, 0.1301123202, 0.0751959085, 0.1814548671, 0.0699706674, 0.0554956198, 0.0485933274, -0.0419334173, -0.0860262662, -0.1525260806, -0.1723086387, -0.0537172258, -0.0762603879, 0.0209721029, 0.1499315500, 0.1838533282, -0.1073214635, -0.1854905039, 0.1473981738, -0.0176407397, 0.0111095905, 0.1327863336, 0.0480060875, 0.0428254008, -0.0865469202, 0.1419366300, -0.0492378026, 0.0014075190, 0.0751121640, 0.1589303017, 0.0297638029, -0.1425504982, -0.0786699802, 0.0903584361, -0.0562520176, -0.1879607141, -0.0814310983, 0.1565191150, -0.1247687563, -0.1662835926, 0.0177845657, -0.1903870106, -0.1107694060, 0.0351453274, 0.1608148515, -0.1519936621, -0.0692188814, -0.0910172388, 0.0207604170, -0.0777703598, -0.0047480315, -0.1475326568, 0.1285990179, 0.0532293022, -0.0128813535, 0.0254867524, 0.0748976469, 0.0397420228, 0.0636495054, 0.1117128432, -0.1872948557, -0.1817664653, -0.0899306387, -0.0698739365, -0.1327273846, -0.1329685152, 0.0136131346, -0.1477907896, -0.0022143424, 0.0107557923, 0.1158960462, -0.0641361624, 0.1714219451, 0.1150445342, 0.0551146865, -0.0586379319, 0.1629260182, 0.1466331780, -0.0493192524, 0.0274651647, -0.0536588132, 0.0619948804, 0.1420930922, -0.0858620405, 0.0863644481, 0.1310895085, -0.0480413735, 0.1760071814, -0.0806975141, -0.1729442924, -0.1808859706, 0.0696574450, -0.1286831051, 0.1736918688, -0.0329512209, -0.1114714667, 0.1589323878, 0.1915375292, 0.1492142081, 0.1707633436, 0.0608486235, 0.1563500762, -0.0749962181, 0.0352785289, 0.0378589481, -0.0971707180, 0.1574147344, 0.0442994237, -0.0446784645, -0.1271410435, -0.1737987101, -0.1131008342, -0.0380449593, -0.1904929727, 0.0359017253, 0.0407845676, -0.1587365270, 0.0889990330, -0.0906157494, 0.1775076389, 0.1714105904, -0.1104451641