-0.1158586890, -0.0631718338, -0.0158388615, -0.1311152726, -0.0027721524, -0.0587152243, 0.0680679977, -0.0581752807, 0.0695010871, 0.0963204950, -0.0236858428, -0.1381028444, 0.1509751827, -0.0554001182, -0.1183897257, 0.0599962920, -0.0224447399, -0.1204403043, -0.0745123476, 0.0428792685, 0.0325885117, -0.1170907170, 0.1390627176, -0.1301419735, -0.1091100425, 0.0289075226, 0.0172962695, -0.0289454162, -0.1152314842, 0.0169595629, -0.0914535448, -0.0572128296, 0.0289621502, 0.0593177378, 0.1531940550, 0.1394953281, -0.0982571542, 0.0714977235, 0.0253773183, 0.0860655457, -0.0988328606, 0.0137326270, -0.0030673891, -0.0087411404, -0.0773215070, -0.1399341077, 0.1435709745, 0.1403996497, 0.1546785682, 0.1441983730, -0.1504172236, 0.1023330539, 0.1112920791, 0.0104511976, 0.0442840904, -0.0774730891, 0.0749107301, -0.0265594423, 0.0337715596, -0.0293036401, -0.0980221033, -0.0426924005, -0.1576432735, 0.0645568371, 0.0115309656, 0.0683920830, 0.1121497303, 0.0310535878, -0.0164877027, -0.0606497303, -0.1255699992, -0.0413531289, 0.0016974658, 0.0129017085, -0.0117313266, -0.0631038249, -0.0818663314, -0.1192474142, 0.0588285774, 0.0700346678, 0.0023770779, 0.0156139582, -0.1352416128, 0.0525528044, -0.0463368297, 0.0870617330, -0.0659316108, 0.0276655555, 0.1116754264, 0.1155073792, -0.0963165686, -0.0593768805, 0.1335102171, 0.0328702629, 0.1424938291, -0.0924380049, 0.1393555552, -0.0543326512, 0.1412532181, 0.0464094281, -0.0974217355, 0.0022954643, 0.1183923632, -0.1166825294, 0.0755892098, 0.0437399000, 0.0614599288, -0.1036546826, 0.0457657129, -0.1114586592, 0.1433832794, 0.1340813786, -0.0552751571, 0.0744787157, -0.1404674053, 0.1556100398, -0.0949912444, 0.0158441663, -0.0697662905, -0.0614927188, -0.0542491078, -0.0447011068, 0.0803418159, 0.0058241487, -0.1305552125, -0.1545245349, 0.0178342462, 0.0527224392, 0.0744438469, -0.0816962793, 0.1123980433, -0.1267808080, 0.0069074929, -0.0625197813, 0.0275231600, 0.0361674875, 0.1053083390, 0.0591058731, -0.1185716093, -0.1200585812, 0.1336487085, -0.0032754093, -0.1405648887, 0.0906835347, 0.1453387886, 0.0743109584, 0.1488720924, 0.1340055615, -0.1217966154, -0.0304362625, 0.0635408163, 0.1176989526, -0.1014939100, 0.1125187427, -0.1255480945, 0.0254487246, 0.0670738816, -0.1042350680, -0.0182493329, 0.1319156140, 0.0850469619, -0.0768654123, 0.0914317220, -0.0895614028, -0.0332490429, -0.0524489880, 0.0070867091, 0.1018968374, 0.0099408478, 0.0194640160, -0.1427616179, 0.0144460946, -0.0515502095, -0.0500760972, 0.0098171979, 0.0143296123, -0.0641914681, -0.0111327320, -0.1135111302, -0.1534751505, -0.0991796777, -0.0491493046, 0.0370531976, -0.1016098335, 0.1571944505, 0.0224602669, 0.0561048687, -0.0306696147, 0.0664206594, -0.0851135403, 0.0160992742, -0.1351569146, -0.0841541812, -0.0876490176, -0.0430297554, 0.0644499958, 0.0314332396, 0.0372138172, 0.1397648305, -0.0376923084, -0.0645558909, -0.0647984296, -0.1460416615, -0.0406268537, 0.0768568963, -0.1011368483, -0.1574936509, 0.1499168724, -0.1097816229, -0.1485816389, 0.1479990631, 0.1272708923, -0.0495598316, -0.1575746238, 0.1140015870, 0.0861189663, 0.0119744241, -0.1076109037, -0.0974870324, -0.1227224991, -0.1571530104, -0.0114900917, 0.0326640159, 0.1229160875, -0.0592431352, -0.0326945931, -0.0108262151, 0.0493253917, 0.1328928024, 0.1086633354, -0.0146713704, 0.0676389635, -0.0676465407, -0.1106142849, 0.1047131568, -0.0177839547, 0.1006266028, -0.0188611150, 0.1509320289, 0.1163769513, -0.1162098795, 0.0788375735, 0.1390681118, -0.0768700838, 0.1081070453, -0.1162923276, 0.0007823706, 0.0053325146, 0.0478065312, 0.0427228957, -0.1083015949, -0.0987181067, -0.1474254131, 0.1556762904, -0.0025248080, 0.1494111866, -0.0127687901, 0.1047679931, -0.1180876940, 0.0050610453, 0.1213460118, 0.1252907664, -0.1046126485, -0.1058729067, -0.0199284405, -0.0000186563, -0.1257970184, 0.1293035895, -0.0147336423, 0.1040263027, -0.0145624578, 0.0663851798, 0.1254817992, -0.0906636342, -0.0877753422, 0.1254820079, -0.0497310162, 0.0546280742, -0.0301653296, 0.0340466797, -0.0639638901, -0.1199024767, 0.0130560398, 0.0196142048, 0.0952980965, 0.1575105339, -0.0933540910, -0.0694391951, -0.1555014253, 0.0067578107, 0.1228459626, 0.0849509537, 0.0353872329, -0.1426251531, 0.1388419718, 0.1569289118, 0.1015079767, -0.1300703436, 0.0578418821, 0.0267121792, 0.0631190538, 0.0999205858, 0.0012378693, -0.0103091151, -0.1181570590, -0.1340938061, -0.0423815921, 0.0422401428, -0.0562778637, 0.0101478398, -0.1261802912, 0.0408844054, -0.1346151680, 0.0839004815, 0.1299970299, 0.0892643034, -0.1009763628, -0.0999675542, -0.0036735684, 0.0932516903, 0.0463529229, 0.0056751817, -0.0052772015, -0.0292172432, -0.0755417794, 0.0106852949, 0.0335598588, 0.1510638446, -0.0404791236, 0.0123672038, -0.0705272853, -0.1153516248, 0.0249091983, -0.0528520867, 0.0496701300, 0.0973271281, 0.0307978541, 0.0129926354, 0.1098340601, 0.0196784735, 0.1417490989, 0.0194406360, 0.1475433260, -0.0814933926, -0.1160894781, 0.1075892895, 0.0830749422, -0.0953282192, -0.1356536448, 0.1092219204, 0.1198199540, -0.0822675824, 0.0634354502, -0.1529280543, 0.0716769099, -0.1125381291, 0.1121534258, -0.0578628480, 0.0087459981, 0.0539739132, 0.0344376415, -0.0026086569, -0.0260464549, 0.0538215041, -0.1535329521, -0.0881444365, 0.1366450638, -0.1243647039, -0.0293260366, -0.0302090645, -0.0141230226, -0.0106160492, -0.0804804265, -0.0535089597, 0.0098994970, 0.0586015284, -0.0446464792, -0.0858251154, -0.1523824632, -0.0584431589, 0.0081364661, 0.0183471590, 0.0849291980, 0.0366502106, -0.0709836930, -0.0882349461, 0.0828079730, 0.0300115198, 0.0171099305, -0.1080472842, 0.0434557050, 0.0818788409, -0.0622969121, -0.0510628968, 0.0985324830, 0.1439885944, -0.1425748020, 0.0580579638, -0.1300311685, 0.0671046823