-0.2320128530, 0.1855484247, 0.0167003572, -0.0926038325, -0.0553560555, 0.1078574061, -0.1574402303, 0.2005304098, -0.1172185391, 0.0838057995, 0.0341901183, 0.2694388628, -0.1568307132, 0.2320783734, 0.0326502025, -0.0743347406, -0.2438483089, 0.0864048004, -0.0830663294, 0.1253904402, -0.0368247926, -0.1391965449, -0.1909703016, -0.0088528097, 0.2575675845, -0.0042135119, -0.1542430222, -0.1694908738, -0.2850593030, 0.0600683689, 0.1723352373, -0.0792215019, -0.1260848343, 0.0575034320, -0.1541038454, 0.1168830097, 0.1533861458, -0.2665302157, 0.0351935923, -0.1739477217, 0.0525606871, -0.0427117348, -0.2132181525, -0.1415827125, -0.1048731059, -0.0711638629, -0.2287634313, -0.0718058199, -0.0961488634, 0.0851141810, -0.1648614109, -0.0444618016, -0.2663189769, 0.1684737206, 0.2451586723, -0.0491528958, -0.2050218284, 0.0296590626, -0.0685690492, 0.0886396468, 0.1826056540, 0.2483904362, -0.2743323743, -0.2619920969, -0.2250328064, -0.0593864024, -0.2771536112, -0.2258547992, -0.2919933498, -0.0996319652, 0.0883039832, 0.1231731176, -0.1910412908, -0.2618670762, -0.0372904241, 0.1797871292, -0.0888078660, 0.0558620393, 0.2832709551, 0.0298255384, -0.2108526528, -0.1355006099, 0.0511423349, 0.0696502626, -0.1862121820, -0.0240564942, 0.2431202531, 0.0613872111, -0.0286279023, 0.0902737677, -0.1254774928, 0.0197201967, 0.1760077775, -0.0243320763, -0.0909692794, 0.0718574226, -0.1938035488, 0.1402599812, -0.1331706941, 0.1298234761