-0.1926500201, 0.1349012554, 0.0280916393, 0.0597649217, 0.0518340617, 0.1114722490, -0.0971409827, -0.0916439891, 0.1470586061, -0.0351715982, 0.1681906879, -0.0806123316, -0.0919235498, -0.0461010933, 0.1358261406, 0.1665070951, 0.0730100870, -0.1465176195, 0.1247782111, -0.0443996489, 0.0729821026, -0.0964832529, 0.1920977235, 0.1498008370, -0.0731709972, -0.1628692597, 0.1237729788, 0.0917069614, 0.1109325588, 0.0356328338, -0.0681814104, 0.0594931245, 0.1894415617, 0.0567517281, -0.0838005245, -0.0698825717, -0.1343465894, -0.1779013276, -0.1602748632, 0.0349170715, 0.1533292830, 0.1296564639, -0.1282576025, -0.1295846999, -0.0907971486, 0.0992573500, 0.1436299980, 0.0627081096, -0.0285419822, -0.1859085709, -0.0403468013, 0.1212474406, -0.0294816643, -0.1151488721, -0.1581284404, 0.1935408711, -0.0828945339, -0.0261199176, 0.0329001993, 0.1142624021, 0.0589195490, -0.0839949921, -0.0399125665, -0.1308498383, 0.1893583238, 0.1592182815, 0.1226913929, 0.0393374413, 0.0287691355, -0.1186924279, 0.0424623340, 0.1176177263, 0.0557355732, 0.0654026866, -0.1856743991, -0.1157605201, 0.0414868593, -0.0465102941, 0.0653985441, -0.1689563543, -0.1457399428, 0.0512257218, -0.0732472688, 0.0989976525, -0.1316610426, 0.1437760890, -0.0478580743, 0.1905589402, 0.1206243932, 0.1121678054, -0.1392039955, -0.0584748089, -0.0054988414, 0.0248609632, 0.1079940200, -0.0777467713, 0.0159125626, 0.1619737148, 0.0510999560, -0.0335028023, -0.0026404858, -0.0509456694, 0.0080178529, 0.0182016641, 0.1501251161, 0.0665404797, -0.1099138856, -0.0777321309, -0.1617811322, -0.1348284632, -0.1643009782, 0.1277857423, 0.0616338849, -0.0888146758, -0.0378615856, -0.0522843003, -0.0430279523, -0.0035945326, -0.0785279125, -0.0362953693, -0.1868908256, -0.1333880574, 0.1138079166, 0.0775126517, 0.1022837758, -0.1933746487, 0.0276186317, -0.1518912911, -0.1297796816, 0.0469748527, 0.1608823538, 0.1643227637, -0.1080742180, 0.1171498597, 0.1767691076, 0.1714096963, 0.1910904050, 0.0907722712, 0.0074226856, 0.0759827793, -0.1575652659, 0.0591631532, -0.1651191115, -0.1445012093, 0.0471836776, 0.1253475547, 0.1490278542, 0.1397337317, -0.1659602672, 0.1072693467, 0.0283168554, -0.1372121871, 0.1669946015, 0.1698083282, 0.0016802549, 0.1434538066, 0.1373988092, -0.0336218774, 0.0755546391, -0.1341140270, -0.0708726272, -0.0560269952, -0.1639545262, -0.0702733472, 0.0543770790, 0.1631185412, 0.1598894000, -0.1932198852, 0.1488118470, 0.1564136446, -0.0337514281, 0.1910157502, -0.1482892931, -0.0290780514, 0.0339489877, 0.1358057857, -0.0598398149, -0.0168871582, 0.1467209160, 0.1424744725, 0.0489065349, -0.1642026454, 0.1152978539, 0.0535154194, 0.0968444049, 0.0031301528, -0.1032900810, -0.1463748217, -0.1084795818, 0.1518591642, -0.1265204847, -0.1236056089, -0.1888781041, -0.1008318737, 0.0442048162, 0.1549774706, 0.0173815489, 0.0405678004, 0.1848751009, 0.0446293950, 0.1807100177, 0.1577249467, -0.0573871434, 0.1051146984, 0.1849641800, -0.0907873139, 0.0437035114, -0.1421128213, 0.0211425126, 0.0457859784, -0.0861882716, 0.0849523544, -0.0759862810, 0.0837224424, 0.0357839465, 0.0393048823, 0.1854996383, -0.0045708269, 0.0553521365, -0.0739312693, 0.0017256737, 0.1902577281, -0.1724385917, 0.1083360910, 0.1872320771, -0.0829868764, 0.0831767619, -0.0384933203, -0.0177508146, -0.1748936623, -0.1469423324, 0.1029995680, 0.1920190156, 0.1137407124, -0.0514752269, 0.1593776047, 0.1030337811, 0.1098884344, -0.0187670887, 0.0618252456, -0.1153689623, 0.0225146860, -0.1558267474, -0.0978215262, -0.0305973589, -0.0398199558, 0.0520717800, -0.1189641356, 0.1704456806, 0.1647002995, -0.1112041920, -0.0736880526, 0.1550405324, -0.0547470301, -0.0334943980, -0.1066819280